//Numpy array shape (576,)
//Min -2.495669126511
//Max 2.619169712067
//Number of zeros 0

#ifndef IN_PROJ_BIAS18_H_
#define IN_PROJ_BIAS18_H_

#ifndef __SYNTHESIS__
layers_0_self_attn_in_proj_bias_t in_proj_bias18[576];
#else
layers_0_self_attn_in_proj_bias_t in_proj_bias18[576] = {0.004577910527587, -0.017337184399366, 0.064513348042965, 0.078821644186974, -0.097534775733948, -0.389229536056519, 0.155139073729515, 0.021597383543849, -0.069131731987000, 0.032215148210526, 0.015986550599337, 0.460202276706696, -0.354257345199585, 0.185892194509506, 0.278225809335709, 0.018655356019735, 0.160934612154961, 0.066234447062016, 1.303183674812317, -0.756419777870178, -0.722338378429413, -0.125175818800926, -0.084064275026321, 0.293549776077271, -0.066952049732208, 0.025052931159735, -0.132112592458725, 0.005251765251160, 2.139755487442017, -0.040233604609966, -0.366459846496582, 0.314360618591309, 0.242328688502312, -0.049820605665445, -0.058059338480234, -0.061799030750990, 0.009550184011459, -0.007821206934750, -0.214061349630356, -0.138235062360764, 0.193592771887779, 0.488449990749359, 0.192473426461220, -0.154376685619354, 0.022153439000249, -0.028921451419592, -0.648579657077789, 0.083034396171570, 0.308119297027588, -0.354881793260574, 0.163487195968628, 0.048298429697752, 0.105478540062904, -0.052962213754654, 0.005583665799350, 0.245753839612007, 0.187601193785667, 0.039970856159925, -0.326184034347534, 0.228637546300888, 0.006121204234660, 0.139412328600883, 0.032291613519192, 0.002268363721669, 0.026982853189111, 2.299106121063232, -0.014347966760397, 0.263518750667572, 0.008520841598511, -0.507019937038422, 0.011895932257175, -0.073863901197910, -0.188942030072212, -0.005609383806586, -0.181713744997978, -0.266288369894028, 0.014112037606537, 0.136360257863998, 0.037652440369129, 0.080228798091412, 0.039626240730286, 0.035484515130520, 0.037853218615055, 0.022530183196068, 0.355580836534500, 0.354607433080673, 0.349981337785721, -0.065241336822510, 0.212191849946976, 0.048279173672199, 0.012921717017889, 0.026104982942343, 0.492740303277969, 0.161915034055710, 0.280858814716339, -0.291316807270050, 0.044884379953146, -0.107693493366241, -0.271560072898865, 0.004344585351646, -0.063009984791279, -0.136715888977051, 0.051955711096525, 0.213486745953560, 0.643139898777008, 0.034743718802929, -0.140656843781471, -0.026838872581720, 0.026492474600673, -0.036386296153069, 0.784996628761292, 0.031320352107286, 0.361498385667801, -0.815053343772888, 0.027454860508442, -0.099743090569973, -0.276944756507874, -0.023785602301359, 1.403558015823364, -0.018148481845856, -0.149527654051781, 0.463519185781479, 0.334156513214111, -0.071361519396305, -0.159553319215775, -0.135722354054451, -0.045107770711184, -0.181188747286797, 2.619169712066650, -0.001954348292202, -0.027509527280927, -0.162478521466255, 0.003533586161211, 0.050911758095026, -0.066428638994694, 0.023695971816778, -0.003248434513807, -0.036412503570318, 0.109108388423920, 0.306692600250244, 0.040418766438961, -0.017247799783945, 0.076404064893723, 0.332106560468674, 0.024391064420342, -0.021383544430137, -0.291663557291031, -0.137426003813744, -0.112853534519672, -0.465330630540848, -0.038025103509426, -0.168837666511536, -0.503008067607880, 1.574690937995911, -0.082355998456478, 0.420131057500839, 0.203323185443878, 0.132235899567604, 0.157161504030228, -0.106214419007301, 0.094391174614429, -0.263550341129303, 0.030604586005211, 0.007257348392159, -0.055005509406328, -0.434289425611496, 0.647560179233551, -0.297414481639862, 0.008390188217163, 0.004775732290000, 0.065231665968895, -0.041346400976181, -0.007313817273825, 0.009821826592088, -0.224884316325188, -0.116241775453091, -0.182302519679070, -0.049522727727890, -0.139115095138550, -0.154987186193466, -0.039947841316462, 0.099523723125458, -0.385563135147095, -0.167351409792900, 0.125409901142120, -0.227215915918350, 0.027709478512406, -0.108506858348846, 0.059041969478130, 0.050640936940908, 0.410415560007095, -0.038121368736029, -0.078977011144161, 0.684022009372711, 0.076667286455631, 0.024631662294269, -0.164544314146042, -0.122448414564133, 0.034043740481138, 0.035074915736914, 2.272408485412598, 0.630735993385315, 0.161258146166801, -0.098866365849972, 0.046403184533119, -0.500037372112274, -0.037988279014826, 0.024660142138600, -0.088315583765507, -0.139390692114830, -0.461640328168869, -0.299757480621338, -0.422912180423737, -0.002323971129954, 0.129125535488129, -0.088188596069813, 0.041376974433661, 0.028010323643684, -0.369430392980576, 0.181979343295097, -0.083399154245853, 0.022320780903101, 0.011728978715837, -0.136077791452408, 0.167090103030205, 0.010264517739415, -0.055388446897268, -0.068009234964848, -0.174693703651428, -0.495922535657883, 0.001637837733142, -0.021597873419523, -0.058445483446121, 0.022029202431440, 0.025524847209454, -1.492975950241089, 0.334826290607452, -0.160293653607368, -0.567489981651306, 0.695335209369659, 0.015229138545692, -0.211327150464058, 0.044926278293133, -0.029320832341909, -1.783038854598999, 1.977214574813843, 0.122657418251038, -0.146295249462128, -0.056236661970615, 0.039256315678358, 0.074376478791237, -0.175386324524879, -0.030303940176964, 0.333524018526077, 0.223870038986206, 0.131451159715652, -0.290114849805832, -0.037761822342873, 0.049487836658955, 0.020091380923986, 0.141130641102791, -1.616715192794800, 0.080382868647575, -2.431416034698486, -0.146903321146965, -0.125685855746269, 0.321698129177094, 0.205783709883690, 0.085160948336124, 0.141448751091957, 0.206020191311836, 0.015179655514657, -0.075591929256916, 0.058511938899755, 0.228726714849472, -0.324253678321838, 0.057553205639124, -0.396680444478989, -0.048664040863514, 0.074939534068108, -0.031632531434298, 0.020583741366863, 0.402378976345062, 0.016835417598486, -0.158260866999626, 0.022305561229587, 0.219138249754906, 0.095931440591812, -0.044147815555334, -0.019249780103564, 0.135491281747818, -0.220992848277092, 0.141134381294250, -0.627824246883392, -0.010264893062413, 0.068156503140926, -0.045478262007236, -0.038768898695707, 0.620810210704803, 1.012805938720703, 0.157360687851906, 0.050728529691696, -0.006887814961374, -0.125804334878922, -0.027745524421334, -0.008793119341135, 0.072902254760265, -0.032421421259642, 1.186421036720276, 0.019234726205468, 0.133137151598930, -0.187414690852165, -0.056407991796732, -0.220572561025620, -0.027562750503421, -0.007750798948109, -0.558261573314667, 0.161581203341484, -0.180029645562172, -0.097482040524483, 0.086937680840492, 0.074580796062946, 0.107913225889206, 0.090321764349937, -2.016573190689087, 0.888715922832489, -0.450014948844910, -0.319023668766022, 0.357610076665878, -0.001213617855683, -0.178072392940521, -0.176087662577629, 0.103437080979347, 0.214391410350800, -0.193230479955673, -1.139426827430725, -0.111187435686588, -0.047640074044466, 0.262601494789124, -0.057282883673906, -0.021229624748230, -0.111904591321945, -0.042627640068531, -0.024757869541645, 1.821816325187683, -0.095691442489624, -0.128605291247368, -0.318684488534927, -0.029225591570139, 0.168852791190147, 0.049158245325089, -0.036635126918554, 0.126451611518860, 0.099980846047401, 0.052344650030136, -0.158648937940598, -0.004749970976263, 0.023643890395761, 0.127553313970566, -0.164621144533157, -0.002648241119459, 0.020967887714505, -0.592566847801208, 0.076494015753269, 0.187609151005745, -0.036458797752857, -0.000738732866012, 0.043628577142954, 0.080338396131992, -0.046317290514708, -0.015957500785589, -0.046176817268133, -0.315663933753967, 0.050025351345539, 0.166530698537827, 0.042636126279831, -0.128132075071335, 0.184106796979904, 0.004733043722808, 0.232549935579300, 0.112995401024818, 0.142427369952202, -0.532341301441193, 0.208289682865143, -0.357158571481705, 0.151434615254402, -0.091970548033714, 0.061964195221663, 0.167634949088097, 0.309911489486694, 0.325488924980164, -0.331411033868790, -0.309829860925674, -0.120432190597057, -0.123773582279682, 0.013539118692279, 0.016410624608397, -0.024733867496252, -0.542793571949005, -0.173272669315338, -0.669801235198975, 0.499064654111862, -0.041085503995419, 0.106385141611099, -0.019138338044286, -0.006810052320361, 0.139876201748848, 1.499987363815308, -0.286800920963287, 0.417418897151947, -0.316200673580170, -0.050489515066147, -0.078240245580673, -0.015999335795641, 0.921602010726929, 0.019744709134102, -0.124822482466698, 0.295938313007355, 0.305287033319473, 0.169742807745934, -0.094168469309807, 0.206083372235298, -0.055334150791168, 0.054516278207302, 1.167137622833252, 0.162748381495476, 0.122801423072815, 0.501709759235382, 0.060272466391325, -0.014108001254499, 0.024494782090187, -0.288658499717712, -0.007866180501878, 0.019185073673725, 0.081746689975262, -0.041518229991198, 0.132542073726654, 0.513810634613037, -0.000107119689346, -0.080989897251129, 0.016090743243694, 0.226122871041298, -0.725160419940948, 0.006915249396116, -0.175479456782341, 0.017366975545883, -0.149630621075630, -0.029342085123062, 0.067965045571327, -0.189548641443253, 0.027788871899247, -0.834021091461182, -0.051366545259953, -0.136414632201195, 0.301726639270782, -0.362614154815674, 0.100744314491749, 0.018514290452003, 0.278342336416245, -0.016272377222776, 0.015878016129136, -0.396505653858185, 0.094773970544338, -0.177194565534592, 0.478143960237503, 0.082004949450493, -0.151953950524330, -0.037316277623177, -0.018839837983251, 0.017214046791196, -1.966456174850464, 0.149154901504517, 0.202156126499176, 0.335620164871216, 0.174839973449707, 0.013354049064219, 0.026849702000618, 0.023280199617147, -0.024486472830176, 0.374938756227493, -0.299765169620514, -0.349082946777344, -0.007082943338901, -0.021087115630507, 0.088828742504120, -0.139138743281364, 0.009607789106667, -1.255705237388611, 0.393648505210876, -0.129194974899292, 0.021473336964846, -0.094882763922215, 0.028926512226462, 0.034953854978085, 0.000933901872486, 0.017203958705068, -0.027646727859974, -0.296393245458603, -0.191605016589165, -0.080346375703812, -0.049704015254974, 0.016382034868002, -0.215386480093002, -0.009204925037920, 0.032372958958149, -0.004411660134792, 0.158680319786072, 0.020719781517982, 0.142814382910728, 0.404688686132431, 0.301268339157104, 0.033989619463682, -0.197614863514900, 0.168314695358276, -0.865061819553375, 0.093201905488968, -0.194035843014717, -0.395601898431778, -0.211664199829102, 0.008994469419122, 0.112697467207909, -0.271956533193588, 0.019665328785777, -0.068427652120590, -0.607097983360291, 0.377270162105560, -0.011440571397543, -0.309677153825760, 0.067086100578308, 0.002540367655456, 0.039459586143494, -0.001752207288519, -0.057157892733812, -0.081221759319305, 0.102018713951111, -0.229135841131210, 0.317924946546555, 0.004150459077209, 0.215282857418060, -0.316579461097717, 0.040881413966417, 0.011874785646796, -0.018155349418521, -0.241679117083549, -0.099765092134476, -0.302561432123184, 0.229430258274078, -0.040462188422680, 0.051398761570454, -0.011255438439548, 0.250442534685135, -0.207531392574310, 0.218950614333153, 0.070776507258415, 0.231483906507492, -0.017807293683290, 0.137580513954163, 0.023559212684631, 1.420642137527466, -0.019844854250550, -0.109397619962692, -0.017761219292879, -0.373280823230743, -0.344382077455521, 0.133412197232246, -0.104365251958370, -0.061140641570091, 0.023440934717655, -0.505700170993805, -2.495669126510620, 0.047558013349771, -0.336110085248947, 0.285853862762451, 0.000275107566267, -0.139295995235443, 0.118773393332958};
#endif

#endif
