//Numpy array shape (576,)
//Min -1.665127038956
//Max 2.513629674911
//Number of zeros 0

#ifndef IN_PROJ_BIAS30_H_
#define IN_PROJ_BIAS30_H_

#ifndef __SYNTHESIS__
layers_2_self_attn_in_proj_bias_t in_proj_bias30[576];
#else
layers_2_self_attn_in_proj_bias_t in_proj_bias30[576] = {0.118435926735401, 0.032276213169098, 0.101637966930866, -0.184354275465012, -0.013279617764056, 0.245621308684349, -0.024600910022855, -0.030739504843950, 0.079239934682846, -1.162051320075989, 0.290328145027161, 0.106257677078247, -0.027691142633557, -0.273666709661484, -0.108040712773800, 0.046431016176939, -0.042090091854334, -0.051460120826960, -0.168570026755333, -0.219529494643211, -1.603253006935120, 0.605149924755096, 0.523094832897186, 0.279485672712326, -0.032218508422375, -0.017208056524396, -0.011459947563708, 0.639196395874023, -0.303090304136276, -0.544897258281708, -0.536119639873505, 0.413178294897079, -0.358888328075409, 0.004326331894845, -0.055881641805172, -0.045203913003206, -0.449665576219559, 0.059084396809340, 0.055132266134024, -0.006379391066730, 0.308285593986511, 0.195027217268944, 0.016619699075818, 0.001836483017541, -0.110979616641998, -0.107988931238651, -0.108440145850182, 0.144746065139771, -0.056557096540928, -0.515076518058777, 0.285478174686432, -0.061264567077160, -0.022982489317656, -0.011398675851524, -1.208497762680054, 0.530391275882721, 0.013098335824907, 0.038848374038935, 0.037022896111012, 0.459322690963745, 0.057645719498396, -0.011355794966221, 0.040308270603418, -1.127813220024109, -0.142105132341385, -0.117995925247669, 0.507704377174377, -0.172847419977188, 0.545944988727570, 0.004269883502275, -0.042498819530010, -0.020415423437953, 0.351029485464096, 0.348616272211075, -0.113156564533710, -0.400773704051971, -0.104353129863739, -0.109826922416687, -0.033681083470583, -0.007609774824232, 0.076563037931919, -0.629846036434174, -0.443016946315765, -1.209298253059387, -0.230740994215012, 0.266438007354736, -0.178684413433075, 0.018855322152376, -0.021770698949695, -0.144045487046242, 0.076300360262394, -0.230501249432564, -0.177456110715866, -0.408250331878662, 0.681641578674316, 0.068160377442837, -0.018117671832442, -0.026424242183566, 0.074086010456085, -0.092834152281284, 0.075070336461067, 0.721905648708344, 0.268053770065308, -0.508402466773987, 0.278416663408279, -0.068937815725803, 0.054346948862076, 0.024640308693051, -0.038517061620951, -0.155864015221596, 0.373846858739853, -0.046451147645712, -0.292058169841766, 0.310758471488953, -0.003700730623677, 0.028894225135446, -0.000346126937075, 0.015366093255579, -0.020894028246403, 2.513629674911499, 0.240525275468826, 0.482871592044830, 0.548502385616302, 0.018793931230903, -0.033408299088478, -0.017068982124329, -1.379801392555237, 1.632936477661133, 0.965662002563477, 0.480301529169083, -0.321531355381012, 0.038688667118549, -0.028857503086329, 0.077953137457371, 0.011013288982213, -0.111641786992550, 1.827321648597717, -0.371120750904083, -0.227933406829834, 0.364653468132019, 0.180108740925789, 0.039193775504827, -0.009577491320670, 0.002484684344381, 0.303161591291428, 0.014113967306912, 0.203798145055771, 0.062723129987717, 0.524648070335388, -0.168513730168343, 0.023315152153373, 0.024943187832832, 0.013744515366852, 0.461909383535385, 0.395985156297684, 0.934616982936859, -0.248595178127289, -0.791587352752686, 0.368379265069962, -0.039382301270962, -0.025129228830338, -0.041285175830126, 0.380187988281250, 0.031031616032124, -0.048547443002462, -0.378823190927505, 0.223046481609344, -0.022267282009125, 0.027930492535233, -0.021738590672612, 0.001970379380509, 1.692812681198120, -0.146228134632111, -0.019855240359902, -0.206193447113037, 0.004661940969527, -0.214134901762009, 0.004200039431453, 0.047359526157379, -0.036598052829504, -0.114565297961235, 0.742505908012390, 0.008644131012261, -0.254283815622330, -0.615529596805573, -0.336909562349319, -0.011723857372999, -0.010481382720172, -0.022258553653955, -0.620466113090515, 0.429326295852661, -0.000169429709786, 0.061403058469296, -0.033803157508373, -0.053462017327547, 0.030731547623873, 0.029189426451921, -0.004548629280180, 0.584200799465179, -0.210574030876160, -0.064383231103420, -0.989990293979645, 0.126224189996719, -0.491401553153992, 0.000708364997990, -0.078432828187943, 0.003363862866536, 0.106165684759617, 0.977917432785034, 0.078439071774483, -0.627110123634338, 0.105074286460876, 0.155492037534714, -0.000556650920771, 0.034381631761789, 0.000928123132326, 0.797389507293701, 0.693253815174103, 0.174354091286659, 0.127878531813622, 0.070094734430313, 0.555136263370514, 0.022655699402094, 0.061420485377312, 0.013022328726947, -0.611968815326691, 0.454887509346008, 0.072726637125015, 0.333186060190201, -0.827203631401062, 0.216778308153152, -0.014212318696082, -0.008024112321436, -0.026500687003136, 0.221283465623856, -0.009531450457871, 0.025159168988466, 0.514962673187256, -0.072656333446503, 0.360448956489563, 0.020722294226289, -0.082299537956715, 0.055711869150400, 2.280234336853027, -0.132117435336113, -1.665127038955688, -0.056875485926867, 0.058662928640842, -0.802477836608887, -0.003607346909121, -0.029271261766553, -0.039649024605751, -0.081188611686230, 0.850909292697906, -0.047925874590874, 0.148566722869873, -0.165258675813675, 0.020487383008003, -0.060403700917959, 0.077360190451145, 0.029705202206969, -0.190029084682465, 0.432251185178757, -0.081773340702057, -0.205554246902466, 0.149603232741356, 0.080237157642841, 0.012486405670643, -0.015835942700505, 0.040404908359051, 0.197604909539223, -0.208962619304657, -0.009673024527729, -0.550665795803070, -0.199030548334122, 0.692724525928497, 0.004979534074664, 0.036709129810333, -0.052360799163580, 0.615363657474518, -0.711158096790314, 0.012278230860829, 0.060193113982677, -0.038166169077158, -0.300486832857132, 0.082036904990673, 0.003297861432657, -0.027490999549627, -0.041750539094210, 0.253745466470718, -0.017910173162818, 0.159269064664841, 0.287766307592392, 0.723972797393799, -0.023248301818967, 0.036740083247423, -0.001399739179760, -0.040696211159229, 0.266427814960480, 0.008426503278315, 0.148999541997910, -0.400978475809097, 0.019392538815737, 0.001903564785607, 0.039228945970535, 0.011382640339434, 1.637430429458618, 0.150472700595856, 0.003021482145414, 0.119352124631405, 0.239331722259521, 0.148995727300644, 0.094888038933277, -0.042767908424139, 0.004050808958709, 1.811645627021790, -0.216541215777397, 0.061909485608339, -0.593852877616882, -0.008616644889116, -0.013683646917343, 0.013583801686764, 0.024038849398494, 0.074189618229866, -0.343814194202423, 0.406245410442352, -0.070826433598995, 0.271998584270477, -0.155688211321831, -0.110449984669685, -0.083801671862602, 0.102090314030647, 0.072993956506252, 0.387255460023880, 0.958528339862823, -0.008670506067574, 0.313125938177109, 0.084277771413326, -0.663984179496765, 0.016905682161450, 0.019444558769464, 0.036028794944286, 0.933009028434753, 0.303112775087357, -0.085098236799240, -0.069772094488144, -0.049584373831749, -0.650890290737152, 0.094908766448498, -0.031163958832622, -0.008086070418358, 0.946564614772797, 0.137503579258919, 0.727071583271027, 0.063323162496090, 0.389756858348846, 0.196507304906845, -0.042040284723043, 0.028990406543016, 0.005698413122445, 0.651084721088409, -0.439652144908905, 0.094722397625446, -0.112497903406620, 0.320591628551483, 0.287833124399185, -0.006485727149993, -0.016709554940462, 0.038665495812893, 1.240529179573059, 0.173070073127747, 0.025680387392640, -0.237689003348351, -1.100631952285767, 0.301966160535812, -0.049637112766504, 0.005982783157378, 0.016455277800560, -0.923858046531677, -0.093300297856331, -0.052598815411329, -0.316846221685410, 0.223812952637672, -0.870954275131226, 0.028551852330565, -0.015262368135154, -0.013849646784365, 0.106129124760628, 0.326519310474396, -0.002624114044011, -0.214539974927902, -0.549195230007172, -0.391693711280823, 0.036758031696081, -0.018190464004874, 0.001381149748340, 0.525759756565094, -0.180974483489990, 0.049956630915403, -0.408638089895248, 0.480748504400253, -0.065029285848141, -0.057926937937737, 0.087926246225834, 0.032916806638241, -0.727937102317810, -0.277490824460983, 0.025558788329363, 0.237558439373970, 0.434748023748398, -0.152183681726456, -0.060562644153833, -0.074281752109528, 0.012461695820093, -0.255202740430832, 0.249170586466789, 1.707135677337646, 0.182576760649681, -0.478718191385269, 0.587048590183258, -0.022853672504425, -0.038124553859234, -0.006121380720288, -0.496311157941818, 0.052334547042847, -0.496085017919540, 0.249951273202896, -0.220363214612007, 0.006323816254735, -0.022706838324666, -0.067939542233944, -0.054160583764315, -0.643871903419495, -0.080249175429344, 0.087282910943031, 0.244283199310303, 0.025557713583112, -0.077566646039486, 0.002093371702358, -0.027749320492148, 0.016647890210152, -0.017698025330901, -0.814257085323334, 0.006962785031646, 0.051538996398449, 0.080317713320255, -0.159242063760757, 0.028933068737388, 0.020894600078464, 0.029163291677833, -0.079915463924408, -0.246463596820831, -0.044731292873621, 0.042668137699366, 0.289992034435272, 0.361075103282928, 0.093228414654732, 0.039732530713081, 0.034156888723373, -0.209410130977631, -0.145144343376160, 0.506690204143524, -0.021784529089928, -0.075285233557224, 0.612577736377716, -0.050843782722950, -0.018571704626083, -0.006723561789840, 0.236834004521370, -0.196973845362663, 0.074093110859394, -0.677948772907257, 0.319201886653900, 0.533576786518097, 0.039506286382675, -0.024725938215852, -0.011850671842694, 0.475428402423859, 0.246995911002159, -0.089271537959576, -0.287792623043060, 0.074200734496117, -0.364288508892059, 0.039874345064163, -0.058321572840214, -0.029119934886694, 0.528886973857880, 1.191225051879883, -0.197960332036018, -0.571900784969330, -0.225174158811569, 0.211711823940277, -0.000973611429799, 0.073989227414131, -0.063437774777412, -0.119714044034481, 0.203963905572891, -0.072519712150097, -0.423415929079056, -0.447317719459534, 0.210323303937912, 0.024099057540298, -0.024889588356018, 0.010553876869380, -1.135138988494873, -0.304472178220749, 0.722108125686646, 0.011613260954618, 0.190960064530373, 0.715128958225250, 0.015337021090090, -0.034819710999727, -0.027387155219913, 1.004620909690857, 0.137146010994911, -0.052101515233517, 0.135799005627632, -0.444846361875534, -0.235838785767555, -0.027614135295153, 0.063410691916943, 0.003046663245186, -0.519927561283112, -0.664269328117371, 0.504102408885956, -0.282616347074509, 0.488989323377609, 0.126025572419167, -0.065105468034744, -0.051301483064890, -0.080956824123859, -0.298738420009613, 0.144884735345840, -0.116018421947956, 0.133520618081093, -0.008784180507064, 0.140389055013657, 0.004513469524682, -0.024865876883268, -0.036892261356115, 0.154795050621033, -0.220340833067894, -0.359272837638855, -0.413752079010010, -0.089261233806610, -0.418767035007477, 0.025496866554022, -0.001723925699480, -0.036973737180233, 0.145634576678276, 0.093959294259548, 0.017877772450447, -0.076170727610588, -0.354002863168716, 0.184582322835922, -0.040680650621653, -0.057208720594645, -0.019954454153776, -1.319462299346924, -0.045201107859612, -0.097610332071781, 0.108764313161373, 0.277061074972153, 0.118295572698116, -0.066928066313267, -0.053026262670755, -0.036347676068544, 0.507342278957367, 1.859543442726135, 0.730295062065125, 0.044752702116966, 0.221831366419792, 0.231939315795898, 0.084132060408592, 0.039506502449512, -0.035050850361586};
#endif

#endif
