//Numpy array shape (576,)
//Min -1.751448035240
//Max 2.568163633347
//Number of zeros 0

#ifndef IN_PROJ_BIAS60_H_
#define IN_PROJ_BIAS60_H_

#ifndef __SYNTHESIS__
layers_7_self_attn_in_proj_bias_t in_proj_bias60[576];
#else
layers_7_self_attn_in_proj_bias_t in_proj_bias60[576] = {-0.291302174329758, -0.001686961739324, 0.018084418028593, -0.038146354258060, 0.685742199420929, -0.124120809137821, -0.087859399616718, -0.094977475702763, 0.041602391749620, 0.054431464523077, 0.211229756474495, 0.163419082760811, -0.258149117231369, -0.129979074001312, 0.309093177318573, -0.009839138947427, -0.062082245945930, -0.102316096425056, -0.081596046686172, -0.152782320976257, -0.084709256887436, -0.049327965825796, -0.004580739885569, 0.407176524400711, -0.026643166318536, 0.103064261376858, -0.038905180990696, -0.179339081048965, 0.707996249198914, 0.274977624416351, 0.197960421442986, 0.223897397518158, 0.022303322330117, 0.057407889515162, 0.059124331921339, -0.088435918092728, 0.197202309966087, 0.010144396685064, -0.085396334528923, -0.187232375144958, 0.544485330581665, 0.592089593410492, 0.081197343766689, 0.115746982395649, -0.064261563122272, 0.054049991071224, 0.915240883827209, 0.100537657737732, -0.305875658988953, 0.094275176525116, -0.415554791688919, 0.036098744720221, -0.051629461348057, -0.028937995433807, -0.716183602809906, -0.084192104637623, 0.394718497991562, -0.023497251793742, 0.077087610960007, 0.061229836195707, 0.001119542634115, 0.029897287487984, -0.056889805942774, 0.023837428539991, -0.217527478933334, 0.096369817852974, -0.433565974235535, -0.087716393172741, -0.080880425870419, 0.105237200856209, -0.016878277063370, -0.119876578450203, -0.009828198701143, 0.311895817518234, 0.049581676721573, 0.198881849646568, 0.043594010174274, -0.121832177042961, 0.037238258868456, -0.014848108403385, -0.103582508862019, -0.022770851850510, 0.048959154635668, -0.067162275314331, -0.504084587097168, 0.039720136672258, -0.011469859629869, 0.019745144993067, -0.156418055295944, -0.007347240578383, 0.237874343991280, -0.130385503172874, -0.409239649772644, 0.260877579450607, -0.105029262602329, -0.572943150997162, 0.088732540607452, 0.051926247775555, 0.007952658459544, 0.137752905488014, 0.322397947311401, -0.782777428627014, -0.469411909580231, -0.192539498209953, 0.340399056673050, -0.099252253770828, 0.010910872370005, -0.102496795356274, 0.066884241998196, -0.323269486427307, -0.097058907151222, -0.105184815824032, 0.244910374283791, 0.338624864816666, 0.017969490960240, 0.123630806803703, 0.068068280816078, 1.183512210845947, -0.169842407107353, -0.277751952409744, 0.374082565307617, 0.487254321575165, -0.231580018997192, -0.043404053896666, -0.049446176737547, -0.005885128397495, 0.011618532240391, -0.147083431482315, 0.010071538388729, -0.010253677144647, -0.104690529406071, -0.098706603050232, -0.035857837647200, 0.097953818738461, 0.085476532578468, -0.419555097818375, 0.007615261245519, 0.203270956873894, 0.082218602299690, 0.813268661499023, -0.496415823698044, -0.105722822248936, 0.102571144700050, -0.014637994579971, 0.094768412411213, -0.451692551374435, 0.080124124884605, -0.179832190275192, 0.102907106280327, -0.049005255103111, 0.031074617058039, -0.046661257743835, 0.089854314923286, -0.170745655894279, 0.099251993000507, 0.720443904399872, -0.318627655506134, 0.000308087735903, 0.490390688180923, 0.018172893673182, 0.020557833835483, -0.007301322650164, -0.021348010748625, -0.221137672662735, -0.101142056286335, -0.122614175081253, 0.431317061185837, 0.293998301029205, 0.109888464212418, -0.262050688266754, -0.058802198618650, 0.066531971096992, 1.780239343643188, 0.570251405239105, 0.072765506803989, -0.479526311159134, -0.426406443119049, 0.013858628459275, 0.219805598258972, -0.008558918721974, -0.991184830665588, 0.027218436822295, 2.143777608871460, 0.100571542978287, 0.249098047614098, -0.380634039640427, 0.004641458857805, 0.085451960563660, 0.038805373013020, -1.323648214340210, 0.256657212972641, 0.557717859745026, -0.443061083555222, -0.647003591060638, 0.126282349228859, 0.004270177334547, 0.063846200704575, -0.006050466559827, -0.052214030176401, -0.012589148245752, 0.149111926555634, 0.513116717338562, -0.158297374844551, 0.047440357506275, -0.030419655144215, 0.005000645294785, -0.075494848191738, -0.062125451862812, 0.062960185110569, -0.271245986223221, -0.127361714839935, 0.352018147706985, -0.407760858535767, -0.041198730468750, 0.034807302057743, 0.062111254781485, -0.057605568319559, -0.058267738670111, 0.756927788257599, -0.157550290226936, -0.289390861988068, 0.237293750047684, -0.032392546534538, 0.010898960754275, -0.168382495641708, -0.305446833372116, 0.368069916963577, 0.625495851039886, -0.032182201743126, 0.088605396449566, -0.006658348720521, 0.082055509090424, -0.019390469416976, -0.102367237210274, -0.195123791694641, 2.568163633346558, 0.044547703117132, -0.912284135818481, -0.334428340196609, -0.524528622627258, 0.082470908761024, -0.142034381628036, -0.030680289492011, -0.001264195656404, 0.092801079154015, -0.176865026354790, -0.400326579809189, -0.052123006433249, 0.366451025009155, -0.111455708742142, -0.077822878956795, 0.044629678130150, -0.005827412940562, 0.154515102505684, -0.222077846527100, -0.272944301366806, -0.446887224912643, -0.194552794098854, -0.017974598333240, 0.017618728801608, -0.055723570287228, 1.418850660324097, -0.115457102656364, -0.019674308598042, 0.452283650636673, 0.597712516784668, -0.426937907934189, 0.059114880859852, 0.156925141811371, 0.036100380122662, 0.293273240327835, 0.244081452488899, -0.001061045913957, 0.144694864749908, -0.214852839708328, -0.661323904991150, 0.033758901059628, -0.039469476789236, 0.039742719382048, 0.288176745176315, -0.024142708629370, -0.246506452560425, 0.135313108563423, -0.060248188674450, 0.260330051183701, 0.016096824780107, 0.080069750547409, 0.047587133944035, -0.154632851481438, -0.036525778472424, -0.083500050008297, -0.340920776128769, -0.370474010705948, -0.259402304887772, -0.067914187908173, 0.012219835072756, -0.068597741425037, 0.026471514254808, 1.047197461128235, 0.130513280630112, 0.115656964480877, -0.403862297534943, 0.266311079263687, -0.052766177803278, -0.146586328744888, 0.011602509766817, -0.996951699256897, -0.010095203295350, 0.182175531983376, 0.119618274271488, 0.460071474313736, -0.404884338378906, 0.017385458573699, -0.123287089169025, 0.087693482637405, -0.828783512115479, 0.029963318258524, 0.053281240165234, -0.103230185806751, 0.064485587179661, 0.150773197412491, -0.019394343718886, -0.106319658458233, -0.002730911131948, 0.104876749217510, -0.185632318258286, -0.125997692346573, 0.154375776648521, 0.033759832382202, -0.605532586574554, -0.088542647659779, 0.120315819978714, -0.029327189549804, 0.215830862522125, 0.151559904217720, 0.214724183082581, -0.271146059036255, -0.005855295341462, -0.158822000026703, 0.048780929297209, -0.092826791107655, -0.057211030274630, 0.089746773242950, -0.302665650844574, 0.101741671562195, -0.056419588625431, -0.724518239498138, -0.037695895880461, 0.085410282015800, -0.027627490460873, -0.004580277018249, 0.206014156341553, -0.242338016629219, -0.221802949905396, -0.028331024572253, 0.083234645426273, -0.257963359355927, 0.065439946949482, 0.061466209590435, -0.039249815046787, 1.337847828865051, 0.283846110105515, 0.313304543495178, -0.072376780211926, 0.192866429686546, -0.060957212001085, -0.021452790126204, -0.002331628464162, -0.034087687730789, 0.245382130146027, 0.204459294676781, -0.612936437129974, 0.330957114696503, -0.093582510948181, 0.399654477834702, 0.058100435882807, -0.077212154865265, 0.021862110123038, 0.099660731852055, -0.550953924655914, 0.050009459257126, 0.472752809524536, 0.297596633434296, -0.100516490638256, 0.009637877345085, 0.007744239643216, -0.028429580852389, -0.408144682645798, 0.151688084006310, 0.521838963031769, 0.203496620059013, 0.053943529725075, -0.655788183212280, -0.022995263338089, 0.107644431293011, -0.125462919473648, 0.130762696266174, -0.179298117756844, -0.371671438217163, 0.158346727490425, -0.124694794416428, 0.144052162766457, -0.009448945522308, -0.008547690697014, -0.056536626070738, 0.178136289119720, 0.090013965964317, -0.208989366889000, 0.100301034748554, -0.157117441296577, -0.315850257873535, -0.016943540424109, 0.052904255688190, -0.122989557683468, 0.205448165535927, 0.120215162634850, -0.098405003547668, -0.615608572959900, -0.241896718740463, 0.053188335150480, -0.021679416298866, 0.008054401725531, -0.056788593530655, 0.007379550021142, -0.303601533174515, 0.179278627038002, -0.183469772338867, -0.732646167278290, 0.101184315979481, -0.016773220151663, -0.032696455717087, -0.022501893341541, -0.373888641595840, -0.372316211462021, 0.008680894970894, 0.430689066648483, -0.141847282648087, 0.237920135259628, 0.032412115484476, 0.002040377119556, 0.048927340656519, -0.077199310064316, -0.038634866476059, -0.502749800682068, -0.091222882270813, -0.210670307278633, 0.123441040515900, 0.047187112271786, 0.009380242787302, 0.006326717790216, -1.751448035240173, -0.128347963094711, -0.978452861309052, 0.044943220913410, 0.554667174816132, 0.497320830821991, -0.033968321979046, -0.022619646042585, -0.211451396346092, 0.463303178548813, 0.245119452476501, -0.224173143506050, 0.225440829992294, -0.365373700857162, 0.300146669149399, -0.088889800012112, 0.067109026014805, -0.114510141313076, 1.018517255783081, 1.625522375106812, -0.127559110522270, 0.420131415128708, 0.307046711444855, -0.186692789196968, 0.074334137141705, 0.067333474755287, 0.015400324948132, 0.020027883350849, -0.389886736869812, 0.109730616211891, 0.154953151941299, 0.190794497728348, 0.164211541414261, -0.058453496545553, -0.172718271613121, 0.086981169879436, -0.102208748459816, -0.493634849786758, -0.276468276977539, 0.059848453849554, 0.341191589832306, 0.712454259395599, 0.002717030234635, -0.046209700405598, 0.121396295726299, 0.113209895789623, 0.138790622353554, -0.047906819730997, 0.147856071591377, -0.195674225687981, 0.396455883979797, -0.058178234845400, 0.009537379257381, 0.076895780861378, -0.185528844594955, -0.234469324350357, 0.028430394828320, 0.160186007618904, 0.608883500099182, -0.067936286330223, 0.094695203006268, 0.187521472573280, 0.005502675659955, 0.021817371249199, 0.181895524263382, -0.376396596431732, 0.311971575021744, 0.189457148313522, 0.361051142215729, 0.031663026660681, 0.047287054359913, 0.129521265625954, 0.082856647670269, -0.008109043352306, 2.230838060379028, 0.063290417194366, -0.391293346881866, 0.331760555505753, 0.033094566315413, 0.086783774197102, -0.050497408956289, -0.149089604616165, -0.020974488928914, 1.577669501304626, 0.116188757121563, 0.564285099506378, -0.433503627777100, 0.060017369687557, 0.016532633453608, 0.073096156120300, 0.266156345605850, 0.136409506201744, 1.073220252990723, -0.415670841932297, -0.187091767787933, 0.293903112411499, -0.081895515322685, 0.047369439154863, -0.016233438625932, 0.184613794088364, -1.032199025154114, 1.986661553382874, 0.146529793739319, 0.261105477809906, -0.051845457404852, 0.061639357358217, 0.048617705702782, 0.041300185024738, -0.076273970305920, -0.060961715877056, -0.262316077947617, -0.342532157897949, -0.426087439060211, 0.240635603666306, 0.013382717035711, 0.064783655107021, -0.147210389375687, 1.103549003601074, 0.042746115475893, -0.167689844965935, -0.145792886614799, 0.077378496527672, -0.628901839256287, 0.004817137494683, -0.131069138646126, 0.030613359063864};
#endif

#endif
