//Numpy array shape (147456,)
//Min -0.412927627563
//Max 0.423693805933
//Number of zeros 0

#ifndef OUT_PROJ_WEIGHT27_H_
#define OUT_PROJ_WEIGHT27_H_

#ifndef __SYNTHESIS__
layers_1_ffn_out_proj_weight_t out_proj_weight27[147456];
#else
layers_1_ffn_out_proj_weight_t out_proj_weight27[147456] = {-0.0439347, 0.0277647, 0.0306682, 0.0075036, 0.0398933, 0.0020330, -0.0330121, -0.0284915, -0.0624592, 0.0553048, 0.0553283, -0.0089110, 0.0391157, -0.0114152, 0.0015951, 0.0051440, -0.0853195, -0.0863533, 0.0070665, -0.0207677, 0.0280205, 0.0023136, -0.0032380, -0.0009296, 0.0271306, -0.0460949, 0.0634767, 0.0395155, -0.0368791, -0.0048764, -0.0674348, 0.0051200, -0.0789748, 0.0136339, 0.1349368, 0.0484640, 0.0014597, -0.0186031, -0.0272286, -0.0080496, -0.0070648, 0.0604816, -0.0687635, 0.0172516, -0.0525222, -0.0480126, 0.0115602, -0.0157082, 0.0380627, 0.0354039, -0.0117694, 0.0012912, -0.0478407, 0.0000160, -0.0285794, -0.0253717, 0.0680939, -0.0113047, -0.1026078, -0.0342307, 0.0152839, -0.0258667, 0.0861735, -0.0144455, -0.0133422, -0.0040709, -0.0218596, -0.0199999, -0.0296326, -0.0738718, 0.0776962, -0.0232001, -0.0141018, -0.0489764, -0.0201518, 0.0225359, 0.0677270, -0.0275137, 0.0507479, -0.0214270, -0.0465356, 0.0499775, 0.0044997, -0.0021518, 0.0010625, 0.0491254, 0.0104980, 0.0798049, 0.0380690, -0.0124102, 0.0564704, 0.0439807, 0.0035814, -0.0959434, 0.0296204, -0.1126709, 0.0586965, -0.0953844, 0.0088080, 0.0032456, -0.0562634, 0.0471349, 0.0439552, -0.0105658, 0.1212438, -0.0269512, 0.0027243, -0.0576462, -0.0713634, 0.0231848, -0.0099156, -0.0013481, 0.0320569, -0.0444105, -0.0305132, -0.0091566, 0.0118363, 0.0219240, 0.0565373, -0.0409747, -0.0488698, -0.0024786, -0.0070281, 0.0285095, 0.0479275, 0.0049419, 0.0074581, -0.0095931, 0.1272025, 0.0317576, 0.0018791, -0.0245421, 0.0201519, -0.0253528, 0.0305409, -0.0401945, 0.0091493, -0.0791827, -0.0103894, 0.0359567, -0.0260479, 0.0522348, 0.0386898, 0.0080361, -0.0398047, 0.0098274, -0.0032754, -0.0298903, -0.0380187, 0.0073978, -0.0286669, -0.0307038, -0.0074105, 0.0222450, 0.0165807, 0.0134802, -0.0085981, -0.0033195, 0.0162676, -0.0515462, 0.0296392, 0.0094239, 0.0048947, -0.0278996, 0.0657976, 0.0117941, -0.0273537, -0.0762718, 0.0742017, -0.0085467, 0.1092521, -0.0649431, 0.0075352, -0.0284621, 0.0637115, -0.0356566, -0.0004045, -0.0244233, -0.0434689, -0.0338514, 0.0642723, -0.0538531, 0.0215167, 0.0156499, -0.0604023, 0.0192041, -0.0028824, -0.0096694, -0.0786015, -0.0075774, 0.0660442, 0.0183016, 0.0301884, -0.0174994, -0.0518549, 0.0448152, 0.0101001, 0.0103693, 0.0129209, -0.0428158, 0.0996302, -0.0527929, 0.0122357, 0.0509427, 0.0376581, -0.0167891, -0.0391256, 0.0075700, -0.0280186, -0.0602123, -0.0427341, -0.0151116, -0.0341925, 0.0585686, 0.0525855, 0.0011695, -0.0469638, 0.0045659, -0.0498305, 0.0094996, 0.0390296, 0.0017157, 0.0500882, 0.0278876, -0.0741748, -0.0445695, 0.0715760, 0.0512668, -0.0313469, 0.0063869, -0.0111559, -0.0078712, 0.0392496, -0.1048340, -0.0619425, 0.0367739, 0.0432143, -0.0967845, 0.0432009, -0.0279194, -0.0495437, 0.0045948, -0.0643429, 0.0194141, -0.0440091, 0.0147693, -0.0414932, -0.0226359, 0.0477636, 0.0247087, -0.0266080, -0.0208763, -0.0009746, 0.0412252, 0.1495414, 0.0460938, 0.0905972, -0.0276979, 0.0420800, -0.0197734, 0.0519582, 0.0161113, -0.0064067, 0.0299385, 0.0596413, 0.0212458, -0.0590452, 0.0240195, -0.0016397, 0.0193913, 0.0578783, 0.0260969, 0.0578650, -0.0234460, -0.0359436, -0.0326386, 0.0239712, -0.0029897, -0.1412394, 0.0270466, -0.0532290, 0.0192910, -0.0017402, -0.0014245, -0.0060156, -0.0264398, 0.0944159, 0.0339178, 0.0610724, -0.0278705, 0.0104000, -0.0476694, -0.0276295, 0.0589724, -0.0369294, 0.0060253, 0.0530612, 0.1054021, -0.1126020, -0.0167107, 0.0240986, 0.0001854, -0.0278177, -0.0006342, -0.0147092, -0.1182301, 0.0366367, -0.0554336, 0.1251993, -0.0135769, 0.0221013, -0.0270959, 0.0271441, 0.0023205, 0.0148869, 0.0249396, 0.0821106, 0.0239541, 0.0096045, 0.0615776, 0.0135777, 0.1281895, -0.0497540, 0.0639719, 0.0325678, -0.0213569, 0.0286522, -0.0137732, 0.0026789, -0.0081473, 0.0287481, -0.0444605, -0.0580933, -0.0022879, -0.0378283, 0.0082565, 0.0185633, -0.0334711, -0.0315589, 0.0251156, -0.0072798, 0.0099174, 0.0089444, -0.0336001, 0.0310780, -0.0476365, -0.0061598, 0.0217593, -0.0358928, -0.0211411, 0.0168172, 0.0452901, 0.0352898, 0.0878462, 0.0529504, -0.0672773, -0.0389961, 0.0209440, -0.0615469, 0.0255170, -0.0001764, 0.0143209, 0.0572269, 0.0480301, -0.0017082, -0.0252265, -0.0482577, -0.0242058, 0.0056251, -0.0880206, 0.0008653, 0.0133644, 0.0245895, -0.0823662, 0.0493327, -0.0007005, -0.0002499, -0.0395752, -0.0170952, 0.0413661, 0.0064625, -0.0172223, -0.0741791, -0.0289403, 0.0664550, -0.0513558, -0.0042292, 0.0157483, -0.0321457, -0.1025010, -0.0590639, 0.0618676, -0.0116550, -0.0309051, -0.0689013, 0.0176452, -0.0785175, 0.0324019, 0.0173451, -0.0154673, 0.0231296, -0.1142009, 0.0218146, -0.0230321, -0.0235704, 0.0313354, -0.0701657, -0.0090013, -0.0132970, 0.0478194, 0.0395737, -0.0026980, 0.0878590, -0.0423733, 0.0306282, 0.0803235, -0.0257728, -0.0357846, 0.0303835, 0.0731398, 0.0494162, -0.0261092, 0.0101078, -0.0159789, 0.0206579, 0.0563473, 0.0352885, 0.0089897, -0.0646491, 0.0517068, -0.0371140, 0.0026141, -0.0470066, 0.0345203, -0.0234364, -0.0456970, -0.0624644, -0.0177761, 0.0527512, -0.0101300, -0.0735390, 0.1366641, 0.0034817, -0.0647720, -0.0315769, 0.0193982, 0.0041259, 0.0726489, 0.0475935, -0.1128996, 0.0064215, 0.0212932, -0.0510838, 0.0364197, -0.0855040, -0.0183403, -0.0261390, 0.0203849, 0.0662751, -0.0053012, 0.0599131, -0.0168880, 0.0179700, 0.0281639, 0.1666190, 0.0254066, 0.0155154, -0.0185579, -0.0293017, 0.0488884, 0.0019459, -0.0742335, -0.0503261, -0.0496604, 0.0291145, -0.0179354, 0.0877949, -0.0849097, -0.0171310, -0.0017161, 0.0285953, -0.0423791, -0.0329359, -0.0067030, 0.0709967, -0.0260784, 0.0375228, -0.0254973, 0.0793978, 0.0042952, -0.0201209, 0.0272797, 0.0261672, 0.0089693, 0.0317974, -0.0558020, 0.0044078, 0.0094699, -0.0633944, -0.0299626, -0.0587690, -0.0290733, 0.0234233, 0.0494287, -0.0848720, 0.0303192, -0.0306838, -0.0520710, -0.0272275, 0.0375809, 0.0447309, 0.0257729, -0.0104879, 0.0746269, 0.0033040, 0.0025808, -0.0554387, 0.0430074, 0.0089032, -0.0032169, -0.0275126, -0.0094115, 0.0122217, -0.0285231, 0.0375705, 0.0666709, -0.0015723, -0.0125064, 0.0887448, 0.0839459, 0.0610031, 0.0034214, -0.0041288, 0.0515157, 0.0560431, 0.0036681, -0.0315236, 0.0454305, 0.0781111, 0.0614492, 0.0128940, 0.0590363, -0.0332766, 0.0566613, 0.0310486, 0.0140087, 0.0509975, -0.0065080, 0.0275708, -0.0065326, 0.0322320, -0.0414455, 0.0179145, -0.0596981, -0.0609235, -0.0272937, -0.0211094, -0.0332033, -0.0230652, 0.0067998, 0.1204806, -0.0593075, 0.0037965, -0.0395428, 0.0304196, -0.0388183, 0.0291023, -0.0172509, -0.0524878, -0.0782628, 0.0688142, -0.0019054, -0.0414584, 0.0517614, -0.0645792, 0.0241779, -0.0080461, -0.0263613, 0.0002162, 0.0035036, 0.0038401, -0.0097674, -0.0470508, 0.0011773, -0.1271235, 0.0320620, -0.0193511, 0.0046896, -0.0230114, -0.0075612, -0.0015504, 0.0386950, 0.0303143, 0.0392596, -0.0474538, 0.0252008, 0.0078929, -0.0756135, -0.0354688, -0.0626553, 0.0257677, 0.0111567, -0.0033508, -0.0948881, -0.0755661, 0.0377021, 0.0140234, -0.0947607, 0.0338633, -0.0094208, 0.0610624, -0.0415621, -0.0190017, 0.0021648, -0.0234968, 0.0084933, -0.0027220, 0.0279495, 0.0261974, -0.0075286, -0.0443776, -0.0253874, 0.0457005, -0.0100502, -0.0237131, 0.0243642, 0.0189032, -0.0788811, -0.0540264, 0.0212699, 0.0817127, 0.0254623, 0.0446335, -0.0175039, -0.0452418, -0.0110417, 0.0651768, -0.0420300, 0.0180860, -0.0169497, 0.0305260, 0.0467043, -0.0052192, -0.0409796, -0.0455005, 0.0410087, 0.0635156, -0.0552904, -0.0007514, 0.0155105, -0.0179033, -0.0057156, -0.0244171, 0.0123552, 0.0023478, 0.0103753, 0.0989174, 0.0122996, -0.0441241, -0.0051883, -0.0009552, 0.0114272, 0.0179929, -0.0055280, 0.0439086, -0.0121682, -0.0140252, -0.0779604, 0.0442507, -0.0220242, 0.0626767, 0.0074700, 0.0762071, 0.0250174, 0.0488607, -0.0118362, 0.0387613, 0.0518592, -0.0558403, -0.0389813, -0.0023326, 0.0002355, -0.0061313, 0.0035840, -0.0129157, 0.0520691, 0.0208870, 0.0346684, 0.0121779, 0.0276205, -0.0188192, -0.0308383, -0.0421497, -0.0186124, 0.0503518, -0.0041152, -0.0495474, -0.0491041, -0.0834139, -0.1002534, 0.0227301, 0.0236665, 0.0521691, -0.0485253, 0.0255826, -0.0073918, -0.0762670, 0.0159280, 0.0031141, -0.0344415, -0.0013125, 0.0174040, 0.0279032, -0.0479088, -0.0021716, 0.0230965, 0.0139183, -0.0693082, -0.0045998, -0.0622579, 0.0397736, 0.0265909, 0.0367189, 0.0093240, 0.0346920, 0.0254486, -0.0036922, 0.0803376, -0.0131601, 0.0214750, 0.0491233, 0.0682839, -0.0570365, -0.0041043, 0.0153708, -0.0064603, 0.0292856, -0.0408038, 0.0204013, 0.0437986, -0.0468680, -0.0952681, 0.0064198, 0.0158324, 0.0118008, -0.0117585, 0.0448851, -0.0335416, -0.0825142, -0.0228265, -0.0255227, 0.0343908, -0.0436781, -0.0908128, 0.0365475, 0.0067914, 0.0645384, 0.0237030, -0.0632862, -0.0442896, -0.0307640, -0.0986356, -0.0197693, -0.0036712, -0.0261213, 0.0246181, -0.0539265, 0.0531032, -0.0225716, 0.0256695, -0.0280679, -0.0338189, -0.0656680, -0.0563379, -0.0645580, 0.0660209, 0.0146937, 0.0049815, -0.0685448, -0.0119097, 0.0198248, -0.0480587, 0.0141743, -0.0722479, 0.0334470, -0.0289986, -0.0009928, 0.0474282, -0.0145610, 0.0380248, -0.0018723, -0.0169598, -0.0120954, 0.0309705, -0.0767205, -0.0528891, 0.0252953, 0.0909484, 0.0333164, 0.0324113, -0.0125715, 0.0177383, 0.0056191, 0.0732300, -0.0077310, -0.0286051, -0.0630346, -0.0619542, -0.0059130, -0.1328977, 0.0264879, -0.0643584, -0.0525891, 0.0407384, -0.0547374, -0.0289756, 0.0545584, 0.1173759, 0.0490642, 0.0185334, -0.0362732, -0.0744154, 0.0279016, 0.0171123, 0.0590261, 0.0187698, 0.0231507, 0.0256975, 0.0196555, -0.1223962, 0.0194291, 0.0330918, 0.0482705, 0.1433445, -0.0344957, -0.0009335, 0.0265483, 0.0117039, 0.0116754, -0.0495302, -0.0636458, -0.0355816, 0.0828233, 0.1060059, 0.0917908, -0.0156588, -0.0605325, 0.0297250, 0.0261044, -0.0620870, 0.0751644, -0.0409286, -0.0098153, -0.0161717, 0.0227481, -0.0078745, 0.0292500, -0.0027744, -0.1172945, -0.0100332, 0.0227355, 0.0637021, -0.0078233, 0.0138084, -0.0184706, 0.0054380, 0.0508466, 0.0361942, -0.0800532, 0.0806492, -0.0853289, -0.0758951, 0.0179422, 0.0248268, 0.0225945, 0.0208352, 0.0111917, 0.0180127, 0.0130209, -0.0054541, 0.0006818, 0.0298447, 0.0935405, -0.0101288, -0.0509935, -0.0025590, 0.0336780, 0.0027210, 0.0113902, 0.0383576, 0.0158056, 0.0055626, 0.0174971, -0.0226852, 0.0829541, -0.0053724, 0.0989654, -0.0505008, -0.0725123, -0.0023876, 0.0683715, -0.0472970, 0.0356310, 0.0616311, -0.0298424, -0.0642212, -0.0432730, -0.0789027, -0.1215037, -0.0594364, -0.0765804, 0.0272060, 0.0257032, -0.0091054, 0.1006653, 0.0370238, 0.0089957, 0.0033389, -0.0646557, 0.0196794, 0.1629918, 0.0228038, 0.0007161, -0.0174889, 0.0361211, 0.0354770, 0.0489501, 0.0346341, 0.0423954, 0.0585574, 0.0026412, 0.0298572, 0.0929283, 0.0509917, -0.0268184, -0.0412495, -0.0929607, -0.0166852, -0.0108688, 0.0495841, 0.0009245, -0.0005485, 0.0006260, 0.0088668, -0.0520745, -0.0162675, 0.0274498, 0.0133925, -0.0287092, -0.0226059, -0.0694609, -0.0105028, 0.0119814, -0.0385178, 0.0699296, -0.0276734, 0.0322857, -0.0365697, 0.0557520, 0.0483892, -0.0103346, -0.0009417, -0.0050199, 0.0048587, -0.0063743, 0.0075594, -0.0380946, 0.0196604, 0.0687594, -0.0128447, -0.0644953, 0.0338058, 0.0125801, 0.0216424, -0.0053455, 0.0054055, 0.0165379, -0.0552509, 0.0674778, 0.0185531, -0.0417899, -0.0279432, 0.0608949, 0.0146940, -0.0202147, 0.0047849, 0.0122763, -0.0131075, 0.0068908, 0.0089806, 0.0115830, -0.0273430, -0.0030405, 0.0237041, 0.0191133, 0.0026924, 0.0220709, 0.0403600, 0.0116477, -0.0698061, 0.0289363, 0.0719925, -0.1122256, -0.0499785, -0.0259339, 0.0331253, -0.0843846, 0.0006203, -0.0127485, 0.0318714, 0.0398028, -0.0046835, -0.0342155, 0.0518357, 0.0426118, -0.0414898, 0.0171520, 0.1078305, 0.0002201, -0.0224606, 0.0093364, 0.0147163, 0.0122176, 0.0444130, -0.0111424, 0.0126844, 0.0119522, -0.0105182, -0.0540753, 0.0082780, -0.0244009, -0.0877060, -0.0208372, 0.0264577, 0.0221304, 0.0226264, 0.0371727, -0.0599340, -0.1141775, 0.1020555, -0.0327106, 0.1008469, 0.0166077, -0.0044827, 0.0262814, -0.0205878, 0.0575914, 0.0362107, 0.0432704, -0.0346457, 0.0072155, 0.0801954, 0.0290193, 0.0006763, -0.0174068, -0.0454912, -0.0615722, 0.0151428, 0.0172450, 0.0289206, 0.0087790, 0.0948092, 0.0861754, -0.0227918, 0.0145152, -0.0039186, -0.0681790, -0.0241671, 0.0251874, -0.0618285, -0.1034907, 0.0414160, -0.0055758, 0.0500256, -0.0504075, 0.0347938, 0.0461249, 0.0202713, -0.0491865, 0.0326666, -0.0467763, -0.0745514, -0.1005491, 0.0766586, -0.0486450, 0.0416499, -0.0086266, -0.0147489, -0.0191736, 0.0022703, -0.0693487, -0.0456519, -0.0374694, -0.0276169, 0.0434430, 0.0578656, -0.0281961, 0.0261038, -0.0055803, 0.0063516, 0.0444666, 0.0555415, 0.0373820, 0.0467774, -0.0095708, -0.0596917, -0.0608129, -0.0269186, -0.0416113, -0.0081647, 0.0121338, -0.0268266, 0.0314767, -0.0171710, -0.0076344, 0.0176169, 0.1169435, 0.0664449, 0.0687450, -0.0269905, -0.0369118, -0.0445021, -0.0784720, -0.0170345, -0.0260746, -0.0003774, 0.0287964, 0.0547799, 0.0713452, 0.0365229, 0.0355445, -0.0092975, -0.0297388, -0.0571974, -0.0143392, 0.0072354, 0.0106406, 0.0049721, -0.0332167, 0.0188697, -0.0002487, 0.0001849, -0.1016052, -0.0280479, -0.0331779, 0.0295973, 0.0855431, -0.0224276, 0.0160433, -0.0164836, -0.0001316, -0.0356687, 0.0351521, -0.0330918, 0.0439430, -0.0283953, 0.0136710, 0.0326411, 0.0128852, 0.0683844, 0.0318477, 0.0112443, 0.0063684, 0.0263996, 0.0228259, 0.0725905, -0.0345751, 0.0280695, -0.0258213, 0.0316859, 0.0389699, 0.0171996, -0.0196753, 0.0770918, -0.0791715, 0.0406871, 0.0020911, -0.0226906, -0.0598380, -0.0209166, 0.0374329, 0.0412180, -0.0142154, -0.0219355, 0.0143039, -0.0616771, 0.0025170, 0.0172792, -0.0707674, -0.0306117, -0.0636164, -0.0240440, -0.0189517, 0.0046782, -0.0253215, 0.0109957, 0.0414136, -0.0994079, 0.0275735, 0.0578952, 0.0283465, 0.0497989, 0.0006643, 0.0158380, 0.0594699, 0.0231397, -0.0919052, 0.0463532, -0.0166687, 0.0616748, 0.1067448, 0.0316571, -0.0056620, 0.0181358, 0.0011348, -0.0462616, 0.0373247, -0.0048141, -0.0154831, 0.0264003, -0.0101620, -0.0027137, 0.0361259, 0.0063286, -0.0299308, -0.0050024, -0.1152881, 0.0804989, -0.0204899, 0.0683710, 0.0524963, -0.0034651, -0.0097384, -0.0392153, -0.0391779, -0.0385746, 0.0186739, 0.0600586, -0.0410055, -0.0150889, -0.0648096, -0.0122554, 0.0758366, -0.0194155, -0.0350861, -0.0179549, 0.0867666, 0.0231185, 0.0061046, -0.0725329, -0.0559360, -0.0016497, -0.0037082, -0.0617658, -0.0365519, 0.0272234, -0.0108421, 0.0448843, 0.0961790, 0.0665857, -0.0235007, 0.0588722, -0.0439677, 0.1381810, 0.0205726, 0.0364476, -0.0056739, 0.0306506, 0.0711527, 0.0069227, 0.0075800, 0.0566051, -0.0979208, -0.0407909, -0.0367032, 0.0387302, -0.0030249, 0.0011716, 0.0073845, -0.0127528, -0.0073736, -0.0558008, -0.0305186, -0.0095032, 0.0458644, -0.0210530, 0.0125789, -0.0628578, 0.0060783, 0.0339916, 0.0267341, 0.0827631, -0.0455601, -0.0671642, 0.0082162, 0.0223631, 0.0131259, 0.0152305, 0.0622736, -0.0265054, 0.0264899, -0.0261156, 0.0488905, 0.0086093, -0.0315043, -0.0721205, -0.0409010, 0.0080085, 0.0198653, -0.0188301, 0.0119197, 0.0174802, 0.0079622, 0.0292246, -0.0960953, 0.0349084, 0.0561199, 0.0199839, 0.0098372, 0.0797236, -0.0220942, -0.0043455, 0.0651371, -0.0000816, -0.0177921, 0.0284838, 0.0088524, -0.0422502, 0.0056614, -0.0296713, -0.0759365, -0.0864228, 0.0278840, 0.1100398, 0.0171911, -0.0428860, 0.0227195, -0.0494671, 0.0430034, 0.0175103, -0.0113008, 0.0824828, 0.0952376, -0.0175345, -0.0425303, -0.0064802, 0.0386818, 0.0177783, -0.0102417, 0.0000015, 0.0301304, 0.0288695, 0.0381068, 0.0631539, 0.0497871, 0.0505605, -0.0222221, 0.0283466, 0.0424822, -0.0103987, 0.0536496, 0.0133187, 0.0094767, -0.0513200, 0.0374463, -0.0113409, -0.0778573, -0.0643113, 0.0252773, -0.0630357, 0.0042140, -0.0391185, 0.0642351, -0.0432397, -0.0221411, -0.0002713, -0.0178026, 0.0556641, -0.0307015, -0.0114879, 0.0285967, -0.0359133, 0.0340899, -0.0050061, -0.0314642, 0.0068700, -0.0501704, -0.0502547, -0.1085070, -0.0114967, 0.0294094, -0.0066129, -0.0209006, -0.0766448, -0.0145157, -0.0339467, 0.0296649, 0.0067760, -0.0051991, 0.0240206, 0.1203271, 0.0237244, -0.0704697, 0.0247503, 0.1039568, 0.0157134, 0.0195544, -0.0391320, -0.0399313, -0.0309427, 0.0774864, -0.0772245, 0.0285414, -0.0515580, 0.0158488, -0.0551523, 0.0185766, 0.0469014, 0.0668438, 0.0039004, -0.0022362, 0.0092053, 0.0462665, -0.0132649, -0.0128074, -0.0318074, 0.0181942, -0.0162487, -0.0172409, 0.0589884, -0.0122903, -0.0316517, -0.0597012, 0.0299233, 0.0545484, 0.1000830, 0.0104626, 0.0064880, 0.0939167, 0.0692534, -0.0242514, 0.0136473, 0.0012988, 0.0093962, 0.0184501, 0.0296960, -0.0125012, -0.0020152, 0.0083918, 0.0392483, 0.0456407, 0.0030909, 0.0223191, -0.0619152, -0.0197359, -0.0190322, 0.0918548, -0.0560698, 0.0093532, -0.0827737, -0.0533666, -0.0188426, 0.0143129, -0.0609439, -0.0214052, -0.0089747, 0.0265465, -0.0601338, -0.1067410, -0.0333164, 0.0300444, 0.0124246, 0.0340530, -0.0294182, -0.0562826, 0.0007788, -0.0120559, -0.0145696, -0.0223636, 0.0160915, -0.0055940, 0.0240292, -0.0521638, 0.0089552, -0.0372513, 0.0044077, -0.0063309, 0.0327588, -0.0244427, -0.0138037, 0.0311179, 0.0741731, -0.0494870, 0.0816121, -0.0676633, 0.0146993, -0.1103134, -0.0830879, 0.0222095, -0.0017388, 0.0039467, 0.0858210, -0.0393403, -0.0271517, 0.0086202, -0.0744823, 0.0561722, 0.0158258, 0.0637120, 0.0335422, 0.0036033, 0.0258688, -0.0506585, 0.0306796, -0.0472924, 0.0175218, -0.0377187, 0.0216709, 0.0863200, 0.0239025, 0.0315346, -0.0620064, -0.0089957, -0.0537674, -0.0323092, 0.0224148, 0.0175177, 0.0777032, -0.0048678, -0.0560550, -0.0281600, -0.0380346, 0.0220443, 0.0822262, 0.0186435, -0.0623708, 0.0095196, 0.0065626, -0.1647190, -0.0201091, -0.0230902, 0.0358296, 0.0090076, -0.0626476, -0.0582688, 0.0399782, -0.0203820, 0.0206889, -0.0759291, -0.0333290, 0.0006829, 0.0171491, 0.0368829, 0.0478777, 0.0611343, -0.0284778, -0.0296683, 0.0701626, 0.0718332, -0.0515104, 0.0143229, 0.0241434, -0.0443115, -0.0390708, -0.0116557, -0.0352398, 0.0469951, -0.0363444, 0.0476282, 0.0635982, -0.0035727, -0.0220594, 0.0227751, 0.0042106, 0.0657798, 0.0441798, 0.0052072, -0.0388622, -0.0141331, 0.0147055, -0.0342570, 0.0288458, -0.0335258, 0.0503544, -0.0235242, 0.1053264, -0.0020554, 0.0140369, -0.0837224, -0.0607745, 0.0304042, 0.0397730, -0.0384010, -0.0066656, -0.0392124, 0.0414310, 0.0297080, -0.0515562, 0.0326037, 0.0083274, 0.0351834, -0.0304074, 0.0324818, 0.0025609, 0.1296705, 0.0762867, 0.0563049, 0.0232225, -0.0090953, 0.0230003, -0.0401046, -0.0150184, -0.0647993, -0.0564374, -0.0217814, -0.0045761, -0.0375956, 0.0076831, -0.0507020, 0.0074652, 0.0127616, -0.0041555, -0.0340859, -0.0349481, 0.0143243, 0.0047739, -0.0252789, -0.0026436, 0.0857965, -0.0749734, 0.0055268, 0.0290570, -0.0323257, -0.0944939, -0.0404083, -0.0092117, 0.0044810, 0.0434629, 0.0707488, 0.0013008, -0.0216438, -0.0326945, -0.0300200, -0.0389587, -0.0566602, 0.0570282, -0.0562485, -0.0280801, 0.0299205, -0.0331326, 0.0400693, -0.0312358, -0.0571008, 0.1000229, -0.0313993, -0.0754634, -0.0475949, -0.0115693, 0.0026964, 0.0010509, -0.0112438, 0.0021240, 0.0177346, 0.0184924, -0.0246248, -0.0880416, -0.0343769, 0.0236968, -0.0601509, 0.0452117, -0.0289310, -0.0590467, -0.0568707, 0.0502855, 0.0035947, 0.0175949, 0.0434590, -0.0185390, -0.0191185, 0.0012209, -0.0570520, 0.0663690, 0.0282932, 0.0102291, -0.1012627, -0.0083908, 0.0351410, 0.0302404, 0.0179816, 0.0637853, -0.0343518, -0.0263636, -0.0501538, -0.1020846, 0.0115287, -0.0448614, -0.0372763, 0.0175586, -0.0547547, -0.0069999, 0.0211122, -0.0959855, -0.0350467, 0.0028985, 0.1025021, -0.0056300, 0.0494736, 0.0374248, -0.0023169, -0.0190546, 0.0854871, 0.0132996, -0.0664917, 0.0069065, 0.0296403, 0.0550257, 0.0042226, 0.0168188, 0.0440754, 0.0294835, -0.0224741, -0.0212936, -0.0316266, 0.0144247, -0.0558504, -0.0022113, -0.1730312, -0.0281112, 0.0158193, -0.0285679, -0.0166734, 0.0122056, -0.0081679, 0.0474388, -0.0924893, -0.0025555, -0.0345761, -0.0360615, -0.0310954, -0.0032641, -0.0087119, -0.0435387, -0.1119370, -0.0065148, -0.0209449, 0.0496855, -0.0180744, -0.0011826, 0.0708219, 0.0413069, -0.0411874, -0.0085602, 0.0748170, 0.0353172, 0.0271125, 0.0163570, 0.0634991, -0.0364725, -0.1310697, 0.0214289, -0.1109657, 0.1061938, -0.0433897, -0.0054466, -0.0189206, -0.0394326, 0.0670827, 0.0484700, 0.0822905, -0.0029597, 0.0232505, -0.0621118, -0.0022173, 0.0210112, -0.0155499, -0.0014130, 0.0223942, -0.0131397, 0.0252587, -0.0950596, 0.0203028, -0.0515797, -0.0520460, 0.0161991, 0.0223987, 0.0148330, 0.0048365, 0.0609711, -0.0104642, -0.0079397, 0.0937616, -0.0797320, 0.0762573, 0.1015524, 0.0045621, -0.0260782, 0.0557320, -0.0315118, 0.0226784, -0.0053079, -0.0040566, -0.0310522, -0.0491719, -0.0493036, -0.0295016, 0.0239698, 0.0847681, 0.0910406, 0.0048361, 0.0487860, 0.0366406, 0.0714890, -0.0222100, -0.0188840, -0.0212159, -0.0380254, 0.0133479, -0.0909612, 0.0214648, 0.0001397, 0.0644163, 0.1336004, 0.1015037, 0.0065590, 0.0062373, 0.0050544, 0.0448077, -0.0031837, -0.0029005, 0.0151873, -0.0409542, 0.0192953, 0.0794144, -0.0042996, 0.0202075, -0.0193483, -0.0194489, -0.0086708, -0.0064145, 0.0077045, -0.0037578, -0.0353113, -0.0357631, -0.0495232, -0.0056288, -0.0575174, -0.0038053, -0.0331280, 0.0159494, -0.0346815, -0.0055170, 0.0167744, 0.0580054, -0.0075049, -0.0507605, -0.0164499, -0.0951913, 0.0169509, -0.0356637, -0.0207426, 0.0277808, -0.0167914, -0.0457961, -0.0525363, 0.0283273, 0.0510265, 0.0138221, 0.0054916, 0.0245646, -0.0077102, -0.0526038, -0.0455361, 0.0545754, 0.0161462, 0.0499708, 0.0316973, 0.0111365, -0.0239344, -0.0010951, -0.0369467, 0.0171321, 0.0518882, -0.1057963, 0.0393458, -0.0088954, -0.0519268, -0.0798407, 0.0190788, 0.0240013, 0.0468001, 0.0337036, -0.0028779, -0.0536834, 0.0008656, 0.0996221, -0.0351471, -0.0304894, 0.0112016, 0.0180656, 0.0144770, 0.0125103, -0.0008589, -0.0420229, -0.0269003, -0.0657750, 0.0021995, 0.0226365, -0.0340779, 0.0656083, 0.0346853, 0.0128441, -0.0627423, -0.0317590, 0.0636387, 0.0043842, 0.0008946, -0.0509390, -0.0771795, 0.0317718, -0.0173070, 0.0109689, -0.0733952, -0.0221837, -0.0564649, -0.0358674, -0.0632073, 0.0364621, 0.0856707, -0.0344460, -0.0479394, 0.0191232, 0.0430211, -0.0719826, 0.0137903, 0.0006209, -0.0307983, -0.0409711, 0.0376754, -0.0363534, 0.0097671, -0.0581099, -0.0203168, -0.0027842, -0.0277400, -0.0330937, 0.0512503, -0.0179549, 0.0229367, -0.0600724, 0.0605703, 0.0029903, 0.0639508, -0.0147465, -0.1064336, -0.0150587, 0.0264149, -0.0348375, -0.0599566, -0.0374665, 0.0307072, -0.0852219, -0.0567314, -0.0223465, 0.0171111, 0.0193996, -0.0023281, 0.0866128, 0.0169898, 0.0047808, -0.0023461, -0.0429947, 0.0734338, -0.0874132, -0.0208220, -0.0465632, 0.0328788, -0.0181273, -0.0219050, 0.0145725, 0.0201158, 0.0138041, 0.0507504, -0.0111009, 0.0371507, 0.0252623, -0.0313482, -0.0732689, -0.0048181, 0.0130598, -0.0396698, -0.1051321, 0.0119587, -0.0063829, -0.0477087, 0.0284263, -0.0031172, 0.0662795, 0.0192306, 0.0280578, 0.0622565, -0.0444393, -0.1052359, -0.0662988, 0.0454565, 0.0649008, 0.0582804, -0.0384038, 0.0719349, -0.0505167, 0.0668332, 0.0443414, -0.0182246, -0.0004549, -0.0292306, 0.0077741, -0.0895849, -0.0103355, 0.0575880, -0.0192870, 0.0197769, -0.0599757, -0.0204207, -0.0065126, 0.0035420, -0.0644506, -0.0160301, -0.0756283, 0.0262275, -0.1241383, -0.0063848, 0.0028847, -0.0326778, 0.0421476, 0.0038039, 0.0337161, -0.0031460, -0.0168264, 0.0550396, 0.0248999, -0.0180486, -0.0215353, 0.0581233, -0.0134361, 0.0256271, -0.0245290, 0.0233608, -0.0040658, -0.0525108, 0.0165470, -0.0391540, 0.0255079, -0.0357048, -0.0119649, -0.0262534, -0.0172826, -0.0181200, 0.0121488, 0.0190696, -0.0162412, 0.0508743, 0.0872963, 0.0452747, 0.0112269, 0.0162457, 0.0120051, -0.0630103, 0.0743426, -0.0634818, 0.0399572, -0.0284824, -0.0409481, -0.0073758, -0.0145682, -0.0219413, -0.1221532, 0.0368902, 0.0124949, 0.0595128, 0.0607344, 0.0335393, -0.0218814, 0.0476542, -0.0512957, -0.0787652, -0.0471221, -0.1169870, 0.1334571, -0.0062277, 0.1491432, -0.0668526, 0.0090780, 0.0037789, 0.0884794, -0.0145929, 0.0391335, -0.0152624, -0.0348701, -0.0204378, -0.0598885, -0.0410386, 0.0050634, 0.0287082, -0.0352119, 0.0091396, -0.0524264, 0.0919137, -0.0091421, 0.0243822, 0.0030590, -0.0510488, -0.0037141, -0.0726800, -0.0629835, 0.0056813, 0.0781984, -0.0326151, -0.0758852, -0.1170041, 0.0213054, 0.0359550, -0.0361233, -0.0447452, 0.0551510, 0.0416072, -0.0245303, 0.0683658, 0.0108606, -0.0437230, 0.0478900, 0.0237342, -0.0302505, 0.0714133, -0.0113070, 0.0043305, -0.0102410, 0.0463136, -0.1017002, -0.0373207, -0.0312004, -0.0203526, -0.0496296, 0.0449384, -0.0241052, 0.0397881, -0.0218439, 0.0052976, 0.0077323, -0.0018538, 0.0440554, -0.0420143, -0.0066128, -0.0208240, 0.0827532, 0.0158646, 0.0155824, 0.0270094, -0.0192262, 0.0393413, 0.0379583, 0.0094038, -0.0349418, 0.0113214, -0.0476826, -0.0531976, -0.0177125, -0.0721948, 0.0032364, -0.0071925, -0.0106612, -0.0902120, -0.0308572, -0.0001095, 0.0172736, 0.0186028, -0.0176143, 0.0014105, 0.0508612, 0.0255872, 0.0613549, 0.0249883, -0.0014822, 0.0297119, 0.0239359, 0.0154317, -0.0310791, -0.0677565, -0.0396813, -0.0041687, -0.0045967, 0.0329468, 0.0198672, 0.0077494, -0.1187529, -0.0138010, -0.0672287, -0.0181300, 0.0841436, 0.0057922, -0.0105010, 0.0146325, -0.0086257, -0.0336633, -0.0321112, -0.0206172, -0.1047166, 0.0659977, 0.0595880, -0.0104725, -0.0149811, -0.0418147, -0.0316016, 0.0123872, 0.0131143, 0.0072111, -0.0094266, 0.0110098, 0.0256442, 0.0286898, 0.0955834, 0.0000650, -0.1126968, 0.0529617, -0.0496778, 0.0194106, -0.0075083, -0.0310814, 0.0188366, -0.1180325, 0.0592760, -0.0820565, 0.0378876, -0.0072030, 0.0091314, 0.0461979, 0.0176196, 0.0345278, 0.0314502, 0.0114417, -0.0165383, -0.0183023, -0.0037496, -0.0093931, 0.0740350, -0.0057784, 0.0132463, -0.0470772, 0.0692698, 0.0404872, 0.0270666, -0.0039626, -0.0181763, -0.0165728, -0.0915268, -0.0332134, 0.0110590, -0.0095489, 0.0151759, -0.0158783, 0.0487652, 0.0056677, -0.0144848, 0.1142869, -0.0864081, -0.0442139, -0.1239201, 0.0945477, 0.0548730, -0.0091191, -0.0254812, 0.0195350, 0.0055125, 0.0006993, 0.0121016, 0.0147411, 0.0120293, -0.0073079, 0.1196615, 0.0203331, 0.0540444, -0.0094304, 0.0184321, 0.0601300, -0.0210452, 0.0002235, 0.0356013, 0.0668777, -0.0094596, -0.0451133, 0.0313239, 0.0451935, 0.0557092, -0.0182698, 0.0640173, -0.0126948, -0.0272586, 0.1191853, -0.0106166, 0.1083395, -0.0320941, -0.0138743, 0.0143164, -0.0833049, -0.0584989, 0.0470578, 0.0326067, 0.0501730, 0.0327873, -0.0728346, -0.0491605, -0.0523578, -0.0477010, -0.0243687, 0.0819101, -0.0120491, -0.0052949, -0.0115221, 0.0031665, -0.0672961, 0.0185846, 0.0039075, -0.0212633, 0.0531991, -0.1306343, 0.0127968, -0.0084448, -0.0187417, 0.0066651, -0.0051015, -0.0016980, 0.0498735, -0.0078925, -0.0160168, -0.0215848, 0.0462784, -0.0153081, -0.0049137, -0.0617301, 0.0202375, 0.0388956, -0.0066415, -0.0768636, -0.0073892, -0.0102884, 0.0459212, -0.0444887, 0.0433137, -0.0849620, 0.0162951, -0.0695719, 0.0191177, -0.0193227, -0.0873600, 0.0633761, -0.0230073, -0.0317396, -0.0169070, -0.0038248, -0.0285493, -0.0251614, -0.0173857, 0.0419885, 0.0843362, 0.0751376, -0.0288011, -0.0442156, 0.0401759, -0.0651656, -0.0077818, 0.1023878, 0.0122484, 0.0094926, -0.0312316, 0.0139301, -0.0575982, -0.0016005, 0.0484233, -0.1053026, -0.0328476, 0.0261438, 0.0324363, 0.0242078, -0.0300929, -0.0292290, 0.0351760, -0.0324494, -0.0399183, 0.0164571, 0.0425468, 0.0130387, 0.0096636, -0.0586178, 0.0356838, -0.0156222, -0.0138724, -0.0005983, -0.0400464, 0.0245969, -0.0932121, 0.0158568, -0.1049592, 0.0314570, -0.0575883, 0.0094549, 0.0158652, -0.0497385, -0.0017458, 0.0095986, 0.0496412, -0.0378741, -0.0025809, -0.0106394, 0.0261385, -0.0605530, 0.0494202, -0.0207261, 0.0202249, -0.0261024, -0.0292802, 0.0336629, -0.0536896, -0.0144368, 0.0386828, -0.0116659, -0.0268199, -0.0085536, 0.0061574, -0.0155986, -0.0307093, -0.0371070, 0.0264080, 0.0300584, -0.0102848, 0.0124719, 0.0395476, 0.0101891, -0.0079884, 0.0288298, -0.0385967, -0.0241604, -0.0286440, -0.0042254, -0.0768784, -0.0319193, 0.0276148, 0.0672049, 0.0149381, 0.0202686, -0.0708902, 0.0281920, -0.0109046, 0.0008396, 0.0204795, 0.0122555, 0.0853603, 0.0668670, 0.0725785, -0.0603144, -0.0183716, -0.0898218, -0.0190667, 0.1133037, 0.0080428, -0.0133416, -0.0291023, -0.0213120, 0.0139042, 0.0420327, 0.0233663, -0.0060513, 0.0037354, -0.0343607, -0.0389860, 0.0424573, -0.0367252, -0.0008871, -0.0358190, -0.0653062, -0.0473948, 0.0526946, -0.0322682, 0.0434270, 0.0437105, 0.0452801, -0.0044628, 0.0642965, -0.0259731, -0.0399623, 0.0174101, 0.0283238, -0.0748317, -0.0499930, 0.0128891, 0.0408738, -0.0277254, -0.0733592, 0.0414042, 0.0522082, -0.0116748, 0.0304696, 0.0252682, -0.0097249, 0.0366274, 0.0081470, 0.0014987, 0.0039218, 0.0560514, -0.0370555, 0.0502375, 0.0056371, 0.0783811, -0.0022441, -0.0514093, 0.0850895, -0.0175201, -0.0293470, 0.0037825, 0.0215131, 0.0297205, 0.0168143, -0.0379543, -0.0217839, -0.0101464, -0.0429202, 0.0703681, -0.0698708, -0.0081540, 0.0415972, 0.0038377, -0.0385107, 0.0305317, -0.0437518, -0.0451221, -0.0318024, 0.0155037, 0.0523254, -0.0616985, 0.0209230, -0.0690979, -0.0152985, 0.0288167, 0.0270060, 0.0227724, -0.0418207, -0.0305081, -0.0241502, 0.0025388, 0.0198807, 0.0010021, -0.0581303, 0.0051316, 0.0024373, -0.0065639, 0.0250365, 0.0050838, -0.0675972, -0.0033788, -0.1009173, 0.0069315, -0.0433083, 0.0255444, 0.0962849, 0.0311777, -0.0788037, -0.0044001, -0.0235529, -0.0570511, 0.0122186, -0.0544746, -0.0105527, -0.0456930, -0.0634476, -0.0208502, 0.0018742, -0.0344109, 0.1145205, -0.0586654, 0.0249418, -0.0153684, -0.0285418, 0.0097172, 0.0390083, -0.0944498, -0.0214539, -0.0085321, -0.0731568, -0.0272296, -0.0547343, -0.0140763, 0.0402655, 0.0461674, -0.0510845, 0.0157918, 0.0562223, -0.0536754, 0.0174755, -0.0177004, 0.0112966, -0.0203020, 0.0026351, -0.0122581, 0.0369687, -0.0213218, 0.0811064, 0.0429633, -0.0246102, -0.0167733, -0.0460735, 0.0239271, 0.0366963, -0.0906626, 0.0404362, 0.0458130, 0.0778764, -0.0277668, 0.0061008, -0.0273888, -0.0278700, 0.0281154, -0.0050898, -0.0128790, 0.0057509, -0.0315002, 0.0375648, -0.0107012, -0.0977935, -0.0318690, 0.0714622, -0.0474088, -0.1008896, -0.1199293, -0.0442778, 0.0880385, 0.1058510, 0.0171304, -0.0120428, 0.0562347, 0.0235291, -0.0140716, 0.0100980, -0.0592433, 0.0646465, 0.0375222, 0.0110732, -0.0651962, 0.0024763, 0.0192771, -0.0198416, -0.0601908, 0.0527168, 0.0076568, -0.0282046, 0.0040737, 0.0696690, 0.0293522, 0.0051186, -0.0333200, 0.0287518, 0.0205738, 0.0047056, -0.0528694, -0.0342375, -0.0454230, 0.0575851, 0.0219487, -0.0267873, -0.0773667, 0.0158276, 0.0892555, 0.0491053, -0.0509132, 0.0318403, -0.0812233, 0.0373478, -0.0980762, -0.0570607, -0.0394010, -0.0085914, -0.0674520, 0.0123820, -0.0128992, 0.0774923, -0.0035733, 0.1200735, -0.0223399, 0.0269992, 0.0991167, 0.0657956, 0.0215574, 0.0340855, -0.0605349, 0.0700952, 0.0076579, -0.0410835, -0.0079955, -0.0685407, 0.1142179, -0.0781849, -0.0016650, 0.0476347, 0.0328874, 0.0596954, 0.0648604, 0.0234229, -0.0030412, 0.0636000, -0.0367069, 0.0386964, -0.0170312, -0.0220775, 0.0427344, 0.0232651, -0.0805961, -0.0546491, 0.0101858, 0.0165456, -0.0218060, -0.0947204, 0.0224000, 0.0272661, 0.0139601, 0.0512304, -0.0423820, 0.0717868, 0.0123342, 0.0136669, 0.0017711, -0.0677989, 0.0662005, 0.0095627, -0.0345005, -0.0196975, 0.0160771, -0.0734601, 0.0933786, 0.0434767, 0.0095301, 0.0335153, -0.0357879, -0.0024845, -0.0162361, 0.0421251, -0.0504099, 0.0051891, 0.0770024, 0.0474009, -0.0183894, 0.0415548, -0.0102828, -0.0787631, 0.0193537, -0.0343286, -0.0004655, -0.0490882, -0.0646647, -0.0381228, -0.0192935, 0.0074262, -0.0243260, 0.0662154, -0.0066755, 0.0532264, 0.0314749, -0.0730073, -0.0022221, 0.0357812, -0.0199004, 0.0089999, -0.0244650, 0.0057363, -0.0350141, -0.0889518, -0.0095706, -0.0005212, 0.0198425, -0.0367259, 0.0324263, 0.0485618, -0.0598943, 0.0489422, -0.0890312, -0.0757183, -0.0167475, -0.0536669, -0.0273594, -0.0178041, -0.0454823, -0.0278719, -0.0159686, 0.1248358, -0.0022917, -0.0056068, -0.0057049, -0.0013794, 0.0074167, -0.0199716, 0.0107995, -0.0443754, 0.0040909, 0.0051592, 0.0080011, 0.0045123, -0.0405045, -0.0372476, 0.0942137, 0.0185691, -0.0256670, -0.0098724, 0.0156713, -0.0355550, 0.0246773, 0.0497715, 0.0330770, -0.0004039, -0.0506173, -0.0057575, 0.0037132, -0.0008349, 0.0536624, 0.0790198, -0.0190082, -0.1217897, 0.1296137, -0.0105328, -0.0056854, -0.0015472, -0.0644791, -0.0344170, 0.0234369, 0.0254567, -0.1246472, -0.0454661, 0.0080275, -0.0185690, -0.0836136, 0.0146463, -0.0013401, 0.0404342, -0.0017825, -0.0352090, -0.1433921, -0.0347132, 0.0071993, -0.0378622, -0.0373283, 0.0105322, -0.0420906, -0.0481840, 0.0532216, 0.0161316, 0.0539809, -0.0041417, 0.0164971, 0.0272676, -0.0282208, -0.0440537, 0.0332115, 0.0080075, -0.0377657, 0.0169100, 0.0219987, 0.0210602, 0.0136603, -0.0365424, -0.0403278, -0.0283663, 0.0388669, 0.0007592, 0.0243928, -0.0130032, 0.0272164, -0.0045871, 0.0625453, -0.0380696, 0.0459286, 0.0534833, -0.0176218, 0.0226060, 0.0217020, 0.1096543, 0.0344021, -0.0039754, 0.0057812, 0.0243813, 0.0037910, -0.0692802, 0.0119027, 0.0118039, 0.0226979, -0.0021798, 0.0079735, -0.0588192, 0.0051209, 0.0363738, 0.0169452, 0.0439608, -0.0505590, 0.0349241, 0.0175559, 0.0262473, -0.0553450, 0.0893452, -0.0335770, -0.0454603, -0.0344770, -0.0174023, -0.0074810, 0.0569961, -0.0905321, -0.0158269, 0.0178766, 0.0242328, -0.0564344, 0.0435453, 0.0427206, 0.0116123, 0.0418989, 0.0120742, -0.0135534, 0.0361116, 0.0005221, -0.0486241, -0.0187091, 0.0091953, -0.0026643, 0.0230344, -0.0159592, -0.0636690, 0.0023565, -0.0810029, -0.0377732, 0.0415956, -0.0297992, 0.0000948, 0.0355942, -0.0443319, 0.0553939, 0.0023066, -0.0138024, 0.0193400, 0.0938306, 0.0133676, -0.0371773, -0.0300501, -0.0784699, -0.0866964, -0.0058727, 0.0728837, 0.0548181, -0.0397611, -0.0588933, 0.0312381, -0.0445366, 0.0427166, 0.0199750, 0.0001664, -0.0009619, -0.0822465, -0.0150457, -0.0097499, 0.0006875, -0.0102232, 0.0150642, 0.0444221, -0.0192100, -0.0274843, -0.0144909, 0.0388225, 0.0000107, 0.0171255, 0.1033225, -0.0793301, -0.0309022, -0.1456283, -0.0640216, -0.0057204, 0.0352132, -0.0302694, -0.0973052, -0.0367734, 0.0918051, -0.0216986, -0.0453712, 0.0025386, -0.0172188, 0.0111280, 0.0217836, -0.0115297, -0.0097543, -0.0066397, -0.0084501, 0.0212000, -0.0182447, -0.0147843, 0.0113708, -0.0063118, -0.0031448, 0.0362811, -0.0094133, 0.0276967, 0.0011093, -0.0492463, 0.0319075, -0.0284175, -0.0339137, 0.0148541, 0.0423324, -0.0567502, 0.0421697, -0.0319666, 0.0035850, -0.0262616, 0.0046917, 0.0179177, -0.0275595, -0.0229722, -0.0070543, -0.0059166, -0.0967982, 0.0074608, 0.0820729, 0.0216125, -0.1535079, 0.0106420, -0.0381131, 0.0146131, 0.0093526, -0.0316800, 0.0419956, 0.0551178, -0.0391824, 0.0624966, 0.0202562, 0.0010552, 0.0338438, -0.0286420, 0.0496647, -0.1090405, 0.0093984, -0.0618241, -0.0183323, 0.0255753, 0.0582726, -0.0026736, -0.0784002, 0.0055906, 0.0070747, -0.0311147, -0.0506419, 0.0105004, -0.0220587, 0.0707371, -0.0658326, -0.0484087, 0.0359778, -0.0111800, 0.0117323, -0.1020252, -0.0116246, 0.0520856, 0.0830421, -0.0198443, -0.0113026, -0.0320989, -0.0370402, 0.0248740, -0.0205029, 0.0075194, 0.0031859, -0.0374251, -0.0281091, -0.0272939, 0.0549876, 0.0614792, 0.0092116, -0.1151223, -0.0725673, 0.0569820, 0.0194038, -0.0515555, 0.0246407, 0.0018218, 0.0432539, 0.0136301, -0.0514662, 0.0383498, -0.0239398, -0.0083471, -0.0247905, -0.0231748, -0.0068867, 0.0446740, -0.0253535, -0.0061034, -0.0074540, 0.0753697, -0.1174006, -0.1213948, 0.0087837, -0.0224189, 0.0137500, -0.0163656, -0.0402287, 0.0069297, 0.0063461, 0.0573243, 0.0051406, -0.0670144, -0.0364929, 0.0333102, 0.0021925, 0.0295911, -0.0596865, -0.0767708, -0.0272025, 0.0138533, 0.0205236, -0.1054601, 0.0048882, 0.0429370, -0.0287345, 0.0406092, -0.0209054, -0.0454970, -0.0001929, -0.0460876, -0.0878474, 0.0513845, -0.0386411, 0.0124325, -0.0200415, -0.0399677, 0.1479949, 0.0353063, 0.0164187, -0.0206734, -0.0027078, 0.0409151, 0.1179731, 0.0388050, 0.0402677, 0.1409907, -0.0013654, 0.0856687, 0.0853505, 0.0052566, -0.0152596, -0.0132106, 0.0021835, 0.0460222, 0.0715968, -0.0546030, -0.0513248, -0.0133764, 0.0316508, 0.0454938, 0.0229129, 0.0394915, -0.0141844, -0.0248395, 0.0223387, 0.0042185, 0.0088493, 0.0313427, 0.0386719, 0.0082277, -0.0162576, -0.0248815, -0.0718960, 0.0097457, 0.0283715, -0.0573549, 0.0220426, -0.0212765, 0.0357495, 0.0122470, 0.0290229, 0.0581429, 0.0787647, -0.0350089, 0.0502352, 0.0145146, -0.0185159, 0.0013271, -0.0006113, 0.0569972, 0.0049026, -0.0004382, -0.0157250, 0.0093914, -0.0531300, 0.0238613, 0.0105079, -0.0174110, -0.0432606, -0.0498416, -0.0132623, -0.0587981, 0.0270031, -0.0108793, 0.0158112, -0.0240176, 0.0269511, 0.0426198, -0.0201287, -0.0000618, -0.0161830, -0.0070025, 0.0976340, -0.0222985, 0.0079813, -0.0055378, -0.0352721, -0.0184052, -0.0247239, 0.0641331, -0.1080128, -0.0814034, -0.0438526, -0.0105103, 0.0182721, -0.0605469, 0.0139681, 0.0018164, -0.0456728, -0.0086635, 0.0102979, -0.0062230, -0.0356288, -0.0365108, 0.0192803, 0.0171515, 0.0666468, -0.0030456, 0.0196597, -0.0398623, 0.0069856, -0.0131348, 0.0542356, 0.0031608, -0.0252586, 0.0199501, -0.0749389, 0.0266400, 0.0060549, -0.0046551, 0.0277527, 0.0994299, 0.0044686, 0.0658829, 0.0179888, -0.0159777, 0.0522699, -0.0057300, -0.0356646, -0.0054651, -0.0928556, 0.0143522, -0.0144243, 0.1074376, -0.0543727, -0.0073061, -0.0265000, -0.0418330, 0.0525001, 0.0131054, -0.0047928, 0.0053405, 0.0225530, 0.0856836, -0.0192656, -0.0084342, 0.0094986, 0.0050130, 0.0294331, -0.0314406, -0.0108459, 0.0218071, -0.0471841, -0.0154300, 0.0136591, 0.0475807, 0.0300647, 0.0284583, -0.0159685, 0.0176488, 0.0022517, -0.0234268, 0.0237149, 0.0173731, 0.0285740, -0.0578479, -0.0021726, 0.0131108, -0.0239773, -0.0067411, -0.0220869, -0.0136318, -0.0183472, -0.0007714, 0.0067324, -0.0275660, 0.0555672, -0.0421551, -0.0042366, 0.0375354, 0.0508939, -0.0670149, -0.0075512, -0.0218708, 0.0525870, -0.0253142, 0.0482472, 0.0267733, 0.0230865, -0.0316134, -0.0134764, 0.0151131, -0.0034779, -0.0166834, -0.0589623, 0.0118812, 0.0445047, -0.0495962, 0.0681799, 0.0369589, 0.0262781, 0.0462677, 0.0244608, 0.0617468, -0.0176778, 0.0028375, -0.0109216, 0.0077475, 0.0464185, 0.0087478, 0.0283579, -0.0083293, -0.0249636, -0.0051349, -0.0583222, 0.0572471, -0.0107435, -0.0413970, -0.0615087, -0.0134968, -0.0307276, -0.0318655, -0.1058492, 0.0301971, -0.0445467, 0.0501223, 0.0278993, -0.0628242, -0.0070527, -0.0053925, 0.0327685, 0.0814932, -0.0466640, 0.0415352, -0.0240286, -0.0260566, -0.0170605, -0.0436004, 0.0009359, 0.0263096, -0.0047873, -0.0002113, 0.0261600, -0.0050347, 0.0169502, 0.0382193, 0.0213212, 0.0655736, 0.0506409, -0.0424964, 0.0301899, -0.0024503, 0.0329263, -0.0024743, 0.0269962, -0.0065949, 0.0784295, -0.0556794, 0.0095165, -0.0424880, 0.0347800, -0.0173973, 0.1035255, -0.0016970, -0.0016733, 0.1615953, 0.0987261, -0.0391146, -0.0299242, -0.0277328, -0.0335414, 0.0450053, 0.0199760, -0.0299808, 0.0393930, 0.0305973, -0.0350117, 0.0953809, 0.0232822, -0.0586711, -0.0289079, 0.0519621, 0.0212359, 0.0913569, 0.0613733, 0.0333157, -0.0754818, 0.0283339, -0.0056127, -0.0899291, 0.0558400, 0.0066189, -0.0345419, -0.0140323, -0.0679671, -0.0074911, -0.0251524, -0.0056056, -0.0239555, 0.0129035, -0.0274380, 0.0234677, -0.0377762, -0.0000720, -0.0078549, 0.0149836, -0.0517677, -0.0559617, -0.0083254, -0.0073602, 0.0150112, -0.0492341, 0.0212867, 0.0426960, 0.0787891, -0.0261108, 0.0215345, 0.0262870, 0.0015971, -0.0062920, -0.0071256, -0.0143170, -0.0193270, 0.0033818, -0.0369207, 0.0099967, 0.0068872, -0.0062899, -0.0052488, -0.0237042, 0.0234399, -0.0357685, -0.0058549, -0.0133932, -0.0284598, -0.0623355, -0.0462120, 0.0456851, -0.0431470, -0.0155571, -0.0428281, -0.0086542, 0.1969494, 0.0264138, 0.0318353, -0.0037198, -0.0007814, -0.0334972, 0.0289501, -0.0106736, -0.0275482, 0.0409124, -0.0372646, 0.0085799, 0.0612060, -0.0056865, 0.1018043, -0.0373399, -0.0445674, -0.0001309, -0.0435351, 0.0170654, 0.0156124, 0.0036730, 0.0306603, -0.0172132, -0.0076324, -0.0137134, 0.0353658, -0.0001357, 0.0297068, 0.0360050, -0.0164793, 0.0101425, 0.0195205, -0.0024460, -0.0131228, -0.0319648, -0.0704695, -0.0180470, 0.0462282, 0.0742987, -0.0706206, 0.0817210, 0.0630752, -0.0133423, -0.0170339, 0.0300686, 0.0019183, -0.0718831, 0.0162517, -0.0244153, 0.0009874, 0.0494318, -0.0418041, -0.0793996, -0.0433730, -0.1370600, -0.0213502, -0.0666094, -0.0109080, -0.0187036, 0.0853522, 0.0920386, -0.0468790, 0.0575515, 0.0603765, -0.0511242, -0.0254513, 0.0765491, -0.0697548, -0.0459684, 0.0566341, -0.0603629, 0.0932447, 0.0443026, -0.0423927, 0.0274113, -0.0678781, 0.0172500, 0.0532224, -0.0578742, 0.0375749, 0.0659273, 0.0657669, -0.0258661, -0.0491884, 0.0199260, 0.0181754, -0.0051019, -0.0149764, -0.0441075, 0.0459457, 0.0527301, -0.0504757, 0.0016582, 0.1427660, -0.0905952, -0.0212353, 0.0127018, 0.1163871, -0.0552123, -0.0262489, -0.0145296, 0.0280199, -0.0980884, -0.0174147, 0.0246269, -0.0190646, 0.0404807, 0.0236692, 0.0367552, 0.0444988, -0.0017176, 0.0507123, -0.0233786, 0.0152752, 0.0086581, 0.0178934, 0.0793466, -0.0285104, -0.0212763, -0.0358347, 0.0839435, 0.0418766, 0.0394100, -0.0087896, 0.0300597, 0.0435343, 0.0465046, 0.0519888, 0.0088963, 0.0075287, 0.0076624, -0.0789796, 0.0436481, -0.0366251, 0.0579700, -0.0113256, -0.0375844, -0.0635957, 0.0045219, -0.0503307, 0.0159527, -0.1056526, 0.0227258, 0.1090600, 0.0431955, -0.0021384, 0.0259596, 0.0396275, 0.0682672, -0.0500763, -0.0327600, 0.0532041, -0.0268548, 0.0679195, -0.0348018, -0.0010357, 0.1273648, 0.0311380, 0.0002420, -0.0100476, -0.0171306, 0.0155487, 0.0072411, 0.0094314, -0.0163302, -0.0174232, 0.0364182, 0.0541384, 0.0537861, -0.0628094, -0.0418931, -0.0833667, 0.0565603, 0.0190751, -0.0013305, -0.0161660, 0.0152076, -0.0178920, 0.0669010, -0.0309042, -0.0233824, 0.0778686, -0.0167081, 0.0653811, -0.0205881, 0.0284145, 0.0014610, 0.0314183, -0.0686580, -0.0149230, -0.0461189, 0.0002162, 0.0008805, -0.0088752, 0.0879859, -0.0207727, 0.0404969, 0.0261713, -0.0581765, -0.0154313, 0.0046717, -0.0010094, 0.0525706, -0.0059290, -0.0312302, 0.0585809, -0.0293091, -0.0042337, 0.0629335, 0.0183070, 0.0211434, 0.0640604, -0.0892740, -0.0346578, 0.0687195, -0.0547242, 0.0514735, -0.0135615, 0.0055423, 0.0278594, -0.0277582, -0.0580542, -0.0067046, -0.0088791, -0.0147788, 0.1295737, 0.0084573, 0.0238998, 0.0502895, -0.0179764, -0.0119567, -0.0027067, -0.0330671, -0.0199985, 0.0032832, 0.0462546, 0.0272161, 0.0214307, -0.0041648, -0.0304684, -0.0431946, -0.0022761, -0.0696356, 0.0614719, -0.0006376, -0.0201131, 0.0319214, 0.0101127, -0.0365694, -0.0469120, -0.0426864, -0.0058257, 0.0241512, -0.0630774, 0.0698774, -0.0348300, 0.0116136, 0.0019053, 0.0768661, 0.0119220, -0.0702574, -0.0589182, 0.0536429, -0.0339960, -0.0113592, 0.0135875, 0.0526825, -0.0436517, 0.0047366, -0.0329219, 0.0264377, -0.0108541, -0.0349076, 0.0502093, 0.0044236, -0.0291837, -0.0357138, -0.0082293, -0.0224629, 0.0130672, -0.0840691, 0.0122460, 0.0081664, -0.0100231, -0.0254254, 0.0611984, -0.0302264, 0.0020131, 0.0106228, 0.0519378, 0.0197118, -0.0059329, 0.0180324, 0.0078530, 0.0073142, 0.0200182, 0.0050779, -0.0342439, 0.0039160, 0.0544396, 0.0469932, -0.0140353, -0.0000523, -0.0307738, 0.0614383, 0.0219251, 0.0687580, 0.0362254, -0.0054053, -0.0095507, 0.0362331, 0.0163755, 0.0217564, 0.0579519, -0.0569361, 0.0105333, -0.0660353, -0.0334568, -0.1238457, 0.0223369, -0.0515829, -0.0242507, -0.0096962, -0.1210982, -0.0427210, -0.0118105, -0.0134304, 0.0937487, 0.0159767, -0.0483627, -0.0223021, -0.0570500, -0.0642675, 0.0300236, -0.0131468, -0.0110539, 0.0495506, -0.0218905, 0.0130924, -0.0452054, 0.0633763, 0.0082744, 0.0149498, -0.0205458, 0.0398833, -0.0459552, -0.0407668, -0.0729061, -0.0039370, 0.0780145, -0.0117674, 0.0009072, 0.0012647, 0.0162959, -0.0639986, 0.0258377, 0.0417531, -0.0003041, 0.0599697, -0.0125694, 0.0080513, 0.0039169, -0.0152469, 0.0552131, 0.0023205, -0.0641612, -0.0159180, 0.0095332, 0.0385023, 0.0752863, 0.0033533, 0.0875801, -0.0903233, -0.0283277, 0.0283052, -0.0139378, -0.0107287, -0.0095551, -0.0237354, 0.0269461, 0.0424262, -0.0766517, -0.0315438, 0.0102742, 0.0025120, -0.0293261, -0.0639430, -0.0051711, 0.0832697, -0.0325642, 0.0485483, 0.0024008, 0.0593616, -0.0031017, 0.0185215, 0.0256807, -0.0592673, -0.0105879, -0.0262958, -0.0728522, 0.0396074, -0.0101619, 0.0321912, -0.0725587, 0.0161348, 0.0280148, -0.0200593, -0.0504794, -0.1142642, -0.0141078, 0.0200742, 0.0399554, 0.0301352, -0.0202840, -0.0219784, -0.0260136, -0.0121887, 0.0758861, 0.0973573, 0.0134874, 0.0502580, -0.0081101, -0.0411943, -0.0592303, -0.0291891, 0.0300695, -0.0518996, 0.0566472, -0.0140499, 0.0176373, 0.0823459, -0.0365766, 0.0912799, -0.0063210, -0.0036106, 0.0469824, 0.0771085, -0.0208473, -0.0104804, 0.0386041, 0.0560144, -0.0300135, -0.0579974, -0.0483110, -0.0149766, 0.0202757, 0.0236844, -0.0376507, -0.0269241, 0.0105769, -0.0725191, 0.0598815, -0.0087040, 0.0274386, -0.1135414, -0.0136438, 0.0264608, -0.0349928, -0.0304576, 0.0021008, -0.0671695, 0.0280497, 0.1122743, 0.0156212, -0.0370706, -0.0060096, 0.0452712, -0.0023257, 0.0280356, -0.0010288, 0.0061088, 0.0432812, 0.0038645, 0.0136555, 0.0312345, 0.1006476, -0.0530725, 0.0235017, 0.0175706, 0.0044075, -0.0194404, 0.0237631, 0.0485222, -0.0909820, -0.0338241, -0.0091084, 0.0375940, -0.0375698, 0.0739930, 0.0731935, 0.0416194, -0.0841141, 0.0184576, -0.0541389, 0.0021436, -0.0428615, 0.0358117, 0.0546919, 0.0225727, -0.0112059, -0.0031806, -0.0749373, 0.0795485, 0.0063758, 0.0812220, 0.0290173, 0.0527203, -0.0714051, -0.0000711, 0.0024913, -0.1101587, 0.0310738, -0.0402345, -0.0437156, -0.0303203, -0.0058236, -0.0553251, -0.0094200, 0.0343623, 0.0557151, 0.0279825, -0.0116992, 0.0105284, -0.0046538, 0.0426071, 0.0364011, 0.0049310, 0.0214480, -0.0460144, 0.0336049, -0.0521431, 0.1342023, 0.0263035, -0.0116269, 0.0067844, 0.0226124, -0.0964576, -0.0972280, 0.0587604, 0.0163343, 0.0024236, -0.0758999, 0.0058929, 0.0100568, -0.0015008, 0.0190406, -0.0468436, 0.0551728, -0.0098085, 0.0567111, 0.0533172, 0.0024785, 0.0692367, 0.0295571, -0.0435342, 0.0022655, -0.0007634, 0.0404123, -0.0056817, -0.0187181, 0.0053798, 0.0332721, 0.0164614, 0.0671981, 0.0011915, 0.0374280, 0.0137107, 0.0633451, 0.0330657, -0.0087541, -0.0049218, 0.0990658, -0.0265507, -0.0391227, -0.0136658, 0.0560821, -0.0180020, 0.1366581, 0.0001191, -0.0231266, -0.0318167, 0.0109452, -0.0207122, -0.0160147, 0.0228784, -0.0458365, 0.0402538, 0.1084061, 0.0997354, -0.0340828, -0.0253728, 0.0176147, 0.0289275, 0.0478320, -0.0116526, 0.0579006, -0.0206944, -0.0108663, -0.0613956, 0.0602769, -0.0301869, 0.0506070, 0.0239378, 0.0407949, -0.0452207, -0.0369661, 0.0089476, -0.0213417, -0.0370531, 0.0801455, -0.0000270, -0.0234907, -0.0244599, 0.0103242, 0.1532047, -0.0325760, 0.0082831, 0.0020172, -0.0563569, 0.0053269, -0.1169947, -0.0493836, 0.0420510, 0.0230768, -0.0097091, -0.0165903, 0.0107895, -0.0747911, -0.0588004, 0.0168092, -0.0520242, 0.0022771, 0.0231177, -0.0352350, -0.0391407, -0.0405109, 0.0617617, 0.0313389, 0.0328173, 0.0440943, -0.0174948, -0.0217619, 0.0808090, -0.0575179, -0.0049599, -0.0160696, 0.0073348, 0.0049508, -0.0154706, -0.0555537, -0.0082732, 0.0466478, -0.0356876, 0.0327326, -0.0360132, -0.0096532, 0.0182530, 0.0037624, -0.0013770, -0.0622929, 0.0429925, -0.0318483, -0.0069249, 0.0013298, -0.0089696, 0.0008067, 0.0118211, -0.0122910, 0.0299005, 0.0167097, 0.0339835, -0.0035120, 0.0070893, 0.0682233, -0.0283526, -0.0447713, 0.0026114, 0.1164018, 0.1040277, -0.0252360, -0.0196829, -0.0182652, -0.0255594, -0.0662472, 0.0361994, -0.0034092, -0.0015050, 0.0402163, -0.0039382, 0.0249279, -0.0538783, 0.0333869, -0.0075125, -0.0584991, -0.0431396, 0.0740072, 0.0292297, -0.0000034, 0.0313824, -0.0202097, 0.0294916, 0.0426076, -0.0660042, -0.0088294, -0.0393398, 0.0419935, -0.0561617, 0.0239918, -0.0413714, -0.0546526, -0.0109206, 0.0158215, 0.0367046, -0.0118603, -0.0686590, 0.0473818, 0.0327697, 0.0407066, 0.0069050, 0.0105460, -0.0408063, -0.0382268, 0.1118378, 0.0202361, -0.0260461, -0.0057679, -0.0272821, 0.0190601, 0.1193681, -0.0167070, -0.0667545, 0.0021305, -0.0080537, 0.0146691, 0.0117313, 0.0067539, -0.0617149, 0.0108438, -0.0072702, -0.0019538, 0.0031771, 0.0274397, -0.0043491, -0.0102100, 0.0351386, -0.0574727, 0.0013431, -0.0353053, 0.0101184, 0.0489362, 0.0111559, -0.0144762, -0.0160944, -0.0050350, -0.0016795, -0.0936634, -0.0413611, 0.0529170, 0.0383617, 0.0505792, -0.0507369, 0.0176605, -0.0542935, 0.0464265, 0.0214553, 0.0288226, 0.0085972, -0.0203241, 0.0464576, 0.0027546, -0.0451256, 0.0373035, 0.0258895, -0.0347285, 0.0344680, -0.0437231, -0.0476645, 0.0218973, -0.0406930, 0.0344153, 0.0298892, -0.0035431, -0.0172696, -0.0225257, 0.0127090, -0.0941393, 0.0767326, -0.1501718, 0.0851644, -0.0188935, -0.0154119, -0.0305289, -0.0590923, 0.0629799, 0.0085734, 0.0765958, 0.0843432, -0.0633354, -0.0004556, 0.0116741, -0.1784908, -0.0620692, 0.0239212, 0.0236725, 0.0062042, -0.0825772, -0.0067256, 0.0178212, -0.0336283, 0.0202662, 0.0665016, -0.0218502, 0.0045609, 0.0573888, 0.0348158, 0.0936143, -0.0251671, 0.0327855, -0.0201959, -0.0725902, -0.0192880, -0.0110129, 0.0419623, -0.0202638, 0.0170742, -0.0066896, -0.0118895, 0.0334205, -0.0301331, 0.0800490, 0.0215062, 0.0412872, 0.0389005, 0.0036339, -0.0184370, 0.0560955, 0.0041004, 0.0362518, 0.0272537, 0.0299025, 0.0191945, -0.0241969, 0.0558228, 0.0012706, -0.0395003, 0.0834769, -0.0717438, -0.0648343, 0.0457541, 0.0077814, -0.0477823, -0.1636587, 0.0161967, 0.0185289, 0.0533315, -0.1185903, -0.0782282, -0.0033685, 0.0620885, -0.0156283, 0.0675734, 0.0422161, -0.0084415, 0.0737288, -0.0534048, 0.0175656, -0.0580113, -0.0081332, 0.0037481, -0.0308949, 0.0183137, -0.0215750, -0.0462394, -0.0428610, -0.0143815, -0.1520369, 0.0495701, -0.0440745, 0.0016041, -0.0592087, 0.0191783, 0.0060207, -0.1002035, 0.0155276, -0.0227715, 0.0474466, -0.0524157, 0.0234130, 0.0964452, 0.0050386, -0.0009513, 0.0213684, -0.0813849, -0.0484449, 0.0476070, 0.0213472, 0.0187961, -0.0846336, 0.0467450, -0.0219397, -0.0497922, -0.0363922, 0.0350344, 0.0002083, 0.0525514, 0.0395279, -0.0294892, 0.0892478, -0.0320018, 0.0041253, 0.0742252, -0.0568313, -0.0681657, 0.0928867, -0.1149560, 0.0520019, 0.0233478, 0.0177878, 0.0091949, 0.0106963, 0.0648253, -0.0414780, -0.0835350, -0.0090030, -0.0537075, -0.0283832, 0.0120504, -0.0159776, 0.0369403, 0.0240044, -0.0120919, 0.0089741, -0.0167271, -0.0583899, 0.0381688, 0.0909010, -0.0067036, 0.0109052, -0.0314346, 0.0137466, -0.0174251, 0.0188283, -0.0891316, -0.0107271, 0.0531038, -0.0205183, -0.0268973, 0.0996094, -0.0345000, -0.0006991, 0.0121183, 0.0101516, 0.0325465, -0.0029990, 0.0396960, -0.0897604, 0.0105579, 0.0709082, -0.0347229, -0.0187871, 0.0224482, 0.0602193, -0.0314795, -0.1180725, -0.0030695, -0.0121687, -0.0783394, -0.0035487, 0.0520008, 0.0072492, 0.0034752, 0.0587183, -0.0508063, 0.0295108, 0.0827260, 0.0183213, -0.0199925, 0.0768869, 0.0405906, 0.0806549, 0.0195126, -0.0630820, 0.0033285, -0.0412237, -0.0640943, -0.0088663, 0.0230310, 0.0531800, -0.0073201, 0.0251086, 0.0558436, -0.0244986, -0.0062100, -0.0254700, -0.0160929, -0.0177767, -0.0335802, 0.0144245, 0.0255215, 0.0391292, 0.0039704, 0.0179359, -0.0119316, -0.0122911, -0.0717937, -0.0717071, 0.0024465, 0.1398376, -0.0548199, -0.0292510, 0.0082219, 0.0302925, 0.0087322, 0.0340994, -0.0446840, -0.0234100, 0.0053642, -0.0630940, -0.0052170, 0.0242599, -0.0198449, -0.0217989, -0.0342037, 0.0178567, -0.0461403, 0.0104586, 0.0155080, 0.0070527, 0.0108213, -0.0075316, -0.0489302, 0.0105356, 0.0348609, -0.1131697, 0.0213201, -0.0467124, 0.0448628, 0.0386903, -0.0085699, 0.0070698, 0.0030880, -0.0271531, -0.0081587, 0.0149468, -0.0286820, 0.0945470, 0.0715530, 0.0343609, 0.0057682, -0.0487138, 0.0067831, -0.0143370, -0.0236116, 0.0056849, -0.0153336, 0.0063031, -0.0561695, -0.0217174, 0.0311869, -0.0596559, 0.0053099, -0.0101526, 0.0282630, 0.0285766, -0.0074501, -0.0248030, -0.0120041, -0.0035025, 0.0526690, 0.0074059, 0.0294676, -0.0245185, -0.0153375, -0.0213831, -0.0001241, -0.0056616, 0.0400138, 0.0001221, -0.0213433, 0.0225616, -0.0060507, -0.0363330, 0.0101559, 0.0448415, -0.0102261, 0.0134375, -0.0035765, -0.0580971, -0.0423930, -0.0793666, 0.0760730, -0.0171374, 0.0512271, 0.0711051, -0.0288543, 0.0338556, -0.0062049, 0.0172287, -0.0656783, 0.0131557, 0.0050004, -0.0129994, 0.0757402, -0.0093385, 0.0007491, 0.0283178, 0.0331474, 0.0006005, -0.0394667, -0.0046942, 0.0114923, -0.0154764, 0.0145436, -0.0079302, -0.0485772, 0.0143806, 0.0596681, 0.0504925, 0.1040483, 0.0182000, -0.0622544, 0.0202852, 0.0332357, -0.0359855, -0.0262964, 0.1500893, -0.0422735, 0.0092165, -0.0416691, -0.0078399, 0.0156239, 0.0189480, -0.0670393, 0.0296811, 0.0307101, -0.0140517, 0.0179974, 0.0155086, 0.0231698, -0.0165207, -0.0167298, 0.0141220, -0.0546188, 0.0062104, -0.0274551, 0.0503832, 0.0740551, 0.0476894, -0.0465462, -0.0817671, -0.0393693, 0.0273254, 0.0703238, -0.0466210, -0.0525472, 0.1100773, -0.0471995, 0.0130339, 0.0042611, 0.0709320, 0.1476606, 0.0854006, 0.0679976, -0.0245576, -0.0326522, 0.0177569, -0.0938006, -0.0560795, 0.0457330, 0.0170081, -0.0198614, 0.0192084, -0.0239291, -0.0774936, 0.0695630, 0.0331886, -0.0248703, -0.0304103, 0.0149103, -0.0762873, 0.0261118, 0.0160024, -0.0353958, -0.0399003, 0.0424653, 0.0644773, -0.0429763, -0.0396172, -0.0036929, 0.0362654, 0.0271960, 0.0250198, 0.0417339, 0.0073055, -0.0190410, 0.0239311, 0.0164858, 0.0096341, -0.0383938, -0.0064802, 0.0071809, 0.0057562, 0.0174849, 0.0287023, -0.0358989, -0.0073183, 0.0515297, 0.0085622, 0.0450346, -0.0202699, -0.0346633, 0.0115525, 0.0102611, -0.0001931, -0.0505613, 0.0619932, 0.0615785, -0.0088546, -0.0387944, -0.0009245, -0.0328031, 0.0264206, -0.0058583, 0.0682188, -0.1185084, 0.0129680, -0.0042148, 0.0113729, -0.1495659, -0.0179945, -0.0512445, -0.1032640, -0.0309052, -0.0175085, 0.0277401, 0.0424520, 0.0510064, 0.0266641, 0.0115046, -0.0091337, 0.0387430, -0.0160609, 0.0543327, -0.0394736, 0.0187642, -0.0121908, 0.0361009, 0.0016925, -0.0020655, -0.0250971, -0.0521935, 0.0732951, 0.0224490, 0.0315749, 0.0046498, 0.0357270, -0.0211406, -0.0678879, -0.0104735, 0.0164320, -0.0294368, 0.0582826, -0.0192705, 0.0588940, 0.0508501, -0.0543441, -0.0292812, 0.0784384, -0.0076422, -0.0141395, -0.0109132, -0.0153335, -0.0170349, -0.0096540, 0.0757210, 0.0168000, -0.0852225, -0.0453106, -0.0155409, -0.0902883, -0.0121958, -0.0358950, -0.0488090, -0.0019255, 0.0590458, -0.0367248, -0.0271200, 0.1257701, -0.0418264, 0.0249197, 0.0802149, 0.1363840, 0.0253783, -0.0041502, 0.0470009, 0.0162637, 0.0447964, -0.0532544, -0.0389072, 0.0409168, -0.0185282, 0.0251282, -0.0662421, 0.1056444, 0.0749134, -0.0143162, -0.0006636, 0.0208890, 0.0137739, 0.0090339, -0.0294803, -0.1134566, 0.0004348, -0.0201373, -0.0690718, -0.0829332, -0.0528028, 0.0131455, -0.0389593, -0.0252678, -0.0022676, -0.0202023, -0.0237481, -0.0057295, -0.0604967, 0.0775992, -0.0088741, -0.0698732, 0.0057781, -0.0388176, -0.0245880, -0.0318073, -0.0030101, -0.0038923, -0.0203495, -0.1879793, 0.1506900, 0.0763912, -0.0298699, -0.0945491, -0.0322250, -0.0457236, 0.0317528, -0.0472529, -0.0455856, 0.0325087, 0.0496524, 0.0322497, 0.0285293, 0.0432282, -0.0194560, 0.0721731, 0.0419531, 0.0134823, -0.0610637, -0.0478768, -0.0542212, 0.0345478, 0.0892058, -0.0229096, 0.0912780, -0.0567474, -0.0162713, 0.0054150, 0.0010504, 0.0488930, 0.0329352, 0.0299419, 0.0385667, -0.0100603, 0.0439516, -0.0946856, 0.0640474, -0.0020504, -0.0704863, -0.0895420, 0.0064289, 0.0380386, -0.0365770, -0.0076095, 0.0144922, -0.0619664, 0.0469381, 0.0277860, 0.0078216, 0.0133635, -0.0136283, 0.0224045, -0.0280702, -0.0118215, -0.0212737, -0.0212197, -0.0088275, -0.0138696, 0.0525767, 0.0636220, 0.0331388, 0.0170820, 0.0081219, -0.0412148, -0.0027083, -0.0047182, 0.0174965, 0.0155885, 0.0546713, -0.0184447, -0.0010179, 0.0008258, 0.0018997, 0.0160529, 0.0006142, -0.0160654, 0.0145001, -0.0014658, -0.0219518, 0.0425527, 0.0471974, -0.0390245, 0.0516006, -0.0519758, -0.0305612, -0.0202671, -0.0667313, 0.0072690, 0.0324679, -0.0438364, 0.0528312, -0.0613855, 0.0096318, -0.0053820, 0.0470463, -0.0326017, -0.0493204, -0.0007938, 0.0344981, -0.0028201, -0.0468737, -0.0079815, -0.0518693, 0.0212883, 0.0736659, 0.0036289, -0.0053191, -0.0442731, -0.0870710, -0.0003892, -0.0032687, -0.0002662, -0.0491569, 0.0461695, 0.0048220, -0.0195136, 0.0541970, 0.0401555, -0.0884467, -0.0077831, -0.0324498, 0.0406251, -0.0169542, 0.0379618, -0.0897247, 0.0451749, 0.0477384, 0.0002896, 0.0526969, -0.0413542, 0.0405207, -0.0348205, -0.0099851, -0.0479213, -0.0190646, -0.0883689, -0.0038366, 0.0591115, 0.0124564, 0.0327461, -0.0272965, 0.0149152, 0.1069133, 0.0074469, -0.0058726, 0.0005025, -0.0437640, 0.0199875, 0.0953833, -0.0248067, 0.0263454, -0.0029504, -0.0349285, -0.0069961, 0.0938061, -0.0286989, 0.0287123, -0.0461588, -0.0658946, 0.0269476, 0.0330249, 0.0370505, 0.0200562, 0.0045447, -0.0163720, 0.0117732, -0.0040876, -0.0386894, -0.0063299, -0.0593503, -0.0112558, -0.0852472, 0.0762481, 0.0436472, -0.0161924, 0.0323204, 0.0455750, -0.0475672, -0.0364686, -0.0348503, 0.0917888, -0.0025036, 0.0001204, -0.0211809, 0.0821032, -0.0229713, 0.0685413, 0.0080145, 0.0006893, 0.0346396, -0.0109885, -0.1141784, -0.0068864, -0.0173539, -0.0018544, -0.1252089, 0.1298552, -0.0489480, -0.0121488, 0.0138914, -0.1273630, 0.0358940, -0.0299505, 0.0104763, 0.0372194, -0.0111342, -0.0238376, 0.1003486, 0.0088516, 0.0369049, -0.0610866, 0.0226867, 0.0586165, -0.0436631, -0.0604791, 0.0316188, -0.0663094, 0.0099504, 0.0009543, 0.0451755, -0.0091138, 0.0329339, 0.0819835, 0.1004664, -0.0094681, -0.0166646, 0.0053692, 0.0478482, 0.0424110, 0.0183286, -0.0519318, 0.0771865, 0.0602683, 0.0413567, 0.0488060, 0.0475686, 0.0213129, -0.0558550, -0.0634894, 0.1445735, 0.0211817, 0.0027769, -0.0592625, 0.0725667, 0.0476762, 0.1126677, -0.0093899, -0.0037460, -0.0124870, -0.0667424, 0.0412270, 0.0833292, -0.0661111, 0.0602312, -0.0097116, -0.0241059, -0.0695743, -0.0132822, -0.0461224, 0.0471737, 0.0233414, -0.0309234, 0.0132363, 0.0527384, 0.0914853, -0.0067742, -0.0236429, 0.0023386, 0.0225276, 0.0211477, -0.0281072, -0.0336716, -0.0041776, -0.0256625, -0.0361278, -0.0281630, -0.0343004, -0.0030372, -0.0034760, -0.0111615, -0.0776056, 0.0360689, -0.0286419, 0.0123425, 0.0872973, -0.0156536, 0.0535680, 0.0004348, 0.0285983, 0.0630788, -0.0334696, -0.0126970, -0.0053951, -0.0254051, 0.0147129, -0.0211296, 0.0938174, 0.0039493, -0.0378602, -0.0453604, 0.0984953, -0.0200215, -0.0036561, -0.0819717, -0.0246907, -0.0497928, 0.0164419, 0.0041852, 0.0341499, -0.0236670, 0.1172529, 0.1445280, 0.0140273, 0.0223073, -0.1044613, 0.1065175, -0.1241409, -0.0437723, -0.0129219, -0.0275429, -0.1357064, 0.0100893, 0.0456489, -0.0068533, 0.0373835, 0.0279718, 0.0573799, 0.0418569, -0.0552559, -0.0398914, -0.0396978, 0.0004125, 0.0253785, -0.0177335, 0.0812551, 0.0325252, -0.1149966, -0.0243010, 0.0206015, -0.0077604, 0.0120113, 0.0694967, -0.0075028, 0.0155678, -0.0541370, 0.0298632, 0.0734302, -0.1182527, 0.0201419, -0.0085274, 0.0269482, -0.0737280, 0.0376837, -0.0352235, -0.0064631, 0.0024134, -0.0669639, -0.0059206, 0.0246194, -0.0170864, 0.0039587, 0.0058241, 0.0171148, -0.0074018, -0.0432012, -0.0784598, -0.0843139, -0.0240286, 0.0402176, -0.0162758, 0.0689842, 0.0888964, 0.0309414, -0.0410351, 0.0293166, 0.1042722, -0.0122414, 0.0401610, 0.0141972, 0.0345414, -0.0015310, 0.0048365, -0.0181828, -0.0182332, 0.0040207, 0.0186192, 0.0082401, 0.0278392, 0.0058159, -0.0122989, -0.0013031, 0.0168594, -0.0380462, -0.0272392, -0.0264833, 0.0301173, 0.1864691, 0.0043264, -0.0141932, 0.0441287, -0.0151385, -0.0329822, -0.0360497, 0.0097830, 0.0102233, 0.0335368, -0.0138221, -0.0563975, 0.0290695, 0.0440822, -0.0373389, 0.0552516, -0.0262997, 0.0438629, 0.0443247, -0.0330821, 0.0166620, -0.0203029, 0.0345575, 0.0042932, -0.0343852, 0.0123616, 0.0003332, -0.0032339, -0.0265033, -0.0149634, -0.0095574, -0.0223510, 0.0162786, -0.0066732, -0.0590626, 0.0163375, -0.1635521, -0.0837931, 0.0499931, -0.0457633, -0.0853135, -0.0315632, -0.0571629, -0.0258168, -0.0711892, 0.0027207, 0.0284204, 0.0312325, -0.1241416, 0.0399859, -0.0282542, 0.0265140, -0.0125281, -0.0301250, 0.0979908, 0.0456196, -0.0216817, -0.2302832, -0.0008519, 0.0248929, 0.0133122, 0.0027477, -0.0193389, -0.0054111, 0.0217835, 0.0208013, 0.0093589, -0.0505570, -0.0470986, 0.0052966, -0.0410444, 0.0791753, -0.0695499, 0.0430193, -0.0780635, -0.0461971, -0.0007659, -0.0136673, -0.0048368, 0.0083987, 0.0452992, 0.0100704, -0.0230351, -0.1070437, -0.0264623, -0.0297074, 0.0047967, -0.0835017, -0.0048871, 0.0297960, 0.0150122, 0.0357772, 0.0002853, 0.3245807, -0.0007798, -0.0129124, 0.0482946, 0.0229288, 0.0356359, 0.0337798, -0.0174771, -0.0246089, 0.0209284, -0.0019376, 0.0030674, 0.0061488, -0.0134340, 0.0590511, -0.0678833, 0.0273373, -0.0518263, 0.0828099, -0.0420152, -0.0000975, 0.0592628, -0.0004588, 0.0571268, -0.0242585, 0.0769675, -0.0627194, 0.0015726, 0.0102640, 0.0028107, -0.0601549, 0.0259176, 0.0365694, -0.0910323, 0.0119112, -0.0000350, 0.0230374, 0.0032411, 0.0149284, -0.1020833, -0.0139005, 0.0270302, 0.0416494, -0.0120300, -0.0231715, 0.0104723, -0.0036970, 0.0071009, 0.0197411, -0.0447111, -0.0830513, 0.0011236, -0.0514261, 0.0310250, -0.0204243, -0.0094308, 0.0404492, -0.0418151, -0.0009365, 0.0376440, 0.0267387, 0.0215713, 0.1215932, -0.0176088, -0.0703948, -0.0152132, 0.0945724, -0.0190192, -0.0469522, -0.0260491, 0.0342977, 0.0224335, 0.0129409, -0.0018125, -0.1255525, 0.0359150, -0.0465209, -0.0131159, -0.0919950, 0.0599748, -0.0187120, -0.0420631, 0.0214575, -0.0749438, -0.0368222, -0.0558606, 0.0170299, 0.0581358, -0.0165789, 0.0661035, 0.0686691, 0.0002278, -0.0247355, -0.0132951, 0.0198612, -0.0357123, -0.0312069, 0.0541819, -0.1297681, 0.0187286, -0.0055987, -0.0352872, -0.0890163, 0.0337588, 0.0075941, 0.0403814, -0.0356108, 0.0399259, -0.0072416, 0.0341641, 0.0436633, -0.0310487, 0.0348723, 0.0054049, -0.0376077, -0.0266439, 0.0272120, -0.0604111, -0.0166869, 0.0632768, -0.0287740, 0.0137301, -0.0108509, 0.0358311, -0.0148651, -0.0623092, -0.0267735, 0.0375951, 0.0054141, 0.0541485, -0.0367578, -0.0695836, 0.0732059, 0.0393724, 0.0614736, -0.0482379, -0.0682835, -0.0445883, 0.0610859, 0.0536860, 0.0539955, 0.0146043, -0.0002222, -0.0011372, -0.0011878, -0.0217811, 0.0437580, -0.0626226, -0.0094784, -0.0036276, 0.0961903, -0.0481737, -0.0193237, -0.0124025, -0.0475258, 0.0753594, 0.0143393, -0.0104598, -0.0170429, -0.0192883, -0.0176960, -0.0122089, 0.0234798, -0.0485232, -0.0760369, 0.0725237, 0.0205338, 0.0038337, -0.0437419, -0.0727608, -0.0237039, -0.0503072, 0.0133245, 0.0585893, -0.0579263, -0.0045321, 0.0166774, 0.0343706, -0.0107673, -0.0706378, 0.0421932, -0.0148740, -0.0233913, -0.0229696, 0.0768119, 0.0495198, 0.0059578, -0.0499614, -0.0180917, -0.0486569, 0.0108114, 0.0128012, 0.0308166, 0.0150640, -0.0218928, 0.0320396, 0.0033567, -0.0059673, -0.0646535, 0.0012823, -0.0064510, -0.0089059, -0.0481515, 0.0199231, -0.0443018, -0.0058089, 0.0068593, 0.0888862, 0.0331461, 0.0287076, 0.0061347, 0.0294382, -0.0291707, 0.0061167, -0.0215229, 0.0600391, -0.0794089, 0.0234843, -0.0097676, -0.1255061, 0.0206126, 0.0355394, -0.0073279, 0.0560247, 0.0138506, 0.0263387, 0.0359776, -0.0579672, 0.0099268, -0.1120805, -0.0550481, 0.0130052, 0.0315486, -0.0348199, 0.0223819, 0.0564618, -0.0140361, 0.0265019, -0.0146409, -0.0030439, 0.0012605, -0.0346242, -0.0311723, -0.0938584, 0.0105791, -0.0537018, -0.0049233, 0.0525219, 0.0455220, 0.0209736, 0.0268861, 0.0311278, -0.0244498, 0.0063826, 0.0262489, -0.0336966, -0.0054778, -0.0234453, 0.0202175, -0.0275322, -0.0409819, -0.0905773, 0.0065450, 0.0639104, -0.0057628, -0.0008687, -0.0125320, -0.0908287, 0.0403699, -0.0070662, -0.0509049, -0.0130431, -0.0544438, 0.0260173, 0.0283451, 0.0176738, 0.1709622, -0.0049116, 0.0266856, -0.0247716, -0.0138783, 0.0110513, -0.0054526, 0.0111218, 0.0206680, -0.0253799, -0.0247253, -0.0251864, -0.0133296, -0.0085508, 0.0308899, -0.0242502, 0.0473701, 0.0189407, 0.0752860, 0.0281767, 0.0050489, 0.0188539, 0.0387539, -0.0245942, 0.0575251, 0.0287787, 0.0078268, -0.1319149, -0.0151415, -0.0316557, -0.0202541, 0.0283318, -0.0653784, 0.0003489, -0.1967626, 0.0570850, -0.0300244, 0.0598707, 0.0075490, 0.0047130, -0.0050052, -0.0162327, -0.0165460, -0.0725435, -0.0257574, 0.0164316, 0.0175607, -0.0405284, 0.0194715, -0.0231690, 0.0521704, -0.0603238, -0.0055756, 0.0224216, -0.0381064, 0.0769425, 0.0296930, 0.0405730, 0.0260993, -0.0915245, 0.0056769, -0.0134125, 0.0049162, -0.0017665, 0.0128640, -0.0134682, 0.0458761, 0.0432675, 0.0079818, -0.0059298, -0.0364935, 0.0037511, 0.0106259, -0.0864602, 0.1302514, -0.0591517, 0.0443873, 0.0194718, 0.0895126, 0.0302614, -0.0651580, -0.0046505, -0.0331603, 0.0713425, -0.0256199, -0.0347984, -0.0760426, -0.0462276, 0.0155650, 0.0188379, 0.0179473, -0.0192758, -0.0048563, -0.0215465, 0.0071107, -0.0352218, -0.0673546, 0.0676531, 0.0140070, 0.0202390, 0.0401971, 0.0099733, 0.0128732, -0.0018400, -0.0129555, -0.0021578, 0.0027556, -0.0258356, 0.0643749, -0.0332309, 0.0356866, 0.0383110, 0.0426279, 0.0352198, 0.0384796, 0.0136419, 0.0025616, 0.0449636, -0.0454191, -0.0075615, 0.0075552, 0.0012306, 0.0403825, 0.0956434, -0.0038597, -0.0284171, 0.0653896, 0.0190775, -0.0080347, 0.0329868, 0.0332155, -0.0257815, 0.0110411, 0.0373638, -0.0640372, -0.0566903, 0.0281032, -0.0515928, -0.0308123, 0.0821669, -0.0709564, -0.0360019, 0.0517475, -0.0495384, 0.0515103, 0.0969801, 0.0100738, 0.0421580, 0.0097460, 0.0795658, -0.0058500, 0.0952599, 0.0023752, -0.0050984, 0.0191093, 0.0353278, -0.0084486, 0.0832199, -0.1026838, 0.1293423, -0.0440142, 0.0195520, -0.1158945, 0.0582263, -0.0482224, -0.0331091, 0.0177506, -0.0171670, -0.0092316, 0.0089057, -0.0401291, 0.0120307, -0.0155156, 0.0436517, -0.0553686, 0.0259629, -0.0149076, 0.0068016, -0.0141195, -0.0513598, -0.0678114, -0.0461551, -0.0114222, 0.0249541, -0.0190094, -0.0082183, -0.0154690, 0.0796579, -0.0050133, 0.0014081, -0.0342833, -0.0077191, 0.0443357, 0.0128956, -0.0153131, -0.0242527, 0.0372753, -0.0071152, -0.0383270, 0.0872724, 0.0235139, -0.0494381, -0.0171080, 0.0548265, 0.0196687, -0.1026331, -0.0325069, -0.0240880, 0.0151948, 0.0063814, -0.0145623, 0.0478884, -0.0236901, -0.0673396, 0.0142718, -0.0191945, -0.0024168, -0.0423670, 0.0240659, -0.0271090, -0.0039670, 0.0611259, 0.0154041, 0.0801733, 0.0660116, -0.0918646, 0.0223849, 0.0140909, 0.0010764, 0.0142549, -0.0749752, 0.0308070, 0.0326190, 0.0436622, -0.0863262, 0.0451051, 0.0455849, 0.0201322, 0.0126610, -0.0305524, 0.0284712, -0.0635052, -0.0381336, 0.0030915, -0.0346305, 0.0593619, 0.0342436, 0.0044978, -0.0292531, 0.0479788, 0.0159820, 0.0362370, -0.0390120, -0.0072780, 0.0080263, -0.0418020, -0.0123447, -0.0252538, 0.0286448, 0.0666304, -0.0248254, -0.0015130, -0.0093987, 0.0489515, -0.0147564, 0.0185081, -0.0603084, 0.0012929, -0.0241178, 0.0089038, -0.0801129, -0.0629974, -0.0215563, 0.0263115, -0.0252337, 0.0661716, -0.0342607, 0.0188218, 0.1038366, -0.0065308, -0.0905229, -0.1051031, 0.0904014, -0.0238059, -0.0215279, 0.0029297, -0.0203362, 0.0823557, 0.0066623, 0.1066093, 0.0775111, -0.0631301, -0.0293334, 0.0120131, 0.0586542, 0.0362038, 0.0599323, 0.0676396, -0.0262098, 0.0282075, 0.0185966, -0.0460097, -0.0863406, 0.0484407, 0.0179175, 0.0423827, -0.0270604, -0.0075689, -0.0596796, 0.0027743, -0.0009032, 0.0320570, -0.0221909, 0.0158959, 0.0165413, 0.0018993, -0.0492383, 0.0690448, 0.0247235, -0.0360179, 0.0694263, 0.0119198, -0.0320150, -0.0591997, 0.0372116, 0.0011521, 0.0449105, -0.0308780, 0.1357007, 0.0202327, -0.0206782, -0.0520041, -0.0369046, 0.0321595, -0.0050320, -0.0203230, 0.0140280, -0.0690863, -0.0414540, -0.0030035, 0.0427346, 0.0190246, -0.0647765, -0.0281166, 0.0400239, -0.0808984, -0.0129903, -0.0192566, -0.0252275, 0.0130267, 0.0128465, -0.0102731, 0.0097936, -0.0119385, 0.0471865, -0.0372943, 0.0524584, 0.0613230, -0.0065485, 0.0322021, 0.0050278, 0.0079241, 0.0042984, -0.0579489, 0.0540830, 0.0097626, 0.0045180, 0.0524125, -0.0011127, 0.0420542, 0.0911126, 0.0913934, -0.0066287, 0.0708830, -0.0228720, 0.0391062, -0.0329256, 0.0712741, -0.0306227, -0.0246017, -0.0971751, -0.0713862, 0.0193525, 0.0773107, 0.0276040, -0.0249346, 0.1416358, -0.0431035, -0.0400978, 0.0541735, 0.1504638, -0.1012053, -0.0398530, 0.0213675, -0.0003582, -0.0764877, 0.0597404, -0.0072274, 0.0344504, 0.0968582, 0.0473508, -0.0409594, -0.0065548, -0.0998619, 0.0233596, -0.0101472, 0.0386875, -0.0107242, -0.0047086, -0.0300878, -0.0891323, 0.0205710, -0.0092449, 0.0075764, -0.0463998, -0.0058476, -0.0262089, -0.0718658, 0.0617802, -0.0196694, 0.0149010, 0.0079837, -0.0512156, -0.0366694, -0.0437720, 0.0045476, 0.0013923, -0.0389403, -0.0203635, -0.0432523, -0.0507929, 0.0336702, 0.0931215, -0.0092467, 0.0052729, 0.0318214, 0.0081512, -0.0195128, 0.0033700, 0.0553881, -0.0128855, -0.0482487, 0.0068362, -0.0717735, 0.0218715, -0.0103049, -0.0786144, 0.0125380, 0.0001942, -0.0065255, -0.0619182, 0.0172588, 0.0292431, -0.0162827, -0.0397980, 0.0060368, -0.0039869, 0.0041651, 0.1039938, -0.1491428, 0.0085434, 0.0024565, 0.1275311, 0.0146541, 0.0561397, 0.0059941, -0.0236462, -0.0863273, 0.0597520, -0.0532320, 0.0476026, 0.0588992, -0.0508619, -0.1001641, 0.0353600, 0.0736623, 0.0676684, 0.0530374, -0.0187916, 0.0412735, -0.0466649, -0.0304411, 0.0240225, -0.0072402, -0.0517797, -0.0170116, 0.0597018, -0.0467651, -0.0551378, -0.0114708, -0.0557080, -0.1122869, -0.0130144, 0.0472686, -0.0100423, 0.0210076, -0.0322460, 0.0711642, 0.0327718, 0.0300760, -0.0173958, 0.0162454, 0.0125422, -0.0219838, -0.0166575, -0.1183888, -0.0260820, -0.0628712, 0.0055745, 0.0544254, -0.0155627, 0.0552898, -0.0630913, 0.0401977, -0.0037039, 0.1629560, -0.0145628, 0.0490263, -0.0094596, 0.0817503, -0.0397639, -0.0971263, -0.0319894, 0.0119325, 0.0577093, -0.0936157, -0.0052134, -0.0232654, 0.0161356, 0.0065422, -0.0406385, -0.0396356, 0.0228833, -0.0198085, -0.0024961, -0.0439212, 0.0056505, 0.0118498, -0.0108341, 0.0440754, -0.0187796, -0.0157258, 0.0486197, 0.1152561, -0.0194677, 0.0553292, 0.0239209, 0.0471503, -0.0473781, 0.0129509, 0.0304704, -0.0420539, -0.0323027, -0.0226790, -0.0826115, 0.0930509, 0.0804074, 0.0272131, 0.0185259, -0.0313844, 0.0865790, 0.0319187, -0.0002078, 0.0300950, 0.0032663, -0.0468904, 0.1202780, 0.0265992, -0.0513089, -0.0052969, 0.0796984, -0.0224876, 0.0202527, -0.0325760, -0.0005754, -0.0667888, 0.0224806, -0.0057383, -0.0209210, 0.0036411, 0.0471800, -0.0046149, -0.0561343, 0.0069028, 0.0229292, -0.0365565, -0.0073647, -0.0171228, -0.0236552, -0.0264561, 0.0439593, 0.0293193, -0.0197979, -0.0241608, 0.0249126, -0.0443307, -0.0051289, 0.0347757, -0.0127586, -0.0793062, 0.0139716, 0.0333476, 0.0143072, -0.0250948, 0.0246792, 0.0016535, 0.0052990, 0.0425746, -0.0545456, -0.0006736, 0.0423759, 0.0130509, 0.0349152, 0.0178955, -0.0279909, -0.0326066, 0.0025284, 0.0233217, -0.0844661, -0.1357972, -0.0438208, -0.0313085, 0.0001858, 0.0384646, -0.0160707, -0.0498037, -0.0854299, 0.0202165, -0.0686295, -0.0023724, -0.0056413, 0.0108583, -0.0107799, -0.0233500, -0.0152493, 0.0192862, -0.0620453, 0.0368426, 0.0562975, -0.0702376, -0.0210090, -0.0349342, 0.0136510, 0.0279724, 0.0606868, 0.0238476, 0.0164236, -0.0572814, 0.0316743, 0.0348298, 0.0962395, 0.1013906, -0.0527099, -0.0595889, 0.0327984, -0.0641469, 0.0743520, 0.0453083, -0.0386573, 0.1064580, 0.0122740, 0.0203960, -0.1268738, 0.1407551, -0.0573300, 0.0100267, -0.0323499, 0.0378424, 0.0352891, -0.0012349, 0.0028091, -0.0390364, 0.0189407, -0.0154709, 0.0011999, 0.0576538, 0.0470153, 0.0080611, -0.0245883, -0.0267615, 0.0065506, 0.0098432, 0.0259748, -0.0074767, -0.0039541, 0.0724972, 0.0794538, 0.0496223, 0.0800975, 0.0395275, -0.0210837, -0.0089316, 0.0076204, -0.0366380, 0.0174201, 0.0216756, 0.0145064, -0.0338817, -0.0819587, 0.0238982, -0.0025493, -0.0419554, -0.0304080, -0.0680466, -0.0111328, 0.0335201, -0.0152433, 0.0111581, 0.0513082, -0.0045529, -0.0315300, 0.0263745, 0.0228017, -0.0094228, -0.0771898, -0.0304478, 0.0222022, -0.0492332, 0.0219185, 0.0552520, -0.0249187, 0.0098356, 0.0158911, -0.0300960, -0.0854679, 0.0682856, -0.0174920, -0.0243288, 0.1293692, -0.0442055, 0.0049744, -0.0509024, 0.0388612, -0.0518473, 0.0762656, -0.0085922, -0.0102511, 0.0614006, 0.0858417, -0.0646299, 0.0952749, -0.0004315, 0.0076516, -0.0139274, -0.0544915, 0.0169230, -0.0250612, -0.0026831, 0.0198243, 0.0446778, -0.0260808, 0.0252782, -0.0448622, 0.0144175, 0.0206417, -0.0132007, -0.0194828, 0.0237674, -0.0148933, -0.1003230, 0.0072468, -0.0055499, -0.0445417, -0.0386459, -0.0309034, 0.0080645, 0.0243295, -0.0374064, 0.0130068, -0.0523237, -0.0552889, -0.0530543, -0.0019112, -0.0322990, -0.0868446, -0.0183659, 0.0168967, -0.0314237, 0.0187342, 0.0122569, 0.0169437, 0.0317322, 0.1267228, 0.0974821, -0.0822843, -0.0153740, 0.1327762, -0.0251205, -0.0326920, 0.0372272, 0.0089557, -0.0288530, 0.0438882, 0.0076501, 0.1335496, -0.0447141, -0.0052195, 0.0065948, 0.1064363, 0.0620228, 0.0006639, 0.0398639, -0.0129516, -0.0028770, 0.0228502, -0.0373908, 0.0111504, -0.0817891, -0.0645472, 0.0035923, 0.0626527, 0.1326060, 0.0124892, -0.0023106, -0.0260130, 0.0383533, 0.0303090, -0.0491563, -0.0609598, 0.0839582, -0.0778654, 0.0053456, 0.0524714, 0.0489642, 0.0064721, 0.0396783, 0.0043862, 0.0378848, -0.0448612, -0.0234116, -0.0253265, -0.0450433, 0.0839292, 0.0244674, 0.0073090, -0.0858270, -0.0233137, -0.0479527, 0.0373563, 0.0346981, 0.0055419, -0.0369633, 0.0866689, -0.0085903, -0.0376436, -0.0128186, 0.0205348, -0.0663669, 0.0218973, 0.0203815, 0.0363023, -0.0823289, 0.0371738, 0.0964230, 0.0214421, -0.0476880, 0.0050487, -0.0030781, -0.1238619, 0.0401594, 0.1088725, -0.0312801, -0.0131746, 0.0073071, -0.0629158, 0.0195184, -0.0079292, -0.0061195, 0.0357229, 0.0098226, 0.0090459, 0.0101902, -0.0212331, -0.0002163, -0.0165341, 0.0016788, 0.0288113, 0.0212227, 0.0132217, -0.0582248, 0.0177812, -0.0287806, 0.1099555, -0.0467414, -0.0424237, 0.0835764, -0.0477792, 0.0386981, -0.0069096, 0.0218885, 0.0189044, -0.0974339, -0.0076013, 0.0067417, -0.0056871, 0.0242767, -0.0299741, -0.0004820, -0.0095030, -0.0219676, -0.0623364, 0.0861284, 0.0049949, 0.0511957, -0.0181573, -0.0526734, -0.0013344, -0.0414834, 0.0605382, 0.0067330, -0.0171723, -0.1046840, 0.0079704, 0.0225474, -0.0191895, 0.0263090, -0.0383482, -0.0321737, -0.0226689, 0.1063522, 0.0342891, -0.0090310, 0.0396709, 0.0461948, 0.0181051, -0.0507674, -0.0311517, 0.0381195, 0.0698051, 0.0040014, -0.0849182, 0.0017946, 0.0021879, -0.0675319, 0.1014306, -0.0331465, -0.1230959, 0.0161027, -0.0120297, 0.0352998, 0.0149293, 0.0183980, 0.0050243, -0.0107278, -0.0031109, 0.0034956, -0.0087117, -0.0701071, 0.0013467, -0.0824656, -0.0758303, 0.0236618, 0.0378342, -0.0266443, -0.0334397, 0.0214652, 0.0217474, 0.0379901, -0.0320680, 0.0301201, -0.0094519, -0.0150776, 0.0283510, 0.0251123, 0.0166656, 0.0067129, -0.0212087, 0.0636654, 0.0490129, -0.0187868, -0.0471067, -0.0064727, -0.0341059, -0.0396879, -0.0239821, 0.0289236, 0.0235317, 0.0371719, -0.0241920, -0.0780873, -0.0198445, 0.0350706, 0.0122186, -0.0468536, 0.0373294, -0.0100861, -0.0249100, 0.0396069, -0.1268630, -0.0307859, -0.0490814, -0.0710815, -0.0514675, 0.0586619, 0.0021536, 0.0383467, -0.0452225, -0.0200170, -0.1520633, 0.0796060, -0.0041132, -0.0655811, -0.1104851, 0.0069159, 0.0404492, -0.0562018, -0.0381597, 0.0413522, -0.0199740, -0.0593213, -0.0497197, 0.0590143, 0.0082370, 0.0251697, 0.0039790, 0.0586600, 0.0065907, -0.0250148, -0.0286290, -0.0261976, -0.0251869, -0.0374248, -0.0277862, 0.0151878, 0.0014301, 0.0384664, -0.0024776, 0.0078088, -0.0175342, -0.0307804, 0.0348816, -0.0211757, 0.0272796, 0.0211864, -0.0084030, -0.0387128, 0.0271619, 0.1017805, 0.0024056, -0.0117778, -0.0112993, 0.0153164, -0.0322709, -0.0360426, 0.0133630, 0.0495971, 0.0937542, -0.0042943, -0.0056253, 0.0009771, 0.0151036, 0.0173713, -0.0160685, 0.0372965, -0.0119932, -0.0259662, -0.0436853, -0.0155080, -0.0612429, 0.0905586, 0.0101660, -0.0147359, -0.0230583, -0.0267775, -0.0177921, 0.0005702, -0.0129327, 0.0157059, 0.0221193, 0.0163901, 0.0457008, 0.0059775, -0.0267299, 0.0087306, -0.0223261, 0.0080271, -0.0143199, 0.0522548, 0.0529460, 0.0121977, -0.0443590, -0.0449133, 0.0052140, -0.0167385, 0.0457944, 0.0676085, -0.0127412, 0.0147053, -0.0292828, -0.0289197, 0.0220668, -0.0139372, 0.0427639, 0.0231961, 0.0558840, -0.0891696, -0.0194404, -0.0051876, -0.0262700, -0.0332028, 0.0357465, -0.0301113, 0.0498588, -0.0552961, -0.0021199, -0.0301891, -0.0334519, -0.0482103, 0.0044821, 0.0515321, 0.0081622, 0.0200184, 0.0197044, 0.0513731, 0.0223089, -0.0453951, 0.0076067, 0.0562599, -0.0080714, 0.0014571, -0.0125758, 0.0244319, -0.0198080, -0.0323788, 0.0152510, 0.0171002, -0.0383154, 0.0042897, 0.0183519, -0.0011107, 0.0075451, -0.0126582, -0.0366592, 0.0096137, -0.0179918, 0.0681972, -0.0396206, 0.0335702, -0.0142561, 0.0390538, 0.0259126, -0.0193700, -0.0486837, 0.1436640, -0.0049170, 0.0003158, -0.0130426, -0.0711173, 0.0130853, 0.0328966, 0.0714908, -0.0284827, 0.0215494, -0.0168502, 0.0474080, -0.0377500, -0.0611785, 0.0226457, 0.0912896, 0.0280965, 0.0771455, 0.0545094, 0.0213416, 0.0096631, -0.0368280, -0.0980495, -0.0697486, -0.0903683, -0.0478130, 0.0393866, -0.0366120, -0.0609665, 0.0222973, -0.0019810, 0.0076427, -0.0005807, -0.0151410, 0.0643004, -0.0173528, 0.0728097, 0.0112846, -0.0044028, 0.0683974, -0.0340110, -0.0534416, 0.0491315, -0.0343012, 0.0047656, 0.0051273, -0.0441190, 0.0905536, 0.0650495, 0.0083145, -0.0170390, 0.0755469, -0.0564355, 0.0848005, 0.0566099, 0.0231330, -0.0143539, 0.0009193, -0.0427908, 0.0729817, 0.0390290, 0.0028301, 0.0153845, 0.0464853, -0.0849732, -0.0351588, 0.0374347, 0.0166833, 0.0097177, -0.0088244, 0.0226588, -0.0304415, -0.0305479, 0.0124792, 0.0187510, -0.0217217, -0.0250355, 0.0762720, -0.0116708, 0.0318884, 0.0098517, -0.0525992, -0.0422080, -0.0523286, 0.0380610, -0.0109262, -0.0097936, 0.0000246, -0.0482643, -0.0056933, -0.0016853, -0.1319790, -0.0165744, 0.0367082, 0.1014469, -0.0466653, -0.0631712, 0.0495495, 0.0006442, -0.0241578, 0.0190742, -0.0002462, -0.0403412, -0.0321378, -0.0228236, 0.0779286, -0.0778351, -0.0626604, 0.0444816, -0.0335296, -0.0016250, -0.0693430, -0.0155386, 0.0151955, 0.0133536, 0.0682838, -0.0758768, 0.0138380, -0.0070397, -0.0683025, 0.0137383, -0.0198381, -0.0050599, -0.0288571, -0.0796752, -0.0413864, -0.0054682, -0.0162984, 0.0012712, -0.0553249, 0.0648554, 0.0411076, -0.0385820, -0.0296081, 0.0814939, -0.0405368, 0.0237653, -0.1058036, -0.0186190, -0.0238928, 0.0478255, -0.0674171, 0.0204669, 0.0416956, -0.0405296, 0.0200157, -0.0711773, 0.0183266, 0.0065510, 0.0805813, -0.0140248, 0.0005918, -0.0170890, -0.0140875, 0.0491981, 0.0270118, -0.0381895, 0.0039302, -0.0566646, 0.0332076, 0.0366318, -0.0695952, 0.0249330, -0.0235903, 0.0151175, -0.0247034, 0.0120384, 0.0003321, -0.0054526, 0.0167804, -0.0024482, -0.0171181, -0.0153357, -0.0035759, -0.0087676, 0.0013299, -0.0001402, 0.0472533, 0.0263458, -0.0488601, 0.0453781, 0.0433702, -0.0075311, -0.0091032, 0.0480647, 0.0843171, -0.0581729, -0.0290325, 0.0223091, -0.0301623, -0.0289046, 0.0850332, -0.0028699, 0.0131365, 0.0597785, 0.0169906, 0.0494801, -0.1289376, 0.0165343, -0.0154981, 0.0307868, -0.0378907, -0.0566844, -0.0460130, 0.0159348, 0.0155597, -0.0378828, -0.1102793, 0.0263257, -0.0343511, 0.0101728, 0.0339446, 0.0142183, 0.0419719, 0.0459358, 0.0267812, 0.0326067, -0.0280341, 0.0013366, -0.0065012, -0.0305638, -0.0152942, 0.0781939, -0.0104103, 0.0760606, -0.0794854, -0.1264892, -0.0409243, -0.0031599, -0.0090738, -0.0534714, 0.0286598, -0.0376840, 0.1200522, -0.0227229, 0.0135679, -0.0165907, 0.1106762, 0.0348852, -0.0173131, 0.0215079, 0.0164184, -0.0338779, 0.0560993, 0.0147182, -0.0103493, -0.0039794, 0.0429452, 0.0008519, 0.0120327, -0.0269004, -0.0005885, 0.0512954, -0.0106109, -0.0196109, -0.0341143, 0.0109355, -0.0646934, -0.0143437, -0.0296596, 0.0255939, -0.0146298, 0.0256679, 0.0597411, 0.0286859, 0.0686022, 0.0599016, 0.0061401, 0.0452650, 0.1030317, 0.0178046, 0.0654748, -0.0153300, -0.0004844, 0.0699492, -0.0485983, -0.0135887, -0.0353958, -0.0059367, 0.0435264, 0.0253182, 0.0238512, -0.0806141, -0.0452692, 0.0179838, 0.0158916, 0.0850657, 0.0381498, -0.0176179, 0.0359215, -0.0032714, 0.0324195, -0.0085447, -0.0776402, -0.0353891, 0.0264518, -0.0131827, -0.0160650, -0.0496607, -0.0076984, -0.0187682, 0.0292769, -0.0318959, 0.0014387, 0.0525435, -0.1199957, -0.0828300, 0.0229981, -0.0703340, -0.0585193, -0.0181912, 0.0458572, -0.0081275, 0.0344608, -0.0788319, -0.0221881, 0.0424479, 0.0145091, 0.0189742, -0.0258890, -0.0599031, 0.0265423, -0.0004926, -0.0149683, -0.0284107, 0.0451110, -0.0486641, -0.0327919, 0.0609766, 0.0120717, -0.0634613, -0.0126971, -0.0678043, -0.0236255, 0.0523924, -0.0135615, -0.0183236, -0.0206682, -0.0421699, 0.0072482, -0.0058217, -0.0188656, 0.0205598, -0.0448414, 0.0285629, 0.0321517, -0.0186502, -0.0367592, -0.0290263, -0.0954025, -0.0218232, 0.0228940, 0.0556143, 0.0237864, 0.0158480, 0.0402938, -0.0340038, 0.0982808, -0.0140312, 0.0476059, -0.0080257, -0.0410191, 0.0174104, -0.0054534, 0.0058889, 0.0429855, -0.0126901, -0.0856587, 0.0316971, 0.0117426, -0.0261705, 0.0378193, -0.0208333, -0.0072758, 0.0638902, 0.0186846, 0.0064030, -0.0404238, 0.0004089, -0.0426953, 0.0306849, -0.0464257, -0.0011874, 0.0262381, -0.0458303, 0.0217712, -0.0221474, -0.0200461, -0.0219747, 0.1305398, -0.0473633, 0.0146840, 0.0926840, 0.0229471, 0.0633061, -0.0121698, -0.0260119, -0.0631754, 0.0418037, -0.0969306, -0.0157081, -0.0270476, 0.0112801, -0.0236047, -0.0150085, 0.0306390, -0.0753407, 0.0680249, -0.0196153, 0.0663271, 0.0358338, 0.0216936, -0.0038649, 0.0276285, 0.0309262, 0.0310684, 0.1057890, 0.0551838, -0.0029197, -0.0249493, 0.0138725, 0.0481696, -0.0512524, -0.0262878, 0.0203119, 0.0287683, 0.0119569, 0.0547049, 0.1038258, -0.0248940, -0.0366057, -0.0038998, -0.0276255, -0.0230862, 0.0078459, 0.0355848, -0.0763334, 0.0195393, 0.0464091, 0.0596871, 0.0967474, 0.0200909, -0.0363985, -0.0053094, 0.0286552, -0.0029745, 0.0191262, -0.0295418, 0.0198975, -0.0395536, -0.0050051, -0.0218724, 0.0224756, 0.0380962, 0.0381340, 0.0002306, 0.0635445, 0.0415346, 0.0341782, 0.0012510, -0.0237447, 0.2121064, -0.0179432, 0.0336843, -0.0595888, 0.0338132, 0.0913782, 0.0028584, 0.0435309, -0.0221940, -0.0281937, 0.0095206, -0.0296565, -0.0541121, 0.1425717, 0.0714868, 0.0002091, 0.0313473, 0.1192308, 0.0519908, 0.0382127, 0.0404021, 0.0292332, 0.0162932, 0.0229948, 0.0009253, -0.0068228, -0.0206481, -0.0369358, -0.0366085, 0.0405602, -0.0462178, -0.0026873, 0.0050195, 0.0174276, -0.0945737, 0.0351819, 0.0490039, -0.0179781, 0.0119202, -0.0129645, 0.0226382, 0.0409129, -0.0367572, -0.0401587, -0.0378157, 0.0023032, 0.0354756, 0.0084024, -0.0440885, 0.0122129, -0.0593451, -0.0985806, -0.0152384, 0.0184885, -0.0422021, -0.0699698, -0.0101086, 0.0333200, -0.0179019, 0.0394134, 0.0362869, 0.0456776, -0.0061251, 0.0317441, -0.0325973, -0.0325900, -0.0002941, -0.0324078, -0.0359348, -0.0231700, 0.0549583, 0.0429209, 0.0581428, -0.0417171, -0.1019210, 0.0329527, 0.0371041, 0.0143205, 0.0563550, -0.0078623, 0.0421675, 0.0649083, -0.0482098, -0.0014020, -0.0288941, 0.0224316, 0.0463144, 0.0056855, 0.0069425, 0.0983612, -0.0402550, 0.0038813, 0.0306924, 0.0768864, 0.0508720, 0.0450914, -0.0014075, -0.0275894, 0.0023768, 0.0354570, 0.0562714, -0.0644885, 0.0552301, 0.0733385, 0.0421276, 0.0706875, -0.0117062, -0.0594973, -0.0330312, -0.0159844, 0.0045079, 0.0226317, -0.0161715, 0.0277614, 0.0125755, -0.0121183, -0.0052881, 0.0013335, -0.0352625, 0.0489260, 0.0467402, 0.0261028, -0.0881247, 0.0716394, 0.0617441, 0.0298141, -0.0177088, -0.0291214, -0.0341016, -0.0307254, 0.0620832, -0.0600482, -0.0715507, -0.0415563, -0.0991727, 0.1332023, -0.0020561, -0.0692901, 0.0298813, 0.0013057, 0.0135299, 0.0651532, 0.0019297, -0.0472526, -0.0050645, -0.0159311, -0.0148968, 0.0283021, -0.0119462, 0.0084502, 0.0208465, 0.0208348, 0.0100704, -0.0650045, -0.0624149, 0.0203299, -0.0647468, 0.0242518, -0.0488685, -0.1400550, 0.0640500, 0.0541782, -0.0027043, 0.0158781, 0.0113331, -0.0324046, -0.0485881, 0.0353033, 0.0301892, 0.0139201, -0.0750571, 0.0399649, 0.0352260, -0.0491199, 0.0778662, 0.0794754, 0.0428825, 0.0513925, -0.0644509, -0.0292682, -0.0430558, -0.0130246, -0.0293959, 0.0066894, 0.0393799, 0.0078739, -0.0428111, 0.0524200, -0.0924737, 0.0436697, 0.0783792, -0.0245520, 0.0162410, -0.0139629, 0.0358668, -0.0203989, 0.0058849, -0.0040001, -0.0241492, 0.0467050, 0.0224727, 0.0898424, -0.0337274, 0.0034887, 0.0818718, -0.0220361, -0.0646900, -0.0076050, -0.0092151, 0.0128787, -0.0808938, 0.0027011, 0.0033296, -0.0327991, 0.0762163, -0.0352448, 0.0542874, -0.0624728, 0.0292738, 0.0675847, 0.0160186, 0.0096122, 0.0257281, -0.0359491, -0.0435694, -0.0480819, 0.0348783, 0.0624964, 0.1394967, -0.0666898, 0.0281020, 0.0432007, 0.0356472, -0.0091564, 0.0006446, 0.0194354, -0.0316539, -0.0052498, -0.0677828, -0.0194951, 0.0550262, -0.0336945, 0.0072967, -0.0123692, 0.0233488, -0.1004955, 0.0705979, 0.0101284, 0.0042566, -0.0371634, 0.0078549, -0.0371746, 0.0343391, 0.0570291, -0.0776279, 0.1364403, -0.0155646, 0.1378664, -0.0200673, 0.0483738, -0.0294347, -0.0504992, 0.0003123, -0.0341641, -0.0094742, -0.0104968, 0.0079416, -0.0040456, 0.0222797, 0.0084266, 0.0102550, 0.0766101, 0.0190704, -0.0437797, -0.0642596, -0.0318762, 0.0142524, -0.0237625, 0.0114165, 0.0634876, 0.0624453, -0.0156278, 0.0525930, -0.0062394, -0.0138701, -0.0638168, -0.0713362, 0.0264185, 0.0704838, -0.0243523, 0.0698643, 0.0260407, -0.0425509, 0.0676024, 0.0343989, 0.0267338, 0.0666949, 0.0299729, -0.0331421, -0.0625407, -0.0457905, 0.0227222, -0.0329556, -0.0565012, 0.0682687, 0.0217523, -0.0160506, 0.0601216, 0.0024086, 0.0397100, -0.0539293, -0.0409557, -0.0510646, -0.0264198, -0.0293492, 0.0186338, 0.0214451, 0.0031909, -0.0106429, -0.0281742, -0.0108052, 0.0331335, 0.0223511, -0.0031272, -0.0291170, 0.0015882, 0.0107780, -0.0757830, -0.0212885, 0.0340869, 0.0901735, 0.0088482, 0.0555817, 0.0131508, 0.0037539, -0.1015190, 0.0289265, 0.0286525, -0.0438313, 0.0339770, -0.0320221, 0.0127447, 0.0323033, -0.0438131, -0.0445863, 0.0311370, -0.0111379, 0.0581349, -0.0572078, 0.0095995, -0.0605873, 0.0243427, -0.0035863, 0.0353013, 0.0195166, 0.0062989, -0.0082109, 0.0280718, -0.0087816, 0.0027051, -0.0363341, -0.0043531, 0.0012475, 0.1036163, 0.0487494, 0.0522519, 0.0747520, -0.0440988, -0.0543783, -0.0462530, 0.0375795, -0.0067552, -0.0408950, -0.0292649, 0.0594475, 0.0123234, -0.0248817, 0.0928824, 0.0084922, -0.0225690, -0.0287937, 0.0021847, -0.0081904, -0.0483274, -0.0788976, -0.0538278, 0.0022430, -0.0070930, -0.0262688, -0.0064254, -0.0203338, -0.0127269, -0.0005116, 0.0169079, -0.0025307, 0.0097566, 0.0309829, 0.0124590, -0.0182962, 0.0339749, -0.0029177, -0.0093753, -0.0226287, 0.0489416, -0.0210758, -0.0149350, -0.0390670, -0.0071135, 0.0247251, -0.0181328, 0.0091645, -0.0728255, 0.0117516, -0.0372167, 0.0494662, 0.0470356, 0.0118305, 0.0681241, 0.0060849, -0.0107093, 0.0142604, -0.0255410, -0.0448256, -0.0577099, 0.0191702, -0.0094134, 0.0178651, 0.0338504, -0.0152270, -0.0380722, -0.0027278, -0.0068506, 0.0887305, -0.0168105, 0.0187788, 0.0057854, -0.0298558, 0.0551301, -0.0252838, 0.0217291, 0.0266665, 0.0139494, -0.0082799, 0.0171097, -0.0249764, -0.0354960, 0.0304163, 0.0544034, -0.0475386, 0.0248762, -0.0329189, -0.0120274, -0.0763741, -0.0015562, 0.0269733, 0.0143721, -0.0674060, -0.0167031, 0.0388550, -0.0183508, -0.0103963, 0.0430843, 0.0509798, -0.0611519, -0.0264338, -0.0416989, 0.0248853, 0.0165164, 0.0489509, -0.0419186, -0.0049890, 0.0030448, -0.0168748, -0.0219586, 0.0162182, 0.0589535, 0.0138396, -0.0577721, 0.0042837, -0.0465688, 0.0351438, 0.0040278, -0.0142837, -0.0672560, 0.0007121, -0.0023216, -0.0623384, -0.0416452, 0.0315832, -0.0452061, 0.0271764, 0.0111283, -0.0508108, -0.0558858, 0.0164889, 0.0237822, 0.0112416, -0.0349097, -0.0277511, 0.0396726, 0.0430511, -0.0103363, 0.0375224, 0.0598856, -0.0175327, -0.0317465, -0.0266247, -0.0353720, 0.0853658, -0.0953050, -0.0147318, -0.0306702, -0.0698946, 0.0605978, -0.0396968, -0.0012276, 0.0536241, -0.0841344, -0.0340516, 0.0259103, -0.0256217, 0.0148582, -0.0471785, 0.0147780, -0.0223263, 0.0903381, 0.1239267, 0.0118794, -0.0557661, -0.0183329, -0.0549556, 0.0684767, 0.0251748, 0.0160287, -0.0100194, 0.0010902, -0.0059415, -0.0027342, -0.0116634, 0.0124934, 0.0368498, 0.0004259, 0.0054090, 0.0925663, 0.0046399, 0.0332572, 0.0461714, 0.0007721, 0.0248114, -0.0105088, 0.0516285, 0.0085822, -0.0130917, -0.0188508, 0.0010365, -0.0851609, 0.0062882, 0.0359502, 0.0100452, -0.0107038, 0.0302622, 0.0430315, 0.1168279, -0.0569128, -0.0515255, 0.0317891, -0.0234339, -0.0041775, -0.0264777, 0.0478523, 0.0497356, 0.0291890, 0.0075378, 0.0450977, -0.1329544, -0.0424624, 0.0080558, 0.0113156, -0.0119958, 0.1207922, -0.0167410, 0.0364092, -0.0381661, -0.0086279, -0.0098237, -0.0120478, -0.0250254, -0.0172097, 0.0039111, 0.0553669, -0.0036259, 0.1448546, 0.0020476, -0.0650792, -0.0371470, -0.0384495, 0.0044711, 0.0719149, 0.0434331, -0.0012570, 0.0038311, -0.0157326, -0.0131462, 0.0603242, 0.0270137, -0.0833980, -0.0098005, 0.0644903, -0.0490018, -0.0423646, -0.0724146, -0.0344400, -0.0454135, -0.0101687, -0.0110088, 0.0111792, -0.0206321, 0.0474875, 0.0042201, 0.0205143, -0.0170542, 0.0038551, -0.0226195, 0.0040723, 0.0104650, 0.0005505, 0.0120064, 0.0273212, 0.1233003, 0.0619314, -0.0329597, -0.0064267, -0.0128896, -0.0061471, 0.0032922, 0.0073283, -0.0437838, 0.0154429, 0.0863070, 0.0327985, -0.0100130, -0.0132253, -0.0114797, 0.0158577, 0.0165895, -0.0520523, 0.0171310, 0.0106120, -0.0150879, -0.0109378, 0.0251778, 0.0444478, -0.0113748, 0.0081425, 0.0893931, 0.0007976, 0.0142606, 0.0030887, -0.0215354, -0.0489701, 0.0276458, -0.0252321, 0.0134741, -0.0024336, 0.0472171, 0.0205014, 0.0319224, 0.0044017, -0.0333955, -0.0562961, 0.0383443, 0.0301818, 0.0041328, -0.0010841, -0.0667324, 0.0208135, -0.0383885, 0.0442179, 0.0193964, -0.0002905, 0.0129345, -0.0040184, -0.0193663, 0.0468527, -0.0158729, 0.0076482, -0.0129296, 0.0560647, -0.0746597, -0.0037668, 0.0033371, 0.0065684, -0.0208218, -0.0361278, 0.0362910, 0.0126956, -0.0024184, -0.0313893, 0.0044151, -0.0365448, -0.0439864, 0.0064358, 0.0091799, -0.0011450, 0.0155625, 0.0010779, -0.0130710, 0.0031718, -0.0733237, -0.0120870, -0.0104739, -0.1541278, -0.0132665, -0.0233275, 0.0320363, -0.0329664, 0.0084976, -0.0386795, -0.0016062, 0.0101169, 0.0154777, 0.0098246, 0.0279076, -0.0482932, 0.1880874, 0.0501919, -0.1624015, 0.0838281, 0.0274917, 0.1236010, 0.0231877, -0.0113902, -0.0132888, 0.0034393, 0.0636005, 0.0733619, -0.0273803, -0.1089956, -0.0599040, -0.0525548, 0.0023868, -0.0697098, -0.0615092, 0.0609213, 0.0101639, -0.0784498, 0.0157695, 0.0082530, -0.0875373, 0.0248392, -0.0488498, -0.0377717, 0.0007947, -0.0218403, 0.0185754, 0.0232398, -0.0509429, 0.0125684, -0.0074941, -0.0164606, -0.0396057, -0.0237534, -0.0065051, 0.0125349, 0.0114294, 0.0909071, 0.0647900, -0.0086607, -0.0116825, -0.0290158, 0.0486736, 0.0657749, -0.0380270, -0.0558662, -0.0389470, 0.0188995, -0.0052388, -0.0083850, 0.0416028, -0.0408169, -0.0020809, -0.0178909, 0.0502151, -0.0966495, -0.0581509, 0.0180139, 0.0491364, -0.0485933, -0.0388310, 0.0677686, 0.0227660, 0.1092696, -0.0210132, -0.0396022, -0.0434987, -0.0671212, 0.0009503, 0.0268839, -0.0374104, -0.0325592, 0.0493802, -0.0029508, 0.0605334, -0.1037996, 0.0160287, 0.0769953, 0.0273970, -0.0994514, -0.0212136, 0.0442662, 0.0147060, -0.0361434, 0.0217680, 0.0326944, 0.0618601, 0.0080852, -0.0406053, -0.0163735, -0.0521315, 0.0512003, 0.0450966, -0.0869456, -0.0305155, 0.0178665, -0.0146130, 0.0123333, 0.0574595, 0.0243068, 0.0380051, -0.0212974, -0.0380462, -0.0185204, 0.0151750, 0.0250921, 0.0384779, 0.0141213, 0.0731994, -0.0205326, 0.0201873, -0.0481029, 0.0470512, -0.0226280, -0.0512950, -0.0374945, 0.0018697, 0.0554552, -0.0024476, -0.0221529, -0.0303481, -0.0091402, 0.0227725, -0.0086087, 0.0824533, 0.0137494, -0.0364365, 0.0665570, -0.0689697, -0.0543819, -0.0339204, 0.0186231, 0.0298200, -0.0888721, 0.0826490, -0.0373437, -0.0444096, 0.0667840, 0.0687416, 0.0050992, 0.0692236, -0.0237355, 0.0705309, -0.0175877, 0.0426688, -0.0035154, -0.0083613, 0.0177034, 0.0466966, -0.0562314, 0.0946171, -0.0476298, -0.0340053, -0.0033199, 0.0093263, 0.0529619, 0.0216056, -0.0686082, 0.0192971, 0.0020314, -0.0445848, 0.0175589, -0.0052023, 0.0979431, 0.0267961, 0.0066424, -0.0266866, 0.0477208, -0.0591171, -0.0254600, 0.0184358, 0.0413348, -0.0178500, -0.0827400, 0.0224664, -0.0125462, 0.0042606, 0.0454980, -0.0194186, 0.0525403, -0.0375634, -0.0074441, -0.0310066, 0.0127214, -0.0398257, -0.0555940, -0.0375268, -0.1120758, -0.0439521, 0.0806071, -0.0046769, -0.0056390, -0.0586616, 0.0383606, 0.0521793, 0.0219428, -0.0069870, 0.0017924, 0.0105000, -0.0891850, -0.0713391, -0.0223301, -0.0037529, 0.0114703, 0.0467391, 0.0098012, -0.0060883, -0.0053177, -0.0149163, -0.0708887, 0.0563198, 0.0025153, -0.0729110, 0.0193262, -0.0037844, -0.0398571, 0.0529218, 0.0062672, 0.0217433, -0.0268838, -0.0243390, 0.0132927, 0.1139209, -0.0020967, 0.0008010, -0.0789887, -0.0232956, -0.0064543, 0.0301968, -0.0282144, 0.0455251, 0.1275107, -0.0214256, 0.0882049, -0.0844248, 0.0378119, -0.0896713, -0.0451302, -0.0137464, -0.0982569, 0.0530991, 0.0223661, 0.0350082, -0.0053518, -0.0670629, 0.0141320, 0.0399567, -0.1258519, 0.0267858, -0.0696709, 0.0136814, -0.0516255, -0.0282025, 0.0613522, -0.0033134, 0.0051842, 0.0131142, -0.0856054, 0.0052077, 0.0939591, 0.0200860, -0.0031657, -0.0405322, -0.0430027, -0.0404717, -0.0365670, 0.0243210, 0.0219865, -0.0332292, -0.0329652, -0.0108087, -0.0830152, 0.0029613, 0.0485932, 0.0284510, 0.0175510, 0.0446894, -0.0227001, -0.0277869, 0.0954771, -0.0247341, -0.0112547, 0.0327984, -0.0209786, 0.0248612, -0.0309788, 0.0618748, 0.0395068, 0.0081505, 0.0177274, -0.0787294, 0.1191312, -0.0132020, -0.0230795, 0.0595146, -0.0241439, 0.0218592, 0.0274990, 0.0928044, -0.0559149, 0.0057546, 0.0278791, -0.0198288, 0.0096428, 0.0183882, 0.0169040, -0.0163502, 0.0037322, -0.0380195, -0.0664960, 0.0127580, -0.0383837, -0.0054932, -0.0194364, -0.0056270, -0.0125667, 0.0488182, 0.0571292, -0.0376592, 0.0112517, 0.0015333, -0.0734778, -0.0555126, -0.0938198, -0.0257033, 0.0238975, -0.0325902, -0.0445025, -0.0011111, 0.0688533, 0.0357439, -0.1038901, -0.0660410, -0.0379690, 0.0204589, -0.0112413, -0.0307976, 0.0494016, 0.0049730, 0.0284250, 0.0196104, 0.0178940, 0.0490629, 0.0089783, 0.0403374, -0.0378211, 0.0145238, -0.0354828, 0.0001252, -0.0085507, -0.0121502, 0.0620959, -0.0099514, 0.0391492, 0.0653159, 0.0609858, 0.0282190, 0.0594340, -0.0146281, -0.0316039, 0.0450648, -0.0122091, 0.0259292, 0.0200706, -0.0652824, -0.0263102, -0.0183604, 0.0006794, -0.0460382, -0.0528019, -0.0228648, -0.0083962, -0.0668138, -0.0425556, -0.0116420, 0.0881710, 0.0467881, -0.0000516, 0.0918684, -0.0435525, -0.0045851, -0.0955629, 0.0370516, -0.0203981, 0.0009088, 0.0041376, -0.0828429, -0.0277143, 0.0122135, 0.0271716, -0.0521025, -0.0198999, -0.0047537, 0.0387644, -0.0445178, -0.0285788, -0.0067222, -0.0004669, -0.0391494, -0.0083745, -0.0484334, 0.0022620, -0.0599432, 0.0157221, 0.0087600, 0.0148200, 0.0013529, -0.0015664, -0.0302409, 0.0447254, -0.0224468, -0.0143001, 0.0576033, -0.0021592, -0.0486056, 0.0003806, 0.0681953, -0.0041035, -0.0552565, 0.0561707, -0.0137373, -0.0278259, -0.0021144, -0.0124176, -0.0012800, 0.0074884, 0.0080026, 0.1282438, -0.0308673, -0.0214365, 0.0180080, -0.0610964, -0.0057562, 0.0047967, -0.0423441, -0.0022339, 0.0185366, -0.0140931, 0.0821163, -0.1184691, 0.0099890, -0.0843357, 0.0119477, 0.0514728, 0.0616513, -0.0429977, 0.0271127, -0.0079118, -0.0377611, -0.0280927, -0.0897185, -0.0521374, 0.0892502, -0.0030180, 0.0507361, 0.0596955, 0.0572414, 0.0315931, -0.0008971, 0.0386252, -0.0791305, 0.0493890, 0.0591374, -0.1428941, -0.0694338, 0.0055679, 0.0069918, -0.0648076, -0.0462649, -0.0291408, 0.0307293, 0.0018658, 0.0136600, -0.0630055, -0.0796930, 0.0049912, 0.0092359, -0.0375944, 0.0051263, 0.0006598, -0.0205217, -0.0714957, 0.0441846, 0.0029143, 0.0356402, 0.0603116, -0.0322641, -0.0472152, 0.0225567, -0.0401435, -0.0507624, 0.0830434, 0.0381241, 0.0177076, 0.0365455, 0.0447060, -0.0237630, 0.0237137, -0.0295237, 0.1409106, -0.0203460, -0.0095610, -0.0201933, 0.0525833, -0.0102257, 0.0658228, -0.0017440, 0.0895811, -0.0464490, -0.0027570, -0.0123213, -0.0376321, -0.0777402, 0.0198693, 0.0095266, -0.0462715, -0.0180123, 0.0243734, -0.0047304, 0.0024458, 0.0503891, 0.0275790, 0.0083234, -0.0166685, 0.0329011, -0.0953452, 0.0057541, -0.0325447, -0.0095208, 0.0112907, -0.0279307, -0.0423729, -0.0090482, -0.0380650, 0.0221380, -0.1266569, 0.0510151, 0.0117306, 0.0101816, 0.0256347, 0.0084191, 0.0367741, 0.0596288, 0.0121648, 0.0374733, -0.0170591, -0.0243381, 0.0279807, -0.0084137, -0.0002198, -0.0084541, 0.0617745, -0.0358142, -0.0474945, -0.0336399, 0.0213910, 0.0049447, 0.0111020, 0.0392767, 0.0236305, -0.0041720, -0.0445054, -0.0465499, -0.0031903, -0.0678250, 0.0632677, -0.0070152, -0.0973167, 0.0560007, 0.0983699, -0.0184643, 0.0228900, -0.0015394, -0.0212201, 0.0764463, 0.0342138, 0.0212074, 0.0081487, 0.0004867, -0.0963537, -0.0002308, 0.0179327, 0.1140152, 0.0195615, -0.0177536, -0.0172632, -0.0256213, 0.0387364, -0.0117587, -0.0375134, -0.0170441, 0.0127771, 0.0206068, 0.0054304, -0.0118756, -0.0206251, 0.0016461, 0.0072380, -0.0402434, -0.0108031, 0.0284931, 0.0285058, -0.0163500, -0.0144672, 0.0305096, -0.0044741, -0.0240594, 0.0097550, -0.0830545, -0.0449779, -0.0721016, -0.0310757, -0.0222186, 0.0246996, 0.0955579, -0.0004585, -0.0110907, 0.0050158, -0.0328663, -0.0295366, 0.0434490, 0.0090748, 0.0271178, 0.0159986, 0.0340483, 0.0619799, -0.0507628, 0.0091423, 0.0596111, 0.0145307, 0.0140503, -0.0095689, -0.0112802, 0.0135498, 0.0046142, 0.0258305, -0.0122119, 0.0408629, 0.0059713, 0.0343426, -0.0071851, -0.0040898, 0.0177313, 0.0684768, 0.0016286, -0.0078442, -0.0539121, -0.0503306, -0.0389699, -0.0088691, -0.0608006, -0.0301400, -0.0836261, 0.0073890, -0.0775784, -0.0353346, 0.0049638, 0.0181197, 0.0729320, 0.0036443, -0.0103122, -0.0425387, -0.0455608, 0.0191278, -0.0007498, 0.0364067, 0.0159201, 0.0590557, 0.0334754, -0.0343313, 0.0000372, -0.0838504, -0.0226790, -0.0132218, -0.0231152, 0.0078777, -0.0226498, -0.0067191, -0.0036317, -0.0183157, -0.0755766, 0.0738693, 0.0659444, -0.0066476, -0.0146705, -0.0312149, -0.0189019, 0.0005857, 0.0083120, -0.0451942, 0.0391710, -0.0948677, 0.0212976, 0.0113284, 0.0390901, 0.0295441, 0.0142678, 0.0077890, -0.0085701, 0.0520270, -0.0311818, 0.0012880, 0.0576899, 0.1014610, 0.0097643, -0.0483309, -0.0513516, -0.0351804, -0.0366489, -0.0807801, -0.0509787, -0.0097531, 0.0874982, -0.0082698, -0.0682197, -0.0699534, 0.0054045, -0.0340019, 0.0050495, -0.0331490, -0.0098656, -0.0134806, 0.1164886, -0.0130117, -0.0561318, -0.0374036, 0.0316819, -0.0293231, -0.0495953, 0.0472212, 0.0549283, 0.0039364, -0.0169548, 0.0122371, -0.0522907, -0.0254251, -0.0914703, -0.0265545, -0.0333582, -0.0226227, -0.0125481, -0.0361118, 0.1179733, 0.0163318, -0.0221580, 0.0392423, -0.0024831, 0.0928870, 0.0160666, 0.0737020, -0.0158507, -0.0817766, -0.0037471, -0.0933830, 0.0512852, -0.0211981, -0.0373488, -0.0170304, -0.0178657, -0.0032687, -0.0843135, 0.0972888, 0.0361975, -0.0572544, 0.0074347, 0.0092176, 0.0036386, -0.0120901, 