//Numpy array shape [192]
//Min -0.377109020948
//Max 1.309729337692
//Number of zeros 0

#ifndef OUT_PROJ_BIAS87_H_
#define OUT_PROJ_BIAS87_H_

#ifndef __SYNTHESIS__
layers_11_ffn_out_proj_bias_t out_proj_bias87[192];
#else
layers_11_ffn_out_proj_bias_t out_proj_bias87[192] = {0.0823398530483246, -0.1298779100179672, -0.0118703739717603, 0.1044112592935562, 0.0663032457232475, 0.0661253482103348, -0.0467061698436737, -0.0167232267558575, 0.0709210485219955, -0.1812143921852112, -0.0751761347055435, -0.0639481320977211, 0.0760917291045189, -0.1203720271587372, -0.1305807977914810, 0.0539171323180199, -0.2089264690876007, 0.1043245941400528, -0.0363874025642872, -0.0215604379773140, -0.1835032701492310, 1.3097293376922607, 0.0467190295457840, 0.2034363746643066, 0.1096880957484245, 0.1269401758909225, 0.0391833372414112, -0.1850459724664688, 0.0091930730268359, 0.1197436600923538, -0.0366615243256092, -0.2522331476211548, 0.4197545051574707, -0.0261298269033432, 0.0219274461269379, -0.0729904919862747, -0.1764249801635742, 0.0163689497858286, -0.0237921122461557, -0.0349616631865501, -0.0169193167239428, 0.1859476864337921, -0.0313135758042336, -0.0413271449506283, -0.2984062135219574, -0.1252068430185318, -0.0185422152280807, -0.0641487985849380, 0.0851243883371353, -0.0312235672026873, 0.0523870326578617, -0.0603028200566769, 0.1907629519701004, 0.1789674013853073, -0.1574861407279968, 0.2730165719985962, 0.0186062976717949, 0.0761260241270065, 0.0120367808267474, 0.0372158400714397, 0.0454381667077541, 0.1881380975246429, -0.0562019646167755, 0.0089091071859002, -0.0278949365019798, -0.0583014823496342, 0.0579966492950916, 0.1351029574871063, -0.0264125689864159, 0.0697947219014168, -0.1844661384820938, 0.1237320005893707, -0.0166123881936073, 0.2654886245727539, 0.0797736570239067, 0.2008045762777328, -0.1763845533132553, -0.2391673773527145, -0.0947180613875389, -0.1341894418001175, 0.0378306545317173, 0.0489784367382526, 0.1177564859390259, -0.0479751452803612, 0.0708029419183731, -0.0535231418907642, 0.2766509056091309, -0.0772952958941460, -0.0943285077810287, 0.0271510034799576, 0.1590158939361572, -0.0452716164290905, -0.0303223971277475, -0.0310810301452875, 0.0988471806049347, 0.1755044907331467, 0.0654636994004250, -0.1117267832159996, -0.1328869163990021, -0.0797854363918304, -0.3285824954509735, -0.1693266183137894, -0.1378102749586105, 0.0500676184892654, -0.0294161196798086, -0.2027510255575180, -0.0629572197794914, -0.1239089667797089, 0.1551855951547623, -0.0118152983486652, -0.0868753716349602, 0.0784410014748573, -0.0248008407652378, 0.0684710368514061, -0.0418596267700195, -0.1009950414299965, 0.1114369109272957, -0.0744476839900017, -0.0483874231576920, -0.0365602746605873, -0.2255439609289169, -0.3355634510517120, -0.1126892119646072, -0.1752927452325821, -0.1647666245698929, 0.1489484310150146, -0.0878808125853539, 0.2245955616235733, -0.0296460278332233, 0.1363062709569931, -0.0398911871016026, 0.0820863246917725, 0.0090585406869650, -0.0658794939517975, -0.1035716161131859, -0.1367768049240112, 0.1202777177095413, 0.1755060702562332, -0.0785994455218315, 0.0577139183878899, -0.0417018122971058, 0.0687628611922264, -0.1650080382823944, -0.0218497905880213, -0.0544337891042233, -0.0945868715643883, -0.3771090209484100, 0.1393185704946518, 0.0557798072695732, -0.1463387459516525, 0.0623869188129902, -0.0022850977256894, 0.0348494052886963, -0.0953779146075249, -0.0546902045607567, -0.0600684881210327, 0.0987254977226257, -0.0607740022242069, -0.0248689632862806, 0.1098321899771690, 0.1653260141611099, -0.2898170650005341, 0.1360232383012772, 0.0809321030974388, -0.1547286510467529, -0.0814413800835609, -0.1004101485013962, 0.0053244810551405, -0.1352039277553558, 0.1692191958427429, 0.0537780150771141, 0.0537328384816647, -0.0268787238746881, 0.0295367501676083, 0.1007109731435776, 0.1054327934980392, 0.0108594149351120, -0.1512165516614914, 0.1604901850223541, -0.1079889014363289, 0.0391002818942070, -0.2145978957414627, 0.1091745272278786, -0.0147145362570882, 0.0135608082637191, 0.1436874717473984, 0.0632538273930550, -0.0320216380059719, 0.0430779159069061, 0.1966920793056488, -0.0700488388538361, -0.1769669502973557};
#endif

#endif
