//Numpy array shape [192]
//Min -0.644528925419
//Max 0.417435318232
//Number of zeros 0

#ifndef OUT_PROJ_BIAS33_H_
#define OUT_PROJ_BIAS33_H_

#ifndef __SYNTHESIS__
layers_2_ffn_out_proj_bias_t out_proj_bias33[192];
#else
layers_2_ffn_out_proj_bias_t out_proj_bias33[192] = {0.03746842965483665, 0.05547926947474480, -0.13359023630619049, 0.14674532413482666, -0.00821172446012497, 0.25396147370338440, 0.24523372948169708, -0.18952381610870361, -0.38727256655693054, 0.15581518411636353, 0.03668804094195366, 0.02284064516425133, -0.05088132619857788, 0.30998522043228149, 0.29239439964294434, -0.13577355444431305, 0.04454140365123749, 0.31376987695693970, 0.00250500184483826, 0.04969343915581703, 0.05510311946272850, -0.00875843781977892, -0.10056206583976746, -0.30822530388832092, -0.20643010735511780, 0.01578214950859547, -0.04671088978648186, 0.13766361773014069, -0.00981104373931885, -0.01684269495308399, 0.12854769825935364, 0.02076756022870541, -0.34092107415199280, 0.18043896555900574, -0.05037763342261314, 0.10051046311855316, 0.17212267220020294, 0.23998075723648071, -0.39334782958030701, -0.24461773037910461, -0.12637566030025482, -0.00176647654734552, 0.02678992412984371, 0.13611096143722534, 0.00127305276691914, -0.10385417938232422, -0.15619020164012909, -0.14319352805614471, 0.11801036447286606, 0.03293767198920250, -0.39215373992919922, 0.15346643328666687, -0.14248843491077423, -0.06708723306655884, 0.37148559093475342, 0.06303918361663818, 0.05940235406160355, 0.15226711332798004, 0.11982592195272446, -0.04704769328236580, 0.08376685529947281, -0.19025528430938721, -0.04201760888099670, -0.32082119584083557, -0.00093171990010887, -0.17395558953285217, 0.14586697518825531, -0.28854510188102722, 0.17968083918094635, -0.07511293888092041, -0.21652853488922119, 0.28365308046340942, 0.07246959954500198, -0.13510805368423462, 0.07784832268953323, 0.04483534768223763, 0.19408886134624481, 0.15437333285808563, 0.09713556617498398, 0.08412058651447296, 0.08826871216297150, -0.64452892541885376, 0.00983054190874100, 0.32439482212066650, -0.18385909497737885, -0.07148867100477219, 0.01191214192658663, 0.14866656064987183, 0.02318944036960602, 0.41743531823158264, -0.18149989843368530, 0.05434904992580414, -0.00918681640177965, -0.01265954319387674, 0.10425211489200592, -0.05646657198667526, 0.30907204747200012, 0.14174894988536835, 0.16846862435340881, 0.12541724741458893, 0.21245865523815155, -0.12661692500114441, 0.16412374377250671, 0.01081605907529593, -0.10113351047039032, 0.21706135571002960, 0.07133539766073227, 0.05514061823487282, -0.11214274913072586, -0.16659305989742279, 0.02896049246191978, -0.22760052978992462, -0.18324840068817139, 0.12301829457283020, 0.01610462367534637, 0.23518502712249756, 0.07221716642379761, -0.29460254311561584, -0.08788473904132843, 0.07107950747013092, 0.05678621307015419, 0.09363727271556854, -0.38705754280090332, -0.02926637977361679, -0.05844638869166374, -0.21714764833450317, 0.11720728874206543, 0.04050619527697563, -0.32082730531692505, -0.06736017763614655, 0.26981109380722046, -0.25572279095649719, -0.11140203475952148, 0.12097344547510147, 0.04307725280523300, 0.04812950640916824, -0.24080230295658112, -0.10812710225582123, -0.01278389059007168, 0.20343367755413055, -0.11113787442445755, 0.13983939588069916, 0.00385256367735565, -0.03176415711641312, -0.32541671395301819, -0.06987865269184113, 0.07578513026237488, -0.25899928808212280, 0.30980917811393738, -0.21937476098537445, -0.22127726674079895, 0.11284390091896057, 0.30723997950553894, 0.13881832361221313, 0.17120228707790375, -0.02273676171898842, 0.00342047400772572, 0.03026557713747025, -0.24597898125648499, 0.08712740987539291, -0.01115629542618990, -0.14484514296054840, 0.12267985194921494, -0.04994681105017662, -0.60966807603836060, -0.14279922842979431, 0.06091449782252312, 0.04384866729378700, -0.08141288161277771, -0.13258783519268036, -0.09704656898975372, -0.22103062272071838, 0.14246398210525513, 0.30657491087913513, 0.03954641148447990, -0.05148287862539291, 0.01435920782387257, 0.25665715336799622, 0.04898645356297493, 0.18390586972236633, -0.12836864590644836, -0.06089274585247040, 0.12665656208992004, 0.13923628628253937, 0.08740425109863281, -0.32671961188316345, 0.02397105284035206, 0.11490311473608017, -0.12594996392726898, 0.02174752391874790, 0.11220145970582962, -0.15143263339996338};
#endif

#endif
