//Numpy array shape [192]
//Min -2.819126605988
//Max 1.142282605171
//Number of zeros 0

#ifndef BIAS41_H_
#define BIAS41_H_

#ifndef __SYNTHESIS__
layers_4_norm1_bias_t bias41[192];
#else
layers_4_norm1_bias_t bias41[192] = {-0.015317906625569, -0.093495972454548, 0.044742487370968, -0.141934350132942, 0.340813577175140, -0.354423135519028, 0.031201943755150, -0.006531203165650, 0.179872959852219, -0.055888529866934, 0.040876965969801, -0.082520723342896, 0.099417634308338, -0.160378396511078, 0.625741779804230, -0.141072914004326, -0.029879163950682, -0.143771544098854, -0.086493439972401, -0.121163547039032, 0.401355654001236, -2.819126605987549, -0.074344612658024, 0.007529182825238, 0.128946930170059, -0.133580535650253, -0.103408798575401, -0.073891133069992, 0.029556153342128, -0.196175590157509, -0.240417480468750, 0.173137605190277, 0.155208975076675, -0.151805564761162, -0.058335740119219, 0.194959312677383, 0.083908952772617, -0.164486527442932, -0.474184572696686, 0.052827589213848, -0.006503909360617, 0.158597350120544, 0.003903979202732, 0.018206020817161, 0.347045004367828, -0.246685221791267, 0.021529791876674, 0.147761017084122, 0.180694639682770, 0.158176451921463, 0.142344534397125, 0.046559564769268, -0.225059062242508, 0.069971866905689, -1.105923175811768, -0.164572760462761, -0.283412039279938, 0.382356107234955, -0.269760549068451, -0.249819710850716, 0.044770702719688, 0.078705295920372, 0.160297408699989, 0.173576682806015, -0.187388390302658, 0.603254616260529, 0.611938714981079, -0.082091994583607, -0.339208811521530, -0.240683540701866, 0.054011795669794, -0.238259643316269, -0.268031507730484, -0.118570260703564, 0.035067740827799, 0.032939124852419, -0.110905177891254, -0.160747095942497, -0.394631266593933, -0.271199166774750, -0.205864191055298, 1.099443078041077, -0.243771076202393, 0.029306754469872, -0.084683500230312, 0.360364556312561, -0.193535447120667, -0.064237855374813, -0.015662144869566, -0.771218955516815, -0.104043968021870, 0.196450769901276, 0.227114319801331, 0.009761351160705, 0.013252573087811, 0.338575839996338, -0.239527359604836, 0.090448834002018, 0.191311851143837, -0.011295663192868, 0.004417903721333, -0.003284878795967, 0.010381571948528, -0.238432273268700, 0.187725797295570, -0.148312851786613, -0.125928938388824, -0.296775162220001, 0.014646171592176, -0.036933664232492, -0.065956071019173, 0.040103554725647, 0.309012591838837, 0.095985963940620, 0.225501939654350, 1.142282605171204, -0.511676132678986, 0.328380733728409, 0.090757764875889, 0.140725493431091, 0.191999301314354, 0.197422847151756, -0.017132315784693, 0.217345908284187, 0.188602238893509, -0.258331775665283, -0.020015448331833, -0.133499249815941, 0.047932993620634, -0.196604520082474, 0.179688572883606, -0.797591030597687, 0.116502501070499, 0.141043692827225, 0.151750996708870, -0.001839725417085, -0.029118981212378, 0.003790029557422, 0.109399735927582, 0.042958933860064, -0.042016871273518, -0.078448504209518, -0.249466016888618, 0.104093626141548, 0.405815333127975, -0.197508051991463, 0.065465129911900, 0.303622037172318, -0.184316024184227, 0.169348686933517, 0.093917846679688, -0.189514666795731, -0.000059187128500, 0.070179596543312, -0.066244930028915, 0.136369153857231, 0.022423233836889, 0.246239319443703, -0.138458862900734, -0.222366675734520, -0.011616334319115, 0.254149556159973, -0.144843295216560, -0.125907793641090, 0.650672733783722, 0.163476034998894, -0.060317046940327, -0.276555866003036, 0.573602795600891, 0.258428573608398, -0.050847139209509, 0.010540640912950, 0.061514202505350, -0.219076603651047, -0.158049106597900, 0.180114656686783, -0.051758788526058, 0.002721893135458, -0.140102356672287, -0.022987786680460, 0.054368339478970, 0.196399182081223, 0.647821366786957, 0.037490505725145, -0.466096192598343, -0.078444652259350, 0.065121479332447, -0.181559830904007, 0.331180334091187, -0.002878961386159, -0.121862433850765, 0.295319646596909};
#endif

#endif
