//Numpy array shape [192]
//Min -1.146318674088
//Max 1.098959565163
//Number of zeros 0

#ifndef BIAS74_H_
#define BIAS74_H_

#ifndef __SYNTHESIS__
layers_9_norm2_bias_t bias74[192];
#else
layers_9_norm2_bias_t bias74[192] = {0.2447765767574310, -0.0406850464642048, 0.0044888621196151, -0.0044059748761356, -0.3095054924488068, 0.6567407250404358, 0.4373763203620911, -0.3110407590866089, 0.1751270294189453, 0.1606536209583282, -0.3256006836891174, 0.4480523169040680, 0.5670083165168762, -0.0133665893226862, 0.3633308708667755, -0.0427718870341778, -0.4960765242576599, 1.0000716447830200, 0.0548158735036850, 0.0098463073372841, -0.2821389436721802, 0.1615432202816010, -0.1747645586729050, -0.2455306947231293, 0.2381418347358704, -0.0880603790283203, 0.3095260560512543, 0.7045857310295105, -0.5771928429603577, -0.0136564318090677, -0.1174205690622330, -0.1663161665201187, 0.1587346494197845, 0.1188642233610153, -0.4080150723457336, -0.0504443943500519, -0.0356432273983955, 0.1155047863721848, -0.4046377241611481, -0.1012342795729637, -0.2790921330451965, 0.1123952493071556, 0.5255058407783508, 0.1361910700798035, 0.0026405213866383, -0.3788822591304779, 0.1602422147989273, -0.3517170846462250, -0.0917012318968773, -0.0298817325383425, -0.3790679872035980, 0.2819185554981232, -0.3299472033977509, -0.0432866327464581, 0.0662540197372437, -0.0853923633694649, -0.1929301470518112, -0.1551386117935181, 0.3360892832279205, -0.7429330348968506, 0.3062740266323090, -0.3618741631507874, 0.2413864582777023, 0.2553988695144653, 0.1446485221385956, 0.5369949340820312, 0.2995656430721283, -0.7196015715599060, 0.0322421938180923, -0.4723944962024689, -0.4708504676818848, -0.0663441121578217, 0.2359748631715775, 0.5964696407318115, -0.5363918542861938, -0.1024538949131966, 0.6442853808403015, -0.1345979273319244, -0.0842370763421059, 0.1488624960184097, 0.2395005077123642, -0.0731427073478699, 0.0993469431996346, 0.1910640448331833, -0.2789098024368286, 0.2995151579380035, 0.2603456079959869, 0.1483236402273178, 0.2095706760883331, 1.0989595651626587, 0.5574977397918701, 0.1551636755466461, -0.0625833347439766, 0.0452302023768425, -0.1791428178548813, 0.3275420665740967, -0.2631818652153015, -0.8304492831230164, -0.5232893824577332, -0.1184895187616348, -0.0552352778613567, -0.1084942296147346, -0.1420025825500488, 0.2368602305650711, -0.4267903566360474, 0.1574011743068695, -0.0686266273260117, 0.3979005217552185, 0.4795471131801605, -0.5458999276161194, -0.1125918328762054, 0.1255922764539719, -0.3390410542488098, 0.1436340659856796, -0.2249982208013535, -0.1095565110445023, 0.2131289392709732, -0.0167408548295498, -0.3530948460102081, -0.3506588041782379, 0.4196745753288269, -0.1142758652567863, -0.4114528298377991, 0.3690144419670105, 0.4152956902980804, 0.1600580364465714, -0.0278174448758364, -0.0850817635655403, -1.1463186740875244, 0.1328507810831070, -0.0313691832125187, 0.1008460149168968, 0.6356106996536255, 0.2973732054233551, 0.1119603216648102, 0.2785759568214417, -0.7316903471946716, -0.8480236530303955, -0.3680443465709686, 0.0895951092243195, -0.2439841926097870, 0.4430404305458069, 0.0021005775779486, 0.1954509913921356, -0.4329363405704498, 0.1047066524624825, 0.9655408263206482, -0.6154020428657532, 0.0178462788462639, -0.2849800586700439, -0.4218153059482574, -0.6474858522415161, -0.5932097434997559, 0.1154363229870796, 0.4507949948310852, -0.3949934542179108, -0.3693888187408447, 0.6967522501945496, -0.5249577164649963, 0.4543779492378235, -0.6302765011787415, -0.3253441154956818, -0.3466846644878387, -0.1388604491949081, -0.0624671615660191, 0.2404798567295074, 0.6440885663032532, -0.0884803831577301, 0.2246664762496948, -0.2308962941169739, 0.3774999082088470, -0.5908499360084534, 0.2121213227510452, 0.5359905958175659, 0.1388006657361984, -0.5016717314720154, 0.0445835143327713, 0.0884677842259407, 0.1755647063255310, -0.1992912590503693, -0.1932667642831802, 0.0228608027100563, -0.1692095994949341, 0.1223832890391350, -0.0423343554139137, -0.5082325339317322, 0.4353823065757751, -0.2100306153297424, 0.0017079939134419, 0.0677103698253632, -0.4384805262088776, 0.0650821477174759};
#endif

#endif
