//Numpy array shape [192]
//Min -0.938061237335
//Max 1.025466203690
//Number of zeros 0

#ifndef BIAS62_H_
#define BIAS62_H_

#ifndef __SYNTHESIS__
layers_7_norm2_bias_t bias62[192];
#else
layers_7_norm2_bias_t bias62[192] = {0.2581720352172852, -0.2177154123783112, 0.1428381055593491, -0.1354342848062515, -0.4094996154308319, 0.6637401580810547, 0.4094437360763550, -0.0189470071345568, -0.2530311942100525, 0.4598650634288788, 0.4020918011665344, 0.2611736953258514, 0.3519096970558167, 0.1395147144794464, 0.4067243039608002, 0.0484785735607147, 0.2401922494173050, 0.6441194415092468, 0.0038792348932475, 0.3052002787590027, 0.1163298115134239, 0.7337597012519836, -0.4824075102806091, -0.3699921965599060, 0.0549175292253494, -0.0069105336442590, 0.4185782968997955, 0.4163056612014771, -0.8621799945831299, -0.1434075385332108, -0.1419820189476013, 0.0083767110481858, -0.2940980792045593, 0.0314102806150913, -0.2578391134738922, 0.2145996093750000, 0.4994678795337677, 0.0148147204890847, -0.6791003942489624, -0.0486525930464268, 0.3085359632968903, -0.1702895760536194, 0.3727089464664459, -0.0683697611093521, 0.0687986388802528, 0.0099591752514243, -0.1197563484311104, 0.2255237549543381, -0.1147776171565056, -0.0685662329196930, -0.4722235202789307, 0.4881518781185150, -0.3299917876720428, -0.0007615675567649, 0.0884679853916168, 0.0698317885398865, 0.0259281564503908, 0.0165294688194990, 0.2345374226570129, -0.2803321778774261, 0.2074015289545059, -0.4203053712844849, -0.3230738937854767, -0.2026271969079971, 0.0930573418736458, 0.6066856384277344, -0.0243357196450233, -0.9380612373352051, 0.7988787889480591, -0.4630785584449768, -0.1989731192588806, -0.0069037401117384, 0.0303723011165857, 0.1181879416108131, -0.5461069941520691, -0.2743576765060425, 0.9347319602966309, 0.4655582010746002, 0.1763399988412857, 0.5585230588912964, 0.5519336462020874, -0.2789098322391510, -0.3704386353492737, -0.0631412640213966, -0.2051991075277328, -0.0567059218883514, -0.2016383856534958, 0.1479006260633469, 0.2409735769033432, 0.6662049293518066, 0.2059258520603180, 0.4581130445003510, 0.5555405020713806, -0.3271080851554871, -0.0320237018167973, 0.2869369983673096, 0.0631670430302620, -0.1711215674877167, -0.1944157034158707, 0.1954001039266586, 0.4808608293533325, -0.0372858606278896, -0.1185868829488754, 0.0921056345105171, -0.2144038677215576, 0.3009883165359497, 0.1844339221715927, 0.6711345314979553, 0.0870698392391205, -0.6560927033424377, 0.0296276099979877, 0.1738928854465485, -0.1984391063451767, -0.1333921700716019, 0.0154108246788383, 0.2178196758031845, -0.1103349551558495, 0.1167451590299606, 0.1139578297734261, -0.0661991015076637, 1.0254662036895752, 0.2347697317600250, -0.3793356418609619, 0.2296654134988785, 0.2997650802135468, 0.2260694801807404, -0.0426899231970310, -0.2661175131797791, -0.9017963409423828, -0.1755487918853760, 0.5500068664550781, -0.2029872685670853, 0.4232662320137024, 0.3284407556056976, 0.1377629637718201, 0.3690311014652252, -0.6216701269149780, -0.8753734827041626, -0.3601486682891846, 0.2247159332036972, -0.3117150664329529, 0.3622605800628662, -0.1032894477248192, 0.2812396287918091, -0.1133171245455742, 0.1221547201275826, 0.4907757341861725, -0.6598432660102844, -0.0299616307020187, -0.3419423401355743, -0.2278410643339157, -0.4608593583106995, -0.1185407713055611, 0.1022573783993721, 0.4750404953956604, 0.0037656587082893, -0.7427431941032410, 0.3184290826320648, -0.4238680601119995, 0.3260706067085266, -0.7722322940826416, -0.2861859500408173, -0.3596520125865936, -0.2636597752571106, 0.0646927207708359, 0.4036053121089935, 0.7013839483261108, -0.2183426022529602, 0.3858993351459503, -0.2078379094600677, -0.0053792372345924, -0.5539726018905640, -0.1003847941756248, 0.3863092958927155, 0.1771129071712494, -0.5588281154632568, 0.0102867884561419, 0.5059883594512939, -0.0844040513038635, -0.0237914361059666, -0.1074195429682732, -0.1033667549490929, 0.0472658053040504, 0.3344185054302216, 0.2920339107513428, -0.2084680199623108, 0.2321781218051910, 0.0519982576370239, 0.0378745049238205, 0.1304232776165009, 0.0995067730545998, 0.1475146859884262};
#endif

#endif
