//Numpy array shape (576,)
//Min -2.384767055511
//Max 2.023254632950
//Number of zeros 0

#ifndef IN_PROJ_BIAS84_H_
#define IN_PROJ_BIAS84_H_

#ifndef __SYNTHESIS__
layers_11_self_attn_in_proj_bias_t in_proj_bias84[576];
#else
layers_11_self_attn_in_proj_bias_t in_proj_bias84[576] = {0.008994482457638, -0.138217434287071, 1.105335831642151, 0.049692947417498, -0.261352092027664, 0.477389544248581, -0.106550067663193, 0.023297229781747, -0.054950464516878, -0.077778011560440, 0.283103466033936, 0.469205141067505, 0.029379416257143, -0.432393193244934, 0.089904099702835, -0.094432860612869, -0.053376641124487, 0.052759103477001, 0.078390948474407, 2.023254632949829, 0.463769465684891, 0.296487510204315, -0.236003577709198, 0.259435772895813, 0.061928391456604, 0.392465949058533, -0.310555398464203, 0.439089924097061, 0.144841492176056, -0.218253627419472, -0.004582481458783, 0.090266317129135, 0.124450884759426, 0.121124923229218, 0.058379217982292, 0.077061578631401, 0.221481308341026, 0.356155306100845, -0.178329333662987, -0.620400071144104, -0.294892728328705, -0.234542891383171, -0.037928882986307, 0.132442399859428, 0.029637584462762, -0.497531443834305, -0.721951067447662, -0.581383407115936, 0.057219181209803, 0.049070656299591, 0.102530151605606, -0.047455742955208, -0.150791943073273, -0.034643180668354, -0.584998369216919, 0.822629272937775, -0.435179203748703, -0.031276095658541, -0.229880228638649, -0.216824784874916, 0.178545445203781, -0.046478081494570, 0.154768809676170, 0.815435171127319, -2.158703088760376, 0.205358490347862, 0.077018953859806, 0.239601373672485, 0.061376295983791, -0.063675969839096, 0.006029771175236, -0.026721715927124, 0.176032528281212, 0.198193073272705, 0.391455411911011, -0.114830434322357, 0.314814627170563, -0.434736222028732, -0.001578648458235, -0.078490749001503, 0.200249195098877, -1.302910566329956, -0.883053481578827, 0.146171659231186, -0.111886307597160, 0.228155270218849, -0.626204311847687, 0.000094547896879, 0.121084332466125, -0.080449096858501, -0.064331635832787, -0.935266017913818, -0.039440702646971, 0.332722365856171, -0.102270625531673, -0.012719660997391, -0.111441820859909, -0.126072496175766, -0.074145428836346, 0.063583493232727, -0.854275286197662, -0.393604367971420, -0.130692809820175, -0.532369732856750, 0.018403630703688, 0.032275743782520, -0.078917041420937, 0.002990654436871, -0.367529392242432, 0.370857715606689, 0.036678362637758, 0.231401011347771, -0.353141903877258, 0.222308009862900, -0.012049186974764, 0.115126207470894, -0.041679561138153, -0.126946404576302, -0.127309992909431, -0.485432684421539, 0.003142958739772, -0.621339261531830, -0.738764882087708, -0.117485426366329, 0.132739901542664, 0.020276220515370, 0.472624123096466, -0.886693954467773, 0.445289552211761, 0.287435770034790, -0.145288571715355, 0.218081787228584, -0.193475991487503, 0.133960574865341, -0.091608487069607, 1.771358370780945, 0.212395608425140, -0.461792111396790, 0.545096278190613, 0.447197914123535, 0.192506313323975, 0.047657564282417, -0.055584877729416, 0.038797792047262, -0.661015212535858, 0.020998876541853, -0.399605065584183, -0.184723824262619, 0.132428690791130, -0.188477545976639, -0.009129773825407, 0.207353681325912, 0.006114376243204, 0.073928520083427, 0.182136356830597, -0.402073264122009, -0.880015850067139, 0.295975267887115, 0.247824579477310, 0.016345484182239, 0.082093998789787, 0.116175591945648, -0.070643171668053, -0.451471000909805, -0.037346415221691, 0.256223469972610, -0.101668015122414, 0.142437040805817, -0.090899951756001, -0.110099844634533, -0.025301279500127, -2.384767055511475, -0.261574298143387, -2.162279129028320, -0.244806006550789, -0.716137707233429, -0.294546842575073, 0.055573500692844, 0.100103922188282, -0.063631460070610, 0.203941062092781, -0.770397186279297, 0.768567681312561, -0.359056353569031, 0.217230111360550, -0.095780983567238, 0.036685094237328, 0.028668155893683, -0.078671336174011, 0.605237722396851, -0.107651114463806, -0.434172868728638, 0.048665802925825, -0.239657014608383, -0.199368268251419, -0.117384143173695, 0.013348914682865, 0.027943313121796, 0.086681835353374, -0.276990354061127, 0.582883238792419, 0.366095930337906, -0.285322159528732, 0.186933696269989, 0.020433356985450, -0.087442286312580, 0.176117584109306, 0.027219176292419, -0.921151578426361, 0.346182882785797, -0.665500342845917, -0.301617771387100, 0.069930218160152, -0.114721573889256, 0.176974594593048, 0.031459141522646, 0.352671951055527, -0.192493706941605, -0.137675344944000, -0.105847120285034, 0.257224589586258, -0.047097623348236, 0.114049814641476, 0.063057161867619, -0.148674607276917, 0.082521155476570, 0.813030958175659, 0.081689365208149, -0.104717023670673, -0.027337390929461, 0.098806299269199, 0.006414979696274, -0.174281448125839, 0.055201958864927, -0.196051508188248, -0.734788715839386, -0.803804039955139, -0.249626457691193, 0.080542221665382, -0.318899750709534, 0.009285897016525, -0.118937842547894, -0.221071124076843, -0.137613818049431, 0.226754024624825, 0.524688959121704, 0.128387466073036, -0.166506171226501, -0.013445696793497, -0.000204362484510, -0.012628623284400, -0.243096023797989, 0.706180334091187, 0.088502578437328, 0.357536613941193, -0.278276801109314, -0.291392743587494, 0.343561261892319, -0.083193220198154, -0.048036176711321, -0.195085898041725, -0.171970143914223, 0.285583168268204, 0.211176440119743, -0.318266540765762, -0.196652367711067, 0.239259213209152, 0.037938848137856, 0.012728066183627, 0.123145386576653, -0.179446667432785, -0.905526816844940, -0.181701749563217, 0.029812248423696, -0.119187250733376, -0.256163597106934, 0.037020131945610, -0.001133274985477, -0.018284305930138, 0.753222405910492, 0.831151425838470, 0.656569719314575, 0.154655694961548, -0.271706491708755, 0.153413563966751, 0.155320227146149, -0.107245534658432, 0.057425457984209, -0.136675208806992, 0.233515888452530, 0.290600359439850, -0.106616385281086, 0.102334886789322, 0.272962868213654, 0.030658463016152, 0.078610815107822, 0.032643567770720, 0.482303738594055, -0.674681305885315, 0.948754012584686, -0.404588401317596, 0.322130411863327, 0.262234777212143, -0.144192069768906, -0.155002117156982, -0.036157585680485, 0.634889364242554, -1.890361189842224, -0.634878575801849, 0.159871011972427, 0.013044022023678, 0.041526973247528, -0.094649381935596, 0.045312542468309, -0.051712673157454, 0.554849505424500, -0.428866773843765, 0.076146759092808, 0.058248508721590, 0.042307104915380, -0.139681607484818, -0.008796664886177, -0.132598683238029, 0.049539007246494, 0.142641305923462, 0.377272278070450, 0.010797317139804, -0.011422243900597, 0.069264315068722, -0.410510182380676, 0.042342860251665, 0.044338192790747, 0.124946817755699, -0.533299148082733, -0.035130035132170, 0.678291380405426, 0.168292135000229, 0.015352550894022, 0.117258280515671, -0.078562960028648, 0.047999870032072, 0.004903564229608, -2.104053497314453, -0.427741050720215, 0.575803875923157, -0.373658269643784, 0.462146520614624, 0.421093672513962, 0.055167946964502, -0.000300547166262, 0.028929200023413, 0.022060330957174, -0.214979484677315, 0.039970714598894, -0.188856199383736, 0.449080199003220, 0.373238950967789, -0.020073076710105, -0.102587401866913, -0.077731944620609, 0.149300843477249, 0.470845431089401, -0.091451823711395, 0.054560616612434, -0.233089447021484, -0.054995585232973, 0.108360238373280, -0.137221246957779, 0.038737244904041, -0.415064513683319, -0.387250244617462, 0.143005445599556, 0.542506515979767, 0.237826913595200, -0.136119842529297, -0.029260415583849, -0.133372038602829, 0.018151357769966, 0.426699608564377, -0.018922116607428, -0.990448296070099, -0.501102089881897, 0.266537338495255, -0.120884865522385, 0.075200788676739, 0.072035290300846, -0.017666583880782, -0.163931772112846, 0.533417463302612, 0.029595930129290, 0.046069484204054, -0.361187994480133, 0.457660138607025, -0.034701153635979, -0.026663515716791, -0.015103023499250, 0.267750233411789, 0.142274364829063, -0.262542635202408, 0.173760503530502, -0.105664856731892, -0.271915614604950, -0.002310046926141, 0.091519765555859, 0.016749387606978, 0.005233359523118, -0.101467892527580, -0.238018065690994, -0.192286849021912, -0.121240608394146, 0.369690328836441, 0.061020020395517, -0.004527636803687, -0.104284599423409, -0.274629652500153, 0.102128997445107, 0.539912581443787, -0.372171312570572, -0.099349573254585, -0.027337158098817, 0.076340973377228, -0.022869173437357, 0.053693961352110, 0.276822537183762, 0.321635931730270, -0.105328865349293, 0.513814866542816, -0.030953368172050, 0.360636651515961, 0.057201847434044, -0.149758681654930, 0.049226954579353, 0.554612219333649, 0.553250014781952, 0.298328667879105, 0.301224082708359, 0.188136085867882, -0.347355335950851, 0.009920950978994, -0.090227745473385, -0.128677815198898, -0.082068495452404, 0.499279230833054, 0.534657120704651, -0.147755593061447, 0.028451776131988, -0.338896900415421, -0.147056832909584, 0.107758402824402, -0.095412455499172, -0.057778693735600, 0.022514015436172, -0.515286922454834, -0.055855669081211, -0.158210173249245, 0.273936957120895, 0.015369299799204, -0.157311692833900, 0.103184029459953, -0.113181427121162, -0.422589987516403, 0.529196739196777, 0.176620870828629, 0.258022725582123, -0.078816227614880, -0.067869059741497, 0.128920644521713, -0.131604075431824, 0.132455170154572, -0.166103541851044, -0.325518965721130, 0.006331076379865, 0.058442652225494, -0.325327754020691, -0.051526885479689, 0.064929947257042, -0.224569320678711, -0.507462859153748, 0.380554646253586, 0.277145892381668, 0.120273977518082, 0.570251226425171, 0.229944944381714, -0.081072069704533, -0.171313330531120, 0.019577326253057, -0.229185044765472, 0.802983343601227, -0.376457035541534, -0.458524286746979, -0.073165573179722, 0.141571640968323, -0.048297382891178, 0.118879467248917, 0.042140934616327, 0.259342968463898, -0.724755764007568, -0.374731868505478, 0.036358624696732, -0.309064924716949, 0.232401758432388, -0.075948148965836, -0.062232133001089, -0.097641818225384, 0.208798274397850, 0.565653443336487, -0.332285970449448, -0.163656413555145, 0.196974620223045, -0.319562554359436, -0.011027017608285, -0.043522227555513, 0.160614892840385, 0.157077908515930, 0.612182497978210, 0.268154025077820, 0.570715129375458, -0.253328561782837, 0.021279517561197, -0.101872242987156, -0.113105908036232, 0.051057819277048, -0.297922819852829, 0.619566559791565, -2.224210739135742, 0.302175939083099, -0.257527917623520, -0.156807482242584, -0.039881896227598, -0.087455369532108, 0.052378382533789, -0.384984612464905, -0.895073711872101, 0.803941011428833, -0.012000796385109, 0.053770951926708, 0.056530464440584, -0.063204288482666, -0.089418649673462, -0.063579976558685, -0.131029769778252, 0.442347764968872, -0.356480747461319, 0.113701127469540, -0.395742475986481, -0.288832426071167, 0.082326091825962, 0.037095829844475, 0.014745753258467, 0.258849173784256, -0.376503378152847, -0.628169775009155, -0.047364003956318, 0.211961135268211, 0.122355140745640, -0.093145400285721, 0.203158140182495, -0.046625513583422, -0.418136745691299, 0.222911015152931, 0.254960864782333, 0.263698697090149, -0.161599367856979, 0.130840256810188, -0.036206867545843, -0.007306995335966, -0.082127369940281, 0.928554356098175, 0.557477653026581, -0.457549571990967, 0.104071788489819, -0.130201861262321, -0.208782121539116, -0.079270049929619, -0.022213086485863, 0.195480287075043};
#endif

#endif
