//Numpy array shape [192]
//Min -0.805400490761
//Max 0.419183552265
//Number of zeros 0

#ifndef OUT_PROJ_BIAS45_H_
#define OUT_PROJ_BIAS45_H_

#ifndef __SYNTHESIS__
layers_4_ffn_out_proj_bias_t out_proj_bias45[192];
#else
layers_4_ffn_out_proj_bias_t out_proj_bias45[192] = {0.05829203128814697, -0.02700577490031719, -0.18504406511783600, 0.07077813893556595, -0.17719578742980957, 0.33881360292434692, 0.11613596230745316, 0.06627723574638367, -0.17054164409637451, -0.03666445612907410, 0.41918355226516724, -0.10376273095607758, 0.14462594687938690, 0.16894689202308655, 0.14940600097179413, -0.19499364495277405, 0.20192423462867737, 0.41655018925666809, -0.02321559749543667, 0.12371766567230225, 0.26988282799720764, -0.80540049076080322, -0.07189815491437912, -0.16108265519142151, 0.08887814730405807, 0.06308721005916595, 0.08342675864696503, 0.04705287888646126, -0.04959516599774361, -0.09238141775131226, 0.05885729193687439, 0.03256130218505859, -0.21479390561580658, -0.02304551377892494, -0.01375183649361134, -0.06674255430698395, 0.09401534497737885, 0.10006207227706909, -0.46072414517402649, -0.19043636322021484, 0.04885199666023254, -0.01187684293836355, 0.18418452143669128, -0.07141285389661789, 0.07281120866537094, -0.05887421220541000, 0.00110646383836865, 0.22233930230140686, 0.19160415232181549, 0.09533153474330902, -0.11881683021783829, 0.39231488108634949, -0.01630412228405476, -0.07475536316633224, 0.02681986428797245, -0.06452201306819916, 0.13340847194194794, 0.09149826318025589, 0.11884327977895737, -0.22503504157066345, 0.30214825272560120, -0.16414986550807953, -0.06932957470417023, -0.24574266374111176, 0.00511396350339055, 0.08639784157276154, -0.05226000398397446, -0.30648791790008545, 0.24794712662696838, -0.01777305267751217, -0.14860878884792328, -0.03364565968513489, -0.06783527880907059, -0.21543923020362854, -0.11077037453651428, -0.10578524321317673, 0.05332003906369209, 0.19483542442321777, 0.08654976636171341, 0.22116722166538239, 0.03431860357522964, -0.21554994583129883, 0.14795871078968048, 0.20203192532062531, -0.08762142807245255, -0.06663008779287338, -0.05193973332643509, 0.02290786802768707, 0.30264785885810852, 0.17975030839443207, 0.16623112559318542, 0.15373452007770538, 0.02380374446511269, -0.18632674217224121, 0.00626991828903556, 0.29807060956954956, 0.32351553440093994, 0.10709283500909805, 0.11457359045743942, 0.04244395345449448, 0.20065663754940033, -0.03392645716667175, -0.02970980666577816, -0.08135257661342621, 0.04565115645527840, -0.21381762623786926, 0.02045036107301712, 0.14378224313259125, 0.00544415926560760, -0.21091406047344208, -0.02223663404583931, 0.14391990005970001, -0.06224907562136650, -0.00499974889680743, -0.03837338089942932, 0.19362838566303253, -0.04892564564943314, 0.06800419837236404, 0.00408906023949385, -0.04891973361372948, 0.14725749194622040, 0.11958023905754089, -0.12137492746114731, 0.03976574540138245, 0.16051752865314484, -0.07555865496397018, 0.00447371182963252, 0.06721147149801254, 0.05884196609258652, -0.09403180330991745, 0.18920721113681793, -0.44842061400413513, 0.03725977241992950, 0.12271761894226074, -0.06275417655706406, 0.11283116787672043, -0.28564605116844177, -0.19547702372074127, -0.00215640128590167, 0.08456303924322128, -0.13003239035606384, 0.03904388472437859, -0.15450176596641541, 0.10557374358177185, -0.07097924500703812, 0.24112980067729950, -0.24022069573402405, -0.14103232324123383, -0.11539901793003082, -0.22310724854469299, -0.24848987162113190, -0.08502770215272903, 0.01993706263601780, 0.09027288854122162, 0.03313224390149117, -0.21658453345298767, -0.27697527408599854, 0.09525184333324432, -0.37122300267219543, -0.14850066602230072, -0.34006497263908386, -0.24966391921043396, -0.02832939662039280, -0.06942203640937805, -0.04987023770809174, 0.00476718554273248, 0.02727978862822056, -0.13320921361446381, 0.01485319063067436, 0.06181168928742409, -0.06708482652902603, -0.11975061148405075, -0.20444533228874207, 0.19054934382438660, 0.10370129346847534, 0.00401287246495485, -0.20267979800701141, 0.33057296276092529, -0.16958501935005188, -0.02664546482264996, -0.09358838945627213, 0.10102223604917526, -0.02628906629979610, 0.12770804762840271, 0.00863195303827524, 0.01517946366220713, 0.10782905668020248, -0.00897548533976078, -0.08563394844532013, 0.12196868658065796, -0.03333576768636703, -0.12201494723558426};
#endif

#endif
