//Numpy array shape [192]
//Min -0.839112341404
//Max 0.883735895157
//Number of zeros 0

#ifndef BIAS50_H_
#define BIAS50_H_

#ifndef __SYNTHESIS__
layers_5_norm2_bias_t bias50[192];
#else
layers_5_norm2_bias_t bias50[192] = {0.20622219145298004, -0.42040511965751648, -0.03478554263710976, -0.15787492692470551, 0.00120494759175926, 0.19307756423950195, 0.39581328630447388, 0.05908311903476715, -0.23758088052272797, 0.43341371417045593, 0.56715750694274902, -0.06618876010179520, 0.20219230651855469, 0.18474547564983368, 0.36613541841506958, -0.14998975396156311, 0.39790156483650208, 0.39446258544921875, 0.02317967079579830, 0.20700557529926300, 0.24692888557910919, -0.61276137828826904, -0.11180331557989120, -0.27058938145637512, 0.10641888529062271, 0.01649896986782551, -0.00230179540812969, 0.33173435926437378, -0.36719191074371338, -0.41664615273475647, -0.15094691514968872, 0.41673526167869568, -0.26344722509384155, 0.09351409971714020, -0.38396927714347839, 0.01722639240324497, 0.42201563715934753, -0.07354252785444260, -0.83911234140396118, -0.27121415734291077, 0.04667617753148079, 0.11722165346145630, -0.18843895196914673, 0.11370927095413208, 0.25632530450820923, -0.28542727231979370, 0.18689309060573578, 0.22764781117439270, -0.03309118002653122, -0.01385220326483250, -0.47088390588760376, 0.38536432385444641, -0.30684453248977661, -0.11237654089927673, -0.22725246846675873, 0.16879910230636597, 0.04674431681632996, 0.19826878607273102, -0.16113662719726562, -0.29269707202911377, -0.03189130872488022, -0.20309390127658844, -0.06858024746179581, -0.21335378289222717, -0.03276501223444939, 0.75903320312500000, -0.04207128286361694, -0.65181452035903931, 0.49929326772689819, -0.35438919067382812, 0.12169823795557022, -0.08023421466350555, -0.04936740919947624, -0.18062651157379150, -0.27892979979515076, -0.28219944238662720, 0.54637432098388672, 0.33541104197502136, -0.17351844906806946, 0.26953008770942688, 0.36462202668190002, 0.01543399132788181, -0.13379129767417908, 0.12727952003479004, -0.41587862372398376, 0.19975285232067108, 0.07774224132299423, 0.22139218449592590, 0.31211581826210022, -0.03635964915156364, -0.08510179072618484, 0.44025865197181702, 0.49912714958190918, -0.09865024685859680, -0.02939344011247158, 0.07783874869346619, 0.06660503894090652, 0.02987146377563477, -0.00469841901212931, -0.00244288728572428, 0.33627310395240784, -0.01510344911366701, 0.07905144244432449, -0.21217565238475800, -0.16804903745651245, -0.05027057603001595, 0.22406785190105438, 0.23398989439010620, -0.03943686932325363, -0.52950423955917358, -0.22129237651824951, 0.02027181163430214, -0.09783857315778732, -0.11367917805910110, 0.21856845915317535, 0.18509499728679657, -0.05106641724705696, 0.44483309984207153, 0.10033377259969711, 0.11908291280269623, 0.88373589515686035, 0.29519605636596680, -0.33299258351325989, 0.38632595539093018, 0.30082553625106812, -0.15804746747016907, 0.18682451546192169, -0.27397480607032776, -0.56130039691925049, 0.03735794499516487, 0.35619577765464783, -0.16098204255104065, 0.20584754645824432, 0.34793326258659363, 0.05521956831216812, 0.30839279294013977, -0.47292470932006836, -0.44734898209571838, -0.52342444658279419, 0.15003138780593872, -0.17335663735866547, 0.28051948547363281, -0.01873375289142132, 0.00259194290265441, -0.21368262171745300, -0.02909918315708637, 0.30357161164283752, -0.54906386137008667, -0.14363704621791840, -0.22157827019691467, -0.08572381734848022, -0.21059212088584900, -0.07132104039192200, 0.26658520102500916, 0.10105770826339722, -0.02456085197627544, -0.46955555677413940, 0.51699686050415039, -0.32648980617523193, -0.12469884753227234, -0.45099622011184692, -0.31483921408653259, -0.20366302132606506, -0.27524614334106445, 0.11431984603404999, 0.12944340705871582, 0.16789889335632324, -0.39703476428985596, 0.20527718961238861, -0.05235078930854797, -0.22384455800056458, -0.23529022932052612, 0.06981705129146576, 0.10580930113792419, 0.08747316151857376, -0.21661978960037231, 0.04850759357213974, 0.40515586733818054, -0.15652869641780853, -0.06315167993307114, -0.16891254484653473, 0.06897953897714615, 0.26500818133354187, 0.33826655149459839, 0.11547459661960602, -0.20213903486728668, 0.12867565453052521, 0.10758932679891586, 0.26222026348114014, -0.01827889867126942, 0.03939040005207062, 0.14873659610748291};
#endif

#endif
