//Numpy array shape (576,)
//Min -2.105454921722
//Max 1.731476902962
//Number of zeros 0

#ifndef IN_PROJ_BIAS36_H_
#define IN_PROJ_BIAS36_H_

#ifndef __SYNTHESIS__
layers_3_self_attn_in_proj_bias_t in_proj_bias36[576];
#else
layers_3_self_attn_in_proj_bias_t in_proj_bias36[576] = {-0.225720673799515, -0.054905716329813, -0.327453613281250, 0.339895516633987, -0.148652702569962, 0.097859464585781, 0.004280942957848, -0.043946743011475, -0.086243078112602, 0.106322430074215, 0.020594174042344, -0.229692578315735, -0.276820719242096, -0.193587064743042, -0.105737105011940, 0.041022282093763, 0.005942900665104, 0.030156714841723, 0.679419755935669, -1.149820923805237, 0.039726041257381, -0.124082975089550, 0.030331861227751, -0.506873190402985, -0.005895984824747, 0.011358961462975, -0.086882919073105, 0.088401034474373, 0.609654068946838, 1.512268185615540, -0.319650560617447, -0.318401366472244, 0.812900006771088, 0.062628701329231, -0.002956755692139, -0.024155484512448, -0.277882844209671, 0.117077872157097, 0.347265571355820, -0.126490920782089, -0.048865675926208, -0.316393494606018, 0.023077612742782, 0.007840647362173, -0.002951456233859, 0.292730182409286, 0.050370674580336, -0.243025660514832, 0.471131891012192, 0.326383203268051, -0.045604877173901, 0.018520761281252, 0.006364952772856, 0.029799927026033, 0.143537253141403, 0.004149024840444, -0.275502979755402, 0.095020331442356, 0.261594027280807, 0.275748550891876, 0.083073437213898, 0.016535865142941, 0.012398156337440, 0.859651327133179, 0.081236317753792, 0.062267154455185, -0.093705698847771, -0.264868736267090, 0.002441173885018, -0.010148530825973, -0.003269296837971, 0.003806633176282, 0.051157929003239, -0.476960510015488, -0.036101244390011, 0.061091247946024, -0.001926086260937, 0.060348138213158, 0.063031479716301, 0.038696210831404, -0.024202527478337, 0.076716028153896, -0.068128101527691, -0.195511624217033, 0.208556801080704, 0.541591167449951, -0.140550255775452, -0.061848938465118, 0.026126608252525, 0.043196801096201, 0.031645260751247, 0.010469228029251, -0.345832556486130, 0.068652823567390, -0.184982568025589, -0.118181042373180, -0.058634657412767, -0.002792910439894, 0.009636187925935, -0.219761803746223, 0.085997320711613, 0.070443481206894, -0.779776096343994, 0.017326235771179, -0.226273909211159, 0.011318659409881, -0.020060140639544, 0.014299513772130, -0.149324476718903, 0.030746670439839, 0.102844670414925, -0.031107828021049, -0.201266586780548, -0.199963554739952, -0.034097556024790, -0.019266486167908, -0.021676508709788, 0.069177314639091, 1.731476902961731, -0.155532971024513, -0.111903369426727, 0.139748767018318, -0.038937460631132, 0.036029361188412, 0.021752333268523, -0.063053026795387, 0.781460225582123, 0.763259589672089, -0.568045318126678, -0.783084034919739, -0.185746952891350, 0.100071229040623, -0.077669396996498, 0.010104741901159, -0.019281446933746, -0.073799431324005, 0.946619629859924, -0.026585139334202, 0.276871889829636, -0.256505876779556, 0.161511853337288, -0.031938254833221, 0.012179767712951, 0.006711812224239, -1.300684452056885, -0.043319329619408, -0.528730034828186, 0.309364259243011, 0.502529442310333, 0.153083652257919, 0.016044782474637, 0.019407762214541, 0.073526836931705, -0.041726376861334, 0.060287259519100, -1.231802701950073, 0.037774469703436, -0.175948187708855, -0.384258538484573, -0.030286405235529, -0.014199641533196, -0.027795676141977, -0.297186434268951, 0.060899008065462, -0.076841190457344, 0.274326682090759, 0.032645240426064, -0.334293365478516, -0.005314749665558, -0.030509391799569, -0.011448321864009, 0.145040988922119, 0.016053939238191, -0.259193092584610, 0.297918856143951, -0.224161937832832, -0.384411394596100, 0.063846126198769, 0.083092398941517, 0.017996089532971, 0.918663978576660, 0.008238539099693, -0.065621390938759, 0.330894082784653, -0.078379511833191, 0.038782678544521, 0.062091872096062, 0.041823688894510, 0.008601598441601, -0.056368034332991, 0.037322890013456, 0.676646888256073, 0.339572906494141, -0.259621888399124, 0.415629237890244, 0.070054411888123, 0.058422446250916, 0.040676079690456, -0.037479080259800, 0.214348584413528, 0.103816196322441, 0.383854448795319, 0.417895108461380, 0.017389887943864, -0.039465334266424, -0.003507631132379, 0.013443019241095, 0.948490798473358, 0.036542151123285, -0.897522926330566, -0.081243239343166, -0.203727006912231, -0.047379881143570, -0.048537027090788, 0.003708007978275, -0.009914540685713, -0.318671584129333, -0.040742550045252, -0.271441608667374, 0.298651993274689, -0.385942727327347, -0.384780824184418, -0.010081740096211, -0.004206773359329, -0.033798389136791, 0.543878138065338, -0.057956527918577, -0.322752594947815, -0.082684576511383, -0.168291598558426, -0.022813875228167, -0.004127862397581, 0.027151195332408, 0.004668445326388, 0.150473102927208, -0.109806343913078, -0.077699549496174, 0.372413247823715, -0.258926808834076, -0.050479546189308, 0.083526931703091, -0.010242718271911, 0.009880498982966, 0.144939929246902, 0.029454745352268, -0.268609672784805, 0.168394848704338, 0.041959993541241, 0.441800504922867, -0.036308500915766, -0.038941156119108, -0.010818953625858, 0.001221173792146, -2.105454921722412, 0.598608136177063, -0.339674711227417, -0.186962917447090, 0.235695019364357, 0.017293605953455, 0.025705870240927, -0.052368119359016, 0.232915565371513, -0.103152625262737, -0.003127132076770, -0.199777662754059, -0.122568085789680, -0.455777674913406, 0.017189191654325, 0.043539211153984, -0.085751779377460, -0.057374130934477, 0.014558643102646, -0.225847065448761, -0.589044928550720, 0.270963132381439, -0.062560394406319, 0.010815001092851, -0.001504318206571, 0.020023405551910, -1.123485684394836, -0.002897443249822, 0.517428398132324, 0.081608638167381, -0.204284712672234, -0.112252175807953, 0.025915637612343, -0.000236266758293, -0.029669348150492, -0.207025349140167, 0.075623393058777, 0.206320151686668, -0.298048615455627, -0.033414568752050, -0.651749849319458, -0.021130962297320, 0.018270075321198, -0.022593026980758, 0.539359867572784, 0.098631069064140, 0.168822437524796, 0.333529770374298, -0.009396056644619, 0.310160279273987, -0.017421644181013, 0.053066216409206, -0.028454743325710, 0.052948981523514, -0.003726617433131, 0.113111607730389, 0.288895756006241, 0.278012543916702, 0.284219235181808, 0.097290478646755, -0.009805982932448, -0.057047452777624, -0.299181520938873, 0.042527016252279, 0.051485884934664, -0.281283557415009, 0.282224804162979, 0.348922163248062, 0.038349997252226, -0.014353984035552, 0.036669414490461, 0.081736631691456, -0.052904900163412, 0.089038670063019, -0.220530435442924, 0.226006269454956, 0.082327321171761, -0.074992604553699, -0.023115206509829, -0.023452226072550, -0.010388959199190, 0.032756663858891, 0.311584949493408, -0.592781662940979, -0.075161837041378, 0.089383549988270, -0.014972463250160, 0.013434734195471, 0.009574549272656, -0.005225109402090, 0.074253030121326, 0.368133217096329, -0.567414522171021, 0.189983084797859, 0.420933961868286, 0.051780208945274, -0.049275435507298, -0.018136274069548, 0.026130184531212, -0.063548810780048, -0.010282857343554, -0.500062584877014, 0.053000148385763, -0.003939506132156, -0.031760316342115, 0.044107016175985, -0.055704168975353, 0.328327178955078, -0.190115034580231, -0.749011874198914, -0.812550485134125, -0.202399998903275, -0.202724307775497, -0.071931220591068, 0.049591235816479, 0.016354300081730, 0.031150072813034, -0.004463652614504, -0.201356157660484, -0.358203411102295, 0.256463736295700, -0.146632581949234, -0.032827436923981, 0.011540877632797, 0.039040844887495, -1.002460002899170, -0.084002032876015, 0.762250125408173, 0.712245941162109, 0.574325323104858, -0.113571003079414, 0.116377495229244, -0.003516254713759, 0.069551877677441, -1.231467008590698, -0.042812444269657, 0.245504409074783, -0.438219487667084, 0.221779212355614, 0.071461923420429, -0.070154897868633, -0.024124622344971, -0.009676782414317, -0.050867177546024, -0.051463145762682, 0.022156143561006, 0.200758993625641, -0.115582093596458, -0.023195799440145, 0.042967449873686, -0.054468896239996, 0.009001892991364, -0.075079910457134, -0.088902771472931, 0.045238949358463, -0.591819405555725, -0.057278580963612, -0.247652888298035, -0.070844888687134, 0.013487348333001, 0.036085084080696, -0.136883094906807, -0.038002789020538, 0.017270417883992, -0.475713908672333, 0.165993630886078, -0.594441354274750, -0.014146326109767, 0.049615878611803, -0.023849256336689, 0.175559595227242, -0.053096428513527, -0.174290105700493, -0.078362442553043, -0.224562272429466, 0.046150725334883, 0.021648671478033, -0.026697468012571, 0.006354085635394, 0.416046321392059, -0.017988324165344, -0.063227556645870, 0.397830873727798, -0.388936251401901, 0.590163946151733, 0.036067772656679, -0.016547689214349, 0.008477748371661, 0.548625707626343, -0.038306288421154, 0.080053701996803, -0.294159799814224, -0.002840338973328, 0.246653378009796, 0.007805704139173, -0.001348405377939, 0.010234153829515, -0.118772849440575, -0.029256729409099, 0.800018787384033, -0.416585266590118, -0.198967352509499, 0.464878469705582, 0.023795211687684, -0.024746907874942, 0.026183718815446, -0.118923068046570, -0.015872607007623, 0.419569909572601, -0.058284044265747, 0.197587013244629, 0.221365630626678, 0.032946586608887, -0.032267469912767, 0.022355202585459, -0.024603195488453, -0.812098205089569, 0.018612232059240, 0.889905393123627, -0.125176146626472, -0.114068031311035, 0.039813607931137, 0.008849035948515, 0.002156540518627, -0.137832626700401, -0.099320247769356, 0.107933185994625, 0.271803617477417, 0.160933390259743, 0.297774076461792, -0.027394212782383, 0.053698919713497, -0.021878736093640, 0.160844504833221, -0.018298527225852, -0.059347361326218, -0.315234094858170, -0.212541818618774, -0.117124825716019, -0.055156532675028, 0.017748767510056, -0.025470301508904, -0.142731875181198, 0.023439234122634, -0.411346852779388, 0.701168417930603, -0.500218093395233, -0.429986774921417, -0.074570246040821, -0.061619587242603, -0.000575600133743, -0.160096496343613, 0.037714634090662, -0.030308123677969, -0.035116385668516, -0.350767433643341, 0.533469140529633, -0.007452092133462, 0.006779546383768, 0.021166404709220, 0.615420758724213, 0.066052414476871, -0.367661744356155, 0.034894708544016, 0.147081449627876, -0.186704412102699, -0.046724855899811, 0.023280287161469, -0.083833470940590, 0.278350412845612, -0.044234819710255, -0.208519831299782, -0.045235443860292, -0.214714348316193, 0.371720105409622, -0.080271877348423, 0.006292031612247, -0.078025698661804, 0.081569530069828, 0.377937227487564, 0.013919594697654, 0.192601323127747, 0.300907611846924, -0.116142965853214, 0.004432259127498, 0.069940961897373, -0.028940821066499, 0.009695007465780, 0.042476929724216, -0.829536020755768, -0.357973068952560, 0.106986969709396, -0.440742820501328, 0.017617981880903, 0.026488229632378, 0.084165096282959, -0.190154954791069, 0.123414844274521, 0.678108870983124, 0.174783706665039, -0.419218927621841, 0.352367848157883, -0.065898269414902, -0.016614694148302, -0.038424339145422, -0.023741833865643, -0.002636830788106, -0.041081439703703, -0.073272675275803, 0.428930997848511, -0.349554538726807, 0.048999615013599, -0.058259654790163, 0.036234010010958, -0.069601468741894, 0.086597971618176, 0.143756672739983, 0.487282365560532, -0.001883386285044, -0.189789652824402, -0.104187354445457, 0.071910537779331, -0.012766863219440};
#endif

#endif
