//Numpy array shape (576,)
//Min -2.388009786606
//Max 2.321245431900
//Number of zeros 0

#ifndef IN_PROJ_BIAS24_H_
#define IN_PROJ_BIAS24_H_

#ifndef __SYNTHESIS__
layers_1_self_attn_in_proj_bias_t in_proj_bias24[576];
#else
layers_1_self_attn_in_proj_bias_t in_proj_bias24[576] = {-0.132742911577225, -1.102580785751343, -0.098272353410721, 0.466896623373032, -0.266168028116226, -0.089820310473442, -0.026133392006159, -0.079172603785992, -0.098742000758648, -0.064726814627647, 0.061828337609768, -0.123468160629272, -0.215520665049553, -0.311053186655045, -0.057725593447685, -0.022752331569791, -0.017233069986105, 0.008281360380352, -0.248568937182426, -0.011642454192042, -0.966816306114197, -0.258235126733780, 0.224906891584396, 0.424225449562073, 0.049733970314264, -0.082774385809898, 0.052519608289003, 0.067713230848312, -0.034342646598816, -0.121763512492180, -0.747588038444519, 0.174619644880295, -0.313880860805511, 0.039465464651585, -0.103762879967690, 0.053839620202780, 0.980129122734070, 0.091924689710140, 0.221007645130157, -0.330271959304810, 0.034441892057657, -0.347351282835007, 0.009446199983358, -0.074043244123459, 0.067885808646679, -0.945868968963623, -0.323339998722076, 0.919552028179169, -0.280812978744507, -0.374282538890839, 0.187977507710457, -0.017739558592439, -0.210876256227493, -0.008027219213545, -0.029279891401529, 0.486354678869247, 0.348962873220444, 0.087099917232990, -0.210605993866920, -0.147220298647881, -0.109828144311905, -0.096526131033897, 0.048774756491184, -1.108152866363525, -0.254300475120544, -0.474078118801117, 0.012165204621851, 0.518894791603088, -0.101295448839664, -0.080008767545223, 0.009402588941157, 0.027450026944280, -0.018536675721407, 0.111488759517670, -1.202604055404663, 0.413308829069138, -0.193999305367470, 0.202910780906677, -0.012750502675772, -0.054634191095829, 0.015759319067001, -0.131938800215721, 0.129388377070427, 0.138300746679306, 0.298112004995346, -0.042797796428204, -0.011009657755494, -0.001699466374703, 0.178966209292412, -0.033133171498775, -0.017568390816450, 0.205322235822678, -0.300827503204346, 0.127486392855644, 0.030313678085804, 0.047881782054901, 0.043309520930052, -0.093479827046394, 0.001173896132968, -0.895527958869934, 0.470025867223740, 0.008815148845315, 0.207864403724670, -0.102841176092625, -0.199505299329758, 0.020961163565516, -0.048003513365984, 0.006851715501398, 0.300172567367554, 0.183774426579475, 0.126415848731995, -0.097426079213619, 0.835927605628967, -0.142958059906960, 0.030339637771249, -0.026764439418912, -0.011032773181796, -0.173346310853958, 0.202550455927849, -0.012828722596169, -0.054343324154615, 0.262767374515533, -0.562327682971954, 0.008626461029053, 0.021761683747172, 0.003813292132691, 0.426272541284561, 0.242187395691872, -0.199987754225731, 0.159641861915588, 0.013738126493990, 0.178524106740952, -0.020236093550920, 0.072401367127895, -0.068346433341503, -0.910291969776154, -0.620553731918335, 0.028891798108816, -0.068774834275246, -0.183574080467224, -0.183250829577446, -0.065570153295994, 0.047457180917263, -0.018584832549095, -0.678560197353363, 0.981715559959412, -0.027800660580397, 0.079867348074913, -0.017846763134003, 0.185143962502480, -0.063572078943253, -0.036070205271244, 0.058413829654455, 0.925405025482178, -0.084290243685246, 0.278294503688812, 0.159591376781464, 0.201146394014359, -0.133285537362099, 0.020107511430979, -0.137816488742828, -0.001935648615472, 1.488602042198181, -0.241949111223221, -0.438087642192841, -0.448695868253708, -0.060012932866812, -0.380272835493088, -0.075053311884403, 0.012837386690080, -0.027512744069099, -0.018833924084902, 0.331147044897079, 0.073448315262794, -0.298547118902206, -0.047957815229893, -0.115955702960491, 0.045788247138262, 0.061578366905451, 0.056654565036297, -0.050555031746626, -0.116515405476093, -0.058620005846024, -0.138697132468224, -0.034532606601715, 0.456313699483871, 0.022149426862597, -0.005067585967481, -0.038233418017626, 0.406896829605103, 1.117546081542969, 0.974650025367737, -0.246765583753586, -0.008365424349904, -0.068891704082489, -0.031162666156888, -0.019088290631771, -0.014609809964895, 0.558648765087128, 0.120940215885639, 0.177167952060699, -0.458327949047089, -0.654071390628815, 0.111694492399693, 0.030908530578017, 0.049803800880909, -0.031218603253365, -0.100307628512383, -0.191424235701561, 0.534432649612427, -0.202466577291489, -0.169313147664070, 0.235238105058670, 0.027713373303413, 0.094763137400150, 0.093582384288311, -0.054741591215134, -0.022396467626095, 1.702685475349426, -0.042945604771376, -0.065481550991535, -0.147089883685112, 0.041838686913252, -0.091952607035637, 0.036029122769833, 0.048172987997532, 0.489099681377411, 1.043763995170593, -0.076234146952629, -0.126512020826340, 0.069865636527538, -0.013466163538396, -0.084242217242718, 0.080855339765549, -1.426926136016846, -0.264667928218842, -1.640139579772949, 0.123943202197552, -0.526677250862122, -0.094560481607914, -0.002927220193669, -0.016872031614184, 0.076194129884243, 0.594629585742950, 0.087363295257092, 0.278511345386505, 0.456025779247284, 0.251553893089294, 0.269270420074463, -0.063478618860245, -0.082187071442604, -0.020011456683278, -0.854610145092010, 0.092424102127552, 0.069369249045849, 0.497966825962067, 0.119980655610561, 0.219127863645554, -0.051682159304619, 0.006056229118258, -0.070086069405079, 0.018827831372619, 1.816262483596802, -0.050514928996563, 0.456439405679703, 0.104903183877468, -0.078835695981979, -0.100863099098206, -0.052576337009668, -0.000548356736545, 0.165074437856674, -0.215104892849922, -0.895821452140808, 0.272013455629349, -0.037668529897928, -0.054979819804430, -0.003846847685054, 0.201656639575958, -0.030434494838119, 0.251093327999115, 0.012788520194590, 0.247784093022346, -0.062925167381763, 0.168023914098740, -0.599731087684631, 0.028933042660356, -0.012529615312815, -0.009289977140725, -0.454102784395218, -0.331872344017029, -0.151465877890587, -0.356751859188080, 0.374324768781662, -0.226092189550400, 0.076515316963196, 0.044281587004662, 0.013716015033424, 0.155031099915504, -1.883535504341125, -1.374682903289795, 0.460995793342590, -0.227916076779366, -0.308658093214035, -0.050485458225012, -0.080961793661118, -0.027078686282039, 0.964395225048065, -0.572219967842102, 0.081377245485783, 0.017878869548440, -0.153083965182304, -0.048005454242229, 0.078783310949802, 0.291165471076965, 0.005129655823112, -0.016369616612792, 0.459189414978027, 0.641369283199310, 0.023628396913409, -0.074107699096203, -0.098900884389877, -0.063734635710716, 0.027159919962287, -0.071047104895115, -0.462851285934448, -0.180559664964676, -0.778537750244141, -0.654168903827667, -0.223139315843582, 0.310036987066269, -0.003268379019573, 0.027181867510080, 0.052634973078966, -0.156660854816437, 0.408514618873596, 0.079403720796108, 0.110343642532825, 0.027144882827997, 0.021035557612777, -0.012356547638774, -0.076668381690979, -0.081806272268295, 0.219146162271500, -0.445776075124741, 0.039601411670446, 0.452082872390747, 0.473690092563629, -0.411943733692169, -0.016696404665709, 0.033628366887569, -0.090268574655056, -0.127355247735977, -0.012835726141930, -2.388009786605835, -0.392186254262924, 0.215305745601654, -0.336293518543243, -0.020857593044639, -0.049828376621008, -0.079472251236439, -0.070010073482990, -0.118229240179062, -0.057849023491144, -0.326393812894821, 0.081229694187641, -0.136996880173683, -0.030032090842724, 0.026871820911765, 0.051146894693375, -0.069400809705257, 0.312055826187134, -1.357908368110657, -0.142842575907707, -0.116959109902382, 0.196442767977715, 0.007524559274316, -0.064770966768265, -0.004756438545883, -0.002870752476156, -0.931283175945282, -0.173134952783585, 0.069257490336895, -0.444392502307892, 0.313033014535904, -0.062646597623825, 0.043003462255001, 0.034034285694361, -0.107302941381931, 0.032421153038740, 0.035278465598822, 0.219653949141502, -0.429229289293289, -0.101679220795631, 0.072287201881409, 0.050115708261728, 0.031409379094839, 0.088593520224094, 1.269443273544312, 0.717303633689880, 0.023975055664778, -0.377098649740219, -0.115800447762012, -0.023535463958979, 0.064896605908871, 0.002478093607351, 0.070183850824833, 0.102930389344692, 0.169172108173370, 0.252760440111160, -0.177762001752853, -0.232055872678757, 0.030999928712845, 0.145651623606682, -0.070433944463730, 0.874901413917542, 0.063192903995514, -0.398786067962646, -0.029391914606094, -0.327245473861694, 0.240710154175758, -0.037536799907684, -0.001740595325828, -0.016851210966706, -1.059587836265564, 0.241447284817696, 0.211337283253670, -0.135613933205605, 0.162468627095222, -0.207455411553383, 0.044527854770422, 0.147557243704796, -0.002477510832250, 0.019706511870027, 0.043087840080261, 0.035497393459082, 0.005835322197527, -0.541052460670471, -0.057503554970026, -0.047867905348539, -0.072316288948059, 0.054360851645470, 0.984508633613586, 1.044230461120605, -0.536370635032654, -0.370005041360855, -0.161411151289940, 0.101539395749569, 0.011480172164738, -0.236638501286507, 0.076762288808823, 0.044717367738485, 1.375219225883484, 0.400221407413483, 0.053856402635574, 0.171129852533340, 0.025349946692586, -0.042768076062202, 0.037899840623140, 0.047996018081903, -0.039538282901049, -0.988889753818512, 2.321245431900024, 0.011874531395733, 0.039318948984146, -0.028930258005857, -0.039301883429289, -0.061959538608789, -0.210001006722450, 0.659450531005859, -0.643393933773041, 0.325796693563461, -0.097829036414623, 0.126994475722313, -0.184739619493484, 0.120844699442387, 0.101822212338448, -0.025758530944586, 0.011680967174470, 0.413788616657257, 0.056399218738079, -0.051203195005655, -0.213969767093658, 0.137378230690956, -0.047150503844023, 0.042845487594604, 0.057139635086060, 0.039247274398804, -0.157810181379318, 1.494321107864380, 0.552990019321442, 0.000680304074194, -0.489260107278824, 0.002461536554620, -0.032352328300476, -0.016731159761548, -0.194854855537415, -0.996117115020752, 2.024813652038574, 0.459598183631897, 0.049117073416710, -0.367307782173157, -0.033550232648849, 0.053226098418236, 0.022005360573530, -1.217544674873352, -0.617820441722870, 0.162264004349709, 0.075714692473412, 0.076639778912067, -0.090448863804340, -0.032684754580259, -0.011541984044015, -0.040366567671299, -0.312903970479965, 0.064777605235577, 0.149571716785431, 0.808861017227173, 0.421562880277634, -0.043749723583460, -0.064018331468105, 0.061277490109205, -0.054100189357996, -0.295743674039841, -0.315547943115234, 0.205242484807968, -0.024451579898596, 0.213147103786469, -0.021793257445097, 0.040220960974693, 0.206614509224892, -0.073483884334564, -1.055220365524292, 0.415067046880722, -0.054802816361189, 0.418566286563873, -0.308985173702240, 0.395062476396561, -0.112616151571274, -0.089280277490616, -0.033756561577320, 0.002236554166302, -0.880197584629059, -0.097198769450188, -0.364767074584961, 0.655556678771973, -0.059753034263849, -0.073826134204865, -0.145561650395393, -0.002308379858732, 1.610162496566772, -0.144851028919220, 0.547293663024902, -0.095085389912128, -0.422657668590546, 0.140720516443253, -0.048570357263088, -0.103250250220299, -0.100207783281803, -0.161851152777672, -0.059261638671160, 0.182793259620667, -0.078294597566128, -0.130678564310074, -0.223856955766678, -0.069569908082485, -0.089076355099678, -0.001621371135116, -1.214534640312195, 0.306952059268951, 0.011525363661349, 0.431889027357101, 0.119435615837574, -0.028196526691318, -0.013906365260482, -0.092313684523106, -0.025368144735694};
#endif

#endif
