//Numpy array shape (576,)
//Min -2.043194770813
//Max 1.774110674858
//Number of zeros 0

#ifndef IN_PROJ_BIAS78_H_
#define IN_PROJ_BIAS78_H_

#ifndef __SYNTHESIS__
layers_10_self_attn_in_proj_bias_t in_proj_bias78[576];
#else
layers_10_self_attn_in_proj_bias_t in_proj_bias78[576] = {-0.022791231051087, 0.836603343486786, -0.165855526924133, 0.214587256312370, -0.332950741052628, -0.246639117598534, 0.070912629365921, -0.025178713724017, -0.048503670841455, -0.117113284766674, 0.356289535760880, 0.065243959426880, 0.498989045619965, 0.001364880590700, -0.040755629539490, -0.046861343085766, -0.049390520900488, 0.131428256630898, 0.140698134899139, -0.052807494997978, 0.177233219146729, -0.137479782104492, 0.137815251946449, -0.326657027006149, 0.174111843109131, -0.058173310011625, 0.042080808430910, 0.050112541764975, 0.407627731561661, 1.432513356208801, -0.264791876077652, -0.196136340498924, -0.374144107103348, -0.070365622639656, 0.132192224264145, -0.072910584509373, -0.066614553332329, 0.244098514318466, 0.085966475307941, -0.566851019859314, 0.125585645437241, -0.414143979549408, 0.022476218640804, -0.029870372265577, 0.001021207543090, -0.234521523118019, -0.297151446342468, -1.376373171806335, 0.291312873363495, -0.041312094777822, -0.009698350913823, -0.062263093888760, -0.108850806951523, 0.136294737458229, -0.012755338102579, -0.044235423207283, 0.084547072649002, 0.173370808362961, -0.312649965286255, -0.025008883327246, -0.089108780026436, -0.146770507097244, 0.038074456155300, 1.111594200134277, 0.160247877240181, -0.079267561435699, 0.013806557282805, -0.253957360982895, 0.073086038231850, -0.023712156340480, -0.045705225318670, -0.034306298941374, 0.648631393909454, 0.064073063433170, 0.074730560183525, -0.335276842117310, 0.034628838300705, -0.099381245672703, 0.048097986727953, -0.074174359440804, 0.011203454807401, -0.054036863148212, 0.126452088356018, 0.353221505880356, 0.060476209968328, 0.166729912161827, 0.317405700683594, -0.043996769934893, -0.012335446663201, -0.019572094082832, -2.043194770812988, -0.262952834367752, -0.040852952748537, -0.154426500201225, 0.154879584908485, 0.459147900342941, -0.067610979080200, 0.025578774511814, 0.006188109051436, -0.049566358327866, 0.027737230062485, 0.496647566556931, 0.814011633396149, 0.014296231791377, 0.381113409996033, -0.043223783373833, 0.029723424464464, 0.030957845970988, -0.020351117476821, 0.101248323917389, -0.087449565529823, -0.144207924604416, -0.173587307333946, 0.013395342975855, -0.025608530268073, 0.086641483008862, 0.052112113684416, -0.224290445446968, 0.584825396537781, 0.149907186627388, -0.477833747863770, 0.266883462667465, 0.115102507174015, 0.025713844224811, -0.168537274003029, 0.102954335510731, 0.088662900030613, -0.045568034052849, -0.467831790447235, 0.002607149537653, 0.258182138204575, -0.487438738346100, -0.001117539126426, -0.006518408190459, 0.034068036824465, -0.004667745903134, 1.443477392196655, -1.813970565795898, -0.030556868761778, 0.109349265694618, -0.442286819219589, 0.008550697006285, 0.018389848992229, -0.104494124650955, -1.220966935157776, 0.055023569613695, -1.936076998710632, -0.578315079212189, 0.020540567114949, -0.422315150499344, -0.082799836993217, 0.021677233278751, 0.095320999622345, -0.171889394521713, -0.121120087802410, -0.062900155782700, 0.061938274651766, 0.029229830950499, -0.009569793008268, 0.044381786137819, 0.114891044795513, 0.017957698553801, 0.735341846942902, -0.407033592462540, -0.001691989484243, 0.425676256418228, 0.266083806753159, -0.045728292316198, -0.035067819058895, -0.034985739737749, -0.034557782113552, 1.774110674858093, -1.586846828460693, -0.303899168968201, 0.337196022272110, 0.271817326545715, -0.148444563150406, 0.017685057595372, 0.095487959682941, -0.027196623384953, 0.138232663273811, 0.659723341464996, -0.010333819314837, 0.404587596654892, 0.157473281025887, -0.115066282451153, 0.031407486647367, -0.058754190802574, 0.152692615985870, 0.100009329617023, -0.103670187294483, 0.009833875112236, 0.084100447595119, 0.604528546333313, 0.487877160310745, 0.045722231268883, 0.026933496817946, -0.051180910319090, 0.196564987301826, -1.999687671661377, 1.034220933914185, -0.299995005130768, 0.248169347643852, 0.152037397027016, 0.029007911682129, 0.007542512379587, 0.026298848912120, -0.198932647705078, 0.037471041083336, -0.042154427617788, -0.033429827541113, -0.250551074743271, -0.156999751925468, 0.064474031329155, 0.013491714373231, 0.006673484109342, -0.256275862455368, -0.546576082706451, 0.017546724528074, -0.201234474778175, -0.108849063515663, 0.458862602710724, -0.040474876761436, -0.149260714650154, -0.005353659391403, -0.047455463558435, -0.401449382305145, -0.101483277976513, -0.023188078776002, -0.310508728027344, -0.062912866473198, 0.144176363945007, -0.048291575163603, -0.088484287261963, 0.059348393231630, -0.202319413423538, -0.185309872031212, -0.054879538714886, 0.296133309602737, -0.339176625013351, 0.046067260205746, 0.132234171032906, -0.004827725235373, 0.983287453651428, -0.031444154679775, -0.186758026480675, 0.384672403335571, 0.158913329243660, 0.588695526123047, 0.064369551837444, -0.000692692410666, 0.103046052157879, -0.016664952039719, -0.099805623292923, 0.144642993807793, 0.188763126730919, -0.263094365596771, 0.010977313853800, 0.009123783558607, -0.073587678372860, 0.030997967347503, -0.148379251360893, 0.219465032219887, 0.728370904922485, 0.005493534728885, 0.053265552967787, -0.391350209712982, 0.017066072672606, -0.089067943394184, 0.162000998854637, -0.480136096477509, 0.019453931599855, 0.602188229560852, 0.284933328628540, 0.335266530513763, -0.288940966129303, 0.064028412103653, 0.037489444017410, 0.045856103301048, -0.084209911525249, 0.051650241017342, 0.194170758128166, 0.088179059326649, 0.246582865715027, 0.090911775827408, 0.048508524894714, 0.124435812234879, -0.122247807681561, -0.029069030657411, 0.317237943410873, -0.020915647968650, 0.170668840408325, -0.462138652801514, 0.026311177760363, 0.013625023886561, -0.006541683804244, -0.110531106591225, -1.730737924575806, -0.044597279280424, 0.265315532684326, -0.012088394723833, 0.158934071660042, 0.228648900985718, -0.004702896811068, 0.076436877250671, 0.010613434016705, -0.195667386054993, 0.163536086678505, 0.211570724844933, 0.508670091629028, -0.174453273415565, 0.224638640880585, -0.082412935793400, -0.105924934148788, 0.094680748879910, 0.076436832547188, -0.096350297331810, -0.112917296588421, 0.361644506454468, -0.089468769729137, 0.181029394268990, -0.050816241651773, -0.108192577958107, 0.080993704497814, -0.035613708198071, 0.255510300397873, -0.179652631282806, -0.430298596620560, 0.536275923252106, 0.313579529523849, -0.018306946381927, 0.082624197006226, -0.039325561374426, 0.135797411203384, 0.341861039400101, 0.146110475063324, 0.218978837132454, -0.279587537050247, -0.125414103269577, -0.076399423182011, -0.123015642166138, -0.138485044240952, -0.883099734783173, 0.004210106562823, 0.049235973507166, 0.147461384534836, 0.177297517657280, 0.311139464378357, 0.043413925915956, 0.001690631732345, -0.013762542046607, 0.597514569759369, 0.832953393459320, -0.691062510013580, 0.258517801761627, -0.284117728471756, -0.010444954968989, 0.106978431344032, -0.071933902800083, 0.048713278025389, 0.105119377374649, 0.071406684815884, -0.125828891992569, -0.223402157425880, 0.427471727132797, 0.715332925319672, 0.202267304062843, -0.033022537827492, 0.146525412797928, 0.210932388901711, 0.154087781906128, 0.126863345503807, 0.181989356875420, -0.205766886472702, -0.204071640968323, 0.093572005629539, 0.052700545638800, -0.033962745219469, 0.094811879098415, 0.111659944057465, -0.053778644651175, 0.013874968513846, 0.398268193006516, 0.182286977767944, -0.030278775840998, -0.074023276567459, -0.025435982272029, 0.409041166305542, -0.359611093997955, 0.189847797155380, -0.387746065855026, 0.027640381827950, -0.182789951562881, -0.029036670923233, 0.038853891193867, 0.189183533191681, 0.084423795342445, -0.119210094213486, 0.102545961737633, -0.534036815166473, -0.132192388176918, 0.243626728653908, 0.056789409369230, 0.064322322607040, -0.081482730805874, 0.460166424512863, 0.346807152032852, -0.263649970293045, 0.152196481823921, 0.116426281630993, 0.264418721199036, 0.119552895426750, 0.039552856236696, -0.008818951435387, 0.687534153461456, 0.736792922019958, -0.138383150100708, 0.314204305410385, 0.320359230041504, 0.452627599239349, -0.064926072955132, 0.021536346524954, 0.047129273414612, 0.130562886595726, -0.997820854187012, -0.166040405631065, 0.210111305117607, -0.148964732885361, 0.229292050004005, -0.020566279068589, 0.078199073672295, 0.026696870103478, 0.692217111587524, 0.057117823511362, -0.047632336616516, -0.113405078649521, 0.086004257202148, 0.010721961967647, -0.028095591813326, -0.136552438139915, -0.073520980775356, -0.029752362519503, -0.936372578144073, 0.194848850369453, -0.348008304834366, 0.390750706195831, 0.475387006998062, -0.048613291233778, 0.021702403202653, 0.002282232744619, 0.440067350864410, -0.078245110809803, 0.129018425941467, 0.215447068214417, -0.192106857895851, -0.231694787740707, -0.055652629584074, 0.065513961017132, 0.059609413146973, -0.025535855442286, 0.067763358354568, -0.320785939693451, -0.195917591452599, -0.678145468235016, -0.033258911222219, 0.032471533864737, 0.038395531475544, 0.151360824704170, -0.229553252458572, 0.202938809990883, 0.350517868995667, -0.250184208154678, 0.084038116037846, -0.332582741975784, 0.012402543798089, -0.015638398006558, 0.000815530831460, 0.038287132978439, 0.300513833761215, 0.683391630649567, 0.043049745261669, 0.290883988142014, 0.414772599935532, -0.005378967616707, 0.071218483150005, -0.049174007028341, -0.119091063737869, 0.299283117055893, 0.000234261373407, 0.364801973104477, 0.121011488139629, -0.147830367088318, -0.000327559886500, -0.010067161172628, -0.011747916229069, -0.830100893974304, 0.399837970733643, 0.101758562028408, -0.275871396064758, 0.108727574348450, 0.075404219329357, 0.045321218669415, -0.066154442727566, 0.079869799315929, -0.428336501121521, 0.316101074218750, -0.270808130502701, 0.067354276776314, -0.123439155519009, 0.033831372857094, -0.114818967878819, -0.045729715377092, -0.018491949886084, 0.152432113885880, 0.035556573420763, -0.119761459529400, -0.378133505582809, -0.447502076625824, 0.426750749349594, 0.089117154479027, 0.072063565254211, -0.028368880972266, 0.110502436757088, 0.120458267629147, -0.078250870108604, -0.254232645034790, 0.154399007558823, 0.383240491151810, -0.066409371793270, 0.023480521515012, -0.042282521724701, -0.425354003906250, -0.152614787220955, -0.052216745913029, -0.565823078155518, 0.048781037330627, -0.031073726713657, 0.014138355851173, -0.030026696622372, 0.048977721482515, 0.400528281927109, -0.541947245597839, 0.444463610649109, -0.414785921573639, -0.232176125049591, -0.343706399202347, 0.002436352660879, 0.022786891087890, 0.040608964860439, 0.070053555071354, -0.038832187652588, -1.560239553451538, -0.020622547715902, 0.401762813329697, -0.495481133460999, -0.122204735875130, -0.007878868840635, -0.068633176386356, 0.018564606085420, 1.173983693122864, 0.043691977858543, -0.288532584905624, 0.130408197641373, 0.110747948288918, -0.117064930498600, -0.059779733419418, -0.053518984466791, -0.443531662225723, -1.811206579208374, 0.252881765365601, -0.507136285305023, 0.280921220779419, 0.247205317020416, -0.073922641575336, 0.132572159171104, 0.191383391618729};
#endif

#endif
