//Numpy array shape (147456,)
//Min -0.351814329624
//Max 0.512878060341
//Number of zeros 0

#ifndef OUT_PROJ_WEIGHT51_H_
#define OUT_PROJ_WEIGHT51_H_

#ifndef __SYNTHESIS__
layers_5_ffn_out_proj_weight_t out_proj_weight51[147456];
#else
layers_5_ffn_out_proj_weight_t out_proj_weight51[147456] = {-0.08123596757650375, 0.00899056717753410, -0.08006308972835541, -0.03652748093008995, -0.06429728120565414, -0.02948403917253017, -0.00260861450806260, -0.05822978541254997, 0.01157467905431986, 0.03579099476337433, -0.00986956153064966, 0.00486584706231952, 0.06464786082506180, 0.08415299654006958, 0.04382134974002838, 0.01517395395785570, 0.02411432377994061, -0.10054691135883331, -0.03897710144519806, 0.04539668187499046, 0.01956917159259319, -0.05871263146400452, -0.02128159999847412, 0.02934744954109192, -0.12169482558965683, 0.02194370329380035, 0.02814790606498718, 0.03323846682906151, 0.06098540127277374, 0.08937028050422668, -0.03195277974009514, -0.02563961036503315, 0.00552396290004253, -0.02420481666922569, -0.03617256134748459, 0.06801903992891312, -0.05811000615358353, -0.01361691951751709, 0.02553904056549072, -0.05512754246592522, -0.01235185749828815, 0.03846850991249084, 0.03533599525690079, 0.01301383320242167, -0.05228668451309204, -0.04407633841037750, -0.04489529505372047, 0.00111076550092548, -0.05459603294730186, 0.00075963191920891, -0.04608235508203506, -0.02280400693416595, 0.04548567160964012, 0.01586513407528400, -0.10867938399314880, -0.02626064047217369, -0.11130185425281525, -0.04991300031542778, 0.04589731618762016, 0.02476466447114944, 0.07459273189306259, -0.00891991425305605, 0.04648280888795853, 0.02029368281364441, 0.05972236394882202, 0.05486866086721420, 0.10608853399753571, -0.03387951478362083, 0.00159515661653131, -0.00247295782901347, -0.01600612141191959, -0.02262960933148861, -0.00121556688100100, 0.06326533108949661, 0.07623061537742615, -0.02682043612003326, -0.07702554762363434, 0.09911046177148819, 0.09823534637689590, -0.10415835678577423, -0.05523013323545456, 0.01973849534988403, -0.02840693481266499, 0.03722771257162094, -0.06321247667074203, 0.05636296048760414, -0.00366325001232326, -0.00732601899653673, 0.06241441890597343, 0.02110746316611767, -0.07913318276405334, 0.00878719519823790, 0.04556110873818398, 0.03120598942041397, -0.04680839553475380, 0.01182481087744236, 0.01899608224630356, -0.01922286115586758, -0.04709959030151367, -0.01295351982116699, -0.03892527893185616, 0.06817817687988281, -0.05974953249096870, 0.05896389856934547, 0.05772292986512184, 0.01256491709500551, 0.02690379880368710, -0.02537362463772297, 0.01390218827873468, -0.02666760794818401, 0.00740940263494849, 0.00489659886807203, 0.08360826224088669, 0.03333940356969833, -0.06348948925733566, -0.05941803008317947, -0.04362337663769722, -0.02116391621530056, 0.01841089688241482, 0.01283492613583803, -0.01318541448563337, -0.00538964010775089, 0.02179018966853619, 0.03042252361774445, -0.02551808953285217, 0.01157451048493385, 0.00460689980536699, -0.02015007659792900, 0.00657003186643124, -0.00044342988985591, 0.02239522151648998, -0.00227237469516695, -0.04869284108281136, 0.01025071088224649, -0.04236248880624771, -0.07253850251436234, 0.03344969823956490, -0.01621044985949993, 0.03854186460375786, -0.07482921332120895, 0.01364667899906635, -0.02284323424100876, -0.02748029679059982, -0.02203991636633873, -0.01082863565534353, 0.03230782970786095, -0.04950342699885368, 0.01707214675843716, -0.02737864479422569, -0.02805035561323166, -0.00874660257250071, -0.05749061331152916, -0.00047007630928420, 0.00309219700284302, -0.07103228569030762, 0.00820518098771572, 0.00955988746136427, 0.01741844788193703, 0.01484261639416218, 0.02440405078232288, -0.05305807664990425, 0.03195314854383469, -0.01968945749104023, -0.02396574243903160, -0.14807836711406708, -0.01701887696981430, 0.00843014009296894, -0.01227612048387527, 0.01444885507225990, 0.00021154579007998, 0.02969338372349739, -0.00430345162749290, 0.00965030863881111, 0.00643581245094538, 0.01089698914438486, -0.03343003243207932, 0.01060311589390039, -0.00189900689292699, 0.03116365149617195, 0.03005564212799072, -0.03424196317791939, -0.04680806398391724, -0.04628377407789230, 0.09132978320121765, 0.00390497967600822, -0.02756910026073456, 0.14629416167736053, 0.02555526979267597, -0.00504896230995655, 0.06575972586870193, 0.06714653968811035, 0.00729573518037796, -0.02800956368446350, -0.07335367053747177, 0.02082150988280773, -0.00405025389045477, -0.01672051846981049, 0.01786555908620358, 0.04829037562012672, -0.01623439416289330, -0.01496656145900488, 0.05666501075029373, 0.04529247060418129, 0.05500967428088188, 0.00501913949847221, 0.00918109342455864, -0.03939270973205566, 0.10094633698463440, -0.03517470881342888, -0.08747284114360809, 0.00316035514697433, -0.08410514891147614, 0.11530843377113342, -0.00081013276940212, 0.11050751805305481, 0.04483593627810478, 0.06676593422889709, -0.03223424404859543, 0.00785887148231268, -0.12931649386882782, -0.05792761966586113, 0.05747411027550697, 0.00699040945619345, 0.05297125503420830, -0.06065518036484718, 0.03416338935494423, 0.04514667391777039, -0.03617247939109802, 0.02382578700780869, -0.06431002914905548, 0.01064568944275379, -0.00698343943804502, -0.09261744469404221, -0.09125343710184097, -0.07698207348585129, -0.01578383892774582, -0.10028717666864395, -0.03831887245178223, 0.11813101172447205, -0.02023259550333023, -0.03815365955233574, 0.02669132873415947, -0.01967928931117058, 0.05398160964250565, -0.01370425894856453, -0.00230518798343837, 0.00095823564333841, -0.07378531992435455, -0.02454311586916447, -0.04357170313596725, 0.02502396143972874, 0.00493798917159438, 0.13488811254501343, 0.04431595653295517, 0.01008819043636322, -0.02025234512984753, 0.04115997627377510, -0.07336534559726715, 0.01208940427750349, 0.09180515259504318, -0.03341813012957573, 0.03788886591792107, 0.02977463603019714, -0.01173382438719273, -0.03189843893051147, -0.09105393290519714, -0.08449412137269974, -0.01207625120878220, 0.00797780416905880, -0.03617113456130028, 0.09280787408351898, -0.06246127560734749, -0.06220770627260208, -0.03402461111545563, 0.02395956963300705, 0.02703713439404964, -0.00854287110269070, 0.03013675101101398, 0.01704463176429272, -0.01028208620846272, 0.04101872071623802, 0.06708669662475586, -0.03697658702731133, 0.03670721873641014, -0.01812210306525230, 0.02095481194555759, 0.01156502868980169, 0.02709115669131279, 0.05463477224111557, -0.03131199255585670, -0.01901339367032051, 0.04813705384731293, 0.03646322712302208, 0.02156718820333481, -0.03380318731069565, -0.06359785050153732, 0.01863746717572212, 0.08094843477010727, -0.00628785463050008, -0.03153843060135841, -0.10695161670446396, -0.04325919970870018, -0.02820361219346523, -0.01499778125435114, -0.00008790030551609, 0.06667274236679077, -0.10533758252859116, -0.01042815297842026, 0.06453825533390045, -0.02408903092145920, 0.02999328263103962, -0.03182635456323624, -0.07679873704910278, -0.01740453019738197, -0.01139350701123476, -0.06896619498729706, 0.00570516567677259, -0.00408561713993549, 0.20921257138252258, -0.04091393202543259, 0.12899056077003479, 0.03668883070349693, 0.00970064476132393, -0.03500739112496376, 0.03755940496921539, 0.00875362847000360, 0.04056871309876442, 0.01771736890077591, -0.05739429593086243, -0.02983026392757893, 0.02740585990250111, -0.03445522487163544, -0.02637283131480217, -0.02334972843527794, -0.12233205884695053, -0.03084448166191578, 0.12817808985710144, 0.09384552389383316, -0.07146156579256058, 0.00666771922260523, -0.09259588271379471, -0.08264065533876419, 0.07909032702445984, 0.04498659819364548, 0.06896250694990158, -0.00132625375408679, -0.05030671134591103, -0.02160388417541981, -0.05089917778968811, 0.02683335356414318, 0.03630731254816055, -0.08763908594846725, -0.06424763798713684, -0.08451230078935623, -0.01079103723168373, 0.03377679735422134, 0.00836604367941618, -0.01706467941403389, 0.03114317171275616, -0.01526575442403555, 0.03133609518408775, -0.03558186441659927, -0.04364088922739029, -0.10104507207870483, -0.12646694481372833, -0.01099016983062029, -0.06671980023384094, 0.05267092585563660, -0.01992087438702583, -0.01898526214063168, 0.04064304381608963, -0.07373912632465363, -0.09710275381803513, -0.01298642717301846, -0.11472105234861374, -0.12065868824720383, 0.06588926911354065, -0.03587212413549423, -0.05902237072587013, 0.03659315779805183, -0.00631491607055068, -0.03868173062801361, 0.00709577603265643, 0.00261850375682116, 0.02036284655332565, 0.02185672894120216, 0.07969408482313156, 0.05413359031081200, 0.02764303050935268, -0.00596310338005424, 0.09050112217664719, 0.05359928682446480, 0.00993207190185785, -0.03343884646892548, 0.04045571386814117, 0.02091352827847004, 0.02104219794273376, 0.02515101246535778, -0.01930558681488037, -0.00451490003615618, -0.07596191763877869, -0.03610313311219215, 0.05634605884552002, 0.02778977714478970, -0.02058850601315498, -0.05564545094966888, 0.08998569101095200, 0.02918804064393044, -0.04543421790003777, -0.03052825108170509, 0.00167612929362804, 0.07276219129562378, -0.06753250211477280, -0.00638498365879059, 0.04033713042736053, 0.03344975039362907, -0.08826145529747009, -0.02413787879049778, 0.02823694609105587, 0.02955245412886143, 0.02824028395116329, -0.00022287579486147, 0.04153854027390480, 0.02291104011237621, 0.00752384169027209, -0.04679035022854805, -0.22137796878814697, -0.00956808216869831, -0.05954248830676079, -0.00219701556488872, 0.03758690878748894, -0.06512930244207382, 0.03227470070123672, -0.02237628586590290, -0.02591711096465588, -0.02048205584287643, 0.05154892802238464, 0.06370056420564651, -0.03432286903262138, -0.02533858641982079, 0.05415207520127296, 0.02837400883436203, 0.00531357666477561, -0.04190056025981903, -0.00847495440393686, 0.07310948520898819, -0.04603267833590508, -0.04466729983687401, 0.09922664612531662, 0.02710757590830326, 0.08629289269447327, -0.00692156841978431, 0.01487372349947691, -0.00733619229868054, -0.01060148980468512, 0.02260945178568363, -0.02615563757717609, -0.02711621299386024, 0.04215718805789948, 0.03340475261211395, 0.00370923057198524, -0.01087162736803293, -0.04521494358778000, 0.10090729594230652, 0.00077982421498746, 0.07166311144828796, 0.00160347972996533, -0.05437297746539116, 0.02707432210445404, -0.09417823702096939, 0.02990859746932983, -0.09308087825775146, 0.06165940687060356, 0.02282612025737762, 0.03375444933772087, 0.00643556937575340, -0.04534261673688889, 0.03574815392494202, -0.01702256500720978, 0.03008076176047325, -0.00507986824959517, 0.04846623167395592, 0.01043707039207220, -0.04765656962990761, -0.04241336137056351, -0.02954553440213203, 0.10029627382755280, 0.00626786332577467, 0.06967093795537949, 0.02643171139061451, -0.00817419961094856, -0.03547634929418564, -0.04031230881810188, 0.00798575300723314, 0.03172047808766365, 0.00824028998613358, 0.00645175203680992, 0.02149749174714088, -0.07198186218738556, 0.01582360826432705, 0.03258031234145164, -0.06332085281610489, -0.10856571048498154, 0.03786028549075127, -0.03455171734094620, -0.03006736189126968, -0.02349560335278511, -0.05502121895551682, 0.01587256044149399, 0.02720643393695354, 0.00281799468211830, 0.02628433890640736, -0.01908569969236851, 0.03691332787275314, 0.01127873826771975, -0.00843044091016054, 0.00179022958036512, -0.00969455949962139, -0.05174337700009346, 0.00283540855161846, 0.04552536457777023, 0.02842995524406433, -0.11777079850435257, 0.03259221091866493, 0.01924415305256844, -0.03823518753051758, 0.02023666538298130, -0.00899597164243460, -0.02686664275825024, 0.05895853787660599, -0.05204166099429131, 0.02329370938241482, 0.08042684942483902, 0.07213973999023438, 0.12976607680320740, -0.07492048293352127, 0.06630621105432510, -0.00007293591625057, 0.03662463650107384, 0.07292145490646362, 0.03065631538629532, 0.08408345282077789, -0.01825237274169922, -0.00060126552125439, -0.02078252471983433, -0.06957147270441055, 0.10223454982042313, 0.02507429569959641, -0.05667912587523460, -0.00086374004604295, 0.10610185563564301, -0.01917410828173161, -0.02487651444971561, -0.01708524487912655, 0.06766039133071899, 0.07347109913825989, 0.06518215686082840, 0.02740637026727200, 0.00968601182103157, -0.02129587344825268, -0.03169222921133041, -0.01471736095845699, -0.03077773191034794, 0.02571683749556541, -0.05247693136334419, 0.04781764000654221, -0.01593310572206974, 0.10199662297964096, 0.07029810547828674, 0.02154310047626495, -0.03459215164184570, 0.06236246600747108, 0.01309970300644636, 0.00571350706741214, -0.00754139805212617, 0.09627927094697952, 0.00992046575993299, 0.04907495528459549, 0.01023176312446594, 0.04993547499179840, -0.00122442864812911, 0.02187354490160942, 0.07500472664833069, -0.00392502173781395, 0.09020991623401642, 0.03880823031067848, -0.05751852318644524, -0.03029306419193745, 0.06148104369640350, -0.03708416968584061, 0.05918781086802483, 0.03573039546608925, -0.03004706650972366, -0.09333842992782593, -0.05600234866142273, 0.00262086116708815, -0.02608743309974670, 0.04033025354146957, -0.02156478166580200, 0.03557309880852699, -0.05809525027871132, 0.07870537787675858, -0.01515386346727610, 0.03259599581360817, -0.00486160721629858, -0.03450184687972069, -0.01370874885469675, 0.07654795050621033, -0.05843471735715866, 0.02135606110095978, 0.13808962702751160, 0.02886335924267769, 0.02572338655591011, 0.03266403079032898, -0.05163839459419250, 0.04524725675582886, -0.08344922214746475, -0.01064436975866556, 0.04014488309621811, -0.00897720549255610, -0.06100873276591301, 0.01476337295025587, 0.04621621593832970, 0.00824509747326374, 0.05684546753764153, -0.00737012550234795, -0.02730904519557953, 0.01367045007646084, -0.06105811148881912, 0.01105203572660685, 0.02286656759679317, 0.01399727538228035, 0.02453201450407505, -0.03035739064216614, -0.05704344809055328, -0.02157222107052803, -0.01137342862784863, 0.11105438321828842, 0.04664297401905060, 0.04620579257607460, 0.07128980010747910, -0.03268848732113838, 0.08363468199968338, 0.02998170442879200, 0.05133840441703796, 0.04994840919971466, 0.03050812892615795, -0.00760573986917734, -0.00734494905918837, 0.01670794188976288, 0.15929572284221649, 0.03360161185264587, -0.06887050718069077, 0.00581377232447267, -0.02105193957686424, 0.01324516069144011, -0.01660987734794617, -0.01332232821732759, 0.07856249809265137, 0.02892194129526615, 0.06409454345703125, 0.01713909022510052, -0.06180649623274803, 0.01140227820724249, 0.05605129897594452, 0.00954232271760702, 0.03085359185934067, -0.06328554451465607, -0.16787232458591461, 0.04692007601261139, -0.02898406051099300, 0.04522639140486717, 0.04752694070339203, -0.06431378424167633, -0.00175664259586483, 0.10362450033426285, 0.06197156757116318, -0.02408401481807232, 0.15246874094009399, -0.05226683616638184, 0.04705985635519028, 0.05317386239767075, -0.11728878319263458, -0.01036303211003542, 0.00667943106964231, 0.01368940155953169, 0.01542844623327255, 0.00902477558702230, -0.01794746145606041, -0.07599882781505585, 0.02167696505784988, -0.02285671606659889, 0.01494267210364342, -0.10507445037364960, -0.04034228250384331, -0.01246792357414961, 0.06379669159650803, -0.08110862225294113, -0.03586943820118904, 0.01496246922761202, -0.03636545687913895, -0.08059842884540558, 0.08905195444822311, -0.01353121269494295, -0.00863644946366549, -0.03732721507549286, -0.04611918702721596, 0.03384355455636978, 0.03705758973956108, -0.00562189705669880, 0.01216499414294958, 0.09567409753799438, -0.01187411230057478, -0.01289775036275387, -0.15621674060821533, 0.04868042841553688, 0.06890852004289627, 0.05647745728492737, -0.09212369471788406, 0.07834361493587494, -0.01222540810704231, 0.00883771013468504, 0.05807828530669212, 0.03268091008067131, 0.01967765577137470, 0.08067837357521057, 0.02825898490846157, 0.01943981647491455, 0.17122885584831238, 0.02780977077782154, 0.03613411635160446, -0.02725668437778950, 0.05138845741748810, -0.12455035001039505, 0.00142845080699772, -0.04776493832468987, 0.00461415108293295, 0.07849245518445969, -0.05272950977087021, -0.01626086980104446, -0.01160123571753502, 0.01851925626397133, -0.02132443152368069, 0.01910289190709591, -0.01565312035381794, -0.00872396212071180, -0.07876928150653839, -0.08635124564170837, -0.07898784428834915, 0.03857087716460228, 0.07294021546840668, 0.07394611835479736, 0.08487434685230255, -0.00049132836284116, 0.04371633380651474, 0.05975661426782608, -0.05071012303233147, -0.02344081550836563, 0.03578556701540947, -0.03150226920843124, -0.01850916817784309, 0.04648429155349731, -0.13990239799022675, 0.05634179711341858, -0.11646814644336700, 0.00266611902043223, 0.08918635547161102, 0.04108624160289764, -0.02259353175759315, -0.00353643437847495, -0.01376411411911249, 0.02920051850378513, 0.08701575547456741, 0.02423861622810364, 0.09463594853878021, 0.00137332151643932, 0.00405191117897630, 0.00704869301989675, -0.06940357387065887, -0.01784707792103291, 0.02207119949162006, -0.02873829193413258, 0.06865429133176804, 0.04929314181208611, 0.00041967228753492, 0.02134440653026104, -0.11434337496757507, -0.00976609159260988, 0.09035820513963699, -0.04161986708641052, 0.01062521524727345, -0.08098179847002029, 0.08587899059057236, 0.05439407750964165, 0.02817756682634354, -0.00221730419434607, -0.10459031164646149, 0.05334349349141121, 0.00700393598526716, 0.02871998585760593, -0.02879901044070721, 0.01159114856272936, -0.01124695874750614, 0.01213966030627489, 0.01634489931166172, 0.03354766219854355, -0.01466269977390766, -0.00879416521638632, 0.05552094802260399, -0.10198723524808884, -0.05375106632709503, 0.06396064907312393, -0.05259310454130173, -0.08374079316854477, 0.01719399169087410, -0.06785724312067032, -0.00474821403622627, -0.01337222661823034, -0.02262159436941147, -0.01340219378471375, -0.10859946906566620, -0.06047535687685013, -0.20801667869091034, -0.04955906048417091, -0.12616971135139465, 0.02449758164584637, 0.02873596362769604, -0.04555500298738480, -0.01161036919802427, -0.00783026497811079, -0.00620512105524540, 0.10401851683855057, -0.06825400143861771, -0.06853706389665604, -0.10371653735637665, 0.02645246312022209, -0.07300951331853867, -0.01668983697891235, -0.01494615525007248, -0.01499151345342398, 0.08394151180982590, -0.03376832231879234, -0.04823323339223862, 0.00069074711063877, -0.06706330180168152, 0.03071685880422592, -0.03489262238144875, -0.01485669054090977, -0.01913896389305592, -0.11295210570096970, -0.00198412104509771, 0.05472216755151749, 0.01112128701061010, 0.06221206858754158, 0.01353717315942049, -0.06676647812128067, -0.01245291344821453, 0.01298057194799185, 0.03426925092935562, -0.05217537656426430, 0.03636518493294716, 0.05315877497196198, 0.10557173937559128, -0.07108727097511292, 0.01415910478681326, -0.03809547051787376, -0.02981798723340034, -0.09398820251226425, -0.00970032811164856, 0.12129760533571243, -0.08248256146907806, -0.00515743670985103, 0.00119293585885316, 0.05317484959959984, -0.01035213097929955, 0.02006254531443119, 0.02163447067141533, -0.02356972545385361, -0.06100162863731384, 0.03297767788171768, 0.02700062282383442, -0.00011286074004602, 0.04426747933030128, 0.06603184342384338, -0.06179820001125336, -0.05017709359526634, 0.04347209632396698, -0.05651433765888214, 0.02694310434162617, -0.00192029180470854, -0.04576458781957626, -0.11948779225349426, -0.00634959060698748, 0.07832400500774384, -0.06006810441613197, 0.01769553311169147, 0.11768154054880142, -0.00004214599175612, -0.01148138288408518, 0.03957752883434296, 0.08099930733442307, -0.02746499516069889, 0.00779331987723708, 0.02967739291489124, 0.06315864622592926, 0.02780341356992722, -0.05184265226125717, -0.01602213270962238, -0.00373212597332895, 0.01472107507288456, -0.01184188667684793, -0.00066252634860575, -0.03559581935405731, -0.00250750500708818, -0.03695818036794662, 0.01955822296440601, 0.11856330186128616, -0.00543058291077614, -0.00065084971720353, -0.02129138074815273, -0.03370663523674011, 0.05203879624605179, -0.05111347138881683, -0.04505727440118790, -0.00947252102196217, -0.00785630568861961, -0.06307826191186905, -0.00555198686197400, -0.06218714639544487, -0.04250336810946465, 0.14028401672840118, -0.02463492937386036, 0.00017205628682859, -0.07131243497133255, -0.08473123610019684, 0.01541526615619659, -0.00393152935430408, 0.02764113806188107, -0.01529691461473703, 0.02054583653807640, -0.04051538929343224, -0.00118123937863857, 0.02569473907351494, 0.00445031141862273, 0.02236757986247540, 0.04103029146790504, -0.00924428272992373, -0.00603770231828094, 0.02027188241481781, -0.00769159430637956, -0.03071208298206329, -0.03417064249515533, -0.01068922691047192, -0.05622509866952896, -0.09128671884536743, -0.00743752717971802, 0.01829175092279911, 0.00179827015381306, -0.00472921645268798, 0.02844871394336224, -0.00917452108114958, 0.02130675874650478, 0.00091175764100626, -0.03414843976497650, -0.00214139744639397, -0.04236939176917076, 0.02980904094874859, 0.01159378141164780, 0.03042338043451309, -0.00648149847984314, 0.00157894194126129, 0.02321615815162659, -0.00914064515382051, -0.06893812865018845, 0.03894183412194252, -0.03740653768181801, 0.02381554991006851, -0.01549921371042728, 0.00813325773924589, 0.00441785994917154, 0.00527594890445471, 0.04167949408292770, -0.00915035791695118, 0.01430424209684134, -0.06025417521595955, 0.03601128607988358, 0.02319962345063686, 0.05273060128092766, -0.00006463995669037, -0.03434259444475174, -0.02729674614965916, -0.04045350104570389, -0.05542176216840744, -0.02555736899375916, -0.02828754857182503, -0.04658442363142967, -0.05802404135465622, 0.05706455931067467, -0.02562879770994186, 0.05085951089859009, 0.07396447658538818, 0.03293223679065704, 0.07489112764596939, 0.00636639166623354, 0.05585694685578346, -0.03529234230518341, -0.02390044368803501, 0.09727019071578979, 0.03985741361975670, 0.08042616397142410, 0.05399902164936066, 0.06132529303431511, -0.01706449687480927, -0.05974669009447098, 0.17937752604484558, 0.05408829078078270, 0.04183619096875191, -0.00380955240689218, -0.02108684368431568, 0.03926185891032219, 0.01958456262946129, 0.05907839909195900, 0.05216386541724205, -0.07789293676614761, 0.03080753795802593, 0.07851566374301910, -0.15566925704479218, 0.02239045687019825, 0.03152444586157799, -0.00940617732703686, 0.00051810411969200, -0.02134903334081173, 0.00892367400228977, 0.00640395842492580, -0.05615889281034470, 0.02400569245219231, 0.04632390290498734, 0.03497811406850815, -0.09538605064153671, -0.02156871557235718, -0.03514502942562103, -0.04794550314545631, 0.00335795129649341, 0.06738571077585220, 0.03058420121669769, 0.01436529774218798, 0.00980300828814507, 0.03086813725531101, -0.01022597588598728, -0.05090401321649551, 0.05749173834919930, -0.00656840531155467, -0.03578915446996689, -0.04051256179809570, 0.01534290518611670, -0.01076345983892679, 0.03142057359218597, -0.02095711603760719, -0.03229232877492905, 0.04273520782589912, -0.12342992424964905, -0.08348653465509415, -0.04996486753225327, -0.03357315436005592, -0.02901498228311539, -0.01010464597493410, -0.04732638224959373, 0.03019662573933601, 0.02030888386070728, -0.04912592470645905, 0.03716455772519112, -0.02329503931105137, 0.01461513992398977, -0.07763668149709702, -0.00262551056221128, -0.06983048468828201, 0.04577277973294258, 0.03499165177345276, 0.01089979894459248, -0.02353962138295174, -0.06414824724197388, 0.05120820924639702, 0.04209628328680992, 0.02094990760087967, -0.08929123729467392, 0.01275114342570305, 0.18971997499465942, 0.05283990129828453, 0.14038974046707153, -0.01444016303867102, 0.00965354032814503, 0.04020980000495911, 0.01737147569656372, 0.01170039176940918, 0.00001002026783681, -0.06957975775003433, -0.01845384202897549, -0.00106614688411355, -0.04334896802902222, -0.00906985253095627, -0.10098104923963547, 0.00219199969433248, 0.04439846053719521, -0.01962148025631905, 0.00442242156714201, -0.00988062005490065, -0.01495805382728577, 0.05650234967470169, 0.01430234406143427, 0.01868114434182644, -0.08498936891555786, -0.01936020702123642, 0.07350064814090729, 0.06638798117637634, -0.01824359782040119, 0.05634174123406410, -0.04952900484204292, -0.00838957540690899, -0.01053399965167046, -0.04953280836343765, 0.04655251652002335, -0.09166964888572693, -0.07721852511167526, 0.02291199937462807, 0.02041493915021420, -0.04243103042244911, -0.09647407382726669, 0.00468218280002475, 0.06273060292005539, 0.02883464656770229, 0.01669490151107311, 0.02824955619871616, 0.03604763001203537, 0.05242184922099113, -0.16164681315422058, -0.02675868943333626, -0.00496503757312894, -0.01096509303897619, 0.00949103757739067, 0.01584915630519390, 0.02731821499764919, -0.02027337253093719, -0.09387893974781036, 0.05256117880344391, 0.11907692998647690, -0.02606397122144699, 0.03149747475981712, -0.01369444653391838, 0.05467355996370316, -0.08534080535173416, 0.04062280058860779, 0.03394131362438202, -0.02198397181928158, -0.00742041459307075, -0.00663646869361401, 0.05876719206571579, -0.01330306660383940, -0.00563592556864023, -0.03490016981959343, -0.02493641898036003, 0.07598792016506195, -0.04417861625552177, -0.07600319385528564, 0.04690822958946228, -0.01152823958545923, 0.06888882070779800, -0.00295393518172204, 0.02515111677348614, 0.02479615248739719, 0.03020549565553665, -0.00512270722538233, -0.02524366788566113, -0.01547387242317200, 0.02393179014325142, -0.02045472897589207, 0.02940388955175877, 0.01231432706117630, 0.08555257320404053, -0.02560273930430412, 0.01184496656060219, 0.02876105904579163, 0.03694118186831474, 0.07403200119733810, 0.02831858769059181, 0.08724803477525711, 0.02663153968751431, 0.03535655885934830, 0.01498297415673733, 0.03692703694105148, -0.03746023029088974, 0.00976354442536831, 0.02337996847927570, 0.09040182828903198, 0.04523055627942085, 0.01979711465537548, 0.00618301797658205, 0.07387573271989822, 0.00389406713657081, 0.05356204882264137, -0.08442384004592896, -0.00849731266498566, -0.07861907035112381, -0.07587218284606934, -0.00046851384104230, -0.10038657486438751, -0.07506245374679565, -0.13320319354534149, -0.07909414172172546, -0.08095879852771759, -0.00441504409536719, 0.11262198537588120, -0.05693402513861656, -0.05411206930875778, -0.04227501153945923, -0.04034070298075676, 0.04688797146081924, 0.03826320543885231, 0.00688748341053724, 0.00658136419951916, 0.03101330436766148, -0.06236089766025543, 0.00473013008013368, 0.01894045621156693, 0.02596048265695572, -0.01363360974937677, -0.01474494021385908, -0.09275821596384048, 0.03745596483349800, 0.00296207843348384, 0.02348344400525093, 0.09237682074308395, 0.03655234724283218, -0.01756747625768185, 0.04014762118458748, 0.02437076717615128, -0.01727510616183281, -0.01869708858430386, -0.00847424380481243, -0.02332689426839352, 0.04404306784272194, 0.07579063624143600, 0.02874617837369442, -0.14857780933380127, 0.02356871776282787, -0.00243745604529977, -0.01821745000779629, 0.04385880753397942, 0.04033546522259712, -0.04498402029275894, 0.06636376678943634, 0.07089689373970032, 0.00208605825901031, 0.02967441640794277, -0.07840172946453094, -0.08846298605203629, -0.00777904782444239, -0.00287239323370159, -0.02533869259059429, -0.03464183211326599, 0.04131036996841431, -0.06805092841386795, -0.00290859933011234, 0.02951292507350445, -0.03560172766447067, 0.03499215096235275, -0.03843132406473160, -0.00634030438959599, -0.02533318474888802, 0.07389579713344574, -0.07093554735183716, 0.04387591779232025, -0.00727906683459878, 0.00231553171761334, -0.07334934175014496, 0.03425400704145432, -0.00210740417242050, -0.07194998115301132, 0.03138135373592377, -0.06258698552846909, -0.06654681265354156, 0.03254174813628197, -0.00151764438487589, 0.00938763096928596, -0.03741217032074928, -0.05291257426142693, -0.02324734628200531, 0.10942308604717255, 0.04187235236167908, -0.01233069319278002, -0.07191813737154007, 0.07643975317478180, -0.04757999628782272, 0.08261075615882874, -0.05761507153511047, 0.03444289043545723, -0.03161661326885223, -0.00751664582639933, 0.03637180849909782, 0.03427043557167053, 0.02306380867958069, -0.05797659605741501, -0.03581795468926430, -0.03509389609098434, -0.00338816177099943, -0.01843885518610477, 0.04401786997914314, -0.06383447349071503, 0.03378206863999367, 0.04784124717116356, 0.02490763179957867, -0.02965681254863739, 0.05436743795871735, -0.07273438572883606, -0.08501498401165009, 0.14767552912235260, 0.03838732838630676, 0.02144418656826019, 0.09421653300523758, -0.06398075073957443, 0.04733733087778091, -0.01438989210873842, -0.01767016202211380, 0.07872626185417175, 0.04013268649578094, 0.10130466520786285, 0.09854082763195038, 0.00203748815692961, 0.04761309549212456, -0.12898761034011841, -0.01318629551678896, 0.06822630763053894, 0.00801096856594086, -0.02151181362569332, -0.06091807410120964, -0.01508121192455292, 0.03873324394226074, 0.17998257279396057, 0.12178380787372589, 0.14652921259403229, 0.04490921646356583, 0.00629155989736319, -0.07077396661043167, 0.01603475958108902, -0.01992299407720566, -0.05881726741790771, -0.05885868519544601, 0.07467281818389893, 0.03441948816180229, -0.01367916725575924, -0.01060614082962275, -0.06832881271839142, 0.01277312822639942, -0.02092667482793331, 0.00997451692819595, -0.04025400429964066, -0.02259412594139576, -0.08015277236700058, 0.01402583066374063, -0.06173846125602722, -0.07702373713254929, 0.09715897589921951, 0.06977708637714386, 0.05164862051606178, -0.00844429153949022, -0.04944352433085442, 0.04427418112754822, 0.02936514653265476, -0.05067358538508415, -0.06821020692586899, 0.02758813276886940, 0.02649673819541931, 0.01586515828967094, 0.14379341900348663, 0.09642607718706131, 0.06314700096845627, -0.04621536657214165, 0.03666741400957108, -0.06095492839813232, -0.06219136714935303, -0.04939103871583939, -0.02183153666555882, -0.03762152791023254, 0.01259099692106247, -0.02372352220118046, -0.01709363982081413, 0.06288064271211624, 0.02595551498234272, -0.00698378728702664, -0.00674089090898633, 0.00772680575028062, 0.04000155255198479, 0.00093053560703993, 0.02772570960223675, 0.02108657360076904, 0.06953059881925583, -0.00797225534915924, -0.00359660130925477, -0.00471320934593678, -0.07903531193733215, 0.03528058156371117, 0.00353735242970288, 0.06663534790277481, -0.02686569280922413, -0.03242195770144463, 0.01100738160312176, -0.00790384877473116, -0.03182325884699821, -0.00391867617145181, 0.10226953774690628, 0.05522978678345680, 0.08578770607709885, -0.03393073007464409, 0.00534895714372396, 0.06196094676852226, -0.02218597754836082, 0.02207146771252155, 0.14878395199775696, 0.00692617334425449, -0.05215046927332878, -0.04017195105552673, 0.05479946732521057, 0.08678180724382401, -0.09495635330677032, -0.00042238982859999, 0.00945550762116909, -0.01728541590273380, -0.05905343964695930, 0.06353290379047394, 0.01859661936759949, 0.04258937388658524, 0.04881548881530762, -0.02796762436628342, 0.01912550628185272, -0.01305246166884899, 0.08397973328828812, -0.03921675682067871, 0.04134893789887428, -0.04550008848309517, 0.03094945847988129, -0.07394241541624069, -0.00317141157574952, -0.01431633066385984, 0.02471327222883701, 0.00250664283521473, -0.02923758514225483, -0.02691980078816414, -0.07063729315996170, -0.06630878150463104, 0.04922020807862282, -0.05474007874727249, -0.04955890402197838, 0.00207019620575011, -0.05119499564170837, 0.02976194955408573, 0.00303173204883933, -0.03590256348252296, -0.06947313249111176, 0.00763202738016844, 0.03185534104704857, -0.03319558501243591, 0.04661168158054352, -0.03126855567097664, -0.04373687505722046, -0.00833826605230570, -0.00494169397279620, 0.04541590437293053, 0.02631009183824062, -0.04771010950207710, -0.12696999311447144, -0.07404714077711105, -0.04806569963693619, 0.00234183948487043, -0.02562650293111801, 0.00327700702473521, 0.01305681094527245, 0.00665768235921860, 0.00259983423165977, 0.07776834815740585, 0.01746897585690022, -0.05015731975436211, 0.00287466542795300, 0.05070675536990166, 0.06973226368427277, -0.01219287794083357, -0.07869329303503036, 0.04209667444229126, -0.14662830531597137, 0.02873595990240574, 0.08386648446321487, -0.05822915956377983, 0.06382363289594650, 0.04510517418384552, -0.04371857643127441, 0.02422501333057880, 0.03365091979503632, -0.06964083015918732, 0.01747823320329189, 0.01903827488422394, 0.00717022875323892, 0.01108386274427176, 0.02195294201374054, 0.01398270390927792, 0.01132833305746317, -0.02958931587636471, -0.06700809299945831, -0.13215309381484985, 0.02757695317268372, 0.04838585108518600, -0.03974800556898117, 0.00765752606093884, 0.01805103942751884, 0.00718749919906259, -0.01960133947432041, 0.02288241311907768, -0.00662318617105484, -0.04845665767788887, -0.05986415967345238, 0.01513311266899109, 0.02945904992520809, -0.04475948959589005, 0.01987233944237232, -0.00344575010240078, 0.06638643145561218, 0.00810614973306656, 0.00688588107004762, 0.04267741739749908, -0.07624920457601547, -0.01709763333201408, 0.01432948932051659, 0.01294946670532227, 0.07269223779439926, 0.05470283329486847, 0.01265008095651865, 0.01714856736361980, -0.04529092833399773, -0.01750008575618267, -0.02247351594269276, -0.02427114732563496, 0.03602654486894608, 0.00073558784788474, -0.04192207381129265, -0.01371297147125006, 0.07339925318956375, 0.07428973913192749, -0.00332697480916977, -0.02833421342074871, 0.02640491351485252, -0.04518141224980354, 0.00790331326425076, 0.09253949671983719, 0.01847086846828461, -0.05725873634219170, 0.00716860825195909, 0.01838576048612595, -0.17677335441112518, -0.00369153916835785, -0.02476945891976357, -0.00292011490091681, 0.00623615086078644, 0.04073472321033478, 0.01935691386461258, -0.04133542627096176, 0.10814280062913895, 0.10931879281997681, -0.03222366794943810, -0.02428335137665272, -0.03063737042248249, -0.06142365932464600, 0.12894243001937866, 0.00258070137351751, -0.02689937874674797, 0.03382621705532074, 0.01467199157923460, -0.04487792402505875, -0.00306892767548561, -0.00328879617154598, 0.09101527929306030, 0.01179327070713043, 0.03497707098722458, -0.00770982075482607, 0.00222564837895334, 0.02706314437091351, 0.01896787993609905, 0.02271142974495888, -0.01376155298203230, 0.00422957539558411, -0.01713289134204388, 0.03342539444565773, -0.07769673317670822, 0.00274378107860684, 0.03359223902225494, 0.00677844649180770, -0.05271214246749878, 0.08148875087499619, -0.05649539083242416, -0.00640910072252154, 0.02560758404433727, 0.02654711715877056, 0.03224917128682137, -0.00069903640542179, -0.02908789366483688, -0.07109184563159943, -0.03803544491529465, -0.05974416062235832, 0.12980823218822479, -0.05540005862712860, -0.04746861383318901, -0.03166689723730087, 0.05816477909684181, -0.03060508519411087, 0.00860540848225355, -0.06503506749868393, -0.01470557320863008, -0.02233687229454517, 0.01813516393303871, 0.04146825894713402, -0.07686328142881393, -0.01095465198159218, -0.04197767376899719, 0.02525232918560505, 0.04865490645170212, 0.03990012034773827, 0.03814391419291496, -0.06703907996416092, 0.01657494902610779, 0.01930397748947144, 0.02699193172156811, -0.05760806426405907, -0.15210013091564178, 0.01377754751592875, -0.04138302057981491, 0.01893820427358150, 0.10075693577528000, -0.05070342123508453, -0.03978044912219048, -0.06435994058847427, 0.03621137887239456, 0.15212346613407135, -0.02143582329154015, 0.05083067715167999, -0.01106364373117685, 0.02901226840913296, -0.03784865885972977, -0.05759917199611664, 0.06333827227354050, -0.02530985325574875, -0.00914411153644323, 0.00621900288388133, -0.08568210899829865, -0.04470888525247574, 0.08596170693635941, 0.04876267164945602, -0.06026798486709595, -0.03993856161832809, -0.09955482929944992, -0.02205085568130016, -0.05000658705830574, -0.03719312325119972, -0.03853382542729378, -0.04255633428692818, -0.00831437204033136, -0.01520620565861464, -0.04971204325556755, 0.06924627721309662, -0.01910104788839817, 0.01250255573540926, -0.05480557680130005, -0.07369363307952881, -0.00896168034523726, 0.02018612064421177, 0.06665612012147903, -0.00709366565570235, 0.03044610470533371, 0.06119591742753983, 0.07074658572673798, -0.03317970037460327, -0.02607587724924088, -0.04491434246301651, -0.03317853808403015, 0.03103582561016083, -0.00989567395299673, 0.02807838283479214, 0.00825415551662445, -0.03315613046288490, -0.01893873326480389, 0.03158204257488251, -0.16147249937057495, -0.00855569820851088, -0.05065566301345825, 0.00826664641499519, -0.04806915670633316, -0.00580854620784521, -0.02091998793184757, -0.03789421543478966, 0.05052706226706505, -0.00498789269477129, -0.09227748960256577, 0.10931574553251266, -0.02696299366652966, 0.00995206180959940, -0.00350539572536945, 0.05017015337944031, 0.07243482023477554, -0.05401022732257843, 0.04864735901355743, 0.00790656916797161, 0.02123301662504673, -0.00030600259196945, -0.00043199700303376, 0.01975576020777225, -0.15290586650371552, -0.05834308266639709, -0.04254627600312233, 0.01760544069111347, 0.01347167696803808, -0.01265531964600086, 0.03206160292029381, -0.04700498282909393, -0.03543142601847649, 0.03575334697961807, -0.01792227849364281, -0.06109167262911797, -0.00106404547113925, 0.04530345648527145, -0.01133442576974630, 0.03766912594437599, -0.06960927695035934, -0.03128901869058609, 0.04888330772519112, -0.07624135911464691, -0.02105643972754478, -0.00179817713797092, 0.05728814005851746, 0.06131458282470703, 0.03032035939395428, -0.01450064498931170, -0.01628928259015083, -0.03515385463833809, 0.04397260025143623, -0.06374512612819672, -0.06324600428342819, -0.00481556775048375, -0.05805898830294609, -0.05272870510816574, -0.02872317284345627, -0.03712387382984161, 0.14219957590103149, -0.01207835227251053, 0.09768784791231155, 0.05862337723374367, 0.02214279957115650, -0.02892762236297131, -0.04049987345933914, 0.02628887444734573, 0.03658077493309975, 0.03928628563880920, 0.02678973041474819, 0.01612935215234756, -0.02993893995881081, 0.00169680966064334, 0.04221467301249504, -0.02870622277259827, -0.04425812140107155, -0.06918682903051376, 0.03808003291487694, -0.03280873224139214, -0.05862251296639442, -0.02047801017761230, -0.03404617682099342, -0.00543072773143649, -0.03988772258162498, 0.09704906493425369, -0.03227965533733368, 0.03092134371399879, -0.01829076744616032, 0.03337406367063522, -0.04745681211352348, -0.06575467437505722, -0.09121016412973404, 0.04441135749220848, 0.00970325712114573, -0.01925487630069256, -0.01573175191879272, 0.06263020634651184, -0.02608699351549149, -0.03701454773545265, 0.07012598961591721, 0.01730694994330406, -0.11276176571846008, -0.01569416932761669, 0.06523700803518295, -0.01553779654204845, -0.04255072399973869, -0.03764085844159126, 0.01808600313961506, 0.09861949086189270, 0.05455708131194115, -0.07934737205505371, 0.02635534293949604, 0.00553144747391343, -0.04241561517119408, -0.03424276039004326, 0.00608760025352240, -0.01644263975322247, -0.01525830104947090, -0.02096828259527683, 0.09816646575927734, 0.07724529504776001, 0.07809604704380035, 0.07189871370792389, -0.10358085483312607, -0.02993126586079597, -0.04072647169232368, -0.03096853755414486, 0.05007046461105347, -0.05770805478096008, 0.04876165837049484, 0.09124061465263367, -0.02023051679134369, -0.00431989226490259, 0.04412097111344337, -0.02414129860699177, 0.02103384584188461, -0.03774581477046013, 0.01740581914782524, -0.00064859015401453, -0.06534619629383087, 0.01523628365248442, -0.03634328395128250, -0.04377179592847824, 0.04419029504060745, -0.01992488838732243, 0.02194544300436974, 0.01850954443216324, 0.00221149181015790, -0.06636924296617508, -0.00162009382620454, 0.01982744596898556, 0.03973762318491936, -0.03724420815706253, -0.04571755230426788, -0.04535842314362526, 0.08610830456018448, -0.00241916510276496, -0.04047693312168121, 0.03785824403166771, 0.01744372583925724, -0.00437190243974328, 0.01468993164598942, -0.04110830649733543, 0.00307385250926018, -0.00452121673151851, 0.09513640403747559, 0.05586637556552887, -0.02951804921030998, -0.00956467632204294, -0.03755550459027290, -0.01961915567517281, 0.03818125650286674, -0.04919386655092239, -0.00899696256965399, -0.00114806334022433, 0.00245451251976192, 0.07155303657054901, -0.02835149504244328, -0.05316672101616859, -0.27341401576995850, 0.04371006414294243, -0.02934119105339050, 0.00051838799845427, -0.09997653216123581, -0.04552567377686501, -0.01586511731147766, 0.00616839108988643, 0.03374792262911797, -0.00076138856820762, 0.04558358713984489, 0.07560591399669647, -0.10451229661703110, 0.06970272958278656, -0.09848412126302719, -0.03616108372807503, -0.04442207515239716, 0.03139855340123177, 0.01336254924535751, 0.00707286270335317, -0.00993145629763603, 0.01272550411522388, -0.03803896531462669, 0.01343024056404829, 0.04171386733651161, -0.07459217309951782, 0.03638136759400368, -0.01426635682582855, 0.07834237813949585, 0.01928826980292797, 0.06125716120004654, -0.02701585181057453, -0.02013068832457066, -0.03227857872843742, -0.00835400726646185, -0.02665264531970024, 0.02745747007429600, 0.03614883869886398, 0.03119873441755772, 0.01950638927519321, 0.00791462697088718, -0.03755029663443565, 0.05274071544408798, -0.00650298921391368, 0.07492446154356003, 0.07587829232215881, -0.01088070217519999, -0.01557727437466383, -0.11409179866313934, 0.03095595911145210, -0.08815883845090866, 0.03919138759374619, -0.08405452221632004, 0.10222688317298889, -0.06893939524888992, -0.03025088831782341, -0.01148038916289806, 0.04124798998236656, -0.00677753798663616, -0.00852534268051386, -0.10664812475442886, 0.06969663500785828, -0.13473860919475555, -0.07735943794250488, -0.04925209283828735, 0.00897792074829340, 0.00998419243842363, -0.05938216671347618, 0.02951192483305931, -0.03194867447018623, 0.03124930709600449, 0.05531279370188713, -0.11790800094604492, 0.09380098432302475, 0.00692625250667334, -0.04898658394813538, 0.04760400950908661, -0.01002326048910618, 0.04279825836420059, 0.01709796488285065, 0.08155283331871033, -0.02003579586744308, -0.01343675516545773, -0.09671815484762192, -0.00276292650960386, 0.03943496197462082, 0.04063878580927849, 0.05044437572360039, 0.03996599465608597, -0.00491248909384012, -0.00012375210644677, 0.00648429337888956, -0.03395581245422363, -0.08980930596590042, 0.01051014289259911, -0.02599420212209225, 0.06636983901262283, -0.01051377039402723, -0.08409675955772400, 0.08380404859781265, 0.07503923028707504, -0.03058491274714470, 0.00335072167217731, -0.00444899499416351, 0.04984178021550179, -0.03269720450043678, 0.05290063843131065, -0.04581988602876663, -0.03183069825172424, 0.02207117527723312, 0.07058123499155045, 0.01761805266141891, -0.00595802115276456, -0.02185617946088314, -0.03216001763939857, 0.00043484941124916, -0.06350529193878174, -0.05914679542183876, 0.04674866795539856, -0.00673970486968756, 0.01019779127091169, -0.01095560379326344, -0.05797586217522621, 0.00201970990747213, 0.06790886074304581, 0.08195385336875916, -0.02665503136813641, -0.02822235971689224, 0.06169030442833900, 0.01722041890025139, 0.02494965679943562, -0.00672007817775011, 0.17070074379444122, -0.04078585281968117, 0.05376452952623367, -0.03418899700045586, -0.06334571540355682, 0.03515021130442619, 0.04044333100318909, 0.01580824144184589, -0.08412156254053116, -0.12008632719516754, -0.06865639984607697, 0.02611331455409527, -0.05774108320474625, 0.02025875821709633, -0.02866934798657894, -0.02644045278429985, -0.02274953760206699, -0.03143609687685966, -0.05681074783205986, -0.01990599557757378, -0.05505874380469322, -0.06571352481842041, -0.04311015084385872, -0.00046455170377158, 0.07664250582456589, 0.02761978283524513, -0.15630282461643219, 0.00923521630465984, -0.02692480199038982, 0.04244207963347435, -0.09786732494831085, 0.02532115392386913, -0.01887069083750248, 0.14795115590095520, -0.00459124753251672, 0.01437254529446363, -0.05768584832549095, -0.01328736171126366, -0.01389767322689295, 0.00700457813218236, -0.01177067030221224, 0.02095097675919533, 0.03480126708745956, -0.01732304506003857, 0.07383424043655396, 0.07369375228881836, -0.03096203319728374, 0.01674287021160126, -0.04950717464089394, 0.04026210308074951, -0.15550822019577026, 0.04859620332717896, 0.00242709997110069, 0.00591354491189122, -0.01385850552469492, -0.02461033128201962, -0.01953033357858658, 0.04511177167296410, 0.08727882057428360, -0.09991730004549026, -0.03056801855564117, 0.01263120118528605, -0.03817642852663994, -0.05849061906337738, -0.00322273350320756, 0.02428683638572693, -0.01325306855142117, 0.05488872900605202, 0.01073278393596411, 0.02765105478465557, 0.01034633535891771, 0.01750161312520504, 0.03470497205853462, -0.02697108127176762, 0.01042515784502029, 0.09286993741989136, 0.09016386419534683, -0.08634015172719955, 0.01841572672128677, 0.02534797042608261, -0.01483301818370819, -0.02150747925043106, -0.01581853441894054, -0.03310231119394302, -0.20782068371772766, -0.06444782763719559, -0.06387975811958313, 0.00393779668956995, 0.03487901389598846, 0.01530297286808491, 0.00774224800989032, -0.02856847643852234, -0.08738753944635391, -0.02799588628113270, 0.00207531452178955, 0.05888143554329872, 0.18102595210075378, -0.00116990925744176, 0.11883577704429626, -0.04854827001690865, -0.04626310989260674, -0.04241630807518959, 0.09453300386667252, -0.05107963830232620, -0.02805791422724724, -0.04123738408088684, -0.10893533378839493, -0.08802143484354019, 0.04385050386190414, 0.00168293772730976, -0.06204101443290710, 0.02805793099105358, 0.07423747330904007, 0.02087092399597168, 0.01422846131026745, -0.03866133093833923, -0.02334205806255341, -0.03625880554318428, -0.02757025510072708, 0.00137554225511849, 0.00920688919723034, 0.04425052925944328, 0.00808058492839336, -0.03039624914526939, -0.01214262749999762, 0.01155714690685272, -0.00870680529624224, 0.02995311096310616, -0.05678749829530716, -0.01851064525544643, -0.01614022441208363, -0.02137678302824497, 0.16017259657382965, -0.11530698835849762, -0.03263648599386215, -0.00964312907308340, 0.01379217114299536, 0.04889075085520744, 0.04053507745265961, 0.03407296910881996, -0.04831618070602417, 0.04113078117370605, -0.09517382830381393, -0.10439373552799225, -0.09171853959560394, 0.00925262179225683, 0.11602364480495453, -0.04248218238353729, 0.04877712205052376, -0.00488982629030943, -0.01602064631879330, 0.10472320020198822, 0.04177592694759369, -0.00738404830917716, -0.06343410164117813, -0.00313925230875611, 0.09657289832830429, -0.10619058459997177, 0.13485936820507050, -0.03627169504761696, 0.04674823209643364, -0.03712098300457001, -0.01352562289685011, -0.00004036747850478, 0.00232453760690987, -0.06401481479406357, 0.10037015378475189, 0.08887652307748795, -0.00314093963243067, 0.02671078220009804, 0.08091589808464050, -0.01389828696846962, -0.00982593372464180, 0.08481621742248535, -0.02836737036705017, -0.04151490330696106, 0.02682816423475742, 0.06790639460086823, 0.11144518107175827, 0.00202404009178281, -0.12521740794181824, -0.03827223181724548, -0.03630918264389038, 0.01294967904686928, 0.01327416114509106, 0.06076311692595482, 0.04928748309612274, 0.02524885721504688, 0.03222524002194405, -0.03841584920883179, -0.02685361541807652, -0.05380222201347351, 0.02321569435298443, -0.03953211009502411, 0.06083899363875389, -0.00067930686054751, -0.10407384485006332, -0.04570926353335381, 0.02104585245251656, 0.04034755751490593, -0.06067035347223282, 0.02198965288698673, 0.14579638838768005, 0.03074019029736519, 0.02528559789061546, -0.01483286917209625, 0.08934682607650757, 0.00042076551471837, 0.06089209392666817, -0.04386295378208160, -0.06080317124724388, -0.03588492795825005, -0.00026422497467138, 0.06382732838392258, -0.01095865108072758, 0.06198278442025185, 0.00489186029881239, -0.08101397752761841, 0.00545242801308632, 0.03521108999848366, 0.01857038773596287, -0.00784247275441885, -0.01756367832422256, 0.00964646320790052, -0.01503930985927582, -0.00594072928652167, 0.03573001548647881, -0.03984878957271576, -0.00777811743319035, 0.05513289570808411, 0.02021985501050949, 0.05108041688799858, 0.05089874565601349, 0.04765341430902481, 0.00030018572579138, 0.01094745565205812, 0.00950575433671474, 0.04288592562079430, -0.04345723986625671, -0.03250409662723541, 0.09017426520586014, -0.02592874132096767, 0.06631024926900864, 0.04979988932609558, 0.09354990720748901, 0.01474205218255520, -0.00608006305992603, -0.01655484735965729, 0.07336491346359253, -0.00430313078686595, -0.02091016434133053, 0.00772643834352493, 0.08959711343050003, -0.00608650594949722, 0.07746719568967819, -0.03637447953224182, 0.00838021468371153, 0.04721486568450928, -0.06683693826198578, 0.06025760993361473, -0.02484820969402790, -0.00615130923688412, 0.02863012067973614, 0.03012460097670555, -0.05954942852258682, 0.05039392784237862, -0.03444695845246315, -0.01885998994112015, 0.01071972399950027, -0.02398576773703098, -0.05168448761105537, -0.00149751990102232, -0.05662361904978752, 0.04727827385067940, 0.00977838225662708, 0.02468794398009777, 0.07198317348957062, 0.01580840349197388, -0.05281304940581322, -0.01124986354261637, 0.01723075658082962, 0.01615326106548309, 0.00480673322454095, 0.00456556724384427, -0.02615268155932426, -0.01996823586523533, -0.02645833976566792, 0.00883421394973993, -0.10629504173994064, -0.06912201642990112, 0.03583925589919090, 0.02806962095201015, -0.03915277123451233, -0.04286109283566475, 0.00841830205172300, 0.06015007942914963, 0.03001811727881432, 0.05882835015654564, 0.01910885982215405, 0.03763851523399353, 0.05223035812377930, 0.00949036795645952, -0.01236873865127563, -0.02207619324326515, -0.08187998831272125, -0.07831823825836182, 0.05970547348260880, -0.06163149699568748, 0.04617583751678467, -0.00817378237843513, -0.04868725314736366, -0.00910659693181515, 0.05301122739911079, 0.01192363910377026, 0.04528962820768356, -0.02708520554006100, 0.03509560599923134, -0.01549141574651003, -0.03630449622869492, 0.06497246772050858, -0.02166108042001724, -0.03581631556153297, 0.00380138820037246, 0.02212735638022423, 0.00301279965788126, -0.03773676231503487, 0.01060623396188021, -0.00397045491263270, 0.00504332641139627, 0.00186496123205870, -0.00407840637490153, 0.06766049563884735, 0.03765409812331200, 0.00293093500658870, -0.04568427056074142, 0.02113498561084270, -0.04463313892483711, 0.10280568152666092, 0.03895866870880127, 0.02604985795915127, 0.01074790954589844, 0.01763242296874523, 0.02785424329340458, 0.02152937278151512, 0.06360797584056854, 0.00618866691365838, 0.05608151480555534, 0.00205935188569129, -0.05367091670632362, -0.02030202932655811, -0.11747331917285919, 0.02542498148977757, -0.00025919280597009, 0.02650597505271435, -0.01828249730169773, -0.00704925414174795, 0.02928247675299644, 0.00800565723329782, -0.04164523258805275, -0.06158423051238060, 0.01086414046585560, 0.09169019013643265, -0.07164714485406876, 0.02383926697075367, -0.03494104370474815, 0.08736105263233185, 0.00813968759030104, -0.00909293722361326, -0.00737429736182094, -0.01477843336760998, -0.05929305776953697, 0.03174963220953941, 0.01485478878021240, 0.01715027354657650, -0.00438827136531472, -0.04000257328152657, -0.00408455077558756, -0.02475451491773129, -0.00649719685316086, -0.03197222203016281, 0.01216599997133017, 0.04649044573307037, -0.06647110730409622, -0.00030599872115999, -0.00106957403477281, 0.04905441030859947, -0.01643868163228035, -0.00512727815657854, -0.00745295546948910, -0.00370052061043680, 0.04687130078673363, -0.08626490086317062, -0.05012771859765053, -0.02757639996707439, 0.10506312549114227, 0.02783142030239105, -0.00512501597404480, 0.04729014635086060, 0.04850291833281517, 0.04429695382714272, 0.04686950892210007, -0.03474106267094612, -0.02302567660808563, 0.02479970268905163, 0.06027891859412193, -0.01132153812795877, 0.01562871970236301, 0.03170159459114075, 0.03564113751053810, -0.06623887270689011, 0.04416621848940849, -0.01396903861314058, 0.01419556234031916, -0.05242302268743515, 0.08222550153732300, 0.07344415038824081, 0.04340721294283867, 0.02056889235973358, -0.04493322595953941, -0.04678041115403175, 0.02316378243267536, 0.00497255893424153, 0.03858416900038719, -0.03671965003013611, 0.09874454885721207, -0.04297991096973419, -0.02083130739629269, 0.05167877674102783, 0.06394677609205246, -0.01470551360398531, -0.03087431937456131, -0.01625948771834373, 0.00656635081395507, 0.03564499318599701, 0.01234755571931601, 0.05137050151824951, 0.01386908348649740, 0.00463229836896062, 0.00943140406161547, 0.05595821514725685, -0.00026303809136152, 0.03936026990413666, -0.03081847727298737, -0.02073135785758495, 0.00519897229969501, -0.00770433852449059, 0.05114178732037544, -0.00650341575965285, -0.03332038968801498, -0.00652839848771691, -0.02552214823663235, 0.01211371179670095, -0.04354754835367203, 0.01583929918706417, 0.03507615998387337, 0.00922941975295544, 0.03954777494072914, 0.01766861230134964, 0.00000522925074620, 0.04127536341547966, 0.03102810494601727, 0.04728122428059578, -0.03282186388969421, -0.05977248027920723, 0.01040867809206247, -0.05038205161690712, 0.05024674907326698, 0.08691826462745667, -0.03446546196937561, -0.06846204400062561, 0.05407023057341576, 0.06282744556665421, -0.00712651666253805, 0.01560435071587563, -0.07405549287796021, 0.03605218604207039, -0.04685541987419128, -0.03080166876316071, 0.00022815985721536, 0.02591079846024513, 0.00467704841867089, 0.03390502184629440, 0.08189881592988968, 0.02500336244702339, 0.00235697440803051, 0.07832673192024231, -0.02361288852989674, 0.02703946828842163, -0.03406080976128578, 0.09397892653942108, 0.04322225973010063, 0.01449206843972206, 0.01346781104803085, 0.10705397278070450, 0.05481086298823357, -0.04033606871962547, 0.02585950121283531, 0.02527271769940853, -0.03888233006000519, -0.06296793371438980, -0.02082735486328602, -0.01615678146481514, -0.03444927930831909, 0.01473053451627493, 0.06770490109920502, -0.04492020234465599, 0.00949870981276035, -0.02211138792335987, -0.00433462765067816, -0.02019289694726467, -0.12080103904008865, 0.01261878851801157, 0.06374232470989227, 0.13716290891170502, -0.01739729940891266, -0.02471176534891129, 0.03706912323832512, 0.01382222585380077, 0.00540153356269002, -0.04167532920837402, 0.05645363405346870, -0.00489088054746389, 0.00888582970947027, -0.01404447481036186, -0.00925477780401707, 0.02196096256375313, 0.02380958944559097, -0.04783836379647255, -0.01894277520477772, -0.07306527346372604, 0.06380149722099304, -0.08887368440628052, 0.04397422075271606, 0.01457604207098484, 0.03881753981113434, 0.01431957632303238, 0.01627481542527676, -0.02813459746539593, 0.05289854854345322, -0.05498379096388817, 0.00866425968706608, -0.09928028285503387, -0.00334127806127071, 0.09605745971202850, -0.04645606130361557, -0.04839386045932770, -0.00285951979458332, -0.00011360303324182, 0.05175964534282684, 0.02322583086788654, 0.04133778437972069, 0.00828468240797520, -0.02481914125382900, 0.06533361226320267, 0.03409416973590851, 0.00234134751372039, 0.02120418660342693, 0.02154580131173134, 0.10096430778503418, 0.05894495919346809, -0.03166746348142624, -0.00462074158713222, 0.00934145599603653, 0.03048235364258289, -0.05130814388394356, 0.00180173153057694, 0.00610747002065182, -0.01219997834414244, -0.03668616712093353, -0.04210117086768150, 0.01161992922425270, 0.04038092121481895, -0.03438949212431908, -0.10230658203363419, 0.03323588147759438, -0.05088112130761147, -0.02249432168900967, 0.05443304404616356, -0.00249988026916981, -0.02692319080233574, 0.02335313893854618, -0.06605719774961472, 0.00979893282055855, 0.04834543541073799, -0.01959106326103210, 0.01459904294461012, 0.00128648045938462, -0.00163995439652354, 0.02389579825103283, 0.02427729405462742, 0.00270546972751617, 0.01531549450010061, -0.07384240627288818, 0.07562226057052612, -0.05453703925013542, 0.02880499325692654, 0.00142720143776387, -0.02273302339017391, -0.02769376337528229, 0.04841880127787590, 0.00378239736892283, 0.02810217812657356, 0.00883324537426233, 0.03233080729842186, -0.02885303832590580, 0.11073388904333115, -0.01426042988896370, -0.03099722974002361, -0.01144695188850164, 0.09473866224288940, -0.00854184664785862, 0.01132738124579191, -0.06507501006126404, 0.07416973263025284, -0.01762376725673676, 0.02817055210471153, 0.01761903613805771, 0.02705542929470539, 0.00026372092543170, 0.03760880231857300, 0.05524016544222832, 0.04737197607755661, 0.03569792956113815, -0.03244087845087051, -0.03996508941054344, -0.05588321387767792, -0.06224230304360390, 0.04009862616658211, -0.00942256767302752, -0.00070652406429872, 0.02747709862887859, -0.04038102179765701, -0.06155752018094063, -0.08183281868696213, -0.08519425243139267, -0.07615988701581955, 0.08851576596498489, -0.02553570084273815, 0.03317752107977867, 0.00738998316228390, 0.04269526898860931, -0.04332305863499641, 0.00583649985492229, 0.08367887884378433, 0.13535405695438385, 0.05159844458103180, 0.01130451168864965, 0.08223220705986023, -0.04540115594863892, -0.00805732142180204, 0.02225089818239212, -0.04044600948691368, 0.03681432828307152, 0.02063441462814808, 0.03677321597933769, -0.02866707183420658, -0.06600752472877502, 0.01680212654173374, -0.01389833260327578, -0.01371426507830620, 0.02669106796383858, -0.02370324544608593, -0.04013973474502563, -0.06197716668248177, -0.05742851272225380, 0.00010706613102229, 0.04691733047366142, -0.09380684047937393, -0.05139660090208054, -0.06770388782024384, -0.08431158959865570, 0.00678277295082808, 0.03384536132216454, 0.06914760172367096, -0.00158024125266820, 0.04873351752758026, 0.05715079978108406, -0.04161450639367104, 0.01581032574176788, -0.04657745361328125, -0.06716797500848770, 0.02129165828227997, -0.09154202789068222, -0.03375640884041786, 0.05275381356477737, 0.02846810594201088, -0.06246029585599899, -0.02662371098995209, 0.00129955366719514, -0.01127386372536421, -0.08895604312419891, -0.02753586508333683, 0.03823420777916908, 0.05420613661408424, 0.01542711164802313, 0.01877135224640369, 0.00036821916000918, -0.00559393782168627, -0.03189781308174133, -0.01988515071570873, 0.00908923894166946, -0.02281582541763783, 0.00224228738807142, 0.03476491570472717, -0.01381085440516472, 0.01228930056095123, 0.04039054363965988, -0.04040729254484177, 0.05394684895873070, -0.04255505651235580, 0.06339198350906372, 0.02358061261475086, -0.06332663446664810, 0.02405923977494240, 0.02362768910825253, -0.06533258408308029, 0.09742499887943268, 0.02110010199248791, 0.02294988930225372, 0.02277885377407074, -0.05842989310622215, 0.00453397631645203, -0.10601661354303360, -0.04830557480454445, -0.10632135719060898, 0.02658222429454327, 0.01168633066117764, -0.04023473337292671, -0.03353349119424820, -0.02415459603071213, 0.01057692803442478, -0.00511849438771605, 0.00352057977579534, -0.05189529806375504, -0.03439430892467499, 0.04608426243066788, -0.00036232097772881, 0.00001770628114173, 0.02080485038459301, -0.00129439018201083, -0.02015240490436554, 0.01535446476191282, -0.00807104911655188, -0.03788943588733673, -0.01767122000455856, 0.08499674499034882, 0.01262837275862694, 0.05622673407196999, 0.01791330054402351, -0.01160873193293810, -0.00296991853974760, 0.02520574629306793, -0.04401548579335213, -0.00852580647915602, -0.15419667959213257, 0.04378582164645195, 0.00361571530811489, -0.06698855012655258, -0.03598207235336304, -0.00962402857840061, -0.04388637095689774, 0.01746123470366001, 0.07666917890310287, -0.03631106019020081, 0.02235483005642891, -0.02203048951923847, -0.03879605978727341, 0.00284458603709936, -0.06009064614772797, 0.01309271249920130, -0.00462585594505072, 0.03178119659423828, -0.01512524858117104, 0.03244925662875175, -0.01730431802570820, -0.05362149700522423, 0.04536283016204834, 0.00632702279835939, -0.00325148808769882, 0.03659453615546227, 0.00503449840471148, -0.00807766523212194, 0.02926049008965492, 0.03710592165589333, 0.01130132563412189, 0.04701993986964226, 0.01244044769555330, -0.02234857901930809, 0.05752081051468849, 0.01564326137304306, -0.05042811483144760, 0.04619093984365463, -0.01223781518638134, 0.02477007731795311, 0.01663836464285851, 0.01971589215099812, 0.07278503477573395, 0.00039918790571392, -0.03178879618644714, -0.07774019986391068, 0.03142050653696060, -0.01334958430379629, 0.04477957263588905, -0.02497759461402893, -0.01197355426847935, -0.00487427320331335, -0.12723223865032196, -0.02176733501255512, 0.06241261959075928, 0.06164165958762169, -0.03428381681442261, 0.03424537926912308, 0.04148302227258682, -0.01540573593229055, 0.03788179531693459, -0.01372767519205809, 0.08313291519880295, -0.01777343824505806, -0.01372218783944845, 0.01645725406706333, -0.04341203346848488, -0.04085946083068848, 0.01988267898559570, -0.01979467086493969, -0.07787185162305832, -0.07428104430437088, -0.00277774152345955, 0.01989972591400146, -0.04417671263217926, 0.05131427943706512, 0.02766329422593117, -0.07881539314985275, -0.00582483084872365, 0.01132797822356224, -0.05161286890506744, 0.03988388180732727, 0.05870768800377846, -0.00683535775169730, 0.06952360272407532, -0.01166566926985979, 0.02498451620340347, 0.09856367856264114, -0.00195283279754221, -0.05022697895765305, -0.04756556078791618, 0.00930145662277937, 0.06258774548768997, 0.05649150907993317, -0.03614519536495209, 0.05321114137768745, 0.11331988126039505, -0.00690633663907647, -0.01783649995923042, -0.05324356257915497, 0.02243878133594990, -0.03843440115451813, -0.01969173364341259, -0.01169650442898273, -0.03104330599308014, 0.00363941234536469, 0.02984501980245113, -0.01520560029894114, -0.01204600650817156, -0.04817584529519081, -0.03911418467760086, -0.01409491524100304, 0.03715606406331062, 0.02566515654325485, -0.03655085712671280, -0.00052254792535678, 0.04598611220717430, 0.01645613275468349, 0.03478981554508209, 0.03257755562663078, -0.01830379664897919, -0.04461087286472321, 0.01241193152964115, 0.00126043590717018, 0.00083882774924859, 0.01259654667228460, -0.01566932350397110, 0.04663460329174995, -0.06694014370441437, 0.02131360210478306, -0.05463083460927010, 0.03819086402654648, 0.03740418702363968, -0.02968013286590576, -0.04594265297055244, -0.00281042256392539, 0.07259286940097809, -0.03279089555144310, 0.06316040456295013, -0.03624889254570007, -0.02400238253176212, -0.00162721343804151, 0.04239664971828461, 0.03974407166242599, 0.01132857985794544, 0.01613422855734825, 0.05076109245419502, 0.03833461552858353, -0.05037822574377060, -0.05334648489952087, 0.04817247390747070, -0.04164993017911911, -0.01796120591461658, -0.06348581612110138, -0.01139765884727240, -0.11416329443454742, -0.02314545027911663, 0.04605295509099960, -0.04983852058649063, 0.01299695577472448, 0.10286686569452286, -0.10048496723175049, -0.01265954412519932, -0.06676411628723145, -0.03448461741209030, 0.01020114216953516, -0.03651504963636398, -0.06312151253223419, 0.02895405143499374, -0.03651136904954910, 0.00641989195719361, -0.01283002085983753, 0.05422289669513702, -0.00663892505690455, -0.00812772847712040, -0.00715045724064112, 0.00787324737757444, -0.09098293632268906, 0.03954026475548744, 0.03185622021555901, -0.01466178614646196, -0.04358433187007904, -0.06624495238065720, -0.05051617696881294, -0.05612631514668465, -0.04054707288742065, -0.08704075962305069, 0.00597983971238136, -0.01156655512750149, 0.02192660607397556, 0.04456445947289467, 0.01221938896924257, -0.03975233063101768, 0.04559332504868507, -0.01705036684870720, -0.00754476105794311, 0.00173474021721631, 0.03231849893927574, -0.00052995851729065, 0.00897889304906130, -0.01531480625271797, -0.05674955248832703, -0.01157836802303791, 0.09347511082887650, -0.01740846969187260, 0.04829181358218193, -0.00881321541965008, -0.14431324601173401, -0.01481866370886564, 0.02024208195507526, -0.08034530282020569, 0.02085731923580170, 0.01500600669533014, -0.07321669906377792, 0.07289151847362518, -0.02656930126249790, 0.07417158782482147, -0.05191952362656593, 0.01293041650205851, 0.01517958939075470, 0.00055097247241065, 0.06858387589454651, -0.05889135599136353, 0.07571219652891159, 0.02198359183967113, 0.00807183608412743, -0.05435318499803543, 0.00745409680530429, -0.05130491778254509, -0.05297201499342918, 0.01227715052664280, 0.00756816985085607, -0.00190556701272726, 0.08919762074947357, -0.04014061391353607, -0.02535871788859367, -0.05008970573544502, -0.02578959800302982, -0.04298172891139984, 0.00500915385782719, -0.01719069294631481, 0.01520173996686935, 0.03573446720838547, 0.10683903843164444, 0.03989551216363907, -0.04245773330330849, 0.02752116695046425, -0.05517674982547760, 0.01537797879427671, 0.03424321860074997, 0.02577937021851540, 0.04472374543547630, -0.11566981673240662, -0.03229538723826408, 0.02173314616084099, -0.00978889036923647, 0.05056152492761612, -0.00329570099711418, -0.02341730706393719, -0.04684717580676079, -0.04376191273331642, -0.10873811691999435, -0.06659957766532898, -0.06509151309728622, 0.01466629188507795, 0.03422700613737106, -0.02750119566917419, -0.04040525853633881, -0.01444975659251213, 0.05838647484779358, 0.01270741969347000, 0.00080959429033101, -0.00045616077841260, 0.05593051388859749, -0.00627127988263965, 0.10970868170261383, -0.02242927625775337, -0.00397155946120620, 0.01305203605443239, 0.01022897008806467, 0.03460241109132767, -0.05460323765873909, 0.00616304809227586, 0.07284712791442871, -0.05739595741033554, -0.05149931460618973, 0.01775390468537807, 0.00461810501292348, 0.06429378688335419, 0.09686017036437988, 0.01451857201755047, 0.02747975848615170, -0.09369215369224548, -0.00563325546681881, -0.03149080276489258, 0.00660657417029142, -0.03307287395000458, -0.00981473736464977, -0.01685889624059200, 0.03191530331969261, 0.06697566807270050, -0.04758418351411819, 0.03296121209859848, 0.06084540858864784, -0.04049427807331085, 0.00822211802005768, -0.07737080752849579, 0.01244122534990311, -0.04179413989186287, -0.06227707117795944, -0.12143897265195847, -0.01329253613948822, -0.01707534678280354, -0.00637481966987252, 0.06114571541547775, 0.00604759203270078, 0.00902992114424706, -0.02166004665195942, -0.04105585440993309, -0.01890066079795361, 0.05059348419308662, -0.09345961362123489, 0.04181999713182449, 0.04849074780941010, 0.02405546978116035, 0.04100278019905090, 0.00083811918739229, 0.02967421710491180, -0.00219333916902542, -0.02495308406651020, 0.01665176823735237, -0.02701842971146107, -0.01455015223473310, -0.06720958650112152, -0.06440530717372894, 0.04617879539728165, -0.08925157040357590, -0.08139369636774063, -0.03491606190800667, -0.03137328103184700, -0.02767353691160679, -0.00154547044076025, 0.02040313743054867, 0.02513619698584080, 0.00769473100081086, 0.02121759578585625, -0.01072552893310785, -0.04949579760432243, 0.00343186641111970, 0.03258741647005081, -0.06519550830125809, -0.05336663872003555, 0.08260096609592438, 0.01000450458377600, 0.01935328915715218, -0.06786053627729416, 0.02810863964259624, 0.03079247474670410, -0.04528770595788956, -0.04476962611079216, -0.01478831656277180, 0.01003852859139442, -0.01486189011484385, -0.04811809211969376, 0.01023306231945753, 0.01019132509827614, 0.03184309601783752, 0.02545130439102650, 0.05033064261078835, -0.04761144146323204, -0.08505635708570480, -0.03102565929293633, 0.07302780449390411, -0.03230584040284157, 0.05348537862300873, -0.06262940168380737, 0.05796358734369278, -0.00896004028618336, -0.01249473448842764, -0.06662051379680634, -0.07010930031538010, -0.09290836006402969, -0.04853073880076408, 0.01816579699516296, 0.08338636904954910, -0.02399329468607903, -0.00969810225069523, -0.04668831825256348, 0.02973273769021034, 0.07671491801738739, -0.02580676600337029, -0.04230486974120140, 0.08683763444423676, 0.00300687947310507, 0.04044983908534050, -0.04367646202445030, -0.09198428690433502, -0.01580924354493618, -0.06498499214649200, -0.01972670853137970, 0.01398287154734135, -0.03383312746882439, 0.01440392713993788, 0.00002607361238915, 0.00944882538169622, 0.02690180763602257, 0.09259677678346634, -0.00963009800761938, -0.05039642751216888, -0.06636744737625122, -0.02657226100564003, -0.06674337387084961, 0.08841994404792786, -0.03202170506119728, 0.01082254014909267, -0.00823608227074146, 0.01930535025894642, 0.02538998425006866, -0.01487180031836033, -0.06482503563165665, 0.00866871979087591, -0.00895910989493132, -0.01347764395177364, -0.03468816727399826, -0.10554837435483932, -0.00486990204080939, 0.04964563250541687, -0.01887482963502407, 0.04953128844499588, 0.05370001122355461, -0.03864984959363937, -0.09346791356801987, 0.00011763978545787, -0.01356771308928728, 0.00159975059796125, 0.04422489926218987, 0.03259735181927681, -0.02148289233446121, -0.05508518964052200, 0.02162713371217251, 0.00470095174387097, 0.00546528073027730, -0.03558994829654694, 0.01723630167543888, -0.07632383704185486, 0.03889025002717972, -0.04638111963868141, -0.01306583173573017, -0.10017178952693939, 0.00697121676057577, 0.02119457535445690, -0.00009080854215426, 0.00715711759403348, 0.04825338721275330, -0.02117444761097431, -0.05067610368132591, 0.00518793286755681, 0.00075407203985378, -0.06495215743780136, 0.03596826642751694, 0.01308301649987698, 0.07807966321706772, 0.04704914987087250, 0.01851201429963112, 0.07956857234239578, -0.00111155386548489, -0.02780896425247192, -0.00622830213978887, -0.02813858166337013, -0.00187272334005684, -0.00384220201522112, -0.05514160916209221, 0.00544484332203865, 0.06096199527382851, -0.01221421174705029, 0.04206577688455582, 0.02131237275898457, -0.03469233587384224, 0.08619367331266403, 0.05732909217476845, 0.01620347425341606, 0.01652257144451141, -0.01171292178332806, 0.03772083669900894, -0.02205567061901093, -0.07243008911609650, 0.01500043272972107, -0.01374479383230209, -0.02229429408907890, -0.05896670371294022, 0.00290435086935759, -0.00089384469902143, 0.01395233720541000, -0.02717557922005653, -0.09031513333320618, 0.01924591138958931, -0.00213763769716024, 0.01980473287403584, -0.04398901388049126, 0.06757302582263947, 0.06309622526168823, -0.09425627440214157, -0.05677336826920509, -0.04674608632922173, -0.00472195912152529, -0.03182413056492805, 0.06694506108760834, 0.04318823292851448, -0.08287252485752106, 0.00565954018384218, -0.06637121737003326, -0.02734851837158203, -0.01453504338860512, 0.02242178097367287, -0.05560822412371635, -0.03190924599766731, -0.00967372860759497, -0.00447931606322527, 0.03986712172627449, -0.02261811494827271, 0.02715648338198662, 0.01669710688292980, 0.05953122302889824, 0.01051608193665743, 0.03483685478568077, 0.00877877324819565, 0.01639612205326557, -0.01968974620103836, 0.00582584971562028, -0.04915376007556915, 0.01685691997408867, 0.02375874109566212, 0.00738919526338577, -0.00635928288102150, 0.03260742127895355, 0.00064226821996272, 0.03016855008900166, -0.01308189146220684, 0.00898943748325109, 0.00667154649272561, -0.00518343923613429, -0.03788810223340988, 0.03410192206501961, 0.07290893793106079, -0.02365242876112461, -0.02587618678808212, -0.04018567875027657, -0.01024019997566938, -0.02535239793360233, 0.04115698486566544, 0.18070651590824127, 0.00001124928894569, 0.01262321509420872, -0.05308159068226814, 0.00435991818085313, 0.00342180696316063, -0.02716628275811672, -0.01175986882299185, -0.00358410365879536, 0.02518027089536190, -0.08217063546180725, -0.00689804647117853, -0.03701182082295418, 0.06327284872531891, -0.03630603104829788, 0.06375866383314133, -0.02383180893957615, -0.04930967465043068, -0.04368327558040619, 0.08771168440580368, -0.08124185353517532, 0.02235421910881996, -0.03452514857053757, 0.02394495531916618, 0.00857025664299726, -0.09397502988576889, -0.03891284391283989, 0.02420191653072834, -0.01478927303105593, 0.06971587985754013, 0.12050502002239227, -0.06976220756769180, -0.00158250459935516, -0.00420350302010775, -0.01339997164905071, -0.03053460828959942, -0.01014066766947508, -0.00817676074802876, -0.03525974974036217, -0.04628716409206390, -0.06981990486383438, 0.00831697508692741, -0.10285530239343643, -0.04744098335504532, -0.09496261179447174, 0.05717948824167252, -0.03519334271550179, -0.00301232421770692, 0.06948611885309219, 0.02304051071405411, 0.02049339003860950, -0.04902188479900360, -0.00976823084056377, 0.01448872312903404, -0.07812103629112244, 0.05936167016625404, -0.01238812599331141, 0.07075887918472290, 0.00680962204933167, 0.00224143522791564, -0.03966090083122253, -0.10966800153255463, -0.01079042349010706, -0.07259622216224670, 0.01915898732841015, 0.03007517568767071, 0.06224592030048370, -0.02760287374258041, 0.11405891925096512, 0.06840893626213074, -0.05193909630179405, 0.04093238711357117, -0.01196085009723902, -0.05530378967523575, -0.05954961478710175, 0.03691398352384567, -0.00583189399912953, 0.03049240075051785, 0.04037047922611237, 0.04356538504362106, 0.09056217968463898, -0.03854071721434593, -0.06458044797182083, 0.03028066270053387, 0.08184877783060074, 0.10591673851013184, -0.00972876418381929, 0.00337165035307407, -0.07639011740684509, -0.02252184040844440, 0.02676973678171635, -0.05137820914387703, 0.01581848785281181, -0.02091615647077560, -0.00070401461562142, -0.00419806735590100, 0.00065382610773668, -0.01781573891639709, 0.08041022717952728, -0.03264454379677773, 0.03394804522395134, 0.06999151408672333, 0.00640220614150167, -0.02981504984200001, -0.01237517502158880, -0.00945342704653740, 0.02754744328558445, 0.02317428588867188, -0.01771366596221924, -0.02497361414134502, -0.15228228271007538, -0.05730815604329109, 0.02531953528523445, -0.05614282190799713, -0.07078477740287781, 0.02793112955987453, 0.04507401585578918, -0.04181654006242752, 0.07036953419446945, -0.00675220740959048, 0.05272982642054558, -0.02030717767775059, -0.01528556086122990, -0.01491512823849916, 0.00894950143992901, -0.00004496164910961, 0.04657878726720810, -0.07849016785621643, 0.00774780521169305, -0.02790793776512146, -0.00965146813541651, 0.03285063430666924, -0.07528162002563477, 0.01914788223803043, 0.10421030968427658, -0.07299490272998810, 0.03401150554418564, 0.06265959888696671, 0.07389260828495026, 0.00734372111037374, 0.01988180726766586, 0.03097454085946083, -0.01201666239649057, -0.00244541605934501, 0.00581054203212261, 0.04979076609015465, -0.00442915642634034, 0.00776938628405333, 0.03129001334309578, -0.10727326571941376, -0.05197458714246750, -0.05779648199677467, -0.04560070484876633, -0.03822222724556923, -0.02384948171675205, 0.02508996613323689, 0.02246430702507496, -0.01047144271433353, 0.00774277281016111, 0.03356002271175385, -0.04218486323952675, -0.04863512516021729, 0.04858703166246414, -0.01178364641964436, -0.00013058555487078, 0.00467381626367569, 0.01386320590972900, 0.00553225399926305, -0.04510749503970146, 0.06987346708774567, 0.00519734621047974, 0.00153696839697659, 0.10138676315546036, 0.01848557591438293, 0.02001523785293102, -0.02504393085837364, -0.01007911004126072, -0.04719510674476624, 0.01518196053802967, 0.02617141418159008, -0.08082936704158783, -0.02090065926313400, -0.00033359517692588, 0.01570881158113480, 0.07610267400741577, -0.07677192240953445, -0.03481727838516235, -0.01061601284891367, 0.06482241302728653, 0.01150476466864347, 0.06603450328111649, -0.01107593160122633, -0.07995476573705673, -0.05039760470390320, 0.00016075526946224, -0.04848936200141907, -0.05171481147408485, 0.04945139959454536, 0.02042526379227638, 0.02313649654388428, 0.05418324097990990, -0.08644338697195053, -0.06819421797990799, -0.05429244413971901, -0.00205219723284245, 0.04489304125308990, 0.07481898367404938, 0.01131945569068193, -0.07251372933387756, -0.01581934466958046, 0.00253577623516321, -0.04081816598773003, -0.00052282522665337, -0.04477326944470406, 0.04395938292145729, -0.01907227747142315, -0.04117048531770706, -0.00030396957299672, -0.00780438305810094, 0.05147220566868782, 0.02799990586936474, 0.12539418041706085, 0.03116969577968121, -0.00209578103385866, -0.01796425320208073, -0.03835543245077133, 0.04990844056010246, -0.00579743925482035, -0.01105777267366648, -0.04530583694577217, 0.00686545809730887, -0.00021586040384136, -0.02796627022325993, 0.00068727374309674, 0.03099824301898479, 0.00563970021903515, -0.03057798743247986, 0.04656079038977623, -0.03895679861307144, 0.04850161448121071, 0.03518877550959587, 0.00377680175006390, -0.01796136051416397, 0.04175170511007309, -0.01028103567659855, 0.02469421364367008, 0.07374688982963562, 0.02853585034608841, 0.09433911740779877, 0.04110707342624664, -0.05043966323137283, 0.03714610263705254, 0.04999293014407158, -0.08469419926404953, 0.00465816119685769, 0.03856546431779861, -0.02876010723412037, -0.08976705372333527, -0.05978295952081680, 0.03789341077208519, -0.05342612043023109, -0.06269086152315140, -0.00522084953263402, 0.05637130513787270, 0.03664895519614220, 0.01834496483206749, -0.01457528956234455, 0.06445381790399551, -0.04670524969696999, 0.04375531896948814, 0.03671842068433762, -0.02887353673577309, -0.03870313614606857, -0.05631317570805550, 0.00155925995204598, 0.11069599539041519, 0.04010239988565445, -0.04798292368650436, -0.05482331663370132, -0.04406919330358505, -0.08715731650590897, -0.00269710691645741, -0.00189564668107778, 0.06475156545639038, -0.04062024131417274, 0.03426526114344597, 0.02478090859949589, -0.01426223758608103, 0.06241626292467117, -0.05281565338373184, -0.00589410355314612, -0.05824762955307961, -0.06399808079004288, 0.00787495449185371, 0.06005900725722313, 0.01636920310556889, 0.06365547329187393, 0.04281299188733101, -0.01737450994551182, -0.00167943316046149, -0.03908385336399078, 0.00608779536560178, -0.05988631397485733, 0.00494243716821074, 0.07920039445161819, -0.03892680630087852, -0.01780731789767742, 0.00051708432147279, 0.00504863727837801, 0.02892544493079185, 0.05351341888308525, 0.03106432408094406, 0.02254141867160797, 0.08139948546886444, -0.04309181123971939, 0.05322954803705215, -0.04120103269815445, -0.01744606904685497, -0.07090303301811218, -0.01693291775882244, -0.01404630579054356, -0.05124615877866745, -0.02560042403638363, -0.04545659944415092, -0.08615139126777649, -0.04681231081485748, 0.02406571246683598, 0.02583448030054569, 0.02478275075554848, -0.05428468436002731, 0.07719700038433075, -0.02941826544702053, 0.05390022695064545, 0.00278546824119985, 0.05468637868762016, -0.01383778825402260, -0.00113757373765111, -0.00014640619338024, 0.09952527284622192, -0.01709456741809845, -0.05189108103513718, 0.05465617775917053, 0.01196165289729834, 0.06243631243705750, -0.02867824211716652, 0.01736684888601303, 0.01826622150838375, 0.04223597049713135, -0.10015140473842621, 0.03810393065214157, 0.07215932011604309, 0.03298215195536613, 0.02365051209926605, -0.09837997704744339, 0.01918524503707886, -0.00719572883099318, 0.01966388337314129, -0.03414878621697426, 0.00865257717669010, -0.04105515405535698, 0.03460289537906647, -0.02963438443839550, 0.03752429783344269, -0.04607436805963516, -0.02912551537156105, -0.00137603818438947, -0.00696673430502415, 0.03273171558976173, 0.05193160846829414, 0.04210715368390083, 0.03719827160239220, -0.01563535630702972, 0.03418496996164322, 0.06267474591732025, -0.06117548048496246, 0.03062838315963745, 0.00257964548654854, -0.02205140143632889, 0.01300722081214190, 0.07169261574745178, 0.07530655711889267, 0.03926508128643036, -0.01907347701489925, 0.02905024588108063, 0.02236266434192657, 0.00404413882642984, -0.01683000475168228, -0.05840052291750908, -0.02510619349777699, -0.06508363038301468, -0.05520916357636452, 0.06036924198269844, 0.04329608753323555, 0.09602725505828857, 0.01550120394676924, 0.00657849479466677, -0.01116133946925402, -0.03854737058281898, 0.08765938878059387, -0.06558177620172501, -0.06146794930100441, -0.03519741818308830, 0.02293856255710125, -0.01999497972428799, 0.05662828683853149, 0.03035533428192139, -0.01395001262426376, -0.01277140714228153, -0.05078373104333878, 0.05312839150428772, -0.02103010937571526, 0.01252307556569576, 0.05089526250958443, -0.03144920617341995, 0.05542514100670815, 0.04873202368617058, 0.04068511724472046, 0.05585034191608429, -0.06641931831836700, -0.11912034451961517, -0.01461417134851217, 0.02649274095892906, 0.01270782668143511, 0.00993337016552687, 0.05581739172339439, 0.04080217704176903, -0.05944770574569702, -0.02845273353159428, -0.01429620478302240, -0.01447628438472748, 0.02663013339042664, -0.01071035582572222, -0.01500676199793816, 0.03326654434204102, -0.04942202568054199, 0.01803065091371536, 0.08921503275632858, -0.07925704866647720, -0.00948608294129372, 0.00195776089094579, -0.04448084160685539, -0.02132574096322060, 0.00900563038885593, 0.06285710632801056, 0.01474032737314701, -0.02245380729436874, 0.06648548692464828, 0.00910744629800320, -0.00003462833046797, 0.05120098590850830, -0.00644570728763938, 0.00846755038946867, -0.08054661750793457, 0.03410032019019127, 0.00766912708058953, 0.05095674842596054, 0.05152590572834015, -0.00870387814939022, -0.04742785543203354, 0.04502671584486961, -0.05575243756175041, 0.03342182934284210, -0.05799926444888115, -0.04585445672273636, 0.03338779509067535, 0.02046810276806355, 0.00367635977454484, -0.02765862271189690, 0.04347027093172073, -0.00829050689935684, 0.03113100491464138, 0.08712631464004517, -0.01068214140832424, 0.12954241037368774, 0.06521894037723541, 0.03089985996484756, 0.08274883776903152, -0.01344556268304586, 0.04808877781033516, -0.03315531462430954, 0.03535171225667000, 0.01800677552819252, -0.02814132347702980, -0.00706901680678129, 0.09541884064674377, -0.05817835032939911, -0.06873217225074768, 0.02476231195032597, -0.01611142419278622, -0.07097614556550980, 0.01696538180112839, -0.09044275432825089, -0.12037974596023560, 0.00498760631307960, -0.07259347289800644, 0.00491965562105179, 0.10173954814672470, 0.04296642169356346, -0.02081372030079365, -0.01877756603062153, 0.04628027603030205, -0.03595017269253731, 0.02910532429814339, 0.00503767142072320, 0.00455740885809064, 0.05784332007169724, 0.02125998213887215, -0.02001143619418144, -0.03056028485298157, 0.11881596595048904, -0.03971282020211220, 0.04465356469154358, -0.01322046853601933, -0.03689291328191757, 0.02627328597009182, 0.03848183900117874, -0.00513546122238040, 0.06280548125505447, 0.09670437127351761, -0.03631848469376564, 0.04086919501423836, 0.02551741153001785, -0.07134764641523361, -0.10120412707328796, -0.01519215013831854, -0.02884737029671669, -0.02396174333989620, -0.01866508089005947, 0.03872894868254662, 0.05132057890295982, 0.03845346719026566, 0.01875243894755840, -0.05040111765265465, -0.00704728672280908, 0.05647293850779533, -0.05493348091840744, 0.04263916239142418, -0.02930880524218082, 0.01542873587459326, -0.03721169009804726, -0.02083630673587322, 0.01627292297780514, 0.00145521701779217, 0.08083107322454453, 0.02738390862941742, -0.00285030528903008, 0.00190116500016302, -0.03313699364662170, -0.00515858922153711, -0.07786949723958969, 0.06252520531415939, -0.04190364852547646, 0.00478070881217718, 0.02206254564225674, -0.00825984776020050, -0.01488618273288012, -0.08422052860260010, 0.02376168221235275, -0.01431328244507313, -0.00851049367338419, -0.01100636925548315, -0.00123318564146757, 0.00168317265342921, 0.00524578569456935, 0.04079618304967880, 0.03841764852404594, 0.06014028191566467, 0.05736011639237404, -0.06323666870594025, -0.08009469509124756, -0.00934999808669090, 0.01038449257612228, -0.04236473143100739, 0.05830919370055199, 0.03025819733738899, 0.05967914685606956, 0.01003239117562771, -0.01110646873712540, -0.00468537211418152, 0.00065318256383762, 0.00023570157645736, 0.03496231883764267, 0.01555472519248724, 0.00902401376515627, -0.00530541874468327, 0.06660176068544388, -0.01946106553077698, -0.07820467650890350, -0.06584666669368744, -0.06403029710054398, 0.06094748154282570, 0.06381630897521973, 0.00296178041025996, -0.00969721376895905, -0.04883959516882896, -0.03163388743996620, -0.03909811750054359, -0.00490062264725566, -0.02075116895139217, 0.07028621435165405, -0.08586134016513824, 0.01945814304053783, -0.08525636792182922, -0.02700795046985149, 0.01128421630710363, 0.04791920259594917, 0.04235806316137314, 0.01149511709809303, 0.03892174735665321, -0.12503048777580261, -0.05077081546187401, 0.06962104886770248, 0.06088835746049881, -0.06111106649041176, 0.07986564189195633, 0.02171038277447224, 0.06915768980979919, 0.07479853183031082, 0.01942952908575535, 0.06553564220666885, 0.04937810450792313, -0.04137847945094109, 0.01339965779334307, -0.07349415868520737, -0.03715350478887558, -0.09386160969734192, -0.07380072772502899, -0.07519923150539398, 0.01969205960631371, 0.02303808368742466, 0.02717243321239948, -0.00775171630084515, 0.00866726972162724, -0.01704100891947746, 0.01989295333623886, 0.01176316104829311, 0.01947280578315258, -0.05847516655921936, 0.04910983145236969, 0.02742203511297703, -0.06275084614753723, -0.05714831501245499, 0.04664715379476547, -0.03589083626866341, 0.03907277807593346, 0.02491685748100281, 0.02186264283955097, 0.00610183365643024, 0.00485323416069150, 0.02292653545737267, 0.03054758347570896, 0.04205029457807541, -0.04657539352774620, 0.11594189703464508, -0.02181933261454105, 0.07946015894412994, 0.03303294256329536, 0.00135702290572226, 0.05986930057406425, -0.02181277610361576, -0.04562345892190933, -0.03844721615314484, -0.01081271003931761, 0.00407664291560650, 0.00357046979479492, 0.00802497379481792, -0.00117803190369159, 0.02276909165084362, -0.00034339993726462, 0.03548124805092812, -0.04612695798277855, -0.01842371001839638, -0.05032494291663170, 0.04648726433515549, 0.02410362660884857, 0.00504973996430635, 0.10244467854499817, -0.02676611021161079, 0.07332155853509903, 0.04468731582164764, 0.05181996896862984, 0.05604968219995499, 0.03499010205268860, 0.03409679979085922, 0.01779201440513134, -0.02939237281680107, 0.06138080358505249, 0.02608669176697731, -0.00458081858232617, 0.04744246229529381, -0.05016774684190750, -0.01031521521508694, -0.06677915900945663, -0.04536079615354538, -0.05487520247697830, -0.10778988152742386, -0.05139114335179329, -0.01755796186625957, -0.07292144745588303, -0.02039300650358200, -0.04691987112164497, -0.09374061226844788, -0.06061819568276405, 0.03763203695416451, -0.02845322713255882, -0.01674914173781872, 0.00212897080928087, 0.00232662213966250, 0.05392682179808617, -0.07745663076639175, -0.00740692717954516, -0.04159977287054062, 0.03261877223849297, -0.03783470764756203, -0.03059445507824421, -0.06738332659006119, 0.03750677034258842, -0.02776287123560905, -0.00863523501902819, 0.05593078583478928, 0.02131747640669346, -0.02654998190701008, 0.01416638027876616, -0.10073202848434448, -0.03081808798015118, 0.00459709530696273, 0.05718251317739487, -0.01076808106154203, 0.02036354690790176, 0.00070224894443527, -0.03145471215248108, 0.01302173919975758, 0.02181512117385864, -0.04405226558446884, 0.00591534189879894, 0.08761476725339890, 0.00084858562331647, -0.03172338381409645, -0.04585196077823639, -0.00637910654768348, -0.03903481364250183, -0.09601059556007385, 0.05275111272931099, 0.04108118265867233, 0.01784812286496162, 0.00857873726636171, 0.08071662485599518, 0.01054164301604033, -0.03449758514761925, -0.00846579950302839, 0.02112117595970631, -0.05298241600394249, 0.04766838252544403, 0.04815964028239250, -0.03325645253062248, -0.00626219622790813, 0.01139507442712784, -0.01553393807262182, 0.01966208592057228, -0.08410132676362991, 0.01590845920145512, 0.02760512754321098, -0.03350546211004257, 0.00720352958887815, -0.00053896300960332, -0.03362770006060600, 0.05935690924525261, 0.06043846160173416, 0.05015151202678680, -0.03094203956425190, -0.04032224789261818, 0.06239968910813332, -0.02230769768357277, -0.00267840363085270, 0.02510014735162258, -0.06920778751373291, 0.00385129894129932, 0.01142015308141708, 0.02320512756705284, 0.06834791600704193, 0.02074288576841354, -0.05593822151422501, -0.02367688529193401, -0.02880975604057312, 0.07144163548946381, -0.03739981353282928, -0.09844239801168442, -0.04893358051776886, 0.02972093597054482, -0.02565144933760166, -0.04955660924315453, 0.02924646995961666, -0.08174981176853180, -0.00257175811566412, -0.00371173140592873, -0.00765079539269209, 0.04885191097855568, 0.02655511163175106, 0.07167898118495941, 0.07835867255926132, 0.02172378450632095, -0.01940033212304115, 0.01751506887376308, 0.00756479892879725, -0.03934750705957413, -0.00873389653861523, 0.01345882471650839, 0.02551054023206234, 0.02569761499762535, 0.02475161477923393, 0.01994735933840275, 0.04978200048208237, -0.10880937427282333, 0.07545362412929535, 0.01532954629510641, 0.03638343140482903, -0.12002031505107880, -0.03525557368993759, -0.05776314809918404, 0.00249476335011423, 0.02220397256314754, -0.04818242043256760, -0.10547831654548645, -0.02977238222956657, -0.01520759984850883, 0.02823808789253235, 0.03587700799107552, -0.03154117241501808, 0.01136680971831083, 0.02504395879805088, -0.00317091518081725, 0.02256231941282749, 0.00525568006560206, 0.05528285354375839, -0.01227671001106501, -0.01686609350144863, -0.12794749438762665, 0.01364888995885849, -0.04604819416999817, -0.05435593798756599, -0.01442799810320139, 0.02251104265451431, 0.01524775940924883, 0.00863279309123755, 0.00655520102009177, 0.00200752075761557, -0.01201413851231337, 0.00552166905254126, 0.03703542426228523, 0.01096057612448931, -0.01946416124701500, -0.02662069164216518, -0.03599687293171883, -0.06148250028491020, 0.08775594085454941, -0.00602901540696621, -0.02876725606620312, -0.07727680355310440, 0.13660149276256561, -0.08703717589378357, 0.04214463010430336, -0.06598497182130814, -0.08759681880474091, 0.01650930941104889, 0.00391190545633435, 0.03807221725583076, -0.04302672296762466, -0.02652449533343315, -0.04513600096106529, -0.05487190559506416, -0.01167375128716230, -0.02569168433547020, 0.03893503174185753, 0.02193217538297176, -0.02453138865530491, 0.03071816265583038, -0.00074244284769520, 0.02870603464543819, 0.01555191632360220, 0.00728561915457249, -0.00354380859062076, -0.04667007178068161, -0.03073574975132942, -0.03975812345743179, -0.01770652644336224, 0.01889152266085148, -0.00898683443665504, 0.06048531830310822, -0.00528927519917488, 0.04345427080988884, 0.05893644317984581, 0.03751389682292938, -0.00460906280204654, 0.01221963670104742, 0.01883918792009354, -0.02539611980319023, 0.02730036154389381, 0.01451644301414490, 0.03204805403947830, -0.05260279402136803, 0.03046891279518604, -0.05546260997653008, 0.02400612831115723, -0.03061578422784805, -0.02409202419221401, -0.03785158693790436, -0.00772876897826791, 0.02314610779285431, -0.04388891160488129, -0.05399103462696075, 0.02854362688958645, 0.02804300747811794, -0.02084651030600071, -0.00984785426408052, 0.00421797018498182, 0.00938870292156935, -0.00047368480591103, -0.05569174513220787, -0.10707851499319077, 0.01935745961964130, -0.06075359880924225, 0.02566405385732651, -0.03995170444250107, 0.07114628702402115, 0.01085577346384525, -0.09994693100452423, 0.03622730448842049, 0.00518520129844546, -0.01404547970741987, -0.02367504499852657, -0.05233282595872879, 0.09085075557231903, 0.01872810535132885, 0.00455044256523252, -0.02526806667447090, 0.01706425100564957, -0.04884413257241249, 0.03263576701283455, -0.11959560215473175, 0.05764004588127136, 0.04271495342254639, -0.03118596412241459, -0.01436393335461617, 0.05372242629528046, -0.07377979159355164, -0.02095217630267143, -0.03188497945666313, 0.05411991104483604, -0.01848675310611725, 0.05888490378856659, -0.01269229780882597, -0.02446725592017174, 0.04605292901396751, 0.01029007881879807, -0.13381941616535187, 0.01833999343216419, -0.04160768538713455, -0.00790896732360125, 0.00110937037970871, -0.03175519779324532, 0.03323823213577271, 0.06473156064748764, -0.03544696792960167, -0.00303501356393099, 0.01471861172467470, -0.16325862705707550, 0.00634757382795215, 0.06723572313785553, 0.07466346770524979, 0.01493216957896948, -0.03020627237856388, -0.01275712158530951, -0.00967360939830542, 0.02165326103568077, 0.01550786010921001, 0.01389160286635160, -0.00739263044670224, -0.04472105205059052, -0.01667022891342640, -0.02670784294605255, 0.01797436550259590, -0.03482682630419731, -0.08098167926073074, 0.00039117751293816, 0.05244068428874016, -0.06506845355033875, 0.01026722043752670, 0.01637647114694118, 0.02225486002862453, -0.01890806481242180, -0.01344078406691551, -0.02811073139309883, 0.04943073168396950, -0.06865362077951431, -0.05653879418969154, -0.04323622211813927, -0.00998998712748289, 0.00159985735081136, -0.00909816101193428, 0.00834911782294512, 0.02111501432955265, 0.04261875525116920, 0.04343418404459953, -0.03719616681337357, -0.08643702417612076, -0.00015213656297419, 0.05088482052087784, 0.05538795515894890, -0.02056069672107697, 0.00348892225883901, 0.03006286546587944, -0.03082875348627567, 0.04100224375724792, -0.00539621664211154, -0.00825853273272514, -0.12860098481178284, 0.04542518779635429, -0.02629432082176208, 0.01435698848217726, -0.07456102967262268, -0.08903750032186508, -0.01533648930490017, -0.04532222822308540, -0.00116004724986851, -0.00496836565434933, 0.03608598187565804, -0.03340851515531540, -0.01044273655861616, 0.01041869819164276, 0.02809760347008705, -0.03833210095763206, -0.13437072932720184, 0.02410659939050674, -0.02510933764278889, 0.00888850539922714, 0.00087448646081612, -0.01706482842564583, 0.01040452439337969, -0.03322950750589371, 0.03477313369512558, -0.01024610269814730, 0.00970419682562351, 0.01716792024672031, 0.04839169606566429, 0.08232133835554123, 0.00972703378647566, 0.03007611818611622, 0.04657347872853279, 0.01944766566157341, 0.01271944493055344, -0.03603345528244972, -0.05729347094893456, 0.02928158454596996, -0.03047424741089344, 0.03179524093866348, -0.04030064865946770, 0.00813522562384605, 0.01383028738200665, 0.02855202369391918, 0.04359197616577148, 0.05900747701525688, -0.03402319923043251, -0.03132354840636253, 0.06482245028018951, 0.01703131385147572, -0.01558143924921751, 0.04442463815212250, 0.00510768266394734, -0.03188997134566307, -0.02951969020068645, -0.00391220487654209, -0.01184259168803692, -0.06216783076524734, -0.02236483246088028, -0.01050158683210611, 0.01090956665575504, 0.00074393581598997, 0.00152293825522065, 0.02282547205686569, -0.02471764758229256, -0.06089777499437332, -0.06313486397266388, 0.02538800053298473, -0.00764357345178723, 0.05641075596213341, -0.00910523533821106, 0.02403639629483223, 0.04173736646771431, -0.00338928075507283, -0.01600537076592445, -0.08490170538425446, 0.08581142872571945, -0.04182796180248260, 0.05194636806845665, -0.04667971655726433, 0.05622463673353195, 0.04303400218486786, 0.03188518062233925, -0.09135524928569794, 0.01985311694443226, -0.04113472253084183, -0.02520248666405678, 0.00647582579404116, 0.02205728180706501, -0.04946779832243919, -0.04164279624819756, -0.00082908308831975, 0.02273968420922756, -0.02002746239304543, -0.02569139748811722, -0.03446506336331367, 0.06248510256409645, -0.03638958930969238, -0.01053861901164055, 0.14952911436557770, -0.01248161029070616, 0.06596943736076355, -0.03248355537652969, -0.04728472977876663, 0.06102667003870010, 0.00224018492735922, 0.03611387312412262, 0.02931218594312668, -0.05061635375022888, -0.01983668841421604, 0.09846286475658417, 0.00519781559705734, -0.04656312987208366, 0.08394216746091843, 0.02898135408759117, 0.04287482053041458, -0.06793764233589172, 0.00620254175737500, 0.05991420522332191, -0.05151030048727989, 0.01583178341388702, -0.07170604169368744, 0.02238881401717663, -0.02556538023054600, 0.01330597326159477, 0.06028821691870689, 0.03733597323298454, -0.03637894615530968, -0.02900865301489830, -0.03377526253461838, 0.05951869115233421, 0.00276642106473446, -0.02376110479235649, 0.05161262676119804, -0.02371301129460335, 0.01871403679251671, 0.04881123825907707, 0.04002445563673973, 0.09118678420782089, -0.02980311587452888, 0.01479631289839745, -0.05495694279670715, -0.08620004355907440, -0.03729319572448730, 0.04135696962475777, -0.03324713930487633, -0.02626655064523220, 0.07316847890615463, 0.00182263797614723, 0.03316013887524605, 0.10470582544803619, 0.01092338003218174, 0.01935989223420620, 0.08735242486000061, -0.02160952426493168, -0.01309146732091904, -0.02443320304155350, -0.03137440234422684, 0.05430004745721817, -0.03807105496525764, 0.00497007835656404, 0.02753820829093456, -0.04313792660832405, 0.03081171400845051, 0.03904512152075768, -0.05298623442649841, 0.05664549395442009, 0.07272121310234070, -0.02230040915310383, -0.01171491760760546, 0.02922402136027813, 0.01809481903910637, -0.00927967112511396, -0.01698697730898857, 0.01031873840838671, 0.01956325210630894, 0.04134368896484375, -0.00987946894019842, -0.08561263233423233, 0.03575228154659271, -0.04152749478816986, -0.03447350487112999, -0.03142234683036804, -0.07141171395778656, 0.07724811881780624, -0.00073699379572645, 0.07869393378496170, 0.00458301790058613, -0.00215043663047254, 0.03096437267959118, -0.01395633164793253, 0.07376661151647568, -0.00581818958744407, -0.00090377795277163, -0.06379217654466629, 0.00236252951435745, 0.04630513489246368, -0.05980094149708748, 0.02082228474318981, -0.03947329148650169, -0.02190291322767735, 0.04248360916972160, 0.14599737524986267, 0.09142074733972549, 0.03057038970291615, -0.02838727086782455, 0.00238888640888035, -0.01722227782011032, -0.02810531668365002, -0.03716653957962990, 0.05440701916813850, 0.03631047531962395, -0.02672484144568443, 0.04354434460401535, -0.00467373337596655, 0.05291008576750755, -0.00360881700180471, 0.08327671140432358, 0.01282612048089504, 0.03390644863247871, 0.11232429742813110, -0.03995856642723083, -0.04422147944569588, 0.02710102312266827, 0.05413326248526573, 0.06637738645076752, 0.05938548222184181, 0.03858550265431404, 0.04638170823454857, -0.03990257158875465, -0.04540024325251579, -0.11227642744779587, 0.06943225115537643, 0.05461658164858818, 0.02809141762554646, 0.05410835891962051, -0.04393875226378441, 0.01918081939220428, -0.00599280837923288, 0.05834620445966721, 0.02452765963971615, -0.03867261856794357, 0.08800763636827469, -0.04975103959441185, -0.01133344415575266, 0.05301662907004356, 0.00441362475976348, -0.04061569646000862, -0.00433792266994715, 0.00879440270364285, 0.03048960492014885, -0.01566468738019466, -0.00942150596529245, -0.00438082870095968, 0.05921539291739464, -0.01247289124876261, -0.02216558530926704, 0.02033329941332340, -0.00326696666888893, 0.00895938184112310, 0.04634600132703781, -0.03494749590754509, -0.00157887244131416, 0.00925817247480154, -0.02400301210582256, 0.03188267722725868, 0.01328060496598482, -0.01915313489735126, 0.01483059767633677, 0.00838938541710377, 0.09377019852399826, -0.01442269142717123, 0.02296012826263905, -0.08974431455135345, -0.07768575102090836, -0.10697982460260391, -0.02577684633433819, -0.01376627385616302, 0.06335541605949402, 0.03893832862377167, -0.00392636843025684, 0.08400338888168335, 0.07572849839925766, 0.06477949768304825, -0.03722555190324783, -0.00063876685453579, 0.04392482340335846, 0.08863322436809540, -0.03771170601248741, -0.03156203404068947, -0.05138853192329407, -0.03682539239525795, 0.02605463750660419, 0.09615205973386765, 0.01946073025465012, -0.00075048086000606, 0.01659580133855343, 0.01988899707794189, -0.00085940468125045, -0.04823728278279305, 0.00508257513865829, 0.04955185949802399, 0.05152643844485283, -0.04563906416296959, 0.00876479968428612, 0.00258237426169217, -0.06544933468103409, 0.00160668895114213, 0.05265386775135994, 0.05329984426498413, 0.02377264015376568, -0.03055019490420818, 0.02299978025257587, 0.06107925251126289, 0.00506980530917645, -0.03149075806140900, -0.02976943366229534, 0.01132240705192089, 0.04081360623240471, 0.04461182281374931, 0.09121601283550262, 