0.0884082764387131, -0.1922456175088882, 0.3537399768829346, -0.4886393547058105, -0.0893886834383011, 1.0131200551986694, 0.1943439841270447, -0.4957406818866730, -0.2635889053344727, 1.4321871995925903, -0.1663832068443298, 0.6100121736526489, 0.2505590319633484, -0.3447593152523041, 0.1249959692358971, 0.6405169963836670, 0.7593297362327576, 0.0999201834201813, 0.0839858800172806, 0.2119351476430893, 0.0005379134672694, -1.2350699901580811, -0.6718720793724060, 0.0651964768767357, -0.7832302451133728, 0.2701833844184875, -0.0298406854271889, -0.3513026535511017, 0.2635836899280548, 0.9809566140174866, 0.3347840905189514, -0.3128235638141632, -1.2151211500167847, 0.0468073338270187, 0.7546064853668213, 0.7178643345832825, 0.2240324318408966, -0.2140649259090424, -0.5603888034820557, -0.1933343857526779, 0.3206993043422699, -0.5239830613136292, 0.8888096809387207, -0.6566215157508850, 0.4933329820632935, -0.1698696911334991, 0.4855466783046722, -0.5827600359916687, 0.0197735819965601, 0.0811336934566498, 0.4738760590553284, 0.0074137239716947, 0.0472856350243092, -0.2558302879333496, -0.2939288318157196, 0.8827935457229614, 0.0188304502516985, 0.3268005549907684, -0.8000653386116028, -0.7444164752960205, 0.4363091886043549, 0.2087985873222351, 0.4061538279056549, 0.9003475308418274, -0.3190504908561707, -1.3258734941482544, -0.7183373570442200, 0.1563905179500580, -0.0553068965673447, 0.7585837244987488, -0.6961166858673096, 0.1281624734401703, 1.0871983766555786, -0.1085916459560394, 0.2196092754602432, -0.2057725191116333, -0.4026277959346771, 1.1061282157897949, -0.0109099037945271, 0.4157716631889343, 0.1386957764625549, 0.2554457783699036, 0.2200378477573395, 0.3351408243179321, 0.6265079379081726, 0.3306695222854614, 0.7614184617996216, 0.1630408316850662, -0.4642150402069092, 0.9392765760421753, 0.4261261224746704, -0.1908970773220062, -1.1631526947021484, -0.2929243147373199, -0.0592593215405941, -0.2857309579849243, 0.6513832211494446, -0.3453409969806671, 0.3274542987346649, 0.2875449359416962, 0.2846703529357910, 0.5460269451141357, -0.6971964240074158, -0.3011148571968079, -0.2687429487705231, -0.3738659322261810, -0.0932596996426582, 0.6502959728240967, 0.5650190711021423, -0.6640380620956421, 0.1142037287354469, -0.8240851759910583, 0.4491726458072662, -0.8303655982017517, 0.4438292682170868, -0.0170973613858223, 0.0169927906244993, 0.0472823753952980, -0.5263117551803589, -1.2065680027008057, -0.0201587881892920, -0.2344826459884644, -0.0136201120913029, 0.0530092976987362, -0.0396277047693729, 0.8433818221092224, 0.3528836071491241, -0.6200800538063049, -0.2547554969787598, 0.5168167948722839, 0.0355144590139389, -0.6333792805671692, -0.1258174926042557, 0.2524485290050507, 0.1269553750753403, 0.4707931578159332, -0.0997311323881149, 0.1394848525524139, 0.0795093253254890, -0.7684570550918579, -0.9136391282081604, 0.3983099758625031, 1.1960871219635010, 0.0394601486623287, 0.4045412838459015, -0.5005913376808167, 0.4519047737121582, -0.9917685389518738, 0.7019215822219849, -0.3574873507022858, -0.1775845438241959, 1.1392159461975098, 0.0602897331118584, -0.0699503794312477, -0.3642898797988892, 0.0480536632239819, -0.4260071814060211, -0.2649351060390472, 0.1907110065221786, 0.6279225349426270, -0.7303121089935303, 0.2129523754119873, 0.8441640138626099, 0.8071163296699524, 0.2538337707519531, -0.5754898786544800, 0.1451667547225952, 0.0157062895596027, -1.0062537193298340, -0.6122354865074158, 0.4979933798313141, 0.2402508556842804, -0.5597298145294189, 1.1435301303863525, -0.1528500914573669, 0.0658377036452293, 0.2492044717073441, 0.5223482847213745, 0.3380903899669647, 0.3511848449707031, -0.1636420041322708, 0.2306644767522812, 0.1259681284427643, 0.0435632392764091, 0.0289741847664118, 0.0528714731335640, 0.1509387940168381, -0.5785635709762573, 0.0158484037965536, -0.0234744381159544, -0.0632241144776344, -0.9286940097808838