//Numpy array shape (147456,)
//Min -0.391015052795
//Max 0.546254038811
//Number of zeros 0

#ifndef OUT_PROJ_WEIGHT63_H_
#define OUT_PROJ_WEIGHT63_H_

#ifndef __SYNTHESIS__
layers_7_ffn_out_proj_weight_t out_proj_weight63[147456];
#else
layers_7_ffn_out_proj_weight_t out_proj_weight63[147456] = {0.07013491541147232, 0.05906686186790466, -0.00277028954587877, 0.03752524405717850, 0.09186129271984100, 0.01538440585136414, -0.05761035531759262, 0.01491281297057867, 0.05825645104050636, 0.07823137193918228, 0.08694637566804886, -0.16695831716060638, 0.00643633911386132, 0.00517069874331355, 0.02014970220625401, 0.06800470501184464, 0.06992163509130478, 0.03110555000603199, -0.10557909309864044, 0.02453251183032990, -0.06924530118703842, -0.03302351385354996, 0.08022817969322205, -0.17852552235126495, -0.06287566572427750, 0.02791877463459969, 0.00537611590698361, -0.02410989999771118, -0.06129828467965126, -0.01068836543709040, -0.04777011275291443, 0.01008547935634851, 0.07052394747734070, -0.03471936285495758, 0.13994075357913971, -0.04176011309027672, 0.17063423991203308, -0.00153794756624848, 0.00170293264091015, 0.05847682058811188, -0.13870266079902649, -0.01564140245318413, 0.09741000086069107, -0.14790618419647217, -0.09380669146776199, 0.08917221426963806, -0.01447333209216595, -0.07848373055458069, -0.06904233247041702, 0.00249163131229579, 0.06622506678104401, 0.00865441653877497, 0.06057063117623329, -0.06478744000196457, 0.00948756095021963, 0.06158028915524483, 0.00598621647804976, 0.07778979092836380, -0.03505385667085648, 0.03747828677296638, 0.08386010676622391, -0.05429472401738167, 0.01742820627987385, 0.03432074561715126, 0.03627136722207069, -0.05497692897915840, 0.12889871001243591, 0.01173608098179102, 0.01912718452513218, -0.05041330680251122, 0.04564704000949860, -0.05406763404607773, 0.06421864777803421, 0.02935635484755039, -0.03205223008990288, 0.05605072528123856, 0.03441342338919640, 0.02955631352961063, -0.15438336133956909, -0.09725382924079895, -0.02207617461681366, -0.06043401733040810, -0.03621537610888481, 0.20340390503406525, -0.11807032674551010, 0.01473606470972300, -0.03933922573924065, -0.12717452645301819, -0.07712981849908829, 0.06395065039396286, -0.02307249605655670, 0.03588308021426201, 0.09228886663913727, -0.01525331009179354, -0.10910696536302567, -0.11921194195747375, -0.03907336294651031, -0.02503181435167789, -0.03047357499599457, -0.13922187685966492, 0.06180771812796593, -0.00759691605344415, -0.04206166043877602, 0.01249803975224495, -0.01853138580918312, -0.06683656573295593, 0.13114362955093384, -0.25859126448631287, -0.02758974954485893, 0.00375877786427736, -0.09862836450338364, 0.00218684622086585, 0.04121646285057068, 0.00287595228292048, 0.05290854349732399, -0.02058878354728222, 0.02010713145136833, 0.00771025428548455, -0.00441723503172398, -0.10124576091766357, 0.01962509378790855, -0.00237870239652693, 0.01499025803059340, 0.05326243862509727, -0.04185026139020920, -0.02403697557747364, -0.05404616519808769, 0.00221702666021883, 0.23340651392936707, 0.06738186627626419, -0.03607179224491119, 0.11287426203489304, 0.04476871341466904, -0.06612019985914230, -0.02860489860177040, 0.01022051367908716, 0.00582332070916891, -0.02686377242207527, 0.02525459602475166, 0.10164460539817810, 0.01369331497699022, 0.21529519557952881, 0.01566849090158939, 0.05158634111285210, -0.04682643711566925, -0.00414246600121260, -0.03656648099422455, -0.01695211604237556, 0.10825229436159134, 0.08350821584463120, 0.10810957849025726, 0.06022119522094727, 0.12653383612632751, 0.08820829540491104, -0.12575773894786835, 0.00488463276997209, 0.11049026995897293, 0.03171700239181519, -0.10430350154638290, 0.01215979177504778, -0.06336637586355209, -0.03654126450419426, 0.03424756973981857, 0.13441154360771179, -0.11217161267995834, -0.06477340310811996, 0.07775839418172836, -0.07091946154832840, -0.05299098417162895, -0.05787554010748863, 0.01121116895228624, 0.01899149455130100, -0.07434678077697754, 0.05003679916262627, 0.02563920244574547, 0.00110878841951489, -0.04609449207782745, 0.09597221761941910, -0.00517883896827698, -0.02874349243938923, 0.05800025165081024, 0.05041610077023506, -0.05597017705440521, 0.01764453947544098, 0.01893441565334797, -0.06111880764365196, 0.03853978589177132, 0.02992110140621662, 0.06778303533792496, 0.07334238290786743, -0.12777003645896912, -0.20621030032634735, -0.02411358244717121, 0.01213648915290833, -0.04200882837176323, 0.04443913698196411, -0.04796646907925606, -0.06200412660837173, 0.01391429547220469, -0.05180731415748596, -0.00009177745232591, 0.01356883812695742, -0.05868207290768623, -0.06928151845932007, 0.03817642107605934, 0.00592955667525530, 0.15350700914859772, -0.04336302354931831, 0.09421364217996597, 0.00268176873214543, 0.04245348647236824, 0.11669820547103882, -0.01917796954512596, -0.10666399449110031, -0.04504067450761795, 0.03674282506108284, 0.02591035328805447, -0.05590813979506493, 0.07315827906131744, -0.14920933544635773, 0.08853834122419357, -0.02390007115900517, -0.09202670305967331, -0.09640423208475113, -0.01759290508925915, 0.07895468920469284, -0.10267804563045502, 0.02136270515620708, -0.06473943591117859, 0.03775386139750481, 0.09666618704795837, 0.02196925133466721, 0.14139145612716675, -0.02109480276703835, -0.00183742877561599, 0.01413885876536369, 0.05634457990527153, -0.05890565365552902, 0.02546854130923748, -0.09739702194929123, 0.13204027712345123, -0.02636463381350040, -0.01076936256140471, -0.07355500757694244, -0.09801089763641357, 0.03232840076088905, 0.01257627643644810, 0.05521496385335922, 0.09733369946479797, 0.05680182948708534, 0.12135024368762970, -0.00805054418742657, -0.05999757349491119, 0.00966529455035925, -0.00033339724177495, -0.04754607006907463, -0.03087695501744747, -0.03104745782911777, 0.01521182619035244, -0.06126069277524948, -0.10199916362762451, -0.11620391905307770, 0.03351637721061707, 0.03653011843562126, 0.12359547615051270, 0.10504785180091858, 0.05898798629641533, 0.01206349208950996, 0.09878139197826385, -0.10349002480506897, 0.06619101017713547, 0.00099541980307549, -0.03201289102435112, 0.00557438237592578, -0.11414515972137451, 0.09541372209787369, 0.13815043866634369, 0.00487098423764110, -0.02599996514618397, -0.00732358731329441, -0.01092977169901133, -0.02396897785365582, 0.06433466076850891, 0.05663114413619041, 0.08469552546739578, -0.19056026637554169, -0.05740506947040558, -0.02025363780558109, 0.00356333120726049, -0.05260617285966873, 0.00585103640332818, 0.02249952964484692, -0.02240722440183163, 0.02036754414439201, -0.06307502835988998, 0.00761835742741823, 0.02762993983924389, -0.02985309995710850, -0.06215881183743477, -0.02113102003931999, 0.07422970980405807, -0.04159585013985634, -0.04871781915426254, -0.00061302294488996, 0.07686388492584229, -0.02536847442388535, 0.05165928229689598, -0.09707648307085037, 0.05218814313411713, 0.06823050975799561, 0.14046835899353027, -0.07575084269046783, 0.02373749949038029, 0.03496126830577850, -0.07151222229003906, -0.02075023017823696, 0.05903204903006554, 0.07381688058376312, 0.02290377765893936, 0.00017985027807299, -0.10955490171909332, 0.02158543467521667, -0.04199477657675743, -0.00671126181259751, 0.02776769921183586, -0.05058766901493073, -0.06575660407543182, 0.10541403293609619, -0.00308924820274115, 0.01404761895537376, 0.08583004772663116, 0.00753145013004541, 0.01191348955035210, -0.12037962675094604, -0.05439143255352974, 0.23580898344516754, 0.14232696592807770, 0.08762456476688385, -0.05472368001937866, 0.01733611524105072, -0.05633838102221489, 0.00537403253838420, -0.03376540914177895, -0.02306410297751427, -0.01597194559872150, -0.00275353132747114, 0.03341436013579369, 0.14710994064807892, 0.10201656073331833, -0.04989039525389671, 0.05398558452725410, -0.01918593421578407, -0.01415316853672266, 0.00435286946594715, 0.06401423364877701, -0.01152322068810463, 0.09736803919076920, -0.06310322880744934, -0.03443599492311478, 0.00780384102836251, 0.03441766649484634, 0.09798929095268250, -0.00328428065404296, 0.04120125249028206, 0.06555002182722092, 0.01063771545886993, -0.01113382261246443, -0.01904650032520294, 0.01179287582635880, -0.05996231734752655, -0.11696371436119080, 0.03844948112964630, 0.06133912503719330, -0.00929078832268715, 0.04826648160815239, -0.04142461717128754, -0.02062872424721718, -0.06036357954144478, -0.01905981637537479, 0.06916519254446030, -0.06387591361999512, 0.01706190779805183, 0.06813710927963257, -0.01196867879480124, 0.07385469228029251, 0.04611203819513321, -0.07222821563482285, 0.04391940310597420, 0.01405482459813356, -0.00459405640140176, -0.10338513553142548, 0.04072661325335503, 0.01960127055644989, 0.02952679060399532, -0.00575209129601717, -0.11463810503482819, 0.12715181708335876, -0.07506357878446579, -0.06775537133216858, 0.02646808139979839, 0.03629640117287636, -0.07334271073341370, -0.05799426510930061, 0.08677358180284500, 0.07971804589033127, 0.06120812892913818, 0.07632557302713394, -0.00696571404114366, 0.05307793989777565, 0.00132554699666798, 0.01662957109510899, -0.06609427183866501, 0.08900289982557297, -0.04336700215935707, -0.08311729878187180, 0.00530845206230879, 0.02340791374444962, 0.03563608601689339, -0.21121962368488312, -0.06114430725574493, -0.16799083352088928, 0.00461241835728288, 0.09073501825332642, 0.07672768086194992, -0.05963970348238945, -0.00189366971608251, -0.05220320448279381, 0.10406495630741119, 0.01440321002155542, -0.18887637555599213, -0.25670859217643738, 0.02641018480062485, -0.12799762189388275, -0.07636726647615433, -0.05184641852974892, 0.09125806391239166, 0.01924080960452557, 0.07344835996627808, -0.02757793292403221, -0.03937683254480362, 0.01929537579417229, -0.05063961446285248, 0.12488675862550735, 0.00628794496878982, 0.09766660630702972, 0.05779837444424629, 0.12349560111761093, 0.02436152100563049, -0.09061613678932190, -0.00235792808234692, 0.02850279398262501, -0.10845678299665451, -0.09194675087928772, -0.08405503630638123, -0.01615313068032265, 0.01435679849237204, -0.00256252987310290, -0.00163354643154889, -0.01646861433982849, -0.13938802480697632, -0.04085388034582138, -0.00083470379468054, -0.07730090618133545, -0.00113477208651602, -0.08958774805068970, 0.03429649025201797, 0.16268977522850037, 0.05406242981553078, 0.05437674000859261, 0.00805288273841143, -0.00025133823510259, 0.03613926470279694, -0.06473372876644135, -0.03760240599513054, 0.02682944200932980, 0.02494199015200138, -0.01463808864355087, -0.13388180732727051, 0.08893889188766479, 0.06568723917007446, -0.02561225183308125, -0.00361002190038562, -0.15633745491504669, -0.03834167122840881, 0.03024530038237572, -0.02510498277842999, 0.03714922443032265, 0.04247536882758141, 0.02642786689102650, -0.11175500601530075, 0.15677335858345032, 0.05322397872805595, 0.09087944030761719, 0.00703013595193624, -0.07014336436986923, 0.10912081599235535, -0.03929170593619347, -0.02587069198489189, 0.03678746521472931, 0.03312416002154350, 0.01442698109894991, 0.04164246097207069, -0.14814728498458862, -0.05414031073451042, -0.05364283546805382, -0.01739260926842690, -0.01678250357508659, 0.01155163906514645, 0.06116926297545433, 0.02447184175252914, 0.11941542476415634, -0.10209857672452927, 0.07993576675653458, -0.05294660851359367, -0.01561722066253424, -0.06584092229604721, -0.11623983830213547, -0.05110793188214302, 0.07376330345869064, -0.06790653616189957, -0.03927948698401451, 0.02286775223910809, 0.09019294381141663, 0.05208938196301460, -0.07912894338369370, 0.06415536254644394, -0.09302701056003571, 0.03400162234902382, 0.03641558438539505, -0.07185627520084381, 0.02085057087242603, 0.03061734698712826, -0.03834750875830650, 0.06650605797767639, -0.07137733697891235, -0.02135094627737999, 0.04771681874990463, -0.11701454222202301, 0.15329086780548096, 0.02911285497248173, 0.02755982242524624, 0.09146884828805923, 0.02161190286278725, -0.06365285813808441, -0.00899275764822960, -0.05755396187305450, -0.00923974625766277, -0.11527942121028900, -0.04458755999803543, -0.08012979477643967, 0.05440092459321022, -0.04616782069206238, 0.10264711081981659, 0.00756748346611857, 0.05801470950245857, 0.00342778745107353, 0.02493421733379364, 0.03807022050023079, 0.05296845361590385, 0.00221881247125566, -0.10007800161838531, -0.13005457818508148, 0.17041631042957306, 0.05193311348557472, -0.01141229551285505, 0.00230084103532135, 0.09176946431398392, 0.01713156700134277, -0.07350996136665344, 0.05819194763898849, 0.00321669992990792, 0.07351396977901459, 0.02001158520579338, 0.03105781599879265, 0.09412892907857895, 0.02078332006931305, 0.11796479672193527, 0.01537263486534357, 0.05562619492411613, -0.09113682806491852, -0.09039265662431717, 0.08232618123292923, -0.07428570836782455, 0.00774391181766987, 0.06309012323617935, -0.12438951432704926, 0.19491653144359589, 0.16058468818664551, -0.14083153009414673, 0.06069614738225937, -0.06177574396133423, 0.09385716915130615, -0.11132540553808212, -0.01978538185358047, -0.01596162095665932, 0.07103735208511353, 0.00586566422134638, 0.03380639851093292, 0.00220284936949611, -0.11744591593742371, -0.06666198372840881, 0.01629510894417763, 0.03720575943589211, -0.08706460148096085, 0.02229836583137512, -0.00861491169780493, 0.05320760607719421, -0.04995590820908546, 0.10108695179224014, 0.00389097211882472, -0.04342165589332581, -0.09747836738824844, 0.03112645074725151, 0.02312696166336536, 0.03011725097894669, 0.02392756752669811, -0.03487447276711464, -0.04386699199676514, -0.00535924499854445, -0.05574339628219604, 0.14522913098335266, -0.07109721750020981, 0.12486232817173004, 0.00012854009401053, -0.09870087355375290, -0.02266110107302666, -0.00794118829071522, -0.00772208767011762, 0.00484325317665935, 0.02840005047619343, 0.09872695803642273, 0.01376929879188538, -0.01358085591346025, -0.03055477887392044, -0.09146913141012192, -0.01802674122154713, 0.02637261711061001, -0.03219229355454445, 0.00234977947548032, 0.00953605398535728, -0.00264499173499644, -0.03182885050773621, 0.03924927115440369, 0.05519920587539673, -0.02591352537274361, -0.11096499115228653, -0.00572580238804221, -0.12724313139915466, 0.08151018619537354, -0.01846910454332829, 0.01149259228259325, 0.06600905209779739, -0.02684353664517403, -0.02391518279910088, 0.10182371735572815, -0.02258019894361496, 0.00606279680505395, -0.01510509662330151, -0.00129354896489531, -0.07910350710153580, 0.01395343057811260, 0.04904201999306679, -0.13250277936458588, -0.03382588177919388, 0.00886097829788923, -0.00207353825680912, -0.09070273488759995, -0.10593119263648987, -0.06056372448801994, 0.16759356856346130, -0.04900257661938667, -0.04393851011991501, 0.23184977471828461, 0.04890530556440353, 0.00854851864278316, 0.00452747009694576, 0.05743195861577988, -0.05617968365550041, -0.01721284911036491, 0.09089923650026321, 0.01445381250232458, -0.04581558704376221, -0.13593536615371704, -0.01872913353145123, 0.06083745136857033, -0.01029922347515821, 0.00940814334899187, -0.02813891135156155, -0.03837387263774872, 0.00587370153516531, 0.11664032936096191, -0.02356261201202869, 0.10347806662321091, -0.07418690621852875, -0.03679803013801575, 0.07025294750928879, -0.06935994327068329, -0.02524362690746784, -0.02902025915682316, 0.08735170215368271, -0.08087379485368729, -0.01824575476348400, -0.07790716737508774, -0.02168996445834637, -0.06645394861698151, -0.00198328890837729, 0.01960598491132259, -0.07929707318544388, -0.04857427626848221, -0.08772171288728714, 0.00742272427305579, 0.04765534773468971, -0.05814307183027267, 0.02804687060415745, -0.00034548618714325, -0.08124569058418274, 0.01851036958396435, 0.06393475085496902, 0.11124646663665771, -0.04556765034794807, -0.04427906125783920, 0.07114580273628235, 0.01056787185370922, 0.02182717993855476, -0.15205971896648407, 0.01285140402615070, -0.03497627750039101, 0.04757230728864670, 0.00291115860454738, -0.07255943864583969, -0.00142220838461071, -0.05567362159490585, 0.06556852906942368, -0.02704764530062675, 0.01900034397840500, 0.04184418916702271, -0.05347905680537224, 0.00478795776143670, 0.10346388816833496, -0.01229205168783665, -0.09327007830142975, 0.07895380258560181, 0.00921593513339758, 0.02838290110230446, -0.01299543771892786, 0.07317519932985306, 0.05632639303803444, -0.03897267952561378, -0.00564688351005316, -0.07917778193950653, 0.01140932738780975, -0.05190786719322205, 0.15279442071914673, -0.06394675374031067, -0.18926042318344116, 0.14849615097045898, -0.11494076997041702, -0.05950740724802017, 0.02592979185283184, -0.02123914472758770, 0.04768350720405579, 0.02544918470084667, 0.02318716049194336, 0.05824783071875572, -0.01713658683001995, -0.10479153692722321, 0.09723992645740509, -0.11478773504495621, 0.02092777006328106, 0.06338796019554138, 0.07890658080577850, 0.02988290041685104, 0.07374816387891769, 0.04511123523116112, -0.00623864028602839, 0.01895420067012310, 0.15314637124538422, 0.11279080808162689, 0.04496097564697266, 0.02726353146135807, -0.00344933383166790, -0.02611289732158184, -0.03826924785971642, -0.04670524597167969, -0.00481758872047067, 0.02946356683969498, -0.02487590163946152, 0.03984873369336128, -0.00930877961218357, 0.05081755667924881, -0.11251500993967056, 0.11168551445007324, 0.06025120988488197, -0.05293812975287437, 0.09900774061679840, 0.05706320330500603, 0.00010509492858546, 0.04345758631825447, -0.04110491275787354, -0.04070837423205376, 0.03695391863584518, 0.05465990677475929, 0.06018960103392601, 0.00105407810769975, 0.14657136797904968, -0.00791069120168686, 0.01104383822530508, -0.03425286337733269, -0.07082763314247131, -0.00893598236143589, 0.06026357784867287, -0.11447880417108536, 0.14564980566501617, 0.11465632915496826, 0.04061832651495934, -0.01923482306301594, -0.07613241672515869, 0.04200235009193420, 0.02156389690935612, -0.12192070484161377, -0.04850991442799568, 0.04417007043957710, -0.05782184749841690, -0.07603759318590164, -0.01113231386989355, -0.01580266281962395, -0.10377912968397141, 0.13510192930698395, -0.08839400857686996, -0.02248646877706051, -0.08236498385667801, -0.01087487116456032, 0.01532189920544624, -0.08549144864082336, 0.12111188471317291, 0.02372748404741287, 0.11211455613374710, 0.01061908341944218, 0.09460549056529999, -0.01902143470942974, 0.03411071002483368, -0.00028265820583329, 0.14257439970970154, -0.01832576282322407, 0.02199813909828663, 0.02662517875432968, -0.04976528510451317, 0.17093600332736969, -0.06989681720733643, 0.00340048922225833, -0.02948503196239471, 0.04747821390628815, -0.09067538380622864, 0.04754815250635147, -0.10861302167177200, -0.02698088996112347, -0.00010519181523705, -0.00791523512452841, -0.00070334516931325, 0.02184015139937401, 0.13991849124431610, -0.02090054005384445, 0.14559975266456604, -0.04850498214364052, -0.09049880504608154, -0.08127080649137497, -0.00324370432645082, 0.00421600323170424, -0.14421398937702179, 0.02547265216708183, 0.05554630607366562, 0.02485188283026218, 0.02615309320390224, 0.10538624227046967, -0.14152938127517700, 0.03927164524793625, 0.12555986642837524, -0.00137378694489598, 0.01010577473789454, 0.10989264398813248, 0.09623251855373383, -0.02585417777299881, 0.09654245525598526, -0.02690682932734489, 0.00400980375707150, -0.11554659157991409, 0.01413059420883656, 0.04382374882698059, -0.15114560723304749, 0.02135413140058517, -0.02794430032372475, 0.02937030978500843, 0.07854851335287094, -0.04759511724114418, -0.00658307876437902, 0.02858382835984230, -0.02356790192425251, -0.15772697329521179, 0.00520350970327854, 0.02573485858738422, 0.03826729208230972, 0.02782083302736282, 0.01468415837734938, 0.03389382362365723, 0.00509119266644120, 0.01573046483099461, 0.09132071584463120, 0.00972722750157118, 0.01294265873730183, 0.10446333140134811, -0.05524921044707298, -0.03069513849914074, 0.17157009243965149, -0.02029345370829105, 0.03119878284633160, 0.04058846458792686, 0.04795770347118378, 0.02778423577547073, -0.09613137692213058, -0.05963882431387901, -0.05572554841637611, -0.10485920310020447, -0.01491266395896673, -0.08671072125434875, 0.03773306682705879, 0.00218252348713577, 0.14361444115638733, -0.04280909895896912, 0.08125799149274826, 0.04411707818508148, -0.04360174387693405, 0.04968432709574699, -0.04276103153824806, 0.18865893781185150, 0.06718003749847412, -0.11861796677112579, 0.07087619602680206, 0.08195799589157104, -0.04013391584157944, 0.10880297422409058, -0.03486734628677368, -0.05212981253862381, -0.07512254267930984, 0.03482511639595032, 0.12790246307849884, 0.14766119420528412, 0.10746187716722488, -0.06848765909671783, -0.05637969449162483, -0.01676861941814423, 0.00734602520242333, 0.05437068268656731, 0.08959909528493881, 0.08408536761999130, 0.08420332521200180, -0.06781446188688278, 0.02768813259899616, 0.01315990462899208, 0.00949731096625328, -0.01015732996165752, -0.00936020258814096, -0.01398367900401354, 0.02393871173262596, -0.00457946909591556, -0.04523020982742310, -0.08390132337808609, -0.06307401508092880, 0.05984768271446228, 0.21482445299625397, 0.03765410929918289, -0.06634141504764557, 0.12464651465415955, -0.11048077791929245, 0.02346311509609222, -0.08245749026536942, 0.02351368218660355, -0.03079560957849026, 0.02683590166270733, -0.03498909249901772, -0.02575563080608845, 0.02569149807095528, 0.00886651687324047, 0.06794209033250809, -0.07293806225061417, -0.04263809323310852, 0.00120931433048099, 0.04819075390696526, 0.02960152737796307, 0.22751007974147797, -0.03115636669099331, 0.08587674796581268, -0.09859239310026169, 0.01469859201461077, -0.02053992636501789, -0.18853597342967987, 0.04195678979158401, -0.00163288367912173, 0.05176077783107758, -0.04263257235288620, -0.03576103597879410, 0.04626464471220970, 0.00635566422715783, -0.02188047021627426, -0.05108170956373215, -0.14716327190399170, -0.17631851136684418, -0.03816303983330727, -0.06356705725193024, -0.02636147849261761, -0.06191350147128105, 0.03736841306090355, 0.00001824305945775, 0.12649212777614594, 0.09255538135766983, 0.04098231345415115, -0.07444968074560165, -0.06542379409074783, 0.20274814963340759, -0.07363305985927582, 0.06136576831340790, -0.10405842959880829, 0.03993606567382812, -0.01268003322184086, 0.00115417060442269, -0.06319953501224518, 0.02997509203851223, 0.04088633507490158, 0.02883658185601234, 0.01613436825573444, 0.08035432547330856, 0.04399472102522850, 0.11425130814313889, -0.10652301460504532, 0.07066462188959122, 0.13006331026554108, 0.06375243514776230, 0.02193147875368595, 0.00851279776543379, -0.09271445870399475, -0.05036736279726028, -0.03948282077908516, -0.01260079443454742, -0.09885809570550919, 0.05971315130591393, -0.02658658102154732, 0.00115851685404778, -0.02306338958442211, 0.15021705627441406, 0.13696882128715515, 0.02195935137569904, -0.02857876010239124, 0.05226863548159599, 0.11778058111667633, 0.05960515886545181, -0.02859594300389290, 0.10199365019798279, -0.03570239990949631, -0.04550069570541382, 0.04647385701537132, -0.01817122846841812, -0.05368612706661224, 0.00651325937360525, -0.08051010966300964, -0.01826837286353111, 0.02885258942842484, 0.04945445060729980, -0.06462554633617401, -0.11143971979618073, -0.07500504702329636, -0.00862903147935867, -0.04618450626730919, -0.01680058240890503, 0.08643095195293427, 0.04591949284076691, -0.07220299541950226, -0.02729382365942001, -0.02259300835430622, -0.01295433938503265, -0.06591281294822693, -0.05027391761541367, 0.06267512589693069, -0.07635370641946793, 0.02260794863104820, -0.03149225562810898, -0.02292916551232338, -0.09309548139572144, 0.05662783980369568, 0.01112119201570749, -0.04704840108752251, -0.14876623451709747, 0.03310475870966911, 0.10156025737524033, 0.07564828544855118, -0.00652820756658912, -0.13786852359771729, 0.04353889450430870, 0.02168795093894005, -0.02881966345012188, 0.06750529259443283, 0.04865084215998650, -0.00211597490124404, 0.09276290237903595, -0.04767918214201927, 0.00938374828547239, -0.13617320358753204, 0.03936019167304039, -0.07507342100143433, -0.00050518417265266, 0.00411402061581612, -0.03133694082498550, 0.03421178832650185, -0.04532579705119133, -0.02549736015498638, -0.15384577214717865, 0.06877280026674271, 0.01243507396429777, -0.13850790262222290, 0.03680155426263809, -0.09717705100774765, 0.07877784222364426, -0.00348668429069221, 0.01547379419207573, 0.02254215069115162, -0.00962646026164293, -0.16497984528541565, 0.04569101333618164, -0.03392552956938744, -0.18780358135700226, -0.06085029616951942, -0.00109353975858539, -0.10233943164348602, -0.00793842971324921, 0.17994149029254913, 0.00463267369195819, 0.00535364961251616, -0.03360849246382713, -0.01666864566504955, 0.02084884233772755, 0.12403059005737305, -0.06926244497299194, 0.03975231200456619, 0.02795426174998283, -0.05661945790052414, 0.07928789407014847, -0.01175720058381557, 0.00946728326380253, -0.05045722797513008, 0.02893669717013836, -0.03481940552592278, -0.16136327385902405, -0.01656905189156532, 0.19981952011585236, 0.01308484748005867, -0.02220413461327553, -0.02950812131166458, 0.01120887231081724, -0.03508550673723221, -0.05891010910272598, -0.01602718979120255, -0.01796357892453671, -0.13255223631858826, -0.03686290979385376, 0.02758707664906979, -0.09648900479078293, 0.10855023562908173, -0.03395513817667961, 0.09417003393173218, 0.09081875532865524, 0.09680112451314926, 0.09086728841066360, -0.04251401126384735, -0.00047149942838587, -0.09682950377464294, -0.07102897763252258, 0.05939042940735817, 0.04541974514722824, -0.17306335270404816, 0.00431515462696552, -0.05803678929805756, 0.05456317961215973, -0.12175247818231583, 0.02060859277844429, 0.03630787134170532, -0.04306985437870026, -0.18104255199432373, 0.01387643720954657, -0.01556850038468838, 0.08887813985347748, 0.00430695759132504, -0.04417878761887550, 0.01030486170202494, 0.07246407121419907, 0.11646214872598648, -0.00087326619541273, -0.04488592222332954, -0.01802271604537964, -0.08179160952568054, 0.02227967977523804, -0.03305595740675926, 0.21806620061397552, -0.00112364871893078, 0.06700737774372101, -0.04029934853315353, -0.09178406745195389, 0.07703711092472076, 0.06857604533433914, -0.06028788909316063, 0.01352074090391397, 0.00214807013981044, 0.08684455603361130, 0.10801371186971664, 0.00914338603615761, 0.10445695370435715, -0.01338731031864882, 0.02300678007304668, 0.07959995418787003, 0.16611373424530029, -0.01787201501429081, -0.02120174095034599, -0.00262745399959385, -0.18928781151771545, 0.00499353650957346, -0.04156319051980972, 0.06761148571968079, -0.03499173000454903, -0.08838839083909988, -0.05378673970699310, -0.07689228653907776, 0.16231870651245117, -0.01052065379917622, 0.02750856615602970, 0.11132708191871643, 0.04535305872559547, -0.03439994156360626, 0.03008028492331505, 0.10875128209590912, -0.08645390719175339, 0.01966685429215431, 0.03921540454030037, 0.04070375487208366, -0.09272707998752594, 0.03619246184825897, 0.02518184483051300, 0.04533820971846581, -0.03974946215748787, 0.00754138547927141, 0.03625595569610596, 0.01438513305038214, -0.03865939378738403, 0.01596792601048946, 0.09888885170221329, -0.16351437568664551, 0.06727991998195648, -0.06729327887296677, 0.01280921418219805, -0.02606721781194210, 0.08362933248281479, -0.10367907583713531, 0.00913925189524889, -0.15181477367877960, -0.00192461581900716, 0.02485538274049759, -0.04730496183037758, 0.06210592761635780, 0.09983254969120026, 0.03349949419498444, -0.06811947375535965, -0.04916596040129662, 0.08112944662570953, 0.07168721407651901, 0.06182543933391571, 0.07075731456279755, -0.06569968163967133, 0.00536766974255443, -0.03629117459058762, 0.03888984769582748, -0.02173406630754471, 0.01031119748950005, 0.01481022965162992, -0.00993741210550070, 0.05422844737768173, -0.11508753150701523, 0.03450155258178711, -0.00969525799155235, 0.05950284376740456, -0.00423779524862766, 0.10729968547821045, 0.04262374714016914, -0.07289858162403107, -0.01601528003811836, 0.04097796604037285, 0.06477165222167969, 0.02233232744038105, 0.16595026850700378, -0.01359023898839951, -0.03088209405541420, -0.02461383119225502, 0.06754606962203979, -0.02867953665554523, 0.02820559032261372, 0.03419797122478485, -0.00112300994805992, 0.02760514616966248, -0.09331913292407990, 0.08829599618911743, 0.06159570068120956, 0.07826747000217438, 0.08960921317338943, 0.06053029000759125, 0.02178231999278069, -0.03076342679560184, 0.11807793378829956, 0.12486784905195236, -0.02892337553203106, 0.02260194532573223, -0.03337018191814423, -0.10333041101694107, -0.04283156618475914, -0.16409552097320557, 0.12575720250606537, -0.10284277796745300, -0.05136876925826073, 0.01294829137623310, 0.06576845049858093, 0.00851487368345261, 0.05840998515486717, -0.11943672597408295, 0.07279342412948608, -0.00013890645641368, -0.07557865232229233, -0.08460921049118042, 0.10471345484256744, 0.08057921379804611, 0.03258355334401131, -0.06871235370635986, -0.06778454780578613, 0.08727889508008957, 0.02607208862900734, -0.04700201749801636, -0.00300280586816370, 0.10232035815715790, 0.06705211102962494, -0.07625665515661240, -0.03689636662602425, 0.00476726749911904, -0.01048383396118879, -0.00378198525868356, -0.08066175132989883, -0.00846582744270563, 0.01335868053138256, 0.01879973709583282, 0.05550388246774673, -0.05701029673218727, 0.07032901793718338, 0.02255482040345669, -0.08733268827199936, -0.04012017697095871, -0.00200783484615386, 0.02124019898474216, 0.01086968369781971, -0.00357681908644736, -0.04673292860388756, 0.05511626228690147, 0.03662760555744171, 0.04232918471097946, 0.16183377802371979, -0.16602811217308044, -0.07196355611085892, 0.04348539561033249, 0.04921441152691841, 0.00102160940878093, -0.03652311116456985, 0.09309960156679153, 0.02855647727847099, -0.03359498456120491, -0.01111595891416073, -0.16254095733165741, -0.00825635436922312, -0.09753381460905075, 0.00469241477549076, 0.03561633080244064, -0.01264390349388123, 0.00925919692963362, 0.00641440041363239, -0.00062444945797324, -0.06599248945713043, 0.08944544196128845, 0.08526857942342758, -0.05967169255018234, 0.04894764721393585, -0.00670595653355122, 0.11753071844577789, 0.02913180179893970, 0.04803563281893730, -0.07848276197910309, -0.07956625521183014, -0.02739419788122177, 0.00726457731798291, 0.05277731269598007, -0.05834425240755081, -0.04750457033514977, -0.11216926574707031, -0.05086590722203255, 0.09612380713224411, -0.00549520505592227, 0.07179148495197296, 0.05082159489393234, -0.07807627320289612, -0.01817740872502327, -0.00773744471371174, 0.00347400386817753, 0.11448816955089569, -0.05920793488621712, 0.12011805176734924, 0.00928794033825397, 0.07164992392063141, 0.02579477801918983, 0.07238619774580002, -0.08932024240493774, -0.03045248426496983, -0.02333556860685349, -0.04642279073596001, 0.15878593921661377, 0.03880226239562035, 0.04727392643690109, -0.15795367956161499, 0.11176799237728119, -0.18137444555759430, 0.05043581500649452, 0.02914437837898731, 0.01184437144547701, -0.00052735902136192, -0.11494378745555878, -0.10326487571001053, 0.06842845678329468, 0.02727667987346649, 0.08052426576614380, 0.05161359906196594, 0.03276235982775688, 0.03938881680369377, 0.05698033422231674, 0.04804614931344986, 0.03118309751152992, -0.01261565927416086, 0.01951352879405022, -0.04328035563230515, 0.19586116075515747, -0.05870947614312172, 0.06874330341815948, -0.09415777027606964, 0.05402230843901634, -0.11143229156732559, -0.07262022793292999, 0.01678350381553173, 0.00049878854770213, -0.03302458673715591, -0.07195889204740524, -0.01555315218865871, 0.05520765483379364, -0.03273824602365494, 0.11794503033161163, -0.00218251510523260, 0.10111372917890549, -0.05034036561846733, -0.23087403178215027, -0.00094784935936332, -0.11336104571819305, -0.08635722845792770, 0.12412624061107635, 0.00699277035892010, -0.02731821127235889, 0.10871708393096924, -0.08220223337411880, -0.04374334216117859, -0.07643072307109833, -0.15255628526210785, 0.09178163856267929, 0.06941391527652740, 0.13851065933704376, -0.10357719659805298, 0.05640839412808418, 0.09905792027711868, -0.02553876489400864, -0.01487537845969200, -0.11101356893777847, 0.04121389985084534, 0.14017856121063232, -0.05135210603475571, 0.00627396767958999, -0.04716560617089272, -0.03802444413304329, 0.04895893484354019, -0.10487068444490433, 0.08403429388999939, 0.04604554548859596, 0.00985824782401323, 0.01510717906057835, 0.10653787851333618, 0.07937872409820557, 0.00996790360659361, -0.01816501095890999, -0.08660322427749634, -0.03871679678559303, 0.04139020293951035, -0.06240700185298920, -0.07966475188732147, 0.10233020782470703, -0.11841244995594025, -0.02563610859215260, -0.17465120553970337, 0.08163950592279434, -0.07067212462425232, 0.10127206891775131, 0.03473326191306114, -0.06867831945419312, 0.01506068650633097, -0.02087190374732018, -0.05365619063377380, -0.03371393680572510, 0.00133231841027737, -0.03769592568278313, 0.02099795453250408, 0.05975288525223732, 0.00001232991326106, 0.05970039963722229, 0.05545967072248459, 0.02756416238844395, 0.07508663088083267, 0.03693959116935730, 0.04205831140279770, 0.03473785892128944, -0.03371006622910500, -0.00277542299591005, 0.14924658834934235, -0.02047794498503208, -0.01491383556276560, -0.04607975855469704, -0.08286903053522110, 0.06057327985763550, 0.01944319903850555, -0.13553228974342346, 0.02409100905060768, 0.01154730096459389, 0.04128201305866241, 0.05877756327390671, -0.02771304734051228, -0.04964805394411087, 0.00002393605609541, -0.07365186512470245, -0.07689402997493744, 0.05876626074314117, -0.04117800295352936, 0.02419007383286953, 0.02391143515706062, -0.08009143918752670, 0.01070839632302523, -0.07762196660041809, 0.07502201199531555, -0.02870330400764942, 0.12588557600975037, -0.03904819488525391, -0.01223084144294262, 0.03685646504163742, -0.07068375498056412, 0.01190255582332611, 0.06950835883617401, -0.06790003925561905, -0.00023294935817830, -0.02429641038179398, 0.05011929944157600, 0.04373903572559357, 0.04878529906272888, -0.03674907982349396, -0.00185605359729379, 0.04674423485994339, -0.00441375887021422, -0.02992559783160686, -0.02259151265025139, 0.01935588382184505, -0.02475881762802601, 0.03320827707648277, 0.08590989559888840, -0.06625203788280487, 0.17762620747089386, -0.03350471332669258, 0.02534245885908604, -0.06971542537212372, -0.02405011840164661, -0.00222986401058733, 0.03673201799392700, 0.01572045497596264, 0.01124987844377756, 0.06223909556865692, 0.00031981046777219, 0.01243863720446825, 0.00376691273413599, 0.10219821333885193, -0.00006310004391707, 0.12261296808719635, 0.02502302639186382, 0.12031652778387070, 0.03286724910140038, 0.12127435207366943, -0.04637241736054420, 0.02757128886878490, 0.07483827322721481, 0.13986659049987793, -0.00522369937971234, -0.07196415960788727, -0.01901103183627129, 0.01143190264701843, 0.01744940504431725, 0.16675999760627747, 0.02861010283231735, -0.09675394743680954, -0.12405504286289215, -0.02687805332243443, -0.05162145942449570, 0.00940134748816490, -0.04896938055753708, -0.06857803463935852, -0.01762189529836178, 0.05603377521038055, -0.14655014872550964, 0.03442507237195969, 0.06042859703302383, -0.13275827467441559, 0.02913589589297771, -0.14992596209049225, 0.21125669777393341, -0.13055528700351715, -0.06028499081730843, 0.07648036628961563, 0.03049361146986485, -0.07897111028432846, -0.05342145636677742, -0.02853660471737385, 0.06170317903161049, -0.09087155759334564, -0.04368010908365250, 0.13820387423038483, -0.02746427245438099, 0.09204399585723877, 0.01516998838633299, 0.01268297526985407, 0.04214315861463547, -0.00073615781730041, -0.00519291404634714, -0.01914958842098713, 0.01253048982471228, 0.00968641787767410, 0.12098384648561478, 0.03298133239150047, -0.00195220625028014, 0.05220678076148033, -0.16522262990474701, -0.01007737871259451, 0.08602322638034821, -0.05223274976015091, 0.07266894727945328, 0.01258846372365952, 0.01514110527932644, -0.06474901735782623, -0.09057609736919403, -0.04090907424688339, -0.06236854568123817, -0.10560049861669540, 0.02625977247953415, 0.03630020096898079, 0.10733111947774887, -0.03803979605436325, 0.08337134867906570, -0.08460923284292221, 0.02689963206648827, -0.02609448321163654, 0.08316729217767715, -0.01119480747729540, -0.06924419850111008, -0.15070131421089172, 0.07139148563146591, -0.11709281802177429, 0.01198237948119640, -0.04590475559234619, 0.11719749867916107, 0.03004837222397327, -0.03122583404183388, -0.02715661190450191, 0.00985517632216215, -0.06267048418521881, -0.02514124102890491, -0.16529753804206848, 0.07659724354743958, -0.09041723608970642, 0.00405159546062350, -0.12402018904685974, 0.09583947062492371, -0.07925660163164139, 0.07852724939584732, -0.08173797279596329, -0.07037392258644104, -0.03858198970556259, 0.05113146454095840, -0.02239823713898659, -0.02804653346538544, -0.23380881547927856, -0.01850395463407040, 0.03066957741975784, -0.03794081509113312, -0.04243505001068115, 0.03158994764089584, 0.10544969141483307, 0.11048407107591629, -0.06806848943233490, -0.07100355625152588, -0.03029912523925304, 0.11132139712572098, -0.03608454391360283, -0.07504571229219437, -0.00183533946983516, -0.02607426047325134, -0.10504642128944397, 0.03540725633502007, 0.02794340439140797, 0.13482463359832764, 0.04686773568391800, -0.01387519761919975, -0.06774400919675827, -0.14290362596511841, -0.03092518635094166, -0.09428291767835617, -0.08885747194290161, -0.07734078168869019, -0.00063465867424384, -0.02176113426685333, -0.03119049221277237, -0.06732936948537827, -0.05873883515596390, -0.07282105088233948, -0.09092497080564499, -0.13747878372669220, 0.05006472021341324, 0.05169430002570152, 0.06562094390392303, 0.04472033306956291, -0.11126442253589630, -0.06058818846940994, -0.05673414096236229, 0.07119219750165939, -0.12271239608526230, 0.11992519348859787, -0.12446888536214828, -0.00480482168495655, -0.05464169010519981, 0.04717969149351120, 0.03456576541066170, 0.00818528607487679, -0.02151239290833473, 0.01956121996045113, -0.01434315275400877, -0.00416934210807085, -0.00201142206788063, 0.02276126109063625, -0.05369898676872253, -0.01519575063139200, 0.06057599186897278, -0.08587453514337540, 0.08035084605216980, -0.10309905558824539, 0.04532753303647041, -0.07450298219919205, -0.03884845972061157, -0.01354096177965403, -0.03293553739786148, 0.09896236658096313, -0.00768544059246778, 0.02811612561345100, -0.06945234537124634, -0.01236780174076557, -0.10531368106603622, -0.07820505648851395, -0.02826481685042381, -0.01427711918950081, -0.05305186286568642, -0.03936702758073807, 0.16331312060356140, -0.05171881616115570, -0.05544807016849518, -0.01743676885962486, -0.08948313444852829, -0.05100904777646065, 0.06631869077682495, -0.00465791625902057, 0.03999777883291245, -0.03622941300272942, -0.00774605758488178, -0.04641380161046982, -0.06603483110666275, -0.15393827855587006, 0.18870700895786285, 0.13881550729274750, -0.04229575395584106, 0.00305534643121064, 0.03615578263998032, -0.01472647208720446, 0.05785935744643211, -0.01998763717710972, 0.01221824716776609, 0.02130939252674580, -0.00370866688899696, -0.00940871890634298, 0.10440747439861298, -0.13257515430450439, 0.01003898866474628, -0.06036394461989403, 0.01253776066005230, -0.09480054676532745, -0.20159165561199188, 0.02506921067833900, -0.11997993290424347, -0.00150687329005450, 0.17057093977928162, -0.05351465195417404, -0.17465451359748840, -0.11416410654783249, 0.09541106969118118, 0.02005198597908020, 0.04913283511996269, 0.09324765205383301, -0.07986089587211609, 0.03179645538330078, -0.01329181622713804, 0.03530337661504745, 0.05382392182946205, 0.04068291559815407, 0.19490966200828552, 0.04730885475873947, 0.03843405470252037, -0.00395607575774193, 0.09635083377361298, 0.00915597192943096, 0.11234633624553680, -0.00994916632771492, 0.03127124533057213, 0.03248354047536850, -0.06467249989509583, 0.02557020075619221, 0.02082582190632820, -0.08029145747423172, 0.04066074267029762, -0.07555767148733139, 0.05455914884805679, -0.00892555341124535, 0.01929740794003010, 0.02818340435624123, -0.02334440127015114, 0.01830636523663998, -0.00753305619582534, 0.13641504943370819, 0.06250622123479843, -0.01077592559158802, -0.11112331598997116, 0.01415227819234133, 0.05240685492753983, -0.04711965098977089, -0.08116101473569870, -0.06278438866138458, 0.04134998470544815, 0.02513067424297333, -0.19647602736949921, 0.07874689996242523, 0.06146854534745216, -0.16214895248413086, 0.07995539158582687, -0.03301609680056572, -0.07140401750802994, -0.07465505599975586, -0.12585942447185516, -0.03127479553222656, -0.07343221455812454, -0.05864825844764709, -0.02538386546075344, -0.12616756558418274, 0.05335829779505730, -0.01676061563193798, -0.05401919037103653, -0.02785722725093365, 0.02122147753834724, -0.08303564041852951, -0.05328689143061638, -0.04669635742902756, 0.01869609579443932, 0.02182226628065109, 0.08054236322641373, -0.01023083366453648, -0.01803544722497463, 0.04404395446181297, 0.05662274733185768, 0.00482670264318585, 0.01525848638266325, 0.01790762506425381, -0.04536116123199463, 0.00641268165782094, -0.06166615709662437, 0.00816375762224197, -0.06843139976263046, -0.04883335158228874, 0.06369412690401077, -0.04991633817553520, -0.10039144754409790, -0.00258638197556138, -0.17601670324802399, -0.03527503460645676, -0.18186886608600616, -0.02484871633350849, -0.09859368950128555, -0.01124971546232700, -0.02159260399639606, 0.01105173677206039, 0.06961259245872498, -0.01377081405371428, -0.13795322179794312, -0.01243424974381924, -0.00696014054119587, -0.01763912476599216, 0.03843182325363159, 0.03066636808216572, -0.00737349828705192, 0.03357501327991486, -0.07004987448453903, -0.03436341881752014, -0.09728801250457764, -0.07960769534111023, 0.03502785041928291, 0.07799118012189865, 0.02551219053566456, -0.16134147346019745, -0.14899110794067383, -0.04256846383213997, 0.05804367735981941, -0.05818501487374306, -0.07329190522432327, 0.09293302148580551, -0.03775794059038162, -0.08645322918891907, -0.02940902300179005, 0.02999547123908997, 0.08507461100816727, -0.01291676145046949, -0.07479470223188400, -0.08535442501306534, -0.03706897422671318, 0.02370656654238701, -0.01438039727509022, -0.04546150565147400, -0.03107297047972679, 0.18340234458446503, 0.08201847225427628, -0.09865188598632812, 0.02527220547199249, -0.07738145440816879, -0.03802847117185593, -0.04436925426125526, 0.01039946824312210, 0.05639991909265518, -0.02070871926844120, 0.01971769891679287, -0.10097221285104752, 0.05685507878661156, 0.06626164168119431, -0.03500498458743095, 0.02842048369348049, -0.03378991782665253, -0.12906323373317719, 0.00974121969193220, -0.05792772397398949, 0.02418327517807484, 0.07779499143362045, 0.09576620906591415, 0.01909717358648777, 0.05310494080185890, 0.00485391216352582, -0.01130063924938440, 0.13364706933498383, -0.00791439227759838, -0.01969419978559017, 0.00344114913605154, 0.03953775390982628, -0.04228499531745911, 0.03434847667813301, -0.01097782701253891, 0.14397865533828735, 0.01457843091338873, 0.09450751543045044, -0.01791000925004482, 0.05238886550068855, 0.09932520240545273, 0.03541898727416992, -0.05018041282892227, 0.12374007701873779, 0.03128801658749580, -0.10580166429281235, 0.04945831373333931, 0.18106131255626678, 0.03999945148825645, -0.01235216204077005, -0.01323975902050734, -0.00349584245122969, -0.01337530836462975, -0.06865965574979782, 0.03909220173954964, -0.04124889895319939, -0.02530493214726448, -0.17972485721111298, -0.11845795810222626, 0.13800916075706482, -0.00411387439817190, 0.16705121099948883, -0.05181297659873962, -0.01782423816621304, -0.05613017827272415, -0.03769008070230484, 0.05112319812178612, -0.13470894098281860, -0.06905527412891388, 0.07164527475833893, 0.14412528276443481, -0.13208520412445068, 0.02257394231855869, 0.03344910591840744, -0.02436185628175735, -0.05968312174081802, 0.04121246188879013, -0.08150929212570190, -0.06480238586664200, 0.00508618913590908, -0.05836174264550209, -0.02469918318092823, -0.00422367453575134, -0.00391327496618032, 0.17512153089046478, -0.05614767223596573, -0.00109129794873297, 0.01357743702828884, 0.08524627983570099, 0.09332409501075745, 0.10332474112510681, 0.07515090703964233, -0.03889777511358261, 0.10961072146892548, 0.16135181486606598, 0.00180303899105638, 0.04726254567503929, -0.09862532466650009, -0.06979592889547348, -0.01938437856733799, -0.01151013653725386, -0.08255147933959961, -0.01833080314099789, -0.10568179935216904, -0.08163767307996750, -0.02021467313170433, -0.14557415246963501, -0.07430250942707062, 0.13200154900550842, 0.00668494636192918, 0.02055944502353668, -0.06122808903455734, 0.05305995047092438, 0.02146764099597931, -0.05893523618578911, 0.01732730306684971, -0.00345107819885015, -0.03426074981689453, -0.00707803340628743, 0.13351498544216156, -0.04301831871271133, -0.08636736869812012, 0.00778769422322512, 0.00569279957562685, 0.07204308360815048, -0.00998638104647398, -0.02651073038578033, 0.03870406001806259, -0.11060412973165512, -0.05947056040167809, -0.06948991864919662, -0.04232191666960716, 0.11759588867425919, 0.06025443226099014, -0.08639364689588547, 0.09160160273313522, -0.07112211734056473, 0.00739337131381035, 0.02490102127194405, 0.02029115520417690, -0.04560849815607071, -0.05898040905594826, 0.05884590744972229, 0.14306703209877014, 0.10451005399227142, 0.12817580997943878, 0.04435209184885025, 0.01432660315185785, -0.08376790583133698, -0.05393028259277344, 0.02706376276910305, -0.08970069885253906, 0.06563633680343628, 0.01871497370302677, 0.00572632299736142, -0.02215819992125034, -0.00981078110635281, -0.09881898015737534, -0.03593146055936813, 0.04539608582854271, 0.10784980654716492, 0.00362719944678247, 0.02229863218963146, 0.01783176884055138, -0.03976420313119888, 0.04034098610281944, -0.05666276440024376, 0.01355017069727182, -0.01193049084395170, -0.04433276876807213, -0.01093766093254089, 0.00995631515979767, 0.00420010462403297, 0.07973908632993698, 0.06696207821369171, 0.01237867865711451, -0.03208529204130173, 0.05772785842418671, 0.15542058646678925, -0.01261344272643328, 0.07058351486921310, -0.02563235349953175, 0.01669505052268505, 0.15447068214416504, -0.02049649320542812, -0.01070721633732319, 0.00529469316825271, 0.06867575645446777, -0.01893880404531956, -0.01661408320069313, 0.06963993608951569, 0.09350604563951492, 0.01706534251570702, 0.22339712083339691, 0.03969321399927139, -0.07654611021280289, 0.00845645740628242, 0.13010102510452271, -0.03098617680370808, -0.01791980303823948, 0.00023562954447698, -0.05673577636480331, -0.06653827428817749, 0.10267862677574158, -0.04140419512987137, -0.05645350739359856, -0.08364994078874588, -0.06206452101469040, -0.04134979471564293, 0.10488688945770264, -0.03062053769826889, -0.08296991884708405, -0.02621139213442802, -0.06688473373651505, -0.15609015524387360, 0.12812641263008118, -0.00031164789106697, -0.16655486822128296, -0.00187606271356344, -0.02930377982556820, -0.10061512142419815, -0.03799472376704216, -0.04991674423217773, -0.04870767518877983, 0.02799773029983044, -0.08280407637357712, -0.04736616089940071, 0.03643293678760529, 0.02934956178069115, 0.13075377047061920, 0.02488582767546177, -0.06029882654547691, 0.09328065067529678, 0.07051649689674377, 0.02346465550363064, -0.04095790535211563, -0.07050691545009613, 0.02958872914314270, 0.02264926396310329, -0.05486749112606049, 0.00736117828637362, 0.08374500274658203, 0.05070316419005394, -0.04556382074952126, -0.06115467473864555, -0.15643543004989624, 0.00103559379931539, 0.04355917498469353, 0.09797638654708862, -0.12684242427349091, -0.08743757754564285, -0.03664025291800499, -0.01064028311520815, 0.02439339272677898, -0.05928295850753784, -0.06592996418476105, -0.02585909329354763, -0.12694588303565979, -0.01595469005405903, -0.07864631712436676, 0.09963018447160721, -0.02783848904073238, -0.17676065862178802, -0.06960417330265045, -0.06839513033628464, 0.09261378645896912, 0.00877581071108580, 0.04528314992785454, -0.05528121441602707, 0.05189752206206322, -0.01898368820548058, 0.02752054668962955, 0.05879982933402061, 0.05419876053929329, 0.10575068742036819, 0.00671638594940305, 0.10682324320077896, -0.04883772507309914, 0.04736654087901115, -0.05800388008356094, 0.07742010802030563, 0.13973847031593323, -0.03369150683283806, -0.03308647125959396, 0.02481530234217644, 0.07208929210901260, 0.00873687863349915, 0.00368791352957487, -0.00253800605423748, -0.02861572243273258, -0.05503560602664948, 0.08464407175779343, 0.05396875366568565, -0.11228857189416885, 0.02411264926195145, -0.02137477882206440, -0.07613945007324219, -0.06359007954597473, 0.06903640180826187, -0.00140580721199512, 0.04174459725618362, -0.01883340254426003, -0.00606964575126767, -0.04819501191377640, -0.06360737979412079, -0.02691222541034222, 0.00291494210250676, -0.00346094858832657, 0.02129369042813778, 0.03733889758586884, -0.01110951881855726, -0.00345067284069955, -0.06863754242658615, -0.04652748256921768, 0.05642388015985489, 0.12076750397682190, -0.01809678226709366, 0.03047677688300610, 0.03477673977613449, 0.07029021531343460, -0.13469526171684265, 0.05622381344437599, 0.06951589137315750, -0.09767695516347885, -0.05562569200992584, 0.00480092223733664, 0.04403045773506165, -0.09595305472612381, 0.12132001668214798, 0.08333966881036758, 0.01473600696772337, -0.01074393000453711, 0.01068729069083929, 0.05136319622397423, -0.03668540343642235, -0.04352301359176636, 0.05207991600036621, 0.12546160817146301, -0.03362880274653435, -0.06629674881696701, -0.11329155415296555, 0.03442058712244034, 0.01668600738048553, 0.14304028451442719, 0.06165660172700882, 0.04874315112829208, 0.04738850519061089, 0.00893591810017824, -0.06214486435055733, 0.04794051870703697, -0.01899444311857224, 0.01901659928262234, -0.02809153683483601, -0.05314072594046593, -0.09641029685735703, 0.06566121429204941, -0.00379557721316814, -0.00103292218409479, -0.06828815490007401, 0.06967100501060486, -0.02480403892695904, 0.03827337548136711, 0.02552775107324123, -0.05950140953063965, 0.08485922217369080, 0.09147226065397263, 0.04925736039876938, 0.05680308118462563, 0.05784040316939354, 0.00396322831511497, -0.05935341119766235, -0.02257761359214783, 0.01039558742195368, 0.03419259563088417, -0.00753741525113583, -0.17445056140422821, -0.08708020299673080, -0.06268061697483063, -0.02454747632145882, -0.01179989706724882, -0.05313909053802490, 0.00102801562752575, 0.04166016355156898, 0.02901047095656395, -0.01435389835387468, 0.11999516189098358, 0.01917106471955776, 0.06006930768489838, -0.04481372982263565, 0.05036877468228340, 0.00618136534467340, 0.03553521260619164, -0.04584319517016411, 0.00891327392309904, -0.00967208389192820, -0.07323103398084641, 0.01924062334001064, -0.04727521911263466, 0.00175021681934595, -0.14504037797451019, 0.00925499480217695, -0.06611298024654388, -0.08713843673467636, 0.02641888149082661, -0.03380673751235008, -0.00926484353840351, -0.02955703251063824, -0.04503045976161957, -0.00548655353486538, -0.00685771228745580, 0.05197033658623695, 0.07528252154588699, 0.00820869486778975, 0.01809572055935860, 0.06528292596340179, 0.05082767456769943, -0.00834520068019629, 0.00268523418344557, -0.01580961979925632, 0.04229163378477097, 0.06320814043283463, -0.09487711638212204, 0.01989256031811237, -0.07179304212331772, 0.00108638335950673, 0.05913083627820015, 0.02100515365600586, -0.00446137925609946, 0.02837453782558441, -0.00042716419557109, -0.01484373770654202, 0.00352559797465801, 0.04726268351078033, -0.05404008552432060, 0.00382185401394963, -0.00163399346638471, 0.10250258445739746, 0.14826704561710358, 0.10448202490806580, 0.00196403730660677, 0.07289851456880569, 0.00446993485093117, -0.08154376596212387, -0.01123823039233685, -0.02981180697679520, 0.05173621699213982, -0.01167128421366215, -0.02034348621964455, -0.07639283686876297, 0.00394764402881265, 0.04183717444539070, 0.01477227360010147, -0.01624603383243084, 0.00654935091733932, -0.06797888129949570, -0.00627565104514360, -0.08122960478067398, 0.07256599515676498, 0.02058020420372486, 0.06150759011507034, -0.15195947885513306, -0.00285030691884458, -0.06814637780189514, 0.01299351360648870, 0.00229741726070642, -0.00568549567833543, -0.06588285416364670, 0.02532019093632698, -0.01557048968970776, 0.00164269667584449, 0.02278039604425430, -0.05744728446006775, 0.05662392824888229, -0.02601758763194084, 0.05274619534611702, 0.06760273873806000, -0.08104308694601059, -0.00551127269864082, -0.03203479573130608, 0.00415590731427073, -0.00075974315404892, 0.06009957194328308, 0.01330653950572014, 0.02808725461363792, -0.00364342727698386, 0.01453157700598240, -0.17343185842037201, -0.08178368210792542, 0.12777610123157501, -0.00697666779160500, -0.06020270287990570, -0.06516258418560028, 0.01646960340440273, 0.13636204600334167, -0.06151982024312019, 0.06681260466575623, 0.08907057344913483, -0.01206689048558474, 0.05733992159366608, 0.00207756878808141, -0.01196936890482903, -0.00384116731584072, 0.03255666419863701, 0.01613874919712543, 0.10802341997623444, 0.09402429312467575, -0.09773476421833038, 0.02182356081902981, 0.06746609508991241, 0.10059572756290436, 0.05997833609580994, 0.06031484529376030, 0.21184462308883667, -0.00310685392469168, 0.00003890228617820, 0.01864483207464218, -0.04675963148474693, 0.01066578831523657, -0.02061127685010433, 0.01279392931610346, 0.07314150035381317, -0.02202234975993633, 0.04938796535134315, 0.11799732595682144, 0.03897070884704590, 0.00543104158714414, 0.06588250398635864, 0.02420359477400780, -0.10431392490863800, 0.03331393748521805, -0.01474629063159227, -0.04325612634420395, -0.05230486765503883, 0.01335260830819607, 0.08267900347709656, 0.06124161183834076, 0.07333052158355713, 0.00243470165878534, -0.00793468207120895, 0.00191827176604420, -0.11443164944648743, 0.05634752288460732, -0.00988128595054150, 0.04605178162455559, -0.02178027480840683, -0.01003065612167120, -0.06394132226705551, 0.02928319014608860, -0.03708732128143311, -0.00288745830766857, 0.05658178776502609, 0.03781907260417938, -0.00725009711459279, 0.07808383554220200, 0.04569737985730171, 0.09287026524543762, -0.11828933656215668, -0.03240133821964264, -0.03347965329885483, 0.06007955223321915, -0.07472640275955200, 0.00144417281262577, 0.01927480846643448, 0.01337913703173399, 0.01380718965083361, 0.02699058130383492, -0.02663180790841579, -0.00823871884495020, -0.02934403903782368, -0.06823585182428360, 0.02816374413669109, -0.06544592976570129, 0.02614446543157101, 0.00160633376799524, -0.03422385454177856, 0.01011311728507280, 0.05303919315338135, -0.00041097225039266, 0.11637137830257416, 0.05958768352866173, 0.04698919132351875, -0.07263683527708054, -0.10568080842494965, -0.07179044187068939, -0.09567098319530487, -0.00015804561553523, 0.00032493038452230, -0.01721745170652866, -0.09319494664669037, 0.08942826837301254, -0.03518185764551163, -0.01730134524405003, -0.00659377500414848, 0.01878130249679089, 0.07866664230823517, -0.01567629724740982, 0.03239617869257927, 0.01141624152660370, -0.00318387639708817, -0.05456678941845894, -0.05721969157457352, -0.02917487546801567, -0.07114469259977341, -0.10819608718156815, 0.05680847913026810, -0.05732747539877892, -0.09964451193809509, -0.00562755018472672, -0.11854178458452225, -0.00199028570204973, -0.00403258111327887, 0.08305437862873077, -0.07735989242792130, 0.02825176157057285, -0.01163537427783012, -0.01099035516381264, 0.02173753827810287, -0.03501369804143906, 0.01579174958169460, -0.02375021949410439, 0.06686685234308243, 0.00056054769083858, -0.01082018110901117, 0.02456503175199032, -0.03716379404067993, 0.03843716904520988, -0.01086762361228466, -0.09544045478105545, 0.15113098919391632, -0.01167104486376047, 0.02472292631864548, -0.04090386256575584, -0.01426529325544834, 0.00898080877959728, -0.07146851718425751, 0.04299451410770416, 0.07296291738748550, 0.11251903325319290, 0.10866649448871613, 0.14016117155551910, -0.00999472104012966, -0.11951168626546860, -0.03615648299455643, -0.04477588832378387, -0.07258965820074081, -0.00458351941779256, -0.01734640821814537, 0.00741464970633388, 0.05226142704486847, -0.01574920304119587, -0.04075750336050987, -0.04004970192909241, 0.02267164364457130, -0.03389414772391319, -0.00099553109612316, -0.01774974353611469, -0.05244073644280434, 0.00841154716908932, -0.04349866509437561, -0.06708031147718430, -0.02055333182215691, -0.02896541543304920, 0.03260452300310135, -0.08478425443172455, 0.05503293499350548, -0.03133979439735413, -0.05271469056606293, -0.08560814708471298, -0.06896893680095673, 0.00492704520002007, -0.02895274758338928, -0.05690305680036545, -0.00069296278525144, -0.06631285697221756, 0.05607695877552032, 0.00087573402561247, -0.04143967106938362, 0.00715063279494643, 0.07193379104137421, -0.02417545579373837, -0.05174044892191887, 0.00618762383237481, 0.04720086976885796, -0.03687679395079613, 0.02473757416009903, -0.00776315387338400, 0.04976623132824898, 0.21856263279914856, -0.08779484778642654, 0.00128036679234356, -0.10672825574874878, -0.01915416494011879, -0.02908252179622650, -0.00254998751915991, -0.01431086007505655, -0.02781344391405582, -0.04447495192289352, -0.04468210786581039, -0.03567974269390106, -0.12503795325756073, 0.06804776191711426, -0.01898103952407837, 0.01714831031858921, 0.01558950170874596, 0.03236136585474014, 0.00041487510316074, 0.05061437189579010, 0.01321918796747923, 0.07256769388914108, -0.04308882355690002, 0.10602308809757233, -0.03814951702952385, -0.06842605769634247, 0.06991825997829437, 0.01093659549951553, 0.03865704312920570, -0.02192522771656513, -0.00077528425026685, -0.00953278969973326, -0.00054206087952480, 0.04906054958701134, 0.06626613438129425, 0.05906192585825920, -0.08035772293806076, -0.03636815398931503, 0.13680812716484070, -0.04775295034050941, -0.09942030906677246, 0.04547012597322464, -0.00217786128632724, 0.01073044911026955, 0.05716101452708244, -0.01255038660019636, 0.00582167226821184, -0.07370857149362564, -0.01045676972717047, -0.05211500078439713, -0.01095325406640768, -0.04898319020867348, -0.01795005239546299, -0.03071378171443939, 0.00747757218778133, 0.02008814550936222, 0.06753424555063248, -0.04727124795317650, -0.05207713693380356, 0.00203736685216427, 0.00147144589573145, -0.04543799161911011, -0.00811686739325523, -0.12008971720933914, -0.09667151421308517, 0.01825645938515663, 0.00254379841499031, 0.05660346895456314, -0.02423757314682007, -0.01860697939991951, 0.02803894877433777, 0.12980440258979797, -0.07741290330886841, -0.07414215803146362, 0.05306233838200569, -0.08531262725591660, 0.02481086924672127, -0.07123305648565292, 0.00692497845739126, 0.02628497593104839, 0.05411576479673386, 0.00061749404994771, -0.05442286655306816, 0.00764822447672486, 0.01589294523000717, -0.13910971581935883, 0.03471621498465538, 0.15410374104976654, 0.00418416829779744, 0.12028950452804565, 0.00293647102080286, 0.08609291166067123, -0.15291139483451843, -0.06155543029308319, -0.01686568185687065, 0.08479710668325424, 0.01287980005145073, 0.02116888947784901, -0.17417551577091217, -0.08826921135187149, 0.03062653541564941, -0.00159867480397224, 0.00039564864709973, 0.08786837756633759, 0.07129701972007751, -0.04048406332731247, 0.00165285542607307, -0.00610405998304486, -0.04047261551022530, -0.00238560000434518, -0.07769649475812912, 0.04291787371039391, 0.02275599353015423, -0.06197297573089600, -0.00556842144578695, -0.01341266930103302, -0.05475587770342827, 0.05017932876944542, -0.05737627670168877, 0.15348890423774719, 0.13459208607673645, 0.11014568805694580, 0.08786332607269287, -0.02647504396736622, 0.01992087811231613, -0.08809463679790497, 0.00077637523645535, 0.01515079475939274, 0.02840853109955788, -0.07315356284379959, -0.07101670652627945, -0.05697507411241531, 0.13633775711059570, -0.02709233202040195, -0.01514886785298586, 0.03375801444053650, 0.04677629470825195, 0.03485554084181786, -0.00448291422799230, 0.08362932503223419, -0.01232520677149296, 0.02656458131968975, 0.01179148349910975, -0.11449918895959854, -0.05842195451259613, 0.01910774409770966, 0.06393707543611526, 0.16275776922702789, -0.03713721409440041, 0.02500386349856853, -0.00064085394842550, 0.00689663225784898, -0.02266620472073555, 0.03923131525516510, 0.02194921299815178, 0.00607213145121932, -0.04082915931940079, -0.10614836215972900, 0.07427073270082474, 0.05357096344232559, 0.04538954794406891, -0.03964453563094139, -0.00658953702077270, 0.02145233191549778, -0.04181706905364990, -0.02517468295991421, 0.02192305587232113, -0.00637552794069052, 0.05082369968295097, 0.06751044094562531, -0.12901784479618073, -0.20924869179725647, -0.02207382768392563, -0.04674572125077248, -0.00310503458604217, 0.09656982123851776, -0.03589991852641106, -0.09033662080764771, -0.02398126572370529, 0.00164532754570246, 0.02112071588635445, 0.04016516357660294, -0.00003638543421403, 0.03125927224755287, 0.06196302920579910, -0.02539749443531036, -0.00365837174467742, 0.01645228266716003, 0.01331249624490738, -0.01357072032988071, 0.00836859457194805, -0.09078576415777206, -0.04266284406185150, 0.06993013620376587, -0.03466838225722313, 0.21014031767845154, 0.08347985148429871, -0.00183239520993084, 0.00287896441295743, 0.00842197425663471, -0.01247596088796854, 0.03187205269932747, -0.06331933289766312, -0.02454329840838909, -0.05533973127603531, 0.02597249113023281, -0.06817412376403809, -0.00853038765490055, -0.04233030974864960, 0.08489558845758438, -0.00205790577456355, -0.00855483487248421, -0.08383752405643463, 0.00835549924522638, 0.05056231096386909, -0.04989013075828552, 0.04310511797666550, 0.00188310910016298, 0.08616119623184204, -0.04290248826146126, 0.00963541120290756, 0.02944589033722878, 0.00110168068204075, -0.05746685713529587, 0.01400143560022116, -0.06047880649566650, 0.00211503775790334, -0.01877034083008766, -0.07427576184272766, 0.10289312899112701, 0.01801490411162376, 0.02862918004393578, 0.00036075228126720, 0.03972094506025314, 0.00345030263997614, -0.01643400639295578, 0.00513079296797514, -0.03022879734635353, -0.02901300229132175, -0.09495171159505844, 0.01745177805423737, 0.06988704949617386, 0.08989627659320831, -0.07209854573011398, -0.07511587440967560, 0.11821699887514114, 0.00011929370521102, -0.03694665804505348, 0.05865622311830521, 0.00188889144919813, -0.10246805101633072, 0.02591831423342228, -0.04422437399625778, 0.02076289430260658, 0.01017094310373068, -0.01158799324184656, -0.01356254890561104, -0.03947687894105911, -0.00274542905390263, 0.00540122203528881, 0.04284911230206490, -0.05681067332625389, -0.08203991502523422, 0.04727109521627426, 0.07089813053607941, 0.05116881430149078, 0.03772441297769547, -0.06311632692813873, 0.01012608502060175, -0.02585400082170963, -0.00974371936172247, 0.04109971970319748, 0.00873892195522785, -0.00366365839727223, -0.00090326002100483, -0.00735372677445412, -0.01160094887018204, 0.00245269667357206, 0.07812869548797607, 0.03283867239952087, -0.01989577151834965, -0.00056963489623740, -0.00709084095433354, -0.00162330269813538, 0.06083429604768753, 0.09007300436496735, -0.06105324253439903, 0.01734542101621628, -0.07638860493898392, -0.03844086825847626, 0.01151895616203547, -0.03848837688565254, 0.04627369716763496, 0.04268706589937210, 0.00569074694067240, 0.01984159834682941, 0.01533944904804230, -0.01635913923382759, 0.00189994345419109, -0.01360705122351646, -0.06708971410989761, 0.08875960856676102, -0.05967864766716957, -0.13868354260921478, 0.10133261978626251, -0.08738819509744644, 0.00211050198413432, -0.09251785278320312, -0.04546689987182617, 0.00617597205564380, 0.03489381074905396, 0.19833210110664368, 0.05881776288151741, 0.07101111859083176, 0.01652129553258419, -0.00009622096695239, -0.07720585912466049, -0.34391877055168152, -0.00310996640473604, -0.00754700554534793, 0.06757352501153946, -0.00663420744240284, 0.01128394063562155, 0.00739733502268791, -0.08881566673517227, 0.05444774031639099, 0.01341679878532887, 0.16316208243370056, -0.05502143129706383, -0.00173430016729981, 0.00312026962637901, -0.00063133792718872, -0.04422144591808319, 0.02791314944624901, 0.05970943719148636, 0.02889580279588699, -0.01242662034928799, -0.05211622640490532, 0.02413894608616829, -0.03202529251575470, -0.03042630478739738, 0.04331238940358162, 0.00948650110512972, 0.08006382733583450, -0.07045826315879822, 0.06342458724975586, 0.06093938648700714, 0.07906638085842133, -0.01187649928033352, 0.05664454400539398, -0.01952969469130039, -0.10588643699884415, 0.07686611264944077, -0.08456245809793472, -0.00104109640233219, 0.05558905377984047, 0.06465817987918854, -0.01280053518712521, 0.09133110195398331, 0.01442900858819485, 0.06108069419860840, -0.02393680624663830, -0.01158813200891018, 0.02610982954502106, 0.01061755884438753, -0.04716002941131592, -0.00136366405058652, -0.04374513030052185, -0.10358731448650360, 0.05202030390501022, 0.00917349942028522, 0.07572558522224426, 0.09860086441040039, -0.12570382654666901, -0.06695796549320221, 0.04416837170720100, -0.05729535594582558, 0.07991117984056473, -0.00740407733246684, 0.01449840236455202, 0.08016467839479446, -0.03633942827582359, -0.09702692180871964, -0.02507844381034374, 0.10779669880867004, 0.10513655096292496, 0.03800415992736816, 0.04295361042022705, -0.05418315157294273, -0.01416246406733990, -0.00845841970294714, -0.10315200686454773, 0.02318524383008480, 0.08802376687526703, 0.07432916760444641, 0.09910509735345840, 0.03813613578677177, 0.08040419220924377, 0.08190610259771347, 0.04119572043418884, 0.00791002344340086, 0.01331118866801262, 0.00257245218381286, -0.03477943316102028, 0.02610298991203308, 0.00268223392777145, -0.05411072820425034, 0.02548331022262573, 0.05558969825506210, -0.09500586241483688, 0.03766244277358055, -0.04236453399062157, -0.02333242632448673, -0.03989476710557938, 0.00016548408893868, -0.05841730907559395, -0.06604553014039993, 0.07111159712076187, -0.14060646295547485, 0.04408529028296471, -0.06420008838176727, 0.02155135758221149, -0.02743875980377197, 0.04404376074671745, 0.00366125255823135, -0.01276547554880381, -0.00638026371598244, 0.03392980620265007, 0.00218207668513060, 0.03305437043309212, 0.01124593243002892, 0.04035981371998787, -0.09029824286699295, -0.07926220446825027, 0.04517837613821030, 0.07458394020795822, -0.10467950254678726, 0.05444595217704773, -0.00147010094951838, 0.08817010372877121, 0.00829247944056988, 0.04665411263704300, -0.02098119445145130, 0.05116544663906097, -0.08857294172048569, 0.08471528440713882, 0.10345692932605743, 0.04665076360106468, 0.03226850926876068, -0.01242828182876110, 0.00115936913061887, 0.03114685229957104, -0.01179372984915972, 0.01725946553051472, -0.00921527389436960, 0.01662297360599041, -0.00190153741277754, 0.01560126803815365, -0.06121625378727913, 0.03820894286036491, -0.09031334519386292, 0.02636021748185158, 0.00254919705912471, 0.01061307545751333, -0.02516357786953449, 0.00310786347836256, -0.04145361483097076, -0.02718122489750385, 0.00213644141331315, 0.02674175426363945, -0.08509361743927002, -0.00375204300507903, -0.12643472850322723, 0.02124037221074104, 0.00527956057339907, -0.00878465920686722, -0.01021307986229658, -0.00255203084088862, 0.08731959015130997, -0.01582725346088409, 0.02318400144577026, 0.05732792243361473, -0.09103622287511826, 0.06771089136600494, -0.01004216168075800, 0.15465950965881348, -0.00102147262077779, 0.04673922061920166, 0.05208160355687141, -0.03948159143328667, -0.04954679310321808, 0.04687126725912094, 0.02122823521494865, 0.01531098969280720, -0.11848052591085434, 0.08082777261734009, -0.00666268263012171, 0.06037951633334160, -0.00418234942480922, 0.02247726917266846, -0.00947015266865492, 0.05661943182349205, -0.02908877097070217, 0.00398868694901466, 0.05655758082866669, -0.03621813654899597, 0.03334069997072220, 0.01218338683247566, -0.01788446307182312, 0.04126221686601639, 0.00422967923805118, -0.09556603431701660, 0.04280785471200943, -0.03847342357039452, 0.01545659732073545, -0.03699987381696701, -0.27159056067466736, -0.06094685941934586, -0.00343842199072242, -0.08622280508279800, 0.05217219889163971, 0.01142905186861753, -0.00156942859757692, -0.04446874558925629, -0.00940395891666412, 0.08668779581785202, -0.05393455177545547, 0.09214887022972107, 0.00568238785490394, 0.01457416545599699, -0.05356442555785179, 0.02692575193941593, -0.00210497085936368, -0.04310077801346779, 0.00226554810069501, -0.01829238608479500, 0.01279093232005835, 0.01826554536819458, 0.03671669214963913, -0.02978514507412910, 0.07404978573322296, 0.01314386632293463, -0.00689746672287583, 0.13445660471916199, -0.03231322020292282, -0.10298754274845123, -0.00285233464092016, -0.11456882953643799, 0.04361161962151527, 0.10394697636365891, -0.02651444450020790, -0.15409936010837555, 0.13560625910758972, -0.10498361289501190, 0.02569743245840073, 0.02834503166377544, 0.03744219616055489, -0.00388765125535429, 0.00466413004323840, 0.06508110463619232, 0.04424874112010002, -0.03862928226590157, 0.07095950096845627, 0.07076230645179749, -0.03122055158019066, -0.13854210078716278, -0.04237063601613045, 0.01972309313714504, 0.04602091759443283, 0.00301053072325885, -0.00289407488889992, 0.04111735150218010, 0.01587628945708275, -0.05513294041156769, -0.07489802688360214, 0.01706391386687756, -0.11195890605449677, -0.00803049746900797, 0.08893465995788574, 0.06335436552762985, 0.03413829952478409, -0.04925304651260376, -0.00732935266569257, 0.03532736003398895, 0.04429931193590164, -0.03917969018220901, -0.04598774015903473, 0.01328547671437263, -0.14880022406578064, -0.07631190866231918, -0.03945057466626167, -0.07680289447307587, 0.02334005571901798, 0.03625318035483360, -0.00147977622691542, -0.02758966945111752, -0.00917424913495779, -0.00092084263451397, -0.03832248598337173, 0.06787524372339249, -0.01537120155990124, 0.06317188590764999, 0.07628829032182693, 0.04539036750793457, 0.04689485207200050, -0.01375879161059856, 0.00614530919119716, -0.02158999443054199, 0.03693549335002899, 0.05718789249658585, 0.06476999074220657, 0.02374531514942646, 0.05110209807753563, -0.00890558958053589, 0.01474788878113031, 0.00160046759992838, -0.02738666348159313, -0.03195367008447647, 0.00630172528326511, -0.06440722197294235, -0.01544378325343132, 0.05934282019734383, 0.05583846196532249, 0.07961250096559525, -0.01708500087261200, 0.07230202853679657, -0.08159652352333069, 0.03576539456844330, 0.01684949919581413, -0.07277221977710724, 0.00091648049419746, 0.00602623354643583, 0.00977073982357979, 0.01643835753202438, 0.01301751285791397, 0.07522390782833099, 0.01048206631094217, -0.01947133243083954, -0.00136220164131373, -0.09528747200965881, -0.03054474852979183, -0.03962463885545731, 0.00630168663337827, 0.01245920732617378, 0.03513994067907333, -0.03872139006853104, -0.01232929900288582, -0.10875604301691055, 0.06633975356817245, -0.04128574952483177, -0.00133018044289201, 0.09441420435905457, 0.03889929503202438, -0.06301737576723099, -0.00257462076842785, -0.11613374203443527, 0.01235750690102577, 0.14198289811611176, -0.11959542334079742, 0.03030903451144695, -0.01062904018908739, -0.04498798400163651, -0.04078680276870728, 0.01952545903623104, -0.03980795666575432, -0.01074976474046707, -0.00761622004210949, 0.02150052413344383, -0.01808275282382965, -0.02709974721074104, -0.03806085139513016, 0.02149719744920731, -0.01220527663826942, 0.04086723178625107, -0.03910177946090698, -0.02620351873338223, -0.03665643930435181, 0.04630154371261597, 0.00395788718014956, -0.03080934844911098, -0.01575710810720921, 0.03867029398679733, -0.05098631605505943, -0.03749716654419899, -0.10593836754560471, -0.07523946464061737, 0.17348657548427582, 0.07429733872413635, -0.01435781922191381, 0.07141086459159851, -0.00380227318964899, 0.09594663977622986, -0.00491969566792250, -0.01440036576241255, 0.05487772449851036, 0.03419147059321404, 0.01477865688502789, -0.01781996898353100, -0.03263323381543159, -0.11568277329206467, -0.10392624884843826, 0.08191409707069397, 0.00462346337735653, 0.03178309649229050, -0.02819413319230080, -0.03738126531243324, -0.03392469882965088, -0.05204321071505547, 0.00891117751598358, 0.10036966204643250, -0.01648939959704876, -0.19919282197952271, -0.02893580123782158, -0.01012057438492775, -0.00630698120221496, 0.05783391371369362, -0.02118441648781300, -0.08036794513463974, -0.05863532423973083, -0.09805089235305786, 0.03258241340517998, -0.00452111521735787, 0.02020513638854027, -0.03091268986463547, -0.03910131752490997, 0.00567597569897771, -0.00543535081669688, 0.00775009253993630, -0.02695262990891933, 0.04549427703022957, -0.01003162842243910, 0.04353778064250946, -0.00379766896367073, -0.02485153637826443, -0.03453676030039787, 0.02527028881013393, 0.02090107463300228, 0.00407732650637627, -0.00274640414863825, -0.01721467822790146, 0.03263046965003014, -0.02077875845134258, 0.00798833463340998, -0.01721679605543613, 0.08532193303108215, -0.06156667694449425, -0.01353155635297298, 0.07623742520809174, -0.00462717516347766, -0.01171007379889488, -0.00284483563154936, -0.02457197010517120, 0.02699162811040878, -0.02712895348668098, 0.04887683689594269, 0.02076319977641106, -0.03982098400592804, 0.02686187811195850, 0.03291701897978783, -0.02240245789289474, -0.03210188448429108, -0.04336113482713699, -0.00893489457666874, 0.03279884532094002, -0.01496473141014576, 0.04902609810233116, 0.03491004556417465, 0.03676911070942879, 0.08653430640697479, -0.06069872900843620, -0.00176616467069834, 0.14595437049865723, 0.05502863600850105, -0.04607051610946655, 0.00255868979729712, -0.00970311276614666, 0.00894569512456656, -0.05414848402142525, -0.02735229395329952, -0.10851500928401947, -0.02149311266839504, 0.06670340895652771, 0.03415424749255180, 0.20544014871120453, 0.04147344455122948, 0.08721073716878891, 0.00472529465332627, -0.00182715128175914, -0.01405772008001804, 0.05669946968555450, -0.02105461619794369, -0.06184047833085060, 0.02054031938314438, -0.00393927935510874, 0.08805752545595169, -0.00815417710691690, 0.02739969454705715, 0.04377991706132889, -0.00165044388268143, -0.03305213525891304, -0.11377160996198654, -0.02240341529250145, 0.05948818475008011, -0.04575202614068985, -0.00304471468552947, 0.01621474139392376, -0.00305768661201000, 0.00033876596717164, 0.03688180446624756, 0.13761949539184570, 0.00348413176834583, 0.04789270088076591, -0.04035563394427299, 0.05076533183455467, 0.20766882598400116, -0.07448036223649979, 0.00127604871522635, -0.02587994188070297, 0.07379832863807678, -0.08679436147212982, -0.05127321556210518, 0.13034884631633759, -0.00333989085629582, -0.02733532525599003, -0.00101353542413563, 0.03163775801658630, -0.01623831875622272, 0.06215554848313332, -0.09016648679971695, 0.06557133793830872, 0.05835206806659698, 0.00640727672725916, 0.01483432576060295, -0.09088933467864990, -0.00633376836776733, 0.08022665232419968, 0.04881605505943298, -0.07648611813783646, -0.05080842971801758, 0.15013064444065094, -0.12346514314413071, -0.05094682052731514, -0.02872610092163086, 0.04792633280158043, 0.04763359203934669, -0.07122935354709625, 0.00419031176716089, -0.08068876713514328, -0.00420947792008519, -0.02108305506408215, 0.03002493083477020, -0.05683340132236481, -0.09445378929376602, -0.02584796212613583, 0.02017249912023544, 0.00372785632498562, 0.00979014113545418, -0.02780868299305439, -0.00134381873067468, 0.02961444295942783, -0.00880495645105839, -0.07344835251569748, -0.04213800653815269, 0.00360394013114274, 0.17936572432518005, 0.01729498058557510, -0.01982554420828819, 0.06306552141904831, 0.10323445498943329, 0.08475467562675476, -0.00128514505922794, 0.00437937118113041, -0.00547832995653152, -0.04406106099486351, 0.01377587672322989, -0.00805399380624294, 0.08485090732574463, 0.00332679995335639, 0.03106173500418663, -0.01389862690120935, -0.00968334265053272, 0.00889569148421288, -0.00508777005597949, 0.10451660305261612, 0.04402408376336098, 0.11751958727836609, -0.05868196859955788, 0.07560090720653534, -0.16555133461952209, -0.03352671489119530, 0.03034659847617149, 0.02375180460512638, 0.02438262104988098, 0.01932147890329361, -0.00534922629594803, 0.07810050994157791, -0.05816966667771339, 0.04408491402864456, 0.01036218833178282, 0.06449119001626968, -0.08053936064243317, -0.01796332746744156, -0.01233673095703125, 0.08526004850864410, 0.03710228204727173, 0.03218619525432587, 0.00795181747525930, -0.03011277504265308, 0.01647501997649670, 0.03169940412044525, 0.02024398557841778, 0.00009770495671546, -0.03892034292221069, 0.00999950896948576, 0.03414721041917801, 0.04299557954072952, 0.00250836298801005, -0.01833514496684074, 0.00279588159173727, -0.02519075199961662, 0.01300512161105871, -0.00929074082523584, -0.04040165245532990, 0.01309812255203724, -0.02720922604203224, 0.04923679307103157, 0.00323521136306226, 0.04442052915692329, -0.05177871882915497, -0.08069928735494614, 0.00706199649721384, -0.05881826952099800, 0.02237558178603649, -0.01753476820886135, 0.08945465087890625, 0.01850712299346924, 0.05624017864465714, 0.06887930631637573, -0.00871336087584496, 0.06746710091829300, 0.08066490292549133, 0.01841499097645283, -0.00089056388242170, -0.05954956635832787, -0.00393628701567650, -0.04540831223130226, 0.07570855319499969, -0.04692644998431206, 0.12883947789669037, 0.00688712205737829, 0.05054653808474541, 0.00173124112188816, -0.06992517411708832, -0.03762755915522575, 0.00888138078153133, -0.02039793506264687, 0.01162001490592957, 0.00625927094370127, -0.06152041256427765, 0.00976303685456514, 0.01336139254271984, -0.00390015216544271, -0.07950412482023239, -0.04647276550531387, -0.01085937209427357, -0.08815515041351318, -0.00074216024950147, -0.03425759822130203, 0.01098115555942059, -0.05399915575981140, -0.02775862626731396, 0.01151298731565475, 0.04044579342007637, -0.06572846323251724, -0.08205721527338028, -0.04690666496753693, -0.02628967352211475, -0.04361651465296745, -0.00050730770453811, 0.05919552966952324, -0.03385816141963005, 0.00147722288966179, 0.05204666405916214, -0.04204462096095085, -0.06693924218416214, 0.12656885385513306, -0.03803660720586777, 0.06695786863565445, -0.03158574551343918, 0.16700506210327148, -0.00057854922488332, 0.00281674554571509, 0.00064839050173759, 0.05720616504549980, -0.06444949656724930, -0.04820090159773827, -0.04862334206700325, -0.08858573436737061, 0.04585388675332069, 0.09279693663120270, -0.03143973276019096, -0.05757741630077362, -0.00458656856790185, -0.03448904678225517, 0.03851284459233284, 0.03685472533106804, -0.05900625512003899, -0.04263290390372276, 0.08095970749855042, -0.02487637288868427, -0.06578170508146286, -0.06743793189525604, -0.06290866434574127, 0.02395194210112095, 0.00178802409209311, 0.03856439143419266, -0.05041674524545670, 0.10145498067140579, -0.01130494941025972, -0.06555652618408203, 0.03706869110465050, 0.09906837344169617, -0.07990547269582748, -0.02533521316945553, -0.05317106842994690, 0.04762305319309235, 0.01122525893151760, -0.00327522191219032, -0.01849147304892540, -0.04003662988543510, 0.01433630846440792, 0.04419599846005440, -0.05138803273439407, -0.04831023886799812, 0.01777938008308411, -0.06272326409816742, -0.03938366845250130, -0.01179792359471321, 0.00493772141635418, -0.01698410324752331, 0.00908712670207024, -0.03610172495245934, 0.01316661108285189, 0.10632254928350449, 0.03974862396717072, -0.01112682558596134, -0.03945444524288177, -0.01716654933989048, 0.06048923730850220, -0.12975072860717773, 0.00704092113301158, -0.00986445974558592, 0.05430033802986145, 0.00370790460146964, 0.08312335610389709, -0.08411611616611481, 0.12552265822887421, 0.03561282902956009, 0.04822963848710060, 0.11593893915414810, -0.02898961678147316, -0.03935198485851288, -0.00154981331434101, -0.04707314446568489, -0.01114143710583448, 0.02498764730989933, -0.00168949901126325, 0.03911544755101204, -0.12132924050092697, -0.03579749166965485, 0.02792001329362392, 0.05897654592990875, -0.06573396921157837, -0.05231747031211853, 0.00408034492284060, -0.01244810316711664, -0.00791098922491074, -0.01830742880702019, 0.03563963621854782, 0.00995242595672607, 0.04730021581053734, 0.08621115982532501, -0.00630148500204086, -0.10439018905162811, -0.02096520550549030, -0.02234997227787971, -0.00822894740849733, -0.04752476885914803, 0.01720348000526428, -0.04879422485828400, -0.02767697907984257, -0.07478665560483932, 0.01180552970618010, -0.11526224017143250, 0.04811563342809677, 0.03338833898305893, 0.04574215039610863, -0.00073641235940158, -0.00937987398356199, 0.08953560888767242, 0.13026715815067291, -0.04585127159953117, -0.04034740850329399, -0.08380355685949326, 0.03612323850393295, 0.00123782712034881, -0.02415082976222038, 0.04863651096820831, -0.00863497704267502, 0.04608850181102753, 0.00348427845165133, 0.02253352850675583, -0.06690177321434021, 0.06567513197660446, -0.00781966838985682, -0.13574486970901489, 0.03662956506013870, 0.05322400480508804, 0.05375907197594643, 0.11614483594894409, -0.01844807900488377, -0.02289931476116180, 0.00125239219050854, 0.07155431807041168, 0.03503614664077759, -0.00896205380558968, -0.08485952764749527, 0.00017939120880328, 0.01722669228911400, -0.07902403920888901, 0.05287453532218933, -0.00491263624280691, -0.08545477688312531, 0.04239837080240250, -0.00062694179359823, -0.00803424231708050, -0.10752701014280319, -0.05140639096498489, -0.09207858890295029, 0.08283488452434540, 0.07048004865646362, 0.00730001367628574, 0.10889595001935959, -0.01763329282402992, -0.02685459889471531, -0.09361837804317474, 0.00194233481306583, 0.01539205200970173, -0.01198087353259325, -0.05291087180376053, -0.05208669230341911, -0.05898806825280190, 0.01175521407276392, -0.03179936110973358, -0.04510058462619781, 0.03811215236783028, -0.04128441214561462, 0.03130303695797920, -0.00551394000649452, 0.10724875330924988, 0.03033446706831455, -0.07003053277730942, -0.02630516514182091, -0.05747975409030914, -0.05128024145960808, -0.07053822278976440, -0.05920961126685143, -0.12542945146560669, 0.02706140279769897, -0.00686282385140657, 0.00126915075816214, 0.03436228260397911, 0.01736046187579632, -0.06052913516759872, -0.00605242466554046, -0.01572006382048130, -0.01661630906164646, -0.01321773976087570, 0.01832172274589539, 0.08453135937452316, 0.02510414831340313, 0.01513692736625671, 0.01188433170318604, -0.05451499298214912, 0.01279584411531687, -0.03823017701506615, 0.08945413678884506, -0.06552439182996750, 0.09842807054519653, 0.03025501780211926, 0.01937328279018402, -0.00241073314100504, -0.06257804483175278, 0.08760763704776764, -0.00471492158249021, 0.01531779021024704, -0.04682076722383499, -0.02197886072099209, 0.02431217022240162, 0.02119489014148712, -0.05596650764346123, -0.11836700141429901, -0.02331471256911755, -0.05724415555596352, 0.09864047169685364, 0.01317624654620886, 0.00526339327916503, -0.00728241447359324, -0.00287009961903095, -0.01251277700066566, -0.03169751912355423, 0.03580355644226074, 0.02954257465898991, -0.02399322018027306, -0.03107675909996033, 0.01488438993692398, 0.05048421770334244, -0.03394665196537971, -0.00385048775933683, 0.00373269524425268, -0.08658994734287262, 0.00509446579962969, 0.04119616746902466, -0.05601700395345688, 0.20397664606571198, 0.09692502766847610, -0.07927200943231583, -0.03434935212135315, -0.04288025945425034, -0.00810218136757612, 0.00428887456655502, -0.01902524568140507, -0.00866608228534460, -0.00772969890385866, -0.01722470112144947, -0.07207816839218140, 0.03658995404839516, -0.02704558894038200, -0.09295355528593063, -0.00788650661706924, -0.04065828770399094, 0.10291000455617905, -0.00553263537585735, 0.05589039251208305, -0.06839386373758316, 0.04839665815234184, 0.01365367881953716, -0.06574115902185440, -0.11968331784009933, 0.01814124546945095, 0.04496903344988823, 0.00800107233226299, -0.02704621478915215, 0.06945575773715973, -0.00472063012421131, 0.00496031297370791, 0.00265341554768384, -0.08343154937028885, 0.09258345514535904, 0.07704339176416397, -0.02192804403603077, -0.06150243803858757, -0.05191424116492271, -0.08841265738010406, 0.08515624701976776, -0.12358627468347549, -0.00140938581898808, 0.06920514255762100, 0.00110385869629681, -0.00509379897266626, -0.00172947766259313, -0.01218918152153492, -0.00653533590957522, 0.03911196440458298, -0.03243004903197289, -0.07674189656972885, 0.05091859027743340, 0.05819189921021461, -0.00632342835888267, 0.01697710901498795, 0.06682049483060837, -0.11931394040584564, 0.09107305109500885, 0.00225838925689459, -0.12973114848136902, 0.01502033695578575, -0.00432960083708167, -0.07485615462064743, 0.03013190254569054, -0.04962818697094917, -0.00273551908321679, -0.00680725136771798, 0.06687647104263306, -0.00218887277878821, -0.05465338751673698, 0.04593938589096069, -0.03475052490830421, 0.03632571920752525, -0.03588783368468285, -0.01653073169291019, -0.01348368078470230, 0.05069044604897499, 0.00016403527115472, -0.01117859128862619, 0.07346744835376740, 0.05526594817638397, -0.07653601467609406, -0.02598535083234310, -0.00703894160687923, 0.00409119855612516, -0.04821399971842766, -0.13639475405216217, -0.10302694886922836, 0.06898613274097443, 0.00653908029198647, 0.00739157758653164, 0.05636353418231010, -0.07153287529945374, 0.06285712867975235, -0.07100500166416168, 0.10878844559192657, 0.01466039102524519, 0.04900478199124336, 0.02786431275308132, 0.05887694284319878, 0.06645210087299347, 0.00063820002833381, -0.01292630005627871, -0.01708639040589333, -0.00759855937212706, -0.04000576958060265, 0.02303523011505604, 0.05171488597989082, -0.01094864122569561, -0.02459969557821751, -0.10183942317962646, -0.00278507312759757, 0.03413991630077362, -0.00000224588984565, -0.04432876780629158, 0.01730510033667088, 0.08230690658092499, 0.11755795031785965, -0.03874402493238449, 0.00098948064260185, 0.09632302820682526, -0.06356856971979141, -0.03286142274737358, -0.04129159823060036, 0.09765063226222992, 0.00580381182953715, 0.03468427807092667, -0.03192627802491188, 0.10705839842557907, -0.01458429265767336, 0.00904609076678753, -0.04427149519324303, -0.01561918761581182, -0.03394625708460808, 0.06358724087476730, 0.04307077080011368, -0.02716100588440895, 0.00064240780193359, 0.07575988024473190, -0.00710682477802038, 0.08098544180393219, -0.05070122331380844, 0.03417490795254707, -0.10177509486675262, -0.08114776015281677, -0.02240049652755260, -0.06357938051223755, 0.08122434467077255, 0.02441645599901676, -0.00724524213001132, 0.02432482875883579, 0.00645464798435569, -0.03353293240070343, 0.00015805507428013, 0.01524136681109667, 0.07345828413963318, 0.02249045111238956, -0.01430413965135813, -0.07809829711914062, -0.07699132710695267, 0.02490633726119995, -0.00201415014453232, -0.01875692792236805, -0.05139954388141632, -0.07023591548204422, 0.01531430799514055, -0.03285947069525719, -0.18504545092582703, 0.02063168771564960, -0.00952879060059786, -0.05590097606182098, -0.04121236875653267, -0.04440862312912941, 0.00019404213526286, -0.07793153822422028, -0.04738418385386467, 0.00045459376997314, -0.10140378028154373, -0.11257939040660858, 0.02573117613792419, 0.04592398554086685, 0.00531780766323209, 0.03235560283064842, 0.03278302401304245, 0.06076581776142120, 0.00020382153161336, -0.01776069030165672, 0.03970519080758095, 0.10790169984102249, -0.03460805863142014, -0.00412819348275661, -0.01284712459892035, -0.02948035113513470, -0.04947776719927788, -0.03576928004622459, 0.02770664729177952, 0.05594355985522270, -0.00338697899132967, 0.07302831113338470, -0.02017130702733994, 0.01152169890701771, 0.14758956432342529, -0.00563940685242414, 0.09688767790794373, 0.02251954935491085, -0.05958784744143486, -0.04048272594809532, -0.02842569909989834, -0.03457734361290932, -0.00581393111497164, -0.12810698151588440, -0.03079004399478436, 0.01868957281112671, 0.05198551714420319, -0.02162308059632778, 0.11378218233585358, -0.11935096979141235, 0.06230833753943443, -0.01145613472908735, 0.09620381146669388, 0.01417347323149443, -0.00943445600569248, 0.09331875294446945, -0.00719830533489585, 0.02757771126925945, 0.07837414741516113, 0.05101754888892174, -0.09481149911880493, -0.06009364128112793, -0.05615215376019478, 0.00082353601465002, 0.00804327521473169, 0.09336023777723312, -0.00516437506303191, -0.01535720750689507, 0.09491849690675735, -0.03107253834605217, -0.07735143601894379, 0.08111590892076492, -0.00359758851118386, -0.12126240134239197, 0.05663233622908592, 0.09315671771764755, 0.00142326788045466, 0.04366922006011009, 0.01234260760247707, 0.06907493621110916, 0.00032074699993245, -0.00991743244230747, -0.08349263668060303, 0.08605779707431793, -0.12547141313552856, -0.06736550480127335, -0.12320998311042786, -0.02752934210002422, 0.00369176035746932, -0.03574890270829201, 0.00933701079338789, 0.01404546387493610, -0.08094558864831924, 0.02770915441215038, -0.02150246314704418, -0.23248715698719025, 0.04080308228731155, -0.07396697998046875, 0.02816357836127281, -0.05764234811067581, -0.05306322500109673, 0.26624187827110291, 0.00922768190503120, -0.06968647986650467, -0.12451643496751785, -0.06864278763532639, 0.00762334093451500, -0.06360833346843719, 0.06439518183469772, 0.01788813248276711, 0.09384336322546005, 0.03576093912124634, 0.02330865897238255, 0.07490678876638412, -0.00637816777452826, -0.00600045407190919, 0.01638314314186573, -0.04901500791311264, 0.04447299614548683, -0.06802478432655334, 0.05353716760873795, 0.05390607565641403, -0.00858309213072062, -0.07697109133005142, 0.00743835046887398, 0.12769228219985962, -0.00387383322231472, 0.00377383129671216, -0.05472400411963463, -0.00443877000361681, -0.03401463478803635, 0.07506479322910309, 0.08357028663158417, 0.03967468813061714, 0.07218451052904129, 0.01890903711318970, 0.06234759464859962, -0.06381528824567795, 0.00575891602784395, 0.03244611993432045, 0.03281453624367714, 0.01773882657289505, 0.01560674794018269, 0.06319305300712585, -0.02989200130105019, -0.03035671077668667, -0.03649882599711418, -0.02039793133735657, 0.07524587959051132, -0.02523711323738098, -0.00276984507218003, -0.00131128670182079, 0.09421758353710175, -0.01665228977799416, -0.02512116916477680, -0.06293279677629471, 0.03025513514876366, 0.09157978743314743, 0.02592293918132782, 0.12230426818132401, 0.08560361713171005, -0.01121471729129553, -0.00455314945429564, 0.00945267826318741, -0.00218581734225154, 0.05185018852353096, -0.00657054362818599, -0.06053879112005234, 0.11768557876348495, -0.00892634037882090, 0.04268644377589226, 0.00458887731656432, 0.02774086594581604, 0.05959091335535049, -0.00702872173860669, -0.06198426336050034, -0.08207492530345917, 0.00458117341622710, -0.00056314835092053, -0.06680417805910110, -0.02603179030120373, 0.05923176929354668, 0.06586948782205582, -0.01405124831944704, -0.02819141745567322, -0.01818790473043919, 0.00014628437929787, 0.02209048531949520, 0.00827766582369804, 0.02509254775941372, -0.02264337800443172, -0.05719758197665215, -0.05800495669245720, 0.03479476273059845, 0.03931945189833641, -0.10697626322507858, 0.05556355789303780, -0.06680160015821457, -0.00241598067805171, 0.00290644960477948, -0.02243851497769356, 0.08526501804590225, 0.01840604655444622, -0.08771628141403198, -0.07759077847003937, 0.02862589620053768, -0.11576333642005920, -0.03527559340000153, -0.01498926710337400, 0.07229270040988922, -0.00454042246565223, -0.01893410272896290, 0.00845057144761086, 0.00187733513303101, 0.01818709261715412, 0.07600525766611099, 0.09012131392955780, -0.06889280676841736, -0.01019745133817196, 0.03865280374884605, 0.07111416757106781, -0.09132475405931473, -0.00146469660103321, 0.04637258499860764, 0.03810593113303185, -0.00161696248687804, 0.06207433715462685, 0.04841888323426247, 0.08028636872768402, -0.02692353539168835, 0.05973615869879723, -0.07576618343591690, 0.06693848967552185, -0.04337066411972046, -0.00222651264630258, -0.01409339066594839, -0.00579182151705027, 0.02779126539826393, -0.05510400980710983, 0.03432481735944748, -0.04060528054833412, 0.01372876763343811, 0.05538589879870415, 0.09434640407562256, -0.11512467265129089, 0.09765655547380447, 0.00960850156843662, -0.03092347644269466, 0.05151086673140526, -0.01020122598856688, 0.01093054842203856, -0.03523650020360947, 0.04554915800690651, -0.02681967802345753, 0.12583677470684052, -0.01355700660496950, 0.02670821361243725, 0.00628832075744867, 0.00494657550007105, -0.05330710485577583, -0.05537302047014236, 0.00629374291747808, 0.02866267971694469, -0.05732566490769386, -0.07930040359497070, 0.02981441840529442, -0.01295124832540751, -0.06051108613610268, -0.04645980894565582, 0.00964693631976843, -0.00714068952947855, -0.07468729466199875, 0.09537979960441589, -0.04693948477506638, -0.06837993860244751, 0.00556132337078452, 0.01807250082492828, 0.12694004178047180, -0.04187088832259178, 0.06636090576648712, 0.01856853440403938, 0.02068450674414635, -0.00125828362070024, -0.03191734477877617, -0.07853085547685623, -0.04346980154514313, -0.02167508564889431, -0.05767782032489777, 0.00079632806591690, -0.03096447698771954, -0.11780638247728348, 0.12028363347053528, 0.02757708542048931, -0.05662662908434868, -0.00281257112510502, 0.01999503187835217, -0.08317610621452332, -0.02112515456974506, 0.08507103472948074, 0.05420350283384323, 0.01195097435265779, -0.10507647693157196, 0.05241999402642250, -0.10333336144685745, -0.04433904215693474, -0.01591227389872074, -0.00180248089600354, 0.14188483357429504, -0.01975112222135067, 0.05640666931867599, -0.03673836961388588, -0.06585795432329178, 0.05056183040142059, 0.03271644189953804, -0.11419859528541565, -0.03801839798688889, -0.01874687522649765, 0.01703866012394428, -0.00310271908529103, -0.02750167995691299, 0.02806652523577213, 0.00770897325128317, -0.08567609637975693, 0.07252913713455200, -0.06810387223958969, 0.05835691839456558, -0.00928753800690174, -0.19847391545772552, 0.05170193314552307, -0.05936676263809204, 0.00752947106957436, 0.04557435587048531, 0.09066921472549438, -0.01653015054762363, 0.01326370146125555, 0.07713991403579712, 0.01387504581362009, -0.01219165511429310, 0.03878410905599594, 0.08722261339426041, 0.03712632507085800, -0.05528184399008751, 0.00858770590275526, -0.04077405482530594, 0.02506947144865990, -0.10129328817129135, -0.04385343194007874, -0.05111592635512352, -0.02600903250277042, 0.03003322146832943, -0.00004296914630686, 0.13138958811759949, -0.04891551285982132, -0.06505786627531052, 0.01008328981697559, 0.05047520995140076, -0.07045979797840118, 0.00074741983553395, -0.00895001832395792, -0.01149804331362247, 0.03591094538569450, 0.04507627710700035, 0.08287894725799561, 0.02369529008865356, 0.05603799223899841, -0.09650678187608719, -0.00050733238458633, -0.03483212366700172, 0.02171491645276546, 0.05043194815516472, -0.00348918908275664, 0.05138860270380974, -0.01916715502738953, -0.01322130486369133, -0.05533844232559204, 0.03111027181148529, 0.01182403601706028, -0.02709593065083027, -0.00675653899088502, 0.04800503328442574, -0.01038068998605013, -0.04017428308725357, 0.03910595178604126, -0.06111184507608414, -0.04328669235110283, 0.04066604375839233, 0.05694700032472610, 0.04834885150194168, 0.02107678726315498, 0.07452074438333511, -0.00552340084686875, -0.03343912214040756, -0.05376870185136795, 0.04261287301778793, -0.08300708234310150, -0.06404173374176025, -0.04623993486166000, 0.05654362961649895, 0.08389994502067566, 0.05887630209326744, 0.01487540919333696, -0.00037929578684270, 0.00174783635884523, 0.02392432093620300, -0.00777606153860688, 0.00839420780539513, -0.01918313279747963, 0.02229948341846466, -0.05037159845232964, 0.05324049293994904, -0.01337121892720461, -0.15102721750736237, -0.02793555520474911, 0.06613825261592865, -0.00687226280570030, 0.05713815614581108, -0.03129772469401360, 0.01580538041889668, -0.04594042524695396, -0.02583306841552258, -0.15863455832004547, -0.07256263494491577, 0.08715353161096573, 0.06660555303096771, 0.00364160863682628, 0.02961198426783085, 0.00115517422091216, -0.00177830853499472, -0.00875523965805769, -0.06073206290602684, -0.01203798223286867, 0.00344878947362304, -0.12671224772930145, -0.00140337634366006, 0.05683178082108498, 0.05957003310322762, 0.08537519723176956, 0.01716939173638821, 0.00778645742684603, 0.00759208388626575, 0.08367391675710678, 0.02335682883858681, -0.01520484965294600, 0.01622097007930279, 0.06219327077269554, -0.01642750017344952, 0.02964927814900875, -0.05858687311410904, -0.02783732302486897, -0.08066965639591217, -0.00409497227519751, -0.09788955748081207, -0.00112124427687377, 0.01629609800875187, 0.01868330501019955, 0.21007950603961945, 0.10356459766626358, 0.08210773766040802, -0.00143158389255404, 0.06334668397903442, 0.05160607770085335, -0.17347970604896545, -0.00097323203226551, 0.01681320182979107, 0.02515898831188679, -0.07869453728199005, 0.00390048162080348, -0.06004422158002853, -0.08341664820909500, -0.04510936513543129, -0.07755780965089798, 0.00498583586886525, -0.02676824480295181, 0.02241568453609943, 0.00061010476201773, -0.06105780974030495, -0.03154645487666130, -0.06900420039892197, -0.09888409078121185, -0.08885468542575836, 0.13021312654018402, 0.03695769235491753, 0.06061821058392525, 0.00807925965636969, -0.03262449428439140, 0.10630716383457184, -0.01463607605546713, -0.04224297776818275, 0.12033929675817490, 0.10683851689100266, 0.02593674324452877, -0.03851155564188957, 0.02830316312611103, 0.01120942458510399, -0.03515971451997757, -0.02881092391908169, -0.02944906428456306, 0.03723137453198433, 0.00333374179899693, 0.08907471597194672, 0.00232679769396782, -0.02867786027491093, 0.13503304123878479, -0.06088795512914658, 0.05149490013718605, 0.05989580973982811, 0.08703103661537170, 0.04762171581387520, 0.06788552552461624, 0.00415550172328949, -0.00634931446984410, -0.10155730694532394, -0.10906485468149185, 0.03308832272887230, -0.04860521480441093, 0.00139483949169517, -0.02776760421693325, -0.03474789857864380, 0.12586586177349091, -0.11717424541711807, 0.02687667682766914, 0.01404525339603424, 0.00582808582112193, -0.03312568739056587, 0.10698889195919037, 0.05287820473313332, -0.05108859390020370, 0.02248569019138813, 0.01455147750675678, -0.03588537126779556, -0.08993241190910339, -0.04048994183540344, -0.06062507256865501, -0.06057289615273476, 0.00193543930072337, -0.01575534418225288, -0.04072210937738419, 0.00809851381927729, 0.00176441413350403, -0.03600381314754486, 0.06713929027318954, -0.02334118261933327, -0.04044957086443901, -0.08560918271541595, 0.06977792084217072, 0.01272230409085751, -0.00157907989341766, -0.04094275087118149, -0.03957983478903770, 0.06781855225563049, 0.09535012394189835, -0.02778979390859604, 0.08011829107999802, -0.10850500315427780, -0.08807381987571716, -0.05254586786031723, 0.00231421412900090, -0.05769750848412514, 0.00570008018985391, -0.07505231350660324, 0.04652397334575653, 0.03272360935807228, -0.06460896879434586, -0.04326721653342247, 0.04769001901149750, -0.00207802420482039, -0.00013457756722346, 0.03153315931558609, -0.08342102915048599, -0.07791082561016083, -0.00319502805359662, 0.00175174500327557, 0.02396102435886860, 0.03808899596333504, -0.00011259055463597, 0.00985123123973608, 0.03725178167223930, -0.02847232855856419, 0.04502140358090401, 0.05705186724662781, 0.03673533350229263, 0.01703698001801968, 0.04649752005934715, 0.04254592955112457, 0.09510513395071030, -0.03700426593422890, 0.00729118846356869, -0.00897564366459846, -0.03351472318172455, 0.01780505664646626, 0.07104496657848358, 0.00577122904360294, 0.05907772108912468, 0.01423682831227779, -0.05422052368521690, 0.01128178089857101, 0.01525673177093267, -0.02051585540175438, -0.00255266437307000, 0.05021191015839577, -0.05556567758321762, 0.00098318525124341, 0.04386230930685997, 