//Numpy array shape [192]
//Min -2.662957191467
//Max 1.297640204430
//Number of zeros 0

#ifndef BIAS59_H_
#define BIAS59_H_

#ifndef __SYNTHESIS__
layers_7_norm1_bias_t bias59[192];
#else
layers_7_norm1_bias_t bias59[192] = {0.174714401364326, -0.291453450918198, 0.141695037484169, -0.275765657424927, -0.380185276269913, 0.267133116722107, 0.133518368005753, -0.019139489158988, 0.020068388432264, 0.186362296342850, 0.134627759456635, -0.147253677248955, 0.190189436078072, -0.096381373703480, 0.136059015989304, 0.266475439071655, 0.096010029315948, 0.350515514612198, -0.070857480168343, 0.260408580303192, -0.208934515714645, -2.662957191467285, -0.167622894048691, -0.087098412215710, 0.164814874529839, -0.027466908097267, -0.027480123564601, 0.288888663053513, -0.379074126482010, -0.038758389651775, -0.069284804165363, 0.189310386776924, -0.014447461813688, 0.050127044320107, -0.194878429174423, 0.020024128258228, -0.157311663031578, -0.130073040723801, 0.103768169879913, -0.085907593369484, 0.119913168251514, 0.144789651036263, 0.174438595771790, -0.049444049596786, -0.077261313796043, -0.067574389278889, -0.104784518480301, 0.245009630918503, -0.061365704983473, -0.127277016639709, -0.344743877649307, 0.438608407974243, -0.204159513115883, -0.094936124980450, -0.825171947479248, 0.140391126275063, -0.094245240092278, -0.066731899976730, -0.023762222379446, -0.119224861264229, 0.182134762406349, -0.041088361293077, -0.037365507334471, -0.317369431257248, -0.026383401826024, 0.580904424190521, 0.505540549755096, -0.313988417387009, 0.258522748947144, -0.130376473069191, 0.042771384119987, -0.067805580794811, -0.232207030057907, 0.289279073476791, -0.301914155483246, -0.152852371335030, 0.435550451278687, 0.317934900522232, -0.045163404196501, 0.486416578292847, 0.193345651030540, 1.158256769180298, -0.256294161081314, 0.066346973180771, -0.052197676151991, -0.085124067962170, -0.046878121793270, 0.019120758399367, -0.053591452538967, -1.292406082153320, 0.160143420100212, -0.148227468132973, 0.582338035106659, -0.182441130280495, 0.125971749424934, 0.187875688076019, -0.118349097669125, -0.388337105512619, -0.064167506992817, -0.078115098178387, 0.011049873195589, -0.242837086319923, -0.122262626886368, 0.155533432960510, -0.102180279791355, 0.040267024189234, -0.105070240795612, 0.181454867124557, 0.203165560960770, -0.287093997001648, 0.002823874121532, 0.097929283976555, 0.068996116518974, -0.147899523377419, -0.086745284497738, 1.297640204429626, -0.226678073406219, 0.140248730778694, 0.135871693491936, 0.193888098001480, 0.545087695121765, 0.152105614542961, -0.066523984074593, 0.011163961142302, 0.172497510910034, 0.214793756604195, -0.151846602559090, -0.112928263843060, -0.424142301082611, 0.010865204967558, 0.247198119759560, -0.531476438045502, 0.208181515336037, 0.067261256277561, 0.133596807718277, 0.145345956087112, -0.461038053035736, -0.391520440578461, 0.125880688428879, 0.150110036134720, 0.050965562462807, 0.161604762077332, -0.229428708553314, -0.191553220152855, 0.279969394207001, -0.068049304187298, 0.343448668718338, -0.255142986774445, 0.119320258498192, -0.015494024381042, 0.132275134325027, -0.253783524036407, -0.154221996665001, 0.043527819216251, 0.085175760090351, 0.007522837258875, -0.015304341912270, 0.370657384395599, -0.206953465938568, 0.231531590223312, -0.234713599085808, 0.012683413922787, -0.294133216142654, -0.185476258397102, 0.818684995174408, 0.016208885237575, 0.200459644198418, -0.319790244102478, 0.216362357139587, -0.165940716862679, -0.103871881961823, -0.322818070650101, 0.039599161595106, 0.064571566879749, 0.109477899968624, -0.132459074258804, 0.035910986363888, 0.028906680643559, 0.062616899609566, -0.165092304348946, -0.091771259903908, -0.040928918868303, 0.319427847862244, 0.307472348213196, 0.050290979444981, 0.040345203131437, 0.223406448960304, 0.006812131032348, 0.610824286937714, 0.312726438045502, -0.274659872055054, 0.112714886665344};
#endif

#endif
