//Numpy array shape (36864,)
//Min -0.228148147464
//Max 0.216171994805
//Number of zeros 0

#ifndef OUT_PROJ_WEIGHT66_H_
#define OUT_PROJ_WEIGHT66_H_

#ifndef __SYNTHESIS__
layers_8_self_attn_out_proj_weight_t out_proj_weight66[36864];
#else
layers_8_self_attn_out_proj_weight_t out_proj_weight66[36864] = {-0.02818556, -0.03372241, -0.02813334, -0.10879873, -0.08263780, -0.05145472, 0.06733562, 0.00035784, -0.00353052, -0.08099704, -0.01388378, -0.06204212, 0.02681795, 0.01168126, -0.01156763, -0.00027316, -0.00408817, -0.11071058, -0.01608965, 0.02255208, -0.03500922, -0.05322704, 0.05458302, -0.00737982, 0.01354493, -0.04889189, -0.03397318, 0.06052473, 0.02772103, 0.05983539, 0.01595161, -0.05251450, -0.00971863, 0.05805676, -0.01660346, -0.01680602, 0.02032516, 0.00978487, -0.05706152, -0.06328271, 0.03756285, -0.00849064, -0.00853141, 0.06357340, 0.00992885, -0.05368818, -0.08607832, -0.04030013, -0.02964843, 0.03370234, 0.07254973, -0.00143683, -0.05371915, -0.00581199, -0.04444775, 0.05144484, 0.04222502, -0.01258659, -0.00293862, -0.03568373, 0.12142111, -0.02150851, 0.06585532, -0.02504066, 0.11001410, -0.04456498, -0.03254673, 0.00817234, 0.05522438, -0.05169889, 0.01258079, -0.04926777, 0.04475693, -0.02019936, -0.07419235, -0.01915343, -0.05297624, -0.05864368, 0.01316285, -0.02160922, -0.00304390, -0.02552313, -0.07590897, 0.03107058, -0.05656604, 0.04162463, -0.03467950, 0.01449155, -0.01946325, 0.10834107, 0.07789523, 0.01711849, 0.11209922, -0.03642595, 0.00460229, 0.01986800, -0.03426349, 0.00224474, 0.06227140, 0.03248173, -0.00054946, -0.11223290, 0.01339089, 0.02384585, -0.04117929, 0.09140129, -0.00587402, -0.03850034, -0.05730459, -0.01041267, -0.02293503, 0.06605504, -0.01036172, -0.06741772, -0.03021071, -0.00712693, -0.09357979, 0.00836963, -0.01360311, 0.06257223, -0.01797952, 0.01779648, -0.01123474, 0.01818265, 0.06128345, -0.06028491, -0.06333945, -0.01163030, -0.05341734, 0.04982002, 0.00240598, -0.06664389, -0.00790856, -0.00440067, -0.09685183, 0.04710120, -0.01592719, -0.03990243, 0.03121688, 0.02590053, 0.07519406, -0.04452842, 0.01065455, 0.07382972, 0.16422412, -0.06103012, -0.10673610, -0.01965810, 0.03472335, 0.03474884, -0.01907972, -0.08593063, -0.03707916, -0.22814815, -0.02040879, 0.00165614, -0.03711489, -0.02065144, -0.03689852, 0.01075517, 0.05061830, -0.00404009, 0.01172947, 0.06399705, 0.02484396, -0.02954464, 0.02045982, 0.04684852, -0.01763435, 0.04883558, -0.03222912, 0.02110802, 0.02282637, 0.00818347, 0.00439457, -0.05192932, -0.02972899, -0.05831610, 0.09006729, 0.03741939, 0.02257012, 0.06447765, -0.09590320, 0.06367084, 0.06076157, 0.02667712, 0.05016989, 0.00905714, 0.06758126, -0.06185862, 0.09195789, -0.00326464, 0.11357349, -0.02494423, -0.00049555, -0.05852100, -0.00721345, 0.04799657, -0.06369603, 0.02229670, 0.03110548, 0.00860999, 0.05047959, -0.02311194, 0.04725920, 0.02683978, 0.01762656, -0.03726961, -0.04653560, -0.00943641, 0.04966646, -0.07363044, -0.07699518, 0.02938233, -0.02119163, -0.00852607, 0.05590781, -0.04638425, 0.01768378, 0.08486421, -0.03018730, -0.03139577, -0.01802277, -0.01108864, 0.03347438, 0.00130764, 0.05376557, 0.00881797, -0.07168486, 0.06608577, 0.02997231, 0.04250230, 0.05621636, -0.05396216, 0.03759583, 0.03616221, 0.00422605, 0.06187873, -0.01069905, -0.01968300, -0.03512708, 0.01693365, 0.10046407, 0.01662042, 0.03232238, 0.06723642, 0.00530924, 0.00558149, 0.04955743, -0.02289071, -0.08976521, 0.02312796, 0.03091520, -0.00103350, -0.07357181, 0.03233404, 0.02714243, -0.00258020, -0.00380880, 0.03645679, 0.12306359, -0.09012485, -0.00459396, 0.07267295, 0.01535675, -0.01980217, 0.03100657, -0.01450425, 0.03200537, -0.06929954, 0.03989644, 0.08021983, -0.05044910, 0.07569693, -0.01541323, 0.05202222, 0.04813949, -0.03886832, -0.04450753, 0.03779608, 0.09385404, -0.11566577, 0.01212511, -0.02557323, 0.07030018, -0.01929870, 0.06184705, 0.00755629, -0.02236640, 0.08289041, 0.03856437, 0.05122511, 0.07525704, 0.09232522, 0.09189661, -0.00530883, 0.09207094, 0.00411571, -0.04776101, -0.00070272, 0.02498217, -0.04717555, 0.04767831, -0.01301492, -0.00171795, 0.05399559, 0.01264417, 0.01466345, 0.07856560, -0.08867022, -0.01027016, 0.15141433, 0.03077826, -0.10939565, 0.04259992, -0.03055715, 0.07653759, 0.04670281, 0.02542554, 0.06319599, -0.00115902, 0.05868749, -0.06302493, -0.01545342, -0.00656160, -0.11042992, 0.05062283, -0.01491612, -0.01713783, -0.01405316, -0.01861696, 0.00404208, -0.04310559, 0.01212939, -0.01848566, 0.00881861, 0.05102167, 0.03818649, -0.00423624, 0.07570350, -0.04521522, -0.01340107, -0.01793600, -0.08812296, 0.04718943, -0.07803816, -0.00338795, -0.03833583, -0.00561988, -0.06967069, 0.07743726, -0.03179144, -0.07961264, -0.03996653, -0.00751717, -0.03227465, -0.00334211, -0.03215252, -0.00461888, 0.02416325, 0.03733901, -0.12358484, 0.03237241, 0.03030027, 0.03181703, -0.00669092, -0.06056459, 0.01699838, -0.09084627, -0.00114838, -0.02695954, 0.07108667, -0.03454153, -0.00234598, -0.02313186, -0.07561231, -0.01370151, 0.06011704, 0.05449699, 0.00914169, 0.04441876, -0.01587688, 0.07639038, -0.01797605, 0.07834177, 0.10626145, 0.05021035, 0.02121048, 0.07939827, 0.00882528, 0.07193211, 0.02138715, -0.05495447, -0.00748418, -0.06955693, 0.01354192, -0.05574122, 0.01881675, 0.07898870, 0.00406486, -0.01238350, -0.01734330, -0.06306217, 0.08540491, -0.02837479, -0.02457837, 0.09501623, -0.06629305, -0.02744002, -0.06540334, -0.01423427, -0.02361639, -0.09956099, -0.01876283, -0.07330597, 0.06415906, 0.05808463, -0.04834816, -0.00395888, 0.00018705, 0.02701980, -0.03552551, 0.02232258, -0.07375526, -0.04175954, 0.05538645, -0.02219834, 0.02197338, -0.08556262, 0.01867355, -0.01579710, 0.01898215, 0.09277323, 0.09026068, -0.00172746, -0.04557149, 0.05331145, 0.01652034, 0.05933335, -0.00731899, -0.02140912, 0.00418921, -0.01254738, 0.00592749, -0.03135785, -0.03464061, -0.00339899, 0.03449699, 0.00790182, -0.01080284, 0.03206069, -0.00654163, 0.02272314, -0.01536645, -0.02839455, 0.04237429, 0.04244145, 0.00973236, -0.02848464, 0.08945254, 0.10613018, -0.03860394, -0.07558941, 0.04136449, 0.04258231, -0.05697706, 0.00175390, 0.11733570, -0.01892217, -0.08669842, -0.03154679, -0.03345633, -0.01853785, 0.00792158, -0.04043948, -0.06154492, 0.02771093, 0.03758377, 0.04202867, -0.08237775, 0.01476577, -0.00226737, 0.01799626, 0.01475712, -0.02597942, -0.02106912, -0.00015680, 0.00169628, -0.03126390, -0.06884811, 0.02062082, -0.00270992, 0.08357489, 0.06074605, 0.01126145, -0.02711869, -0.03992840, -0.05743163, 0.07813348, -0.00274202, 0.06573952, 0.04236383, -0.04602529, 0.02107716, -0.01622155, -0.02539845, 0.02355623, 0.01135928, -0.03985595, 0.04580323, 0.02576404, 0.01503059, -0.02653283, 0.00381986, -0.00747599, 0.00270661, -0.04273329, -0.07326918, -0.08408208, -0.06291076, -0.00858859, -0.01712566, 0.02566189, 0.01714536, -0.08295248, -0.00632844, -0.09669603, 0.03966111, 0.07801484, 0.03109526, 0.00398978, 0.02807657, -0.01688245, -0.06798559, 0.00204405, 0.02430096, -0.09428560, 0.00324917, 0.02753149, -0.06695274, -0.03098315, 0.08660094, 0.01503358, -0.04441846, -0.02181365, -0.02150629, -0.04241898, 0.06712063, -0.01551144, -0.01457074, -0.00952236, 0.04361726, 0.05925286, 0.00152599, 0.01830670, -0.09074980, -0.02655716, -0.09252485, -0.01837945, -0.01368172, -0.05680210, -0.06314289, 0.01380697, -0.00830680, -0.04644808, -0.03682113, 0.03589347, 0.02801327, -0.12554571, -0.01185570, -0.05770381, -0.04514338, 0.07454541, 0.04196269, -0.04701397, -0.02218202, -0.02930452, -0.05672847, 0.06808341, 0.09194158, -0.07938774, -0.00589352, -0.02687683, -0.00732328, 0.03925822, 0.01120693, -0.01974790, 0.05415891, -0.04968866, 0.05679898, -0.07258610, 0.02452758, -0.06073095, 0.09266791, 0.14250542, -0.04710581, -0.04301833, 0.04031913, 0.02772009, 0.02387607, 0.03525249, 0.03867307, 0.07677004, 0.01709472, 0.00795290, 0.00127950, 0.08863240, 0.05109970, -0.06528644, 0.02534780, 0.03223697, -0.10000683, 0.05127224, 0.06303810, 0.03464464, 0.08353002, 0.02736396, -0.00604473, -0.07667535, -0.03959236, 0.00370701, 0.04293932, 0.01715682, 0.05423048, -0.09043813, -0.01931368, 0.06159231, 0.01315010, -0.00590293, -0.14722179, -0.10808992, -0.01037997, 0.04797395, -0.06026414, 0.04506397, 0.04544585, -0.08495150, -0.12297373, 0.07118325, -0.09281505, 0.01697670, -0.01675647, -0.05035294, -0.01018196, 0.04350868, -0.07141618, -0.03288075, 0.03525594, 0.08670872, -0.04286613, -0.03503014, 0.02298438, 0.01973820, -0.00787788, 0.00319264, 0.06010661, -0.04818117, 0.01415164, 0.02552114, 0.00781883, -0.04860669, -0.05001233, -0.02359884, -0.00493063, -0.02134762, -0.08167239, -0.01830243, 0.02322900, -0.09388465, -0.02070840, -0.00738629, -0.12956828, 0.02000898, -0.00051219, 0.03451329, 0.02107625, -0.06532376, 0.03429472, 0.08151253, -0.05918707, -0.04700238, 0.02346038, -0.04665482, 0.04771284, -0.00770977, -0.02151951, 0.09413349, 0.01099356, 0.12057167, 0.03730212, -0.02942409, -0.07653637, 0.02677277, -0.08427719, -0.00898894, -0.06548188, 0.01480085, 0.02611913, 0.03828628, -0.00500433, 0.00832590, -0.02662063, -0.06729437, 0.01039172, -0.02968179, 0.02864241, -0.04547210, 0.00603574, 0.00368575, 0.05524421, -0.05001529, 0.03413141, 0.03183836, 0.05264210, -0.01831101, 0.00331904, 0.04902619, 0.00318198, -0.05261663, -0.04924753, 0.13087693, -0.01298373, -0.09469800, 0.06410538, 0.00479978, 0.03813843, 0.00415660, -0.01781527, 0.05043500, 0.02201936, -0.00429653, -0.10608560, 0.04013547, -0.10955554, 0.03959396, -0.07419422, 0.08546618, -0.03884988, 0.08333960, 0.03409003, -0.09728753, -0.03088460, 0.02228294, -0.02738675, -0.03564033, 0.02014186, -0.02396056, -0.00044142, 0.06027769, 0.02782909, 0.00969333, -0.01296371, -0.00026897, 0.06822520, 0.03376821, -0.05226518, -0.00000074, -0.06373060, 0.04359374, -0.06109367, 0.00488965, -0.06855648, 0.09610651, 0.02619719, 0.01321945, -0.00819559, -0.09439467, -0.04028429, -0.08933921, 0.01991929, -0.01608300, 0.03148114, 0.01163850, 0.03395927, -0.07341508, -0.00478460, 0.01591955, 0.03664868, 0.00926705, -0.00536926, 0.03879631, 0.04823973, -0.02983791, -0.08050187, -0.10141030, 0.00487267, -0.11285184, -0.02327543, 0.03468768, 0.00266721, -0.04379954, 0.03312490, 0.05142010, -0.04683320, 0.02850789, 0.07381696, 0.00469268, -0.03608575, -0.00648680, 0.08943444, 0.06650711, -0.00388238, 0.08898432, 0.09302825, -0.01204982, -0.00958723, -0.06843651, -0.00804571, -0.00312126, -0.02574091, 0.06174178, 0.00799050, -0.00684413, 0.09545260, -0.05390791, -0.00023480, -0.02835769, 0.04904873, 0.07185312, -0.03064384, 0.06147071, 0.00616552, -0.08745423, 0.04110932, -0.03287667, 0.01614876, 0.04394599, -0.13401298, -0.02738487, 0.03142853, -0.07990378, 0.00986782, 0.01289126, 0.02735154, -0.01584156, 0.01588999, 0.08547275, 0.00631869, -0.03008693, 0.03492746, -0.03059929, -0.03993042, 0.12398423, -0.04946675, 0.03000103, -0.03909957, 0.01833694, -0.02692735, -0.07111076, -0.00186117, -0.09225491, 0.01762988, 0.04078925, -0.06999695, -0.08362857, 0.04797938, 0.10094610, -0.04557141, 0.05183574, -0.02705649, 0.02681177, -0.05532719, 0.00184450, 0.05802201, 0.06033193, 0.00141572, 0.02045023, 0.09872834, 0.11233661, -0.08024551, -0.05212747, 0.02760948, 0.04880470, 0.05823157, -0.01434322, 0.01680254, 0.09329980, 0.06185523, 0.00959687, -0.02991275, -0.02186389, -0.03213411, -0.00881400, 0.04475098, -0.10669862, 0.04661613, -0.02363123, -0.01368663, 0.04031879, -0.00319901, -0.03819931, -0.04750589, -0.11401731, 0.00451764, 0.05773385, 0.00548823, 0.01668037, 0.02303086, 0.00990900, -0.03657283, -0.06311173, 0.00438816, 0.04405154, 0.02124316, -0.10139295, -0.07382675, -0.11120886, -0.06525745, -0.01789418, -0.00397430, -0.04218706, 0.00963980, -0.06293026, 0.02055068, 0.06860779, 0.04502155, 0.00281480, -0.03092203, 0.08132193, -0.07379954, 0.08907755, 0.00563852, 0.00439314, -0.01747921, -0.00372740, 0.06653330, 0.08980082, -0.03864503, 0.03410051, -0.03479107, -0.09515864, -0.01839231, -0.04872456, -0.02903922, -0.06853535, -0.02799238, 0.00601008, 0.03716365, 0.03263251, 0.02443547, 0.01770335, -0.01566770, 0.01347653, 0.00662904, -0.01588397, -0.05690899, 0.03640287, 0.06488887, 0.08231109, 0.05946022, 0.02809604, 0.02309593, -0.01582188, 0.01625803, -0.09870439, 0.06876414, -0.00370255, 0.01860282, -0.05475293, -0.00588324, 0.01728181, -0.07303251, 0.07557072, -0.05274313, 0.01354171, 0.01051999, -0.00934966, 0.01718628, 0.04335327, -0.04664750, 0.04883793, -0.03621632, 0.04402827, 0.03875151, 0.01369633, -0.01338235, -0.02211771, 0.02203798, 0.03459954, -0.02923996, 0.01028208, -0.00623794, -0.09843811, 0.04060101, -0.05403387, -0.06567173, -0.00177833, -0.00627164, 0.01086751, -0.01250685, 0.03147079, -0.03746515, -0.08646468, -0.00595321, -0.00467695, 0.08449963, 0.03546923, -0.07403560, 0.03787779, -0.00729861, 0.09476318, 0.07160921, -0.02597714, -0.05358781, -0.02643434, 0.03296571, 0.06980488, 0.08658348, 0.02157860, -0.02969096, -0.02800171, -0.04993309, -0.05564595, -0.05671024, -0.04336116, 0.07464863, 0.02949094, 0.00188202, -0.00950176, 0.05079231, 0.02421054, 0.03617585, 0.03293068, -0.06397338, -0.04529949, 0.00842970, -0.05313048, -0.01402150, 0.02601291, 0.05959162, -0.05871914, -0.04038530, 0.01722508, -0.04839621, -0.00956548, 0.00695254, 0.04137493, -0.03625476, 0.04547283, 0.04097063, 0.07980802, 0.06578787, 0.00448826, -0.05585762, -0.10242418, 0.04318893, -0.04783767, -0.11557871, 0.08471847, -0.08116094, 0.06251728, -0.00205554, -0.08501051, 0.07257952, 0.04903947, 0.01368955, -0.05462948, -0.00389353, -0.09861412, -0.04946703, 0.07622436, 0.03356299, 0.01506670, -0.09312411, 0.07586007, 0.00677743, 0.06656370, -0.02296843, 0.04298915, -0.08355038, -0.00410204, -0.06353618, 0.04276094, -0.00819355, 0.03629882, -0.02523598, 0.01513596, -0.05853380, -0.03703371, 0.05455018, 0.01081653, 0.05029843, 0.05140065, 0.03258111, -0.02854468, -0.02625482, -0.02478709, 0.05680941, 0.00873921, -0.02553387, 0.04193042, 0.08991092, 0.03212600, -0.04883119, -0.00784330, 0.02296880, 0.09194881, -0.01391954, -0.02339738, -0.01479463, -0.01085374, 0.00743130, -0.05293002, -0.00869152, -0.03010071, -0.05615386, 0.03009148, 0.02436003, 0.02368701, -0.01901588, -0.05765225, 0.04157000, -0.06032303, 0.01981226, 0.03056013, 0.00984784, -0.01279052, 0.07867791, 0.02511658, -0.00436595, -0.01205723, -0.02028156, -0.01610255, -0.00682936, -0.04855486, 0.06981786, -0.00160331, 0.05176991, 0.02029439, -0.03776041, 0.00576127, 0.00419432, 0.08935933, -0.00935692, -0.09621730, 0.06526125, 0.04035328, -0.03587857, -0.07556774, -0.02320027, 0.02292651, -0.02876715, -0.02509823, 0.00770301, 0.10718546, 0.01067996, 0.02975127, -0.07628404, -0.01043440, -0.03429480, -0.00818716, 0.01233812, 0.00203547, 0.07016527, 0.04752516, -0.02997388, -0.00390920, -0.04712790, -0.05085177, -0.03117436, 0.04936792, -0.04135344, -0.06403567, 0.01268709, -0.09819649, -0.01841817, -0.00252210, 0.01566348, 0.07002660, 0.01873435, 0.01506245, 0.02588227, -0.01894883, -0.05577726, 0.03519223, -0.02863439, 0.01461974, 0.01265343, 0.07597400, 0.05016020, -0.01701548, 0.00183131, 0.02341273, -0.00657458, -0.04825865, -0.01659549, -0.02078846, -0.03877193, 0.05427278, -0.06703512, -0.01508156, 0.01217445, -0.14242105, 0.07770145, 0.06248851, 0.00527290, -0.08231652, 0.08146941, -0.02268025, -0.05253403, 0.03745133, 0.09719520, 0.04065626, -0.03035305, 0.06634736, -0.10126843, -0.03004411, -0.02100621, 0.02109658, 0.03124010, -0.05507468, 0.03753905, -0.03513283, -0.09478293, -0.01440299, -0.00550318, -0.08635957, -0.00265951, 0.02766299, 0.03489965, -0.06278564, 0.01632456, -0.02252693, -0.06002419, 0.06298643, 0.00675787, 0.08650203, -0.03949426, -0.08639457, -0.01156543, 0.09854454, 0.05732068, -0.04257385, 0.02200722, -0.00958142, 0.00446100, 0.03075362, 0.06428432, 0.02889394, -0.15299909, 0.00872679, 0.03285519, -0.05955050, -0.08923059, 0.05823337, -0.01794462, -0.03527121, 0.03408327, -0.01218921, -0.05664584, 0.01786508, 0.03116757, -0.00225667, 0.02241368, -0.01228630, 0.02279375, 0.04424011, 0.01879383, 0.01399587, -0.09450427, -0.00228161, -0.07499178, 0.02410639, 0.00654708, -0.05126980, 0.02416578, -0.07894570, -0.00046108, -0.00726279, -0.07327335, 0.01290360, 0.00376153, 0.01837856, 0.06062606, 0.01096288, 0.02024030, -0.08200447, 0.09066883, -0.04197319, 0.04586352, 0.01634711, 0.00100773, 0.00906413, -0.04910677, -0.02545798, -0.01925424, 0.06128659, -0.05322884, 0.11638952, 0.08894336, -0.08108908, 0.03025588, -0.10961352, 0.05197845, 0.00162214, 0.00083623, 0.05990113, 0.02405151, 0.02222538, 0.02499092, -0.03235346, 0.07770020, 0.00749743, -0.02177883, -0.03828258, 0.02641091, -0.02735259, -0.07763238, 0.01459050, -0.03814232, -0.04651438, 0.01896109, 0.13086611, -0.06512978, -0.01666398, 0.05957012, -0.00216962, -0.01948372, 0.01021813, 0.00018724, -0.06411283, 0.04854586, -0.03171879, -0.08468856, -0.05199421, -0.05904359, -0.02157370, 0.00743043, 0.03534798, 0.04055058, -0.01564316, -0.02120943, 0.09166784, 0.05411990, -0.04143645, 0.00888406, -0.05876869, 0.01333058, -0.00383470, -0.05928636, 0.05771486, 0.04513370, -0.03740452, -0.01807247, 0.02192793, -0.02853782, -0.05487569, -0.01715813, 0.04697323, -0.00341031, -0.02162315, 0.01180730, -0.05021028, 0.00190283, 0.05394549, 0.00669810, 0.08100585, 0.15086526, 0.01513198, 0.10064642, -0.03266105, -0.12904665, -0.11244495, 0.01644302, -0.00359956, -0.05670347, 0.08555467, -0.04682337, -0.00126039, 0.05642877, 0.06850597, 0.07868031, -0.07442919, 0.07900994, 0.02400634, -0.00781164, 0.02731799, -0.02852160, 0.01242493, 0.01003285, -0.03537466, 0.01038849, 0.03858647, 0.10639281, 0.03007453, 0.02075116, 0.01247110, -0.01261550, -0.04002731, 0.11795731, 0.08288247, -0.02627478, 0.00433324, 0.03792810, -0.02900020, -0.03070174, -0.00417474, -0.06161509, 0.06629588, -0.02936840, 0.01461344, -0.02440859, -0.01710041, -0.04246768, 0.00810134, 0.03316795, -0.04440378, -0.01676240, -0.02649983, -0.00421859, -0.06036100, 0.09670268, 0.07162957, 0.04883020, -0.00218638, 0.03085617, 0.06589858, 0.01113831, 0.02089080, 0.03797077, -0.03581039, 0.01789528, -0.01203304, -0.08776715, 0.01032703, 0.04537868, 0.04844401, 0.02327481, 0.02414681, -0.00683590, 0.08023925, 0.01748075, 0.01068747, 0.01861469, -0.06934159, 0.05164883, -0.03984984, 0.01328690, 0.08055649, 0.10801397, -0.08421896, -0.03654424, 0.00808282, -0.08732309, -0.00510251, 0.07293017, 0.01422841, 0.02058281, 0.01786370, -0.03864468, -0.00023081, -0.01193001, 0.01618335, -0.02958928, 0.02039213, 0.04285198, 0.04923390, -0.02386204, -0.05196803, 0.06175075, 0.04245673, -0.02166383, 0.06227853, -0.02070102, 0.02347721, 0.09466366, -0.09374158, -0.08303179, -0.00718938, 0.00724320, 0.02256360, -0.05718154, 0.06409157, -0.01771403, -0.02873089, 0.04691542, -0.01249259, 0.06604202, -0.04829194, -0.02688596, -0.01039641, -0.01236005, 0.08599908, -0.05319628, -0.01394044, 0.01700784, -0.00143096, -0.02390445, 0.03648436, 0.00349088, -0.05203858, -0.01442427, -0.00081820, -0.02195785, -0.02494129, -0.07152732, 0.02190484, -0.06845906, -0.03689148, -0.02155044, 0.00287159, -0.02952719, -0.09354455, 0.05607867, -0.00127645, 0.04474520, -0.06713124, -0.02831044, -0.05886675, -0.03242747, -0.02402769, -0.02571167, 0.12490757, 0.06985962, -0.04777138, -0.04665260, -0.00364822, 0.12648197, -0.02279321, -0.04284015, 0.05772120, -0.03953167, 0.01930402, 0.04261291, 0.01997211, -0.04092003, -0.05004311, 0.04008996, 0.03145492, 0.06751877, 0.05672830, 0.00127435, -0.02838408, -0.06947605, 0.00436761, 0.01891506, -0.03194693, 0.02464439, 0.01231675, -0.07195538, -0.06256139, 0.12420337, -0.07472009, 0.08202203, -0.00578784, -0.01176291, 0.02379095, 0.01403660, 0.00245205, 0.08216750, 0.06116276, 0.12060762, 0.01122641, -0.07584898, -0.06461459, 0.00595218, 0.04248616, -0.05850170, -0.01148061, -0.04316682, 0.01310192, 0.00931823, -0.04080401, 0.03027456, -0.00476709, 0.06260336, 0.00895246, -0.01841669, 0.05966473, 0.00283531, 0.07624512, 0.01764260, 0.04953276, 0.05514085, -0.02309540, 0.05789685, -0.02029283, -0.10000701, -0.00917176, -0.02645469, 0.04264742, 0.01177655, 0.00483668, -0.01446528, -0.04707098, 0.00981053, -0.03793630, 0.02470929, 0.03026777, 0.05319211, -0.11276692, 0.01078042, 0.03754344, 0.06474033, 0.01693378, 0.02648787, -0.00134384, -0.05269945, -0.02566176, 0.00321377, 0.01542761, -0.08539637, -0.04313701, 0.00012168, 0.05559263, 0.00552727, -0.01154789, -0.09953162, 0.03066240, -0.02109679, 0.00282212, -0.04455585, 0.01069599, -0.01102620, -0.00576573, -0.02698876, 0.01007999, -0.03783027, 0.01050576, -0.04463686, 0.04543959, 0.03548798, -0.04386154, 0.04116183, 0.00773227, 0.12746714, -0.01446351, -0.02196179, -0.06169689, -0.01196492, 0.02075683, -0.03874110, -0.05185304, -0.01937163, 0.01524892, -0.04744896, 0.07622024, -0.00937894, 0.11300080, -0.02727374, -0.06986730, -0.01499283, -0.06986172, 0.03716158, 0.01932437, 0.00075152, 0.05107776, 0.08375716, -0.02708330, -0.04651337, -0.04771597, -0.02013308, -0.08382393, -0.04987101, 0.02817784, 0.05125158, 0.09471957, -0.05154985, 0.04794491, 0.01158910, 0.02595603, -0.00920487, 0.02354312, -0.08441116, -0.06156431, -0.04274265, -0.05879146, -0.10162114, -0.01778685, 0.00653364, -0.01127020, 0.01145636, -0.04972672, -0.11174650, 0.11339627, -0.08506698, 0.05419853, 0.06863131, -0.06251183, 0.00390997, -0.05996893, 0.00627046, -0.03751420, -0.03226869, -0.00525690, 0.00682215, 0.00407387, 0.01529480, -0.00172482, 0.00676064, -0.03628915, 0.00343473, 0.00355344, 0.09216459, 0.03810416, 0.03208447, -0.00170260, 0.04082987, 0.03009393, -0.02794982, -0.02730843, -0.02403471, -0.03255070, 0.02994268, -0.04369487, -0.11609190, -0.04167338, -0.00875984, 0.00795513, 0.07300816, -0.00345814, -0.05860464, 0.04518131, -0.07992356, 0.01444268, 0.00445653, 0.07831118, -0.01266751, -0.04274910, 0.03505872, -0.03651050, 0.09774216, -0.00092691, 0.01993872, 0.00532525, -0.03340027, 0.05160018, 0.03651590, 0.06064909, -0.01836754, -0.06057974, 0.03784529, 0.00918698, -0.00512185, -0.09993323, 0.01233278, 0.01328182, -0.03120880, 0.06188977, 0.02937011, 0.06657529, 0.02834080, 0.02734374, -0.08067098, -0.02699576, 0.02846233, 0.00722249, -0.01446308, 0.00750188, 0.02513820, -0.00032244, 0.06416424, -0.10272629, -0.09533966, -0.05229339, -0.05353623, -0.05056459, -0.04478412, -0.06004607, 0.05826101, -0.00945602, 0.01024692, 0.03169605, -0.08886765, 0.03495075, -0.02671214, 0.00568812, -0.01591955, 0.02530733, 0.00835513, -0.00336122, 0.03664172, 0.03272284, -0.02884682, 0.12911068, 0.00443641, -0.12849723, 0.02640936, -0.01649171, 0.02020695, 0.00866041, 0.03360794, -0.02784443, 0.06983049, -0.03664827, 0.03279619, -0.02387143, -0.04050848, 0.03326560, -0.00107845, 0.09562098, -0.04113708, 0.07758673, -0.00271687, -0.02032886, -0.00061965, -0.04780544, 0.00513783, -0.01523978, 0.03853300, -0.10455888, 0.02352359, 0.05583267, -0.08494005, 0.06253899, -0.01313432, -0.02864028, -0.01075938, 0.00203092, -0.04398217, 0.03245933, -0.01261716, -0.03518626, 0.01287830, 0.06653424, -0.00573769, -0.05345605, -0.00025286, 0.07809322, -0.03367029, -0.08548225, 0.00259005, -0.00136541, 0.01686928, -0.01342198, 0.00856608, 0.02495082, 0.08301461, -0.01016430, -0.01240729, 0.00557889, -0.02928795, -0.08055574, 0.10061499, -0.02849845, -0.03426606, -0.02767514, -0.11808421, 0.02055353, 0.04388134, 0.06520426, -0.04322989, -0.00011639, -0.05763352, 0.00832577, -0.00719148, -0.01766641, 0.03876444, 0.04523420, -0.01946602, -0.07683723, 0.04192092, -0.01215712, -0.10608884, -0.02187720, 0.07301820, 0.01326170, 0.01968165, 0.11002627, 0.05011507, -0.04219854, 0.08865821, 0.01830157, -0.03648500, 0.08669273, -0.00332799, -0.04257505, 0.00575599, -0.05466757, 0.00037262, -0.06613021, -0.02908061, 0.01677227, 0.00731975, 0.11055475, 0.05142747, -0.01654380, 0.08598113, -0.00736927, -0.01061672, 0.02239128, 0.07344859, -0.04853294, 0.00741142, 0.04894266, 0.00479960, 0.03798277, 0.01985175, 0.01147898, -0.07721368, 0.01580495, -0.07846425, -0.03219984, 0.07287788, 0.01718538, 0.00914920, 0.00213728, -0.08564110, -0.00812893, 0.01645136, -0.01062950, -0.03214322, 0.03890423, -0.02835948, -0.00600553, -0.00120906, -0.02302436, 0.07794137, -0.05730989, -0.01727154, 0.00146094, -0.00601996, 0.05028861, 0.08413408, 0.02498904, 0.02941999, -0.00206396, -0.02373642, -0.05323423, 0.01503166, -0.05459069, 0.09801174, 0.04815113, 0.02978912, 0.00402904, -0.05177769, -0.02164397, -0.02038904, 0.03505939, -0.15043449, 0.05357855, -0.03497681, 0.02479590, 0.02153582, -0.06246103, 0.00579642, 0.05302085, -0.00303453, -0.01882521, -0.05895093, -0.03906223, -0.03401376, -0.04962274, 0.12370140, 0.05638943, -0.06427792, -0.02405882, -0.00027448, 0.01875581, -0.01343403, 0.05958574, 0.04477929, 0.01754146, 0.00497718, -0.02775420, 0.00522963, 0.04191419, 0.07282499, 0.00271405, -0.02673300, 0.01379069, -0.05111552, -0.03278234, -0.09727070, 0.00940448, -0.07829919, -0.03953224, 0.00242770, 0.01445952, -0.01935913, -0.09683748, -0.02771919, -0.04534429, 0.01341241, 0.05270019, 0.00826534, 0.04241930, 0.00281998, -0.06189317, -0.00935855, 0.01419470, -0.01883607, -0.03713357, -0.02367327, 0.04276555, 0.04641451, 0.01607761, 0.03047189, 0.03175440, -0.05058299, -0.02547018, -0.06995057, -0.01153061, 0.01030514, -0.00071891, 0.03247216, 0.04452825, 0.02644393, 0.01659605, 0.04202476, -0.00785278, 0.03848013, 0.02453624, -0.07354731, -0.05061319, -0.04660423, 0.07492971, -0.09708196, -0.03591686, -0.00220854, 0.07984482, 0.02609570, 0.04692847, -0.00709372, 0.08471692, -0.02529656, -0.01747135, 0.07495811, -0.06469257, -0.13022901, -0.03037176, 0.11436054, 0.03639270, -0.06084149, -0.04972831, -0.01389409, -0.05217151, 0.01870593, 0.02134810, -0.05882771, 0.01670215, 0.02797098, -0.01680369, -0.04682866, -0.08058865, 0.01993474, -0.01172252, 0.01985746, -0.02538563, 0.07750704, 0.07199922, 0.01013292, -0.04187623, -0.01529022, -0.02826336, -0.00293121, 0.04763267, -0.01861525, 0.02709599, 0.01375371, -0.05062496, -0.04143147, -0.04865053, 0.01552788, 0.01000018, -0.01525607, 0.00345171, -0.00332139, 0.04452527, 0.06877305, -0.01733033, -0.01546584, 0.00213127, 0.04264902, 0.07471389, 0.07851655, 0.11167956, -0.01939142, 0.01591976, -0.00207190, -0.11335175, 0.00606330, 0.01653664, 0.05118492, 0.01662073, -0.05392899, 0.00540086, -0.03715435, -0.05663330, -0.03061361, -0.02976521, 0.12259025, 0.01743871, 0.06714237, 0.09512451, -0.00214106, -0.03435684, 0.05290120, 0.05269275, -0.06310902, -0.07389509, -0.04009433, -0.02495232, -0.11897796, -0.02180631, 0.05570480, 0.01757815, -0.06656116, 0.03322595, 0.04881442, 0.09833347, 0.04974397, 0.02344375, -0.03839492, 0.04021182, -0.00659157, 0.00022031, -0.04655655, -0.09986863, -0.01567473, 0.06992462, -0.05029182, 0.03685704, 0.02739660, -0.03684811, -0.00809090, -0.03950200, 0.05816070, 0.00682081, 0.01027465, 0.03303265, -0.01448680, 0.00645893, -0.08047849, -0.00901602, 0.01872337, 0.02496152, 0.02811722, -0.09891724, -0.03955518, 0.07846419, 0.01855684, -0.02729029, 0.02016400, -0.02950390, -0.01624684, -0.03647801, -0.05636016, -0.00677685, -0.00121472, -0.02993605, 0.02143868, -0.02631852, 0.06433413, 0.02794366, -0.00520201, -0.02784621, -0.03457045, 0.02393543, 0.05713831, 0.00101623, 0.03519638, -0.04723510, 0.03606122, 0.12630381, -0.11973644, 0.05195330, 0.00031127, 0.09361059, 0.11672477, -0.07706891, -0.01528307, -0.06192857, 0.02782319, -0.02315651, 0.01348669, 0.04451424, 0.06866295, 0.03442964, 0.04210591, 0.07840236, -0.01150193, 0.00418156, -0.04239909, -0.02882869, -0.00293907, 0.04635958, 0.02460526, 0.06855364, 0.00655638, 0.01814992, -0.05256486, 0.04684293, 0.10152545, 0.01966651, -0.08236682, -0.01366937, -0.03332120, 0.03397188, -0.01190894, 0.08871400, -0.00064797, 0.01234610, 0.11153611, -0.01096398, -0.06425466, -0.00369727, 0.02133364, -0.03537068, -0.01379830, -0.02257610, 0.01884544, -0.02343617, -0.00170681, -0.05907485, 0.01976375, -0.01507433, -0.05834777, 0.03046166, -0.09932028, -0.10417911, -0.00407527, 0.02245812, -0.04296524, 0.02553042, -0.06351165, -0.08634746, 0.04874656, 0.09211744, 0.05602021, 0.01066213, 0.02305418, 0.02603207, 0.02911998, 0.01375744, 0.00171743, 0.05135417, 0.02399232, -0.04478681, 0.07728004, -0.00356822, 0.05718664, 0.05711413, -0.02791961, -0.03924309, 0.08547160, 0.01857643, 0.03168931, -0.02530915, 0.04957602, -0.07978494, 0.08017807, 0.10577472, -0.01634065, 0.01803714, 0.01864926, 0.02732755, 0.05727812, -0.01282271, 0.07919274, -0.06483938, 0.02045754, -0.03152213, -0.02669599, -0.00831952, 0.04762081, 0.00643273, 0.02060453, 0.06661049, -0.05144107, -0.10492447, -0.00162603, 0.00181701, -0.11228389, 0.07448083, -0.06896618, 0.08602193, 0.05630824, 0.02428160, -0.01886314, 0.02894157, -0.04688422, 0.09862964, 0.01907504, -0.03376143, 0.00622115, 0.00102627, -0.04217086, 0.01177748, -0.00937323, 0.03345789, -0.01769932, 0.05104410, -0.02489634, -0.09535366, -0.02958211, -0.10307112, -0.05152836, -0.05792196, -0.04967989, 0.05020157, -0.00188899, 0.02442451, -0.12070913, 0.01588209, -0.08224437, -0.00997661, -0.09520642, -0.05692991, -0.08056244, -0.00504594, -0.03566615, -0.00901173, -0.01867362, -0.09716636, -0.02730622, -0.02019835, 0.13197061, 0.02245759, -0.02140610, -0.11014091, 0.02889308, -0.08917675, 0.03962429, -0.02519418, 0.00492315, -0.03249602, -0.15642501, 0.00320006, -0.08541755, -0.01528352, -0.14558548, 0.00052209, 0.01690408, -0.04501344, -0.01376538, 0.05319978, 0.00829430, -0.04374876, 0.02616527, 0.02300548, 0.00589522, -0.01035832, 0.04151977, 0.07886051, 0.06306348, -0.00519509, 0.04956603, -0.02755698, -0.01502031, 0.00079100, 0.04336970, 0.06217881, -0.10947859, 0.03643632, 0.01291992, 0.03530262, 0.03819482, -0.00605689, -0.05559595, -0.12536727, 0.02452233, -0.04588046, -0.03645622, -0.11803991, -0.09429871, -0.01593640, -0.00448147, -0.02505102, -0.06168720, 0.02479690, -0.08791025, -0.03594171, 0.08332558, -0.01653669, 0.05039694, 0.03893187, 0.10234484, 0.01985946, -0.01713699, 0.13318458, 0.04436391, 0.07284621, -0.02893992, 0.05038608, -0.04603943, 0.07616527, 0.09416503, -0.03597483, -0.09771999, -0.03412554, -0.01722862, 0.01071247, -0.02828940, -0.01915288, -0.00461102, 0.06973416, 0.06101110, -0.00619725, 0.00835217, -0.05704030, -0.05376643, -0.06945422, -0.01036795, 0.02162342, 0.09644252, 0.06508859, 0.13783392, -0.02813326, -0.05338220, 0.02581795, 0.04867576, -0.03921308, -0.00756653, -0.08447614, -0.01036020, -0.00458081, -0.05147564, 0.04523254, 0.00792552, 0.00622149, 0.04071790, 0.00102521, -0.03290365, 0.06532811, 0.00963688, 0.03840619, 0.05988231, 0.02614467, 0.06800868, 0.00197352, 0.01740620, 0.02875479, 0.07606027, 0.02022683, -0.05985082, -0.01017549, 0.02487639, -0.00547076, -0.01098816, -0.01578917, -0.01263549, 0.03103606, -0.01690045, 0.06357315, -0.05658150, -0.06494776, 0.03491167, 0.02342334, -0.07891957, 0.00132943, 0.01186529, -0.03371641, 0.07728028, -0.07685483, -0.02226259, -0.07428869, 0.01873218, 0.08122954, 0.02541608, -0.08976292, -0.00551076, -0.04286481, -0.06228049, -0.03277204, -0.01860623, 0.00656262, -0.05695887, -0.03490175, -0.04431141, -0.01380156, -0.02520453, -0.01328542, -0.00722012, 0.02292336, -0.00215779, 0.06477930, 0.07307028, 0.01126956, -0.00039464, 0.02031614, -0.04863604, 0.01225503, -0.02087897, -0.01688804, -0.03447130, -0.05017943, -0.05242021, -0.03073464, 0.01508832, -0.00468354, -0.01451432, -0.00093470, -0.06600702, 0.00945420, 0.01123884, -0.05117454, 0.01139633, 0.02736620, -0.02625577, 0.05486227, -0.07845885, 0.01513280, 0.04620796, 0.01700331, 0.02911341, -0.08206042, 0.05118457, -0.03201373, 0.00428996, 0.06811802, -0.05795644, -0.02024396, -0.02012181, 0.02808598, 0.05774596, -0.02351619, 0.06542901, -0.00567476, -0.10508012, 0.00397616, -0.08664620, -0.04959554, 0.14629939, 0.00480036, -0.02314683, -0.05572238, 0.05540711, -0.04596554, -0.06723367, 0.03010716, 0.05080154, 0.01628331, 0.15060464, 0.04060895, -0.04629839, 0.03288187, -0.03053882, -0.08522473, 0.00924180, 0.05985187, 0.00473436, 0.00699112, 0.07361275, 0.04944234, 0.00782087, -0.03309703, -0.01288967, 0.01576412, -0.00003358, -0.07881536, 0.04248438, 0.04000598, 0.00473288, -0.00538232, -0.03022349, -0.00951089, 0.06403851, -0.01811368, 0.09024317, -0.01564771, -0.00946254, -0.00617444, 0.01248257, -0.12021792, 0.01062310, -0.04711099, 0.06295776, 0.08596554, -0.07129940, -0.01449454, -0.03972696, -0.04094279, -0.00263225, 0.05784140, -0.10846935, -0.02896244, 0.00924496, 0.02727729, -0.03072257, 0.03985326, -0.02819159, -0.00131902, 0.08173146, -0.08440036, -0.03552872, -0.01858677, -0.01633011, -0.04921119, 0.00274132, -0.02889401, 0.07330147, -0.02392126, 0.05285010, -0.01522750, 0.00838069, 0.07242549, 0.02497098, 0.01880442, 0.02336504, -0.07047422, -0.00909752, 0.08380139, 0.00683540, 0.00345902, -0.01254780, -0.06797165, 0.01084585, 0.02965617, -0.06093778, -0.03901867, -0.06650815, 0.03534543, 0.05887717, -0.00624415, 0.06880321, 0.03651306, 0.00665352, -0.04839697, -0.09873934, 0.03802103, 0.08865853, -0.02430708, 0.07745475, -0.01790895, -0.01791008, -0.03717452, -0.02444629, -0.04450206, -0.03164703, -0.03048381, 0.06184078, 0.02351593, 0.06426172, -0.02393990, 0.01138171, -0.06333819, 0.03884563, -0.02115324, 0.02685693, -0.02093202, -0.00409192, -0.01001039, -0.06954838, 0.05126755, -0.02994256, 0.11006066, 0.04266186, -0.05059595, 0.00926204, -0.02911148, -0.03463790, -0.00266767, 0.03317828, -0.02465484, 0.00644287, 0.03957653, -0.01621338, 0.12095331, 0.06561938, 0.04502495, -0.06786163, 0.04181450, -0.06075070, -0.03692951, -0.08375046, 0.00631393, 0.02388206, -0.04464082, 0.01267605, 0.06236497, 0.03333245, -0.03696033, 0.00455800, -0.01336448, -0.00867752, 0.01711773, -0.12470885, 0.00478734, 0.00101021, 0.03930838, -0.02639708, -0.03139460, 0.00730687, 0.01674534, -0.00878182, -0.03534363, 0.02512429, -0.06128903, -0.01501124, -0.06666837, 0.06381784, -0.06019256, -0.00309135, 0.08113157, 0.02459344, -0.00401160, 0.04810632, 0.01316908, 0.00195746, 0.10766527, -0.08087831, 0.03066623, -0.02371967, -0.11116084, -0.03221896, 0.01142567, -0.00944651, -0.07022151, -0.09389504, 0.10221883, 0.05335867, 0.01562213, -0.05586473, 0.01730126, -0.05542015, 0.09686222, 0.02370451, -0.06968513, 0.04406755, 0.01837131, 0.02958949, 0.03422381, 0.05774407, -0.00097436, -0.10130336, 0.03733877, 0.01260236, -0.04345912, 0.05677228, 0.05396175, -0.02064475, -0.06750980, -0.06514268, 0.04250227, -0.00545660, -0.07147311, 0.00356629, 0.00577903, 0.00684487, 0.09302710, -0.01806194, 0.03954377, -0.00052339, -0.07762394, -0.00528706, -0.01321664, 0.07121040, 0.00910729, 0.03993440, 0.01945638, -0.02978699, 0.08301265, -0.02866079, -0.05015538, -0.00709098, -0.07592920, 0.03447412, 0.05538728, 0.00764362, 0.04620215, 0.13000271, -0.08151562, 0.02178778, 0.07674257, -0.05036062, 0.00039739, -0.02764686, 0.00876736, 0.02017480, 0.01517599, 0.03847246, 0.03211444, 0.02805130, 0.16991280, -0.01407919, -0.02083693, -0.08602706, 0.02706709, 0.06300116, 0.02924982, -0.04284449, 0.00564577, 0.06715510, 0.07822230, 0.03263938, -0.05672401, -0.01988798, -0.00181614, -0.02452870, 0.09687927, -0.01553898, 0.01233419, -0.02244177, -0.04851784, -0.07123201, -0.00287248, 0.08439317, -0.04695478, -0.02671623, -0.01788400, 0.00882232, 0.08056068, -0.01395325, 0.04248243, -0.03416710, -0.02418143, -0.03811300, -0.04869561, -0.05524286, 0.07736490, -0.02451157, 0.05519555, -0.01009463, 0.02043896, -0.08004027, -0.00050253, -0.04220873, 0.00573860, 0.05575033, -0.07136396, -0.02556249, 0.08665520, 0.05311894, -0.00163384, 0.04143557, 0.01987522, -0.01537988, 0.01757985, -0.00607685, -0.08261007, 0.02973523, 0.01978806, -0.01376922, -0.00370837, 0.01949916, 0.03356623, 0.00049813, 0.05200098, -0.03223277, -0.03253578, 0.06027392, 0.00925432, 0.01966326, 0.03314807, -0.05738443, -0.04196652, 0.03066523, 0.04721664, 0.08034462, 0.08401001, -0.01379949, 0.02898171, 0.05856771, -0.02495745, 0.03565003, -0.02675607, -0.02520273, 0.04952023, -0.05284069, 0.02508808, 0.00799902, -0.02829554, -0.09173909, 0.01697004, -0.14217263, -0.05579386, -0.01610190, 0.07488973, 0.01196397, 0.05783185, 0.01375111, 0.12977414, -0.00146883, -0.03156396, -0.05370978, 0.00319862, -0.07131046, -0.00603210, 0.02884980, -0.00216899, 0.03527834, -0.01835721, -0.08453187, 0.09020163, -0.01777168, -0.05773906, -0.03258846, 0.03423344, 0.02798990, -0.06118305, 0.06714316, -0.05390242, -0.01603123, -0.03221529, -0.03043673, 0.02637720, 0.00541601, 0.04692076, -0.02122024, -0.01417718, 0.00570704, -0.04852246, 0.02432851, 0.04276935, 0.01551869, -0.00681048, 0.06693656, -0.03287568, -0.08452067, 0.09979167, -0.02606389, -0.11187056, -0.00070812, -0.02677980, -0.07231701, -0.04057840, 0.02374499, -0.01068588, -0.01189016, 0.02425763, 0.00777567, -0.02874290, 0.09888674, -0.01067695, 0.06776994, 0.03803033, 0.02505642, -0.01799824, 0.00089737, 0.02211430, -0.09703010, -0.00256486, 0.08467509, -0.00071008, -0.08732281, -0.06204154, 0.02605437, -0.05204181, 0.01704278, 0.01061620, -0.04131198, 0.06656221, -0.05220402, 0.01973514, -0.04932289, -0.09456091, 0.00476425, 0.01938006, 0.06694926, 0.02964825, 0.08177639, -0.03343761, 0.00758338, 0.01170608, -0.03930699, -0.07664923, 0.01782697, 0.00216783, 0.03061452, 0.03530384, -0.00203717, 0.03347523, -0.02564175, 0.03642647, -0.03079950, 0.02630794, -0.00713071, -0.05752227, 0.04129938, 0.02744173, -0.02633758, -0.01277579, -0.02143044, -0.01025743, -0.02621244, 0.00848791, -0.08934864, 0.08011713, 0.02269845, -0.07868847, -0.03816658, -0.06095934, -0.00329257, 0.04812855, -0.04575640, 0.07406635, 0.01600206, -0.08751921, 0.03996765, -0.05240402, 0.06616773, -0.06581541, -0.00208015, 0.01332657, -0.02317156, 0.01579395, -0.02765882, -0.05689003, 0.03463103, 0.00260376, 0.04255226, 0.03720354, -0.07769104, -0.06703957, 0.00008375, -0.00914430, -0.01192650, 0.02022034, 0.00571672, 0.03586022, -0.01535496, 0.09344927, -0.02715139, -0.08518362, -0.02544368, -0.00912932, 0.04252562, 0.03960768, -0.03323688, 0.04542091, 0.11297212, -0.01394596, -0.05417335, -0.03245439, 0.02117735, -0.00488439, -0.03491198, 0.14050290, 0.00376463, -0.03065022, -0.03483635, -0.02614674, -0.00224517, -0.10719619, 0.03896336, -0.01893572, -0.07667040, 0.02063737, -0.04539656, 0.01432143, 0.01555900, -0.09278353, 0.07412921, 0.00630358, 0.05645520, -0.06465224, 0.10938621, 0.01497490, -0.01993246, 0.03441348, 0.05992806, -0.02839291, 0.04570807, 0.00460626, -0.10097999, 0.10695133, 0.04927021, -0.04319859, -0.06370502, -0.04301893, 0.03140719, -0.05490759, -0.00573631, 0.03973174, -0.02633390, -0.02351270, 0.03401254, 0.07783399, 0.07768325, -0.00059762, 0.00991890, -0.07404986, 0.02081500, 0.05508851, 0.06971367, 0.03634783, 0.01038369, -0.02056901, 0.02722093, -0.05063507, -0.06729515, -0.00452634, 0.04713367, 0.05420830, -0.04337440, 0.10051247, 0.01379271, 0.00941130, -0.01913580, 0.02361883, -0.01295131, -0.03598915, 0.03852182, 0.04711215, -0.01671745, 0.01653427, 0.00930022, -0.03871666, 0.02495177, -0.02917688, 0.02795006, 0.04206022, -0.02140765, -0.00155890, -0.07467339, 0.11808587, -0.03048215, -0.05485465, 0.03991287, 0.05062168, 0.00179640, 0.00279613, -0.10182448, -0.07009321, 0.08443339, -0.03064222, -0.00208502, -0.01938103, 0.07571565, -0.05709943, 0.00354148, 0.05088453, -0.06042107, 0.07595859, 0.02515769, 0.01681718, -0.04716725, -0.04640253, 0.02940315, 0.04782015, -0.02433198, -0.03792002, 0.07574131, 0.00974359, 0.09430692, -0.00976477, -0.09600525, -0.03286869, -0.03468681, 0.02030570, -0.02292113, 0.06236951, -0.00807637, 0.02395609, -0.05766717, 0.01873629, -0.14116988, 0.01703744, 0.02472431, 0.04606462, -0.00279010, -0.03373006, 0.00308297, 0.03618639, 0.04269016, -0.09237384, -0.05518324, 0.03288313, 0.04529642, 0.07963656, -0.01056318, 0.01183535, 0.00510731, -0.00979438, 0.08054029, 0.00058500, 0.04576712, 0.03213667, -0.00579215, 0.00605838, 0.05501775, 0.00054739, -0.09849983, -0.06010803, 0.04104459, -0.03383052, 0.02933438, 0.04866355, -0.11442701, 0.03579321, -0.12266523, -0.01694172, 0.05526650, -0.05663780, 0.05136878, 0.02761152, -0.04064092, -0.09944602, 0.06316680, -0.01700339, 0.06792768, 0.06360379, 0.10035658, -0.07011519, -0.02563983, -0.02194043, 0.03902400, 0.00919178, -0.05408034, -0.05355176, -0.03956433, 0.06049903, 0.09936425, 0.02399703, 0.06948262, -0.05061856, 0.06556541, 0.02832161, -0.08592740, 0.09433084, -0.01837093, -0.03396241, 0.04951073, -0.04015808, -0.04006768, 0.05549173, 0.01682722, 0.02179964, -0.11770381, 0.05596219, -0.02753608, 0.02339642, -0.02770832, 0.00909401, 0.06844798, 0.04017641, 0.04197235, 0.01584445, -0.01110985, 0.07141232, 0.00344284, 0.00633202, 0.05993286, 0.04236050, -0.04305644, -0.01604766, -0.03272885, 0.04701876, -0.08066744, 0.07106270, 0.09621518, 0.01569153, -0.01046090, -0.04474767, 0.03970622, 0.01924884, 0.02456371, 0.03944423, -0.00513205, -0.09311189, -0.04400989, -0.02419369, -0.02008355, 0.06325475, 0.00733612, -0.05429483, 0.04297993, -0.02268217, 0.03065638, -0.04442209, 0.00501098, 0.01215899, -0.00677341, -0.05216103, 0.08056170, 0.14228140, 0.03232063, -0.03392545, -0.06803881, 0.00979586, -0.03067332, -0.02821688, -0.06861740, -0.01605535, 0.03729130, -0.07212631, -0.04197563, 0.02694979, -0.01218268, -0.01637596, -0.01836294, 0.05653805, -0.01050203, -0.04354019, -0.03048909, -0.05249171, -0.07453693, -0.09984500, 0.05417892, 0.00438024, 0.02693694, -0.07373179, 0.03966486, 0.02162994, 0.02606995, -0.06394283, -0.00659426, -0.00987114, -0.08320264, 0.05025474, 0.01827151, 0.08270468, 0.03700207, 0.00676936, -0.01080052, -0.06853064, -0.02046337, 0.08902577, -0.00625825, -0.00269638, -0.10563751, -0.01847341, 0.04543098, -0.01473455, 0.00947334, -0.04444205, 0.02079896, 0.03141982, 0.01922112, -0.08640062, 0.03349072, -0.06402358, 0.03941095, -0.01907294, -0.00141170, 0.02328664, 0.05002415, 0.08456486, 0.00576777, 0.03215815, -0.00024064, -0.00880248, 0.02810019, 0.03778259, 0.03692874, -0.01130279, 0.01915965, 0.02978468, 0.03168466, -0.03832281, -0.07619341, 0.01410894, -0.01139599, 0.10080000, -0.05540316, -0.08622847, 0.04528182, -0.09486122, 0.01827464, -0.04918307, -0.03894250, 0.07522687, 0.06170071, 0.07440180, 0.02706756, 0.06232407, -0.00344365, -0.04068726, -0.01809136, 0.03910290, 0.03056227, -0.04327950, -0.05598885, 0.05341208, -0.08193283, -0.06097138, -0.02366995, -0.00602053, -0.04404148, -0.02251199, -0.02317629, -0.08950881, -0.09606087, 0.02352527, -0.00547900, -0.01390057, 0.01202548, -0.00611483, 0.11211337, -0.00497211, -0.04829174, -0.06228174, 0.01184950, -0.03508288, -0.00075031, -0.02057188, 0.02717172, 0.07771850, -0.01447725, 0.02527444, 0.08321477, 0.01972441, 0.15062571, -0.01234400, -0.05106727, -0.01682410, -0.01491881, -0.03714192, -0.04852912, 0.03684840, -0.04785610, 0.00577485, -0.00044189, 0.03117968, -0.03729898, -0.00117773, -0.03180297, 0.05478377, -0.04224487, -0.04976656, -0.01790584, 0.01959507, -0.07088814, -0.00319699, 0.02299339, -0.01798257, -0.10960493, 0.04572704, -0.05401405, 0.00530461, -0.02575843, -0.02420141, -0.01729692, 0.01814510, 0.05108949, 0.05777218, -0.02508132, -0.02504376, -0.08157040, -0.01090230, -0.03089745, 0.01251187, -0.00553030, 0.01958281, -0.01529491, -0.01669030, 0.07266796, 0.05491823, 0.04887582, 0.02289971, 0.02287008, 0.07373700, 0.02799476, 0.07174208, -0.11350155, -0.06848145, -0.03258086, 0.03766253, 0.07025196, 0.02397060, 0.10142774, -0.02925935, -0.02008897, -0.00778728, -0.00162869, 0.03806095, -0.01159424, 0.01823664, -0.06752999, -0.05333134, 0.00811822, -0.02599591, 0.00539557, -0.00015192, -0.03754358, 0.02163815, 0.01599908, -0.00691974, 0.02106992, 0.05023802, 0.04477133, -0.05160891, 0.00168363, -0.02595483, -0.02041504, -0.05713068, 0.01201740, 0.03658940, 0.08729801, -0.05631649, 0.04137111, -0.02939635, 0.03046826, -0.00410855, 0.02826797, 0.01204532, 0.03162802, -0.08940989, 0.01637476, 0.07415384, 0.01386690, 0.03514788, -0.00451072, -0.01358268, -0.00371779, 0.11821318, 0.02942533, 0.06570257, -0.01412163, 0.05482068, 0.03751770, -0.01237561, -0.00493937, -0.01496212, -0.06137573, -0.09677534, -0.03622810, 0.06209704, -0.04352028, 0.05689711, 0.00492685, -0.07024945, -0.01023469, -0.05794127, 0.03646777, 0.00799147, 0.00070813, 0.08180132, -0.13242042, 0.05370632, 0.00836730, -0.02940824, -0.06811655, -0.01259478, -0.03729700, -0.06590687, 0.03545403, -0.03335856, 0.09395055, 0.05055663, -0.01874133, -0.05444080, 0.01881870, 0.01091833, 0.01494452, -0.00060576, -0.08512862, 0.00770559, 0.01300027, -0.01952793, -0.04947160, 0.02069334, -0.04038283, -0.05217116, -0.08388951, -0.00421272, -0.03650872, -0.04668213, 0.00519587, 0.05892663, 0.00080811, 0.00722194, 0.02995064, 0.01593228, 0.05385824, 0.01281819, -0.10009722, 0.00943550, 0.08515166, -0.06889653, -0.02051550, -0.07987260, -0.01004851, -0.00883912, -0.06098028, 0.06591006, -0.04227760, 0.10875142, -0.02611068, -0.01588059, 0.01000305, -0.07175995, -0.06053891, -0.03766118, -0.03006035, 0.04900113, 0.04693042, 0.05244228, -0.03705266, 0.04112383, 0.02429581, 0.08701249, -0.02421052, 0.02842049, 0.08566739, 0.04081380, 0.06762698, 0.07796591, -0.01175528, 0.01682439, -0.01295765, -0.01318338, -0.03913145, -0.00173424, 0.01999040, 0.03963580, 0.08702198, -0.00757877, -0.04292347, -0.03349004, -0.07397846, -0.04231142, -0.02982803, 0.04812480, 0.03651238, 0.00239295, 0.01536899, -0.03831442, -0.00539525, -0.04628382, 0.02383802, 0.00618492, -0.02745270, -0.08395917, 0.04537711, -0.01036453, -0.05377325, -0.01400966, 0.07686386, -0.00128902, 0.04431401, 0.06371686, -0.06623709, 0.06996922, -0.07848218, 0.01659796, -0.02969143, -0.03356871, 0.05563372, 0.05531479, 0.00706333, -0.00397588, 0.10888977, -0.07242330, -0.02906841, -0.04351484, -0.01933543, -0.01826900, -0.03493683, -0.00090130, -0.08351669, -0.11028951, 0.11853764, 0.08029475, 0.00156982, 0.04824441, 0.04455658, 0.00419324, -0.03780273, 0.05794530, 0.01197381, 0.02715870, 0.07477351, -0.00460856, 0.10807846, -0.03599248, -0.04516363, -0.02475311, 0.00070297, -0.11737893, -0.03210571, 0.02543259, -0.05589216, 0.00440363, 0.03530766, 0.02866663, 0.07615437, -0.01465524, 0.06882085, -0.03890402, 0.03429295, 0.06766962, -0.03228459, -0.02515350, 0.04964801, 0.06910259, -0.08792188, 0.00505914, 0.07848077, -0.05857062, 0.04151156, -0.05399648, 0.04642133, -0.04842777, -0.05382400, 0.01438325, -0.06116061, 0.02997157, 0.04427810, 0.01137991, -0.01363218, 0.08027581, 0.03591460, -0.02657977, 0.07729218, -0.02523073, 0.01440718, 0.01228359, 0.00005884, 0.05554516, -0.02071314, -0.03019532, -0.04311948, 0.06593160, -0.04199209, 0.04040481, -0.00606385, 0.07140313, -0.02715614, -0.00186869, -0.04059094, -0.08832583, -0.02351031, 0.09054097, -0.07669248, 0.02418157, -0.02598151, 0.06513974, 0.01029375, -0.01902646, 0.10026323, -0.01236987, 0.02997923, -0.05823473, -0.04902264, -0.04700607, -0.08757276, -0.00981982, 0.11289008, 0.00962978, -0.01051519, 0.02570602, -0.07571963, 0.08594448, 0.08103316, 0.02802436, 0.00378756, 0.01370321, 0.00560102, -0.02661155, -0.05076228, 0.01611655, 0.05376881, 0.01040984, -0.09915864, 0.01895789, -0.00758062, 0.02144538, 0.00351105, 0.03486856, -0.09561542, 0.03184796, -0.02628039, 0.01158286, -0.05282347, -0.05910360, 0.05669093, 0.00153931, -0.06649393, -0.02610912, -0.04247082, -0.01628614, -0.07880995, -0.03918761, 0.00126837, 0.01505536, -0.00284640, -0.02135909, 0.09942286, 0.17884444, 0.01022895, -0.03918449, -0.02763317, -0.00964809, -0.03710290, 0.06698968, -0.03985995, -0.06523399, 0.06018838, 0.07630906, 0.00498038, -0.06129190, -0.00144962, -0.02378946, -0.01141522, -0.04909011, -0.04316790, -0.04982634, -0.00164829, 0.00966383, 0.07015374, 0.03897599, 0.05954286, 0.01123313, -0.07210644, 0.03876019, 0.12019274, -0.03670551, 0.01131516, 0.03270865, -0.05264099, -0.02778728, 0.00794997, -0.02133761, 0.06417924, -0.02327778, -0.08269775, 0.01175687, 0.00476577, -0.03268921, -0.05921002, -0.06022720, 0.06328067, 0.03152700, 0.08170291, 0.09829271, 0.01649997, -0.11963946, 0.04770754, 0.02043122, 0.03402800, -0.06010551, -0.02615848, -0.04190309, 0.02015132, -0.06212725, 0.04175956, -0.07339633, 0.03216624, 0.02773499, 0.01431191, 0.01138182, -0.06515943, -0.00171657, -0.03051782, 0.03758569, -0.07110728, -0.02893565, -0.07113361, 0.09533928, -0.04478930, 0.04721865, -0.00004440, 0.05658705, -0.01897664, -0.03458879, -0.05787799, 0.00618787, 0.05085611, 0.00249725, -0.01722931, -0.04912449, 0.03597480, 0.01642869, 0.02038040, 0.03357501, 0.03388057, -0.03861744, 0.05475388, 0.00169471, -0.02402753, -0.05776915, -0.11162817, -0.06945860, -0.01018768, 0.01846209, -0.06388475, 0.01490121, -0.03019613, -0.01211956, -0.08617632, -0.01462246, 0.01338704, 0.10077410, 0.10118136, -0.04116588, 0.04391429, -0.05462066, -0.04450108, 0.02840102, 0.04771752, 0.10697675, 0.00846406, -0.06104105, 0.00606529, 0.00716642, -0.05739720, 0.06523428, 0.00355052, -0.00935908, -0.15768240, 0.04121181, -0.02423691, 0.04580187, 0.06463720, -0.07571536, -0.02216455, 0.08555275, 0.01852750, -0.08500758, -0.07421583, 0.00241216, -0.02220747, 0.00645819, -0.01668223, 0.05438909, 0.03552304, -0.06265809, -0.04149901, -0.01936978, 0.00774258, -0.00790989, 0.01293150, -0.07675829, 0.05962088, 0.03254338, -0.04135476, 0.09987694, -0.09481992, 0.04761749, -0.05356776, -0.02527660, 0.04063029, -0.04046544, -0.04020604, -0.01815550, -0.11128197, 0.07343397, -0.01056958, -0.05579258, -0.02303737, 0.11625868, -0.05186186, -0.01018761, -0.09523295, -0.00697404, 0.02579225, 0.03955035, 0.03720688, 0.02543637, 0.13861284, 0.04883562, 0.04876323, -0.02519885, -0.03026830, 0.04996609, -0.00832377, 0.03345854, 0.05268737, 0.01182703, 0.02764755, 0.04149189, 0.02888753, 0.04662814, -0.07092366, -0.00706329, -0.01700134, 0.05042295, -0.09212709, -0.02570669, -0.06797940, -0.00956411, -0.03489847, 0.03408504, 0.03433090, 0.09689906, 0.04866027, -0.01755671, -0.08675037, -0.03447413, -0.06679228, -0.00567509, 0.00278190, 0.05373568, 0.02318683, -0.01193960, -0.01154371, -0.03117253, -0.05413815, -0.06178488, 0.01074890, -0.05745200, -0.03196208, 0.10997385, 0.03971528, 0.03875791, 0.02214175, -0.06377339, 0.03993933, 0.09188490, 0.05408546, 0.03753283, 0.01211105, -0.08395278, 0.01809672, 0.02153538, 0.01988878, -0.00600334, -0.06305919, -0.00907789, -0.01502962, 0.03689491, -0.00850269, -0.06188348, 0.03364567, -0.06994444, -0.04078054, 0.03722923, -0.02665924, 0.09383464, 0.01449207, -0.05852922, 0.05937571, 0.05128611, -0.00783822, -0.04330171, 0.02065066, 0.03662305, -0.03618011, 0.03769697, -0.04123908, -0.04109603, -0.02945282, -0.02554988, -0.00528253, 0.04079405, -0.05210920, 0.01094758, 0.02049137, 0.05729263, 0.08545666, -0.00504344, 0.00702835, -0.07906234, 0.00160283, 0.02284919, -0.01389222, 0.04532820, -0.00620987, -0.03683232, -0.07051200, 0.01437113, 0.05330666, 0.04723743, 0.05524684, 0.02987723, -0.06442156, 0.01862422, 0.05892453, -0.03572865, -0.00492848, -0.02062766, 0.03213532, -0.00416483, 0.02128154, 0.00384782, 0.03357920, 0.10549196, -0.06848034, 0.02673028, 0.00168967, -0.05574944, 0.02750267, 0.01944843, 0.06560957, 0.02393869, -0.02147677, 0.02084408, -0.01366850, 0.00781615, -0.04359708, -0.01268867, -0.06080511, -0.08223157, 0.00750834, 0.02917608, 0.00777506, -0.08822300, 0.00382754, 0.01073933, 0.00068519, -0.10526927, -0.02829714, -0.02192402, -0.06494731, 0.07139374, -0.08290702, -0.02354181, -0.14039214, 0.08394261, -0.09030662, 0.02536086, -0.00971594, 0.02609402, 0.01835715, -0.04271687, -0.04083736, 0.02517639, 0.02112079, -0.09713487, -0.04634309, -0.06187066, -0.02739990, 0.06203636, -0.12397213, 0.04804428, -0.01574229, 0.00308975, -0.03342551, -0.05836242, -0.05072143, -0.03052038, 0.06538007, 0.05168931, 0.00671706, -0.04527922, 0.00321037, 0.06802258, 0.08139219, 0.04077305, -0.00916259, -0.03879674, 0.00302052, 0.08986176, -0.02512994, -0.02599665, 0.05111910, -0.02995376, -0.02535359, 0.01495346, -0.02769359, -0.06493291, 0.00870314, 0.01771991, -0.02318734, -0.08089823, 0.01680291, -0.01283219, 0.07842482, -0.05460944, 0.02577316, 0.04186271, -0.04981663, -0.02408766, 0.00369525, 0.01305764, 0.00382555, 0.05897370, 0.03844364, 0.01326072, 0.00739898, -0.04242234, 0.08551080, 0.05799601, 0.00703399, -0.00000442, -0.03308392, -0.01129129, 0.04703176, -0.10910410, -0.08504014, 0.01666923, 0.09991496, 0.02148897, -0.02900160, 0.05792195, 0.03192139, -0.01978672, -0.02516076, 0.02145469, 0.07201724, -0.05836444, 0.08502147, -0.09338374, -0.01406779, 0.01141312, 0.07511026, -0.04694869, -0.08439383, -0.03331951, 0.08114792, -0.00515573, 0.01739657, 0.04356156, 0.03099607, -0.06955612, 0.04728210, -0.09482559, 0.01130454, -0.04279798, -0.07691957, -0.00678324, -0.02035838, 0.04177713, 0.06275092, -0.01972328, 0.15756586, -0.04904332, -0.08641616, 0.06879534, -0.03015452, -0.06766842, 0.05835202, 0.00231935, -0.02272360, -0.04601013, 0.07068302, -0.07018561, -0.05983619, -0.09331314, 0.01241065, -0.02763814, 0.00356434, 0.01615356, -0.07149571, -0.06186293, 0.02850227, 0.00394698, -0.00544061, -0.06821489, 0.04141503, 0.09285033, -0.03122039, 0.07998185, 0.00856870, 0.07931271, 0.02538785, 0.00228056, 0.02042866, 0.00566640, 0.00405217, 0.00944090, -0.04068220, 0.03026441, 0.04658638, -0.01809209, 0.00878047, -0.01949406, 0.09888476, -0.05817894, -0.03976546, 0.02660517, -0.03065270, 0.07387417, -0.01515274, 0.07445443, -0.01295595, 0.00160872, 0.01488962, 0.01752282, -0.00351696, -0.02138286, 0.00635620, 0.00315736, 0.17045467, -0.01457451, -0.05119895, -0.05819345, -0.03106003, -0.03034395, -0.10717262, -0.03418447, 0.06411111, 0.04236219, -0.04103176, -0.01038170, -0.01709261, -0.06042375, 0.04647751, -0.09988344, -0.04360958, 0.01150970, -0.05295812, -0.01280245, -0.04073621, 0.02108703, 0.00180303, 0.01875313, 0.03794491, -0.04559757, 0.06609037, 0.05653247, 0.06520789, -0.03382107, -0.08656671, -0.03903310, 0.08625758, 0.01966915, -0.00854104, 0.02581812, -0.05919642, 0.01817444, 0.03577904, -0.05015182, 0.02524388, -0.00063193, -0.01663354, 0.08298860, 0.04345917, -0.02620613, -0.03863315, 0.02967181, 0.04261663, 0.04110106, 0.02999815, 0.05571129, 0.05076870, 0.03361834, -0.06708570, -0.00544104, 0.06851187, -0.02052763, -0.00670634, 0.01438027, 0.16789526, -0.03834223, 0.00976198, -0.00151226, -0.00283150, -0.11857028, -0.09699705, 0.01246459, -0.00845108, 0.01055155, -0.01703069, -0.05111772, 0.02019846, 0.01493379, -0.11313069, 0.02445795, 0.07618473, 0.06603684, 0.02656529, 0.00079457, -0.07987993, -0.02088267, -0.05280678, 0.03482620, 0.06053708, -0.03635959, -0.02165248, 0.01647528, 0.06741539, 0.06466310, 0.01910002, 0.03689775, -0.00379432, -0.01530387, 0.02293173, 0.04354284, -0.03272949, 0.01590971, -0.02122813, 0.06192472, -0.00665253, -0.05399173, 0.02351293, -0.00881928, -0.05455052, -0.00132233, -0.03961355, 0.03867674, 0.07947321, -0.04717759, -0.05318234, -0.03992804, -0.07011911, -0.05297371, 0.00439313, -0.06359632, 0.03478622, -0.04463962, 0.06529414, 0.01251999, 0.00346493, 0.00081466, 0.09558035, -0.05546504, -0.05031639, -0.06345725, -0.01200076, -0.02624711, 0.14449854, -0.06402923, 0.03056102, 0.01787909, 0.01783993, 0.00150052, 0.02489562, 0.02150904, -0.03014972, -0.15248236, 0.07975744, 0.04926415, 0.00374025, 0.04650078, -0.01175584, -0.00514106, -0.09016220, -0.06279004, 0.02406197, 0.00982598, -0.03135468, 0.00134558, 0.05797920, -0.05966830, 0.01948185, 0.01870123, 0.00505940, -0.01500741, 0.01328231, -0.06993668, -0.05251507, 0.01855932, 0.07355792, 0.00061554, 0.10554115, 0.06294666, 0.04901734, -0.05955170, 0.00692554, 0.01732874, 0.04540465, -0.02512279, 0.00403498, 0.03154324, 0.09431881, 0.02327160, 0.01355111, 0.06007130, 0.00602353, 0.03606623, -0.01048073, -0.10241472, 0.01424391, -0.03206061, -0.00531874, -0.02610886, 0.02316728, 0.04737044, 0.08091522, 0.01867617, -0.06411803, 0.05454098, -0.06479577, 0.03210565, 0.02239680, 0.03721978, 0.01351349, 0.02336927, -0.01175821, 0.03187063, -0.00773230, 0.03299947, 0.01508456, 0.05943279, -0.06263117, 0.00958578, 0.06572779, 0.02822398, 0.03387528, -0.03618849, 0.04241542, -0.00588544, 0.03687001, -0.02424604, -0.05830331, -0.02779488, 0.01067483, -0.01959638, 0.00493474, 0.07872900, 0.08112367, -0.04295519, -0.01486164, -0.04801366, -0.00868078, 0.01661774, 0.05143657, -0.01202821, 0.07354390, 0.14357314, -0.02763603, -0.11147891, -0.00617753, -0.05314057, 0.01056314, -0.03932300, 0.02722251, 0.02575533, 0.03263475, 0.06123085, -0.00746740, -0.00076718, -0.00274018, -0.01415118, -0.00548571, 0.00429816, 0.07848118, -0.12009439, -0.04746083, 0.05927309, -0.01061107, -0.07375669, 0.01455706, -0.06655893, 0.00807082, -0.07133364, -0.08360476, -0.06022049, -0.02841754, -0.04991799, 0.06543994, -0.07467955, -0.01123300, 0.05464034, 0.05888683, 0.02302915, 0.01443951, 0.02867537, -0.00088336, 0.09831875, 0.04641209, -0.07493156, -0.01111857, -0.02133727, -0.09231895, -0.01133802, -0.02894859, 0.01882664, 0.03423901, -0.01506744, -0.05657896, -0.04519975, -0.02796524, 0.04167783, 0.11547510, 0.00661704, 0.03417920, 0.00368513, -0.01138495, 0.00521236, -0.04196151, 0.00751203, -0.00850161, 0.01988416, -0.00108499, 0.01487621, -0.07067993, 0.05238212, 0.05074740, 0.01072995, -0.01941608, -0.03769697, -0.04068338, -0.02733464, -0.01269092, -0.02865507, 0.06604864, 0.01735191, -0.06226702, -0.02244926, -0.01189499, 0.07599158, -0.03984972, -0.02576415, -0.00652705, -0.04287351, 0.07186838, -0.05249145, -0.07067276, 0.01545869, -0.09199673, 0.00412661, 0.01837846, -0.04963570, 0.04991087, 0.00766748, -0.00079930, 0.09772036, 0.04628558, -0.06580171, -0.01304280, 0.03739487, 0.02620651, -0.04953956, 0.13336612, -0.10805059, 0.00955625, -0.01732725, 0.00671123, -0.01675788, -0.02120832, -0.06428225, 0.01737022, 0.03530405, 0.05239835, -0.08247514, 0.00808333, -0.03684883, -0.01364694, 0.01289443, -0.00213986, -0.02000527, -0.02593071, -0.03868774, 0.07154624, -0.00787409, 0.05059016, 0.05454991, 0.02018872, 0.01480825, 0.03654759, 0.00070392, 0.00034701, 0.06585448, -0.09251231, 0.02359353, 0.05324821, -0.12063880, 0.11036803, 0.03767343, 0.01158839, -0.13841073, 0.02156366, 0.00140896, -0.01873867, -0.02192971, -0.05170279, 0.09346396, -0.01219097, 0.07827392, -0.00750190, 0.10760706, 0.02630528, -0.00655688, 0.02542704, 0.05024119, -0.00107938, -0.01727382, 0.00462142, 0.07146416, 0.05284452, 0.01311511, -0.00115926, -0.09799153, 0.08903581, -0.06105644, 0.02044674, 0.03792971, 0.09352636, -0.03900472, -0.02851146, 0.00388868, 0.05647805, -0.00936997, -0.06279935, 0.06256139, 0.06227231, -0.06064557, -0.02532916, 0.09213535, 0.03160625, -0.05899503, -0.05271783, 0.02865999, -0.02310553, 0.01906202, 0.02128499, 0.02228457, 0.01484999, -0.01670307, 0.09127811, -0.02330387, -0.08354348, -0.00868316, 0.02275754, 0.01932433, 0.07205921, -0.05822894, 0.09031072, 0.00787625, 0.00823571, 0.01053839, 0.05294287, 0.01604678, -0.06033657, -0.01471030, -0.07444517, -0.00164173, 0.09424831, 0.02792829, -0.00387393, 0.04803807, -0.06005871, -0.06558810, -0.03666206, -0.03608770, -0.01926432, -0.04466942, -0.03562279, 0.01273470, 0.04043216, -0.02841489, 0.01074671, 0.01617950, -0.00326222, -0.05827704, 0.06620907, -0.01112353, -0.04630297, 0.02585695, -0.04562511, 0.11759710, -0.01239270, 0.00382580, -0.05518468, 0.11476093, -0.03375616, 0.04060627, -0.01591555, 0.01702960, 0.08864396, -0.07997515, 0.00561803, -0.04988064, -0.07567276, 0.02892541, -0.05600308, -0.01076235, 0.01773673, 0.04975518, 0.01501180, 0.04241031, -0.09720055, -0.03998114, -0.04846133, -0.02954149, -0.03839133, -0.00184990, -0.01697845, -0.03720681, 0.04406543, -0.06519125, -0.09341041, 0.07727726, -0.03337885, -0.00959558, 0.03416497, 0.07609999, 0.02321996, -0.00430479, 0.05270349, -0.04191495, -0.08184277, 0.08737276, 0.04446967, -0.08270025, 0.01536726, 0.06822035, 0.07326365, -0.02379538, 0.01142672, -0.01986562, 0.01808072, -0.02253184, 0.04935526, 0.05969470, 0.01161652, -0.08445186, -0.04478228, -0.07424995, -0.04366900, -0.03405026, -0.07384388, 0.00687267, -0.00968285, 0.01358525, 0.03199035, -0.01600497, -0.00328374, -0.04211393, 0.00880031, 0.02325137, -0.06602216, -0.03310081, 0.03246663, 0.10643631, 0.01824693, -0.01792997, -0.02637002, -0.05807325, 0.03535438, -0.02792348, 0.02787106, -0.02199527, -0.00169832, -0.03918315, 0.00180754, -0.00323985, 0.03978174, 0.04637897, -0.03375405, -0.09264790, -0.04112918, 0.05096793, -0.04229975, -0.01144315, -0.01489628, -0.01461792, -0.06052428, 0.03854793, -0.00374220, -0.07158019, -0.06215038, 0.01268962, 0.07888305, -0.10293750, -0.03288508, 0.01141591, 0.00218848, 0.09680555, -0.04988692, -0.01937962, -0.01889189, 0.04505453, 0.00672442, 0.04578482, 0.04177179, -0.02031912, 0.03666247, -0.04076477, -0.05100716, 0.05749270, -0.09310275, 0.01159788, 0.01871328, 0.01869940, 0.06892470, -0.06390670, 0.06624156, 0.01813119, -0.01796154, -0.02661330, 0.05581969, -0.00590257, 0.01952278, -0.01802784, 0.05144765, -0.03717932, -0.03507629, -0.00587888, 0.00830795, 0.02695661, -0.05987586, -0.04855835, 0.09632086, -0.12529375, -0.07254384, -0.02926680, 0.01391486, 0.04099135, 0.02036190, 0.03507999, -0.02934111, 0.03520761, 0.01973158, -0.00221870, -0.03547926, -0.05954169, 0.04409234, 0.00328049, 0.00512065, 0.04062099, -0.04451579, -0.04417010, -0.03382142, 0.06971845, 0.02302232, -0.01011415, -0.04290442, 0.03981283, 0.09578016, -0.01876696, -0.03902798, 0.06896535, 0.00149971, 0.01404153, 0.05633681, -0.01450960, 0.08335475, 0.00612369, -0.10593320, 0.06545959, -0.03318848, 0.01875746, 0.05756135, 0.05198049, 0.02752271, 0.02480769, -0.08647965, 0.02138236, -0.03520027, -0.01156947, -0.01192160, -0.00225463, -0.04923056, -0.08086244, -0.03446274, -0.03420333, 0.07927504, -0.05168276, -0.01127942, -0.02836879, -0.01980514, 0.01627529, 0.02795153, -0.02931155, 0.02602878, -0.07349984, 0.01334813, -0.09689735, -0.05105396, -0.01642615, 0.05569526, 0.01122353, 0.00396793, 0.01894751, 0.01230136, -0.00054483, 0.05856276, 0.01028159, 0.01251075, 0.00026362, 0.00000261, -0.04366775, -0.08472070, 0.00759312, -0.02369893, -0.04943322, 0.04415360, -0.03609614, 0.00883631, 0.04589050, 0.00477700, 0.00010962, -0.00321890, 0.03862665, -0.00134983, 0.02418302, 0.02246848, -0.00262330, -0.04678369, 0.04666942, -0.00559657, -0.06276412, 0.01086240, 0.00505816, -0.00963981, -0.07674494, 0.02664193, -0.06275193, -0.00619088, 0.10610846, 0.01911918, -0.00384756, 0.01159046, 0.06448997, -0.04866751, 0.04937716, -0.00670472, 0.02309745, 0.08495980, -0.03810682, 0.06429213, -0.04889177, -0.00133784, 0.01409355, 0.04144721, -0.03301564, 0.02651477, -0.04975631, 0.08253932, 0.02073839, -0.03122934, -0.00148285, -0.02462574, 0.09112056, -0.07107190, -0.02678522, -0.03492742, 0.01982871, -0.01260552, -0.02828120, -0.00837924, -0.01804535, -0.04935212, 0.03085616, -0.02074702, 0.02332225, -0.00267891, -0.01372499, 0.01765013, 0.08461455, -0.00434924, -0.05594712, -0.04751142, -0.05484642, 0.07517090, -0.00212574, 0.05472947, 0.02500580, 0.01339275, -0.00369213, -0.04857879, 0.07204627, -0.01054405, -0.04253168, -0.02179197, -0.08037253, 0.04234797, -0.04492204, 0.07222872, 0.01622160, 0.05540801, 0.04365712, 0.01939001, -0.03378608, 0.06317760, -0.03353990, 0.01020335, 0.00122623, 0.09251993, 0.02358147, -0.00843264, 0.00915807, -0.02715041, 0.00306988, 0.05021382, 0.09608551, 0.06790918, -0.03734319, 0.03961232, 0.05941686, 0.05290588, 0.01653410, -0.02480201, 0.03747017, -0.01632924, 0.00792379, 0.03819368, 0.00539108, 0.01575016, 0.01711827, 0.07662515, -0.01395358, 0.07027453, 0.06871935, 0.00825270, -0.01981165, 0.08632135, -0.08945232, 0.11846885, -0.01693077, -0.05291200, 0.00581539, 0.01523118, 0.02373825, -0.09546182, 0.00312416, -0.01508492, -0.00554310, -0.18517822, 0.05308642, -0.06147166, -0.07998572, -0.04993604, -0.09890833, 0.02850252, -0.01318437, -0.07743657, -0.03048933, -0.00536577, -0.05300558, 0.05344461, 0.02632579, 0.02232514, 0.01866438, 0.02837939, 0.11544104, -0.00307780, 0.02283019, 0.03730554, 0.03889520, -0.01711445, 0.06079588, 0.02939503, -0.10187991, -0.05971330, -0.04223096, 0.06271312, 0.00216049, 0.00713482, 0.02277687, 0.04630161, 0.03459500, 0.08278944, 0.02711910, 0.05085772, 0.02550551, 0.01646892, 0.01122331, 0.01202436, -0.06661136, -0.04178157, -0.07395393, -0.12512438, -0.00702039, -0.10079233, -0.01466910, -0.01566297, -0.01229548, -0.01926540, 0.02885236, 0.06632477, -0.00652894, -0.03302179, 0.02414375, -0.08502201, -0.07882314, 0.09541977, -0.06258707, 0.02457562, -0.09706509, 0.00388896, -0.10693509, -0.02458732, -0.00524920, -0.00294969, 0.01052227, -0.04226832, -0.00873721, 0.00472888, -0.03515204, 0.02191534, 0.07394731, -0.05251294, 0.01596537, 0.06869670, -0.05666108, 0.01063199, -0.09036590, -0.03432854, 0.10832392, 0.06361956, -0.08456258, 0.04971680, 0.02251435, 0.01160409, -0.00225472, 0.02479308, 0.02504491, 0.02160835, 0.10626753, 0.03264098, -0.05601889, 0.02852075, 0.06836460, 0.06903178, -0.11419109, -0.01849947, 0.03594880, 0.06914178, -0.01490801, -0.10224614, 0.01216548, -0.05837599, 0.01030796, -0.01157760, -0.01511181, -0.06873763, -0.12683447, -0.06013897, -0.06828429, 0.00459703, -0.05613716, 0.06656722, -0.03681894, 0.03652549, -0.00729001, 0.05564564, -0.00181092, 0.05482804, 0.09107495, -0.05007053, -0.05102659, -0.01074535, -0.06090036, -0.02266509, 0.04783615, -0.03091661, -0.02254768, -0.03864773, -0.01731440, 0.03059287, 0.05534910, 0.07849666, -0.09059414, -0.07786314, -0.04122842, -0.02458553, -0.06037313, 0.01297246, 0.02391050, -0.01026403, -0.01603834, 0.03705890, -0.00312459, 0.01751186, -0.05712370, 0.08689323, 0.02867789, 0.03221766, -0.07535757, 0.03794151, 0.04887420, -0.00622798, 0.01672274, -0.00689038, -0.01975322, 0.08124693, -0.00093071, 0.02281345, -0.04728919, 0.02368215, -0.01719875, -0.04399699, 0.00385895, -0.01285004, 0.02319407, -0.06197636, 0.02299357, -0.10221188, -0.00300161, 0.01814916, -0.05129022, 0.03482845, -0.03075435, -0.04374279, 0.04628851, 0.09796899, 0.01610203, -0.03432106, 0.03148116, -0.00918804, -0.07779402, 0.10834844, 0.06071920, -0.02438340, 0.01185202, -0.17243649, 0.06037514, -0.05988346, -0.05704373, -0.00872138, -0.02896216, 0.06332822, -0.10799046, -0.05155687, -0.04335335, 0.04127974, -0.00448717, 0.12701033, -0.00990993, -0.02006427, -0.07424639, -0.00315297, -0.00303638, 0.05402419, 0.01281370, -0.00210890, 0.01310652, 0.02644732, 0.00056241, 0.00441591, -0.09135722, -0.02011112, -0.07651178, 0.02974454, 0.03838342, -0.03265196, -0.00884950, -0.01989551, 0.02194184, 0.06458826, 0.03646953, -0.02272980, -0.04128610, -0.07463504, -0.00773635, 0.10739693, -0.03646216, 0.10818622, 0.04522223, -0.05444240, 0.07516894, -0.02465421, 0.10961352, -0.02958363, 0.01658855, 0.00994523, -0.03293795, -0.02075139, -0.03140746, -0.05014398, 0.00839262, -0.07168487, -0.03871362, 0.06666777, 0.02496157, 0.10025652, 0.02809621, 0.00480185, -0.03199317, -0.00846375, -0.05662149, 0.09872275, 0.02131739, -0.01879701, -0.06049497, -0.01411300, -0.00889926, -0.00998973, 0.04097598, -0.05448376, 0.01348891, -0.00195667, 0.04514185, -0.10382745, 0.04736575, 0.07163630, -0.05094038, 0.00942119, -0.02015960, -0.03486672, -0.00722183, 0.08069938, 0.08913238, -0.07220912, -0.01920915, 0.03135526, 0.04833240, 0.09608787, 0.02175483, 0.06646424, -0.00800577, -0.01755062, 0.06176309, -0.00724324, -0.06365393, 0.04328915, -0.06296712, 0.02259756, -0.00862375, 0.04228275, 0.03306024, -0.05278319, -0.05846839, 0.08734725, 0.06034424, -0.06089456, -0.00301680, 0.01590331, 0.10849974, 0.11869317, 0.02744011, -0.01892450, -0.10010678, 0.08649606, 0.07478416, -0.04765725, -0.10561998, -0.05886955, -0.03055425, 0.09398610, 0.01874940, 0.01218993, 0.07047287, -0.02634104, 0.08909982, -0.04846717, 0.01648454, 0.09198244, -0.00830066, 0.06183951, -0.06683850, -0.04265156, 0.01726372, -0.03844129, 0.09723404, 0.00683165, -0.09457102, -0.00721665, 0.06893401, 0.05227436, 0.01813706, -0.04899470, 0.03405747, -0.06533136, 0.00079795, 0.03250688, -0.03980754, -0.01822607, 0.05890832, -0.08226115, 0.00255065, -0.02842321, 0.00170498, -0.10604614, -0.06526968, -0.04035224, 0.02785171, 0.09337947, 0.00533753, -0.04311023, 0.02704107, 0.05225895, 0.04951832, -0.04313177, -0.04066596, 0.04379482, 0.01919695, -0.05590304, 0.01653934, 0.02296593, 0.00299124, -0.05944777, 0.05524502, 0.02009771, -0.03993181, -0.07616423, 0.02093949, -0.06764823, 0.06838765, -0.00962832, 0.01482946, 0.01228736, -0.07658874, 0.04014380, 0.10107923, -0.10537184, -0.05497777, 0.00929766, 0.01785854, -0.02874710, -0.03742315, 0.07296281, -0.00390975, 0.02903840, 0.07840500, -0.02921274, 0.00037083, -0.02759088, -0.03191365, -0.01625758, -0.12360065, 0.01549776, 0.04771072, 0.00677571, -0.03616066, -0.04468501, 0.03593132, 0.07508879, -0.00974067, 0.06766041, -0.02878778, -0.04293349, -0.01953580, -0.02297144, 0.05133538, 0.03548300, 0.08346660, 0.04138108, -0.06692637, 0.02341822, 0.04615292, 0.06460240, 0.01396270, 0.03559680, 0.01624330, 0.09699865, -0.07258099, -0.06864236, -0.06425107, -0.04850449, 0.02293626, -0.05367715, -0.00738647, -0.04058995, 0.00646949, 0.00085688, -0.10317761, -0.02327530, -0.05386484, -0.02393424, -0.06298482, -0.04537889, -0.01521070, -0.03027693, 0.00386464, -0.05128562, 0.00683919, 0.04553828, 0.01406268, 0.00131486, -0.01482484, 0.01656607, -0.00382938, 0.05159676, 0.08587398, 0.01477735, -0.01593567, -0.04658672, 0.04042255, -0.09224011, -0.01821055, -0.16555437, -0.00282452, 0.07176101, 0.00961121, -0.02513309, -0.05881266, -0.07052328, 0.08734322, -0.01638692, -0.00457798, -0.09671471, -0.02101850, -0.00204731, -0.02803234, -0.07019614, -0.00166322, -0.02942661, -0.01097639, -0.03117607, 0.01121554, 0.11577990, 0.02382144, 0.06376565, -0.08483405, 0.06804088, -0.13964802, -0.04411580, -0.03525714, -0.04880924, -0.03656755, -0.05353417, -0.03790628, -0.00337994, 0.01455950, 0.04125284, 0.06114718, -0.02215342, -0.02899190, -0.02202425, 0.00527194, -0.01212742, -0.02261295, 0.02379688, -0.03806707, 0.01934854, -0.02618398, -0.01652566, -0.02282560, -0.00370502, -0.00153711, -0.06392059, 0.04338137, -0.06412684, -0.04980156, 0.04955542, 0.07212267, -0.08640026, -0.00842631, -0.03201462, 0.02786469, 0.01412785, 0.03802977, 0.00371298, 0.02252097, 0.09353366, -0.03332800, 0.00620656, -0.04302438, -0.09979644, 0.08909617, 0.08525289, 0.03901608, -0.06887529, -0.08075330, -0.03494079, -0.03455304, 0.03450514, 0.04278084, 0.03024170, -0.05614107, 0.06500613, 0.00258234, 0.06624715, -0.03639785, -0.00455614, -0.00609173, 0.07206990, -0.00704753, 0.08967523, 0.00916210, 0.00073817, 0.00311229, 0.01859294, 0.01589554, -0.00333620, 0.03227413, 0.03327926, -0.04222516, -0.02746345, 0.10792771, -0.02502315, -0.05595604, -0.04110775, 0.00628058, 0.03171638, 0.04867601, 0.10271616, 0.10573794, 0.08128501, 0.08417604, -0.03859860, 0.02981563, -0.00975662, 0.02430108, 0.01083474, 0.06655573, -0.02616251, 0.00410172, 0.04205950, 0.04158791, 0.08268150, 0.00090236, -0.01041094, -0.00664273, 0.04151088, 0.03346303, -0.06192695, -0.00387260, 0.05424968, 0.04925820, -0.02344396, 0.01746085, 0.06942216, -0.04098480, -0.03226639, 0.00697947, -0.07208482, 0.11383826, 0.08643416, -0.11500415, -0.00009878, 0.09623993, -0.02789540, 0.06810566, -0.01116551, 0.01052177, -0.01660745, -0.07398916, -0.04722396, 0.00617217, -0.03751153, -0.00780580, 0.01246921, -0.04132856, 0.03287188, -0.03287569, 0.04551240, -0.01440027, 0.07262168, 0.00248396, -0.01439801, 0.09864406, -0.06456428, -0.09922871, -0.03848471, 0.03134343, 0.02875521, -0.03843303, 0.03169621, 0.10821585, -0.01060993, -0.00717276, 0.06127197, -0.05323080, 0.02025450, 0.11481134, -0.02620546, -0.02732600, 0.04981868, 0.11435065, -0.06071746, -0.02984563, -0.04082739, -0.04322220, -0.06089947, -0.03747689, -0.01849674, -0.00597754, -0.02628583, 0.00616543, -0.01455999, -0.03311695, -0.03331066, -0.00907550, 0.03395236, -0.01529999, -0.02897075, -0.00583721, 0.01579090, -0.05636232, 0.00470153, -0.00738031, -0.02826552, -0.02973564, -0.13623439, 0.04442031, -0.01530186, 0.00191214, 0.05335702, -0.00456561, 0.05443869, -0.01191752, -0.02017130, -0.02890947, 0.00197868, -0.02051671, -0.02954222, 0.02419368, -0.00361050, -0.01913694, -0.01094656, 0.02686723, -0.03737632, -0.01690025, 0.01664402, 0.05528869, -0.03232355, -0.00049768, -0.06432111, -0.01768211, -0.01246477, 0.02285261, -0.00301190, 0.01746820, 0.03946686, 0.07220025, 0.05779175, -0.00946404, -0.05024888, -0.05515526, 0.13519834, 0.05447248, 0.04593717, -0.02248414, -0.10785290, 0.02130884, 0.00720218, -0.05376224, -0.02185105, 0.06210987, 0.01099232, -0.01571596, 0.04550617, -0.03011299, 0.07788894, -0.01481843, -0.03936305, 0.00316562, -0.00786689, -0.05815566, 0.00336965, -0.02034595, -0.07049209, 0.03345234, 0.05330775, 0.04299762, -0.09196340, -0.02236430, 0.02159037, 0.01215414, -0.03295587, 0.08751007, 0.03696359, 0.01267834, 0.04836531, -0.07941609, 0.04346670, -0.02816315, 0.05040734, -0.04471431, 0.02523964, 0.04760329, -0.10261514, -0.01738213, 0.01497261, 0.06593958, 0.07923752, -0.00421377, -0.02948692, 0.02804141, 0.07142805, 0.03938454, 0.02984262, 0.03735171, 0.00023103, -0.03330206, 0.00816924, 0.01874715, 0.02358400, -0.05209158, -0.02442901, 0.01042228, 0.00448678, 0.10752107, -0.03249943, 0.03697964, 0.08292396, 0.18351857, 0.00837266, -0.05894309, -0.00874240, 0.04792427, -0.09787142, 0.02399724, 0.00747039, -0.04324788, -0.04931087, -0.03403898, 0.01707518, 0.03714330, -0.00737990, -0.05395075, 0.01036756, -0.02168249, -0.05899972, 0.02888708, -0.06333986, -0.06030413, -0.03352693, -0.03811980, -0.07234723, 0.07299542, 0.05286891, -0.03756322, -0.00664167, 0.03445409, 0.03189485, -0.07905263, 0.03556782, 0.01239212, -0.01070885, 0.04502094, 0.01705659, 0.00213588, -0.00457446, -0.00560046, -0.06774671, -0.06587666, -0.00100671, -0.05390608, 0.00759030, 0.02811906, -0.00550371, -0.03648918, -0.00119162, -0.00669044, -0.01416934, -0.06248147, 0.00995244, -0.11085916, -0.12696823, -0.01674814, -0.01626945, 0.05329811, -0.07917320, -0.04929204, 0.02785729, -0.05665167, 0.02873330, -0.01992803, 0.06225601, -0.08042577, 0.03150941, -0.08689003, -0.04387295, 0.05259094, -0.07533754, 0.02702910, 0.01047422, -0.04247338, 0.00031622, 0.00822016, 0.01742336, 0.04200963, 0.02319756, 0.03270787, 0.02619766, -0.05533092, -0.06005193, -0.07884707, 0.01367485, -0.03423410, -0.07720116, -0.05061887, 0.07614926, 0.02066504, 0.05481324, -0.06518084, -0.05507351, -0.02076394, -0.02559285, -0.04031690, -0.01038475, -0.01718653, 0.04066162, 0.03037073, -0.04099613, -0.00677392, -0.00643792, -0.08470138, -0.00167874, 0.01347445, 0.07538598, 0.02838677, 0.08251364, 0.04142750, -0.01621448, -0.00429988, 0.01792268, 0.07641820, 0.06734296, 0.03709317, -0.00969555, -0.06124646, -0.00551940, -0.01524754, -0.04565310, 0.00491370, 0.01246228, -0.02823696, 0.02228702, 0.03010363, -0.04127946, 0.05862300, -0.03695307, -0.01925983, 0.01812594, 0.06958395, -0.11233657, 0.02333760, 0.00413852, 0.01576650, -0.02201232, -0.03184887, -0.04237055, -0.04900890, -0.02930123, 0.03035935, 0.10992112, 0.01050504, -0.00537124, -0.01179595, 0.00348316, 0.04398315, -0.00712327, -0.08685710, -0.07864290, 0.04740165, 0.05191272, -0.01177135, -0.01918576, 0.07219017, -0.07596386, 0.06289693, -0.01447660, -0.03741610, -0.05313323, -0.04117641, -0.01170591, 0.02287335, 0.01697334, 0.04391690, -0.01293848, -0.04973296, 0.05336780, -0.06358977, 0.02384773, 0.03685903, 0.05723709, 0.00229054, -0.00976864, -0.00031438, -0.05898588, 0.11635669, -0.00180788, 0.02058019, -0.08522637, -0.03044786, 0.00110724, -0.10044594, -0.00700485, -0.05334139, 0.01122264, 0.00769462, -0.04944674, 0.07903890, -0.02519676, -0.04906849, -0.04310643, 0.01815807, -0.16768737, -0.00891793, 0.00287214, 0.02632247, 0.00795572, -0.02422061, 0.02404858, -0.03589742, 0.02133665, 0.02203336, 0.00425614, 0.03526139, -0.03328657, 0.08839136, -0.03004472, -0.03506619, 0.05119782, -0.05484779, 0.02089684, -0.07243911, 0.00220182, -0.05463161, -0.00784416, -0.09970874, -0.06988953, -0.04256007, -0.02513049, -0.03185083, 0.00556685, 0.04201796, -0.10060266, 0.04907602, -0.05113859, -0.06837898, 0.04193459, -0.05400843, -0.01545179, 0.00773764, -0.07021562, -0.07571618, 0.03879475, -0.03517083, -0.03559467, 0.01368328, 0.01512507, 0.03391960, 0.00967522, 0.06636008, 0.00997024, 0.01405788, -0.01948098, -0.03188398, 0.00791365, 0.02960519, 0.05504976, -0.03369426, 0.06608716, 0.04986539, 0.01088101, 0.10162257, 0.09205548, -0.06551192, -0.03316857, -0.07182790, -0.03314075, -0.06555974, -0.00729077, 0.05552134, -0.00483520, 0.01334293, -0.04972075, -0.05137342, -0.01325177, -0.02325693, -0.02635098, 0.05173706, -0.05112617, 0.05875018, 0.02209747, -0.01618463, -0.01252372, 0.10253371, 0.04990728, -0.11367630, 0.09723508, 0.01257451, 0.02872669, -0.00421552, 0.00051094, 0.05814873, 0.00908201, -0.09008785, -0.00159344, 0.01509512, -0.00188914, -0.06556781, 0.02777819, -0.01665064, 0.03583546, -0.03344682, -0.05824213, 0.00093489, -0.01963035, -0.06130053, 0.01248340, -0.03660756, -0.08673619, -0.05763543, -0.09769429, 0.02061616, 0.01539822, 0.03587416, -0.01373088, 0.03392783, -0.01276992, 0.07187490, -0.03566135, -0.07126411, 0.02169645, -0.06611386, 0.01525140, -0.02746231, -0.02609777, 0.07798516, 0.00837529, 0.04030353, 0.01030928, 0.02476862, 0.03876434, -0.03932457, -0.08629046, 0.01865344, 0.02501809, 0.00148425, 0.02005866, 0.02669668, -0.01950894, 0.06262206, 0.05178042, -0.07286677, 0.04952171, 0.00909537, -0.05191805, 0.11726875, 0.10468392, -0.02607096, 0.03165265, 0.04033719, 0.01455481, 0.01280430, -0.02664350, 0.02014228, -0.01246297, 0.00181696, -0.00050650, 0.02478800, -0.08503807, -0.01551763, -0.06095335, 0.11362755, 0.06056279, -0.00880224, 0.07104605, -0.01046286, -0.02133420, 0.08527679, 0.05424907, -0.05148583, -0.01618901, 0.08845825, 0.00884026, 0.04865649, 0.08846496, 0.06321404, -0.01648563, 0.06340707, 0.03616306, -0.13321093, 0.04072743, -0.03402136, 0.03552663, 0.01689269, 0.00743739, 0.01568607, -0.00035443, -0.06414770, -0.08147534, 0.04399297, 0.10152742, -0.00507195, -0.02264037, 0.12567347, -0.00139051, 0.05332633, 0.00333703, 0.02442963, 0.00478108, -0.08240811, -0.03547080, 0.04704759, -0.03993576, 0.03316508, -0.07658514, -0.04796147, -0.03354711, -0.06260131, 0.00018695, -0.02809566, 0.05491437, -0.03737578, -0.03757752, -0.01026961, 0.02475938, -0.06100827, 0.00187546, 0.00125150, -0.00339927, -0.04181137, -0.04249957, 0.02584484, 0.07595098, 0.03882675, 0.00390142, 0.05816573, -0.07622017, -0.05158269, -0.02401472, -0.08523422, 0.05173409, 0.07799451, 0.00771746, 0.05619345, -0.00635611, 0.10734651, -0.05602531, 0.04331753, 0.00612742, -0.03319873, 0.08016957, -0.00451892, 0.07062434, -0.07228456, 0.07038948, 0.10887719, -0.04106938, 0.08214570, -0.05746504, 0.08749684, 0.04578766, -0.08971313, 0.01647904, 0.05718925, -0.01293683, 0.06392384, -0.00108507, -0.07415953, -0.03849185, -0.00209247, 0.03876092, 0.02785983, 0.04236862, 0.02880960, 0.01093539, -0.04888614, 0.08082883, -0.00470376, 0.05188980, 0.02250030, -0.02098835, -0.02993659, -0.07385807, 0.07109177, -0.00271669, 0.02496525, -0.03317048, -0.01782257, -0.01851592, 0.02986339, -0.00424852, -0.00068501, 0.05896332, -0.02630049, 0.01872033, -0.05279536, -0.00677711, -0.00877929, -0.00847275, 0.10064078, 0.05721133, 0.02697832, 0.05752967, 0.02643520, 0.03864653, 0.04054383, 0.00550323, 0.06274224, -0.02558235, -0.01003294, -0.01142332, 0.03531862, 0.09094975, 0.03310404, -0.03211293, -0.03943514, -0.06691099, -0.10267631, 0.06133878, 0.02506135, -0.00939451, 0.04603699, -0.07069647, 0.08398341, 0.04321503, 0.00354489, -0.01624105, 0.03134998, 0.00541399, 0.04685143, 0.13047639, -0.10126953, 0.01908349, 0.04162769, -0.02963527, -0.00015663, 0.00654410, 0.02342719, -0.06829031, -0.04423870, 0.00752013, 0.02739233, -0.08626054, 0.01293169, -0.01591285, -0.04914758, 0.04581767, -0.01499265, 0.07824349, -0.00033123, -0.03647156, -0.04017914, 0.00630236, -0.01804012, 0.00676284, 0.03572541, -0.09895340, 0.01008517, -0.01615407, 0.01519188, 0.04476123, -0.07935381, 0.04150192, 0.02513570, -0.04393800, 0.04593761, 0.02271387, -0.00635474, -0.01636051, 0.07277709, -0.00148359, -0.02686618, -0.01237444, 0.00424521, 0.03422995, 0.05218177, 0.07480323, -0.00326901, -0.00218014, 0.03134739, -0.02683775, -0.03313496, 0.01035839, -0.00114121, -0.02852568, -0.00151930, -0.08500066, -0.06310458, -0.00162594, -0.14738075, 0.08479305, -0.04513210, 0.05221437, -0.09546183, 0.12309865, 0.01306609, 0.06384403, 0.10016550, -0.00183250, 0.05374205, 0.06989341, 0.06077810, -0.00372131, -0.05711667, -0.11407694, 0.01196587, -0.03353269, -0.01025338, -0.05976966, -0.06454637, -0.05229927, -0.11834213, 0.09887370, 0.07448799, -0.01689289, -0.03777489, -0.05153505, -0.00056602, 0.03914450, 0.01225214, 0.06015440, -0.03276686, 0.03582352, -0.02413897, 0.00863660, -0.00452262, 0.07576064, -0.05701763, -0.01589888, 0.02957791, 0.03088145, 0.01378274, 0.01230953, 0.00083960, 0.08996104, -0.02725957, 0.01676604, -0.09488686, -0.01250509, -0.04712991, -0.07264651, 0.04623447, -0.13611139, 0.03364246, 0.03410466, 0.08464314, -0.07265888, 0.00917265, -0.01341700, 0.00572532, -0.02503447, 0.01559580, 0.00313494, -0.03880252, -0.08626553, 0.04525887, -0.02083306, 0.02940511, 0.05914911, 0.04739331, 0.00532714, 0.01098340, 0.03224871, 0.05259167, -0.00250250, 0.03858497, 0.04301593, -0.03050261, -0.07191070, 0.08524797, 0.03842109, 0.04509335, -0.01571283, 0.01221670, 0.08906289, -0.12001461, 0.04636937, -0.05083722, 0.06687302, -0.03846630, 0.03571644, -0.03915881, 0.00423484, -0.03349900, -0.01526581, -0.07009280, 0.06441956, 0.03190912, -0.00114118, 0.05052514, -0.09107378, 0.03259137, 0.08462691, 0.03388401, 0.02493797, 0.02164397, -0.05401888, -0.01813510, -0.01513748, -0.06787355, 0.02018524, -0.04129631, 0.10679194, -0.10225569, -0.06577657, 0.01273001, -0.02238489, 0.00884951, 0.06499544, -0.00583830, -0.02972002, 0.00668588, 0.00408642, 0.03501829, 0.04916827, 0.04397132, -0.01439967, -0.00261956, -0.03748144, 0.04604269, 0.06195861, -0.04340293, -0.04538000, 0.03639725, -0.03400666, 0.00827717, 0.06465150, -0.05306855, -0.06947029, 0.00121939, 0.06106717, 0.08906903, 0.03374687, 0.00233836, 0.03176090, -0.01744662, 0.01862721, -0.01873355, -0.04566893, -0.01319209, 0.03885629, -0.06545661, -0.02146703, 0.00268901, 0.10428986, 0.01193334, -0.04017738, 0.04468125, 0.06296034, -0.08444259, -0.11527763, 0.12341540, 0.11697239, 0.08042851, 0.02964273, 0.00651274, 0.02173170, 0.01461278, -0.02059257, 0.00614970, -0.01758748, -0.03410701, -0.02539111, -0.02523496, 0.05370307, -0.06249079, -0.00883541, -0.05616795, 0.05462440, 0.01026129, -0.05414493, -0.02013018, -0.00221587, 0.02624332, -0.01601181, -0.03543685, -0.01222109, 0.01294272, 0.07587875, -0.03325635, -0.00571617, 0.04950881, -0.09562390, -0.09399015, 0.00054803, -0.03254985, -0.02184776, 0.04109753, -0.03209067, -0.01870334, 0.03927427, -0.04471939, -0.04436991, 0.06902190, -0.03197359, 0.00132711, 0.11608887, 0.00302239, -0.04624566, -0.00105268, -0.07432721, 0.00748317, 0.11641544, 0.00336215, -0.01647106, -0.02206203, -0.10692003, -0.00161391, -0.02046821, 0.02658422, -0.08979215, -0.05126048, 0.05561642, 0.02339599, -0.07183596, 0.03651588, 0.05440636, -0.15562557, -0.07809075, -0.01410860, -0.01710857, 0.03762974, -0.08281201, -0.03456941, -0.01824878, 0.08033738, -0.00160728, 0.03143191, 0.01289366, -0.05055983, -0.02439689, 0.08135693, 0.03440670, 0.03723891, -0.00481406, 0.02489235, 0.01339580, 0.04534929, -0.05737203, -0.07869992, 0.09153707, 0.07427507, 0.06276925, 0.04570759, 0.00867758, -0.01815006, -0.04005509, 0.07156955, 0.05678171, -0.08621672, 0.00745700, 0.00182524, 0.04142521, 0.00623492, -0.01943557, 0.04065897, 0.00094655, -0.03411223, -0.02665314, 0.08369908, 0.03036501, -0.03494137, 0.01717262, -0.03759868, -0.03729597, -0.03581258, 0.01455513, 0.13839234, 0.03808425, 0.05138187, 0.06283379, -0.06196801, -0.09862010, 0.01473860, -0.10149341, -0.01646204, -0.01360661, 0.00704753, 0.02966783, 0.06489656, 0.00006853, 0.03662880, -0.12045033, -0.00563223, -0.00850458, -0.04371658, 0.05148184, 0.00956657, -0.00445579, -0.04413898, -0.06370950, 0.05357428, -0.01101593, -0.04751486, 0.04995024, -0.00994772, -0.01694125, 0.06220550, 0.00243371, -0.02904541, -0.02436883, 0.03999313, 0.04389851, -0.06613765, -0.06258544, -0.02083126, -0.06168388, -0.04851853, 0.05002049, 0.03727840, -0.03702122, -0.05498545, -0.01143305, -0.01786652, 0.03379955, 0.05974616, 0.02107051, 0.04327311, -0.05946556, -0.02827004, 0.05036710, -0.11127976, 0.09450675, 0.02370801, 0.00842601, 0.00170881, 0.08922783, 0.07666326, 0.05454552, -0.09234361, 0.01581527, 0.03579804, 0.06162603, -0.00787701, -0.02206010, 0.01802250, -0.07554764, -0.02083987, -0.03691380, -0.00419563, 0.02035100, 0.07265709, -0.01760821, -0.04831649, 0.07287111, 0.00543445, -0.09117839, 0.00777412, -0.03107014, 0.01035749, -0.06315054, -0.00191381, -0.06699914, 0.03181253, -0.01303479, 0.04199365, -0.02617762, -0.07078350, 0.06853269, 0.00585980, -0.03717397, -0.00250278, 0.01539727, -0.06521381, -0.12041412, 0.02879563, 0.05882618, -0.04279071, -0.03151580, -0.03347965, 0.03691184, 0.04818075, -0.08210005, -0.01276713, 0.04273665, 0.05264597, 0.06209220, -0.05377610, 0.04697585, 0.05891920, -0.03082305, 0.00078531, 0.01467300, 0.02239132, 0.02113195, 0.00602232, -0.02969642, 0.02950479, 0.04772031, 0.00232903, -0.03341664, -0.03044841, 0.12367155, 0.02320527, 0.01162264, 0.00262939, -0.00504638, -0.10228330, 0.01825483, 0.08008786, 0.02665491, -0.08751857, -0.10205134, 0.01929754, -0.00679760, 0.07964759, -0.07224656, -0.09115537, -0.03459711, -0.05247880, 0.00338608, 0.00808208, 0.02890503, -0.00594739, 0.01368730, 0.07492419, -0.10788077, 0.02373695, -0.00555011, 0.01776068, -0.02818753, 0.03867422, -0.03471973, 0.04386116, 0.00701659, 0.01160989, -0.00171227, -0.00912035, 0.03669635, -0.02026285, -0.01363427, -0.00144806, 0.03592898, -0.02884138, -0.03159644, -0.03193583, 0.01776787, -0.01223348, -0.06356539, 0.03934252, -0.01168445, 0.02385802, 0.07802863, -0.01741409, -0.01634672, 0.01920949, -0.00428333, 0.01962237, -0.00960608, 0.07097246, 0.01216276, 0.06188374, 0.11711866, -0.00510860, -0.05554849, -0.01628515, -0.00856163, 0.02333589, 0.07634329, 0.02717912, -0.00273218, -0.04746914, -0.03670402, 0.01394702, -0.04806393, 0.00338616, -0.00218638, 0.03150926, 0.03853099, -0.06997101, 0.04653043, -0.00518115, 0.04253245, 0.02536523, 0.05039838, -0.03402590, -0.05406604, -0.02295770, -0.02351424, 0.06355123, 0.02685770, -0.03973754, -0.03058526, -0.02084580, 0.01762904, -0.05003409, -0.04801163, 0.00877493, 0.07189810, -0.03430762, 0.01145809, 0.01573430, -0.00952724, 0.10763430, -0.00294907, -0.05933867, 0.03834639, -0.09797176, -0.01381971, -0.06550941, 0.06744768, 0.05919217, 0.00775087, -0.02611731, 0.00612613, 0.11724865, -0.06557351, -0.01307983, 0.00982917, -0.03514213, -0.01409272, -0.04497482, 0.06337294, -0.02266013, -0.03335400, 0.00134030, 0.00252973, -0.08081557, 0.05076655, -0.03661273, 0.04415016, 0.02418269, -0.05724556, -0.01627273, -0.06513344, -0.07785844, 0.03494693, -0.01353742, 0.05531216, -0.08734741, 0.02672556, 0.03679302, 0.05871947, 0.01585179, -0.01999480, -0.00054450, 0.05276119, -0.02774370, 0.07675243, 0.03690447, -0.00376491, 0.05432113, 0.00477187, -0.03580448, -0.08477161, 0.01151487, 0.10228615, -0.04107236, -0.08655927, -0.06537671, 0.00999475, -0.01662629, 0.10553331, 0.04397563, 0.01297395, -0.12553366, 0.01803118, 0.02522166, -0.00325120, -0.05467886, 0.00256024, 0.00595140, -0.09016752, -0.00145751, -0.01929800, -0.01024692, 0.01715687, 0.06882215, 0.09095735, -0.00874604, 0.13895653, 0.02952231, 0.08124070, -0.02103599, -0.04291662, 0.06737176, -0.05117951, -0.06964617, -0.03206621, 0.05657493, 0.06483722, 0.05132540, 0.01495136, -0.00191730, -0.01565824, -0.03632245, -0.05693012, -0.02501537, -0.04307931, -0.01456711, -0.07961018, 0.05268260, -0.03944103, 0.08868223, 0.01630600, -0.05102197, 0.06241653, 0.09683765, 0.04146492, -0.08820985, 0.01516515, 0.07476619, 0.01945759, -0.01389660, 0.00251573, -0.04694382, -0.05773592, -0.01842053, 0.00128635, 0.05063976, 0.04839660, 0.01274113, -0.05085481, 0.01404459, -0.01735443, -0.08103483, 0.06546696, 0.10250701, -0.00884497, 0.04961758, -0.06241289, 0.00704303, -0.05197255, 0.04581350, -0.01728649, -0.02154761, -0.06202602, -0.03222184, 0.01593617, -0.02419954, -0.02852600, 0.02998014, 0.00289670, -0.00664390, 0.08351775, -0.07658670, 0.14307386, 0.09339367, 0.06148259, -0.00338849, 0.05492918, -0.01654373, 0.00344531, 0.09661368, 0.02976400, -0.00274986, -0.03367924, -0.06440102, 0.09721216, -0.02470910, 0.00646957, 0.02799421, -0.05765664, 0.00610492, -0.08948796, 0.00800795, 0.04126054, -0.01329201, 0.00919409, 0.06524889, -0.13273387, 0.02100390, -0.01356275, 0.00120855, -0.02315015, -0.01556241, -0.08515670, 0.05609221, -0.01618156, -0.02505415, -0.04035071, -0.05966403, 0.08314175, 0.11464312, 0.10066763, -0.04663947, -0.05327325, -0.00843809, -0.04762479, -0.05585288, -0.06841276, 0.01986022, 0.05439875, -0.02941568, 0.00261075, -0.01742928, -0.10266148, -0.08598158, -0.05727922, -0.01909566, 0.02281578, -0.02243254, 0.05884539, -0.02720206, 0.02809914, 0.02888828, 0.07924993, 0.02744487, -0.04811460, -0.09467745, -0.03372840, -0.05972858, -0.04367515, -0.01709252, -0.01562135, -0.00542938, 0.02538400, -0.04053510, -0.01837706, 0.02537577, -0.02917823, -0.02236634, 0.03007271, 0.05785126, -0.00197496, -0.01964001, 0.00996390, 0.01631060, 0.07763083, 0.00699999, -0.03653253, -0.01477965, 0.00446192, 0.02656462, 0.01219974, 0.02518279, 0.04117632, 0.03742135, -0.00096857, -0.06551018, -0.00041742, -0.00108931, 0.01320089, 0.04278598, 0.11277324, -0.02629537, -0.03576526, -0.12214716, -0.07134037, 0.03501040, -0.04125363, -0.02276356, -0.01567596, -0.09253523, 0.07693105, 0.04715951, -0.00338916, 0.03418047, 0.07697935, 0.08258413, -0.06051970, -0.10637974, -0.04312982, -0.02098895, -0.07965183, -0.07349154, 0.01464387, -0.05368556, 0.06376500, 0.03645040, -0.10315910, -0.13321799, 0.04605588, -0.03686533, 0.06219835, 0.02510341, 0.00638864, 0.01552062, -0.00687900, 0.03528411, 0.00149518, -0.05915319, -0.02576140, -0.12577347, 0.07939207, -0.05160885, -0.00330939, -0.00123243, 0.06432582, -0.03814395, -0.09178895, 0.07029194, 0.01742434, 0.00707545, 0.02833064, 0.04399365, -0.03780084, 0.01814567, 0.00682504, 0.06967764, -0.07887241, -0.03122327, -0.03839761, 0.00989716, 0.00189698, 0.00776945, 0.03100906, -0.04621523, -0.06812958, 0.09238029, -0.08318873, -0.02141370, -0.07812754, -0.00649432, 0.01629686, -0.02917915, 0.04667363, 0.02443217, -0.06485506, -0.08373650, 0.02500657, -0.05648808, -0.07598532, -0.04270675, 0.03356835, 0.02056786, -0.00653004, 0.02814514, 0.01604412, 0.03805346, 0.00348449, 0.00393072, 0.09520724, -0.06085958, -0.05810073, -0.05744343, -0.01864430, -0.01646411, 0.00704302, 0.00226209, -0.05390655, 0.04141627, 0.01574305, 0.04827548, 0.02863586, 0.05604586, 0.04943166, -0.01998082, -0.03971576, -0.03132482, 0.01046686, 0.06074795, -0.02469031, -0.03784464, -0.06784582, 0.00406631, 0.06274194, -0.00388667, 0.00731842, 0.03707185, 0.02288737, -0.00906378, -0.00534231, -0.05758028, -0.05477202, 0.03561580, -0.01373284, 0.02001018, 0.02051263, -0.04182657, 0.09078795, -0.04407403, 0.05116662, 0.04221586, 0.00219883, -0.00792344, -0.04629819, 0.08464652, 0.04881601, -0.00278424, 0.06907385, 0.07747869, -0.02334637, 0.02280619, -0.00500840, -0.01899325, 0.00095039, 0.02530854, -0.02325542, -0.04943068, -0.03259143, -0.06880435, 0.02243277, -0.04388452, 0.00604782, -0.02335892, -0.03961605, 0.04026721, 0.05322093, -0.01630809, 0.10468409, 0.00449528, 0.05288836, -0.06020030, 0.04495781, 0.03176827, 0.02455895, -0.03587835, 0.07654933, -0.03039121, -0.03578941, -0.10439963, 0.05196349, 0.01378454, -0.01765207, 0.02992039, -0.09155693, -0.03617887, -0.00347061, -0.01068621, -0.02153778, 0.02749796, -0.03184923, 0.07430498, -0.05263380, -0.03332909, -0.00014647, 0.06815050, -0.04712614, 0.06634820, 0.00574439, 0.00608484, -0.03177863, -0.06874622, 0.04004483, -0.11697830, -0.04819983, -0.07739706, 0.00650791, -0.10323741, 0.07739910, -0.00717027, 0.07310326, 0.04277387, 0.04699228, 0.00379829, -0.05331401, 0.04671553, -0.11250380, -0.01190430, 0.02681383, -0.03804164, 0.01109013, -0.02011891, 0.00191492, -0.04938529, 0.04797959, 0.02109694, 0.04459512, 0.00571400, 0.01190376, 0.01154561, 0.01558525, 0.03371157, -0.02243442, -0.01458509, 0.02663966, -0.01428498, -0.03050781, 0.01254208, 0.01945628, -0.00815113, -0.02359958, -0.01587247, -0.07527627, 0.02032651, 0.00650467, 0.00356239, 0.17589754, -0.04655234, 0.03338492, -0.04645104, 0.05787463, -0.02761441, -0.02515590, -0.01797674, 0.08190843, 0.03767211, 0.05202250, -0.00419545, -0.00509741, 0.05931903, -0.02191632, 0.01553807, -0.05046649, -0.04044377, 0.01643019, 0.06901708, -0.05737545, 0.05122653, 0.00223888, -0.02635474, 0.04450794, -0.03759824, 0.02613549, 0.01728733, 0.01184705, 0.03845486, -0.01149653, 0.02711504, -0.00703787, 0.02300327, 0.00596452, 0.00764197, 0.02218472, -0.01141843, -0.03362817, 0.01742301, 0.05175202, -0.01801417, -0.01669897, 0.05978654, -0.03762886, -0.00141364, 0.03033236, 0.06859706, -0.02606129, 0.01227596, -0.11666669, -0.04334201, -0.03823533, -0.01326910, 0.05463885, 0.01166787, -0.03650103, 0.02509305, -0.05191639, 0.00577979, -0.00195150, 0.07300954, 0.03702028, -0.00167476, 0.04070259, 0.06928495, 0.02562929, 0.01877649, -0.07041260, 0.05969208, -0.02344256, 0.06019447, 0.02286087, 0.02263365, 0.00024229, 0.00052477, -0.02562988, -0.03977169, -0.09096176, 0.00132778, 0.05905688, 0.03190335, -0.06091344, 0.05845192, 0.09733935, 0.05514873, 0.10378141, 0.07188949, 0.01951567, -0.05470188, 0.06347778, -0.01963116, -0.02629176, -0.01760393, 0.04263028, 0.00025737, -0.04216080, 0.07742685, 0.02497879, -0.04301706, 0.02586355, 0.04288649, 0.00486837, -0.01427850, -0.05689114, 0.07027371, -0.01542210, 0.06084733, 0.04084629, 0.01864657, -0.06575391, 0.00100601, 0.02698835, -0.05828001, 0.07966197, 0.02498138, 0.00553920, 0.05127856, -0.09262846, 0.01479665, -0.02033371, 0.00800174, -0.02154995, 0.03278988, -0.01031509, 0.05371528, -0.02634772, -0.02018107, -0.00089985, -0.12670982, -0.00823185, 0.00423825, -0.02318650, -0.04755506, 0.05624814, -0.00487125, 0.04400656, -0.04260902, -0.03438154, -0.05466066, -0.04944545, 0.05375293, -0.05824778, -0.05628262, -0.04309493, 0.00035626, -0.05187963, -0.02783410, 0.00892835, 0.01497678, 0.05802430, -0.00814428, -0.04277523, 0.01382754, -0.05159109, 0.00244566, -0.03773461, 0.09084913, 0.09633521, -0.03863712, -0.03312310, 0.02643656, -0.07749218, 0.03417552, 0.00841685, -0.03111273, 0.02474568, 0.06348465, 0.01544655, -0.05072898, -0.02496566, -0.05639190, 0.01110547, 0.14840825, -0.01191634, 0.06831883, 0.03208738, -0.02246284, -0.08617495, 0.04821872, -0.07058259, -0.00602141, 0.03796763, -0.09859759, -0.12697902, -0.08441422, -0.05679994, -0.01861745, 0.03023787, -0.00560579, 0.02159476, 0.04431070, 0.02673108, 0.02412733, -0.11599161, 0.05114486, -0.08386081, -0.04575252, -0.05827203, 0.01200399, 0.10990901, 0.04114876, -0.05566274, 0.02927520, 0.01296866, 0.02015526, -0.00340314, 0.00967484, 0.03557606, -0.01299053, -0.11198458, -0.02516528, 0.06878529, 0.02279791, -0.00168761, -0.00345046, 0.00372044, 0.08597600, 0.08028500, -0.01746247, 0.04846171, 0.01170056, 0.04020118, -0.00977894, -0.00348875, 0.11140414, 0.04855786, 0.07659055, 0.03774461, 0.10594807, 0.03565891, -0.01464361, 0.03717496, 0.02521201, -0.01126408, 0.02854228, 0.00176719, -0.07259617, 0.00268252, -0.00862294, -0.06949219, -0.02688923, -0.01583950, -0.00821339, -0.00379541, 0.03373832, -0.00400947, 0.00501182, 0.03836146, 0.05382339, 0.00808767, -0.03480947, 0.08400776, -0.09543868, -0.02256389, 0.06333289, 0.00425365, 0.03401371, 0.07411713, -0.14886443, 0.03051428, 0.06642428, 0.08194388, -0.00251914, 0.02705703, 0.01338581, 0.04013392, 0.04291795, 0.00622933, -0.08504567, 0.07932525, 0.00827383, -0.04928872, -0.04120989, -0.04197207, -0.03056727, -0.06458852, 0.00537688, 0.01933911, -0.01317285, 0.04920555, 0.04414695, 0.09623855, -0.01012649, -0.00800601, 0.06619029, 0.03915189, 0.05672782, 0.09004337, -0.03542995, 0.00141835, 0.01285547, -0.01680647, 0.12992437, -0.00510881, -0.00329468, -0.02565333, -0.01675243, -0.07377551, 0.01064015, -0.00681943, -0.01841381, 0.00450471, 0.06154355, 0.00494369, -0.00290611, 0.09252017, -0.01660600, -0.03276269, -0.02860170, -0.02425813, 0.00888965, 0.02747433, 0.00466443, -0.00745251, -0.10836848, 0.06446193, -0.07899815, 0.10821307, 0.01601119, 0.00075594, 0.02714480, -0.01568250, -0.08236987, 0.04210832, -0.11783885, -0.06531369, 0.03040325, -0.05564605, 0.08258557, -0.01714633, -0.00938828, 0.02715386, -0.00800065, -0.04993533, -0.00982165, -0.03106287, 0.02785839, -0.03392057, 0.04853454, 0.01611308, -0.07133510, -0.08934397, 0.08743469, -0.07214591, -0.05027485, 0.06821350, 0.00747489, -0.04472828, 0.04393588, -0.01349558, 0.04580600, -0.10717163, 0.13720457, -0.03043152, -0.02039826, 0.01945078, 0.00626016, -0.01758629, -0.04157692, 0.05894712, -0.03466524, 0.01638429, 0.10804567, -0.03053412, 0.00359131, 0.02296574, 0.01597906, 0.04857686, -0.05297095, 0.01559240, 0.06061204, -0.10995027, 0.09144398, -0.01362892, -0.02212605, 0.00185651, 0.02198117, 0.02283464, 0.09312562, -0.11141796, 0.00546995, 0.02948533, -0.03944537, -0.03117413, 0.06358426, -0.00383763, 0.00309539, -0.00688824, -0.00075032, -0.03761971, 0.01642442, 0.00723545, -0.04228864, 0.04420330, 0.05797775, 0.02301392, 0.02934904, 0.00162247, 0.03039073, -0.01078109, -0.03349566, 0.03386838, 0.08456356, -0.01704135, 0.00782912, -0.06889573, -0.05480067, -0.04160076, -0.03694502, -0.02468231, 0.04278436, -0.03447325, -0.02961189, -0.09847233, 0.04166812, -0.04908695, 0.13067979, -0.07145797, -0.05621985, -0.04774709, 0.05999517, -0.03090262, 0.00087642, 0.00359925, 0.01377197, -0.03309478, 0.03282151, 0.02210536, -0.03264983, -0.02270493, -0.01105019, -0.05101635, 0.04970938, 0.01099717, 0.00193200, -0.00612172, -0.03907374, 0.05532323, 0.00458652, -0.04312023, 0.01444681, -0.03559661, -0.01606632, -0.03040276, 0.08128150, -0.01601445, -0.08081628, -0.01048066, 0.00428433, -0.07820856, -0.06696481, -0.03897531, 0.06065955, 0.01040677, -0.05268355, 0.05807433, 0.00537263, -0.03622264, 0.09659808, 0.06007583, 0.03186883, 0.01138129, 0.06991246, 0.05419030, 0.06280895, -0.01252743, 0.01653025, 0.03894685, 0.06559019, 0.04162179, -0.01107740, 0.01785226, 0.00251076, 0.00192672, 0.02240052, 0.01012169, -0.00260861, 0.12529999, -0.08232653, -0.00601529, -0.03333426, 0.00208684, -0.03221301, -0.01064597, -0.04145621, -0.04212910, -0.03098075, -0.00905933, 0.07410177, -0.06272297, -0.05497029, -0.10303712, -0.03813972, -0.03602818, -0.02886346, 0.00594400, 0.06633837, -0.05966616, -0.04141251, -0.00201501, -0.04255880, 0.00715097, -0.00068353, -0.01453121, -0.06426225, 0.07299943, 0.00575265, 0.00610064, 0.02776263, 0.01265453, 0.00767208, -0.01266375, -0.05108672, 0.05124722, -0.01942866, 0.09833530, -0.09647269, -0.05817531, 0.00994842, 0.00101202, -0.00102111, -0.02306720, -0.04731904, 0.01476914, 0.02656733, 0.02986918, 0.05113967, 0.03796802, 0.07707886, 0.05303347, 0.07639176, 0.00746671, -0.00814740, -0.04581314, -0.06144612, -0.01326899, -0.00886373, -0.00150567, 0.07304075, -0.03122486, -0.03487937, 0.02183075, 0.06072281, 0.03600544, 0.07354206, 0.00543654, 0.02688692, 0.06507488, 0.09099964, -0.01087249, -0.12960809, -0.03491835, -0.03436197, 0.06434899, 0.03584367, -0.05519323, -0.02210146, 0.11078380, 0.02291113, 0.10219456, -0.01126832, 0.11607696, 0.02357030, 0.03066529, -0.00777502, -0.04151266, -0.01376197, -0.06191269, -0.08843310, -0.07053967, 0.01705215, -0.00486960, -0.10117135, 0.04334188, 0.01042860, 0.01382439, 0.06538175, 0.02020018, -0.04414520, -0.13759005, -0.01699563, -0.03876811, -0.03016028, 0.09324078, -0.01441333, 0.03324144, -0.01650824, 0.01607396, 0.03250787, -0.05941342, -0.06501104, 0.01898827, -0.08419793, -0.01853934, -0.08705026, 0.05729792, 0.04863738, -0.05923260, -0.00767058, -0.03279426, -0.01663779, -0.04496105, 