0.0919532254338264, 0.2388168424367905, 0.1413287818431854, 0.1371706426143646, 0.0708234459161758, 0.1890468895435333, -0.0095843933522701, 0.0607125461101532, 0.1654626131057739, -0.2395545393228531, -0.4564072191715240, -0.0677212923765182, 0.3702736198902130, 0.1886012852191925, -0.3874912858009338, -0.1480971276760101, -0.9120320677757263, 0.3622870743274689, -0.2088399827480316, -0.0692319795489311, -0.1080074161291122, -1.8794707059860229, -0.0085378065705299, -0.1107783764600754, 0.2945236563682556, 0.0583810843527317, 0.1223505139350891, 0.0304766260087490, -0.1743967980146408, 0.2841455936431885, -0.0133007066324353, -0.3539923429489136, 0.6523224115371704, 0.1150432527065277, 0.0377885401248932, -0.0479933731257915, -0.5986884236335754, 0.2493882924318314, -0.2847346365451813, -0.2321982234716415, -0.0373911298811436, 0.4148117303848267, 0.3837314546108246, -0.0050040432251990, -0.2736925184726715, -0.1190858781337738, 0.2636993527412415, -0.4067324697971344, 0.0478704273700714, -0.0057844007387757, -0.0956432595849037, 0.1032556667923927, 0.0835437625646591, 0.0124333668500185, -0.3541826605796814, -0.3010696172714233, 0.1126502379775047, -0.0222888514399529, 0.0654946938157082, -0.1397976279258728, 0.2795398235321045, 0.1316516399383545, 0.1295537501573563, -0.1722306162118912, 0.0531442984938622, 0.0266286134719849, 0.6291130185127258, -0.2694025933742523, -0.2101050615310669, -0.0477831698954105, -0.2655206024646759, 0.0669200941920280, 0.1226367726922035, 0.4899976253509521, 0.0603926964104176, 0.2477217614650726, -0.0936470180749893, -0.1873426735401154, 0.0058807721361518, -0.0446380376815796, 0.1041009128093719, 1.0508137941360474, 0.3070228993892670, 0.2034682035446167, 0.0048498865216970, 0.0659369677305222, 0.4053780138492584, 0.2655741870403290, -0.0326676815748215, -1.1057702302932739, 0.5960395932197571, 0.1018833667039871, 0.0695562735199928, 0.4276715219020844, -0.1035009846091270, 0.0972712486982346, -0.0364151261746883, -0.3904654383659363, -0.1621929556131363, -0.2144069373607635, -0.4185051023960114, -0.1459259688854218, -0.0962791740894318, 0.1752193123102188, 0.0330287180840969, -0.1844916939735413, -0.2768574655056000, -0.1958556026220322, 0.5196315646171570, -0.1988408267498016, 0.1226655468344688, 0.1511073410511017, -0.0079898526892066, 0.4543588459491730, -0.3877745568752289, 0.6619874238967896, 0.2594137787818909, -0.1502089798450470, -0.2324823737144470, -0.2078790664672852, -0.2954442799091339, -0.6824789643287659, -0.0134464809671044, -0.2144916802644730, 0.1598501056432724, 0.2570364475250244, -0.0422085076570511, 0.3196180462837219, -0.2058352231979370, 0.6077424287796021, -0.2617478370666504, 0.3181608617305756, 0.0277871415019035, -0.0548126026988029, -0.0178355760872364, -0.3106406033039093, -0.0463380329310894, -0.0591138005256653, -0.0776641368865967, -0.0990183278918266, 0.0329513400793076, 0.1429131925106049, -0.8337602019309998, 0.0296216271817684, 0.1766721904277802, -0.1433556079864502, 1.0117096900939941, 0.1766358464956284, 0.4210503697395325, -0.1603840887546539, -0.1127761527895927, -0.3446382582187653, -0.0410149097442627, 0.0447138659656048, -0.0865928232669830, -0.2811496853828430, 0.3078251183032990, 0.0596298351883888, -0.5434382557868958, 0.3378437757492065, -0.0504880174994469, -0.1954343020915985, -0.0030948810745031, 0.2921960651874542, -0.1656832247972488, 0.0170458704233170, -0.3027553260326385, 0.1333535313606262, 0.0633460134267807, -0.1068176329135895, 0.5667650699615479, -0.0662999376654625, 0.0675957575440407, 0.1646471023559570, 0.1807271391153336, 0.1246871426701546, 0.2216957807540894, -0.4510831832885742, 0.1857445687055588, -0.0603861846029758, 0.0520779341459274, -0.0538558848202229, 0.1241504326462746, -0.0092560164630413, -0.0114593897014856, -0.1404866427183151, 0.2388093322515488, 0.0161946676671505, 1.1786895990371704, -0.1164312511682510, -0.5854045152664185, -0.2162752598524094