//Numpy array shape (576,)
//Min -2.913155794144
//Max 1.927732825279
//Number of zeros 0

#ifndef IN_PROJ_BIAS66_H_
#define IN_PROJ_BIAS66_H_

#ifndef __SYNTHESIS__
layers_8_self_attn_in_proj_bias_t in_proj_bias66[576];
#else
layers_8_self_attn_in_proj_bias_t in_proj_bias66[576] = {-0.633089601993561, -0.159742191433907, 0.067286364734173, 0.093914680182934, 0.071531973779202, -0.038393735885620, 0.017727406695485, -0.010718185454607, -0.013081559911370, -0.111236117780209, 0.124558493494987, -2.913155794143677, -0.253387004137039, 0.089805193245411, 0.391821682453156, 0.054853938519955, -0.004691316746175, -0.001092458842322, -0.392430841922760, 0.190261989831924, -0.273500502109528, 0.182566791772842, 0.316395968198776, 0.214815750718117, 0.090644136071205, -0.006826558150351, 0.009043524973094, -0.207216978073120, -1.737370252609253, 0.931999564170837, 0.160563081502914, -0.053382746875286, 0.107658572494984, -0.004631773568690, 0.022601598873734, 0.005363640375435, 0.395656913518906, 0.002463362412527, -0.161479011178017, -0.088670998811722, 0.128157168626785, -0.085115231573582, -0.081798650324345, 0.048868708312511, -0.030868457630277, 0.494855165481567, 0.006853870116174, -0.229084894061089, 0.368754386901855, -0.079831227660179, 0.527155816555023, -0.015943964943290, -0.047409702092409, -0.039503425359726, -0.424833059310913, -0.107518225908279, 0.088400438427925, 0.624854505062103, 0.416113287210464, -0.080433353781700, -0.143479824066162, 0.028387142345309, -0.011371808126569, 0.367329239845276, 0.025188358500600, -0.035238027572632, -0.308064788579941, -0.272970408201218, -0.247263088822365, 0.151460066437721, 0.027465645223856, -0.023514056578279, -0.005427864380181, 0.764581382274628, 0.030335165560246, -0.260028064250946, 0.091862864792347, -0.112370178103447, -0.087113581597805, -0.045445833355188, -0.080134280025959, -0.469934135675430, 0.493196696043015, 0.045541994273663, 0.011087748222053, -0.193522229790688, 0.074488632380962, -0.052358310669661, -0.071173131465912, -0.015028260648251, -0.223424196243286, -0.206358075141907, 0.069485038518906, 0.142417281866074, 0.361779689788818, -0.117612719535828, 0.046684574335814, -0.091468974947929, 0.035961396992207, 0.236168965697289, -0.211427867412567, 1.927732825279236, 0.056421853601933, 0.085140980780125, 0.192629322409630, -0.025187466293573, -0.012345287017524, -0.016860691830516, 0.095161564648151, -0.130448609590530, 0.140829131007195, 0.016087340191007, -0.022936938330531, 0.330985397100449, -0.014685459434986, 0.034069374203682, 0.035109858959913, 0.310720980167389, -0.045671124011278, 0.083174690604210, -0.189001247286797, -0.356948316097260, -0.095384113490582, 0.013698859140277, -0.026359481737018, 0.027758244425058, -0.332642853260040, 0.312409669160843, -0.033477175980806, -0.361691832542419, 0.361535310745239, -0.539796948432922, -0.031137891113758, -0.013231368735433, 0.060672353953123, 0.104456886649132, 0.315920919179916, -0.916348636150360, -0.213987529277802, -0.163040682673454, 0.393693059682846, -0.064301699399948, -0.086978778243065, 0.013261850923300, -2.009333133697510, 0.126225501298904, 0.053458925336599, 0.362519085407257, 0.501830041408539, 0.386961728334427, -0.018547570332885, -0.043348807841539, 0.011267498135567, -0.121497012674809, -0.300918936729431, 0.121334314346313, 0.038717206567526, 0.562511086463928, 0.251320958137512, 0.045598845928907, -0.035325620323420, 0.033345177769661, -0.046711735427380, 0.329544186592102, -0.069887176156044, -0.285722851753235, -0.206889748573303, 0.055270086973906, 0.003415961517021, 0.133390426635742, 0.054606467485428, -0.186294957995415, -0.256612807512283, 0.059934768825769, -0.175839439034462, 0.087589986622334, 0.040700696408749, 0.024042401462793, -0.019894400611520, -0.004619833081961, -0.256822824478149, -0.125713512301445, -0.249871894717216, 0.024817673489451, -0.207090988755226, -0.095118708908558, -0.102542266249657, -0.006709178443998, 0.050804123282433, -0.187240168452263, -0.039635978639126, -0.092446431517601, -0.210555270314217, -0.086279660463333, -0.135546371340752, -0.098789982497692, 0.033222965896130, -0.031102733686566, 0.157576426863670, -0.006859587039798, 0.477002710103989, -0.164210304617882, -0.533644378185272, 0.180264174938202, -0.015268799848855, 0.037211909890175, -0.018729673698545, 0.134234860539436, 0.186343580484390, -0.241507783532143, 0.654152274131775, 0.043810550123453, 0.219348102807999, 0.100062996149063, -0.090287759900093, -0.019658468663692, 0.080893218517303, -2.273860692977905, 0.096947573125362, 0.071314156055450, -0.006237064488232, -0.052610937505960, 0.054415747523308, 0.105871193110943, 0.040219400078058, -0.308223634958267, -0.249497964978218, 0.074739754199982, 0.124948173761368, -0.000778426474426, 0.321395099163055, 0.040837459266186, -0.057082723826170, 0.075347661972046, 1.555400252342224, 0.026254693046212, 0.122128210961819, -0.379789710044861, 0.447980970144272, 0.259189993143082, -0.007238388061523, -0.065772294998169, 0.035886570811272, -0.126552745699883, 0.110729731619358, 0.028122998774052, 0.007890858687460, -0.171146318316460, -0.135276183485985, 0.003812555922195, -0.052158582955599, 0.010710730217397, 0.417285084724426, 0.055732496082783, 0.027526915073395, 0.127102077007294, -0.518816411495209, 0.294834345579147, -0.097976259887218, 0.021542506292462, -0.001857149996795, 0.227244883775711, -0.050921246409416, -0.125739574432373, -0.160457924008369, -0.698945641517639, -0.228420913219452, 0.025146054103971, 0.007729473058134, -0.063309669494629, -0.447013914585114, 0.192422896623611, -0.016582412645221, 0.120239526033401, -0.367465019226074, 0.225490242242813, 0.081135019659996, -0.082608975470066, 0.048665001988411, 1.372137904167175, 0.133512213826180, 0.004001131281257, -0.152549251914024, -0.084454096853733, 0.259168237447739, -0.124083437025547, 0.018487388268113, -0.008491778746247, -0.328700512647629, -0.461826592683792, -0.044638305902481, 0.034412082284689, -0.209680348634720, -0.228405624628067, -0.103343032300472, 0.049841042608023, 0.043790478259325, 0.137517243623734, -0.001357813016511, 0.103904396295547, 0.391316652297974, 0.000167377089383, -0.492023676633835, 0.059924941509962, 0.073379188776016, 0.025820631533861, 0.116550005972385, 0.238405376672745, -0.127924218773842, -0.273435711860657, 0.248205512762070, -0.403869271278381, -0.051007524132729, -0.039185311645269, -0.008504030294716, 0.123950280249119, -0.171514317393303, 0.065250195562840, 0.706471323966980, 0.466466695070267, 0.178048714995384, 0.041335053741932, -0.004935875069350, 0.005061043426394, 0.318731427192688, 0.022226670756936, -0.004889314994216, -0.670873284339905, -0.127358049154282, -0.354258239269257, 0.091461159288883, -0.010255368426442, 0.029772026464343, 0.031523261219263, -0.089006990194321, -0.069538854062557, -0.242409437894821, 0.214411959052086, -0.038511104881763, 0.040531180799007, 0.029516158625484, 0.078047476708889, 0.023575354367495, -0.062493693083525, -0.072360917925835, 0.670065939426422, -0.241929277777672, -0.448654323816299, -0.028374265879393, -0.026755942031741, 0.033765308558941, 0.200183227658272, 0.013108233921230, -0.092177875339985, 0.219968497753143, 0.213998809456825, -0.347254395484924, -0.047737594693899, 0.023705884814262, 0.051205668598413, 0.155575633049011, -0.066990971565247, -0.008995317853987, 0.123518869280815, 0.133844047784805, 0.127554327249527, -0.022414280101657, -0.008835321292281, -0.015968060120940, 0.088747516274452, -0.087497428059578, -0.019624158740044, 0.220341965556145, -0.158284917473793, -0.009504999034107, 0.008697241544724, 0.036609087139368, 0.039760909974575, -0.577972233295441, 0.173401549458504, -0.070261426270008, 0.474815011024475, 0.037212494760752, 0.025727789849043, -0.034364860504866, -0.028997536748648, -0.046212390065193, 0.355688691139221, 0.140870675444603, 0.156061202287674, 0.074586935341358, 0.190059453248978, 0.146658807992935, 0.019685788080096, 0.041658695787191, 0.024986999109387, -0.036509294062853, -0.044096447527409, 0.136803343892097, 0.121130421757698, 0.079581446945667, -0.197451695799828, 0.015559313818812, -0.063780829310417, 0.005512397736311, -0.354291766881943, 1.897078156471252, 0.122973069548607, -0.135641485452652, 0.153680607676506, -0.334333389997482, 0.109402492642403, 0.024876611307263, -0.000894914206583, 0.179917767643929, -0.083736449480057, 0.007298068609089, -0.254319250583649, 0.033951070159674, 0.126453280448914, 0.030492108315229, 0.044706746935844, -0.031745266169310, -1.408743500709534, -0.078647635877132, 0.044432733207941, -0.324469506740570, -0.088231906294823, -0.192220106720924, -0.015620162710547, -0.044063348323107, -0.040525313466787, -0.225573062896729, -0.138893082737923, 0.339441627264023, -0.360483229160309, 0.092349521815777, 0.631178379058838, 0.013930195942521, -0.069303326308727, 0.037947416305542, 0.751782178878784, 0.107548967003822, -0.100964814424515, -0.529239416122437, -0.080919101834297, 0.044600542634726, 0.025638705119491, 0.022719716653228, -0.054290942847729, -0.177914842963219, 0.023480283096433, 0.010767434723675, 0.080458991229534, 0.274050295352936, -0.106733590364456, 0.032970223575830, 0.073363281786442, -0.017005307599902, 0.359819978475571, 0.225053668022156, -0.042725607752800, 0.366783767938614, 0.063175022602081, 0.369093120098114, 0.033547837287188, -0.048845697194338, 0.030422443524003, 0.130979672074318, -0.249402105808258, 0.030713723972440, -0.169958770275116, -0.224311858415604, -0.159353241324425, 0.016637511551380, 0.062723450362682, -0.010337892919779, -0.308427721261978, 0.035236049443483, -1.924542427062988, 0.468667328357697, -0.559631586074829, -0.083419747650623, 0.049833208322525, 0.083328463137150, -0.034541860222816, 0.317656904459000, -0.123629435896873, 1.866392731666565, 0.554746389389038, -0.234383925795555, 0.198131427168846, -0.026704093441367, -0.008985441178083, 0.070054657757282, -0.570128321647644, 0.284639507532120, 0.088103413581848, 0.241442143917084, 0.256452381610870, 0.137271523475647, 0.053791143000126, -0.001893557608128, -0.053309053182602, 0.259484112262726, -0.062631048262119, 0.017227219417691, -0.285369068384171, 0.288282632827759, 0.128156781196594, 0.046257380396128, 0.003578807460144, -0.041768301278353, 0.108082696795464, -0.162925928831100, 0.354375213384628, -0.361016809940338, 0.303964704275131, 0.124624490737915, -0.085802190005779, -0.041091352701187, 0.043303038924932, 1.318496584892273, -1.542961120605469, 0.075572557747364, -0.326116442680359, -0.216866254806519, -0.198795810341835, -0.024850416928530, -0.030839806422591, -0.017341477796435, 0.394010275602341, -0.099789932370186, 0.137500688433647, -0.001039158552885, -0.195935770869255, 0.049629557877779, 0.057707499712706, -0.019104523584247, 0.003497398924083, 0.172711133956909, 0.035628374665976, -0.098596818745136, -0.118333630263805, 0.104970924556255, -0.216869056224823, 0.004310175776482, -0.031020192429423, -0.018294351175427, -0.090404786169529, 0.174542218446732, -1.405793786048889, -0.202039375901222, -0.088757522404194, -0.027311028912663, 0.023432575166225, -0.139062434434891, -0.037877693772316, -0.507213711738586, 1.780989408493042, -0.008411958813667, 0.013671905733645, -0.086593836545944, 0.446032524108887, 0.108360283076763, 0.056970171630383, -0.010041740722954, 0.078145064413548, 0.048626810312271, 0.134672969579697, 0.334276348352432, 0.335869550704956, -0.371046602725983, 0.029749408364296, 0.027383344247937, -0.048708882182837};
#endif

#endif
