-0.0016159, -0.0629583, 0.0901183, 0.0116355, -0.0279096, -0.0550702, 0.0091997, -0.0060326, 0.0177977, -0.0062321, -0.0020088, -0.0029117, -0.0029829, 0.0762159, -0.0420202, 0.0243512, 0.0255939, -0.0712437, -0.0394739, -0.0247668, 0.0086170, -0.0024621, -0.0020297, -0.0008176, -0.0007683, 0.0354576, 0.0246275, -0.0635753, -0.0113809, -0.0065258, 0.0146182, 0.0223328, 0.0507123, -0.0062391, 0.0045979, 0.0048561, -0.0008761, 0.0086561, 0.0201857, 0.0597874, 0.0361466, 0.0418641, -0.0186772, 0.0103631, -0.0047991, 0.0030424, -0.0021171, -0.0010028, -0.0017741, 0.0103061, -0.0128236, 0.0770541, -0.0095658, 0.0298381, -0.0088126, -0.0489358, 0.0120595, -0.0020691, 0.0023184, -0.0011700, 0.0007711, -0.0847473, -0.0020596, -0.0840504, 0.0253488, 0.0212551, 0.0754156, 0.0019375, -0.0723376, 0.0043117, 0.0022293, -0.0019415, 0.0044166, 0.1502081, 0.0232997, 0.0008682, 0.0175027, 0.0798032, -0.0000886, 0.0203981, -0.0416897, 0.0076005, 0.0022943, -0.0029384, -0.0010500, -0.0266126, 0.0479960, 0.0684695, 0.0357573, 0.0368629, 0.0626792, 0.0762956, -0.0996242, -0.0005433, 0.0025308, -0.0008642, 0.0013199, 0.0252413, -0.0535266, 0.0032435, 0.0155785, -0.0074100, -0.0489774, -0.0199288, -0.0770987, 0.0054778, 0.0023131, 0.0002414, 0.0004377, 0.0114651, -0.0258242, 0.0661924, 0.0079268, -0.0990131, 0.0286299, 0.0109911, 0.0989147, 0.0034351, 0.0012540, 0.0000873, 0.0049333, 0.0034188, -0.0308138, 0.0021789, -0.0505536, 0.0382082, -0.0226691, -0.0542551, 0.0962045, -0.0018811, -0.0004561, 0.0031027, 0.0015938, 0.0924383, 0.0096970, -0.0106183, -0.0002220, -0.1138785, 0.0753250, -0.0187564, -0.0890760, 0.0077248, -0.0030210, 0.0013428, -0.0003332, 0.0266598, -0.0149549, -0.0478229, 0.0021687, 0.0540818, -0.1507035, 0.0324137, 0.0014153, 0.0017558, 0.0035547, 0.0003566, 0.0024621, 0.0248992, 0.0086461, 0.0556343, -0.0493854, 0.0150272, 0.0670189, 0.0249815, -0.0570895, -0.0019995, 0.0013882, -0.0005048, 0.0014897, -0.0835367, -0.0553151, 0.0266240, 0.0077565, 0.0477766, 0.0319393, 0.0413931, 0.0147751, 0.0042716, 0.0076992, 0.0024050, -0.0073267, -0.0113466, -0.0008387, 0.0491647, 0.0799038, 0.0369278, 0.0870408, 0.0600123, 0.0887546, 0.0016965, -0.0020419, 0.0016134, -0.0004020, 0.0517868, 0.0889117, -0.0438427, -0.0185682, 0.0099860, -0.0298189, -0.0559436, -0.0514116, -0.0040440, -0.0006956, -0.0013245, 0.0002182, -0.0580419, -0.0321322, -0.0251765, 0.0296363, -0.0001621, 0.0132728, 0.0502247, 0.1102015, 0.0041262, 0.0008196, -0.0027698, -0.0026603, 0.0271156, -0.0098304, 0.0929417, 0.0014826, 0.0170144, 0.0155974, -0.0707901, -0.0651797, 0.0063713, 0.0015930, 0.0013113, -0.0007522, 0.1026471, -0.0189329, -0.0844313, -0.0277332, -0.0456037, -0.0086068, -0.0205336, 0.0818199, 0.0042572, -0.0024754, -0.0004066, 0.0038123, 0.0431349, 0.0206835, -0.0589946, -0.0073389, 0.0014544, -0.0687917, -0.0104872, 0.0554748, 0.0009762, -0.0071049, -0.0025985, -0.0026613, 0.0937806, -0.0041279, 0.0867216, 0.0732836, 0.0599321, 0.1016645, -0.0379934, 0.0816838, -0.0159360, -0.0088515, -0.0034603, 0.0012443, 0.0056310, 0.0033416, -0.0411041, -0.0323591, 0.0290676, 0.0300460, 0.0294559, 0.0363886, -0.0062797, -0.0008860, -0.0006799, 0.0036151, 0.0336317, 0.0762546, 0.0786446, 0.0182934, -0.0418626, -0.0400438, -0.0005179, 0.0012932, 0.0020837, 0.0023303, -0.0001282, -0.0033238, 0.0587902, 0.0117239, -0.0291978, -0.0346763, -0.0278629, 0.0203257, -0.1400345, -0.1640406, -0.0016749, -0.0050462, -0.0035040, 0.0022928, -0.1013746, 0.0400072, 0.0053995, -0.0058474, 0.0817359, -0.0303678, 0.0676304, 0.0274088, -0.0035345, 0.0005382, -0.0027717, -0.0011469, 0.0761492, 0.0163321, 0.0331590, 0.0365073, 0.0286784, 0.0845906, -0.1081502, -0.0819238, -0.0001788, 0.0135443, 0.0072866, -0.0005555, -0.0330936, 0.0684445, 0.0162879, -0.0086160, 0.0129078, 0.0428253, 0.0455947, -0.0900853, -0.0019300, -0.0042701, -0.0006642, -0.0044837, -0.0562957, 0.0142684, 0.0506139, -0.0269345, 0.0393287, 0.0627580, -0.0003789, 0.1168290, -0.0004991, 0.0015255, 0.0035055, -0.0052639, -0.0805860, 0.0124634, 0.1458914, 0.0469099, 0.0808958, 0.0000008, 0.0204548, -0.1050968, 0.0056322, -0.0009121, -0.0028243, 0.0008600, 0.0705320, -0.0621800, 0.0553299, 0.0521402, -0.0478310, 0.0234984, 0.0111553, 0.0055573, 0.0042837, 0.0034150, 0.0039037, -0.0006669, 0.1140407, 0.0002540, 0.0213915, -0.0031205, -0.0438098, -0.0144568, 0.0161553, -0.0251824, 0.0026218, -0.0036466, -0.0000188, -0.0004134, 0.0184011, 0.0167935, 0.0124718, 0.0016990, 0.0333548, -0.0340331, -0.0421401, 0.0315719, -0.0017899, 0.0013605, -0.0000158, -0.0007495, -0.0491192, -0.1536009, -0.0148205, -0.0167806, 0.0722498, -0.0054364, -0.0549392, -0.0622922, 0.0005191, 0.0016967, 0.0001185, -0.0014688, 0.0412656, -0.0323424, -0.0384846, -0.0495761, 0.0802018, -0.0208961, 0.0137292, 0.1078962, 0.0001005, -0.0008441, -0.0018506, -0.0039556, -0.0267887, -0.0355556, 0.0551110, 0.0560656, 0.0409373, 0.0213544, 0.1076953, -0.0435000, 0.0021354, 0.0030364, 0.0013140, -0.0039120, -0.0651931, -0.0949155, 0.0362245, 0.0190715, 0.0424659, 0.0622090, 0.0232191, 0.0484554, -0.0012606, 0.0001543, 0.0012400, 0.0018295, 0.0063658, -0.0800549, 0.0234214, 0.0552927, -0.0494628, -0.0226717, -0.0751503, 0.1117213, -0.0056845, -0.0000942, 0.0003178, -0.0000213, 0.1145203, -0.0360748, 0.0257712, 0.0730144, 0.0516888, -0.0278425, 0.0171410, 0.0614632, 0.0052432, -0.0024408, -0.0045003, 0.0018623, -0.0070378, 0.0077818, 0.0462359, -0.0296764, 0.0330570, -0.0236781, 0.0164438, 0.0449558, -0.0014012, 0.0013312, -0.0004790, -0.0031535, 0.1109545, 0.0628758, 0.0047155, 0.0487696, -0.0522919, 0.0075050, -0.0154415, -0.1971503, -0.0029173, 0.0017632, 0.0026352, -0.0001793, 0.0371456, 0.0039830, 0.0036307, 0.0014453, 0.0406356, 0.0595591, -0.0388617, 0.0984465, 0.0008550, -0.0029588, -0.0056257, 0.0006497, 0.0163580, 0.0469784, 0.0602127, 0.0282116, -0.0802917, 0.0544221, -0.0370717, -0.0962103, 0.0035743, 0.0059097, 0.0008950, 0.0006704, -0.1256965, 0.0275013, -0.0093685, 0.0051793, -0.0206696, 0.0476595, 0.0266942, -0.0015839, -0.0079258, -0.0035779, -0.0025628, -0.0031455, 0.0952267, 0.0765853, 0.0262833, -0.0201118, 0.0844510, 0.0426401, 0.0680931, -0.0916935, 0.0000535, 0.0057095, 0.0030464, -0.0013241, 0.0223983, 0.0476777, 0.0012689, -0.0099538, -0.0246525, -0.0206822, 0.0249128, -0.0905075, -0.0008643, 0.0002673, 0.0039682, 0.0002421, -0.0062371, 0.0130242, 0.0106272, -0.0892040, -0.0868925, -0.0449550, 0.0042244, -0.1240300, -0.0055517, 0.0023732, 0.0009405, 0.0018527, -0.0323271, 0.0514755, 0.0163326, -0.0245286, 0.0341572, 0.0355041, 0.0126069, 0.1499798, 0.0021598, -0.0040490, -0.0014493, 0.0000878, -0.0717754, -0.0531907, -0.1067420, -0.1126648, 0.1037276, -0.0538158, 0.0052367, 0.0333859, -0.0008915, -0.0029342, 0.0006782, 0.0002593, 0.0500309, -0.0271525, -0.0352225, 0.0078467, 0.0159899, 0.0782513, -0.0050498, 0.0058993, -0.0057244, -0.0049281, -0.0013925, 0.0017950, 0.0031287, 0.0326615, 0.1582844, 0.1157187, -0.0525492, -0.0002021, -0.0294224, 0.0475024, -0.0081126, -0.0026984, 0.0010611, 0.0000913, -0.0819460, -0.0499980, -0.0777666, -0.0594513, 0.0441109, 0.0357089, -0.0180990, -0.0845139, 0.0007052, 0.0066945, 0.0037415, 0.0028961, 0.0872600, -0.0451913, -0.1253877, 0.0534583, -0.0113541, -0.0416267, 0.0894261, -0.0834760, 0.0008431, -0.0047116, -0.0042659, -0.0002019, 0.0837050, 0.0867797, -0.0253994, -0.0787361, -0.1371853, 0.0313721, -0.0378494, 0.0692346, 0.0034690, 0.0002735, 0.0013618, 0.0010624, -0.0654305, 0.0026801, 0.0042082, -0.0632208, -0.0336668, 0.0104539, 0.0094214, 0.0595321, -0.0035249, -0.0007008, -0.0051519, -0.0014965, -0.0512095, -0.0062775, 0.0197217, -0.0133000, 0.0627142, 0.0198867, 0.0383619, -0.0882611, 0.0031947, -0.0047566, -0.0040787, 0.0028806, 0.0212274, 0.1132451, 0.0204920, 0.1128764, -0.0163694, -0.0771851, 0.0448282, 0.0502847, 0.0013807, 0.0001548, 0.0019196, 0.0015801, 0.0179346, 0.0491383, 0.0174485, 0.0099363, 0.0176900, 0.0447109, -0.0748368, 0.0034082, -0.0014501, -0.0031851, -0.0009940, 0.0007768, -0.0498028, -0.0256724, 0.0577754, 0.0035113, -0.0589637, 0.0332842, 0.0206706, 0.1296680, -0.0010730, -0.0010294, -0.0019398, 0.0026078, 0.0017875, -0.0507953, -0.0486846, 0.0263359, -0.0000843, 0.0138332, 0.0836643, 0.1925451, 0.0046789, 0.0019558, -0.0003458, 0.0022990, -0.0456458, -0.0159948, 0.0134901, 0.0435814, 0.0629086, -0.0426741, 0.0477305, 0.0233457, 0.0027724, -0.0018110, -0.0014551, -0.0032041, 0.0680266, 0.0351899, -0.0414205, -0.0106401, -0.0277765, -0.0528753, -0.0405543, 0.0072183, 0.0051578, -0.0004449, -0.0027308, 0.0022049, 0.0288443, -0.0180650, 0.0310443, -0.0738923, -0.0430017, 0.0054701, 0.0069910, -0.1691638, -0.0047147, -0.0028611, 0.0011573, 0.0050538, 0.0810891, -0.0040397, -0.0572048, 0.0031370, -0.0182178, 0.0082441, 0.0785406, -0.0411963, -0.0030140, 0.0020870, 0.0012615, -0.0010809, -0.0910796, 0.0608622, -0.0341966, 0.0389181, -0.0903574, -0.0212907, -0.0108841, -0.0126107, -0.0000045, -0.0011950, -0.0025040, 0.0003341, 0.0211593, 0.0578875, 0.0254144, -0.0320647, 0.1201723, -0.0787081, 0.0196665, 0.1499115, -0.0035130, -0.0049199, 0.0002321, -0.0030014, 0.0911611, -0.0667843, 0.0440205, -0.0202485, 0.0237067, -0.0258734, -0.0205762, 0.0051869, -0.0003600, -0.0012179, 0.0009843, -0.0008445, 0.1080906, -0.1143537, -0.0132986, -0.0223105, -0.0542024, -0.0451110, 0.0927643, -0.0656241, -0.0015102, -0.0062210, -0.0020388, -0.0035663, -0.0219589, 0.0274382, -0.0132411, -0.0183513, -0.0065801, 0.0191271, -0.0604046, 0.1564791, 0.0050208, 0.0005157, -0.0002532, 0.0022519, -0.0343144, 0.0000730, -0.0302306, -0.0180645, 0.0426486, 0.0391405, 0.0037596, 0.0227996, 0.0014012, 0.0007824, 0.0026339, -0.0031198, 0.0751682, -0.0864420, 0.0364215, 0.0021907, 0.0802811, 0.0225895, 0.0141835, 0.0179824, -0.0027309, -0.0032650, 0.0009366, 0.0016031, 0.0009515, -0.0131545, -0.0482441, -0.0032546, 0.0001151, 0.0432074, 0.0099228, 0.1032321, -0.0016565, -0.0037751, 0.0001842, 0.0027586, -0.1375845, -0.0585373, -0.0822193, 0.0619576, -0.0112884, 0.0049885, -0.0064090, -0.1515656, -0.0026123, -0.0027926, -0.0007609, 0.0050274, -0.0179727, -0.0855530, 0.0217585, -0.0249455, -0.0367240, -0.0428863, -0.0738456, 0.1021067, -0.0005674, 0.0039870, 0.0038239, -0.0055701, -0.0867673, -0.0240495, -0.0180926, -0.0053558, 0.1066627, -0.0412413, -0.0129645, 0.0213046, 0.0040102, -0.0073790, -0.0057036, 0.0014390, -0.0318285, 0.0203003, -0.0031997, 0.0005512, -0.0078919, 0.0320229, -0.0481672, 0.1002619, -0.0005101, -0.0017482, -0.0035914, 0.0031983, -0.1129912, -0.0505429, -0.0364372, 0.0676821, 0.0817634, -0.0657454, 0.1047378, 0.0943684, -0.0023149, 0.0017527, 0.0010051, 0.0019910, 0.0342960, -0.0175188, 0.0676476, -0.0542006, 0.0719776, -0.0276422, 0.0030177, 0.0926121, 0.0064655, 0.0039751, 0.0003542, 0.0027613, -0.0165256, -0.0796569, -0.1279300, 0.0082309, 0.0776861, -0.0142550, 0.0712745, 0.1205273, 0.0007541, 0.0062638, 0.0028684, -0.0032339, 0.0106731, -0.0092872, 0.0117293, 0.0485608, -0.0044126, 0.0072680, -0.0663529, -0.1166982, -0.0017672, -0.0003061, 0.0026768, 0.0015958, -0.0901692, 0.0163180, -0.0006611, 0.0119265, -0.0473614, 0.0137728, -0.0507753, -0.0628540, 0.0021637, 0.0052921, 0.0041550, 0.0012450, -0.0164191, 0.0506633, 0.0023858, -0.0254891, -0.0512146, -0.0203518, 0.0593103, -0.0193354, -0.0012704, -0.0000954, 0.0028888, 0.0006291, -0.0328551, 0.0618228, 0.0046859, 0.0463807, -0.0987078, -0.0163744, 0.0860168, 0.0183183, -0.0037721, -0.0034763, -0.0018582, -0.0005166, -0.0434627, -0.0262117, 0.0234164, 0.0032533, 0.0314333, 0.0724248, 0.0698528, 0.0533636, -0.0018803, 0.0018478, 0.0033745, 0.0025149, -0.1427185, 0.0129525, 0.0563390, -0.0051993, -0.0479989, -0.0361465, -0.0278311, 0.0516737, 0.0020795, -0.0030860, -0.0018303, 0.0003981, -0.1085886, 0.0323755, 0.1033761, 0.0526609, -0.0146829, -0.0091962, -0.0045054, -0.0663134, 0.0019281, 0.0035402, 0.0024608, 0.0020148, 0.0702973, -0.0091854, -0.0540394, 0.0168590, 0.0531515, -0.0616772, -0.0538589, 0.0136240, 0.0054411, -0.0031707, -0.0028996, 0.0009284, -0.1050030, 0.0374354, -0.0392059, -0.0524377, 0.0194243, -0.0520930, 0.0411260, -0.0223491, 0.0035493, -0.0003643, 0.0001354, 0.0020869, -0.1439123, -0.0004561, 0.0273777, 0.0032045, 0.0985929, -0.0523971, 0.0089041, -0.0587939, -0.0025338, 0.0013304, 0.0009681, -0.0016269, 0.0311056, -0.0078178, -0.0342866, 0.0159045, -0.0467462, -0.0477903, -0.0075501, -0.0157489, 0.0044081, 0.0010477, -0.0021693, -0.0024326, 0.0121284, 0.0116285, -0.0080395, 0.0598387, -0.1328047, 0.0036161, -0.1592155, 0.0150782, 0.0017753, 0.0031804, -0.0030036, 0.0013721, 0.0689883, 0.1262471, 0.1224652, 0.0003426, -0.0228564, -0.0148628, -0.0035271, 0.0799456, 0.0019919, -0.0000863, -0.0014356, 0.0005824, 0.1067173, -0.0240104, -0.0383287, -0.0649976, 0.0391303, -0.0729937, 0.0595831, -0.0415687, 0.0000047, -0.0041860, -0.0020381, 0.0032996, -0.0102290, -0.0466736, -0.0449325, -0.0112046, -0.0568049, -0.0562999, 0.0026956, -0.0104506, -0.0017083, -0.0038103, -0.0009887, -0.0012716, 0.1607113, 0.1238524, 0.0223871, 0.0410020, 0.0292097, -0.0274416, 0.0446764, -0.0960762, -0.0050570, -0.0014447, 0.0000246, -0.0042560, -0.0064712, -0.0276374, -0.0303037, 0.0133911, 0.0126689, 0.0652049, 0.0169275, 0.1023884, -0.0001036, 0.0009847, -0.0009746, -0.0040638, -0.0272957, -0.0973251, -0.0595778, -0.0160733, -0.0234446, -0.0069915, 0.0197418, -0.0930764, -0.0005264, 0.0001737, 0.0001395, -0.0038529, -0.0248820, 0.0067514, 0.0928979, -0.0181633, -0.0206819, -0.0604622, -0.0610052, -0.0098788, -0.0028313, 0.0014147, -0.0032848, 0.0024755, -0.0210759, -0.0858788, -0.0112392, 0.0274210, -0.0019807, -0.0265464, 0.0003311, -0.0175048, 0.0030699, 0.0048166, 0.0054377, 0.0005450, -0.1269871, 0.0367397, -0.1142305, 0.0175753, 0.0672467, 0.0767014, 0.0244652, 0.0402358, 0.0031839, -0.0012231, -0.0018120, 0.0028485, 0.0865192, 0.0559410, -0.0428849, 0.0049182, -0.0170744, -0.0153490, -0.0281671, 0.0419387, -0.0036474, 0.0004398, 0.0010924, 0.0024622, -0.0221197, -0.0077545, 0.0845718, -0.0926970, -0.1048918, 0.0691677, 0.0187563, 0.1304378, 0.0053301, -0.0009777, -0.0022139, -0.0011502, -0.0350778, -0.0965988, 0.0628932, -0.0192077, 0.0639251, 0.0322378, -0.0131619, -0.0918369, 0.0007898, 0.0011966, -0.0023043, -0.0011647, 0.0213787, -0.0543808, -0.1157253, -0.0097102, -0.0123955, 0.0423409, -0.0096509, -0.0822456, 0.0021741, 0.0025826, 0.0041646, 0.0008602, -0.0589318, -0.0376474, -0.0497144, 0.0261382, 0.0586477, 0.0401392, 0.0496311, 0.0690822, 0.0003283, 0.0009015, 0.0022052, 0.0019489, 0.0745083, 0.0134696, -0.0032717, 0.0531866, 0.0282608, -0.1058891, -0.0675725, -0.0306414, -0.0063226, 0.0002578, 0.0017855, -0.0018011, 0.0227412, -0.0309578, 0.0651993, -0.0046973, 0.0140877, -0.0492541, -0.0044455, 0.0291757, -0.0080635, -0.0014567, 0.0011047, -0.0017849, -0.1134150, -0.0645105, -0.0144088, 0.0455096, 0.0157331, 0.0428516, -0.0377873, -0.1125572, 0.0024942, 0.0033970, -0.0010807, -0.0007318, 0.1361774, 0.0119869, -0.0311404, 0.0658908, -0.0138665, 0.0583265, 0.0056366, 0.0459170, 0.0036022, -0.0028015, -0.0006674, 0.0004981, -0.0234386, -0.0248474, 0.0904643, -0.0337837, 0.0411477, 0.0561708, 0.0096341, -0.0285205, 0.0048427, 0.0036100, -0.0028376, 0.0003942, -0.0557666, 0.1163433, 0.0150027, -0.0663393, -0.1214379, 0.0180120, -0.0012047, 0.0021988, -0.0024421, -0.0017198, 0.0018644, 0.0003374, 0.1306118, 0.0463018, 0.0290351, 0.0103278, -0.0341914, 0.0544933, 0.0237590, 0.0055846, -0.0031764, 0.0003446, -0.0007581, -0.0010138, 0.0052679, 0.0405197, -0.1078509, 0.0122308, 0.0230788, -0.1329357, -0.0622514, 0.1065990, 0.0010890, 0.0005868, 0.0025868, 0.0027318, 0.0712349, -0.0253694, -0.0162845, 0.0149315, -0.0523051, -0.0544210, 0.0327154, -0.0100282, -0.0056618, -0.0014588, -0.0000831, -0.0012534, -0.1026652, 0.0887825, 0.0975162, -0.0152175, -0.0253141, 0.0404131, 0.0777021, -0.0371484, -0.0051577, -0.0013378, 0.0019151, -0.0010471, -0.0055724, -0.0075337, 0.0243452, -0.0015679, -0.0269415, 0.0250882, -0.1010057, -0.0101295, -0.0074301, -0.0013347, 0.0014723, 0.0020493, 0.0480400, -0.0185117, 0.0626136, -0.0017733, 0.0581833, 0.0876376, 0.0658978, -0.0640396, -0.0038944, 0.0009265, -0.0001095, -0.0014812, 0.0606621, 0.0209865, -0.0120937, -0.0303754, -0.0504206, -0.0200807, 0.0249381, -0.0264836, 0.0082511, 0.0067500, -0.0001016, 0.0001864, 0.0225222, 0.0523882, -0.0257145, 0.0088299, 0.0091460, 0.0045388, -0.1039500, 0.0578411, -0.0046912, 0.0004934, 0.0023622, -0.0024962, 0.0139164, 0.0351356, -0.0155809, -0.0136858, -0.0945109, -0.0005209, -0.0516169, 0.0820000, -0.0009464, -0.0011544, -0.0017368, 0.0008576, 0.0093246, 0.0204974, -0.0079683, 0.0505204, 0.0164927, -0.0080492, 0.0080017, 0.0957452, -0.0052655, 0.0045430, 0.0030949, -0.0037044, 0.0338610, -0.0682102, -0.0045071, 0.0928234, -0.1101916, 0.0522679, -0.0452898, -0.0572802, 0.0012164, 0.0018729, 0.0011195, -0.0022779, -0.0063946, -0.0481124, -0.0003271, 0.0018592, 0.0676703, -0.0619701, 0.0445385, -0.0022785, -0.0040023, -0.0026679, 0.0029087, 0.0014372, -0.2030548, 0.0428124, -0.0136348, -0.0563059, 0.0598166, 0.0366792, 0.0624468, -0.0774336, -0.0004271, -0.0045082, 0.0001101, 0.0014893, 0.0596725, -0.0497360, 0.0206571, 0.0324080, 0.0010013, -0.0113132, 0.0202208, -0.0016511, 0.0049369, 0.0038055, -0.0001906, -0.0014681, 0.0096519, 0.0282874, -0.0107968, -0.0216613, 0.0462639, -0.0665385, -0.0100758, 0.0014800, 0.0069897, 0.0012223, -0.0002557, 0.0034551, 0.0510772, 0.0911375, -0.1020114, 0.0445537, 0.0232194, 0.0414006, 0.0159622, 0.1159494, -0.0002288, -0.0006429, 0.0022475, 0.0011936, 0.0146996, -0.0758949, -0.1053972, -0.0095671, -0.0048534, 0.0088401, 0.0842379, -0.0338218, 0.0013859, -0.0040786, -0.0002426, -0.0052332, -0.0593122, -0.0174388, 0.0277190, 0.0923874, -0.0620057, 0.0034429, 0.0530611, -0.0150408, -0.0041999, 0.0017089, 0.0003689, -0.0030329, -0.0663296, 0.0060792, 0.0584558, 0.0908436, -0.0082523, 0.0424235, 0.0280953, -0.0469020, 0.0011241, 0.0055569, 0.0018263, 0.0015093, 0.1090162, 0.0378577, -0.0594924, -0.0131190, 0.0342754, -0.0584856, -0.0702264, -0.1510022, 0.0006034, 0.0006851, -0.0021274, -0.0041990, 0.0450662, -0.0171444, -0.0212240, -0.0362784, 0.0778244, -0.0268540, -0.0057506, 0.0634764, -0.0055088, 0.0016955, 0.0027940, 0.0039661, -0.0265459, 0.0095274, -0.0244223, 0.0535837, 0.0409819, 0.0589766, 0.0318061, 0.0188020, -0.0005779, -0.0026419, -0.0029196, 0.0000777, -0.0140918, 0.0738286, 0.0945930, 0.0285550, -0.0599400, -0.0024748, 0.0487554, -0.2070827, 0.0021883, 0.0040919, 0.0036554, -0.0008536, 0.0339346, 0.0559308, -0.0568745, -0.0892181, 0.0663529, -0.1001800, -0.0072793, -0.0448488, 0.0003689, -0.0006530, 0.0003531, 0.0039991, -0.0259799, 0.0251739, -0.0109750, -0.0077782, 0.0214637, 0.0050407, -0.1098929, 0.0238788, -0.0036401, -0.0029598, -0.0010916, -0.0005665, 0.0384608, -0.0022549, -0.0493087, 0.0305815, 0.0123214, -0.0040276, -0.0277129, -0.0068107, 0.0001928, 0.0008801, -0.0004763, 0.0018426, 0.0297521, 0.0074931, 0.0326439, 0.0381000, -0.1207625, -0.0023273, -0.0870953, 0.0164109, -0.0000421, -0.0041732, -0.0014849, 0.0008242, -0.0080217, -0.0359832, -0.0540965, -0.0284598, -0.0327432, -0.0718983, 0.0237416, -0.0709615, 0.0023271, 0.0025901, 0.0008858, -0.0035684, 0.0085500, 0.0272410, 0.0000326, 0.0167689, -0.1148935, 0.0204098, 0.0028111, -0.0422510, -0.0001830, -0.0021777, -0.0021032, -0.0000131, 0.1497569, 0.0128426, -0.0307048, -0.0598202, 0.0687705, 0.0203294, 0.0143256, 0.0142731, -0.0011055, -0.0017872, 0.0014942, 0.0005733, -0.0726589, 0.0306670, -0.1526154, -0.0160203, -0.0309686, -0.0097213, 0.0263590, -0.2335633, 0.0006943, 0.0010158, 0.0013624, 0.0026645, -0.0313856, -0.0168306, 0.0001817, -0.0744620, -0.0185543, 0.0918437, -0.0841640, 0.0512188, 0.0040252, 0.0035149, 0.0009523, 0.0039144, -0.0156405, 0.0300530, 0.0510821, -0.0138198, -0.0662208, 0.0214664, 0.0228137, -0.0991776, -0.0014006, -0.0031899, -0.0016057, 0.0013169, 0.0089743, -0.0036757, 0.0230715, -0.0522938, -0.0441965, 0.0285113, -0.0232462, 0.0415713, 0.0015217, 0.0014798, 0.0045654, -0.0004974, 0.0607679, -0.0047658, -0.0016458, 0.0199826, -0.0434423, -0.0441174, -0.0436363, 0.1743988, -0.0012683, -0.0016818, -0.0050493, 0.0013891, -0.0295063, 0.0226223, -0.0500138, 0.0050115, -0.0024973, -0.0259776, 0.0033258, -0.0172824, 0.0049996, 0.0028418, 0.0022087, -0.0031161, -0.0750954, 0.0799567, 0.0028716, -0.0042522, -0.0187910, -0.0149205, -0.0463688, -0.0247384, -0.0060564, -0.0070220, -0.0042413, -0.0038027, -0.0113456, -0.0230936, 0.0252254, 0.0647223, -0.0366606, 0.0484331, -0.0721825, -0.0472863, -0.0007698, -0.0007175, -0.0000630, -0.0009047, -0.0882013, 0.0047931, -0.0067587, 0.0476734, 0.0734719, 0.0282694, -0.1033399, -0.0395529, -0.0006796, 0.0018449, 0.0024405, -0.0017657, 0.0346836, -0.0167743, 0.0097914, 0.0163876, 0.0591955, 0.0719602, 0.0277566, 0.0152815, 0.0002492, -0.0015785, -0.0031718, 0.0035294, 0.0002717, 0.0151396, -0.0540656, -0.0186507, -0.0213372, 0.0179121, -0.0723235, -0.0711063, 0.0003496, -0.0000649, 0.0034745, -0.0003041, 0.0552005, 0.0781330, 0.0947387, -0.0011896, -0.0209891, -0.0015415, 0.0298470, 0.0360741, -0.0031200, -0.0029100, -0.0019432, 0.0004740, -0.1458804, -0.0668873, -0.0922069, 0.0280210, 0.0401123, 0.1092317, 0.0035400, -0.0326404, -0.0024102, 0.0024475, -0.0023116, 0.0056010, 0.0573669, -0.0371583, -0.0627571, 0.0087857, -0.0187529, -0.1681938, 0.0610886, -0.0343351, -0.0002010, 0.0015455, -0.0013405, -0.0010697, 0.0101318, -0.0352895, 0.1173116, -0.0001119, 0.0044661, -0.0711270, -0.0223086, 0.0810660, 0.0052528, -0.0026958, -0.0012060, -0.0014015, -0.0227568, -0.0584771, 0.0629439, -0.0882240, -0.0097692, 0.0229614, 0.0230193, 0.0182035, -0.0057503, -0.0010902, -0.0013142, 0.0018497, -0.0100610, 0.0060212, 0.0037460, 0.0573683, -0.0161988, -0.0032663, 0.0570108, -0.1159942, 0.0019031, -0.0020062, -0.0058573, 0.0014148, -0.0323280, 0.0196575, -0.0016221, 0.0263546, -0.0060893, -0.0360787, 0.0977151, 0.0613506, -0.0051426, -0.0027796, 0.0005795, 0.0038211, 0.0309516, -0.0215041, -0.0033582, -0.0476147, 0.0139659, 0.0070881, -0.0814174, 0.0617784, -0.0018628, -0.0004061, -0.0006778, -0.0019122, -0.0112343, -0.0490997, 0.0968458, -0.1197558, -0.0096323, 0.0369627, -0.0554401, -0.0114333, -0.0052381, -0.0051412, -0.0012513, 0.0021239, -0.0640851, -0.0457667, 0.0173553, -0.0305014, 0.0209104, -0.0567386, -0.1145466, -0.0483881, 0.0048806, 0.0033010, 0.0021975, -0.0002912, 0.1972387, 0.0414889, -0.0547717, 0.0001242, -0.0765716, -0.1327084, -0.0083414, 0.0679570, -0.0005529, -0.0005887, -0.0029440, 0.0010520, -0.0355737, 0.0118293, 0.0051784, -0.0303327, -0.0723634, -0.0513710, -0.0025558, 0.0925763, 0.0038774, -0.0060737, -0.0006972, 0.0004855, -0.0001589, 0.0237647, 0.0208097, -0.0433709, -0.0909912, 0.0030695, 0.0578423, -0.0154455, 0.0011882, 0.0012549, 0.0020188, 0.0028161, -0.0238307, 0.0377755, 0.1274316, 0.0304099, -0.0095739, 0.0389422, -0.0562856, 0.0415032, -0.0030246, -0.0036496, -0.0042210, 0.0033064, 0.0071386, -0.0135804, -0.1248099, 0.0475764, -0.0981224, 0.0153199, 0.0145013, -0.0310105, -0.0028660, 0.0003281, -0.0005756, 0.0012749, -0.0723035, -0.0579676, 0.1490064, -0.0085594, 0.0828840, 0.1203841, 0.1142887, 0.0543672, 0.0014004, -0.0025113, -0.0017772, 0.0049781, -0.0775845, -0.0471605, -0.0272051, 0.0430940, -0.0408479, 0.0320656, 0.0279654, -0.0454961, -0.0036560, -0.0034179, 0.0026838, -0.0042075, 0.0522689, -0.0152025, -0.0137941, 0.0361354, -0.0506169, -0.0521578, -0.0284931, 0.1227829, -0.0001362, -0.0031302, -0.0003156, 0.0000141, 0.0622007, -0.0301359, 0.0288387, -0.0865746, -0.0771015, -0.0273169, -0.0450284, 0.0002198, -0.0016040, -0.0014130, -0.0025020, -0.0008218, 0.0830727, -0.0507307, -0.0193947, 0.0344750, -0.0182609, -0.0274503, -0.0728913, 0.1611727, -0.0027184, 0.0035216, 0.0026222, -0.0001283, 0.0826307, 0.1340270, -0.0104402, -0.0380394, -0.0031881, 0.0340711, 0.0025212, -0.0734856, -0.0001780, 0.0015760, -0.0008136, -0.0017230, -0.0554205, 0.0070662, -0.0649946, -0.1022272, 0.0676257, 0.0269405, -0.0086260, -0.0987270, 0.0005706, 0.0001429, 0.0005191, -0.0014690, -0.1080218, -0.0547729, -0.0233593, 0.0821964, 0.0500947, 0.0351305, 0.0076001, 0.0451031, -0.0001108, 0.0021714, -0.0019719, 0.0023525, -0.0662285, -0.0525007, 0.1013853, -0.0009995, -0.0519581, -0.0344212, -0.0256370, 0.0534656, 0.0038844, 0.0010279, 0.0015360, -0.0013862, 0.0457914, -0.0409016, -0.0479428, -0.0896350, -0.0694277, 0.0200599, 0.0010202, -0.0510950, -0.0027855, -0.0006192, 0.0028036, 0.0034686, 0.0456401, -0.0282681, 0.0042672, -0.0090283, -0.0363816, -0.0163353, 0.0612179, 0.0425378, 0.0007510, -0.0037182, -0.0007655, -0.0005189, 0.0389891, -0.0187110, -0.0436479, 0.0444680, -0.0074899, -0.0440254, 0.0853551, 0.0991621, -0.0004158, 0.0015443, -0.0008948, 0.0021231, 0.0276696, 0.0694110, -0.0093931, -0.0143116, 0.0090675, -0.0395574, -0.0504428, -0.0905831, 0.0078292, 0.0014251, -0.0016051, 0.0024338, 0.0464986, 0.0411495, -0.0913306, -0.0019056, -0.0745343, 0.1097116, 0.0207418, -0.0203128, -0.0000945, 0.0034206, 0.0031540, 0.0009400, -0.0902681, -0.0963158, -0.0304892, 0.0006239, 0.0867213, 0.0732127, -0.0047117, -0.0299219, 0.0029428, 0.0038438, -0.0026683, -0.0024934, -0.0751190, -0.0088428, 0.0261876, -0.0230074, 0.0389546, -0.0413402, 0.0138700, -0.0206053, 0.0019469, 0.0000602, -0.0025404, -0.0031986, -0.0210110, 0.0073576, -0.0229718, 0.0891912, 0.0617375, -0.0056926, 0.0243116, 0.1383374, 0.0025440, -0.0022491, 0.0011355, -0.0021576, 0.0027722, -0.0127317, 0.0324967, -0.0051780, 0.0024478, 0.0631447, -0.0013092, -0.0242259, -0.0007973, 0.0007347, 0.0033010, -0.0032825, -0.0473428, 0.0138104, -0.0055772, -0.0858796, 0.0695772, -0.0043791, 0.0704334, -0.0261187, 0.0013739, 0.0038875, 0.0031109, -0.0032655, -0.0332417, -0.0336103, -0.0267925, -0.0013807, 0.0334124, 0.0014343, 0.0044073, -0.0154621, 0.0043320, 0.0055928, 0.0058314, -0.0031628, -0.1299493, -0.0015305, 0.0318224, -0.0328024, 0.0718917, -0.0345912, 0.0767379, -0.0581796, 0.0035365, 0.0021382, 0.0040510, -0.0005273, -0.0452631, 0.0368189, -0.0198330, -0.0540921, -0.0214235, 0.0674584, -0.0617157, -0.0310725, -0.0054708, -0.0057160, -0.0027909, -0.0030005, -0.0887617, -0.0198330, -0.0341783, 0.0220383, 0.1298258, -0.0579160, 0.0021307, -0.0353633, 0.0086047, 0.0103719, 0.0064921, 0.0019835, -0.0037767, 0.1016362, 0.0232762, -0.0607075, 0.0649844, -0.0593949, 0.0631855, -0.0078697, 0.0053192, -0.0024134, -0.0032754, 0.0007416, -0.0479991, -0.0053352, -0.1164335, -0.1025569, 0.0497894, -0.0495452, -0.0460115, -0.0025186, 0.0061116, 0.0044768, 0.0028244, 0.0327218, -0.0761647, -0.0810690, 0.0526707, -0.0329438, 0.0535537, -0.0003986, 0.0042918, -0.0944472, -0.0213344, 0.0009526, -0.0726580, -0.0312979, 0.0173528, 0.0218058, 0.0077730, -0.0891175, 0.0202217, 0.0050869, 0.0033233, -0.0729502, 0.0144902, -0.0068886, -0.0060137, -0.0160879, -0.0977765, 0.1228805, 0.0380148, 0.0085676, 0.0189666, -0.0055610, -0.0039613, 0.0026653, -0.0569924, 0.0016765, 0.0015523, 0.0907240, -0.0118022, -0.0497147, 0.1472177, 0.0570435, 0.0097285, 0.0012999, -0.0010082, 0.0058964, -0.0256567, 0.0041494, 0.0230506, 0.0095880, 0.0645839, 0.0314940, -0.0953970, -0.0308203, -0.0203247, -0.0030480, 0.0010649, -0.0127315, -0.0162599, -0.0013002, 0.0286798, -0.0693706, -0.0803101, -0.0095779, 0.0267172, -0.0519591, 0.0222090, 0.0035469, 0.0006526, 0.0204684, 0.0372878, 0.0002361, 0.0282017, -0.0793297, -0.0834424, -0.0112161, -0.0982586, 0.1110484, 0.0430250, 0.0007566, 0.0084842, 0.0047265, 0.0309990, 0.0047338, -0.0167527, 0.0478508, 0.0379193, 0.0704806, 0.0026096, 0.0580675, -0.0585287, 0.0013718, 0.0011316, 0.0727990, -0.0189059, -0.0016307, 0.0183007, -0.0955750, 0.0179927, -0.1207062, -0.0076199, -0.0173446, -0.0438630, -0.0017419, 0.0027744, 0.0713811, -0.0205975, -0.0023056, 0.0315868, -0.0069047, -0.0709114, 0.0063551, 0.0792936, -0.0149788, 0.0119131, 0.0003911, 0.0007770, 0.0355307, -0.0382824, -0.0021508, -0.0170903, 0.1845079, 0.0071964, -0.0118830, -0.0392134, 0.1121805, 0.0343708, 0.0053127, 0.0055094, -0.0295327, -0.0794786, 0.0009470, -0.0460920, -0.0400456, -0.0568265, 0.1113838, -0.0031282, 0.0863065, 0.0216326, -0.0000007, -0.0025795, 0.0585620, 0.0105814, 0.0019501, 0.0474047, -0.0016741, -0.0779851, -0.1076408, 0.0082631, -0.0613600, -0.0521623, 0.0032243, 0.0005309, -0.0262265, 0.0659380, -0.0003185, -0.0146308, 0.0350424, 0.0479026, 0.1463601, -0.0876610, -0.0306901, -0.0314196, 0.0002258, 0.0010280, -0.0037234, 0.0206121, 0.0027131, 0.0789864, 0.0669207, 0.0390909, -0.0420827, 0.0124559, -0.0495101, 0.0102074, 0.0057455, 0.0023531, -0.0778445, 0.0045030, -0.0003601, 0.0295246, 0.0607010, 0.0715139, 0.0481558, -0.0081419, -0.0529413, -0.0259361, 0.0030965, -0.0027352, -0.0206125, 0.0286711, -0.0027173, 0.0288910, -0.0451511, 0.0118130, -0.0250866, 0.0077619, 0.0204014, -0.0517958, -0.0047386, 0.0012478, -0.0252892, 0.0568797, 0.0001971, -0.0773387, 0.0048840, 0.1659702, 0.0416221, -0.0710932, -0.0011759, -0.0882860, -0.0028573, -0.0018304, -0.0692120, 0.0560035, 0.0032323, -0.0249159, -0.1049088, -0.1336616, -0.0183414, 0.1195002, -0.0162535, -0.0032942, 0.0018954, -0.0036575, -0.0339369, 0.0274075, -0.0012208, 0.0628488, 0.0185396, 0.0990130, -0.0263377, 0.0671380, -0.0541706, 0.0259934, 0.0034836, -0.0021803, -0.0106717, 0.1064274, -0.0052209, 0.0288205, -0.1201268, -0.0092569, 0.0133984, -0.0193078, -0.0237362, -0.0437784, -0.0025041, 0.0012761, -0.0010976, 0.0691967, 0.0012314, -0.0401606, 0.0254109, 0.0219284, 0.0037009, 0.0385462, 0.0961663, -0.0086278, -0.0217100, 0.0006858, 0.0700706, -0.0675376, -0.0027455, 0.0363728, 0.0750080, -0.0020148, 0.0059438, -0.0363254, 0.0239234, -0.0223600, -0.0026286, -0.0049529, -0.0001482, 0.0386925, 0.0069803, 0.0356586, 0.0118254, 0.0252029, 0.0660502, 0.0408702, 0.0628175, 0.0248981, -0.0020052, 0.0041279, -0.0311655, -0.0053962, -0.0005737, -0.0009801, -0.0066262, 0.0125676, -0.0649397, -0.0186532, 0.0378479, -0.0229305, -0.0079518, -0.0042470, -0.0015683, -0.0165324, -0.0004805, -0.0046010, 0.0052445, 0.0310724, -0.0344073, -0.0921706, 0.0905766, -0.0752614, -0.0032433, 0.0041719, 0.0438524, 0.0073643, -0.0018950, -0.0051220, -0.0081952, 0.0112058, -0.0670880, 0.0365827, 0.0024154, -0.1131566, 0.0092910, 0.0000588, 0.0865225, 0.0035632, -0.0043107, 0.0418851, 0.0246996, -0.1399699, 0.0689463, -0.0096587, 0.0032294, -0.0598583, 0.0066597, 0.0003511, -0.1104559, -0.0110388, -0.0007598, -0.0412003, 0.0346838, 0.1211279, -0.1472909, 0.0706204, -0.1076913, 0.0125823, -0.0046234, -0.0040457, 0.0297009, -0.0581189, -0.0015242, 0.0089707, 0.0500913, 0.0587024, -0.0237359, 0.0132093, -0.0449025, -0.1070371, 0.0007914, -0.0005666, -0.0427363, -0.0061276, -0.0003104, 0.0034133, -0.0446514, 0.0604701, 0.0257986, -0.0304762, -0.0232973, -0.0864581, 0.0027827, 0.0001498, 0.0047369, -0.0744193, 0.0004441, -0.0715875, -0.0326626, 0.0354972, 0.0068439, -0.0245102, -0.0175514, -0.0015634, 0.0051930, -0.0014950, -0.0765276, 0.1069801, -0.0001719, -0.0408446, -0.0168874, 0.0529043, -0.0220017, 0.0808268, -0.0171723, 0.0152599, 0.0020718, -0.0001420, 0.0168739, 0.0450242, 0.0023478, -0.0447180, -0.0759503, 0.1900062, 0.1896150, -0.0466977, 0.0427841, 0.0221856, -0.0015071, 0.0004269, 0.0096051, -0.0485684, -0.0001203, -0.0258744, -0.0254922, 0.0400658, 0.0264934, 0.0632950, -0.0458897, -0.0369553, -0.0052050, -0.0007241, 0.0468988, 0.0965551, 0.0011751, 0.0889997, 0.0150621, 0.1569641, -0.0320663, -0.0224766, 0.0510766, -0.0181937, 0.0000350, -0.0017935, -0.0261430, -0.0474407, -0.0034077, -0.0754366, 0.0195280, 0.0107185, -0.0191271, -0.1139974, 0.0778143, 0.1405139, -0.0024256, -0.0025052, 0.0267556, -0.0329067, -0.0019858, -0.0024713, 0.0187769, -0.0039550, -0.0194899, -0.0391915, 0.0076337, 0.0068877, -0.0001829, 0.0002241, -0.0138907, -0.0098258, 0.0046364, -0.0080464, 0.0389085, 0.0306879, -0.0945019, 0.0969520, -0.0661904, 0.0927241, 0.0077858, 0.0008291, -0.0166053, -0.0307571, -0.0012959, 0.0439267, -0.0858813, -0.1297911, 0.0213717, 0.0204705, 0.0187204, 0.0075805, 0.0021487, 0.0011137, 0.0441156, 0.0451337, 0.0013483, 0.0177232, 0.1292723, -0.0231115, -0.1408067, 0.1438609, 0.0626403, 0.0132688, 0.0052924, -0.0001540, 0.0510081, -0.0623749, -0.0090531, -0.0545737, -0.0386225, -0.0116632, -0.1215414, -0.0873124, 0.0594262, 0.0490610, -0.0087467, -0.0018771, -0.0564060, -0.0078721, 0.0044498, -0.0757907, -0.0874401, 0.0341379, 0.0869144, -0.0879346, 0.0620263, 0.0698147, 0.0083823, 0.0040910, -0.0347723, -0.0358831, -0.0005020, -0.0307199, -0.0415908, -0.0482040, 0.1007158, 0.0198943, -0.0091826, -0.0721313, -0.0002151, 0.0009669, 0.0146520, -0.0233200, -0.0012584, -0.0120971, -0.1296367, 0.0228587, 0.0507324, 0.0965499, 0.0137883, 0.0399844, 0.0046799, -0.0005054, 0.0504406, 0.1107158, -0.0038012, 0.0185498, -0.0638905, -0.0478425, -0.0472623, -0.1240808, 0.0175898, -0.0826194, 0.0009361, -0.0042234, -0.0273972, -0.0126599, -0.0006715, -0.0887331, 0.0334624, 0.0893003, -0.0055992, 0.0494544, 0.0416976, -0.0243687, -0.0014202, 0.0021023, 0.0055662, -0.0151603, -0.0043531, -0.0410013, 0.0524525, -0.0517831, -0.0285603, -0.0524722, -0.0172322, 0.0052112, 0.0049977, 0.0009856, -0.0189218, 0.0292380, -0.0030627, 0.0853414, 0.0229943, -0.0970113, -0.2482586, 0.0046951, -0.0704278, -0.0605299, -0.0022904, -0.0041258, 0.0515005, -0.0155379, 0.0005296, 0.0439383, -0.0037817, -0.0445503, 0.0866872, 0.0661888, -0.0035186, -0.0603082, 0.0006901, -0.0011795, 0.0945098, 0.0038397, -0.0023045, -0.0132421, -0.0289086, -0.0619011, -0.0740979, 0.0145090, -0.0010461, 0.0408797, -0.0015324, -0.0000189, 0.0698240, 0.0792869, 0.0012660, 0.0158166, -0.0365025, -0.0167253, 0.1216935, -0.1153971, -0.0872540, -0.0712226, -0.0019084, 0.0000335, -0.0675724, -0.0675150, -0.0001329, -0.0412071, 0.0047725, 0.1080663, 0.0422713, -0.0560566, -0.0567614, 0.0084227, -0.0132819, 0.0005448, -0.0263099, 0.0347500, 0.0034985, 0.0008488, -0.0355893, 0.0300836, -0.0893423, 0.0111115, 0.0043793, 0.0110878, 0.0049168, 0.0008459, -0.0924637, -0.0026642, -0.0022156, 0.0910419, 0.0405804, -0.0904161, -0.0007958, 0.0256784, 0.0097522, 0.1030271, -0.0025656, 0.0018953, 0.0098578, -0.0214902, 0.0033589, 0.0411491, 0.0126823, -0.0097862, -0.0740915, -0.0779255, 0.0016888, 0.0203244, -0.0052054, -0.0004425, 0.0010402, -0.0610002, -0.0006022, -0.0798137, 0.0111801, 0.0485948, -0.0548346, 0.0024119, 0.0349526, 0.1368340, -0.0028754, 0.0025441, -0.0375525, 0.0752398, 0.0000000, 0.0574446, 0.0195827, 0.0565243, -0.0158265, -0.0546949, 0.0345801, 0.0427391, 0.0027547, 0.0011240, 0.0937452, 0.0929701, 0.0019131, 0.0008293, 0.0381589, -0.0158102, 0.0056911, -0.0868995, 0.0273103, 0.0506280, -0.0028294, 0.0006342, 0.0547217, 0.0444277, 0.0017157, -0.0051952, -0.0495225, 0.0160422, -0.0135312, -0.0240597, 0.0130728, 0.0711086, 0.0007710, 0.0033440, 0.0072244, 0.0501177, -0.0004830, 0.0025508, -0.0150922, 0.0371505, -0.0216413, 0.0115547, 0.0192919, -0.0327254, 0.0015878, 0.0027245, 0.0599448, -0.0216626, -0.0014655, -0.0855416, 0.0404483, -0.0004866, 0.1605760, -0.0107164, 0.0086636, -0.0752360, -0.0022209, -0.0054954, 0.0061469, 0.0705656, 0.0012005, 0.0895800, 0.0353857, 0.0716653, 0.0226605, -0.0783694, 0.0065704, 0.0085583, -0.0011326, 0.0011971, -0.0467291, -0.0106298, 0.0017007, -0.0389156, 0.0393721, -0.0762492, -0.0112153, -0.0727299, 0.0579338, -0.0386288, -0.0056565, 0.0021019, -0.0143000, -0.0870838, 0.0023370, -0.0758378, 0.0467165, 0.1841410, 0.0306840, -0.0690341, -0.1347741, -0.0356884, 0.0014856, -0.0013289, 0.0887884, -0.0127386, 0.0017953, 0.0122144, 0.0348941, 0.0080549, -0.0985389, 0.1157743, -0.0589453, -0.0771278, -0.0021319, -0.0032698, 0.0117557, 0.0043271, 0.0006402, -0.0225673, -0.0515092, -0.0780494, -0.0593463, -0.0348966, -0.0577956, 0.0063995, 0.0001638, -0.0006632, 0.0453597, -0.0039225, -0.0030131, 0.0755128, -0.0068473, -0.0031998, -0.0803233, -0.1393633, 0.0356305, -0.0598928, -0.0101867, -0.0016019, 0.0143731, -0.0544733, -0.0008149, -0.0188967, 0.0340472, -0.0477694, -0.0250773, -0.0083924, 0.0046815, 0.1318854, -0.0002358, 0.0002231, 0.0427671, -0.0158918, 0.0002271, 0.0666247, -0.0517382, 0.0506016, -0.1513316, 0.0265560, -0.0699314, -0.0755743, -0.0004994, -0.0032773, -0.0021593, -0.0547160, 0.0022477, 0.0505310, -0.0357097, 0.0346698, -0.0700010, 0.0964056, 0.0027143, 0.0028643, -0.0035190, -0.0050935, -0.0424964, -0.0115456, 0.0046264, -0.0782502, -0.0677409, -0.0505569, 0.0108851, 0.1142911, -0.0237456, 0.1131309, -0.0046099, -0.0001358, -0.0632872, 0.0534267, 0.0023163, -0.0369077, 0.0557481, 0.2043995, -0.1229997, 0.1081016, 0.0489560, 0.0175869, -0.0031011, -0.0006859, -0.0770246, -0.0637905, 0.0020556, 0.0839270, 0.1286077, 0.0054103, 0.0136099, 0.0026046, 0.0046201, -0.0430022, -0.0005803, 0.0024466, 0.1375216, -0.0164446, 0.0033261, 0.0276773, 0.0450174, -0.0163383, -0.0314854, -0.1303330, 0.0508999, 0.0212839, -0.0096045, -0.0017051, 0.0932437, -0.0351346, -0.0000089, -0.0140026, -0.0406944, 0.0394517, 0.0429040, -0.0514982, -0.0984649, 0.0011358, 0.0006957, 0.0015605, 0.0109162, 0.0430512, 0.0027293, -0.0426409, -0.0877444, -0.0172623, 0.0204646, -0.0664179, -0.1085779, 0.0699464, -0.0012519, 0.0023772, -0.0649031, -0.0140713, 0.0054192, -0.0312371, -0.0430961, 0.0473808, -0.0400369, 0.0511444, -0.0963295, -0.0063281, 0.0051192, 0.0015299, 0.1016320, -0.0834362, 0.0005617, -0.0539401, 0.0129680, -0.0192473, -0.1456107, 0.0094188, -0.0062827, 0.0155808, 0.0008110, 0.0011795, -0.0107212, 0.0261275, -0.0029625, -0.0133411, 0.0418422, 0.0156188, -0.0499809, 0.0234714, -0.0908857, -0.0677434, 0.0041643, 0.0033994, -0.0184762, -0.0346445, -0.0053016, 0.0651407, 0.0337746, 0.0868509, 0.0119336, 0.1288179, 0.0463086, 0.0447312, 0.0050659, 0.0034931, -0.0341954, 0.0705543, -0.0013428, 0.0027568, -0.0274294, -0.0282693, 0.0020591, -0.1298471, 0.0547557, 0.0455174, 0.0067082, -0.0006799, 0.0280370, -0.0058984, -0.0018267, -0.0023912, -0.0447053, 0.0772485, 0.1228192, 0.1671697, -0.0773395, -0.0094696, -0.0090537, 0.0002293, 0.0149769, -0.0699657, 0.0045542, -0.0873709, -0.0057006, 0.0326969, 0.0125095, -0.0508134, 0.0805692, 0.0736865, -0.0041701, -0.0045951, 0.0045743, -0.0120494, 0.0015985, -0.0135107, 0.0935849, 0.0511351, -0.0041502, 0.0633122, 0.0863380, -0.0745916, 0.0030429, 0.0016670, 0.0565083, 0.0331145, 0.0009155, -0.0679734, 0.1253550, 0.0509704, -0.0439101, -0.0111790, -0.0535614, -0.0296672, 0.0069798, -0.0020973, 0.0297039, 0.0141989, -0.0007445, -0.0891821, -0.0204578, 0.0050502, -0.0191208, 0.1170390, 0.0455075, -0.0614635, -0.0009121, 0.0031075, 0.0596767, 0.0486010, -0.0033608, -0.0497675, -0.0472522, -0.1249572, 0.1167144, 0.0011152, -0.0765879, -0.0232678, -0.0025819, -0.0009272, 0.0955731, 0.0548793, 0.0022212, -0.0556596, 0.0213809, -0.0328791, 0.0178860, -0.0263665, 0.0491655, -0.0180271, 0.0016374, 0.0011963, 0.0334622, -0.1034336, -0.0020304, -0.0207900, -0.0469286, 0.0440513, 0.0306954, -0.0557916, 0.0482838, 0.0542023, -0.0027110, 0.0019631, 0.0466769, -0.0055134, -0.0026806, -0.0157802, -0.0597100, 0.1185832, 0.0060677, -0.0306805, 0.0167058, 0.0514118, 0.0019614, 0.0025045, -0.0310952, 0.0073794, -0.0011613, -0.0194339, -0.0077691, 0.0157240, -0.1366185, -0.0625178, 0.0449043, 0.0644677, 0.0051430, -0.0005641, 0.0283985, -0.0293417, 0.0012255, 0.0372867, 0.0420048, -0.0397986, -0.0559486, 0.0893851, 0.0506745, -0.0066908, -0.0022064, 0.0005022, -0.0231522, -0.0196793, 0.0002088, -0.0662601, -0.0274286, 0.0023278, 0.0506858, 0.0523219, -0.0030781, -0.0043104, -0.0079767, 0.0031124, -0.0614795, 0.0639323, 0.0007918, 0.0832761, -0.0119456, 0.0052185, -0.0212200, -0.1324531, 0.0838970, 0.0008203, -0.0040565, -0.0010030, -0.0282968, 0.0432795, 0.0032040, 0.0248411, 0.0078825, 0.0212020, 0.0350841, 0.1020666, -0.0211098, -0.1037553, 0.0026137, 0.0001444, 0.0448045, 0.0224579, -0.0029870, 0.0110461, -0.0887989, 0.0680991, -0.0087824, -0.0344575, 0.0631737, -0.0327982, 0.0000320, -0.0019050, -0.0149446, -0.0415111, -0.0029547, 0.0550026, 0.0004640, -0.0531663, -0.1240585, 0.1404661, 0.0097899, 0.0247469, -0.0013915, 0.0010504, -0.0311744, 0.0133012, 0.0005690, 0.0179822, -0.0339282, 0.0435188, 0.1099620, -0.0527155, -0.0066379, 0.0012463, 0.0027607, -0.0034512, 0.0134269, -0.0857446, -0.0000664, 0.0583177, -0.1077744, -0.0783152, -0.0582533, -0.0996139, -0.0159224, 0.1002421, -0.0046374, 0.0000917, 0.0289072, 0.0905107, 0.0028917, -0.0592822, 0.0467508, -0.0247833, -0.1204990, 0.0118637, -0.0353642, 0.0094263, -0.0000144, 0.0015226, 0.0475660, 0.0101749, -0.0001237, 0.0195473, -0.0247943, -0.0229995, -0.1806819, -0.0107065, -0.0483805, 0.0196081, 0.0035689, -0.0002388, 0.0607413, -0.0052481, -0.0006191, -0.0056163, -0.0292411, -0.0920825, -0.0242939, 0.0088299, -0.0202689, -0.0353359, -0.0018531, 0.0002309, 0.0721648, -0.0588121, -0.0036340, -0.0095805, -0.0023023, 0.0028950, 0.0996541, 0.0502143, 0.0024526, 0.0300166, -0.0014442, -0.0026218, -0.0468125, -0.0330126, 0.0012828, -0.0708755, -0.0375206, -0.0357351, -0.0551825, 0.0796090, -0.0327507, -0.0200225, -0.0039526, -0.0032329, -0.0288907, -0.0507510, 0.0004294, -0.0340293, -0.0594846, 0.0118980, 0.0751202, -0.0609826, -0.0307332, 0.0721719, 0.0003802, 0.0002717, 0.0582500, 0.0719710, 0.0013263, -0.0041070, 0.0270867, 0.0405194, 0.1471402, -0.0692207, -0.0661207, -0.0457913, 0.0003880, -0.0011561, -0.1506712, 0.0299051, -0.0044664, -0.0174161, -0.0021544, -0.0109911, -0.1524045, -0.1252505, 0.0038170, 0.0145280, 0.0066213, 0.0037807, 0.0494740, 0.0137186, 0.0011601, 0.0111644, 0.0127794, 0.0101296, 0.0250432, -0.0525886, -0.0254045, 0.1031711, -0.0010269, -0.0034947, -0.0220157, -0.0231786, 0.0012456, -0.0205744, -0.0257686, -0.0110644, -0.0843861, 0.0416573, -0.0260176, 0.0632605, -0.0058175, -0.0001747, 0.0646701, -0.0468327, 0.0030796, 0.0074664, 0.0518788, 0.0273189, 0.0192375, 0.0263231, 0.1057372, 0.0296566, -0.0039650, -0.0026343, -0.0048933, 0.0313750, 0.0030825, 0.0405741, 0.0270076, 0.0309218, 0.1189091, -0.1523755, -0.0904530, -0.0722796, -0.0024103, -0.0000385, 0.0136090, -0.0076556, -0.0008968, 0.0347333, -0.0277425, -0.0709107, 0.0250661, -0.0576544, 0.0600654, -0.0634663, 0.0010108, -0.0007008, -0.0272951, -0.0439751, -0.0008873, 0.0645494, 0.0458138, -0.0714184, 0.0169958, -0.0379740, 0.0349387, -0.0062931, 0.0032643, -0.0025136, -0.0516299, 0.0409500, 0.0024100, 0.0166527, -0.0091726, -0.0267728, 0.0103051, -0.0004644, -0.0165772, 0.0274006, 0.0014140, -0.0036103, -0.0065860, 0.0480051, -0.0009005, -0.0476255, 0.0111847, -0.1045200, 0.0505546, 0.0653548, -0.0090370, -0.0442385, 0.0000255, -0.0026813, 0.0579937, -0.0410128, 0.0041748, 0.0364215, -0.0071339, -0.0134397, 0.0436835, -0.0142291, -0.0422085, -0.0578564, -0.0050987, -0.0016512, -0.1424048, 0.1271240, 0.0045432, 0.0038790, -0.0156710, 0.0752083, 0.0851013, -0.0828248, -0.0043252, -0.0665659, -0.0008073, -0.0001025, 0.0164613, -0.0214495, 0.0005217, -0.0061552, 0.1500552, -0.0650635, 0.0228964, 0.0629800, 0.0331456, -0.0438982, -0.0011407, 0.0014276, 0.0099541, -0.0089650, -0.0022232, 0.0051262, -0.0283382, 0.0318612, -0.0718656, 0.0218680, -0.0067231, 0.1195320, -0.0000134, -0.0015280, -0.0555842, -0.0210861, -0.0018561, -0.0215912, 0.1082303, 0.0473363, 0.0113371, 0.0727302, 0.0187500, -0.0577673, 0.0078791, -0.0028725, 0.0816147, 0.0432548, -0.0019474, 0.0928079, 0.0256702, 0.0605731, 0.1286757, 0.0159949, 0.0802217, 0.0133908, 0.0032805, -0.0025599, 0.0114506, 0.0048294, 0.0000863, 0.0790329, -0.0757844, -0.0559394, -0.0278484, -0.0226166, -0.0610240, -0.0057076, -0.0001594, -0.0036496, 0.0114382, -0.1397799, 0.0013132, 0.0167419, -0.0157584, -0.0732108, -0.1026002, -0.1330130, 0.0447613, -0.0806329, -0.0010224, -0.0004113, -0.0979895, 0.0906050, -0.0055486, 0.0363515, 0.0047692, 0.1286938, -0.0158120, 0.0057188, 0.0582593, 0.0321647, -0.0016421, -0.0005064, -0.0880627, -0.0318103, 0.0059496, 0.0037668, 0.1228567, -0.0217179, -0.0660641, 0.1021139, -0.0960101, -0.0046781, 0.0031351, -0.0000276, 0.0178208, 0.0063831, 0.0005613, 0.0191329, 0.0221148, 0.0678082, -0.0664897, -0.0195830, -0.0816681, -0.0252596, -0.0054170, -0.0013036, -0.0138849, -0.0272116, -0.0020216, -0.0286448, -0.0805571, 0.0124901, 0.0586974, 0.0344482, -0.0224905, 0.0165478, -0.0078338, -0.0015298, -0.0264450, -0.0102681, 0.0029834, 0.1032465, 0.0431043, 0.0595385, 0.0619944, -0.0805559, 0.0862889, 0.1593494, -0.0083053, -0.0061827, 0.0364539, -0.0405234, 0.0002471, -0.0984074, 0.0451304, -0.0134380, -0.0024352, -0.1247252, -0.0320103, 0.0114611, -0.0016167, -0.0012971, 0.0656101, -0.0257124, -0.0035512, -0.0169957, -0.0987148, -0.0637769, -0.0572964, 0.1049373, -0.0689529, -0.0567530, 0.0000028, 0.0008180, -0.0287434, -0.0416085, 0.0027155, 0.0281189, 0.0491095, -0.0786941, 0.0954893, 0.0249344, -0.0888368, -0.0481757, 0.0015910, -0.0033299, 0.0895136, -0.0102573, -0.0028418, 0.0200557, 0.0713006, 0.0274057, -0.0042316, 0.0925845, -0.0514209, -0.0326982, 0.0003352, 0.0061389, 0.0726138, -0.0125648, 0.0010906, 0.0688121, 0.0056326, -0.0515552, 0.0859765, -0.0068656, -0.0069160, -0.0081227, -0.0015221, -0.0034924, 0.0366192, -0.0015840, -0.0046938, 0.0211404, -0.1079336, -0.0642678, 0.0875967, 0.0250078, -0.0923327, 0.0502932, -0.0001413, -0.0022914, -0.0121458, 0.0435035, 0.0028695, 0.0684262, 0.0238899, -0.0230735, 0.1861623, -0.0067321, -0.0063932, 0.0019549, 0.0031793, 0.0034309, 0.1049186, -0.0552553, 0.0016635, -0.0322506, -0.0146429, 0.0890688, -0.0411976, 0.0065930, -0.0392832, -0.0569712, 0.0029907, 0.0015217, -0.0212478, -0.0572750, -0.0081542, -0.0846662, 0.0302525, 0.0017715, 0.1446628, 0.0577699, 0.0137362, -0.0319593, -0.0100502, -0.0030975, -0.0216996, 0.0942454, 0.0043436, -0.1041185, 0.0206924, -0.1636333, 0.0239971, -0.0186829, 0.0948180, -0.0099007, 0.0064484, 0.0045254, 0.0727917, -0.0941614, -0.0032919, 0.0217399, -0.0481051, 0.0303872, 0.1000798, -0.0675534, -0.0363600, 0.0244682, 0.0012047, 0.0012978, 0.0006278, 0.0470483, 0.0003831, 0.0291786, 0.0530101, 0.0621660, -0.0741563, 0.1321153, -0.0270834, 0.0078614, -0.0027045, -0.0036687, -0.0449579, 0.0373777, 0.0001036, -0.0484496, -0.0092722, -0.0225845, -0.0416588, 0.0794729, -0.0144008, 0.0396244, -0.0091735, -0.0012886, -0.0571840, -0.0023221, 0.0034449, 0.0515741, -0.0027479, 0.1595882, -0.0202240, -0.0342064, 0.0631307, 0.0285555, 0.0067577, 0.0031914, -0.1171698, -0.0617086, 0.0046590, 0.0072090, 0.0038913, 0.0282051, -0.0314489, -0.1063334, 0.0599903, -0.0563698, 0.0026713, 0.0034797, -0.0538102, -0.0187811, 0.0020816, 0.0252139, -0.0536348, -0.0051371, 0.0697466, -0.1672509, -0.0530240, -0.0067023, 0.0039369, -0.0013328, 0.0460552, 0.0378511, -0.0005056, 0.0635266, -0.0078384, 0.0249784, -0.0053505, 0.1493595, -0.0129898, 0.0547947, 0.0039065, 0.0033827, -0.0109934, -0.0145073, 0.0023207, -0.0206417, -0.0395248, -0.0411683, -0.1172599, -0.0124297, -0.0035353, 0.0627660, 0.0155198, 0.0026786, -0.0933774, 0.0070827, -0.0047669, -0.0597006, -0.0251205, -0.0355884, -0.0475179, -0.0176733, -0.0613753, -0.0707227, -0.0061036, 0.0011269, -0.0894663, 0.0860315, 0.0031379, 0.1186241, 0.0331961, -0.0483317, 0.1837590, 0.0018096, 0.0346771, -0.0689314, 0.0026722, -0.0015076, -0.0384384, -0.0710603, -0.0022947, 0.0443726, 0.0801714, -0.1559414, 0.0534269, -0.1141116, 0.0095519, 0.0608976, 0.0008328, -0.0012785, 0.0263693, -0.0177831, -0.0006904, 0.0470172, -0.0075413, -0.0774922, 0.0852956, 0.0348280, -0.0734738, 0.0770486, -0.0038191, -0.0005812, 0.0046103, 0.0004544, 0.0014092, -0.0376488, -0.0480296, -0.0508143, -0.0135734, 0.1457560, 0.0163118, -0.0257031, -0.0019462, -0.0049769, 0.1185518, 0.0135183, 0.0015249, 0.0574379, 0.0417071, -0.1018559, -0.0260451, -0.0582525, 0.0036891, -0.0796388, -0.0004933, -0.0003144, -0.0024156, -0.0399016, -0.0052110, -0.0456352, 0.0349337, 0.0028091, -0.0898009, 0.0090142, 0.0363725, 0.0592690, 0.0018788, 0.0006024, -0.0052349, 0.0046960, 0.0025952, 0.0777916, 0.0271361, -0.0296348, 0.0142939, 0.1068357, 0.0131670, -0.0264402, 0.0015240, 0.0042024, -0.0430169, -0.0220172, 0.0047936, 0.0715407, 0.0910592, -0.0163892, -0.0591431, 0.0348170, 0.0263838, -0.0811269, -0.0023256, -0.0031778, 0.1190421, -0.0007508, -0.0037540, -0.0153279, 0.0046382, -0.1002547, 0.1466859, 0.0755257, -0.0468921, -0.0699484, -0.0025387, 0.0028726, -0.0163462, 0.0010379, -0.0012982, -0.0134635, -0.0734257, -0.0705306, 0.0138002, 0.0068175, -0.0372736, 0.0532243, -0.0038488, 0.0036181, 0.0016610, 0.0259887, -0.0029033, -0.0265168, 0.0010367, -0.0787752, 0.1051774, 0.1305575, 0.0492684, 0.0006431, -0.0060581, -0.0008044, -0.1166385, 0.1304905, 0.0002702, -0.0127745, -0.0551394, -0.0134741, 0.0378016, -0.0290905, 0.0000319, -0.0789691, -0.0020757, 0.0004529, -0.0118930, 0.0157787, 0.0007100, 0.0687152, -0.0371521, -0.1281388, 0.0195525, -0.1297455, 0.0177848, -0.0113478, -0.0045692, -0.0015529, 0.0495769, 0.0002522, 0.0004483, -0.0201246, -0.0250544, 0.0334882, -0.1380584, -0.1774418, 0.0148203, 0.0249505, 0.0049817, 0.0002737, 0.0339557, -0.0598888, 0.0005821, -0.0166617, 0.1062711, -0.0367211, 0.1227015, 0.0702146, 0.0054160, -0.0182981, -0.0003930, 0.0018889, 0.0301008, -0.1165194, 0.0003553, 0.0251724, -0.0477879, -0.0082279, -0.0026936, -0.0504812, 0.0266576, 0.0677614, -0.0011052, -0.0019050, 0.0788725, 0.0137020, 0.0017961, 0.0373912, -0.0055253, 0.0375155, -0.0493388, 0.0471793, 0.0784424, 0.0083080, 0.0045482, 0.0006564, 0.0151872, -0.0084540, -0.0010925, 0.0352630, -0.0459676, 0.0081483, 0.0320898, -0.0048215, -0.0283879, 0.0437502, -0.0025718, 0.0038723, 0.0450361, 0.0502858, 0.0059000, -0.0706044, -0.0729785, 0.1009518, -0.0091195, -0.0350532, -0.0226677, -0.0269492, 0.0033637, 0.0019470, -0.0304374, 0.0387607, 0.0041543, -0.1047571, 0.0598844, 0.0405416, -0.0429286, -0.0321532, 0.0581643, -0.0677748, 0.0003444, 0.0041356, -0.1412606, -0.0079121, -0.0029711, -0.0347152, -0.0337918, 0.0282971, 0.0027313, -0.0441968, 0.0526362, 0.0328723, 0.0035484, 0.0035501, 0.0523292, 0.0083680, 0.0009573, 0.0226397, 0.0498233, -0.1109662, 0.0340522, 0.1116976, -0.0670670, 0.0794576, -0.0021830, -0.0006517, -0.0564594, 0.0911098, -0.0020365, -0.0439594, -0.0259865, 0.0136518, -0.0420836, 0.0015256, 0.0819878, -0.0442507, -0.0017422, 0.0032837, -0.0083951, 0.0320943, 0.0002326, 0.0618175, 0.0540564, -0.0710098, 0.0744749, 0.0159820, -0.0151955, 0.0072014, 0.0058693, -0.0020819, 0.0545032, -0.0598094, 0.0007625, -0.0029271, -0.0292726, 0.0106678, -0.0163761, -0.0772238, 0.0631351, 0.0281620, 0.0032069, -0.0009887, -0.1131610, 0.0566812, -0.0023485, -0.0061548, 0.0102370, 0.0725047, 0.0005719, -0.0391105, 0.0381637, 0.0325844, 0.0054766, -0.0013867, -0.0152791, 0.0469978, -0.0034956, -0.0998636, 0.0178644, -0.0394435, -0.0122399, 0.0926889, -0.0548311, 0.0669095, -0.0030169, 0.0038977, 0.0677130, -0.0557837, 0.0017918, -0.0040479, -0.0147107, -0.0243581, -0.0343178, 0.0308676, -0.0588277, 0.0054880, -0.0022802, -0.0007307, -0.0892872, -0.0019734, -0.0012362, 0.0122987, -0.0424097, 0.0966749, -0.1470778, 0.0137768, 0.0060355, -0.0316412, 0.0047403, -0.0023076, -0.0947425, -0.0449815, -0.0030247, 0.0451431, 0.0040728, 0.0461699, -0.0262910, 0.0429839, 0.0207579, 0.0161803, -0.0016539, 0.0011593, 0.0268938, -0.0104247, 0.0005563, -0.0086027, -0.0664766, -0.1148686, -0.0774247, -0.0277961, -0.0468493, 0.1251098, 0.0030032, 0.0037653, -0.0347977, -0.0246272, 0.0031221, -0.0885611, 0.0012804, 0.0624952, -0.0840504, 0.0154782, -0.0008171, 0.0395315, 0.0037767, 0.0005923, 0.1117217, 0.0431394, 0.0005403, 0.0312571, 0.0336072, -0.0690103, 0.1882955, 0.0674732, -0.0128672, 0.0698335, 0.0026616, 0.0001013, 0.0106277, -0.0312426, -0.0020236, 0.0035471, 0.1182224, 0.0067426, 0.0302631, -0.0085523, 0.0528466, -0.0495217, 0.0015488, 0.0023563, -0.1038882, -0.0240531, -0.0031781, -0.0381301, 0.0578160, 0.0708298, 0.0430737, 0.0355666, 0.0030282, -0.0011762, -0.0033901, 0.0004331, 0.0100191, 0.0111199, 0.0019844, -0.0669274, 0.0272198, 0.0421428, -0.0364000, 0.0670551, -0.0018858, -0.0812527, 0.0030878, -0.0019545, -0.0617001, -0.0307833, -0.0044937, -0.0270130, -0.0317498, 0.0326204, 0.1514564, 0.1303991, 0.0283856, -0.0261386, 0.0059659, 0.0005226, -0.0292087, 0.0052693, -0.0001045, -0.0108200, -0.0780852, 0.0203842, -0.0555468, -0.0662237, 0.0287707, -0.0349355, 0.0017533, 0.0002945, -0.1041600, 0.0215383, 0.0002588, -0.0312136, 0.0970828, 0.0071201, -0.0110025, -0.1287439, -0.0788459, 0.0316385, 0.0025861, -0.0022015, -0.0116184, -0.0036677, 0.0005008, -0.0272454, 0.0062336, 0.0376473, -0.0421407, 0.0268663, 0.0066562, 0.0060211, -0.0022715, -0.0026929, -0.0165362, 0.0050276, -0.0024569, 0.0679159, -0.0303951, -0.0436089, -0.0161972, 0.0040241, 0.0509514, 0.0811298, -0.0074718, -0.0003659, -0.0305725, -0.0398864, -0.0016581, 0.0292813, -0.0513833, -0.0156066, 0.0386493, -0.0072769, -0.0209001, -0.0210122, 0.0101059, -0.0037861, 0.0531470, 0.0006432, -0.0009851, 0.0376550, 0.0239977, -0.0801503, 0.0984732, -0.0274188, 0.0329753, -0.0690168, 0.0007207, 0.0020974, -0.0438615, -0.0020752, -0.0006043, 0.0215584, 0.0181241, 0.0890171, 0.1162283, -0.0164826, 0.0060052, -0.0169832, -0.0006863, -0.0026280, 0.0365332, -0.0239937, 0.0044642, -0.0006259, -0.0049944, 0.0540983, -0.0005479, -0.0433125, 0.0275600, -0.0112966, 0.0859276, 0.0480360, -0.0485582, 0.0283280, -0.0063651, -0.0344716, -0.0329570, 0.0429139, 0.0029329, -0.0376822, 0.0240476, 0.0229339, -0.0148114, 0.0335937, -0.0225183, -0.0098753, 0.0014598, 0.0225795, 0.0530140, 0.0093811, -0.0036711, 0.0004910, -0.0698123, -0.0447428, 0.0057109, 0.0359086, -0.0705038, 0.0290412, -0.0047901, 0.0478139, -0.0166751, 0.0316932, -0.0002743, 0.0038853, 0.0295041, -0.0469593, 0.0455434, -0.0445952, 0.0555465, -0.0649086, 0.0050588, 0.0988831, 0.0275313, -0.0737486, -0.0016206, -0.0607631, -0.0199522, -0.0474654, 0.0303072, 0.2004444, -0.0653222, -0.0026394, -0.0062445, -0.0985340, 0.0145937, -0.0190954, -0.0007390, 0.0817821, -0.0233494, -0.0278655, 0.1689066, -0.0633599, -0.0811691, 0.1029826, 0.0033614, 0.0734798, 0.0581367, 0.0589251, -0.0001793, 0.0492896, -0.0456498, 0.0418785, -0.0313832, 0.0454084, -0.0716193, -0.0553603, 0.0056608, -0.0297307, -0.0157884, -0.0117609, -0.0014051, -0.0158406, 0.0101547, -0.0244566, 0.1164137, 0.0211628, 0.0778640, -0.0182360, -0.0048963, -0.1360568, -0.0247264, 0.1020244, 0.0010236, 0.0322269, -0.0712050, 0.0204368, 0.0372539, 0.0059396, 0.0197919, 0.0966806, 0.0011757, -0.0039055, -0.0634577, -0.0018313, 0.0001734, 0.1033996, 0.0098562, 0.0278752, 0.0300894, 0.0517432, 0.0676358, -0.1083019, 0.0062408, 0.0809700, 0.0057214, -0.0569444, 0.0000491, -0.0388214, 0.0439325, 0.0201516, 0.0441058, -0.0794997, 0.0204560, -0.0857166, -0.0020669, 0.1256856, -0.0708813, -0.0028628, 0.0005129, -0.0686038, -0.1151739, -0.0419649, -0.0301010, 0.1302544, -0.1143029, -0.0223795, 0.0080529, 0.0440560, 0.0327456, -0.0671678, 0.0009796, -0.0767125, 0.0222135, 0.0243240, -0.1199029, -0.0143323, 0.0564413, 0.0266840, 0.0012276, 0.0836533, -0.0124836, 0.1595709, -0.0021253, -0.0170609, -0.0710080, -0.0028332, -0.1002219, 0.0051415, -0.0534078, -0.0080874, -0.0044171, 0.0904849, -0.0077863, -0.0686446, 0.0049259, -0.0299585, -0.0481422, -0.0226503, -0.1009560, -0.0307180, -0.0578331, 0.0183669, 0.0051366, -0.0046774, 0.0484927, -0.0565202, 0.0011751, 0.0137863, 0.0934099, -0.0614474, 0.0487203, -0.0208650, 0.0796053, -0.0442358, 0.0060605, -0.0923130, 0.0083793, 0.0004498, -0.0025369, -0.0394548, -0.0356752, 0.0190996, -0.0603319, -0.0181306, 0.1086644, 0.0454081, -0.0081312, -0.0633868, -0.0040621, 0.0416860, -0.0032550, 0.0545609, 0.1383939, -0.0916667, 0.0473284, 0.1340276, 0.1317233, -0.0268452, -0.0005569, 0.0461153, 0.0789598, -0.0997734, 0.0012002, -0.0270313, 0.0908634, 0.0801145, -0.0349405, 0.0933734, 0.0650171, 0.0649809, 0.0059925, -0.0755089, -0.0040123, 0.0790412, 0.0016054, 0.0449308, 0.0441525, 0.0066919, -0.0100918, 0.0209302, -0.1254658, 0.0069336, 0.0065754, 0.0594859, 0.0003082, -0.0263248, -0.0024115, 0.0213010, 0.0141164, -0.0118773, -0.0828798, 0.0298875, -0.0511186, -0.0586024, -0.0001275, -0.0581970, 0.0369261, 0.0470126, 0.0077950, 0.0800024, 0.0273437, -0.0750855, 0.0790709, 0.0130062, 0.1734158, 0.0804998, -0.0236431, -0.0016092, -0.0827870, 0.0485437, -0.0041840, 0.0230470, -0.0021602, 0.0344233, -0.0595621, 0.0980055, -0.0463875, -0.0623274, 0.0002838, -0.0196935, 0.0584145, 0.0833130, 0.0042856, 0.0268872, 0.0067323, 0.0144864, 0.1543735, -0.0387622, -0.0001778, -0.0083595, 0.0020611, 0.0384193, -0.0254082, 0.0748241, 0.0045994, 0.0065499, -0.0024275, 0.0509901, 0.0863767, 0.0402674, 0.0364817, -0.0277951, -0.0088308, -0.0025669, 0.0255847, -0.0385866, -0.0018766, 0.0156417, -0.0247417, -0.0531894, 0.1643627, -0.0505077, -0.1432950, -0.0244638, -0.0041061, 0.0245269, -0.0114253, 0.0555527, 0.0048385, -0.0728078, -0.0541856, 0.0020447, -0.0637036, -0.0650043, 0.0494300, -0.0311157, 0.0023002, 0.0328908, -0.0408813, -0.0681815, -0.0005851, -0.0265928, -0.0830276, -0.0156296, 0.0496169, -0.0844908, 0.1641064, 0.0580601, -0.0008457, 0.0015119, -0.0338352, 0.0702551, -0.0004380, 0.0013192, 0.0640020, 0.0574820, -0.0519658, 0.0211289, -0.0113164, 0.0353671, -0.0055171, 0.0161475, -0.0360477, -0.0078930, 0.0010012, 0.0821057, 0.0454524, 0.0112305, -0.0193971, 0.0678742, -0.0854291, 0.0363589, -0.0021955, 0.0007623, 0.0675752, -0.0107858, -0.0004858, 0.0519663, -0.0505947, 0.0398475, -0.0248838, 0.0362503, -0.1533287, 0.0289794, 0.0039159, -0.0299692, 0.0094630, -0.0476194, 0.0005090, -0.0202454, -0.1078196, 0.0407148, 0.1090250, 0.0581331, -0.0213237, -0.0077928, 0.0098563, 0.1199610, -0.0060702, -0.0452300, -0.0014060, 0.0209274, 0.0562446, -0.0275037, -0.0085589, 0.0601131, -0.0602791, 0.0051155, -0.0026127, 0.0286357, 0.0834591, -0.0299651, -0.0022001, 0.0434500, 0.0929656, 0.0690681, 0.0113917, 0.1485874, -0.0616663, 0.0087328, -0.0054841, 0.0010134, -0.0158315, -0.0207040, -0.0024123, -0.0586412, -0.1271464, -0.0116274, -0.0600168, -0.0016604, 0.0800489, -0.0214672, -0.0066264, -0.0242065, -0.0076264, 0.0266023, -0.0013211, -0.1095480, -0.0520499, -0.0283936, -0.0417322, -0.1049046, -0.0389338, 0.0552349, 0.0057836, 0.0074309, -0.0482871, 0.0269118, -0.0008205, 0.0236747, -0.0373428, 0.0186044, -0.0558442, 0.0046344, -0.0420083, 0.0728899, -0.0038397, -0.1761733, -0.0080563, -0.0067376, -0.0021564, 0.0517657, -0.0461215, -0.0221624, 0.0489736, 0.2046564, -0.1943936, 0.0200670, -0.0069612, -0.0099510, -0.0576978, -0.0400376, -0.0007712, -0.0631415, -0.0400722, -0.0164899, -0.0407935, -0.0858497, 0.0207661, 0.0294282, 0.0114688, 0.0126226, 0.0514896, -0.0449519, 0.0019714, 0.0444666, 0.0530398, -0.0171411, -0.0321115, 0.0874527, -0.0133276, -0.0325820, -0.0004237, -0.0270818, -0.0311552, -0.0377276, 0.0075383, 0.0014006, 0.0385571, -0.0604142, -0.0516853, 0.1614231, 0.0800097, 0.0288876, 0.0009077, 0.0217392, -0.0009528, -0.0687148, -0.0030029, -0.0525087, 0.0879724, -0.0048863, -0.0829942, -0.0235200, -0.0923419, -0.0301886, -0.0043987, -0.0286549, -0.0250285, -0.0590297, 0.0010120, 0.0076096, 0.0670202, 0.0546682, -0.1166424, 0.0527713, -0.0278061, 0.0413648, 0.0027912, -0.0193857, -0.1163787, -0.0135568, 0.0023905, -0.0046993, 0.0419483, -0.0261744, -0.0189956, 0.1190988, 0.0262283, -0.0868420, -0.0029253, 0.0688303, -0.0130897, 0.0063327, 0.0074666, 0.0080814, -0.0476975, 0.0034501, 0.0306486, -0.0082721, -0.0252571, 0.0874582, 0.0001464, 0.0212255, 0.0060691, 0.1090011, 0.0010321, -0.0576415, -0.0399150, -0.0541943, 0.0363132, 0.0596097, 0.0201165, 0.1121697, 0.0008465, -0.0197551, 0.0145825, -0.0547260, 0.0024438, -0.0246399, -0.0746513, 0.0342832, -0.0543800, 0.1507475, -0.0249054, 0.0833674, -0.0072998, 0.0044384, -0.0342100, -0.0471886, -0.0015611, -0.0332414, -0.0969879, -0.0436191, -0.1541232, 0.1064044, -0.0446487, 0.0292539, 0.0084973, -0.0799213, -0.0777529, -0.0947353, 0.0022948, -0.0178549, 0.0650436, 0.0078908, 0.1097696, -0.2406341, -0.0265525, 0.1189296, -0.0003340, 0.0504124, 0.0137249, 0.0348745, 0.0042590, -0.0062620, 0.1100271, 0.0168296, 0.0173112, 0.0070615, -0.1549278, -0.0412512, -0.0022363, -0.0068136, 0.0303839, 0.0114969, 0.0003931, 0.0767138, 0.1285845, -0.0134143, -0.0292428, -0.0112294, -0.0613968, 0.0032226, -0.0053102, -0.0227446, 0.0414974, 0.0297215, -0.0016535, -0.0963182, 0.0206749, -0.0465418, -0.0166893, -0.0519660, -0.0757066, -0.0484873, -0.0055375, 0.1236508, 0.0296199, 0.1736784, -0.0028897, -0.0136916, -0.1300105, 0.0024800, 0.0551694, -0.0451083, -0.1865750, 0.0375883, -0.0074622, 0.0011540, 0.0415137, 0.0100637, 0.0065136, 0.0214579, -0.1191288, 0.0173649, 0.0470749, 0.0197095, -0.0794149, 0.1334791, 0.0036024, -0.0170594, -0.0292945, -0.0485212, -0.0035429, -0.0816353, 0.0344501, -0.0291509, 0.0445202, -0.0548083, -0.0010964, 0.0541492, -0.0064048, -0.0128376, 0.0067813, -0.0218590, 0.0009583, 0.0865031, 0.0401617, -0.0084602, -0.0602519, 0.0900163, -0.0618497, 0.0301743, -0.0006218, 0.0177067, -0.0234199, 0.0571309, 0.0009008, -0.0035453, 0.0497982, 0.0390490, 0.0247878, -0.0879883, 0.1022408, -0.0153599, 0.0010518, -0.0094407, 0.0022668, 0.0158679, 0.0001750, -0.0300547, 0.0574771, -0.0044878, 0.0175093, -0.0876647, 0.0132771, -0.0369864, 0.0050058, -0.0816341, -0.0679734, -0.0753440, -0.0025400, 0.0645357, 0.0691417, -0.0119044, 0.0793173, -0.1371714, -0.0142970, 0.0259961, -0.0024681, -0.0114172, -0.0051534, 0.0774448, 0.0016163, -0.0496747, -0.0387398, -0.0116166, -0.0643801, -0.0317142, 0.0768103, 0.0746642, 0.0073244, 0.0389336, -0.0317676, 0.0212445, -0.0006509, -0.0044529, 0.0107804, 0.0065746, 0.0523474, 0.0600339, 0.0813440, 0.0044301, 0.0037141, -0.0025424, -0.0005942, -0.0346520, -0.0034257, -0.1147365, -0.0278901, -0.0659207, -0.0168544, -0.0086792, 0.0283541, -0.0498767, -0.0034981, 0.0171895, 0.0132328, 0.0215719, -0.0006350, 0.1436270, 0.0162006, 0.0499103, 0.0148134, 0.0629775, 0.0139322, 0.0314835, 0.0013799, 0.0037067, 0.0413569, 0.0444810, -0.0011871, 0.0193975, 0.0498856, 0.0552441, -0.1039673, -0.0456795, -0.0049732, 0.0722763, -0.0053525, 0.0935249, -0.0421219, 0.0522126, 0.0022103, -0.0400565, 0.1138309, 0.0471444, -0.0050025, -0.0376954, 0.0103248, 0.0419769, 0.0007671, -0.0607367, -0.0013028, -0.0131708, -0.0011812, -0.0896732, -0.0676333, 0.0038264, 0.1532005, 0.1303654, -0.0264418, 0.0619060, 0.0001598, 0.0178251, 0.0094682, 0.0328490, 0.0013388, 0.0197558, -0.0541567, 0.0261057, -0.0401267, -0.0193123, -0.0169925, -0.0595244, 0.0007385, 0.0184215, -0.0477250, -0.0512548, -0.0006587, 0.0486434, -0.0157534, -0.0313694, -0.0620364, 0.1016457, 0.1472932, -0.0653670, -0.0045773, -0.0443926, 0.0014514, 0.0019339, 0.0007822, -0.0436698, 0.0657999, 0.0008839, 0.1093937, 0.0577479, -0.0458232, -0.1031211, 0.0037212, 0.0420456, 0.0248400, -0.0290459, 0.0013251, -0.0472194, 0.0794131, 0.0088500, 0.0165665, 0.0651033, 0.0815604, -0.0414102, 0.0025913, -0.0427311, 0.0171301, -0.0208788, -0.0042206, 0.0263695, 0.0702125, 0.0875713, -0.0028849, 0.0324424, -0.0425035, 0.0374027, 0.0003349, -0.0440336, -0.0923094, -0.0275587, -0.0034785, 0.0191700, -0.0470520, 0.0100547, 0.0456585, -0.0294138, 0.0771324, 0.0039961, -0.0037945, -0.0237537, 0.0521475, 0.1227427, -0.0030246, 0.0453748, -0.0169932, 0.0052259, 0.0134388, -0.0147441, 0.0104899, -0.0041497, -0.0058655, 0.0200022, 0.0085048, -0.0014807, -0.0001331, -0.0287193, -0.0065737, 0.0709325, -0.0722613, 0.0254295, 0.0599138, -0.0422995, -0.0019805, 0.0248784, -0.0142635, -0.0028985, -0.0027533, 0.0435121, -0.0516123, 0.0321958, 0.0606325, -0.0541633, -0.0221062, -0.0147256, -0.0026034, -0.0166430, -0.0671815, 0.0647839, 0.0012974, -0.0213594, 0.0686695, 0.0637709, -0.0450652, -0.0691671, 0.0085178, 0.0498635, -0.0004551, 0.0343429, 0.0592579, -0.0310478, -0.0055049, -0.0188714, 0.0144556, -0.0637498, 0.0317355, -0.0542475, 0.0762437, 0.0653596, -0.0005575, 0.0380895, -0.0097653, 0.0331778, -0.0003494, 0.0348681, 0.1108800, -0.0954626, 0.0439212, 0.0240717, -0.0209086, -0.0898609, 0.0087388, -0.0535063, 0.0330241, 0.0202839, 0.0007779, -0.0638038, 0.1779642, 0.0132774, -0.0967601, -0.0502982, -0.1231813, -0.1028441, -0.0006107, -0.0267175, -0.0030558, 0.0075585, 0.0049631, 0.0536571, -0.0260040, -0.0988373, 0.0279834, -0.0369035, 0.2240713, 0.0253103, 0.0003934, -0.0435957, 0.0219647, -0.0120287, 0.0028582, 0.0009070, 0.0314054, -0.0287732, 0.1701580, 0.1202263, -0.1157528, -0.0040614, 0.0011467, -0.0233881, 0.0195676, 0.0704483, 0.0032689, 0.0208225, 0.0447944, 0.0585871, 0.0373719, -0.0445852, -0.0271088, 0.0561141, 0.0071458, 0.0219327, -0.0349610, -0.1853512, 0.0000378, -0.0501881, -0.0877900, 0.0458281, -0.1188982, 0.0290497, 0.0309084, 0.0578261, -0.0064690, 0.0448475, -0.0716765, 0.0589816, -0.0006061, -0.0235867, 0.0700644, 0.0287824, 0.0792602, -0.1621332, -0.0494575, -0.0709989, -0.0050760, -0.0689724, 0.0263904, 0.0094627, -0.0011419, -0.0081587, -0.0406503, 0.0476593, 0.0242163, -0.0285382, -0.0891212, -0.0640992, 0.0058018, -0.0208397, 0.0089005, -0.0677278, -0.0005183, -0.1007467, -0.0312623, 0.0246940, -0.0093842, 0.1197754, -0.0810076, 0.0813539, 0.0043669, -0.0630747, 0.0606335, -0.0724225, -0.0008517, 0.0352507, -0.0157047, -0.0198898, -0.0590501, 0.0526317, 0.0554628, 0.0523482, 0.0046758, -0.0267965, -0.0307308, 0.0740751, -0.0017168, 0.0068683, -0.0676301, 0.0300058, 0.0247444, -0.1322674, -0.0374324, -0.0037730, 0.0016849, 0.1070569, 0.0075459, -0.0445301, 0.0019788, -0.0001086, 0.0888370, -0.0213796, 0.0514394, 0.0603479, -0.1057251, -0.0144110, 0.0035170, -0.0685246, 0.0590611, -0.0104337, 0.0047121, 0.0021406, -0.0139714, -0.0029446, 0.0248902, -0.0452888, -0.0014104, -0.1042041, 0.0016511, -0.0253896, -0.0077621, 0.0260820, 0.0001620, -0.1557983, -0.0079191, -0.0067417, -0.0700490, -0.0351835, 0.0471595, -0.0477856, 0.0002837, -0.0809145, -0.0077813, -0.0094882, 0.0013251, 0.0283014, 0.0278187, -0.0074076, 0.0391952, -0.0432992, -0.0108041, 0.0812597, 0.0058139, -0.0393977, 0.0494953, -0.0608377, -0.0001123, 0.0466059, -0.0077421, 0.0573763, 0.0151726, 0.1161432, -0.0314817, 0.0234028, 0.0015522, 0.1531279, -0.0063129, 0.0761445, -0.0034040, 0.1109960, -0.0293849, -0.0164610, -0.0094866, -0.0925523, -0.0336585, -0.0022536, -0.0029928, 0.0194803, -0.0587237, -0.0264923, -0.0013472, 0.0624983, -0.0044065, 0.0028699, -0.0680514, 0.0832228, 0.0171939, 0.0636865, -0.0066815, -0.0116994, 0.0166011, 0.0537259, 0.0037293, 0.0697386, -0.0435530, -0.0343049, -0.0016758, 0.0624764, 0.0486502, -0.0521706, 0.0000618, -0.0678351, 0.0223285, -0.0217360, 0.0039708, 0.0255549, 0.0118662, 0.0122540, -0.0202942, -0.0929224, 0.0835222, -0.0386025, -0.0020441, 0.0520476, -0.0714445, -0.0384783, -0.0000725, -0.0193909, -0.0212579, 0.1050428, 0.0171818, -0.0293739, -0.1077758, 0.0014508, -0.0078700, -0.0552027, -0.0232350, 0.0127783, 0.0022317, 0.0121138, 0.0734432, -0.0956543, -0.0525565, -0.1613440, -0.1078530, -0.0495849, 0.0020168, 0.0281402, -0.0458875, -0.0239870, -0.0030397, -0.0210696, 0.0244976, 0.0255115, -0.0799633, 0.0605530, 0.0885921, 0.0717996, -0.0004829, 0.1517402, -0.0152185, 0.0230280, -0.0025217, 0.0891269, -0.0338525, -0.0127133, -0.0258228, -0.0409737, 0.0070209, -0.0036258, -0.0019289, 0.0231801, 0.0397046, -0.0139764, -0.0021355, -0.0359970, 0.0156824, 0.0830701, -0.0482554, 0.0882871, -0.0811637, 0.0568022, 0.0115022, 0.0788182, -0.0075960, -0.0305516, 0.0003753, -0.0140256, -0.0544640, 0.0002449, -0.1388709, 0.0537975, -0.0547760, 0.0772863, 0.0022820, 0.0047435, 0.0465979, -0.0368925, -0.0009031, 0.0062747, 0.0887229, -0.0575124, 0.0704011, -0.0185916, 0.0240082, -0.0313290, 0.0033853, 0.0293525, -0.0020576, -0.0274695, -0.0002552, 0.1297157, -0.0176050, 0.0736163, -0.0971968, 0.0162144, -0.0015244, 0.0001177, -0.0013948, -0.0284830, 0.0933594, -0.0457623, -0.0029149, -0.0372411, 0.1281872, 0.0357309, 0.0927413, 0.1598818, 0.0360596, -0.0364189, -0.0020884, -0.0243815, -0.0099645, 0.0153263, 0.0000387, -0.0128767, 0.0758032, 0.0453175, 0.0238084, -0.1723502, 0.0190376, -0.0503946, -0.0034238, -0.1221914, -0.0659619, -0.0429224, 0.0025466, -0.0264539, -0.0055587, -0.0159070, -0.0033951, 0.0705369, 0.1110327, -0.0806013, 0.0005266, 0.1001008, -0.0481509, 0.0075188, -0.0001044, 0.0787047, -0.1176268, 0.0275678, 0.0630635, -0.1400443, 0.0012381, -0.0576562, 0.0036370, -0.0432910, -0.0032720, -0.0448327, -0.0039939, -0.0451963, -0.0058730, -0.0290314, 0.1572992, 0.0956708, 0.0400216, -0.0286670, -0.0020447, 0.0012217, 0.0633541, 0.0439485, -0.0019000, -0.1056139, 0.0373115, -0.0137377, -0.1033813, -0.0916556, -0.0784287, -0.0729010, -0.0083651, -0.0096387, 0.0227729, -0.0207860, -0.0020501, -0.0436749, -0.0340549, 0.0341614, 0.0021880, 0.1329890, 0.2292495, 0.0313079, -0.0040921, 0.0201994, -0.0391628, 0.0661765, 0.0006006, -0.0327745, -0.0632790, 0.0175066, 0.1806778, -0.0864808, 0.0011305, 0.0744953, 0.0012255, -0.0170435, 0.0723944, -0.0431194, -0.0018818, -0.0117014, -0.0585320, 0.0178197, -0.0138492, -0.0400499, 0.0923748, -0.0619531, -0.0033890, -0.0734502, -0.0737527, -0.0366292, 0.0000311, 0.0562003, -0.0332048, -0.0392315, 0.0274219, 0.0596657, 0.0187994, -0.0288345, -0.0006359, 0.0106197, 0.0649297, -0.0034449, -0.0040500, -0.0425182, -0.0233982, 0.0144545, -0.0228922, -0.0640351, 0.0146959, 0.0625945, -0.0051097, -0.0257816, 0.0178439, 0.0154508, -0.0069836, 0.1152188, -0.0535241, -0.0012977, 0.0074726, 0.0524795, 0.0133985, 0.0489818, -0.0084456, -0.0295971, -0.0629797, -0.0401909, -0.0037736, -0.0447708, 0.0089443, 0.0140165, -0.0854014, 0.0789843, 0.0562480, -0.0026447, 0.0046950, 0.0465496, 0.0999782, -0.0201751, 0.0033942, -0.0195744, -0.0313020, 0.0282198, 0.1535218, 0.0819504, 0.1019320, -0.0344500, -0.0029972, -0.0130863, -0.0193216, 0.0174263, -0.0021198, 0.0011933, -0.0652375, 0.0010928, -0.1646516, -0.0995523, 0.0968861, -0.0692569, 0.0013103, 0.1037996, -0.0609927, -0.0206086, 0.0000283, 0.0029788, 0.0008566, -0.0599739, 0.0013807, -0.0904619, 0.0273034, 0.0447397, 0.0060410, 0.0441924, -0.0160663, 0.0673844, 0.0014529, 0.0027611, -0.0296251, -0.0014242, -0.0148459, 0.0108171, -0.0050717, 0.0403761, 0.0045037, -0.0019979, -0.0816142, 0.0571879, 0.0005922, -0.0595685, 0.0292134, 0.0006402, 0.0309123, 0.0215092, 0.0171214, -0.0897243, -0.0072534, -0.0900956, 0.0575093, -0.0808655, 0.0012062, -0.1070541, -0.0147122, 0.0472829, -0.0017728, 0.0695301, 0.0090239, 0.1178547, 0.0043457, 0.0468525, 0.0658848, -0.0329727, -0.0014795, -0.0587001, 0.0306653, -0.0282659, 0.0401912, -0.1282661, -0.0329479, 0.0107206, 0.0021546, 0.0207441, -0.0088783, -0.0217254, 0.0018231, -0.0519121, -0.0849277, -0.0477542, 0.0180075, -0.0168971, 0.0344780, -0.0314397, 0.0039136, 0.0082276, 0.1028383, 0.0006054, 0.0019005, 0.0229198, 0.0369399, 0.0006408, 0.0084770, -0.0868454, -0.1112423, -0.0177127, -0.0013283, 0.0349325, -0.0465374, -0.0067146, -0.0001587, -0.0573366, 0.0009825, 0.0288193, 0.0325230, 0.0738762, 0.0044202, -0.0500010, -0.0053444, 0.0115835, 0.0483414, -0.0436855, 0.0066294, 0.0255469, 0.0656118, 0.0634921, -0.0488021, 0.0448759, -0.1536426, -0.0446542, -0.0149477, -0.0751315, -0.0093888, -0.0712720, -0.0010753, 0.0155457, -0.0964494, -0.0312101, 0.0022342, -0.1375502, -0.0166138, -0.0132648, -0.0005790, 0.0314823, -0.0072513, 0.0139119, -0.0039143, 0.0464445, 0.0449350, -0.0188096, -0.0003923, -0.1190835, 0.1525622, 0.0648741, 0.0000068, -0.0237235, -0.0351090, -0.0861708, 0.0025418, 0.0179111, 0.0625592, -0.0132046, -0.0062011, 0.0206271, 0.0116466, -0.0264736, -0.0074708, -0.0004936, -0.0380770, 0.0485495, 0.0017776, -0.0592067, -0.0500683, 0.0236885, -0.1325598, -0.0083831, -0.1434676, 0.0082349, 0.0029335, 0.0402280, 0.0753621, 0.0470741, 0.0058836, 0.0148385, 0.0949388, 0.0172944, -0.0211579, 0.0262495, 0.0052901, -0.0323574, 0.0020760, 0.0158807, 0.0305860, 0.1095570, -0.0018164, -0.0335341, 0.0144249, 0.0038927, -0.0098184, 0.0082998, 0.1706946, 0.0380882, 0.0007516, 0.0770559, -0.0670646, 0.0263526, -0.0002117, 0.0695718, -0.0519825, 0.0042172, 0.0344064, 0.0664417, 0.0475848, 0.0097531, 0.0033150, -0.0547437, -0.0391153, 0.0288058, 0.0052926, 0.1525766, -0.0762777, -0.0310083, 0.0309680, 0.0173183, -0.0302888, 0.0565137, -0.0001927, 0.0018728, 0.0229765, 0.0517884, -0.0071674, -0.0246036, 0.0044196, -0.0141738, 0.0762351, -0.1645155, 0.0626742, -0.0057244, -0.0030374, -0.0414944, -0.0684211, -0.0294864, 0.0021482, 0.0650773, 0.0314060, 0.0080430, -0.0731251, -0.0557971, 0.0336964, 0.0281919, 0.0082725, -0.0741053, -0.0096672, 0.0436003, 0.0004868, 0.0680317, -0.0525918, -0.0470613, -0.0051757, 0.1661910, 0.0388213, 0.0028677, 0.0019724, -0.0039929, -0.0110913, 0.0220019, -0.0002528, -0.0948745, -0.0168016, 0.0248124, 0.0480939, -0.0931071, 0.0182373, -0.1135441, -0.0049445, -0.0335874, 0.0750559, -0.0031909, -0.0030741, 0.0503056, -0.0100750, -0.0425414, -0.0899165, 0.0103256, -0.0724442, -0.1307652, -0.0053350, -0.0515134, -0.0592730, 0.0774872, -0.0021778, 0.0411853, -0.0656499, -0.0342620, 0.0207665, -0.0291630, -0.0599584, 0.0429647, 0.0072191, -0.0225012, -0.0009813, 0.0247566, 0.0004763, 0.0104792, -0.0831974, 0.0012276, 0.0838639, -0.0855124, 0.0542162, -0.0106385, -0.0004367, 0.0236545, 0.1106560, 0.0307537, 0.0017697, -0.0226449, -0.1684005, 0.0059255, 0.0693087, -0.0467942, 0.0795826, 0.0072388, 0.0033956, -0.0597886, 0.0308402, -0.0708850, -0.0021574, -0.0086217, 0.0285535, -0.0030538, 0.0282804, -0.0252644, 0.0538552, 0.0490954, 0.0001341, -0.0036353, 0.0327895, 0.0478689, 0.0026096, -0.0297849, 0.0048764, -0.0005577, -0.0311958, -0.0157373, -0.0340422, -0.0129136, 0.0141630, -0.0496504, -0.0524454, 0.1554524, -0.0027456, -0.0028142, -0.0105815, -0.0564636, -0.0238795, 0.0738337, -0.0311190, 0.0482968, -0.0067868, -0.0233926, -0.0628923, -0.0548108, -0.0046662, 0.0030065, 0.1422245, 0.0480478, 0.0172769, 0.0248896, -0.1095424, -0.0456990, -0.0009364, 0.0023693, -0.0127739, -0.0654969, 0.0011860, -0.0445594, 0.1147721, 0.0328861, -0.0059399, -0.0171277, -0.0810197, 0.0172508, -0.0009310, -0.1080048, 0.0066318, 0.0502872, 0.0001329, -0.0309635, 0.0528689, -0.0349573, -0.0834260, -0.0195871, 0.0810168, 0.0022846, -0.0047211, 0.0725388, 0.0143781, -0.0141416, -0.0011676, -0.0729263, 0.0449840, 0.0299544, -0.0427049, -0.0589930, 0.0357167, -0.0297930, 0.0067714, -0.0172911, -0.0012555, -0.0313575, 0.0001679, 0.0837522, -0.0739081, 0.0156937, -0.0681303, 0.0812157, -0.0619132, -0.1139468, 0.0005629, 0.0213627, 0.0396016, 0.0498564, 0.0008798, 0.0233979, -0.0134461, -0.0077536, 0.0543732, 0.0282044, -0.0250704, 0.0080230, -0.0008134, 0.0088820, -0.0401370, 0.0439101, -0.0022366, -0.0303958, -0.0516709, -0.0284410, 0.0832284, -0.0888844, 0.0907039, -0.0661257, -0.0018486, 0.0618890, -0.0161827, -0.0323959, -0.0005622, 0.0459200, -0.0238642, 0.0476994, 0.0363543, 0.0053967, 0.1060558, 0.0574970, 0.0050472, -0.0482584, 0.0034541, -0.0638279, -0.0028711, 0.0019623, -0.1123223, -0.0477527, -0.0145294, -0.0166504, 0.0853333, 0.0315359, -0.0072377, 0.0119045, -0.0071463, -0.0666678, 0.0045739, -0.0087142, -0.0801647, -0.0048922, 0.1176524, 0.0255013, 0.0492573, 0.0481555, 0.0027487, 0.0014140, -0.0113585, 0.0559949, -0.0007242, 0.0062779, -0.0061885, -0.0699028, 0.0584399, -0.0150473, 0.0421537, -0.0680234, -0.0059957, 0.0866240, -0.0587120, 0.0391200, 0.0017798, -0.0186821, 0.0109962, 0.0604313, 0.0323121, 0.0624195, 0.0976712, 0.0462702, -0.0009722, 0.0001670, -0.0257457, 0.0307250, -0.0027282, 0.0010844, -0.0742623, -0.0694667, -0.0098245, -0.0606815, -0.0970716, -0.0239735, -0.0031464, 0.0205927, -0.0178187, 0.0647753, 0.0009364, -0.0645460, 0.0586029, -0.0196097, 0.1049482, -0.0187670, 0.0496300, -0.0288755, 0.0092591, 0.0085510, 0.0078749, -0.0458129, -0.0005719, 0.1058406, 0.0033483, 0.0099470, -0.0255419, 0.0182387, 0.0976064, 0.0195711, -0.0015431, -0.0245753, 0.0261471, -0.0532825, -0.0019525, -0.0349401, 0.0073121, 0.0256987, -0.0811316, 0.1034970, 0.0900261, -0.0545765, -0.0010562, 0.0088901, -0.0295497, -0.0841621, 0.0008062, -0.0062698, 0.0414111, 0.0078004, 0.0038479, 0.0523327, -0.0616465, -0.0383827, 0.0016339, 0.0006476, -0.0045872, -0.0153441, -0.0044267, -0.0179630, -0.0038063, 0.0000234, 0.0081821, -0.1958195, 0.0198133, -0.0544689, -0.0022485, -0.0641961, 0.0848278, 0.0521248, -0.0049917, 0.1046988, -0.0561723, -0.0131929, 0.0253333, -0.0775094, -0.0751580, 0.0305628, 0.0029249, -0.0501273, -0.0407226, -0.0593467, 0.0012207, -0.0020639, 0.0999898, -0.0271388, -0.0776520, 0.2062386, -0.1008711, 0.0772995, 0.0035697, 0.0744473, -0.0183515, -0.0374869, -0.0030604, -0.0027212, -0.0220747, -0.0745327, 0.0529105, 0.1603650, 0.0788385, -0.0553624, -0.0015462, -0.0425762, -0.0141136, -0.0347775, 0.0012481, 0.0124085, -0.0173993, -0.1010442, 0.0501251, 0.1001618, -0.0215809, 0.0423990, -0.0036731, -0.0143040, -0.0290283, -0.0600652, 0.0014017, -0.0225351, 0.0258990, 0.0173219, -0.0159885, -0.1087223, 0.1382817, 0.0742212, -0.0042344, -0.0503963, -0.0232570, 0.0327207, 0.0017701, -0.0255074, -0.0152026, -0.0066112, 0.0754569, -0.1398814, 0.0371773, -0.0516931, 0.0016248, 0.0628045, -0.0121862, 0.0284521, 0.0037556, 0.0317011, -0.0524268, 0.0376038, -0.0881805, -0.1489695, 0.0886027, 0.0173382, 0.0013160, 0.0167308, -0.0573467, 0.0720327, 0.0060786, 0.0094800, 0.0574556, -0.0477451, -0.2042872, -0.0724255, 0.0538518, 0.0370899, 0.0026136, 0.0052272, -0.0183373, 0.0635523, 0.0012119, 0.0102770, -0.0922730, 0.0583443, 0.0391365, -0.0678977, -0.1327033, -0.0106454, -0.0060619, -0.0289144, 0.0540740, 0.0300784, -0.0015487, -0.0033282, 0.0094373, 0.0053595, -0.0277256, 0.0495183, -0.0348619, -0.0740740, 0.0048407, 0.0060381, 0.0655479, -0.0023592, 0.0029654, 0.1287312, 0.0424630, -0.0674604, -0.0124284, -0.1965434, -0.0018930, -0.0567071, -0.0001813, 0.0061534, 0.1052380, 0.0256753, -0.0010609, 0.0055151, 0.0494324, 0.0241779, 0.0520827, 0.0193154, -0.0590325, -0.0485667, 0.0038577, -0.0528982, 0.0399511, -0.0612318, -0.0033683, 0.0642724, 0.0741141, -0.0260136, -0.0882140, 0.0622573, -0.0496113, -0.0407080, 0.0032643, -0.0279887, 0.1021947, -0.0712118, 0.0044645, 0.0853246, -0.0220524, -0.0209652, 0.0089162, -0.1539699, -0.0314337, 0.0647656, 0.0079470, 0.0513667, -0.0000885, -0.1122443, 0.0037754, -0.0991781, 0.0323738, 0.0812332, -0.0555986, -0.1129420, 0.0703282, 0.0269353, 0.0019000, 0.0380483, -0.0023552, -0.0233585, 0.0020881, -0.0552067, -0.0547019, 0.0331119, -0.0849842, 0.1042174, -0.0781609, -0.0424447, 0.0010380, 0.0244915, 0.0004725, -0.0139768, -0.0062179, -0.0990152, -0.0724472, 0.0175524, -0.0741608, 0.1068312, 0.0780076, -0.0410491, -0.0049504, -0.0200670, -0.0246391, -0.0317336, 0.0024380, -0.0529994, -0.0775368, 0.0161406, 0.0900179, -0.0754149, 0.0138934, 0.0605136, 0.0074491, 0.0217702, 0.0573952, 0.0019585, 0.0000575, 0.0213767, 0.0859394, -0.0278666, -0.0293820, -0.0128940, 0.0175820, 0.1058754, 0.0041344, 0.1051224, 0.0353982, 0.0369761, 0.0043844, 0.0071898, 0.0760547, -0.0403162, 0.0685398, 0.0781786, 0.0273617, 0.0685638, -0.0047655, -0.0166708, -0.0488376, -0.1047813, 0.0001221, -0.0633145, -0.0445907, 0.0480937, -0.0307868, -0.0167318, -0.1275791, -0.0115854, -0.0009233, -0.0395485, 0.0325225, 0.0192794, 0.0029822, -0.0453560, 0.0567543, -0.0019233, -0.0368200, 0.0205217, 0.0082809, -0.0947008, 0.0028066, 0.1158388, 0.0170770, -0.0074886, -0.0020517, 0.0189331, 0.0176320, -0.0209000, 0.0720394, -0.0433315, -0.0224626, 0.0267133, -0.0045895, -0.0760755, -0.0219386, 0.1410911, 0.0032045, 0.0408283, -0.0354868, 0.0150142, 0.1154773, 0.1739293, -0.0482295, 0.0601582, 0.0086287, 0.0065136, -0.0207257, -0.0620450, -0.0015434, 0.0368592, 0.0582383, -0.0047200, -0.1029592, 0.0131615, -0.0136399, -0.0437817, 0.0055495, 0.0144695, 0.0448595, 0.0864537, -0.0006684, 0.0757578, 0.0463917, -0.0050088, -0.1728480, -0.1159623, 0.0139518, -0.1415427, -0.0026587, -0.0162152, -0.0050904, 0.0237147, 0.1424927, 0.0709218, 0.0138615, -0.0578098, 0.0259593, 0.0012602, 0.0013085, -0.1052942, 0.0020072, -0.0641843, -0.0576159, -0.0083837, -0.0105973, -0.0047485, -0.0517021, -0.0863629, -0.0604773, -0.1219887, -0.0013600, -0.0457509, 0.0013625, 0.0806518, 0.0281056, 0.0125999, 0.0708644, -0.0064254, -0.0594021, -0.0976306, 0.0476351, 0.1131003, -0.0028311, -0.0201593, -0.0039118, 0.0898273, -0.0002152, 0.0400304, -0.1019666, -0.0524287, 0.0021217, 0.0035161, 0.0436707, 0.0994023, -0.0009360, 0.0709193, -0.0009177, 0.0852070, 0.1162805, -0.0079005, -0.0944871, -0.0101951, -0.0184698, -0.0335143, 0.0241832, -0.1065752, -0.0007768, -0.0066835, 0.0004304, -0.0244085, 0.0341689, 0.0366279, -0.0237997, -0.0237981, 0.0729141, 0.0697776, -0.0190923, 0.0078667, 0.0050119, -0.0088262, 0.0028511, 0.0264352, 0.0999637, 0.0727771, -0.0279861, 0.0917032, -0.0581647, 0.0246844, 0.0483328, -0.0448677, 0.0047784, -0.0019814, 0.0050034, -0.0253155, -0.0571280, -0.0080786, -0.0081854, -0.0069058, 0.0479763, -0.0172652, 0.0169448, -0.0493581, 0.0008124, -0.0533868, 0.0024397, -0.0805171, -0.0012704, 0.0002265, -0.0441855, 0.0769906, -0.1663594, 0.0617233, -0.0446750, 0.0896349, -0.0002962, 0.0133546, 0.0005233, -0.0737251, -0.0001270, 0.1047070, -0.0487630, 0.0058317, 0.0050969, 0.0290346, -0.0076674, 0.0277617, 0.0027349, -0.0566174, 0.0009125, -0.1652759, -0.0267329, 0.0438730, -0.1570854, -0.0299023, 0.0483544, 0.0035005, 0.0110279, -0.0669025, -0.0015199, 0.0102963, 0.0054743, 0.0398856, 0.1073782, 0.0985301, 0.0414193, 0.0389121, 0.1060702, -0.0998358, 0.0166354, -0.1612352, 0.0051255, 0.0022732, 0.0020069, -0.0992632, -0.0283453, -0.0331307, -0.0569666, -0.0087941, 0.0652395, -0.0548242, -0.0624379, 0.0095473, 0.0008869, 0.0297287, 0.0008874, 0.0208847, -0.0307330, -0.0488267, 0.0093917, -0.0249969, 0.0209765, -0.0608717, 0.0156286, -0.0038997, -0.0038212, 0.1036274, 0.0004558, 0.0349387, -0.0658024, -0.0627193, -0.0136179, -0.0021534, 0.0729077, 0.0776193, 0.0138130, -0.0006965, 0.0027572, 0.0338841, 0.0048242, 0.0185145, 0.0411067, 0.0577609, -0.0356534, -0.0470137, 0.0416148, -0.0894723, -0.0455150, 0.0265316, -0.0006661, 0.1195918, 0.0018432, 0.0451315, 0.0394477, -0.0611653, 0.0020293, -0.0081636, 0.1288735, -0.0194022, 0.0087107, 0.0805975, -0.0027492, -0.0512128, -0.0017285, -0.0074817, -0.0123456, 0.0539003, 0.0734451, -0.0713899, -0.0329805, 0.0804815, -0.0989031, -0.0398327, 0.0037994, -0.0601242, -0.0001469, 0.1136886, 0.0268241, -0.0656424, 0.0004214, 0.0694701, -0.0145756, 0.0865232, 0.0282268, 0.1043006, 0.0063647, 0.0199772, 0.0059568, 0.0776861, 0.0080225, 0.0282039, -0.0766133, -0.1839154, 0.0432397, -0.0322223, 0.0057791, 0.0343522, 0.0033695, 0.0629489, 0.0019282, 0.0207757, 0.0907143, 0.0631229, -0.0568803, -0.0395907, 0.0604814, 0.0182989, 0.1195350, -0.0323388, 0.0021024, 0.0183429, -0.0010012, -0.0321814, 0.0108842, 0.0195779, 0.1109461, 0.0453635, 0.2029511, 0.0294457, 0.0295232, 0.0099952, -0.0177689, 0.0188427, -0.0275668, 0.1058625, -0.0030722, 0.0522753, 0.0019233, 0.0661037, -0.0035675, -0.0985081, -0.0784435, 0.0391103, -0.0031387, 0.0849235, -0.0048825, -0.0073153, 0.0132895, 0.1213096, 0.0561068, 0.0262847, -0.1006434, 0.0437761, 0.0357327, -0.0030114, 0.0011366, 0.0126492, -0.0003226, 0.1220650, 0.0148177, -0.0126971, 0.0449745, -0.0202371, -0.0581101, -0.0391268, -0.0027943, 0.0876064, -0.0004693, -0.0317324, -0.0037144, 0.0297461, -0.0565021, 0.0075150, -0.0169118, -0.1422339, 0.1146588, -0.0511268, -0.1159659, 0.0451234, -0.0024464, -0.0087795, -0.0021189, -0.0376515, 0.0507097, -0.0266755, 0.0184591, 0.0821493, -0.0700164, 0.0122505, -0.0275789, 0.0396708, 0.0052518, 0.0242303, 0.0065358, -0.0177290, 0.1537877, 0.0947997, -0.0447366, 0.0072874, -0.1130805, 0.0370148, 0.0133686, 0.0727491, 0.0013298, 0.0155276, 0.0015001, -0.1130200, -0.0200591, -0.0495585, 0.0120523, 0.0932396, 0.0043805, 0.0733959, -0.0006611, -0.0223120, -0.0029245, 0.0156053, -0.0027253, 0.1333636, -0.0794620, 0.0178241, 0.0065304, -0.0320428, -0.0811083, -0.0651430, -0.0044207, -0.0599962, 0.0002129, -0.0127709, 0.0003657, -0.0663794, 0.0892882, 0.0279192, 0.0338020, -0.0051740, -0.0365280, -0.0269961, -0.0096352, -0.0288874, -0.0004340, 0.0517043, -0.0012370, -0.0014823, 0.0165852, 0.0417192, -0.0588918, -0.1389033, 0.0923993, 0.0298307, -0.0551245, 0.1086509, -0.0015522, 0.0235257, -0.0027903, -0.1113141, 0.0351736, 0.0021565, 0.0302120, 0.0089905, 0.0559114, 0.0582297, 0.0738476, 0.1174620, 0.0028224, -0.0940541, 0.0025581, 0.0348712, -0.0188704, -0.0241823, 0.0996692, -0.0518993, -0.0493738, -0.0234224, 0.0351707, -0.0763095, -0.0012872, -0.1036874, 0.0003312, -0.0021568, 0.0153270, 0.0614581, -0.0157975, -0.0687523, 0.0329607, -0.0851698, -0.0232839, -0.1219270, -0.0000910, -0.0123192, -0.0011473, 0.0439232, 0.0297608, 0.1081823, 0.1391055, 0.0292583, 0.0721220, 0.0126850, 0.0528760, 0.0465275, -0.0037855, 0.0881969, -0.0004885, -0.0270053, 0.0207028, 0.0118217, -0.0254801, 0.0592454, 0.0861504, -0.0900770, 0.0454768, -0.0562169, -0.0032807, -0.0886831, -0.0030003, -0.0527899, 0.0861366, 0.0028884, 0.0015135, 0.0170319, -0.0689948, 0.0030041, 0.0243686, 0.0577735, -0.0017151, 0.0412006, -0.0019153, 0.0118783, -0.0150671, 0.0212123, 0.0591056, -0.0252423, -0.0415555, 0.1213026, -0.0403077, -0.0268268, 0.0045421, 0.1255186, 0.0041869, 0.0510720, -0.0673297, 0.0571805, 0.0157034, 0.0195195, 0.0046286, -0.0079506, 0.0070199, 0.0353074, -0.0019933, 0.0901583, -0.0015999, -0.0522254, -0.0166565, 0.0344644, 0.0564606, -0.1129750, 0.0565727, 0.0396657, 0.0512647, 0.0251749, -0.0008025, 0.0112312, 0.0042222, 0.0165338, 0.1330921, -0.1198415, -0.1281292, 0.0423649, -0.0051897, -0.0696527, 0.0417925, 0.0028479, 0.0032288, 0.0823667, -0.0037481, -0.0081585, 0.0570329, 0.0097112, 0.0112893, 0.0550919, 0.0462451, 0.0214530, -0.0993019, 0.0300323, -0.0004092, 0.0921715, 0.0026462, 0.0814190, -0.0533973, 0.1171470, 0.1187242, -0.0028690, 0.0677235, -0.0273453, -0.0502646, -0.0046294, -0.0013889, 0.0628628, -0.0029365, -0.1392658, -0.0175956, -0.0339001, -0.0257061, -0.0712731, -0.0512103, -0.0022450, -0.0401904, -0.0837608, -0.0021873, 0.0378873, -0.0018008, -0.0078691, 0.0267507, 0.0454926, -0.0721694, 0.0611247, -0.1809416, -0.0535764, 0.0605652, -0.1412768, -0.0024427, -0.0732039, -0.0009949, 0.0652044, 0.1048405, -0.0770223, 0.0075360, 0.0807057, -0.0078295, -0.1134901, 0.0482171, -0.0135048, -0.0027867, -0.0267371, -0.0013474, -0.0209616, 0.0526182, -0.0106135, 0.0646049, 0.0199682, -0.0018800, -0.0142295, 0.0941591, -0.0140901, 0.0005484, 0.0962276, 0.0011084, 0.0216817, 0.0506542, 0.0097611, -0.1013377, -0.1381443, 0.0590979, 0.0288327, 0.0562950, -0.0784553, -0.0020318, 0.0482845, -0.0039214, 0.0570564, -0.0396348, 0.0133657, -0.0050954, -0.0138335, -0.0276574, 0.0465837, -0.0730960, -0.1009419, -0.0043170, -0.0604807, -0.0022358, 0.1775043, 0.0044680, -0.0598598, -0.0182481, 0.0423052, -0.0540291, 0.0201881, -0.0375963, -0.0517810, -0.0003447, -0.0185429, -0.0053817, 0.0223375, 0.0319142, -0.0910408, -0.0181398, -0.0169908, 0.0048360, -0.0293939, -0.0458894, -0.0484404, 0.0016360, 0.0385486, -0.0001604, -0.1013958, -0.0918063, 0.0251110, -0.0213046, 0.0588086, -0.0512406, -0.0874178, 0.0108059, 0.0858260, 0.0002974, -0.0153593, -0.0034586, -0.0430501, -0.0062777, -0.0000049, 0.0405256, -0.0728612, 0.0353050, 0.0629856, -0.0082503, 0.0687424, 0.0004163, 0.0041716, -0.0004421, 0.1335585, -0.0286205, 0.0261361, -0.0286373, 0.0820086, -0.0583634, 0.0215651, 0.0716003, -0.0607802, -0.0000659, 0.0594509, -0.0016300, 0.0318727, 0.0310251, -0.0159345, 0.0601058, -0.0337990, -0.0629158, -0.0036858, -0.0093429, -0.1644820, -0.0024221, 0.0552899, -0.0019342, -0.0580883, 0.0187643, -0.0272567, -0.0898800, -0.0705412, -0.0759893, -0.0168133, 0.0283528, 0.1311812, -0.0018949, 0.0881253, 0.0003463, -0.0608598, -0.0004932, 0.0659975, -0.0102315, -0.0090512, 0.0398968, 0.0250850, 0.0217205, -0.1094024, 0.0023790, 0.0459882, 0.0000357, 0.0189340, -0.1025269, 0.0169858, 0.0696167, -0.1390639, 0.0284987, -0.0675628, -0.0289943, 0.0273417, 0.0020781, -0.0689422, 0.0016480, 0.0160481, 0.0320340, 0.0698212, 0.0209500, 0.0216243, 0.0307425, 0.0898235, -0.0928094, -0.0007332, 0.0013015, -0.0319436, 0.0014584, -0.1184502, -0.0326305, -0.0528230, -0.0871646, 0.0024479, 0.0305121, -0.0715617, -0.0533816, -0.0143229, 0.0007231, -0.0176550, 0.0028078, 0.0296947, 0.0411509, -0.0039858, 0.0928260, 0.0110153, 0.0483218, 0.0278797, -0.0094645, 0.0224569, -0.0020186, 0.0246296, -0.0017721, -0.0325108, 0.0054246, 0.0250880, -0.0449219, 0.0676361, 0.1157000, -0.0393748, -0.0497068, -0.0272393, 0.0007040, -0.0400561, 0.0006928, 0.0442536, 0.0427069, 0.0063742, -0.0109919, 0.0289068, 0.0650056, -0.0405550, 0.0813037, 0.0150824, -0.0006816, 0.0504642, -0.0023613, -0.0017883, -0.0370813, 0.0319649, 0.0048849, 0.0742235, 0.0036892, -0.0457238, -0.1380080, 0.0334615, 0.0001342, 0.0309519, -0.0006827, 0.0416141, -0.0353375, -0.0452024, 0.0363058, 0.0173169, 0.0220713, -0.0580933, 0.1590905, -0.0287996, 0.0012089, 0.0140043, -0.0000291, -0.0273523, -0.0363660, -0.0463984, -0.1580261, 0.0213254, 0.0062478, 0.0043962, -0.0645544, -0.0943516, -0.0026003, -0.0609684, -0.0005020, 0.0430865, -0.0051293, -0.0315959, 0.0456441, -0.0084394, 0.0854519, 0.0037451, -0.0079156, -0.0720586, -0.0027386, -0.0201327, -0.0053734, -0.0372888, -0.0358817, -0.0256333, -0.0169954, 0.0705717, 0.0001052, -0.0416858, -0.0541364, -0.0317552, 0.0044948, -0.0454403, 0.0024618, 0.0123034, 0.0290289, 0.0309031, 0.0135575, 0.0243262, 0.1082946, 0.0500317, 0.0985402, -0.0824398, 0.0034575, -0.0430739, -0.0026745, -0.0172271, -0.0002242, 0.1135071, 0.0479321, -0.0045668, 0.0350293, -0.0331180, -0.0512451, -0.0312012, -0.0056706, -0.0466181, -0.0060572, -0.0266879, -0.0303474, -0.0133541, 0.0121759, -0.0720648, -0.0628052, -0.0496715, 0.0484056, -0.0655650, -0.0021264, -0.0187121, -0.0017958, 0.0539198, 0.0094046, 0.0631074, -0.1188126, -0.0619118, 0.0377531, 0.0174905, -0.0686733, -0.0718018, 0.0014477, -0.0024706, 0.0008439, -0.0339927, -0.0202994, 0.0089291, -0.0356229, -0.0202652, -0.0931354, 0.0477284, 0.0295998, -0.0572470, 0.0001198, -0.0100650, -0.0009057, -0.1515411, -0.0621481, -0.0442436, 0.0388001, -0.0194082, -0.0216529, 0.0967499, 0.0598505, -0.0798454, -0.0013309, -0.0194211, -0.0047102, -0.0584986, -0.0583637, -0.0091267, -0.0553546, -0.0569991, -0.0141751, 0.0065268, -0.0131054, 0.0067439, -0.0005477, 0.0079202, 0.0016825, 0.0309980, 0.0678700, -0.0726563, 0.0990895, 0.0150798, 0.0215863, -0.0436624, -0.0314120, 0.0039947, -0.0029649, -0.0524375, -0.0001932, 0.0537971, -0.0623201, 0.0330427, 0.0555049, -0.0228485, 0.0361066, 0.0538142, 0.1451757, 0.0048467, 0.0055323, -0.0036252, 0.0035048, 0.0563073, 0.1214519, 0.0008393, 0.0265741, 0.0390640, -0.0479691, -0.0150432, -0.0129133, 0.0230776, -0.0008374, 0.0054637, 0.0012259, 0.0153981, 0.0015882, 0.0368551, 0.0198358, 0.0881671, 0.0341839, 0.0836539, 0.0546982, 0.0471515, -0.0010578, 0.1043963, 0.0033182, -0.0412859, -0.0837631, 0.0474417, 0.0640900, 0.1026789, 0.0047555, -0.0212037, -0.0553473, 0.0309687, -0.0005594, -0.0446625, 0.0025839, -0.0602220, -0.0251149, 0.0564956, -0.0770645, -0.0281832, 0.0130366, 0.0464537, -0.0061867, 0.0587807, 0.0025863, 0.0365827, 0.0022836, -0.0316270, -0.0810737, -0.0519909, -0.0132828, 0.0734128, 0.0043690, 0.0171780, 0.1027659, 0.0543950, -0.0031477, 0.0095550, -0.0056357, -0.1489899, -0.0584360, 0.0648261, -0.0417459, 0.0857696, -0.0274410, -0.0037608, 0.0058890, -0.1612754, 0.0024939, 0.0531709, 0.0031291, -0.0478258, -0.0147264, -0.0734879, 0.0316413, 0.0195117, 0.0291645, 0.0360926, 0.0675528, 0.0032000, -0.0025346, -0.0539686, -0.0009825, 0.0411829, -0.0517697, -0.0045440, -0.0521536, 0.0073774, -0.0568569, -0.0075021, -0.0477840, 0.0691113, -0.0001053, -0.0383279, 0.0006937, -0.0087248, 0.0631251, 0.0260528, -0.0065121, -0.1445655, 0.0258265, 0.0587714, 0.0914721, 0.0597527, 0.0048022, -0.0477704, 0.0008533, -0.0756256, -0.0262499, 0.0431293, 0.0148605, -0.0546855, 0.0534260, 0.0179860, -0.0959406, 0.0757928, 0.0026337, -0.0003148, 0.0005695, 0.0853043, 0.0004465, -0.0178105, -0.0653532, 0.1046128, 0.0390991, -0.0636419, -0.1213807, 0.0205531, -0.0006292, -0.0094399, 0.0003223, 0.0422201, -0.0908275, -0.0538940, 0.0905389, 0.0205046, 0.0139408, 0.0293467, -0.0209463, 0.0061388, 0.0030338, -0.0144664, 0.0011480, 0.0945367, 0.0809148, 0.0163636, -0.0179227, 0.0681425, -0.0816853, -0.0719003, -0.0062759, 0.0115408, 0.0023632, -0.0162600, 0.0027055, 0.0500024, 0.0008749, 0.0527564, -0.0872514, -0.0105977, -0.0134327, -0.0222543, 0.0250491, -0.0038892, 0.0059306, -0.0133834, 0.0048328, 0.0000789, 0.0058331, -0.0832416, -0.0804745, 0.0038254, 0.0593745, -0.0022445, -0.0608719, 0.0439467, 0.0023582, -0.0161228, 0.0005634, 0.0512462, -0.0138055, -0.1036650, -0.0608062, 0.0660836, -0.0428388, -0.0246156, -0.0740308, 0.0941259, -0.0049367, -0.0473137, -0.0049555, 0.0444095, -0.0121716, -0.0012207, 0.0151787, 0.0457666, 0.0220325, -0.0298377, -0.0041083, -0.0326962, -0.0005177, 0.0319476, -0.0003468, -0.0301488, 0.0184082, -0.0564398, -0.0190308, 0.0032942, -0.0053512, -0.0030569, 0.0254305, -0.0198505, 0.0021238, -0.0161901, 0.0043473, -0.0459093, -0.0375764, -0.0251080, -0.0243587, 0.0591532, -0.0091046, 0.0122354, -0.1360369, -0.0501357, 0.0000670, 0.0173176, -0.0001335, 0.0508205, 0.1324723, -0.0298185, 0.0657772, 0.0370193, -0.0849817, -0.0047770, -0.0439581, -0.0671483, -0.0026528, 0.0242613, 0.0007897, -0.0651011, 0.0459762, -0.0061861, -0.0547344, -0.1200532, 0.0290481, 0.0574839, -0.0181037, 0.0510325, 0.0024143, 0.0207714, -0.0003886, 0.1652862, -0.0555956, 0.0668481, 0.0027532, -0.0650724, -0.0179658, 0.0058759, 0.0279399, 0.1345892, -0.0007308, -0.0248961, -0.0024525, -0.0188806, -0.1263867, -0.0301451, 0.0024114, 0.0147880, 0.0531910, 0.0867789, -0.1042420, -0.0012917, -0.0046335, -0.0343528, -0.0036977, 0.0290230, -0.0163321, 0.0027949, 0.0282344, 0.0616661, 0.0515752, 0.0514223, -0.0076398, -0.0079879, 0.0043066, -0.0223107, 0.0046235, -0.0151664, -0.0643390, -0.0056416, -0.1218820, 0.0383079, 0.0023905, -0.0027690, -0.0884379, 0.1080643, 0.0051716, -0.0056582, 0.0036623, 0.0609937, -0.0936417, -0.0165150, -0.0436426, -0.0012819, 0.0164852, 0.0098699, 0.0003749, 0.0493327, -0.0047151, -0.0056888, -0.0026103, 0.0004825, -0.0118702, -0.0157723, -0.0287466, 0.0095545, -0.0921655, -0.0069004, 0.1001849, -0.0570679, -0.0022565, -0.0198195, -0.0014472, -0.0242193, 0.0505122, -0.0711107, 0.0800854, -0.1101170, 0.0747937, 0.0736531, 0.0349475, 0.1838869, -0.0018153, -0.0254562, -0.0019327, 0.0164584, -0.0125938, -0.0090937, -0.0590044, 0.0443410, -0.0928402, -0.0269385, -0.0483536, 0.0294001, -0.0031526, 0.0292514, -0.0014132, -0.0923292, -0.0353800, 0.0198488, 0.1135842, -0.0685832, -0.0761104, -0.0072297, 0.0732479, 0.0119837, -0.0008318, -0.0656808, 0.0040867, -0.0292179, 0.0052408, 0.0098966, -0.0482107, -0.0323571, 0.0092458, 0.0456374, -0.0081297, -0.0579757, 0.0035391, -0.0232545, 0.0015093, 0.0728392, 0.0810933, 0.0050692, 0.0608882, -0.0444065, 0.0195143, 0.0029717, 0.0153479, -0.0662713, -0.0020381, 0.0036129, -0.0018959, 0.0421229, -0.0319654, -0.0377480, 0.1106519, 0.1115180, 0.0431751, -0.0576862, -0.0185566, 0.0886576, -0.0043092, -0.0370954, -0.0029238, 0.0470818, -0.0701267, 0.0608893, 0.0513760, 0.0621738, 0.0299145, 0.1520849, -0.1787350, 0.0099633, 0.0014122, -0.0269175, -0.0025007, 0.0555434, -0.0773160, 0.0377766, 0.1041182, 0.0169238, -0.0327513, -0.0004151, 0.0047290, -0.0807735, -0.0004063, -0.1208221, 0.0008842, 0.0675009, -0.0910824, 0.0454077, 0.0592596, 0.1140738, 0.0124280, 0.0002629, -0.0328883, -0.0899471, 0.0015767, -0.0615837, -0.0001523, -0.0625611, 0.0155274, 0.0334249, 0.0814833, 0.0460793, -0.0053055, -0.0298315, 0.0372789, -0.0068625, -0.0022280, -0.0581440, -0.0018011, -0.0024586, -0.0035205, -0.0245430, 0.0141851, 0.0212842, 0.0091109, 0.0556187, -0.0147002, -0.0224562, -0.0033688, -0.0009840, -0.0000073, 0.0892054, -0.0715491, 0.0730220, -0.1515389, 0.0262467, 0.0192819, -0.0110321, 0.0247386, -0.0127034, -0.0032341, -0.0264715, -0.0022295, 0.0429117, -0.0527567, -0.0773779, 0.0173552, -0.0864281, 0.0629634, -0.0222364, 0.0620373, 0.0204920, 0.0027604, -0.0369946, -0.0001226, 0.1112354, -0.0603166, 0.0388089, -0.0706834, -0.0795593, -0.0076674, -0.0303306, 0.0448895, 0.0628584, -0.0034841, -0.0586196, -0.0014195, -0.0402518, -0.0434049, -0.0286753, 0.0611197, -0.0155120, 0.0863662, 0.0051972, -0.0373970, 0.1164550, -0.0008739, 0.0276033, -0.0009961, 0.1644729, 0.0004762, -0.0463290, 0.1180651, -0.0424065, 0.0012077, 0.0201054, 0.0311344, 0.0435387, 0.0003584, -0.0432999, 0.0011704, -0.0428395, -0.0220623, 0.0164995, 0.1063928, 0.0121138, 0.0307133, 0.0318041, -0.0277670, 0.0025515, -0.0027681, 0.0173170, -0.0014507, -0.0236279, 0.0343798, 0.0156284, 0.0045009, -0.0191956, -0.0913223, -0.0152294, 0.0198657, 0.1498149, -0.0016348, 0.0838490, -0.0003959, 0.0624662, 0.0176095, 0.0747013, 0.0156396, 0.0210289, -0.0063784, 0.0254105, 0.0273959, 0.0229357, -0.0028228, -0.0407993, -0.0048691, 0.0563760, -0.0609428, -0.0557903, 0.0317861, -0.1073704, -0.0217529, 0.0326969, 0.0436077, 0.0068776, 0.0028333, 0.0150052, 0.0015524, -0.0071755, -0.0717806, 0.0417992, 0.0513050, 0.0817829, 0.0641722, -0.0198830, -0.0387794, 0.0095188, 0.0018903, -0.0343438, 0.0052198, -0.0237059, 0.0366146, -0.0811750, -0.0811615, -0.0647136, -0.0422554, 0.0445924, 0.0097278, -0.0496651, -0.0037478, 0.0112430, -0.0084424, -0.0598501, -0.0105410, -0.0148447, -0.0286722, -0.0801235, -0.0243470, -0.0705935, -0.0487093, -0.0548952, 0.0022587, 0.0318001, -0.0028347, 0.0184749, -0.0264183, -0.1613578, -0.0182549, 0.0200550, -0.0570523, -0.0778353, 0.0475931, 0.1534973, -0.0042245, 0.0469542, -0.0056892, 0.0944973, -0.0408305, -0.0007318, 0.0730901, -0.0646179, 0.1126283, 0.0497474, -0.0187599, 0.0633073, 0.0016547, -0.0901215, 0.0027907, -0.0362764, 0.0963547, -0.0365017, -0.0312703, 0.0752276, -0.0290699, 0.0363963, 0.0270248, 0.0664122, -0.0010236, 0.0249005, 0.0008318, 0.0837749, 0.0506499, -0.0716482, -0.0405051, -0.0256427, 0.0296255, 0.1230529, -0.0160218, 0.0597916, -0.0003749, -0.0403949, 0.0028579, -0.0359039, 0.0799818, -0.1057153, 0.0039346, -0.1156251, 0.0386978, 0.0500929, -0.0444984, -0.0662859, 0.0028056, -0.0413580, 0.0005866, 0.1409257, -0.0339460, -0.1090744, 0.0519105, 0.0711597, -0.1696773, -0.0459566, -0.0718931, -0.0344712, 0.0051463, -0.0264403, -0.0012096, -0.0189673, 0.0337025, -0.0430610, -0.0555510, -0.0037566, -0.0374281, -0.0113057, -0.1219291, -0.0074584, 0.0005059, 0.0518850, 0.0021778, 0.1002486, -0.0015975, -0.0197445, 0.0297332, -0.1034261, -0.0442007, -0.0024800, 0.0682499, 0.0196809, -0.0019878, 0.0243122, -0.0007836, -0.0115398, 0.0549081, 0.0144650, 0.1101582, -0.0051663, -0.0697239, -0.0553397, 0.1193931, 0.0873970, 0.0016814, 0.0213781, 0.0006719, -0.0867026, -0.0054820, 0.0154303, -0.0593198, 0.0479177, -0.0133537, -0.0136880, -0.1036816, 0.1251484, -0.0018485, -0.0251244, -0.0022122, 0.1423982, 0.0287874, 0.0074879, -0.0240165, -0.0027422, 0.0549648, -0.0552568, -0.1528629, 0.0572420, 0.0026964, 0.0313919, 0.0044965, 0.1165076, 0.0555316, -0.0375332, -0.0856234, 0.0127623, 0.0099537, 0.0036290, -0.0245728, -0.0362172, -0.0025671, 0.0320636, 0.0001871, 0.0312291, 0.0445066, 0.0363134, -0.0344851, 0.1071473, 0.0044340, 0.0450171, 0.1289809, -0.0552030, -0.0000231, 0.0000838, 0.0019437, -0.0704934, 0.0381191, 0.0390638, -0.0724396, -0.0450452, -0.1150241, 0.0309809, 0.0267344, -0.0807480, -0.0004451, -0.0257458, -0.0040224, -0.0734792, -0.0102879, -0.0045720, 0.0741210, -0.0368838, 0.0249674, 0.0288556, 0.0151496, 0.0118827, 0.0039848, 0.0575579, 0.0017642, 0.0029574, -0.0507794, 0.0104483, -0.0259153, 0.0600064, 0.0715452, 0.0327070, 0.0445616, 0.0247301, 0.0050681, -0.0293913, 0.0026673, -0.0306260, -0.0347834, -0.0240142, -0.0719517, -0.1080181, -0.0687158, -0.0534095, -0.0039227, 0.1497061, 0.0002740, 0.0102271, 0.0012766, 0.0260699, 0.0160332, -0.0188515, -0.0326263, 0.0578478, -0.0953385, 0.0461178, -0.0444047, -0.0673726, -0.0033201, 0.0020180, 0.0008313, -0.0381643, -0.0051294, -0.0279644, -0.0831674, 0.0085900, -0.0583337, -0.0153716, 0.0428751, 0.0116890, 0.0013639, 0.0061522, 0.0062646, -0.0345472, -0.0446262, -0.0526420, 0.0618160, -0.0030869, 0.0683872, 0.0134194, 0.0367395, -0.0582236, -0.0061035, 0.0469277, -0.0035639, -0.0234865, -0.0902067, -0.0052598, 0.0393235, -0.0164955, 0.0986456, -0.1009892, 0.0205605, 0.0702605, 