0.1962802857160568, 0.2657256424427032, 0.1736764758825302, 0.0924427136778831, 0.1404764950275421, 0.2624216377735138, 0.0285354573279619, -0.0955479145050049, 0.2833066880702972, -0.2197500318288803, -0.3341997861862183, 0.0642385333776474, 0.3351577818393707, 0.0057739512994885, -0.1636813580989838, -0.0691444575786591, -0.9052712321281433, 0.5154798626899719, -0.1969033330678940, -0.0082474686205387, -0.1383996605873108, -1.6097180843353271, 0.0038944652769715, -0.2759787738323212, 0.2150603830814362, -0.1389084607362747, 0.0623834654688835, 0.1830927580595016, -0.1807730197906494, 0.2937582433223724, 0.1952129602432251, -0.1373472958803177, 0.4225689172744751, 0.0027763338293880, 0.0637732371687889, -0.2400283068418503, -0.3297156691551208, 0.2552213668823242, -0.2667515873908997, -0.1083014160394669, -0.1166809573769569, 0.2091560959815979, 0.4009532928466797, 0.0839761197566986, -0.2296463251113892, -0.0856805890798569, 0.2170622348785400, -0.2879910767078400, 0.0675137937068939, 0.0545820035040379, -0.2134347707033157, 0.0520102456212044, -0.0548507943749428, -0.0332004353404045, -0.4337889552116394, -0.3002829253673553, 0.0774688497185707, -0.0792661160230637, 0.1005818694829941, -0.3404450118541718, 0.3940792679786682, 0.0671340972185135, 0.1374537795782089, -0.1034246608614922, -0.0796766430139542, 0.1888355016708374, 0.7762935161590576, -0.3772258460521698, -0.1809138655662537, -0.2234269678592682, -0.2282608896493912, 0.0745087713003159, 0.1638940572738647, 0.3457169830799103, 0.0940921679139137, 0.0167399030178785, 0.1465890556573868, -0.1664925366640091, 0.0026493621990085, -0.0164094287902117, -0.0468340963125229, 1.1907728910446167, 0.1764711439609528, 0.1959585845470428, 0.0119406115263700, 0.0810737758874893, 0.2692496478557587, 0.1317282319068909, 0.1033541485667229, -1.2208638191223145, 0.4721893966197968, 0.0358871072530746, 0.0599815398454666, 0.1913766264915466, -0.1625597923994064, 0.1992870718240738, -0.0692615136504173, -0.5235036611557007, -0.3571623861789703, -0.2286287099123001, -0.3779903948307037, 0.0616760663688183, -0.0797094777226448, 0.4587119519710541, 0.0714795663952827, -0.0305959284305573, -0.1931110769510269, -0.1069928631186485, 0.3840340971946716, -0.2606486082077026, 0.1031632795929909, 0.2424163222312927, 0.0750180259346962, 0.3040964007377625, -0.4062505662441254, 1.0980466604232788, 0.2310064882040024, -0.1062636375427246, -0.1741598546504974, -0.1909131556749344, -0.1471455544233322, -0.5564085245132446, -0.0002470048493706, -0.0317336507141590, 0.0878336876630783, 0.2537904977798462, 0.0446920730173588, 0.2374210953712463, -0.1303328126668930, 0.5150462985038757, -0.3595725297927856, -0.1003259718418121, 0.0419630520045757, -0.1221738457679749, -0.0898815914988518, -0.1497713178396225, -0.1562445014715195, -0.2461663633584976, -0.0860871598124504, 0.0333758890628815, 0.0863174796104431, 0.2087398767471313, -0.8225228786468506, -0.0261186305433512, 0.1585410237312317, 0.1223111897706985, 0.9658757448196411, -0.0460871607065201, 0.3874613642692566, -0.1378331333398819, -0.0809735953807831, -0.4864912629127502, -0.1520299166440964, 0.1830893456935883, 0.0631597265601158, -0.2994514703750610, 0.1577290743589401, 0.0908540561795235, -0.5376292467117310, 0.3295167386531830, -0.1896338760852814, -0.1091553419828415, -0.1022869646549225, 0.1205931380391121, 0.0470475815236568, -0.0138261318206787, -0.1940659284591675, 0.1208345070481300, 0.1253782808780670, -0.0187013056129217, 0.6583714485168457, -0.2356447577476501, 0.0590903498232365, 0.2386792302131653, 0.1657856702804565, -0.0535482615232468, 0.1935749053955078, -0.3987048566341400, 0.1986371874809265, -0.2094549238681793, 0.1055218875408173, 0.0180482305586338, 0.2849456071853638, -0.0832979455590248, -0.0676606521010399, -0.1827338188886642, 0.3564665317535400, -0.1508904099464417, 1.3376314640045166, 0.0573901645839214, -0.6223766803741455, -0.0055179279297590