-0.21219398081302643, 0.34695932269096375, -0.00159185752272606, 0.02475799061357975, 0.19465349614620209, -0.29037237167358398, -0.30402830243110657, 0.12988072633743286, 0.43935719132423401, -0.39095720648765564, -0.19110998511314392, -0.03373156487941742, -0.14425410330295563, -0.07444130629301071, 0.15072967112064362, 0.08765609562397003, -0.28085735440254211, -0.28288626670837402, -0.14156050980091095, -0.06650125235319138, -0.11041193455457687, 0.93898648023605347, -0.04657977819442749, 0.11905863136053085, -0.07408415526151657, 0.13473041355609894, -0.24944740533828735, -0.28557687997817993, 0.12525929510593414, 0.30391010642051697, -0.13333943486213684, -0.13130179047584534, 0.31746053695678711, -0.13749502599239349, 0.13463661074638367, -0.09252643585205078, -0.07779377698898315, -0.04966033250093460, 0.09006649255752563, 0.08000881969928741, -0.03700795769691467, 0.27513980865478516, 0.13356710970401764, 0.17838332056999207, -0.19562636315822601, 0.09147104620933533, -0.10449859499931335, -0.11419652402400970, -0.03728326037526131, 0.02545036002993584, 0.36894917488098145, -0.31444102525711060, -0.01555285416543484, 0.00833413191139698, 0.03730004653334618, -0.17894493043422699, -0.25358206033706665, 0.13365648686885834, 0.05007229372859001, 0.03892691060900688, 0.26888671517372131, 0.41496026515960693, 0.09757928550243378, 0.09884737432003021, 0.04892270639538765, -0.09596801549196243, 0.16309139132499695, 0.27610898017883301, -0.53594118356704712, -0.05978820472955704, 0.01401364617049694, -0.04189193248748779, -0.22582927346229553, 0.29357662796974182, 0.28702887892723083, 0.11272523552179337, -0.31598970293998718, -0.41315516829490662, -0.09181686490774155, -0.25720348954200745, -0.24643960595130920, -0.18203161656856537, -0.13125135004520416, 0.10895086824893951, 0.28150352835655212, 0.17807504534721375, 0.04558421671390533, -0.05907542258501053, -0.36217501759529114, 0.21858000755310059, 0.17717601358890533, -0.03922154009342194, -0.24039454758167267, 0.22760367393493652, -0.19752545654773712, 0.00067278661299497, -0.19016797840595245, -0.19329249858856201, 0.09281872212886810, 0.08712244778871536, -0.36089456081390381, 0.15527707338333130, 0.09421173483133316, 0.00285996193997562, 0.19868451356887817, 0.07109704613685608, -0.27422645688056946, -0.31166961789131165, 0.15351195633411407, 0.20258885622024536, 0.17669978737831116, 0.06846571713685989, -0.02622243762016296, -0.01029612682759762, -0.08344502002000809, -0.25789093971252441, -0.11760269105434418, -0.08155290037393570, 0.00988873746246099, 0.04958972707390785, -0.42443433403968811, -0.21821421384811401, 0.17896707355976105, -0.01451222598552704, 0.03150171041488647, -0.14405681192874908, -0.19848182797431946, -0.09859517961740494, 0.45525547862052917, -0.07222790271043777, -0.14911858737468719, -0.12030608206987381, 0.18825264275074005, 0.02370519936084747, 0.19342528283596039, -0.26956671476364136, 0.16911767423152924, 0.34530782699584961, 0.02840021252632141, -0.09134985506534576, -0.00471314741298556, -0.25235065817832947, -0.19411440193653107, 0.12314240634441376, 0.32648018002510071, 0.23100702464580536, -0.12828336656093597, 0.48665696382522583, 0.25104889273643494, 0.12783287465572357, 0.14501038193702698, -0.16467297077178955, 0.07219795882701874, -0.06834714114665985, -0.11716973036527634, 0.06634716689586639, 0.24796073138713837, -0.03341213241219521, 0.02005703374743462, 0.18216209113597870, 0.27031666040420532, 0.25499185919761658, 0.00950642023235559, 0.18686789274215698, -0.00479609100148082, -0.01183147449046373, -0.24191702902317047, 0.18099036812782288, 0.01733744144439697, 0.08799403905868530, 0.13562275469303131, 0.10907460004091263, 0.09146809577941895, -0.20166832208633423, -0.21843589842319489, 0.16167227923870087, 0.11037688702344894, -0.43949496746063232, -0.01972821541130543, -0.14606119692325592, 0.02053506672382355, -0.00685544265434146, 0.05531518533825874, 0.04500217735767365, -0.27653020620346069, -0.07907870411872864, -0.10035900026559830, -0.29618752002716064, 0.04679948091506958, -0.00829101353883743, -0.31492960453033447, 0.01241034548729658