//Numpy array shape [192]
//Min -0.871868789196
//Max 0.321066468954
//Number of zeros 0

#ifndef OUT_PROJ_BIAS63_H_
#define OUT_PROJ_BIAS63_H_

#ifndef __SYNTHESIS__
layers_7_ffn_out_proj_bias_t out_proj_bias63[192];
#else
layers_7_ffn_out_proj_bias_t out_proj_bias63[192] = {0.07375676184892654, -0.13535152375698090, -0.08776807785034180, 0.12633788585662842, -0.06375375390052795, 0.04502742737531662, 0.04600464180111885, 0.14696638286113739, -0.22826115787029266, 0.11457719653844833, 0.10783585160970688, 0.13787427544593811, -0.06125270947813988, 0.11479661613702774, 0.11120384931564331, -0.07623980939388275, 0.26153230667114258, -0.03401371464133263, -0.03789465129375458, -0.05522073805332184, 0.14981214702129364, -0.87186878919601440, -0.04898624867200851, -0.03794826939702034, -0.00198270380496979, 0.01020250935107470, 0.01836948096752167, -0.00282824714668095, -0.17803521454334259, -0.04739820957183838, -0.09462945908308029, -0.01649827323853970, -0.07679591327905655, -0.09991189092397690, -0.01743728853762150, 0.01748204603791237, 0.25381916761398315, -0.00706838862970471, 0.00022672749764752, 0.02452373318374157, -0.04821839556097984, -0.01807592250406742, 0.02878667786717415, -0.00210967799648643, 0.12922953069210052, 0.09589806199073792, -0.15497425198554993, 0.15248626470565796, -0.05193569138646126, -0.00567418057471514, -0.14152228832244873, 0.23044471442699432, -0.03421988710761070, -0.03065811283886433, 0.11073707044124603, 0.03985096886754036, 0.06699684262275696, 0.07787171751260757, 0.09679111093282700, -0.07814311236143112, 0.05292920395731926, -0.21303847432136536, -0.17477986216545105, 0.13711728155612946, -0.01620738580822945, 0.13294185698032379, -0.12905265390872955, 0.08957515656948090, 0.31025716662406921, -0.06765297055244446, -0.01458008959889412, -0.01368398126214743, 0.10768165439367294, -0.20445352792739868, -0.18158131837844849, -0.08333335816860199, 0.16369597613811493, 0.08973332494497299, 0.15330155193805695, -0.02678437903523445, 0.19340343773365021, -0.04568410664796829, 0.01149154175072908, -0.12633894383907318, -0.19325603544712067, -0.03335473313927650, -0.01383585948497057, -0.00861904304474592, 0.14040917158126831, -0.00624259375035763, -0.13154965639114380, 0.09877153486013412, 0.09324564039707184, -0.15806584060192108, -0.00311036477796733, 0.02475902065634727, 0.12820079922676086, 0.19371297955513000, 0.06322378665208817, 0.19930914044380188, 0.22276042401790619, 0.06499870121479034, 0.11577122658491135, -0.07524352520704269, -0.15326002240180969, 0.02605190500617027, 0.19613654911518097, 0.22154960036277771, -0.18889413774013519, -0.08493895828723907, -0.11240635067224503, -0.12368572503328323, -0.09826025366783142, -0.25459182262420654, -0.00972178857773542, 0.15621566772460938, -0.00588483456522226, -0.09454332292079926, 0.10672377794981003, 0.12423730641603470, 0.18837806582450867, 0.16688919067382812, -0.14550620317459106, -0.02847277186810970, -0.00221459427848458, -0.07664334774017334, 0.00798694510012865, -0.02998213842511177, -0.12034271657466888, -0.09747248888015747, 0.13300795853137970, -0.11498323082923889, -0.08484420180320740, -0.13038490712642670, 0.09145682305097580, 0.09358921647071838, -0.08819608390331268, -0.20274819433689117, 0.00388696393929422, 0.16534639894962311, -0.00732708116993308, -0.00490999221801758, 0.19772931933403015, -0.11946868896484375, -0.18313756585121155, -0.09563145786523819, -0.25236925482749939, -0.14602880179882050, -0.18765348196029663, -0.14314575493335724, 0.07075005769729614, -0.00437506008893251, -0.00598724978044629, -0.06861714273691177, 0.04484580829739571, 0.15224805474281311, -0.25529235601425171, 0.11970802396535873, 0.09588442742824554, -0.07142191380262375, -0.26088044047355652, 0.03431828692555428, 0.07650943100452423, -0.08127847313880920, 0.15538974106311798, 0.25290539860725403, 0.20517794787883759, -0.19164755940437317, 0.14692077040672302, -0.07629822939634323, -0.13765694200992584, -0.08201836049556732, -0.06136781722307205, 0.09437329322099686, 0.05443335697054863, -0.15054351091384888, -0.14025183022022247, 0.25817686319351196, -0.17547148466110229, 0.19678297638893127, -0.13465850055217743, -0.17085897922515869, -0.02912323921918869, 0.07012602686882019, 0.31793171167373657, 0.20252569019794464, -0.01655325293540955, 0.03256750479340553, -0.36852100491523743, -0.05939149856567383, 0.32106646895408630, 0.15199081599712372};
#endif

#endif
