0.07716900855302811, -0.08137854933738708, -0.13670177757740021, 0.06609266996383667, -0.06111375615000725, 0.10336557030677795, 0.29645437002182007, 0.04524095728993416, -0.13310322165489197, 0.06654224544763565, 0.29708567261695862, 0.05656334385275841, 0.11624911427497864, 0.09877350181341171, 0.17675389349460602, -0.11591693013906479, 0.19876722991466522, 0.24643436074256897, 0.02401590161025524, -0.14445957541465759, 0.19465415179729462, -0.85605084896087646, -0.12562136352062225, -0.17345161736011505, 0.10305844992399216, 0.09875216335058212, 0.17020384967327118, 0.11279410123825073, 0.00372743885964155, -0.24063734710216522, -0.00633416837081313, -0.10623314231634140, -0.20550073683261871, -0.11976188421249390, -0.14518448710441589, 0.07042776048183441, 0.22333279252052307, 0.37082627415657043, -0.44936439394950867, -0.07390917837619781, -0.00962556619197130, -0.18315920233726501, 0.03420284017920494, 0.04324438050389290, 0.20628505945205688, -0.10098651051521301, -0.05366247519850731, 0.11925972253084183, 0.03749696165323257, 0.09315853565931320, -0.20778498053550720, 0.22599133849143982, -0.01622172631323338, -0.02108634449541569, -0.09577945619821548, 0.02449788898229599, 0.14744959771633148, 0.02864571288228035, -0.01994228549301624, -0.20537160336971283, 0.12506720423698425, -0.19138610363006592, -0.18494522571563721, -0.02136385440826416, -0.07983173429965973, 0.05161862075328827, -0.02063009329140186, -0.31862795352935791, 0.32853049039840698, -0.14432001113891602, -0.03699709102511406, 0.05819361284375191, 0.18038593232631683, -0.14819948375225067, -0.16271139681339264, -0.10502073913812637, 0.10799852758646011, 0.06832250952720642, 0.04878192394971848, 0.00782806798815727, 0.08573770523071289, -0.02484349533915520, -0.02034825272858143, 0.11339539289474487, -0.12334693968296051, -0.05526504293084145, -0.00407358212396502, -0.10415100306272507, 0.09766387939453125, 0.10130883008241653, -0.01539583690464497, 0.26015362143516541, -0.07969844341278076, -0.05330069363117218, -0.00048147595953196, 0.04108983650803566, 0.21932655572891235, 0.29171979427337646, -0.03559892624616623, 0.00200690957717597, 0.12936106324195862, 0.08113273978233337, 0.05367754399776459, -0.00279131252318621, -0.06869044899940491, -0.04862188175320625, 0.19097673892974854, 0.19266915321350098, 0.14184476435184479, -0.25934591889381409, -0.09497916698455811, -0.06295815855264664, -0.21524009108543396, -0.15071055293083191, 0.08600927889347076, 0.17594456672668457, -0.02397368475794792, -0.04123306274414062, -0.04217066243290901, 0.13278935849666595, 0.28424292802810669, 0.12196263670921326, 0.06311747431755066, 0.10609363764524460, -0.06685774773359299, -0.11490416526794434, 0.08094174414873123, -0.06916949898004532, -0.13762544095516205, -0.00120320555288345, 0.11334083974361420, -0.16174694895744324, -0.08889950811862946, 0.11492985486984253, -0.07913282513618469, 0.22924102842807770, -0.06992671638727188, -0.25002184510231018, -0.05287821590900421, 0.12559252977371216, -0.13520398736000061, 0.00091942335711792, 0.12444013357162476, 0.02461895346641541, 0.01804492063820362, 0.11276326328516006, -0.02679611183702946, -0.09346172213554382, -0.13290767371654510, -0.27261433005332947, -0.15499001741409302, -0.05385646969079971, 0.02832849696278572, 0.06127993017435074, 0.13967537879943848, -0.05672879517078400, -0.25676354765892029, 0.17716085910797119, -0.17213848233222961, -0.28154331445693970, -0.32539412379264832, -0.24064801633358002, -0.00202521053142846, -0.22619678080081940, 0.06726481765508652, 0.02667273581027985, -0.08175788819789886, -0.11671306192874908, -0.06985166668891907, 0.02616403065621853, -0.07522824406623840, -0.06741566210985184, -0.04115576669573784, 0.21963302791118622, 0.13340874016284943, -0.08130493015050888, -0.07169737666845322, 0.47054874897003174, -0.08966391533613205, 0.03209408372640610, -0.12738049030303955, -0.00654332386329770, 0.09381163865327835, 0.26130148768424988, 0.06841865181922913, 0.09657299518585205, 0.09475895762443542, 0.02138389088213444, -0.17619900405406952, -0.02488289773464203, 0.14212644100189209, -0.00768863828852773