-0.0885413959622383, -0.0854361280798912, -0.0959886908531189, 0.0023469228763133, -0.0900117903947830, 0.0227237213402987, 0.1322887539863586, -0.0014374366728589, -0.1434553563594818, 0.1232096478343010, -0.0318795405328274, 0.1029915809631348, -0.0529676005244255, -0.0305834710597992, 0.1755983382463455, 0.0870743617415428, 0.3221584558486938, -0.1353357732295990, -0.0245025306940079, -0.0476530343294144, -0.0231364592909813, -1.0609714984893799, 0.0494581535458565, 0.0298905652016401, -0.0456077829003334, 0.0303858593106270, -0.0213388521224260, -0.0756449177861214, -0.0900188013911247, 0.0802421495318413, -0.0931696966290474, -0.0275119729340076, -0.2246827036142349, -0.1772335618734360, 0.0274931490421295, 0.0913392156362534, 0.1670359671115875, -0.1071091890335083, 0.0740177109837532, 0.0379476733505726, 0.0476570129394531, 0.0584280490875244, -0.0492660664021969, -0.0137576162815094, 0.1394244432449341, 0.0053794877603650, -0.0930501669645309, 0.1596075743436813, -0.0065182344987988, 0.0969279557466507, -0.0485934615135193, 0.1406168788671494, -0.1040267869830132, -0.0634323582053185, 0.0896193161606789, 0.2473833560943604, -0.0320618599653244, 0.0540592297911644, 0.0901719257235527, -0.0305871535092592, -0.1075348332524300, 0.0108599001541734, -0.1957336515188217, 0.0858148485422134, -0.0176184382289648, 0.1234935969114304, -0.1904231011867523, 0.0277396235615015, 0.2852619886398315, -0.0780096575617790, -0.0327094756066799, -0.0900405943393707, 0.1130082681775093, -0.1353983134031296, -0.0933501720428467, 0.0966804027557373, -0.0606638193130493, 0.0648966580629349, 0.0274611320346594, 0.0321567878127098, 0.1466458588838577, -0.0446002036333084, -0.0594588443636894, -0.1272144019603729, 0.0183096453547478, -0.1009700447320938, -0.0737756341695786, -0.1145851314067841, 0.0156880859285593, 0.0771689936518669, -0.1668047010898590, -0.0744265764951706, 0.0406253896653652, -0.2041652202606201, 0.0349967516958714, 0.0431951396167278, 0.1981319338083267, 0.0858363509178162, 0.0142297865822911, 0.1895429044961929, 0.2301740646362305, 0.0257638953626156, 0.0288913901895285, 0.0125824501737952, -0.0615864247083664, 0.0263640135526657, -0.0147454459220171, 0.1532857120037079, -0.0980144739151001, -0.0046374597586691, -0.0243426561355591, -0.1424162238836288, 0.0005016985232942, -0.1908484548330307, 0.0660844966769218, 0.0624407120049000, -0.0444689393043518, -0.0049040932208300, 0.1083155572414398, 0.0372883602976799, 0.2233940809965134, 0.2054537981748581, -0.1010390222072601, -0.0107262348756194, 0.0433892682194710, -0.0660784840583801, -0.0028016299474984, -0.0780052244663239, -0.0575973652303219, -0.2135121524333954, 0.1962255835533142, -0.0738227441906929, 0.0306277777999640, -0.0023701800964773, 0.1271630376577377, -0.0259584020823240, -0.1975219994783401, 0.0590488314628601, 0.0293282195925713, 0.1459247618913651, -0.0725298449397087, 0.0057209325022995, 0.3750210106372833, -0.0678077712655067, -0.0723365619778633, 0.0297238603234291, -0.2885058224201202, -0.0810586437582970, -0.2568081915378571, 0.0703050792217255, 0.2117061316967010, 0.1218708083033562, -0.0869566500186920, -0.0581053569912910, 0.0733104497194290, 0.1634745299816132, -0.1896868795156479, 0.1620635986328125, 0.1963581740856171, -0.0184753853827715, 0.0451228842139244, -0.0702716708183289, -0.0339346826076508, -0.0904693603515625, 0.2057252526283264, 0.2360385060310364, 0.3069799840450287, -0.1430947333574295, -0.0332947298884392, -0.0103282025083899, -0.1182753071188927, -0.0731540396809578, -0.0808537080883980, -0.0119010061025620, -0.0267310198396444, -0.1113988384604454, -0.1943910866975784, 0.3477385938167572, -0.0421334542334080, -0.0216008871793747, -0.1118501201272011, -0.0747474879026413, 0.0000601321044087, 0.0994056388735771, 0.0592228248715401, 0.1704196929931641, -0.1518984138965607, 0.0165364909917116, -0.4619794487953186, 0.0054421969689429, 0.2437490224838257, 0.0449299402534962