-0.099459633231163, 0.340414762496948, 0.095708429813385, -0.132178321480751, -0.476640582084656, -0.402012705802917, -0.066216759383678, -0.049275670200586, -0.030957970768213, -0.030196320265532, -0.907850742340088, 0.057264644652605, 0.028140492737293, -0.213031634688377, 0.277175486087799, 0.015573824755847, 0.030298516154289, 0.041442140936852, -2.271898031234741, -0.139727890491486, 0.082871265709400, -0.081575043499470, 0.329736799001694, -0.565579235553741, 0.039680365473032, -0.049155715852976, 0.201538503170013, -0.669226467609406, 1.668503761291504, 0.056094609200954, -0.455555230379105, 0.071883022785187, -0.211325854063034, -0.048794519156218, 0.001303611439653, -0.024818873032928, 0.106186501681805, -0.078508727252483, -0.145953848958015, -0.435782015323639, 0.147609546780586, 0.174750402569771, 0.117651149630547, -0.028856975957751, -0.040766678750515, -0.092346899211407, -1.389678001403809, 0.143107205629349, 0.011743356473744, 0.258540004491806, 0.254713594913483, -0.016260312870145, -0.079790957272053, -0.076372995972633, 0.359398484230042, 0.002946815919131, 0.021686146035790, -0.092602416872978, 0.051302529871464, 0.267568916082382, -0.052233170717955, -0.020739244297147, 0.412165731191635, -0.072313405573368, -0.063662916421890, 0.017332857474685, 0.763357579708099, 0.296077460050583, -0.080208808183670, -0.031082980334759, 0.055242605507374, 0.081839382648468, -0.027975218370557, -0.187720164656639, 0.262520343065262, 0.081926070153713, 0.022356566041708, -0.014146436937153, -0.088168822228909, -0.077328234910965, 0.007397216744721, 0.151334077119827, -0.001786763081327, 1.488115787506104, -0.397889256477356, -0.311695724725723, 0.158336296677589, 0.024982539936900, -0.035714846104383, -0.085077159106731, -0.041121188551188, -0.152845665812492, -0.056078899651766, -0.291689932346344, 0.374610960483551, -0.299781173467636, 0.013925261795521, 0.032417163252831, -0.207597419619560, 0.098316967487335, -0.120991870760918, 0.022180492058396, 0.414981782436371, -0.313772916793823, 0.092883586883545, -0.047469668090343, -0.014574970118701, -0.125536769628525, 1.149725675582886, 1.370489239692688, 0.008838742040098, -0.226149991154671, -0.056411039084196, 0.129396691918373, 0.017374521121383, 0.013157180510461, -0.035876534879208, 0.071774452924728, 0.148639813065529, -0.018100006505847, -0.271007657051086, 0.230208829045296, 0.219776690006256, 0.098932139575481, 0.000954347138759, -0.034990459680557, -0.256897985935211, 0.010664435103536, 0.391434580087662, 0.418425947427750, -0.559173822402954, -0.255476087331772, -0.085339464247227, -0.003994534723461, 0.120820447802544, -0.293369203805923, -0.093529708683491, -0.016111522912979, -0.162997394800186, 0.315586328506470, -0.556149363517761, 0.021294645965099, -0.036716192960739, 0.024977469816804, 0.150967121124268, 0.007668425794691, -0.036600604653358, 0.040046006441116, 0.340290635824203, 0.145457431674004, -0.004801887553185, -0.006486659869552, 0.006549591198564, 0.076280497014523, 0.253806918859482, 0.165791824460030, 0.242971405386925, -0.303107112646103, -0.108624726533890, -0.102168664336205, 0.026748772710562, -0.002303207293153, 0.008559965528548, 0.013714796863496, 0.237924650311470, -0.065626002848148, 0.046642050147057, -0.154995813965797, 0.393522918224335, -0.095947049558163, -0.001507034525275, -0.149784520268440, 0.015670144930482, 0.153492107987404, -0.384640753269196, -0.280129998922348, -0.386159002780914, 0.015935558825731, 0.116754867136478, 0.009544090367854, -0.053546015173197, 0.064857810735703, -0.013216631487012, -0.430601924657822, 0.229781150817871, 0.116954050958157, -0.056374829262495, 0.032645195722580, -0.094335004687309, 0.134276151657104, 0.083200141787529, -0.065529279410839, -0.119508594274521, -0.235319554805756, 0.497325956821442, -0.088026262819767, -0.010503761470318, 0.110681682825089, -0.068483561277390, 0.118835404515266, -0.088492080569267, -0.022842062637210, -0.300595432519913, -0.439068645238876, -0.063188016414642, -0.067618899047375, -0.167262807488441, 2.189164638519287, 0.228720754384995, -0.138168737292290, -0.049992918968201, 0.542036294937134, -0.403843313455582, -0.042399361729622, 0.008301272056997, 0.025767521932721, 0.039080239832401, 0.270067691802979, -0.049147155135870, 0.064305268228054, -0.059798166155815, 0.436815947294235, -0.057411074638367, 0.026057507842779, 0.089655563235283, 0.010949173942208, 0.086782656610012, 0.124108701944351, 0.496866852045059, -0.262770682573318, -0.208549499511719, -0.151487022638321, -0.010100940242410, 0.014111516065896, -0.058777049183846, -0.049086645245552, 0.091130144894123, -0.328828036785126, 0.040149845182896, 0.177810668945312, -0.175472080707550, -0.027891110628843, -0.030280139297247, -0.490631222724915, -0.954760432243347, 0.087083511054516, -0.014589782804251, -0.079769514501095, 0.290817409753799, 0.093158513307571, -0.016747051849961, 0.028875473886728, -0.035470429807901, -0.188384562730789, -0.041101612150669, 0.111388497054577, -0.023362837731838, -0.139843314886093, -0.020587926730514, 0.030677443370223, -0.000241546062171, 0.086759328842163, 0.173539265990257, 0.106545418500900, -0.317403405904770, 0.207692757248878, -0.434364706277847, 0.088357664644718, -0.079306513071060, -0.062990650534630, 0.137357935309410, -0.117079362273216, -0.222448244690895, -0.546716034412384, -0.125654250383377, -0.009023839607835, 0.049706719815731, -0.005129186436534, 0.207063406705856, 0.016943335533142, 0.187388360500336, 0.186688065528870, -0.205396756529808, 0.279441714286804, 0.140601217746735, 0.108780182898045, 0.085948154330254, 0.018864467740059, 0.054249845445156, 1.012001276016235, -0.074181430041790, 0.090395532548428, -0.572375655174255, -0.229970812797546, -0.035127956420183, -0.096425250172615, -0.024239622056484, 0.125069677829742, 0.110976248979568, -0.196971148252487, -0.571954548358917, -0.562784135341644, 0.006837736815214, -0.045268654823303, -0.025223808363080, -0.032714977860451, 0.013887312263250, -0.182473197579384, -0.123598866164684, 0.398236602544785, 0.255454927682877, 0.671163380146027, -0.058731526136398, 0.024114439263940, -0.196514993906021, 0.235406428575516, -0.738302886486053, 0.186621427536011, 0.007302347570658, 0.020568523555994, 0.500563740730286, -0.042431820183992, 0.047923125326633, -0.021690174937248, -0.223859697580338, 0.106109790503979, -0.025765845552087, 0.167011231184006, -0.254023879766464, 0.231693804264069, 0.110510312020779, 0.002125794300810, -0.083976402878761, 0.064939372241497, 0.500077545642853, -0.070915684103966, -0.523243546485901, -0.342521518468857, 0.571734726428986, -0.079968750476837, -0.016643496230245, 0.005149055272341, -0.064106084406376, -0.053220786154270, 0.164166808128357, -0.058387957513332, -0.340982615947723, -0.095683820545673, -0.051240067929029, 0.037959791719913, 0.013093624264002, -0.311419278383255, 0.151541113853455, -0.389052599668503, 0.391988724470139, 0.409490495920181, 0.100427500903606, 0.016953060403466, -0.001236813608557, 0.097584106028080, 0.096741944551468, -0.867309510707855, -0.103880733251572, 0.503573119640350, -0.280294388532639, -0.154279306530952, 0.088478587567806, 0.035709194839001, 0.071823075413704, 0.052324950695038, -0.028903290629387, 1.014581322669983, 0.541529893875122, -0.235301390290260, -0.051972478628159, -0.004222372546792, -0.051614299416542, 0.110837079584599, -0.104396991431713, 0.121864348649979, -2.540700912475586, -0.405674189329147, -0.011303349398077, 0.298836886882782, -0.041015572845936, 0.037694700062275, -0.037803951650858, 0.094163887202740, 0.294924497604370, 0.052150148898363, -0.014759347774088, -0.101161085069180, 0.201707825064659, -0.014853167347610, 0.022661242634058, 0.016963915899396, -0.009814497083426, 0.356995135545731, -0.456151425838470, 0.061371453106403, 0.464143544435501, -0.167965546250343, 0.176440879702568, 0.110440455377102, 0.116163782775402, 0.080273680388927, -1.100577235221863, -0.111319601535797, -0.306929528713226, -0.356020838022232, -0.123777635395527, 0.014621552079916, 0.024629857391119, -0.211441114544868, 0.105704493820667, 0.111522369086742, -0.423077255487442, 0.595109343528748, 0.248676940798759, -0.110303647816181, 0.045222457498312, 0.054177779704332, -0.135527789592743, -0.793731987476349, 0.000253299862379, 1.598732709884644, -0.430145382881165, -0.296182543039322, -0.156443923711777, -0.018520373851061, -0.014264675788581, -0.055744186043739, -0.060486469417810, 0.059782963246107, -0.083492077887058, -0.606418490409851, -0.283981531858444, -0.516404747962952, -0.034796562045813, -0.028075147420168, 0.171277344226837, 0.171657055616379, 0.117106392979622, -0.020114280283451, 0.321890771389008, 0.341101825237274, -0.121644303202629, -0.083146102726460, 0.017464511096478, -0.012398633174598, -0.165731236338615, -0.380206644535065, -0.111146606504917, 0.211139544844627, -0.785784006118774, -0.214623942971230, -0.073664374649525, 0.057403072714806, -0.199055776000023, -0.103969745337963, 1.555071353912354, 0.067976444959641, 0.515634775161743, 0.096536047756672, -0.016354443505406, -0.062523148953915, -0.025275398045778, 0.042125690728426, -0.181943938136101, 0.084971107542515, -0.193665638566017, -0.109393894672394, -0.363670319318771, 0.157948911190033, -0.092717170715332, -0.041875384747982, 0.121030472218990, 0.303072363138199, -0.663606286048889, -0.305616408586502, -0.466020375490189, 0.009295409545302, -0.148455157876015, 0.111018173396587, -0.024643693119287, 0.016913823783398, 0.099306918680668, -0.026130519807339, -0.235746219754219, 0.041139055043459, 0.170617058873177, 0.731801092624664, -0.016566941514611, -0.010006110183895, 0.025373825803399, -0.098095335066319, 0.337272882461548, 0.149270400404930, -0.533213317394257, -0.136529564857483, 0.100792571902275, -0.043461628258228, -0.014091753400862, -0.146541431546211, -0.091404773294926, -0.152655571699142, 0.356120228767395, -0.325059354305267, -0.204102247953415, -0.148508340120316, 0.143429979681969, 0.038364071398973, 0.044186413288116, 0.081061244010925, 0.030137101188302, 0.043019484728575, -0.822108685970306, 0.672303199768066, 0.112507700920105, 0.033392641693354, 0.020633313804865, 0.118406817317009, -0.120998755097389, -0.121422849595547, 0.152999609708786, 0.171827182173729, -0.307113766670227, -0.244089961051941, -0.074669294059277, -0.021186865866184, 0.137289881706238, 0.010632121935487, -0.005209653638303, -0.161183923482895, -0.227004587650299, -0.574625968933105, -0.032981202006340, -0.018585622310638, 0.009154128842056, 0.098662331700325, 0.020958265289664, 0.130575582385063, -0.229242175817490, -0.450703829526901, -0.496270895004272, -0.242195561528206, 0.089979790151119, 0.003279674565420, -0.007302606012672, 0.025709846988320, -1.770282149314880, 0.037822134792805, -0.523418068885803, -0.167015671730042, 0.125516548752785, -0.011909965425730, 0.169774636626244, -0.020225025713444, -0.129684835672379, 1.401118993759155, 0.027781862765551, -0.055584151297808, 0.258857637643814, 0.331332176923752, 0.091823801398277, -0.005323505960405, -0.017442295327783, 0.067309685051441, 0.085563138127327, 0.034837335348129, -0.505085647106171, 0.054316543042660, 0.083729267120361, -0.093945130705833, -0.029298286885023, -0.024978660047054