-0.03007628396153450, -0.21216440200805664, -0.17836309969425201, 0.21194590628147125, 0.04618392139673233, 0.43636512756347656, 0.43187284469604492, -0.16363073885440826, -0.36994558572769165, 0.22299061715602875, -0.06995736062526703, -0.08870933949947357, 0.18898257613182068, 0.37671828269958496, 0.08972208946943283, -0.21104221045970917, 0.25385901331901550, 0.15018163621425629, -0.20904715359210968, -0.03588192909955978, 0.07423255592584610, 0.54610139131546021, 0.03230163827538490, -0.21406455338001251, -0.33126476407051086, -0.08811885863542557, -0.05954762548208237, 0.10268205404281616, 0.07804428040981293, 0.03838666900992393, 0.18460783362388611, 0.13241888582706451, -0.39355814456939697, -0.07143850624561310, 0.13032162189483643, -0.23584420979022980, 0.35597631335258484, 0.17668983340263367, -0.11312964558601379, -0.43769928812980652, 0.11058401316404343, 0.05882890522480011, -0.10804239660501480, 0.21355886757373810, -0.14193157851696014, -0.06927628070116043, -0.10073380917310715, -0.22013916075229645, 0.28513103723526001, 0.18288736045360565, -0.41475340723991394, 0.20538531243801117, 0.05532309040427208, -0.03544973209500313, 0.55908411741256714, -0.13758149743080139, 0.23803523182868958, -0.07387554645538330, -0.17315781116485596, -0.24634833633899689, -0.02130958810448647, -0.20725642144680023, -0.25079631805419922, -0.23792244493961334, 0.07182210683822632, -0.03130288049578667, -0.07314705103635788, -0.22611239552497864, 0.28500100970268250, -0.00161483034025878, -0.04436567053198814, 0.32181248068809509, 0.24092566967010498, -0.46155065298080444, 0.35690334439277649, -0.29868480563163757, 0.63894098997116089, 0.21976383030414581, 0.07697251439094543, 0.22956521809101105, 0.22965890169143677, -0.88792914152145386, -0.07336887717247009, 0.49051907658576965, -0.01789422146975994, -0.45158550143241882, 0.22750449180603027, 0.08873035758733749, -0.07521619647741318, 0.47563430666923523, -0.11333463340997696, -0.29881989955902100, -0.23051042854785919, 0.29259416460990906, 0.11945371329784393, -0.19887737929821014, 0.14239002764225006, 0.04697215184569359, 0.07419097423553467, 0.23444999754428864, 0.27781474590301514, -0.06157657876610756, 0.35843884944915771, -0.43320113420486450, -0.01614446938037872, 0.34563276171684265, -0.08120761066675186, 0.09478344768285751, -0.20840485394001007, 0.16007252037525177, -0.03705565631389618, -0.33228880167007446, -0.27636554837226868, 0.07936039566993713, -0.24175232648849487, -0.19571244716644287, 0.11904330551624298, -0.20979055762290955, -0.15829958021640778, 0.20888297259807587, 0.16512805223464966, -0.18453948199748993, -0.11935576051473618, -0.26106184720993042, -0.15994450449943542, -0.30409479141235352, -0.22025747597217560, 0.13251987099647522, -0.14964100718498230, -0.20280444622039795, 0.33348938822746277, -0.02439984120428562, -0.18885797262191772, 0.23154297471046448, 0.49986565113067627, -0.06228700652718544, -0.05528726428747177, -0.32521116733551025, -0.28232535719871521, 0.09842552244663239, 0.18284249305725098, 0.20337589085102081, 0.06539632380008698, -0.19253231585025787, -0.19415821135044098, 0.00774105871096253, 0.31362971663475037, -0.37027129530906677, 0.52145558595657349, -0.20272506773471832, -0.52814745903015137, 0.38410961627960205, 0.41811946034431458, 0.11414968222379684, 0.00457440270110965, 0.16522684693336487, -0.19610750675201416, -0.17229060828685760, -0.01324288547039032, 0.04200787842273712, -0.01197143271565437, -0.14917398989200592, 0.18972975015640259, 0.28091007471084595, -0.28069505095481873, 0.08117862045764923, -0.21550534665584564, 0.19251835346221924, -0.09065678715705872, -0.18569976091384888, 0.16509260237216949, 0.24941509962081909, -0.09260393679141998, 0.47500577569007874, 0.01356747467070818, -0.06297834962606430, -0.08302547037601471, -0.12184882909059525, 0.00466186413541436, 0.26192915439605713, -0.05486115440726280, 0.19717970490455627, 0.05401917919516563, 0.14280204474925995, -0.00549994129687548, -0.37519761919975281, 0.13460114598274231, -0.33434161543846130, -0.27658769488334656, 0.06838329136371613, 0.25703954696655273, -0.16020502150058746