-0.104861967265606, 0.092390745878220, 0.032528690993786, -0.358858585357666, -0.450638204813004, 0.911613821983337, 0.442243665456772, 0.670214772224426, 0.340341180562973, 0.936029553413391, -0.418343871831894, 0.307332545518875, 0.123257443308830, 0.439350843429565, -1.736216545104980, -0.065954096615314, 0.485803067684174, 0.577171325683594, 0.354637473821640, 0.169931665062904, 0.235312461853027, 3.082717418670654, -0.052485950291157, 0.177181512117386, -0.430735319852829, 0.104077905416489, -0.231573581695557, -0.014641418121755, 0.191054254770279, -0.021426370367408, 0.265253484249115, 0.183965966105461, -0.673095405101776, 0.097202986478806, 0.480063021183014, -0.349913030862808, -0.089886963367462, -0.353533655405045, 0.577129244804382, -0.093390434980392, -0.187261387705803, 0.086668945848942, 0.322774797677994, -0.206521943211555, 0.207833796739578, -0.033085603266954, 0.480803340673447, -0.438501536846161, -0.015068914741278, -0.215742051601410, -0.363179147243500, 0.223479717969894, -0.018463125452399, 0.026187369599938, 1.110105276107788, 0.170050799846649, 0.010612116195261, 0.017223440110683, -0.751882255077362, -0.488006830215454, 0.026202544569969, 0.052144113928080, 0.218483090400696, 0.195494875311852, -0.086224578320980, -0.300224035978317, -0.815709710121155, -0.543269991874695, 0.121206074953079, 0.234762385487556, -0.185181185603142, -0.458858519792557, 0.561912894248962, -0.786181807518005, 0.217318788170815, -0.156785547733307, 0.217462003231049, 0.452001303434372, 0.183348610997200, 0.327834397554398, 0.529916703701019, -1.957205533981323, 0.096239008009434, -0.029883937910199, -0.020300926640630, 0.035584717988968, 0.081918902695179, 0.203809946775436, -0.563378155231476, 0.795420944690704, -0.056216586381197, 0.081299722194672, -0.152151674032211, 0.121220186352730, -0.048676297068596, -0.641896903514862, 0.251747488975525, -0.390023678541183, 0.421857088804245, -0.227669551968575, 0.139893814921379, 0.426087170839310, -0.021316932514310, -0.923312366008759, -0.156634047627449, -0.328251689672470, 0.089107826352119, -0.492883831262589, -0.050573587417603, -0.570470869541168, -0.026739342138171, -0.069873273372650, 0.022981805726886, -0.132178664207458, 0.008880658075213, -0.480766952037811, 1.333008289337158, -0.497224926948547, -0.212956175208092, -0.496388673782349, 0.443857610225677, 0.010360854677856, 0.115667752921581, -0.204133048653603, -0.258700251579285, 0.056574407964945, 0.349900335073471, -0.064691752195358, 0.322364389896393, 0.147004842758179, 0.214907854795456, 0.167973861098289, -0.212844207882881, 0.393491297960281, 0.693978786468506, 0.349888592958450, -0.242102205753326, -0.272997349500656, -0.036934573203325, -0.168462783098221, -0.386341094970703, 0.523826360702515, 0.626672983169556, -0.781436622142792, 0.147739529609680, -0.403193712234497, -0.208134219050407, -0.652225673198700, 0.548540532588959, -0.071045123040676, -0.008314833045006, 0.659004449844360, -0.259510219097137, -0.318539798259735, -0.205042555928230, 0.258774280548096, 0.116932034492493, -0.212279409170151, 0.171055898070335, -0.044944260269403, -0.588300704956055, 0.273697972297668, 0.369112044572830, 0.640152752399445, 0.368201941251755, -0.828967809677124, -0.055157888680696, 0.089302621781826, -0.235500797629356, -0.212772458791733, 0.186203613877296, 0.058377038687468, -0.550068676471710, 0.925871193408966, -0.346600264310837, 0.212608426809311, 0.197421595454216, -0.098468557000160, -0.043839342892170, 0.125968545675278, -0.343481421470642, 0.260745644569397, -1.915596842765808, -0.199023127555847, -0.148155331611633, 0.116096749901772, 0.107688032090664, -0.455526620149612, -0.160056293010712, 0.494508266448975, -0.036366991698742, -0.693773686885834