0.182179778814316, -0.068090699613094, 0.293660491704941, 0.100334711372852, 0.374759703874588, -0.012217093259096, -0.324094414710999, -0.583302378654480, -0.350849211215973, 0.163033887743950, 0.132925003767014, 0.146893903613091, -0.062424995005131, -0.241618499159813, 1.211866974830627, 0.271196484565735, -0.314992815256119, -0.318009495735168, 0.354909062385559, 0.191939070820808, 0.028353668749332, -2.693157672882080, 0.055856902152300, -0.052490927278996, -0.304003387689590, -0.094013303518295, 0.320124328136444, -0.191882669925690, -0.114018760621548, 0.174680456519127, -0.142472296953201, -0.441153258085251, 0.123409166932106, 0.005167759023607, -0.272925049066544, 0.512619137763977, -0.109922677278519, 0.009665952064097, -1.020961999893188, 0.359401553869247, -0.032943215221167, -0.092882990837097, 0.004879875108600, -0.127942621707916, 0.364161193370819, 0.395998418331146, 0.009165092371404, 0.095065534114838, -0.015175634063780, 0.237626403570175, 0.619324862957001, -0.492928415536880, -0.026083491742611, 0.069283001124859, -0.914056360721588, -0.132416889071465, -0.121015347540379, 0.351836264133453, 0.254673033952713, 0.260625511407852, 0.057333797216415, 0.202195584774017, -0.047390241175890, 0.267231047153473, 0.059948291629553, -0.243484362959862, 0.483729600906372, 0.126077488064766, -0.217880278825760, -0.120687738060951, -0.155075639486313, -0.059384260326624, -0.248037472367287, 0.156443580985069, -0.085676260292530, 0.131663337349892, -0.556399583816528, -0.190829873085022, 0.007272036746144, -0.246055617928505, -0.565213382244110, 0.859210491180420, 0.094789907336235, -0.441977739334106, 0.203445479273796, 0.543566465377808, -0.143152102828026, 0.157431408762932, 0.132678776979446, 0.127332389354706, 0.090344138443470, -0.078187271952629, -0.358814984560013, 0.006090301088989, 0.002881013788283, 0.181669816374779, 0.018152998760343, 0.282015293836594, -0.071020960807800, 0.084138669073582, 0.118390224874020, 0.046809080988169, -0.175464764237404, 0.558129251003265, 0.013157296925783, -0.297992348670959, 0.156922683119774, 0.301077932119370, 0.042226515710354, -0.225570991635323, 0.062679581344128, 0.001166609115899, 0.237619906663895, -0.143525585532188, 0.232003301382065, 0.472153693437576, -0.873805880546570, 0.053768850862980, 0.006977872457355, -0.233413651585579, -0.267364501953125, 0.044432386755943, -0.142991632223129, 0.222798645496368, 0.311201006174088, 0.130399182438850, 0.080505967140198, -0.101411864161491, -0.049232229590416, 0.140519723296165, -0.160919979214668, -0.375305205583572, 0.162432849407196, -0.093529634177685, -0.331709146499634, -0.138578966259956, 0.245401993393898, 0.347841411828995, 0.066458612680435, -0.023385154083371, -0.038820147514343, -0.037462063133717, 0.068126000463963, 0.576010048389435, 0.062451828271151, 0.086860880255699, 0.141720861196518, 0.138690933585167, -0.466642409563065, 0.088866084814072, -0.068463847041130, -0.030929861590266, -0.003187089692801, 0.052825130522251, 0.191870048642159, -0.265226960182190, -0.108847744762897, 0.126343533396721, -0.197899594902992, 0.324292302131653, -0.012950027361512, -0.002502781571820, -0.034933261573315, -0.390482574701309, -0.166182711720467, 0.356107681989670, 0.261142253875732, -0.071214318275452, 0.053564682602882, 0.079168297350407, 0.024335280060768, 0.003000386757776, -0.065311685204506, 0.106993101537228, 0.121400751173496, 0.042432542890310, 0.568439722061157, 0.261958569288254, -0.158989444375038, -0.110808253288269, 0.126391693949699, 0.080314315855503, 1.114877581596375, -0.508967936038971, 0.009920903481543, -0.542125344276428, -0.251736998558044, 0.334941059350967, -0.154749527573586, -0.480985730886459, -0.050917111337185, 0.517598509788513