0.0251652374863625, -0.2665067613124847, -0.1850027441978455, 0.2180365025997162, 0.3460873961448669, 0.2702605426311493, 0.0812909081578255, -0.7326729297637939, -0.6510950922966003, 0.2068615704774857, 0.0924696698784828, 0.1694921851158142, 0.0614007003605366, 0.2993891537189484, 1.1047465801239014, -0.0278878193348646, 0.0974888280034065, -0.2491435855627060, -0.0869595706462860, -0.0175800677388906, 0.0506004951894283, -1.3813043832778931, 0.0705938637256622, -0.3707172274589539, -0.2826234400272369, 0.0651929005980492, 0.2639819979667664, -0.0244861226528883, -0.1150122806429863, 0.1178654283285141, 0.0280666742473841, -0.2817322611808777, -0.2882354259490967, -0.1822171658277512, -0.2183705568313599, 0.4335381090641022, 0.2250183820724487, 0.1832263916730881, -1.0185931921005249, -0.0085923252627254, 0.1228325515985489, -0.3034897446632385, -0.1469199508428574, 0.1556021571159363, 0.2115623056888580, 0.1967314034700394, -0.0828959345817566, -0.3218906521797180, 0.0542070604860783, 0.2101740986108780, 0.3513008058071136, 0.0476194471120834, 0.2206569164991379, -0.0313917435705662, -0.3125645518302917, -0.4633860290050507, -0.0257130730897188, 0.3605986833572388, 0.2999061346054077, 0.0823855474591255, 0.1623876094818115, -0.1567887365818024, -0.3258284032344818, 0.0219963174313307, 0.1818536520004272, -0.3274393677711487, 0.4346504211425781, -0.1282964050769806, 0.1045417338609695, -0.0448578000068665, -0.2728300988674164, 0.1206013485789299, -0.0975797101855278, -0.0853223875164986, 0.3389439880847931, -0.1584971696138382, 0.2168353646993637, 0.1931928396224976, 0.1516306400299072, 0.1812830418348312, -0.2865365743637085, 0.5316612124443054, -0.0720313712954521, -0.0125321988016367, 0.0935570746660233, 0.3669045269489288, -0.1114896908402443, 0.1927761435508728, 0.1645620763301849, 0.3019419908523560, -0.2100064754486084, -0.2059520930051804, -0.6354047060012817, 0.1313994675874710, 0.1059401482343674, 0.0853528082370758, 0.1491192728281021, 0.2496971487998962, -0.0021640358027071, 0.3543788194656372, 0.0503053925931454, -0.0350531935691833, 0.1078013628721237, 0.1656372249126434, 0.0364918559789658, 0.2194761186838150, 0.0770369246602058, 0.1592822372913361, -0.0864367559552193, 0.0348349027335644, 0.0032557055819780, -0.1508734524250031, -0.1062878444790840, -0.2157339602708817, -0.1096188202500343, 0.4974121153354645, -0.6164634227752686, -0.0482521653175354, -0.1231614425778389, -0.1199607849121094, 0.0358351953327656, -0.1312569528818130, -0.1674085110425949, -0.1980133503675461, -0.0798101946711540, -0.3588627576828003, -0.0163002088665962, -0.2133296132087708, -0.4236752390861511, -0.1434219628572464, 0.2505710124969482, -0.1776847988367081, 0.0437240153551102, 0.2972578108310699, -0.1777845323085785, -0.2089596241712570, 0.2627548873424530, -0.0528262555599213, -0.3023681044578552, -0.1637694835662842, 0.1516745090484619, 0.2227049618959427, 0.0318105071783066, 0.6315413117408752, -0.3491869270801544, 0.4198209345340729, 0.5122528076171875, -0.0662104859948158, 0.1375833898782730, -0.1897401213645935, -0.5283773541450500, 0.1255474239587784, 0.1475253105163574, 0.1920384764671326, 0.1472195237874985, 0.0869624689221382, -0.3882591128349304, -0.2470189481973648, -0.3885160982608795, 0.4184742569923401, -0.0278731882572174, -0.2803713381290436, 0.0746970623731613, -0.0505498498678207, -0.7065588831901550, 0.3369745314121246, 0.2889156341552734, 0.1920583099126816, -0.1192519441246986, -0.1295044869184494, 0.1084510013461113, 0.2495216280221939, -0.0350216142833233, 0.3949120640754700, 0.2065269351005554, -0.0839412733912468, 0.2634832262992859, 0.0864733457565308, -0.1254724115133286, 0.2593521773815155, 0.0840936005115509, 0.3362421393394470, 0.7248998284339905, -0.3247722983360291, -0.0844232067465782, -0.9378755688667297, -0.2561570703983307, -0.0579096078872681, -0.4702511727809906, -0.0630208030343056, 0.1892973333597183, 0.3027952909469604