0.169858559966087, -0.375968068838120, 0.428603827953339, 0.063363194465637, 0.069786213338375, 0.414073735475540, -0.523284912109375, -0.779201984405518, -0.279173433780670, 0.223852097988129, 0.325306802988052, -0.045433286577463, 0.192371889948845, -0.482950121164322, 1.366149783134460, 0.197443962097168, 0.146456807851791, -0.361156702041626, 0.129158571362495, 0.325120002031326, -0.642372608184814, -2.550261735916138, -0.051951739937067, 0.034782674163580, -0.346161663532257, -0.022334828972816, 0.182286158204079, -0.185187637805939, 0.030572533607483, 0.262437969446182, 0.311167508363724, -0.413762152194977, -0.370924264192581, -0.110568933188915, 0.160393759608269, 0.815253019332886, -0.022380579262972, 0.208114847540855, -0.813502311706543, 0.000458592898212, 0.059025902301073, -0.234490483999252, 0.101028166711330, -0.102877065539360, 0.357513338327408, 0.539434373378754, 0.034498024731874, 0.074326507747173, 0.422412931919098, 0.309835463762283, 0.793049037456512, -0.530091941356659, 0.188275441527367, -0.060683619230986, -0.566752552986145, -0.004613189026713, -0.239563614130020, 0.284647703170776, 0.092776514589787, 0.004536838270724, 0.391785502433777, 0.296725362539291, -0.226236358284950, 0.467444807291031, 0.172751933336258, -0.543662011623383, 0.154862523078918, 0.252797573804855, 0.122697092592716, -0.006066496949643, -0.493858367204666, 0.204824268817902, 0.062714941799641, -0.142800092697144, 0.286446750164032, -0.129564657807350, -0.194967910647392, 0.330916523933411, -0.080187797546387, 0.163691401481628, -0.528366446495056, 0.450690805912018, 0.121152214705944, -0.196452409029007, 0.259657293558121, 0.319393664598465, 0.100004807114601, -0.021749101579189, 0.328730225563049, 0.285898029804230, 0.181979477405548, -0.295205831527710, -0.560986816883087, -0.069878332316875, 0.018821159377694, 0.055801723152399, 0.239666596055031, 0.353692233562469, 0.323935240507126, 0.153837159276009, 0.115699939429760, 0.351755529642105, -0.290385365486145, 0.622109711170197, 0.067599222064018, 0.169180229306221, 0.115529991686344, 0.459395170211792, 0.271965354681015, -0.054324034601450, -0.092683009803295, -0.212995231151581, 0.331968754529953, -0.560348749160767, -0.096827752888203, -0.039245873689651, -0.789711892604828, 0.364393383264542, -0.109574735164642, -0.540418446063995, -0.471574217081070, 0.162865668535233, -0.117406331002712, -0.132779374718666, 0.104636780917645, 0.306995511054993, 0.409121096134186, -0.183464810252190, -0.127526193857193, 0.469163328409195, -0.232290491461754, 0.000483534822706, -0.160440191626549, -0.079171381890774, -0.403318673372269, -0.080533519387245, 0.186217710375786, 0.195265203714371, -0.261938482522964, -0.010066194459796, -0.126602560281754, -0.282969653606415, 0.157125771045685, 0.588836789131165, -0.088890179991722, 0.277694940567017, 0.296831339597702, -0.044444113969803, -0.066117063164711, -0.189970746636391, -0.148582816123962, 0.364193826913834, 0.137727111577988, 0.293903976678848, 0.261128038167953, -0.018804743885994, -0.092094860970974, 0.122037708759308, -0.135274514555931, 0.194925963878632, -0.243864670395851, -0.223813176155090, 0.135306313633919, -0.254586398601532, -0.595691382884979, 0.213284954428673, -0.220686212182045, 0.184901967644691, -0.556757271289825, -0.004031662363559, 0.240937903523445, 0.333741128444672, -0.282227098941803, 0.391911506652832, 0.285897850990295, -0.473602652549744, -0.077386945486069, 0.236548036336899, -0.091815240681171, 0.027742987498641, -0.026048181578517, -0.004452056251466, 1.120461821556091, -0.414572000503540, 0.287895292043686, -0.593423008918762, -0.163337007164955, -0.080220006406307, -0.451603502035141, -0.321277558803558, 0.064579926431179, 0.121453590691090