//Numpy array shape [768]
//Min -1.325398445129
//Max 0.474916875362
//Number of zeros 0

#ifndef IN_PROJ_BIAS75_H_
#define IN_PROJ_BIAS75_H_

#ifndef __SYNTHESIS__
layers_9_ffn_in_proj_bias_t in_proj_bias75[768];
#else
layers_9_ffn_in_proj_bias_t in_proj_bias75[768] = {0.0538736283779144, -0.8901339173316956, -0.6646957993507385, -0.8275743722915649, -0.4750550687313080, -0.7552146315574646, -0.5627949237823486, -0.5379813313484192, -1.0530096292495728, 0.0618903413414955, 0.0620327852666378, 0.0429272130131721, -0.8302498459815979, -0.8721885085105896, -0.8201970458030701, -0.7866855263710022, -0.6677948236465454, -0.6284375786781311, 0.0620221234858036, 0.0387240648269653, -0.6595744490623474, -0.6512616872787476, 0.0111960750073195, -0.7192431092262268, -0.5785141587257385, -0.6498563289642334, 0.0312732495367527, -0.8111177682876587, -0.6681688427925110, -0.4915077686309814, -0.8707528710365295, -0.7884539961814880, -0.8103134036064148, -0.6264125704765320, 0.0444863773882389, -0.6949957013130188, -0.6364815235137939, -0.7081359028816223, -1.0174072980880737, -0.6453426480293274, -0.8186780214309692, -0.6303962469100952, -0.7700803875923157, -0.7344732880592346, 0.0883892253041267, -0.6010652780532837, 0.0480298176407814, -0.8366671800613403, 0.0162066407501698, -0.7538783550262451, 0.0205820407718420, -0.7133439779281616, -0.7397261857986450, -0.8030475974082947, -1.0335117578506470, 0.0559786930680275, -0.5953093171119690, -0.3891260623931885, -0.4812244474887848, -0.6592041254043579, -0.5759129524230957, -0.6665390133857727, 0.0553946979343891, -0.7383562326431274, -0.5783352255821228, -0.9574794173240662, -0.7733393907546997, -0.8053683042526245, 0.0354084894061089, 0.0832814872264862, -0.6830809712409973, -0.7568725943565369, 0.0481906831264496, -0.8444843888282776, 0.0814693719148636, -0.6226558089256287, 0.0509136654436588, -0.8383323550224304, -0.8693882822990417, 0.0663549080491066, -0.9452787637710571, -0.6664888858795166, -0.5416303873062134, -0.7150905132293701, -0.5068898200988770, -0.6919644474983215, -1.2422121763229370, -0.8118751049041748, -0.7359015941619873, -0.9190399646759033, -0.8691641092300415, 0.0411608368158340, -0.9840583801269531, 0.0624447092413902, -0.6232597231864929, -0.3803460896015167, -0.5067346096038818, -0.5864283442497253, -0.6979008913040161, -0.8073617219924927, -0.7330638170242310, -0.8854466080665588, -0.5634065866470337, -0.8651171922683716, -0.7055648565292358, 0.0395787768065929, -0.8055993318557739, -0.7025644183158875, -0.4329358637332916, 0.0793201327323914, -0.6316651105880737, -0.7135998606681824, -0.2739985883235931, -0.9222672581672668, -0.8554905056953430, -0.7326964735984802, 0.0306939110159874, -0.7512462139129639, 0.0635180771350861, -0.8214027285575867, 0.0887641534209251, -0.5422279238700867, -0.7279117107391357, -0.6200119853019714, 0.0398124605417252, 0.0332997515797615, 0.0726504325866699, 0.0675013959407806, -0.7381886243820190, -0.5501060485839844, -0.5667519569396973, -0.9562537074089050, -0.8125377297401428, -0.6913927197456360, -0.5832936167716980, -0.6121838688850403, 0.0281643960624933, 0.0291828606277704, 0.0326137170195580, -0.5406190752983093, -1.3253984451293945, -0.5577055811882019, -0.6947600245475769, -0.8749105334281921, -0.5680752992630005, -0.9216773509979248, -0.5304278731346130, -0.6845064163208008, -0.8717960119247437, 0.0404216088354588, -0.9164774417877197, 0.0544487088918686, -0.5948708057403564, -0.9273396134376526, -0.8056754469871521, -1.0640437602996826, -0.5071446895599365, -0.3863860070705414, 0.0925922915339470, -0.8469018340110779, 0.0544914714992046, -0.7081115841865540, -0.7068280577659607, -0.8805395960807800, 0.0703240856528282, 0.2161765396595001, 0.0572495274245739, -0.7518640160560608, -0.8209399580955505, -0.5933008193969727, 0.1002928018569946, -0.8188588023185730, 0.0640902295708656, -0.5644466876983643, 0.0615125894546509, -0.7580504417419434, -0.8110031485557556, -0.6910929679870605, -0.7659576535224915, -0.6714710593223572, -1.0298365354537964, -0.7012183070182800, -0.5715269446372986, 0.0208458695560694, 0.0250670257955790, 0.0544003956019878, -0.6326403021812439, 0.0467049255967140, -0.2559910714626312, -0.6429899334907532, -0.7406537532806396, 0.0572914555668831, -0.8109943866729736, -0.6928427219390869, -0.8114242553710938, -0.8283847570419312, -0.7347466945648193, -0.6264637708663940, -0.8940118551254272, -0.7615817785263062, -0.8765080571174622, -0.8698175549507141, 0.0771888270974159, 0.0920382887125015, -0.8536893129348755, -0.9163880348205566, 0.0639037340879440, -0.8764536976814270, -0.8993172645568848, -0.6616799831390381, -1.0493855476379395, 0.0056971190497279, -0.8333603143692017, -0.7953128218650818, 0.0734835937619209, -0.6306136250495911, -0.0049502057954669, -0.6629552841186523, -0.9719070792198181, -0.7560852169990540, -0.4016327857971191, -0.7264264822006226, 0.0463776588439941, -0.7031361460685730, -0.4713310897350311, -0.6408014297485352, -0.5331451296806335, 0.0416289977729321, -0.6720711588859558, -0.8023590445518494, 0.0732019916176796, -0.7029398083686829, -0.7325539588928223, -0.7130908966064453, 0.0564333051443100, -0.6937950849533081, 0.0703901350498199, 0.0637581348419189, -0.7154703140258789, 0.0544300265610218, -0.6155925393104553, -1.0579676628112793, -0.7811393737792969, 0.0626071840524673, -1.1091498136520386, -0.4605443477630615, 0.0428995490074158, -0.4820962846279144, -0.8587551116943359, -0.9621918797492981, -0.7790887355804443, 0.0884440466761589, 0.0051646595820785, -0.8999829888343811, 0.0287776384502649, -0.8994473218917847, 0.0772356316447258, -0.7650222182273865, -0.6499089002609253, 0.0520742423832417, -0.8973502516746521, -0.8505455851554871, -0.8210267424583435, -0.5741611123085022, -0.7187485098838806, -0.6721893548965454, 0.0302477460354567, -1.0263651609420776, -0.6634438633918762, -0.8017032742500305, -0.6316433548927307, -0.7249240279197693, -0.5454140305519104, -0.6745902895927429, 0.0363510139286518, -0.8912257552146912, -0.0051263440400362, -0.8465259671211243, -0.5373271107673645, 0.0665489286184311, 0.0643026307225227, -0.7209414839744568, -0.8208450675010681, -0.7552391886711121, -0.9729228019714355, -0.7617666721343994, -1.0156494379043579, -0.5983083844184875, 0.0482699349522591, -0.7477228045463562, -0.6517329216003418, -0.9103234410285950, 0.0089852064847946, -0.7009724974632263, -0.9928913116455078, -0.8772445917129517, 0.0647231936454773, -0.3056705594062805, -0.9464634060859680, -0.4815592765808105, -0.5941470265388489, 0.0584045909345150, -0.9014736413955688, -0.6757257580757141, -0.7179876565933228, -1.0342440605163574, -0.6241140365600586, -0.7861157655715942, -0.7204365730285645, 0.0362474434077740, 0.0507504455745220, -0.7602756023406982, -0.7299124598503113, -0.3191273808479309, -0.6659939289093018, 0.0298923384398222, -0.8400506377220154, 0.0737718269228935, -0.8471097350120544, 0.0408432073891163, 0.0465263649821281, -0.6070840954780579, -0.9909579753875732, -0.9585517644882202, -0.5314960479736328, -0.7889955043792725, -0.9808202385902405, -0.8172075152397156, -0.8386855125427246, -0.5459942817687988, 0.0328838750720024, -0.6007286906242371, -0.9423855543136597, 0.0788838565349579, -0.6425995826721191, -0.9794879555702209, -0.8972215056419373, -0.5495918989181519, 0.0059464457444847, -0.5468598604202271, -0.7863813042640686, -0.4812881350517273, 0.0294895581901073, 0.0865436121821404, -0.7879283428192139, -0.9191185235977173, -0.7240718007087708, 0.0583085156977177, 0.0266139991581440, -0.7864823937416077, 0.0450999550521374, 0.0618763156235218, -0.7920456528663635, -0.7007040381431580, -0.9315954446792603, -0.6360908746719360, -0.4916605055332184, 0.0409766808152199, -0.9285646080970764, -0.8001764416694641, -0.6015408635139465, -0.5481883883476257, -0.6491392850875854, -0.7657176256179810, -0.5993134975433350, -0.5774390697479248, -0.6440283060073853, -0.5468797683715820, -0.7151728272438049, -0.7216994166374207, -0.5013784766197205, 0.0520763620734215, -0.6268393397331238, -0.5436195731163025, -0.8810326457023621, 0.0550069734454155, -0.7169091701507568, -0.6585206985473633, -0.4860438704490662, -0.7854487895965576, -0.7262962460517883, -0.5746829509735107, -0.6644247174263000, -0.4682079255580902, 0.0518350526690483, -0.8722033500671387, -0.7846410274505615, 0.0333435386419296, -0.8531027436256409, -0.4490030109882355, 0.0607644729316235, -0.7999136447906494, -0.5355584621429443, 0.0500590614974499, -0.7212561368942261, -0.9691311717033386, 0.0345893874764442, 0.0628587976098061, 0.0601755455136299, 0.0671211406588554, -0.6046929359436035, -0.5326770544052124, -0.5192862749099731, -0.5284073352813721, -0.8774441480636597, -0.9634847640991211, -0.9167670607566833, -0.6265825033187866, -0.7883002758026123, 0.0314386002719402, -0.5389797091484070, -0.9820392727851868, 0.0670746043324471, -0.5572388172149658, -0.2348817586898804, 0.0784031376242638, -0.7929739952087402, -0.7324681878089905, -0.7956382036209106, -0.5969545245170593, -0.7543953657150269, 0.0604138486087322, 0.0082916272804141, 0.0605435706675053, -0.7491558790206909, 0.0271222162991762, -0.8342227339744568, 0.0475331470370293, -0.9491239190101624, -0.4940569102764130, -0.7315908074378967, 0.0596443749964237, -0.6289961934089661, -0.4742839038372040, -0.5673236250877380, -0.5453337430953979, 0.0546843484044075, 0.0617799125611782, -0.7478687763214111, -1.0120930671691895, -0.7297036051750183, -0.7110610604286194, 0.0727918222546577, 0.0104919197037816, -0.3277682960033417, -0.4247317314147949, 0.0766671299934387, -0.7780048251152039, 0.0590727217495441, -0.5476847290992737, 0.0501452572643757, -1.0747722387313843, -0.7041065692901611, -0.7129496335983276, -0.7141149640083313, 0.0131845502182841, -1.0288302898406982, 0.0079494444653392, -0.6298304796218872, -0.7998214364051819, -1.0850274562835693, -0.4753982424736023, 0.0832119956612587, -0.6792245507240295, -1.1011940240859985, 0.0528438054025173, -0.7806453108787537, -0.6535297632217407, -0.7556401491165161, -0.9633333086967468, -0.5343626141548157, -0.8313462138175964, -0.6049488186836243, -0.8311367034912109, -0.3546977043151855, -0.9254302382469177, 0.0098182987421751, 0.0513158589601517, 0.0225682444870472, -0.6835321784019470, -0.8046709299087524, 0.0124006709083915, 0.0543484762310982, -0.6140714883804321, -0.9808349609375000, -0.3863981962203979, 0.0753188803792000, 0.0355480015277863, -1.1219868659973145, -0.7201435565948486, -0.8700276017189026, -0.7385694384574890, -0.5585051178932190, -0.8048570156097412, 0.4749168753623962, 0.0505219101905823, -0.8829922676086426, 0.0859280973672867, -0.8073999285697937, -0.6952844858169556, -0.7822555899620056, -1.0435670614242554, 0.0259193610399961, 0.0565621666610241, -0.3638942837715149, -0.4727287888526917, -0.7796928286552429, 0.0761099606752396, -0.4164744913578033, -0.3719247877597809, -0.9185932874679565, -1.1145671606063843, -0.7068946361541748, 0.0554828085005283, 0.0336683765053749, -0.5443095564842224, -1.0902091264724731, -0.4906283318996429, -0.6871519088745117, -0.6649478077888489, -0.7891386151313782, 0.0490687526762486, 0.0253269039094448, 0.0445073023438454, 0.0485972166061401, -0.7722123265266418, 0.0731372907757759, -0.4842516481876373, 0.0259515065699816, -0.5240556001663208, -0.8040388822555542, -0.8242663145065308, -1.0557770729064941, -0.7611545920372009, -0.8158835768699646, 0.0626114383339882, 0.0650517269968987, -0.6482721567153931, -0.8311126232147217, -0.7193426489830017, 0.0340402536094189, 0.0521433763206005, -0.5080739855766296, -0.9901566505432129, -0.5940608978271484, -0.8662607669830322, -0.4423853456974030, -0.6845273971557617, 0.0683232173323631, -0.9777034521102905, -0.5546879768371582, -0.6366040706634521, 0.0260765533894300, -0.6342778205871582, 0.0698585659265518, 0.0407098419964314, -0.4476412236690521, -0.4600637853145599, -0.5947765707969666, -0.5602049231529236, -0.8472216129302979, 0.0174554176628590, -0.9591447114944458, -1.0283719301223755, -0.5432862639427185, -0.8314538598060608, -0.5485553741455078, 0.0435306243598461, -0.6761724948883057, 0.0261755418032408, 0.0345211587846279, -0.8845213055610657, -0.8164702057838440, -0.5953812599182129, -0.4007039964199066, -0.9198716282844543, 0.0232166256755590, -0.3814052045345306, 0.0550127439200878, -0.7887451648712158, 0.0567965619266033, 0.0256352983415127, -0.9638437628746033, -0.6414054632186890, 0.0403405278921127, -0.7694189548492432, -0.6303663849830627, -0.8171686530113220, 0.0438885688781738, -0.7033270597457886, -0.6846935153007507, -0.8763782978057861, -0.8397943377494812, 0.0595036223530769, -0.7972640395164490, -0.7622920274734497, 0.0719691440463066, -0.7968042492866516, -0.7128130197525024, -0.5616405606269836, -0.8527505397796631, 0.0458084791898727, -0.8832052350044250, -0.9503816366195679, -0.8719409108161926, -0.5463313460350037, 0.0663267523050308, -0.7347123622894287, -0.4761724472045898, 0.0035905379336327, 0.0607441850006580, -0.5970675945281982, -0.8228750824928284, -0.5090227723121643, -0.7284651994705200, 0.0398477464914322, 0.0899722129106522, -0.7762830257415771, -0.5580517053604126, 0.0943532809615135, -0.7339090108871460, -0.8800876736640930, -0.8008790016174316, -0.7574020624160767, -0.6722105741500854, -0.5338966250419617, 0.2980531454086304, -0.7976003885269165, 0.0595250651240349, -0.2805669903755188, -0.7444753050804138, 0.0492355227470398, -1.0894434452056885, -0.7608063817024231, -0.6845311522483826, -0.9311686158180237, -0.8188502788543701, -0.8039485216140747, 0.0682470649480820, -0.3883613646030426, 0.3463469743728638, 0.0639986172318459, -0.5475816130638123, 0.0178299043327570, -0.6126008033752441, -0.6005007624626160, -0.4870096743106842, -0.6282593011856079, -0.9445213675498962, -1.0905905961990356, 0.0602738708257675, -0.6664661169052124, -0.5767332315444946, -0.5807817578315735, -0.7457486391067505, -0.6493420004844666, -0.2742244601249695, 0.0594694688916206, -0.9219900965690613, -0.5905896425247192, -0.6264226436614990, -0.5267029404640198, -0.5744855403900146, -0.6777274012565613, -0.7828447818756104, -0.6514933705329895, 0.0628525763750076, -0.3717222213745117, 0.0187964159995317, -0.6931060552597046, -0.4876887500286102, -0.7219000458717346, -0.6479651331901550, -1.0289149284362793, -0.7527701854705811, -0.8363959789276123, -0.6096730828285217, -0.9469193220138550, -0.8619373440742493, 0.0459028966724873, -0.6646789312362671, -0.7074828743934631, -0.4619270265102386, -0.5150102376937866, -0.7269068360328674, -0.6239019632339478, 0.0230383649468422, 0.0820169076323509, 0.0461804345250130, 0.0527784116566181, -0.6169639825820923, -0.7302719354629517, -0.5206017494201660, -0.8221089839935303, -0.7209154367446899, -0.8948532342910767, -0.7784459590911865, -0.3838492631912231, 0.0480532571673393, -0.6106081008911133, -0.3998619616031647, -0.7921835184097290, -0.6438022851943970, 0.0591453760862350, -0.7430503964424133, -0.9764927625656128, -0.9298491477966309, -0.7966555356979370, -0.5905819535255432, -0.4302971959114075, -0.7392038702964783, -0.5577393174171448, -0.8793974518775940, -0.8333134055137634, -0.6756171584129333, -0.8521634340286255, 0.0706660449504852, 0.0584024488925934, -0.8390936851501465, -0.8716647028923035, 0.0605272874236107, -0.6510019898414612, -0.5717860460281372, -0.8918653130531311, -0.5743371248245239, -0.6304686665534973, -0.7682684659957886, -0.5405369400978088, -0.7834312915802002, -0.6115605831146240, -0.6116758584976196, 0.0495661534368992, -0.6816740632057190, -0.8365334868431091, 0.0706869959831238, -0.4935457706451416, -0.7928181290626526, -0.6280113458633423, -0.8049963116645813, -0.6277068853378296, -0.6533760428428650, -0.7655507922172546, -0.7149132490158081, -0.4907010495662689, -0.6990318298339844, 0.0606514103710651, -0.8399733304977417, -0.6829573512077332, -0.7534092068672180, -0.4680876731872559, 0.0173039715737104, -0.8804465532302856, -0.8695458173751831, -0.8175392746925354, -0.6640231609344482, -0.7723456025123596, -0.7859631776809692, -0.6885429024696350, -0.6299225091934204, -0.4708329737186432, -0.6260458827018738, -0.8789575695991516, -0.7239778041839600, -0.5560466051101685, -0.8230544924736023, 0.0648283436894417, 0.0375817343592644, -0.8314877152442932};
#endif

#endif
