0.09303173422813416, -0.23088352382183075, -0.07960962504148483, -0.21157185733318329, -0.10038767755031586, -0.22723507881164551, -0.04816939309239388, 0.00195775460451841, 0.03241799771785736, 0.09407098591327667, 0.28989878296852112, -0.10471167415380478, -0.00787066761404276, -0.06077089905738831, -0.08231647312641144, 0.12015864253044128, 0.22532708942890167, 0.04800873249769211, 0.00073147594230250, 0.06659829616546631, 0.08405297994613647, 0.60452657938003540, 0.22983354330062866, 0.08836688846349716, 0.28021043539047241, 0.22267651557922363, -0.19543722271919250, -0.06352221965789795, 0.23517671227455139, -0.13629788160324097, -0.06553827971220016, 0.15430606901645660, 0.05476526543498039, 0.00682026240974665, -0.04432711750268936, -0.18015503883361816, -0.23032590746879578, -0.03089027665555477, -0.00744179543107748, -0.08985164016485214, -0.09698326885700226, 0.27217280864715576, -0.35737809538841248, 0.02584313042461872, -0.03460321575403214, -0.10885992646217346, 0.10441090911626816, 0.07099997252225876, -0.00889087095856667, -0.16996188461780548, 0.11931248009204865, 0.01717220991849899, 0.17225660383701324, -0.04616362601518631, -0.09465610980987549, 0.05435419082641602, -0.04469795897603035, -0.09641673415899277, -0.23323956131935120, 0.01140799000859261, -0.04245508834719658, 0.09087048470973969, 0.09524324536323547, -0.14216104149818420, 0.05847350135445595, -0.04302202537655830, 0.01664906740188599, 0.26600921154022217, -0.42568626999855042, 0.26613384485244751, -0.00319189927540720, -0.10203018784523010, -0.19107335805892944, 0.11055811494588852, 0.09393088519573212, -0.02145291864871979, -0.13176816701889038, 0.02466214634478092, -0.16478383541107178, 0.14686532318592072, -0.19339750707149506, -0.09046828746795654, 0.14172264933586121, 0.15399594604969025, -0.20990155637264252, 0.09975276887416840, 0.14470984041690826, 0.22057382762432098, 0.01288284361362457, 0.17439220845699310, -0.11304343491792679, -0.10665521770715714, 0.10900609940290451, 0.26437628269195557, 0.11539105325937271, -0.04139621183276176, -0.23321022093296051, 0.06848388165235519, 0.10628325492143631, -0.20366877317428589, -0.13710655272006989, -0.14611968398094177, 0.01425597909837961, -0.08891145139932632, 0.14597640931606293, -0.25436371564865112, -0.01560910884290934, -0.18739116191864014, 0.12951889634132385, 0.00789500307291746, -0.17989945411682129, -0.08604418486356735, 0.06284631788730621, -0.07628645002841949, 0.17352657020092010, -0.04928488656878471, -0.19853885471820831, 0.49565067887306213, -0.00943641643971205, 0.28661346435546875, -0.01796883344650269, 0.02463126368820667, -0.03874690458178520, 0.08495236188173294, 0.20044961571693420, -0.09705512225627899, -0.02347401343286037, 0.04175906255841255, -0.04826198518276215, -0.06140376627445221, -0.06467275321483612, 0.04861743375658989, 0.01536423433572054, 0.13476274907588959, -0.10017124563455582, -0.04032066464424133, 0.04165776073932648, 0.21187913417816162, -0.10581293702125549, -0.05668509379029274, 0.21444047987461090, 0.00039060795097612, 0.06262710690498352, -0.15077196061611176, 0.16564252972602844, -0.06067442521452904, -0.08657984435558319, 0.08184979110956192, 0.06733064353466034, 0.04010650143027306, 0.07766185700893402, 0.12086924910545349, 0.07858630269765854, 0.15177109837532043, -0.26942127943038940, -0.00244822585955262, 0.15539291501045227, 0.13620115816593170, -0.00120752560906112, -0.06850012391805649, 0.11659679561853409, 0.01641574129462242, -0.01814396120607853, 0.01257450785487890, 0.02302350848913193, -0.14872638881206512, -0.23410750925540924, -0.11008581519126892, -0.13657969236373901, -0.05685192719101906, -0.16677212715148926, 0.07411373406648636, 0.14974139630794525, -0.34177479147911072, -0.06863543391227722, 0.24786548316478729, 0.12247605621814728, -0.28511726856231689, 0.03606401011347771, -0.01352038979530334, -0.08278632909059525, 0.23018229007720947, -0.02998106554150581, -0.00375381018966436, -0.20996107161045074, -0.15798875689506531, -0.00876158196479082, 0.04706777259707451, -0.05061970651149750, -0.23864184319972992, -0.23630718886852264, -0.17827706038951874