-0.07504351437091827, 0.00315097509883344, 0.21665130555629730, -0.09218720346689224, 0.07234888523817062, 0.19519396126270294, 0.08714732527732849, 0.11237662285566330, 0.02765168622136116, 0.21404829621315002, -0.08698301762342453, -0.06314895302057266, 0.18618114292621613, 0.11273702979087830, 0.17034967243671417, -0.12231653928756714, -0.16309517621994019, -0.12803798913955688, -0.04908806458115578, -0.09603937715291977, -0.00199283380061388, -0.83079999685287476, -0.00393785955384374, 0.03095553070306778, 0.04080639407038689, -0.21016271412372589, 0.12341351807117462, 0.14644956588745117, -0.09070570021867752, 0.05775001645088196, 0.02048414945602417, 0.17831307649612427, 0.02754249051213264, 0.09058421850204468, -0.02628082409501076, 0.05540147423744202, 0.22236604988574982, 0.17309717833995819, 0.03864215314388275, -0.00762938661500812, 0.03670392557978630, -0.09400586783885956, 0.14724338054656982, -0.18417191505432129, 0.16285903751850128, 0.13744051754474640, 0.19252461194992065, -0.12345278263092041, 0.07309395074844360, 0.08542850613594055, -0.16506974399089813, 0.21923369169235229, -0.28235909342765808, -0.19124191999435425, -0.07507944107055664, -0.30303764343261719, -0.15730015933513641, -0.14143790304660797, 0.13111798465251923, -0.07428208738565445, 0.08386676013469696, -0.14761240780353546, -0.08527675271034241, 0.02707959525287151, -0.10908748209476471, 0.05242710188031197, 0.38653683662414551, -0.24572797119617462, -0.20327855646610260, -0.07651928812265396, -0.00450028944760561, 0.10908030718564987, -0.01011426188051701, 0.04945407435297966, -0.07894029468297958, -0.19605989754199982, 0.06539953500032425, 0.28900757431983948, 0.12699803709983826, 0.02189184725284576, -0.01091125886887312, 0.04440451785922050, -0.23729601502418518, 0.14338484406471252, -0.16429260373115540, 0.21961434185504913, -0.22131530940532684, -0.01875092834234238, -0.03241525962948799, -0.26258888840675354, 0.00755492597818375, 0.04917302727699280, -0.15875425934791565, -0.02919622138142586, -0.03241036087274551, -0.16224333643913269, 0.03755340352654457, -0.27046191692352295, -0.12844064831733704, -0.19380150735378265, 0.18466721475124359, 0.17403832077980042, -0.04901180043816566, 0.17912928760051727, -0.05816448479890823, 0.15674914419651031, 0.02140982821583748, 0.15133795142173767, -0.08483822643756866, -0.05030325427651405, 0.15461520850658417, -0.21215392649173737, 0.05377615243196487, 0.12046954780817032, -0.14792163670063019, 0.23173953592777252, 0.13694825768470764, 0.02906044758856297, 0.11230846494436264, -0.11112929880619049, 0.04762499406933784, -0.00635854760184884, 0.13017572462558746, -0.01205548178404570, 0.08169434964656830, -0.10090986639261246, 0.02156663872301579, -0.21402700245380402, -0.08071766048669815, 0.03194373100996017, -0.12296553701162338, 0.07133983820676804, 0.08553379774093628, -0.04934222623705864, 0.08924365043640137, 0.13434661924839020, -0.03926697745919228, -0.17129728198051453, -0.07915656268596649, 0.11232767254114151, 0.03626558557152748, 0.07521170377731323, -0.00839004013687372, 0.08637624233961105, 0.10850817710161209, 0.15599343180656433, 0.72239607572555542, -0.09679507464170456, 0.12066822499036789, 0.04202608391642570, -0.40095335245132446, -0.37505725026130676, -0.04953253269195557, -0.04912456870079041, 0.03537786006927490, -0.03389317542314529, 0.02218008227646351, -0.05157641321420670, -0.10329414904117584, -0.03317897766828537, -0.25995397567749023, 0.04370340332388878, -0.14299783110618591, 0.02297925204038620, -0.02028063125908375, -0.07116181403398514, 0.03564340621232986, -0.01473801024258137, 0.13469599187374115, -0.04500784724950790, 0.04029063880443573, 0.17402569949626923, 0.12023034691810608, 0.13409258425235748, -0.04702332243323326, -0.10159474611282349, 0.13470011949539185, -0.05876890569925308, -0.08798677474260330, 0.08149315416812897, -0.01735782623291016, 0.05939763411879539, 0.05777737870812416, -0.01288776192814112, -0.02110681869089603, -0.03647094964981079, 0.13158096373081207, 0.04300858825445175, 0.04694378003478050, -0.00084891333244741, -0.26928490400314331, 0.01383630000054836