-0.076222561299801, 0.230684131383896, 0.687219262123108, 0.206287264823914, -0.366665869951248, 0.355885177850723, -0.178377047181129, -0.454001456499100, 0.450777471065521, 0.482225358486176, -0.058090232312679, -0.244589030742645, 0.070552103221416, -0.048929706215858, 0.159787774085999, -0.052791573107243, 0.230683848261833, -0.333779782056808, -0.050470694899559, 0.103722788393497, -0.382843047380447, 2.722765207290649, 0.226240083575249, -0.290226399898529, -0.401309609413147, -0.183108836412430, 0.080850079655647, -0.194445729255676, -0.640892922878265, 0.352585047483444, -0.129591748118401, -0.177937760949135, 0.000274150836049, -0.349215537309647, 0.916049003601074, 0.234703212976456, -0.175359979271889, -0.644987285137177, -1.327824592590332, 0.086172461509705, 1.133489370346069, -0.005220284685493, 0.040363620966673, -0.166484519839287, 0.134541779756546, 0.175397083163261, 0.003172060241923, -0.056356385350227, 0.084302030503750, -0.075334765017033, -0.138231515884399, -0.942921757698059, -0.091460585594177, 0.179339975118637, -0.086055800318718, 0.253839671611786, -0.148153290152550, 0.550176620483398, -0.813920795917511, 0.127365916967392, 0.607759177684784, -0.086493998765945, -0.196743801236153, -0.051838498562574, 0.126730963587761, 0.281417459249496, -0.465466469526291, -0.095851935446262, -0.193115919828415, 0.008651010692120, -0.138533234596252, -0.369975030422211, -0.255576044321060, -0.354771107435226, 0.658101260662079, 0.077374458312988, -0.969857037067413, 0.011334290727973, -0.017335485666990, -0.103571601212025, -0.001198226120323, 0.067716009914875, -0.053943686187267, -0.277726948261261, -0.120519652962685, 0.025558983907104, 0.050779525190592, 0.289368212223053, -0.031825974583626, 0.092528514564037, 0.113824419677258, -0.274913311004639, -1.006016612052917, 0.178809151053429, 0.078007109463215, 0.295979768037796, -0.059067662805319, -0.686014652252197, 0.106935463845730, -0.059797246009111, -0.052113015204668, 0.120682053267956, 0.106175169348717, -0.000306517846184, -0.122877776622772, 0.161319434642792, -0.256233155727386, 0.031146796420217, 0.256910800933838, -0.063840992748737, 0.111727394163609, 0.213311746716499, 0.050171840935946, -1.164673209190369, 0.019931441172957, -0.056104004383087, 0.279527813196182, 0.314644008874893, -0.261940628290176, -0.483469188213348, 0.385109722614288, 0.055757850408554, -0.019734507426620, -0.053561098873615, -0.366024553775787, 0.533836543560028, 0.219943553209305, -0.146398574113846, -0.641367375850677, 0.233383610844612, 0.093276254832745, 0.233924284577370, -0.068687543272972, 0.042487714439631, 0.461100935935974, 0.051884982734919, 0.174069583415985, -0.016667051240802, -0.252611041069031, -0.408875405788422, -0.145157277584076, -0.094009436666965, 0.005015126429498, -0.054500419646502, 0.386432975530624, -0.598293244838715, 0.072784952819347, -0.586179733276367, -0.131511047482491, -0.281728267669678, 0.202333793044090, 0.045110791921616, -0.493796139955521, -0.273858696222305, -0.380224436521530, 0.325092345476151, -0.074172720313072, -0.148944422602654, -0.663421750068665, -0.004491602070630, -0.316047936677933, 0.778464674949646, 0.055209398269653, 0.131044432520866, 0.186063662171364, 0.135065615177155, 0.804775416851044, -0.063630461692810, -0.186158716678619, 0.109651148319244, 0.015037674456835, 0.104909747838974, -0.049017418175936, 0.305527895689011, -0.055756997317076, 0.410926133394241, 0.077091433107853, 0.053813088685274, 0.041510000824928, -0.208018317818642, -0.056073162704706, 0.140869796276093, 0.772306025028229, 0.425349444150925, -0.314750790596008, -0.786419689655304, 0.148295089602470, -0.213391602039337, -0.047625165432692, 1.346914172172546, -0.679310917854309, -0.007490945514292