-0.0152812, 0.0597590, -0.1255511, -0.0364526, -0.0139461, 0.0173519, -0.0074539, -0.0442608, 0.0521468, -0.0181693, 0.0164167, -0.1407525, 0.0289755, 0.0225112, -0.0022206, 0.0600674, -0.0360856, 0.0362659, 0.0361735, -0.0893118, -0.0036653, 0.0629093, -0.0627991, 0.0680272, -0.0099927, -0.0661446, 0.0824434, 0.0657146, 0.0094418, -0.0032268, 0.0432001, 0.1203917, -0.0030774, -0.0872438, -0.0030674, -0.0511309, 0.0711262, -0.0471532, 0.0157535, 0.0079977, -0.0133819, 0.0144937, -0.0452045, -0.0362204, -0.0477659, -0.0277637, 0.0093710, 0.0058716, -0.0076835, 0.1058512, -0.0909646, -0.0218873, -0.0220810, -0.0280059, 0.0923583, 0.0214579, 0.0386332, 0.0053942, 0.0127102, 0.0668184, 0.0180042, -0.0190020, -0.0257512, -0.1780793, -0.1547574, -0.3055946, -0.0192332, -0.0836614, -0.0101223, -0.0474096, 0.0711672, -0.0496014, -0.0306587, 0.0320856, -0.0332624, 0.0429172, 0.0406261, 0.0958888, 0.0879566, 0.0911639, -0.0037330, -0.0918588, -0.0892639, -0.0067444, 0.0637287, -0.1428467, -0.1157372, -0.0026163, -0.0555853, -0.0248580, -0.1130069, 0.0403527, 0.0643983, 0.0328631, 0.0674170, 0.0175985, -0.0345486, -0.0257489, 0.0173018, 0.0262301, 0.0750502, -0.0102378, 0.1165037, 0.0292620, -0.0876809, 0.0214737, -0.0734610, -0.0155197, -0.0509026, -0.0221729, -0.0400146, -0.0978285, -0.0780496, 0.0097913, -0.0681293, 0.1227058, 0.0035125, -0.1345384, 0.0094021, 0.0390001, 0.0054202, -0.0230936, 0.0939220, -0.0450436, -0.0524833, 0.0020666, -0.0380002, 0.1125713, 0.0050696, -0.0022284, 0.0276073, 0.0433619, 0.0978438, 0.0775644, 0.0858519, -0.0218172, -0.1395682, 0.0985717, -0.0519319, 0.0577591, -0.0745730, 0.0389245, -0.0262328, 0.0352372, -0.0348114, -0.0175244, 0.0211758, 0.0781047, 0.0121654, 0.0309680, -0.0835534, 0.0554610, -0.0732514, -0.0510856, 0.0015867, -0.0449034, -0.0636523, -0.0015024, -0.0114394, -0.0096872, -0.0336368, 0.0330474, 0.0220064, -0.0749336, -0.0986508, -0.0604285, -0.1716156, -0.0722899, 0.0629117, -0.0343576, 0.0152934, -0.0794955, 0.0159899, 0.0236537, 0.0448952, 0.0467015, -0.1221402, 0.0875478, -0.0212995, -0.1629124, 0.0197031, -0.0195693, 0.0224280, -0.0966844, -0.1336351, -0.0281898, -0.0328877, 0.0440434, -0.0450584, 0.0060292, -0.0025046, 0.0226737, 0.0547248, -0.0088920, -0.1185717, 0.0338233, 0.1255389, 0.0860993, -0.0549967, -0.0410694, -0.0461562, -0.1091469, 0.0147256, 0.0297045, 0.0252575, -0.1193937, 0.0057818, -0.0287907, 0.0566689, 0.0203531, -0.0251619, -0.0949286, 0.1717819, 0.0369141, -0.0290748, 0.0812562, 0.0156242, 0.0351236, -0.0099210, 0.1438032, 0.0661654, -0.0334971, -0.0617834, 0.0300189, -0.0295923, -0.0326489, 0.0124616, 0.0586665, 0.0994408, 0.0260885, -0.0197359, 0.0159203, -0.0699142, -0.0269272, -0.0199253, -0.0065902, 0.0111699, -0.0246056, -0.0597533, 0.0830944, -0.0319372, -0.0383102, -0.0266456, 0.0023938, 0.0494287, 0.0294209, -0.0400337, 0.0413882, -0.0421859, 0.0740050, -0.0679590, -0.0096930, 0.0214264, 0.0376573, 0.0543261, -0.0950245, -0.0320423, -0.0558894, -0.0445295, -0.0444492, -0.0687918, 0.0353279, -0.0259252, 0.1412455, -0.0874572, -0.0105603, -0.0688900, 0.0416713, -0.0535708, 0.0743105, 0.0546290, 0.0125930, 0.0145139, -0.0197977, 0.1017845, 0.0286784, 0.0834879, 0.0903671, 0.0697950, 0.0815084, 0.0748799, -0.0042517, -0.0183208, 0.1049314, -0.0130033, -0.0218686, 0.1007849, -0.0801709, 0.0070263, -0.0354794, -0.0728688, -0.0214555, -0.0160736, -0.0627838, 0.0325047, -0.0530036, -0.0269075, -0.0761644, 0.0373659, 0.0023454, 0.0898624, -0.1296501, -0.0498501, 0.0354942, 0.0252346, 0.0074005, -0.0384954, -0.0966553, -0.1147707, -0.0315469, 0.0356731, 0.0375661, 0.0848476, -0.0818504, -0.0857451, -0.0637186, 0.0603269, 0.1062763, 0.0644856, 0.0430779, -0.1043125, -0.0394336, 0.0812724, 0.0928955, 0.0951475, -0.0591127, 0.0315294, -0.0732919, 0.0324207, 0.0203952, -0.0279078, 0.0300999, 0.0934275, -0.0078995, -0.0743642, 0.0089558, 0.0645343, 0.0339703, -0.0724273, -0.0157455, 0.0520481, -0.1111560, 0.0518897, -0.0408197, 0.0089335, -0.0401441, -0.0110858, -0.0691717, 0.0223008, 0.0306426, -0.1104451, -0.0131489, 0.0415204, 0.0213893, 0.0550549, -0.1186048, -0.0142432, -0.0909461, 0.0712069, 0.0395606, 0.0005198, 0.0050495, 0.0257779, 0.0320731, -0.0307212, -0.0435663, 0.0367234, -0.0517415, 0.0819132, 0.0059569, 0.0193384, 0.0055560, -0.0569172, 0.0335980, 0.0939006, 0.1028205, 0.0298884, -0.0740192, 0.0010356, 0.0606742, 0.0630550, -0.0202401, 0.0015351, 0.0086862, 0.0461225, -0.0242060, 0.0463492, -0.0824293, 0.0023245, -0.1031934, 0.0663501, 0.0196941, -0.0232043, 0.0205475, 0.0933598, -0.1112735, -0.0438763, 0.0022288, -0.1028402, 0.0027465, -0.0129857, -0.0757506, 0.0140147, -0.0094452, 0.0407494, -0.0870105, 0.1074517, 0.0201413, -0.0129203, 0.0101531, 0.0059810, 0.0029190, -0.0299161, 0.0436898, -0.0599502, 0.0173038, 0.0332343, -0.0242122, 0.0031001, -0.0801782, 0.0833287, -0.0512828, 0.0048405, -0.0213475, 0.0064871, -0.0349889, -0.0723729, 0.0042038, -0.0339154, 0.0580082, 0.0091919, 0.1049654, 0.0076639, 0.0055439, 0.0631512, 0.0047884, -0.0299424, 0.0300462, 0.0921014, -0.0934748, 0.1213904, -0.0598643, -0.0538474, 0.0945126, -0.0486136, -0.0063030, 0.0185510, 0.0563026, 0.0640636, 0.0638175, 0.0900009, -0.0355209, -0.0455764, 0.1087933, -0.0286233, -0.0623235, 0.0067843, 0.0662576, 0.0607134, -0.0458832, 0.0038154, 0.0640233, 0.1417240, -0.0599572, 0.0481926, -0.0609530, -0.1292953, 0.1224693, -0.0633898, -0.0466258, -0.0142986, -0.0883507, -0.0597094, 0.0047618, -0.1321383, -0.0559401, -0.0723693, 0.0258795, 0.1030116, -0.1033461, -0.0906691, 0.0471324, 0.1135915, -0.0147140, 0.0084411, 0.1277823, 0.0178098, 0.0203892, -0.0889073, 0.0237154, 0.0184008, -0.0299723, -0.0062796, -0.0916352, 0.1178589, 0.0410179, -0.0323286, 0.0182526, -0.0145692, 0.0985216, 0.0694370, -0.1042206, -0.0285778, -0.0290879, 0.0963082, 0.0134567, 0.0129596, -0.0521518, 0.0290628, -0.0043979, 0.0077901, 0.1832727, -0.0244064, 0.0493925, -0.0337662, -0.0080516, 0.0144048, -0.0539124, 0.0152839, -0.0346651, -0.0062332, 0.0175171, 0.0947240, 0.0708218, 0.0923234, -0.0261934, -0.0074961, -0.0775155, -0.0052902, -0.1272856, -0.0585913, 0.0425928, 0.0206809, -0.0587411, 0.1076536, 0.0568023, 0.0388132, 0.0079174, 0.0728847, 0.0597706, 0.0126534, 0.0037054, 0.0952124, 0.0591663, 0.1364338, 0.0362160, -0.0863851, 0.1174226, -0.0198881, 0.1278050, -0.0195331, -0.0362942, -0.0312949, -0.0739587, 0.0874643, 0.0899113, -0.0372297, -0.0551081, -0.1518102, 0.0338761, -0.0111583, 0.0350568, -0.0689999, -0.0711326, -0.0815785, 0.1102428, 0.0702186, 0.0561813, -0.0411919, 0.0790563, 0.0063574, 0.0567622, 0.0280517, 0.0195770, -0.0384751, 0.0176929, -0.0283003, -0.0039193, 0.0330300, -0.1477813, -0.0737566, 0.0151596, -0.0390441, -0.0291036, -0.0773948, -0.0311033, 0.0851101, 0.0309827, -0.0599732, 0.1040629, 0.0875231, -0.0352144, 0.0537349, -0.0321068, 0.0802336, 0.0967668, -0.0431106, -0.0415876, -0.0934905, -0.0108970, 0.0165824, 0.0228544, 0.0649476, 0.0162107, 0.0080027, -0.0537296, 0.0769773, 0.0629572, -0.0669545, 0.0454870, -0.0514913, -0.0296494, 0.0026954, 0.0138391, 0.0134596, -0.0730969, -0.0093299, 0.1038615, 0.0468475, -0.0897638, -0.0327912, 0.0706351, 0.0570509, 0.0085860, 0.0302416, 0.0457382, -0.1104971, 0.0270972, 0.0239191, 0.0658007, -0.0298996, -0.0166808, -0.0005055, -0.0286573, 0.0432892, 0.0388048, -0.0372581, 0.0596330, -0.0386530, -0.1676891, -0.1111316, -0.1238545, -0.0172643, -0.0860032, -0.0898779, -0.0162700, -0.0636446, 0.1606635, -0.0597621, 0.0887193, -0.0563696, 0.0185100, -0.0218794, 0.0549727, -0.0684062, 0.0110070, 0.0452527, 0.0240452, -0.0258668, -0.0071835, -0.0322824, 0.0616222, 0.0550191, -0.0178755, 0.0662753, 0.0369025, 0.0292832, -0.0154096, -0.0187551, -0.0427375, 0.0409297, 0.0612726, -0.0255737, 0.0496475, 0.0351384, 0.0457690, -0.0334885, 0.0448525, -0.0349412, 0.0286109, 0.0644645, -0.0385823, 0.1000869, -0.0628798, 0.0109650, -0.0595609, -0.0837818, -0.0287223, 0.0434621, 0.0819435, 0.0936959, -0.0282204, -0.0608474, 0.0972142, 0.0766687, -0.0027094, -0.0285568, -0.0691592, -0.0902521, -0.0000472, 0.0112676, -0.0587540, 0.0078506, -0.1199235, 0.0487839, -0.0173544, 0.0416611, -0.0055979, 0.0365231, -0.0431319, 0.0877556, 0.0227888, -0.0125044, 0.1009381, 0.1187319, -0.0386999, -0.0094819, -0.0548528, -0.0014431, 0.0174158, -0.0602630, 0.0951304, 0.0251986, -0.0023915, 0.0611040, 0.0577218, -0.1497587, 0.0077417, 0.0153005, 0.0560305, -0.0872091, 0.0134023, -0.1381647, 0.0112522, 0.0018580, 0.1017468, 0.0115162, -0.0387388, 0.0216725, 0.0175110, -0.0835771, 0.0430455, -0.0824424, 0.1095833, -0.1324373, -0.0361675, 0.0252514, 0.0497716, 0.0524101, -0.1034716, -0.0980171, -0.0566216, -0.0274728, 0.0675361, 0.0608507, 0.0803065, 0.0345815, 0.0197052, 0.0073901, 0.0115579, 0.0340614, 0.1135661, 0.1106628, -0.0828403, 0.0220220, -0.0277486, -0.0159183, -0.0944199, -0.0354117, -0.0420691, -0.0654697, -0.0065520, -0.1037884, 0.0968247, -0.0040423, 0.0629085, 0.0493018, 0.0441834, 0.0453115, -0.0500211, 0.0554166, -0.0152668, -0.0394556, 0.1246566, 0.1499421, -0.0303350, 0.0991928, -0.0351266, 0.1176202, 0.0389195, -0.0211234, 0.0162931, -0.0391793, 0.0036874, 0.0294554, -0.1743508, -0.0654397, 0.0853525, -0.0178856, -0.0245418, -0.0748176, 0.0301920, -0.0567892, -0.0647018, 0.0413938, -0.0091524, -0.0540897, -0.0380342, -0.1051070, 0.0096398, 0.0947857, -0.0438180, 0.0001425, -0.0147587, -0.0001926, 0.0069965, 0.0660403, 0.0522584, -0.0566767, 0.0189070, -0.0012067, -0.0045987, -0.0386933, -0.0154858, 0.1687895, 0.0304097, -0.0568126, -0.0266455, 0.0260462, -0.1494288, -0.0998950, -0.0223644, 0.0101173, 0.0652500, -0.0299757, -0.0678503, -0.0538185, -0.0280963, -0.0725933, -0.0562745, -0.0724915, -0.0035274, -0.0285114, 0.0747744, -0.0144283, -0.1079769, 0.0485756, -0.0894722, 0.0026620, -0.0541109, 0.0746825, -0.0692669, 0.0887429, -0.1352603, 0.0644473, -0.0440451, -0.0288258, 0.0426951, 0.0922463, -0.0557790, 0.1038853, 0.1205818, -0.0384902, -0.0164314, -0.0543049, -0.0159962, -0.0713110, -0.0200826, 0.0005282, -0.1425111, -0.0214164, -0.0395256, 0.0994649, 0.1224812, -0.0185376, -0.0041533, -0.0048828, 0.0226955, 0.0061683, -0.0024539, -0.0518643, -0.1341144, -0.0138279, 0.0316441, -0.0587826, -0.0138631, 0.0288906, 0.0013101, 0.0007500, 0.0921385, -0.0047427, -0.0662955, -0.0972221, 0.0043559, -0.0003686, 0.0710696, -0.0546188, -0.0369795, 0.1292532, 0.0113424, -0.0232385, -0.0410467, -0.0805567, 0.0393245, -0.0829957, 0.0573780, 0.0811011, 0.0390032, 0.0372183, 0.0201880, 0.0346679, 0.0537755, 0.0537729, -0.0293306, -0.1194350, 0.0015815, 0.0250444, -0.0728942, 0.0223808, 0.0242355, 0.0636293, -0.0140433, -0.0647202, 0.0162201, 0.0293896, -0.0319689, -0.0258667, 0.0445865, 0.0822334, 0.0269931, 0.0971882, 0.0580147, -0.0130415, -0.1098613, 0.0329142, 0.0489893, 0.0037345, -0.0269445, -0.1477971, 0.0299679, 0.0531752, 0.0383823, -0.0124556, 0.0694593, 0.0790579, -0.0253914, 0.1152427, -0.0585989, -0.1262627, 0.0247819, -0.0262818, -0.0387861, 0.0103253, 0.0063134, -0.0457257, -0.0915275, -0.1291150, 0.0266998, 0.0220459, -0.0169457, -0.1280908, 0.0140843, 0.0208563, -0.0422405, 0.0357481, 0.0402487, 0.0275271, 0.1032673, -0.0986223, -0.0585699, -0.0108895, -0.0783889, -0.0608118, -0.1517150, 0.0984839, 0.0198701, -0.1397700, -0.0004602, -0.1326402, -0.0035354, 0.0024070, 0.0150854, -0.0991728, 0.0051012, 0.0577341, -0.0892588, -0.1122639, 0.0215914, -0.0396505, 0.0567095, -0.0939978, 0.0346604, -0.1069909, 0.0066457, 0.0297809, -0.0641924, -0.0204000, 0.0262259, 0.0492244, 0.0835281, -0.0649862, 0.0409701, 0.0796032, 0.0263440, 0.0036667, 0.0301309, 0.0110977, 0.0758969, 0.1110518, -0.0175509, 0.0253531, -0.0182007, 0.0022963, -0.0102715, -0.0989230, -0.0731658, 0.0240891, 0.0101359, 0.0047890, -0.1036931, -0.0677051, -0.0046376, -0.0129818, 0.0707834, 0.0322278, 0.0025248, -0.0293754, -0.0890779, -0.0552010, 0.0611563, 0.0494008, -0.0818273, -0.1086039, 0.0032263, -0.0205980, 0.0302150, -0.0152835, -0.0391973, -0.0476043, -0.0946785, 0.0305372, 0.0098904, 0.1354032, -0.0223359, -0.0634212, -0.0247284, -0.0632027, 0.0043166, 0.0077961, 0.0678466, -0.0126485, 0.1198268, 0.0817192, 0.1000112, -0.0446325, 0.1584107, -0.0659749, 0.0343544, 0.0251931, 0.0090823, -0.1556961, -0.0286921, 0.0459485, 0.0437923, 0.0800624, 0.0221826, 0.0697071, 0.0217366, 0.0151167, 0.0095521, -0.0102267, 0.0792970, -0.0065983, -0.0142364, -0.1028173, -0.0320020, 0.1599390, -0.0008276, 0.0591671, 0.0467645, -0.0075546, -0.0349168, 0.0574537, -0.0202215, 0.0496562, 0.0145755, 0.0431834, 0.0520629, 0.0320526, 0.1192523, -0.0101189, 0.0039124, -0.0736034, -0.0420561, 0.0448732, -0.0633117, -0.1445128, -0.0342376, -0.0600240, 0.0857829, 0.0111343, -0.0185473, 0.0592191, 0.0685769, -0.0337780, -0.0341556, 0.0462685, 0.1857395, 0.0428140, -0.0707910, -0.0632614, -0.0002941, 0.0007648, -0.0047619, 0.0532167, -0.1290482, 0.0710841, -0.0231170, -0.0367642, 0.0052954, 0.0469881, 0.0299971, -0.0124239, 0.0488099, 0.0919072, -0.0604910, 0.0705839, -0.0505306, -0.0130072, 0.0244816, -0.0706258, 0.0989168, 0.1141680, -0.0572116, -0.0250984, 0.1531074, 0.0376171, -0.1082473, 0.0129991, 0.0523114, 0.0662094, -0.0155988, -0.0695212, 0.0174467, 0.0704587, 0.0282371, 0.0538437, 0.0063172, 0.0271785, 0.0164514, -0.1011272, 0.0749493, -0.0831759, 0.0160543, 0.0142433, 0.0691843, -0.0595399, -0.0472093, 0.1538185, 0.0523193, 0.1127403, 0.0865633, 0.0138627, 0.1108568, 0.0301430, 0.0991732, 0.0207650, -0.0164518, -0.1316717, -0.0091353, -0.0257945, 0.0132320, -0.0496148, -0.0298263, 0.0017505, 0.0284167, -0.0418700, 0.0227952, 0.0313108, -0.0637184, 0.0643471, 0.0121804, -0.0329832, 0.0897211, 0.0133710, -0.1329196, 0.0470594, -0.1194550, -0.0193818, -0.0514828, -0.0646902, 0.1080398, 0.0529169, 0.0300958, 0.0259760, 0.0369499, 0.0216255, 0.0857500, 0.0846525, -0.1900637, 0.0486858, -0.0966349, 0.0462865, -0.0221356, -0.0385403, 0.0097003, -0.0993265, 0.1276940, -0.0027556, -0.0709314, 0.0051700, 0.0486190, -0.0488270, -0.0142363, 0.1418871, -0.0449127, -0.0334534, 0.0272070, 0.0536120, -0.0893658, 0.0328147, -0.0361950, 0.0385701, -0.0979933, 0.0430672, 0.0248485, -0.0194472, -0.0207821, 0.0557842, -0.0286633, -0.0987059, -0.0440564, 0.0030888, 0.1241100, -0.0259450, 0.1179186, -0.0485998, 0.0142595, 0.0670931, 0.0836501, -0.0162602, -0.0040093, -0.0399599, -0.0248268, -0.0712324, 0.0391735, 0.0348815, 0.0594552, -0.0608012, 0.0445773, 0.0370650, 0.0071526, -0.0462553, 0.1112983, -0.0248742, -0.0178930, -0.0456408, 0.0249276, -0.0404624, -0.0505865, -0.0125870, 0.0099712, -0.0516684, 0.0805520, 0.0442192, 0.0067840, 0.0664491, 0.1296880, -0.0138525, -0.0578565, 0.0421496, 0.0036620, -0.0282339, -0.0466580, -0.0047821, -0.0800734, 0.0737187, -0.0228923, 0.0289845, -0.0059293, 0.0847558, 0.0245352, 0.0258196, -0.0079901, -0.0103152, -0.0478151, -0.0488507, 0.1318456, -0.0160342, 0.0398152, 0.0183956, -0.0214000, 0.1079035, -0.1015003, 0.0162382, -0.0056208, -0.0206428, -0.1321534, 0.0231072, 0.0454599, -0.0348757, 0.0105015, -0.1014147, 0.0345270, 0.0520907, 0.0479535, -0.1422098, -0.0301087, -0.0662064, 0.1477133, 0.0515943, 0.0121576, 0.0173682, -0.0420022, -0.0503847, -0.0698157, -0.0785384, 0.0207852, -0.0034162, -0.0872249, 0.0689541, 0.0136017, -0.0200524, -0.0241861, 0.0473035, -0.0886119, 0.0172979, -0.1637269, -0.1105926, -0.0692980, 0.0410966, 0.0871312, -0.0128585, -0.0188574, -0.0477026, -0.0203242, -0.0208888, -0.0600309, 0.0371624, 0.0510929, 0.0957098, 0.0599820, 0.0109609, 0.0014894, -0.0097810, -0.0086085, -0.0965428, -0.0396939, 0.0590483, -0.0274807, 0.0220288, -0.0147570, 0.0210134, -0.0270510, 0.0480118, -0.0625010, -0.1478618, -0.0189548, 0.1031400, 0.0517226, -0.0160509, 0.0941199, 0.0468465, -0.0214216, -0.0722558, -0.0361918, 0.0441655, -0.0313538, 0.0436656, 0.0462634, -0.0214015, -0.0677211, -0.0710131, 0.0106785, -0.0612227, 0.0404395, -0.0186806, 0.0535470, 0.0072008, 0.0358817, 0.0884979, 0.0986738, 0.0672481, -0.0733653, 0.0153748, 0.0948073, -0.1058805, 0.0200416, -0.0142834, 0.0212568, -0.0258561, 0.1214444, -0.0623080, -0.0536761, -0.1156388, 0.0308790, 0.0955693, -0.0583076, 0.0603234, 0.0147977, -0.0207199, -0.0565657, -0.0301591, 0.1332476, 0.1010450, 0.0703157, -0.0027803, 0.0250414, -0.1353733, -0.0450900, -0.0670584, 0.0518923, 0.1457698, -0.0045793, 0.0415735, 0.0146790, -0.0400949, -0.0862799, -0.0224063, -0.0280214, -0.0951630, 0.0587394, 0.1113338, 0.0156400, 0.0526777, 0.0511874, -0.1007760, 0.0234707, 0.0394683, 0.1425826, -0.0246021, 0.0275895, -0.0110184, 0.0769559, 0.0377897, -0.1135428, 0.0155113, -0.0745844, -0.0937118, 0.0046470, -0.0202478, -0.0553048, 0.0437233, 0.1005822, 0.0533652, 0.0305141, 0.0861390, -0.0220938, -0.0229157, 0.0136960, -0.0734143, 0.0166104, 0.1837420, -0.0255439, 0.1164462, -0.0150734, -0.0106370, 0.0422921, -0.0432766, -0.0396106, -0.0012369, 0.0036950, -0.1227392, -0.0977082, -0.0079239, -0.0099718, 0.0221887, 0.0294564, -0.0668463, -0.0438313, -0.1461448, -0.0039090, 0.0152283, -0.0086616, -0.0186405, 0.0223832, -0.0906882, 0.0740838, 0.0033832, -0.0840860, 0.0280584, 0.0439654, 0.0627416, -0.0738009, 0.1036353, -0.0875205, -0.0554262, -0.0084366, -0.0068796, 0.0690706, -0.0166085, 0.2102977, 0.0073783, -0.0242695, -0.0362102, 0.0007313, -0.0042780, -0.0135054, 0.0114206, -0.0134128, 0.1133379, 0.1044238, -0.0341931, -0.0044025, 0.0184195, -0.0437827, 0.0698709, 0.0472394, -0.0676419, 0.0853889, 0.0274434, -0.0866777, 0.0037631, 0.1156545, 0.0757779, -0.0213764, -0.1081660, 0.1288029, 0.0530053, 0.0320412, 0.0818745, 0.0147372, 0.1032303, -0.0293544, 0.0325826, -0.0036869, 0.0861157, -0.0654107, 0.0700623, -0.0748324, 0.0005077, -0.1023273, 0.0303551, -0.0039070, -0.1353310, -0.1956040, 0.1219968, -0.0174924, -0.0257813, 0.0497727, 0.0106884, -0.0851329, 0.1174660, 0.0335541, -0.0660683, -0.0043122, -0.0182115, -0.1121158, -0.0592591, 0.0160129, -0.0211450, -0.0470093, 0.0983550, -0.0023519, -0.0433006, -0.0563785, 0.1124177, 0.0953994, -0.0191492, 0.0131546, 0.0190977, -0.1072514, -0.0610334, 0.0140687, 0.0109454, -0.0686370, -0.0621501, 0.0431304, -0.0505326, -0.0329914, -0.1017692, -0.0149914, 0.0063843, -0.0552354, 0.0051712, -0.1384620, 0.0265323, -0.0334531, -0.0716794, 0.0235084, 0.0277801, -0.0020255, 0.0270855, 0.0884781, 0.0486426, -0.0066678, -0.0421899, 0.0633571, -0.0910231, -0.0465252, -0.0850336, -0.1245478, -0.0407541, 0.0471331, 0.1332342, -0.0532032, 0.0363958, -0.0883138, 0.0184105, -0.0688624, 0.0772062, 0.0469885, 0.0707556, 0.0376238, 0.0622422, 0.0704253, 0.0714141, 0.0915274, 0.1199012, -0.0186452, 0.0088954, -0.0605068, -0.0155427, -0.0218652, -0.0208716, -0.0953665, -0.0143049, 0.0459531, 0.0275319, 0.0333500, -0.0202710, 0.1116168, -0.0083864, -0.1059370, 0.1495984, -0.0009146, -0.0473442, -0.0090167, 0.0848350, 0.0262803, -0.0557232, -0.1489663, 0.0122212, 0.0597209, 0.0269498, 0.0486871, 0.0403930, -0.1154785, 0.0461794, 0.0453427, -0.0285289, -0.0523182, 0.0567106, 0.0292381, 0.0506814, 0.0831428, 0.0688055, -0.0257789, 0.0317977, -0.0651207, 0.0176032, 0.0111524, -0.0781890, -0.0996514, -0.0350881, 0.0267660, -0.1040427, 0.0526491, 0.0537748, -0.0478252, 0.0218587, 0.0454313, 0.0242018, -0.0022498, -0.0333320, 0.0086317, -0.0708648, 0.0632800, -0.0049487, 0.0740294, -0.0422849, -0.0407388, -0.0076242, 0.1074968, -0.0808452, -0.0369908, -0.0525857, -0.0506758, 0.0623232, -0.1049751, -0.0303832, -0.0852531, -0.1423080, -0.0336423, 0.0354974, -0.0967606, -0.0236096, -0.0945178, -0.0839624, 0.1130997, -0.0093017, -0.0438364, 0.0580301, -0.0731263, 0.0220201, -0.0871224, -0.0266196, 0.0803270, 0.0737542, -0.1340063, 0.1007006, -0.0942517, 0.0747091, -0.1162102, -0.0380908, -0.0546082, -0.0665498, 0.0225106, -0.0543536, 0.0876839, 0.1017674, -0.0431494, -0.0211556, -0.0512277, 0.0553936, 0.0552364, 0.0653439, -0.0745992, 0.0428517, -0.0588970, 0.0758211, -0.0626098, -0.0214584, 0.0169166, 0.0138401, -0.0083382, 0.0572835, 0.0808153, 0.0705131, 0.0999296, 0.0694587, 0.0052949, 0.0175626, 0.1031466, 0.0950151, 0.0917795, 0.0442583, 0.0219739, -0.0798936, -0.0018228, -0.0645830, -0.1033559, -0.0271461, -0.0963220, -0.0585201, 0.0530121, 0.0710861, 0.0482676, 0.0135137, -0.0194509, 0.0635023, -0.0586898, 0.0448131, 0.0720255, 0.0012894, 0.0429712, 0.0043965, 0.0719729, -0.0194934, 0.0860542, -0.0087448, -0.0638860, -0.0815499, -0.0135093, -0.0272163, 0.0154242, 0.0627361, -0.0821943, -0.1424880, 0.0761386, -0.0201276, -0.0073332, -0.0201702, 0.1324695, -0.0320769, -0.0585145, -0.0186521, 0.0247732, 0.0561421, -0.0965773, 0.0311317, -0.0491636, -0.0997844, 0.0207102, -0.0324635, -0.0986126, 0.0725282, -0.0501679, 0.1004647, -0.0195605, -0.0219576, 0.0501385, -0.0951516, 0.0901633, -0.0750941, -0.0264201, 0.1560936, -0.0788768, -0.0324437, 0.0044336, -0.0274588, -0.0217885, -0.0387462, 0.0216764, -0.0612026, -0.0736153, -0.0085628, -0.0522909, 0.0728102, 0.0172942, 0.0051102, -0.0059956, 0.0031439, -0.0050999, -0.0308350, -0.1208047, -0.0535330, 0.1051663, -0.0255048, 0.0556298, 0.0473405, 0.0621456, -0.0403751, 0.0733362, 0.0626899, -0.0396793, 0.1121858, 0.0200669, -0.1470233, -0.0222067, 0.0132223, -0.1009976, 0.0305675, -0.0816854, 0.0047016, 0.0235499, -0.0386732, 0.0078073, -0.0174025, -0.0563924, 0.0472885, 0.1030191, 0.0444976, 0.0229829, -0.0128656, -0.2001978, 0.0205436, -0.1331062, 0.0627908, 0.0463365, 0.0533902, 0.0327926, -0.0298088, -0.0127176, -0.0765474, 0.0694355, -0.0079125, 0.0315805, 0.0735343, -0.0597355, 0.0043929, 0.1294869, 0.0670971, 0.0189614, -0.0136296, 0.0442746, -0.0816399, -0.0667304, -0.0714849, -0.0007903, 0.0192244, 0.0119542, 0.0376972, 0.0735225, -0.0404944, 0.0934886, -0.0553035, -0.0359887, 0.0089022, -0.0069285, 0.1334120, 0.0020782, -0.1470277, 0.0215707, 0.0027835, -0.0410471, -0.0775753, 0.0758910, -0.0859722, 0.0154900, 0.0380794, -0.0450652, -0.1497467, -0.0175991, 0.0045319, 0.0243984, 0.0290649, 0.0941549, -0.1843194, 0.0430967, -0.0380707, -0.0550879, 0.0282592, 0.0044940, -0.0079934, 0.0255333, 0.0006992, -0.0090422, -0.0148598, 0.0058192, 0.1060664, -0.0403008, 0.1764682, 0.0384025, 0.0940665, 0.0430334, 0.0495049, 0.0120808, -0.1016583, 0.0448529, 0.0680572, -0.0161337, -0.0487918, -0.0003916, 0.0143250, -0.0741047, -0.1287982, 0.0324237, 0.0157448, -0.0392849, -0.0529281, -0.1491247, 0.0329554, 0.0730191, -0.1243414, 0.0299801, -0.0202254, 0.1139085, -0.0148204, 0.0363087, 0.0441000, 0.0316544, -0.0319071, 0.0886653, -0.0018526, -0.0820917, 0.0728207, 0.0425451, 0.0213020, -0.1163107, -0.0714749, -0.0462346, 0.0275360, 0.0607979, -0.0030301, -0.1237868, -0.1931286, -0.0087668, -0.1256895, -0.0046056, -0.0595969, 0.0465196, 0.1089481, 0.0117448, 0.0317856, 0.0360538, 0.1112333, -0.0242062, 0.0284891, 0.0671211, -0.0053192, -0.0151785, -0.0512979, 0.0499614, -0.0520209, -0.0245757, 0.0336002, -0.0505983, 0.0377437, -0.0408566, 0.0191668, 0.0195045, 0.0992938, 0.0157359, 0.0163799, 0.0035656, 0.1028395, 0.0291297, -0.0637703, -0.0656045, 0.0970099, -0.0198556, 0.0266815, 0.1002737, 0.0965765, -0.0332275, 0.0341173, 0.0709688, 0.0856077, -0.0548005, -0.0578395, 0.0256763, -0.0058718, -0.1073536, -0.0146285, 0.0373719, 0.0371093, 0.0860338, -0.0171607, -0.0685485, 0.0256262, -0.0199903, 0.0381080, 0.0754662, 0.0852355, -0.0544434, -0.0517929, -0.0537015, 0.0453905, -0.0176295, 0.0050277, 0.0310008, -0.0327231, 0.1380345, -0.0427794, -0.0028267, 0.0547534, 0.0591847, 0.0499653, 0.1639708, 0.0301324, -0.1783072, 0.0315445, 0.1001215, -0.0892841, -0.0046517, 0.0966234, 0.0743916, -0.0040166, 0.0593660, -0.0677766, -0.0140395, 0.0085785, 0.0156271, 0.0673840, 0.0256989, 0.0602298, 0.0739052, -0.0019473, 0.0169656, 0.0636157, -0.0214282, 0.0242856, 0.0364754, -0.0327194, 0.0187753, 0.0174692, -0.1300431, -0.0105967, -0.0973862, -0.0694902, -0.0351291, 0.0124986, 0.0514105, 0.0160245, 0.1018174, -0.0651885, 0.0167496, -0.0517657, 0.0697426, 0.0903088, 0.0054980, 0.1122324, 0.0329737, 0.0128365, -0.0613450, 0.0448036, -0.0561235, 0.1023978, 0.0042801, 0.1163059, 0.0107224, 0.0807694, 0.0515193, -0.0638812, -0.0127176, 0.0044497, 0.0017013, 0.0125398, 0.0039886, -0.0694744, 0.0167097, 0.0407011, 0.0163996, -0.0281509, 0.0798370, -0.0054419, 0.0184802, 0.0331182, 0.0216051, 0.0766501, -0.0061516, -0.0309243, -0.0008654, -0.0399150, -0.0280409, 0.0394128, -0.0676929, 0.1135314, -0.0117384, -0.0895505, -0.0538129, 0.0455194, -0.0492684, 0.0483486, -0.0295846, 0.0550197, 0.0036466, 0.0536912, 0.0699430, 0.0276897, -0.0230339, -0.0884151, -0.0815818, -0.0749862, -0.0227192, -0.0622402, -0.0329291, 0.0427946, -0.0760031, 0.0791061, -0.0904724, -0.0797776, 0.0023709, 0.0274246, 0.0902806, 0.1342975, -0.0424829, 0.0776815, -0.0276927, -0.0062981, -0.0223100, 0.0934291, -0.0957831, -0.0549176, -0.0440814, -0.0685909, -0.0843811, -0.0041976, -0.0644405, -0.0210856, 0.0528515, 0.0430763, 0.1127840, 0.0086579, 0.1072164, -0.0664473, -0.0054357, 0.0341175, 0.0294031, -0.0445409, 0.0090943, 0.0291592, -0.1270070, 0.0538668, -0.0457846, 0.0147355, -0.1676757, 0.0167725, 0.0890416, -0.0370264, -0.0263133, 0.0340348, 0.0272117, 0.0931900, -0.0352675, 0.0415807, 0.0450953, 0.0048848, -0.0108332, -0.0748169, -0.0069098, 0.0343428, -0.0242853, -0.0108592, -0.0582036, 0.0428123, -0.0878082, -0.0011596, -0.0158350, -0.0172515, -0.1543106, -0.0765293, 0.0627934, -0.0363249, 0.0261595, 0.0796376, -0.0245241, -0.0792897, 0.1332669, -0.0663382, -0.0239818, 0.1797682, 0.0518984, 0.0587026, -0.0040255, 0.0235655, 0.0271487, 0.0003948, 0.0249458, 0.0203789, -0.0355119, 0.0287059, -0.0729227, -0.0957777, -0.0453716, -0.0179549, -0.0455447, -0.1222580, 0.0882519, 0.0536288, -0.1246154, -0.0612926, -0.0508185, -0.0581091, 0.0383589, -0.0593916, 0.0939613, -0.0645756, -0.0023566, 0.0031795, 0.0889323, -0.0510262, 0.0282143, 0.0062773, -0.1413038, 0.0203971, -0.0477418, -0.0061227, -0.0173269, -0.0946972, 0.0325911, -0.0357477, -0.0028815, -0.0019351, 0.0071005, 0.0596209, -0.0591463, -0.0772492, -0.0074738, -0.0152775, -0.0609698, 0.0587030, -0.0381133, -0.0257481, 0.0621254, 0.0127878, 0.0012371, 0.0330863, 0.0129128, -0.0065022, -0.0720106, -0.0602692, -0.0132234, -0.0046363, -0.1212253, 0.1169974, 0.0086697, -0.0383182, 0.0068737, 0.0596095, -0.0799371, -0.0238044, -0.0848680, 0.0902994, -0.0591054, -0.0107838, -0.0017786, -0.0084185, -0.1163410, 0.0078447, -0.0475525, 0.0082733, 0.1107517, 0.0033640, -0.0354341, -0.0433858, -0.0294678, -0.0418848, 0.0839073, 0.0992780, -0.0400907, -0.0258729, -0.0619959, 0.0267376, -0.0547326, 0.0895600, 0.0161694, 0.0113273, 0.0241449, -0.0446348, -0.1173385, -0.0183805, -0.0893592, -0.0115634, -0.0995937, -0.0302809, -0.0784499, -0.0406513, 0.0515043, -0.0563727, -0.0558287, 0.0093157, -0.0061340, -0.0532277, -0.1014066, 0.0241209, -0.0136457, 0.1123869, 0.0158214, -0.1271883, 0.0294665, -0.0214321, -0.0599371, -0.0820984, -0.0393490, -0.0334488, 0.0288318, 0.1162911, -0.0319837, 0.0880047, -0.0379706, -0.1174701, 0.0239680, -0.0925212, -0.0292866, -0.0091771, 0.0771015, 0.1211279, -0.0065645, 0.0875094, 0.0619526, -0.0150349, 0.0308573, 0.0889575, -0.0419817, -0.0312426, -0.0482542, 0.0994023, 0.0514528, 0.0282578, -0.0436708, -0.0151634, -0.0027240, 0.0497411, -0.0158786, -0.1614593, 0.0910968, 0.0249942, 0.0643504, 0.0166264, -0.0071323, 0.0932952, -0.2747135, -0.0349610, -0.0552037, 0.0031604, -0.1282331, -0.0927837, 0.0986353, 0.0281633, 0.0063985, -0.1621981, -0.0155123, -0.0093029, 0.1047290, 0.1010948, 0.0033197, -0.0034993, 0.0144174, -0.0146897, -0.0125057, 0.0433927, 0.0167440, -0.0820490, -0.0748175, -0.0183275, -0.0113321, 0.0303466, 0.0048052, 0.1154091, -0.0933049, 0.0686356, 0.0429962, 0.0072553, -0.0131940, -0.0601338, -0.0165756, -0.0468569, -0.0543819, -0.0671208, -0.0143625, -0.0947731, -0.0562360, -0.0304818, -0.0293001, -0.0449218, 0.0063099, 0.0230434, 0.0597222, -0.0227330, -0.0107182, 0.0371040, 0.0082453, -0.0262386, -0.0314087, -0.0913477, 0.0456085, -0.0858105, 0.0829116, -0.0566617, -0.0094463, 0.0551807, 0.0498608, -0.1521826, -0.0070820, 0.0017414, -0.0291225, -0.0279662, -0.1203323, 0.0187271, 0.0815631, 0.0089709, 0.0024665, -0.0292113, 0.0025915, 0.0800901, 0.0097406, -0.0220602, 0.0787421, -0.0797936, -0.0725405, -0.0426500, -0.0416965, 0.1123307, -0.0774457, -0.1074293, 0.0302157, -0.0558355, 0.1429798, 0.0369694, 0.0401093, 0.0241650, 0.0409935, 0.0231598, 0.0326725, 0.0335636, 0.1007179, -0.0313203, -0.1497445, 0.1090637, 0.0376897, 0.0051754, 0.0965039, 0.0756551, 0.0308193, 0.0737931, -0.0704279, 0.0888869, -0.0400045, 0.0017492, -0.0419493, 0.0797376, 0.1064766, -0.1740404, -0.0231742, -0.1199230, -0.0869275, -0.0788462, 0.0531234, -0.0519192, -0.0562115, -0.0630490, -0.0038625, -0.0546521, -0.0166800, -0.0502892, -0.0277187, 0.0284186, 0.0826793, -0.0333515, -0.0249360, -0.0199680, 0.0247699, 0.0154429, 0.0736717, 0.1392771, -0.0602208, -0.0507105, 0.0711920, -0.0644230, 0.0325118, -0.0171120, -0.0728702, -0.0396633, 0.0137608, -0.0239226, -0.0028447, -0.1062368, -0.0091239, 0.0298862, 0.0163059, 0.0341494, -0.0921067, 0.0036556, -0.0185335, 0.0168700, -0.0374173, -0.0904984, -0.0473933, 0.0962897, -0.0213763, 0.0248845, 0.0283725, -0.1653111, -0.1242484, -0.0254809, 0.0717775, -0.0889864, -0.0845639, 0.1310237, 0.0215565, -0.0669458, 0.0490299, -0.0543236, 0.0139030, -0.0557804, -0.0920327, -0.0567628, -0.0609600, 0.1146406, 0.0053321, -0.1679732, 0.0953672, 0.0661868, 0.0324413, 0.0623011, -0.0637370, 0.1238247, -0.0118307, 0.0724005, -0.0069875, -0.0227286, -0.1116056, 0.1178826, 0.0876020, 0.1000031, 0.0885050, 0.0515604, -0.0295281, 0.0216188, 0.0119840, -0.0410289, 0.0684259, 0.0122144, 0.0175995, 0.0123761, 0.0404266, 0.0283286, 0.0664807, -0.0986997, -0.0848645, 0.0689624, 0.0664368, 0.0218830, 0.1650399, 0.0611888, -0.1182590, 0.0005791, -0.0751759, 0.0490004, 0.0530129, 0.0511431, -0.0607106, 0.0078289, -0.0133973, -0.0216985, 0.0114678, 0.0249455, -0.0930288, 0.0350648, -0.0258580, -0.0976475, 0.0318992, 0.0906217, -0.0332248, -0.0423873, -0.0162063, 0.0485594, 0.0379319, 0.1037114, 0.0849907, 0.0149765, 0.0593026, -0.0501551, 0.0703491, 0.0202185, 0.0201827, -0.0633508, -0.0517712, -0.1478316, 0.0848323, 0.1424161, 0.0206941, -0.0220089, -0.0184383, 0.0621376, 0.0044070, -0.0210308, -0.0295036, -0.0179528, 0.0600993, 0.0399058, -0.0119024, -0.0227069, -0.0080306, 0.0536138, 0.0740081, -0.1483289, 0.0637721, 0.0640310, -0.0260990, 0.0078318, -0.1081026, -0.0736545, -0.0943050, -0.0773036, -0.0643381, 0.1261092, 0.0268083, 0.0567866, -0.0889167, 0.0091541, -0.1282735, -0.0474216, 0.0564027, 0.0419960, 0.0213500, -0.0407623, 0.0046094, -0.0368931, -0.1191713, 0.0508054, 0.0202869, -0.1182679, 0.0230792, 0.0094148, -0.0395426, -0.0456787, 0.0853099, 0.0335774, 0.1163076, 0.0101392, 0.0791212, 0.0353583, 0.0548674, -0.0252879, 0.0057195, 0.0194180, 0.0623822, -0.0376227, 0.1340783, -0.0746001, -0.0560695, 0.1213515, -0.0158388, -0.0046337, 0.0021906, -0.0103970, -0.0109689, -0.0014206, -0.0286160, 0.0987088, -0.1234807, 0.0291914, 0.0325664, 0.0073643, -0.1150536, -0.0296377, 0.1129191, -0.0122091, 0.0186693, -0.1458742, 0.0649397, -0.0696574, -0.0398671, 0.0034983, -0.0157330, -0.0421288, 0.0917691, 0.0532341, 0.0157319, -0.1098338, 0.1848041, 0.0433997, 0.1298382, -0.0929004, -0.0290184, -0.0690447, 0.0329625, 0.0364051, 0.0389596, -0.0104868, 0.0629095, 0.1115446, -0.0762621, -0.0145487, 0.0932682, 0.0685284, 0.1325897, 0.0643499, 0.0389425, 0.0934169, 0.1034407, -0.0283151, -0.0252323, 0.0743447, 0.0667306, -0.0239308, -0.0606148, 0.0416116, 0.0796564, -0.0265757, -0.0186953, 0.0861940, 0.0513121, -0.1084784, 0.0368496, -0.1824027, 0.0593272, 0.0006946, -0.0416414, -0.0567445, 0.0585172, 0.0662237, 0.0201043, 0.0387195, 0.0325585, -0.0711753, 0.0189160, -0.0002800, -0.0063770, -0.0267069, 0.0369791, 0.0721675, -0.0532192, -0.0277920, 0.0289507, 0.0603616, 0.0124295, -0.0027363, -0.1538968, -0.0502655, -0.0425930, 0.0768116, -0.0483863, -0.0130811, -0.0512910, -0.0283343, 0.0776441, 0.0279021, 0.0804531, 0.0862737, -0.1225888, -0.0030538, -0.0035906, -0.0246469, 0.0133873, 0.0856277, -0.0186324, -0.0312897, -0.0225475, -0.0069754, -0.0289040, -0.0628654, 0.0806810, 0.0595226, 0.0541124, -0.0493566, -0.0545856, -0.0261665, -0.0166988, 0.0056404, -0.0098082, 0.0147062, -0.0151152, 0.0485774, -0.0951693, -0.0271357, 0.0043780, 0.0189430, -0.0702206, 0.0021387, 0.0339177, -0.0334854, 0.0129580, 0.0278964, 0.0517911, -0.0297221, -0.0045869, -0.0142133, 0.0208036, -0.0842701, 0.0047998, 0.0098833, 0.0015137, 0.0198631, 0.0054331, 0.0644331, -0.0982648, 0.0272515, -0.0288815, 0.0179562, 0.0535571, 0.0072016, 0.0265405, 0.1082852, -0.0603523, 0.0133742, -0.0663627, -0.0760409, 0.0642986, 0.1076804, 0.0084034, 0.0532115, -0.0548397, -0.0552653, 0.0768042, -0.1073695, 0.0188535, 0.0073627, 0.1145683, -0.0567757, 0.1085145, -0.0113830, 0.0439478, 0.0000888, 0.0741739, 0.0398354, 0.0406454, 0.0927389, 0.0309495, 0.0196828, -0.0021635, -0.0627960, -0.0375588, -0.0002961, 0.0100857, -0.0998759, 0.1164779, 0.0094573, 0.0072632, 0.0070789, -0.0496480, -0.0577949, -0.0234762, -0.0556481, -0.0136578, 0.0238637, -0.1328371, -0.0212815, -0.0374461, 0.0385136, 0.0074968, -0.0451418, 0.0584633, 0.0950578, -0.0020677, -0.0583520, -0.0472387, -0.0538397, -0.0235207, 0.0038832, -0.0876043, 0.0324706, -0.0625457, 0.0418443, -0.1554158, -0.0988817, -0.0838032, -0.0032726, 0.0569043, 0.0103385, 0.0224293, 0.0392378, 0.0598750, 0.0115813, 0.0054114, 0.0280504, -0.0136807, 0.1266660, -0.0519160, -0.0818503, 0.0559803, 0.0371944, 0.0159201, -0.0572694, -0.0339009, -0.0672573, -0.0540913, 0.1019701, -0.0028394, 0.0212536, -0.0171777, 0.0904050, 0.0141376, 0.0416310, 0.0168322, 0.0940135, -0.0990741, 0.0946299, 0.1251547, -0.0809807, 0.1316697, -0.0728855, -0.0037748, -0.0593948, 0.1180927, 0.0684391, 0.0356939, 0.0601796, 0.0078617, 0.0301224, 0.1520027, -0.0396533, -0.0336521, 0.0376478, -0.0328054, 0.0214140, -0.0180445, -0.0293878, 0.0393001, -0.1264715, -0.2869584, 0.0997092, 0.2170742, -0.0212646, -0.0642178, 0.1402466, -0.1761609, 0.1151288, -0.0708460, 0.0275911, -0.0405083, -0.0546673, 0.0450371, 0.0013957, 0.0429405, -0.0109922, -0.0490476, 0.0884628, -0.0340197, 0.0305928, 0.0603733, 0.0435307, 0.0602133, 0.0029397, 0.0207201, -0.0039541, -0.0495107, 0.0180361, -0.0195643, -0.0342939, 0.1345891, -0.0601780, 0.1305154, -0.0764356, -0.1676727, -0.0231182, -0.1483564, -0.0777328, -0.0506574, -0.0444712, 0.0071926, -0.0089559, -0.0700721, 0.0163089, -0.0438841, -0.0392164, -0.0219638, -0.0318227, -0.0247852, -0.0114572, -0.0574377, -0.0032784, 0.0278221, -0.0159325, 0.0553591, 0.0869290, 0.0384527, 0.0069552, 0.0721125, -0.0235390, -0.0391165, 0.0845558, -0.0674550, -0.0190309, -0.0509978, -0.0902600, -0.0138006, -0.0030444, 0.0468140, -0.0171724, -0.0726028, -0.0461840, -0.0803093, 0.0751048, -0.0785400, -0.0300465, -0.0637231, 0.0079421, -0.0152542, 0.0482906, -0.0534724, 0.0344788, 0.0616280, -0.0337122, 0.1333729, 0.1072771, 0.0017413, -0.0211057, -0.0350797, 0.0158660, 0.0890782, -0.0293181, -0.0410019, -0.0076101, 0.0478604, -0.0846823, -0.1109014, 0.0144834, -0.0827763, 0.1005878, -0.0715597, 0.0725268, 0.0873391, 0.1530510, -0.0211151, 0.0156920, 0.0309531, 0.0148205, 0.0369875, 0.0323696, 0.0422216, 0.0556471, 0.0126062, 0.1026129, 0.0905657, 0.0623748, 0.0237540, 0.0616202, 0.0522316, 0.0601460, -0.0937411, 0.0701023, 0.0036365, 0.0001447, -0.1055441, 0.0051177, 0.0009016, -0.0067495, 0.0692232, -0.0651587, -0.0618706, 0.1237361, -0.0319095, -0.0862775, 0.0871915, -0.0570813, -0.1080371, -0.1709329, 0.0973516, -0.0048104, 0.0268965, -0.0141077, 0.0685796, -0.0169462, 0.0355265, -0.0649167, -0.0336591, -0.0493450, 0.0290906, 0.0594611, 0.0728782, 0.0145966, -0.0572481, -0.0147780, 0.0897116, 0.0379559, -0.0159204, -0.0273855, -0.0203622, 0.0508838, -0.0488958, -0.0137457, 0.0167546, -0.0160923, 0.0439165, -0.0238788, -0.1129860, 0.0115383, -0.0375741, 0.0344748, -0.0553290, 0.0046564, 0.0622491, 0.0544554, -0.0845912, -0.1120600, -0.0268195, -0.0494791, 0.0284575, -0.0416194, -0.0027077, -0.0093432, -0.0941876, 0.0342920, 0.0396953, -0.0229733, 0.0233360, -0.0332010, 0.0307327, -0.0029027, 0.0748496, -0.0076778, -0.0090962, -0.0002900, 0.0987854, -0.1424873, -0.0270274, 0.0431124, 0.0289036, -0.0265235, -0.0554338, 0.0076441, 0.0599819, 0.0574077, 0.1202273, -0.0342969, 0.1158594, -0.0138800, -0.0815874, 0.0356160, -0.0481806, -0.0595845, -0.1223967, 0.0576741, 0.0105769, 0.0008122, -0.0125220, -0.0607924, 0.0279448, 0.0375459, -0.0217480, -0.0588937, 0.0068093, -0.0554335, 0.0058491, 0.0667929, -0.0354764, 0.0715323, 0.0467919, 0.0737081, 0.0043432, 0.0815293, 0.0323407, -0.0599539, 0.0056439, -0.0043569, -0.0394721, 0.0429013, -0.0363571, -0.0122785, 0.0460353, 0.0323041, 0.1038030, 0.0341266, -0.0615386, -0.0055328, 0.0369795, -0.1217687, -0.0521908, 0.0489284, -0.0876525, -0.2157471, 0.0773053, 0.0271943, -0.0409186, -0.0275784, 0.0258561, 0.0138552, -0.0171810, 0.0170858, -0.0563778, 0.0044915, -0.0756718, -0.0251640, 0.0065265, 0.0584126, -0.0659342, -0.0005311, 0.0093549, 0.0589551, 0.0405227, 0.0654466, 0.1284516, 0.0237138, 0.0591378, 0.0116933, -0.0577654, 0.0423210, -0.0633919, 0.0103923, 0.0304229, 0.0387131, -0.0430028, -0.0695077, -0.0435490, -0.0952202, 0.0604742, 0.0149234, -0.0273778, -0.0386493, 0.0669489, -0.0447974, -0.0145377, 0.0237823, -0.0440548, 0.0097679, 0.0791912, -0.0598359, 0.0868413, -0.0435873, 0.0546647, 0.0908335, -0.0215362, -0.0477409, -0.0003728, 0.1106723, 0.1146030, 0.0352938, -0.0059735, 0.1228617, -0.0672630, 0.0470506, -0.0236745, -0.0044238, 0.0146736, -0.0225031, -0.1042231, -0.0365115, -0.0911602, 0.0217464, -0.0929430, -0.1148365, -0.0080161, -0.0526305, -0.0572836, -0.0174388, -0.0198037, -0.0063598, -0.0711238, -0.0334207, -0.0539966, 0.0401788, 0.0548549, 0.0054791, -0.0088138, -0.0105606, -0.0230246, -0.1082969, -0.0376668, 0.0230024, -0.0105792, 0.0231650, 0.0991075, 0.0398331, -0.1178599, -0.0463045, 0.0474807, -0.0817189, 0.0023186, -0.0647398, -0.0254270, 0.0670410, -0.0374493, 0.0361771, -0.0993274, -0.0051188, -0.0199727, -0.1031019, 0.0293728, -0.0209914, -0.0048089, 0.0210087, -0.0229959, -0.0060649, -0.0544400, 0.0523919, -0.0339188, -0.0053903, 0.0167235, -0.0887043, 0.0041220, -0.0571830, -0.0189173, 0.0610194, -0.1209109, -0.0913051, -0.0857421, -0.0280464, -0.0140862, 0.0114224, 0.1156025, 0.0136465, -0.0307564, -0.1502225, -0.0485087, 0.0902266, 0.0639828, 0.0749343, -0.0200418, 0.0205109, 0.0801913, 0.0041905, -0.1531297, 0.0075162, 0.0628604, 0.0573026, -0.0593604, -0.0231460, -0.0054609, 0.0452619, 0.0047753, 0.1155087, 0.0843379, -0.0249011, -0.0178172, -0.0241001, -0.0213992, -0.0253472, 0.0937818, -0.0774897, -0.0414243, 0.1103458, 0.0190986, 0.0426355, 0.0153351, 0.0797231, -0.0240468, 0.0363608, 0.0037663, 0.0049589, 0.0518407, 0.0320072, -0.0678355, 0.0838495, 0.0140493, 0.0260080, -0.0192837, 0.0052059, -0.0016018, 0.0241155, -0.0443781, -0.2231911, 0.0924274, -0.0963744, 0.1059643, 0.0871571, -0.0159798, 0.0276395, 0.0021211, -0.0801043, 0.1173340, 0.0286856, -0.0472255, -0.0349930, 0.0597725, 0.0371497, 0.0700121, 0.0236590, -0.0062136, -0.0429697, -0.0247549, -0.0476131, 0.0005049, -0.0733949, -0.0533086, -0.0794104, 0.0592910, 0.0536337, -0.0159409, 0.0669116, -0.0355162, -0.0455816, -0.0321977, 0.1433069, -0.0500087, -0.0847911, -0.0182432, -0.0308899, -0.1050055, 0.0212370, -0.0363186, 0.0151879, -0.0114830, -0.0568553, -0.1090894, -0.0216771, 0.0631050, 0.1111939, 0.0710412, 0.0886886, -0.0250526, -0.0834878, 0.0164546, 0.0188828, 0.1467266, 0.0689846, 0.0111792, -0.0355913, -0.0523254, -0.0021555, -0.0297330, -0.0353831, 0.0157834, 0.0374763, -0.0067061, 0.1232861, -0.0260484, 0.0090862, -0.0592235, 0.0745062, 0.0164687, -0.0336041, 0.0357941, -0.0410671, 0.0681525, 0.1314701, 0.0507004, 0.0569738, -0.0104154, 0.0307879, -0.0562733, 0.0251242, 0.1619367, -0.0456582, 0.0141334, 0.1309435, -0.0007410, -0.0953617, 0.0126902, 0.0200732, 0.0460863, -0.0590885, -0.0061000, -0.0855964, -0.0172182, 0.1525403, -0.0587828, 0.0366897, -0.0416914, 0.0232984, 0.0099914, 0.0539476, 0.0035610, -0.0111286, 0.0079553, 0.0127488, -0.0226769, 0.0248952, -0.0171330, 0.0438512, -0.0187337, -0.0373872, 0.0876283, 0.1124668, -0.1203299, 0.0582956, 0.0346650, 0.0630462, 0.0112983, -0.0436695, -0.1306851, -0.0317872, 0.0048729, 0.0406869, -0.0538868, -0.0522745, 0.0683141, -0.0238455, 0.0171028, 0.0872560, -0.0456990, 0.0622254, -0.0499285, -0.0405667, -0.0583911, -0.0280539, 0.0714372, -0.0630753, -0.0591842, 0.0536712, -0.0293447, 0.0757418, -0.0193438, 0.0229594, -0.1339385, 0.0330574, 0.2140481, -0.0266552, -0.1102407, -0.0302186, -0.0371222, -0.0083417, -0.0308546, -0.0063587, -0.0236059, -0.0234730, 0.0061307, 0.0209067, -0.1379821, 0.0331994, 0.0864754, -0.0738737, 0.0019822, 0.0837311, 0.0722461, -0.0224653, -0.0242712, -0.0008702, 0.1220803, -0.0271808, -0.0243075, 0.0412113, 0.0115711, 0.0446085, 0.1146095, -0.0884773, -0.0676031, -0.0454558, 0.0450070, 0.0073157, 0.0463950, 0.0684539, 0.0514742, -0.0728212, 0.0286959, 0.0220922, -0.0113957, -0.0415562, -0.0113395, -0.0283510, 0.1444057, -0.0685509, -0.0315840, 0.1289374, -0.1085652, -0.0660201, -0.1128015, 0.1211142, 0.1365611, 0.1061253, -0.0531598, 0.0305140, -0.1073742, 0.0277080, 0.0881992, 0.1700533, -0.0187753, 0.0868145, 0.0061158, -0.0275319, -0.0866813, 0.0153420, 0.0165698, -0.0386119, 0.0628289, 0.0234912, -0.1063421, -0.0534241, 0.0075441, 0.0438074, -0.0238547, -0.0376000, 0.0017799, -0.0258838, 0.0082288, 0.0773429, 0.0482086, 0.0868253, 0.0360209, -0.0225401, 0.0009482, 0.0069699, -0.0139338, -0.0416429, 0.0548384, -0.1291630, 0.0629720, -0.0380237, 0.0270059, -0.0235271, 0.0579841, -0.0503226, 0.0209834, -0.0838520, 0.0504983, 0.0086322, 0.0199285, -0.0189076, 0.0072642, -0.0770813, -0.0357298, -0.0008598, 0.0346921, -0.0295515, -0.0326137, 0.0123085, 0.1731213, -0.0813836, -0.0027438, -0.0031459, 0.0141967, -0.0361373, -0.0670415, -0.1093571, 0.0534012, -0.0084804, 0.0288929, 0.0519263, -0.0448292, 0.0582905, 0.1382124, -0.0235660, 0.0410211, 0.0372602, -0.0917755, -0.0303805, 0.0161475, 0.0802090, 0.0661569, 0.1135419, 0.0716606, -0.0303701, 0.0471026, 0.0050659, -0.0326773, -0.0782340, 0.1069345, -0.0061486, -0.0265412, -0.0561874, 0.0728196, 0.1091146, 0.0799667, -0.0581484, 0.0009068, -0.0940590, -0.0536977, -0.0144965, 0.0018476, 0.0107455, -0.0472640, 0.0022488, -0.0018800, 0.0639319, 0.0094090, 0.0545459, -0.1000943, -0.0717362, 0.0397950, -0.1213162, -0.0586596, 0.0642835, -0.0773711, -0.0409809, -0.1712116, 0.0031553, -0.0415958, -0.0103119, -0.0682882, 0.0518573, 0.0420219, -0.0550164, 0.0076481, 0.0085506, 0.0353571, 0.0716493, 0.0571125, -0.0423618, -0.0689164, 0.0235284, -0.0244459, -0.0265344, -0.0151968, 0.0546023, -0.0524589, 0.1220154, -0.0146417, 0.0451615, 0.0618486, 0.0500438, 0.0758365, 0.0690122, -0.0238597, 0.1119331, -0.0778883, 0.0057017, -0.0379566, -0.0071399, 0.0486132, -0.0180364, -0.0247050, -0.1039380, 0.0925715, -0.0318614, -0.0806316, 0.0161169, -0.0091265, -0.0026452, -0.0903103, 0.1017060, 0.0008763, -0.0656811, -0.0838170, 0.0425697, -0.0112031, 0.0479227, -0.0311387, 0.0869328, -0.0448674, 0.0592553, -0.0075569, -0.0038310, 0.0392537, 0.0471297, 0.0485752, -0.0817076, 0.0383859, 0.0694119, -0.0312050, 0.0222150, 0.0293202, 0.0175857, -0.0193427, -0.0470892, -0.0402978, 0.0771009, 0.0338302, 0.0350768, -0.0408413, 0.0030370, 0.0509328, 0.0723671, -0.0543334, -0.0050254, -0.0725345, 0.0241072, 0.0693408, 0.1393917, 0.1133302, 0.0107758, 0.0333996, 0.0599139, -0.0591278, 0.0385497, 0.0551424, 0.0210718, 0.0020083, -0.0338335, -0.0706362, -0.1007446, -0.0663829, 0.0559953, -0.0365662, 0.0137791, 0.0092730, 0.0415800, 0.0218232, -0.0354561, -0.0211325, -0.0140842, 0.1150043, -0.1514792, 0.0298007, 0.1115613, -0.0436530, -0.0544251, -0.0925737, 0.0382160, -0.0067211, -0.0238867, -0.0626693, 0.0706472, 0.0741686, 0.0174092, -0.0227395, 0.1175282, -0.0158297, -0.0416629, 0.0769852, 0.0343104, -0.0498460, 0.0953733, -0.0699463, -0.0729905, 0.0570757, -0.1067555, 0.0636466, -0.0781596, 0.0314461, -0.0238320, -0.0530847, -0.0043653, -0.0797224, -0.0124212, 0.0513660, -0.1072921, -0.0149938, -0.0548364, 0.1088532, 0.0269832, 0.0062891, 0.1185524, 0.0423820, -0.1325469, -0.1135216, 0.0574751, 0.0279277, -0.0431684, 0.0979230, -0.0323072, 0.0884201, -0.0073184, -0.0928799, -0.0140243, 0.0661321, 0.1851392, 0.0367834, 0.0849491, -0.1328639, 0.1159500, -0.1085440, 0.0692886, -0.0285757, 0.0757791, 0.0633738, 0.0503027, 0.0001043, 0.0095194, -0.0058820, 0.0115278, 0.0553260, -0.1118823, -0.0229922, 0.0169032, 0.0004242, -0.0460862, 0.0323012, 0.0193540, -0.0435361, -0.0105364, 0.0547069, 0.0455957, -0.0453479, -0.0176615, 0.1103865, -0.0386949, -0.0738026, -0.0200690, 0.0325569, 0.0859760, -0.0552595, -0.0688075, 0.0179698, -0.0118706, -0.0498291, 0.0496794, 0.0307038, -0.0085799, 0.0849673, -0.0565434, -0.0644988, 0.0186394, 0.0129714, -0.0772088, 0.0483767, -0.0254988, 0.0752994, -0.0369502, 0.0428245, -0.0033504, 0.0275082, -0.0418368, -0.1659710, -0.0358253, -0.0067454, 0.0472893, 0.0423395, -0.0177393, 0.0251134, -0.0237280, -0.0833826, -0.0278497, 0.0255168, -0.0046358, -0.0325624, 0.0470924, 0.0121834, 0.0752204, -0.0151027, -0.0153841, 0.0701574, 0.0982743, 0.0267696, -0.0448799, -0.0875633, -0.0476478, -0.0594638, -0.0048505, -0.0868190, -0.0218426, 0.0900002, -0.0933107, -0.0296532, -0.0612119, 0.0713617, 0.0863587, -0.0975944, -0.0038856, 0.0253256, 0.0737441, 0.0289432, -0.0070004, -0.0424722, 0.0003663, -0.0127777, -0.0713193, 0.0240832, -0.0378662, 0.1262886, -0.0014841, 0.0083510, 0.1330036, 0.0424427, 0.0053707, 0.0366968, -0.0321397, -0.0065784, 0.0317472, -0.0037048, -0.0681010, 0.0092918, -0.0778204, 0.0438450, -0.1240104, -0.0039853, -0.0355528, -0.1310729, -0.0251294, -0.0584697, -0.0597020, -0.0075755, 0.0970637, -0.0694748, 0.0678977, 0.0177663, -0.0565872, -0.0321410, 0.0616244, -0.0058440, 0.0454650, -0.0820937, -0.0260476, -0.0586939, -0.0867307, -0.0289003, -0.0645821, 0.0679194, -0.0096815, 0.0524154, -0.0881958, -0.0390492, -0.0400457, -0.0923223, 0.0347675, 0.0534082, -0.0865178, -0.0724463, -0.1283011, 0.0290965, -0.1699816, -0.0326889, 0.1436873, 0.0539997, 0.0309059, -0.1141393, 0.0314895, -0.0218044, -0.0088931, 0.0132809, -0.0222461, 0.0377748, -0.0266391, 0.0186513, -0.0562329, -0.0915330, 0.0380200, 0.1369285, 0.0866017, 0.0546490, -0.0012540, 0.0541111, -0.0497886, -0.0329516, -0.1315559, -0.0665354, -0.0030518, -0.0736091, -0.0858362, -0.0091364, -0.0669246, -0.0215408, -0.0384857, -0.0318105, 0.0327285, 0.0430392, 0.0132771, 0.0172331, -0.0355705, 0.0042326, -0.0497250, 0.0890847, -0.0104270, 0.0021717, 0.0966307, 0.0128769, -0.0305732, 0.0519536, 0.0030628, -0.0195715, 0.0765043, 0.1130358, 0.0235529, 0.0820632, 0.0965513, 0.0808738, -0.1553965, -0.0538776, -0.0466724, 0.0333790, 0.0321553, -0.0482490, -0.0004783, -0.0402607, -0.1311842, -0.0177583, -0.0110701, 0.0164289, -0.1158721, -0.0031244, -0.0734208, 0.0979626, 0.0141446, 0.0495900, -0.0076625, 0.0383440, 0.0444647, -0.0537747, -0.0424615, 0.0696502, -0.1615751, 0.0522754, 0.1139243, 0.0144325, -0.0235921, -0.0021401, -0.0155457, 0.0022714, 0.0346895, 0.1082885, 0.0609865, -0.1175657, 0.0168208, -0.0655567, -0.2745456, 0.1587575, -0.0904521, -0.0566061, 0.0390781, 0.0432825, 0.1560296, 0.0834074, -0.1241070, 0.0084124, -0.0499661, 0.1375989, -0.0219484, -0.0006996, -0.0946899, 0.0360570, 0.0404622, -0.0259643, 0.0416565, -0.0373309, -0.0159031, -0.0387547, -0.0072050, -0.0824369, -0.0060042, 0.1459994, -0.0376623, 0.0091719, -0.0067554, 0.0271379, 0.1183051, -0.0390558, -0.0273355, 0.0244838, -0.0997400, -0.0257638, -0.0481372, -0.0229366, -0.0930129, -0.0534620, 0.0463616, -0.0280625, 0.1417065, -0.0408445, 0.0200483, 0.0172215, -0.0268545, -0.0891319, -0.0402478, -0.1050221, -0.0568019, 0.0219536, 0.0682630, -0.0299026, -0.1100981, -0.0245804, -0.0789576, -0.0258501, -0.0787993, 0.0014158, 0.0575717, -0.0810272, -0.0331991, -0.0014131, 0.0641591, 0.0225857, -0.0267843, 0.1194095, 0.0707117, -0.0143528, 0.0578033, 0.0508264, -0.0158173, -0.1505003, -0.0375689, -0.0606935, 0.0872233, 0.1292181, 0.0105060, 0.0406376, -0.0543883, 0.1278385, 0.0356553, -0.0704306, -0.0054529, 0.0125950, 0.0278979, 0.0007334, 0.0191731, 0.0449181, -0.0125233, 0.0267754, -0.0037158, 0.1771027, -0.0616799, -0.1169959, 0.1000464, 0.0225331, -0.0456001, -0.0252824, -0.0132234, -0.0377912, 0.0757705, 0.0232909, -0.0265846, -0.0594486, -0.0074300, 0.1310572, 0.0516633, -0.0042596, 0.1620687, -0.0589941, -0.0159529, -0.0308623, -0.0208265, 0.0962758, -0.0166642, -0.0593746, 0.0298078, 0.0365336, -0.0169317, 0.0988510, 0.0099161, -0.0633462, 0.0275187, 0.0695383, 0.0028278, 0.0581838, -0.0137121, 0.0497140, -0.0124494, -0.0469390, 0.0140363, -0.1236775, -0.0115303, 0.0814810, 0.0776203, -0.0744963, 0.0466139, 0.0734604, -0.0274260, 0.1021669, -0.0670859, 0.0651528, 0.1030394, 0.0408090, -0.1096460, -0.0133068, 0.0062875, 0.0042934, 0.0234062, 0.0139834, 0.0279247, 0.0274080, 0.0432279, -0.0906581, -0.0550109, 0.0573009, -0.0337991, 0.0755378, -0.1056516, -0.0272298, 0.0056013, -0.0985302, 0.0417087, 0.1245648, 0.0724650, 0.0525750, 0.0056659, 0.0158254, 0.0149487, -0.1204577, -0.0407208, -0.0320290, -0.0157564, -0.0425730, -0.0638969, 0.0253398, 0.0694700, -0.0929716, 0.0231429, 0.0497896, -0.0645593, 0.0521800, -0.0414576, 0.0535052, -0.0664204, -0.0062896, 0.1071789, -0.0611264, 0.1058249, -0.0214239, 0.0152927, 0.0170231, 0.0038946, -0.0277155, -0.0125807, 0.0408696, -0.0218636, 0.0643450, 0.0686289, 0.0597878, -0.0480848, -0.0654742, -0.1063308, 0.0808217, -0.0045744, -0.0002100, -0.0105855, -0.0601854, -0.0480757, -0.0227562, -0.0712365, -0.0719946, -0.0600565, -0.0646824, -0.0559250, 0.0182158, -0.0135915, 0.0604122, -0.0554917, -0.0259281, 0.0086912, -0.1113404, -0.0535358, -0.0705708, -0.0843932, -0.1070644, -0.0145709, -0.0895486, -0.0378760, 0.0281812, -0.1083523, 0.0184356, 0.0686667, 0.0228342, -0.0388486, 0.0432096, 0.0670797, -0.0306811, -0.0533328, 0.0138460, 0.0314838, 0.0442112, 0.0488199, -0.0108009, 0.0164611, -0.0688229, 0.1173350, 0.0271761, 0.0398779, 0.0076550, -0.0560420, 0.0534567, 0.0024146, -0.1201861, -0.1414932, 0.0699494, -0.0817996, -0.0504633, 0.0084588, 0.1087932, 0.0744824, 0.0416885, 0.0297356, 0.0920990, 0.0517199, -0.0465102, 0.0224780, 0.1169711, -0.1530370, -0.1725173, -0.0319133, 0.0101457, 0.0366792, 0.0438824, 0.0480473, -0.0036430, -0.0244765, 0.0008799, -0.0428812, 0.0413248, -0.0279288, -0.0640381, -0.0992153, -0.0943752, 0.0004279, -0.1146123, 0.0144434, -0.0393525, 0.0818051, 0.0465749, -0.0359693, 0.0204462, 0.0344831, -0.0300932, -0.1346715, -0.0137148, -0.1183651, -0.0730937, -0.0493789, -0.0091382, 0.0721415, -0.0073496, 0.0548104, 0.1295241, 0.0217443, -0.0245049, -0.0545768, 0.0119985, -0.0166543, 0.0024498, -0.0256645, 0.0005563, 0.0388264, 0.0739330, 0.0854879, 0.0812162, -0.0016812, 0.0432659, 0.0668581, -0.0012499, 0.0350462, 0.0666123, 0.0667875, 0.0756189, -0.0764667, -0.0122438, 0.0513981, -0.1269422, -0.0756982, 0.0032551, -0.0538479, -0.0950133, 0.0319701, -0.0102310, 0.0737048, -0.0491821, -0.0274306, 0.0615895, 0.0015208, -0.0132690, 0.0153249, 0.0361767, -0.0150713, -0.0966754, -0.1006317, 0.0508052, 0.0405799, 0.0560034, 0.1983747, 0.0033431, -0.0453597, -0.0053038, 0.0900720, -0.0115582, -0.0136389, -0.0013405, -0.1345369, 0.0824396, -0.0918630, 0.0397064, 0.0997382, -0.0581339, 0.0835108, 0.0902327, -0.0564638, 0.0865071, 0.0681941, -0.0631823, 0.0425133, -0.0298857, 0.0134759, -0.0382433, -0.0436505, -0.0510323, 0.1629794, -0.0304984, 0.0697473, 0.1018201, 0.0175164, 0.0598722, -0.0377775, 0.0004581, 0.1025976, 0.0598039, 0.0377899, 0.0021810, -0.0706762, -0.0142353, -0.0777744, 0.0165553, 0.0505827, 0.0072449, -0.0929369, 0.0181268, 0.0248232, -0.0821843, -0.0023957, 0.0617322, -0.0331268, -0.0357034, -0.0511825, 0.0056077, 0.0171785, -0.0910577, 0.1069663, 0.0020721, 0.0238111, -0.1266771, 0.0315524, 0.0009359, 0.0456875, 0.0023763, 0.0499554, -0.0108790, 0.0658027, -0.0412665, -0.0883556, 0.0139280, 0.0175162, -0.0144012, -0.0505062, -0.0130119, -0.0139029, 0.0145975, -0.1186726, -0.0411732, 0.0937507, -0.0310314, -0.1201632, -0.0396957, 0.0421843, 0.0268129, 0.0324274, -0.0702920, 0.0228968, -0.0218976, 0.0803520, -0.0360143, 0.0168866, -0.0123525, -0.0719078, -0.0331678, -0.0146551, -0.0839892, 0.0685068, 0.0011628, 0.0420655, 0.0846924, -0.0727598, -0.0207587, -0.0077963, -0.0698449, -0.0535923, -0.0340249, 0.0137010, 0.0669680, -0.0628957, -0.0462145, 0.0583088, 0.0802198, -0.0367278, 0.1332304, 0.0124143, -0.0887462, 0.0115640, 0.0508739, 0.0272401, 0.0347142, -0.1070806, -0.0144962, 0.0440177, 0.0488487, 0.0775730, -0.0936661, 0.0661239, 0.0338897, -0.0386091, -0.1236285, 0.0648742, 0.0830698, 0.0466839, -0.0135423, 0.0155731, 0.0781122, -0.0078574, -0.0034744, 0.0851330, 0.0000925, -0.0564314, 0.0049479, 0.0154422, -0.1005292, -0.0674432, -0.0364728, 0.0996282, -0.0897403, -0.0318284, -0.0272363, -0.0220158, 0.0357115, -0.0477247, 0.0433107, 0.0633932, 0.0327046, -0.0297465, 0.0268663, -0.0380317, -0.0085569, 0.1106570, 0.0296821, -0.0200090, -0.0333956, 0.0472911, 0.0816701, -0.0881419, 0.0477722, 0.1215487, -0.1432995, -0.1736050, 0.0067049, 0.0095711, -0.0250972, -0.0011655, 0.1212935, -0.0029877, 0.0113144, -0.0518665, 0.1486368, 0.0567129, 0.0047067, 0.0167073, -0.0522832, -0.0643043, -0.0723743, -0.0951324, -0.1194931, -0.0602444, -0.0101850, -0.0063484, -0.0599023, -0.0887428, -0.0195930, 0.0162215, 0.0263033, -0.0406239, -0.0141705, -0.0452480, -0.0001478, -0.0426071, -0.0187080, -0.0841287, -0.0363868, -0.0400905, -0.0268799, -0.0932216, -0.0247364, -0.0420766, -0.0998233, -0.0564423, -0.0068499, -0.0609214, 0.0810493, 0.0130211, 0.0264802, -0.0237700, 0.0187433, -0.0671512, 0.0085909, 0.0211713, 0.0443099, 0.1550756, -0.0075073, -0.0439751, -0.0671684, 0.0278112, -0.0097897, -0.0008254, -0.0495919, 0.1240268, -0.0214185, 0.0183480, -0.0267096, -0.0157486, 0.0946612, -0.0264107, -0.0162884, -0.1037781, 0.0775199, -0.1378213, 0.0109764, 0.0808151, -0.1308921, 0.0041369, -0.1190920, -0.0191311, 0.0145708, 0.0147683, -0.0769314, -0.0397356, 0.0722011, -0.0755330, -0.0316610, 0.0322162, 0.0801506, -0.0069257, 0.0251701, 0.0520179, 0.0962575, 0.1461597, -0.1171288, 0.0168254, -0.0639842, 0.0041572, -0.0031417, -0.0593982, -0.0538273, -0.0966418, 0.1007686, 0.0794049, 0.0321620, -0.0016075, -0.0343798, 0.1034802, 0.0251333, 0.0796393, 0.0470144, -0.0735880, 0.0586925, -0.0333264, 0.0052303, -0.0383204, 0.1316929, -0.0517388, -0.0949679, 0.0083352, 0.1191854, 0.0442027, 0.1123120, 0.0269224, 0.0115818, 0.0154999, 0.0358367, 0.0285371, 0.0028089, 0.0299318, -0.0569082, 0.0258362, 0.0341354, -0.0143344, 0.0471523, -0.0009764, -0.0100537, -0.0716850, 0.0384088, -0.0024608, 0.0616240, 0.0177993, -0.0472901, -0.0149743, 0.0110263, 0.1061234, -0.0041815, -0.1323060, 0.0359178, -0.0256328, -0.0592931, 0.1191089, -0.1091688, 0.0035045, -0.0544460, -0.1078015, 0.0054002, -0.1383002, -0.0153516, -0.0748381, 0.0939478, 0.0872311, -0.1125743, -0.0485152, -0.0293002, -0.0096197, -0.0151404, 0.0833572, 0.1208594, -0.0165731, 0.1344996, 0.0528991, -0.0009061, -0.0690160, -0.0090081, 0.0460802, -0.0243195, -0.0362331, -0.0286426, 0.0492550, 0.0591393, -0.0973135, 0.0028143, -0.0977618, -0.0811432, -0.0716471, -0.0607635, -0.0193287, 0.1033876, 0.0286467, 0.0918430, -0.0236669, -0.0257615, 0.0446973, -0.0454616, -0.0176807, 0.0705996, -0.0669468, -0.1078443, -0.0797316, -0.0120678, 0.1072653, -0.0272361, 0.1022776, -0.1151767, 0.0291442, 0.0776010, 0.0077495, 0.0443500, -0.0176853, 0.0122755, 0.1608985, 0.0709483, -0.0109532, 0.0345560, 0.0896116, 0.0055503, 0.0044779, -0.0749424, -0.1003279, 0.0021331, 0.0688865, -0.0224841, -0.0515539, 0.0759026, 0.0557268, -0.0729649, -0.0030980, -0.0638599, -0.0376550, 0.0551475, -0.0064329, 0.0488478, -0.0860209, -0.0925902, -0.0630584, -0.0241620, -0.0955914, -0.0958624, 0.0313657, -0.0061200, 0.0402201, 0.0812331, -0.0073104, -0.0541981, 0.0436650, 0.0126017, -0.0699181, -0.0169778, 0.0953839, 0.0858012, 0.0240924, 0.1015135, 0.0237581, -0.1018579, -0.0452310, 0.0097617, -0.0544891, 0.0422713, -0.1380148, -0.0009314, 0.0323843, 0.1354343, -0.0480272, 0.1128511, 0.0449304, -0.0394276, 0.0005098, -0.1216308, -0.0162995, 0.1425190, 0.0489181, 0.0072253, -0.0500510, 0.0447646, 0.0106039, -0.0213183, -0.1514119, -0.0124074, -0.0383649, -0.0318880, -0.0292562, -0.0417792, 0.0626223, -0.1181100, 0.0991349, 0.0001536, -0.1181021, -0.0403139, 0.0586409, -0.1506763, 0.0321110, -0.0496460, 0.0032530, -0.0721881, 0.0047476, 0.0380551, 0.0294076, 0.0337900, -0.0310652, 0.0057520, 0.0728144, 0.0243154, 0.0553835, 0.0189109, 0.0984908, -0.0662394, 0.0562782, -0.0134158, 0.0241994, 0.0004646, -0.0252161, -0.0499587, 0.1098089, 0.0580753, -0.0617846, 0.0573077, 0.0327842, 0.0406541, -0.0289782, 0.0278356, 0.0362538, -0.0086594, -0.0327576, -0.1442769, 0.0032200, -0.1114768, 0.0702132, 0.0264819, -0.0261309, -0.0186090, -0.0196140, 0.0748228, -0.0386585, -0.0663566, -0.0206475, 0.0496311, -0.0401314, 0.1150247, -0.0525030, -0.1339117, -0.0504357, 0.0732819, -0.0399283, -0.0120946, 0.0348822, 0.0026018, -0.1243291, -0.0690483, -0.0457744, -0.0489391, 0.0052941, 0.0756460, 0.1786153, 0.0971040, 0.0147653, 0.0142239, -0.0879714, -0.0584021, 0.0486185, 0.0477871, 0.0434131, 0.0065148, 0.0339634, -0.0225578, -0.0396384, -0.1526464, 0.0200777, 0.0513789, 0.1251590, -0.0675525, 0.0350393, 0.0085058, 0.0550833, 0.0445383, 0.0030305, 0.0064876, 0.0373415, -0.0228648, 0.0286572, -0.0406399, 0.0175385, 0.1382776, -0.0280083, 0.0561046, -0.0300502, 0.1733989, 0.0231297, -0.1255227, -0.1265264, -0.0260967, 0.0303863, 0.0632995, -0.0920281, -0.0757505, -0.0722103, -0.0488903, -0.0177434, 0.0072833, -0.0462138, 0.0697906, 0.0668451, 0.2113760, -0.0425977, -0.0144938, 0.0036044, -0.0778198, 0.0552508, 0.0134882, -0.1280730, 0.0198655, 0.0009884, 0.0862566, 0.0512590, 0.0728696, 0.0546622, 0.0375384, 0.0744077, -0.0341396, -0.0039159, -0.0562375, -0.0800980, -0.0620768, -0.1113479, 0.0421815, 0.0269043, -0.0925774, 0.0421334, -0.0519797, 0.0737954, 0.0156896, -0.0096143, -0.0399907, 0.0448294, 0.0566434, -0.0107346, 0.0470545, -0.0060995, -0.0426085, -0.0096715, 0.0560409, -0.0229273, 0.0117195, -0.0312728, -0.0513889, 0.0012180, 0.1190257, 0.0328626, 0.0078787, 0.0696833, -0.0416149, -0.0560390, -0.0237814, 0.0386884, -0.0821647, -0.0331474, 0.0666786, -0.0032920, 0.0987331, 0.0497964, -0.0077409, -0.0139892, -0.0942451, -0.0515701, -0.0814803, 0.0605286, 0.0122194, 0.0050562, -0.0252525, 0.0242687, 0.0583603, -0.0377317, 0.0087219, -0.0210224, 0.0616066, -0.0326767, -0.0353380, -0.0699035, 0.0052342, 0.0586048, 0.0012709, 0.0441484, 0.0032795, -0.0282440, -0.0358838, 0.0383202, 0.0486349, 0.0474659, 0.0694900, 0.0595089, -0.0070403, 0.1186137, -0.0368988, 0.0860546, -0.0270157, -0.0313476, 0.0424091, 0.0279284, -0.0228160, 0.0836102, -0.0875761, -0.0082859, -0.0574259, -0.0676003, 0.0399101, 0.0231310, -0.0184105, -0.0208606, 0.0921551, -0.0887036, 0.0348882, 0.0761570, -0.0774557, 0.0044510, -0.0352293, -0.0814604, 0.0799538, 0.0170284, -0.0323052, -0.0524092, 0.0193159, 0.0181974, 0.0291062, -0.0278630, -0.0392563, 0.1585328, 0.0312837, -0.0339149, 0.0538972, 0.0168137, -0.0235726, 0.0022044, 0.0806506, 0.0304431, -0.0683874, 0.0090430, 0.0038938, 0.0089603, 0.0206262, 0.0305149, 0.0292870, 0.0240599, -0.0618196, 0.1598856, 0.0019370, -0.0187435, 0.0555816, 0.0881688, -0.0331975, -0.1264253, 0.0966445, -0.0891173, -0.0669110, -0.0715946, -0.0026573, 0.0158769, -0.0323292, 0.0255683, -0.0098771, -0.0147347, 0.0999177, 0.1035186, 0.0405592, 0.0531754, -0.0446106, -0.0048572, 0.0762834, 0.0501700, 0.0466424, -0.0457148, -0.0025640, -0.0286501, 0.0562237, -0.0602209, -0.0721852, 0.0384477, 0.0112481, 0.0258001, -0.0472252, 0.0412597, 0.0435973, -0.0558603, -0.0082499, -0.0542608, -0.0072680, -0.0481705, 0.0110105, 0.0758244, -0.0160604, -0.0762552, -0.0465700, 0.1000836, 0.0529211, -0.0271282, 0.0057364, 0.1446796, -0.0562850, -0.0646299, -0.0587695, 0.0038381, 0.0418519, -0.0357419, -0.0340078, -0.1178594, -0.0123957, 0.0490064, -0.0097646, -0.0443576, 0.0510745, -0.1183771, -0.1854160, 0.0438192, -0.0768955, -0.0149892, 0.0702017, 0.0304115, 0.0426969, 0.0313407, -0.0966878, -0.0175915, 0.0164310, 0.0495534, -0.0918192, 0.0638868, -0.0876635, 0.0310651, 0.0024558, 0.0539122, 0.0273196, 0.0201247, 0.0474138, -0.0451507, 0.0636884, 0.0672403, -0.1812977, -0.1657611, 0.0444745, 0.0768939, 0.0336758, -0.1195621, 0.0353548, -0.0256291, 0.0658538, -0.0523977, -0.1289517, 0.0784162, -0.0289877, -0.0267798, -0.0675874, -0.0690686, -0.0152395, 0.0853118, 0.1146255, 0.0393864, 0.0037748, 0.0517457, -0.0475384, -0.0736991, 0.0611229, 0.0135161, 0.0756047, 0.0480837, 0.0288832, 0.0607101, 0.0065736, -0.0369902, 0.0400784, 0.0734768, -0.1173182, -0.1439524, 0.0004015, 0.0252975, 0.0684583, 0.0481495, 0.1239620, 0.0099340, 0.0587026, -0.0044832, 0.0530782, 0.0161272, 0.0750543, -0.0004321, -0.1435751, -0.0360426, -0.0714700, 0.0110992, -0.1194362, 0.0249740, -0.0637949, -0.0051343, 0.0099064, 0.0023386, -0.0867744, 0.0313509, 0.0232711, -0.0694406, -0.0505514, -0.0140589, 0.0234976, 0.0283191, -0.0015437, 0.0120891, -0.0845002, -0.0352021, -0.0808648, 0.0996114, 0.0759900, 0.0659919, -0.0579526, 0.0869694, -0.0098040, -0.0005019, 0.0562663, -0.0305711, 0.1388226, -0.0081886, -0.0374073, -0.0698250, 0.0618286, -0.0504474, -0.0466279, 0.1262724, 0.0339940, -0.0305262, 0.0692137, -0.0243014, 0.0063935, -0.0137377, 0.1095737, 0.0160233, 0.0702327, -0.0186068, -0.0561743, -0.1099660, -0.0297765, 0.0305374, 0.0798736, -0.0450649, -0.0810759, 0.0306364, 0.0875387, -0.0135959, 0.0700650, 0.0672437, 0.0344367, 0.0500047, 0.0803860, -0.0175303, -0.0522168, 0.0659513, -0.0667891, -0.0677464, -0.0151595, 0.0604771, 0.0209874, 0.1146052, 0.0228484, -0.0068894, 0.0987878, -0.0242867, 0.0025187, 0.0409101, 0.0138915, 0.0216424, -0.0777095, 0.0231303, 0.0083048, 0.0520108, -0.0261181, 0.0591647, -0.0222710, -0.1064301, -0.1282645, 0.1385527, 0.0180753, -0.0677695, 0.0346560, -0.0573899, -0.0212942, 0.0377376, 0.0808060, 0.0748906, -0.0380581, 0.0658627, -0.0490998, -0.0014339, -0.0169401, 0.0289581, 0.1000819, -0.0698858, -0.0756445, -0.0476863, -0.0032708, -0.0363193, -0.0100553, 0.1103418, -0.0193525, 0.0292593, 0.0509254, -0.0440625, 0.0731962, -0.0459793, -0.0108045, -0.0204838, -0.0025596, 0.0212499, 0.1006560, 0.0319126, -0.0875468, -0.0079080, 0.1395318, 0.0836715, 0.0725526, -0.0682935, 0.0426950, 0.0139554, -0.0048244, 0.0985223, 0.0135874, 0.0000292, -0.0342958, 0.0024525, 0.1060791, -0.0928799, -0.0312389, 0.0614640, 0.0171986, -0.0403970, 0.0357412, -0.0242705, 0.0034346, 0.0072282, -0.0922943, 0.0029231, -0.1342484, -0.0152656, 0.0585645, 0.0823446, 0.0275449, 0.0243817, 0.2340384, 0.1228502, -0.0255116, -0.0113867, 0.1339241, 0.0384316, -0.0383114, 0.0909172, -0.0943477, 0.0985784, -0.0006773, 0.1096185, 0.0960484, -0.0920684, -0.0348892, -0.0067544, 0.0219276, -0.0649114, -0.0415790, 0.0416190, -0.1362535, 0.0068361, -0.1051844, 0.0183826, 0.0449245, -0.0460267, -0.0703596, 0.0950015, 0.0383162, -0.0812826, 0.1056224, -0.0133387, 0.0433888, 0.0346003, -0.0133748, -0.0634574, 0.0532806, 0.0110304, -0.0265678, -0.0603300, 0.0026984, -0.0016811, 0.1495909, -0.0306606, 0.0296796, 0.0115566, -0.0369505, 0.0075545, -0.0777053, 0.0092112, -0.0209680, -0.0660886, 0.0510573, 0.0126054, -0.0426449, 0.0441879, -0.0347363, -0.0884455, 0.0372040, -0.0620216, 0.0140753, 0.0827370, -0.0119875, 0.0985955, 0.1159664, 0.0621543, -0.0315579, 0.0992408, 0.0876736, -0.0066046, -0.0917162, -0.0732051, 0.0508831, -0.0177519, -0.0271047, -0.0254789, 0.0061083, -0.0513657, -0.0277877, 0.0330092, 0.0283569, 0.1128020, 0.0095713, 0.0458645, -0.0495117, 0.0157651, -0.0132016, 0.0504550, 0.0314934, -0.0401732, 0.0435604, 0.0689785, 0.0028765, -0.0892520, -0.0696910, -0.0847998, -0.0676442, -0.0633096, 0.0470763, 0.0110434, -0.0695155, 0.0377628, -0.0524962, 0.0697034, 0.0285916, 0.1118903, -0.0226456, 0.1044410, 0.0013274, 0.0304763, 0.0309664, -0.0975257, -0.0914769, -0.0212343, -0.0328288, 0.0054481, -0.0538491, -0.0735732, 0.0461532, -0.0473408, 0.0358184, -0.0046056, 0.0388040, 0.0201494, 0.0059243, 0.0165996, -0.0472283, 0.0466364, 0.0009417, 0.0505441, 0.0386462, 0.0388096, 0.0807574, -0.0126667, 0.1258094, -0.0089119, -0.0611748, -0.0344703, -0.0450220, -0.0442380, 0.0057749, -0.0686185, 0.0148373, -0.0930689, 0.1047558, 0.0715871, 0.0443856, 0.0516359, 0.0480183, -0.0106202, -0.0612367, -0.0530756, 0.0440297, 0.0134631, 0.0286884, -0.0450319, 0.0290321, -0.0409829, 0.0243729, 0.0892726, 0.0094135, -0.0922429, -0.0985739, 0.0300434, -0.0276419, -0.0298988, 0.1495466, -0.0954877, -0.0633000, -0.0695312, 0.0813418, 0.0358343, 0.0038249, -0.0826371, -0.0125904, -0.1615208, 0.0476111, -0.0503119, -0.0410652, 0.1065049, 0.0545583, -0.0352166, 0.1406404, -0.0372789, 0.0311657, 0.0319234, -0.0039448, 0.0183283, 0.0434904, 0.0462619, 0.0035992, 0.0663172, 0.0436958, 0.0102731, -0.1049218, 0.0317437, -0.0834833, 0.0330647, -0.0654806, 0.0068282, -0.0143034, -0.0696552, 0.0481180, 0.0846554, 0.0393497, 0.0161511, -0.0654819, -0.1064832, 0.0329472, 0.0498723, -0.0921598, -0.0794854, 0.0100194, 0.0242424, -0.0163323, -0.0167314, -0.0611601, 0.0119749, 0.0521011, -0.0493419, -0.0808813, 0.0340883, 0.0270883, 0.0242236, 0.0208475, 0.0689101, -0.1262414, -0.0194134, -0.0390026, 0.0126213, -0.0343813, 0.0822510, 0.0203715, -0.1511583, 0.0534843, 0.0202836, 0.0674910, -0.0232742, 0.1097089, 0.0035833, -0.0628668, -0.0009681, -0.0651338, -0.0156662, 0.0322798, 0.0473475, -0.0096113, 0.0096886, -0.1492153, -0.1253355, 0.1084542, -0.0715868, -0.0054409, -0.0040835, 0.0332400, 0.0044471, -0.0070308, -0.0132087, -0.0307006, -0.1118134, -0.0543796, 0.0967241, -0.0489099, -0.0818433, -0.0251021, -0.0434098, -0.1375251, -0.0540123, -0.0083419, -0.0221831, 0.0543656, 0.0062130, 0.0130043, -0.0100059, 0.0663608, -0.0371123, -0.1071403, -0.0648077, -0.0452017, -0.0806295, -0.0077318, -0.0168450, -0.0229507, -0.1004165, 0.0464606, -0.1274894, -0.0176890, -0.0660800, 0.0787951, -0.0229492, -0.0275238, 0.0578552, 0.0586786, 0.0419817, 0.0125624, -0.0941885, 0.0027086, -0.1069341, -0.0447737, -0.0841438, -0.0259322, -0.0517311, -0.0038393, 0.0778237, 0.0070510, 0.0286982, 0.0203426, 0.0310518, 0.0845900, -0.0108402, -0.0038675, 0.0519598, 0.0476117, -0.0231953, -0.0360089, 0.0244131, -0.0667068, -0.0378765, -0.0380328, -0.0151510, 0.0568606, -0.0128996, -0.0290641, -0.0215410, 0.0510036, 0.0373713, -0.0991018, -0.0058703, 0.0326175, -0.0743269, 0.0217535, 0.0734435, 0.0083260, -0.0380153, 0.0455854, -0.0363460, 0.0430201, -0.0060145, 0.0369388, 0.0229172, 0.1205368, 0.0473444, -0.0791926, -0.0438758, -0.0200276, -0.1100966, 0.0207912, -0.0150234, 0.0056433, 0.1194770, -0.0399967, -0.0957369, 0.0327999, 0.1192353, 0.1872607, -0.0176978, 0.0429331, -0.1462524, 0.0488438, 0.0288347, -0.0464931, -0.0039956, 0.1212635, -0.0064177, -0.0174849, -0.0077591, 0.0949898, 0.0230942, 0.0343655, 0.0326703, -0.2790349, 0.0739134, 0.0652548, 0.0156883, -0.0765869, 0.1037631, 0.0289686, 0.0078702, 0.1559953, 0.0783106, 0.0487159, 0.0510198, 0.0294765, -0.0250217, -0.0440629, -0.0505173, 0.0547533, 0.0934022, 0.0394344, 0.0638566, -0.0368474, -0.0481285, -0.0199727, -0.0434955, -0.1419771, 0.0134544, -0.0087920, 0.0139739, 0.0686663, -0.1038404, 0.0584542, -0.0383854, -0.0391097, -0.0248000, -0.0743690, -0.0089787, 0.0474110, -0.0305812, 0.0225575, 0.1180686, 0.0008356, 0.1074249, 0.0703720, 0.0068540, 0.0786705, 0.0748539, -0.0192807, -0.0746927, -0.0162755, -0.0320399, -0.1042965, 0.0341715, 0.0034310, 0.0202358, -0.0632196, -0.0433468, -0.0632997, -0.0567900, 0.0299529, 0.0139955, -0.0755914, 0.0106842, -0.0623886, -0.1324530, -0.0904035, 0.0236489, -0.0084403, 0.0915768, -0.1473933, 0.0682904, -0.0064371, -0.0426122, 0.0583540, 0.0343440, 0.0316009, -0.0687947, 0.0424196, 0.0787437, -0.0752298, 0.0813937, -0.0810641, -0.1111476, -0.0210106, -0.1112524, -0.0029007, 0.0307721, 0.0271933, -0.0967861, -0.0416957, 0.0227942, -0.0237622, 0.0597767, 0.0494201, -0.0332980, -0.0372646, 0.0326314, 0.0946932, -0.0007559, -0.0253105, -0.0772147, 0.0468030, 0.0139772, 0.0490273, -0.1223436, 0.0191394, 0.0255101, 0.0186209, -0.0070584, -0.0521379, -0.0443325, 0.1189555, 0.1037937, -0.0127914, -0.1142917, 0.0342631, -0.0945538, -0.0114786, -0.1023426, 0.0128924, 0.0783510, 0.1042048, 0.0168052, -0.0196163, -0.0136767, 0.0695241, -0.0628422, -0.0373020, -0.0090325, -0.0030754, -0.0016970, 0.0099493, -0.0457690, 0.0042172, -0.1048443, 0.0210131, -0.0702294, -0.0265514, -0.0625713, 0.0304301, -0.0002852, -0.0008380, 0.0144769, 0.0554919, 0.0352442, -0.0381273, 0.0556567, 0.0560936, 0.0343566, -0.0830915, 0.1314294, -0.1037643, 0.0390855, 0.0159411, -0.1092588, -0.0420738, 0.0792601, -0.0075388, 0.1046435, -0.0167141, -0.0547642, 0.0034020, 0.0150590, -0.0223234, 0.0027832, 0.1276180, 0.0433794, 0.1206901, -0.0135686, -0.1085404, -0.0136539, -0.0427757, -0.0735987, 0.0574935, -0.0425418, 0.1103746, -0.0861960, 0.0920699, -0.0413086, 0.0503963, 0.0659945, 0.0708229, 0.0094865, 0.0055293, -0.1080591, -0.0288736, -0.0437543, -0.0779234, -0.0132432, 0.0183183, -0.0088406, 0.0074587, 0.0150407, 0.0170788, -0.1162291, 0.0663089, -0.0563906, 0.0113726, -0.0053027, -0.0466025, -0.0602194, 0.1187028, -0.0051163, -0.0279291, 0.0252314, 0.1229946, 0.1907665, -0.1636505, -0.1362076, -0.0999697, -0.0085102, -0.0119887, 0.0204250, -0.0645266, 0.0339187, -0.0017611, 0.0523119, -0.0030862, 0.0404211, 0.0437625, -0.1518493, 0.0092837, 0.0342181, 0.0962584, -0.0569563, -0.0699878, -0.1004641, 0.0131816, 0.0366531, 0.0840813, -0.1209541, 0.0187356, -0.0663951, -0.0331000, -0.0076615, 0.0095299, 0.0839881, 0.0356274, 0.0295854, 0.0106370, 0.0426876, 0.1220606, 0.0639499, -0.0244249, 0.0896440, -0.0220696, -0.0077964, 0.0026006, 0.0767161, -0.0493952, 0.0323624, -0.0784568, 0.0108902, 0.0210643, 0.0122996, 0.0436038, -0.0129050, -0.0252273, 0.0532537, 0.0496886, -0.0938752, 0.0123750, 0.0590273, 0.0061372, 0.0327606, 0.0168148, -0.0789086, -0.0250627, 0.0289948, 0.0166825, 0.0570259, 0.0253574, -0.0503626, 0.0930728, 0.1265462, -0.0265311, -0.0373941, -0.0474396, -0.1064823, -0.0669480, 0.0414906, 0.1089931, -0.0045466, 0.1379131, -0.0177623, 0.0523159, -0.0045989, -0.0035571, -0.0159220, -0.0978559, 0.0237978, 0.0416306, -0.0999693, -0.0109996, -0.0248029, 0.1361048, 0.0787982, -0.1121099, -0.1299439, -0.0899970, -0.0220539, 0.0479260, -0.0493145, -0.0354935, 0.0306302, 0.0244531, 0.0314121, -0.0119336, 0.0120466, 0.0070401, 0.0669227, 0.0753629, -0.0488402, 0.0342334, -0.0705700, 0.0417532, -0.0510532, 0.0275564, -0.0314751, 0.0588368, -0.0623548, -0.1448378, 0.0455207, 0.0653082, 0.1185640, -0.1063732, 0.0187997, -0.0317899, -0.1030848, -0.0734542, 0.0457035, -0.0124660, 0.0594011, 0.0744726, -0.0346590, 0.0433954, -0.0408522, 0.1469026, 0.0387817, -0.1143961, 0.0455294, 0.0012407, -0.0633365, -0.0333076, 0.0160131, -0.0391313, -0.0133391, 0.1130183, -0.0347084, 0.0106423, -0.0439238, 0.0207336, 0.0106836, -0.1375688, 0.0212369, -0.0094947, 0.0389260, 0.0674540, 0.0692539, 0.0310707, 0.0673328, -0.0829479, -0.0133691, 0.0120420, 0.0404966, -0.0264091, 0.0175020, 0.0227377, 0.0291364, -0.1150991, -0.0579819, -0.0586557, -0.0455852, -0.0011821, -0.0582841, 0.0885210, -0.0535389, 0.0046461, 0.0417622, 0.0589134, -0.1454998, 0.0474493, -0.0287197, 0.0331901, 0.0389630, -0.0738407, 0.0161506, 0.0508220, -0.0130634, 0.0047865, 0.0718047, 0.0561963, -0.1082197, 0.0270513, 0.0680152, 0.0375887, -0.1270471, 0.0293267, -0.0566404, 0.0073452, 0.0917388, -0.0867195, -0.0696397, 0.0987525, -0.0126906, 0.0706305, -0.0550305, -0.0534668, 0.0122163, -0.0012405, -0.0169757, 0.0141937, -0.0520758, 0.1259158, 0.0330679, -0.0462539, -0.0048850, 0.1255841, 0.0050839, 0.0854913, 0.0384963, 0.0236915, 0.1035980, 0.0071342, -0.0862751, 0.0190644, -0.1165137, -0.0417621, 0.0198372, -0.0800947, 0.0774480, -0.0092214, -0.0871349, 0.0868666, -0.1328540, -0.2027713, 0.0116590, -0.1427931, -0.0175991, 0.0483680, 0.1369924, 0.0766498, 0.1076499, 0.0257661, -0.0460154, 0.0209533, -0.0335788, 0.0162858, 0.0525429, -0.0353806, 0.1340638, -0.0449848, -0.0264723, 0.0616105, 0.0094006, 0.0079033, -0.0355159, -0.0034495, 0.0467272, -0.0812709, 0.0235587, 0.0107205, -0.0707387, 0.0053835, 0.0191966, -0.0116150, -0.1264061, 0.0318607, -0.0222826, 0.0002089, 0.0286619, -0.0438430, 0.0398912, -0.0142946, 0.0353608, -0.1200392, -0.1013252, -0.0349610, -0.1003195, 0.0007393, -0.0125107, -0.0745858, -0.0444792, -0.1604677, 0.0534077, 0.0106481, 0.0406921, -0.0058158, 0.0081651, -0.0389005, 0.0741454, 0.1236540, -0.0152699, -0.0585602, 0.0104960, -0.0669437, -0.0803937, -0.0508802, 0.0660652, -0.0341758, 0.0628799, -0.0223105, -0.0360233, -0.0705466, 0.0371270, 0.1367224, 0.1251638, -0.0874177, -0.0000837, 0.0343594, 0.0396860, 0.0202405, 0.0413988, -0.0002536, -0.0635206, -0.0581472, -0.0083747, 0.0724585, -0.0128101, 0.0061813, -0.0496907, 0.0618218, -0.0543548, -0.0276523, 0.0397392, 0.0310575, 0.0176430, -0.0448012, 0.0917761, -0.0030046, 0.0164820, 0.0410380, 0.0048530, 0.0307069, -0.0880682, -0.0629055, -0.0123387, -0.1111851, 0.0345745, 0.0757497, -0.0579510, -0.0181007, -0.0113359, -0.0155424, -0.0213180, 0.0621603, 0.0707114, 0.0282360, 0.0770206, 0.0094467, 0.0293760, 0.0480801, -0.0475290, 0.0717891, -0.0989639, 0.0264356, 0.1528973, -0.0097321, -0.0435994, -0.0459874, 0.0235010, -0.0002333, 0.0754931, -0.1324864, 0.0042649, 0.0260475, 0.0507939, -0.1430616, -0.1030495, -0.0543777, 0.0721801, 0.1156632, -0.0456992, -0.0093264, -0.1141492, 0.0668207, 0.1026032, 0.0829575, -0.3451582, 0.1064694, -0.0161285, -0.0247657, 0.0477828, 0.0007530, 0.0864680, 0.0013976, 0.0134928, 0.0217529, 0.0205856, -0.0013367, -0.0360235, 0.0275282, -0.0204562, 0.0100230, -0.0315654, -0.1670315, 0.0350771, 0.1010133, 0.0483406, 0.0714206, 0.0464628, -0.0024347, 0.0023568, 0.0142184, -0.0311997, 0.0468742, -0.0032464, -0.0032122, -0.0205335, -0.0309016, -0.0273067, 0.1099469, -0.0371122, 0.1178897, -0.0731667, -0.0047261, 0.1516049, 0.0410886, 0.0148034, -0.0456432, -0.0792415, -0.2125749, 0.0096202, -0.1274052, 0.0302855, -0.0712147, -0.0080053, -0.0537533, -0.0103686, 0.0035384, 0.1370838, -0.0273574, 0.0095540, -0.0343538, 0.0409007, -0.0968408, 0.0522141, 0.0824659, -0.0343509, 0.0301940, 0.1303798, 0.0981924, -0.0053877, 0.0471144, 0.0844933, -0.1153474, 0.0313454, -0.0112722, 0.0925765, 0.0068620, -0.1115932, 0.0113047, 0.0023835, -0.1286773, -0.0418976, -0.0742206, 0.0347383, -0.0636700, -0.0622957, -0.0901705, -0.0986926, -0.0316720, -0.0855355, 0.0193905, -0.0324629, -0.1450236, -0.0149580, 0.0348014, -0.0096059, -0.1014001, 0.0137169, 0.0581619, -0.0667265, 0.0683417, 0.1152176, 0.0662899, -0.0938086, 0.0701457, 0.0838420, -0.0439351, -0.0760595, -0.0425719, 0.0775428, 0.0074358, 0.0607519, 0.0933164, -0.0247755, -0.0569213, -0.0670550, 0.0210103, -0.1066210, 0.0138621, 0.0126630, -0.0257360, 0.0528656, 0.1169926, -0.0051082, -0.0383738, 0.0855349, -0.0058695, 0.0393954, 0.0101471, -0.0047920, -0.1161164, 0.0346099, -0.0690443, 0.0390076, 0.0329502, 0.0163121, -0.1207490, -0.0046738, -0.0070216, -0.0336466, 0.0104258, -0.0249380, 0.0311632, 0.0500244, -0.0651507, -0.0242530, 0.0438958, 0.0440396, -0.0000944, -0.0506005, -0.0080157, -0.0547857, 0.0321517, 0.0251297, 0.0230000, -0.0461958, -0.0531118, -0.0707409, 0.0290843, 0.0859527, 0.1003037, 0.0141770, -0.0117481, 0.0026274, -0.0087959, -0.0625052, 0.0468572, 0.0316187, -0.0747302, 0.0539344, -0.0241390, 0.0383325, 0.0929704, 0.0121715, 0.0571881, -0.0377844, 0.0200369, -0.0364933, 0.0173289, -0.0607607, -0.0013382, -0.0341827, 0.0498488, 0.1090830, 0.1562029, -0.1242532, -0.0414910, -0.0716561, -0.0640631, 0.0512623, 0.0118798, -0.0016219, 0.0203328, -0.0372392, 0.0126634, 0.0139227, -0.0420437, 0.0281335, 0.0451301, 0.0802498, 0.0724675, -0.0055894, 0.0063021, -0.1079930, -0.0771301, -0.1136557, 0.0611105, 0.0464118, -0.0215692, 0.0100287, 0.0876527, -0.0466482, -0.0030758, -0.0835009, -0.0594524, 0.0699923, -0.0639494, 0.0873118, -0.0466345, -0.0791000, -0.0428307, 0.0580634, 0.0760140, -0.0951889, -0.0581563, -0.0869965, -0.0372820, -0.0262925, -0.0730600, -0.0192448, 0.0061636, 0.0408068, -0.1634087, -0.0232968, 0.0392898, 0.0172867, 0.0170718, -0.0005505, -0.0468152, -0.0600203, -0.0121442, 0.0050741, -0.1377938, -0.1050926, -0.0178505, 0.0583203, 0.0231577, 0.1016582, 0.0958475, -0.0947422, -0.0928380, 0.0152444, 0.0226732, -0.0131437, 0.0095025, 0.0542392, 0.0204478, -0.0197032, 0.0601945, 0.0448428, -0.0252785, -0.0436002, -0.0021824, -0.0310608, -0.1383199, 0.0111071, -0.0899631, 0.0216368, -0.0041262, -0.1249888, 0.0583419, -0.0426137, 0.0181787, -0.0109227, -0.0109960, 0.0240670, -0.0666742, -0.0133859, -0.0057332, 0.0221766, -0.0091165, -0.0156703, 0.0820249, 0.0000409, 0.0225773, 0.0045036, -0.0136884, -0.1198555, 0.0345472, -0.1067378, 0.0536964, -0.1348462, -0.0030735, -0.0163349, 0.0249549, 0.0146802, -0.0258986, 0.0656590, 0.0089124, 0.0182262, 0.1185877, -0.1622931, 0.0420868, -0.0224132, 0.0461628, -0.0695481, 0.0920771, -0.0273440, -0.0470349, 0.0160448, 0.0115773, 0.0122819, 0.1529584, 0.0428846, -0.0720022, 0.0199657, 0.0420902, -0.0096488, -0.0720174, 0.0459086, -0.0095109, 0.0241818, -0.0874108, -0.0303166, 0.0459229, -0.0641433, -0.0290706, -0.0352830, -0.0335354, 0.0381760, -0.0782507, 0.0257689, 0.0548087, -0.0363801, 0.1006619, 0.0665749, -0.0335806, -0.0638064, 0.0642299, 0.0746219, -0.0442237, 0.0480083, -0.1292621, -0.0196499, 0.1008060, 0.0517573, 0.0948143, 0.0737311, 0.0281226, 0.0079588, 0.0072516, 0.0627093, -0.0150170, -0.0275777, 0.0569438, 0.0975270, 0.0115144, -0.0768779, 0.0653826, 0.0497671, 0.0321540, 0.0362869, 0.0385275, 0.0381553, 0.0253102, 0.0791802, -0.0912167, -0.0362712, -0.0410757, 0.0258162, 0.0305422, 0.0663260, -0.0443266, 0.0166806, 0.0489459, -0.0129971, 0.0261138, 0.0407710, 0.0708039, 0.0181409, -0.0017634, -0.1053096, -0.0603040, 0.0091011, -0.0321139, 0.0237088, -0.0489255, -0.0228621, -0.0825488, 0.0200388, -0.0198939, -0.0234709, 0.0577167, 0.0322589, -0.0128631, 0.0873291, 0.0223975, 0.0489182, 0.0643531, 0.0281165, 0.0291340, 0.0614800, 0.1353909, -0.0680239, 0.0423752, 0.0522154, 0.0346743, -0.0048855, 0.0052003, -0.0301769, -0.0441487, 0.0626469, -0.1281879, -0.0342500, -0.0700263, 0.1778166, 0.0954092, 0.0667669, -0.0312312, 0.0416950, 0.0438808, 0.0434307, -0.0304116, 0.0956084, 0.0773622, -0.0201053, -0.0718092, 0.0450741, -0.1341666, -0.0081600, -0.0763010, -0.0122274, -0.0415233, 0.0025727, -0.0674913, 0.0370034, -0.0328363, -0.1448441, -0.0284323, 0.0069586, 0.1543279, -0.0166070, 0.0300581, 0.0699408, 0.0912040, 0.0215788, -0.0952578, 0.0931832, 0.0626073, -0.0608506, 0.1550500, -0.0369076, 0.0360050, 0.0257796, -0.0162918, -0.0495486, 0.0296563, -0.0152710, 0.0803114, 0.0391969, 0.0840927, -0.0255558, 0.0451153, 0.1102528, 0.0227140, -0.0785930, 0.1173864, -0.0624805, 0.0176995, -0.0386796, 0.0403307, 0.0656071, -0.0405365, 0.0352027, -0.0075637, -0.1395887, 0.0446506, 0.0172061, 0.0981887, -0.0255110, 0.0480638, 0.0468770, 0.0105200, 0.0319018, -0.1121758, 0.0164490, 0.0571097, -0.0470276, -0.0352359, -0.0375501, -0.0420422, -0.0416311, -0.0227113, 0.0242671, -0.0457177, -0.0577189, 0.0287601, -0.1435669, 0.1021772, 0.1074042, 0.0817109, -0.0847771, -0.0841771, -0.0350398, -0.0462540, 0.0497918, -0.0135218, -0.0901408, -0.0652184, 0.0732308, -0.0241990, 0.0093319, -0.0260575, -0.0586531, 0.0052891, -0.0177394, -0.1734013, -0.0152550, -0.0258925, 0.0619057, -0.0889038, 0.0662006, -0.1004703, 0.0469910, 0.0823846, 0.1464797, 0.0241987, -0.0334587, -0.0062113, -0.0039271, -0.0712728, 0.0395553, -0.0248463, 0.0380463, 0.1117977, 0.0536102, 0.0277972, 0.1144144, -0.0783148, -0.0855606, -0.0286775, 0.0113801, -0.0911672, -0.0292121, 0.0000452, 0.0854388, -0.0530208, -0.0287294, -0.0370857, 0.0387210, -0.0555353, 0.0141259, -0.0621398, 0.0687448, -0.0256140, 0.0210724, 0.0238743, -0.0184444, -0.1150659, -0.0190463, -0.0669482, 0.0337751, 0.0349450, -0.0924786, 0.0259477, -0.1479591, -0.1232911, -0.0040517, 0.0621651, 0.0075299, 0.0646741, 0.0173809, 0.0285125, 0.0036120, -0.1161317, 0.0002600, -0.0114285, -0.0630743, 0.0361367, 0.0731830, -0.0866473, 0.1080761, 0.2097622, 0.0130837, -0.0806062, -0.0042307, 0.0461431, -0.0208104, -0.0590212, 0.0484392, 0.0234807, 0.0223938, -0.0780381, 0.0088001, 0.0360752, -0.0644245, 0.0320594, 0.0096791, 0.0414452, 0.1219263, 0.0397509, 0.0776677, -0.0321807, -0.0158636, 0.0381613, -0.0053267, -0.0342356, 0.0169996, -0.0368306, -0.0411973, 0.0731253, -0.0013635, 0.0308664, -0.0096657, 0.0261615, 0.1085756, 0.0664610, -0.1090217, -0.0038044, 0.0295210, -0.0514090, -0.0608505, 0.0147066, 0.0724903, 0.0234138, 0.0487079, -0.0600443, -0.0193336, -0.0080917, 0.0190387, 0.0083506, -0.0672454, -0.0349028, -0.0374657, -0.0016015, -0.1933069, 0.0836888, 0.0731461, -0.0627230, -0.0051436, -0.0029788, -0.0093280, 0.0747589, 0.0084400, 0.0005322, -0.0490809, 0.0796668, 0.0171277, 0.0739395, 0.0474651, -0.1048153, -0.1748829, -0.0503438, 0.0330005, 0.0349226, 0.1155529, -0.0213746, -0.0255523, 0.0529746, -0.0415168, 0.1497166, 0.0756340, -0.0122354, -0.0183139, -0.1073442, 0.0243975, 0.0264696, 0.0003786, 0.0279176, 0.0861227, 0.0155924, -0.0117893, -0.0954073, 0.0130965, 0.0179130, 0.0524653, 0.0681011, -0.0672038, -0.0204979, -0.0622586, 0.1312642, -0.0691642, 0.0132693, 0.0317865, 0.0117501, 0.0178716, 0.0292949, -0.0716712, 0.0314836, 0.0422517, 0.0126162, 0.0162752, 0.0380429, -0.0537091, 0.0180372, 0.0605505, 0.1151248, 0.0386824, -0.0514320, -0.0914442, 0.1114757, -0.0360569, 0.0894405, 0.0073148, 0.1495664, 0.0117184, -0.0297952, -0.0051284, -0.0741494, 0.0146913, 0.0201919, -0.1168666, 0.0005779, 0.0489564, 0.0976179, -0.0341980, -0.0317936, -0.0450659, 0.0288539, -0.0623860, -0.0013770, 0.1000712, -0.0266629, -0.1598842, -0.1275233, 0.0227803, -0.1657068, -0.0402439, 0.0577084, 0.0239461, -0.0083410, -0.0091433, 0.0388269, -0.0219061, 0.0538038, -0.0142456, 0.0701120, 0.0347741, -0.0071759, 0.0042519, 0.1121401, 0.1012195, -0.0617820, 0.1214722, 0.1210655, -0.0503482, 0.0526366, -0.0925734, -0.0127918, 0.0465782, 0.0416449, 0.0540218, 0.0059887, -0.0069978, 0.0143459, -0.0893018, -0.0246224, -0.0288248, -0.0066862, 0.0633500, 0.1213897, 0.0457343, 0.0018373, 0.0512612, -0.0355239, -0.0072267, -0.0403416, -0.0776748, 0.1538771, -0.0802433, -0.0862416, 0.0684253, -0.0966236, -0.0281070, 0.0242719, 0.0586157, -0.0290345, 0.0170087, -0.0005143, -0.0045664, 0.0793894, 0.0043790, 0.0495997, 0.0271200, -0.1353139, -0.0238616, 0.0121563, 0.0283584, 0.0790083, -0.0062685, -0.1176456, -0.0346085, -0.0095760, -0.0129285, 0.2339837, 0.0144457, -0.2058452, 0.0073043, -0.0499590, 0.0161038, 0.0119559, 0.0170744, 0.0171494, -0.0451763, 0.0020888, -0.0267662, 0.0268056, -0.1217403, 0.0605622, -0.0619003, -0.0336420, -0.1186975, -0.0769209, 0.0264033, -0.0285976, 0.0570032, -0.0425995, 0.1441710, 0.0829910, 0.0389024, -0.0544188, -0.0044016, 0.0491579, -0.0239390, 0.1186332, -0.0521228, -0.0018950, -0.0535322, 0.0179597, -0.0421994, -0.0244109, 0.0292855, 0.0699869, 0.0625766, -0.0220042, 0.0026192, -0.0526650, -0.0723616, 0.0934471, 0.0706718, -0.0310247, 0.0055851, 0.0532367, 0.0167440, 0.0933373, 0.0725709, -0.0368595, 0.0102475, -0.0255209, -0.1005018, 0.0556806, -0.0118642, -0.0801319, -0.1884111, -0.0201566, -0.0421674, -0.0110765, -0.0341784, 0.0604012, 0.0057924, 0.0380749, 0.0774442, -0.0538582, 0.0493076, 0.0764301, -0.0159737, -0.0416800, 0.0645570, -0.0484645, -0.0219925, -0.0442659, -0.0475433, -0.0648954, -0.1096532, -0.0614835, 0.0008598, 0.0571318, 0.0141119, 0.1241917, -0.1654580, -0.0140098, -0.0727071, -0.0117645, 0.0010268, -0.0187889, -0.0446108, -0.0087381, 0.0221743, -0.0050303, -0.0148716, 0.0250708, 0.0099437, 0.0785652, -0.0600040, 0.0658841, -0.0601959, -0.1468087, -0.0054259, -0.0003121, 0.0861233, 0.0017493, -0.0984059, -0.0580196, 0.0065676, 0.0473121, 0.0620131, -0.0372363, 0.0641889, 0.0196691, -0.0053632, 0.0661884, -0.1601404, 0.1117344, 0.0022729, 0.0794823, -0.0185570, -0.0331361, 0.0452599, -0.1528803, 0.0901729, 0.0744798, 0.0962307, 0.0568562, -0.0044587, 0.0399303, 0.0068590, 0.0083703, -0.0115232, -0.0352792, -0.0326796, -0.0269244, -0.0875965, 0.0351417, 0.0807019, 0.0204086, -0.0556785, 0.0773858, 0.0598003, -0.0355127, -0.0587541, 0.0076863, -0.0344956, -0.0204461, -0.1242240, -0.0444680, 0.0021365, -0.0982657, 0.0305074, -0.0226480, -0.0704833, 0.0226016, -0.0888269, -0.0097736, -0.0932102, 0.0962479, 0.0187380, 0.0605067, 0.0473671, 0.0132154, -0.0244687, -0.0357746, -0.1109450, -0.0738840, 0.0096619, 0.0817215, 0.0029761, -0.1483872, -0.0360163, -0.0414811, -0.0545057, 0.0909254, -0.0902942, 0.0841445, -0.0782769, 0.0805149, 0.0933933, 0.0138837, 0.0051915, -0.0054245, 0.0632709, 0.0296526, -0.0063930, 0.0063612, 0.0066884, -0.0721992, 0.0067206, 0.0396449, -0.0038090, 0.0366891, -0.1527625, -0.0715779, -0.0955464, -0.0431229, -0.0210218, 0.0517939, 0.1037073, 0.0210148, 0.0544967, -0.1379831, -0.0112056, -0.0095332, -0.0512197, 0.0510025, -0.0230196, 0.0521013, -0.0553036, -0.0711117, -0.0162761, -0.0770706, 0.0590989, -0.0114651, -0.0647878, 0.0442760, 0.0570603, 0.0215263, -0.0836060, 0.0623789, 0.0430613, -0.0102377, 0.0766250, -0.0950294, 0.1042856, -0.0317427, 0.0323357, -0.0016815, -0.0282593, -0.0528521, 0.1036264, -0.0127261, 0.0772443, -0.0375778, 0.0303466, 0.0626895, 0.0263305, -0.0050862, -0.0090523, 0.0507380, -0.0923057, -0.0372533, 0.0147908, 0.1460316, -0.0105227, 0.0214691, -0.0687685, -0.0200245, -0.0815913, -0.0395021, -0.0256428, -0.0130142, -0.0048826, 0.0418401, 0.0310757, 0.0849892, 0.0775620, 0.1485449, -0.0459516, -0.0172630, -0.0777151, 0.0653660, 0.0200895, -0.0650430, -0.1121041, -0.0375765, 0.0220386, 0.0386308, -0.0859495, 0.1462798, 0.0591391, -0.0969858, -0.0216741, 0.0145361, 0.0216854, 0.0294105, -0.0244699, 0.0150801, 0.0678739, 0.0795331, -0.0488652, -0.1217506, -0.0269462, 0.0365104, 0.0489889, 0.0639558, -0.0413050, -0.0002530, -0.0044623, -0.0047616, -0.0903821, -0.1149268, 0.0514450, -0.0150550, 0.1042964, 0.0234456, -0.0053822, -0.0249065, 0.0724618, 0.0785546, -0.0923328, 0.0196371, 0.0550604, 0.0083818, 0.0908832, -0.0317232, -0.0607458, -0.0804009, -0.0992638, -0.0175012, 0.0040224, 0.0584033, 0.0195461, 0.1250119, 0.0884181, -0.0068476, 0.0708272, -0.1023878, -0.0390731, -0.0074217, -0.0147266, -0.0825007, 0.0508283, 0.0507853, -0.0096615, -0.0363054, 0.0511296, -0.0199458, 0.0409601, -0.0615424, -0.0333301, 0.0979656, 0.0257513, -0.0404039, 0.0994997, -0.0725965, 0.1459480, 0.0661051, -0.0684212, 0.0603502, -0.0143070, 0.0828426, -0.0853566, 0.0373373, -0.0188959, 0.0644824, 0.0614525, 0.0483485, -0.0739268, 0.0076683, -0.0224950, 0.0923005, 0.0506707, -0.0005316, 0.1203520, 0.0381013, 0.0378138, 0.0312036, -0.0592531, -0.2396370, 0.1275830, 0.0946052, 0.0168120, -0.0118541, 0.0998948, 0.1292425, -0.0659492, 0.0392740, -0.0401677, 0.0138843, -0.0095662, 0.0275535, -0.0643149, -0.0482264, -0.0548832, 0.0110816, 0.0124042, -0.0824635, 0.0549567, -0.0562584, 0.0566616, -0.0049510, -0.0042289, 0.1275060, 0.0523408, -0.0507122, -0.0389139, -0.0516693, -0.0932877, -0.0843876, -0.0154711, -0.0061975, 0.0028855, -0.0408786, -0.1191502, -0.0593323, -0.0241975, -0.0947771, 0.1281292, 0.0471664, 0.0115558, -0.0895310, -0.0331122, -0.0612382, 0.0470316, -0.0066452, 0.0058632, -0.0216327, 0.0057060, 0.0405310, -0.0077536, -0.0345043, 0.1266204, 0.0085090, 0.0044653, -0.0705942, -0.0217826, -0.0271117, 0.0300513, 0.0285238, 0.0959801, 0.1458970, -0.0720502, 0.0164256, 0.0155753, -0.0778373, 0.1592284, 0.0156738, -0.0482488, -0.1028898, 0.0619342, 0.1088066, 0.0249748, 0.0421835, 0.0370716, -0.0611296, 0.0065119, -0.0699619, -0.0259143, -0.0675146, 0.0116344, 0.0429677, -0.0975888, 0.0177333, -0.1045178, 0.0546208, -0.0825863, 0.0607829, 0.0391219, -0.1390251, 0.0367420, -0.0605535, -0.0270504, -0.1009430, 0.1000879, -0.0568865, 0.0503902, -0.0173766, -0.0973337, 0.0042054, -0.0536456, 0.1141459, -0.0067180, -0.1382248, -0.0361896, -0.0479063, -0.0338451, -0.0426877, 0.0312435, -0.0651111, -0.0377088, -0.0178480, -0.0247044, -0.0253362, -0.0744933, -0.0985666, -0.0392990, 0.0448298, -0.1779658, 0.0088113, -0.0424141, -0.0143508, 0.0005847, -0.0344323, -0.0511529, 0.0463635, 0.0308276, 0.0407262, -0.0773185, 0.0712494, -0.0562781, 0.1559487, 0.0296255, 0.0701934, 0.0383813, 0.0674031, 0.0360312, 0.0189172, 0.0772617, 0.0184250, -0.1717581, 0.0228422, -0.0296860, -0.0638384, -0.0198725, 0.0604838, -0.0422702, 0.0281924, -0.0357895, -0.0236409, 0.0955789, -0.0654774, -0.0652048, -0.0044955, 0.0149537, 0.0093153, -0.0498839, -0.1517213, -0.0119882, 0.0463308, 0.0202220, 0.1245181, 0.0070645, -0.0524312, 0.0252944, -0.0709092, 0.1002647, 0.0129881, -0.1014308, 0.1069827, 0.0371139, 0.0542985, 0.0631888, -0.1443738, -0.0230803, 0.0012782, -0.0554363, 0.0590487, 0.0184906, 0.0496315, -0.1456349, -0.1514046, -0.0285515, 0.0693833, -0.0041675, -0.0704100, -0.0670585, -0.0424208, 0.0448887, -0.0339108, 0.0272748, -0.0563878, -0.1231697, -0.0446334, 0.0572478, 0.1715296, 0.0589559, 0.0177196, -0.0695515, 0.0721960, 0.0151718, 0.0668881, 0.0379104, -0.1401426, 0.0715011, 0.0127893, -0.0198158, -0.0463507, 0.0818486, 0.0422929, -0.0111614, 0.1390970, -0.0056339, -0.0742446, 0.0138551, -0.0277339, 0.0848267, 0.0172660, -0.0154695, 0.0561757, -0.0459852, 0.0715070, 0.0036259, -0.0115601, 0.0060855, 0.1540329, -0.0982565, -0.0109792, -0.0147710, -0.1078360, 0.0379323, -0.0036908, -0.0522011, 0.0360385, -0.0446946, -0.0216210, 0.0235668, -0.0176846, -0.0512691, 0.0012096, 0.0376738, 0.0971046, -0.0347893, 0.0560578, 0.0255140, 0.1227840, -0.0419222, -0.0026969, -0.0625766, -0.0371548, -0.0609089, -0.0429521, -0.0131147, -0.0382681, -0.0328369, 0.0896798, 0.0295809, 0.0846373, 0.0623323, 0.0633595, -0.0364566, 0.1545787, 0.0189372, 0.0970439, 0.1388185, 0.0864162, -0.0214197, 0.0005685, -0.0202065, -0.0380763, 0.0052001, -0.0047173, 0.0117044, -0.0451988, -0.0615255, 0.1058312, -0.0747473, -0.0409725, -0.0220097, 0.0313458, -0.0253996, 0.0800606, -0.0337087, 0.0825075, 0.0334728, 0.0350436, -0.0192864, -0.0485306, -0.0142373, -0.1113460, 0.0390325, 0.0419455, 0.0348602, 0.0270241, -0.0475413, 0.0824869, -0.0040809, 0.0147793, -0.0387889, 0.0034358, 0.0036650, 0.0076203, 0.0138519, -0.0130073, -0.0644354, 0.0146047, 0.0389072, -0.0806010, -0.0144812, -0.1003881, -0.1003596, 0.0512105, 0.0488285, -0.0027253, -0.0216145, 0.0969040, -0.1028870, 0.0442971, -0.0060433, -0.0622849, -0.0399182, 0.0479243, -0.0776045, 0.0582283, -0.1145115, 0.0679814, 0.0682351, -0.0419952, 0.0587651, -0.0481037, -0.0124324, -0.0180571, 0.0414496, -0.0298554, -0.0189580, -0.0481327, 0.0021305, 0.0339919, -0.0403891, -0.1035747, 0.0670084, -0.0559559, 0.1092294, -0.0971076, -0.0932909, -0.0434820, 0.0303195, -0.0406969, 0.1098611, -0.0179511, 0.0477066, -0.0351648, -0.0556955, 0.0666357, -0.0341845, -0.0626993, -0.0688089, -0.0191115, -0.0243798, -0.0270595, -0.0737689, 0.0045523, 0.0001951, 0.1298877, -0.0010863, 0.0551087, -0.0931191, 0.0003341, -0.0414146, 0.0107992, 0.0308454, -0.0251598, 0.0189273, 0.0831672, 0.0729813, -0.1318248, -0.0001107, 0.0648284, -0.0216760, -0.0697042, 0.0718250, -0.1259100, -0.0269699, 0.0273955, 0.0099426, -0.0116193, 0.1832400, 0.0716537, -0.0059934, -0.1298030, -0.0233627, 0.0663466, -0.0359705, -0.1138737, -0.0755022, 0.0044103, 0.0219651, -0.0341417, 0.0086553, -0.0077041, 0.1125963, -0.0576245, -0.0053655, -0.0156595, -0.0226117, 0.0247719, -0.0584241, 0.0423785, 0.0225296, 0.0637149, 0.0658738, -0.0053913, 0.0902863, -0.0707948, 0.0282744, -0.0022216, -0.0561299, -0.0469528, 0.0489895, 0.0607296, 0.0389013, -0.0352826, 0.0098911, 0.0306132, 0.0764634, -0.0400654, -0.1077636, 0.0525073, 0.0245757, 0.0825842, -0.0248444, -0.0659466, 0.0082219, 0.0578951, 0.0410066, 0.0199819, 0.0315858, 0.1352222, 0.0011871, 0.0866882, 0.0283115, -0.0061371, -0.1063834, -0.0260830, 0.0538591, -0.0602994, -0.0869066, -0.0260497, -0.0367926, -0.0757014, -0.1450035, -0.0128224, 0.0371599, -0.0713784, -0.0760678, 0.0076782, -0.1352140, 0.0156742, -0.0320624, 0.0595519, -0.0466745, 0.0574908, -0.0055299, 0.0373908, -0.0132161, -0.0518486, -0.0767898, -0.0071727, -0.0234154, 0.0012423, -0.0130753, 0.0170910, 0.1328691, -0.0352342, 0.0766230, 0.0448495, -0.0387237, 0.0703823, -0.0818463, 0.1148452, 0.0511705, 0.0052779, 0.0542139, 0.0050531, 0.1149431, 0.0742445, -0.0484016, 0.0514665, 0.0091568, 0.0071435, 0.0016658, 0.0503249, -0.1073433, 0.0636140, 0.0400656, 0.0567971, 0.0989533, -0.0035480, 0.0214962, -0.0339709, 0.0374627, 0.0001554, -0.0658468, 0.0365707, -0.1010310, -0.1424747, -0.0826890, 0.1299901, 0.0758807, 0.1174801, -0.0095552, -0.0582920, 0.0142974, -0.0735561, -0.0077532, -0.0766933, 0.0048427, 0.0039697, -0.0204848, 0.1452681, 0.0307477, -0.0733107, -0.0243937, -0.0312648, 0.0764194, -0.0664067, 0.0537074, -0.0145178, 0.0409487, 0.0521677, 0.0873058, 0.0069711, -0.0752962, 0.0609327, -0.0487055, 0.0278703, 0.0218824, -0.0781632, 0.0519883, -0.0645963, -0.1778360, 0.0619994, -0.0072299, -0.0902034, -0.0402252, 0.1344077, -0.0334790, 0.0258892, 0.0222225, -0.0750746, 0.0969686, 0.0048044, -0.0408996, -0.1042113, -0.0876190, -0.0037172, -0.0442148, -0.0732017, -0.0352649, 0.0453973, -0.0104486, -0.0793803, -0.0263244, -0.0059088, 0.0730197, -0.1295743, -0.0360350, 0.1309446, 0.0483744, -0.0011815, -0.0433095, 0.0421478, 0.0764005, 0.0460824, -0.0759546, -0.2119616, 0.2541670, -0.1667188, 0.0380779, 0.1553602, 0.0396212, -0.1476844, 0.0823117, 0.0962036, 0.0165369, -0.0836436, 0.0009582, 0.1195254, -0.0416834, -0.0687651, 0.0158571, 0.0241102, -0.0109598, -0.0691538, 0.0402396, 0.0367312, 0.0203829, 0.0338060, -0.0006779, 0.0801691, -0.0011497, -0.0918492, 0.0359303, -0.0437460, -0.0015587, 0.0269081, -0.0910808, -0.0548388, -0.0318496, -0.0916678, -0.0159441, 0.0599118, 0.0654923, -0.0759083, 0.1053191, 0.0048938, -0.0558251, 0.0078288, 0.0550412, 0.0656816, 0.0004938, 0.0178760, 0.0358131, -0.0320597, 0.0189749, 0.0299577, 0.0804470, -0.0118128, -0.0373719, -0.0398209, -0.0033490, -0.0541204, 0.1082254, -0.0046656, 0.0150028, 0.0292947, 0.0108878, -0.0318965, 0.0843985, -0.0284691, 0.0210826, 0.1204446, 0.0530721, 0.0764707, 0.0340651, 0.0292988, -0.0673785, -0.0529703, -0.1051533, -0.0146114, -0.0775808, 0.0495028, 0.0833583, 0.0743030, -0.0192118, -0.0589165, 0.0555323, -0.0302556, -0.1072176, -0.0361583, -0.0587915, -0.1003856, 0.1138398, -0.0690212, -0.0313353, -0.0297059, -0.0078778, 0.0561578, -0.0674421, 0.1487254, 0.0592796, 0.0505000, -0.0026871, -0.0391907, 0.0322631, 0.0401787, -0.0033865, 0.0760723, 0.0321665, -0.0231878, 0.0176503, -0.0763046, 0.0625142, 0.0923214, -0.0483585, 0.1060968, -0.0485506, -0.0507012, -0.0114138, -0.0502375, 0.0271005, 0.1812635, -0.0750177, 0.0093820, -0.0788682, 0.0025673, 0.0508320, -0.0043727, 0.0039714, 0.0257414, 0.0442261, -0.0321878, -0.0309712, 0.1288531, -0.0765043, 0.0232424, -0.0761985, -0.1571951, -0.0527397, 0.0330593, -0.0789524, -0.0469432, -0.0361691, 0.0550797, 0.0954694, 0.0649800, 0.0488442, 0.0932263, 0.0098621, -0.0199621, 0.0159805, 0.0485214, 0.0275472, -0.0340401, 0.1151180, -0.0158929, -0.0592689, -0.0935418, -0.0229919, -0.0928607, 0.0673130, -0.0873114, -0.0268766, -0.0205827, 0.0303917, 0.0557078, 0.0574489, -0.0572533, 0.0149150, -0.0417596, 0.0156253, 0.0502076, -0.0805999, -0.0476254, 0.0073464, 0.0150343, -0.0866405, -0.0784368, 0.0298461, 0.0314762, 0.0166601, 0.0606689, -0.0204252, -0.0816728, -0.0201782, -0.0972187, -0.0605949, -0.0107513, 0.0065083, 0.0412160, -0.0285780, 0.0452030, -0.0231940, -0.0480237, -0.0303574, -0.0277853, -0.0276964, 0.0022098, 0.0114696, -0.0935249, -0.0746987, -0.0018315, 0.1330427, 0.0244744, -0.0237477, -0.1416931, -0.0064830, -0.0440784, 0.0903363, -0.0262440, -0.0029389, 0.1664585, -0.0157415, 0.0481679, -0.0571692, -0.0238752, 0.0538688, -0.0542001, 0.0791179, 0.0015464, 0.0149122, 0.0053363, -0.0097428, -0.0338826, -0.0901941, 0.1234633, -0.0115211, -0.0039584, -0.0891163, 0.0622953, 0.0241781, -0.0519951, -0.0001150, 0.0640149, 0.0573265, -0.0681534, 0.1710143, 0.0174180, 0.1259539, 0.0051441, -0.0413079, -0.0399962, 0.0098277, 0.0426150, 0.0736962, -0.0875162, 0.0005825, -0.0535277, 0.0061235, -0.0356492, 0.0033479, -0.0481743, 0.0189525, 0.0096503, 0.0779824, 0.0472406, -0.0243852, 0.0165357, 0.0274610, -0.0289234, -0.0105523, 0.1173764, 0.0129551, 0.0737851, -0.0252034, 0.0113362, 0.0635440, -0.0928984, -0.1014996, -0.0178501, -0.0907351, 0.0790900, -0.0780219, 0.0276598, -0.1011737, -0.0180957, -0.0348319, 0.0250810, -0.1039687, 0.1527557, 0.0917787, 0.0101949, 0.0402399, -0.0221531, -0.0316716, -0.0094432, -0.0988548, 0.1010582, -0.1151928, -0.0354549, 0.0682716, 0.0088619, 0.0537602, 0.1240049, -0.1087232, 0.0864991, 0.1141846, 0.0506754, 0.0333688, 0.0378285, 0.1074762, 0.0400207, 0.0250061, 0.0055629, -0.0954610, 0.0063192, 0.0141788, -0.0377077, 0.0702617, 0.0043700, -0.0355644, -0.0546466, -0.0298264, -0.0104744, -0.0398963, 0.0607050, -0.0779800, -0.0205952, 0.0788300, -0.0296652, 0.0165511, 0.0587081, 0.0299035, 0.0460316, -0.0262989, -0.0091145, -0.0798657, 0.0123565, 0.0039263, -0.0298984, -0.0861233, -0.0345159, -0.0090114, -0.0723402, -0.1395334, -0.0307036, 0.0032875, -0.0584203, -0.0274655, -0.0165052, -0.0651111, 0.0839570, 0.0557752, -0.1379872, -0.0019697, -0.0140872, 0.0154174, -0.0115332, 0.0792439, 0.0839765, -0.0421910, -0.0286427, -0.0607529, -0.0225079, 0.0070894, 0.0889856, 0.0746717, -0.0250601, 0.1130848, -0.0688104, -0.1231778, 0.0638976, 0.0412147, -0.0310482, -0.0549851, -0.0451116, 0.0193014, -0.0586786, 0.0099832, 0.1245040, 0.0033604, 0.0099077, 0.0785326, -0.0923302, -0.0957578, 0.0277879, 0.0683251, 0.0038353, 0.0336825, 0.0213361, 0.0447998, 0.0124747, -0.0317010, -0.0318445, -0.0704958, -0.0171878, 0.0087147, 0.0523190, 0.0613497, 0.0490543, -0.0364616, 0.1161441, 0.0287855, -0.1050769, 0.0782778, 0.1106214, 0.0130191, -0.0229727, 0.0095541, -0.0550803, -0.0254622, -0.0223087, -0.0700686, -0.0115838, -0.0301945, 0.0670425, -0.0277429, -0.0558691, -0.0975086, 0.0096418, -0.0321260, 0.0439178, 0.0116678, -0.0581896, 0.0107113, -0.1282890, -0.0765750, 0.1046169, -0.0553473, -0.1047503, 0.0300874, -0.0581177, -0.0269903, 0.0635507, 0.0384835, 0.0094864, -0.0295699, -0.0038955, -0.0220461, 0.0568671, 0.0148147, -0.0478221, 0.0193882, 0.0348234, -0.0115871, -0.0127052, 0.0427546, -0.0349398, -0.0128270, 0.0039376, 0.0139384, -0.0268614, -0.0086793, 0.0794903, 0.0878024, 0.0923319, -0.0036010, -0.0504171, 0.0595861, -0.0686798, -0.0509164, -0.1261992, -0.0084228, 0.1073727, -0.0333730, -0.0051397, -0.0833883, -0.0644823, 0.0567686, -0.0400214, -0.0016599, -0.0473075, 0.0010932, 0.1446666, -0.0486773, 0.0333872, 0.0600639, 0.0855404, 0.0639067, 0.0160383, -0.0215301, -0.0639812, 0.0289936, 0.0543993, -0.0075981, 0.1095475, -0.0285037, 0.0800841, -0.0688664, 0.0097604, -0.0302796, -0.0489677, -0.0020899, 0.0341120, -0.0646166, -0.0170760, -0.0100145, 0.0911218, -0.0358907, -0.0956708, 0.0393078, -0.0509435, 0.0159955, -0.0222972, -0.0546671, 0.0010752, 0.0269504, 0.0212782, 0.0167547, 0.0253427, 0.0086742, 0.0001754, -0.0029211, -0.0373775, -0.0192550, 0.0051944, -0.0974614, -0.0011543, 0.0308502, -0.0842460, 0.0974757, 0.0629760, 0.0245486, 0.0711478, -0.0367212, 0.2118861, -0.1246538, -0.0354137, -0.0222696, 0.0258475, 0.0761187, -0.0560377, 0.0211198, 0.0505421, -0.0776857, 0.0973859, -0.0552734, -0.0733377, 0.0295352, -0.0235118, -0.0129457, 0.1562456, -0.0546260, -0.0426796, 0.0116928, 0.0412465, 0.0434773, 0.0230133, -0.1116137, -0.0141144, -0.1094597, -0.0650556, -0.0047479, 0.0476197, -0.0125152, -0.0366130, 0.0643415, -0.0020706, -0.1346024, -0.0125163, -0.0438490, -0.0123400, -0.0446686, -0.0362326, 0.0648258, 0.0522391, -0.0055919, -0.0112509, -0.0022571, -0.0590280, -0.0364588, -0.0281135, -0.0986297, -0.0531158, 0.0114010, 0.0790041, -0.0300867, -0.0155941, 0.0424971, 0.0287365, 0.0176516, -0.0666033, 0.0770403, -0.0360626, 0.0469062, 0.0608045, 