0.0151673695072532, 0.1117867529392242, -0.3487297296524048, 0.1706404238939285, -0.1827127486467361, 0.5699471831321716, 0.3124997913837433, -0.5221917033195496, 0.1704838126897812, 0.1950437575578690, -0.6890177726745605, 0.3115150630474091, 0.7116994261741638, 0.1465083807706833, -0.1633644998073578, 0.0032454067841172, -0.6424440741539001, 0.6156821846961975, 0.0514753833413124, -0.1844371408224106, -0.2908228635787964, -1.0495680570602417, -0.0304975137114525, -0.0889361798763275, 0.2953060865402222, -0.2698917686939240, -0.0229764841496944, 0.2282321006059647, -0.3631345927715302, 0.1873754113912582, 0.0174103491008282, -0.1448318511247635, 0.1413285136222839, -0.0759257599711418, -0.2253480553627014, 0.0189454555511475, -0.2704640626907349, 0.0443938598036766, 0.1756948977708817, -0.1587062925100327, -0.3491595685482025, 0.4212343096733093, 0.2886819839477539, -0.0933599174022675, -0.0464738048613071, -0.4532037973403931, 0.2441782504320145, -0.4707597792148590, 0.2048114836215973, -0.0976809933781624, -0.3767912089824677, 0.0878821015357971, -0.0373225733637810, -0.0173613615334034, -0.0465417690575123, 0.0540972910821438, -0.5833817124366760, 0.0122137535363436, 0.1032783240079880, -0.5965478420257568, 0.2840434014797211, -0.0273983608931303, 0.3424181938171387, 0.0537510290741920, 0.0927298218011856, 0.3898471295833588, 0.6869779229164124, -0.3482348918914795, -0.3079114258289337, -0.3034346103668213, -0.7507094144821167, -0.1357892453670502, 0.2910778224468231, 0.8480997085571289, -0.3187761902809143, 0.1835621893405914, 0.1955655813217163, -0.1825496405363083, -0.1528306305408478, -0.1559583842754364, 0.0922867357730865, 0.1043371930718422, 0.0001449037226848, 0.1690756529569626, -0.0863236933946609, 0.3491204380989075, 0.2071407735347748, 0.1161264628171921, -0.0918309986591339, 0.3567599952220917, 0.2900068759918213, 0.0615946948528290, -0.2006002217531204, 0.2079538702964783, -0.0306971706449986, 0.1847037672996521, -0.3022177219390869, -1.2769426107406616, -0.3708469271659851, -0.2170588374137878, -0.4829305708408356, -0.2452691942453384, -0.1215804815292358, 0.3072523772716522, -0.6620314121246338, 0.2140616327524185, -0.0007719885325059, 0.1758553087711334, 0.5515212416648865, -0.5299815535545349, 0.0450714230537415, 0.1253891587257385, -0.2330654561519623, 0.2495527565479279, -0.5048953294754028, -0.1089236512780190, 0.4611367285251617, -0.1710201948881149, -0.4842412471771240, -0.4770382642745972, 0.0714844316244125, -0.4298228323459625, -0.5557812452316284, 0.1941473037004471, 0.2769411802291870, 0.0796133354306221, -0.0142980748787522, -0.1173913255333900, -0.9960866570472717, 0.0782551616430283, -0.1822270452976227, 0.0667226985096931, 0.4078885018825531, -0.0847645998001099, -0.2519886493682861, 0.3034565448760986, -0.8046121001243591, -0.5761581659317017, -0.5072656869888306, 0.0709700509905815, -0.4620269834995270, 0.3565673530101776, 0.0867108702659607, 0.1326520293951035, -0.5978679060935974, -0.2484487146139145, 0.4584059417247772, -0.4816468656063080, 0.1902777105569839, -0.3828851580619812, -0.1299508213996887, -0.4391373395919800, -0.2857273519039154, 0.0205615535378456, 0.3797807395458221, -0.0723553895950317, -0.1900423020124435, 0.5066124796867371, -0.6019347310066223, 0.6510984897613525, -0.4565272629261017, -0.2747361958026886, -0.3607580661773682, 0.0594401732087135, -0.3503662049770355, 0.2741856276988983, 0.3754914402961731, 0.1284262537956238, 0.1656703799962997, -0.1856452226638794, 0.1759611964225769, -0.4977105557918549, 0.1367844641208649, 0.5638612508773804, 0.0109960306435823, -0.2046244591474533, 0.0023648922797292, -0.1225525885820389, 0.0786360800266266, 0.0181138701736927, -0.0876311957836151, -0.0608241036534309, -0.1932780295610428, 0.1419767737388611, -0.1766338348388672, -0.5890167951583862, 0.2466999292373657, -0.1759606152772903, 0.1193991824984550, 0.0333336777985096, -0.5390149950981140, -0.2034695297479630