//Numpy array shape (192,)
//Min -0.705560266972
//Max 0.759412884712
//Number of zeros 0

#ifndef OUT_PROJ_BIAS30_H_
#define OUT_PROJ_BIAS30_H_

#ifndef __SYNTHESIS__
layers_2_self_attn_out_proj_bias_t out_proj_bias30[192];
#else
layers_2_self_attn_out_proj_bias_t out_proj_bias30[192] = {-0.01510112546384335, -0.16726091504096985, 0.40926405787467957, -0.01621360518038273, -0.15649302303791046, -0.03009856492280960, -0.35239139199256897, -0.38376215100288391, -0.07704964280128479, 0.01208223775029182, 0.02879042364656925, 0.00128965557087213, -0.15416386723518372, -0.58884823322296143, 0.68437212705612183, 0.35335013270378113, -0.24377779662609100, -0.39612564444541931, 0.15431904792785645, 0.08409745991230011, -0.58329308032989502, 0.07706532627344131, 0.00497061060741544, 0.17227195203304291, -0.05309549346566200, -0.11093442887067795, 0.19616915285587311, -0.09532774239778519, -0.10056746751070023, 0.21261385083198547, -0.10609749704599380, -0.34471768140792847, 0.25590327382087708, -0.12283743172883987, -0.05129142850637436, 0.37769880890846252, -0.10116738826036453, -0.04468329995870590, -0.46242165565490723, 0.24229818582534790, -0.15745814144611359, -0.03743011504411697, 0.01210227515548468, -0.27274316549301147, 0.09397325664758682, 0.32883486151695251, 0.01249950006604195, 0.25228103995323181, -0.09379914402961731, -0.01546829938888550, 0.55993241071701050, -0.32621347904205322, 0.10982330143451691, -0.01992735266685486, -0.40890374779701233, 0.01298606023192406, -0.10695609450340271, 0.01622785627841949, 0.03129495680332184, 0.08392711728811264, -0.04317001998424530, 0.31198894977569580, -0.09510561078786850, 0.22153930366039276, 0.06064241752028465, -0.28985774517059326, 0.09070371836423874, 0.24029906094074249, -0.03545998781919479, 0.02964188158512115, -0.08470167219638824, -0.09172461181879044, -0.19026668369770050, 0.22721455991268158, -0.19779478013515472, 0.04160659387707710, -0.35431945323944092, -0.13481757044792175, 0.06310445815324783, -0.11604955047369003, -0.63725811243057251, 0.75941288471221924, 0.10007227957248688, -0.40332466363906860, 0.19224046170711517, 0.34380644559860229, -0.08553391695022583, 0.03336908295750618, 0.17398177087306976, 0.46286535263061523, 0.24571071565151215, -0.21500109136104584, -0.26137381792068481, -0.11494219303131104, -0.06160355731844902, -0.20918411016464233, -0.08808927983045578, 0.15228325128555298, -0.28461483120918274, 0.02962171100080013, 0.04396929964423180, 0.13050261139869690, -0.19459544122219086, 0.56985586881637573, 0.00130521890241653, -0.22155980765819550, 0.02525308169424534, 0.31583669781684875, 0.12810899317264557, -0.07234807312488556, 0.09463792294263840, 0.00519719952717423, 0.28992027044296265, -0.24615903198719025, 0.12706215679645538, -0.59075969457626343, -0.70556026697158813, 0.24478961527347565, 0.03447520732879639, -0.27256131172180176, -0.39773941040039062, 0.03453870490193367, 0.07926105707883835, 0.04684952646493912, 0.22396007180213928, 0.28292462229728699, 0.05086762830615044, -0.18831236660480499, 0.05696696043014526, 0.18034201860427856, -0.34258705377578735, 0.30550935864448547, 0.11733361333608627, -0.31312757730484009, -0.30064564943313599, -0.22329720854759216, 0.19588656723499298, 0.28909227252006531, -0.01981722190976143, -0.07392611354589462, -0.02760174870491028, -0.25077480077743530, 0.31419441103935242, 0.40827679634094238, 0.09962204843759537, 0.13039496541023254, 0.11191732436418533, 0.11575676500797272, -0.34428989887237549, 0.11581651866436005, 0.03735086694359779, 0.00724714621901512, -0.25668373703956604, -0.00014553339860868, 0.09596794098615646, -0.28422129154205322, -0.05504313111305237, 0.02342173643410206, 0.32443943619728088, 0.21859201788902283, -0.01473795250058174, -0.01348080951720476, -0.09564359486103058, -0.29971531033515930, -0.20695134997367859, 0.23957487940788269, 0.04809672012925148, -0.07544268667697906, -0.13912436366081238, 0.07530258595943451, 0.09926348924636841, 0.12981957197189331, -0.06113352254033089, -0.01912522874772549, 0.14379087090492249, -0.16679684817790985, 0.38895252346992493, 0.10445293039083481, -0.11144755035638809, -0.17393594980239868, 0.07793035358190536, -0.01215491816401482, 0.46161684393882751, -0.41356545686721802, 0.19309757649898529, -0.34578812122344971, -0.18801140785217285, 0.15312480926513672, -0.05234719440340996, -0.17424628138542175, -0.04245339334011078, 0.34052690863609314};
#endif

#endif
