//Numpy array shape [192]
//Min -1.053842067719
//Max 0.951175451279
//Number of zeros 0

#ifndef BIAS17_H_
#define BIAS17_H_

#ifndef __SYNTHESIS__
layers_0_norm1_bias_t bias17[192];
#else
layers_0_norm1_bias_t bias17[192] = {-0.0680827572941780, 0.0656387284398079, 0.6946820020675659, -0.0180760901421309, -0.3945145308971405, 0.8433504700660706, 0.0245771668851376, -0.5885549187660217, 0.2752998173236847, 0.9511754512786865, -0.1687648296356201, 0.0929824933409691, 0.2416139394044876, -0.3527900278568268, 0.2300338596105576, 0.2859674692153931, 0.6416175961494446, -0.0720614865422249, -0.0477529540657997, 0.2210103720426559, -0.5179083943367004, 0.1449314951896667, -0.0754124298691750, -0.0030032447539270, -0.6437321901321411, 0.2862937748432159, 0.0528941601514816, -0.3197256028652191, -0.0934641510248184, 0.7480626702308655, 0.1795341521501541, -0.3384197354316711, -0.5824419260025024, -0.3446904420852661, 0.7206754088401794, 0.6033064126968384, -0.1160796880722046, -0.5660917162895203, -0.7344017028808594, -0.0011955496156588, 0.6669890880584717, -0.2511539161205292, 0.4686473011970520, -0.5896658301353455, 0.3607641160488129, 0.2041758894920349, 0.2554769515991211, -0.3941539824008942, 0.3314434587955475, -0.1073559522628784, 0.2801387310028076, -0.6319965720176697, -0.0220892596989870, 0.0543264187872410, 0.0051892963238060, 0.7068797945976257, -0.1204718202352524, 0.4430035054683685, -0.7825130820274353, -0.2057048231363297, 0.6090411543846130, 0.0426111072301865, -0.0394051149487495, 0.3479780852794647, -0.0767180249094963, -0.4422182738780975, -0.7738455533981323, -0.0492725931107998, -0.2645440101623535, 0.4292428195476532, -0.4595432877540588, -0.3849063217639923, 0.4011827111244202, -0.5099464058876038, 0.5330299735069275, 0.0053352792747319, -0.7036601901054382, 0.5812679529190063, -0.0177079495042562, 0.1186124533414841, -0.0395164564251900, 0.0259008295834064, 0.0206792149692774, -0.1290986984968185, 0.1572379916906357, 0.1639923155307770, 0.4580791890621185, 0.2777025997638702, -0.2451933771371841, 0.5654639005661011, 0.3651040196418762, -0.3428629934787750, -1.0173530578613281, 0.0785097405314445, -0.0162254031747580, -0.2039655447006226, 0.2393443733453751, -0.5907812714576721, 0.3235276341438293, 0.1246386989951134, 0.3049423992633820, 0.4285559654235840, -0.2553672492504120, -0.1413037627935410, -0.2894069254398346, -0.1092854365706444, -0.2733522057533264, 0.3143394291400909, 0.5223142504692078, -0.3610576689243317, 0.2051589787006378, -0.1684221774339676, 0.4102868735790253, -1.0538420677185059, 0.2485057115554810, 0.0379299260675907, -0.2610215544700623, 0.2940947711467743, -0.4813132882118225, -0.9053772091865540, 0.0796200782060623, -0.0874699428677559, -0.0384066626429558, -0.0448395274579525, -0.3057351708412170, 0.8897531032562256, 0.3883159756660461, -0.3855429291725159, -0.4210757911205292, 0.5203781127929688, 0.1928270161151886, -0.0778405144810677, -0.0783909708261490, 0.1541830748319626, 0.3971554338932037, 0.3064573407173157, 0.1655403524637222, 0.0285625923424959, 0.0755214616656303, -0.7555888891220093, -0.5583192706108093, 0.1501240879297256, 0.5715709328651428, 0.0654438212513924, 0.5370909571647644, -0.6741961836814880, 0.2568861246109009, -0.8462820053100586, 0.2816974520683289, -0.3660676479339600, 0.1455027908086777, 0.5868942737579346, -0.1606109887361526, -0.3269590139389038, -0.5489758849143982, 0.0362635590136051, -0.2576527297496796, -0.3433978557586670, -0.2983196973800659, 0.2453884333372116, -0.5363491177558899, 0.5784745812416077, 0.4211926162242889, 0.4494878053665161, 0.2649579644203186, -0.0847165063023567, 0.4757862091064453, -0.0051595265977085, -0.5856981873512268, -0.1867375522851944, 0.3156672418117523, 0.2173505872488022, -0.4013058543205261, 0.8191192150115967, -0.1461082845926285, 0.2704240977764130, 0.1838704496622086, 0.2695553302764893, 0.1564448177814484, -0.0244307462126017, -0.1491109430789948, 0.2972974777221680, 0.3129608333110809, 0.1823171377182007, -0.1050999686121941, -0.3331100642681122, 0.0902231782674789, -0.5375180244445801, -0.0933991074562073, 0.5532916784286499, -0.4780996739864349, -0.5045070648193359};
#endif

#endif
