//Numpy array shape [192]
//Min -1.276788592339
//Max 0.850767314434
//Number of zeros 0

#ifndef BIAS80_H_
#define BIAS80_H_

#ifndef __SYNTHESIS__
layers_10_norm2_bias_t bias80[192];
#else
layers_10_norm2_bias_t bias80[192] = {0.0167864654213190, 0.1128195077180862, -0.3469363749027252, 0.1706295758485794, -0.1796640008687973, 0.5724818110466003, 0.3129197657108307, -0.5217715501785278, 0.1693142652511597, 0.1946632117033005, -0.6875425577163696, 0.3118419647216797, 0.7124333381652832, 0.1472525894641876, -0.1613131612539291, 0.0031163669191301, -0.6420586705207825, 0.6165308952331543, 0.0526336804032326, -0.1856033802032471, -0.2897288799285889, -1.0523703098297119, -0.0309881940484047, -0.0879884734749794, 0.2953677475452423, -0.2666217386722565, -0.0211137495934963, 0.2307678014039993, -0.3654880821704865, 0.1904798895120621, 0.0165650118142366, -0.1428562402725220, 0.1429012864828110, -0.0734996274113655, -0.2251562923192978, 0.0221998076885939, -0.2719613611698151, 0.0465729162096977, 0.1788855344057083, -0.1599150002002716, -0.3489072918891907, 0.4214281439781189, 0.2888675332069397, -0.0935275256633759, -0.0477455817162991, -0.4521718621253967, 0.2458838075399399, -0.4713276326656342, 0.2029075473546982, -0.0979355052113533, -0.3766729533672333, 0.0887759774923325, -0.0389874838292599, -0.0169534403830767, -0.0458311066031456, 0.0555387921631336, -0.5825336575508118, 0.0164244845509529, 0.1028043404221535, -0.5939815640449524, 0.2846770286560059, -0.0267849043011665, 0.3427664637565613, 0.0546648912131786, 0.0895115956664085, 0.3898999691009521, 0.6866016387939453, -0.3487618267536163, -0.3074429333209991, -0.3021099865436554, -0.7481878399848938, -0.1319967657327652, 0.2927639484405518, 0.8507673144340515, -0.3189574182033539, 0.1817093342542648, 0.1965876966714859, -0.1802048385143280, -0.1506352722644806, -0.1551458090543747, 0.0945438519120216, 0.1050490215420723, 0.0006334687350318, 0.1700246781110764, -0.0846443623304367, 0.3513478934764862, 0.2039426267147064, 0.1155010759830475, -0.0935287848114967, 0.3541656732559204, 0.2913684546947479, 0.0639304295182228, -0.2010373622179031, 0.2089777290821075, -0.0287570543587208, 0.1849204003810883, -0.3033988773822784, -1.2767885923385620, -0.3729660212993622, -0.2163684815168381, -0.4840638935565948, -0.2439571470022202, -0.1224825978279114, 0.3071563541889191, -0.6609001755714417, 0.2153259515762329, -0.0021469776984304, 0.1740026324987411, 0.5514925122261047, -0.5290326476097107, 0.0441179424524307, 0.1239223033189774, -0.2322720736265182, 0.2505523264408112, -0.5042880177497864, -0.1070634648203850, 0.4627396166324615, -0.1728419661521912, -0.4841782450675964, -0.4747956693172455, 0.0719412788748741, -0.4286817908287048, -0.5557759404182434, 0.1942524760961533, 0.2771308422088623, 0.0802097767591476, -0.0140082389116287, -0.1157765686511993, -0.9952602982521057, 0.0799235925078392, -0.1784354895353317, 0.0690956562757492, 0.4093311727046967, -0.0847993046045303, -0.2522132694721222, 0.3011582791805267, -0.8046873211860657, -0.5762702226638794, -0.5060731768608093, 0.0710631683468819, -0.4605474472045898, 0.3566775023937225, 0.0870849117636681, 0.1315487772226334, -0.5969279408454895, -0.2464177012443542, 0.4605295360088348, -0.4792035520076752, 0.1899121254682541, -0.3812210559844971, -0.1322733312845230, -0.4412945210933685, -0.2857929766178131, 0.0207408033311367, 0.3818506598472595, -0.0737216547131538, -0.1904686987400055, 0.5084576606750488, -0.6003884077072144, 0.6518528461456299, -0.4568878710269928, -0.2735020220279694, -0.3591108024120331, 0.0581575930118561, -0.3475041687488556, 0.2758868932723999, 0.3756679594516754, 0.1286537498235703, 0.1659395098686218, -0.1835430860519409, 0.1782134175300598, -0.4969935417175293, 0.1391917467117310, 0.5674217939376831, 0.0118539715185761, -0.2050329148769379, 0.0020158214028925, -0.1228999048471451, 0.0774752423167229, 0.0170503966510296, -0.0880649536848068, -0.0601558089256287, -0.1927179098129272, 0.1413250267505646, -0.1742923110723495, -0.5877424478530884, 0.2485724389553070, -0.1745985448360443, 0.1196599230170250, 0.0341217331588268, -0.5386360883712769, -0.2013912647962570};
#endif

#endif
