0.1302661150693893, -0.3995145261287689, -0.0343960113823414, -0.1179042980074883, -0.2772083878517151, 0.4776063561439514, 0.3956359624862671, 0.1758035570383072, -0.2855099439620972, 0.4923943579196930, 0.5677207708358765, -0.0064725298434496, 0.3000513911247253, 0.2908841371536255, 0.2697492837905884, 0.0442888997495174, 0.4185606837272644, 0.4902430474758148, 0.1045877858996391, 0.2180735170841217, 0.0932536870241165, 0.0968292430043221, -0.3806330859661102, -0.2604555487632751, 0.1988130807876587, 0.1148996278643608, 0.0721358135342598, 0.4351782798767090, -0.4363097846508026, -0.3180167376995087, 0.0358103215694427, 0.2473466247320175, -0.3945794999599457, 0.0115901706740260, -0.3779557049274445, -0.0186533089727163, 0.3039181828498840, 0.0013785418123007, -0.6464889049530029, -0.1380106359720230, 0.2010412663221359, 0.0594925396144390, 0.0963098630309105, 0.0172784384340048, 0.0064673791639507, -0.0445828065276146, -0.1470095068216324, 0.3459272682666779, -0.1336213052272797, -0.1275192201137543, -0.4152534008026123, 0.5046554207801819, -0.2790299654006958, -0.0649257451295853, -0.3114998340606689, 0.1022401377558708, -0.0297318901866674, 0.0691545307636261, 0.0344097241759300, -0.2850806415081024, 0.2528934180736542, -0.3556904494762421, -0.1912908852100372, -0.3082326650619507, 0.0144681902602315, 0.6675731539726257, 0.0069471430033445, -0.6411758065223694, 0.5287806987762451, -0.2420900464057922, -0.1817283183336258, -0.0760156661272049, -0.0058599631302059, 0.1096630096435547, -0.4928039908409119, -0.2559660077095032, 0.6172206401824951, 0.3806802630424500, 0.1155245900154114, 0.6166336536407471, 0.5082895755767822, -0.0607041269540787, -0.2242313474416733, 0.0988264381885529, -0.2167233526706696, 0.0516278706490993, -0.0321500189602375, 0.1265769898891449, 0.2645389735698700, 0.0952560156583786, 0.0124169876798987, 0.3337939977645874, 0.5863224864006042, -0.1909056752920151, 0.0186226051300764, 0.2046535164117813, 0.2384768128395081, -0.1549287736415863, 0.0170875303447247, 0.1829989403486252, 0.2313665002584457, -0.0842233896255493, 0.0383104011416435, 0.0227854456752539, -0.2728568315505981, 0.1437171995639801, 0.2573592066764832, 0.4683759510517120, -0.0129253258928657, -0.6178734898567200, -0.0423105843365192, 0.0051934034563601, -0.1535732746124268, -0.2543124556541443, 0.1068351343274117, 0.3999588787555695, -0.0593578517436981, 0.3140133321285248, 0.2693849802017212, 0.2682480812072754, 1.0781652927398682, 0.4017405211925507, -0.3032877445220947, 0.2061195671558380, 0.3087874352931976, 0.0939237102866173, -0.0485229566693306, -0.2740038931369781, -0.7595784664154053, -0.0826829075813293, 0.3633137345314026, -0.0193470176309347, 0.1470184922218323, 0.1908258795738220, 0.1353431195020676, 0.3674022853374481, -0.4749228656291962, -0.7321365475654602, -0.3623880147933960, 0.2559239864349365, -0.1720760315656662, 0.2457613199949265, -0.0359573177993298, 0.0231959391385317, -0.0061167250387371, 0.0685427933931351, 0.2471460253000259, -0.5853534340858459, 0.0172339230775833, -0.1681240499019623, 0.0058933091349900, -0.1609654873609543, -0.0542780943214893, 0.0173600185662508, 0.2489749193191528, 0.1621441394090652, -0.5458552837371826, 0.4098683893680573, -0.3073109686374664, 0.1012011766433716, -0.5714684128761292, -0.1737001240253448, -0.1662686318159103, -0.3659959733486176, 0.2179666310548782, 0.2099740058183670, 0.3019035458564758, -0.3910113871097565, 0.3558337688446045, -0.2368721663951874, -0.2819149792194366, -0.4253318011760712, -0.0000447067541245, 0.1361462622880936, 0.1636352688074112, -0.3648560047149658, -0.0178933329880238, 0.3222127556800842, -0.2319840043783188, 0.0185190439224243, -0.2068891823291779, -0.0156866442412138, 0.0921119377017021, 0.3788327574729919, -0.0060774013400078, -0.1543435603380203, 0.1477747410535812, -0.0180374272167683, 0.1210446283221245, 0.0865110158920288, -0.0210196170955896, 0.2194345295429230