//Numpy array shape [192]
//Min -1.382254242897
//Max 1.105929851532
//Number of zeros 0

#ifndef BIAS26_H_
#define BIAS26_H_

#ifndef __SYNTHESIS__
layers_1_norm2_bias_t bias26[192];
#else
layers_1_norm2_bias_t bias26[192] = {0.0241191927343607, -0.2662051320075989, -0.1860166490077972, 0.2183606177568436, 0.3464075922966003, 0.2673312723636627, 0.0808677896857262, -0.7316846847534180, -0.6508494019508362, 0.2061106562614441, 0.0922882184386253, 0.1702723354101181, 0.0613127611577511, 0.2989358305931091, 1.1059298515319824, -0.0278598833829165, 0.0966984033584595, -0.2498855441808701, -0.0866259261965752, -0.0184996388852596, 0.0495227798819542, -1.3822542428970337, 0.0706807672977448, -0.3718568980693817, -0.2835084199905396, 0.0654577314853668, 0.2638796567916870, -0.0244461447000504, -0.1137040629982948, 0.1177224218845367, 0.0276469178497791, -0.2814981937408447, -0.2876483798027039, -0.1826930195093155, -0.2188475579023361, 0.4333406984806061, 0.2245340049266815, 0.1843983680009842, -1.0186828374862671, -0.0091713033616543, 0.1227663308382034, -0.3056713938713074, -0.1470382958650589, 0.1545434296131134, 0.2121814191341400, 0.1959018856287003, -0.0827196389436722, -0.3217281401157379, 0.0535883121192455, 0.2101092487573624, 0.3518349230289459, 0.0465040653944016, 0.2205650359392166, -0.0312226302921772, -0.3144641816616058, -0.4625788033008575, -0.0251814313232899, 0.3615290224552155, 0.2991429865360260, 0.0827269256114960, 0.1617387384176254, -0.1574326753616333, -0.3268536031246185, 0.0219278670847416, 0.1826194822788239, -0.3265139460563660, 0.4339600503444672, -0.1280838549137115, 0.1046690344810486, -0.0447717569768429, -0.2734870910644531, 0.1212455257773399, -0.0962581560015678, -0.0842149704694748, 0.3394526541233063, -0.1579791754484177, 0.2164325863122940, 0.1923103332519531, 0.1531147211790085, 0.1811743676662445, -0.2860358357429504, 0.5315408706665039, -0.0714191272854805, -0.0130656985566020, 0.0943011268973351, 0.3676966428756714, -0.1100182831287384, 0.1923086494207382, 0.1643333435058594, 0.3013924956321716, -0.2097184658050537, -0.2058288902044296, -0.6343545317649841, 0.1317471116781235, 0.1056050807237625, 0.0856084004044533, 0.1502656638622284, 0.2501351237297058, -0.0003051122184843, 0.3546606600284576, 0.0503772795200348, -0.0356164872646332, 0.1079491749405861, 0.1656259596347809, 0.0370574072003365, 0.2186060100793839, 0.0769531354308128, 0.1590626239776611, -0.0848385021090508, 0.0346096865832806, 0.0037646247074008, -0.1514742076396942, -0.1072214245796204, -0.2166698426008224, -0.1108747199177742, 0.4987053573131561, -0.6173588037490845, -0.0482628345489502, -0.1240098550915718, -0.1204312369227409, 0.0348788090050220, -0.1310203373432159, -0.1677998900413513, -0.1975884139537811, -0.0809037983417511, -0.3592820465564728, -0.0174462478607893, -0.2128757089376450, -0.4250940680503845, -0.1436636745929718, 0.2508338987827301, -0.1770788580179214, 0.0425464138388634, 0.2968289852142334, -0.1780352592468262, -0.2082505971193314, 0.2613067626953125, -0.0529430322349072, -0.3015742301940918, -0.1637481003999710, 0.1520055085420609, 0.2225003391504288, 0.0326097048819065, 0.6316936612129211, -0.3477782607078552, 0.4201306700706482, 0.5133489966392517, -0.0654976069927216, 0.1365202516317368, -0.1900702118873596, -0.5273741483688354, 0.1257410943508148, 0.1485113799571991, 0.1916564106941223, 0.1472291648387909, 0.0858342945575714, -0.3880687654018402, -0.2477260082960129, -0.3880628049373627, 0.4183709025382996, -0.0279719699174166, -0.2789249122142792, 0.0752910077571869, -0.0506363734602928, -0.7063758969306946, 0.3371655941009521, 0.2888192534446716, 0.1919523924589157, -0.1179267689585686, -0.1300984025001526, 0.1092185676097870, 0.2492275536060333, -0.0365077331662178, 0.3947659134864807, 0.2066007852554321, -0.0836191177368164, 0.2645905315876007, 0.0867205709218979, -0.1253343075513840, 0.2599153518676758, 0.0835620984435081, 0.3364831507205963, 0.7248983979225159, -0.3238273859024048, -0.0833557248115540, -0.9372687935829163, -0.2561712861061096, -0.0570818930864334, -0.4713448286056519, -0.0638019144535065, 0.1892993450164795, 0.3040002584457397};
#endif

#endif
