//Numpy array shape (576,)
//Min -1.665483236313
//Max 2.513790607452
//Number of zeros 0

#ifndef IN_PROJ_BIAS30_H_
#define IN_PROJ_BIAS30_H_

#ifndef __SYNTHESIS__
layers_2_self_attn_in_proj_bias_t in_proj_bias30[576];
#else
layers_2_self_attn_in_proj_bias_t in_proj_bias30[576] = {0.118110053241253, 0.030664786696434, 0.100408628582954, -0.186034232378006, -0.013919002376497, 0.244718506932259, -0.024800276383758, -0.030917325988412, 0.079385459423065, -1.163023591041565, 0.289361625909805, 0.105546139180660, -0.027925126254559, -0.273052245378494, -0.110746569931507, 0.046252779662609, -0.041376441717148, -0.051264107227325, -0.169395402073860, -0.218601435422897, -1.603618979454041, 0.605484127998352, 0.523498237133026, 0.279274046421051, -0.031810551881790, -0.016801834106445, -0.011115385219455, 0.640634298324585, -0.302965760231018, -0.545514464378357, -0.534176409244537, 0.412501722574234, -0.358724832534790, 0.004357861354947, -0.054912507534027, -0.044768176972866, -0.448494940996170, 0.060148786753416, 0.055022232234478, -0.005043475888669, 0.309422612190247, 0.195121467113495, 0.016089294105768, 0.002044554101303, -0.110711656510830, -0.107763774693012, -0.108777880668640, 0.143707126379013, -0.055839892476797, -0.513534009456635, 0.284844517707825, -0.060409095138311, -0.023038927465677, -0.010471432469785, -1.209250450134277, 0.531824290752411, 0.011122312396765, 0.038140993565321, 0.037290554493666, 0.460798174142838, 0.057894952595234, -0.011374166235328, 0.040758788585663, -1.127445220947266, -0.142466455698013, -0.117133811116219, 0.508056521415710, -0.172380357980728, 0.544802069664001, 0.004137114621699, -0.041998554021120, -0.019707579165697, 0.351295650005341, 0.350205898284912, -0.112014308571815, -0.399092763662338, -0.103249073028564, -0.109279833734035, -0.033307317644358, -0.007763626519591, 0.076485618948936, -0.631687402725220, -0.442007154226303, -1.209643244743347, -0.231957450509071, 0.267476320266724, -0.179141134023666, 0.019091438502073, -0.022444710135460, -0.144862756133080, 0.075265787541866, -0.232212260365486, -0.176078319549561, -0.411069750785828, 0.681062400341034, 0.067880138754845, -0.018532389774919, -0.025849441066384, 0.074279837310314, -0.093432150781155, 0.074357651174068, 0.721992135047913, 0.267694026231766, -0.508661270141602, 0.279312878847122, -0.069482088088989, 0.054890129715204, 0.025446128100157, -0.039611134678125, -0.154746428132057, 0.374699056148529, -0.048055294901133, -0.292688190937042, 0.309386342763901, -0.002776181092486, 0.029505707323551, -0.000799613131676, 0.014296418055892, -0.020064022392035, 2.513790607452393, 0.239797666668892, 0.481368333101273, 0.549875736236572, 0.018092820420861, -0.032558988779783, -0.017125191166997, -1.378515362739563, 1.632861375808716, 0.965373337268829, 0.480352252721786, -0.322237849235535, 0.040902528911829, -0.029465328902006, 0.078776508569717, 0.010082360357046, -0.111213341355324, 1.827406167984009, -0.370796710252762, -0.226970613002777, 0.364825487136841, 0.178819417953491, 0.039720285683870, -0.010293097235262, 0.003560637123883, 0.302631676197052, 0.012439901009202, 0.204746067523956, 0.063095010817051, 0.523736178874969, -0.169041946530342, 0.021750845015049, 0.024734599515796, 0.014651359990239, 0.461708188056946, 0.395264834165573, 0.935234189033508, -0.249505713582039, -0.791373133659363, 0.368693023920059, -0.039062783122063, -0.024164656177163, -0.041623473167419, 0.379935503005981, 0.029134476557374, -0.050553258508444, -0.379316627979279, 0.223498553037643, -0.020947914570570, 0.028269011527300, -0.021663332358003, 0.003022857941687, 1.693442344665527, -0.144631370902061, -0.019803093746305, -0.206723704934120, 0.004194620531052, -0.214824333786964, 0.003845441853628, 0.048286929726601, -0.036801747977734, -0.113333642482758, 0.743734657764435, 0.009163630194962, -0.257194221019745, -0.616823732852936, -0.338575452566147, -0.011495098471642, -0.010048946365714, -0.021809177473187, -0.621675431728363, 0.430181533098221, -0.000819465960376, 0.061059493571520, -0.032657921314240, -0.053982891142368, 0.030623964965343, 0.030139828100801, -0.003789444919676, 0.585145711898804, -0.211304411292076, -0.064331077039242, -0.991196572780609, 0.126400306820869, -0.490553885698318, 0.001069586840458, -0.076664626598358, 0.003662371309474, 0.103465996682644, 0.977696001529694, 0.076315224170685, -0.628270506858826, 0.105039760470390, 0.155615061521530, -0.000621212995611, 0.033394344151020, 0.000462198309833, 0.797846019268036, 0.692421495914459, 0.175893872976303, 0.128706827759743, 0.071119010448456, 0.554749011993408, 0.022139089182019, 0.061528880149126, 0.012894645333290, -0.612255215644836, 0.455057084560394, 0.072521738708019, 0.331691443920135, -0.826264083385468, 0.218556836247444, -0.014657413586974, -0.007787053007632, -0.026383589953184, 0.221335634589195, -0.008525412529707, 0.027360655367374, 0.515011668205261, -0.072235912084579, 0.361186981201172, 0.020715959370136, -0.080744422972202, 0.055558823049068, 2.280782699584961, -0.132686764001846, -1.665483236312866, -0.056533642113209, 0.059379033744335, -0.803080737590790, -0.002670050831512, -0.028573026880622, -0.039436198771000, -0.080621808767319, 0.850566685199738, -0.047144338488579, 0.149978056550026, -0.165656134486198, 0.021865354850888, -0.059813827276230, 0.077395886182785, 0.028645828366280, -0.189238518476486, 0.432629197835922, -0.080741889774799, -0.204704254865646, 0.149198442697525, 0.081920713186264, 0.012594324536622, -0.015705013647676, 0.040315520018339, 0.198755577206612, -0.206240400671959, -0.011175830848515, -0.549368441104889, -0.200394243001938, 0.693593442440033, 0.004887229297310, 0.035732053220272, -0.051102809607983, 0.616219282150269, -0.710849583148956, 0.012323311530054, 0.060116901993752, -0.037186343222857, -0.299794644117355, 0.081691205501556, 0.003243268700317, -0.026971597224474, -0.042163241654634, 0.253749668598175, -0.018127180635929, 0.159104958176613, 0.288625299930573, 0.722853004932404, -0.023105878382921, 0.036243136972189, -0.000698017654940, -0.041937265545130, 0.264903396368027, 0.009159273467958, 0.149836972355843, -0.399559110403061, 0.018525771796703, 0.000825715076644, 0.038396824151278, 0.010995104908943, 1.639508247375488, 0.150571584701538, 0.004943776410073, 0.120106667280197, 0.240386381745338, 0.150370568037033, 0.093589216470718, -0.041593682020903, 0.003760570660233, 1.812526941299438, -0.216693416237831, 0.061471927911043, -0.593473434448242, -0.007351865991950, -0.013927360065281, 0.014272863045335, 0.024086439982057, 0.073518194258213, -0.344907820224762, 0.406273216009140, -0.070638045668602, 0.270886272192001, -0.156341642141342, -0.112383157014847, -0.083765834569931, 0.101643964648247, 0.071298673748970, 0.386443138122559, 0.958150982856750, -0.008831741288304, 0.312413603067398, 0.087261073291302, -0.664010226726532, 0.017338994890451, 0.018997594714165, 0.035399742424488, 0.933928668498993, 0.303776681423187, -0.084932975471020, -0.069686107337475, -0.050579253584146, -0.651131451129913, 0.094185493886471, -0.030425909906626, -0.008393979631364, 0.947852432727814, 0.137127682566643, 0.727798283100128, 0.063472375273705, 0.388997942209244, 0.196403831243515, -0.042184274643660, 0.028198821470141, 0.005736870225519, 0.650902152061462, -0.438670188188553, 0.094026699662209, -0.114795655012131, 0.320938020944595, 0.289873868227005, -0.006018904503435, -0.016748253256083, 0.037963401526213, 1.241524219512939, 0.173515304923058, 0.026567855849862, -0.235221371054649, -1.100494623184204, 0.302040338516235, -0.049388539046049, 0.006248435936868, 0.016355309635401, -0.922924399375916, -0.091960765421391, -0.052537009119987, -0.318911522626877, 0.224039807915688, -0.870700478553772, 0.028580756857991, -0.015175760723650, -0.013644922524691, 0.105346135795116, 0.326727539300919, -0.003124673850834, -0.213820248842239, -0.550164341926575, -0.392185866832733, 0.037674155086279, -0.017890047281981, 0.000991427223198, 0.527312040328979, -0.180694982409477, 0.050132304430008, -0.408410757780075, 0.480754256248474, -0.065600223839283, -0.057461652904749, 0.088107138872147, 0.032431501895189, -0.728164613246918, -0.276853859424591, 0.023921083658934, 0.236997380852699, 0.432913333177567, -0.151640474796295, -0.060007397085428, -0.074134200811386, 0.012787220068276, -0.254730492830276, 0.249737769365311, 1.707917571067810, 0.183960571885109, -0.478379964828491, 0.587849438190460, -0.022696930915117, -0.038729790598154, -0.004794429522008, -0.497857183218002, 0.051799647510052, -0.496999233961105, 0.250025868415833, -0.222032174468040, 0.006376423407346, -0.022612478584051, -0.068159848451614, -0.053909003734589, -0.644146859645844, -0.081789404153824, 0.085796698927879, 0.243034005165100, 0.026100119575858, -0.076847255229950, 0.001979872351512, -0.027374144643545, 0.017514931038022, -0.017643177881837, -0.814792454242706, 0.006486232392490, 0.049786124378443, 0.080576390028000, -0.160166338086128, 0.028782734647393, 0.020292866975069, 0.029661040753126, -0.079919137060642, -0.246808290481567, -0.044768698513508, 0.042849674820900, 0.290048450231552, 0.359510093927383, 0.092918381094933, 0.039539914578199, 0.033288095146418, -0.208596408367157, -0.144433781504631, 0.506607651710510, -0.021136317402124, -0.076345399022102, 0.612291395664215, -0.051591716706753, -0.019953832030296, -0.006156678311527, 0.237095445394516, -0.195290759205818, 0.074097149074078, -0.680214047431946, 0.317230910062790, 0.532121956348419, 0.039254594594240, -0.023154539987445, -0.011826459318399, 0.476018577814102, 0.244204297661781, -0.091011300683022, -0.288162291049957, 0.074391826987267, -0.363817811012268, 0.039188507944345, -0.057884626090527, -0.028940016403794, 0.528098404407501, 1.190801143646240, -0.196153387427330, -0.573757648468018, -0.223776429891586, 0.212436884641647, -0.001752172945999, 0.073238015174866, -0.063357472419739, -0.119431965053082, 0.206097409129143, -0.072313927114010, -0.421138525009155, -0.447138011455536, 0.211321011185646, 0.023976055905223, -0.024212805554271, 0.011277277953923, -1.135644078254700, -0.304527312517166, 0.723095118999481, 0.011277487501502, 0.189937889575958, 0.715286374092102, 0.014630382880569, -0.034795604646206, -0.027715660631657, 1.005445241928101, 0.136774227023125, -0.051418103277683, 0.136763989925385, -0.444057077169418, -0.233693361282349, -0.028599230572581, 0.062390990555286, 0.002258696360514, -0.520544826984406, -0.662544846534729, 0.504692256450653, -0.280059307813644, 0.488129466772079, 0.126465663313866, -0.065601527690887, -0.051125366240740, -0.079899132251740, -0.299221187829971, 0.144647210836411, -0.113968491554260, 0.131978183984756, -0.011064668186009, 0.140033185482025, 0.005541238933802, -0.023593531921506, -0.036660045385361, 0.155182912945747, -0.219180047512054, -0.359586060047150, -0.416694939136505, -0.090004079043865, -0.418365627527237, 0.025339568033814, -0.002258005551994, -0.035735473036766, 0.145288527011871, 0.093295060098171, 0.018075754866004, -0.076244026422501, -0.352973341941833, 0.185430973768234, -0.040646430104971, -0.057569418102503, -0.020558394491673, -1.320888400077820, -0.043806795030832, -0.097439788281918, 0.109369710087776, 0.276625484228134, 0.117177687585354, -0.066813789308071, -0.052103132009506, -0.036528378725052, 0.507641553878784, 1.860195755958557, 0.729012787342072, 0.045834846794605, 0.221788853406906, 0.232733875513077, 0.083934910595417, 0.038970403373241, -0.034880895167589};
#endif

#endif
