-0.225629776716232, -0.054659876972437, -0.327656835317612, 0.339829385280609, -0.147783145308495, 0.096371516585350, 0.004571862053126, -0.043518096208572, -0.086602717638016, 0.106364421546459, 0.021003613248467, -0.231509685516357, -0.277690380811691, -0.193341791629791, -0.104264564812183, 0.040221866220236, 0.006169050931931, 0.029898913577199, 0.678209304809570, -1.149212956428528, 0.039955895394087, -0.122411109507084, 0.030832633376122, -0.505769073963165, -0.006650509778410, 0.011636571027339, -0.085932247340679, 0.088388584554195, 0.609941661357880, 1.512611031532288, -0.321035146713257, -0.319206446409225, 0.812733530998230, 0.063272774219513, -0.001591390697286, -0.025551473721862, -0.277574867010117, 0.117559589445591, 0.347054839134216, -0.124514684081078, -0.049711674451828, -0.316358655691147, 0.022605041041970, 0.007471141871065, -0.001418588450179, 0.292782545089722, 0.050777953118086, -0.242252528667450, 0.469904303550720, 0.325929671525955, -0.045078668743372, 0.018369659781456, 0.006875921972096, 0.030270781368017, 0.143482401967049, 0.004010941833258, -0.275033950805664, 0.095492482185364, 0.260822057723999, 0.275827586650848, 0.083229355514050, 0.014969636686146, 0.012184121645987, 0.859354138374329, 0.083356983959675, 0.063325151801109, -0.094348065555096, -0.265206515789032, 0.001567836035974, -0.010518747381866, -0.003857054514810, 0.004469703882933, 0.049951639026403, -0.475424140691757, -0.035290319472551, 0.060222614556551, -0.000380642653909, 0.059400092810392, 0.063529565930367, 0.038100607693195, -0.024470269680023, 0.078837797045708, -0.067970141768456, -0.192931756377220, 0.209698215126991, 0.542075693607330, -0.140182644128799, -0.061313889920712, 0.026112630963326, 0.042710401117802, 0.030693575739861, 0.011254369281232, -0.344417154788971, 0.068450763821602, -0.185305014252663, -0.118509039282799, -0.059703052043915, -0.003089205129072, 0.010140843689442, -0.218928724527359, 0.087399192154408, 0.070902891457081, -0.779017686843872, 0.017026366665959, -0.224929571151733, 0.011779000051320, -0.019654234871268, 0.014588840305805, -0.148780509829521, 0.030551373958588, 0.102229766547680, -0.031001666560769, -0.201605185866356, -0.200151845812798, -0.033910382539034, -0.019053842872381, -0.021308086812496, 0.067248873412609, 1.731083750724792, -0.155683934688568, -0.112150311470032, 0.138399168848991, -0.039696492254734, 0.036083959043026, 0.022446366026998, -0.061206419020891, 0.778828978538513, 0.762714684009552, -0.567641615867615, -0.784601747989655, -0.185696393251419, 0.100634142756462, -0.077285282313824, 0.009507711045444, -0.020231731235981, -0.072263255715370, 0.946879267692566, -0.025046167895198, 0.277030467987061, -0.255952477455139, 0.161937400698662, -0.031765893101692, 0.013978123664856, 0.006682020612061, -1.299794912338257, -0.044806092977524, -0.529407560825348, 0.309806376695633, 0.503912568092346, 0.153225556015968, 0.016328206285834, 0.018777087330818, 0.073190011084080, -0.042334519326687, 0.059857625514269, -1.231755733489990, 0.037657041102648, -0.175790697336197, -0.383193433284760, -0.029201284050941, -0.014465019106865, -0.027308106422424, -0.297277003526688, 0.061532884836197, -0.077705822885036, 0.274378508329391, 0.033067181706429, -0.332037329673767, -0.005661441944540, -0.028886003419757, -0.011724252253771, 0.144650518894196, 0.016293589025736, -0.260994553565979, 0.298769295215607, -0.223857015371323, -0.384564310312271, 0.063343361020088, 0.082573994994164, 0.018168173730373, 0.917025864124298, 0.007349376101047, -0.066023960709572, 0.332799017429352, -0.076280169188976, 0.038914531469345, 0.062418080866337, 0.041434258222580, 0.009143544360995, -0.053734723478556, 0.039245098829269, 0.675446152687073, 0.339550644159317, -0.260009318590164, 0.414856016635895, 0.070458032190800, 0.057283613830805, 0.040550984442234, -0.035702567547560, 0.215431362390518, 0.103791937232018, 0.384952366352081, 0.416523188352585, 0.017673799768090, -0.040263704955578, -0.002324810251594, 0.013940739445388, 0.946794152259827, 0.037089385092258, -0.896487891674042, -0.080577395856380, -0.203979685902596, -0.046926114708185, -0.047394499182701, 0.003884998150170, -0.009864317253232, -0.316649407148361, -0.040554448962212, -0.272372096776962, 0.299880534410477, -0.386019796133041, -0.383712023496628, -0.010564085096121, -0.005227786023170, -0.033816605806351, 0.544954419136047, -0.057181052863598, -0.322282969951630, -0.081540443003178, -0.168427526950836, -0.021745890378952, -0.004284536931664, 0.026675153523684, 0.005791421514004, 0.150212779641151, -0.110513083636761, -0.076531231403351, 0.372927814722061, -0.258652597665787, -0.051074486225843, 0.083225548267365, -0.011368551291525, 0.009421751834452, 0.145418986678123, 0.030227208510041, -0.268608808517456, 0.169553264975548, 0.043642431497574, 0.442015677690506, -0.035871908068657, -0.038528516888618, -0.010702204890549, 0.002067378722131, -2.105570316314697, 0.598380088806152, -0.341680705547333, -0.186697497963905, 0.236014172434807, 0.016538165509701, 0.025541467592120, -0.052393667399883, 0.233283400535583, -0.101871430873871, -0.003158663399518, -0.199755847454071, -0.122021950781345, -0.457487910985947, 0.016765303909779, 0.042734436690807, -0.086717464029789, -0.058011490851641, 0.015717340633273, -0.226741045713425, -0.587255895137787, 0.269735455513000, -0.061329782009125, 0.010230178944767, -0.001977962441742, 0.019890232011676, -1.123113870620728, -0.004868269897997, 0.519066095352173, 0.081383273005486, -0.202676668763161, -0.112949110567570, 0.025486510246992, -0.000374465860659, -0.027636034414172, -0.205931097269058, 0.077727049589157, 0.207665711641312, -0.299626916646957, -0.034477081149817, -0.651453971862793, -0.021350298076868, 0.017873484641314, -0.022446231916547, 0.537886738777161, 0.099558927118778, 0.168270766735077, 0.334693580865860, -0.009903906844556, 0.310827553272247, -0.017227029427886, 0.052288666367531, -0.027632214128971, 0.053188849240541, -0.004033686127514, 0.115447968244553, 0.288981527090073, 0.278437197208405, 0.284393936395645, 0.097399704158306, -0.009852095507085, -0.057248279452324, -0.297698378562927, 0.043877478688955, 0.053035993129015, -0.281338214874268, 0.280940860509872, 0.348102748394012, 0.039456740021706, -0.013553853146732, 0.036779068410397, 0.083165809512138, -0.053681209683418, 0.088596105575562, -0.219146296381950, 0.225508242845535, 0.081339180469513, -0.074683964252472, -0.023942222818732, -0.023669000715017, -0.009006943553686, 0.033971980214119, 0.311306029558182, -0.592468619346619, -0.074593529105186, 0.089076340198517, -0.016152894124389, 0.013966624625027, 0.009257076308131, -0.003476756624877, 0.075949601829052, 0.369307935237885, -0.566801369190216, 0.188478440046310, 0.420743405818939, 0.051380768418312, -0.047628935426474, -0.016770077869296, 0.026152061298490, -0.063190221786499, -0.008827823214233, -0.499335408210754, 0.052234917879105, -0.005027142819017, -0.033216845244169, 0.043588183820248, -0.056261677294970, 0.328690916299820, -0.190772190690041, -0.747606098651886, -0.811641633510590, -0.201040983200073, -0.203210279345512, -0.072561085224152, 0.049483682960272, 0.015632543712854, 0.031692504882812, -0.006199769675732, -0.201064884662628, -0.359114766120911, 0.256737589836121, -0.146867528557777, -0.032562866806984, 0.012089627794921, 0.038965124636889, -1.001529812812805, -0.084247522056103, 0.762231051921844, 0.710286080837250, 0.573938727378845, -0.114535890519619, 0.115978658199310, -0.004163962323219, 0.068300113081932, -1.231040120124817, -0.044951610267162, 0.246953979134560, -0.437970191240311, 0.223853364586830, 0.070456899702549, -0.069517381489277, -0.024707596749067, -0.009764771908522, -0.049679651856422, -0.053978364914656, 0.021473864093423, 0.202123641967773, -0.116590157151222, -0.022560877725482, 0.043809499591589, -0.053258307278156, 0.009430170990527, -0.075260937213898, -0.087463974952698, 0.046542052179575, -0.591046214103699, -0.056246388703585, -0.247752562165260, -0.071302272379398, 0.012631596066058, 0.035322286188602, -0.139017641544342, -0.037857238203287, 0.017057554796338, -0.475673913955688, 0.166387304663658, -0.594147682189941, -0.012712799012661, 0.048610419034958, -0.023785129189491, 0.175350338220596, -0.055042877793312, -0.172420069575310, -0.079557061195374, -0.224147677421570, 0.045587338507175, 0.022178394719958, -0.026379097253084, 0.005935897585005, 0.415319532155991, -0.017069367691875, -0.063066653907299, 0.397454649209976, -0.388770341873169, 0.589020192623138, 0.035966400057077, -0.016679406166077, 0.009228507988155, 0.548426687717438, -0.037570491433144, 0.078782558441162, -0.294629931449890, -0.000683630409185, 0.246953636407852, 0.007526484783739, -0.001299898256548, 0.009735153056681, -0.117936864495277, -0.029751863330603, 0.801099717617035, -0.416718631982803, -0.201527461409569, 0.463704794645309, 0.023070726543665, -0.025808585807681, 0.025525102391839, -0.119183070957661, -0.016220223158598, 0.421375334262848, -0.060227286070585, 0.198049247264862, 0.222467258572578, 0.033591549843550, -0.032704103738070, 0.022326150909066, -0.022348850965500, -0.811609089374542, 0.018208153545856, 0.891323924064636, -0.125406533479691, -0.114165909588337, 0.039824832230806, 0.009565240703523, 0.001945190480910, -0.137190714478493, -0.100244104862213, 0.107740461826324, 0.272363215684891, 0.162462174892426, 0.296838939189911, -0.028315514326096, 0.052633713930845, -0.022237533703446, 0.160021290183067, -0.017613029107451, -0.059834863990545, -0.313204348087311, -0.213341295719147, -0.116642616689205, -0.055024597793818, 0.018616687506437, -0.025308785960078, -0.143272578716278, 0.023052990436554, -0.411058902740479, 0.700202465057373, -0.501263678073883, -0.430654406547546, -0.073024250566959, -0.061529982835054, -0.000902092200704, -0.160028308629990, 0.037907209247351, -0.029695620760322, -0.034138098359108, -0.349657744169235, 0.534009456634521, -0.006750040221959, 0.007020414806902, 0.023174986243248, 0.616735637187958, 0.066308222711086, -0.366546601057053, 0.034500241279602, 0.145722150802612, -0.184884950518608, -0.047578126192093, 0.023477578535676, -0.083887033164501, 0.278616040945053, -0.045265741646290, -0.208606764674187, -0.044983521103859, -0.216091707348824, 0.371873915195465, -0.081174254417419, 0.006409375928342, -0.078053399920464, 0.080580502748489, 0.378811061382294, 0.014670976437628, 0.193593174219131, 0.299733877182007, -0.114983111619949, 0.003804974956438, 0.069928243756294, -0.028202494606376, 0.009404873475432, 0.042245689779520, -0.830636799335480, -0.358612000942230, 0.107557483017445, -0.440372735261917, 0.017002020031214, 0.026656532660127, 0.083513326942921, -0.191498965024948, 0.123707540333271, 0.677620530128479, 0.174555182456970, -0.418789625167847, 0.350942850112915, -0.065212510526180, -0.016274109482765, -0.038962777704000, -0.023223260417581, -0.002826099749655, -0.041376568377018, -0.072483949363232, 0.427446901798248, -0.348891168832779, 0.048294555395842, -0.056658212095499, 0.036290254443884, -0.068372175097466, 0.086777009069920, 0.144863039255142, 0.487363457679749, -0.002470646984875, -0.189482539892197, -0.103857517242432, 0.071008488535881, -0.012709061615169