1.928097844123840, -0.123609878122807, -1.180886626243591, 0.137425631284714, 0.099518969655037, -0.123823635280132, -0.093577109277248, -0.052046589553356, 0.010134504176676, -1.879464745521545, 0.558376312255859, -0.341010123491287, -0.412395685911179, 0.402102351188660, 0.440786361694336, -0.066327162086964, -0.002401411533356, 0.015120224095881, -0.132407084107399, -0.036847829818726, -0.027170354500413, 0.253725945949554, 0.124908238649368, -0.621289253234863, -0.027159458026290, 0.021700860932469, -0.046417936682701, -0.007284852676094, -0.124113589525223, 0.001363500603475, -0.164812520146370, 0.079209111630917, 0.209690243005753, 0.105976156890392, 0.050948183983564, 0.034032881259918, -0.099469743669033, 0.074251160025597, 0.059202559292316, -0.312992483377457, -0.067077279090881, 0.633092224597931, -0.067988626658916, 0.101927816867828, -0.096159763634205, -0.548954784870148, 0.046918965876102, -0.037071257829666, 0.127201274037361, 0.260663628578186, 0.144803926348686, -0.074166513979435, -0.018207475543022, -0.010451143607497, 0.026672445237637, -0.531265020370483, 0.199528530240059, 0.084714777767658, -0.279252678155899, 0.694196701049805, 0.000288558308966, 0.120618991553783, 0.119892492890358, 0.038766518235207, -0.980727016925812, -0.018271615728736, -0.368757963180542, 0.207388281822205, -0.320283561944962, 0.074620373547077, 0.044389270246029, 0.020628323778510, -0.077788621187210, -0.018493419513106, 0.272816866636276, 0.229570537805557, -0.052751705050468, 0.233690574765205, -0.064152061939240, 0.005080339498818, -0.013564703986049, -0.326228201389313, -0.032533150166273, 0.037295214831829, 0.074267223477364, -0.019328031688929, 0.211407795548439, 0.115273378789425, -0.026535293087363, -0.067806385457516, 0.078845031559467, -0.044495929032564, -0.275310784578323, 0.197658285498619, 0.312507390975952, -0.492278367280960, 0.013687391765416, -0.008480774238706, -0.166752263903618, 0.204792901873589, -0.084611736238003, -0.435210049152374, -0.206324875354767, -0.055667892098427, -0.211593747138977, -0.027884885668755, -0.067888088524342, -0.024112088605762, -0.333731234073639, -0.005734275095165, 0.087823919951916, -0.459963530302048, 0.173114106059074, -0.329425901174545, 0.162581726908684, 0.040290318429470, 0.100385673344135, 1.255313277244568, -0.249507322907448, -0.337825685739517, 0.098902501165867, -0.129351317882538, 0.084859848022461, 0.041226748377085, 0.101456515491009, 0.009892906062305, 0.004006946459413, 0.824233829975128, 0.070205233991146, 0.387955576181412, 0.024581596255302, 0.326746284961700, 0.012332026846707, -0.010311226360500, 0.104044906795025, -0.047331430017948, -0.013519434258342, -0.204418122768402, -0.210800722241402, 0.672897398471832, -0.085724353790283, 0.022956881672144, -0.018525045365095, 0.047469958662987, 0.235706046223640, -0.008849689736962, 1.477089405059814, 0.583212018013000, -0.349244236946106, -0.651176273822784, 0.024838898330927, -0.005231807008386, -0.056898158043623, 0.310793727636337, -0.076448448002338, 0.106006845831871, 0.139063462615013, -0.412373721599579, -0.047422606498003, -0.057222779840231, -0.010362776927650, -0.015341230668128, -0.101480275392532, 0.097475640475750, -0.005064677447081, -0.194863900542259, 0.369126737117767, -0.316684126853943, 0.007134109269828, -0.004957962781191, -0.005105225834996, -0.730766654014587, 0.046838298439980, 0.055857669562101, -0.007044685073197, -0.305584132671356, -0.346195906400681, -0.054528877139091, -0.023318711668253, 0.025620214641094, 0.189389109611511, -0.105265915393829, 0.188692033290863, 0.203908205032349, -0.046975169330835, 0.165305510163307, 0.029286075383425, -0.085631996393204, 0.037374835461378, 0.178764477372169, 0.063642054796219, 0.685102105140686, 0.232169985771179, 0.203127697110176, 0.408427208662033, -0.011654163710773, 0.013155327178538, 0.028257176280022, -0.567821800708771, 1.840791344642639, 0.040225688368082, -0.010547516867518, -0.379338562488556, -0.029264280572534, 0.018738256767392, -0.012431163340807, 0.070990249514580, 0.089662998914719, 0.013614235445857, -0.184986531734467, -0.044616330415010, -0.160967856645584, 0.068287678062916, -0.060753241181374, 0.183996841311455, -0.119316644966602, 0.227562785148621, 0.067543476819992, 0.089101754128933, 0.383178502321243, -0.437377572059631, -0.204820826649666, -0.053706631064415, 0.013098270632327, -0.040061485022306, -0.052505917847157, 0.164464935660362, -0.044126663357019, 0.175041049718857, 0.010381686501205, 0.232349544763565, 0.050711344927549, -0.079421199858189, 0.026603715494275, -0.109389878809452, -0.092747129499912, -0.005662842653692, -0.101437829434872, 0.650119423866272, -0.323590964078903, 0.137809574604034, -0.008726987056434, 0.083574056625366, -1.441694021224976, 0.059441596269608, -1.655843377113342, -0.180408775806427, 0.149204358458519, 0.376641482114792, -0.127468496561050, -0.001277510426007, 0.002960184821859, -0.111006736755371, -0.438526183366776, 0.152996107935905, -0.080627784132957, -0.211400672793388, 0.140795767307281, 0.073027856647968, -0.111295841634274, 0.056603711098433, -0.144344404339790, 0.617320179939270, 0.205716684460640, -0.193133816123009, 0.148333892226219, 0.586859107017517, 0.074964977800846, 0.014065463095903, 0.093672558665276, 0.025246370583773, -0.118135020136833, -0.533051908016205, -0.362745761871338, -0.101197220385075, 0.347546279430389, 0.060992516577244, 0.058587871491909, -0.030527774244547, -1.634726762771606, 1.423191785812378, 0.028646726161242, 0.203881308436394, -0.656760513782501, 0.057935211807489, 0.027378417551517, 0.037438690662384, 0.029451362788677, 0.081560999155045, -0.017711637541652, -0.106168195605278, 0.385855436325073, -0.014432399533689, -0.250207781791687, -0.077960498631001, 0.106375269591808, -0.013966194353998, -0.262076675891876, -0.040548022836447, 0.054859146475792, -0.009158204309642, 0.169995144009590, -0.472500205039978, -0.037981268018484, -0.040914747864008, -0.015221963636577, 0.327461421489716, -1.244853734970093, 1.922471046447754, -0.265689671039581, -0.263436526060104, 0.132768183946609, -0.040872905403376, -0.016135916113853, -0.057264965027571, -0.022925678640604, 0.234386771917343, 0.201095610857010, -0.406216233968735, -0.603887557983398, -0.076553605496883, 0.016901945695281, 0.003042446449399, -0.021897673606873, -0.023549683392048, 0.449327081441879, -0.135289847850800, -0.054522991180420, -0.655889391899109, 0.002375563606620, 0.012994115240872, 0.027322562411427, -0.042504511773586, -0.061110492795706, -0.057103741914034, 0.199978008866310, -0.596161425113678, 0.134386181831360, 0.013542878441513, 0.042816791683435, -0.104692868888378, 0.121130220592022, 0.218390330672264, 0.049299690872431, -0.077150888741016, -0.031174970790744, -0.152708247303963, 0.032172933220863, -0.108610123395920, 0.157514810562134, -0.021408287808299, -0.435265839099884, 0.074741430580616, 0.149325400590897, -0.427902549505234, 0.004886076785624, 0.068186365067959, -0.029559504240751, 0.027233919128776, 0.040779963135719, 0.352423787117004, -0.084109053015709, 1.204157352447510, 0.419736236333847, 0.455881893634796, 0.334871917963028, -0.034616086632013, -0.068196207284927, 0.005210547707975, -0.255800098180771, -0.071054086089134, -0.038097642362118, 0.279924541711807, 0.471753150224686, -0.964896619319916, 0.108690492808819, 0.058178883045912, -0.025154570117593, -0.144661247730255, -0.130817636847496, -0.156007200479507, -0.320720463991165, 0.009224455803633, 0.197513848543167, -0.059717822819948, -0.024912353605032, -0.021625900641084, -0.144252181053162, 0.401445657014847, -0.070142917335033, 0.016413390636444, 0.287656038999557, -0.053914312273264, 0.080717228353024, -0.055660340934992, 0.002238079672679, -0.633005321025848, -0.036564167588949, -0.158936530351639, -0.399316906929016, 0.202055364847183, -0.296227276325226, 0.002608428709209, 0.013394067995250, -0.006551515776664, 0.404005259275436, 0.043300665915012, 1.740393042564392, -0.190354645252228, -0.167462870478630, 0.342696815729141, 0.066009335219860, -0.064971961081028, 0.055367484688759, -0.214838519692421, -0.011989665217698, -0.072177976369858, 0.402941316366196, 0.158909618854523, -0.567030012607574, -0.080243885517120, 0.124361880123615, 0.122035138309002, 0.024911399930716, -0.017726859077811, -2.043879747390747, 0.260493904352188, -0.125782921910286, -0.506607294082642, -0.088572986423969, -0.029524492099881, 0.026676055043936, -0.067972689867020, -0.166836097836494, 0.132195457816124, -0.204096958041191, -0.383824914693832, -0.359585851430893, 0.005223033949733, -0.041675351560116, -0.053941901773214, 0.099295787513256, 0.124858431518078, -0.032315015792847, 0.702246665954590, -0.052281972020864, -0.197989895939827, -0.008601901121438, -0.030320530757308, 0.015924621373415, 0.062086701393127, 1.480368256568909, 0.115012697875500, -0.228229895234108, 0.012386333197355, 0.072020068764687, 0.009128032252192, -0.000970764434896, 0.009724403731525, 0.064849101006985, 0.010428768582642, 0.066116310656071, 0.327290982007980, -0.198791146278381, -0.109320513904095, -0.041307471692562, 0.184987440705299, -0.018804727122188, -0.073358841240406, 1.630494713783264, 0.077307030558586, -0.155389279127121, -0.323314726352692, 0.380994886159897, 0.039902411401272, -0.028528328984976, 0.005888123996556, 0.053769275546074, 0.063979245722294, 0.301594078540802, 0.433564335107803, -0.179004624485970, 0.027043158188462, 0.055774118751287, 0.024158753454685, -0.101524829864502, 0.159472391009331, -0.133596777915955, -0.122596539556980, 0.322548002004623, -0.455261379480362, 0.080872900784016, -0.053107924759388, 0.023758923634887, 0.037413742393255, -1.584638476371765, -0.021239085122943, 0.145763143897057, -0.025603204965591, -0.032532904297113, -0.207753106951714, 0.070822671055794, -0.122223056852818, -0.002196536865085, 0.244723215699196, 0.053955275565386, 0.060645047575235, -0.256216257810593, 0.028742920607328, -0.192141100764275, 0.014006219804287, -0.033603403717279, 0.054503764957190, -0.454273343086243, 0.025414586067200, 0.043890610337257, -0.206392064690590, -0.299448102712631, -0.011764176189899, -0.173498392105103, 0.014902072027326, -0.026324238628149, -0.138175696134567, -0.068407624959946, -0.005969268269837, -0.109275043010712, -0.119259603321552, -0.089122362434864, -0.082097679376602, -0.039580095559359, -0.011556659825146, 0.073952682316303, -0.397649168968201, -0.056966677308083, -0.123977467417717, -0.332309842109680, -0.705030202865601, 0.038330856710672, -0.034822966903448, -0.013058324344456, -0.075272947549820, 1.518496870994568, 0.104701377451420, 0.040217354893684, -0.656012892723083, 0.328419983386993, 0.077066019177437, 0.015290206298232, 0.046696577221155, -0.004021590109915, -0.195758357644081, -0.492453753948212, -0.361209362745285, 0.582296371459961, -0.536908268928528, 0.056975957006216, 0.026768052950501, -0.017897738143802, 0.267416983842850, 0.038653437048197, 0.062218829989433, 0.502648591995239, -0.317209422588348, 0.155183181166649, -0.052393335849047, -0.129603445529938, -0.052358131855726, -0.012877793051302, -1.434956789016724, -0.106635205447674, 0.016518874093890, 0.234337732195854, -0.183112457394600, 0.033614885061979, -0.120172627270222, 0.069110751152039