-0.04479589685797691, -0.03491715341806412, -0.00095081795006990, -0.14718849956989288, 0.23255084455013275, -0.42302808165550232, -0.10530086606740952, -0.09104153513908386, 0.09012752771377563, -0.27205085754394531, -0.01287454180419445, 0.06390686333179474, -0.07626692950725555, -0.19546581804752350, 0.13626551628112793, -0.07847926765680313, -0.02346382476389408, -0.23792263865470886, -0.04155373945832253, -0.02935997582972050, 0.08500509709119797, 0.97057127952575684, 0.21920050680637360, 0.16205270588397980, -0.01666147448122501, -0.05916532501578331, -0.14255353808403015, -0.23190261423587799, 0.11984404176473618, -0.04526311904191971, -0.42121639847755432, -0.00816439650952816, 0.31855478882789612, 0.05356173217296600, -0.06880044192075729, 0.03805170580744743, 0.05448479205369949, -0.41866829991340637, -0.14048710465431213, -0.04346226155757904, -0.11149498075246811, 0.11675296723842621, -0.33646026253700256, 0.17973682284355164, 0.27776816487312317, -0.17572332918643951, 0.32296711206436157, -0.27953723073005676, -0.03507899492979050, -0.06556423753499985, 0.10412029922008514, -0.40916323661804199, -0.04796490073204041, -0.07923230528831482, 0.06500131636857986, -0.07232827693223953, -0.02928471751511097, 0.15604467689990997, -0.04426152631640434, 0.00002905399014708, -0.35581770539283752, 0.27436271309852600, 0.17485865950584412, 0.13991494476795197, 0.01154618430882692, 0.01182041876018047, 0.18722060322761536, 0.11740402132272720, -0.28176841139793396, -0.06856191903352737, 0.39719274640083313, 0.07066244632005692, -0.23739898204803467, -0.03139641508460045, 0.26873937249183655, 0.03418045118451118, -0.11520229279994965, -0.19287079572677612, -0.27122554183006287, -0.38270345330238342, -0.24963308870792389, -0.20823508501052856, 0.13955110311508179, 0.06526558101177216, -0.09770552814006805, 0.21663951873779297, 0.06100426241755486, 0.13789163529872894, -0.08283731341362000, 0.26178148388862610, -0.11172053962945938, -0.01142504159361124, -0.02191753499209881, 0.21747748553752899, 0.04861958697438240, -0.02261095307767391, -0.42012682557106018, 0.11482414603233337, 0.01862535066902637, -0.20606032013893127, 0.12515172362327576, 0.01541686616837978, -0.01823743060231209, -0.17327867448329926, 0.20824404060840607, -0.23541517555713654, -0.12111663073301315, -0.28446924686431885, 0.01867421530187130, 0.33266636729240417, -0.08479199558496475, 0.00317584327422082, 0.24088768661022186, 0.16284300386905670, 0.12078230828046799, -0.33491092920303345, -0.22221437096595764, 0.35264611244201660, -0.03778898343443871, -0.05432323738932610, -0.27575272321701050, -0.25489962100982666, -0.04306391254067421, 0.08357512950897217, 0.18324936926364899, -0.19169639050960541, 0.08286678045988083, 0.00782488752156496, 0.16195504367351532, 0.11505570262670517, 0.01691100932657719, -0.02485649846494198, 0.23364327847957611, 0.21206629276275635, 0.02999073639512062, -0.15682664513587952, 0.21529445052146912, 0.42572388052940369, -0.08821448683738708, -0.14472098648548126, -0.04423618689179420, -0.05430630221962929, 0.06999603658914566, 0.07530912756919861, -0.06071533262729645, -0.12719500064849854, -0.02111744508147240, 0.18020676076412201, -0.09740655869245529, 0.01759254001080990, 0.08813934028148651, -0.10059588402509689, 0.02228157781064510, 0.22716596722602844, -0.24493050575256348, -0.16391251981258392, 0.17557805776596069, 0.07281853258609772, 0.07346301525831223, -0.01863226294517517, 0.35761293768882751, -0.04614325612783432, -0.02333952486515045, 0.18896076083183289, -0.02605270035564899, -0.21047565340995789, -0.04033260047435760, 0.08162179589271545, -0.22795248031616211, 0.16328561305999756, 0.21229505538940430, 0.27378860116004944, 0.07698062807321548, -0.19438508152961731, -0.12763424217700958, 0.32316204905509949, 0.17645303905010223, -0.22913855314254761, 0.11644838750362396, -0.08199477940797806, 0.04103111475706100, 0.16384311020374298, 0.21068499982357025, -0.19767291843891144, 0.00871675461530685, -0.11472693085670471, -0.04057748243212700, 0.00936382729560137, 0.08732410520315170, -0.22992454469203949, -0.18600922822952271, -0.08452449738979340