0.09308436512947083, -0.23032714426517487, -0.07971751689910889, -0.21159175038337708, -0.09976515918970108, -0.22854740917682648, -0.04765969142317772, 0.00128866743762046, 0.03322337940335274, 0.09457236528396606, 0.29046431183815002, -0.10596075654029846, -0.00830637197941542, -0.06028566882014275, -0.08158003538846970, 0.12048309296369553, 0.22454924881458282, 0.04730931296944618, 0.00029441306833178, 0.06588643789291382, 0.08481036871671677, 0.60440254211425781, 0.22952300310134888, 0.08792363852262497, 0.28064939379692078, 0.22283907234668732, -0.19427053630352020, -0.06294776499271393, 0.23320670425891876, -0.13664151728153229, -0.06525909155607224, 0.15476523339748383, 0.05573898181319237, 0.00570839969441295, -0.04542837664484978, -0.18030899763107300, -0.23083427548408508, -0.03179647400975227, -0.00786886829882860, -0.08967527747154236, -0.09793687611818314, 0.27214759588241577, -0.35706648230552673, 0.02524985373020172, -0.03403415158390999, -0.10849436372518539, 0.10497754067182541, 0.07142052054405212, -0.00820558425039053, -0.16909374296665192, 0.11883120983839035, 0.01673207245767117, 0.17282766103744507, -0.04616468772292137, -0.09572092443704605, 0.05422688648104668, -0.04385649785399437, -0.09626127779483795, -0.23212112486362457, 0.01153623592108488, -0.04308493062853813, 0.09067038446664810, 0.09577029198408127, -0.14209209382534027, 0.05896007269620895, -0.04294524714350700, 0.01583524793386459, 0.26663860678672791, -0.42607653141021729, 0.26652833819389343, -0.00368127156980336, -0.10232044011354446, -0.19133512675762177, 0.11065542697906494, 0.09368471056222916, -0.02085987292230129, -0.13076673448085785, 0.02580348215997219, -0.16517177224159241, 0.14708602428436279, -0.19325448572635651, -0.08961414545774460, 0.14174607396125793, 0.15335550904273987, -0.21000893414020538, 0.09985388815402985, 0.14534217119216919, 0.22289830446243286, 0.01257650554180145, 0.17369385063648224, -0.11154216527938843, -0.10608170181512833, 0.10961325466632843, 0.26532062888145447, 0.11636376380920410, -0.04122850298881531, -0.23318547010421753, 0.06888266652822495, 0.10618174821138382, -0.20439916849136353, -0.13830900192260742, -0.14644652605056763, 0.01360686030238867, -0.08861890435218811, 0.14542230963706970, -0.25378137826919556, -0.01505467947572470, -0.18863067030906677, 0.12982313334941864, 0.00804589129984379, -0.18033410608768463, -0.08490484207868576, 0.06187961250543594, -0.07595422863960266, 0.17403276264667511, -0.04869565740227699, -0.19960840046405792, 0.49588710069656372, -0.00919954944401979, 0.28624579310417175, -0.01828670874238014, 0.02403360232710838, -0.03816120699048042, 0.08547589182853699, 0.20043791830539703, -0.09725305438041687, -0.02451501972973347, 0.04174862802028656, -0.04810804873704910, -0.06087660044431686, -0.06390144675970078, 0.04837136715650558, 0.01406496390700340, 0.13445223867893219, -0.10079867392778397, -0.04182550311088562, 0.04202501848340034, 0.21157638728618622, -0.10488413274288177, -0.05680032446980476, 0.21388682723045349, 0.00104169687256217, 0.06232754141092300, -0.15144219994544983, 0.16571205854415894, -0.06112979352474213, -0.08590076863765717, 0.08054383844137192, 0.06629290431737900, 0.03926208242774010, 0.07730105519294739, 0.12038578093051910, 0.07800080627202988, 0.15250606834888458, -0.27027156949043274, -0.00312465312890708, 0.15559051930904388, 0.13535685837268829, -0.00026566465385258, -0.06783032417297363, 0.11669803410768509, 0.01679853722453117, -0.01822195760905743, 0.01201307121664286, 0.02322687394917011, -0.14786697924137115, -0.23324035108089447, -0.11085639894008636, -0.13589872419834137, -0.05745800957083702, -0.16538716852664948, 0.07443671673536301, 0.15066245198249817, -0.34065893292427063, -0.06713037192821503, 0.24788141250610352, 0.12292832881212234, -0.28530591726303101, 0.03542849048972130, -0.01336254365742207, -0.08357233554124832, 0.23072186112403870, -0.02946539968252182, -0.00556635111570358, -0.20958749949932098, -0.15798595547676086, -0.00995117519050837, 0.04609091207385063, -0.05056811496615410, -0.23914030194282532, -0.23653961718082428, -0.17801280319690704