//Numpy array shape [192]
//Min -0.855477929115
//Max 0.470264405012
//Number of zeros 0

#ifndef OUT_PROJ_BIAS51_H_
#define OUT_PROJ_BIAS51_H_

#ifndef __SYNTHESIS__
layers_5_ffn_out_proj_bias_t out_proj_bias51[192];
#else
layers_5_ffn_out_proj_bias_t out_proj_bias51[192] = {0.07658057659864426, -0.08146622031927109, -0.13708136975765228, 0.06728389859199524, -0.06067190691828728, 0.10357129573822021, 0.29548251628875732, 0.04447250813245773, -0.13313817977905273, 0.06722964346408844, 0.29719313979148865, 0.05618906021118164, 0.11568734049797058, 0.09861836582422256, 0.17730550467967987, -0.11512453854084015, 0.19829221069812775, 0.24533386528491974, 0.02415781468153000, -0.14467272162437439, 0.19591754674911499, -0.85547792911529541, -0.12502163648605347, -0.17436128854751587, 0.10233779251575470, 0.09864691644906998, 0.17103581130504608, 0.11291264742612839, 0.00309731718152761, -0.24029859900474548, -0.00630836747586727, -0.10623715817928314, -0.20511311292648315, -0.11961371451616287, -0.14597536623477936, 0.07034423947334290, 0.22318501770496368, 0.37067955732345581, -0.45018982887268066, -0.07340715825557709, -0.01020553614944220, -0.18275387585163116, 0.03384774550795555, 0.04276549443602562, 0.20579358935356140, -0.10068501532077789, -0.05454805865883827, 0.11960321664810181, 0.03785434737801552, 0.09377220273017883, -0.20809648931026459, 0.22579722106456757, -0.01567227952182293, -0.02095226384699345, -0.09645937383174896, 0.02433969825506210, 0.14766041934490204, 0.02922178246080875, -0.01958175562322140, -0.20567540824413300, 0.12489606440067291, -0.19196759164333344, -0.18476752936840057, -0.02140691690146923, -0.08058346062898636, 0.05209506675601006, -0.02094150520861149, -0.31871214509010315, 0.32836189866065979, -0.14406552910804749, -0.03684327006340027, 0.05800107866525650, 0.18055430054664612, -0.14811937510967255, -0.16227476298809052, -0.10447311401367188, 0.10799180716276169, 0.06836885213851929, 0.04915931075811386, 0.00767240487039089, 0.08560478687286377, -0.02406112663447857, -0.02044216729700565, 0.11353618651628494, -0.12348836660385132, -0.05574997887015343, -0.00429818546399474, -0.10370634496212006, 0.09776277095079422, 0.10096564888954163, -0.01407188456505537, 0.25991666316986084, -0.07935313880443573, -0.05290700495243073, 0.00082798430230469, 0.04034765809774399, 0.21876682341098785, 0.29169407486915588, -0.03684986010193825, 0.00182379980105907, 0.12941479682922363, 0.08117469400167465, 0.05314674973487854, -0.00288292043842375, -0.06899777054786682, -0.04836178198456764, 0.19084362685680389, 0.19287440180778503, 0.14305360615253448, -0.25900626182556152, -0.09448727220296860, -0.06252232193946838, -0.21484643220901489, -0.15048681199550629, 0.08591783791780472, 0.17639146745204926, -0.02472377382218838, -0.04196509346365929, -0.04216200485825539, 0.13313706219196320, 0.28404563665390015, 0.12193601578474045, 0.06382346153259277, 0.10619565099477768, -0.06701351702213287, -0.11500165611505508, 0.08011203259229660, -0.06954374909400940, -0.13771833479404449, -0.00054356706095859, 0.11383460462093353, -0.16194234788417816, -0.09002472460269928, 0.11468874663114548, -0.07916490733623505, 0.22984325885772705, -0.06964819133281708, -0.24991412460803986, -0.05205727368593216, 0.12546846270561218, -0.13506568968296051, 0.00094989105127752, 0.12368956953287125, 0.02431948482990265, 0.01797175221145153, 0.11256174743175507, -0.02614231780171394, -0.09359101206064224, -0.13307821750640869, -0.27293121814727783, -0.15530674159526825, -0.05303374305367470, 0.02729850821197033, 0.06134013086557388, 0.13972288370132446, -0.05682902038097382, -0.25619858503341675, 0.17696595191955566, -0.17069549858570099, -0.28167814016342163, -0.32543334364891052, -0.24052983522415161, -0.00234150001779199, -0.22547022998332977, 0.06729355454444885, 0.02689001150429249, -0.08140330016613007, -0.11706250905990601, -0.06999374926090240, 0.02637072280049324, -0.07434983551502228, -0.06766182929277420, -0.04103005304932594, 0.22044497728347778, 0.13241414725780487, -0.08075654506683350, -0.07186486572027206, 0.47026440501213074, -0.08987628668546677, 0.03217869997024536, -0.12778446078300476, -0.00686221383512020, 0.09473881870508194, 0.25977930426597595, 0.06910403817892075, 0.09689889103174210, 0.09397653490304947, 0.02064011618494987, -0.17616677284240723, -0.02522795088589191, 0.14220985770225525, -0.00697372015565634};
#endif

#endif
