//Numpy array shape [192]
//Min -0.886717855930
//Max 0.638972163200
//Number of zeros 0

#ifndef OUT_PROJ_BIAS27_H_
#define OUT_PROJ_BIAS27_H_

#ifndef __SYNTHESIS__
layers_1_ffn_out_proj_bias_t out_proj_bias27[192];
#else
layers_1_ffn_out_proj_bias_t out_proj_bias27[192] = {-0.03042445518076420, -0.21191962063312531, -0.17770175635814667, 0.21181920170783997, 0.04605481028556824, 0.43732157349586487, 0.43230110406875610, -0.16458705067634583, -0.37034082412719727, 0.22384707629680634, -0.06955353170633316, -0.08899399638175964, 0.18930964171886444, 0.37837061285972595, 0.08988231420516968, -0.21220639348030090, 0.25455173850059509, 0.15051823854446411, -0.20929718017578125, -0.03659616783261299, 0.07449601590633392, 0.54706084728240967, 0.03197735920548439, -0.21404300630092621, -0.33075439929962158, -0.08774171769618988, -0.05957861617207527, 0.10317207127809525, 0.07796498388051987, 0.03945506364107132, 0.18490588665008545, 0.13207174837589264, -0.39407056570053101, -0.07158823311328888, 0.13030901551246643, -0.23578874766826630, 0.35638585686683655, 0.17645131051540375, -0.11290909349918365, -0.43759503960609436, 0.11046504229307175, 0.06084913387894630, -0.10787036269903183, 0.21499432623386383, -0.14242620766162872, -0.06934081763029099, -0.10060808062553406, -0.21952754259109497, 0.28424566984176636, 0.18247802555561066, -0.41514003276824951, 0.20642259716987610, 0.05503045395016670, -0.03582819551229477, 0.55843496322631836, -0.13797071576118469, 0.23812368512153625, -0.07328160107135773, -0.17227427661418915, -0.24648979306221008, -0.02157711610198021, -0.20737113058567047, -0.24941502511501312, -0.23820137977600098, 0.07100000232458115, -0.03116011247038841, -0.07297839969396591, -0.22595486044883728, 0.28547030687332153, -0.00130022759549320, -0.04472973570227623, 0.32119831442832947, 0.23966076970100403, -0.46098214387893677, 0.35702002048492432, -0.29973399639129639, 0.63897216320037842, 0.21980535984039307, 0.07718198001384735, 0.22929304838180542, 0.22989447414875031, -0.88671785593032837, -0.07383977621793747, 0.49173840880393982, -0.01834718883037567, -0.45181080698966980, 0.22687816619873047, 0.08805318921804428, -0.07565721124410629, 0.47431451082229614, -0.11343485116958618, -0.29898917675018311, -0.23075638711452484, 0.29163038730621338, 0.12008927017450333, -0.20020960271358490, 0.14212411642074585, 0.04603309556841850, 0.07358427345752716, 0.23436389863491058, 0.27775266766548157, -0.06119492277503014, 0.35849267244338989, -0.43367925286293030, -0.01654083840548992, 0.34654849767684937, -0.08197146654129028, 0.09548813104629517, -0.20853604376316071, 0.15905304253101349, -0.03769037500023842, -0.33194679021835327, -0.27485769987106323, 0.07958825677633286, -0.24084627628326416, -0.19628535211086273, 0.11794421076774597, -0.20865805447101593, -0.15779764950275421, 0.20897729694843292, 0.16576603055000305, -0.18514816462993622, -0.11943555623292923, -0.26148527860641479, -0.15894471108913422, -0.30367472767829895, -0.21952605247497559, 0.13182769715785980, -0.14935879409313202, -0.20300129055976868, 0.33392757177352905, -0.02429055608808994, -0.18755356967449188, 0.23130685091018677, 0.50033801794052124, -0.06285400688648224, -0.05479649454355240, -0.32570716738700867, -0.28296378254890442, 0.09838538616895676, 0.18202976882457733, 0.20387545228004456, 0.06537365913391113, -0.19251629710197449, -0.19512027502059937, 0.00680318800732493, 0.31278207898139954, -0.36989501118659973, 0.52186822891235352, -0.20237979292869568, -0.52830898761749268, 0.38403382897377014, 0.41797825694084167, 0.11488687247037888, 0.00423166900873184, 0.16636584699153900, -0.19674180448055267, -0.17176255583763123, -0.01414645463228226, 0.04236731305718422, -0.01143147237598896, -0.14897248148918152, 0.18962132930755615, 0.28067302703857422, -0.28088769316673279, 0.08064686506986618, -0.21430726349353790, 0.19223156571388245, -0.09176696836948395, -0.18517914414405823, 0.16463543474674225, 0.24842542409896851, -0.09164863824844360, 0.47503441572189331, 0.01308183558285236, -0.06375226378440857, -0.08391878008842468, -0.12193694710731506, 0.00449983263388276, 0.26214006543159485, -0.05413305759429932, 0.19737486541271210, 0.05464271456003189, 0.14293356239795685, -0.00545177794992924, -0.37545615434646606, 0.13332507014274597, -0.33522900938987732, -0.27656579017639160, 0.06783986836671829, 0.25681325793266296, -0.15924064815044403};
#endif

#endif
