//Numpy array shape (192,)
//Min -0.536071598530
//Max 0.939275085926
//Number of zeros 0

#ifndef OUT_PROJ_BIAS48_H_
#define OUT_PROJ_BIAS48_H_

#ifndef __SYNTHESIS__
layers_5_self_attn_out_proj_bias_t out_proj_bias48[192];
#else
layers_5_self_attn_out_proj_bias_t out_proj_bias48[192] = {-0.21292664110660553, 0.34605816006660461, -0.00084054959006608, 0.02556929737329483, 0.19435161352157593, -0.29068112373352051, -0.30495196580886841, 0.12896461784839630, 0.43969666957855225, -0.39078193902969360, -0.19168335199356079, -0.03413240611553192, -0.14474111795425415, -0.07471602410078049, 0.15181200206279755, 0.08798896521329880, -0.28114491701126099, -0.28370627760887146, -0.14219205081462860, -0.06571468710899353, -0.11085960268974304, 0.93927508592605591, -0.04641107097268105, 0.11789159476757050, -0.07444376498460770, 0.13485568761825562, -0.24895150959491730, -0.28491970896720886, 0.12478847801685333, 0.30365937948226929, -0.13322846591472626, -0.13088934123516083, 0.31737399101257324, -0.13775394856929779, 0.13425028324127197, -0.09271414577960968, -0.07806299626827240, -0.05072613805532455, 0.08897165954113007, 0.08021486550569534, -0.03686659038066864, 0.27531242370605469, 0.13348539173603058, 0.17885385453701019, -0.19660705327987671, 0.09225691854953766, -0.10568346828222275, -0.11440778523683548, -0.03671987727284431, 0.02599138393998146, 0.36911526322364807, -0.31447091698646545, -0.01520866993814707, 0.00758426776155829, 0.03586666285991669, -0.17962075769901276, -0.25247755646705627, 0.13371592760086060, 0.05066728964447975, 0.03923218697309494, 0.26908579468727112, 0.41444596648216248, 0.09777954965829849, 0.09935875982046127, 0.04754114151000977, -0.09522690623998642, 0.16258659958839417, 0.27602589130401611, -0.53607159852981567, -0.05956827104091644, 0.01424659229815006, -0.04218892380595207, -0.22577317059040070, 0.29441201686859131, 0.28656959533691406, 0.11333102732896805, -0.31661459803581238, -0.41355398297309875, -0.09152697026729584, -0.25729784369468689, -0.24640594422817230, -0.18103213608264923, -0.13118214905261993, 0.10930187255144119, 0.28175571560859680, 0.17824316024780273, 0.04520425200462341, -0.05820655077695847, -0.36144125461578369, 0.21789667010307312, 0.17828778922557831, -0.03986938297748566, -0.23998615145683289, 0.22826306521892548, -0.19643044471740723, 0.00025913576246239, -0.19045037031173706, -0.19296571612358093, 0.09176191687583923, 0.08743207156658173, -0.36013263463973999, 0.15672177076339722, 0.09380692988634109, 0.00300916563719511, 0.19845461845397949, 0.07100834697484970, -0.27459517121315002, -0.31153714656829834, 0.15368145704269409, 0.20293025672435760, 0.17709888517856598, 0.06819750368595123, -0.02520473860204220, -0.00919640902429819, -0.08391066640615463, -0.25706234574317932, -0.11878716945648193, -0.08173808455467224, 0.00961721036583185, 0.05025287345051765, -0.42390993237495422, -0.21843872964382172, 0.17905767261981964, -0.01434964966028929, 0.03106204047799110, -0.14341855049133301, -0.19957974553108215, -0.09935810416936874, 0.45538473129272461, -0.07122931629419327, -0.14806148409843445, -0.12031722813844681, 0.18667259812355042, 0.02395181730389595, 0.19395036995410919, -0.26841372251510620, 0.16917742788791656, 0.34537491202354431, 0.02899059467017651, -0.09197512269020081, -0.00529781263321638, -0.25211346149444580, -0.19463773071765900, 0.12351366132497787, 0.32557332515716553, 0.23109745979309082, -0.12771739065647125, 0.48676007986068726, 0.25091895461082458, 0.12754094600677490, 0.14401848614215851, -0.16477191448211670, 0.07080540806055069, -0.06847199797630310, -0.11752226948738098, 0.06492261588573456, 0.24850100278854370, -0.03381390869617462, 0.02018565498292446, 0.18282139301300049, 0.27046334743499756, 0.25565177202224731, 0.00870939623564482, 0.18643681704998016, -0.00442898320034146, -0.01199930813163519, -0.24189217388629913, 0.18137423694133759, 0.01694644428789616, 0.08811683207750320, 0.13674573600292206, 0.10937353223562241, 0.09177753329277039, -0.20142845809459686, -0.21911837160587311, 0.16251544654369354, 0.11056714504957199, -0.44048216938972473, -0.01890853233635426, -0.14607092738151550, 0.02032497525215149, -0.00628368742763996, 0.05624192580580711, 0.04334879294037819, -0.27571260929107666, -0.07860591262578964, -0.10060522705316544, -0.29697564244270325, 0.04766012355685234, -0.00845920573920012, -0.31573024392127991, 0.01317112240940332};
#endif

#endif
