//Numpy array shape [192]
//Min -0.872155249119
//Max 0.320893496275
//Number of zeros 0

#ifndef OUT_PROJ_BIAS63_H_
#define OUT_PROJ_BIAS63_H_

#ifndef __SYNTHESIS__
layers_7_ffn_out_proj_bias_t out_proj_bias63[192];
#else
layers_7_ffn_out_proj_bias_t out_proj_bias63[192] = {0.07322572916746140, -0.13538651168346405, -0.08736786246299744, 0.12639163434505463, -0.06365182995796204, 0.04430848732590675, 0.04611495137214661, 0.14616721868515015, -0.22786222398281097, 0.11546722054481506, 0.10783886164426804, 0.13789579272270203, -0.06155832111835480, 0.11478302627801895, 0.11102824658155441, -0.07642128318548203, 0.26180383563041687, -0.03373805806040764, -0.03863477706909180, -0.05576989799737930, 0.15012559294700623, -0.87215524911880493, -0.04887605831027031, -0.03666437789797783, -0.00227898266166449, 0.01021932065486908, 0.01913715712726116, -0.00249908491969109, -0.17961984872817993, -0.04753497242927551, -0.09451793879270554, -0.01553082186728716, -0.07679107785224915, -0.10023528337478638, -0.01795725710690022, 0.01664757169783115, 0.25330889225006104, -0.00743815395981073, 0.00021011228091083, 0.02506442740559578, -0.04908538982272148, -0.01787266694009304, 0.02919106930494308, -0.00318111968226731, 0.12999232113361359, 0.09607160091400146, -0.15609480440616608, 0.15321925282478333, -0.05150809139013290, -0.00507576996460557, -0.14136092364788055, 0.23024465143680573, -0.03384096547961235, -0.02963737398386002, 0.11016062647104263, 0.03999931737780571, 0.06768774986267090, 0.07778641581535339, 0.09743075817823410, -0.07840707153081894, 0.05325877666473389, -0.21344889700412750, -0.17346729338169098, 0.13673627376556396, -0.01604657806456089, 0.13331107795238495, -0.12920738756656647, 0.08980188518762589, 0.30979421734809875, -0.06707872450351715, -0.01445094682276249, -0.01320619974285364, 0.10738814622163773, -0.20373776555061340, -0.18256996572017670, -0.08267998695373535, 0.16538417339324951, 0.09011386334896088, 0.15328571200370789, -0.02736895903944969, 0.19390735030174255, -0.04540772363543510, 0.01170775014907122, -0.12683263421058655, -0.19344832003116608, -0.03302194550633430, -0.01360017713159323, -0.00806660111993551, 0.14074338972568512, -0.00547787500545382, -0.13123205304145813, 0.09922008961439133, 0.09400559216737747, -0.15693886578083038, -0.00244886358268559, 0.02472655102610588, 0.12797044217586517, 0.19288301467895508, 0.06356348097324371, 0.19884918630123138, 0.22114516794681549, 0.06469623744487762, 0.11528826504945755, -0.07493633031845093, -0.15394546091556549, 0.02642723917961121, 0.19677905738353729, 0.22052635252475739, -0.18885242938995361, -0.08486350625753403, -0.11249233037233353, -0.12253257632255554, -0.09930846840143204, -0.25416323542594910, -0.00848206132650375, 0.15645478665828705, -0.00566881708800793, -0.09461466223001480, 0.10681450366973877, 0.12434055656194687, 0.18795904517173767, 0.16592487692832947, -0.14526909589767456, -0.02780499868094921, -0.00142572494223714, -0.07705657184123993, 0.00751424999907613, -0.02922463603317738, -0.12008807808160782, -0.09740727394819260, 0.13345368206501007, -0.11435095965862274, -0.08567331731319427, -0.13137409090995789, 0.08972211182117462, 0.09321238100528717, -0.08832916617393494, -0.20297086238861084, 0.00401195883750916, 0.16420203447341919, -0.00766486115753651, -0.00462663592770696, 0.19802722334861755, -0.11894502490758896, -0.18322686851024628, -0.09599214792251587, -0.25194621086120605, -0.14601442217826843, -0.18828542530536652, -0.14348596334457397, 0.07096194475889206, -0.00402942113578320, -0.00636959541589022, -0.06816963851451874, 0.04477503150701523, 0.15157444775104523, -0.25549888610839844, 0.11843723058700562, 0.09590767323970795, -0.07123525440692902, -0.26106530427932739, 0.03499445691704750, 0.07649793475866318, -0.08207487314939499, 0.15488927066326141, 0.25319576263427734, 0.20603522658348083, -0.19212611019611359, 0.14730422198772430, -0.07690419256687164, -0.13737981021404266, -0.08180534839630127, -0.06047750636935234, 0.09511988610029221, 0.05532309040427208, -0.15107962489128113, -0.14006684720516205, 0.25888526439666748, -0.17600254714488983, 0.19507366418838501, -0.13508036732673645, -0.17117153108119965, -0.02893786504864693, 0.06842681765556335, 0.31911182403564453, 0.20162037014961243, -0.01721386983990669, 0.03118673898279667, -0.36856988072395325, -0.05993888154625893, 0.32089349627494812, 0.15250879526138306};
#endif

#endif
