0.051711969077587128, 0.034749150276184082, -0.156632378697395325, -0.127682372927665710, -0.081110738217830658, 0.293526589870452881, 0.118156708776950836, -0.080912202596664429, -0.219447895884513855, 0.081204339861869812, 0.299516022205352783, 0.024354932829737663, 0.165200963616371155, 0.301292449235916138, 0.407841503620147705, -0.274284541606903076, 0.217455491423606873, 0.115693792700767517, -0.081856660544872284, 0.087834320962429047, 0.193389266729354858, -0.318361580371856689, -0.158430010080337524, -0.281687170267105103, -0.199132636189460754, 0.163464143872261047, -0.085959665477275848, 0.039654240012168884, 0.186053127050399780, -0.015606544911861420, 0.141772270202636719, 0.107991829514503479, -0.169996023178100586, 0.152771353721618652, -0.158543854951858521, 0.063080348074436188, 0.023087061941623688, 0.084150888025760651, -0.456767469644546509, -0.242556110024452209, -0.072129406034946442, -0.037397205829620361, 0.078300125896930695, 0.065519869327545166, 0.062612593173980713, -0.046019919216632843, -0.046959750354290009, -0.174705773591995239, 0.162820294499397278, 0.091024979948997498, -0.190915241837501526, 0.178677052259445190, -0.288133174180984497, -0.252117782831192017, 0.166134908795356750, 0.079634174704551697, -0.058831818401813507, -0.008573535829782486, -0.007423992734402418, -0.164981350302696228, 0.247419491410255432, -0.023094085976481438, 0.068233117461204529, -0.098571158945560455, -0.015343865379691124, -0.096647694706916809, 0.041313610970973969, -0.239294022321701050, 0.055074092000722885, -0.066120065748691559, -0.182586744427680969, 0.014797599986195564, -0.149705722928047180, 0.003359056543558836, -0.056818511337041855, 0.076765350997447968, 0.150298759341239929, 0.052010659128427505, 0.074432954192161560, 0.096039511263370514, 0.226248502731323242, -0.261378109455108643, 0.139465019106864929, 0.359498083591461182, -0.121002532541751862, -0.060374457389116287, -0.036529377102851868, 0.039896842092275620, 0.054001003503799438, 0.345353990793228149, -0.066492244601249695, 0.106534540653228760, -0.024374432861804962, -0.135356977581977844, 0.013218357227742672, 0.155654624104499817, 0.140833258628845215, 0.059490568935871124, 0.256351441144943237, -0.017594086006283760, 0.082682587206363678, -0.030484784394502640, -0.028246205300092697, 0.061328560113906860, -0.091717079281806946, 0.075332686305046082, -0.008118223398923874, 0.146930381655693054, -0.092476852238178253, -0.142971023917198181, 0.211166858673095703, -0.077155537903308868, -0.144949868321418762, 0.288069665431976318, 0.005824729334563017, 0.259708493947982788, 0.073943197727203369, -0.137500837445259094, -0.113232560455799103, -0.033955268561840057, 0.128362804651260376, 0.243739679455757141, -0.109890095889568329, -0.001940886839292943, -0.033114548772573471, -0.128538340330123901, 0.109886586666107178, 0.166120812296867371, -0.103397078812122345, -0.174360707402229309, 0.193781301379203796, -0.247930586338043213, 0.050361551344394684, 0.200475186109542847, 0.117187403142452240, 0.156554818153381348, -0.229825049638748169, -0.325557917356491089, 0.011639747768640518, 0.045463245362043381, -0.152596205472946167, 0.312432557344436646, 0.021444268524646759, 0.036767732352018356, -0.082338720560073853, 0.159897118806838989, -0.185021191835403442, -0.148786664009094238, 0.085745610296726227, -0.147023975849151611, -0.397254765033721924, -0.013184922747313976, 0.112452358007431030, 0.060674559324979782, 0.073853574693202972, 0.047452691942453384, -0.126617193222045898, 0.027297666296362877, -0.348724484443664551, 0.046999827027320862, -0.011246478185057640, -0.198043599724769592, 0.009351558983325958, -0.041287660598754883, -0.203444421291351318, 0.015097534283995628, 0.074792265892028809, -0.134857207536697388, -0.091218888759613037, -0.111277677118778229, -0.160450980067253113, -0.185887753963470459, -0.023622207343578339, 0.195111349225044250, 0.049651049077510834, 0.135135486721992493, -0.103266321122646332, 0.155400261282920837, -0.022133048623800278, 0.174407139420509338, -0.134585306048393250, -0.053112387657165527, 0.024979276582598686, 0.080307468771934509, -0.146533191204071045, -0.059259492903947830, 0.023983323946595192, -0.047226674854755402, -0.319287031888961792, 0.102966390550136566, -0.086096234619617462, -0.163755804300308228