//Numpy array shape [192]
//Min -2.610794067383
//Max 1.237396717072
//Number of zeros 0

#ifndef BIAS53_H_
#define BIAS53_H_

#ifndef __SYNTHESIS__
layers_6_norm1_bias_t bias53[192];
#else
layers_6_norm1_bias_t bias53[192] = {0.089108712971210, -0.383041143417358, 0.102215185761452, -0.294125974178314, -0.083115085959435, 0.025072626769543, 0.164489760994911, -0.024148795753717, -0.040500469505787, 0.164744317531586, 0.139446273446083, -0.144048646092415, 0.063017927110195, -0.110336787998676, 0.243535399436951, 0.061859797686338, 0.141592040657997, 0.165173277258873, -0.007558345794678, 0.178649961948395, 0.038447149097919, -2.610794067382812, -0.070543445646763, 0.020362207666039, 0.066996805369854, -0.059705559164286, -0.093538433313370, 0.156107962131500, -0.327131211757660, -0.209597989916801, -0.341695398092270, 0.319864481687546, 0.106789715588093, 0.047506857663393, -0.268337786197662, 0.044347427785397, 0.090177610516548, -0.420262545347214, -0.004098251927644, -0.097778432071209, 0.083223089575768, 0.214603543281555, -0.223288908600807, 0.133832246065140, 0.157459914684296, -0.249322876334190, 0.137959361076355, 0.116699442267418, -0.034828159958124, -0.045660037547350, -0.308724820613861, 0.079040423035622, -0.394015371799469, -0.090675629675388, -0.863655805587769, 0.143033459782600, -0.068543568253517, 0.165515214204788, -0.031317561864853, -0.194066792726517, -0.109806381165981, -0.042741283774376, 0.033274222165346, -0.175721138715744, -0.095208391547203, 0.717525482177734, 0.728198289871216, -0.328702747821808, 0.199769303202629, -0.305052876472473, 0.319750636816025, -0.097667098045349, -0.345767974853516, 0.024999601766467, -0.253957480192184, -0.222735390067101, 0.404284000396729, 0.180655777454376, -0.153946697711945, 0.254460543394089, 0.036711290478706, 1.221841216087341, -0.139402195811272, 0.066017784178257, -0.283207684755325, 0.071337714791298, 0.119993679225445, 0.194112122058868, 0.003056203015149, -1.126416683197021, -0.074401333928108, -0.013842126354575, 0.625077307224274, 0.008030022494495, 0.058934193104506, 0.157665044069290, -0.266634702682495, -0.252634286880493, -0.069359637796879, -0.163512289524078, 0.196464627981186, -0.165591508150101, 0.014837727881968, -0.070692040026188, -0.045385323464870, -0.107922069728374, -0.000072648123023, 0.102523960173130, 0.043491233140230, -0.188954651355743, -0.050542965531349, 0.069776020944118, 0.232285499572754, -0.019115993753076, 0.096674308180809, 1.237396717071533, -0.308912873268127, 0.371050894260406, 0.172135666012764, 0.104178443551064, 0.468094021081924, 0.015329329296947, -0.247990757226944, 0.150720626115799, 0.353807866573334, -0.021367967128754, -0.022078085690737, -0.060578100383282, -0.356304556131363, 0.169156312942505, 0.302556544542313, -0.778965234756470, 0.251081615686417, 0.168021887540817, 0.110103338956833, 0.112168982625008, -0.279175400733948, -0.230225503444672, 0.035298351198435, 0.105850040912628, -0.108158878982067, 0.079265877604485, -0.201915726065636, -0.234608829021454, 0.075705848634243, -0.158229812979698, 0.450151830911636, -0.344432234764099, -0.027890879660845, 0.069730930030346, 0.138082042336464, -0.249173268675804, -0.126944333314896, 0.224528938531876, -0.093237102031708, -0.035227172076702, -0.043820817023516, 0.466025859117508, -0.003612432163209, 0.105375401675701, -0.120704337954521, -0.075873181223869, -0.223437324166298, -0.141151577234268, 0.893677175045013, -0.035971410572529, 0.218755573034286, -0.406042546033859, 0.158155575394630, 0.051383085548878, -0.134068936109543, -0.143415749073029, 0.118663102388382, -0.031303483992815, 0.018615979701281, 0.015563363209367, 0.115745276212692, 0.026138344779611, -0.037725508213043, -0.132309079170227, -0.097337499260902, -0.014163720421493, 0.397333920001984, 0.292847752571106, 0.078736588358879, 0.005704321898520, 0.129752770066261, 0.010580048896372, 0.543915390968323, 0.141040652990341, -0.242715403437614, 0.217069983482361};
#endif

#endif
