//Numpy array shape [192]
//Min -2.392509698868
//Max 1.291644930840
//Number of zeros 0

#ifndef BIAS65_H_
#define BIAS65_H_

#ifndef __SYNTHESIS__
layers_8_norm1_bias_t bias65[192];
#else
layers_8_norm1_bias_t bias65[192] = {0.091658055782318, 0.027818968519568, 0.229889243841171, -0.179586187005043, -0.072075501084328, 0.403306186199188, 0.132131189107895, -0.166366875171661, 0.088128164410591, 0.106172613799572, -0.190053299069405, -0.079437263309956, 0.219666808843613, -0.046291414648294, 0.257626026868820, 0.225521370768547, -0.306326150894165, 0.374115347862244, 0.032148338854313, 0.274089068174362, -0.200700372457504, -2.392509698867798, -0.258205711841583, -0.058784358203411, -0.074597932398319, -0.067469187080860, 0.220792263746262, 0.368038207292557, -0.371692240238190, 0.164089456200600, 0.006480842363089, 0.027240565046668, 0.119621865451336, 0.203478515148163, -0.121616028249264, 0.089202515780926, -0.038927935063839, -0.001418076106347, 0.103619910776615, 0.005245531443506, 0.142473384737968, -0.116064205765724, 0.373317897319794, -0.041823927313089, -0.117559961974621, -0.157907620072365, -0.101767949759960, 0.044728904962540, -0.044746831059456, -0.013859861530364, -0.287758439779282, 0.142951756715775, -0.315696328878403, 0.030198009684682, -0.712703406810760, 0.050564803183079, -0.022142061963677, -0.008912827819586, 0.209067270159721, -0.139211088418961, 0.222716540098190, 0.067140020430088, -0.046211354434490, -0.246594861149788, -0.027647634968162, 0.466131418943405, 0.677309572696686, -0.475673943758011, 0.341288685798645, -0.276037603616714, -0.035294543951750, -0.006842024158686, -0.142898365855217, 0.335475385189056, -0.147920042276382, -0.118292585015297, 0.355567902326584, 0.167718842625618, 0.003621918614954, 0.350631028413773, 0.229054287075996, 1.291644930839539, -0.404699534177780, 0.007796102203429, 0.182185590267181, -0.098291561007500, -0.026614917442203, -0.022469043731689, -0.112462446093559, -1.317077755928040, 0.349607199430466, -0.185878813266754, 0.429670006036758, -0.137841075658798, -0.035461880266666, 0.270900964736938, -0.082277089357376, -0.642960369586945, -0.199099496006966, 0.008220816031098, -0.124915093183517, -0.140278458595276, -0.190662547945976, 0.308417141437531, -0.052946500480175, 0.140727475285530, -0.282272636890411, 0.148016154766083, 0.273111492395401, -0.279605567455292, 0.231041863560677, 0.191195890307426, 0.147220984101295, 0.095647625625134, -0.201774075627327, 1.246235489845276, 0.063419558107853, -0.226108163595200, 0.104754269123077, -0.034470088779926, 0.341317862272263, -0.054195016622543, 0.029791833832860, -0.020733203738928, 0.043601859360933, 0.248950704932213, -0.082345582544804, -0.051375396549702, -0.310278147459030, 0.152243003249168, 0.230315163731575, -0.521053612232208, 0.377630084753036, 0.143564507365227, 0.196522504091263, -0.000683155143633, -0.401976287364960, -0.410272806882858, 0.217410758137703, 0.111785620450974, -0.068571530282497, 0.109778203070164, -0.338581413030624, 0.007546215783805, 0.331203073263168, 0.043932031840086, 0.581205666065216, -0.253860682249069, 0.167363509535789, 0.023105077445507, -0.117587819695473, -0.389735788106918, -0.153581231832504, -0.038857612758875, 0.202524542808533, -0.102715469896793, 0.010360931046307, 0.193623766303062, -0.239341720938683, 0.321909695863724, -0.141138508915901, -0.023471392691135, -0.356432914733887, -0.036500524729490, 0.507660925388336, -0.068487808108330, 0.320505201816559, -0.053841222077608, 0.233464032411575, -0.023739773780107, 0.170330554246902, -0.397346526384354, -0.008368513546884, 0.294333726167679, 0.129608362913132, -0.194439917802811, -0.038455493748188, 0.012318566441536, 0.241111442446709, -0.347416162490845, 0.057371668517590, -0.081453062593937, 0.363636940717697, 0.223487794399261, 0.054893434047699, -0.008844717405736, 0.262104928493500, -0.128226414322853, 0.683941125869751, 0.270453959703445, -0.346889674663544, 0.215967431664467};
#endif

#endif
