//Numpy array shape [192]
//Min -0.937348902225
//Max 1.025436043739
//Number of zeros 0

#ifndef BIAS62_H_
#define BIAS62_H_

#ifndef __SYNTHESIS__
layers_7_norm2_bias_t bias62[192];
#else
layers_7_norm2_bias_t bias62[192] = {0.2591125667095184, -0.2166387736797333, 0.1421965211629868, -0.1355875432491302, -0.4091377258300781, 0.6627731919288635, 0.4095444977283478, -0.0188739821314812, -0.2524569630622864, 0.4592860043048859, 0.4023501276969910, 0.2590937912464142, 0.3518778383731842, 0.1406031548976898, 0.4081881046295166, 0.0496321804821491, 0.2381110042333603, 0.6428314447402954, 0.0044527975842357, 0.3047754168510437, 0.1166470497846603, 0.7350198030471802, -0.4833492040634155, -0.3725333809852600, 0.0561773143708706, -0.0069250683300197, 0.4192562997341156, 0.4166007339954376, -0.8629149198532104, -0.1438404470682144, -0.1418171972036362, 0.0068001095205545, -0.2927724421024323, 0.0297693349421024, -0.2586840689182281, 0.2165561020374298, 0.4993437826633453, 0.0135365249589086, -0.6792763471603394, -0.0492848902940750, 0.3083562254905701, -0.1707941293716431, 0.3726892173290253, -0.0675778165459633, 0.0685922205448151, 0.0100475158542395, -0.1172117516398430, 0.2254181206226349, -0.1139983087778091, -0.0682583153247833, -0.4734381735324860, 0.4873366951942444, -0.3297514021396637, -0.0029141383711249, 0.0869734138250351, 0.0696060135960579, 0.0264663714915514, 0.0168786458671093, 0.2351785153150558, -0.2795569896697998, 0.2058756351470947, -0.4202617108821869, -0.3241121172904968, -0.2023367881774902, 0.0933900997042656, 0.6062586307525635, -0.0257832091301680, -0.9373489022254944, 0.7989637255668640, -0.4629647433757782, -0.1996561735868454, -0.0083130793645978, 0.0300151482224464, 0.1168143823742867, -0.5451177358627319, -0.2746460735797882, 0.9335527420043945, 0.4664122760295868, 0.1759996414184570, 0.5603562593460083, 0.5515630245208740, -0.2777405679225922, -0.3709865212440491, -0.0638109222054482, -0.2052136212587357, -0.0567531138658524, -0.2011214792728424, 0.1505100876092911, 0.2398895770311356, 0.6637913584709167, 0.2076003998517990, 0.4581637382507324, 0.5553534626960754, -0.3279241323471069, -0.0314298868179321, 0.2871714532375336, 0.0636395066976547, -0.1693390905857086, -0.1951029449701309, 0.1947091221809387, 0.4814969301223755, -0.0374684594571590, -0.1193551123142242, 0.0920588821172714, -0.2140060663223267, 0.3013432323932648, 0.1842173486948013, 0.6705492734909058, 0.0877692177891731, -0.6559889912605286, 0.0293542277067900, 0.1736915260553360, -0.1985053420066833, -0.1331860572099686, 0.0135984336957335, 0.2179067432880402, -0.1122134923934937, 0.1170868948101997, 0.1140893772244453, -0.0669512897729874, 1.0254360437393188, 0.2353593260049820, -0.3786611855030060, 0.2293018549680710, 0.2987882792949677, 0.2263537198305130, -0.0436377003788948, -0.2672241330146790, -0.9019953608512878, -0.1751704514026642, 0.5503271818161011, -0.2046641558408737, 0.4221060276031494, 0.3288186490535736, 0.1386842727661133, 0.3671063482761383, -0.6208984851837158, -0.8754761815071106, -0.3591092824935913, 0.2266968339681625, -0.3119808137416840, 0.3627421259880066, -0.1043594330549240, 0.2791253328323364, -0.1127341166138649, 0.1213658973574638, 0.4913257956504822, -0.6619682908058167, -0.0304697547107935, -0.3429568707942963, -0.2284228354692459, -0.4620058238506317, -0.1195536851882935, 0.1027325764298439, 0.4732646048069000, 0.0035610708873719, -0.7420294880867004, 0.3190514147281647, -0.4225653409957886, 0.3269698023796082, -0.7715409398078918, -0.2863046526908875, -0.3597816526889801, -0.2634240388870239, 0.0658824443817139, 0.4044354856014252, 0.7011609673500061, -0.2192973345518112, 0.3862106800079346, -0.2079887986183167, -0.0040284055285156, -0.5540999770164490, -0.1003572270274162, 0.3871855735778809, 0.1782913804054260, -0.5577695965766907, 0.0102337952703238, 0.5046558976173401, -0.0845680460333824, -0.0202597100287676, -0.1076184362173080, -0.1020483076572418, 0.0477038398385048, 0.3334940969944000, 0.2912371158599854, -0.2073551565408707, 0.2313948273658752, 0.0514011681079865, 0.0382244400680065, 0.1303616911172867, 0.0993788614869118, 0.1473393738269806};
#endif

#endif
