//Numpy array shape [192]
//Min -2.818755388260
//Max 1.142500996590
//Number of zeros 0

#ifndef BIAS41_H_
#define BIAS41_H_

#ifndef __SYNTHESIS__
layers_4_norm1_bias_t bias41[192];
#else
layers_4_norm1_bias_t bias41[192] = {-0.015545549802482, -0.093288950622082, 0.043774031102657, -0.142427861690521, 0.340131640434265, -0.354355007410049, 0.030617624521255, -0.006922768894583, 0.179673239588737, -0.055917818099260, 0.041298262774944, -0.082458160817623, 0.099114015698433, -0.160229712724686, 0.626872003078461, -0.141854494810104, -0.029914643615484, -0.144470348954201, -0.085994824767113, -0.121529340744019, 0.401042640209198, -2.818755388259888, -0.073850780725479, 0.008923725225031, 0.129235967993736, -0.134238541126251, -0.102736949920654, -0.073737382888794, 0.030675422400236, -0.195196673274040, -0.240517362952232, 0.173501402139664, 0.154164254665375, -0.152327150106430, -0.057511530816555, 0.194998979568481, 0.083939760923386, -0.164561063051224, -0.473026007413864, 0.052649196237326, -0.006565273273736, 0.158778652548790, 0.002456624293700, 0.017702192068100, 0.347390234470367, -0.246542990207672, 0.021858770400286, 0.147695645689964, 0.180009454488754, 0.157757505774498, 0.141802400350571, 0.045515749603510, -0.224776834249496, 0.070117466151714, -1.106316208839417, -0.163419350981712, -0.283634185791016, 0.382902264595032, -0.268579512834549, -0.250062346458435, 0.044536300003529, 0.078470632433891, 0.160031780600548, 0.173974603414536, -0.188156515359879, 0.603375196456909, 0.612533688545227, -0.082643941044807, -0.338986396789551, -0.241157546639442, 0.054602257907391, -0.238101020455360, -0.267782270908356, -0.118834078311920, 0.035357065498829, 0.032033432275057, -0.111924432218075, -0.160753011703491, -0.394398212432861, -0.271329462528229, -0.205052644014359, 1.099240779876709, -0.243906319141388, 0.029410248622298, -0.085154742002487, 0.361078679561615, -0.193747892975807, -0.064200662076473, -0.015924811363220, -0.771397054195404, -0.105451472103596, 0.197131112217903, 0.227160304784775, 0.009732313454151, 0.013329525478184, 0.338760197162628, -0.239453420042992, 0.090612493455410, 0.190732568502426, -0.011597475968301, 0.004778835922480, -0.002953759860247, 0.010875251144171, -0.238958492875099, 0.188692703843117, -0.147684365510941, -0.126625075936317, -0.296481341123581, 0.013819549232721, -0.037622909992933, -0.066119611263275, 0.039929524064064, 0.308290153741837, 0.096321076154709, 0.225196167826653, 1.142500996589661, -0.512326359748840, 0.328905761241913, 0.090933576226234, 0.141240298748016, 0.192783728241920, 0.197144299745560, -0.017030866816640, 0.217683255672455, 0.187756836414337, -0.257314622402191, -0.019330032169819, -0.133667185902596, 0.047092244029045, -0.196350067853928, 0.180746942758560, -0.798422038555145, 0.116470769047737, 0.139924153685570, 0.152176409959793, -0.002089630812407, -0.029288837686181, 0.003754425561056, 0.109928429126740, 0.044216711074114, -0.041823651641607, -0.079152792692184, -0.249738037586212, 0.105177253484726, 0.405442029237747, -0.196775630116463, 0.064328037202358, 0.302833318710327, -0.184591025114059, 0.169525608420372, 0.092989355325699, -0.188481822609901, 0.000549085612874, 0.070952199399471, -0.066642932593822, 0.137252062559128, 0.021574372425675, 0.246195673942566, -0.137350663542747, -0.222911879420280, -0.011894482187927, 0.253515332937241, -0.144413530826569, -0.125509053468704, 0.650231778621674, 0.163122341036797, -0.059999555349350, -0.277134388685226, 0.573755323886871, 0.257689416408539, -0.051618844270706, 0.009961348026991, 0.061100568622351, -0.219534307718277, -0.158289358019829, 0.180919528007507, -0.052376724779606, 0.003832718590274, -0.139629393815994, -0.023205487057567, 0.054265566170216, 0.196468710899353, 0.648479819297791, 0.038345780223608, -0.466612398624420, -0.078611344099045, 0.064374275505543, -0.182088568806648, 0.331042677164078, -0.002779328264296, -0.122036837041378, 0.294672369956970};
#endif

#endif
