-0.0671224147081375, 0.0647217333316803, 0.6951224207878113, -0.0181350111961365, -0.3946568071842194, 0.8439824581146240, 0.0241716019809246, -0.5890613794326782, 0.2751494348049164, 0.9518795013427734, -0.1689728498458862, 0.0928679928183556, 0.2422017008066177, -0.3538416326045990, 0.2299652397632599, 0.2861298322677612, 0.6418560743331909, -0.0698333680629730, -0.0468667745590210, 0.2216832786798477, -0.5177733302116394, 0.1443165987730026, -0.0763223841786385, -0.0037210185546428, -0.6450027823448181, 0.2851834297180176, 0.0530085898935795, -0.3211778402328491, -0.0944585949182510, 0.7480696439743042, 0.1791872233152390, -0.3396929204463959, -0.5833911299705505, -0.3448744714260101, 0.7213988900184631, 0.6041705608367920, -0.1157512292265892, -0.5660555362701416, -0.7347556948661804, -0.0007732530939393, 0.6677124500274658, -0.2513927221298218, 0.4689897596836090, -0.5901112556457520, 0.3614498376846313, 0.2043924182653427, 0.2561224997043610, -0.3937710225582123, 0.3329823911190033, -0.1070540174841881, 0.2806195318698883, -0.6320058703422546, -0.0220679827034473, 0.0541341081261635, 0.0051671420224011, 0.7078649997711182, -0.1217759177088737, 0.4434849321842194, -0.7829051017761230, -0.2064451277256012, 0.6092719435691833, 0.0430913046002388, -0.0399728119373322, 0.3477059900760651, -0.0773347690701485, -0.4432696998119354, -0.7744780778884888, -0.0497186742722988, -0.2661386132240295, 0.4294019937515259, -0.4604552686214447, -0.3844480812549591, 0.4017822146415710, -0.5106775760650635, 0.5328152775764465, 0.0055951853282750, -0.7038143277168274, 0.5817744135856628, -0.0176129303872585, 0.1184381693601608, -0.0410154908895493, 0.0266755428165197, 0.0206268019974232, -0.1290014684200287, 0.1582910269498825, 0.1641368567943573, 0.4572931826114655, 0.2775526642799377, -0.2450853735208511, 0.5656381249427795, 0.3652772009372711, -0.3427364826202393, -1.0176336765289307, 0.0783396735787392, -0.0170275215059519, -0.2034746110439301, 0.2391745150089264, -0.5907725691795349, 0.3235746324062347, 0.1264833658933640, 0.3054170012474060, 0.4290187358856201, -0.2552391588687897, -0.1418942213058472, -0.2894706428050995, -0.1094192788004875, -0.2736241519451141, 0.3152230978012085, 0.5234870910644531, -0.3600586652755737, 0.2053420096635818, -0.1686357110738754, 0.4094071984291077, -1.0539273023605347, 0.2488704919815063, 0.0370238758623600, -0.2627785801887512, 0.2941653728485107, -0.4813363850116730, -0.9064829945564270, 0.0798258334398270, -0.0877020061016083, -0.0381953902542591, -0.0449826531112194, -0.3059203922748566, 0.8908762335777283, 0.3876542448997498, -0.3859626352787018, -0.4212179481983185, 0.5200646519660950, 0.1926499009132385, -0.0780960321426392, -0.0771203339099884, 0.1549038589000702, 0.3976997137069702, 0.3063735365867615, 0.1657263636589050, 0.0286822356283665, 0.0759790316224098, -0.7548460960388184, -0.5582228899002075, 0.1494121104478836, 0.5720538496971130, 0.0655864030122757, 0.5379996299743652, -0.6751298904418945, 0.2582465112209320, -0.8465743064880371, 0.2825165688991547, -0.3661437034606934, 0.1449673026800156, 0.5872669219970703, -0.1602667272090912, -0.3264494836330414, -0.5493498444557190, 0.0374823324382305, -0.2574346661567688, -0.3422929942607880, -0.2995101809501648, 0.2451071590185165, -0.5361313223838806, 0.5789270997047424, 0.4206990599632263, 0.4495436549186707, 0.2650251686573029, -0.0847311019897461, 0.4756670892238617, -0.0058463755995035, -0.5862113833427429, -0.1870309263467789, 0.3159360885620117, 0.2180182933807373, -0.4015983641147614, 0.8201135993003845, -0.1460146456956863, 0.2706180810928345, 0.1844590157270432, 0.2704417109489441, 0.1557865440845490, -0.0242511257529259, -0.1492377072572708, 0.2977913320064545, 0.3132734596729279, 0.1803854256868362, -0.1052000597119331, -0.3345484435558319, 0.0908847749233246, -0.5372489094734192, -0.0936352014541626, 0.5530053973197937, -0.4779771566390991, -0.5057168006896973