0.2453342676162720, -0.0408850833773613, 0.0047564031556249, -0.0057291695848107, -0.3098106384277344, 0.6565839052200317, 0.4383994638919830, -0.3103899657726288, 0.1744283288717270, 0.1592837125062943, -0.3251496553421021, 0.4484299719333649, 0.5669377446174622, -0.0136244781315327, 0.3644738495349884, -0.0409494489431381, -0.4965087473392487, 0.9999969601631165, 0.0536278672516346, 0.0084976600483060, -0.2820448279380798, 0.1614050567150116, -0.1754819154739380, -0.2461921870708466, 0.2381192892789841, -0.0868755877017975, 0.3091092407703400, 0.7045338749885559, -0.5766046643257141, -0.0133868828415871, -0.1177160143852234, -0.1661204844713211, 0.1574532836675644, 0.1190247014164925, -0.4094780087471008, -0.0515257008373737, -0.0358993411064148, 0.1154022589325905, -0.4060325026512146, -0.1024363487958908, -0.2798857390880585, 0.1129195317625999, 0.5242047905921936, 0.1352428495883942, 0.0029943818226457, -0.3794120252132416, 0.1618542522192001, -0.3519006073474884, -0.0907551646232605, -0.0303091090172529, -0.3783512413501740, 0.2831272780895233, -0.3301604092121124, -0.0446444191038609, 0.0647756829857826, -0.0847485736012459, -0.1934542059898376, -0.1556834429502487, 0.3387350738048553, -0.7441127896308899, 0.3073165118694305, -0.3623333871364594, 0.2418980598449707, 0.2558628916740417, 0.1441473960876465, 0.5390169620513916, 0.2999815642833710, -0.7207497954368591, 0.0339767634868622, -0.4710343778133392, -0.4709005653858185, -0.0674086883664131, 0.2362462878227234, 0.5952500700950623, -0.5359594821929932, -0.1014147102832794, 0.6473936438560486, -0.1330588757991791, -0.0837767198681831, 0.1482828408479691, 0.2381349503993988, -0.0698152482509613, 0.0986539274454117, 0.1924283951520920, -0.2799689471721649, 0.2993633747100830, 0.2602111399173737, 0.1493424475193024, 0.2093153446912766, 1.0995485782623291, 0.5565432906150818, 0.1555245071649551, -0.0633162036538124, 0.0459327325224876, -0.1798445433378220, 0.3279467225074768, -0.2636990845203400, -0.8319096565246582, -0.5228463411331177, -0.1179744675755501, -0.0558266527950764, -0.1068096905946732, -0.1436442881822586, 0.2376669496297836, -0.4270021021366119, 0.1571999341249466, -0.0694063827395439, 0.3964171111583710, 0.4793394804000854, -0.5453249812126160, -0.1103696152567863, 0.1282452642917633, -0.3376535475254059, 0.1408880949020386, -0.2240698188543320, -0.1091033294796944, 0.2129931300878525, -0.0162207633256912, -0.3536202013492584, -0.3489755094051361, 0.4210705757141113, -0.1134215369820595, -0.4128418862819672, 0.3703263401985168, 0.4160092175006866, 0.1598516702651978, -0.0253696572035551, -0.0848429054021835, -1.1473184823989868, 0.1325899958610535, -0.0320542156696320, 0.0996060073375702, 0.6346097588539124, 0.2973030805587769, 0.1136395260691643, 0.2779794931411743, -0.7329736351966858, -0.8480995893478394, -0.3664893805980682, 0.0879594609141350, -0.2428739666938782, 0.4441359937191010, 0.0016727707115933, 0.1963257789611816, -0.4334103167057037, 0.1049795225262642, 0.9655720591545105, -0.6160564422607422, 0.0204627104103565, -0.2850806117057800, -0.4215887784957886, -0.6495519876480103, -0.5932661294937134, 0.1169857233762741, 0.4511720836162567, -0.3945911526679993, -0.3707544505596161, 0.6989470124244690, -0.5237360596656799, 0.4546201825141907, -0.6315533518791199, -0.3254396319389343, -0.3481694459915161, -0.1406762450933456, -0.0614613257348537, 0.2404624074697495, 0.6422196626663208, -0.0868731364607811, 0.2266087532043457, -0.2324486672878265, 0.3777622580528259, -0.5890832543373108, 0.2124457359313965, 0.5371148586273193, 0.1401147693395615, -0.5026043057441711, 0.0444041341543198, 0.0908477902412415, 0.1767207682132721, -0.1998434960842133, -0.1947144269943237, 0.0216771364212036, -0.1692953258752823, 0.1230764985084534, -0.0405511707067490, -0.5085771679878235, 0.4342671036720276, -0.2095167189836502, 0.0046926876530051, 0.0666135549545288, -0.4373171925544739, 0.0645794346928596