//Numpy array shape [192]
//Min -1.217412352562
//Max 1.681111931801
//Number of zeros 0

#ifndef BIAS68_H_
#define BIAS68_H_

#ifndef __SYNTHESIS__
layers_8_norm2_bias_t bias68[192];
#else
layers_8_norm2_bias_t bias68[192] = {0.4703516066074371, -0.2608744204044342, 0.0945164933800697, -0.0990909337997437, -0.5187363028526306, 0.8380318880081177, 0.5902067422866821, -0.2876130640506744, -0.1953021138906479, 0.3709908723831177, 0.0570130646228790, 0.7572872042655945, 0.7742528915405273, 0.0597100183367729, 0.4799779653549194, -0.0929339006543159, -0.1186108216643333, 1.0371311902999878, 0.1168283671140671, 0.3731959462165833, 0.0685356035828590, 0.7421874403953552, -0.0579123161733150, -0.4675056636333466, 0.1976436674594879, 0.0692230314016342, 0.4316960573196411, 0.6521835327148438, -0.7363665699958801, -0.0945601314306259, -0.0876119062304497, -0.0677031129598618, -0.0967231541872025, 0.0621380507946014, -0.3756730556488037, 0.2469252049922943, 0.3996188044548035, 0.2127343118190765, -0.5655290484428406, 0.1035132780671120, 0.0372876338660717, -0.1221317276358604, 0.4469532370567322, 0.0348539873957634, 0.3269208669662476, -0.1966462731361389, 0.0606957264244556, 0.1273150295019150, -0.2804486155509949, -0.0237798374146223, -0.4255865812301636, 0.5500073432922363, -0.3406795263290405, -0.0941933989524841, 0.6433194279670715, 0.0379715934395790, -0.0055705881677568, -0.0921064689755440, 0.4068817794322968, -0.7026045322418213, 0.3104284107685089, -0.3185627162456512, 0.0802681520581245, 0.1098334342241287, 0.2272736579179764, 0.4078177511692047, -0.1634432524442673, -1.1093480587005615, 0.3479676246643066, -0.4078369438648224, -0.2270832806825638, -0.0928447246551514, 0.2769425809383392, 0.5078229904174805, -0.7361790537834167, -0.3485062718391418, 0.8990628123283386, 0.1752284467220306, 0.2824069261550903, 0.2741713225841522, 0.6120827198028564, -0.7864121198654175, -0.2878146469593048, 0.1808669120073318, -0.2697734534740448, 0.2903573215007782, 0.0178850386291742, 0.4887740314006805, 0.5803931355476379, 1.6811119318008423, 0.4654357731342316, 0.6672410368919373, 0.1677153557538986, -0.2843189239501953, -0.1501565277576447, 0.3081541955471039, -0.0916905328631401, -0.3329970836639404, -0.2325931936502457, 0.0452796220779419, 0.5008199214935303, 0.2751651406288147, -0.3022775650024414, 0.1122559607028961, -0.2888425290584564, 0.2346341609954834, 0.0549342930316925, 0.8153215050697327, 0.4499612748622894, -0.7982794046401978, -0.1296197175979614, 0.1576891839504242, -0.2932196557521820, 0.0857836902141571, -0.0711508095264435, -0.4864775240421295, -0.0773811414837837, 0.1903381496667862, -0.1358357518911362, -0.3130326569080353, 0.8942843675613403, 0.1493263691663742, -0.5077807307243347, 0.4282582700252533, 0.4680965542793274, 0.0107755595818162, 0.0080259246751666, -0.3023250699043274, -1.2174123525619507, -0.1260687112808228, 0.0768261849880219, 0.5419721007347107, 0.7151994705200195, 0.3860481679439545, 0.1510861963033676, 0.5869459509849548, -0.6681796312332153, -1.1459419727325439, -0.3961221575737000, 0.3412203490734100, -0.2448413074016571, 0.6715072989463806, 0.0934188440442085, 0.3253555595874786, -0.1960801184177399, 0.3342130184173584, 0.6875051259994507, -1.0132882595062256, 0.1213097423315048, -0.3717878758907318, -0.6504332423210144, -0.7330598831176758, -0.3924951255321503, 0.1404420286417007, 0.4771270155906677, -0.1584568470716476, -0.7845706939697266, 0.5253930687904358, -0.6494573354721069, 0.6730003356933594, -0.9295898675918579, -0.5159162878990173, -0.5327661037445068, -0.3482325077056885, -0.5137620568275452, 0.5634157061576843, 0.9493369460105896, -0.1901462972164154, 0.3755698204040527, -0.2713238894939423, 0.1722518801689148, -0.5454956889152527, 0.0596129894256592, 0.4085600972175598, 0.0854653865098953, -0.7055903077125549, 0.0042796060442924, 0.4235333204269409, 0.1183258742094040, -0.2056437879800797, -0.1873103082180023, 0.1566329151391983, -0.1698548346757889, 0.2490427345037460, -0.1628642976284027, -0.4646467268466949, 0.3977822065353394, -0.0239066109061241, -0.3601837754249573, 0.2940314412117004, 0.1094826161861420, -0.0493120998144150};
#endif

#endif
