-0.633451819419861, -0.161682829260826, 0.067772619426250, 0.094138987362385, 0.070933811366558, -0.039450999349356, 0.017653375864029, -0.011780256405473, -0.013459978625178, -0.111627198755741, 0.124811887741089, -2.912567138671875, -0.254253149032593, 0.090343736112118, 0.393216103315353, 0.054530978202820, -0.005517336074263, -0.001306181424297, -0.393717676401138, 0.191704675555229, -0.273582428693771, 0.182896584272385, 0.317805379629135, 0.214971080422401, 0.090395189821720, -0.007503346074373, 0.008662222884595, -0.206772476434708, -1.738095879554749, 0.931409597396851, 0.162246346473694, -0.052959404885769, 0.108353391289711, -0.005134059116244, 0.022417744621634, 0.005862408783287, 0.394626885652542, 0.004495500121266, -0.160839155316353, -0.090726397931576, 0.127196878194809, -0.085398808121681, -0.081721574068069, 0.048376683145761, -0.030203282833099, 0.494350999593735, 0.005843625403941, -0.228674143552780, 0.367511123418808, -0.080677956342697, 0.525530040264130, -0.016872644424438, -0.047448556870222, -0.040572542697191, -0.422866523265839, -0.107272773981094, 0.088621936738491, 0.624930858612061, 0.417527645826340, -0.084138646721840, -0.143924355506897, 0.027591964229941, -0.010466358624399, 0.369930595159531, 0.028230365365744, -0.034501373767853, -0.306186318397522, -0.274162948131561, -0.245307564735413, 0.149530813097954, 0.026673695072532, -0.024032149463892, -0.004161393269897, 0.765862941741943, 0.027966775000095, -0.259605497121811, 0.091204784810543, -0.111504219472408, -0.087322480976582, -0.045762214809656, -0.079162135720253, -0.470428735017776, 0.492852240800858, 0.048446226865053, 0.010677197016776, -0.191825181245804, 0.074656717479229, -0.052514560520649, -0.070942960679531, -0.014700989238918, -0.223510354757309, -0.205158978700638, 0.071975037455559, 0.142027348279953, 0.360172897577286, -0.117358192801476, 0.046344224363565, -0.090743437409401, 0.035688851028681, 0.236392661929131, -0.209528788924217, 1.926935434341431, 0.057566422969103, 0.086345247924328, 0.193744808435440, -0.026454687118530, -0.011949458159506, -0.016870353370905, 0.095305219292641, -0.131329551339149, 0.141853138804436, 0.015988135710359, -0.021346380934119, 0.328688979148865, -0.015187446027994, 0.034597385674715, 0.035373274236917, 0.310258954763412, -0.044619288295507, 0.082709766924381, -0.188163027167320, -0.356467783451080, -0.096138261258602, 0.014266002923250, -0.026881726458669, 0.027596199885011, -0.332003086805344, 0.314129859209061, -0.032887633889914, -0.361281335353851, 0.361754775047302, -0.539536118507385, -0.031487703323364, -0.013574250973761, 0.060001503676176, 0.105829946696758, 0.314761340618134, -0.914611518383026, -0.212605372071266, -0.161953449249268, 0.392501980066299, -0.065048493444920, -0.087475180625916, 0.012012996710837, -2.009318351745605, 0.127222210168839, 0.054652895778418, 0.360672652721405, 0.503187358379364, 0.387097507715225, -0.018204139545560, -0.043307069689035, 0.011477124877274, -0.121738433837891, -0.301225960254669, 0.120978228747845, 0.038494598120451, 0.561049640178680, 0.251666158437729, 0.044821109622717, -0.032946933060884, 0.033327952027321, -0.046120129525661, 0.329305380582809, -0.069717161357403, -0.286779105663300, -0.205374181270599, 0.056548301130533, 0.002807233948261, 0.133338540792465, 0.054416202008724, -0.186051741242409, -0.257209420204163, 0.057469215244055, -0.176534339785576, 0.088382244110107, 0.041939307004213, 0.024146849289536, -0.020525678992271, -0.003230640199035, -0.254603475332260, -0.123427577316761, -0.247923970222473, 0.022930251434445, -0.206759437918663, -0.094174548983574, -0.103750795125961, -0.005800572223961, 0.050159268081188, -0.187187239527702, -0.040117323398590, -0.091018415987492, -0.210639968514442, -0.085979916155338, -0.136634290218353, -0.098697796463966, 0.032495666295290, -0.030799534171820, 0.157663375139236, -0.005697380751371, 0.477885872125626, -0.164187714457512, -0.533073842525482, 0.181604951620102, -0.015118334442377, 0.037692099809647, -0.017828058451414, 0.133420526981354, 0.183824226260185, -0.241086408495903, 0.653994381427765, 0.041949618607759, 0.218538671731949, 0.099459677934647, -0.091697752475739, -0.020564043894410, 0.080250941216946, -2.273989677429199, 0.095493987202644, 0.071446515619755, -0.005239258985966, -0.053746413439512, 0.053603872656822, 0.105677649378777, 0.041013661772013, -0.307085424661636, -0.250905394554138, 0.072896622121334, 0.124460943043232, 0.000412527238950, 0.322341591119766, 0.040681082755327, -0.056816037744284, 0.074731804430485, 1.554944634437561, 0.023658892139792, 0.119734108448029, -0.378878533840179, 0.447193473577499, 0.260499387979507, -0.005877901334316, -0.066090099513531, 0.036802414804697, -0.127145603299141, 0.114241018891335, 0.030549602583051, 0.009118092246354, -0.170178622007370, -0.137201890349388, 0.002838668180630, -0.051653459668159, 0.010196195915341, 0.417544543743134, 0.055171463638544, 0.026107458397746, 0.125662267208099, -0.519124805927277, 0.296773999929428, -0.098017416894436, 0.021841106936336, -0.001774334115908, 0.226229861378670, -0.048840634524822, -0.124395988881588, -0.159147500991821, -0.700356066226959, -0.230422601103783, 0.025021037086844, 0.007513202261180, -0.064338162541389, -0.445673018693924, 0.194865912199020, -0.018214100971818, 0.119370125234127, -0.367436319589615, 0.224415943026543, 0.080539099872112, -0.082237415015697, 0.048970427364111, 1.371521234512329, 0.133085101842880, 0.003208337584510, -0.152739793062210, -0.084789656102657, 0.259872198104858, -0.122955366969109, 0.018837837502360, -0.008371581323445, -0.328518807888031, -0.462453812360764, -0.043020840734243, 0.033608317375183, -0.211876049637794, -0.227347686886787, -0.104217372834682, 0.050160460174084, 0.044194154441357, 0.136756807565689, -0.000285192683805, 0.103696726262569, 0.392836302518845, 0.001406058669090, -0.493646264076233, 0.059047233313322, 0.073347896337509, 0.025150580331683, 0.115654885768890, 0.238349735736847, -0.125995859503746, -0.272093921899796, 0.248208701610565, -0.404098987579346, -0.051725335419178, -0.039391014724970, -0.007683808449656, 0.122290402650833, -0.172140121459961, 0.064582869410515, 0.707219004631042, 0.464803367853165, 0.179040744900703, 0.041763726621866, -0.003327403217554, 0.005279547069222, 0.318825900554657, 0.022686995565891, -0.003438033163548, -0.671018600463867, -0.126498028635979, -0.353785365819931, 0.090021468698978, -0.009759753942490, 0.030672525987029, 0.031160984188318, -0.087366178631783, -0.070026062428951, -0.240543991327286, 0.213815242052078, -0.038322806358337, 0.040575068444014, 0.028957074508071, 0.078064695000648, 0.023845694959164, -0.063706748187542, -0.072259582579136, 0.669904768466949, -0.242322713136673, -0.448128819465637, -0.028218835592270, -0.028909262269735, 0.033489357680082, 0.199418127536774, 0.011065319180489, -0.090549021959305, 0.219678774476051, 0.214126721024513, -0.348817288875580, -0.048046294599771, 0.023853451013565, 0.051126040518284, 0.157400354743004, -0.068052358925343, -0.007826678454876, 0.125777915120125, 0.133363336324692, 0.128553092479706, -0.023127598688006, -0.008704227395356, -0.015774186700583, 0.088740497827530, -0.086937606334686, -0.019635520875454, 0.221313297748566, -0.157275423407555, -0.009326143190265, 0.008286627940834, 0.036746092140675, 0.038923643529415, -0.578259170055389, 0.175050452351570, -0.069880723953247, 0.476906627416611, 0.037934854626656, 0.026278244331479, -0.034606538712978, -0.029868317767978, -0.046142850071192, 0.355371803045273, 0.142842829227448, 0.154439508914948, 0.073582820594311, 0.188616126775742, 0.147835046052933, 0.019726114347577, 0.041898652911186, 0.025933310389519, -0.035288758575916, -0.040797706693411, 0.137551710009575, 0.120972901582718, 0.080052718520164, -0.198892503976822, 0.016393905505538, -0.064695596694946, 0.006430393550545, -0.353029876947403, 1.897732615470886, 0.124858699738979, -0.135216161608696, 0.153037697076797, -0.333522021770477, 0.108461663126945, 0.025179566815495, -0.001583264325745, 0.179866597056389, -0.084871523082256, 0.007877988740802, -0.253098756074905, 0.035308018326759, 0.126541718840599, 0.030792571604252, 0.044421885162592, -0.031093407422304, -1.407709956169128, -0.080321222543716, 0.042418595403433, -0.325338929891586, -0.086446769535542, -0.193882465362549, -0.015713719651103, -0.043863061815500, -0.039771322160959, -0.224864587187767, -0.138720393180847, 0.338563323020935, -0.361731350421906, 0.093502394855022, 0.631499588489532, 0.013708716258407, -0.069497197866440, 0.037530530244112, 0.751597225666046, 0.109098590910435, -0.101324781775475, -0.529272019863129, -0.081013917922974, 0.042979385703802, 0.024845249950886, 0.022623751312494, -0.053729973733425, -0.176226899027824, 0.023051189258695, 0.008626691065729, 0.078909344971180, 0.273339986801147, -0.106219783425331, 0.032116986811161, 0.074263706803322, -0.016591489315033, 0.357916325330734, 0.227772623300552, -0.043989121913910, 0.365869402885437, 0.063200406730175, 0.369090855121613, 0.032995272427797, -0.048991899937391, 0.030965914949775, 0.129684120416641, -0.247082382440567, 0.032117228955030, -0.169829204678535, -0.224297851324081, -0.158284679055214, 0.015897601842880, 0.062660738825798, -0.010323835536838, -0.308103889226913, 0.033835425972939, -1.923248410224915, 0.466829270124435, -0.558260262012482, -0.084364138543606, 0.049129128456116, 0.083655051887035, -0.034254696220160, 0.317552208900452, -0.124655798077583, 1.865779042243958, 0.554665148258209, -0.234220072627068, 0.199125200510025, -0.026014018803835, -0.009367333725095, 0.069221302866936, -0.569477140903473, 0.284469425678253, 0.089245587587357, 0.241759791970253, 0.258068859577179, 0.136453583836555, 0.053715575486422, -0.001553413341753, -0.054403845220804, 0.260150700807571, -0.064963519573212, 0.020948110148311, -0.283661872148514, 0.288327872753143, 0.128756090998650, 0.045957189053297, 0.002952429000288, -0.041800726205111, 0.107203431427479, -0.161930888891220, 0.354641973972321, -0.360811859369278, 0.305847048759460, 0.126525074243546, -0.086230777204037, -0.041606880724430, 0.044351179152727, 1.318618774414062, -1.543529510498047, 0.075686059892178, -0.327503472566605, -0.216367259621620, -0.198080390691757, -0.024321736767888, -0.031154258176684, -0.016816504299641, 0.392906963825226, -0.099907837808132, 0.136699378490448, -0.002004936570302, -0.195191279053688, 0.050878506153822, 0.057754460722208, -0.017041921615601, 0.004223382566124, 0.171142727136612, 0.034128263592720, -0.100008711218834, -0.118236377835274, 0.102932982146740, -0.214151099324226, 0.004154383670539, -0.030914451926947, -0.017935739830136, -0.086939647793770, 0.174033015966415, -1.404294013977051, -0.201715916395187, -0.089214377105236, -0.027567772194743, 0.024023339152336, -0.137926146388054, -0.037717897444963, -0.507518649101257, 1.781680345535278, -0.008167158812284, 0.014395252801478, -0.088037990033627, 0.443793743848801, 0.107998035848141, 0.057552337646484, -0.008922882378101, 0.078159250319004, 0.048990171402693, 0.135451316833496, 0.333045303821564, 0.336339920759201, -0.370665818452835, 0.029112508520484, 0.026965532451868, -0.049238637089729