0.0821864679455757, 0.0134419463574886, -0.0626238584518433, -0.0795267522335052, 0.1040764153003693, 0.0490342713892460, 0.0907061696052551, -0.0601027756929398, 0.0026281259488314, 0.0852630659937859, 0.1657522618770599, 0.2021493762731552, -0.0182866174727678, -0.1139811575412750, 0.2134004533290863, -0.0358811095356941, 0.1593630462884903, 0.1908174902200699, 0.0785220116376877, 0.1043017134070396, -0.0030630032997578, -1.2855724096298218, -0.1044292971491814, -0.1729967594146729, -0.0010116376215592, -0.1023898199200630, -0.0068644927814603, 0.1626262813806534, 0.0665596202015877, -0.0632670000195503, 0.2251829504966736, 0.1869670003652573, -0.2843147814273834, -0.0752299502491951, 0.1199021637439728, -0.2178171277046204, 0.3241206109523773, 0.1045342832803726, 0.0010669019538909, 0.1922934204339981, -0.0221326984465122, -0.2488524019718170, 0.0976377353072166, 0.1512757092714310, 0.1341038346290588, 0.0081288013607264, -0.0370584055781364, 0.1125755980610847, -0.0381104648113251, 0.0285617019981146, 0.0488574095070362, 0.0848902761936188, -0.1290910840034485, -0.0167594105005264, 0.1669410914182663, -0.1014110967516899, 0.1043032631278038, -0.0020126171875745, 0.0312088280916214, -0.1455485522747040, 0.1369967609643936, -0.0803044810891151, 0.0138647519052029, 0.0567471385002136, -0.0150254024192691, 0.0300906915217638, -0.0409970544278622, -0.2095375359058380, 0.0371785275638103, -0.0428261905908585, 0.0502929016947746, -0.0752005428075790, -0.0196454264223576, -0.1276378631591797, 0.0072228107601404, -0.1400356292724609, 0.2427469938993454, -0.0068040736950934, -0.0514315068721771, -0.0021880867425352, -0.0240613836795092, -0.2068777680397034, -0.0470300465822220, -0.0586917847394943, -0.0766784176230431, -0.0375894606113434, -0.0561660528182983, 0.0249014664441347, 0.1727117300033569, 0.4600037336349487, -0.0771747156977654, -0.0458229146897793, -0.0120457606390119, -0.1974553167819977, -0.1717398762702942, 0.0664008930325508, 0.0718029513955116, -0.0397173799574375, 0.0146455690264702, -0.0091138472780585, 0.1545053124427795, 0.2519030272960663, 0.0567990876734257, 0.2218887805938721, 0.0904464051127434, -0.0183732081204653, 0.1334356963634491, 0.0981023088097572, -0.1218837574124336, -0.1063263416290283, -0.0966557413339615, 0.0685199722647667, -0.0313185974955559, -0.1710991859436035, -0.0256336405873299, -0.0416515097022057, 0.0342773385345936, 0.0135942976921797, 0.0595756657421589, 0.0188331231474876, 0.0589700862765312, 0.1885226219892502, -0.1343177706003189, 0.2162341326475143, -0.0005089198239148, -0.0148206111043692, 0.1403986364603043, -0.1412530839443207, 0.1209419518709183, -0.1292535215616226, -0.1669358015060425, -0.1093705892562866, 0.0977838635444641, 0.0133681772276759, -0.0656525045633316, 0.1082275286316872, -0.0056242546997964, -0.1266396492719650, -0.0372759588062763, 0.0338206328451633, -0.0073367860168219, 0.0603934675455093, 0.1940462142229080, -0.0265978686511517, -0.0027324834372848, 0.2548909485340118, 0.1120466664433479, -0.3156931400299072, -0.1130104362964630, -0.0142324436455965, -0.0384420268237591, -0.1989791244268417, -0.1239254996180534, 0.1601318866014481, 0.0851209312677383, -0.1081918999552727, -0.1617634296417236, 0.0032575146760792, 0.0051866862922907, -0.0515521951019764, -0.1112199574708939, -0.0227199960500002, -0.0644406974315643, -0.1299858689308167, -0.0584002472460270, 0.0048644165508449, 0.1030113846063614, 0.0022449770476669, 0.0615677423775196, 0.0295545589178801, 0.0752970650792122, -0.1239109635353088, -0.0959072932600975, 0.0614504702389240, -0.0546952672302723, -0.2028208971023560, 0.0100717172026634, 0.0263967979699373, 0.0574104823172092, -0.0754881277680397, 0.0361698083579540, 0.0841710194945335, -0.1613447815179825, -0.0661267265677452, -0.0610129274427891, 0.0250686109066010, 0.0636634603142738, -0.0301836002618074, -0.0989482104778290, 0.0979463830590248, 0.0315113514661789, -0.0262620933353901