0.01821191795170307, -0.05936300009489059, -0.02362856641411781, -0.17215923964977264, -0.10186965018510818, 0.05622187629342079, -0.13797251880168915, -0.10016196966171265, -0.03689029440283775, 0.05141438171267509, 0.18590846657752991, 0.02607857063412666, -0.11607552319765091, 0.09026736021041870, 0.06873313337564468, 0.09266672283411026, -0.02610383369028568, -0.04551162570714951, 0.20157711207866669, 0.25740149617195129, 0.08410041034221649, -0.73394215106964111, -0.04892017692327499, -0.05645320937037468, -0.20800130069255829, 0.00340769533067942, 0.15392200648784637, 0.07322869449853897, -0.05133763328194618, -0.21691031754016876, -0.03884460031986237, 0.17702110111713409, 0.01570835150778294, 0.12672357261180878, -0.13407541811466217, 0.22288872301578522, 0.08468133211135864, -0.04003359004855156, 0.18543022871017456, -0.02740174718201160, 0.12363540381193161, -0.22293314337730408, 0.00006605772068724, 0.05172548815608025, -0.06359645724296570, 0.08511269092559814, -0.12971778213977814, 0.19847150146961212, -0.16543294489383698, -0.05606628581881523, 0.20729088783264160, -0.05491872876882553, -0.01754279620945454, 0.05670129507780075, -0.13248077034950256, -0.18715040385723114, 0.15891383588314056, 0.01793544553220272, -0.07954045385122299, 0.04390206933021545, 0.00695077143609524, -0.07512434571981430, 0.02712284587323666, -0.20891349017620087, 0.06417261064052582, -0.04126409813761711, -0.02582158334553242, -0.12513577938079834, -0.01417544204741716, 0.06139145419001579, 0.11906701326370239, -0.08422004431486130, -0.13059939444065094, -0.08389765769243240, 0.02035581506788731, -0.17073124647140503, 0.08262761682271957, 0.12741997838020325, -0.03073469176888466, 0.07981798797845840, 0.11137509346008301, -0.00477749155834317, -0.13675308227539062, -0.04797217622399330, 0.03643703460693359, -0.00046390938223340, -0.06617656350135803, 0.13729265332221985, 0.08848392218351364, 0.33093020319938660, 0.17495769262313843, 0.09270680695772171, 0.15608544647693634, 0.01069534383714199, -0.10432048141956329, -0.06586851179599762, -0.05959031730890274, 0.12173038721084595, 0.15656106173992157, 0.08655935525894165, -0.04998537898063660, -0.01471303123980761, -0.11671175062656403, -0.07938168942928314, 0.04001478850841522, -0.04359633848071098, 0.13196259737014771, -0.02597549743950367, 0.08058621734380722, 0.07491341978311539, 0.04954160004854202, 0.08475512266159058, -0.02611989714205265, 0.03762661665678024, 0.08020138740539551, -0.26988101005554199, -0.17490811645984650, -0.04616449773311615, 0.09890669584274292, -0.04553715139627457, 0.04279882460832596, 0.07251350581645966, 0.08034819364547729, 0.08669282495975494, -0.22503155469894409, 0.13912223279476166, 0.00450985087081790, -0.24014791846275330, 0.07047029584646225, -0.11592346429824829, -0.03151176497340202, -0.00415073381736875, 0.03594353795051575, 0.16805483400821686, 0.02566830813884735, 0.04657888785004616, 0.19327826797962189, -0.12865944206714630, 0.10352718085050583, -0.14447775483131409, -0.03327480331063271, -0.21663501858711243, 0.13055680692195892, 0.08390771597623825, 0.11347277462482452, -0.02748905308544636, -0.02090090326964855, -0.10318917781114578, -0.00841871276497841, 0.09471184760332108, -0.28191247582435608, -0.05158451944589615, 0.04672871530056000, -0.13098588585853577, -0.04972288757562637, 0.00409154687076807, -0.04806164652109146, -0.17257474362850189, -0.02395945601165295, 0.02224758081138134, 0.01566046476364136, 0.15787175297737122, -0.12817586958408356, -0.08976712077856064, 0.05712001770734787, -0.14089876413345337, 0.04343371465802193, 0.01012240443378687, 0.15302763879299164, 0.02448521368205547, -0.26688137650489807, -0.02593955770134926, -0.02219226397573948, -0.01034191250801086, -0.03577128797769547, 0.02447793260216713, 0.03126633539795876, -0.03843594714999199, 0.00523700658231974, -0.03309328481554985, 0.00274074054323137, 0.10192053020000458, -0.15165227651596069, 0.17356632649898529, 0.00634947419166565, -0.01557576656341553, -0.03523169457912445, 0.10924801975488663, -0.30687773227691650, 0.18502776324748993, 0.26099920272827148, 0.05119109153747559