//Numpy array shape [192]
//Min -0.370294064283
//Max 0.674421072006
//Number of zeros 0

#ifndef OUT_PROJ_BIAS81_H_
#define OUT_PROJ_BIAS81_H_

#ifndef __SYNTHESIS__
layers_10_ffn_out_proj_bias_t out_proj_bias81[192];
#else
layers_10_ffn_out_proj_bias_t out_proj_bias81[192] = {-0.03294302895665169, -0.17050328850746155, 0.20042815804481506, -0.14223809540271759, -0.16201607882976532, 0.04480679705739021, -0.09360728412866592, -0.17183515429496765, 0.08137939125299454, -0.02493477426469326, -0.03348281234502792, -0.00412712385877967, -0.05978458374738693, -0.23866057395935059, 0.18808136880397797, 0.19840106368064880, 0.17280559241771698, -0.08781179785728455, -0.03177484869956970, -0.08285208046436310, -0.04775479808449745, 0.67442107200622559, 0.06074810773134232, -0.00178404815960675, -0.10262271761894226, -0.25808534026145935, -0.14303848147392273, -0.06233888491988182, -0.06262457370758057, 0.07633687555789948, -0.07596041262149811, 0.20596268773078918, -0.13610480725765228, -0.10353960841894150, -0.10488603264093399, 0.03274242207407951, 0.27497291564941406, -0.12233521789312363, 0.06848771870136261, 0.03245262801647186, -0.05872404202818871, -0.04859138280153275, -0.18313169479370117, -0.06315489858388901, 0.01430674921721220, 0.09735852479934692, -0.02401464805006981, 0.05817697197198868, 0.13969402015209198, 0.06187529489398003, -0.18847049772739410, -0.17429119348526001, -0.16249585151672363, -0.07340928167104721, -0.25752982497215271, 0.24506080150604248, -0.26622125506401062, -0.13075348734855652, 0.00784948561340570, -0.16086392104625702, -0.05539998412132263, 0.02036778256297112, -0.06621047109365463, 0.15799009799957275, -0.14124011993408203, 0.31728243827819824, 0.15708900988101959, 0.07785703241825104, -0.09422350674867630, -0.19029434025287628, 0.02549682557582855, 0.00583022227510810, 0.04115848615765572, -0.05830658227205276, -0.08325605839490891, -0.13937973976135254, 0.09933412820100784, 0.02139831706881523, 0.01838513836264610, 0.01659974828362465, -0.15093922615051270, 0.10390708595514297, -0.22860644757747650, 0.05416797101497650, 0.03422634303569794, 0.13583727180957794, -0.26792454719543457, -0.30268359184265137, 0.04055295512080193, -0.23026916384696960, -0.10180902481079102, -0.02709889970719814, -0.02467307820916176, -0.16762022674083710, 0.12757377326488495, 0.07863997668027878, -0.11983877420425415, -0.19171395897865295, -0.25736248493194580, -0.02227754145860672, 0.06066708639264107, -0.01296586543321609, -0.04948283731937408, 0.24290221929550171, -0.07802521437406540, 0.16246764361858368, 0.08352772146463394, 0.15982039272785187, -0.08289267867803574, 0.08041788637638092, 0.06892498582601547, 0.04523035138845444, 0.08784749358892441, -0.06200126186013222, 0.10268600285053253, 0.43856456875801086, -0.04681846126914024, 0.06550860404968262, 0.02714117988944054, -0.02372261509299278, 0.34090515971183777, 0.10238157957792282, 0.14971631765365601, 0.07433400303125381, -0.09591714292764664, -0.04440417140722275, -0.07880607247352600, 0.01828797347843647, 0.02001023292541504, -0.10321189463138580, -0.09083461016416550, -0.37029406428337097, -0.03763920813798904, -0.11597847938537598, -0.11004319787025452, 0.11835649609565735, -0.28116807341575623, -0.17204630374908447, -0.02306181192398071, 0.19153724610805511, 0.11908653378486633, 0.00521554052829742, 0.03962577134370804, 0.05786277726292610, -0.09381131827831268, 0.15437945723533630, -0.05048939585685730, 0.06461788713932037, 0.08760292083024979, -0.00231073237955570, 0.16117990016937256, 0.07082295417785645, -0.21474038064479828, -0.05369560793042183, 0.09564062952995300, 0.26380994915962219, -0.06744352728128433, 0.19434888660907745, 0.10887620598077774, 0.02053087577223778, -0.11903307586908340, 0.16186952590942383, -0.08035466820001602, -0.16981770098209381, 0.53818613290786743, -0.02712484821677208, 0.13912630081176758, -0.05165904760360718, 0.07225877791643143, 0.07914693653583527, -0.01744237728416920, -0.14784592390060425, 0.07418137043714523, 0.08311565965414047, 0.03017460182309151, -0.08558617532253265, -0.06808805465698242, 0.11219435930252075, -0.12188983708620071, -0.08875691145658493, -0.05469982698559761, 0.06041106209158897, 0.29936918616294861, -0.03386285156011581, -0.00921529810875654, -0.06251014769077301, 0.14407666027545929, -0.11097851395606995, -0.13438501954078674, 0.29221731424331665, -0.00473732827231288, 0.24404165148735046};
#endif

#endif
