-0.01577216945588589, -0.03376298025250435, 0.13749569654464722, -0.19197914004325867, 0.47076657414436340, -0.18066498637199402, -0.00506727490574121, -0.07439319789409637, -0.00805820338428020, 0.00402026576921344, -0.46103027462959290, 0.20144928991794586, 0.03477835282683372, -0.16389124095439911, 0.49499475955963135, 0.00490284571424127, -0.21248923242092133, -0.53436452150344849, -0.05488055199384689, -0.21462917327880859, 0.02988063357770443, 0.52116912603378296, 0.03837570920586586, 0.07519377022981644, -0.00843474175781012, -0.13768544793128967, 0.01729069091379642, -0.16617290675640106, 0.13932500779628754, 0.19520647823810577, -0.04961356520652771, -0.19381324946880341, 0.24287219345569611, 0.02780074626207352, 0.13986645638942719, 0.35072445869445801, -0.10724157094955444, -0.09905490279197693, -0.13586220145225525, 0.26193022727966309, -0.07245347648859024, -0.14290490746498108, 0.06777860224246979, -0.12913566827774048, 0.34327769279479980, -0.08557947725057602, 0.04315499588847160, -0.11202663183212280, -0.03746662288904190, 0.07106652110815048, 0.38521963357925415, -0.38497692346572876, 0.10061606764793396, -0.01270386949181557, -0.21005836129188538, -0.38297685980796814, -0.23443596065044403, 0.10614712536334991, -0.20075370371341705, 0.02127338759601116, -0.26312312483787537, 0.03532906249165535, 0.21283333003520966, 0.35388585925102234, -0.20721074938774109, -0.27097845077514648, 0.01089987158775330, 0.30269598960876465, -0.36353120207786560, 0.18339307606220245, -0.06733790785074234, -0.10456956923007965, -0.21950058639049530, -0.01215763762593269, -0.03329636529088020, 0.17093507945537567, -0.44202047586441040, -0.02717596665024757, -0.17865625023841858, -0.35205465555191040, -0.31771692633628845, 0.02984410524368286, -0.18437927961349487, -0.26905220746994019, 0.14450560510158539, 0.33955585956573486, -0.48157808184623718, -0.22048503160476685, -0.01599914953112602, 0.55388540029525757, -0.21040181815624237, 0.09769625961780548, -0.15906879305839539, -0.10741720348596573, 0.19041283428668976, 0.13514627516269684, -0.27866953611373901, 0.27475723624229431, 0.23294939100742340, -0.06002018973231316, -0.07658862322568893, -0.15964183211326599, -0.07649753987789154, 0.02987651526927948, 0.14346963167190552, -0.03776822239160538, -0.05683721601963043, 0.00048402001266368, 0.00152383919339627, 0.18053755164146423, -0.09740285575389862, -0.09796799719333649, 0.44001621007919312, -0.03767016530036926, 0.03247642517089844, -0.18514677882194519, -0.25050663948059082, 0.20721383392810822, -0.09958856552839279, -0.02268484234809875, -0.31670495867729187, 0.12071428447961807, 0.08226847648620605, 0.02807167358696461, 0.08005332201719284, -0.05115855485200882, -0.11136673390865326, -0.03840881213545799, 0.10194047540426254, -0.14212267100811005, -0.07731591910123825, -0.13249987363815308, 0.06820316612720490, -0.09186341613531113, 0.07494550943374634, -0.10188791155815125, 0.37463498115539551, 0.21341951191425323, 0.15725585818290710, -0.17479516565799713, -0.01125780586153269, 0.00714193098247051, 0.10983061045408249, 0.19584864377975464, 0.26074075698852539, -0.39188191294670105, -0.07669113576412201, 0.48120540380477905, -0.08944366872310638, 0.17514067888259888, 0.01460388768464327, 0.01333764940500259, 0.01505108829587698, -0.04588650539517403, -0.00081908173160627, 0.17269082367420197, 0.04233939200639725, -0.04890099540352821, 0.15429991483688354, -0.08056642115116119, 0.36580529808998108, 0.37979006767272949, -0.03696824610233307, -0.09855976700782776, -0.45884388685226440, 0.09808758646249771, -0.00396219175308943, 0.21487803757190704, 0.43154197931289673, 0.09218048304319382, 0.09152145683765411, 0.21812085807323456, 0.00980260688811541, -0.16334570944309235, -0.07944125682115555, 0.20430038869380951, 0.08250731229782104, -0.24078768491744995, 0.09953331947326660, 0.28262102603912354, 0.16467168927192688, 0.22790685296058655, 0.26041254401206970, -0.39311513304710388, -0.36637327075004578, -0.17047627270221710, 0.00022265443112701, -0.15803731977939606, -0.10053421556949615, -0.22771349549293518, 0.12023758888244629, 0.13769170641899109