//Numpy array shape [192]
//Min -1.029204249382
//Max 0.846884131432
//Number of zeros 0

#ifndef BIAS44_H_
#define BIAS44_H_

#ifndef __SYNTHESIS__
layers_4_norm2_bias_t bias44[192];
#else
layers_4_norm2_bias_t bias44[192] = {-0.0673274025321007, -0.1207961887121201, -0.1541636139154434, -0.0091721555218101, 0.1276151388883591, 0.0486399084329605, 0.1149898022413254, 0.1800716966390610, 0.0509353429079056, 0.1019188761711121, 0.6361111998558044, -0.2102256119251251, 0.1262028217315674, 0.3447826206684113, 0.3690038323402405, -0.2683910429477692, 0.2904441952705383, 0.5154418349266052, 0.0069942292757332, 0.0962392166256905, 0.3606376349925995, -0.6790856719017029, -0.0748064368963242, -0.3035229444503784, 0.2314075231552124, 0.0466103255748749, -0.0902588292956352, 0.1524767279624939, -0.1706192940473557, -0.3505071997642517, -0.1620710492134094, 0.3806272447109222, -0.2085679918527603, -0.0999576672911644, -0.2817788422107697, -0.2678665816783905, 0.4166888296604156, -0.0128665436059237, -1.0292042493820190, -0.2592028677463531, 0.0660406574606895, 0.2084719985723495, -0.0982928425073624, 0.2151619642972946, -0.0913917347788811, -0.1348671168088913, -0.0337180420756340, 0.1850874125957489, 0.0683877840638161, 0.1228495016694069, -0.2930876016616821, 0.4270817935466766, -0.3579528629779816, -0.0131700877100229, -0.3153334259986877, 0.1669769734144211, -0.1158705651760101, 0.2692367732524872, -0.0289288815110922, -0.3674701154232025, 0.3650074601173401, -0.0130382375791669, -0.0304285269230604, -0.2610236704349518, 0.0578157715499401, 0.8468841314315796, 0.0624202266335487, -0.5093175172805786, 0.0513263978064060, -0.3848147988319397, -0.0346886813640594, -0.1163848787546158, -0.1287986636161804, -0.0638671964406967, -0.0253006219863892, -0.2028889656066895, 0.4065470993518829, -0.1374808251857758, -0.0911616459488869, 0.2109803259372711, 0.2563700973987579, 0.1897679120302200, -0.0529005117714405, 0.4262492954730988, -0.2500147223472595, 0.1977109163999557, 0.3063092529773712, 0.2977132797241211, 0.1120410487055779, -0.2192204743623734, 0.1455712467432022, 0.1660360693931580, 0.2772721946239471, 0.1182649135589600, -0.2163669615983963, 0.0970637947320938, 0.1162452101707458, -0.1524311155080795, -0.0537399202585220, 0.1813478618860245, 0.0834992527961731, 0.0851414725184441, 0.0918685048818588, -0.3548280894756317, -0.0612996444106102, -0.0388605780899525, 0.1177274137735367, -0.1736973971128464, -0.0929956808686256, -0.4140450060367584, 0.0455812327563763, 0.1587405800819397, -0.2294414788484573, 0.1067965477705002, 0.1036452874541283, 0.2763501107692719, -0.0066769672557712, 0.2064697295427322, 0.1759497076272964, 0.0215238165110350, 0.6041687130928040, 0.1216029152274132, -0.1424182355403900, 0.2204173058271408, 0.1638332605361938, -0.3998581469058990, 0.1179006099700928, -0.2297375351190567, -0.1926444917917252, -0.0964829772710800, 0.2504557669162750, -0.2942627668380737, 0.0983355194330215, 0.4399453401565552, 0.1457265019416809, 0.0912214890122414, -0.5419695377349854, -0.3372299373149872, -0.5702893733978271, 0.1946183294057846, -0.1032977923750877, 0.1791176348924637, -0.3286783993244171, 0.0315163061022758, 0.0358238331973553, 0.4414353966712952, 0.1872601956129074, -0.3195478320121765, -0.0303147379308939, -0.1891692876815796, -0.1095891818404198, -0.3831617236137390, -0.0606401450932026, 0.1584859341382980, -0.1363077014684677, -0.0284560602158308, -0.2553697526454926, 0.3182672560214996, -0.5339450240135193, 0.0141992848366499, -0.4403068125247955, -0.3026621937751770, -0.0933598130941391, -0.0435820743441582, 0.0263043940067291, 0.1402130126953125, 0.0152591075748205, -0.4710750281810760, 0.2788437306880951, 0.0264912955462933, -0.2522091567516327, -0.2413634210824966, 0.0889059677720070, 0.0507874339818954, -0.0397466719150543, -0.0968339294195175, -0.1286294311285019, 0.1602982282638550, -0.2828168869018555, -0.3245568573474884, -0.2103873789310455, 0.0456628464162350, 0.2686108052730560, 0.3357920646667480, -0.1196118369698524, -0.2525311708450317, -0.0522897243499756, -0.0513771250844002, 0.2900275588035583, 0.0132979936897755, -0.2329098880290985, 0.0546358712017536};
#endif

#endif
