//Numpy array shape [192]
//Min -1.029086828232
//Max 0.846088767052
//Number of zeros 0

#ifndef BIAS44_H_
#define BIAS44_H_

#ifndef __SYNTHESIS__
layers_4_norm2_bias_t bias44[192];
#else
layers_4_norm2_bias_t bias44[192] = {-0.0674940720200539, -0.1211245954036713, -0.1532541811466217, -0.0094223367050290, 0.1290384680032730, 0.0487060211598873, 0.1141603142023087, 0.1789671033620834, 0.0503824651241302, 0.1026193946599960, 0.6350482106208801, -0.2091926932334900, 0.1273653507232666, 0.3445644974708557, 0.3679700791835785, -0.2679244279861450, 0.2903676331043243, 0.5158761143684387, 0.0073683215305209, 0.0957368612289429, 0.3613145947456360, -0.6784227490425110, -0.0737465322017670, -0.3032796382904053, 0.2331400662660599, 0.0472973845899105, -0.0912773609161377, 0.1514555215835571, -0.1716421991586685, -0.3509954810142517, -0.1615194827318192, 0.3799988627433777, -0.2080514132976532, -0.0979939550161362, -0.2812434434890747, -0.2682900726795197, 0.4173715412616730, -0.0124223949387670, -1.0290868282318115, -0.2589973509311676, 0.0659796819090843, 0.2080045491456985, -0.0984470546245575, 0.2150846868753433, -0.0907637178897858, -0.1353802084922791, -0.0331147760152817, 0.1850749105215073, 0.0671550557017326, 0.1239417046308517, -0.2937869131565094, 0.4263461828231812, -0.3571698963642120, -0.0131207136437297, -0.3139341473579407, 0.1652278304100037, -0.1174591779708862, 0.2707962989807129, -0.0304387472569942, -0.3692395389080048, 0.3648355603218079, -0.0129194315522909, -0.0294436886906624, -0.2620832324028015, 0.0576827749609947, 0.8460887670516968, 0.0625420883297920, -0.5094993114471436, 0.0506326295435429, -0.3841946423053741, -0.0347927659749985, -0.1158798038959503, -0.1287437528371811, -0.0635117739439011, -0.0268308091908693, -0.2027349472045898, 0.4061271548271179, -0.1363229900598526, -0.0919272899627686, 0.2111090123653412, 0.2575026154518127, 0.1894246190786362, -0.0529650039970875, 0.4261582493782043, -0.2497753351926804, 0.1968262195587158, 0.3041965961456299, 0.2977405786514282, 0.1123501956462860, -0.2202148884534836, 0.1459176540374756, 0.1674733906984329, 0.2767603397369385, 0.1188641265034676, -0.2173888236284256, 0.0965775772929192, 0.1166698187589645, -0.1527807563543320, -0.0518478564918041, 0.1823258697986603, 0.0842601656913757, 0.0844579786062241, 0.0919292271137238, -0.3539811074733734, -0.0622039772570133, -0.0375399850308895, 0.1173520162701607, -0.1736376285552979, -0.0928421095013618, -0.4146541953086853, 0.0461458452045918, 0.1581963449716568, -0.2291331589221954, 0.1059103235602379, 0.1043230369687080, 0.2752791047096252, -0.0067437104880810, 0.2060070037841797, 0.1765353530645370, 0.0206200629472733, 0.6049944162368774, 0.1215133443474770, -0.1410377621650696, 0.2213746756315231, 0.1631140410900116, -0.4004729390144348, 0.1180144920945168, -0.2288958579301834, -0.1919942647218704, -0.0966309458017349, 0.2503859698772430, -0.2930580079555511, 0.0983323827385902, 0.4390490353107452, 0.1449727714061737, 0.0903644710779190, -0.5429207682609558, -0.3373683094978333, -0.5707170963287354, 0.1956940740346909, -0.1035689041018486, 0.1787791997194290, -0.3292462825775146, 0.0310956146568060, 0.0350991152226925, 0.4416401386260986, 0.1874071359634399, -0.3192699849605560, -0.0295283775776625, -0.1900390833616257, -0.1095005348324776, -0.3834830522537231, -0.0597780607640743, 0.1580418199300766, -0.1360415667295456, -0.0286278203129768, -0.2563447058200836, 0.3179200887680054, -0.5352297425270081, 0.0150006869807839, -0.4397251307964325, -0.3031302988529205, -0.0924916043877602, -0.0437529906630516, 0.0264704469591379, 0.1397196799516678, 0.0162245817482471, -0.4715728461742401, 0.2786529064178467, 0.0264139249920845, -0.2540887594223022, -0.2406756132841110, 0.0885259434580803, 0.0511269494891167, -0.0389998406171799, -0.0970215201377869, -0.1285522878170013, 0.1606178730726242, -0.2831893265247345, -0.3239092528820038, -0.2111747860908508, 0.0462569631636143, 0.2691183984279633, 0.3359070420265198, -0.1202381700277328, -0.2537366151809692, -0.0521895624697208, -0.0515542142093182, 0.2895802557468414, 0.0131916496902704, -0.2322841584682465, 0.0545216314494610};
#endif

#endif
