//Numpy array shape [192]
//Min -1.879906177521
//Max 1.177500367165
//Number of zeros 0

#ifndef BIAS83_H_
#define BIAS83_H_

#ifndef __SYNTHESIS__
layers_11_norm1_bias_t bias83[192];
#else
layers_11_norm1_bias_t bias83[192] = {0.0907194837927818, 0.2386801689863205, 0.1410253196954727, 0.1361040174961090, 0.0702453181147575, 0.1890806108713150, -0.0088385827839375, 0.0621716752648354, 0.1654016077518463, -0.2371816635131836, -0.4562062919139862, -0.0687506198883057, 0.3697310090065002, 0.1886864900588989, -0.3877515196800232, -0.1483487635850906, -0.9134249091148376, 0.3632721602916718, -0.2084884196519852, -0.0690521299839020, -0.1071490347385406, -1.8799061775207520, -0.0095431935042143, -0.1096541509032249, 0.2938431203365326, 0.0573662407696247, 0.1233519017696381, 0.0301546212285757, -0.1735455542802811, 0.2845984399318695, -0.0132438931614161, -0.3546011447906494, 0.6516578793525696, 0.1133140623569489, 0.0392997786402702, -0.0480912998318672, -0.5983386039733887, 0.2491750717163086, -0.2838843464851379, -0.2321146875619888, -0.0385509319603443, 0.4156916141510010, 0.3847254514694214, -0.0053205881267786, -0.2735189199447632, -0.1183462217450142, 0.2624725401401520, -0.4057856500148773, 0.0486835353076458, -0.0061650783754885, -0.0949413254857063, 0.1026122644543648, 0.0847706273198128, 0.0132264355197549, -0.3551310300827026, -0.3007298409938812, 0.1110771894454956, -0.0219458490610123, 0.0641238689422607, -0.1400395035743713, 0.2806064188480377, 0.1302353441715240, 0.1280096918344498, -0.1711844205856323, 0.0513310171663761, 0.0281658433377743, 0.6293237805366516, -0.2686133980751038, -0.2091643810272217, -0.0471047088503838, -0.2653872668743134, 0.0670449063181877, 0.1226160004734993, 0.4922328293323517, 0.0588645637035370, 0.2481068819761276, -0.0930170342326164, -0.1875794231891632, 0.0036733574233949, -0.0435568727552891, 0.1048047989606857, 1.0490521192550659, 0.3059976100921631, 0.2033687084913254, 0.0061278538778424, 0.0653226524591446, 0.4067808389663696, 0.2647473514080048, -0.0331240333616734, -1.1047137975692749, 0.5968047380447388, 0.1022393852472305, 0.0702739283442497, 0.4275835454463959, -0.1017583608627319, 0.0959960296750069, -0.0360251069068909, -0.3903704583644867, -0.1624590307474136, -0.2136910259723663, -0.4188735783100128, -0.1456076800823212, -0.0957473590970039, 0.1754133403301239, 0.0321619957685471, -0.1838087290525436, -0.2761450409889221, -0.1946473419666290, 0.5198820829391479, -0.1989536136388779, 0.1214882880449295, 0.1496735364198685, -0.0074679860845208, 0.4547019898891449, -0.3867075741291046, 0.6611388921737671, 0.2605326175689697, -0.1486722081899643, -0.2318869233131409, -0.2088721543550491, -0.2961094379425049, -0.6822222471237183, -0.0138090783730149, -0.2168439626693726, 0.1591893285512924, 0.2564703822135925, -0.0434623435139656, 0.3200556933879852, -0.2048243284225464, 0.6078076958656311, -0.2601604759693146, 0.3187458813190460, 0.0274679232388735, -0.0555670298635960, -0.0192457661032677, -0.3100347816944122, -0.0468278042972088, -0.0583359561860561, -0.0780574679374695, -0.0995668992400169, 0.0311687719076872, 0.1419969797134399, -0.8326179981231689, 0.0285171736031771, 0.1776113212108612, -0.1456270515918732, 1.0114797353744507, 0.1759872585535049, 0.4188943803310394, -0.1599474251270294, -0.1125022470951080, -0.3448212146759033, -0.0392204187810421, 0.0462356656789780, -0.0850845649838448, -0.2792181670665741, 0.3081268966197968, 0.0596280395984650, -0.5437397360801697, 0.3371759355068207, -0.0527741014957428, -0.1956565678119659, -0.0028930269181728, 0.2925923168659210, -0.1661989241838455, 0.0160384476184845, -0.3022479712963104, 0.1319310516119003, 0.0625415891408920, -0.1066103875637054, 0.5677865147590637, -0.0657791197299957, 0.0670921504497528, 0.1639386564493179, 0.1808910965919495, 0.1248554065823555, 0.2211982160806656, -0.4511438012123108, 0.1855546087026596, -0.0612027496099472, 0.0507253073155880, -0.0539478994905949, 0.1241796091198921, -0.0097094569355249, -0.0118993725627661, -0.1398509740829468, 0.2390985786914825, 0.0171492900699377, 1.1775003671646118, -0.1151862740516663, -0.5855216979980469, -0.2173158079385757};
#endif

#endif
