//Numpy array shape [192]
//Min -0.839722812176
//Max 0.884815096855
//Number of zeros 0

#ifndef BIAS50_H_
#define BIAS50_H_

#ifndef __SYNTHESIS__
layers_5_norm2_bias_t bias50[192];
#else
layers_5_norm2_bias_t bias50[192] = {0.20635408163070679, -0.42173618078231812, -0.03299023583531380, -0.15890137851238251, 0.00003786338129430, 0.19233922660350800, 0.39634105563163757, 0.05860422179102898, -0.23623827099800110, 0.43238711357116699, 0.56634211540222168, -0.06609420478343964, 0.20220649242401123, 0.18451783061027527, 0.36738556623458862, -0.15122123062610626, 0.39839953184127808, 0.39537328481674194, 0.02200746908783913, 0.20906335115432739, 0.24425902962684631, -0.61314731836318970, -0.11239447444677353, -0.27145981788635254, 0.10750559717416763, 0.01707756519317627, -0.00312562240287662, 0.33305439352989197, -0.36688911914825439, -0.41778197884559631, -0.15062771737575531, 0.41744643449783325, -0.26392045617103577, 0.09292849898338318, -0.38330370187759399, 0.01680642552673817, 0.42193192243576050, -0.07464330643415451, -0.83972281217575073, -0.27171102166175842, 0.04732432216405869, 0.11700823158025742, -0.18795965611934662, 0.11546894907951355, 0.25578442215919495, -0.28488430380821228, 0.18651670217514038, 0.22672376036643982, -0.03263054043054581, -0.01386091671884060, -0.47032600641250610, 0.38623070716857910, -0.30723166465759277, -0.11428355425596237, -0.22937855124473572, 0.16829770803451538, 0.04816073924303055, 0.19775708019733429, -0.16056512296199799, -0.29141226410865784, -0.03175677359104156, -0.20316205918788910, -0.06874148547649384, -0.21221786737442017, -0.03359850868582726, 0.75986754894256592, -0.04271454736590385, -0.65165966749191284, 0.49920642375946045, -0.35451439023017883, 0.12155537307262421, -0.08023937791585922, -0.04958225414156914, -0.17913348972797394, -0.28027379512786865, -0.28203675150871277, 0.54552638530731201, 0.33491870760917664, -0.17376112937927246, 0.26986682415008545, 0.36449825763702393, 0.01569509692490101, -0.13337132334709167, 0.12778510153293610, -0.41553005576133728, 0.20124602317810059, 0.07748378813266754, 0.22192102670669556, 0.31312990188598633, -0.03736208751797676, -0.08637663722038269, 0.43986704945564270, 0.49913343787193298, -0.09813947230577469, -0.02979613281786442, 0.07783878594636917, 0.06701181083917618, 0.03027981147170067, -0.00448053749278188, -0.00126839242875576, 0.33736404776573181, -0.01292320434004068, 0.07951200008392334, -0.21185076236724854, -0.16786067187786102, -0.05082234740257263, 0.22356916964054108, 0.23385569453239441, -0.04118807986378670, -0.53004914522171021, -0.22152501344680786, 0.01941678859293461, -0.09685847163200378, -0.11241573840379715, 0.21803879737854004, 0.18550705909729004, -0.05186103656888008, 0.44586372375488281, 0.09993939846754074, 0.11984320729970932, 0.88481509685516357, 0.29484388232231140, -0.33394315838813782, 0.38662847876548767, 0.30073815584182739, -0.15723486244678497, 0.18667618930339813, -0.27444341778755188, -0.56127321720123291, 0.03808936104178429, 0.35760402679443359, -0.16050273180007935, 0.20518800616264343, 0.34899026155471802, 0.05567258968949318, 0.30917692184448242, -0.47323426604270935, -0.44739243388175964, -0.52363872528076172, 0.14917857944965363, -0.17451260983943939, 0.28061529994010925, -0.01819944754242897, 0.00384846585802734, -0.21532590687274933, -0.02878968603909016, 0.30368638038635254, -0.54842305183410645, -0.14340345561504364, -0.22157086431980133, -0.08694252371788025, -0.21201361715793610, -0.07127302885055542, 0.26676124334335327, 0.10048587620258331, -0.02708998136222363, -0.46946415305137634, 0.51664328575134277, -0.32923901081085205, -0.12323595583438873, -0.45066329836845398, -0.31412640213966370, -0.20415201783180237, -0.27751258015632629, 0.11487521976232529, 0.12926980853080750, 0.16706264019012451, -0.39545956254005432, 0.20501521229743958, -0.05234201624989510, -0.22374039888381958, -0.23421207070350647, 0.07030732929706573, 0.10504461824893951, 0.08867219835519791, -0.21648743748664856, 0.04903212189674377, 0.40369471907615662, -0.15493054687976837, -0.06331824511289597, -0.16851490736007690, 0.07056646049022675, 0.26519003510475159, 0.33879131078720093, 0.11538333445787430, -0.20214457809925079, 0.12971411645412445, 0.10780584812164307, 0.26311495900154114, -0.01790769770741463, 0.03786568343639374, 0.14915783703327179};
#endif

#endif
