0.0893048718571663, -0.1920369565486908, 0.3529571294784546, -0.4885719418525696, -0.0890863835811615, 1.0128588676452637, 0.1946281641721725, -0.4946306943893433, -0.2630769610404968, 1.4315513372421265, -0.1663183718919754, 0.6103398203849792, 0.2497204393148422, -0.3442970812320709, 0.1249163448810577, 0.6407887935638428, 0.7596936821937561, 0.0994865745306015, 0.0836268886923790, 0.2117749899625778, 0.0006691393791698, -1.2356292009353638, -0.6716669201850891, 0.0644316077232361, -0.7825927138328552, 0.2701310217380524, -0.0293311029672623, -0.3513757586479187, 0.2637353241443634, 0.9806499481201172, 0.3348245322704315, -0.3122143149375916, -1.2144790887832642, 0.0469268746674061, 0.7552919983863831, 0.7175720334053040, 0.2240026593208313, -0.2142426520586014, -0.5600269436836243, -0.1931279897689819, 0.3211457133293152, -0.5241742134094238, 0.8885597586631775, -0.6560328602790833, 0.4929336011409760, -0.1697762459516525, 0.4846406280994415, -0.5826649665832520, 0.0208788979798555, 0.0804679244756699, 0.4729873538017273, 0.0078646223992109, 0.0470323413610458, -0.2552186846733093, -0.2951496541500092, 0.8829837441444397, 0.0194167867302895, 0.3271911144256592, -0.7996821403503418, -0.7436804771423340, 0.4371795356273651, 0.2086402177810669, 0.4055530130863190, 0.9007315039634705, -0.3180518150329590, -1.3247534036636353, -0.7176870107650757, 0.1566434055566788, -0.0542006045579910, 0.7584975957870483, -0.6955072879791260, 0.1278626024723053, 1.0873125791549683, -0.1091926768422127, 0.2194655835628510, -0.2054282277822495, -0.4028137028217316, 1.1057083606719971, -0.0118081793189049, 0.4159290194511414, 0.1399853527545929, 0.2542041838169098, 0.2204539775848389, 0.3341781497001648, 0.6259977817535400, 0.3305279910564423, 0.7619550228118896, 0.1622303128242493, -0.4633983671665192, 0.9401562809944153, 0.4254120588302612, -0.1909445077180862, -1.1632363796234131, -0.2928203940391541, -0.0591128654778004, -0.2859748601913452, 0.6521415114402771, -0.3452776670455933, 0.3271953761577606, 0.2864307761192322, 0.2851109504699707, 0.5459499955177307, -0.6972571015357971, -0.3005299270153046, -0.2691848576068878, -0.3739896118640900, -0.0928216427564621, 0.6499320864677429, 0.5645124912261963, -0.6642048358917236, 0.1136661395430565, -0.8242813944816589, 0.4488318860530853, -0.8312467336654663, 0.4435718953609467, -0.0166971441358328, 0.0178147666156292, 0.0468323193490505, -0.5267238616943359, -1.2058389186859131, -0.0207362566143274, -0.2341743558645248, -0.0139697343111038, 0.0533782392740250, -0.0395047813653946, 0.8432149887084961, 0.3544608950614929, -0.6200264096260071, -0.2544744610786438, 0.5169741511344910, 0.0355527326464653, -0.6338365077972412, -0.1265343278646469, 0.2522526979446411, 0.1265174001455307, 0.4713343381881714, -0.0991281494498253, 0.1395681798458099, 0.0792851969599724, -0.7685691714286804, -0.9130160808563232, 0.3990686833858490, 1.1958056688308716, 0.0392181240022182, 0.4039666354656219, -0.4993335902690887, 0.4511260986328125, -0.9918137788772583, 0.7012243866920471, -0.3578668236732483, -0.1775197833776474, 1.1393089294433594, 0.0603721104562283, -0.0704201161861420, -0.3638771176338196, 0.0478532090783119, -0.4254836440086365, -0.2651158273220062, 0.1913031190633774, 0.6280016899108887, -0.7307004928588867, 0.2126266062259674, 0.8438438177108765, 0.8070039749145508, 0.2538741827011108, -0.5749081373214722, 0.1450475007295609, 0.0163493417203426, -1.0054208040237427, -0.6118410825729370, 0.4972997903823853, 0.2407339364290237, -0.5594031214714050, 1.1437855958938599, -0.1518508940935135, 0.0664978846907616, 0.2488154172897339, 0.5214446187019348, 0.3387409746646881, 0.3512339591979980, -0.1633998155593872, 0.2301346361637115, 0.1263933926820755, 0.0437666289508343, 0.0290975403040648, 0.0534617416560650, 0.1521418839693069, -0.5798971056938171, 0.0157386716455221, -0.0233743917196989, -0.0634697005152702, -0.9287845492362976