//Numpy array shape [192]
//Min -2.693662166595
//Max 1.212814450264
//Number of zeros 0

#ifndef BIAS29_H_
#define BIAS29_H_

#ifndef __SYNTHESIS__
layers_2_norm1_bias_t bias29[192];
#else
layers_2_norm1_bias_t bias29[192] = {0.181401416659355, -0.067258708178997, 0.293027579784393, 0.099788337945938, 0.373995482921600, -0.011139247566462, -0.323664665222168, -0.583063900470734, -0.351014703512192, 0.162634998559952, 0.133345514535904, 0.147170901298523, -0.063828445971012, -0.239992797374725, 1.212814450263977, 0.270035952329636, -0.314428538084030, -0.318440675735474, 0.354050248861313, 0.191472500562668, 0.028980914503336, -2.693662166595459, 0.055702194571495, -0.052270758897066, -0.304251283407211, -0.094204716384411, 0.319759190082550, -0.191435471177101, -0.113123022019863, 0.175164908170700, -0.142253711819649, -0.440856873989105, 0.123051144182682, 0.005067360587418, -0.272861510515213, 0.510862588882446, -0.109926775097847, 0.008955314755440, -1.021726608276367, 0.358780890703201, -0.032767336815596, -0.092415690422058, 0.003205592511222, -0.127186864614487, 0.365150839090347, 0.396921575069427, 0.009057563729584, 0.096246697008610, -0.015048244036734, 0.236728668212891, 0.618684172630310, -0.491703331470490, -0.026006434112787, 0.070334821939468, -0.913852989673615, -0.133210614323616, -0.120869159698486, 0.352474570274353, 0.255126684904099, 0.259582042694092, 0.057065300643444, 0.202325493097305, -0.047317121177912, 0.267657846212387, 0.060205291956663, -0.242957398295403, 0.484540373086929, 0.126213133335114, -0.216044664382935, -0.119932189583778, -0.155212044715881, -0.059702645987272, -0.248196929693222, 0.156150117516518, -0.085290476679802, 0.131218641996384, -0.556657314300537, -0.191473931074142, 0.007626098114997, -0.245693579316139, -0.563670158386230, 0.859259545803070, 0.095369249582291, -0.441659033298492, 0.203169241547585, 0.544402897357941, -0.143573150038719, 0.156382381916046, 0.132262021303177, 0.127423137426376, 0.089346744120121, -0.079539850354195, -0.358424574136734, 0.006520142313093, 0.003423466114327, 0.182341948151588, 0.017049539834261, 0.280932992696762, -0.072696574032307, 0.085002802312374, 0.117470875382423, 0.046143963932991, -0.173953801393509, 0.557453215122223, 0.011739617213607, -0.297554433345795, 0.155985906720161, 0.301679491996765, 0.041648678481579, -0.224970713257790, 0.062634579837322, 0.001379612600431, 0.237394914031029, -0.143977567553520, 0.232213139533997, 0.472310066223145, -0.873381376266479, 0.055302619934082, 0.006940661929548, -0.232708349823952, -0.266583532094955, 0.044259481132030, -0.143783807754517, 0.222754746675491, 0.312699288129807, 0.130277633666992, 0.081035949289799, -0.102833032608032, -0.049859866499901, 0.140456408262253, -0.161282598972321, -0.375832647085190, 0.162752926349640, -0.093176804482937, -0.331090450286865, -0.138316720724106, 0.245265439152718, 0.347448855638504, 0.065672315657139, -0.023062340915203, -0.039529643952847, -0.038258910179138, 0.066808946430683, 0.575616061687469, 0.061776824295521, 0.085579514503479, 0.141334861516953, 0.138781875371933, -0.466067612171173, 0.088956162333488, -0.068633355200291, -0.031633384525776, -0.003744886489585, 0.053006842732430, 0.191196724772453, -0.263959735631943, -0.109478279948235, 0.127030119299889, -0.197585582733154, 0.324595034122467, -0.013860784471035, -0.003351741470397, -0.034135021269321, -0.390563517808914, -0.166014522314072, 0.355597227811813, 0.261141151189804, -0.072305239737034, 0.053694851696491, 0.078652426600456, 0.024026557803154, 0.002670352812856, -0.065778791904449, 0.106410577893257, 0.121462143957615, 0.042130611836910, 0.568940818309784, 0.261271804571152, -0.159330442547798, -0.109948992729187, 0.126896023750305, 0.079868368804455, 1.114511132240295, -0.508991360664368, 0.009723206982017, -0.542335629463196, -0.251569926738739, 0.334757506847382, -0.153915539383888, -0.481462687253952, -0.050576675683260, 0.517764866352081};
#endif

#endif
