//Numpy array shape [192]
//Min -2.625943422318
//Max 0.972759902477
//Number of zeros 0

#ifndef BIAS47_H_
#define BIAS47_H_

#ifndef __SYNTHESIS__
layers_5_norm1_bias_t bias47[192];
#else
layers_5_norm1_bias_t bias47[192] = {-0.075974583625793, -0.057833608239889, 0.101377874612808, -0.144808307290077, 0.140075519680977, -0.208086639642715, 0.001957360189408, 0.084174372255802, 0.299429148435593, -0.098109275102615, 0.159211248159409, -0.170090422034264, -0.077140815556049, -0.068441711366177, 0.218890473246574, 0.102512352168560, 0.029059343039989, 0.127312749624252, -0.142003327608109, 0.095159374177456, 0.148240670561790, -2.625943422317505, -0.123647019267082, 0.020995141938329, 0.027693463489413, 0.045312043279409, -0.250207841396332, 0.098443202674389, -0.205897912383080, -0.126415163278580, -0.274804770946503, 0.300981640815735, 0.130626544356346, -0.057326160371304, -0.197924181818962, -0.053824584931135, 0.133222013711929, -0.121759273111820, 0.011671791784465, -0.106444239616394, 0.002601702231914, 0.307856500148773, -0.007515527773649, 0.239577606320381, -0.107678383588791, -0.154342234134674, -0.050630513578653, 0.181071892380714, 0.032106984406710, 0.055977836251259, -0.212334185838699, 0.084444403648376, -0.380086511373520, -0.025147370994091, -0.629128336906433, 0.115671478211880, -0.193359598517418, 0.118363320827484, -0.049513272941113, -0.160377949476242, 0.208727166056633, 0.240882933139801, -0.020992688834667, -0.083821326494217, -0.128549963235855, 0.638077676296234, 0.571082770824432, -0.181573942303658, -0.132265105843544, -0.392112016677856, 0.302830725908279, -0.073800571262836, -0.148496255278587, 0.068360552191734, -0.075188592076302, -0.144889175891876, 0.287106335163116, -0.120568521320820, -0.196875020861626, 0.071186818182468, 0.008355814032257, 0.972759902477264, -0.244849890470505, 0.213392958045006, -0.085892580449581, 0.119584716856480, 0.250731378793716, 0.120054990053177, -0.259258121252060, -0.786432325839996, 0.135290428996086, 0.058505572378635, 0.357796400785446, 0.126608371734619, -0.169019386172295, 0.069608978927135, -0.194047003984451, -0.282058477401733, -0.018808305263519, 0.071497313678265, -0.169769883155823, 0.188140332698822, 0.152829825878143, -0.094149023294449, -0.012040849775076, 0.037507325410843, -0.138221502304077, -0.163019239902496, 0.142837688326836, -0.142857968807220, 0.051320612430573, 0.163288950920105, 0.095314241945744, -0.073601946234703, 0.094564117491245, 0.853959500789642, -0.253408849239349, 0.143797501921654, 0.154495522379875, 0.309404075145721, 0.255443215370178, -0.060934212058783, -0.025906862691045, 0.227958947420120, 0.175489172339439, -0.257820874452591, -0.056213915348053, -0.159226924180984, -0.021720735356212, 0.143882378935814, 0.157214954495430, -0.567451536655426, 0.307252258062363, 0.267848938703537, 0.127119123935699, -0.003523206338286, -0.213410779833794, -0.128645896911621, -0.034883238375187, 0.114134900271893, -0.019935427233577, -0.108539618551731, -0.283328473567963, -0.197496995329857, 0.420399904251099, 0.186459302902222, 0.300901710987091, 0.001383931026794, 0.177874594926834, 0.065919794142246, 0.141226887702942, -0.332881659269333, -0.076561495661736, 0.116187810897827, -0.127427816390991, 0.052955515682697, 0.076654933393002, 0.499353528022766, -0.055944073945284, 0.137740969657898, -0.149094253778458, 0.008248823694885, -0.216642096638680, -0.109558820724487, 0.632335186004639, 0.014100858941674, -0.154519498348236, -0.240092039108276, 0.112631306052208, 0.078046321868896, -0.183958113193512, -0.118287146091461, 0.182983219623566, -0.086237795650959, -0.128514260053635, 0.015095840208232, 0.126923277974129, -0.044209223240614, -0.174681574106216, -0.272787541151047, -0.143115922808647, -0.012257101014256, 0.386081963777542, 0.403389155864716, -0.154419288039207, 0.144770219922066, 0.053681731224060, -0.171396329998970, 0.418379306793213, 0.183046236634254, -0.344802558422089, 0.340755164623260};
#endif

#endif
