-0.2367007881402969, -0.0287536345422268, -0.3248757123947144, -0.1288022845983505, -0.4090532362461090, 0.0566584207117558, 0.1566894203424454, -0.4729750454425812, -0.1221573501825333, 0.0184300206601620, -0.5848742723464966, 0.0053710700012743, 0.1639371663331985, 0.1032876670360565, -0.3026565313339233, -0.1343321949243546, -0.9579610824584961, 0.1964693665504456, -0.2314726412296295, -0.2134774327278137, -0.1917363703250885, -1.4608857631683350, -0.0090488363057375, -0.1283552646636963, 0.0105726458132267, -0.1974980384111404, -0.2318924069404602, -0.0416438505053520, -0.4011313617229462, 0.1723883897066116, -0.1071542426943779, 0.0410471856594086, -0.3502641022205353, -0.1170680001378059, -0.4435909390449524, -0.0420621968805790, -0.4194053411483765, -0.1488219648599625, 0.1444817483425140, -0.4241707324981689, -0.1958686709403992, 0.2898546457290649, -0.0684002265334129, -0.1681832671165466, -0.0739998295903206, -0.3105518221855164, -0.0315669812262058, -0.5172384977340698, -0.0418869480490685, -0.1279476583003998, -0.5281279087066650, -0.1060966923832893, -0.3385953009128571, -0.1104350760579109, -0.1679620295763016, -0.0364832915365696, -0.5408992171287537, -0.0699028819799423, -0.1277243345975876, -0.3201848566532135, 0.1032981723546982, -0.1187309548258781, 0.0326259098947048, -0.1448822617530823, 0.0385047234594822, 0.1976372450590134, 0.2584293186664581, -0.4840117990970612, -0.5201129317283630, -0.2995199859142303, -0.5155074000358582, -0.0903593152761459, -0.0602968037128448, 0.3260017633438110, -0.5205399990081787, -0.0683170035481453, -0.1290905624628067, -0.0203435216099024, -0.2287464886903763, -0.3419365882873535, -0.0341004058718681, 0.0702046826481819, -0.2409888505935669, 0.0375402718782425, -0.0300896391272545, 0.1996149718761444, -0.0604787878692150, -0.0094862440600991, -0.1699397712945938, -0.7247630357742310, -0.0087389331310987, 0.0544437654316425, -0.3234375715255737, 0.0929204002022743, 0.0752016827464104, -0.1702646464109421, -0.4291841387748718, -0.7950576543807983, -0.6469254493713379, -0.1754171252250671, -0.4453158676624298, -0.3401669263839722, -0.1710252165794373, 0.1093632057309151, -0.4403579533100128, 0.1733997613191605, -0.1952685862779617, -0.1474459320306778, 0.2884468436241150, -0.4977138638496399, -0.2854993045330048, -0.0382964909076691, -0.3228994905948639, 0.1355044394731522, -0.5478162169456482, 0.0956069976091385, 0.1627555638551712, -0.0469993054866791, -0.3327068686485291, -0.3909763991832733, -0.0377562828361988, -0.1758288443088531, -0.3288406431674957, -0.0793139263987541, 0.0726576149463654, -0.0065212445333600, -0.1383984535932541, -0.4824884235858917, -0.7268555760383606, -0.0517966635525227, 0.0895094498991966, -0.1517930030822754, 0.0382096134126186, -0.1191162914037704, -0.2381770461797714, 0.4244268238544464, -0.5880123972892761, -0.6468170881271362, -0.4513204097747803, -0.0209492295980453, -0.4414724111557007, 0.2535479366779327, -0.2495273500680923, -0.1358050107955933, -0.2895589172840118, -0.2735641002655029, 0.1168715730309486, -0.2444152384996414, -0.1421635150909424, -0.4434207677841187, -0.1537983268499374, -0.3327604532241821, 0.0072095077484846, -0.1384611725807190, 0.1234973669052124, -0.1345437467098236, -0.1547500789165497, 0.1373115479946136, -0.4802010059356689, 0.0996362119913101, -0.8113760948181152, -0.1340003460645676, -0.5036626458168030, -0.1265679001808167, -0.3397954106330872, -0.1318627893924713, 0.2358743250370026, -0.3330666124820709, -0.1261588633060455, -0.3258056342601776, -0.0367046743631363, -0.2935887277126312, 0.0539827048778534, 0.1907209455966949, -0.0540993958711624, -0.1180217862129211, -0.0585189945995808, -0.0695678144693375, -0.0823058709502220, -0.0989501997828484, -0.2485011368989944, -0.0241617877036333, -0.0799722224473953, 0.2115436792373657, -0.3012685179710388, -0.6445407867431641, 0.0655455738306046, -0.1876069754362106, 0.1578755229711533, -0.2040035873651505, -0.4689851403236389, -0.2070089429616928