0.1955577731132507, 0.2666303515434265, 0.1731447726488113, 0.0920490622520447, 0.1402863264083862, 0.2620297372341156, 0.0285254456102848, -0.0953632667660713, 0.2840583324432373, -0.2184821963310242, -0.3368835747241974, 0.0659781545400620, 0.3343789875507355, 0.0053903716616333, -0.1633006483316422, -0.0679217353463173, -0.9055242538452148, 0.5150513052940369, -0.1985342055559158, -0.0084379669278860, -0.1382366120815277, -1.6088622808456421, 0.0043941074982285, -0.2758005261421204, 0.2163209021091461, -0.1402263194322586, 0.0623474642634392, 0.1822759956121445, -0.1819036751985550, 0.2939523160457611, 0.1951216459274292, -0.1368863582611084, 0.4221918880939484, 0.0034364566672593, 0.0606651492416859, -0.2407933026552200, -0.3291118741035461, 0.2567273080348969, -0.2650384902954102, -0.1075969710946083, -0.1161731779575348, 0.2086788117885590, 0.4014185070991516, 0.0833889469504356, -0.2306717485189438, -0.0848371610045433, 0.2159746736288071, -0.2881111204624176, 0.0679511725902557, 0.0554356984794140, -0.2143750637769699, 0.0518810525536537, -0.0560653395950794, -0.0333781279623508, -0.4328552186489105, -0.2999042272567749, 0.0767988711595535, -0.0788429677486420, 0.1014383062720299, -0.3413906395435333, 0.3925598263740540, 0.0655502676963806, 0.1385549902915955, -0.1029461771249771, -0.0788148716092110, 0.1879556179046631, 0.7766503095626831, -0.3770489096641541, -0.1807817071676254, -0.2245498150587082, -0.2304478436708450, 0.0724627897143364, 0.1639031022787094, 0.3449906706809998, 0.0943979322910309, 0.0170425325632095, 0.1482838690280914, -0.1680158078670502, 0.0024839674588293, -0.0171812828630209, -0.0462066233158112, 1.1915849447250366, 0.1762125045061111, 0.1952472329139709, 0.0117423199117184, 0.0820657014846802, 0.2682099342346191, 0.1314292550086975, 0.1057515591382980, -1.2212547063827515, 0.4718780815601349, 0.0356341935694218, 0.0616381578147411, 0.1911723911762238, -0.1628179848194122, 0.1988187134265900, -0.0689051300287247, -0.5241996049880981, -0.3570573925971985, -0.2282236665487289, -0.3784709572792053, 0.0597995370626450, -0.0789762139320374, 0.4594687819480896, 0.0716597139835358, -0.0314386188983917, -0.1921092420816422, -0.1069033667445183, 0.3839986622333527, -0.2604111731052399, 0.1026802584528923, 0.2442926466464996, 0.0744363442063332, 0.3029361367225647, -0.4060965478420258, 1.0982187986373901, 0.2306749224662781, -0.1068492531776428, -0.1734488010406494, -0.1911704093217850, -0.1458275318145752, -0.5563407540321350, 0.0012126273941249, -0.0310731958597898, 0.0870564430952072, 0.2546292245388031, 0.0446251742541790, 0.2372029423713684, -0.1309569031000137, 0.5151264667510986, -0.3599777519702911, -0.0997491031885147, 0.0397557280957699, -0.1230278611183167, -0.0916013345122337, -0.1496068835258484, -0.1561858654022217, -0.2470930814743042, -0.0855979025363922, 0.0340284444391727, 0.0867912843823433, 0.2091639488935471, -0.8212391138076782, -0.0253674369305372, 0.1578767746686935, 0.1232226565480232, 0.9667065739631653, -0.0474950894713402, 0.3871151804924011, -0.1378275901079178, -0.0797727778553963, -0.4873193800449371, -0.1519740819931030, 0.1830797046422958, 0.0618528202176094, -0.3013046979904175, 0.1570472419261932, 0.0900289118289948, -0.5370215177536011, 0.3289483189582825, -0.1875765621662140, -0.1085398644208908, -0.1022706925868988, 0.1209114193916321, 0.0480965375900269, -0.0142215453088284, -0.1945119500160217, 0.1216001585125923, 0.1256870925426483, -0.0197179932147264, 0.6576054096221924, -0.2346250116825104, 0.0605875626206398, 0.2388779819011688, 0.1651718616485596, -0.0537426099181175, 0.1943583488464355, -0.3980888724327087, 0.1970481574535370, -0.2098915427923203, 0.1052806600928307, 0.0177996885031462, 0.2860671579837799, -0.0832682698965073, -0.0689917728304863, -0.1841967552900314, 0.3557486832141876, -0.1520620435476303, 1.3369289636611938, 0.0580804161727428, -0.6231003999710083, -0.0057053845375776