//Numpy array shape [192]
//Min -1.986964821815
//Max 1.316205024719
//Number of zeros 0

#ifndef BIAS71_H_
#define BIAS71_H_

#ifndef __SYNTHESIS__
layers_9_norm1_bias_t bias71[192];
#else
layers_9_norm1_bias_t bias71[192] = {0.0984347388148308, 0.1108249947428703, 0.3139626383781433, -0.0009211431024596, 0.0846674293279648, 0.4455193281173706, -0.0318264737725258, -0.2594109773635864, 0.2765343189239502, -0.1532075852155685, -0.2759951353073120, 0.0881410837173462, 0.2050931006669998, -0.0152217736467719, 0.0434656031429768, 0.1099061667919159, -0.7873876094818115, 0.4352951347827911, -0.0077887880615890, 0.1210953071713448, -0.1830873638391495, -1.9869648218154907, -0.0486970804631710, -0.2168485671281815, 0.0008747326210141, -0.1381531059741974, 0.2459096461534500, 0.3013805150985718, -0.2520404458045959, 0.2119131982326508, 0.1091210916638374, 0.0659164711833000, 0.3679216802120209, 0.0950004458427429, -0.0624684020876884, 0.1178215071558952, -0.1191567555069923, 0.1890158653259277, 0.0300785414874554, -0.1377715468406677, -0.0443067885935307, -0.0432315580546856, 0.4965630769729614, 0.1044095754623413, -0.2457745224237442, -0.0606351345777512, 0.0140741802752018, 0.0405294671654701, -0.0751274004578590, 0.0253050290048122, -0.1445513814687729, 0.0039814300835133, -0.1579574942588806, -0.0405762456357479, -0.7428222298622131, -0.2583209276199341, 0.0689945593476295, -0.0884310305118561, 0.1347719877958298, -0.2395336329936981, 0.2641591429710388, 0.1057856231927872, 0.2627206146717072, -0.1495333462953568, 0.0464019998908043, 0.2693711519241333, 0.8074977397918701, -0.4057141244411469, -0.0416760146617889, -0.2382851392030716, -0.0929681807756424, 0.1141400337219238, 0.0236177574843168, 0.2925297915935516, -0.0273235887289047, -0.1350322514772415, 0.2067559063434601, -0.0776964426040649, 0.0190038811415434, 0.0736965686082840, 0.1422546505928040, 1.3162050247192383, -0.1493090540170670, 0.1612012535333633, 0.0835687741637230, 0.1120555847883224, 0.1713298112154007, 0.0695658251643181, 0.1469787806272507, -1.3350450992584229, 0.5856667757034302, -0.0266816262155771, 0.1835620254278183, 0.0589791685342789, -0.2060532569885254, 0.2122019082307816, -0.1610454618930817, -0.6604942083358765, -0.2158412933349609, -0.1212356165051460, -0.3554867208003998, 0.0345894582569599, -0.2356521934270859, 0.5145339965820312, 0.0970714390277863, 0.0996942147612572, -0.1782006025314331, -0.0479005426168442, 0.3144036829471588, -0.1964967548847198, 0.1938756853342056, 0.2084228843450546, 0.0807508975267410, 0.2321143448352814, -0.3170177042484283, 1.2719650268554688, 0.0494056940078735, -0.1220656558871269, -0.1819730401039124, -0.1565287411212921, 0.0297971256077290, -0.3484017550945282, 0.0870353505015373, 0.0889104157686234, -0.1277471631765366, 0.3696293532848358, -0.0177382584661245, 0.0300333015620708, -0.1899746805429459, 0.3005887567996979, -0.2481579184532166, -0.3272137939929962, 0.2122034132480621, -0.0277693364769220, 0.0043784771114588, 0.1133218258619308, -0.1060828119516373, -0.4396167397499084, 0.1634881049394608, -0.0632585436105728, -0.0393032692372799, 0.0959067568182945, -0.6514740586280823, 0.0268642790615559, 0.2109605222940445, 0.0907309204339981, 0.9178489446640015, -0.1545375287532806, 0.3719663619995117, 0.0314621962606907, -0.2035795599222183, -0.3654546439647675, -0.3253616988658905, -0.0904811993241310, 0.1632995158433914, -0.1780078560113907, -0.0054484624415636, -0.0076990132220089, -0.4139148890972137, 0.3592061996459961, -0.1535226404666901, 0.1097011044621468, -0.2451932579278946, 0.0073699429631233, 0.3853177428245544, -0.1705360710620880, 0.1098624691367149, 0.1295536607503891, 0.2310795336961746, -0.0674082860350609, 0.3585011661052704, -0.3451950252056122, 0.0458636097609997, 0.2233242839574814, 0.0391469895839691, -0.0492459498345852, 0.1337426155805588, -0.1843080073595047, 0.2752691805362701, -0.3801847696304321, 0.1787462830543518, 0.0649337694048882, 0.3228168785572052, 0.1069139614701271, -0.0649325624108315, -0.1502863615751266, 0.4453803300857544, -0.1151428297162056, 1.0448254346847534, 0.2921570539474487, -0.3695738613605499, 0.2483786940574646};
#endif

#endif
