0.0534658543765545, -0.8915278315544128, -0.6656962037086487, -0.8261758685112000, -0.4751158952713013, -0.7547639012336731, -0.5607115030288696, -0.5365173816680908, -1.0512450933456421, 0.0619632266461849, 0.0630658566951752, 0.0437949411571026, -0.8309118151664734, -0.8730326294898987, -0.8197165727615356, -0.7879233360290527, -0.6676792502403259, -0.6273666024208069, 0.0633111074566841, 0.0380319729447365, -0.6605392098426819, -0.6516616940498352, 0.0118529265746474, -0.7197834253311157, -0.5794249176979065, -0.6495490074157715, 0.0318371281027794, -0.8070895671844482, -0.6700256466865540, -0.4905668199062347, -0.8714644908905029, -0.7893595695495605, -0.8081609606742859, -0.6291335821151733, 0.0449664294719696, -0.6932811141014099, -0.6350182890892029, -0.7096125483512878, -1.0187492370605469, -0.6444509625434875, -0.8195878267288208, -0.6286212205886841, -0.7723274827003479, -0.7359801530838013, 0.0887544155120850, -0.6007924675941467, 0.0489056296646595, -0.8366997838020325, 0.0165942534804344, -0.7547627091407776, 0.0220896285027266, -0.7115374207496643, -0.7411272525787354, -0.8026219606399536, -1.0310262441635132, 0.0570069588720798, -0.5966218113899231, -0.3887528479099274, -0.4822422564029694, -0.6579450964927673, -0.5763755440711975, -0.6635570526123047, 0.0550669766962528, -0.7359060049057007, -0.5802536010742188, -0.9612334966659546, -0.7729502320289612, -0.8077527284622192, 0.0364017784595490, 0.0833727940917015, -0.6824017167091370, -0.7572444677352905, 0.0478575080633163, -0.8461363315582275, 0.0809929892420769, -0.6218878626823425, 0.0509272813796997, -0.8367486596107483, -0.8711673021316528, 0.0670819655060768, -0.9459186792373657, -0.6656237840652466, -0.5420770645141602, -0.7119000554084778, -0.5064606666564941, -0.6927188038825989, -1.2397637367248535, -0.8104639053344727, -0.7338114380836487, -0.9182149767875671, -0.8705394268035889, 0.0405696742236614, -0.9856376647949219, 0.0621528513729572, -0.6237229108810425, -0.3794744908809662, -0.5086572766304016, -0.5837028622627258, -0.6967308521270752, -0.8081841468811035, -0.7333889603614807, -0.8862154483795166, -0.5617385506629944, -0.8654673099517822, -0.7039344310760498, 0.0392818376421928, -0.8066654801368713, -0.7031037211418152, -0.4324994981288910, 0.0788208246231079, -0.6305502057075500, -0.7130128741264343, -0.2741831839084625, -0.9236350059509277, -0.8586680293083191, -0.7319092750549316, 0.0313289240002632, -0.7532064318656921, 0.0630519464612007, -0.8219973444938660, 0.0884482488036156, -0.5436251163482666, -0.7294825315475464, -0.6199284195899963, 0.0403469391167164, 0.0332000069320202, 0.0717910826206207, 0.0662664920091629, -0.7378646135330200, -0.5538221597671509, -0.5682293772697449, -0.9577049612998962, -0.8147187829017639, -0.6944566369056702, -0.5841066241264343, -0.6101306676864624, 0.0295841991901398, 0.0292832497507334, 0.0325022488832474, -0.5376345515251160, -1.3257734775543213, -0.5552594065666199, -0.6930374503135681, -0.8750343918800354, -0.5655965209007263, -0.9212670922279358, -0.5306612849235535, -0.6859498620033264, -0.8727172613143921, 0.0404275059700012, -0.9167203307151794, 0.0547074973583221, -0.5946887731552124, -0.9265954494476318, -0.8052041530609131, -1.0641887187957764, -0.5066462755203247, -0.3828590512275696, 0.0929976776242256, -0.8466991782188416, 0.0546451508998871, -0.7093302607536316, -0.7053069472312927, -0.8803293704986572, 0.0700859874486923, 0.2168364077806473, 0.0575565472245216, -0.7530102729797363, -0.8201030492782593, -0.5923297405242920, 0.0998288691043854, -0.8183095455169678, 0.0644397065043449, -0.5618973374366760, 0.0623403191566467, -0.7571687102317810, -0.8137631416320801, -0.6899473667144775, -0.7657701969146729, -0.6699972152709961, -1.0302975177764893, -0.7032834887504578, -0.5725999474525452, 0.0210288837552071, 0.0265727974474430, 0.0533118136227131, -0.6340463161468506, 0.0470857545733452, -0.2553996443748474, -0.6437459588050842, -0.7400801777839661, 0.0571809187531471, -0.8087936043739319, -0.6915015578269958, -0.8114808797836304, -0.8284078240394592, -0.7341769933700562, -0.6268520355224609, -0.8909476399421692, -0.7634440064430237, -0.8779331445693970, -0.8702752590179443, 0.0788872838020325, 0.0925958156585693, -0.8545100092887878, -0.9160970449447632, 0.0635151490569115, -0.8779330849647522, -0.9022878408432007, -0.6630347967147827, -1.0462777614593506, 0.0070487745106220, -0.8335165381431580, -0.7930207848548889, 0.0735393539071083, -0.6324899792671204, -0.0043308287858963, -0.6637992262840271, -0.9734616875648499, -0.7536451816558838, -0.4023915231227875, -0.7263340950012207, 0.0476170293986797, -0.7022558450698853, -0.4732498526573181, -0.6388077735900879, -0.5318723320960999, 0.0415139906108379, -0.6717954874038696, -0.8005635142326355, 0.0728901475667953, -0.7016982436180115, -0.7346848845481873, -0.7140553593635559, 0.0591634362936020, -0.6933968663215637, 0.0701412707567215, 0.0631793215870857, -0.7133781909942627, 0.0549845993518829, -0.6139994859695435, -1.0588289499282837, -0.7814112305641174, 0.0625780746340752, -1.1083862781524658, -0.4619451463222504, 0.0432291775941849, -0.4840919971466064, -0.8573406934738159, -0.9626517891883850, -0.7795400619506836, 0.0882379859685898, 0.0053870049305260, -0.8982692956924438, 0.0279009621590376, -0.9009673595428467, 0.0771095156669617, -0.7664808630943298, -0.6490098834037781, 0.0524166412651539, -0.8974848985671997, -0.8503413796424866, -0.8209157586097717, -0.5717023015022278, -0.7161702513694763, -0.6703795194625854, 0.0312194414436817, -1.0268502235412598, -0.6614311337471008, -0.8024408221244812, -0.6316932439804077, -0.7237193584442139, -0.5465893745422363, -0.6754773855209351, 0.0369086489081383, -0.8896245956420898, -0.0032414714805782, -0.8466698527336121, -0.5364045500755310, 0.0665074959397316, 0.0655790641903877, -0.7196780443191528, -0.8208420872688293, -0.7553231716156006, -0.9738096594810486, -0.7629956603050232, -1.0162377357482910, -0.5967407226562500, 0.0502273477613926, -0.7469228506088257, -0.6530185341835022, -0.9100911617279053, 0.0103780431672931, -0.6988999843597412, -0.9916968345642090, -0.8767439126968384, 0.0648577660322189, -0.3055040240287781, -0.9476178884506226, -0.4790634810924530, -0.5952950119972229, 0.0584712177515030, -0.9029381275177002, -0.6738724708557129, -0.7194573283195496, -1.0389530658721924, -0.6244460940361023, -0.7865090370178223, -0.7208327054977417, 0.0363294631242752, 0.0515585318207741, -0.7591265439987183, -0.7296635508537292, -0.3181900978088379, -0.6655181646347046, 0.0303664952516556, -0.8394390344619751, 0.0741512030363083, -0.8468543887138367, 0.0411961339414120, 0.0471532791852951, -0.6065335869789124, -0.9903562068939209, -0.9582912325859070, -0.5321269631385803, -0.7910470962524414, -0.9811928272247314, -0.8145239949226379, -0.8386582732200623, -0.5435941219329834, 0.0344150178134441, -0.6007776856422424, -0.9430731534957886, 0.0787178203463554, -0.6406556367874146, -0.9794291853904724, -0.8976401686668396, -0.5487496256828308, 0.0074576917104423, -0.5443714261054993, -0.7854587435722351, -0.4811494946479797, 0.0300072524696589, 0.0863680690526962, -0.7888094186782837, -0.9179945588111877, -0.7223019599914551, 0.0577180646359921, 0.0269052032381296, -0.7849283814430237, 0.0449139997363091, 0.0618193112313747, -0.7923373579978943, -0.6979532241821289, -0.9307836890220642, -0.6355390548706055, -0.4921932220458984, 0.0418867804110050, -0.9285156726837158, -0.8015978336334229, -0.6016382575035095, -0.5486919879913330, -0.6493074297904968, -0.7658097743988037, -0.5985885262489319, -0.5768769979476929, -0.6450738906860352, -0.5438199043273926, -0.7166856527328491, -0.7208344936370850, -0.5010973215103149, 0.0522296801209450, -0.6235850453376770, -0.5432064533233643, -0.8830972313880920, 0.0550063066184521, -0.7128415703773499, -0.6570849418640137, -0.4847108721733093, -0.7846706509590149, -0.7264420986175537, -0.5723596215248108, -0.6629418730735779, -0.4671640694141388, 0.0524982176721096, -0.8715229034423828, -0.7854375243186951, 0.0338326580822468, -0.8542793989181519, -0.4492701590061188, 0.0614161305129528, -0.7987937927246094, -0.5364661812782288, 0.0510495975613594, -0.7212337851524353, -0.9697975516319275, 0.0351008772850037, 0.0630290284752846, 0.0596438497304916, 0.0661461353302002, -0.6021651625633240, -0.5325896739959717, -0.5208345651626587, -0.5281282663345337, -0.8783115148544312, -0.9640216231346130, -0.9172462224960327, -0.6281449198722839, -0.7888715267181396, 0.0322382859885693, -0.5374511480331421, -0.9819256663322449, 0.0673645362257957, -0.5578671097755432, -0.2370630204677582, 0.0771530196070671, -0.7956433296203613, -0.7328789830207825, -0.7920135259628296, -0.5947313308715820, -0.7515432834625244, 0.0597799122333527, 0.0084475316107273, 0.0599730163812637, -0.7504823207855225, 0.0273994430899620, -0.8360139131546021, 0.0480388998985291, -0.9495671391487122, -0.4942188262939453, -0.7322824001312256, 0.0594320856034756, -0.6288631558418274, -0.4788702726364136, -0.5675761103630066, -0.5451743602752686, 0.0549305900931358, 0.0619010888040066, -0.7459647655487061, -1.0141453742980957, -0.7310754060745239, -0.7127721905708313, 0.0725333839654922, 0.0103710591793060, -0.3262619376182556, -0.4223791062831879, 0.0768565833568573, -0.7759397029876709, 0.0585502348840237, -0.5480342507362366, 0.0500196702778339, -1.0734941959381104, -0.7057110667228699, -0.7132753729820251, -0.7182766199111938, 0.0141664510592818, -1.0287824869155884, 0.0085914740338922, -0.6287821531295776, -0.8004013299942017, -1.0874687433242798, -0.4778221845626831, 0.0825712829828262, -0.6815158724784851, -1.1023873090744019, 0.0525412932038307, -0.7810857295989990, -0.6541116833686829, -0.7559453248977661, -0.9649850726127625, -0.5328902602195740, -0.8326097130775452, -0.6076532006263733, -0.8326180577278137, -0.3532773256301880, -0.9222032427787781, 0.0099185341969132, 0.0510404296219349, 0.0234325528144836, -0.6831718087196350, -0.8057701587677002, 0.0123596191406250, 0.0546040385961533, -0.6133138537406921, -0.9818598031997681, -0.3841947615146637, 0.0741266161203384, 0.0358600057661533, -1.1219061613082886, -0.7181213498115540, -0.8703590035438538, -0.7371217012405396, -0.5602678060531616, -0.8055310845375061, 0.4745357632637024, 0.0514532960951328, -0.8810180425643921, 0.0856623500585556, -0.8089596629142761, -0.6956014037132263, -0.7813484072685242, -1.0432944297790527, 0.0269958898425102, 0.0565739609301090, -0.3625843822956085, -0.4728394746780396, -0.7773171067237854, 0.0758729428052902, -0.4164438545703888, -0.3711406588554382, -0.9170489311218262, -1.1159635782241821, -0.7037947773933411, 0.0558101013302803, 0.0348746702075005, -0.5453208684921265, -1.0898381471633911, -0.4912095367908478, -0.6849626898765564, -0.6644043326377869, -0.7885888218879700, 0.0488000661134720, 0.0262725800275803, 0.0447240769863129, 0.0486780814826488, -0.7715779542922974, 0.0730854049324989, -0.4843631684780121, 0.0264904052019119, -0.5250332355499268, -0.8053699135780334, -0.8220422267913818, -1.0561611652374268, -0.7608270049095154, -0.8168285489082336, 0.0622556209564209, 0.0644966438412666, -0.6435381770133972, -0.8289277553558350, -0.7199555039405823, 0.0349809303879738, 0.0519391521811485, -0.5084080696105957, -0.9894405603408813, -0.5964246392250061, -0.8641856312751770, -0.4456016123294830, -0.6844615936279297, 0.0690881833434105, -0.9807639718055725, -0.5531972646713257, -0.6365835666656494, 0.0274531524628401, -0.6339868903160095, 0.0701772347092628, 0.0410758107900620, -0.4479053616523743, -0.4625796973705292, -0.5943706631660461, -0.5605958104133606, -0.8482301831245422, 0.0187536682933569, -0.9588302969932556, -1.0283938646316528, -0.5431855320930481, -0.8321664929389954, -0.5495336055755615, 0.0426219999790192, -0.6747694015502930, 0.0260379780083895, 0.0349047556519508, -0.8853203058242798, -0.8170075416564941, -0.5963079333305359, -0.4002517759799957, -0.9204875230789185, 0.0249335598200560, -0.3822051584720612, 0.0545065067708492, -0.7892788648605347, 0.0573354102671146, 0.0259517636150122, -0.9646489024162292, -0.6417450904846191, 0.0404951199889183, -0.7715681791305542, -0.6292971968650818, -0.8158061504364014, 0.0443479232490063, -0.7014195322990417, -0.6842703819274902, -0.8760662078857422, -0.8388143777847290, 0.0593205094337463, -0.8010067343711853, -0.7635365724563599, 0.0721283480525017, -0.7993936538696289, -0.7119322419166565, -0.5627518892288208, -0.8505392670631409, 0.0468093827366829, -0.8809270858764648, -0.9515056610107422, -0.8689020276069641, -0.5463904738426208, 0.0671349093317986, -0.7358354330062866, -0.4744773507118225, 0.0040874057449400, 0.0605427883565426, -0.5970741510391235, -0.8232468962669373, -0.5113252401351929, -0.7266626358032227, 0.0399321727454662, 0.0900954976677895, -0.7778999209403992, -0.5593423247337341, 0.0948952883481979, -0.7350954413414001, -0.8819831013679504, -0.8013818860054016, -0.7556350231170654, -0.6729233264923096, -0.5342596769332886, 0.2974505126476288, -0.7971972227096558, 0.0594671778380871, -0.2790804505348206, -0.7460653185844421, 0.0497521124780178, -1.0883545875549316, -0.7601062655448914, -0.6842485666275024, -0.9296076297760010, -0.8204285502433777, -0.8049240708351135, 0.0681106373667717, -0.3889435529708862, 0.3464562296867371, 0.0638126879930496, -0.5482012033462524, 0.0205344408750534, -0.6099349856376648, -0.6041855812072754, -0.4885029792785645, -0.6285921335220337, -0.9452332258224487, -1.0916992425918579, 0.0595913492143154, -0.6671500802040100, -0.5750607848167419, -0.5794934630393982, -0.7447165250778198, -0.6473150849342346, -0.2720806300640106, 0.0596997290849686, -0.9217391014099121, -0.5889976620674133, -0.6280296444892883, -0.5269410610198975, -0.5739245414733887, -0.6747512817382812, -0.7820799946784973, -0.6497181653976440, 0.0628250241279602, -0.3693047165870667, 0.0191464088857174, -0.6916121840476990, -0.4912027716636658, -0.7230881452560425, -0.6466985344886780, -1.0267479419708252, -0.7539283037185669, -0.8390902280807495, -0.6081382632255554, -0.9450460672378540, -0.8624300360679626, 0.0457424111664295, -0.6636667251586914, -0.7071254849433899, -0.4650776982307434, -0.5162150263786316, -0.7254917025566101, -0.6234954595565796, 0.0235110130161047, 0.0842585861682892, 0.0458854064345360, 0.0532470382750034, -0.6174572110176086, -0.7270142436027527, -0.5194233655929565, -0.8203897476196289, -0.7188462615013123, -0.8952658772468567, -0.7782145142555237, -0.3849182128906250, 0.0477365478873253, -0.6100231409072876, -0.4011596441268921, -0.7929517626762390, -0.6437132954597473, 0.0598439574241638, -0.7445232868194580, -0.9770138263702393, -0.9314752817153931, -0.7960942983627319, -0.5894321799278259, -0.4270631670951843, -0.7404563426971436, -0.5583853721618652, -0.8803178071975708, -0.8322879076004028, -0.6747701168060303, -0.8525852560997009, 0.0710293203592300, 0.0581665039062500, -0.8378745913505554, -0.8685618042945862, 0.0602923631668091, -0.6512597203254700, -0.5715788006782532, -0.8929672241210938, -0.5711397528648376, -0.6305108666419983, -0.7670749425888062, -0.5376984477043152, -0.7827407717704773, -0.6089292168617249, -0.6134009957313538, 0.0505040735006332, -0.6799357533454895, -0.8370729088783264, 0.0704960972070694, -0.4924945831298828, -0.7944566607475281, -0.6265966892242432, -0.8043269515037537, -0.6251579523086548, -0.6533977985382080, -0.7642177939414978, -0.7154979109764099, -0.4904584586620331, -0.6981570124626160, 0.0609830617904663, -0.8383914828300476, -0.6848484277725220, -0.7523106336593628, -0.4676214158535004, 0.0185796841979027, -0.8799735307693481, -0.8693766593933105, -0.8197438120841980, -0.6626644134521484, -0.7728187441825867, -0.7851486206054688, -0.6872568130493164, -0.6318579912185669, -0.4708592593669891, -0.6276295185089111, -0.8791482448577881, -0.7233657836914062, -0.5564306974411011, -0.8215126395225525, 0.0646664202213287, 0.0377655439078808, -0.8305262923240662