//Numpy array shape (576,)
//Min -2.540494441986
//Max 2.189246416092
//Number of zeros 0

#ifndef IN_PROJ_BIAS42_H_
#define IN_PROJ_BIAS42_H_

#ifndef __SYNTHESIS__
layers_4_self_attn_in_proj_bias_t in_proj_bias42[576];
#else
layers_4_self_attn_in_proj_bias_t in_proj_bias42[576] = {-0.098999492824078, 0.340761572122574, 0.094484418630600, -0.133487433195114, -0.477029651403427, -0.403352528810501, -0.065970614552498, -0.048278596252203, -0.030915016308427, -0.029450045898557, -0.907840073108673, 0.058098878711462, 0.029189581051469, -0.212904438376427, 0.276093095541000, 0.015605783089995, 0.029797200113535, 0.042330067604780, -2.271905422210693, -0.139329820871353, 0.081882476806641, -0.078103296458721, 0.329668462276459, -0.564987659454346, 0.039667833596468, -0.049536194652319, 0.201973080635071, -0.670133531093597, 1.668142318725586, 0.055052839219570, -0.453247994184494, 0.071081809699535, -0.210518658161163, -0.049235384911299, 0.002046395326033, -0.024505322799087, 0.105238497257233, -0.078831888735294, -0.145561113953590, -0.436005324125290, 0.148463487625122, 0.176412552595139, 0.116898775100708, -0.027242261916399, -0.039905142039061, -0.092608481645584, -1.388677239418030, 0.142239570617676, 0.012187651358545, 0.258279681205750, 0.256461411714554, -0.016060037538409, -0.079017974436283, -0.076188497245312, 0.359578847885132, 0.001743082539178, 0.022417165338993, -0.091049395501614, 0.049864344298840, 0.267147302627563, -0.051170784980059, -0.019404532387853, 0.411173790693283, -0.072570346295834, -0.062781587243080, 0.017406698316336, 0.761310696601868, 0.295043945312500, -0.080149658024311, -0.031508412212133, 0.055180057883263, 0.081164799630642, -0.026765031740069, -0.189159855246544, 0.263889789581299, 0.081905871629715, 0.022379847243428, -0.012378140352666, -0.087943278253078, -0.077885970473289, 0.007308031897992, 0.151572853326797, -0.001453847507946, 1.487154364585876, -0.397595077753067, -0.311869204044342, 0.158506274223328, 0.024737324565649, -0.036164335906506, -0.084712013602257, -0.041608218103647, -0.153047427535057, -0.055690269917250, -0.291689157485962, 0.375002413988113, -0.302222669124603, 0.014095228165388, 0.032601967453957, -0.207656696438789, 0.097721718251705, -0.121558241546154, 0.022838834673166, 0.415006279945374, -0.312970846891403, 0.093345686793327, -0.047444760799408, -0.014146400615573, -0.125774145126343, 1.148459911346436, 1.370559215545654, 0.008111556991935, -0.226576223969460, -0.056458946317434, 0.129027277231216, 0.017982820048928, 0.012240038253367, -0.036335691809654, 0.073910385370255, 0.148904636502266, -0.018078777939081, -0.273146629333496, 0.228978574275970, 0.218560189008713, 0.099613547325134, 0.000356426840881, -0.034272760152817, -0.254568696022034, 0.009607469663024, 0.391104698181152, 0.417392641305923, -0.559930384159088, -0.255813479423523, -0.085734315216541, -0.003722134511918, 0.120531976222992, -0.292876392602921, -0.093459524214268, -0.018950680270791, -0.161136329174042, 0.316623717546463, -0.556393265724182, 0.020975546911359, -0.036527398973703, 0.024579176679254, 0.151134818792343, 0.007210617884994, -0.037319499999285, 0.041943158954382, 0.341030418872833, 0.145117104053497, -0.004778838716447, -0.006347721442580, 0.006314225960523, 0.075986459851265, 0.252982974052429, 0.166046276688576, 0.241207152605057, -0.303390324115753, -0.107164494693279, -0.104049921035767, 0.026516824960709, -0.002308456227183, 0.008601868525147, 0.013309125788510, 0.239772960543633, -0.066454619169235, 0.045823406428099, -0.154604151844978, 0.392051905393600, -0.095680110156536, -0.000785167037975, -0.150460153818130, 0.015448562800884, 0.153093516826630, -0.382928013801575, -0.280059367418289, -0.386916935443878, 0.016250265762210, 0.116575814783573, 0.009679243899882, -0.052408598363400, 0.067247316241264, -0.014669146388769, -0.428958535194397, 0.228328987956047, 0.114585451781750, -0.056392956525087, 0.032814819365740, -0.094940558075905, 0.133402511477470, 0.084079936146736, -0.065740786492825, -0.121159031987190, -0.234151378273964, 0.500154137611389, -0.087692379951477, -0.009798731654882, 0.111509449779987, -0.068847648799419, 0.118599101901054, -0.091062903404236, -0.022204222157598, -0.301185548305511, -0.438149958848953, -0.063110530376434, -0.067938737571239, -0.168524339795113, 2.189246416091919, 0.226667374372482, -0.137405842542648, -0.052499450743198, 0.541334152221680, -0.402085334062576, -0.043241985142231, 0.008248421363533, 0.025634763762355, 0.038194485008717, 0.269928067922592, -0.049456249922514, 0.062366586178541, -0.060656588524580, 0.437213093042374, -0.057076953351498, 0.025528533384204, 0.090950109064579, 0.011580518446863, 0.087705381214619, 0.123265810310841, 0.496564835309982, -0.262233883142471, -0.208946824073792, -0.151986524462700, -0.010420725680888, 0.013876413926482, -0.057925093919039, -0.049821332097054, 0.090080268681049, -0.329041063785553, 0.040089130401611, 0.177680134773254, -0.174404099583626, -0.026892356574535, -0.030930073931813, -0.491823971271515, -0.954087257385254, 0.088351421058178, -0.015560878440738, -0.081295713782310, 0.289245307445526, 0.093314446508884, -0.017678331583738, 0.029501635581255, -0.035965092480183, -0.189707607030869, -0.044447984546423, 0.113674588501453, -0.021778156980872, -0.138681888580322, -0.019705463200808, 0.031097399070859, -0.000941361882724, 0.086765095591545, 0.172847166657448, 0.107644513249397, -0.317155629396439, 0.208107426762581, -0.435288548469543, 0.088317520916462, -0.078549802303314, -0.062950797379017, 0.135483250021935, -0.115138590335846, -0.220806747674942, -0.545264780521393, -0.126282870769501, -0.008791900239885, 0.050001304596663, -0.005825176835060, 0.206558257341385, 0.015129717998207, 0.188755244016647, 0.187132656574249, -0.205835819244385, 0.279671937227249, 0.142339572310448, 0.108597233891487, 0.085843451321125, 0.020189838483930, 0.053131707012653, 1.012718439102173, -0.072620049118996, 0.090265959501266, -0.572662234306335, -0.229623422026634, -0.034667998552322, -0.096325054764748, -0.024410137906671, 0.125383377075195, 0.110080659389496, -0.196942970156670, -0.571108520030975, -0.563099980354309, 0.007091928273439, -0.045750252902508, -0.024765539914370, -0.033405460417271, 0.014117970131338, -0.182140469551086, -0.123321764171124, 0.396449446678162, 0.256139546632767, 0.671539425849915, -0.059317659586668, 0.024386590346694, -0.195561215281487, 0.235318943858147, -0.737683534622192, 0.187336489558220, 0.007209957577288, 0.021389693021774, 0.499346405267715, -0.042789503931999, 0.047455251216888, -0.021778762340546, -0.224614992737770, 0.105255737900734, -0.025895897299051, 0.168014690279961, -0.254265487194061, 0.232688069343567, 0.110877722501755, 0.002121441299096, -0.084131434559822, 0.065478004515171, 0.500062942504883, -0.070716880261898, -0.522871673107147, -0.342795461416245, 0.572804152965546, -0.079867154359818, -0.016293717548251, 0.005451893433928, -0.065849184989929, -0.052861288189888, 0.163961574435234, -0.057288434356451, -0.341094881296158, -0.096458368003368, -0.050913654267788, 0.037763945758343, 0.012822600081563, -0.310355484485626, 0.149865537881851, -0.391123116016388, 0.392261445522308, 0.409683555364609, 0.100474514067173, 0.016509959474206, -0.001308119622990, 0.096341036260128, 0.095909878611565, -0.865880668163300, -0.103145360946655, 0.502812206745148, -0.278180360794067, -0.153977900743484, 0.088773675262928, 0.034881431609392, 0.072006881237030, 0.052260603755713, -0.029607845470309, 1.014616727828979, 0.541522800922394, -0.236143991351128, -0.051097515970469, -0.003177796024829, -0.051929067820311, 0.109869919717312, -0.104599446058273, 0.122413016855717, -2.540494441986084, -0.404361963272095, -0.010927516035736, 0.297190397977829, -0.041507720947266, 0.038313739001751, -0.037234894931316, 0.093366593122482, 0.295387923717499, 0.051739647984505, -0.016313802450895, -0.100851967930794, 0.201205208897591, -0.014928990975022, 0.023259934037924, 0.016785264015198, -0.010548991151154, 0.357945472002029, -0.457591414451599, 0.061730161309242, 0.463900387287140, -0.166921168565750, 0.175728559494019, 0.110127314925194, 0.116393841803074, 0.077970921993256, -1.099961638450623, -0.111128710210323, -0.309120029211044, -0.358393490314484, -0.123285457491875, 0.014352736063302, 0.024306437000632, -0.210780620574951, 0.104324363172054, 0.112991236150265, -0.421624392271042, 0.595003485679626, 0.251436054706573, -0.110036075115204, 0.044507704675198, 0.053569283336401, -0.135355696082115, -0.793569624423981, -0.000955939292908, 1.598998904228210, -0.429453581571579, -0.297611743211746, -0.156215488910675, -0.018432619050145, -0.014240590855479, -0.055036347359419, -0.061050251126289, 0.062197074294090, -0.084464155137539, -0.605582058429718, -0.284658819437027, -0.516256868839264, -0.034793492406607, -0.028671491891146, 0.171039730310440, 0.171511650085449, 0.115662701427937, -0.019016666337848, 0.322276622056961, 0.339979648590088, -0.121116973459721, -0.083282552659512, 0.016883006319404, -0.012023931369185, -0.164816141128540, -0.381596505641937, -0.110855735838413, 0.210087314248085, -0.786742508411407, -0.215759605169296, -0.073019206523895, 0.057202953845263, -0.199176535010338, -0.104801863431931, 1.554732680320740, 0.068422071635723, 0.515964031219482, 0.096946716308594, -0.016415884718299, -0.061246339231730, -0.025528524070978, 0.042045157402754, -0.182535439729691, 0.085350424051285, -0.191542357206345, -0.109837353229523, -0.363501876592636, 0.157916903495789, -0.092450641095638, -0.041914012283087, 0.121171630918980, 0.302685737609863, -0.663868069648743, -0.306253433227539, -0.464944034814835, 0.008540755137801, -0.148543238639832, 0.110784828662872, -0.024670388549566, 0.016373472288251, 0.101090580224991, -0.027468778192997, -0.238938882946968, 0.040971789509058, 0.170715287327766, 0.730696737766266, -0.017152007669210, -0.011294257827103, 0.026285780593753, -0.098436050117016, 0.336488217115402, 0.148286342620850, -0.533263444900513, -0.136950016021729, 0.099993713200092, -0.043087977916002, -0.013640458695590, -0.146721661090851, -0.091007500886917, -0.153034999966621, 0.355608940124512, -0.323461651802063, -0.203720346093178, -0.150605753064156, 0.143853932619095, 0.037750322371721, 0.044771362096071, 0.082030259072781, 0.031211374327540, 0.043420534580946, -0.823652327060699, 0.672354161739349, 0.113147087395191, 0.033664923161268, 0.020837444812059, 0.118882201611996, -0.120607160031796, -0.118581891059875, 0.150171831250191, 0.169869959354401, -0.306998521089554, -0.244555443525314, -0.074474021792412, -0.021294554695487, 0.137206643819809, 0.008908162824810, -0.003467899281532, -0.161909848451614, -0.227966129779816, -0.573752641677856, -0.033951986581087, -0.017968738451600, 0.008483006618917, 0.099279887974262, 0.021464897319674, 0.130341455340385, -0.228263273835182, -0.450288444757462, -0.498830616474152, -0.243330895900726, 0.089113786816597, 0.004468426108360, -0.007305688224733, 0.025443522259593, -1.769696474075317, 0.036594968289137, -0.522434651851654, -0.166953310370445, 0.125277698040009, -0.012006661854684, 0.169213846325874, -0.020280923694372, -0.129634797573090, 1.400576710700989, 0.027917198836803, -0.055820476263762, 0.258582413196564, 0.330803543329239, 0.092579312622547, -0.006028007250279, -0.018588300794363, 0.067738808691502, 0.085075177252293, 0.034913148730993, -0.506201505661011, 0.054314762353897, 0.083756543695927, -0.093658819794655, -0.029146732762456, -0.024380566552281};
#endif

#endif
