-0.01513737253844738, -0.16775920987129211, 0.41033428907394409, -0.01619606092572212, -0.15576338768005371, -0.03033347427845001, -0.35248729586601257, -0.38488337397575378, -0.07721133530139923, 0.01293149963021278, 0.02901944704353809, 0.00070079253055155, -0.15320049226284027, -0.58813500404357910, 0.68409615755081177, 0.35336059331893921, -0.24364891648292542, -0.39588335156440735, 0.15482726693153381, 0.08378888666629791, -0.58367270231246948, 0.07797935605049133, 0.00503250909969211, 0.17218354344367981, -0.05228881165385246, -0.11056292802095413, 0.19631853699684143, -0.09501575678586960, -0.10118225961923599, 0.21321862936019897, -0.10630989074707031, -0.34523540735244751, 0.25562396645545959, -0.12286365032196045, -0.05152422189712524, 0.37836724519729614, -0.10104111582040787, -0.04451442509889603, -0.46220734715461731, 0.24269478023052216, -0.15810844302177429, -0.03664521500468254, 0.01354044582694769, -0.27230662107467651, 0.09296594560146332, 0.32822024822235107, 0.01261550094932318, 0.25166770815849304, -0.09418814629316330, -0.01509576477110386, 0.56017518043518066, -0.32633534073829651, 0.10962163656949997, -0.02108919806778431, -0.40953823924064636, 0.01300918310880661, -0.10684667527675629, 0.01640764623880386, 0.03170637786388397, 0.08438282459974289, -0.04325423017144203, 0.31179168820381165, -0.09432221949100494, 0.22099766135215759, 0.05958083271980286, -0.28989821672439575, 0.09078483283519745, 0.24016214907169342, -0.03609827160835266, 0.02948899380862713, -0.08495772629976273, -0.09210977703332901, -0.19145879149436951, 0.22836336493492126, -0.19793589413166046, 0.04113204404711723, -0.35449576377868652, -0.13433167338371277, 0.06296982616186142, -0.11662029474973679, -0.63753235340118408, 0.76065832376480103, 0.09949617087841034, -0.40248280763626099, 0.19220438599586487, 0.34315866231918335, -0.08585797250270844, 0.03374977409839630, 0.17392839491367340, 0.46125304698944092, 0.24632272124290466, -0.21452802419662476, -0.26210784912109375, -0.11587868630886078, -0.06158909574151039, -0.21060194075107574, -0.08758665621280670, 0.15248581767082214, -0.28407028317451477, 0.02893834002315998, 0.04460689797997475, 0.13133765757083893, -0.19570076465606689, 0.56999051570892334, 0.00213846913538873, -0.22102354466915131, 0.02539881691336632, 0.31616905331611633, 0.12866665422916412, -0.07383593916893005, 0.09394982457160950, 0.00544572528451681, 0.29144161939620972, -0.24581880867481232, 0.12756033241748810, -0.59118682146072388, -0.70684969425201416, 0.24498888850212097, 0.03491723909974098, -0.27345019578933716, -0.39790380001068115, 0.03398473560810089, 0.07979153841733932, 0.04681691899895668, 0.22346650063991547, 0.28331822156906128, 0.05074484273791313, -0.18846568465232849, 0.05770403519272804, 0.18036977946758270, -0.34212577342987061, 0.30558449029922485, 0.11806855350732803, -0.31358271837234497, -0.30085834860801697, -0.22394156455993652, 0.19631585478782654, 0.28918188810348511, -0.01987960189580917, -0.07433611899614334, -0.02767903357744217, -0.24973697960376740, 0.31468066573143005, 0.40885221958160400, 0.09913432598114014, 0.13060669600963593, 0.11120755225419998, 0.11595651507377625, -0.34424114227294922, 0.11604362726211548, 0.03727130219340324, 0.00755343958735466, -0.25679183006286621, 0.00025147121050395, 0.09617178887128830, -0.28444039821624756, -0.05525953695178032, 0.02289124391973019, 0.32349139451980591, 0.21846292912960052, -0.01365164294838905, -0.01277407631278038, -0.09617421030998230, -0.29992654919624329, -0.20715703070163727, 0.23947529494762421, 0.04908059909939766, -0.07496176660060883, -0.14053589105606079, 0.07638109475374222, 0.09907257556915283, 0.12951572239398956, -0.05983601137995720, -0.01864364184439182, 0.14340028166770935, -0.16758312284946442, 0.38782730698585510, 0.10501935333013535, -0.11153458803892136, -0.17460584640502930, 0.07814394682645798, -0.01151213981211185, 0.46241721510887146, -0.41365423798561096, 0.19328677654266357, -0.34602975845336914, -0.18910048902034760, 0.15239475667476654, -0.05296076461672783, -0.17480166256427765, -0.04322203621268272, 0.34129616618156433