//Numpy array shape [192]
//Min -1.353397130966
//Max 0.381862908602
//Number of zeros 0

#ifndef OUT_PROJ_BIAS75_H_
#define OUT_PROJ_BIAS75_H_

#ifndef __SYNTHESIS__
layers_9_ffn_out_proj_bias_t out_proj_bias75[192];
#else
layers_9_ffn_out_proj_bias_t out_proj_bias75[192] = {-0.0730353295803070, -0.2294199466705322, 0.0875135287642479, 0.0443944483995438, -0.1649492979049683, 0.2007256597280502, 0.0593248158693314, -0.1388359218835831, 0.0394948385655880, 0.0190464630723000, -0.0573688596487045, 0.0094086490571499, -0.1480918526649475, -0.1049796938896179, 0.2676360309123993, 0.2947933673858643, 0.2716401517391205, -0.1086809113621712, -0.0051333862356842, -0.0326295420527458, -0.1013679355382919, -1.3533971309661865, -0.0776935219764709, 0.0879657939076424, -0.1361632943153381, -0.0472267307341099, -0.0167022161185741, 0.1188590750098228, -0.0572875291109085, 0.0251084584742785, -0.0952126085758209, 0.1377256512641907, -0.1688778698444366, -0.0521437674760818, -0.1248893067240715, 0.1410411149263382, 0.2443867921829224, -0.1582121551036835, 0.2437420636415482, 0.0470606535673141, -0.0409568734467030, -0.0113448565825820, -0.1281548887491226, 0.0519441701471806, 0.0538120903074741, -0.0977999866008759, -0.1665664613246918, 0.1897260993719101, -0.0015603580977768, 0.0221478752791882, -0.0285584293305874, -0.1098780706524849, -0.0263322386890650, -0.0467186272144318, 0.0040013990364969, 0.2521029710769653, -0.2140669673681259, 0.0989005640149117, 0.1067313924431801, 0.0126856276765466, -0.2915932238101959, 0.0049400911666453, 0.1006516516208649, 0.2981878221035004, 0.0911119207739830, 0.2420827001333237, -0.1538782566785812, 0.1519049108028412, 0.2148406207561493, -0.1448769420385361, 0.0496221520006657, -0.0234547145664692, 0.0115211233496666, -0.1138372942805290, -0.1528938263654709, -0.0480688363313675, 0.1326119005680084, -0.0016544492682442, -0.0020966017618775, 0.0627807006239891, 0.0690125599503517, -0.0639934390783310, -0.2427804172039032, -0.0773141831159592, 0.0837020203471184, 0.0139709087088704, -0.0345710553228855, -0.2478943765163422, 0.0495840460062027, -0.0534195490181446, -0.1509476155042648, -0.0761839970946312, -0.0413069501519203, -0.2021373063325882, 0.0604949370026588, 0.1060007438063622, -0.0789919719099998, -0.2040881514549255, 0.0918469130992889, 0.1954544335603714, 0.1613166034221649, -0.0536760576069355, 0.0067437165416777, 0.1083903536200523, -0.1035029739141464, 0.2526035010814667, -0.0788759589195251, 0.2376488000154495, -0.2125663608312607, 0.0051362803205848, -0.0506011657416821, -0.0391113497316837, -0.0606118477880955, -0.1927737891674042, 0.1219309568405151, 0.1571340262889862, -0.1588896960020065, -0.0110654905438423, -0.0780010446906090, 0.0865275338292122, 0.2953021228313446, 0.3195292055606842, -0.1080439686775208, 0.1965467333793640, -0.0826390534639359, 0.0237145312130451, -0.1259330064058304, 0.0148486196994781, -0.1463306099176407, -0.2663770318031311, 0.2787233889102936, -0.3447063565254211, 0.1610579639673233, -0.0158104058355093, 0.0497810281813145, 0.1925371140241623, -0.1960170269012451, -0.0623181834816933, 0.1383790522813797, 0.0807666853070259, -0.1546121686697006, 0.0231135189533234, 0.3818629086017609, -0.0082941930741072, -0.1859008371829987, -0.1066842749714851, -0.2975874841213226, -0.0716414749622345, -0.0960258617997169, 0.1513935625553131, 0.1806384027004242, 0.2882986962795258, -0.2023530453443527, -0.1377949118614197, 0.2043596953153610, 0.1899234503507614, -0.2367536425590515, 0.2376516610383987, 0.1963266283273697, -0.0486830882728100, 0.0394238494336605, 0.0584504790604115, -0.0753254070878029, -0.1503673791885376, 0.3577760159969330, 0.0670852214097977, 0.3165017962455750, -0.1072934046387672, -0.0095129180699587, -0.0212688501924276, -0.2137443125247955, -0.1571213752031326, -0.0947771444916725, -0.0163348242640495, -0.1044830828905106, -0.0701472386717796, -0.1355305165052414, 0.3635050058364868, -0.0398965217173100, -0.1516871899366379, 0.0299151465296745, -0.0190358869731426, 0.0449095629155636, 0.0855805203318596, 0.0455544926226139, 0.1084872856736183, 0.0023331800475717, -0.0036836878862232, -0.2903201878070831, 0.0850428417325020, 0.1840508878231049, 0.1914034634828568};
#endif

#endif
