//Numpy array shape (192,)
//Min -0.320482134819
//Max 0.338907808065
//Number of zeros 0

#ifndef OUT_PROJ_BIAS66_H_
#define OUT_PROJ_BIAS66_H_

#ifndef __SYNTHESIS__
layers_8_self_attn_out_proj_bias_t out_proj_bias66[192];
#else
layers_8_self_attn_out_proj_bias_t out_proj_bias66[192] = {0.061700757592916489, 0.029001295566558838, -0.012047633528709412, -0.280190676450729370, -0.025443403050303459, -0.131200045347213745, 0.025573538616299629, 0.098613098263740540, -0.055384390056133270, 0.198539599776268005, 0.042196217924356461, -0.285947352647781372, 0.001581182819791138, -0.074586763978004456, 0.052134595811367035, -0.027504382655024529, 0.311127483844757080, -0.070381470024585724, 0.108503505587577820, 0.150257974863052368, -0.012125922366976738, 0.153751268982887268, -0.203359782695770264, 0.092097260057926178, -0.061891872435808182, 0.086229540407657623, -0.047833651304244995, 0.043750707060098648, -0.028986619785428047, -0.143943831324577332, -0.062720328569412231, -0.028126770630478859, -0.042928975075483322, 0.207805380225181580, 0.000654825242236257, -0.139193281531333923, 0.001524281804449856, -0.114135906100273132, 0.112187303602695465, 0.136463209986686707, 0.224628269672393799, -0.021477313712239265, -0.122445814311504364, -0.160968258976936340, -0.005308596882969141, -0.021091997623443604, 0.032618794590234756, -0.100753903388977051, 0.040950357913970947, -0.073725342750549316, -0.032184019684791565, 0.017837813124060631, -0.019470272585749626, 0.138672485947608948, -0.045773554593324661, 0.140329256653785706, 0.038665089756250381, 0.021863736212253571, -0.060284543782472610, 0.157435655593872070, 0.079446099698543549, -0.120572507381439209, -0.071518354117870331, -0.175276130437850952, -0.041618242859840393, 0.092188678681850433, -0.067526176571846008, -0.133873194456100464, 0.232913970947265625, 0.116804391145706177, 0.023240981623530388, -0.001143739209510386, -0.264897495508193970, -0.025820644572377205, 0.075523443520069122, 0.015174577012658119, 0.109422884881496429, 0.146185711026191711, -0.074702963232994080, 0.302775114774703979, -0.037638530135154724, -0.155214607715606689, -0.099467441439628601, -0.080820538103580475, 0.038454823195934296, -0.168791830539703369, -0.099768318235874176, -0.006206668447703123, -0.320482134819030762, 0.180756375193595886, -0.057503793388605118, -0.028905449435114861, 0.279580473899841309, 0.077411934733390808, 0.067640937864780426, 0.010537759400904179, -0.066919080913066864, -0.026458941400051117, -0.005548993591219187, -0.001711658202111721, -0.066788136959075928, -0.236871391534805298, -0.010885435156524181, -0.221160054206848145, -0.007052731234580278, 0.005160565022379160, -0.084181398153305054, 0.003330651670694351, 0.077328957617282867, -0.052191216498613358, 0.025232354179024696, 0.040858674794435501, 0.093639180064201355, 0.040186498314142227, 0.107172124087810516, -0.104517333209514618, 0.093892149627208710, -0.208608448505401611, 0.236264333128929138, 0.082392260432243347, 0.215970069169998169, 0.081245616078376770, 0.107873432338237762, -0.135103806853294373, 0.116752833127975464, -0.038448315113782883, -0.040098514407873154, -0.021378524601459503, -0.041251812130212784, -0.130328819155693054, 0.338907808065414429, -0.117344714701175690, 0.077040225267410278, 0.136821642518043518, 0.057554803788661957, -0.143005788326263428, -0.117915697395801544, 0.101710610091686249, -0.090170845389366150, 0.002074539894238114, 0.074666827917098999, -0.025547279044985771, -0.007221455220133066, 0.015037822537124157, 0.186630517244338989, -0.174846127629280090, -0.272120267152786255, 0.085833735764026642, -0.010574403218924999, -0.075374752283096313, -0.062092822045087814, -0.050030585378408432, 0.320619761943817139, 0.041425071656703949, -0.121378749608993530, 0.005691205151379108, 0.206492438912391663, 0.066741012036800385, 0.074670940637588501, -0.022682109847664833, 0.027709379792213440, -0.017340805381536484, 0.024284563958644867, 0.073383741080760956, -0.047079250216484070, -0.066184133291244507, -0.082034066319465637, -0.000227849988732487, 0.026524659246206284, 0.079930424690246582, -0.081227205693721771, 0.037630945444107056, -0.084868222475051880, 0.063055336475372314, 0.080299012362957001, -0.073117986321449280, 0.028086094185709953, -0.091174937784671783, -0.014774035662412643, 0.049478426575660706, -0.029109694063663483, -0.133951440453529358, 0.016501776874065399, 0.042826443910598755, -0.028743563219904900, 0.056261930614709854, -0.027388438582420349, -0.024899272248148918, -0.196735799312591553, -0.194942295551300049, -0.165923967957496643, -0.102999344468116760};
#endif

#endif
