0.0381042, 0.0846971, 0.0820301, 0.0733476, -0.0186576, 0.0522679, 0.0195780, -0.0194632, 0.0150118, -0.0113690, -0.0278366, -0.0063871, -0.0832785, -0.0156858, 0.0498628, -0.0115154, 0.0786113, -0.0467187, -0.0119701, -0.0724883, 0.1448580, 0.0001536, 0.0703590, -0.0121672, 0.0449252, 0.0306893, -0.0842705, 0.0566898, -0.0572616, 0.0498535, -0.0128558, -0.0070178, 0.0111607, 0.0026497, 0.0948394, -0.0172675, 0.0188128, 0.0304396, 0.0164946, -0.0289360, -0.0156765, -0.0206953, -0.1018083, -0.0413615, 0.0184003, 0.0022673, -0.1749872, 0.0064859, 0.0223199, -0.0262397, -0.0031708, 0.0625403, -0.0724056, -0.0518165, 0.0637950, -0.0610694, 0.0761203, -0.0154252, -0.0242016, -0.1072471, -0.0278340, -0.1302459, 0.0122306, -0.0238703, -0.0362386, -0.0272737, 0.0170222, 0.0833734, -0.0609731, 0.0600298, 0.0547145, 0.0914563, -0.0062221, -0.1293956, -0.0923002, -0.0220569, 0.1136200, -0.0167511, -0.0433824, -0.0596171, -0.0578989, -0.0035585, 0.0600951, 0.0282357, 0.0350169, 0.0517374, -0.0067859, 0.0724196, -0.0665141, -0.0183363, -0.1494395, 0.0259051, 0.1085785, -0.0248500, -0.0745203, 0.0623610, -0.0722203, 0.0085708, -0.0630158, -0.0038251, -0.1146505, -0.0006286, -0.0004795, -0.1195362, 0.0147829, -0.0429335, 0.1696932, 0.0759713, 0.1055930, -0.0080196, -0.0274717, 0.0087561, 0.0273339, -0.0252990, 0.0280494, 0.0751568, -0.0881514, 0.0057108, -0.0118569, 0.0098984, -0.1248596, 0.0737148, -0.0399576, 0.0156541, 0.0079830, -0.0395161, -0.1429352, 0.0486289, 0.0526335, 0.0016564, 0.0236303, 0.0453593, -0.0721851, -0.0614307, 0.0264105, 0.0013044, -0.0614831, 0.0199039, -0.0308369, 0.1045305, -0.0035056, -0.0390412, -0.0002226, 0.0312128, 0.0182079, 0.0286772, 0.0232492, -0.0023853, 0.0053976, -0.0021247, 0.0249741, -0.0549367, -0.0576154, -0.0661038, -0.0256017, -0.0416324, 0.0264495, 0.1039138, -0.0174714, -0.0816296, -0.0407694, -0.0040760, -0.0455374, -0.0576202, -0.1444754, -0.0380320, 0.0055289, -0.0768685, -0.0639935, -0.0012440, 0.0027526, 0.0792628, -0.0448229, -0.0239481, 0.1457628, -0.0914461, 0.0090493, 0.0335333, -0.0854706, -0.0057551, -0.0065076, 0.0346617, -0.1231842, 0.0470184, -0.0281273, 0.0265456, 0.0790968, -0.0165663, -0.0986848, 0.0973469, -0.0575381, 0.0609239, 0.0254426, 0.0032960, 0.0017673, 0.0211461, 0.0039112, -0.0235559, -0.0041384, 0.0592131, -0.1965716, 0.0787296, 0.0191618, 0.0652564, -0.0065894, 0.0126502, 0.1098687, -0.0503978, 0.0400262, 0.0005608, 0.1265180, 0.0166202, 0.0495585, -0.0195823, 0.0555979, -0.0515649, 0.0467173, -0.0702828, -0.0694819, -0.0449120, -0.0650507, -0.0334444, 0.0041654, -0.0892924, 0.1553382, -0.0374722, -0.0304649, -0.0160030, 0.0353149, -0.0756653, 0.0524588, 0.0009401, 0.0497065, 0.0920953, -0.1481423, 0.0840616, -0.1160855, 0.0209732, 0.0670914, 0.0051721, 0.1494571, 0.0246330, -0.1310283, -0.0856041, -0.0473887, -0.0221746, 0.0085941, 0.0692598, 0.1196246, -0.0458377, -0.0717503, -0.0489653, -0.0032647, 0.0099108, 0.0202770, -0.0411572, -0.0206463, 0.0506337, 0.0140262, -0.0599789, -0.0263874, 0.0337983, 0.0377687, 0.0640371, 0.0424082, 0.0273235, 0.0271994, -0.0666827, -0.0398989, 0.0035286, 0.0256789, 0.0813911, -0.0689569, 0.0696579, -0.0632788, -0.0544322, -0.0047814, -0.1028217, 0.0160465, 0.0107890, -0.0311529, -0.0107994, -0.0499912, -0.0220734, 0.0327428, -0.0221799, 0.0426533, -0.0405099, 0.0375231, 0.0699834, 0.0277724, -0.0882108, -0.0331235, -0.0328385, 0.0479567, -0.0748728, 0.1119901, -0.0259893, -0.0172225, -0.0695736, -0.0144487, -0.0351486, -0.0257523, 0.0253807, -0.0094474, 0.0311179, 0.0465894, -0.0014017, 0.1183041, -0.0015728, 0.0073093, 0.0112927, -0.0793488, -0.0009281, -0.0797301, 0.0401131, -0.0867590, -0.0410734, 0.0711446, -0.1001463, 0.0607342, -0.0791244, 0.0482723, 0.0419680, 0.0561649, 0.0286954, 0.0673729, 0.0015276, 0.0019795, -0.0243654, -0.0901543, -0.1094694, 0.0602802, -0.0801590, 0.0372765, -0.0636990, 0.0372323, 0.0827762, -0.0186326, -0.0478396, 0.0173747, -0.0591860, 0.0940355, -0.0052508, 0.0230158, 0.0180483, 0.0436473, 0.0111786, 0.0144998, -0.0057802, 0.0302721, 0.0732743, 0.0280255, -0.0372363, 0.1443225, 0.0095027, -0.0353609, 0.0507877, -0.0263369, 0.0427207, -0.0387031, 0.0225414, 0.0080793, 0.0293977, 0.0944931, 0.0681919, 0.0792989, 0.0597145, -0.0174247, -0.0283014, 0.0060422, 0.0074874, -0.0216710, -0.0549702, -0.1307789, 0.0299042, -0.1249002, 0.0307792, -0.0540161, 0.0083101, -0.2038672, -0.0053945, 0.0709145, -0.0115690, -0.0034880, -0.0864826, 0.0075553, -0.0264665, 0.0078447, 0.0086726, -0.0565275, 0.0044574, -0.1699347, 0.0289735, -0.0455329, -0.0973015, 0.0219989, -0.0116623, 0.0177201, -0.0784017, 0.0543518, -0.0060521, 0.0381066, -0.0080044, -0.1001701, 0.0832964, -0.0816996, -0.0393356, 0.0531944, -0.0239191, 0.0294558, -0.0689515, -0.0156557, 0.0580681, 0.0239797, 0.0542875, -0.0342811, -0.0133304, -0.0037748, -0.0053479, -0.0050705, 0.0191481, 0.0406269, 0.0249804, 0.0041813, 0.0244716, 0.1094553, -0.0126412, -0.1183226, -0.0058575, 0.0976245, -0.0502471, 0.0364758, 0.0128013, 0.0322332, -0.0053778, -0.0303062, -0.0177720, -0.0070858, 0.0183094, -0.0299129, 0.0496167, -0.0187309, -0.0266163, 0.0088691, 0.0162104, 0.0536068, -0.0099007, -0.0941096, 0.0677972, -0.0715273, 0.0233906, 0.2395972, 0.0131312, -0.0170483, -0.0018462, -0.0133672, 0.0744688, -0.0268592, -0.1034149, -0.0300712, 0.0838091, -0.0493833, -0.0138050, 0.0465917, -0.0707748, -0.0074336, 0.0833130, 0.0350059, -0.0903074, -0.0454125, -0.0092793, 0.0263925, -0.0656823, 0.0558406, 0.0677525, 0.1625753, 0.0158545, -0.0374415, -0.0166335, -0.0737604, 0.0854214, -0.0548150, 0.0802723, -0.0610484, 0.0366172, -0.1557589, -0.0656338, -0.0604137, -0.0213061, 0.0810630, -0.0339020, -0.0122392, -0.0991839, -0.0636852, 0.0013974, 0.0174442, -0.0526454, -0.0292675, -0.0275071, 0.1571346, -0.0375985, 0.0139111, 0.0123939, -0.1152662, 0.0528688, 0.0221791, -0.0129257, 0.0920400, 0.0243792, 0.0091914, -0.0252405, 0.1763839, -0.0624289, 0.0290265, 0.0706107, -0.0307191, -0.0400837, 0.0564520, 0.0552744, 0.0152768, -0.0204731, 0.0632382, -0.0309609, -0.0690290, -0.0646302, -0.0670013, 0.0486950, -0.0606993, -0.1168518, 0.0577679, -0.0129015, 0.0096314, -0.0304953, 0.0176934, -0.0194204, -0.1252618, 0.0351356, -0.0317851, 0.0024886, 0.0487218, -0.1022439, -0.0802265, -0.0151305, -0.0131046, 0.0537989, -0.1093895, 0.0533337, 0.0189789, 0.0124303, -0.0195751, 0.0110376, 0.0406352, 0.0549536, 0.0539615, 0.0121246, 0.0045416, 0.0572883, 0.0186000, -0.0424358, 0.0537940, -0.0347786, -0.0895802, -0.0196783, 0.0494093, 0.0629095, 0.0517262, -0.0180947, 0.0281608, 0.0509242, 0.0430742, 0.0415242, 0.0350727, 0.0018122, -0.0292932, -0.0835868, -0.0439436, -0.0529218, -0.0385734, -0.0045836, 0.0316115, 0.0369437, 0.1105327, -0.0345725, -0.0093546, 0.0147759, -0.0391088, 0.0292456, 0.0223847, 0.0278984, 0.0037305, 0.0359349, 0.0011178, 0.0615659, 0.1429105, 0.1317502, 0.0487393, 0.0265822, 0.0087331, -0.0233509, 0.0513555, 0.0092393, -0.0862696, -0.0369171, -0.0815411, -0.0386556, -0.0071100, -0.0544314, 0.0964945, -0.0198930, 0.0100762, -0.0097726, 0.0114494, -0.0269982, -0.0366638, -0.0268372, -0.0271056, 0.0249831, -0.1267721, 0.0807179, -0.0963920, -0.0377906, -0.1045243, -0.0411358, -0.0870181, 0.0203668, -0.0430077, -0.0099441, -0.0203376, -0.0393043, 0.1139951, 0.0574364, -0.0698065, -0.0122551, -0.0954991, 0.0467706, 0.0670236, 0.0122287, -0.0484196, 0.0197559, -0.0601654, -0.0045791, -0.0186614, -0.0690571, 0.0028856, 0.0464930, 0.0232369, -0.0058991, 0.0137404, 0.0639183, -0.0060442, -0.0051849, -0.0350550, 0.0050833, -0.0685803, -0.1284025, -0.0059308, 0.0414413, 0.0399246, 0.0028996, -0.0461365, 0.0227767, -0.0018472, 0.0155987, 0.0041023, -0.0050728, -0.0689359, 0.0040407, 0.0532386, 0.0541501, -0.0687200, 0.0526903, 0.0002341, 0.0320057, -0.0354660, 0.0860115, -0.0516756, 0.0940943, -0.0633339, -0.0221628, -0.0511023, -0.0417997, -0.0337934, 0.0349394, 0.0341832, 0.0291486, -0.0570435, 0.0728070, -0.0123441, 0.0098927, 0.0506804, -0.0152896, -0.1118165, -0.0157849, -0.0026835, 0.0092868, -0.0676785, 0.0222940, -0.0210129, -0.0350249, -0.0359987, -0.0064937, -0.0216196, -0.0690085, -0.0788344, -0.0557292, 0.0220722, 0.0032494, -0.0440037, -0.0062839, 0.0518895, -0.0037713, -0.0185479, 0.0080293, 0.1615363, -0.0646438, 0.1340655, -0.0276268, -0.0307231, -0.0737685, 0.0152121, 0.0042341, -0.0407159, 0.0486617, 0.0389345, 0.0090015, 0.0555524, -0.0584215, -0.0700291, 0.0056680, 0.0129073, 0.0809295, 0.0023061, 0.0130397, 0.0448543, 0.0593558, -0.0508993, -0.0150575, -0.0180159, 0.0698150, -0.1121592, -0.0110939, -0.0627458, 0.0137174, 0.0220900, 0.0151960, 0.0703815, -0.0217638, -0.0539544, -0.0239549, -0.0843420, 0.1036365, 0.1535663, -0.0243762, -0.0424125, -0.0345540, 0.0329712, 0.0213131, -0.0382204, 0.0461679, -0.0070773, 0.0399364, 0.0263580, 0.0289518, 0.1309373, -0.0219249, 0.0915021, 0.0521046, -0.0442443, 0.0576145, 0.0727710, -0.0179957, -0.0419767, -0.0191700, 0.1350840, 0.1082504, -0.1577590, 0.0164675, 0.0069150, -0.0321121, 0.0536201, -0.0801360, 0.1543873, 0.0220508, 0.0013003, 0.1136985, 0.0787479, 0.0249686, -0.0756073, -0.0681870, 0.0240847, 0.0155297, 0.0334555, -0.0239292, 0.0037578, -0.0196067, 0.0778292, -0.0077004, -0.1624681, -0.1180150, 0.0000385, -0.0443839, -0.0160464, 0.0365853, -0.0377632, -0.0067403, 0.0533515, 0.0412230, 0.0025834, -0.0095879, -0.0385366, 0.0068759, -0.0663124, -0.0808578, -0.0750152, -0.0577737, 0.0430497, 0.0101466, -0.0229631, 0.0032179, -0.0907210, -0.0414868, -0.2167252, 0.0868190, 0.1293071, 0.0005497, 0.0406946, 0.0258974, -0.0840109, 0.0513358, 0.0186623, -0.1246404, 0.0383739, 0.0769213, 0.1110219, -0.1640968, 0.0059090, 0.0465819, -0.0263106, -0.0216908, 0.0391766, -0.0040198, 0.0207024, -0.0075692, -0.0264252, -0.0155310, 0.0405796, 0.0926733, 0.1004602, -0.0188404, 0.0212413, 0.0317948, 0.0782091, 0.0039291, 0.1155223, 0.0701230, -0.0412386, -0.0255017, 0.0217790, 0.0640219, -0.1879730, -0.0861871, -0.0527951, -0.0246897, 0.0017347, 0.1245336, 0.0774953, -0.0610088, 0.0913481, -0.0842129, 0.0001203, 0.0257165, -0.0743599, 0.0076699, -0.0692149, 0.0383964, 0.0713889, 0.0608906, -0.0947638, -0.0355215, -0.0290827, 0.0381863, -0.0994155, 0.0934273, 0.0341115, -0.0533405, -0.0007399, -0.0064318, 0.0152975, -0.0733246, -0.0105423, 0.0273133, 0.0076630, 0.0458463, -0.0276140, 0.0772667, 0.0496484, -0.0085498, -0.0065935, 0.0095188, 0.0236072, 0.0469589, 0.0228845, 0.0045327, -0.0083956, 0.0254455, 0.1042953, 0.0965015, 0.0223745, 0.1279403, -0.0146645, -0.0368911, -0.0303257, 0.0557682, 0.0351880, 0.0149564, -0.0525563, 0.0162975, 0.0049669, -0.0343902, -0.0548874, -0.0571561, 0.0159096, -0.0197200, 0.0049193, -0.0134457, 0.0654070, -0.0268340, -0.0176164, 0.0283322, 0.0212271, 0.0862072, 0.2421758, -0.0431303, -0.0579522, 0.0581554, -0.0019484, 0.0195255, -0.0403920, 0.0022664, -0.0564829, 0.0010260, -0.0039135, -0.0225811, -0.1334987, -0.0626371, -0.0266552, -0.0589397, 0.0120960, 0.1143793, 0.0053628, 0.0780539, 0.0180866, -0.0381680, 0.0170256, 0.0756705, -0.1769888, 0.0696857, -0.0849517, 0.0074238, 0.0695697, -0.0291121, 0.0134602, -0.1053688, 0.0965963, -0.0246474, 0.0312162, -0.0209948, -0.0446615, 0.0251775, 0.0064735, -0.0516867, -0.1792458, -0.0841353, 0.0549327, -0.1041536, 0.0146722, -0.0549128, 0.0949368, -0.0400031, 0.0109360, -0.0371666, -0.0217190, -0.0493363, -0.0686360, -0.0490652, 0.0558840, -0.0413441, 0.0335565, 0.0239938, 0.0139285, 0.0273733, -0.0503852, 0.0845965, 0.0435494, 0.0276823, 0.0545557, -0.0022159, 0.0307630, 0.0189099, 0.0258712, -0.0869061, 0.0881714, 0.0270324, 0.0315610, -0.0137941, 0.0132698, -0.0787978, -0.0648694, 0.0191452, -0.0979173, -0.0099113, -0.0023512, 0.0579277, 0.0350313, -0.0606760, -0.1285627, -0.0249660, 0.0784695, 0.0508252, -0.0811722, -0.0376569, -0.0329454, 0.0220666, -0.0423031, 0.0369547, 0.1193481, -0.0703366, -0.2144909, -0.0065236, -0.0236576, -0.0689102, -0.0151727, -0.0295727, 0.0814468, 0.0345959, 0.0496798, -0.0728790, -0.0913969, -0.0249802, -0.0152607, 0.1122254, 0.0077380, -0.0429050, 0.0147678, 0.0250901, 0.0186285, 0.0359729, -0.0151938, 0.0230464, -0.0217435, -0.0625327, -0.0395303, -0.0526789, -0.0238197, -0.0442964, 0.0345114, -0.0346195, 0.0492997, 0.0111530, -0.0208882, 0.0312718, 0.0156920, -0.0306297, -0.0801092, -0.1500694, 0.0319221, 0.0111090, -0.1462141, -0.0295615, -0.0373249, 0.0380528, 0.0109444, 0.0511071, -0.0246100, -0.0038950, -0.0641207, -0.0386847, -0.0557730, 0.0297956, 0.0137745, 0.0092771, 0.0592006, 0.0015252, -0.0251764, -0.0051077, -0.1001312, -0.0480262, -0.0595782, 0.0332628, -0.0003059, -0.0413613, 0.0475500, 0.0071525, -0.0973921, -0.0400264, 0.0303392, -0.0345273, 0.0282851, 0.0840130, -0.0638471, 0.0190156, 0.0950535, 0.0016580, 0.0003372, 0.1692952, -0.0762633, -0.0671572, 0.0209227, 0.0461041, -0.0871344, 0.0344813, 0.0556765, 0.0546738, -0.0777054, 0.0011930, 0.0528554, -0.0787846, 0.0661207, 0.0727760, 0.0413633, 0.0266787, -0.0072051, 0.0606227, 0.0074741, -0.0471188, 0.0075368, 0.0225477, 0.0061115, -0.0818801, -0.0669487, 0.0157459, 0.0680169, -0.0114490, -0.0672163, -0.0677800, -0.0417012, -0.0615315, 0.1094526, -0.0410912, 0.0133655, -0.0227781, -0.0223174, -0.0209150, 0.1214028, -0.0361970, 0.1255998, 0.0273693, 0.1363553, -0.0240458, -0.0382157, -0.0134453, 0.0050895, 0.0125030, 0.0194472, 0.0250632, 0.0639435, -0.0250481, -0.0583423, -0.0008913, -0.0068381, 0.0059455, -0.0243091, 0.0086598, -0.0765116, -0.0492015, 0.0788619, 0.0210720, 0.0072019, 0.0230207, 0.0138977, 0.0063993, -0.0902074, 0.0002795, -0.0055258, 0.0212142, -0.0769210, -0.0422102, 0.0293491, 0.0136831, -0.0221829, 0.0150870, -0.0154027, 0.0135185, 0.0133580, -0.0504080, -0.0614473, 0.0639312, 0.0921402, -0.0220578, -0.0412888, -0.0031355, -0.0608998, 0.0243947, -0.0156097, -0.0711100, 0.1800501, 0.0436352, -0.0292364, 0.0126396, -0.0085870, -0.0274950, 0.0499881, -0.0305995, 0.0528151, 0.0189138, -0.0235677, -0.0727045, 0.1603192, -0.0372448, -0.0055990, -0.0038241, -0.0396695, -0.0468434, -0.0037312, 0.0782506, -0.0551746, 0.0579129, 0.0998194, 0.0526470, 0.0418698, -0.0513345, 0.0220726, 0.0551632, -0.0125224, 0.0559510, 0.0433647, -0.0451890, -0.0204485, 0.0098267, 0.1091464, 0.0948836, 0.0518122, -0.0157355, 0.0026420, -0.0148005, -0.0043254, -0.0420496, 0.1161584, 0.0053562, 0.0668688, 0.0340355, -0.1951469, -0.0199070, 0.0231643, 0.0336691, 0.0051427, 0.0524696, 0.0188110, 0.0363298, -0.0554980, 0.0083468, -0.0335996, -0.0480279, -0.1438760, -0.0849220, -0.0094066, -0.0485421, -0.0141661, -0.0018739, 0.0756649, 0.0406180, -0.0464349, 0.0687529, 0.0133249, 0.0087387, -0.0589624, 0.0277267, 0.2204619, 0.0306378, 0.0331304, -0.0147058, 0.0286469, 0.0115988, -0.0242510, 0.0963750, 0.1243043, -0.0637279, 0.0476309, -0.0266196, 0.0570552, -0.0232733, 0.0141226, 0.0417033, 0.0271984, 0.0663738, -0.0659545, -0.0328103, -0.0037559, -0.0185636, -0.1133294, 0.1675344, 0.0501704, 0.0150444, 0.0632349, 0.0275208, 0.0473124, -0.0183212, 0.0684002, 0.0036163, 0.0674818, -0.0462375, -0.0666515, 0.0232053, -0.1060599, -0.0037795, -0.0729833, 0.0071266, -0.0755484, 0.0515861, -0.0234932, -0.0433096, -0.0076055, 0.0821597, 0.1160380, -0.0410676, -0.0367101, -0.0461369, 0.0686913, 0.0271692, 0.0039136, -0.0028447, 0.0128091, -0.0328171, -0.0080987, -0.0295363, 0.1950808, -0.0417899, 0.0408069, 0.0501903, 0.0576184, 0.0331495, 0.0497437, -0.0121403, 0.0119630, -0.0146649, 0.0312120, 0.0142553, -0.0102411, -0.0097371, -0.0787260, -0.0334379, -0.0147886, 0.0172952, -0.0470745, -0.0135299, 0.0883552, -0.0400083, 0.0716855, -0.0185213, 0.1164258, -0.0411386, 0.0850754, 0.0198104, -0.0114782, -0.0825842, 0.0388951, -0.0073180, -0.0560291, 0.0564462, 0.0664378, 0.0421079, -0.0291049, -0.0751983, -0.0189812, 0.0532771, -0.0081030, 0.0036043, -0.0246608, 0.0422805, -0.0224236, -0.0197240, -0.0198971, 0.0216011, 0.1067118, 0.0387952, 0.1064196, 0.0388790, -0.0178903, 0.0239412, -0.0655929, 0.0110446, -0.0332455, 0.0615380, -0.0101830, -0.0026325, -0.0365952, 0.0918727, 0.0224066, 0.0296610, 0.0055668, -0.0309517, 0.0402021, -0.0363899, 0.0181309, -0.0005921, -0.0635709, 0.0094108, -0.1129484, 0.0336080, -0.0780050, 0.0907991, -0.0476730, 0.0254463, -0.0575026, 0.0076106, -0.0189345, -0.0542313, -0.0035036, 0.0130991, 0.0582102, 0.0333353, 0.0968547, 0.0867549, 0.0777654, 0.0369450, 0.0461362, 0.0346814, 0.0691165, -0.0119219, -0.0352666, -0.0469423, -0.0082828, 0.0075167, 0.0248490, 0.0783062, -0.1279222, 0.0150947, 0.0051111, 0.0823719, -0.0753253, -0.0047027, 0.0355743, -0.0483938, -0.1312372, 0.0308395, 0.0104457, 0.0262501, 0.0172709, 0.0323650, 0.0137769, -0.0410907, -0.1496016, 0.0081735, 0.0623392, -0.0809554, 0.0695037, 0.0182976, 0.0208035, 0.0683249, 0.0035384, -0.0455306, -0.0902841, 0.0250756, 0.0336313, -0.0770904, -0.0338875, -0.0500156, -0.0876563, -0.0159364, -0.1231080, 0.0160636, -0.0547940, -0.0215747, -0.0248487, 0.0280564, -0.0397085, -0.0188480, 0.0022688, -0.0244481, 0.0498475, 0.0551133, -0.0576371, -0.0095781, -0.0548567, -0.0707881, 0.0168622, -0.0868186, 0.0111442, -0.0233662, 0.0140305, -0.0226135, 0.0257493, -0.0397959, 0.0727338, -0.0124300, -0.0744432, 0.0274448, -0.0471232, 0.0169736, -0.0206270, -0.0461644, 0.0238467, -0.0264937, -0.0086498, 0.0597641, 0.1875343, -0.0331885, -0.0813588, -0.0351923, 0.0672607, -0.0167947, 0.0524245, 0.0230084, -0.0080043, -0.0255712, 0.0382676, 0.0993310, -0.1763869, 0.0927444, -0.0421069, 0.0081548, -0.0250766, 0.0230790, -0.0309444, 0.1467525, 0.0233670, 0.0129993, -0.0346713, 0.0953187, 0.0064058, 0.0487219, -0.0277922, -0.0112321, -0.0267522, -0.0056202, -0.1312054, 0.0279595, -0.0465467, -0.0401461, -0.0383867, 0.0475534, 0.0000925, 0.0063663, 0.0911602, 0.0666211, -0.0721389, -0.0291858, -0.0145861, -0.0277176, -0.0703350, -0.1004626, -0.0186015, 0.0192337, 0.0357549, 0.0710590, -0.0661698, 0.0290349, 0.0204223, -0.0183547, -0.0071234, -0.0336440, -0.0287882, -0.0293918, 0.1150300, -0.0704730, 0.1115942, -0.0537185, -0.0924603, 0.0278881, -0.0146246, 0.0684893, 0.0055925, -0.0079166, -0.0253369, -0.0846785, 0.0743871, 0.0184687, -0.1372103, 0.1238845, 0.0193353, 0.0383877, 0.0723488, -0.0270757, 0.0224528, -0.0631351, 0.0771054, -0.0302851, 0.1809601, -0.0753866, 0.0638935, 0.0285474, -0.0164739, -0.0323726, 0.0045310, -0.0038312, -0.0536467, 0.0754178, 0.0265968, 0.0060097, -0.1036166, 0.0173018, 0.0426245, -0.0710876, 0.1008921, 0.0151831, 0.0252793, 0.0158974, -0.0167263, -0.0183545, 0.0180392, -0.0117225, 0.0632414, 0.0275297, 0.0538630, -0.0075082, 0.0350192, -0.0810839, 0.0035434, 0.0666455, 0.0100958, -0.0873141, 0.0195914, 0.0383842, 0.0606789, -0.0145637, 0.0767627, 0.0602259, -0.0080614, 0.0291902, -0.0875883, -0.0079532, 0.0521810, -0.0354824, -0.0160450, 0.0431203, -0.0116584, 0.0326198, -0.1590986, 0.0418197, -0.0275559, -0.0604022, -0.0099418, 0.0046773, -0.0196213, 0.0099649, 0.1177505, -0.0471188, -0.0193834, -0.0096327, 0.1025660, -0.0164592, -0.0272144, -0.0203862, -0.0803460, -0.0770079, 0.0133293, 0.0338791, -0.0073811, -0.0226132, -0.0753243, 0.0766284, 0.2006956, -0.0489664, -0.0249175, 0.0210778, 0.0131526, 0.0958479, -0.0482057, -0.0030883, -0.0678286, -0.0256428, -0.0322018, 0.0463165, 0.0907486, -0.0100789, -0.0152903, -0.0246757, 0.0331996, -0.0668575, 0.0063880, -0.0623839, 0.0079036, 0.0191872, 0.1016866, -0.0052713, 0.0466030, -0.0379305, 0.0196252, 0.0396350, -0.0554793, -0.0004249, -0.0128583, 0.0041312, 0.0176214, 0.0374114, -0.0949003, -0.0358244, -0.0154533, -0.0119601, -0.0590116, -0.0122934, 0.0309184, 0.0518405, 0.0390101, 0.0130692, -0.0185561, 0.0322606, 0.0537066, -0.0816691, 0.0782705, 0.0876041, -0.0013273, 0.0030151, -0.0614828, -0.0060430, 0.0131063, 0.0163323, 0.0607382, 0.0629797, 0.1686876, -0.0399438, -0.0810723, -0.0191262, 0.1003482, -0.1106572, 0.0181099, -0.0108707, 0.0225035, -0.0422978, -0.0411564, -0.0690647, -0.0019134, -0.1012801, 0.0993648, -0.0975659, 0.0584935, 0.0332445, 0.1027063, -0.0472463, -0.0363214, 0.0370620, 0.0176221, 0.0122870, 0.0016964, -0.0065330, -0.1539318, 0.0206492, -0.0218116, -0.0327719, 0.0359610, -0.0402903, -0.0153141, 0.0700664, 0.0507371, -0.0146027, -0.1251116, -0.0224483, 0.0999413, 0.0506985, 0.0146195, 0.0350620, 0.0454812, -0.0344927, -0.0260355, -0.0139562, 0.0498153, -0.0034044, 0.0441471, 0.0169958, -0.0528543, 0.0046330, -0.0043398, -0.0136366, -0.0139692, 0.0586405, 0.0638369, 0.0426236, 0.0180053, 0.0913381, -0.0825944, 0.0350040, 0.0018654, 0.0878295, 0.0660930, 0.0368865, -0.0097269, 0.0305191, 0.0621087, 0.0512514, -0.0280022, 0.0228934, -0.0180998, -0.0230870, 0.0397043, 0.0240416, -0.0216221, 0.0239116, 0.0053587, 0.0513934, 0.0369518, 0.0779008, -0.0290517, -0.0489266, -0.0363100, -0.1619959, -0.0443353, 0.0597472, 0.0309786, -0.0276935, 0.0495873, 0.0351582, 0.0122525, 0.1290056, 0.0502407, 0.0217054, -0.0788222, 0.0322744, -0.0074570, -0.0384054, 0.0079209, 0.0339912, 0.0399073, -0.0401875, 0.0703819, -0.0518671, 0.0586833, -0.0434737, 0.1355704, 0.0229703, -0.0539832, -0.0333269, 0.0383405, -0.0677003, -0.0306904, 0.0013542, 0.0388027, 0.0701300, 0.0773343, 0.0504020, 0.0451410, 0.0101202, 0.0525305, 0.0446684, -0.0238521, -0.0427259, 0.0570816, -0.0157872, 0.0781289, -0.0385827, -0.0069349, 0.0223673, -0.0274999, -0.0043006, 0.1283390, -0.0664574, 0.0175532, 0.1076680, 0.0143557, 0.0605410, -0.0201704, -0.0001858, -0.0190158, 0.0361181, 0.1297445, -0.0463237, 0.0690441, -0.0111509, -0.0301003, 0.0375805, 0.0192916, -0.0429509, 0.0032912, 0.0110131, 0.0622236, 0.1070569, 0.0029695, -0.0622550, -0.1668048, 0.0104391, 0.0619579, 0.0229768, -0.0621244, -0.0027806, -0.0020391, -0.0465599, 0.0241934, -0.0371808, 0.1158221, -0.0337962, -0.0595293, -0.0659176, -0.0337078, -0.0903672, 0.0378238, -0.0152221, 0.0521470, 0.0559215, -0.0041690, -0.0193951, -0.0615579, -0.0778921, 0.0209380, -0.0649507, 0.0282954, 0.0682631, 0.0194329, -0.0482499, 0.0243704, 0.0460899, 0.0202390, -0.0234172, -0.0715720, 0.0427948, -0.0884864, 0.0243361, 0.0125347, 0.0044066, 0.0061639, -0.0009514, -0.0464274, -0.0063253, -0.0667790, 0.0115753, -0.0341301, 0.0536609, -0.0920948, 0.0385363, -0.0075537, 0.0222440, 0.0038236, -0.0220558, -0.0578209, -0.1201022, 0.0105956, 0.1036355, -0.1429676, -0.0043259, 0.1384850, 0.0290526, -0.0114129, -0.0433907, -0.0276803, -0.0282931, 0.0226524, 0.0378257, 0.0296601, 0.0100179, 0.0243077, -0.0133042, 0.0358512, 0.0076068, 0.0040700, 0.0573329, -0.0089312, -0.0497961, 0.0487689, 0.0704886, -0.0089324, 0.0144835, -0.0287371, 0.0491117, -0.1357908, 0.0709347, 0.0928463, 0.0070396, 0.0028355, 0.0332090, -0.0102024, 0.0428069, 0.0052203, 0.0443132, -0.1543040, 0.0512847, -0.0774632, 0.0923416, -0.0570456, 0.0315714, -0.0505373, -0.0150844, 0.0198486, -0.0235399, -0.0082275, 0.0483977, 0.1772916, -0.1066717, -0.1037923, 0.0006129, 0.0529568, 0.0108504, -0.0419318, 0.0135036, 0.0592817, 0.0271799, -0.0380019, -0.1662576, 0.0476203, -0.0636842, -0.0399151, -0.0371187, -0.0252343, -0.0814679, 0.0748515, -0.0108087, 0.0465803, 0.0393491, 0.0920811, -0.0223079, 0.0646902, 0.1756608, 0.1028896, -0.0035938, 0.0338296, -0.0483169, -0.0078140, -0.0273316, -0.0438081, -0.0342690, -0.0994993, 0.0129338, 0.0039000, -0.0573135, -0.0338583, -0.0175501, -0.0292602, 0.0331369, 0.0239182, 0.0457533, 0.0564611, -0.0670832, 0.0238154, -0.0535073, -0.0170291, -0.0920941, -0.0815179, 0.0419361, -0.0444879, 0.0259963, 0.0379450, 0.0626753, 0.0250082, -0.0609751, -0.0586984, 0.0164186, -0.1697720, 0.0452754, -0.0320283, -0.0311339, 0.0073321, 0.0177810, -0.0597956, 0.0073846, -0.0132301, -0.0221882, -0.0381907, 0.0259913, 0.0915133, 0.0417060, -0.0495364, 0.0720207, 0.0268637, -0.0203789, 0.0385149, -0.0313772, -0.0537168, 0.0335271, 0.0171078, -0.0348684, 0.1164780, 0.0139560, -0.0347920, -0.0473867, 0.1163454, 0.0154335, 0.0098927, 0.0156597, -0.0315190, 0.0007780, -0.0789013, -0.1148361, -0.0992353, -0.1581477, -0.1286701, -0.0290391, 0.0487138, -0.0394983, -0.0958987, -0.0571959, -0.0016606, 0.0499659, -0.0426518, 0.0177225, -0.2014377, 0.0045779, 0.0583701, -0.0392078, 0.0134021, 0.0407473, 0.0225986, 0.0182988, -0.0229449, 0.0299036, -0.0786794, 0.0279158, -0.0157909, -0.0070530, 0.0374488, 0.0008496, 0.0033751, 0.0551395, 0.0747608, -0.0789313, 0.0289201, 0.0520754, 0.0753934, 0.0170893, -0.0081447, 0.0109262, 0.1571990, 0.0015846, 0.0440920, -0.0448938, -0.0393621, -0.0161029, -0.0308181, -0.0125623, -0.0162879, 0.0096891, 0.0895720, 0.1049293, 0.0512883, -0.0228156, 0.0459311, -0.0391752, -0.0018263, 0.0509890, 0.0697238, -0.0176082, 0.0079083, 0.0286633, 0.0542723, 0.0343045, -0.1188518, 0.0597341, 0.0356281, 0.0349464, 0.0665679, 0.0203350, 0.0035047, -0.0612037, 0.0746308, -0.0068458, 0.0608135, 0.0912421, 0.0811681, -0.0360918, -0.0023601, -0.0374973, -0.0183553, -0.0084450, 0.0397361, -0.0159907, 0.0078311, -0.0314029, -0.0785667, -0.0345257, 0.0899288, 0.0246468, -0.0217327, 0.0351347, 0.0314933, 0.0104031, -0.0478228, -0.0187709, 0.0482671, 0.0408800, -0.0104663, 0.0493081, 0.1096507, -0.0308326, 0.1299872, -0.0633818, -0.0670405, -0.0455128, 0.0274670, 0.0190279, 0.0416724, 0.0612226, 0.0112939, -0.0814314, -0.1426359, -0.0371860, 0.0693706, 0.0064416, 0.1142104, 0.0364028, -0.0591983, -0.1487911, 0.0657605, 0.0014201, -0.0064389, -0.1006875, 0.0699581, 0.0596450, -0.0048145, -0.0177652, -0.0058365, 0.0415295, 0.0339381, -0.0388395, -0.0208468, -0.0016476, -0.0229681, -0.0533413, -0.0424148, 0.0478757, 0.0007066, 0.0830339, 0.0178243, -0.0361753, -0.0172821, -0.0472864, 0.0290070, 0.0165587, -0.0136886, 0.1077809, 0.0064207, 0.0359986, -0.0207766, -0.0265660, 0.0754139, -0.0209758, 0.0012071, -0.0489290, -0.0923837, 0.0039180, 0.1093779, 0.0751370, -0.0235021, 0.0142426, 0.0107637, -0.0494049, 0.0633850, 0.0267873, -0.0635935, 0.0620484, 0.0140482, -0.0114475, -0.1047162, -0.0115159, 0.0198846, -0.1384810, 0.1230332, 0.0784500, -0.0599091, 0.0266162, -0.0317610, -0.0433600, 0.0480320, -0.0729705, -0.0879270, -0.0001501, -0.0506446, -0.0327072, -0.1289102, 0.0254926, 0.0019685, 0.0222930, -0.0769496, 0.0345189, -0.0245370, -0.0083957, -0.0888450, 0.0065865, 0.0321309, -0.0008988, -0.0053933, 0.0223561, -0.0189776, -0.0769363, -0.0508469, -0.0312945, -0.0490792, -0.0255500, -0.0946825, 0.0397532, 0.0382826, -0.0195999, -0.0412235, -0.0391317, 0.0397595, 0.0677020, -0.0645740, 0.0471051, 0.0362959, 0.0040780, -0.1197486, -0.0694057, -0.0440737, -0.0118380, 0.1090548, -0.1021454, -0.0954342, -0.0903223, 0.0053567, 0.0307627, -0.0545217, -0.0567423, -0.0176917, 0.0452572, -0.0658479, 0.0587160, 0.0493051, 0.0818776, 0.0121502, 0.0076186, -0.0163245, -0.0179950, 0.0477091, 0.0486158, -0.0521900, -0.0286356, 0.0431429, 0.0463993, -0.0793516, -0.0194352, 0.0242267, -0.0000235, -0.0557955, -0.0251036, -0.0273072, -0.0008155, -0.0682504, -0.0283073, 0.0090111, -0.0340576, -0.0348594, 0.0220742, 0.0445346, 0.0553300, 0.0444662, 0.0171212, 0.0885924, 0.0618243, 0.0693029, 0.0316580, 0.0585099, 0.0104805, -0.0658170, -0.0313046, 0.0189116, -0.0079794, -0.0748243, -0.0856503, -0.0261739, 0.0486068, 0.0167356, -0.0095404, -0.0323528, -0.0562609, 0.1234361, 0.0270571, 0.1176552, -0.0333710, 0.0318452, 0.0379588, 0.0775270, 0.0117738, -0.0136367, 0.0518649, -0.0472666, 0.0159146, -0.0397304, 0.0661527, 0.1134794, 0.0297301, -0.0314409, 0.0108941, -0.0423382, 0.1329849, -0.0768608, -0.0073616, 0.0594213, -0.0253658, -0.1024454, 0.0153154, 0.0453454, -0.0040397, 0.0185446, 0.0256975, -0.0235874, -0.0238388, 0.0577337, 0.0547274, 0.0222458, -0.0353567, 0.0410425, -0.0068623, 0.1417342, -0.0442766, 0.0602304, -0.0210312, -0.0486915, 0.0159788, -0.0962467, 0.0257938, -0.0188513, 0.0865232, -0.0214680, 0.0021852, -0.0018937, -0.0500405, -0.0038050, 0.0276303, -0.0349205, 0.0572172, 0.0140697, -0.0161946, -0.0440454, 0.0171015, 0.0159457, 0.0317278, -0.0008954, 0.1010565, 0.0350112, 0.0223759, 0.0606107, -0.0053133, 0.0387952, 0.0277846, 0.0234943, -0.0161023, 0.0477172, -0.0232893, -0.0083640, 0.0018260, 0.0065273, -0.0245275, 0.0091502, 0.0392114, -0.0030394, 0.0746740, 0.0377593, -0.0362732, -0.0350030, 0.0499544, -0.0197579, 0.0784632, -0.0090954, 0.0767008, -0.0572559, 0.0128869, 0.0443873, -0.0983360, -0.0282822, 0.0202037, 0.0384229, -0.0289793, -0.0376311, 0.0091058, 0.0398166, 0.0042702, 0.0113561, 0.0685850, -0.0379894, 0.0102523, 0.0683631, -0.0092936, 0.0349034, -0.0940149, -0.0047912, -0.0914875, 0.0144470, 0.0689989, 0.0311321, 0.0180714, -0.0923141, -0.0708394, -0.0087315, 0.0470407, -0.0240616, -0.0072282, -0.0117248, -0.0296240, -0.0440200, 0.0388533, -0.0322031, 0.0192918, 0.0112298, -0.0761680, -0.0435730, -0.0079488, 0.0781743, -0.1289987, 0.1093293, -0.0272521, -0.0085539, -0.0155950, 0.0183470, -0.0059753, 0.0212647, -0.0233939, -0.0212901, 0.0387713, -0.0199094, -0.0398628, -0.0947186, -0.0401242, 0.0098815, 0.0186658, -0.0777605, 0.1073163, -0.0824962, -0.0396417, 0.0469843, -0.0189585, 0.0175669, -0.0609645, -0.0120781, 0.0789103, 0.0931864, -0.0514166, 0.0774826, 0.1118087, -0.0231001, 0.0247072, -0.0478012, -0.0095142, 0.0478713, 0.0738325, -0.0602860, -0.0206377, -0.0318334, 0.0410106, 0.0451324, 0.0959656, 0.0180511, -0.0619874, 0.0101650, 0.0121945, -0.0335167, -0.0345261, -0.0129726, 0.0885039, 0.0473466, 0.0718035, 0.0264247, -0.0763348, -0.0471885, 0.0343994, 0.0526742, 0.0071383, -0.0290284, -0.0184480, 0.0146521, 0.0631490, 0.0292109, 0.0528145, 0.0276788, 0.0675909, -0.0400867, -0.0291250, -0.0380893, 0.0170941, -0.0183131, -0.0247687, -0.0935287, -0.0964277, -0.0491201, -0.0711782, -0.0148500, -0.0562797, 0.0448783, -0.0184990, 0.0435103, -0.0758285, -0.0459319, -0.1017240, 0.0947207, -0.0461360, 0.0297918, 0.0571993, 0.0172009, -0.0207385, 0.0521207, 0.0560262, -0.0008287, -0.0344483, -0.0215255, -0.0172537, -0.0007533, 0.0259744, 0.0605200, -0.0064451, 0.0176954, -0.0050725, -0.0381196, 0.0649324, -0.0246117, 0.0366112, -0.0205520, 0.0760637, -0.0109628, 0.1172517, -0.0581712, 0.0179219, 0.0992222, -0.0261793, 0.0286514, -0.0461318, -0.0690867, 0.0916302, -0.0766089, 0.1089759, 0.0480291, 0.0121204, -0.0631638, -0.0173186, 0.0491646, -0.0118801, -0.0737472, 0.0580305, 0.0263112, 0.0751831, -0.0095623, -0.0040909, 0.0943196, -0.0048764, 0.0246366, -0.0119720, -0.0727189, 0.1262935, 0.0112228, -0.0262953, 0.0333054, -0.0208708, 0.0071315, -0.0493819, 0.0739065, 0.0127992, -0.0004481, 0.0197772, -0.0228055, 0.1250322, 0.0547434, 0.0457920, 0.0267748, -0.0058812, -0.0347963, -0.0023394, 0.0394041, 0.1145159, -0.0104391, 0.0334201, 0.0205604, -0.0104433, -0.0360607, -0.0034321, -0.0205322, -0.0281795, -0.0132541, -0.0233729, -0.1378862, 0.0332175, 0.1329521, -0.0107042, 0.0714434, -0.0233765, -0.0559496, -0.0371410, -0.0925060, -0.0343215, -0.0616766, 0.0040720, -0.2064885, -0.0285378, 0.0479352, -0.0528319, 0.0060545, -0.0010446, 0.1091156, -0.0032292, 0.0976788, -0.0739355, 0.0098727, -0.0636133, -0.0435876, -0.0351808, -0.0698168, 0.0129820, 0.0695450, 0.0620915, 0.0457148, 0.0293401, -0.0757376, 0.0141652, -0.0306873, 0.0908469, -0.1222535, -0.0658919, -0.0181128, 0.0121659, 0.0126455, 0.0088136, 0.0392724, -0.0129885, -0.0086769, -0.1609743, -0.0729133, -0.0132075, -0.0251837, -0.0093649, 0.0100031, -0.0375439, -0.0052627, 0.0664213, -0.0392947, -0.0326423, 0.0114883, -0.0437649, 0.0694863, -0.0362049, -0.0537144, -0.0139095, 0.0052291, -0.0249591, 0.0235394, 0.0027131, 0.0035220, 0.0181363, 0.0444382, -0.0392541, 0.0644108, 0.0530725, -0.0553476, -0.0074771, -0.0472228, 0.0225177, -0.0652543, 0.0381048, 0.0136724, -0.1043215, 0.0566410, 0.0364374, 0.1013707, 0.0008012, 0.0804394, -0.0587189, -0.0026869, -0.0062022, -0.0013135, 0.0134368, 0.0145242, 0.0642913, -0.0205595, 0.0910622, 0.0917166, -0.0038823, 0.0402261, -0.0257809, -0.0311810, 0.0699405, 0.0198377, 0.0164525, -0.0293589, -0.0372838, 0.0440447, 0.0206683, 0.0476004, 0.0222682, -0.0650164, 0.0798304, 0.0592975, 0.0307826, 0.0523638, -0.0374462, -0.0500519, 0.0315977, -0.0337847, -0.0685467, -0.0364756, 0.0079651, 0.1120013, 0.0128231, -0.0006843, -0.0068966, -0.0107273, 0.0564503, -0.0401619, -0.0882510, -0.0097740, -0.0176472, -0.0341028, -0.1193057, 0.0496230, 0.0194471, -0.0543317, -0.0537221, -0.0056942, -0.0205659, -0.0388587, -0.0394668, 0.0736531, 0.0660072, 0.0436826, 0.0314145, 0.0266559, 0.0137359, 0.1080677, -0.0276481, 0.0351672, 0.0031616, -0.0383063, -0.0264044, -0.0124758, -0.0383121, 0.0223787, -0.0270710, -0.0612119, 0.0525987, 0.0263916, -0.0031627, 0.0162435, -0.0501529, 0.0819443, 0.0142152, 0.0318442, -0.0286710, 0.0365434, -0.0221740, -0.1154260, -0.0200773, 0.0551975, 0.0006025, -0.0328668, 0.0487354, -0.0373858, -0.0333021, 0.0153321, 0.0534193, 0.0139279, 0.0118549, 0.1884657, 0.0691759, 0.0161040, -0.0530614, -0.0217958, -0.0040763, 0.0235028, 0.0334708, 0.0625908, 0.0893776, -0.0940875, 0.0129930, 0.0530608, 0.0149788, -0.0368340, -0.0649389, -0.0679561, 0.0051139, -0.0268885, 0.0690981, -0.0726162, -0.0333333, 0.0209244, 0.0380458, 0.1208250, -0.0051764, 0.0385437, -0.0208304, 0.0259041, 0.0775839, -0.0276727, -0.0540487, -0.1033327, -0.0053545, -0.0137657, -0.1201850, 0.0622208, -0.1150391, 0.0142883, 0.0337649, -0.0512537, -0.0029382, -0.1004545, -0.0306677, 0.1347184, -0.0279261, 0.0328425, 0.0076801, 0.0469559, 0.0255852, -0.0262025, 0.0804031, 0.0281038, 0.0001943, -0.0675324, -0.0694179, -0.1238135, -0.0277769, 0.0027339, -0.0342549, -0.0014566, -0.0674039, 0.0514388, -0.0046666, -0.0327270, -0.0430387, 0.0291519, 0.0440938, -0.0338358, 0.0085208, 0.0876051, -0.0567796, 0.0122291, -0.0188899, -0.0105727, -0.0405249, 0.0283282, 0.0474775, 0.0137143, -0.0569320, -0.0871948, -0.0046883, -0.0693584, -0.0210964, 0.0084060, 0.0065324, 0.0162076, -0.0044173, -0.0030885, 0.0670789, 0.0096031, -0.0130052, -0.0290136, -0.0004472, 0.0195117, -0.0089108, -0.0870890, 0.0924022, 0.0690159, 0.0182810, -0.0182274, -0.0469477, -0.0032198, -0.0070245, -0.0417405, 0.0245992, -0.0027112, 0.0109693, 0.0978221, -0.0429684, 0.0054959, -0.0039325, 0.0801246, 0.0192100, 0.0311774, 0.0068960, 0.0584803, -0.0415500, 0.0457774, 0.0650166, -0.0008025, -0.0591315, 0.0226997, 0.0075975, -0.0434396, -0.0358634, 0.0418380, 0.0304277, 0.0220560, 0.0405735, -0.0300279, -0.0336645, -0.0593196, 0.0714610, 0.0673659, -0.0167190, 0.0186508, 0.0015717, -0.0088396, -0.0721507, 0.0144513, 0.0084096, -0.0223334, -0.0172484, -0.0800704, 0.0468721, 0.0046470, -0.0394290, -0.0235656, 0.0159218, -0.0314765, 0.0534149, -0.0547836, -0.0201894, 0.0491561, -0.1111488, 0.0953240, 0.0197108, -0.0486773, 0.0636155, 0.0214925, -0.0182656, 0.0407810, 0.0855991, 0.0139910, -0.0630979, 0.1576720, 0.0089971, 0.0217027, 0.0455891, 0.0240694, 0.0479178, 0.0514348, -0.0397496, -0.0013598, -0.1593728, -0.0246158, 0.0410562, 0.0256682, 0.0611134, -0.0398729, -0.0322008, 0.0931063, 0.0050394, 0.0085985, -0.1602492, -0.0934523, -0.0298028, -0.0357416, 0.0017973, -0.0947672, -0.0435067, -0.0160817, 0.0407581, 0.0101588, 0.0766648, -0.0205219, 0.0469635, -0.0624746, -0.0303946, -0.0449173, 0.0648509, -0.0147101, 0.0095877, 0.1318649, -0.0570866, -0.0786973, 0.0176165, -0.0286672, -0.0310383, -0.0790079, 0.0080500, -0.0082401, -0.0139098, 0.0062439, -0.1209932, 0.0455732, -0.0406185, 0.0463335, -0.0584326, -0.0059834, 0.0410673, 0.0403326, 0.0058076, 0.0126167, -0.0360623, 0.0323647, 0.0303548, -0.1000880, 0.0817289, 0.0456526, 0.0010510, 0.0282259, 0.0549390, 0.0761837, 0.0228446, 0.0139167, -0.0242247, -0.0705661, 0.0772999, 0.0810132, 0.0749739, 0.0384011, -0.0773779, -0.0011297, -0.0350102, -0.0370345, 0.0353494, -0.0242289, -0.0000651, -0.0506781, 0.0062058, -0.0066324, -0.0216376, -0.0139890, -0.0207762, 0.0143856, 0.0286373, -0.0373830, -0.0302172, -0.0744057, 0.0111821, -0.0942144, -0.0110042, 0.0398414, 0.0142227, -0.0191763, -0.0204893, -0.0036026, 0.0238068, 0.0684088, -0.0454251, 0.0170271, 0.0097752, -0.0223261, 0.0198293, 0.0003135, -0.0051233, -0.0761476, 0.0257678, 0.0436500, 0.0076522, 0.0354088, -0.0052939, -0.0146062, -0.0069285, -0.0450123, -0.0422805, -0.0328761, 0.0205535, -0.0624320, -0.0537768, 0.0064201, 0.0016624, 0.0584494, -0.0001653, -0.0142981, -0.0309825, 0.0888113, -0.0414499, 0.0220314, -0.0479080, 0.0440235, 0.0321502, 0.0385062, 0.0139175, -0.1116095, 0.0871097, 0.0967467, -0.0199835, 0.1801146, -0.1295711, -0.0109827, 0.0842282, -0.0540599, 0.0051051, 0.0419766, 0.0959632, 0.0223957, -0.0567582, -0.0361698, 0.0974575, -0.0298605, 0.1301905, 0.1490379, 0.0653602, -0.0718694, -0.0479179, 0.0225054, -0.0438010, 0.0126863, -0.0058557, -0.0565310, -0.0069854, -0.0887443, 0.1037988, 0.0761265, -0.0718274, -0.0341235, -0.0288217, 0.0343657, -0.0292940, 0.0488291, 0.0088549, -0.0603227, -0.0680389, 0.0648176, -0.0277954, -0.0295533, 0.0089303, -0.0077739, -0.0344687, -0.0300003, 0.0225543, -0.0146748, 0.1003962, 0.0328150, -0.0212051, -0.0510265, 0.0455658, 0.0320213, 0.0115557, 0.0711594, -0.0174407, -0.0415917, -0.1081252, -0.0048185, -0.0226718, -0.0256990, 0.0400055, 0.0217240, -0.0520226, -0.0014352, -0.0773043, -0.0729598, 0.0279053, -0.0821963, -0.0472267, 0.0382867, 0.0381606, -0.0502632, -0.0308351, 0.0246871, -0.0353248, -0.0257059, 0.0400329, -0.0142442, 0.0580634, 0.0150141, 0.1105992, 0.0915843, -0.0685181, 0.0385259, 0.0256561, -0.0503226, -0.0392643, 0.0707580, -0.0777486, -0.0841861, -0.0556115, -0.0706817, -0.0340885, 0.0210827, 0.0463717, 0.0158853, 0.0147263, -0.0090732, 0.0342293, -0.1190878, 0.0428234, 0.0234208, -0.0221875, 0.0467112, 0.0770070, 0.0843496, -0.0571090, 0.0239492, -0.0044610, 0.0053641, 0.0433296, -0.0676054, -0.0420887, 0.0712031, 0.0229439, -0.0296007, -0.1566968, 0.0270260, 0.0309377, -0.0203066, -0.0447744, 0.0821633, -0.0759162, 0.1188259, 0.0508486, 0.0034820, 0.0005439, -0.0065942, 0.0091334, 0.0443157, 0.0935394, -0.0226488, -0.0277755, -0.0225031, 0.0414265, -0.0365911, -0.0719781, 0.0477415, -0.0196389, 0.0006415, 0.0467576, -0.0438718, 0.0148911, -0.0369321, -0.1215324, -0.0051084, 0.0310672, -0.0091492, -0.0598033, 0.0800878, 0.0492522, -0.0330285, 0.1328612, -0.0220320, -0.0524809, 0.0204357, -0.0194312, -0.0035343, -0.0308155, 0.0281744, 0.0826264, 0.1192734, 0.0176150, 0.0312868, 0.0264311, -0.0124762, 0.0366364, 0.1323257, -0.0351426, -0.0508415, 0.0169806, -0.0148072, -0.0645879, 0.0933028, -0.0359729, 0.0291931, 0.1038502, 0.0142826, -0.0333950, 0.0474803, -0.0250838, -0.0373363, -0.0009838, 0.1349648, -0.0854382, -0.0747620, -0.0551514, -0.0754838, -0.0262181, -0.0538617, -0.0085337, -0.0405863, 0.0112947, -0.0440839, -0.1181675, 0.0715661, -0.0253748, 0.0523165, 0.0229673, -0.0495971, 0.1025429, -0.0754817, 0.0671644, 0.0498401, -0.0453020, -0.0031213, -0.0066240, 0.0018188, -0.0387372, -0.0519708, -0.0302370, 0.0546860, -0.1298315, 0.0201820, -0.0301203, 0.0218282, -0.0550372, -0.0529113, -0.0275435, -0.0753272, 0.0208814, -0.0129182, -0.0127248, 0.0062739, 0.0230095, 0.0141332, 0.0228924, 0.0139040, 0.0192382, -0.0258511, -0.0263416, -0.0543357, -0.0086398, -0.0414592, 0.0421070, 0.0157529, 0.0111929, 0.0113444, -0.0006735, -0.0177455, 0.0155889, 0.0011678, 0.0467085, 0.0747470, -0.0518487, -0.0692406, 0.0277108, -0.0768445, 0.0008749, -0.1111920, 0.0347906, 0.0020595, 0.0321027, -0.0135230, 0.0030181, -0.0072559, 0.0635311, -0.0121678, -0.0209061, 0.0090436, -0.0297352, 0.0542531, 0.0347844, 0.0204773, -0.0760615, -0.1007398, 0.0372209, 0.0689146, -0.0003088, 0.0500753, 0.0015438, -0.0211623, 0.0178850, 0.0148956, -0.0208840, 0.0498199, 0.1025446, 0.0291407, -0.0165363, -0.1020531, 0.0514714, -0.0083353, -0.0001898, 0.0548728, 0.0676244, 0.0013718, 0.0415887, -0.0237570, 0.0660153, -0.0318899, 0.0449662, 0.0113893, 0.0673895, -0.0000862, 0.0449117, 0.0392166, 0.0039006, -0.0195918, 0.0659564, -0.0096347, 0.0089696, 0.0700047, -0.0809869, 0.0588624, 0.0014051, -0.0043892, 0.0208942, -0.0435828, 0.0215884, 0.0472000, -0.0799199, 0.0596775, 0.0794697, 0.0814997, 0.0164201, -0.0974612, 0.0397914, 0.0174119, -0.0304153, 0.0650433, -0.0029149, 0.0094610, -0.0046658, 0.0095997, -0.0563008, -0.0238786, 0.0020118, 0.0567093, 0.0716276, 0.0094577, -0.0450337, -0.0429116, -0.0138614, 0.0357130, -0.0303119, -0.0266460, -0.0480191, 0.0630211, -0.0032536, 0.0553492, 0.0548292, 0.1200637, 0.0277535, 0.0281211, 0.0729469, 0.0878900, 0.0593449, -0.0074617, 0.0171902, -0.0582050, 0.0945266, 0.0189505, 0.0012186, -0.0313450, 0.0123375, -0.0233728, -0.1008426, -0.0680173, -0.0443108, -0.0145756, 0.0064655, -0.0091611, -0.0188792, -0.0012542, -0.0274985, 0.0180492, 0.0458859, -0.0909010, -0.0212166, -0.0381829, 0.0040192, 0.0562088, -0.0514792, 0.0086353, -0.0466374, 0.1555353, -0.0110975, -0.0077095, -0.0009660, 0.0331220, -0.1019871, 0.0207806, 0.0194234, 0.0233584, -0.0161011, 0.0711713, -0.0836706, -0.0277759, 0.1744408, 0.0567996, 0.0727108, -0.0438744, 0.0771650, 0.0414483, 0.0137320, 0.0018126, 0.0218623, -0.0014710, 0.0046357, -0.0142599, -0.0148090, 0.0940261, -0.0318035, 0.0445660, 0.0780123, 0.0657112, 0.0275248, -0.0592474, -0.0126360, -0.0179318, 0.0491584, -0.0225284, -0.0759875, 0.0393179, -0.0145855, 0.0000404, -0.0188757, -0.0460200, -0.1240723, 0.0540325, 0.0533216, 0.0812383, 0.0355681, -0.0461136, 0.0958876, 0.0389900, -0.0443903, -0.0612547, -0.0329163, -0.0962031, 0.0417833, 0.0421764, 0.0283904, -0.0328664, 0.0198288, -0.0487315, 0.0610736, 0.0905175, -0.0042933, -0.0420221, 0.0366453, 0.0173951, 0.0112325, -0.0041139, 0.0317054, -0.0591159, 0.0225861, -0.1041200, 0.0342842, -0.0406356, -0.0246694, -0.0181720, -0.0086381, -0.0841268, -0.0451909, -0.0303659, 0.0649180, -0.0554095, 0.0572655, -0.0865620, -0.1088335, -0.0266263, 0.0556885, 0.0480715, 0.0959606, 0.0505212, 0.0738372, 0.0358994, 0.0467050, 0.0093175, 0.0891263, -0.0311108, 0.0134690, -0.0099199, 0.0101523, 0.0055310, 0.0850010, 0.0033767, 0.0237154, -0.0093352, 0.0150832, 0.0274191, -0.0631200, 0.0114088, -0.0302128, -0.0678002, -0.0637549, -0.0318984, 0.0140641, -0.0357566, 0.0231944, -0.0099950, -0.0563145, 0.0284155, 0.0351409, 0.0937262, 0.0448319, 0.0063449, 0.0032245, -0.0022226, -0.0950637, 0.0415765, 0.0328233, 0.0537402, 0.0295566, -0.0920575, 0.0499246, 0.0670298, -0.0461634, -0.0737643, -0.0182694, -0.0580624, -0.0367348, -0.0642060, 0.0479039, 0.0472904, -0.0539135, -0.0147082, 0.0426291, 0.1132937, 0.0243072, 0.0725261, -0.0186980, -0.0269743, 0.0114581, -0.0956769, 0.0233651, -0.0895498, 0.0351120, -0.0709719, 0.0558117, 0.0864637, -0.0304338, -0.0125797, 0.0510053, 0.0063517, 0.0366571, 0.0639717, -0.0813242, 0.0353161, 0.0035149, -0.0719879, 0.0110198, -0.0054377, 0.0523830, -0.0374879, -0.0134561, 0.0450529, -0.0363647, 0.0257639, 0.0315467, 0.0049821, 0.0357650, -0.0224986, -0.0120646, 0.0447891, 0.0201382, -0.0311424, -0.0378374, -0.0787628, -0.0367660, 0.0494870, 0.0630780, -0.0336447, 0.0232673, -0.0389719, 0.0684337, -0.0206223, -0.0661421, 0.0200004, -0.0596391, 0.0106382, 0.0660154, -0.0178634, 0.0017948, 0.0581811, 0.0264355, 0.0104749, 0.0068505, 0.0631448, 0.0311489, 0.0197010, -0.0744272, 0.0143860, 0.0217522, -0.0698358, 0.0060911, -0.0540657, -0.0240809, -0.0447308, -0.0440515, -0.0083360, 0.0238091, -0.0479051, 0.0166468, 0.0854205, 0.0362180, 0.0591362, -0.0566914, -0.0530620, -0.0174121, -0.0481605, -0.0081991, 0.0184232, -0.0283649, 0.0060362, -0.0596686, 0.0148843, -0.0107222, -0.0544052, 0.0548868, 0.0367603, 0.0494023, 0.0197959, -0.0022065, -0.0090203, 0.0246724, -0.0457949, -0.0054493, -0.0066672, -0.0314421, -0.0959722, 0.0678760, 0.0177082, 0.0210511, 0.0011657, 0.0381496, -0.1925315, 0.0894626, -0.0522909, -0.0118322, 0.0195121, -0.0034693, 0.0620937, 0.0265361, 0.0012822, 0.0242546, -0.0140607, -0.0601626, 0.0627059, 0.0039060, -0.0141437, -0.0198643, 0.0420396, 0.0369597, 0.0380351, -0.0104147, -0.0502538, -0.1254696, -0.1259898, 0.0277159, -0.1008755, 0.0350423, -0.0551200, 0.0148204, -0.0318281, -0.0320131, -0.0094664, -0.0216554, 0.0337913, -0.0120990, -0.0132770, 0.0214550, 0.0293061, -0.0349547, 0.0479318, -0.0366330, 0.0356635, 0.0325519, -0.0115500, -0.0279913, -0.0358591, -0.0159712, 0.0864600, -0.0216081, -0.0149761, -0.0470596, -0.0237209, -0.0454954, 0.0480357, -0.1185128, 0.0333904, 0.0771346, 0.0644060, 0.0284848, -0.0935854, 0.0025915, 0.0100521, 0.0254174, 0.0155263, 0.0058733, -0.0091652, -0.0152121, 0.0369945, -0.0246185, 0.0158015, 0.0642588, -0.0317848, -0.0234846, 0.0074433, -0.0909716, -0.0681442, -0.0965270, 0.0464015, -0.0258555, -0.0145377, 0.0724312, 0.0425568, -0.0243709, 0.0790838, -0.0138557, -0.0997054, 0.0927023, 0.0828392, -0.0615878, -0.0108643, 0.1049132, -0.1410835, 0.0445681, -0.0141139, 0.0415436, 0.0287129, 0.0028510, 0.0354527, 0.0503733, 0.0848790, 0.0360700, 0.0251879, -0.0823399, -0.0260464, -0.0636796, -0.0221539, -0.0215775, 0.0484342, -0.0193295, -0.0029984, 0.0006882, 0.0228922, 0.0365077, -0.0113609, -0.0738540, 0.0894291, -0.0142176, 0.0222106, -0.0321565, -0.0414903, 0.0026989, -0.0067071, -0.1207530, -0.0030212, 0.0497487, -0.0115403, 0.0072028, -0.0320432, 0.0591815, -0.0593837, -0.0192845, -0.0186913, -0.0372079, -0.0437145, 0.0730620, 0.0469578, 0.0017698, 0.0606394, 0.0095341, 0.0079819, -0.0083226, 0.0009936, 0.0095011, -0.0104658, 0.0143284, -0.0112512, -0.0543372, -0.0125006, 0.0075635, -0.0291677, 0.0604649, 0.0467717, -0.0565150, -0.0536358, -0.0806524, -0.0208303, 0.0137053, -0.0689496, -0.0998493, -0.0171567, -0.0095315, -0.0357659, -0.0025034, -0.0573278, -0.0148391, 0.0044281, -0.0403648, 0.0433951, 0.0827760, 0.0866967, 0.0592756, 0.0453070, 0.0373718, -0.0060390, 0.0801600, -0.0675943, 0.0647243, 0.1020111, -0.0056323, 0.0431373, -0.0231810, -0.0149352, -0.0464703, 0.0162211, -0.0647396, -0.0766501, -0.0647834, 0.0369839, 0.0606166, -0.0782979, -0.0558222, 0.0096003, 0.0650402, 0.0010891, -0.0155697, -0.0126634, -0.0043627, 0.0305699, -0.0929147, -0.0231749, -0.0053511, -0.0259141, -0.0345702, 0.0196019, -0.0798670, -0.0885136, -0.1247139, -0.0184867, -0.0562841, -0.0697863, 0.1182526, 0.0621678, -0.0188343, -0.0180205, 0.0251291, 0.0353565, 0.0420934, 0.0786380, 0.0338852, -0.0079806, 0.0299521, 0.0343512, 0.0250064, 0.0241238, -0.0252563, 0.0348330, 0.0275392, -0.0047283, 0.0172936, 0.0958629, -0.0931096, 0.0718707, -0.0057524, -0.0709469, -0.0372186, 0.1124233, -0.1149372, -0.0466143, 0.0994835, -0.0332894, -0.0145916, -0.0379854, -0.0459198, 0.0005186, -0.0062030, -0.0662407, -0.0431549, -0.0146753, -0.0144185, -0.0752243, -0.0073750, 0.0178598, 0.0570401, -0.0320042, -0.0259141, -0.0693698, 0.0136792, 0.0717808, -0.0450154, 0.0796629, 0.0319544, 0.0238321, -0.0477313, -0.0603891, -0.0047433, 0.0283656, 0.1184046, -0.0189550, 0.0077500, 0.0402876, -0.0746552, -0.0473299, 0.0362876, -0.0661338, -0.0717745, -0.0019388, -0.0459873, -0.1008067, 0.0461259, 0.0392094, 0.0003951, -0.0214977, 0.0239617, 0.0051995, 0.0830589, -0.0076322, 0.0295549, -0.1345652, 0.1037108, 0.0268948, 0.0388385, -0.0329712, 0.0155120, -0.0159298, 0.0268125, -0.0088454, -0.0555658, 0.0126730, 0.0029139, 0.0421763, -0.0013078, 0.0314172, 0.0352462, 0.0038356, -0.0084999, 0.0452804, 0.0090251, -0.0120522, -0.0657269, 0.0075454, -0.0693536, -0.0044436, 0.0209372, 0.0537167, 0.0028082, 0.0180864, -0.0082056, 0.0227249, 0.0333176, -0.0989749, -0.0437157, -0.0162002, 0.0135660, -0.0288779, 0.0025835, -0.1527217, -0.0603437, 0.0570994, 0.0321902, -0.0812913, 0.0680250, 0.0243775, 0.0127948, 0.0860647, -0.0892710, 0.0287589, 0.0563981, -0.1717218, 0.1315973, 0.0189094, -0.0659745, -0.0020884, -0.0621157, -0.0173987, -0.0161750, 0.0161103, 0.1072909, 0.0084135, 0.0722561, 0.0271244, -0.0622431, -0.0236272, -0.0169356, 0.0066253, -0.0632932, 0.0220491, -0.0293787, -0.0054146, -0.0381053, 0.0619211, -0.1087269, 0.0023127, 0.0026403, -0.0241602, 0.0174278, -0.0155136, -0.0477213, 0.0933148, 0.0653807, -0.0059443, -0.0570058, 0.0242858, -0.0268354, 0.1870137, -0.0705394, 0.0367149, 0.0443176, -0.0514838, 0.0242320, 0.0056402, -0.0068976, -0.0286909, -0.0042451, 0.0441404, 0.0587839, 0.1589566, -0.0170771, -0.0386272, -0.0638594, 0.0175778, 0.0395577, -0.0098475, 0.0171096, -0.0269469, 0.0046321, -0.0049975, 0.0478372, 0.0659796, 0.0052564, -0.0118810, -0.0508745, 0.0273537, -0.0666457, -0.0136800, 0.0077900, 0.0420162, -0.0055861, -0.0104963, 0.0006483, 0.0044737, -0.0648378, 0.0417794, 0.0418159, -0.0451810, 0.0691141, 0.1337216, -0.0888218, 0.0836177, 0.0169647, -0.0492703, -0.0716805, -0.0826897, 0.0501346, -0.0736917, 0.0524345, -0.0483828, -0.0136825, 0.0356095, 0.0204681, -0.0571668, -0.0049297, -0.0064777, 0.0347769, -0.0114989, 0.0674848, -0.0481567, 0.0027500, -0.0175655, -0.0379908, 0.0379624, -0.0448004, -0.0562294, -0.0024734, 0.0076757, -0.0748205, 0.0480733, -0.0414604, 0.0343381, -0.0155583, 0.0376749, 0.1108418, -0.0070994, -0.0303075, -0.0776668, 0.0110991, -0.0168609, -0.1252251, -0.1282881, -0.1596507, -0.0587136, -0.0433300, 0.0534168, -0.0272733, 0.0965656, 0.0420186, 0.0195169, 0.0618218, 0.0142925, -0.0614791, -0.1121381, 0.0110201, -0.0421817, -0.0648579, -0.0637458, -0.0078196, -0.0269520, -0.0269524, 0.0244311, 0.0535276, -0.0204628, 0.0270206, -0.1747040, 0.0369643, -0.0214931, 0.0131117, -0.0688537, -0.1153559, 0.0014574, -0.0488309, 0.1043703, -0.0663843, 0.0438127, 0.0131838, -0.1474732, 0.0004203, -0.0966486, 0.0130067, 0.0003103, -0.0615701, -0.0581267, -0.0444913, -0.0223099, 0.0313876, 0.1199732, 0.0643279, 0.0507835, 0.0582205, -0.0254387, 0.0124158, -0.0320771, -0.0020102, 0.0401796, -0.0329442, -0.0376917, 0.0775885, 0.0031871, 0.0370167, -0.1271216, -0.0091509, 0.0473371, -0.0266730, -0.0222111, 0.0331721, -0.0273113, 0.1067946, 0.0450350, -0.0419775, 0.0837779, -0.0079595, -0.0219095, -0.0749682, -0.1283634, 0.0391423, 0.0259471, -0.0632851, -0.0206715, -0.0479620, -0.0093807, -0.0568607, -0.0262259, -0.0260948, -0.0080547, 0.0322208, -0.1131981, -0.0208659, -0.0480725, -0.0948727, 0.0330425, 0.0146925, -0.0217625, 0.0960952, -0.1105673, -0.0499898, -0.1149639, -0.0539753, -0.0394918, 0.0229167, -0.0643418, 0.0027765, -0.0524534, 0.0264150, -0.0560154, 0.0452498, -0.0039080, 0.0573945, 0.0099094, -0.0576251, -0.0479550, -0.0254885, 0.0249245, -0.0528349, -0.0764830, -0.0341703, -0.1237520, 0.0381588, 0.0507444, -0.1282282, 0.0222516, -0.0684286, 0.0121207, 0.0309184, 0.0968230, -0.1333609, 0.0893335, -0.0356343, -0.0213665, 0.0005629, 0.1191776, 0.0115475, -0.0137212, -0.0088251, -0.0659446, 0.0466287, 0.0086099, -0.0892735, -0.0592399, -0.0125489, 0.0620064, -0.0376381, 0.1087448, -0.0034329, 0.1268982, 0.0674848, -0.0319817, 0.0843401, 0.0435714, -0.1006027, 0.0521906, 0.0363415, 0.0174927, 0.0282875, -0.0042768, 0.0918061, -0.0414303, -0.0956499, -0.0476674, -0.0026953, -0.0637401, 0.0236092, -0.0144003, 0.0505840, 0.0555937, 0.0578005, -0.0626503, 0.0432532, 0.0809326, 0.0051619, -0.0671892, 0.0420421, 0.0136496, -0.0220025, -0.0310295, -0.0435688, -0.0046504, 0.0279132, 0.0092396, 0.1007272, 0.0362985, 0.0047662, -0.0209606, -0.0038684, 0.0074466, 0.0005155, 0.0318413, -0.0541280, -0.0074536, 0.0014834, -0.0021756, 0.0130286, -0.1104392, 0.0088800, -0.0238522, -0.0046300, 0.0765991, -0.0549750, -0.0124783, 0.0287115, 0.0431860, -0.0194415, -0.0753521, 0.0092993, -0.0662852, 0.0573851, 0.0340755, 0.1211076, -0.0685399, -0.1063918, 0.0149019, 0.0258589, -0.0181129, 0.0744297, 0.0530410, -0.0107166, -0.0580632, -0.0663784, -0.0210790, 0.0058353, -0.0656105, -0.1457508, 0.0383643, 0.0208774, 0.0399352, 0.0095900, 0.1022912, 0.0226557, 0.1030304, 0.0013295, 0.0003749, -0.0515590, -0.0342150, -0.0387399, 0.0482835, -0.0513472, -0.0149143, 0.1065936, -0.0160562, 0.0996173, -0.0462883, 0.0991598, -0.0558660, -0.0244182, -0.0341983, -0.1493111, -0.0462892, -0.0271108, -0.0117575, -0.0403389, -0.0993622, 0.0007029, -0.0273959, -0.0997889, 0.0924266, -0.0040295, 0.0547743, -0.0252714, -0.0839392, 0.0390348, -0.0414488, 0.0353290, 0.0430365, 0.0505419, -0.0212157, 0.0108876, -0.0544555, 0.0567465, -0.0341520, -0.1056555, 0.0841591, 0.0411013, -0.0302396, 0.0306293, 0.0586679, 0.0467764, 0.0104851, 0.0024110, 0.0293424, -0.0048883, -0.0167922, -0.0266876, -0.0500711, 0.0600767, -0.0372257, 0.0006231, -0.0199533, -0.1013748, -0.0265101, -0.1078640, -0.0393492, 0.0154275, 0.0777767, 0.0336000, -0.0538212, 0.0296366, 0.0774837, -0.0074413, 0.0218268, 0.0802048, 0.0089745, -0.0182790, -0.0139566, -0.1017766, -0.0165877, -0.0427622, 0.0927970, -0.0426301, 0.0546489, -0.0212762, 0.0738830, -0.0941474, -0.1138516, 0.0831297, 0.0315385, 0.0373504, 0.0241259, -0.0272745, 0.0342057, 0.0819224, -0.0391855, 0.0185348, -0.0527090, 0.1110419, -0.0462073, -0.0166445, 0.0783398, 0.0956760, 0.0041183, 0.0277653, -0.0343780, 0.0299167, -0.0193879, -0.0384984, 0.0355678, -0.0468012, 0.0263280, 0.0375924, -0.0097688, 0.0033037, 0.0095810, -0.0392191, -0.0236545, 0.0170338, 0.0499139, 0.0008832, -0.0839595, -0.0309797, 0.0103145, -0.0034658, -0.0092172, 0.0012970, 0.0375019, 0.0321492, 0.0282656, -0.0368552, -0.0017117, -0.0631121, 0.0072186, -0.0097014, -0.0983574, -0.0096904, -0.0175754, 0.0815979, 0.0707947, 0.0462596, 0.0072639, 0.0191980, 0.0136581, 0.0322383, 0.1115089, -0.0061096, -0.0410136, -0.0533542, -0.0153465, -0.0184975, -0.0575000, 0.0130153, -0.0097271, 0.0027507, 0.0684707, 0.0083823, 0.0267173, -0.0269431, 0.0235478, 0.0415099, 0.0069846, -0.0265009, 0.0614650, -0.0387379, 0.0021514, -0.0274472, 0.0097231, -0.0479707, -0.0222445, -0.0458711, -0.0412116, 0.0079850, 0.0513461, 0.1325762, 0.0105391, 0.0042095, 0.0075734, -0.0744984, 0.0194382, 0.0011787, 0.0023478, 0.0221508, -0.1196985, 0.0137475, 0.0884896, -0.0683937, 0.0482405, -0.0405097, -0.0028546, -0.1402454, -0.0106605, -0.0410943, -0.0335660, 0.0067893, 0.0743579, 0.0451528, 0.0008157, -0.0762752, -0.0031309, 0.0277191, 0.0087801, -0.0267427, 0.0327709, -0.0413935, -0.0687376, 0.0752880, -0.0386965, 0.0128924, -0.0345223, -0.0418793, 0.0295941, -0.1128431, 0.0074937, -0.0657452, -0.0016232, -0.0957443, 0.0051236, -0.0413340, -0.1757481, -0.0294017, -0.1280074, 0.0684221, 0.0484011, 0.0530678, 0.0177188, 0.0974642, 0.0421923, 0.0553260, -0.0611914, -0.0458677, 0.1343509, 0.0412560, 0.0242550, -0.0133606, -0.0689153, -0.0972584, -0.0078789, -0.0050131, 0.0092314, 0.0701500, -0.0731828, 0.0168090, 0.0740737, 0.0587612, 0.0191133, 0.0433762, 0.0253741, -0.0282286, -0.0152897, -0.2093766, 0.0054971, -0.0644447, -0.1182069, 0.0253818, -0.1154114, -0.0444915, -0.0446032, 0.0188980, -0.0383050, 0.0430113, -0.0152896, -0.0924309, 0.0027976, -0.0340745, 0.0471880, -0.0626850, -0.0252252, 0.0162735, -0.0929662, 0.0651348, 0.1892220, 0.0175863, 0.0090348, -0.0397290, 0.0665727, 0.0272696, -0.1109156, 0.0631119, 0.0545114, 0.0090116, 0.0306788, 0.0419741, 0.0436713, 0.0620968, -0.0076535, 0.0295309, -0.0835038, -0.1015448, 0.1338546, -0.0060441, 0.0603363, 0.0147076, -0.0548106, -0.1084712, -0.0430830, -0.0371159, 0.0221183, -0.0380849, 0.0262962, -0.0303157, -0.0436099, 0.0200792, -0.0424069, -0.0761117, -0.0518273, 0.0390482, 0.0212953, -0.0482958, 0.0328788, 0.0425532, 0.0561101, -0.0302272, 0.0068831, 0.0303279, 0.1055540, 0.0094739, -0.0422528, -0.0174545, 0.0075100, 0.0937434, -0.0178689, -0.0996076, -0.0352746, -0.0407901, -0.0220793, 0.0074199, 0.0569322, -0.0748542, -0.0577019, 0.0278500, 0.0762891, -0.0606632, 0.0105652, -0.0201741, 0.0011119, -0.0373783, 0.0890518, -0.0019207, -0.0120669, -0.0743940, -0.0535604, 0.0562966, 0.0164532, 0.0008863, -0.0233345, 0.1120829, -0.0255737, -0.0619378, -0.0466906, 0.0344090, -0.0042698, -0.0515275, 0.0065008, -0.0091563, 0.0792836, 0.0075811, 0.0208395, 0.0013788, -0.0634387, 0.0271119, -0.0905205, 0.1044383, 0.0403571, -0.0211968, 0.0161628, -0.0395831, -0.0575850, -0.0935465, 0.0219002, 0.0066524, -0.0176533, -0.0279188, 0.0690615, -0.0617686, 0.0684603, -0.0239190, -0.0512328, -0.0377345, -0.0253721, 0.0406569, 0.0172795, 0.0006008, -0.0650873, 0.0167221, -0.0865888, 0.0014501, 0.0173517, -0.0845012, 0.0400745, -0.0233827, -0.0354063, 0.0052601, -0.0060638, 0.0055532, -0.0030228, 0.0398223, -0.0881193, -0.0101602, -0.0206295, 0.0217784, 0.0254601, 0.0953395, 0.0362695, -0.0636413, -0.0212955, 0.0034657, -0.0933476, 0.0028617, -0.0588016, -0.0243493, -0.0357330, 0.0924031, -0.0156544, -0.0310313, -0.0330948, 0.1035208, 0.0105490, -0.0155130, 0.1845753, 0.0475306, 0.0042742, 0.0300562, 0.0418581, 0.0051776, -0.1406899, 0.0340040, -0.0417642, -0.0356576, -0.0008905, -0.1183031, -0.0082673, -0.0412666, -0.0291986, 0.0690130, 0.0055385, 0.0597778, -0.0310695, 0.0148366, 0.0384580, 0.0256529, 0.0148679, -0.1411841, 0.0494709, 0.0177876, -0.0118318, -0.0346925, 0.0339761, 0.0041381, 0.0208452, -0.0287241, -0.0278475, 0.0140755, 0.0038697, -0.0331265, 0.0182740, 0.0027429, 0.0201629, 0.0468063, 0.0505717, 0.0353326, -0.0103097, -0.0919565, 0.0043990, 0.0629525, -0.0087225, -0.0587915, -0.0783311, -0.0275203, -0.0293809, 0.0783412, -0.0627226, 0.0505428, -0.0589514, 0.1012042, 0.0050974, -0.0866733, 0.0206040, -0.1477094, -0.0026406, 0.0789837, 0.0171349, 0.0596146, 0.0593592, 0.0558505, -0.0791179, -0.0617236, -0.0762064, 0.0615154, 0.0174630, -0.0537617, -0.0193600, -0.1275179, -0.0692107, 0.0281355, -0.1238865, 0.0269487, 0.0248006, 0.0538215, 0.0530883, 0.0453647, -0.0001164, 0.0829900, 0.0342511, 0.0615299, 0.0448813, 0.0048390, 0.0069587, -0.0688317, -0.0538408, -0.0519909, -0.0593523, -0.0349324, -0.0253272, 0.1546754, 0.0124191, 0.0042536, 0.0388456, 0.0119295, -0.0208338, -0.0084919, 0.1172002, -0.1546845, 0.0976088, -0.0012558, -0.0029194, -0.0022705, -0.0116547, -0.0116969, 0.0960467, -0.0304456, 0.0363825, 0.0505639, 0.0098751, 0.0039391, -0.0369832, -0.0520751, -0.0133631, 0.0531676, -0.0436971, 0.0177933, -0.0210071, 0.0444598, -0.0417908, 0.0519009, -0.0237002, 0.0798973, 0.1309015, 0.0655424, -0.0175693, -0.0510213, 0.0021607, -0.0411137, -0.0400669, 0.0879376, 0.0322756, -0.0624372, -0.0908872, 0.0979903, 0.0044468, 0.0003941, 0.0135977, -0.0146773, 0.0000204, -0.0755452, 0.1524428, 0.0658848, -0.0135249, 0.0471627, 0.0330271, 0.0670274, 0.0000166, -0.1024510, 0.0259603, 0.0661177, 0.0489273, -0.0941381, -0.0150217, -0.0080103, -0.0404741, 0.0069728, 0.0021388, 0.0800763, -0.0152637, 0.0281358, 0.0038869, -0.0345776, -0.0141563, -0.0840236, -0.0197365, -0.0318049, 0.0283722, 0.0292762, -0.0536832, -0.0416191, -0.0740760, -0.0342779, -0.0056821, 0.0915408, -0.0024010, 0.0052667, 0.0668011, -0.0741172, -0.0041574, 0.0403719, 0.0422103, -0.0686099, 0.0774420, -0.0397722, 0.0156680, 0.0418097, 0.0279898, -0.0364687, 0.0334230, -0.0112879, 0.0614681, 0.1244270, 0.0092830, 0.0296774, 0.0835441, -0.0043179, -0.0326589, 0.0340833, 0.0682935, 0.0675771, -0.1263079, 0.0254937, 0.0390628, -0.0372033, 0.0830204, -0.0040169, -0.0672942, -0.0245330, -0.0020366, 0.0069667, 0.0343822, -0.0204760, -0.0213293, -0.0967740, -0.0277092, -0.0348093, -0.0414726, -0.0921928, 0.0032803, 0.0543913, -0.0120633, -0.1751073, 0.0018398, 0.1124173, -0.0186828, -0.1181611, 0.0431191, -0.0688104, -0.0227511, 0.0564006, -0.0336770, 0.0218773, -0.0072785, -0.0510672, 0.0285793, 0.0068406, -0.1019144, -0.0398242, 0.1400250, -0.0640951, -0.0192448, -0.0456626, 0.0118489, 0.0305358, -0.0186233, -0.0497212, -0.0126087, 0.0709616, 0.1516171, -0.0258462, -0.0702639, -0.0101557, 0.0602264, 0.0289014, 0.0362085, 0.0113289, 0.0188942, 0.1561969, 0.0177027, -0.0163821, -0.0063733, -0.0403729, -0.0789987, -0.0583797, -0.0238567, 0.0973593, -0.0163257, -0.0237516, 0.0072931, 0.0296010, -0.0403225, -0.0043669, 0.0831706, -0.0684828, -0.1455389, 0.0118639, -0.0853553, -0.0236950, 0.0817078, -0.0295521, -0.0169568, 0.0488438, 0.0508327, 0.1182634, -0.0472622, 0.0238910, 0.0729351, -0.0074506, -0.0222216, 0.0793411, -0.0040702, 0.0215646, -0.0097917, -0.0433490, -0.0036313, -0.0865007, 0.0469153, -0.0256097, -0.0711463, 0.0389143, -0.0065279, 0.0395254, -0.0337710, -0.0646442, -0.0063056, 0.0104519, 0.0290874, 0.0280426, 0.0407157, -0.0275363, -0.0581624, -0.0355392, -0.0398263, 0.0617075, 0.0972667, 0.0186836, -0.0088264, 0.1186439, -0.0721952, 0.0636581, 0.0547465, 0.0375283, -0.0053453, -0.0174297, 0.0471180, 0.1027819, 0.0057975, -0.0208770, -0.0189676, 0.0865085, -0.0463156, -0.0464923, 0.0046197, 0.0381281, -0.0350063, -0.0310795, -0.0378513, -0.0021774, -0.0593149, -0.0643114, -0.0015746, -0.0225630, -0.0445918, -0.1038385, -0.0289851, -0.0041264, 0.0085594, -0.0193439, -0.0433460, 0.0431953, 0.0156814, -0.0056451, 0.0108176, -0.0223802, -0.0238245, 0.0673813, 0.0109408, 0.0313340, 0.0618523, -0.0540209, -0.0496473, -0.0690807, -0.1229519, 0.0478026, 0.0291211, 0.0273958, -0.0236605, -0.0220932, 0.0569285, -0.0356731, -0.0024277, -0.0256773, 0.0183581, 0.1051621, -0.0960910, 0.0158433, 0.0159958, -0.0638642, -0.0808541, 0.0165093, -0.0337858, 0.0798024, -0.0222010, -0.0507473, 0.0222267, -0.1021344, 0.0422339, 0.0532109, 0.0072830, 0.0300207, 0.0170525, 0.0133142, -0.0024024, -0.1120011, -0.0203396, -0.0293115, -0.0603440, 0.0970908, 0.0410820, 0.0004163, 0.0123721, -0.0933722, -0.0066008, 0.0500302, -0.0047575, 0.0475287, 0.0188288, -0.0799144, -0.0135489, -0.1496399, -0.0175256, -0.0490479, 0.0207372, 0.1166762, -0.0309336, -0.0111686, -0.0090062, -0.1024721, 0.0434194, 0.0103161, -0.0554061, -0.0257403, 0.0152686, 0.0550385, -0.0307814, -0.0240992, -0.0012743, 0.0218913, -0.0333559, 0.0722640, 0.0072990, -0.0458967, 0.0818064, -0.1501674, 0.0223323, -0.0766580, -0.0243338, -0.0395088, 0.0386427, 0.0734169, -0.0517299, -0.0265336, -0.0342011, 0.0099257, -0.0209167, 0.0507350, 0.0723531, 0.0173230, 0.0029778, 0.0400386, -0.0339157, 0.0336942, -0.0320569, 0.0075951, -0.0536503, -0.0667671, 0.1605420, 0.0930893, 0.0098180, 0.0032055, 0.0307182, 0.0215141, 0.0200579, 0.0936900, -0.0501742, -0.0333497, -0.0347724, 0.0407727, -0.0828474, -0.0778104, -0.0842966, -0.0680837, -0.0196688, -0.0951283, 0.0156114, 0.1063592, 0.0782722, -0.0692227, -0.0348218, 0.0112993, -0.0162537, 0.0001012, 0.0835998, -0.0826545, -0.0016832, 0.1214299, -0.0734844, 0.0018856, 0.1472289, 0.0813359, 0.1665270, -0.0253726, 0.0229646, 0.0530117, 0.1123154, 0.0268849, 0.0056664, -0.1312611, 0.0245123, -0.1032122, -0.0009979, 0.1353996, 0.0370480, 0.0143094, 0.0085319, -0.0544335, -0.0058036, 0.0210120, -0.0144134, 0.0551783, 0.0132914, -0.0857832, 0.0120203, -0.0001256, 0.0775868, 0.0425475, -0.0896443, 0.0407795, 0.0449003, -0.0883650, 0.0063893, 0.0427112, -0.0018703, 0.0264521, 0.1003716, 0.0153223, 0.0162067, -0.0558440, -0.0151984, 0.0144287, -0.1120054, -0.0271681, -0.0117922, -0.0462193, 0.0218694, -0.0080950, 0.0113044, -0.0394307, -0.0234026, 0.0084505, -0.1061830, 0.0285574, -0.0339660, -0.0081480, -0.0101916, -0.1836040, -0.0207484, 0.0282409, -0.0531892, 0.0583618, -0.0917544, 0.0438177, 0.0479814, -0.0551912, -0.0450701, 0.0789364, 0.0090920, 0.0669667, 0.0199675, 0.0177597, 0.1793596, -0.0249354, -0.0505181, 0.0176354, -0.0127060, -0.0064694, -0.0137660, -0.0989744, 0.0060959, -0.0375478, 0.0125112, -0.0334477, -0.0448458, 0.0254009, 0.0207195, 0.0007005, 0.0263085, -0.0720638, -0.0498748, -0.0097045, 0.0133403, -0.0011121, -0.0463217, -0.0158760, -0.0332173, -0.0347390, -0.0597786, 0.0056355, 0.0666874, -0.1074727, -0.0459548, 0.0087453, 0.0182261, -0.1683354, -0.0045433, 0.0295039, -0.0664024, 0.0645363, 0.1301050, -0.0411700, -0.0861001, -0.0647965, -0.0034119, -0.0467596, -0.0113627, -0.0252977, 0.0506015, -0.0803883, -0.0684312, -0.0800005, 0.0892479, -0.0161489, 0.0240957, -0.0327258, 0.0113981, -0.0226790, -0.0063692, 0.0482941, 0.0091169, -0.0143493, -0.1295416, 0.0016065, 0.0320336, -0.0571751, 0.0193251, -0.0875064, 0.0128617, -0.0238043, -0.0070242, -0.0204979, 0.0017072, -0.0217834, 0.0048468, -0.0187753, -0.0963432, 0.1221176, 0.0972867, 0.1247148, 0.0560914, -0.1064867, -0.0067523, 0.0677798, -0.0407969, -0.0554099, 0.0284341, -0.0321337, -0.0169046, 0.0378774, 0.0202636, 0.0224430, -0.0077832, -0.0366277, -0.0000417, 0.2777425, -0.0106580, -0.0151991, 0.0873432, -0.0098667, -0.0741288, -0.0315260, 0.0579207, 0.1084658, 0.0034773, 0.1510196, 0.0148784, -0.0308340, 0.0697425, 0.0460538, 0.0556767, 0.0881025, 0.0688477, 0.0203917, 0.1004012, -0.0384521, -0.0839788, 0.0403492, -0.0162935, 0.0947733, 0.0888158, 0.0240324, 0.0130789, 0.0417144, -0.0515949, 0.0016263, 0.0894010, -0.0958648, -0.0378764, 0.0103333, -0.0129838, 0.0489959, -0.0026577, 0.0283494, -0.0086435, 0.0009067, 0.0489349, 0.0215172, 0.0654075, -0.0050942, 0.0133380, 0.0865766, -0.0089967, 0.0746682, -0.0013867, 0.0300799, 0.0202922, -0.0536437, -0.0060191, -0.0891090, -0.0275190, 0.0640889, -0.0185807, -0.0686061, -0.0084037, -0.0077325, 0.0155898, -0.0448931, -0.0205153, 0.0637414, -0.0232241, -0.0558125, 0.0362995, -0.1238997, 0.0326507, 0.0016012, 0.0140824, 0.1025526, 0.0448617, 0.1014760, -0.0137824, -0.1152672, -0.0792669, 0.0398065, 0.0491852, -0.0839753, -0.0198724, 0.0220739, -0.0014591, -0.1071833, -0.0603394, 0.0041095, -0.0087454, 0.0340784, 0.1941105, 0.0475205, -0.0168120, 0.0602306, 0.0291857, 0.0211390, -0.0046312, 0.0362879, 0.0801250, -0.0126626, -0.0047993, 0.0624527, -0.0574592, 0.0083130, -0.0366866, -0.0259914, 0.1391527, -0.0759703, 0.0184540, 0.0821880, 0.0144962, -0.0234081, -0.0118259, -0.0413511, -0.0466895, 0.0351302, -0.0116860, -0.0395764, -0.0423041, 0.0210065, 0.0058221, 0.0010509, 0.0521598, 0.0168989, 0.0336038, -0.0838240, -0.0115414, -0.0039019, 0.0572414, 0.1004177, -0.0498638, 0.0272971, -0.0285101, -0.0101052, -0.0238848, -0.0507232, 0.0907652, -0.0247621, 0.1062369, 0.0208866, 0.0668323, 0.0191037, -0.0428037, -0.0547784, 0.0013889, 0.1625206, -0.0151663, -0.0259834, 0.1295778, -0.0437760, 0.0177884, 0.1414641, 0.0281064, -0.0337208, 0.0103653, 0.0691150, 0.0161199, 0.0099566, -0.0457647, -0.0244277, 0.0234349, 0.0679960, -0.1159437, -0.0548574, -0.0159210, -0.0167747, -0.0214859, 0.0960682, 0.0147369, 0.0237572, -0.0218354, 0.0494496, 0.0268382, 0.0289813, -0.0249784, -0.0071764, 0.0524114, 0.0017410, -0.1967061, 0.0764369, -0.0006129, -0.0095815, -0.0605437, -0.0845870, -0.0639685, -0.0058847, -0.0463507, 0.0430663, -0.0128365, -0.0295298, -0.0423906, -0.0250047, 0.0184010, -0.0776363, 0.0030392, 0.0128984, -0.0357263, -0.0682857, 0.0074643, 0.0532258, 0.0296205, -0.0410482, 0.0053492, 0.0218722, -0.0239825, -0.0875257, -0.0034930, -0.0290295, -0.1038606, -0.0006136, 0.0446565, -0.0586473, -0.0435264, -0.0652589, -0.0038028, 0.0305860, 0.0005395, 0.0911407, -0.0140549, -0.0645329, -0.0357179, -0.0093925, 0.0656530, -0.1088730, 0.0016209, 0.0031490, 0.0754293, 0.0475832, 0.0036807, 0.0761308, -0.0507617, 0.0578478, -0.0516992, -0.0328976, -0.0956225, -0.0343387, 0.0342327, -0.0026270, 0.0100882, 0.0224915, -0.0360111, -0.1376732, 0.0633933, -0.0084330, 0.0952326, -0.0178649, -0.0017503, -0.0174636, 0.0574406, 0.1147995, -0.0169037, 0.0748812, -0.0076981, 0.1020495, -0.0970075, 0.1557804, 0.1026956, 0.0185743, -0.0001458, 0.0046038, -0.0627530, -0.0064607, 0.0124146, -0.0066270, 0.0090200, -0.0187300, 0.0530559, -0.0017208, -0.0725874, 0.0292540, -0.0342764, 0.0385422, 0.0037999, 0.0513672, -0.0122091, -0.0503499, 0.0248741, 0.0571286, -0.0139295, 0.0305908, -0.0380420, -0.0327874, -0.0209478, 0.0427154, 0.0074474, -0.0431998, 0.0269325, 0.0931347, -0.0041435, 0.0438232, 0.0142509, 0.0128939, 0.0699374, 0.0626284, -0.0642050, -0.0076796, 0.0332437, 0.0064072, -0.0052961, -0.0184326, -0.0057843, 0.0668540, -0.0315618, 0.0096969, 0.0041909, -0.0679391, -0.0817381, 0.0180106, -0.0911662, 0.0395471, -0.0212541, -0.1011183, 0.0065926, -0.0969514, 0.0245346, -0.0813833, 0.0485349, -0.1000594, 0.0355744, 0.0182947, -0.0115386, -0.0693285, -0.0540493, -0.0550956, 0.0025188, -0.0889098, 0.0508273, -0.0222263, 0.0150429, -0.0547875, -0.0253446, -0.0972227, 0.0134964, 0.1209832, 0.0237834, -0.0825202, 0.0144872, 0.0108063, -0.0112807, -0.0093016, 0.1030213, -0.0200632, -0.0128265, 0.0549271, 0.0612952, 0.0319841, 0.0081767, -0.0112589, -0.0016619, 0.0337414, 0.0356272, 0.0211236, -0.0489863, -0.0572684, 0.0738863, -0.0167075, 0.0300650, -0.0112898, -0.0500961, -0.0250812, -0.0207549, -0.2733077, 0.0250631, -0.1088950, -0.0327942, 0.0761146, -0.0398672, 0.0056576, -0.0023809, 0.1700804, -0.0084304, 0.0728238, 0.0044010, -0.0334465, -0.0109987, -0.0262833, -0.1067333, -0.0046974, 0.0875606, -0.0585676, 0.0264791, -0.0929940, -0.0162261, 0.0430627, 0.0092337, 0.2512750, 0.0044328, 0.0464976, 0.1251196, -0.0136691, 0.0813794, -0.0128029, -0.0208155, 0.0156829, 0.0392297, 0.0759553, -0.0129310, 0.0909093, -0.0148941, 0.1051345, 0.1052584, -0.0373506, 0.0554494, -0.0546501, -0.0323145, -0.0392765, 0.0933089, -0.0010386, 0.0012344, 0.0413305, -0.0005408, -0.1090659, -0.0386929, 0.0721146, -0.0112179, -0.0182804, -0.0180033, -0.0671155, 0.0557226, 0.0509706, -0.0113676, -0.1712735, -0.0001242, -0.0068951, 0.0481195, 0.0131496, 0.0140451, 0.0093982, 0.1557263, -0.0539064, 0.0406141, 0.0688862, -0.0056463, 0.1813333, -0.0199661, 0.0993910, 0.0677270, -0.0784347, 0.0220986, -0.0211651, -0.0041056, -0.0428260, -0.0525687, -0.0406581, 0.0077355, -0.0506674, -0.0181941, -0.0665212, -0.0323635, 0.0136678, -0.0380938, 0.0495405, -0.0344494, 0.0757654, -0.0430076, 0.0169360, 0.0134616, 0.0379483, -0.0389066, 0.0620524, 0.0253353, 0.0335622, -0.0472755, 0.2130740, 0.0249476, -0.0759618, -0.1172639, 0.0518098, -0.0329015, 0.0025691, -0.0416378, -0.0709567, -0.0880408, -0.0084581, -0.0338059, -0.0733971, 0.0128086, -0.0337938, 0.0485430, -0.0079702, 0.0071439, 0.0306564, 0.0150695, -0.0193366, 0.0552610, 0.0163318, -0.0043536, -0.0854280, -0.0413510, -0.0424841, 0.0689756, 0.0169423, 0.0062369, 0.0375762, -0.0268179, 0.0341937, -0.0763344, 0.0479935, -0.0333571, 0.0050050, 0.0381289, -0.0245719, -0.0250889, 0.0576248, -0.0078385, -0.0505015, 0.0041648, -0.0214109, -0.0443293, -0.0088230, 0.0654495, -0.0257712, 0.0154926, -0.1563732, 0.0336440, 0.0946690, -0.0056063, 0.0286000, -0.0590390, 0.1136399, 0.0429489, 0.0183461, 0.0164898, 0.0354785, 0.0418319, -0.0044914, 0.0977920, -0.0195011, -0.0375147, 0.0270794, -0.0239425, 0.0117383, 0.1058367, -0.0095975, 0.0126402, 0.0263258, 0.0119356, 0.0422334, 0.0088803, 0.0921184, -0.0016219, -0.1111974, 0.0197922, 0.0162097, 0.0331017, -0.0099667, 0.0835179, 0.0607649, 0.1024449, -0.0842432, 0.0528097, 0.0399752, -0.0056298, -0.1601945, 0.0026330, -0.0112718, -0.1083912, -0.0530498, -0.0604230, -0.0343076, -0.1067977, 0.0050522, 0.0070721, 0.0259359, 0.0021777, 0.1428763, -0.0103630, 0.1180857, 0.1303768, -0.0528475, -0.0375868, -0.0118299, -0.0153585, 0.0934657, 0.0224105, -0.0915286, 0.0007597, 0.0600694, 0.0034794, 0.0081847, -0.0480003, -0.0282433, -0.0384571, -0.0468491, 0.0033747, -0.0102647, -0.0268699, 0.0726997, -0.0069519, -0.0869124, -0.0482413, -0.0557667, -0.0095294, 0.0357027, 0.0203193, 0.0496239, 0.0285404, -0.0180248, -0.0522681, 0.0714581, -0.0119194, 0.0152173, 0.0136006, 0.0906455, -0.0195248, 0.0316381, -0.0532549, 0.0047438, 0.0297157, -0.0266134, -0.1002619, 0.0028675, 0.0094316, 0.0145234, -0.0154044, 0.0209829, -0.0355032, -0.0343657, 0.0678721, 0.0733570, 0.0322505, -0.0074704, 0.0391320, 0.0359493, -0.0046265, 0.1318725, -0.0135691, -0.0700206, 0.0331083, 0.0265225, 0.0205628, 0.0385677, 0.0295893, -0.0445246, 0.0744384, 0.0588645, 0.0157568, 0.0683906, 0.0315991, -0.0631252, 0.0648887, -0.0704545, -0.1044522, -0.0117144, 0.0302632, 0.1054886, -0.0970717, 0.0207812, 0.0024414, 0.1201061, 0.0170800, 0.0962965, 0.0541200, 0.0856877, -0.0322638, -0.1897337, 0.0208231, -0.0189097, -0.1632029, -0.0617219, -0.0151200, -0.1412371, 0.0509466, 0.0236731, -0.0378545, 0.0572033, 0.0134339, 0.0069395, -0.0106287, -0.0058354, 0.0415547, -0.0142930, 0.0140947, 0.0957121, -0.0095660, -0.0402933, -0.0298701, -0.0489181, 0.0325593, -0.0277917, 0.0365387, -0.0361044, 0.0277678, -0.0010256, 0.0055293, 0.0501959, -0.0796436, -0.0726632, -0.0349805, 0.0155041, -0.0707900, -0.0326052, -0.0202883, -0.0146384, -0.0126347, -0.1008369, 0.0116807, 0.0955168, -0.0185647, 0.0447755, -0.0732475, 0.0747505, 0.1010636, -0.0412656, -0.0712257, 0.0190330, 0.0747127, -0.0384729, -0.0087708, 0.0241064, 0.0201044, 0.0820068, 0.0555451, -0.0083620, 0.0108926, -0.0155870, 0.0440627, -0.0180792, -0.0240011, -0.0177537, -0.0215689, 0.0712517, -0.0255636, -0.0827560, -0.0836568, -0.0100360, -0.0530223, 0.0033212, -0.0347759, -0.0256826, -0.0133523, -0.0233083, 0.0034924, 0.0574493, 0.0134656, -0.0529128, -0.0802962, -0.0132714, 0.0699739, 0.0345170, -0.0127430, -0.0722340, 0.0415544, 0.1356097, 0.0176082, 0.0809441, 0.0413653, -0.0497544, 0.0538513, -0.0231543, -0.0271880, -0.0716439, 0.0418346, -0.0144416, 0.0242892, 0.0253816, -0.0341300, -0.0660164, -0.0102582, 0.0781675, 0.0208527, -0.0388165, 0.0313668, -0.0332851, -0.0359598, 0.0778769, 0.1050642, -0.0908342, -0.0268592, -0.0650335, -0.0525642, -0.0296934, 0.0072688, 0.0936924, 0.0898329, 0.0773908, -0.0376318, -0.0059681, -0.0268699, 0.0588334, 0.0106530, -0.0104066, 0.0441572, -0.0287536, 0.0216986, 0.0010615, 0.0142646, 0.0827894, 0.0009301, 0.0400373, -0.0572639, -0.0254667, -0.0024401, 0.0314409, 0.0635120, 0.0394160, -0.0242485, 0.0849355, 0.0330018, 0.0882856, -0.0880966, 0.0304041, 0.0644911, 0.0415556, 0.0078708, 0.0719730, 0.0234328, 0.0320690, 0.0814403, -0.0387400, 0.0281195, -0.0304299, -0.0406643, 0.0171679, -0.0870031, -0.0113373, 0.0226768, 0.0608435, -0.0103778, -0.0250044, 0.0034804, -0.0274581, 0.0272394, 0.0221074, 0.0374516, 0.0248961, -0.0045236, -0.0904862, -0.0215633, 0.0692449, -0.0870875, -0.0190843, 0.0202955, -0.0120692, 0.0243733, 0.0416284, -0.0351622, 0.0134739, 0.1192559, -0.1334053, -0.0130658, -0.1234687, 0.0762980, 0.0464646, 0.0176227, -0.0420417, -0.0022024, -0.0084835, 0.0571214, -0.1385561, 0.0015467, 0.0119637, 0.0000222, -0.1355546, -0.0019920, -0.0647323, -0.0782100, -0.0284612, -0.0625888, -0.0428384, -0.0859795, -0.0058867, -0.0157801, 0.0012975, -0.0132958, -0.1492693, -0.0385110, -0.0756101, -0.0076381, 0.0091714, 0.0380582, 0.0860353, 0.0933640, 0.0153679, -0.0548334, -0.0586440, -0.0099408, -0.1010277, 0.0388067, -0.0070344, 0.1847530, 0.0007674, 0.0442336, 0.0227815, -0.0940366, 0.0447800, 0.0813974, 0.0767776, 0.0168465, -0.1021740, 0.0091976, 0.0348172, -0.0428012, 0.0369206, -0.0888690, 0.0354086, 0.0822494, 0.0201887, 0.0312438, 0.0128782, 0.0000037, -0.0742778, 0.0672505, -0.0682572, -0.0840772, 0.0790200, -0.0019189, -0.0699669, -0.0048589, -0.0227778, -0.0462619, -0.0134475, 0.0201684, 0.0293622, -0.0407861, -0.0099886, -0.0044813, 0.0391724, -0.0815934, 0.0249398, -0.0681391, 0.0571246, 0.0142065, -0.0721609, 0.0115642, 0.0015779, -0.0365340, 0.0156514, -0.0591504, -0.0735002, 0.0408751, 0.0083900, 0.0311354, 0.0363792, -0.0247195, 0.0618790, 0.0248723, -0.0208544, -0.0129748, -0.0497659, 0.1695498, 0.0999084, -0.0094743, -0.0707680, 0.0373471, -0.0491683, 0.0241807, 0.0836543, -0.0047822, 0.0754478, 0.0127839, -0.0437424, 0.0224375, -0.0865053, -0.0680052, 0.0730536, 0.0753689, 0.0241202, 0.0115524, 0.0352006, 0.0141538, 0.0201242, 0.0073945, -0.0496608, -0.0462852, -0.0501956, 0.1090174, 0.0066316, 0.0946813, -0.0998602, 0.0235076, -0.0153871, -0.0002002, 0.0596655, 0.0291332, 0.0536722, 0.0042971, -0.0597712, -0.0559262, 0.0805747, 0.0070955, -0.0237312, 0.0060894, -0.0134344, 0.0110970, 0.0015276, -0.0158914, 0.0026532, -0.0658291, -0.0326184, -0.0035119, -0.0001900, -0.0211456, -0.0821447, -0.0027006, -0.0376877, 0.0029468, -0.0296343, -0.0609608, -0.0339176, -0.0114641, -0.0119437, -0.1075500, -0.0397030, 0.0516315, -0.0440063, -0.0410749, 0.0081879, 0.0024883, -0.0789251, 0.0461051, 0.0125110, 0.0039316, 0.0095010, -0.0610961, 0.0566654, -0.0472303, -0.0549334, -0.0033807, -0.0615762, -0.0127597, 0.0238147, -0.0021739, 0.0080377, -0.0049860, -0.0218352, 0.0410629, -0.0227021, 0.0655404, -0.0333130, 0.0083054, 0.0069288, -0.0220721, -0.1430655, -0.0169849, -0.0027229, -0.0170329, -0.0235263, -0.0397727, 0.0514924, 0.0059173, -0.1055328, 0.0374228, 0.0670051, 0.0250977, 0.0716385, -0.0123536, 0.0107680, -0.0840238, -0.0256827, 0.0205998, -0.1017412, 0.0391937, 0.0071817, -0.0781676, 0.0019445, -0.0334279, -0.0190306, -0.0555802, -0.0019220, -0.0025441, -0.0355758, 0.0303083, -0.0208966, 0.0533067, 0.0589630, -0.0123930, -0.0544506, 0.0040182, -0.0903892, 0.0487796, -0.0393881, -0.0054549, -0.0254022, 0.0280753, 0.0171492, 0.0357316, -0.1233947, -0.0410623, -0.0522089, 0.0116129, -0.0063747, 0.0068550, -0.1074144, -0.0199854, 0.0004614, 0.0164093, -0.0119600, -0.0012516, -0.0259976, -0.0612025, -0.0338126, 0.0033430, -0.0446873, 0.0200264, -0.0298216, 0.0071074, -0.0220500, -0.0055306, 0.0121356, -0.0809092, 0.0014047, 0.0485084, -0.0076462, -0.0059926, 0.0884546, 0.0049864, 0.0134896, 0.0490293, 0.0362247, -0.0352306, -0.0375899, -0.0804990, 0.0553019, 0.0215545, 0.0843463, 0.0071141, 0.0752677, 0.0293215, -0.0594410, -0.0892502, -0.0882238, 0.0212223, -0.0109805, 0.0491827, -0.0055490, 0.0543350, -0.0605320, 0.0014682, 0.1155994, 0.0016893, 0.0337927, -0.0386767, 0.0108785, 0.0559546, 0.0674057, 0.0278809, 0.1628183, -0.0116303, 0.0101775, 0.0074373, 0.0929755, -0.0472039, -0.0011326, -0.0196341, -0.0354359, -0.1106811, 0.0567531, -0.0271522, 0.0692527, 0.0644271, 0.0121631, 0.0105310, -0.0846522, 0.0570359, 0.1267967, -0.0212729, 0.0729864, -0.0158547, 0.0621793, 0.0083107, 0.1531467, -0.0651872, 0.0170080, -0.0032289, 0.1119347, 0.0537233, 0.0397852, 0.0522610, 0.0274737, -0.1153573, 0.0139709, 0.0087386, 0.0027267, -0.0195188, 0.0508454, 0.0003629, 0.2076917, -0.0494382, 0.0921159, -0.0959007, 0.0115478, 0.0290428, -0.0527548, -0.0863594, 0.1592933, -0.0829935, 0.0215186, 0.0085787, 0.1139930, 0.0138852, 0.0752193, -0.0242096, 0.0008994, 0.0670035, 0.0839208, -0.0239541, -0.0035408, -0.0460017, -0.0832969, -0.0057815, 0.0204339, -0.0629728, 0.0113872, 0.0767984, 0.0168702, 0.0240843, -0.0535443, 0.0892075, -0.0540216, -0.0497530, 0.0854565, 0.0059426, 0.0696562, 0.0117172, 0.0148980, -0.0639146, -0.0449096, 0.0218502, 0.0014174, -0.0000579, -0.0632637, -0.0367505, 0.0610962, 0.0088366, 0.0487560, 0.0111130, 0.0087743, 0.0695270, 0.0170605, 0.0052700, -0.0438844, 0.0141092, -0.0367530, 0.0076491, 0.0013422, -0.0018718, -0.1490680, 0.0340938, -0.0063072, -0.0144476, -0.0805743, -0.0654610, 0.0300217, -0.0159455, -0.0551093, -0.0440612, 0.0487219, 0.0065518, -0.0589231, -0.0019426, -0.0345983, 0.0076578, 0.0527279, 0.0375435, -0.0126441, -0.0219104, 0.0616580, 0.0378049, -0.0020668, 0.0250566, -0.0196844, 0.0106497, 0.1065914, 0.1540122, 0.0293219, 0.0042785, -0.0355531, -0.0617091, 0.0600983, -0.0151711, -0.0381917, -0.0166879, -0.0128212, -0.0821753, 0.0371009, -0.0216375, 0.0067305, -0.0013101, 0.0360858, 0.0086975, 0.0401410, 0.0167727, 0.0353547, -0.0145334, -0.0965066, 0.0461348, -0.0577036, -0.0496317, 0.0400867, -0.0095437, 0.0479524, -0.0748374, 0.0817461, -0.0365198, 0.0222656, -0.0208581, -0.0962809, 0.0277853, 0.0617695, -0.0165630, 0.0486512, 0.0525837, 0.0224060, -0.0124177, -0.0452132, 0.0021324, 0.0487307, 0.0187617, 0.0531631, 0.0863803, 0.0563938, 0.0320694, 0.0669793, 0.0085745, 0.0273464, -0.0441379, -0.0386724, -0.0056497, -0.0097118, 0.0177911, -0.0459399, -0.0041904, 0.0130937, -0.1370591, 0.0759527, -0.0118958, -0.0198279, -0.0588200, 0.1093620, -0.0612829, -0.0753491, 0.0043980, -0.0380144, -0.0199433, -0.0036363, 0.0606173, -0.0001916, 0.0270026, 0.0012429, 0.0483337, 0.0016030, 0.0342860, -0.0197548, 0.0128439, -0.0328275, -0.0022904, 0.0073758, -0.0430992, 0.0346088, 0.0105958, 0.0129384, -0.0469794, 0.0824572, 0.0918035, 0.0514597, 0.0171527, 0.0676892, 0.0215918, 0.0341044, 0.0980261, 0.0267139, -0.0307640, 0.0035735, -0.0369231, -0.0243716, 0.0160218, -0.0755011, -0.0110842, -0.0963988, 0.0053687, 0.0083636, -0.0745668, -0.0580133, 0.0029006, -0.0259722, 0.1016233, 0.0762098, 0.0354460, 0.0294007, 0.0041817, -0.0499459, -0.0013227, 0.0508628, -0.0420204, 0.0873664, -0.0073112, 0.0252991, -0.0360300, -0.0562495, 0.0040481, 0.0538268, 0.0179302, -0.0071799, 0.0251979, -0.0421758, -0.0910854, -0.0129006, 0.0887818, 0.0556022, -0.0424930, -0.0474489, -0.0284076, 0.0482011, 0.0175356, 0.0477968, -0.0758444, -0.0511078, -0.0009173, -0.0123718, 0.0008893, 0.1073914, 0.0120405, -0.0618076, 0.0704883, 0.0226808, 0.0906620, 0.0437243, -0.0228986, 0.0342907, -0.0707422, -0.0311176, 0.0347610, 0.0133962, -0.0518533, 0.0943588, 0.0416572, 0.0158351, 0.0234352, -0.0247408, -0.0242998, 0.0441210, 0.0346497, -0.0097743, -0.0530753, -0.0146669, 0.1627953, -0.0181475, 0.0168868, 0.0508080, 0.0325343, 0.0097483, -0.0628240, 0.0275665, 0.0017495, -0.0527659, 0.0323910, -0.0009772, 0.0821248, -0.0314461, -0.0350386, 0.0409900, -0.0299704, -0.0052119, 0.0562414, 0.0099286, -0.0393198, -0.0108807, 0.0308836, -0.0258197, 0.0146899, -0.0077614, -0.0223874, 0.0796879, 0.0200966, 0.0558315, 0.0149734, 0.0246530, -0.0013476, 0.0475637, 0.0551667, 0.0529813, -0.0233514, -0.0365485, 0.0049749, -0.0257205, 0.0181573, -0.0072247, -0.1085367, -0.0120970, 0.1074020, 0.0442542, -0.0120627, -0.0010382, -0.0258450, 0.0808319, 0.0728843, 0.0112174, 0.0112795, -0.0084153, 0.0046450, 0.0370631, -0.0864784, -0.0202974, -0.0298417, 0.0438954, 0.0072631, -0.0201345, 0.0344191, 0.0219061, -0.0788521, -0.0317750, 0.0097712, -0.0481294, -0.0889426, 0.0091178, -0.0359372, 0.0052503, 0.0153482, -0.1015494, -0.0098247, 0.0059562, -0.0279384, 0.0961012, -0.0081817, 0.0188549, 0.0269072, 0.1087267, 0.0103495, 0.0103748, -0.0417453, 0.0716332, 0.0489679, 0.0422428, -0.0200747, -0.0398254, -0.0155415, -0.0607372, -0.0414586, 0.0399924, -0.0060597, -0.0000092, -0.0420525, -0.0743357, 0.0338021, 0.0606674, -0.0584016, 0.0085394, -0.0409611, 0.0099069, 0.0829385, -0.0360860, -0.0307405, 0.0268528, 0.0073880, -0.0258410, 0.0587935, -0.0075516, -0.0869283, -0.0025559, 0.0377007, 0.0012629, 0.0325234, 0.0345369, 0.0177089, 0.0012717, -0.0016040, 0.0316190, 0.0351139, 0.0191513, 0.0257869, 0.0021873, -0.0070607, 0.0012051, 0.0014512, -0.0140492, 0.0269584, -0.0804720, 0.0336365, 0.0273557, -0.0239824, 0.0285208, 0.0600613, -0.0382046, 0.0058218, -0.0954767, -0.0200906, -0.0157916, -0.0181894, 0.0430080, 0.0327509, 0.0085753, -0.0105073, 0.0056997, -0.0348119, 0.0095957, -0.0066748, -0.0026208, -0.0683499, 0.0249296, -0.0005069, -0.0059043, 0.0556587, 0.0449982, -0.0664629, 0.0137420, 0.0650109, 0.0134232, 0.0493571, -0.0394632, 0.0384051, 0.0084512, 0.0359521, 0.0184831, 0.0078599, -0.0033572, 0.0423559, -0.0220060, -0.0699775, -0.0278366, -0.0161193, 0.0219119, -0.0544140, -0.0174426, -0.0633162, 0.0350345, 0.0880094, -0.0776532, 0.0417613, 0.0736638, -0.0533083, -0.0321257, 0.0111414, 0.0225987, -0.0297153, 0.0061041, 0.0032576, -0.0255413, -0.0149192, 0.0372883, 0.0072392, 0.0183003, 0.0262278, -0.0062538, -0.0400242, 0.0513980, 0.1134373, -0.0003502, 0.0134555, -0.0192751, -0.0251297, -0.0435375, 0.1428166, -0.0107498, 0.0509456, -0.0164017, -0.0720959, 0.0188592, -0.0045658, 0.0101034, 0.0337974, 0.0093975, -0.0730807, 0.0376603, 0.1086707, 0.0328143, -0.0405147, 0.0121383, -0.0921324, 0.0023691, -0.1551674, -0.0230568, 0.0247373, 0.0260198, -0.0160460, 0.0719776, 0.0791768, -0.0538926, -0.0676506, 0.0029813, -0.1192547, 0.0170237, -0.0981197, -0.0114840, 0.0563204, -0.0280472, -0.0244305, -0.0140209, 0.0833586, -0.0383268, -0.0366164, 0.0187724, -0.0180692, 0.1087628, 0.0126761, 0.0132498, -0.0050765, -0.0198285, -0.1085062, -0.0669351, -0.0604854, 0.0397751, 0.1263558, -0.0152474, 0.0603624, 0.0235623, 0.0664918, -0.0442939, -0.0325680, 0.0499619, -0.0010080, -0.0882674, 0.0212701, 0.0190330, -0.0139401, -0.0126764, 0.0345514, -0.0425256, -0.0473827, 0.0087012, 0.0444159, 0.0537411, -0.0271560, -0.0614962, 0.0724330, 0.0161124, -0.0453629, -0.0393622, -0.0605006, -0.0929427, -0.0580167, 0.0097363, 0.0323356, -0.0741928, 0.0322690, 0.0309594, -0.0331537, 0.0621311, 0.0241150, 0.0175960, -0.0259897, 0.0457577, -0.0447865, -0.0095450, 0.0535550, -0.0755574, -0.0215979, 0.0140998, 0.0276887, -0.0270761, 0.0687414, -0.0097491, -0.0855165, -0.0449550, -0.0180380, 0.0000026, -0.0150032, 0.0574670, 0.0309812, 0.0398989, -0.0386047, -0.0434020, 0.0420584, 0.0055397, 0.0670390, -0.0080714, -0.0441671, -0.0860499, 0.0445722, -0.0689899, -0.0732861, 0.0628808, -0.0533897, 0.0421660, -0.0277496, -0.0247414, 0.0978320, 0.0311302, 0.0082067, -0.0789590, -0.0200623, -0.0223628, 0.0336626, -0.0842211, 0.0533005, 0.0026740, 0.0294049, 0.0246420, -0.0616264, -0.0232215, -0.0724272, 0.0348935, -0.0427743, 0.0775113, -0.0092943, 0.0900262, -0.0228866, -0.0400204, 0.0255571, -0.0186569, 0.0541283, 0.0874601, -0.0086459, -0.0224402, -0.0500046, -0.0203871, 0.0699221, -0.0653519, 0.0640887, -0.0579340, 0.0552856, -0.0522408, -0.0450181, 0.0242245, 0.0707184, 0.0517940, -0.0107756, -0.0388347, 0.0538390, 0.0093364, 0.0066914, -0.0337558, 0.0263419, 0.0386854, 0.0107616, -0.0039755, -0.0178828, 0.0197792, -0.0247075, 0.0762246, -0.0660250, -0.0010841, -0.0958257, -0.0217582, -0.0374714, -0.0369319, -0.0010966, 0.0680528, 0.0611005, 0.1006220, 0.0291582, 0.0208849, -0.0550110, 0.1388719, 0.0419699, 0.0643832, -0.0077003, 0.0903340, 0.0303157, 0.0774121, 0.1764244, -0.0167182, 0.0900356, 0.0477595, 0.0291674, 0.0667868, -0.0157401, -0.0089381, -0.0077300, -0.0464114, -0.0193659, 0.0377542, -0.0118343, 0.0171509, -0.0420015, -0.0115078, 0.0436471, -0.0140520, -0.0033014, -0.0291797, 0.0344509, 0.0340033, 0.0827009, 0.0551313, -0.0699794, 0.0369055, 0.0614744, 0.0089752, 0.0183272, -0.0435456, -0.0151120, -0.0216242, -0.0018541, -0.0094496, 0.0812362, -0.0308315, -0.0379984, 0.0453754, 0.0216698, -0.0134353, 0.0060512, 0.0187401, 0.0699847, -0.0564253, 0.0171281, -0.0026811, 0.0136906, -0.0800725, -0.0299545, 0.0080405, -0.0099368, 0.1038477, -0.0290241, -0.0889260, -0.0447611, -0.0221893, -0.0182488, -0.0252332, 0.0150873, -0.0526167, -0.0944176, 0.0399377, -0.0041064, -0.0205075, -0.0227387, -0.0007911, -0.0396130, -0.1162879, -0.0353063, -0.0554740, -0.0318803, 0.0896848, 0.0465120, -0.0430205, 0.0390287, -0.0080514, 0.0760891, -0.0459821, -0.0528462, -0.0316213, 0.0252901, -0.0578321, -0.0227524, 0.0808661, 0.0281438, 0.0885889, 0.0161304, -0.0063812, 0.0028124, 0.0704177, -0.0472912, -0.0623082, 0.0551019, -0.1178062, 0.0067453, 0.0192201, -0.0170673, 0.0170835, -0.0625301, 0.0298298, 0.0391145, -0.0040923, 0.0773106, -0.0333602, -0.0419028, -0.0571277, 0.0312975, 0.0052654, 0.1037462, 0.0502149, 0.0184786, -0.0190194, -0.0537129, -0.0012542, -0.0392004, 0.0408599, -0.0287331, 0.0003738, -0.0496170, 0.0049247, 0.1419163, -0.0212426, 0.0830323, 0.0480835, 0.1559971, 0.0073986, 0.0325686, 0.0163501, 0.0162507, -0.0246536, 0.0054325, 0.0260107, 0.0217898, 0.0308853, -0.0134249, -0.0507618, -0.0299177, 0.0669428, 0.0125271, -0.0011775, -0.0196458, -0.0159924, 0.0730091, -0.0599392, 0.1117350, -0.0309824, 0.0329121, 0.0897893, 0.0030214, 0.0611126, 0.0133410, 0.0030859, 0.0120635, 0.0685460, 0.0102740, 0.0443029, -0.1091182, 0.0241122, 0.0088805, 0.0516492, 0.0328429, 0.0306942, 0.0292349, -0.0400999, -0.0016059, -0.0042712, -0.0096561, 0.0297053, 0.0846695, -0.0074318, 0.0036528, 0.0199309, 0.0188051, 0.0411293, -0.0218997, -0.0235767, 0.0214428, 0.0221254, -0.0344748, 0.0651456, -0.0778666, -0.0304031, -0.0047208, -0.0497539, -0.0556439, -0.0269790, 0.0032777, -0.0038340, -0.0334382, -0.0349497, 0.0147087, 0.0235334, -0.0535976, 0.0330466, 0.0674565, -0.0297811, -0.0146041, 0.0010384, -0.0139252, -0.0122680, -0.0008574, 0.0198749, 0.0724343, 0.0353294, 0.0178020, -0.0373347, -0.0034146, 0.0078633, 0.0308065, 0.0103826, 0.0056395, 0.0129782, -0.0272587, -0.0056094, 0.0513096, -0.0592425, 0.0128007, -0.0365809, -0.0425879, 0.0272891, 0.0586373, -0.0517857, -0.0136239, 0.0143780, 0.0125267, -0.0388929, 0.0455017, 0.0646416, 0.2756255, -0.0554928, 0.0288385, 0.0434514, -0.0183004, 0.0341353, 0.0678333, -0.0041680, -0.0904890, -0.0295118, -0.0226688, 0.0098812, -0.0195264, 0.0135006, -0.0464424, -0.0057632, -0.0044740, -0.0032202, 0.0132625, -0.0438030, 0.0737427, 0.0361772, 0.0397643, 0.0114318, 0.0236828, 0.0049999, -0.0266654, 0.0299026, -0.0278879, -0.0011556, -0.0410967, -0.0514765, 0.0495614, 0.0461615, 0.0386355, -0.0684657, -0.1315327, -0.0721507, 0.0024233, -0.0779974, -0.0124078, 0.0048794, 0.0009112, -0.0278770, 0.0991926, -0.0009877, -0.0593362, 0.0997023, 0.0610815, 0.0178999, -0.0711010, -0.0280442, 0.0111056, -0.0228601, 0.0594311, 0.0919310, -0.0893913, 0.0892761, -0.0772041, -0.0024918, 0.0079792, 0.0140437, -0.0161378, -0.0555823, -0.0112190, 0.0723966, 0.0170186, -0.0299814, 0.0264406, 0.0182312, -0.0166536, -0.0090900, -0.0333330, 0.0038935, -0.0277145, -0.0410835, 0.0125037, 0.0118302, -0.0197213, -0.0812459, -0.1221587, -0.0328912, -0.1581832, -0.0451787, 0.0062284, 0.0654786, -0.0399474, 0.0253693, 0.0610451, 0.0023194, -0.0532313, 0.0282236, 0.0129858, 0.0402452, 0.0157226, -0.0692464, 0.0759530, -0.0583966, -0.0204999, 0.0625664, -0.0473396, 0.0359883, -0.0783555, -0.0094342, -0.0145694, -0.1424254, 0.0179431, -0.0659002, 0.0458062, -0.0156071, 0.0227198, 0.0827009, 0.0273857, 0.0106680, -0.0041035, 0.0134949, -0.0147351, -0.0027416, -0.0240757, 0.0051115, -0.0284284, 0.0134820, -0.0581353, -0.0687109, -0.0680131, 0.0505064, -0.0539451, -0.0305935, 0.0241850, -0.0221482, 0.0377146, 0.0378026, 0.0230019, -0.0010573, 0.0299964, -0.0175503, -0.0162570, 0.0562523, 0.0191675, -0.0393375, 0.0474296, 0.0697510, -0.0520517, 0.1126401, -0.0126983, 0.0395584, -0.0747362, -0.0156345, -0.0639083, -0.1314386, -0.0604904, 0.1278773, -0.0087412, 0.0647727, 0.0346575, -0.0343325, 0.0417893, -0.0825480, 0.0625337, 0.1009241, -0.0619574, -0.0938953, -0.0354753, -0.0041859, 0.1071456, -0.0400468, 0.1049324, 0.0172336, -0.0919128, -0.0427936, 0.0318534, -0.0645053, 0.0019903, -0.0230182, -0.0516391, 0.0672518, 0.0196202, -0.0014196, -0.0404570, 0.0181230, -0.1370792, -0.0490108, -0.0566957, -0.0627889, 0.0060545, 0.0214306, -0.0263242, -0.0640366, 0.0384421, -0.0666558, -0.0006702, -0.0238742, -0.0092822, -0.0006708, 0.0511085, 0.0473999, -0.0095395, 0.0587792, 0.0457409, 0.0384569, -0.0629027, 0.0008630, 0.0467675, 0.0083363, 0.0876852, -0.0148725, -0.0065381, 0.0092849, 0.0068237, -0.0066675, -0.0406946, 0.0136245, 0.0164547, 0.0178721, 0.0577170, -0.0429275, 0.0308076, 0.0143796, 0.0416844, -0.0664072, 0.0015051, 0.0086714, -0.0435931, -0.0633749, -0.0090736, 0.0930275, 0.1005922, 0.0241758, -0.0086177, -0.0604586, 0.0528453, 0.0440098, 0.0546417, -0.0105974, 0.0371046, -0.0768112, 0.0675615, -0.0239057, -0.0329880, 0.0769186, 0.1300963, -0.0496847, -0.0404373, 0.0058745, 0.0392286, -0.0311141, -0.0201715, 0.0801528, 0.0196761, -0.0314026, -0.0081020, 0.0079507, 0.1378171, -0.0583534, -0.0704688, 0.0960614, -0.0750215, 0.0683354, -0.0691916, 0.0039036, -0.0703804, 0.0113549, -0.0646429, -0.0058835, 0.1199172, -0.0109455, -0.0144344, 0.0402376, 0.0228988, 0.0090858, 0.0497438, -0.0310616, -0.0240247, 0.1269106, 0.0413280, -0.0088992, -0.0034734, 0.0094546, -0.0557575, 0.0211096, -0.0091638, 0.0135716, 0.0080660, -0.0327846, 0.0155652, -0.0219209, 0.0144633, -0.0120776, 0.0589077, 0.0036637, -0.0200969, -0.0638126, 0.0255854, -0.0794653, -0.0057029, 0.0450476, -0.0439230, 0.0251213, 0.0231187, -0.0530284, 0.0223540, 0.0172662, -0.0036220, -0.0751035, -0.0376469, -0.0258389, 0.0783993, 0.0929443, 0.0562880, -0.0059117, -0.0433620, 0.0181742, -0.0384996, 0.0308248, -0.0270696, -0.0133861, 0.0457772, -0.0213033, -0.0024353, 0.0255182, -0.1047198, 0.0418349, -0.0210798, 0.0134367, -0.0141448, 0.0153000, 0.0179147, -0.1047326, -0.0656471, 0.0131973, 0.0034848, 0.0541442, 0.0190285, 0.0628829, 0.0062952, -0.0583796, 0.0188777, -0.0495159, -0.0531813, 0.0356999, 0.0541319, -0.1009351, 0.0661031, 0.0085045, -0.0888588, 0.0067541, 0.0434350, -0.0802946, -0.1308243, 0.0115829, 0.0196490, 0.0434862, -0.0441673, -0.1038057, 0.1151213, -0.0136913, -0.0056615, 0.0658137, -0.0771166, -0.0339404, 0.0230139, -0.0251502, 0.0037546, 0.0244325, 0.0257181, 0.0458987, 0.0048123, -0.0763505, -0.0855791, 0.0960990, -0.0029858, 0.0511849, 0.0894640, -0.0869336, -0.0471629, -0.0262840, 0.0141682, 0.0472202, -0.0916568, -0.0259026, -0.0307966, -0.0272558, -0.0512173, -0.0596851, -0.0370860, 0.0196871, 0.0181866, -0.0375506, 0.0117743, -0.1394698, 0.1136414, 0.0613880, 0.0215633, 0.0524454, 0.0041209, 0.0489083, 0.0415419, 0.0623188, -0.0176563, -0.0073923, 0.0083194, 0.0734183, -0.0255549, 0.0808301, 0.0341326, -0.0596092, -0.0340255, 0.1482574, 0.1101404, -0.0296930, 0.0584625, 0.0303887, 0.0562093, 0.0554068, -0.0553919, 0.1500347, 0.0154708, 0.1115403, -0.0095749, -0.0609189, -0.0259924, 0.0999822, -0.0651407, -0.0156085, -0.0894120, -0.0594871, 0.0004624, -0.0150007, -0.0121901, 0.0762945, 0.0124885, 0.0356752, 0.0434734, 0.0644635, -0.0129906, -0.0171000, 0.0382357, -0.0778496, 0.0338896, 0.0098823, -0.1063571, -0.0083896, -0.0824102, 0.0128433, 0.0249425, 0.0891295, -0.0264416, 0.0415237, 0.0858459, 0.0852006, -0.0179044, 0.0112003, 0.0210238, -0.0284437, -0.0348724, -0.0544221, 0.0189486, -0.0613827, -0.0413816, 0.0610337, 0.0573588, -0.0467666, -0.0615258, -0.0213427, -0.1042610, -0.0406466, 0.1515684, 0.0131683, 0.0466737, -0.0067720, -0.0437015, 0.0407362, -0.0020171, -0.0506904, -0.0548292, 0.0162562, -0.0058030, -0.0527406, -0.0589548, 0.0324192, -0.0752465, 0.0169482, -0.0244233, -0.0181199, -0.0480659, -0.0097980, -0.0162150, 0.0568530, 0.0946155, 0.0985560, 0.0017911, -0.0563928, -0.0212671, 0.0306647, 0.0136977, 0.0688277, 0.0065568, -0.0200391, 0.0359451, -0.0705922, 0.0223939, 0.0307177, 0.0269354, 0.0223389, -0.0496336, 0.0030627, -0.0309553, 0.0061112, -0.0270033, 0.0169864, -0.0471460, -0.0448311, -0.0976305, -0.0367520, 0.0098180, 0.0516734, 0.0705580, -0.0797197, 0.0279943, -0.0658233, 0.0127611, 0.0420514, 0.1084708, -0.0166230, 0.0227168, -0.0047583, 0.0372186, 0.0177657, -0.1104341, -0.0282563, 0.0328639, -0.1396214, -0.0163097, 0.0411081, -0.0664873, 0.0668501, -0.0241573, -0.0178464, -0.0454259, 0.0272308, -0.0004812, -0.0516642, 0.0245877, 0.0057192, -0.0187100, -0.0662427, 0.0118933, -0.0933160, 0.0380737, 0.0282912, -0.0026161, -0.0649796, -0.0741848, -0.0479491, -0.0399292, 0.0220748, -0.0016287, 0.0053051, -0.0415622, -0.0078490, -0.0283899, 0.1456385, -0.0316841, -0.0008233, 0.1098909, 0.0637869, 0.0213762, 0.0357749, 0.0474750, -0.0515929, 0.0177028, -0.0531941, 0.0294378, -0.0496918, 0.1271582, 0.0850038, -0.0192538, -0.1175021, 0.0306952, 0.0215196, -0.0178386, -0.0045830, -0.0144947, 0.0502643, 0.0334752, -0.0158366, -0.0077210, 0.0052903, 0.0287627, 0.0062970, -0.0788325, -0.0372735, -0.0681310, 0.0748017, 0.0783001, 0.0374182, -0.0526295, -0.0292588, -0.0355082, -0.0683054, -0.0631695, -0.0819237, 0.1131671, 0.0153541, 0.0290462, -0.0091679, -0.0327762, -0.0206022, -0.0291886, 0.0142795, 0.0245335, 0.0369656, -0.0280418, 0.0179879, 0.0338839, 0.0214297, 0.0021180, -0.1220221, -0.0510784, 0.0264569, -0.0115732, -0.0009583, 0.0497801, 0.0724691, 0.0152983, 0.0707526, -0.0018365, 0.0419370, -0.0072183, 0.1094259, 0.0292940, -0.0440171, 0.0353616, -0.0013929, 0.0343259, -0.0548055, 0.0256558, -0.0094253, 0.0344067, 0.0263390, -0.0830638, 0.0191950, -0.0378351, -0.0051462, -0.0129407, 0.0297587, 0.0089108, -0.0424761, 0.0123844, 0.0079020, 0.0287461, 0.0584486, 0.0449362, -0.0468591, -0.0343226, 0.0126319, 0.0060058, 0.0092345, -0.0720891, -0.1075406, 0.0418500, -0.0154066, -0.0056604, -0.0409091, 0.0280433, 0.0186001, -0.0241867, -0.0450438, -0.0362883, 0.0248508, -0.0571673, -0.0883686, -0.1368236, 0.0113452, -0.0221886, 0.0090453, -0.0009617, -0.0904359, -0.0274648, 0.0118151, 0.0458691, 0.0365916, 0.0009026, -0.0270021, -0.0319920, -0.0385570, 0.0487269, -0.0644705, 0.0477934, -0.0255685, -0.0164326, -0.0774140, 0.0130139, -0.0391366, -0.0412496, 0.0319648, -0.0019292, 0.0268368, -0.0365697, -0.0330966, 0.0146822, 0.0037706, 0.0034607, -0.0151158, 0.0183157, 0.0209050, -0.0120826, 0.0221878, -0.0367359, -0.0090298, 0.0137475, 0.0171366, -0.0842691, -0.0348277, -0.0028229, -0.0375989, -0.0343468, 0.0136441, -0.0129614, 0.0064194, 0.0043180, 0.0033624, 0.0047192, -0.0246908, -0.0356177, 0.0302481, 0.0085288, 0.0659133, 0.0129729, -0.0257823, 0.0447558, 0.0236048, 0.0659804, 0.0656457, -0.0138120, -0.1133458, -0.0495909, -0.0288003, 0.0045596, -0.0188238, -0.0390395, -0.0718535, -0.0060355, -0.0616806, -0.0402105, 0.0337011, 0.0075146, 0.0100139, 0.0299082, 0.0327860, -0.0284880, 0.0163937, -0.0090982, 0.0134531, -0.0062591, 0.0479303, -0.0460810, -0.0524563, -0.0310190, -0.0219424, -0.0973371, 0.0063770, -0.0216853, -0.0170929, 0.0043250, 0.0058136, -0.0042239, 0.0677630, 0.1019063, -0.0851122, -0.0519806, 0.0943284, 0.0151868, 0.0371349, -0.0578587, -0.0454307, -0.0491806, -0.0190195, 0.0322500, 0.0045058, 0.0116346, -0.0014307, -0.0144722, -0.0225947, 0.0674175, -0.0179208, 0.0493984, 0.0945526, 0.0088844, -0.0132687, -0.0037121, 0.0570759, -0.0568047, -0.0030801, 0.0338662, 0.0359461, 0.0627744, 0.0322773, -0.0016775, 0.0309609, 0.0092860, -0.0084194, 0.0073159, -0.0304534, 0.0089097, 0.0774216, 0.0541375, -0.0096127, -0.0506516, -0.0047466, -0.0399024, -0.0555058, -0.0199765, 0.0003717, 0.0374511, 0.0199316, -0.0171220, 0.0528696, 0.0132764, -0.0581215, -0.0562661, -0.0208669, -0.0151188, -0.0076538, 0.0269372, 0.0503363, 0.0119942, 0.0485036, -0.0010382, -0.0067222, -0.0138715, -0.1041115, -0.0266528, 0.0571938, -0.0093577, -0.0239883, 0.0010617, -0.0133653, 0.0495630, -0.1407455, 0.0106611, 0.0961089, 0.0189151, -0.0014318, -0.0211721, 0.0143440, 0.0377965, 0.1071665, 0.0444709, -0.0225544, -0.0105935, 0.0050475, 0.0256469, 0.0295950, -0.0469709, 0.0293707, 0.0546255, 0.0331590, -0.0414525, -0.0765069, 0.0278046, -0.0086200, -0.0213059, 0.0210131, 0.0164130, 0.0127975, -0.0145292, -0.0410011, 0.0035370, -0.0899860, -0.0052019, 0.0304683, -0.0156008, 0.0178586, 0.0107650, -0.0485325, 0.0744593, 0.0511578, 0.0009306, 0.0178369, 0.0325280, 0.0547997, -0.0105711, -0.0207913, -0.1333685, -0.0223795, 0.0676551, -0.0227241, 0.0426287, 0.0207520, -0.0085008, -0.0906554, -0.0273585, 0.0604547, -0.0020425, 0.0125070, -0.0417099, -0.0297427, -0.0167779, -0.0510405, -0.0479001, -0.0271079, 0.0262994, 0.0427816, -0.0309820, 0.0215124, 0.0763849, -0.0434880, -0.0821857, -0.0720079, -0.0147195, 0.0026061, 0.0504448, 0.0247308, -0.0118808, -0.0322008, -0.0107100, 0.0763775, 0.0596140, -0.0051777, 0.0350328, -0.0057618, 0.0571167, -0.0232170, 0.0920247, -0.0098559, -0.0026925, -0.0033847, -0.0084461, -0.0177723, 0.0379669, 0.0264600, 0.0173279, -0.0415858, -0.0568291, 0.0216633, -0.0499817, -0.0400597, 0.0671517, 0.0168060, 0.0159341, -0.0210213, -0.0331426, -0.0296760, -0.0277181, -0.0709725, 0.0864216, -0.0181811, -0.0251166, 0.0037866, 0.0406402, 0.0381198, 0.0417943, -0.0641267, 0.0005622, -0.0050989, -0.0434699, -0.0122589, 0.0241867, 0.0572537, 0.0635041, -0.0275407, -0.0371605, 0.0769683, 0.0278141, -0.0382810, -0.0376944, -0.0113685, 0.0074395, -0.0458280, 0.0261833, -0.0198657, 0.0250713, -0.0040385, 0.0083292, -0.0730953, 0.0712681, 0.0009695, 0.0217265, 0.0901663, -0.0321093, 0.0499763, -0.0346911, -0.0370273, -0.1679282, 0.0184926, -0.0110277, -0.0547945, -0.0180563, -0.0218967, -0.0140067, -0.0667912, 0.0257020, 0.0431002, -0.0069286, -0.0285955, 0.0746837, 0.0338881, 0.0023733, -0.0565935, -0.0461617, 0.0641505, -0.0479235, -0.0228547, -0.0563890, 0.0087084, 0.0285547, -0.0428622, 0.0409546, 0.0054862, -0.0351523, 0.0763000, 0.0764431, 0.0703412, -0.0303307, 0.0505816, -0.0001088, 0.0830192, 0.0662661, -0.0363141, -0.0299002, 0.1055122, -0.0537876, -0.0274331, -0.0641819, 0.1290440, 0.0026808, 0.0652938, -0.0348749, -0.0195735, -0.1010614, -0.0101145, -0.0154594, -0.0358721, 0.0032114, -0.0305429, 0.0339413, -0.0617721, 0.0258077, -0.0157248, -0.0111935, -0.0015077, -0.0056026, -0.0757350, -0.0045595, 0.0342529, -0.0137175, 0.0106085, 0.0262723, -0.0299908, 0.0444999, -0.0152550, -0.0316990, -0.0020733, 0.0848003, 0.0321940, 0.0325090, -0.0538517, -0.0210061, 0.0336629, -0.0098607, 0.0014007, -0.0961605, -0.0070837, -0.0021015, -0.0608814, -0.1196987, -0.0891187, -0.0266797, -0.0330429, 0.0635860, -0.0357778, 0.0101325, -0.0506609, -0.0150989, 0.0348296, -0.0174459, 0.0135701, 0.0249928, -0.0112957, -0.0647960, 0.0609825, -0.0054509, 0.0291189, -0.0031180, -0.0198366, -0.0684850, -0.0147869, -0.0125594, 0.0355107, -0.0187521, -0.0050890, -0.0149557, -0.0181108, -0.0752091, 0.0130920, -0.0283384, -0.0064680, -0.0345195, 0.0155281, -0.0159563, 0.0141296, -0.0377411, 