-0.0884491950273514, -0.0846426934003830, -0.0962488353252411, 0.0019076203461736, -0.0899176821112633, 0.0233177505433559, 0.1316625624895096, -0.0012100897729397, -0.1420943439006805, 0.1231095567345619, -0.0326697342097759, 0.1024257242679596, -0.0538705773651600, -0.0299147330224514, 0.1750521361827850, 0.0875091478228569, 0.3217189311981201, -0.1347738206386566, -0.0255785752087831, -0.0477485880255699, -0.0233502481132746, -1.0619519948959351, 0.0485746115446091, 0.0309016481041908, -0.0463747009634972, 0.0299417506903410, -0.0207792986184359, -0.0763651281595230, -0.0908313840627670, 0.0813610926270485, -0.0937956795096397, -0.0276384316384792, -0.2252939790487289, -0.1778917312622070, 0.0279499683529139, 0.0896062925457954, 0.1664544641971588, -0.1066730916500092, 0.0743993967771530, 0.0382123701274395, 0.0467427223920822, 0.0587479360401630, -0.0485050566494465, -0.0150054693222046, 0.1384889483451843, 0.0062188324518502, -0.0940713211894035, 0.1607127934694290, -0.0055763344280422, 0.0981363058090210, -0.0474448725581169, 0.1410999149084091, -0.1031565889716148, -0.0643182322382927, 0.0887024477124214, 0.2470254004001617, -0.0314957499504089, 0.0540609508752823, 0.0912845060229301, -0.0312788225710392, -0.1069522351026535, 0.0106048146262765, -0.1958078444004059, 0.0851529166102409, -0.0183146949857473, 0.1238539218902588, -0.1902723759412766, 0.0270487368106842, 0.2853475809097290, -0.0762600377202034, -0.0332306623458862, -0.0900055393576622, 0.1122709289193153, -0.1345433294773102, -0.0933259651064873, 0.0971130132675171, -0.0600848197937012, 0.0647095590829849, 0.0273689590394497, 0.0318479165434837, 0.1469886004924774, -0.0435568951070309, -0.0593066178262234, -0.1269719451665878, 0.0177288725972176, -0.1013902500271797, -0.0730413049459457, -0.1141256466507912, 0.0161321870982647, 0.0773905962705612, -0.1664882451295853, -0.0735038965940475, 0.0420802496373653, -0.2038120180368423, 0.0356363542377949, 0.0434058792889118, 0.1978919804096222, 0.0852075666189194, 0.0138595681637526, 0.1886478662490845, 0.2284458130598068, 0.0261732041835785, 0.0284721348434687, 0.0131670134142041, -0.0617696195840836, 0.0257558729499578, -0.0147268706932664, 0.1518930196762085, -0.0974165350198746, -0.0046208444982767, -0.0239821746945381, -0.1419796049594879, 0.0002743537188508, -0.1909565180540085, 0.0666880384087563, 0.0628525465726852, -0.0442652441561222, -0.0051557701081038, 0.1074233055114746, 0.0391522757709026, 0.2230994701385498, 0.2044955193996429, -0.1013102829456329, -0.0103771751746535, 0.0429422371089458, -0.0667667388916016, -0.0024741857778281, -0.0780555903911591, -0.0575834326446056, -0.2127544879913330, 0.1957702338695526, -0.0728146135807037, 0.0294776055961847, -0.0030924226157367, 0.1265591830015182, -0.0263661090284586, -0.1980344504117966, 0.0593370012938976, 0.0296829268336296, 0.1452368199825287, -0.0728498175740242, 0.0059455852024257, 0.3748243451118469, -0.0677376613020897, -0.0724820941686630, 0.0304722227156162, -0.2882708013057709, -0.0807801857590675, -0.2559618949890137, 0.0704777613282204, 0.2117398679256439, 0.1208324283361435, -0.0861420631408691, -0.0576658360660076, 0.0733278319239616, 0.1633589416742325, -0.1901805847883224, 0.1618713885545731, 0.1967812329530716, -0.0178490411490202, 0.0446369946002960, -0.0697391852736473, -0.0343622751533985, -0.0919704437255859, 0.2059641331434250, 0.2360944151878357, 0.3058850169181824, -0.1421321034431458, -0.0339068882167339, -0.0111557142809033, -0.1176054105162621, -0.0728101432323456, -0.0806249082088470, -0.0121170338243246, -0.0261678304523230, -0.1113314777612686, -0.1947814375162125, 0.3484551310539246, -0.0432086512446404, -0.0227536410093307, -0.1120336577296257, -0.0754421502351761, 0.0008837592322379, 0.0976180210709572, 0.0603139288723469, 0.1704403012990952, -0.1517510563135147, 0.0176518037915230, -0.4608079493045807, 0.0055248118005693, 0.2431862652301788, 0.0454600676894188