//Numpy array shape (192,)
//Min -0.831650257111
//Max 0.721675753593
//Number of zeros 0

#ifndef OUT_PROJ_BIAS84_H_
#define OUT_PROJ_BIAS84_H_

#ifndef __SYNTHESIS__
layers_11_self_attn_out_proj_bias_t out_proj_bias84[192];
#else
layers_11_self_attn_out_proj_bias_t out_proj_bias84[192] = {-0.07307621091604233, 0.00337689742445946, 0.21665847301483154, -0.09133001416921616, 0.07344703376293182, 0.19460083544254303, 0.08569264411926270, 0.11063664406538010, 0.02905157580971718, 0.21151548624038696, -0.08654277026653290, -0.06242817267775536, 0.18658718466758728, 0.11273185163736343, 0.16980795562267303, -0.12248870730400085, -0.16150622069835663, -0.12860098481178284, -0.04926264286041260, -0.09513133764266968, -0.00333799864165485, -0.83165025711059570, -0.00293526472523808, 0.03003855980932713, 0.03977669775485992, -0.20882177352905273, 0.12230051308870316, 0.14642901718616486, -0.09152903407812119, 0.05724295601248741, 0.02025688998401165, 0.17803126573562622, 0.02906214259564877, 0.09120569378137589, -0.02649667300283909, 0.05473918095231056, 0.22189395129680634, 0.17272369563579559, 0.03718691691756248, -0.00786798354238272, 0.03801089897751808, -0.09439309686422348, 0.14660651981830597, -0.18301323056221008, 0.16277496516704559, 0.13669331371784210, 0.19340462982654572, -0.12352372705936432, 0.07233051210641861, 0.08625470846891403, -0.16503417491912842, 0.21998144686222076, -0.28242966532707214, -0.19186513125896454, -0.07462777197360992, -0.30325889587402344, -0.15499366819858551, -0.14235717058181763, 0.13185635209083557, -0.07394654303789139, 0.08329036086797714, -0.14620807766914368, -0.08568117767572403, 0.02557717822492123, -0.10685366392135620, 0.05067642405629158, 0.38577347993850708, -0.24599049985408783, -0.20457106828689575, -0.07662707567214966, -0.00405341293662786, 0.10885965824127197, -0.01098567899316549, 0.04821535944938660, -0.07691447436809540, -0.19662445783615112, 0.06410662084817886, 0.28843238949775696, 0.12898766994476318, 0.02093637734651566, -0.01244507823139429, 0.04582369700074196, -0.23584808409214020, 0.14418175816535950, -0.16619725525379181, 0.21931257843971252, -0.22165651619434357, -0.01783353835344315, -0.03178076818585396, -0.26193177700042725, 0.00718956394121051, 0.04809542000293732, -0.15911853313446045, -0.02988089062273502, -0.03392880782485008, -0.15992988646030426, 0.03596533462405205, -0.26993530988693237, -0.12780767679214478, -0.19554583728313446, 0.18470326066017151, 0.17428319156169891, -0.04893255606293678, 0.17872571945190430, -0.05831154808402061, 0.15637373924255371, 0.02003416046500206, 0.15009199082851410, -0.08448258042335510, -0.04960384592413902, 0.15509162843227386, -0.21084114909172058, 0.05299611389636993, 0.12094853073358536, -0.14987748861312866, 0.23215806484222412, 0.13565148413181305, 0.02841176465153694, 0.11174600571393967, -0.11008638888597488, 0.04780085757374763, -0.00752470688894391, 0.13033352792263031, -0.01022449973970652, 0.08223977684974670, -0.10065566748380661, 0.02222968824207783, -0.21403217315673828, -0.08157577365636826, 0.03310072794556618, -0.12471126019954681, 0.07113374769687653, 0.08572046458721161, -0.04790510609745979, 0.09097153693437576, 0.13315069675445557, -0.03801974654197693, -0.17058378458023071, -0.07885237783193588, 0.11222840845584869, 0.03759805113077164, 0.07536173611879349, -0.00985936168581247, 0.08746345341205597, 0.10756220668554306, 0.15670429170131683, 0.72167575359344482, -0.09508334100246429, 0.12302725762128830, 0.04169004410505295, -0.40154680609703064, -0.37438780069351196, -0.05067246779799461, -0.05120414122939110, 0.03381356969475746, -0.03524462506175041, 0.02274279482662678, -0.05248301476240158, -0.10280001908540726, -0.03167070448398590, -0.25790649652481079, 0.04352020844817162, -0.14281442761421204, 0.02336922846734524, -0.02147335931658745, -0.07018696516752243, 0.03422909229993820, -0.01356623787432909, 0.13486452400684357, -0.04492010921239853, 0.03886106610298157, 0.17277775704860687, 0.11989554762840271, 0.13358062505722046, -0.04641576111316681, -0.10204584151506424, 0.13478654623031616, -0.05884063988924026, -0.08713120967149734, 0.08296359330415726, -0.01557408459484577, 0.05892105028033257, 0.05767080187797546, -0.01264830026775599, -0.02059690095484257, -0.03646472841501236, 0.13106794655323029, 0.04212649539113045, 0.04823892191052437, -0.00163721735589206, -0.26878753304481506, 0.01451853569597006};
#endif

#endif
