//Numpy array shape (192,)
//Min -0.534497499466
//Max 0.552858531475
//Number of zeros 0

#ifndef OUT_PROJ_BIAS42_H_
#define OUT_PROJ_BIAS42_H_

#ifndef __SYNTHESIS__
layers_4_self_attn_out_proj_bias_t out_proj_bias42[192];
#else
layers_4_self_attn_out_proj_bias_t out_proj_bias42[192] = {-0.01664587110280991, -0.03436305001378059, 0.13863958418369293, -0.19155548512935638, 0.47070220112800598, -0.18011233210563660, -0.00583675177767873, -0.07568102329969406, -0.00800550915300846, 0.00470368331298232, -0.46186304092407227, 0.20135974884033203, 0.03545807301998138, -0.16423138976097107, 0.49499285221099854, 0.00521562388166785, -0.21271643042564392, -0.53449749946594238, -0.05510724708437920, -0.21396300196647644, 0.03018599934875965, 0.52197492122650146, 0.03870962932705879, 0.07468735426664352, -0.00842566788196564, -0.13764584064483643, 0.01730408892035484, -0.16609109938144684, 0.13881963491439819, 0.19470855593681335, -0.04926868900656700, -0.19346942007541656, 0.24263475835323334, 0.02913335710763931, 0.14035123586654663, 0.35028141736984253, -0.10693394392728806, -0.09925969690084457, -0.13655242323875427, 0.26211196184158325, -0.07256478071212769, -0.14284032583236694, 0.06712921708822250, -0.12845271825790405, 0.34295731782913208, -0.08450073003768921, 0.04227942600846291, -0.11197026073932648, -0.03813415393233299, 0.07153940945863724, 0.38549578189849854, -0.38509714603424072, 0.10173188894987106, -0.01331788208335638, -0.21049296855926514, -0.38413092494010925, -0.23465466499328613, 0.10674877464771271, -0.20077051222324371, 0.02036003209650517, -0.26362156867980957, 0.03521147742867470, 0.21370202302932739, 0.35393649339675903, -0.20802596211433411, -0.27115201950073242, 0.01037937216460705, 0.30260905623435974, -0.36376172304153442, 0.18414528667926788, -0.06710629165172577, -0.10471888631582260, -0.21979843080043793, -0.01122609153389931, -0.03453509137034416, 0.17140671610832214, -0.44181075692176819, -0.02629722096025944, -0.17863640189170837, -0.35234829783439636, -0.31744694709777832, 0.03078960999846458, -0.18507273495197296, -0.26883295178413391, 0.14463385939598083, 0.33921608328819275, -0.48246067762374878, -0.22021305561065674, -0.01492997631430626, 0.55285853147506714, -0.20967887341976166, 0.09794698655605316, -0.15939640998840332, -0.10659574717283249, 0.19002245366573334, 0.13445791602134705, -0.27797544002532959, 0.27529251575469971, 0.23323589563369751, -0.05984551087021828, -0.07543823122978210, -0.15900282561779022, -0.07686126977205276, 0.03066335618495941, 0.14322297275066376, -0.03727466985583305, -0.05740919709205627, 0.00083145569078624, 0.00184399099089205, 0.17989693582057953, -0.09756875783205032, -0.09908188879489899, 0.44041076302528381, -0.03760128095746040, 0.03279680013656616, -0.18558953702449799, -0.25127574801445007, 0.20651166141033173, -0.09978158771991730, -0.02315910533070564, -0.31650334596633911, 0.12092372775077820, 0.08219201117753983, 0.02899621799588203, 0.08069933205842972, -0.05125778540968895, -0.11154044419527054, -0.03900513052940369, 0.10286584496498108, -0.14207670092582703, -0.07714843004941940, -0.13209886848926544, 0.06732226908206940, -0.09222785383462906, 0.07545135170221329, -0.10139578580856323, 0.37435993552207947, 0.21370573341846466, 0.15767651796340942, -0.17497855424880981, -0.01171203050762415, 0.00750240124762058, 0.10963426530361176, 0.19618219137191772, 0.25962096452713013, -0.39219000935554504, -0.07648128271102905, 0.48200190067291260, -0.08948383480310440, 0.17470251023769379, 0.01451451517641544, 0.01249613706022501, 0.01426098123192787, -0.04544901475310326, -0.00128162687178701, 0.17118392884731293, 0.04204788804054260, -0.04943209514021873, 0.15318714082241058, -0.08009537309408188, 0.36570486426353455, 0.38008216023445129, -0.03709537908434868, -0.09823656082153320, -0.45875388383865356, 0.09704600274562836, -0.00307277240790427, 0.21483387053012848, 0.43191862106323242, 0.09337940067052841, 0.09185267984867096, 0.21869197487831116, 0.00972928851842880, -0.16266645491123199, -0.08028090745210648, 0.20524655282497406, 0.08184076100587845, -0.24107275903224945, 0.09995847195386887, 0.28251132369041443, 0.16441980004310608, 0.22876246273517609, 0.26106438040733337, -0.39363095164299011, -0.36617165803909302, -0.17027288675308228, 0.00006966943328734, -0.15865513682365417, -0.09974770992994308, -0.22782962024211884, 0.12023235112428665, 0.13811974227428436};
#endif

#endif
