-0.014746607281268, -1.081162691116333, 0.072336763143539, 0.199502110481262, 0.087878122925758, 0.470560073852539, 0.046753723174334, -0.058408573269844, -0.085461571812630, 0.014113561250269, -0.250404804944992, -0.024894719943404, -0.271776437759399, 0.103593058884144, 0.392232537269592, -0.043375678360462, -0.046195402741432, -0.012772697024047, 0.170810699462891, 1.988148212432861, 0.186607867479324, -0.246176898479462, 0.148326069116592, 0.094267509877682, -0.024464154615998, -0.091332428157330, 0.086905658245087, 0.068483397364616, 0.328098863363266, 0.020034270361066, 0.101062193512917, -0.071262538433075, 0.601216971874237, -0.034902814775705, -0.035659626126289, -0.042178455740213, -0.017882525920868, -0.220899239182472, 0.083175905048847, -0.258257538080215, 0.351648598909378, -0.230428948998451, -0.044425655156374, 0.100057780742645, -0.063772663474083, -0.021305164322257, -0.090611323714256, 0.116667881608009, 0.196492955088615, 0.014861551113427, 0.380774646997452, 0.081844106316566, -0.058881226927042, -0.014744623564184, -2.489936590194702, 0.794664800167084, 0.091728352010250, -0.045313324779272, 0.366401135921478, -0.145148947834969, 0.071480005979538, -0.029021736234426, -0.074268184602261, 0.199400424957275, 0.142475694417953, -0.689745843410492, -0.253602683544159, 0.144512474536896, -0.201258525252342, 0.061781771481037, -0.042947683483362, -0.004030302166939, 0.044210761785507, 0.330716639757156, -0.093371130526066, -0.071343027055264, -0.102170281112194, -0.053631182760000, 0.039410173892975, 0.005973713006824, -0.033450052142143, -0.083710916340351, 0.070256695151329, 0.093215279281139, 0.196498379111290, -0.374017387628555, -0.244730412960052, 0.046267196536064, -0.003157585626468, 0.027890535071492, 0.563399136066437, 0.176598995923996, -0.069458790123463, -0.182778224349022, -0.106089837849140, -0.199019864201546, 0.023398160934448, -0.059065718203783, -0.000088715642050, -0.051516193896532, -0.140398502349854, 0.349839389324188, -0.423845082521439, -0.046729665249586, -0.524783015251160, 0.016121517866850, 0.067861102521420, 0.083979442715645, -0.155335068702698, 1.659847974777222, 0.062514126300812, 0.011699218302965, 0.166977316141129, -0.580685973167419, 0.002967210952193, -0.104755274951458, -0.060875456780195, 0.030141057446599, 0.141974613070488, 1.682619690895081, 0.264909476041794, -0.532589077949524, -0.116694457828999, 0.029911186546087, -0.056641805917025, 0.017712067812681, -2.674415349960327, 0.173774600028992, 0.024192107841372, -0.166202291846275, -0.170022219419479, 0.124357469379902, -0.055849976837635, 0.007106741890311, 0.058619786053896, 0.146243959665298, -0.281109452247620, 0.035755068063736, 0.143270596861839, -0.287499427795410, -0.199490219354630, -0.002388916444033, -0.002747208345681, -0.037809401750565, 0.173676490783691, 0.332807302474976, -0.231750890612602, 0.539043068885803, 0.079021789133549, -0.003980227746069, -0.081198364496231, -0.106838688254356, 0.005555298179388, 0.074266560375690, 0.071154147386551, -0.816637098789215, 0.433471441268921, -0.128734827041626, -0.423869341611862, -0.147113546729088, 0.030185239389539, -0.128444015979767, -0.201965942978859, -0.325579017400742, -0.079992331564426, 0.096676774322987, 0.049426447600126, -0.157844051718712, 0.037915520370007, -0.028554964810610, -0.057683255523443, 0.052269544452429, 0.492334693670273, -1.164942383766174, -0.285945475101471, 0.084460563957691, 0.259567886590958, 0.045059610158205, -0.059670537710190, -0.084212444722652, 0.056528814136982, -0.110322199761868, -0.245586663484573, -0.299665957689285, -0.169704541563988, 0.046283509582281, -0.052279789000750, 0.045382168143988, 0.114683344960213, 0.043613009154797, -0.097966991364956, -0.161358520388603, 0.064419865608215, 0.271648108959198, 0.545756578445435, -0.039428152143955, 0.062789432704449, -0.121584430336952, 0.060132931917906, -0.035607486963272, -0.022471901029348, -0.094136379659176, 0.374492794275284, -0.221660673618317, 0.010737671516836, -0.103129900991917, 0.021299015730619, -0.025500269606709, -0.506279170513153, -1.998059272766113, -0.039848975837231, 0.171744838356972, -0.156311154365540, 0.046883169561625, 0.003731162520126, 0.005245169624686, -0.079244501888752, 1.023447155952454, -0.160986378788948, 0.043334681540728, -0.527659893035889, 0.324974477291107, 0.102410085499287, 0.050637122243643, 0.009415865875781, 0.161419451236725, 0.331764698028564, -2.186855792999268, 0.102436348795891, -0.575351774692535, -0.685900270938873, 0.012542820535600, -0.000259288121015, -0.014610854908824, -0.305714219808578, 0.092078536748886, -0.069466941058636, -0.105782181024551, -0.303021281957626, 0.173336282372475, 0.080756425857544, 0.006133100017905, -0.105363726615906, 0.134291782975197, -0.100964389741421, -0.279622167348862, -0.157674893736839, 0.266533464193344, 0.054462436586618, 0.097336985170841, 0.057904001325369, 0.036484688520432, -0.906219601631165, 0.348683059215546, -0.070063479244709, -0.070201121270657, 0.118666268885136, -0.031582463532686, 0.054803475737572, 0.077881202101707, -0.191919595003128, -0.084094345569611, 0.091263815760612, 0.051723446696997, 0.671433389186859, 0.005982941947877, -0.252448022365570, 0.176437109708786, -0.010435662232339, 0.086131289601326, 0.103468470275402, 0.071216024458408, -0.060015801340342, -0.368643641471863, -0.119888648390770, 0.199794158339500, 0.086394503712654, 0.013744319789112, -0.014625147916377, 0.001814249553718, -0.142656370997429, -0.984681129455566, 0.175610572099686, -0.408450990915298, -0.218731462955475, -0.063021697103977, -0.078995048999786, -0.019581416621804, 0.133226513862610, 0.044993102550507, 0.014116851612926, -0.218052119016647, -0.447646826505661, 0.135647937655449, 0.001307395054027, 0.051598280668259, 0.001016385853291, -0.134305670857430, -0.349126905202866, -0.883811056613922, -0.489761084318161, -0.296385914087296, 0.078130282461643, -0.057722784578800, -0.118180282413960, 0.022908560931683, -0.764507174491882, 0.433399885892868, -0.378636896610260, -0.008509202860296, -0.151138395071030, -0.703222036361694, -0.050023958086967, 0.006993246730417, 0.051213927567005, 0.353247672319412, -0.252430170774460, 0.090182207524776, 0.322483301162720, 0.296885877847672, 0.372105091810226, -0.139535605907440, -0.030255815014243, 0.002887118142098, 0.191763773560524, -0.166567072272301, -0.124185249209404, 0.100476808845997, 0.472157329320908, 0.356269210577011, -0.032271362841129, 0.003857575124130, 0.015078085474670, 0.332795470952988, 0.472595304250717, -0.167142540216446, 0.170941427350044, 0.148280754685402, -0.128989189863205, -0.014007750898600, -0.002820366295055, -0.074126034975052, 0.019459666684270, -0.234049528837204, -0.135017022490501, -0.076859407126904, 0.218944445252419, 0.069471992552280, 0.067608982324600, 0.032873999327421, 0.012145811691880, -0.072001196444035, 0.276804715394974, -0.022037228569388, -0.086504586040974, 0.573015034198761, 0.223006412386894, 0.018903490155935, 0.068118371069431, -0.021548761054873, -0.014768054708838, 0.083395659923553, 0.189877003431320, 0.472737520933151, -0.095832228660583, -0.232218459248543, 0.016455393284559, -0.029462331905961, 0.012576112523675, 0.248362779617310, 0.278058618307114, 0.261440515518188, 0.366977274417877, -0.802726387977600, -0.012896260246634, -0.042562309652567, -0.089643612504005, 0.010657543316483, -0.337284117937088, -2.252468347549438, -0.065605625510216, 0.176200285553932, 0.413507968187332, 0.022236291319132, 0.055198207497597, -0.016730805858970, 0.017902821302414, -0.096537806093693, -0.084783494472504, -1.693227052688599, -0.092958979308605, -0.287571698427200, 0.026712737977505, -0.007197707425803, -0.086094886064529, -0.037581034004688, -0.074057660996914, -0.354917734861374, -0.132790997624397, 0.103777386248112, -0.219256475567818, 0.472934424877167, -0.134896144270897, 0.008782878518105, 0.080231234431267, -0.523316025733948, -0.302319258451462, -0.292246550321579, 0.357344388961792, 0.720197737216949, 0.310584038496017, 0.090722888708115, -0.063755668699741, -0.048394139856100, -0.025640584528446, -0.319166779518127, 0.289753913879395, -0.155774578452110, 0.128029644489288, -0.081136748194695, -0.019993843510747, -0.063234902918339, 0.058497432619333, -0.018037995323539, 0.093135923147202, 0.343331396579742, -0.172954529523849, -0.399107724428177, -0.184071823954582, -0.033869497478008, 0.108504205942154, 0.021104669198394, -0.293160706758499, 0.351810336112976, 0.249000415205956, 0.015349516645074, -0.257536143064499, -0.635366082191467, 0.036175839602947, 0.193897753953934, -0.035737641155720, 0.066787503659725, -0.071109212934971, 0.072198189795017, -0.007511320523918, -0.207350492477417, -0.511479735374451, -0.090855166316032, -0.083514586091042, 0.032955519855022, 0.171824708580971, -0.222631230950356, -0.205674961209297, -0.223536550998688, 0.595719099044800, -0.065911881625652, 0.026188373565674, 0.020730135962367, 0.145686939358711, 0.008882723748684, 0.343599736690521, 0.034869186580181, -0.044338393956423, -0.139423653483391, -0.438613623380661, -0.066641718149185, 0.014553902670741, -0.045252744108438, -0.169390887022018, -0.777474701404572, -0.054355528205633, -0.319582402706146, 0.478564381599426, -0.169882535934448, -0.077696718275547, 0.096635259687901, 0.001231870730408, 0.000324668857502, 0.273895561695099, 0.118749938905239, -0.555988788604736, 0.045884940773249, 0.206617653369904, -0.012183301150799, -0.202415198087692, -0.080207675695419, 0.007426420226693, -0.299645751714706, 0.257086575031281, 0.360496401786804, -0.553846657276154, 0.635886728763580, 0.113890655338764, 0.024917753413320, 0.002697261981666, 0.105431593954563, 0.120876245200634, 0.073261685669422, -0.072276845574379, -0.023813622072339, 0.160185620188713, 0.026622796431184, -0.035646926611662, 0.165420547127724, 0.118628159165382, 0.096256740391254, -0.287983864545822, -0.522957861423492, 0.243454113602638, -0.153426691889763, 0.013181075453758, -0.046051774173975, -0.017373656854033, -0.171498492360115, -0.720786213874817, -0.173576027154922, -0.256092309951782, -0.198571085929871, 0.057173401117325, 0.010687076486647, 0.075945109128952, 0.054464697837830, 0.045528359711170, -0.030423033982515, 0.325822591781616, -0.301397979259491, -0.148189514875412, -0.129333972930908, -0.090893156826496, 0.013951350003481, 0.086308486759663, 0.034665133804083, -0.021699106320739, -0.218204095959663, -0.034560721367598, -0.062889106571674, 0.309108942747116, 0.022024013102055, 0.035212442278862, 0.092682130634785, -0.467599213123322, -0.217883005738258, 0.075423128902912, 0.292211353778839, 0.603346347808838, -0.231350079178810, 0.014801025390625, -0.011993483640254, -0.054708886891603, -0.024976693093777, -0.327260822057724, 0.016211312264204, 0.037181273102760, 0.239463403820992, 0.210257574915886, 0.053832005709410, -0.068204596638680, -0.105569586157799, 0.939483225345612, 0.416200637817383, 0.094809792935848, -0.307347983121872, -0.022333288565278, 0.110086634755135, -0.020661996677518, 0.008838087320328, 0.060800801962614, 0.197718903422356, -0.279592663049698, -0.070836558938026, 0.106500007212162, 0.305602014064789, 0.154870361089706, 0.116555817425251, -0.064757354557514, 0.025638522580266