//Numpy array shape (192,)
//Min -0.320679992437
//Max 0.338340520859
//Number of zeros 0

#ifndef OUT_PROJ_BIAS66_H_
#define OUT_PROJ_BIAS66_H_

#ifndef __SYNTHESIS__
layers_8_self_attn_out_proj_bias_t out_proj_bias66[192];
#else
layers_8_self_attn_out_proj_bias_t out_proj_bias66[192] = {0.062109559774398804, 0.029336061328649521, -0.012296873144805431, -0.280527591705322266, -0.024818031117320061, -0.131076395511627197, 0.025494178757071495, 0.099308818578720093, -0.056114230304956436, 0.198721438646316528, 0.042421378195285797, -0.285975426435470581, 0.001963839400559664, -0.074577569961547852, 0.051736291497945786, -0.027750523760914803, 0.310156106948852539, -0.071102440357208252, 0.109507210552692413, 0.150915712118148804, -0.012226247228682041, 0.154163420200347900, -0.202857509255409241, 0.091380700469017029, -0.061279993504285812, 0.086327597498893738, -0.047945085912942886, 0.043386265635490417, -0.027359442785382271, -0.145110502839088440, -0.062395222485065460, -0.028436822816729546, -0.042572785168886185, 0.208858788013458252, 0.000526406278368086, -0.137991279363632202, 0.001817177981138229, -0.114748999476432800, 0.111717492341995239, 0.136071145534515381, 0.225112915039062500, -0.021185753867030144, -0.123640470206737518, -0.159788906574249268, -0.005785973742604256, -0.021206088364124298, 0.033540584146976471, -0.101459324359893799, 0.040270719677209854, -0.074995413422584534, -0.032901391386985779, 0.017803918570280075, -0.020527912303805351, 0.139254465699195862, -0.045439440757036209, 0.140121981501579285, 0.037790860980749130, 0.021997954696416855, -0.061627618968486786, 0.159151285886764526, 0.079612113535404205, -0.119393646717071533, -0.071670725941658020, -0.175677284598350525, -0.041730683296918869, 0.092480048537254333, -0.067044213414192200, -0.132892161607742310, 0.233006119728088379, 0.115838691592216492, 0.021924577653408051, -0.001723397406749427, -0.263690441846847534, -0.026518439874053001, 0.076025702059268951, 0.014973403885960579, 0.107183933258056641, 0.145969957113265991, -0.074249297380447388, 0.302872925996780396, -0.037813674658536911, -0.155039325356483459, -0.099739737808704376, -0.081151135265827179, 0.038605220615863800, -0.169398382306098938, -0.100350543856620789, -0.007168551906943321, -0.320679992437362671, 0.180274873971939087, -0.057488709688186646, -0.029054822400212288, 0.278540611267089844, 0.076240018010139465, 0.066667832434177399, 0.010436979122459888, -0.066653363406658173, -0.025968348607420921, -0.005376439075917006, -0.001026094891130924, -0.064938552677631378, -0.236250445246696472, -0.009927954524755478, -0.221224039793014526, -0.006418965291231871, 0.004676480777561665, -0.084314040839672089, 0.004477505572140217, 0.076809845864772797, -0.051781173795461655, 0.025378640741109848, 0.040215890854597092, 0.095288529992103577, 0.040082454681396484, 0.106886781752109528, -0.104296401143074036, 0.093542411923408508, -0.208937600255012512, 0.236406028270721436, 0.080598518252372742, 0.216205820441246033, 0.081881076097488403, 0.107760019600391388, -0.136004447937011719, 0.115885667502880096, -0.037534281611442566, -0.040709234774112701, -0.021603975445032120, -0.041102919727563858, -0.130351468920707703, 0.338340520858764648, -0.117873102426528931, 0.077675640583038330, 0.137864440679550171, 0.058280512690544128, -0.142872005701065063, -0.118078835308551788, 0.101572312414646149, -0.090723164379596710, 0.002472690073773265, 0.073974810540676117, -0.025498846545815468, -0.007432351354509592, 0.014918414875864983, 0.186826556921005249, -0.175002872943878174, -0.272183209657669067, 0.085657887160778046, -0.011059951968491077, -0.075913093984127045, -0.062190614640712738, -0.049663331359624863, 0.320500791072845459, 0.040520507842302322, -0.120475791394710541, 0.005606193561106920, 0.206721276044845581, 0.067639939486980438, 0.074189595878124237, -0.023117236793041229, 0.029189540073275566, -0.017637409269809723, 0.024336842820048332, 0.074208363890647888, -0.046857919543981552, -0.066190391778945923, -0.082107245922088623, 0.000072865914262366, 0.025685289874672890, 0.080198399722576141, -0.081226870417594910, 0.037332277745008469, -0.085250653326511383, 0.062630459666252136, 0.078987024724483490, -0.073070637881755829, 0.028045155107975006, -0.092141419649124146, -0.014040342532098293, 0.050442770123481750, -0.028339028358459473, -0.132831528782844543, 0.016808183863759041, 0.043967183679342270, -0.029419597238302231, 0.057308051735162735, -0.027282712981104851, -0.024559309706091881, -0.196960747241973877, -0.194792658090591431, -0.166133195161819458, -0.103158734738826752};
#endif

#endif
