//Numpy array shape (192,)
//Min -0.576596975327
//Max 0.548237860203
//Number of zeros 0

#ifndef OUT_PROJ_BIAS36_H_
#define OUT_PROJ_BIAS36_H_

#ifndef __SYNTHESIS__
layers_3_self_attn_out_proj_bias_t out_proj_bias36[192];
#else
layers_3_self_attn_out_proj_bias_t out_proj_bias36[192] = {0.24293576180934906, 0.03156610950827599, 0.11781396716833115, -0.07978489249944687, 0.05658059939742088, 0.05407558009028435, -0.09479339420795441, -0.20619800686836243, -0.16649383306503296, -0.05448907986283302, -0.35525861382484436, 0.24849599599838257, -0.02952844835817814, -0.15939584374427795, 0.43513819575309753, 0.26200234889984131, -0.29007598757743835, -0.27594661712646484, 0.09662897884845734, 0.01140406541526318, -0.22243070602416992, 0.35872828960418701, 0.04961467161774635, -0.04826867580413818, 0.06507308036088943, -0.05461779236793518, 0.30047103762626648, -0.25540515780448914, -0.18289504945278168, 0.13471707701683044, 0.02869354933500290, -0.31291490793228149, 0.37327143549919128, 0.00003410162389628, -0.04217752069234848, 0.16236567497253418, -0.18825556337833405, -0.13189199566841125, -0.07043177634477615, 0.24076588451862335, 0.22262823581695557, -0.02471474930644035, 0.04292331263422966, -0.06768015027046204, 0.15347911417484283, 0.19608169794082642, -0.08576584607362747, -0.02269772998988628, -0.35872036218643188, 0.10281983762979507, 0.16660514473915100, -0.42609298229217529, 0.06313624233007431, 0.03139424696564674, -0.35434922575950623, -0.13774091005325317, 0.11518073081970215, 0.01657765358686447, 0.14194521307945251, 0.19088020920753479, -0.19357430934906006, 0.10809919983148575, 0.10853806138038635, 0.15248188376426697, -0.01411926280707121, -0.35058683156967163, 0.01491153612732887, 0.11336281150579453, -0.14588306844234467, 0.00611017690971494, 0.04892439767718315, -0.18876571953296661, -0.20448429882526398, 0.29343801736831665, -0.20026566088199615, 0.02537319436669350, -0.29625698924064636, -0.03234866634011269, 0.09198791533708572, -0.14322085678577423, -0.30211102962493896, 0.37049996852874756, -0.04248746857047081, -0.57659697532653809, 0.32659557461738586, 0.19471973180770874, 0.02154218405485153, -0.10929259657859802, 0.19611281156539917, 0.43414169549942017, 0.21773456037044525, -0.03667768463492393, -0.23635041713714600, -0.02710556797683239, 0.01669091358780861, -0.00585047109052539, -0.04856048896908760, -0.06653174757957458, -0.24966897070407867, 0.03712483868002892, -0.27763178944587708, -0.08670084923505783, -0.02507060021162033, 0.19106821715831757, -0.01457064785063267, -0.27980363368988037, -0.04736968874931335, 0.16117638349533081, 0.09568130224943161, 0.07495237141847610, 0.02016427554190159, 0.12108485400676727, 0.19925038516521454, -0.09698706120252609, 0.06003362685441971, -0.38777726888656616, -0.36237061023712158, -0.06236150860786438, -0.01404748018831015, -0.14088577032089233, -0.30365854501724243, -0.23782616853713989, 0.05286997184157372, 0.01429436262696981, 0.04836457222700119, 0.43903279304504395, -0.07246126234531403, 0.00321405380964279, 0.19986975193023682, 0.31722891330718994, -0.26748728752136230, 0.09072939306497574, 0.13647092878818512, -0.17542365193367004, -0.15288184583187103, -0.13481093943119049, 0.15105867385864258, 0.31475397944450378, -0.03045655973255634, -0.26858171820640564, 0.05932715907692909, -0.14177906513214111, 0.17635737359523773, 0.15780323743820190, 0.01103882212191820, -0.02777720242738724, 0.11709681153297424, 0.22548237442970276, -0.25651770830154419, 0.17290487885475159, -0.02779821120202541, -0.20017002522945404, -0.08985976874828339, -0.08913151174783707, -0.09765164554119110, -0.06479461491107941, 0.00035959293018095, 0.03443480283021927, 0.22217710316181183, 0.24469877779483795, 0.02204927429556847, -0.04297735542058945, 0.05875099822878838, -0.12259281426668167, -0.35824036598205566, 0.03535379469394684, 0.08010461181402206, 0.14147092401981354, -0.18727947771549225, 0.00357000203803182, -0.01754107326269150, 0.33684647083282471, -0.17236392199993134, -0.02711545117199421, 0.05833416804671288, 0.16744792461395264, 0.54823786020278931, -0.11472409218549728, -0.01181501802057028, -0.08665285259485245, 0.07403784245252609, -0.07148970663547516, 0.35391914844512939, -0.29203903675079346, -0.10809021443128586, -0.28288781642913818, -0.06718005985021591, 0.27347889542579651, 0.06359804421663284, -0.41197845339775085, -0.07932627946138382, 0.40434190630912781};
#endif

#endif
