//Numpy array shape [192]
//Min -0.370545864105
//Max 0.674346506596
//Number of zeros 0

#ifndef OUT_PROJ_BIAS81_H_
#define OUT_PROJ_BIAS81_H_

#ifndef __SYNTHESIS__
layers_10_ffn_out_proj_bias_t out_proj_bias81[192];
#else
layers_10_ffn_out_proj_bias_t out_proj_bias81[192] = {-0.03332129120826721, -0.17051734030246735, 0.20062683522701263, -0.14213886857032776, -0.16212998330593109, 0.04487257823348045, -0.09269902855157852, -0.17066009342670441, 0.08032727241516113, -0.02476399578154087, -0.03409662097692490, -0.00324803940020502, -0.05952764302492142, -0.23873332142829895, 0.18869128823280334, 0.19927397370338440, 0.17363347113132477, -0.08918710052967072, -0.03185254335403442, -0.08434212207794189, -0.04714288562536240, 0.67434650659561157, 0.06039763242006302, -0.00214851042255759, -0.10094414651393890, -0.25814241170883179, -0.14312806725502014, -0.06160722300410271, -0.06315916776657104, 0.07647545635700226, -0.07566572725772858, 0.20819050073623657, -0.13774484395980835, -0.10281496495008469, -0.10739208757877350, 0.03349045664072037, 0.27530568838119507, -0.12125970423221588, 0.06930258870124817, 0.03289922699332237, -0.05791794508695602, -0.04951805993914604, -0.18420532345771790, -0.06306350231170654, 0.01415402255952358, 0.09770311415195465, -0.02400530688464642, 0.05755174905061722, 0.13965646922588348, 0.06155575811862946, -0.18981312215328217, -0.17425662279129028, -0.16485804319381714, -0.07366424798965454, -0.25672417879104614, 0.24540451169013977, -0.26738941669464111, -0.13008108735084534, 0.00937002617865801, -0.16084161400794983, -0.05621831491589546, 0.01963021606206894, -0.06444513052701950, 0.15863761305809021, -0.14081984758377075, 0.31675294041633606, 0.15725028514862061, 0.07697981595993042, -0.09397704899311066, -0.19135279953479767, 0.02472278289496899, 0.00564776360988617, 0.04147900268435478, -0.05905908346176147, -0.08335889875888824, -0.13971069455146790, 0.10114286839962006, 0.02167306654155254, 0.01884238608181477, 0.01634322106838226, -0.15035669505596161, 0.10351566970348358, -0.22971539199352264, 0.05307648330926895, 0.03415421396493912, 0.13748867809772491, -0.26977035403251648, -0.30324834585189819, 0.04099618643522263, -0.23131211102008820, -0.10362258553504944, -0.02648362889885902, -0.02480169944465160, -0.16653384268283844, 0.12705528736114502, 0.07772571593523026, -0.11907610297203064, -0.19214780628681183, -0.25797289609909058, -0.02061297930777073, 0.06107485666871071, -0.01374119985848665, -0.05016961321234703, 0.24349778890609741, -0.07678696513175964, 0.16150216758251190, 0.08430144935846329, 0.16011518239974976, -0.08394123613834381, 0.07995252311229706, 0.06963361799716949, 0.04543554410338402, 0.08758723735809326, -0.06354802101850510, 0.10422968119382858, 0.43843254446983337, -0.04719599336385727, 0.06385388970375061, 0.02747626230120659, -0.02283497527241707, 0.34187355637550354, 0.10417317599058151, 0.15008452534675598, 0.07453472167253494, -0.09577208757400513, -0.04434483125805855, -0.07779394835233688, 0.01771507039666176, 0.01960448175668716, -0.10482352972030640, -0.09009699523448944, -0.37054586410522461, -0.03811007738113403, -0.11628742516040802, -0.11048042029142380, 0.11842765659093857, -0.28177896142005920, -0.17410172522068024, -0.02264417894184589, 0.19181686639785767, 0.11980912089347839, 0.00616522179916501, 0.04085364192724228, 0.05791649222373962, -0.09390329569578171, 0.15585507452487946, -0.04974567517638206, 0.06366883218288422, 0.08701129257678986, -0.00236276770010591, 0.16105608642101288, 0.06951709836721420, -0.21508310735225677, -0.05286287888884544, 0.09540288895368576, 0.26328766345977783, -0.06855711340904236, 0.19453974068164825, 0.10929546505212784, 0.01877830177545547, -0.11843813955783844, 0.16236306726932526, -0.07967209815979004, -0.17058853805065155, 0.53999769687652588, -0.02746593952178955, 0.13948357105255127, -0.05071786418557167, 0.07330300658941269, 0.07900169491767883, -0.01792671903967857, -0.14666697382926941, 0.07526716589927673, 0.08449888229370117, 0.03012362681329250, -0.08599326014518738, -0.06812380254268646, 0.11218215525150299, -0.12268448621034622, -0.08975993841886520, -0.05493243038654327, 0.06141410768032074, 0.29932153224945068, -0.03326937183737755, -0.00929007399827242, -0.06294931471347809, 0.14350649714469910, -0.11101555079221725, -0.13550613820552826, 0.29184985160827637, -0.00409522419795394, 0.24412977695465088};
#endif

#endif
