//Numpy array shape [192]
//Min -1.614814996719
//Max 0.699032843113
//Number of zeros 0

#ifndef BIAS38_H_
#define BIAS38_H_

#ifndef __SYNTHESIS__
layers_3_norm2_bias_t bias38[192];
#else
layers_3_norm2_bias_t bias38[192] = {-0.0572076961398125, -0.0108617655932903, -0.1972535401582718, -0.0172438919544220, 0.3953017294406891, -0.1081388816237450, 0.1343099325895309, -0.0402060821652412, 0.0062885601073503, 0.1615178436040878, 0.3448992669582367, -0.1500944942235947, 0.1845693588256836, 0.3046907782554626, 0.6990328431129456, -0.4615429341793060, 0.2050892561674118, 0.1629115045070648, -0.0806554704904556, -0.1157748028635979, 0.5540511012077332, -1.6148149967193604, -0.1423664391040802, -0.3058426082134247, -0.0922044292092323, 0.0275342762470245, -0.1514275372028351, -0.0904002487659454, 0.2704575061798096, -0.2779447436332703, -0.0703027024865150, 0.2718054354190826, -0.3207449615001678, 0.0086709568277001, -0.1851018220186234, 0.0574455000460148, 0.2160721719264984, -0.0246455948799849, -1.1506884098052979, -0.1943645924329758, -0.1280534118413925, 0.0132754147052765, -0.0548752546310425, 0.0517466813325882, 0.2076216042041779, -0.2770604193210602, 0.0633489266037941, -0.0007440465269610, 0.1074175983667374, 0.1067797690629959, -0.0642033666372299, 0.1857101768255234, -0.3218659162521362, 0.0154723767191172, -0.3519210219383240, -0.0683920755982399, -0.3328185379505157, 0.2801588773727417, -0.1906716823577881, -0.3019258975982666, 0.3202348351478577, -0.1467286795377731, 0.0943118035793304, 0.0296086519956589, -0.1281831264495850, 0.5390458703041077, -0.0115691889077425, -0.2313815504312515, -0.2689410150051117, -0.2679871618747711, -0.1737081706523895, -0.1309183537960052, -0.2419813275337219, -0.1829537153244019, 0.1531672328710556, -0.0069725434295833, 0.0256511159241199, -0.2166750133037567, -0.3600341379642487, -0.1304727494716644, 0.2142534255981445, 0.2877499163150787, -0.0659734606742859, 0.5580578446388245, -0.2787133753299713, 0.2901405394077301, -0.2223128974437714, 0.0905755609273911, -0.1032134369015694, -0.1847018450498581, -0.3551010191440582, 0.1685125529766083, 0.2346720844507217, 0.1185618266463280, -0.0636396408081055, 0.3372130095958710, -0.0901270955801010, 0.1224207058548927, 0.3421242535114288, 0.0733075141906738, 0.2204612344503403, 0.0181413069367409, -0.0165502801537514, -0.1997492611408234, 0.0435278713703156, 0.1702601909637451, 0.0602186471223831, -0.1998447775840759, -0.2560651302337646, -0.2644410431385040, -0.0849593505263329, 0.0137942815199494, -0.0305632185190916, 0.1868155151605606, 0.1555139869451523, 0.4197675585746765, -0.2122994661331177, 0.2031694799661636, 0.0132800582796335, -0.1071307957172394, 0.5586573481559753, 0.3476377129554749, -0.0291030015796423, 0.1955596357584000, 0.1069342568516731, -0.6527770757675171, 0.0631020516157150, -0.1984898746013641, -0.1881100982427597, -0.4254718720912933, 0.3780146837234497, -0.2708714008331299, 0.0175020378082991, 0.3912880122661591, 0.2167423814535141, 0.2269757390022278, -0.1878485828638077, -0.3478382527828217, -0.2551943063735962, 0.1278202533721924, -0.0435206033289433, 0.3284473419189453, -0.2351628243923187, 0.1471560895442963, 0.2297620475292206, 0.0432277359068394, 0.0689038112759590, -0.0300474539399147, -0.1371353268623352, -0.1276646852493286, -0.1723735183477402, -0.0877257585525513, 0.0713279768824577, 0.1104027926921844, 0.0456270053982735, 0.2571793794631958, -0.2601917684078217, 0.0143862506374717, -0.5129290819168091, -0.2493478059768677, -0.0671130344271660, 0.1458310037851334, -0.1413158476352692, 0.0252786558121443, -0.1018606647849083, 0.2682171463966370, 0.1910360604524612, -0.2847136855125427, 0.6478291153907776, 0.1083197966217995, -0.2454670220613480, -0.1868378818035126, 0.1375087201595306, 0.1368616819381714, -0.1174910739064217, 0.2717436850070953, -0.3063870072364807, 0.1142953708767891, -0.1117402166128159, 0.1878964453935623, 0.0141288405284286, 0.1953752636909485, 0.3962087035179138, -0.0070621185004711, -0.5281582474708557, -0.3241619467735291, 0.0424099899828434, -0.2277202457189560, 0.0562824569642544, -0.0797004103660583, -0.0114969164133072, 0.0404461510479450};
#endif

#endif
