//Numpy array shape [192]
//Min -1.609584093094
//Max 0.947374939919
//Number of zeros 0

#ifndef BIAS4_H_
#define BIAS4_H_

#ifndef __SYNTHESIS__
norm_bias_t bias4[192];
#else
norm_bias_t bias4[192] = {0.1869990378618240, 0.3043525516986847, 0.1370582729578018, 0.3347619175910950, 0.0667371079325676, 0.1288955807685852, 0.0279963314533234, 0.0000609000599070, 0.1533643156290054, -0.4329930543899536, -0.3903220295906067, 0.0368565432727337, 0.2843380868434906, 0.1882050782442093, -0.5746029019355774, 0.0585285238921642, -0.9112797379493713, 0.5348545908927917, -0.0876189693808556, -0.0177822392433882, -0.0875788703560829, -1.6095840930938721, 0.0831123962998390, 0.0768402814865112, 0.3207122981548309, 0.3362309038639069, 0.1351633816957474, -0.0762466043233871, 0.0144163342192769, 0.3869587481021881, 0.0542566180229187, -0.6427904367446899, 0.9473749399185181, 0.1133289113640785, -0.1024695709347725, 0.0453287437558174, -1.0448582172393799, 0.1821777820587158, 0.1673680096864700, -0.3722594082355499, -0.0835376530885696, 0.7693103551864624, 0.4958283007144928, 0.1199774369597435, -0.5256892442703247, -0.4118220806121826, 0.2525643110275269, -0.2687036097049713, 0.0011089330073446, -0.1414321362972260, 0.1452587097883224, 0.0191698204725981, 0.4817100465297699, 0.3388455212116241, -0.1099846735596657, 0.1566269099712372, 0.1715497672557831, 0.1784593313932419, 0.0833671912550926, -0.0862844660878181, 0.3335813581943512, 0.4148257970809937, 0.2667387127876282, -0.1181991025805473, 0.1100241690874100, 0.0282592587172985, 0.2663158476352692, 0.1643401980400085, 0.0254094917327166, 0.1130464226007462, -0.3976026177406311, 0.1768157482147217, 0.2170097380876541, 0.8510240912437439, 0.2559080421924591, 0.6839868426322937, -0.2472307980060577, -0.3963434100151062, -0.0509700328111649, -0.0685233920812607, 0.1518020182847977, 0.5034077167510986, 0.5407005548477173, 0.1603875756263733, 0.2875672578811646, 0.0006267494754866, 0.7348470687866211, 0.2574911713600159, -0.0567247942090034, -0.2656136453151703, 0.6184433698654175, -0.1036480665206909, 0.2813462316989899, 0.5108340978622437, 0.1055346056818962, 0.3854528367519379, -0.1288522332906723, -0.1452923417091370, -0.0633009374141693, -0.0028907535597682, -0.7812178134918213, -0.3162859976291656, 0.0043616704642773, -0.0255729891359806, -0.0681878849864006, -0.1240333169698715, -0.4412788748741150, -0.4529727101325989, 0.6515893340110779, 0.0663617700338364, 0.0349354408681393, 0.3848829269409180, -0.0552534721791744, 0.4022503495216370, -0.3558152914047241, 0.0391579866409302, 0.3288860023021698, -0.1114824786782265, -0.4494600892066956, -0.0646514147520065, -0.4851330518722534, -0.9737235307693481, -0.2068034410476685, -0.0923293679952621, 0.1040837988257408, 0.3640985786914825, 0.0153365284204483, 0.8168286681175232, -0.1068605035543442, 0.7754100561141968, -0.0159117355942726, 0.2729548513889313, 0.1398607492446899, -0.0309101976454258, -0.0476712286472321, -0.5012500286102295, 0.0168370194733143, 0.3298767507076263, -0.0303770098835230, -0.1100589483976364, -0.0677956566214561, 0.2317865192890167, -0.4078906476497650, -0.0467880666255951, 0.0184040069580078, -0.4658546745777130, -0.2837344706058502, 0.3117137849330902, 0.4519338905811310, -0.0947131663560867, 0.4264534115791321, 0.1243108063936234, 0.2215565741062164, 0.0861746817827225, 0.0250365100800991, -0.1631778329610825, 0.3549611866474152, 0.1727314591407776, -0.2589778006076813, 0.4772737920284271, 0.3718385100364685, -0.2743385434150696, 0.2409780174493790, 0.3279085755348206, -0.1223584488034248, 0.0414519980549812, -0.2992601394653320, 0.3226379454135895, -0.1528184264898300, 0.0154820242896676, 0.6531716585159302, -0.0496191643178463, 0.1043427065014839, 0.1488183140754700, 0.4763044118881226, 0.4036434888839722, 0.1784331053495407, -0.3162315487861633, 0.4889132380485535, -0.0103719215840101, 0.1770055890083313, -0.0514556616544724, 0.1921138614416122, 0.1910265833139420, 0.1485604345798492, -0.0224328115582466, 0.1668924242258072, -0.0919307470321655, 0.7911998033523560, 0.1320152133703232, -0.4030756056308746, -0.2412372678518295};
#endif

#endif
