//Numpy array shape [192]
//Min -2.652831077576
//Max 0.944547653198
//Number of zeros 0

#ifndef BIAS35_H_
#define BIAS35_H_

#ifndef __SYNTHESIS__
layers_3_norm1_bias_t bias35[192];
#else
layers_3_norm1_bias_t bias35[192] = {0.257184654474258, 0.090287737548351, -0.027102554216981, -0.136882290244102, 0.470551192760468, -0.070520386099815, -0.026723159477115, -0.261040002107620, -0.048109430819750, 0.032561197876930, -0.084747575223446, 0.178020253777504, 0.174347221851349, -0.081187650561333, 0.944547653198242, -0.005668954923749, -0.253668963909149, -0.215157881379128, 0.083772689104080, -0.008264209143817, 0.460652768611908, -2.652831077575684, -0.038726508617401, -0.069681085646152, -0.064445406198502, -0.065104201436043, 0.203501716256142, -0.304343521595001, 0.048719018697739, -0.102237015962601, -0.019029241055250, -0.172387331724167, 0.221453636884689, -0.027691535651684, -0.242738321423531, 0.228905260562897, -0.068024240434170, -0.227605327963829, -0.730742335319519, 0.226284071803093, 0.251550465822220, -0.008753960020840, -0.033126477152109, -0.022834768518806, 0.369165420532227, 0.100184462964535, -0.058620136231184, 0.029292060062289, -0.143679827451706, 0.259578227996826, 0.214987963438034, -0.194182768464088, -0.188798248767853, 0.127064853906631, -0.940661430358887, -0.228754803538322, -0.145538896322250, 0.361153095960617, -0.004491554107517, -0.000255324819591, 0.075787372887135, 0.076362878084183, 0.197704061865807, 0.229270353913307, -0.078147441148758, 0.194445773959160, 0.538797974586487, 0.020585680380464, -0.479057639837265, -0.183963820338249, 0.047071769833565, -0.331323415040970, -0.470114648342133, 0.146792709827423, -0.113857015967369, 0.074833072721958, -0.425357729196548, -0.252192318439484, -0.252487957477570, -0.330628126859665, -0.202763572335243, 0.914978921413422, -0.072421602904797, -0.319044888019562, 0.209041431546211, 0.381793648004532, -0.109790690243244, -0.105033785104752, 0.150197252631187, -0.428632229566574, -0.006348929367959, 0.145609334111214, -0.022951239719987, 0.087972052395344, -0.062350869178772, 0.455824285745621, -0.173772767186165, -0.049907460808754, 0.028994081541896, 0.053806591778994, -0.129939094185829, -0.074008330702782, -0.106211103498936, 0.085481800138950, 0.079144909977913, -0.324078768491745, -0.066396214067936, 0.039673842489719, -0.027561459690332, -0.064952671527863, 0.041807580739260, 0.155221655964851, 0.158738508820534, 0.051273941993713, 0.189418703317642, 0.922559618949890, -0.609495460987091, 0.091159358620644, 0.007747780065984, -0.152174785733223, 0.114996738731861, 0.008123012259603, 0.089959658682346, 0.245005831122398, 0.182288810610771, 0.028229473158717, -0.111081331968307, -0.044009722769260, 0.111945785582066, 0.099200442433357, 0.008480342105031, -0.724015057086945, 0.248955950140953, 0.137930274009705, 0.005866866558790, 0.031549096107483, 0.108804903924465, 0.142741665244102, 0.123371906578541, -0.215374395251274, 0.082731418311596, 0.114140324294567, -0.076609820127487, 0.300466120243073, 0.272813767194748, -0.021482903510332, 0.084271825850010, 0.350913822650909, -0.474832475185394, 0.235306188464165, -0.082841165363789, -0.241892561316490, -0.035474579781294, -0.006031577941030, -0.082954987883568, 0.156947955489159, -0.137466177344322, 0.123765140771866, -0.234771549701691, 0.078984931111336, 0.008546390570700, 0.086870171129704, -0.012473856098950, -0.134687811136246, 0.244306460022926, 0.267891854047775, 0.240060061216354, -0.110715381801128, 0.251271367073059, 0.192264378070831, -0.161044746637344, 0.264079600572586, -0.122777238488197, -0.088358357548714, -0.066159881651402, 0.382475405931473, 0.427796810865402, -0.053150292485952, -0.147927969694138, 0.022571278735995, 0.151095807552338, 0.023470783606172, 0.844496667385101, -0.247727811336517, -0.542312324047089, -0.287782192230225, 0.008522682823241, 0.146292790770531, 0.144023954868317, -0.363732814788818, -0.180446729063988, 0.445490837097168};
#endif

#endif
