//Numpy array shape [192]
//Min -1.495190143585
//Max 0.755273938179
//Number of zeros 0

#ifndef BIAS32_H_
#define BIAS32_H_

#ifndef __SYNTHESIS__
layers_2_norm2_bias_t bias32[192];
#else
layers_2_norm2_bias_t bias32[192] = {0.2993213236331940, 0.1997380554676056, -0.1976882070302963, 0.1492944657802582, 0.2647607624530792, 0.1694631427526474, 0.2356821447610855, -0.3950592875480652, -0.4989500939846039, 0.1649817824363708, 0.0764514952898026, 0.2237410545349121, 0.1297345310449600, 0.3629177212715149, 0.7552739381790161, -0.3109206855297089, -0.0528242029249668, 0.1786378920078278, 0.1102025508880615, 0.0285899732261896, 0.2834858000278473, -1.4951901435852051, -0.0341144278645515, -0.4367296695709229, -0.3289195895195007, 0.0815413817763329, 0.1347609907388687, -0.1424477696418762, -0.0229249596595764, -0.1136008426547050, 0.0206084158271551, -0.1383715420961380, -0.2853786051273346, 0.1581352800130844, -0.2492579519748688, 0.3059826791286469, 0.1129791364073753, 0.1123145222663879, -0.9035981893539429, -0.0645288154482841, 0.1453216522932053, -0.0322079658508301, -0.0720623210072517, 0.1992984265089035, 0.3107577264308929, -0.1362470984458923, -0.0549293980002403, -0.2615732252597809, -0.0089962407946587, 0.2414900213479996, -0.0989617854356766, 0.0220743399113417, -0.2642015814781189, 0.1208262816071510, -0.3135004043579102, -0.2074308842420578, -0.0182841848582029, 0.4153244495391846, 0.1825349330902100, 0.1905546039342880, 0.1474726796150208, -0.3251238763332367, 0.1488360315561295, -0.0885609611868858, -0.0727330520749092, 0.0561075694859028, 0.1461771428585052, -0.1999014317989349, -0.3071607649326324, -0.2573727965354919, -0.1649168878793716, -0.0289128571748734, -0.1810642480850220, -0.0372004620730877, 0.1334146857261658, 0.1131631657481194, -0.1403158754110336, -0.1145462617278099, -0.1474635004997253, -0.1709835827350616, 0.0345853641629219, 0.3519004285335541, -0.0849029198288918, 0.1303048580884933, -0.1198448911309242, 0.3072372078895569, -0.0541222654283047, 0.1286325752735138, -0.1087909489870071, -0.1910787522792816, -0.2762995362281799, 0.1876135766506195, -0.0980473756790161, 0.2190887331962585, 0.0889743566513062, 0.3147717416286469, 0.1696981638669968, 0.0236471407115459, 0.2374720275402069, 0.1092868521809578, 0.0608285441994667, -0.1765691936016083, 0.1175131946802139, 0.0481637977063656, 0.0191498659551144, -0.0003860434517264, 0.1313334256410599, -0.0129769910126925, -0.2505754232406616, -0.1968955993652344, -0.0163898691534996, -0.0327426120638847, -0.0309224184602499, 0.1423298120498657, 0.0986661165952682, 0.5368257164955139, -0.3666392862796783, -0.0807599723339081, -0.1502395570278168, -0.0142096523195505, 0.2404163032770157, 0.0289681553840637, -0.3442502021789551, 0.2531857192516327, 0.1383990496397018, -0.3422474861145020, 0.0525894537568092, -0.1134276390075684, -0.2818409204483032, -0.1822776794433594, 0.3304043710231781, -0.2339746505022049, 0.1027522087097168, 0.3991299569606781, -0.1214547008275986, 0.1606763452291489, 0.0047792033292353, -0.0307302623987198, -0.1100367903709412, -0.0507508888840675, -0.0517537593841553, 0.2688432037830353, -0.2574033439159393, 0.2961957752704620, -0.0827662050724030, 0.0062633417546749, 0.2200835645198822, -0.0407324209809303, -0.1022142842411995, -0.1603332310914993, -0.2963791489601135, -0.1479041576385498, 0.0585541725158691, 0.1049979329109192, 0.2037092447280884, 0.1047895848751068, -0.2361212819814682, 0.0416503585875034, -0.2869531512260437, 0.1014739722013474, 0.0288140252232552, 0.0181252602487803, 0.0928707718849182, -0.1013187542557716, -0.2713945209980011, 0.1012472361326218, 0.3852121829986572, 0.0531900711357594, 0.3673708736896515, 0.0083194477483630, -0.2443237453699112, -0.1486954987049103, -0.0654837042093277, 0.2525438070297241, -0.0934057310223579, 0.3047240376472473, 0.1391656696796417, 0.2083151340484619, -0.0265948195010424, 0.2443587779998779, 0.0346816442906857, 0.1166420578956604, 0.4234102666378021, -0.1487023532390594, -0.3161945641040802, -0.5933940410614014, -0.0478986538946629, 0.1692281663417816, -0.0661557465791702, -0.1221402585506439, 0.0786927118897438, 0.3551483750343323};
#endif

#endif
