//Numpy array shape [192]
//Min -2.549698114395
//Max 1.366698265076
//Number of zeros 0

#ifndef BIAS23_H_
#define BIAS23_H_

#ifndef __SYNTHESIS__
layers_1_norm1_bias_t bias23[192];
#else
layers_1_norm1_bias_t bias23[192] = {0.170046225190163, -0.376278609037399, 0.428396522998810, 0.063377447426319, 0.069711193442345, 0.414943188428879, -0.523840188980103, -0.779733657836914, -0.279760092496872, 0.223476290702820, 0.325289428234100, -0.045861735939980, 0.192333638668060, -0.482565015554428, 1.366698265075684, 0.198392719030380, 0.146780118346214, -0.361388653516769, 0.129106253385544, 0.326500266790390, -0.641690969467163, -2.549698114395142, -0.051436919718981, 0.035026207566261, -0.346189409494400, -0.022266073152423, 0.182406365871429, -0.185605064034462, 0.029699865728617, 0.261546045541763, 0.311790645122528, -0.413837760686874, -0.371186643838882, -0.111081682145596, 0.160562112927437, 0.816318869590759, -0.022710351273417, 0.207343533635139, -0.814820110797882, 0.000627574045211, 0.059161107987165, -0.233495607972145, 0.101428225636482, -0.103379644453526, 0.357041269540787, 0.540412962436676, 0.034741096198559, 0.073244646191597, 0.422911226749420, 0.310826569795609, 0.793729722499847, -0.532482922077179, 0.189002215862274, -0.060744948685169, -0.565894842147827, -0.005371870007366, -0.239665880799294, 0.285049021244049, 0.092183887958527, 0.004316033795476, 0.391829669475555, 0.297717332839966, -0.225287735462189, 0.467714965343475, 0.172521054744720, -0.544815540313721, 0.154016569256783, 0.252717345952988, 0.123190082609653, -0.006151252891868, -0.493517458438873, 0.204203054308891, 0.063356906175613, -0.142979755997658, 0.285925030708313, -0.128818839788437, -0.194607481360435, 0.331439912319183, -0.081164821982384, 0.164259836077690, -0.527953922748566, 0.450400143861771, 0.120980925858021, -0.195968851447105, 0.259046405553818, 0.318521827459335, 0.099759131669998, -0.019363971427083, 0.328660547733307, 0.287597477436066, 0.181891947984695, -0.295803159475327, -0.561891734600067, -0.069635502994061, 0.018821720033884, 0.056241154670715, 0.238044381141663, 0.353993654251099, 0.323274523019791, 0.153960123658180, 0.115727938711643, 0.352132111787796, -0.290474086999893, 0.622177839279175, 0.068358592689037, 0.168812423944473, 0.116197332739830, 0.457710385322571, 0.269791841506958, -0.052854537963867, -0.091292932629585, -0.212089061737061, 0.331342428922653, -0.559758305549622, -0.096633434295654, -0.039334867149591, -0.789317786693573, 0.363501042127609, -0.109705328941345, -0.539611279964447, -0.471631169319153, 0.163096189498901, -0.116456560790539, -0.133107990026474, 0.104969732463360, 0.306789726018906, 0.409378111362457, -0.183453932404518, -0.127036720514297, 0.469507992267609, -0.232364684343338, 0.000749109254684, -0.160661712288857, -0.078548200428486, -0.403297275304794, -0.081494316458702, 0.187027171254158, 0.196413785219193, -0.262325406074524, -0.010513221845031, -0.127339407801628, -0.283775836229324, 0.157593145966530, 0.589145302772522, -0.089640013873577, 0.277702599763870, 0.296865582466125, -0.045567113906145, -0.065192744135857, -0.189639866352081, -0.149482905864716, 0.364093512296677, 0.136987254023552, 0.293316692113876, 0.261185407638550, -0.019619692116976, -0.092775009572506, 0.121487237513065, -0.135905295610428, 0.195154011249542, -0.244066223502159, -0.224732488393784, 0.135307252407074, -0.254300266504288, -0.596144795417786, 0.213777557015419, -0.221103891730309, 0.186207696795464, -0.557395696640015, -0.004159008152783, 0.240657374262810, 0.334643840789795, -0.281005471944809, 0.391449987888336, 0.285537749528885, -0.473471224308014, -0.077288739383221, 0.236501142382622, -0.091486096382141, 0.027228316292167, -0.025792449712753, -0.004657884594053, 1.121208190917969, -0.415475577116013, 0.287669241428375, -0.594444334506989, -0.163518279790878, -0.080038562417030, -0.450847506523132, -0.321612268686295, 0.065025724470615, 0.119474567472935};
#endif

#endif
