0.005153015721589, -0.019347816705704, 0.065186776220798, 0.079045675694942, -0.097110867500305, -0.388042598962784, 0.154160767793655, 0.022539669647813, -0.069628365337849, 0.031446263194084, 0.013079918920994, 0.458584368228912, -0.354455620050430, 0.186556845903397, 0.279967606067657, 0.016785074025393, 0.160415410995483, 0.066342808306217, 1.303502917289734, -0.754533469676971, -0.723171889781952, -0.124991126358509, -0.084350891411304, 0.294896960258484, -0.066814444959164, 0.025504674762487, -0.132198661565781, 0.005535779986531, 2.139376878738403, -0.039230819791555, -0.366270244121552, 0.313232272863388, 0.243594035506248, -0.049403931945562, -0.058505542576313, -0.061999771744013, 0.010103878565133, -0.009589534252882, -0.213865026831627, -0.137631595134735, 0.194926813244820, 0.489423900842667, 0.192244708538055, -0.154868394136429, 0.022318826988339, -0.028966499492526, -0.646496713161469, 0.084847107529640, 0.308331042528152, -0.354413449764252, 0.163442850112915, 0.048171211034060, 0.105571970343590, -0.052390284836292, 0.005580378696322, 0.243759498000145, 0.189288556575775, 0.038715802133083, -0.326392233371735, 0.227515533566475, 0.005921707488596, 0.139280870556831, 0.031965959817171, 0.002368818968534, 0.026667892932892, 2.298043727874756, -0.013574522919953, 0.262811303138733, 0.007403566967696, -0.506238758563995, 0.011884212493896, -0.074061572551727, -0.189839467406273, -0.004820080474019, -0.179811447858810, -0.265079528093338, 0.012167507782578, 0.136123329401016, 0.038759209215641, 0.078948378562927, 0.039359625428915, 0.035046637058258, 0.036308076232672, 0.022924438118935, 0.355476051568985, 0.355899751186371, 0.349642544984818, -0.065983764827251, 0.212578833103180, 0.048454806208611, 0.013279933482409, 0.025606544688344, 0.492384314537048, 0.162756606936455, 0.279463678598404, -0.292461276054382, 0.045742854475975, -0.109300054609776, -0.271353036165237, 0.004177263937891, -0.061943326145411, -0.136029779911041, 0.051442373543978, 0.213488832116127, 0.642613649368286, 0.034553349018097, -0.140935778617859, -0.026173122227192, 0.026514085009694, -0.037020139396191, 0.785186648368835, 0.032622817903757, 0.362449049949646, -0.816049456596375, 0.026387119665742, -0.098376929759979, -0.276445388793945, -0.023850897327065, 1.403897762298584, -0.016700260341167, -0.151098668575287, 0.462495833635330, 0.333659440279007, -0.070905603468418, -0.159601017832756, -0.135364279150963, -0.044952776283026, -0.180834963917732, 2.618259906768799, -0.000844437105116, -0.027672262862325, -0.161335095763206, 0.002925329143181, 0.051313262432814, -0.065882153809071, 0.023372884839773, -0.003537007374689, -0.037266537547112, 0.109162345528603, 0.307583719491959, 0.040529921650887, -0.017175508663058, 0.074994474649429, 0.332709252834320, 0.024993916973472, -0.022662509232759, -0.290291666984558, -0.137711331248283, -0.110583461821079, -0.464051842689514, -0.037483248859644, -0.168200582265854, -0.502239346504211, 1.575058579444885, -0.083654046058655, 0.421356320381165, 0.203514382243156, 0.133681952953339, 0.156347304582596, -0.106730997562408, 0.095049373805523, -0.263064891099930, 0.029950514435768, 0.006767308339477, -0.056037232279778, -0.435638338327408, 0.648084223270416, -0.298586189746857, 0.007293880451471, 0.005030198488384, 0.065257877111435, -0.042286381125450, -0.005545852240175, 0.007776358630508, -0.224672898650169, -0.118604861199856, -0.182435229420662, -0.050583869218826, -0.137595668435097, -0.154976308345795, -0.040671337395906, 0.097708620131016, -0.386331349611282, -0.168436259031296, 0.126868143677711, -0.227167248725891, 0.027221737429500, -0.107909403741360, 0.058297567069530, 0.050721380859613, 0.408285558223724, -0.037832126021385, -0.079310566186905, 0.684086620807648, 0.075747713446617, 0.025675687938929, -0.165035888552666, -0.122694708406925, 0.033957924693823, 0.034078061580658, 2.271415472030640, 0.631378233432770, 0.160725891590118, -0.099769271910191, 0.045951627194881, -0.499421864748001, -0.038196735084057, 0.024020068347454, -0.090032011270523, -0.137894526124001, -0.460867613554001, -0.298378258943558, -0.422528117895126, -0.001266358187422, 0.128524288535118, -0.088340632617474, 0.041658151894808, 0.029251508414745, -0.370179772377014, 0.180229797959328, -0.084691934287548, 0.022817250341177, 0.011298011988401, -0.136053085327148, 0.167289704084396, 0.010750291869044, -0.056214813143015, -0.069882392883301, -0.174274086952209, -0.493465632200241, 0.002133690519258, -0.020860508084297, -0.058858167380095, 0.022156685590744, 0.026612631976604, -1.490563750267029, 0.333410501480103, -0.160673335194588, -0.566943764686584, 0.696847617626190, 0.016652245074511, -0.210718408226967, 0.044575210660696, -0.031017931178212, -1.781720757484436, 1.975987315177917, 0.121528014540672, -0.144132629036903, -0.056833729147911, 0.039269179105759, 0.073975533246994, -0.175350189208984, -0.030801206827164, 0.335607320070267, 0.224451854825020, 0.130929365754128, -0.290721148252487, -0.037448383867741, 0.050066813826561, 0.018860680982471, 0.140147954225540, -1.617094516754150, 0.079599194228649, -2.430591106414795, -0.147670999169350, -0.123612031340599, 0.323185890913010, 0.204701215028763, 0.086215242743492, 0.140604406595230, 0.206257939338684, 0.014450673013926, -0.074135780334473, 0.058265361934900, 0.229246303439140, -0.324667423963547, 0.057420223951340, -0.394448131322861, -0.047861386090517, 0.074620403349400, -0.031071122735739, 0.019529564306140, 0.402816444635391, 0.017362048849463, -0.157928541302681, 0.021154709160328, 0.218689292669296, 0.094870962202549, -0.043973755091429, -0.020166458562016, 0.134497940540314, -0.220471560955048, 0.141564771533012, -0.627230584621429, -0.010027819313109, 0.068251237273216, -0.046601887792349, -0.038831595331430, 0.618502318859100, 1.013404369354248, 0.158731356263161, 0.052434619516134, -0.007936934940517, -0.125306934118271, -0.027902070432901, -0.008252709172666, 0.073777318000793, -0.031587712466717, 1.186508297920227, 0.019808148965240, 0.132303297519684, -0.187883928418159, -0.056174430996180, -0.220243692398071, -0.027335008606315, -0.007560586556792, -0.559760510921478, 0.162530839443207, -0.181200549006462, -0.096106931567192, 0.085605934262276, 0.074809610843658, 0.108252882957458, 0.089774779975414, -2.016824245452881, 0.886367857456207, -0.450205981731415, -0.320200115442276, 0.357338309288025, -0.001232779817656, -0.178871825337410, -0.175628244876862, 0.103254415094852, 0.214797049760818, -0.191104575991631, -1.140679955482483, -0.111114621162415, -0.049493208527565, 0.262523800134659, -0.058253947645426, -0.021038670092821, -0.111903712153435, -0.041661389172077, -0.023701040074229, 1.821001052856445, -0.096030302345753, -0.129454106092453, -0.320103794336319, -0.027793655171990, 0.169723391532898, 0.049460679292679, -0.035972945392132, 0.126458451151848, 0.099956698715687, 0.051615852862597, -0.159617677330971, -0.006983989849687, 0.024558858945966, 0.128232046961784, -0.164554908871651, -0.003843414830044, 0.020914334803820, -0.592895269393921, 0.076652646064758, 0.190667673945427, -0.035463891923428, -0.000825151277240, 0.044006299227476, 0.080460533499718, -0.047005847096443, -0.015651596710086, -0.047670580446720, -0.315434217453003, 0.050890959799290, 0.166386634111404, 0.042378079146147, -0.127389058470726, 0.183371901512146, 0.003947572782636, 0.234589040279388, 0.113088257610798, 0.142131730914116, -0.531657755374908, 0.207814022898674, -0.356504648923874, 0.151802405714989, -0.091397725045681, 0.062136985361576, 0.168601110577583, 0.309535831212997, 0.329170882701874, -0.331737399101257, -0.308548539876938, -0.119135417044163, -0.124483160674572, 0.013982390984893, 0.015847047790885, -0.025447567924857, -0.544119536876678, -0.172739431262016, -0.671157658100128, 0.499244868755341, -0.041322119534016, 0.105932541191578, -0.019008470699191, -0.005821268074214, 0.139876857399940, 1.498794794082642, -0.286738872528076, 0.417785972356796, -0.316831469535828, -0.051225375384092, -0.077493503689766, -0.016058966517448, 0.921721220016479, 0.020247865468264, -0.125125244259834, 0.294697374105453, 0.303850919008255, 0.170606151223183, -0.092823512852192, 0.204787671566010, -0.054989248514175, 0.054809309542179, 1.164795756340027, 0.160154983401299, 0.123925134539604, 0.501069247722626, 0.060881130397320, -0.013576687313616, 0.025095354765654, -0.288918942213058, -0.007808643858880, 0.018000861629844, 0.080916821956635, -0.040471456944942, 0.132195442914963, 0.514843821525574, -0.000387616193620, -0.080868683755398, 0.016520371660590, 0.225853815674782, -0.722892582416534, 0.007995706982911, -0.175210028886795, 0.017275642603636, -0.150703772902489, -0.029921678826213, 0.068841561675072, -0.189030721783638, 0.028621660545468, -0.836107254028320, -0.051014039665461, -0.136617898941040, 0.303426176309586, -0.365562856197357, 0.100700698792934, 0.017970725893974, 0.278345257043839, -0.017262207344174, 0.015996897593141, -0.395831644535065, 0.094977691769600, -0.178832218050957, 0.477826446294785, 0.082803107798100, -0.151655301451683, -0.037679538130760, -0.018136758357286, 0.015303102321923, -1.965486168861389, 0.150143831968307, 0.201804623007774, 0.336627304553986, 0.173515200614929, 0.012867944315076, 0.026748077943921, 0.023505110293627, -0.023732902482152, 0.375293642282486, -0.299512267112732, -0.350518554449081, -0.008281399495900, -0.020627502351999, 0.088529288768768, -0.139165073633194, 0.008834633976221, -1.253430366516113, 0.393038839101791, -0.131204918026924, 0.021405151113868, -0.095183171331882, 0.028423409909010, 0.035103771835566, 0.002319866092876, 0.018245961517096, -0.028763512149453, -0.297640681266785, -0.191594347357750, -0.080307640135288, -0.049440048635006, 0.015886057168245, -0.214358016848564, -0.009498277679086, 0.032972119748592, -0.003245094791055, 0.159338846802711, 0.020456431433558, 0.141356319189072, 0.403347760438919, 0.300672739744186, 0.033076625317335, -0.197910830378532, 0.169536978006363, -0.866737306118011, 0.094318918883801, -0.194661781191826, -0.394746929407120, -0.210959106683731, 0.009860528632998, 0.112916462123394, -0.272062629461288, 0.019298372790217, -0.071080185472965, -0.606253802776337, 0.376609385013580, -0.009304610081017, -0.309191077947617, 0.066725961863995, 0.002730234991759, 0.039524268358946, -0.002769890706986, -0.055036660283804, -0.080038547515869, 0.102818869054317, -0.230093926191330, 0.319492608308792, 0.003323062788695, 0.215281948447227, -0.316633164882660, 0.040408790111542, 0.010298537090421, -0.019778832793236, -0.242988422513008, -0.099304199218750, -0.302774131298065, 0.228768393397331, -0.040207169950008, 0.051159411668777, -0.012109444476664, 0.252518832683563, -0.206673040986061, 0.217181816697121, 0.070394814014435, 0.231402188539505, -0.018544148653746, 0.137185528874397, 0.023551486432552, 1.421474099159241, -0.018760403618217, -0.108201213181019, -0.017443824559450, -0.374385774135590, -0.344083577394485, 0.134214520454407, -0.104582004249096, -0.061402611434460, 0.024042923003435, -0.507463753223419, -2.494701147079468, 0.047414772212505, -0.335802614688873, 0.286396205425262, 0.001209500245750, -0.139263585209846, 0.119008153676987