//Numpy array shape (576,)
//Min -2.359488964081
//Max 2.178100824356
//Number of zeros 0

#ifndef IN_PROJ_BIAS48_H_
#define IN_PROJ_BIAS48_H_

#ifndef __SYNTHESIS__
layers_5_self_attn_in_proj_bias_t in_proj_bias48[576];
#else
layers_5_self_attn_in_proj_bias_t in_proj_bias48[576] = {0.163040757179260, -0.316161632537842, -0.285395681858063, -0.089758329093456, 0.011843948625028, -0.146536692976952, 0.068660169839859, -0.018482174724340, -0.016776880249381, -0.277190297842026, 0.285964637994766, 0.286680042743683, 0.073661096394062, 0.583376467227936, 0.257101684808731, 0.029811233282089, -0.072791285812855, 0.009337713941932, 0.956083953380585, 0.144997507333755, 0.097823016345501, -0.210698336362839, -0.074560835957527, 0.598866879940033, 0.044429142028093, 0.004433721769601, 0.023874755948782, 0.052783228456974, 0.314344882965088, 0.393825173377991, -0.161061272025108, 0.484835088253021, 0.643255472183228, -0.053313858807087, -0.013012337498367, -0.076729081571102, -0.174650296568871, -0.412886917591095, 0.423580676317215, -0.068647935986519, -0.179002434015274, 0.410576134920120, 0.006686762440950, -0.130450204014778, 0.018994506448507, 0.007807540707290, -1.714116096496582, 0.033186029642820, 0.183685272932053, -0.275888234376907, -0.748302876949310, -0.061234544962645, -0.079077474772930, -0.111765690147877, 0.015711767598987, 0.360312134027481, -0.296427011489868, 0.375447928905487, 0.106213480234146, -0.221780493855476, -0.027841284871101, 0.029712365940213, 0.088093034923077, -0.000660943391267, -0.073824241757393, 0.120770439505577, 0.082926414906979, -0.404455035924911, -0.115119308233261, 0.061009377241135, -0.059939980506897, -0.006298169959337, -0.120653554797173, 0.826483547687531, -0.596548497676849, 0.470243066549301, 0.309825301170349, -0.199029579758644, -0.053805205971003, -0.033502265810966, 0.073629304766655, 0.111753769218922, -0.166966542601585, 0.115403741598129, -0.650376915931702, 0.038879632949829, -0.095205195248127, -0.075301863253117, -0.074693731963634, -0.070887252688408, 0.001705947215669, 0.030814709141850, -0.083112940192223, -0.113300487399101, 0.024375962093472, -0.270450621843338, 0.062064234167337, -0.195835307240486, 0.033558357506990, 0.069597236812115, 0.397602766752243, 0.114072896540165, -0.046688657253981, -0.109851315617561, -0.125883653759956, -0.083796046674252, -0.008647079579532, -0.126820802688599, 0.095830067992210, 0.056200999766588, -0.548868119716644, 0.312484622001648, 0.158311814069748, -0.106970146298409, 0.003010324202478, 0.057267859578133, -0.057385485619307, -0.000176345813088, 1.536906003952026, -0.084336921572685, -0.217789232730865, 0.200427755713463, -0.189101576805115, -0.048039797693491, 0.161395907402039, -0.100248679518700, -0.057153481990099, 0.143796637654305, -0.167791277170181, 0.546317517757416, 0.128004029393196, 0.383730888366699, -0.103930659592152, 0.049575421959162, -0.008198818191886, 0.121748723089695, -0.565086424350739, -0.336752653121948, 0.191624596714973, -0.117361254990101, -0.522039234638214, -0.076919130980968, 0.012449915520847, 0.041563395410776, 0.029552428051829, -0.727867126464844, -0.245816588401794, -0.154077395796776, -0.377729803323746, -0.806281983852386, 0.061522662639618, -0.068549916148186, -0.051431253552437, 0.001953394850716, -0.214504793286324, 0.858613908290863, 0.131319046020508, 0.170542255043983, 0.427873760461807, -0.026660531759262, 0.123941279947758, -0.037406343966722, -0.007172448560596, -0.146783024072647, 0.122093535959721, -0.169641360640526, -0.253449499607086, 0.082155376672745, 0.054598081856966, -0.026237864047289, -0.030182516202331, -0.100886814296246, 0.102167472243309, 2.178100824356079, -0.105323098599911, -0.260022848844528, -0.065664552152157, -0.040412530303001, 0.076455347239971, 0.156301528215408, -1.529011130332947, -0.613122701644897, 0.306676387786865, -0.090834826231003, 0.031708333641291, 0.043523743748665, 0.005337175913155, 0.006455697119236, 0.072772830724716, -0.688639402389526, 0.397906064987183, -0.444905638694763, 0.175879999995232, 0.105748079717159, -0.576017737388611, 0.034895345568657, 0.071122959256172, 0.039587616920471, -0.020437940955162, 0.002693931572139, 0.587128877639771, -0.081088021397591, -0.085607931017876, -0.015166268683970, -0.080930903553963, 0.056266278028488, 0.038384653627872, 0.190712079405785, -0.091799296438694, -0.034185204654932, -0.412780672311783, -0.335944294929504, -0.066920012235641, 0.024494297802448, 0.037539187818766, 0.032968886196613, 0.092249773442745, -0.185744151473045, -0.090757973492146, -0.179246395826340, 0.041665494441986, -0.104300409555435, 0.028404649347067, 0.193981483578682, 0.000238351523876, 0.079420119524002, 0.112959362566471, -0.316343933343887, -0.430253237485886, -0.077475614845753, 0.576097726821899, 0.047830320894718, 0.000820468645543, -0.006683223880827, 0.040799859911203, 0.248592883348465, 0.110111854970455, -0.215974405407906, -0.081222675740719, 0.606593787670135, -0.028749251738191, -0.063265949487686, 0.056099832057953, 0.111259967088699, 0.187657132744789, 0.091249369084835, 0.271962732076645, -0.096288830041885, -0.316154837608337, 0.061801034957170, 0.014931776560843, 0.073629431426525, 0.213495180010796, 0.928627073764801, -0.144653245806694, 0.239200398325920, 0.049274057149887, 0.033046830445528, 0.017919026315212, 0.013203030452132, 0.020991062745452, -2.343962907791138, 0.216004580259323, -0.298045367002487, 0.343680858612061, -0.104107998311520, 0.020003672689199, -0.031033629551530, 0.028586391359568, 0.091528087854385, -0.354129999876022, -1.266270518302917, 0.161554098129272, -0.128023892641068, -0.311158865690231, 0.154301762580872, -0.050065457820892, 0.164580002427101, 0.140482455492020, -0.069445848464966, 0.013887998647988, 0.108116097748280, -0.435108423233032, 0.133665859699249, 0.287802010774612, 0.048056375235319, 0.018949909135699, -0.080579571425915, 0.089576646685600, 0.050480809062719, -0.110151521861553, 0.030296619981527, 0.367540538311005, -0.061456460505724, 0.051239956170321, -0.111443646252155, -0.039983183145523, 0.276779383420944, 0.060466393828392, -0.078312247991562, -0.425839990377426, 0.131360992789268, -0.360936254262924, 0.026561159640551, -0.279576063156128, 0.004760504700243, 0.066857434809208, -0.059435583651066, -0.010963565669954, 0.382004946470261, -0.008977542631328, -0.156889855861664, -0.193305566906929, 0.051187559962273, -0.081011094152927, 0.053874731063843, -0.112771511077881, -0.078163437545300, 0.174372866749763, -0.810450255870819, -0.196614399552345, 0.054979443550110, -0.084859430789948, 0.048046994954348, -0.167571946978569, -0.152000725269318, -0.318266034126282, -0.194397374987602, -0.336133867502213, 0.013227257877588, 0.011081117205322, 0.031201479956508, 0.090776763856411, 0.183028519153595, -0.148763835430145, 0.088501907885075, 0.017966018989682, 0.333660244941711, 0.258066385984421, -0.020143533125520, 0.109534107148647, 0.021988272666931, 1.315693855285645, 0.207926407456398, 0.008221684955060, -0.139189317822456, 0.174041926860809, 0.195447444915771, 0.099226363003254, -0.012446702457964, 0.012609442695975, -0.054389968514442, 1.974071264266968, 0.057313375174999, -0.059995219111443, -0.087834261357784, -0.038246028125286, -0.036751512438059, 0.040910065174103, 0.001315403613262, -0.201510280370712, -0.057734739035368, -0.347806423902512, -0.303498625755310, -0.202514022588730, -0.386070489883423, -0.077628776431084, 0.114483982324600, 0.014168290421367, 0.215328723192215, -0.022477867081761, -0.009360509924591, -0.021616535261273, -0.207276716828346, 0.365279376506805, -0.099547781050205, -0.090367451310158, -0.052252564579248, -0.089067518711090, 0.099427163600922, -2.359488964080811, 0.122968956828117, -0.187350809574127, -0.452934533357620, 0.046115837991238, -0.038813337683678, 0.094399362802505, 0.426701724529266, 0.126595661044121, -0.098029121756554, 0.092630989849567, 0.476258695125580, -0.280980765819550, 0.029411619529128, 0.106425151228905, -0.116680458188057, 0.197475984692574, 0.443304717540741, 0.353692889213562, 0.193042248487473, 0.084742352366447, 0.626010000705719, 0.056509364396334, 0.037238527089357, -0.042396996170282, -0.080158635973930, 0.312662690877914, 0.343231409788132, 0.312343060970306, 0.446852505207062, -0.239993721246719, 0.024527302011847, -0.006058933679014, 0.143559455871582, -0.045345015823841, 0.294334292411804, 0.283277660608292, -0.175085157155991, 0.056185502558947, 0.413634508848190, -0.010493525303900, 0.019475027918816, 0.080096535384655, -0.013863931410015, 0.224794074892998, 0.078042410314083, -0.061767835170031, -0.158073186874390, -0.003510410198942, 0.117631062865257, 0.008145988918841, -0.012943898327649, 0.253350406885147, -0.388065844774246, 0.128927230834961, 0.295491665601730, 0.072504498064518, -0.071827553212643, 0.059517491608858, 0.090512737631798, 0.124792687594891, -0.144295245409012, 0.131382361054420, 1.370586514472961, -0.233711555600166, 0.272996753454208, -0.053472723811865, 0.125401094555855, 0.007427560165524, -0.004040245898068, -0.183199748396873, -0.080425605177879, 0.103687547147274, -0.131422311067581, -0.101748853921890, -0.243472769856453, 0.063151635229588, 0.051639501005411, -0.156367123126984, 0.143704190850258, -0.283633381128311, -0.176026523113251, -0.215246096253395, -0.463752597570419, -0.039773713797331, -0.069237530231476, -0.042479351162910, -0.022331923246384, 0.331305772066116, -0.130151838064194, -0.556286573410034, -0.590689122676849, 0.520624458789825, -0.166360676288605, 0.063627496361732, -0.066754139959812, 0.031971089541912, -0.033649057149887, -0.207344740629196, 0.486682981252670, 0.123198688030243, 0.471951425075531, -0.012567649595439, 0.058665979653597, 0.140951409935951, 0.022258916869760, -0.211343765258789, -0.082870684564114, -0.238619342446327, 0.119175910949707, 0.166772082448006, -0.194940805435181, -0.014866367913783, -0.016084838658571, 0.005273832473904, 0.014111719094217, 0.436703771352768, -0.233380466699600, -0.161778151988983, 0.091292262077332, -0.349953442811966, -0.160099104046822, -0.129909828305244, 0.005023214500397, 0.316779762506485, 0.185065045952797, -0.031514484435320, -0.208044528961182, -0.038429461419582, 0.397994518280029, 0.067059323191643, -0.001413138583302, 0.098511561751366, 0.942991733551025, -1.498749375343323, 0.080407850444317, -0.549854516983032, 0.057608418166637, 0.091513372957706, 0.125242546200752, 0.032678361982107, 0.072941549122334, -0.109812408685684, -0.230592280626297, 0.281353056430817, 0.498277693986893, -0.421214699745178, -0.236781537532806, -0.028530893847346, 0.025524387136102, -0.079852275550365, 0.163515180349350, -0.258952885866165, 0.416788041591644, 0.423253685235977, -0.216695547103882, -0.148519083857536, 0.050207160413265, -0.079678080976009, -0.092636175453663, 0.148987635970116, -0.169817134737968, -0.594622671604156, -0.094597034156322, 0.055756468325853, -0.311322838068008, 0.007130997255445, -0.032445974647999, 0.069286085665226, 1.273457646369934, 1.326771140098572, -0.228014707565308, 0.307673245668411, 0.528052330017090, -0.272831231355667, 0.065410993993282, -0.057117551565170, 0.030353371053934, -0.140428245067596, 0.209104105830193, -0.132565110921860, 0.363561779260635, 0.549835979938507, -0.112834416329861, 0.041709315031767, 0.025232972577214, 0.067947603762150, 0.257761836051941, -0.006749207619578, 0.416539132595062, -0.206421196460724, 0.448259264230728, -0.441206037998199, 0.075413636863232, 0.003393732011318, -0.089945122599602};
#endif

#endif
