-0.023405006155372, 0.835464596748352, -0.164817720651627, 0.212003558874130, -0.333438783884048, -0.249281615018845, 0.072547107934952, -0.024368954822421, -0.047416478395462, -0.116677433252335, 0.352132648229599, 0.064644396305084, 0.500259220600128, 0.000362327875337, -0.042383868247271, -0.046726036816835, -0.049318488687277, 0.131596073508263, 0.136393383145332, -0.053101345896721, 0.177323788404465, -0.137581408023834, 0.138193026185036, -0.327476471662521, 0.174358516931534, -0.057253483682871, 0.040776830166578, 0.050414685159922, 0.406226456165314, 1.431951642036438, -0.264881670475006, -0.195398077368736, -0.376023948192596, -0.070379801094532, 0.133082374930382, -0.073359817266464, -0.067961990833282, 0.246444702148438, 0.083637140691280, -0.563579678535461, 0.125096574425697, -0.412330210208893, 0.022236671298742, -0.030055839568377, 0.001050218590535, -0.234509363770485, -0.298901408910751, -1.376385807991028, 0.291251391172409, -0.039823390543461, -0.006835548207164, -0.062024366110563, -0.108542844653130, 0.136693790555000, -0.011798750609159, -0.041904084384441, 0.085929177701473, 0.173157393932343, -0.313877284526825, -0.028070135042071, -0.087990775704384, -0.146916151046753, 0.037282131612301, 1.109935879707336, 0.159534528851509, -0.080008462071419, 0.010832045227289, -0.252307236194611, 0.075701095163822, -0.023464074358344, -0.047520864754915, -0.033242702484131, 0.647474825382233, 0.063917487859726, 0.073154151439667, -0.335325747728348, 0.033996503800154, -0.101027935743332, 0.048630829900503, -0.075449705123901, 0.012147038243711, -0.055991336703300, 0.126423195004463, 0.352577865123749, 0.061820127069950, 0.166628792881966, 0.315618097782135, -0.044318694621325, -0.013791374862194, -0.019367376342416, -2.041272878646851, -0.263776659965515, -0.041319381445646, -0.154973477125168, 0.153739586472511, 0.460090279579163, -0.066716402769089, 0.027042733505368, 0.006404910236597, -0.048831611871719, 0.031333751976490, 0.494609117507935, 0.813642501831055, 0.015216121450067, 0.381474494934082, -0.042510747909546, 0.029135977849364, 0.031239666044712, -0.020604595541954, 0.102456174790859, -0.085260771214962, -0.143862903118134, -0.174602553248405, 0.017257150262594, -0.025637334212661, 0.086190409958363, 0.052780877798796, -0.223883345723152, 0.583828032016754, 0.149401724338531, -0.477977305650711, 0.267253935337067, 0.114398039877415, 0.026460818946362, -0.168840244412422, 0.103546984493732, 0.087989948689938, -0.042674034833908, -0.467654258012772, 0.003771301824600, 0.258668273687363, -0.485043048858643, -0.001860686228611, -0.006311284843832, 0.033312033861876, -0.008057473227382, 1.443238139152527, -1.813023567199707, -0.032332856208086, 0.108518682420254, -0.440907478332520, 0.010526800528169, 0.018588250502944, -0.105838954448700, -1.219726204872131, 0.054667919874191, -1.935193657875061, -0.576989054679871, 0.021973503753543, -0.420170634984970, -0.083350196480751, 0.021900719031692, 0.095385715365410, -0.172919198870659, -0.119663268327713, -0.062753483653069, 0.061846707016230, 0.030414992943406, -0.009802832268178, 0.043689273297787, 0.115561045706272, 0.018291322514415, 0.736512303352356, -0.408655047416687, -0.001510331174359, 0.425550431013107, 0.268042892217636, -0.044716242700815, -0.035634767264128, -0.033835940063000, -0.035820450633764, 1.771922945976257, -1.588047027587891, -0.302739590406418, 0.337796241044998, 0.271376103162766, -0.148696035146713, 0.017486995086074, 0.095560714602470, -0.027973555028439, 0.137729480862617, 0.659686803817749, -0.010005342774093, 0.404234647750854, 0.157873719930649, -0.112810991704464, 0.031728211790323, -0.058359891176224, 0.152326121926308, 0.101220697164536, -0.103354975581169, 0.011992176994681, 0.085225559771061, 0.604399502277374, 0.486326426267624, 0.046811059117317, 0.027157671749592, -0.050097730010748, 0.198538288474083, -2.000997781753540, 1.033621311187744, -0.300814747810364, 0.247140124440193, 0.150144949555397, 0.028886610642076, 0.006794143468142, 0.025428319349885, -0.197640106081963, 0.040768250823021, -0.043154664337635, -0.033592894673347, -0.249038696289062, -0.157705798745155, 0.064454384148121, 0.012967584654689, 0.006005149334669, -0.257288008928299, -0.545848309993744, 0.016712892800570, -0.200565055012703, -0.109137326478958, 0.459446966648102, -0.041756693273783, -0.149427324533463, -0.006718988530338, -0.047724388539791, -0.401144742965698, -0.104470588266850, -0.023220485076308, -0.310252487659454, -0.061543248593807, 0.144927963614464, -0.047002710402012, -0.087300851941109, 0.060698829591274, -0.203117147088051, -0.185255989432335, -0.056219737976789, 0.295430928468704, -0.338995486497879, 0.045532137155533, 0.131055772304535, -0.004853841848671, 0.981341481208801, -0.036247238516808, -0.186490297317505, 0.384321480989456, 0.159578561782837, 0.588336765766144, 0.065013840794563, -0.001279448508285, 0.103419587016106, -0.017473550513387, -0.097105145454407, 0.142418697476387, 0.189468443393707, -0.263235479593277, 0.008968532085419, 0.010244037024677, -0.073810972273350, 0.031200144439936, -0.146544158458710, 0.217768579721451, 0.728266775608063, 0.004947744309902, 0.054001078009605, -0.393074035644531, 0.018790351226926, -0.089139640331268, 0.162168174982071, -0.478505700826645, 0.021601896733046, 0.601661920547485, 0.285806477069855, 0.334342867136002, -0.288763701915741, 0.064503274857998, 0.038285352289677, 0.046193387359381, -0.085259094834328, 0.050064019858837, 0.194181516766548, 0.088530354201794, 0.245613873004913, 0.090278081595898, 0.048638653010130, 0.125779882073402, -0.122766382992268, -0.030272534117103, 0.317538440227509, -0.020535621792078, 0.170810595154762, -0.461460649967194, 0.028225297108293, 0.013321700505912, -0.006098465528339, -0.109543368220329, -1.728487491607666, -0.045029014348984, 0.266624540090561, -0.011098235845566, 0.159734681248665, 0.227697089314461, -0.005382420960814, 0.075323276221752, 0.011029854416847, -0.194672167301178, 0.162409812211990, 0.210704699158669, 0.507395267486572, -0.173815533518791, 0.223572522401810, -0.082357421517372, -0.105791769921780, 0.092380613088608, 0.075389094650745, -0.097498498857021, -0.111965917050838, 0.360715836286545, -0.089352957904339, 0.181664139032364, -0.050111465156078, -0.108684137463570, 0.080398648977280, -0.036722242832184, 0.257091104984283, -0.179535925388336, -0.429732829332352, 0.535603880882263, 0.313637852668762, -0.017395436763763, 0.082084037363529, -0.039596382528543, 0.136772200465202, 0.338474631309509, 0.145980924367905, 0.218590483069420, -0.280427724123001, -0.124853782355785, -0.076778575778008, -0.121712684631348, -0.138493627309799, -0.882899522781372, 0.004141831770539, 0.048327442258596, 0.147656872868538, 0.175717622041702, 0.309880882501602, 0.042989302426577, 0.001240000477992, -0.012218472547829, 0.594290077686310, 0.831912517547607, -0.690375685691833, 0.259526580572128, -0.283796250820160, -0.009617742151022, 0.106375567615032, -0.071825884282589, 0.048866469413042, 0.107112571597099, 0.071696810424328, -0.125039905309677, -0.222356915473938, 0.427958697080612, 0.717302739620209, 0.202166229486465, -0.032081119716167, 0.146656751632690, 0.210920035839081, 0.153480991721153, 0.126549437642097, 0.182984754443169, -0.205206245183945, -0.204374253749847, 0.094683498144150, 0.052787374705076, -0.035433426499367, 0.096446506679058, 0.110583886504173, -0.055317539721727, 0.015565288253129, 0.398753404617310, 0.181817710399628, -0.030597239732742, -0.074188157916069, -0.024945644661784, 0.408512860536575, -0.358017086982727, 0.190974324941635, -0.389260977506638, 0.026184823364019, -0.181756019592285, -0.028363680467010, 0.037846695631742, 0.189075976610184, 0.082162268459797, -0.118904739618301, 0.101734109222889, -0.532938718795776, -0.132221922278404, 0.242078199982643, 0.056425184011459, 0.065456792712212, -0.081499494612217, 0.458610683679581, 0.344143927097321, -0.263454765081406, 0.153281658887863, 0.114455513656139, 0.264214783906937, 0.120913513004780, 0.039893332868814, -0.010250278748572, 0.686647176742554, 0.738705277442932, -0.138155430555344, 0.313272595405579, 0.319279640913010, 0.453835636377335, -0.064084582030773, 0.020287707448006, 0.046560999006033, 0.130324050784111, -0.997360110282898, -0.166721656918526, 0.208787664771080, -0.148275420069695, 0.229944139719009, -0.019811460748315, 0.078654251992702, 0.026328820735216, 0.691690862178802, 0.057243287563324, -0.045494001358747, -0.114299952983856, 0.086953118443489, 0.010138404555619, -0.027852721512318, -0.135998755693436, -0.074088424444199, -0.028570877388120, -0.936253607273102, 0.194238081574440, -0.348948806524277, 0.389726728200912, 0.475508868694305, -0.047278460115194, 0.020961686968803, 0.003461833111942, 0.439054518938065, -0.078381270170212, 0.127764016389847, 0.216188535094261, -0.192185372114182, -0.228997737169266, -0.057160452008247, 0.066163539886475, 0.059329360723495, -0.025953408330679, 0.066729627549648, -0.319004356861115, -0.197294458746910, -0.679460048675537, -0.033889781683683, 0.032690886408091, 0.037151608616114, 0.149580568075180, -0.229828745126724, 0.201116815209389, 0.349775552749634, -0.252506881952286, 0.082778051495552, -0.332006484270096, 0.012010027654469, -0.016199991106987, -0.000973607762717, 0.037562757730484, 0.300893604755402, 0.684693813323975, 0.042946852743626, 0.290525466203690, 0.414563804864883, -0.005143020767719, 0.071325704455376, -0.050042990595102, -0.120058454573154, 0.299316674470901, 0.000735897046980, 0.363242864608765, 0.122618399560452, -0.146803766489029, -0.000080470985267, -0.009498697705567, -0.012321972288191, -0.829029381275177, 0.400689721107483, 0.103276111185551, -0.274434536695480, 0.106523148715496, 0.076180048286915, 0.045830126851797, -0.066162563860416, 0.080689869821072, -0.428136557340622, 0.317742794752121, -0.271310657262802, 0.066763058304787, -0.123439699411392, 0.035283830016851, -0.114643558859825, -0.047076117247343, -0.018093742430210, 0.154641672968864, 0.035587403923273, -0.120109587907791, -0.379006981849670, -0.447701692581177, 0.425764232873917, 0.090260446071625, 0.071002431213856, -0.028017167001963, 0.109402954578400, 0.120794974267483, -0.078781478106976, -0.257483333349228, 0.153898686170578, 0.381122708320618, -0.066059693694115, 0.022753063589334, -0.042114552110434, -0.425103604793549, -0.150928989052773, -0.052277371287346, -0.566286742687225, 0.048831921070814, -0.032146614044905, 0.013960828073323, -0.029617989435792, 0.049884963780642, 0.400295287370682, -0.542744398117065, 0.445046514272690, -0.415824890136719, -0.231417402625084, -0.344951480627060, 0.002316857222468, 0.022856306284666, 0.041391108185053, 0.069337002933025, -0.039918322116137, -1.559738993644714, -0.020667521283031, 0.401205837726593, -0.494260191917419, -0.122494161128998, -0.007792276330292, -0.068296231329441, 0.016863094642758, 1.174032330513000, 0.044089682400227, -0.289444863796234, 0.131073474884033, 0.107463203370571, -0.117221795022488, -0.058901242911816, -0.053775530308485, -0.442635208368301, -1.812523484230042, 0.253754794597626, -0.506774842739105, 0.281373977661133, 0.249727234244347, -0.073928244411945, 0.133871227502823, 0.192420080304146