//Numpy array shape (576,)
//Min -1.751397013664
//Max 2.567795038223
//Number of zeros 0

#ifndef IN_PROJ_BIAS60_H_
#define IN_PROJ_BIAS60_H_

#ifndef __SYNTHESIS__
layers_7_self_attn_in_proj_bias_t in_proj_bias60[576];
#else
layers_7_self_attn_in_proj_bias_t in_proj_bias60[576] = {-0.292318135499954, -0.001223221886903, 0.019995735958219, -0.039033114910126, 0.686660885810852, -0.126010954380035, -0.088929831981659, -0.094953678548336, 0.041136674582958, 0.055847130715847, 0.209783703088760, 0.165167406201363, -0.258983135223389, -0.128326490521431, 0.309108883142471, -0.010911733843386, -0.060163456946611, -0.101439177989960, -0.082717843353748, -0.152805283665657, -0.084408573806286, -0.048692438751459, -0.003018167801201, 0.405431240797043, -0.027163406834006, 0.102472133934498, -0.039702035486698, -0.178508445620537, 0.708672940731049, 0.274605304002762, 0.197153523564339, 0.225421622395515, 0.021255148574710, 0.057628501206636, 0.058355730026960, -0.088088601827621, 0.196160092949867, 0.010079850442708, -0.085055105388165, -0.187418833374977, 0.543339133262634, 0.592779338359833, 0.080919377505779, 0.115873456001282, -0.064298078417778, 0.052970923483372, 0.914339482784271, 0.099183782935143, -0.303680181503296, 0.093322493135929, -0.417519748210907, 0.036309558898211, -0.051680527627468, -0.029069665819407, -0.715767741203308, -0.083973459899426, 0.394113659858704, -0.024181758984923, 0.076935790479183, 0.060999877750874, 0.001352419611067, 0.030764145776629, -0.055999148637056, 0.026977708563209, -0.216824740171432, 0.096197158098221, -0.433527588844299, -0.087801188230515, -0.080745093524456, 0.106270253658295, -0.017605712637305, -0.121677316725254, -0.010033695027232, 0.312255203723907, 0.051854211837053, 0.199206396937370, 0.043024018406868, -0.121868021786213, 0.037995383143425, -0.015770778059959, -0.105184637010098, -0.021290477365255, 0.049912065267563, -0.066833779215813, -0.503347218036652, 0.039568059146404, -0.009587843902409, 0.019473904743791, -0.156307324767113, -0.007643678225577, 0.237928926944733, -0.129621326923370, -0.409064114093781, 0.262127548456192, -0.104787833988667, -0.571959435939789, 0.088760055601597, 0.052417490631342, 0.008264534175396, 0.137982904911041, 0.322431683540344, -0.779811143875122, -0.470739662647247, -0.191304430365562, 0.341333866119385, -0.099162138998508, 0.010827051475644, -0.102859102189541, 0.068874977529049, -0.322800785303116, -0.098281018435955, -0.105103597044945, 0.245224505662918, 0.337302058935165, 0.017346346750855, 0.123832456767559, 0.067706488072872, 1.183214783668518, -0.170333489775658, -0.275957375764847, 0.377232134342194, 0.487091213464737, -0.230375334620476, -0.043830096721649, -0.050104141235352, -0.005193008109927, 0.013798022642732, -0.147210165858269, 0.008847189135849, -0.010590642690659, -0.105348750948906, -0.096717551350594, -0.035568878054619, 0.098744586110115, 0.086486987769604, -0.418509602546692, 0.007872676476836, 0.203790903091431, 0.082194462418556, 0.813401579856873, -0.494405597448349, -0.105972319841385, 0.103162877261639, -0.014932991005480, 0.093555264174938, -0.451801240444183, 0.079029195010662, -0.178897440433502, 0.102326706051826, -0.048467598855495, 0.030465735122561, -0.047553550451994, 0.089622125029564, -0.169367387890816, 0.100196003913879, 0.718154966831207, -0.317492276430130, -0.000713486107998, 0.493304252624512, 0.018810335546732, 0.020467191934586, -0.007340717129409, -0.020606338977814, -0.221310570836067, -0.099454313516617, -0.122736662626266, 0.432957738637924, 0.293893545866013, 0.110650271177292, -0.262035071849823, -0.059010833501816, 0.064530096948147, 1.780559420585632, 0.569837808609009, 0.072364136576653, -0.479746431112289, -0.425576329231262, 0.012747167609632, 0.219496995210648, -0.008354415185750, -0.991107106208801, 0.026300484314561, 2.142152547836304, 0.100052207708359, 0.249899789690971, -0.381243467330933, 0.004219552967697, 0.085558824241161, 0.038382288068533, -1.323287606239319, 0.256840407848358, 0.557087898254395, -0.442510306835175, -0.649559557437897, 0.128361850976944, 0.004080235958099, 0.064851835370064, -0.006963510531932, -0.052761342376471, -0.010666034184396, 0.147863432765007, 0.514243066310883, -0.157613039016724, 0.045241434127092, -0.030800063163042, 0.004405569285154, -0.075183928012848, -0.060947831720114, 0.063016913831234, -0.273270398378372, -0.128167375922203, 0.352017372846603, -0.405514240264893, -0.040749844163656, 0.035368170589209, 0.062277466058731, -0.055509455502033, -0.056954853236675, 0.756430804729462, -0.157974943518639, -0.289313614368439, 0.236478969454765, -0.032610502094030, 0.011415406130254, -0.169122755527496, -0.303905576467514, 0.367610782384872, 0.625039637088776, -0.030869327485561, 0.088705904781818, -0.007777452934533, 0.082356646656990, -0.019462063908577, -0.102022066712379, -0.195133686065674, 2.567795038223267, 0.042223483324051, -0.912294626235962, -0.337107628583908, -0.524861097335815, 0.082422755658627, -0.141540467739105, -0.031580597162247, -0.003381064161658, 0.092726960778236, -0.177143543958664, -0.401368379592896, -0.051715739071369, 0.365610837936401, -0.112756900489330, -0.078106425702572, 0.044537097215652, -0.007308267522603, 0.155295446515083, -0.224849671125412, -0.271306633949280, -0.447117507457733, -0.195312321186066, -0.017564743757248, 0.017400030046701, -0.055469572544098, 1.418749451637268, -0.114602729678154, -0.020786019042134, 0.452252268791199, 0.599286854267120, -0.426746249198914, 0.059529710561037, 0.157608196139336, 0.035952225327492, 0.292811810970306, 0.242606937885284, -0.003547911997885, 0.142566487193108, -0.213936090469360, -0.662655830383301, 0.034162208437920, -0.038857419043779, 0.040549021214247, 0.286145567893982, -0.023759718984365, -0.245390385389328, 0.135867729783058, -0.060539018362761, 0.257914125919342, 0.014803758822381, 0.079458922147751, 0.047096509486437, -0.154205530881882, -0.037157665938139, -0.084875322878361, -0.341310203075409, -0.371678978204727, -0.259773373603821, -0.067480914294720, 0.013185858726501, -0.066937670111656, 0.027797518298030, 1.047088027000427, 0.127858102321625, 0.114767454564571, -0.404196768999100, 0.264759182929993, -0.053488049656153, -0.146263003349304, 0.012706445530057, -0.996599197387695, -0.009999413974583, 0.183124229311943, 0.119885005056858, 0.460433214902878, -0.404621511697769, 0.017127111554146, -0.123689413070679, 0.088169567286968, -0.829266190528870, 0.033091641962528, 0.052518777549267, -0.105124942958355, 0.064451254904270, 0.150497004389763, -0.019691178575158, -0.105882123112679, -0.002681180601940, 0.104874461889267, -0.184307843446732, -0.126777797937393, 0.154409244656563, 0.034353576600552, -0.605520606040955, -0.088728897273540, 0.120115831494331, -0.029534542933106, 0.214539915323257, 0.152638792991638, 0.213894873857498, -0.272374778985977, -0.005610859952867, -0.157510399818420, 0.048552058637142, -0.092900879681110, -0.056449338793755, 0.089977025985718, -0.302182495594025, 0.100976832211018, -0.058141779154539, -0.724089145660400, -0.036417413502932, 0.085534371435642, -0.027116678655148, -0.004417576361448, 0.204631030559540, -0.241378888487816, -0.222069352865219, -0.028524780645967, 0.081440672278404, -0.257081687450409, 0.065778404474258, 0.060735657811165, -0.038243062794209, 1.337775230407715, 0.283616364002228, 0.311853826045990, -0.072185993194580, 0.191488146781921, -0.058804500848055, -0.020499536767602, -0.002047428395599, -0.033143863081932, 0.246057689189911, 0.204029411077499, -0.612438917160034, 0.329800963401794, -0.091906189918518, 0.400164067745209, 0.057633832097054, -0.077117636799812, 0.022585051134229, 0.099146761000156, -0.550466954708099, 0.051246833056211, 0.473488152027130, 0.298125565052032, -0.100952297449112, 0.009407265111804, 0.006174964364618, -0.028457706794143, -0.407912611961365, 0.151704996824265, 0.520448088645935, 0.204166486859322, 0.053826719522476, -0.657201707363129, -0.023507876321673, 0.107806406915188, -0.124433137476444, 0.130722209811211, -0.179203778505325, -0.370764940977097, 0.159531757235527, -0.126684084534645, 0.145170405507088, -0.009767625480890, -0.009673839434981, -0.054918207228184, 0.177920162677765, 0.090675577521324, -0.208099603652954, 0.101165674626827, -0.157372072339058, -0.316496223211288, -0.017210954800248, 0.053005550056696, -0.123420521616936, 0.204016864299774, 0.120370276272297, -0.099050387740135, -0.614680588245392, -0.242682307958603, 0.052268221974373, -0.021741520613432, 0.007188959512860, -0.056252282112837, 0.005851878784597, -0.302353739738464, 0.177649393677711, -0.184574335813522, -0.733508467674255, 0.100939765572548, -0.017489124089479, -0.032380994409323, -0.022836226969957, -0.373773872852325, -0.371482819318771, 0.007802985142916, 0.430608123540878, -0.140625774860382, 0.239095538854599, 0.033542335033417, 0.002174124587327, 0.048754375427961, -0.077918119728565, -0.037418693304062, -0.500902950763702, -0.091153681278229, -0.208788111805916, 0.124579347670078, 0.047070082277060, 0.009233639575541, 0.005588953848928, -1.751397013664246, -0.127284586429596, -0.976702034473419, 0.045114737004042, 0.554646968841553, 0.497227370738983, -0.034571614116430, -0.022367252036929, -0.211601227521896, 0.463201403617859, 0.243693441152573, -0.222816571593285, 0.226386860013008, -0.364100396633148, 0.299301773309708, -0.089082248508930, 0.067412272095680, -0.114495173096657, 1.019136548042297, 1.625714778900146, -0.127059444785118, 0.420700222253799, 0.305592060089111, -0.185734987258911, 0.073903642594814, 0.067818827927113, 0.015734031796455, 0.020840151235461, -0.390021651983261, 0.108718737959862, 0.154821023344994, 0.190948441624641, 0.163044691085815, -0.058231648057699, -0.173176676034927, 0.086142532527447, -0.100049927830696, -0.493125766515732, -0.275888919830322, 0.057974528521299, 0.342600464820862, 0.710445225238800, 0.003860213793814, -0.046152401715517, 0.122338451445103, 0.111572831869125, 0.139840215444565, -0.047274131327868, 0.149329140782356, -0.195939242839813, 0.398009538650513, -0.059347551316023, 0.009545485489070, 0.077107459306717, -0.185395032167435, -0.234319686889648, 0.027360538020730, 0.160327732563019, 0.608668208122253, -0.067285716533661, 0.094656236469746, 0.187556162476540, 0.005428139120340, 0.021199503913522, 0.181617736816406, -0.376403868198395, 0.311498731374741, 0.190700858831406, 0.361892968416214, 0.032215289771557, 0.046511065214872, 0.129249095916748, 0.082323998212814, -0.006360902450979, 2.228543519973755, 0.064369305968285, -0.391484558582306, 0.333311736583710, 0.034765575081110, 0.086232975125313, -0.050221379846334, -0.149386346340179, -0.020569102838635, 1.576485395431519, 0.115100502967834, 0.562706947326660, -0.434071809053421, 0.059604801237583, 0.016741616651416, 0.072787061333656, 0.266467243432999, 0.136769220232964, 1.072134971618652, -0.416411161422729, -0.186576530337334, 0.295737951993942, -0.082312747836113, 0.048557154834270, -0.015337831340730, 0.181750699877739, -1.032501459121704, 1.984234929084778, 0.146582394838333, 0.261309742927551, -0.051326151937246, 0.061360359191895, 0.049073569476604, 0.039893254637718, -0.076206631958485, -0.062180899083614, -0.261680543422699, -0.344531536102295, -0.426651209592819, 0.240576401352882, 0.012965734116733, 0.064622573554516, -0.147774755954742, 1.103560924530029, 0.041419986635447, -0.167421013116837, -0.144591227173805, 0.076065503060818, -0.631252765655518, 0.004503057803959, -0.130214855074883, 0.030201718211174};
#endif

#endif
