//Numpy array shape [192]
//Min -0.767104983330
//Max 0.278336822987
//Number of zeros 0

#ifndef OUT_PROJ_BIAS57_H_
#define OUT_PROJ_BIAS57_H_

#ifndef __SYNTHESIS__
layers_6_ffn_out_proj_bias_t out_proj_bias57[192];
#else
layers_6_ffn_out_proj_bias_t out_proj_bias57[192] = {-0.02606743201613426, -0.10694108903408051, -0.12986566126346588, 0.13333508372306824, -0.04447647556662560, 0.11802410334348679, 0.27616029977798462, 0.09140630811452866, -0.10514719039201736, 0.08998042345046997, 0.12894903123378754, 0.00436114519834518, 0.05084039643406868, 0.12130237370729446, 0.00136842392385006, -0.17293395102024078, 0.16348654031753540, 0.20514871180057526, 0.05467375367879868, -0.14940547943115234, 0.18128244578838348, -0.76710498332977295, -0.16085878014564514, -0.19173440337181091, 0.10798693448305130, 0.11696293950080872, 0.08100343495607376, 0.09685328602790833, -0.11125741153955460, -0.19958715140819550, 0.06805200874805450, -0.01547966618090868, -0.09589707851409912, -0.03196874633431435, -0.04458532854914665, 0.03949693962931633, 0.23319725692272186, 0.24905350804328918, -0.26393410563468933, -0.06656555086374283, 0.05253284424543381, -0.06756605952978134, -0.10651326179504395, -0.04101414605975151, 0.04989274963736534, 0.03102027811110020, -0.06372019648551941, 0.05251669883728027, -0.03974778205156326, 0.05983236059546471, -0.18534223735332489, 0.14499609172344208, -0.17202295362949371, -0.02869321405887604, -0.05162939429283142, -0.03866527974605560, 0.04178482666611671, 0.11194087564945221, 0.01702472567558289, -0.20915338397026062, 0.05921153724193573, -0.17096999287605286, -0.06664681434631348, 0.04172333702445030, -0.11853063106536865, 0.12399116903543472, -0.14235909283161163, -0.23469714820384979, 0.22179080545902252, -0.13856507837772369, -0.00009072750981431, 0.01488899998366833, 0.18055668473243713, -0.05619469285011292, -0.32045784592628479, -0.04971806704998016, 0.06874720752239227, 0.07302163541316986, 0.12763313949108124, 0.02727716043591499, 0.14499054849147797, 0.04954769089818001, 0.00996167492121458, -0.00754879415035248, -0.13424021005630493, -0.11815425008535385, 0.11979965865612030, 0.04828057065606117, 0.27833682298660278, 0.13999979197978973, -0.06122979894280434, 0.26563557982444763, 0.07204864919185638, -0.10874912142753601, -0.08510605990886688, -0.02860010787844658, 0.25731515884399414, 0.22529256343841553, -0.07648236304521561, 0.09873475134372711, 0.10324869304895401, 0.01483949273824692, 0.11764889210462570, -0.04730562493205070, -0.11082810908555984, -0.00603086827322841, 0.12745304405689240, 0.21692568063735962, -0.08977442979812622, -0.22062180936336517, -0.15608020126819611, 0.00143520301207900, -0.09972520917654037, -0.20654465258121490, 0.02889171242713928, 0.26088953018188477, -0.00606333883479238, -0.05869388580322266, 0.02139827236533165, 0.08982399106025696, 0.25865986943244934, 0.14771844446659088, -0.15834562480449677, 0.12842987477779388, 0.04437931999564171, -0.19471879303455353, 0.18572075664997101, -0.06049368903040886, -0.19428189098834991, -0.03575043752789497, 0.07702683657407761, -0.12932027876377106, -0.17696529626846313, 0.08824139088392258, -0.02859752811491489, 0.16200195252895355, 0.00708333728834987, -0.33140364289283752, -0.05264034122228622, 0.08954907953739166, -0.25360432267189026, -0.04054213687777519, 0.19539272785186768, 0.04580196738243103, -0.06034229695796967, 0.01818327605724335, 0.10705113410949707, -0.28158408403396606, -0.11293076723814011, -0.15339133143424988, -0.08842518925666809, 0.09091903269290924, 0.02285431884229183, -0.04786151647567749, 0.12997619807720184, -0.00103019084781408, -0.26458767056465149, 0.04751778766512871, 0.07063341140747070, -0.18090036511421204, -0.26664403080940247, -0.01064066682010889, 0.02535688877105713, -0.21991394460201263, 0.15654119849205017, 0.26677766442298889, 0.04604350030422211, -0.20538723468780518, 0.04395737498998642, -0.02986358106136322, -0.14375467598438263, 0.02264731563627720, -0.04038118943572044, 0.10773664712905884, 0.02608224749565125, -0.15441980957984924, -0.05846890434622765, 0.26221436262130737, -0.10811783373355865, 0.15418255329132080, -0.11724230647087097, -0.04959413036704063, -0.05575722828507423, 0.16398686170578003, -0.00333320512436330, 0.06770773231983185, -0.00281592831015587, 0.02068188786506653, -0.16524259746074677, 0.03913684934377670, 0.25946253538131714, 0.20602467656135559};
#endif

#endif
