0.05768929794430733, -0.02734987437725067, -0.18483082950115204, 0.07121007889509201, -0.17787365615367889, 0.33928221464157104, 0.11622664332389832, 0.06548340618610382, -0.17034460604190826, -0.03606337308883667, 0.41896024346351624, -0.10431637614965439, 0.14466281235218048, 0.16876500844955444, 0.15035536885261536, -0.19508062303066254, 0.20164138078689575, 0.41621914505958557, -0.02361294627189636, 0.12442234158515930, 0.26985454559326172, -0.80462235212326050, -0.07209778577089310, -0.16177172958850861, 0.08804593980312347, 0.06276141107082367, 0.08396761119365692, 0.04757661372423172, -0.04950904473662376, -0.09244247525930405, 0.05885642766952515, 0.03328825533390045, -0.21521669626235962, -0.02317799441516399, -0.01340185198932886, -0.06674650311470032, 0.09402860701084137, 0.09954053163528442, -0.46150901913642883, -0.19011618196964264, 0.04868633672595024, -0.01175986975431442, 0.18371267616748810, -0.07049407809972763, 0.07212778180837631, -0.05760614573955536, -0.00009789998875931, 0.22227667272090912, 0.19170773029327393, 0.09530836343765259, -0.11818443983793259, 0.39263945817947388, -0.01580481417477131, -0.07521007210016251, 0.02559674158692360, -0.06448598206043243, 0.13396006822586060, 0.09142534434795380, 0.11976566165685654, -0.22500921785831451, 0.30171102285385132, -0.16441445052623749, -0.06933317333459854, -0.24489140510559082, 0.00432833004742861, 0.08647347986698151, -0.05270068719983101, -0.30654767155647278, 0.24788798391819000, -0.01769495569169521, -0.14831033349037170, -0.03420433029532433, -0.06822074949741364, -0.21457333862781525, -0.11072056740522385, -0.10528875142335892, 0.05364630743861198, 0.19472749531269073, 0.08706618100404739, 0.22075168788433075, 0.03402401879429817, -0.21430751681327820, 0.14736717939376831, 0.20225487649440765, -0.08761199563741684, -0.06639314442873001, -0.05149316415190697, 0.02329023554921150, 0.30345240235328674, 0.17910280823707581, 0.16675360500812531, 0.15295962989330292, 0.02391196042299271, -0.18611204624176025, 0.00656310422345996, 0.29768449068069458, 0.32399445772171021, 0.10767134279012680, 0.11319720000028610, 0.04189180582761765, 0.20127291977405548, -0.03287521377205849, -0.03001861646771431, -0.08097976446151733, 0.04598309099674225, -0.21424414217472076, 0.02017274312674999, 0.14412964880466461, 0.00568621465936303, -0.21122890710830688, -0.02252849191427231, 0.14332169294357300, -0.06205718591809273, -0.00434362282976508, -0.03873815760016441, 0.19395984709262848, -0.04968405514955521, 0.06756308674812317, 0.00345716392621398, -0.04886435717344284, 0.14707145094871521, 0.11974064260721207, -0.12197626382112503, 0.04004139080643654, 0.16138099133968353, -0.07524196803569794, 0.00428840937092900, 0.06623648852109909, 0.05947052687406540, -0.09378739446401596, 0.18943522870540619, -0.44875150918960571, 0.03649881854653358, 0.12278028577566147, -0.06125902384519577, 0.11398677527904510, -0.28540167212486267, -0.19517083466053009, -0.00132890779059380, 0.08407255262136459, -0.13033795356750488, 0.03925902023911476, -0.15452459454536438, 0.10601532459259033, -0.07171290367841721, 0.24057634174823761, -0.23981514573097229, -0.14069478213787079, -0.11594147980213165, -0.22309462726116180, -0.24852266907691956, -0.08569596707820892, 0.01878904178738594, 0.09088448435068130, 0.03252344205975533, -0.21795043349266052, -0.27667707204818726, 0.09524008631706238, -0.37167835235595703, -0.14851076900959015, -0.34057024121284485, -0.24931232631206512, -0.02894158847630024, -0.06914910674095154, -0.04972137883305550, 0.00403823656961322, 0.02738700248301029, -0.13319161534309387, 0.01519868988543749, 0.06309179216623306, -0.06581871956586838, -0.11948492377996445, -0.20428173243999481, 0.19102902710437775, 0.10279890149831772, 0.00499216699972749, -0.20318637788295746, 0.33015516400337219, -0.16882571578025818, -0.02723670564591885, -0.09365389496088028, 0.10169336199760437, -0.02590858004987240, 0.12721389532089233, 0.00936369225382805, 0.01572146452963352, 0.10779312252998352, -0.00962004810571671, -0.08466469496488571, 0.12188343703746796, -0.03356054797768593, -0.12167097628116608