//Numpy array shape [192]
//Min -1.956518411636
//Max 3.084558725357
//Number of zeros 0

#ifndef OUT_PROJ_BIAS21_H_
#define OUT_PROJ_BIAS21_H_

#ifndef __SYNTHESIS__
layers_0_ffn_out_proj_bias_t out_proj_bias21[192];
#else
layers_0_ffn_out_proj_bias_t out_proj_bias21[192] = {-0.105791695415974, 0.092870645225048, 0.032732542604208, -0.358423143625259, -0.450831234455109, 0.911140978336334, 0.442159771919250, 0.669649600982666, 0.339892745018005, 0.935795724391937, -0.417728513479233, 0.307544261217117, 0.123537354171276, 0.440392822027206, -1.736071467399597, -0.066178493201733, 0.485744476318359, 0.576642394065857, 0.354722470045090, 0.169405937194824, 0.235516995191574, 3.084558725357056, -0.052521299570799, 0.176495090126991, -0.430854588747025, 0.104878805577755, -0.231845185160637, -0.014162885025144, 0.191344425082207, -0.021188877522945, 0.265555500984192, 0.184106752276421, -0.673282921314240, 0.096183851361275, 0.480140715837479, -0.349804997444153, -0.090181045234203, -0.353410333395004, 0.577668845653534, -0.093774907290936, -0.187412142753601, 0.087538592517376, 0.323019385337830, -0.206731036305428, 0.208190754055977, -0.033058747649193, 0.481678128242493, -0.438644796609879, -0.016550492495298, -0.215820550918579, -0.362805843353271, 0.222289428114891, -0.018153408542275, 0.025961954146624, 1.109464645385742, 0.169400572776794, 0.011261157691479, 0.018041212111712, -0.752466201782227, -0.488179087638855, 0.025475414469838, 0.051798947155476, 0.219178706407547, 0.195387899875641, -0.086588300764561, -0.300523161888123, -0.816499471664429, -0.543259680271149, 0.122051723301411, 0.235639363527298, -0.185495272278786, -0.459510684013367, 0.562047243118286, -0.784676313400269, 0.217465683817863, -0.156869351863861, 0.217383459210396, 0.451666980981827, 0.184232115745544, 0.327939540147781, 0.530294835567474, -1.956518411636353, 0.096043013036251, -0.028066303580999, -0.020419320091605, 0.035415168851614, 0.082084037363529, 0.205422252416611, -0.564163684844971, 0.794276952743530, -0.055794492363930, 0.080873869359493, -0.152013555169106, 0.121034003794193, -0.047999430447817, -0.643008649349213, 0.251087009906769, -0.390430182218552, 0.421785116195679, -0.227851748466492, 0.140363156795502, 0.426323145627975, -0.021011831238866, -0.923710525035858, -0.156247049570084, -0.328371107578278, 0.088727526366711, -0.493254303932190, -0.050615072250366, -0.570940256118774, -0.026277324184775, -0.068715780973434, 0.023629141971469, -0.131930917501450, 0.008362845517695, -0.480354696512222, 1.332062721252441, -0.496433883905411, -0.212631866335869, -0.496295064687729, 0.444564610719681, 0.010426319204271, 0.115522459149361, -0.204357951879501, -0.258755207061768, 0.056354984641075, 0.349599421024323, -0.064681336283684, 0.321796149015427, 0.147330984473228, 0.215808123350143, 0.168639853596687, -0.212539806962013, 0.393745243549347, 0.694603145122528, 0.349334895610809, -0.242748171091080, -0.272595554590225, -0.036659460514784, -0.168776094913483, -0.387515366077423, 0.523507475852966, 0.627388536930084, -0.781104326248169, 0.147574275732040, -0.403613150119781, -0.208705857396126, -0.651925742626190, 0.548378050327301, -0.071077398955822, -0.007713804487139, 0.658738315105438, -0.259950131177902, -0.318949908018112, -0.205646485090256, 0.258210986852646, 0.116149045526981, -0.212991282343864, 0.170833304524422, -0.044677503407001, -0.588536560535431, 0.274092793464661, 0.369414180517197, 0.640313267707825, 0.367904543876648, -0.829355239868164, -0.054592087864876, 0.089588932693005, -0.236012294888496, -0.213088124990463, 0.185990855097771, 0.057344585657120, -0.549676358699799, 0.925401329994202, -0.347646087408066, 0.212055265903473, 0.197420552372932, -0.098048023879528, -0.043698728084564, 0.125759333372116, -0.343046277761459, 0.261141896247864, -1.916043043136597, -0.198279425501823, -0.147587463259697, 0.116694487631321, 0.105571828782558, -0.455132186412811, -0.160144358873367, 0.493345499038696, -0.036389391869307, -0.693140685558319};
#endif

#endif
