//Numpy array shape (192,)
//Min -1.176877260208
//Max 1.097045660019
//Number of zeros 0

#ifndef OUT_PROJ_BIAS24_H_
#define OUT_PROJ_BIAS24_H_

#ifndef __SYNTHESIS__
layers_1_self_attn_out_proj_bias_t out_proj_bias24[192];
#else
layers_1_self_attn_out_proj_bias_t out_proj_bias24[192] = {0.0794299021363258, -0.2574974596500397, 0.6465148925781250, -0.0262144748121500, -0.4540151655673981, 0.2855395376682281, -0.6128384470939636, -0.5328975915908813, 0.0100986175239086, 0.0564411953091621, 0.2848491966724396, -0.1813834011554718, 0.0695458129048347, -0.9203943610191345, 0.5246370434761047, 0.2209583222866058, -0.0126343946903944, -0.3499075472354889, 0.0532244034111500, 0.3315733969211578, -0.8038035631179810, -0.0652312934398651, -0.1079489290714264, 0.1200255751609802, -0.1270034462213516, 0.0641600936651230, -0.0330748111009598, -0.1578958183526993, 0.1256282180547714, 0.1741721332073212, 0.3829104006290436, -0.2627131640911102, -0.2561719417572021, 0.0260444916784763, 0.1394090503454208, 0.7445692420005798, -0.1043237969279289, 0.1112450286746025, -0.6005278825759888, -0.0597103610634804, -0.2752996385097504, -0.0319223850965500, 0.1522236764431000, -0.3381234407424927, 0.2200247198343277, 0.3817706704139709, 0.0295937042683363, 0.2875772714614868, 0.1442274898290634, 0.0704334899783134, 0.7440555095672607, -0.4549570381641388, 0.0598811917006969, -0.0696385353803635, -0.4765748679637909, 0.2692526578903198, -0.3139260113239288, 0.0997869372367859, -0.2233367115259171, -0.0476842820644379, 0.3047475218772888, 0.3774943053722382, -0.0952586159110069, 0.4941587448120117, -0.0052453577518463, -0.4046345651149750, -0.1603179872035980, 0.3742454648017883, -0.0087715685367584, 0.0514181852340698, -0.6187948584556580, 0.0302978307008743, 0.0346535034477711, -0.0926533117890358, -0.0158542450517416, -0.0668468475341797, -0.3155034780502319, 0.2090596705675125, -0.1667825877666473, 0.0158643368631601, -0.4067159593105316, 1.0970456600189209, 0.1333231925964355, -0.1213784217834473, 0.1475555300712585, 0.1274881064891815, 0.1179068312048912, -0.1791548132896423, 0.2429400086402893, 0.0663173496723175, 0.2238340526819229, -0.1646689027547836, -0.1307893842458725, -0.1591838747262955, -0.0359936356544495, 0.0902940630912781, 0.1244011744856834, 0.1776036620140076, 0.2572044134140015, -0.0235047824680805, 0.0324348695576191, 0.3835969567298889, -0.3931436836719513, 0.6624822020530701, 0.0447537377476692, -0.1075099185109138, 0.0414896644651890, 0.4116470515727997, 0.2931111156940460, -0.0892837867140770, -0.1450729370117188, -0.1235269308090210, 0.3688316345214844, -0.6095557808876038, -0.0101318052038550, -1.1768772602081299, -0.8393658995628357, 0.8147181272506714, -0.0849910229444504, -0.6277778148651123, -0.5413215160369873, 0.2503325045108795, 0.0195893961936235, 0.0227883942425251, 0.1852377504110336, 0.4902831912040710, 0.4251216351985931, -0.3987590968608856, 0.0683064758777618, 0.5072845220565796, -0.4191966056823730, 0.3779668807983398, -0.1540240943431854, -0.3034180700778961, -0.3904288113117218, 0.0350584872066975, 0.0558219850063324, 0.2108368426561356, -0.2034628540277481, -0.0472790412604809, -0.2536380290985107, -0.5246686339378357, 0.1516817063093185, 0.3470544219017029, 0.1474233418703079, 0.0572718046605587, 0.1849428117275238, -0.1117046400904655, -0.1196714937686920, -0.0829809308052063, 0.1285575479269028, 0.2863793075084686, -0.1846735030412674, 0.1452828943729401, 0.1486232727766037, -0.0621046535670757, 0.1080186590552330, 0.0972794294357300, 0.0136797064915299, -0.0552276708185673, -0.2076834887266159, 0.0188927929848433, 0.0781975239515305, -0.3115113973617554, -0.2460813969373703, -0.0337735265493393, -0.2927348315715790, 0.0586463212966919, -0.5942255854606628, 0.0430262051522732, 0.1223220899701118, 0.2973529100418091, -0.2653924524784088, 0.1993851959705353, 0.1639321148395538, -0.4472653865814209, -0.2351427674293518, 0.1857683062553406, -0.0028064751531929, -0.1715648770332336, -0.0816151574254036, -0.1916026026010513, 0.8385957479476929, -0.3090355694293976, 0.2877264618873596, -0.2466015219688416, 0.0031305924057961, -0.0134363779798150, -0.0924204736948013, -0.2217496931552887, -0.1511848270893097, -0.0244594644755125};
#endif

#endif
