//Numpy array shape [192]
//Min -0.643103778362
//Max 0.416815280914
//Number of zeros 0

#ifndef OUT_PROJ_BIAS33_H_
#define OUT_PROJ_BIAS33_H_

#ifndef __SYNTHESIS__
layers_2_ffn_out_proj_bias_t out_proj_bias33[192];
#else
layers_2_ffn_out_proj_bias_t out_proj_bias33[192] = {0.03708561509847641, 0.05488098785281181, -0.13207717239856720, 0.14661495387554169, -0.00769941275939345, 0.25378960371017456, 0.24653346836566925, -0.19035230576992035, -0.38746407628059387, 0.15682466328144073, 0.03743305057287216, 0.02232501655817032, -0.05044119060039520, 0.31094834208488464, 0.29243919253349304, -0.13661672174930573, 0.04484794661402702, 0.31329897046089172, 0.00289302109740674, 0.04940818622708321, 0.05529818683862686, -0.00760560622438788, -0.10038647800683975, -0.30845451354980469, -0.20595327019691467, 0.01528920512646437, -0.04598141834139824, 0.13759593665599823, -0.01029542088508606, -0.01642848551273346, 0.12893776595592499, 0.02101623453199863, -0.34096771478652954, 0.18046951293945312, -0.05066606774926186, 0.10130675882101059, 0.17185461521148682, 0.24032667279243469, -0.39341294765472412, -0.24444882571697235, -0.12695807218551636, -0.00145833380520344, 0.02690953202545643, 0.13705351948738098, 0.00068591401213780, -0.10391348600387573, -0.15662138164043427, -0.14324750006198883, 0.11748614907264709, 0.03248551860451698, -0.39251586794853210, 0.15281517803668976, -0.14322327077388763, -0.06692291796207428, 0.37113219499588013, 0.06270194053649902, 0.05884537473320961, 0.15216369926929474, 0.12054248154163361, -0.04701635614037514, 0.08323185145854950, -0.19122660160064697, -0.04159571230411530, -0.32037687301635742, -0.00222796830348670, -0.17384806275367737, 0.14570358395576477, -0.28922733664512634, 0.17937606573104858, -0.07506346702575684, -0.21697580814361572, 0.28390225768089294, 0.07104362547397614, -0.13410076498985291, 0.07739985734224319, 0.04452996328473091, 0.19335897266864777, 0.15472587943077087, 0.09735021740198135, 0.08390634506940842, 0.08830074965953827, -0.64310377836227417, 0.00961444526910782, 0.32473856210708618, -0.18388812243938446, -0.07186987996101379, 0.01151417475193739, 0.14933748543262482, 0.02274229191243649, 0.41681528091430664, -0.18180942535400391, 0.05493545904755592, -0.00926957745105028, -0.01313760876655579, 0.10416382551193237, -0.05712020397186279, 0.30913910269737244, 0.14165246486663818, 0.16924285888671875, 0.12452485412359238, 0.21280202269554138, -0.12735325098037720, 0.16329500079154968, 0.01060581393539906, -0.10122865438461304, 0.21819230914115906, 0.07197795063257217, 0.05561937019228935, -0.11247245222330093, -0.16680195927619934, 0.02921655774116516, -0.22787208855152130, -0.18210797011852264, 0.12374673038721085, 0.01658028922975063, 0.23483009636402130, 0.07163054496049881, -0.29440411925315857, -0.08745603263378143, 0.07071307301521301, 0.05784537270665169, 0.09426929056644440, -0.38723999261856079, -0.02863902971148491, -0.05875080823898315, -0.21710956096649170, 0.11733524501323700, 0.04037670046091080, -0.32059809565544128, -0.06772731244564056, 0.27053353190422058, -0.25571739673614502, -0.11079956591129303, 0.12020498514175415, 0.04341885820031166, 0.04774552211165428, -0.24014501273632050, -0.10919968038797379, -0.01274193823337555, 0.20351101458072662, -0.11165242642164230, 0.14005333185195923, 0.00429204991087317, -0.03148789331316948, -0.32561337947845459, -0.06931751221418381, 0.07550249248743057, -0.25860828161239624, 0.30926692485809326, -0.21952898800373077, -0.22201924026012421, 0.11268953233957291, 0.30696871876716614, 0.13989229500293732, 0.17112000286579132, -0.02270247228443623, 0.00307982251979411, 0.03058830089867115, -0.24676686525344849, 0.08769593387842178, -0.01007321476936340, -0.14492450654506683, 0.12236157804727554, -0.05005653202533722, -0.60923516750335693, -0.14333695173263550, 0.06166463717818260, 0.04369454458355904, -0.08210791647434235, -0.13249467313289642, -0.09762154519557953, -0.22070471942424774, 0.14305391907691956, 0.30671301484107971, 0.03867229819297791, -0.05115637183189392, 0.01379317324608564, 0.25654792785644531, 0.04909268394112587, 0.18367448449134827, -0.12911875545978546, -0.06002586334943771, 0.12722443044185638, 0.13975977897644043, 0.08700647950172424, -0.32743132114410400, 0.02381644770503044, 0.11469042301177979, -0.12624605000019073, 0.02185104787349701, 0.11231784522533417, -0.15067367255687714};
#endif

#endif
