-0.03127155, -0.01101332, 0.04679336, -0.02745649, -0.01204364, -0.00961516, -0.02911193, -0.05809093, 0.10173485, 0.01290804, -0.00913172, -0.00628173, -0.00995660, 0.04988991, 0.01212705, -0.01564705, -0.11729217, -0.10550647, 0.00506965, -0.03103910, 0.04018561, 0.04060640, -0.00066992, 0.03565605, 0.06539717, 0.05473012, -0.05627757, -0.00141461, 0.00716878, 0.01129838, -0.00837114, -0.01893414, 0.02910117, 0.02743155, -0.03286809, -0.07674957, 0.07240684, 0.00859675, 0.03130965, 0.03231150, 0.05322699, -0.00449287, -0.02149521, 0.07898428, 0.09549141, 0.01615725, -0.03837913, 0.00534011, 0.06341650, 0.00097127, 0.02808171, -0.00363898, -0.09521668, 0.06728563, -0.03216008, 0.04504867, -0.03619263, -0.02131106, 0.02146663, -0.00012479, 0.07100127, -0.03606674, -0.02700414, -0.02462552, 0.01918378, 0.00421566, 0.00093011, -0.01990158, -0.04784923, -0.02737846, 0.04984777, 0.02386242, 0.00088862, 0.00147487, 0.02112463, -0.04647660, 0.04209270, -0.00221197, 0.00724168, 0.00784876, -0.03310705, -0.04953628, 0.00140796, -0.01714533, 0.02590391, 0.03819950, 0.01687885, 0.05493485, -0.07858263, 0.00746158, -0.03405765, -0.03472640, -0.03796843, -0.05519209, -0.04517862, -0.00088437, -0.02197554, -0.07853491, -0.06375237, -0.05225930, 0.06162028, -0.02627088, -0.02073913, 0.06332423, 0.00379668, 0.09884199, 0.07735939, -0.08277580, -0.01487578, 0.01690804, -0.00150450, -0.00027142, 0.00933143, -0.03510037, -0.00053317, 0.04579874, -0.06186294, -0.00881575, -0.00254460, -0.00037012, -0.00514611, -0.00883283, 0.01285043, -0.03424463, 0.04974504, -0.02084754, 0.00041480, -0.01452153, 0.07124764, -0.01686429, 0.02122370, 0.04880087, 0.01061656, 0.04820521, -0.01436495, 0.02602265, 0.06649132, -0.02736955, 0.00202659, 0.04844112, -0.01067712, 0.07785561, 0.03191974, 0.00333563, -0.06205403, 0.01366323, -0.01574770, 0.05120984, -0.01931583, 0.01893311, -0.08240775, -0.04331655, -0.05657327, 0.00160468, -0.03315306, -0.03532917, 0.07834213, -0.01467313, 0.03766041, 0.08350133, 0.09787403, -0.01201827, 0.03496327, 0.05243078, 0.01868368, -0.00822258, 0.05380412, 0.02399572, 0.08108977, -0.05916876, -0.12385625, 0.03733360, 0.01741849, 0.04514198, 0.02080393, -0.00959754, -0.01804817, 0.01295236, 0.17417240, -0.03032674, -0.02117581, -0.01474760, 0.04703258, -0.02570250, -0.01475336, -0.04001600, -0.00333908, -0.03401793, -0.05792204, 0.00638672, 0.00008273, -0.03544461, -0.07816028, 0.04751668, 0.06003409, 0.09588528, -0.08691017, 0.12973091, -0.05514671, 0.03547954, 0.01537321, -0.07091516, -0.03009663, -0.07358110, -0.03900569, -0.01313521, 0.10008916, 0.05436920, -0.05883438, 0.01124258, 0.06992150, -0.03929856, -0.05462822, -0.08975900, -0.01455104, -0.01818030, 0.04366553, 0.00795489, -0.00112171, 0.02139572, 0.00672022, 0.03501336, -0.02221047, -0.02693738, 0.11334517, 0.02031304, 0.05769862, -0.01918059, 0.02784581, 0.03380353, -0.05247084, 0.07251529, 0.02608814, 0.10474903, -0.01636972, 0.00117948, 0.02548547, 0.00154358, 0.01846308, 0.05991526, 0.09255559, 0.00306587, -0.02503488, -0.03836989, -0.00476932, 0.02351292, -0.02363269, 0.01268288, -0.00151586, -0.10492376, 0.05421946, 0.03039943, -0.01061016, -0.07272495, 0.00521971, 0.03687927, -0.04828724, 0.02898321, -0.01855879, 0.04672299, -0.03451036, -0.01670032, -0.04186068, 0.00253221, -0.01185126, -0.02132813, 0.00073218, 0.12955895, 0.00833290, 0.08859759, 0.02855923, -0.03384343, -0.10799723, -0.00983866, -0.04842422, -0.08855401, -0.10777587, -0.01362059, 0.03723540, -0.01184330, -0.00592576, 0.03423683, 0.00130580, -0.01170463, -0.00553105, 0.09244022, -0.02390229, 0.09622557, 0.00069282, 0.03378340, 0.02553104, 0.04206215, 0.06353692, 0.02576932, -0.04915080, -0.00369596, 0.13276051, 0.01728329, -0.04390560, 0.02267492, 0.00405767, 0.01632288, 0.02441756, 0.11292133, -0.04079100, 0.00497467, 0.02745143, 0.00846363, 0.03317317, -0.04956577, -0.02894078, 0.04529184, -0.13158032, 0.10652665, 0.02838387, 0.04005371, -0.02370863, 0.04264799, -0.01249405, -0.00449582, -0.01883754, 0.01497117, -0.04967776, 0.01649633, 0.04128367, 0.05466188, -0.01337667, 0.05906650, 0.02928791, -0.05224087, 0.11979303, -0.00566652, -0.09854813, -0.02729476, -0.01679708, 0.07207414, 0.00611333, -0.00433350, 0.01938397, 0.05567520, -0.10970104, -0.13674740, 0.00119537, -0.02597694, 0.01261437, 0.01140227, 0.01761092, -0.00014291, -0.03473807, -0.01360299, -0.06103204, -0.03161214, -0.03684308, -0.03169548, -0.01146732, 0.03272618, 0.00701119, -0.03518811, -0.04555399, 0.02140078, -0.00133365, -0.01616104, 0.00677289, 0.01397536, -0.06918716, -0.03131685, -0.03118723, -0.05963750, 0.08290084, 0.02403172, 0.01524170, -0.02081985, 0.03317207, -0.01886328, -0.01926689, 0.03388894, 0.04669643, -0.03033206, -0.05878231, 0.03994971, 0.01128843, -0.02779897, 0.01793030, 0.04237603, 0.00633600, -0.05979366, 0.03041127, 0.04876488, -0.04894256, -0.00169238, 0.03943756, -0.04063668, -0.00797292, 0.02628023, 0.07303807, -0.04994376, 0.07656896, -0.00758959, -0.05399665, 0.07592050, 0.02615854, 0.00971287, -0.05552910, 0.04346159, -0.18952072, -0.02616601, 0.04064892, -0.00918412, -0.00174828, 0.05089417, 0.04497696, 0.03910102, 0.01196183, -0.01928587, -0.00886809, -0.02670033, 0.02593454, 0.03745282, 0.00903209, -0.03432169, -0.00300171, -0.10469706, -0.09877650, -0.00445095, -0.06589232, 0.00983900, 0.02987658, -0.01912974, -0.01083024, 0.00545922, -0.03688793, 0.09627470, -0.00669562, 0.03665280, 0.02385804, -0.03010881, 0.06082333, -0.01594343, -0.03213395, -0.02399777, -0.02670272, -0.07478891, 0.01057496, 0.02746020, -0.06656955, -0.01411222, -0.04372315, 0.05715211, -0.01374661, 0.07318412, -0.06044313, -0.00294716, -0.01643394, -0.05796367, -0.02150889, 0.08192655, -0.01240063, -0.10764097, 0.02819390, -0.00682149, 0.00046111, -0.02324827, 0.05022176, 0.04179281, -0.05802191, 0.04257824, 0.00681037, -0.04905270, 0.09029996, -0.02785828, -0.01393431, 0.07986925, 0.00628260, -0.00506053, 0.00376750, -0.03618211, 0.01304100, -0.04510875, -0.00254041, -0.01016530, 0.05392579, 0.00939918, -0.04236878, 0.00600335, 0.04063698, -0.04452516, 0.02271549, -0.00260814, -0.02439472, 0.04856455, 0.02998644, 0.00045403, 0.06686532, 0.08252892, 0.10710339, -0.00231330, -0.01295867, 0.00739927, 0.00269964, 0.04327843, -0.01135015, 0.03967148, 0.05789403, 0.04118277, 0.00734012, 0.00467735, 0.06879712, 0.01327041, -0.00897135, 0.04124017, -0.05267196, -0.10757008, 0.07985072, -0.04403646, 0.00996322, -0.02197861, -0.03170148, -0.02445900, -0.04512858, -0.02023398, 0.07726333, -0.06364778, -0.00714698, 0.03753202, 0.00929964, 0.00282329, 0.05160300, -0.03174356, 0.00396019, -0.06653897, 0.00395707, -0.03258268, -0.06309651, 0.03363603, -0.04131880, -0.03007720, -0.01698726, 0.12985510, -0.12117289, 0.01398846, 0.01522064, -0.05452721, 0.01947057, 0.03764167, -0.04872515, 0.04754118, 0.11845894, -0.04380491, -0.02445712, -0.05151144, -0.01739883, 0.00282182, -0.02426427, -0.02602399, 0.01587945, -0.04723448, -0.10047571, -0.00147118, -0.02709387, -0.00431721, -0.03276149, 0.02345341, -0.00456420, -0.06786213, -0.04358254, -0.03313717, -0.13942528, 0.07241022, 0.05054844, -0.03397142, -0.03564466, 0.02559887, -0.02548283, 0.00165266, -0.01162562, 0.08940616, -0.03153199, 0.01764173, 0.00664732, -0.02933361, -0.00653629, 0.02888063, -0.02687838, 0.01756224, -0.06328516, -0.04570853, -0.01058014, -0.00160862, 0.05856986, 0.04415355, -0.00024078, 0.09351124, 0.04406343, 0.04896962, 0.07413286, 0.00972286, 0.03195068, 0.04030995, 0.01480555, 0.02684095, -0.11845718, 0.08603293, 0.00138725, 0.05181204, 0.08682220, -0.06562389, 0.06119458, 0.05994349, -0.05704738, 0.01516736, -0.03040249, -0.05354384, -0.03387394, -0.02149900, -0.01728263, -0.02287737, -0.05285637, 0.00808928, -0.02461839, 0.03275946, -0.08470574, -0.02134692, 0.01451121, 0.00892864, -0.10874161, 0.00319379, -0.02987503, -0.07522820, -0.10414784, 0.07794335, -0.00376271, 0.01417329, 0.00100227, 0.00779351, 0.02065366, -0.02492865, -0.02353430, 0.04629812, -0.06579542, 0.01634512, -0.00771917, 0.03640620, 0.07423465, 0.00162028, 0.06117664, 0.06165947, -0.01503689, 0.07814927, -0.07899766, 0.05105473, 0.04592629, -0.03879154, 0.04575657, -0.00184847, -0.09754717, 0.02576672, -0.10684207, 0.00759479, 0.01730772, 0.02334961, 0.01594849, -0.04541992, 0.05747265, -0.09100939, -0.11385896, 0.01716035, -0.08668663, 0.04910791, 0.00874961, -0.05013976, -0.00881329, 0.06819101, -0.00376381, 0.00189771, 0.02459056, 0.05134389, 0.00118960, -0.03914240, 0.05301886, -0.01633291, -0.02641742, 0.04971245, 0.02089809, -0.06807892, -0.07858594, -0.05398618, 0.01664247, 0.02166438, -0.09503962, 0.00925630, 0.12713830, -0.10511913, 0.06856399, 0.05042496, 0.03871502, -0.04644934, 0.04544336, 0.00849814, 0.00001708, -0.19674706, 0.05661051, -0.01424690, -0.02647471, -0.06682736, 0.04234492, -0.00598898, -0.03264772, 0.01367820, 0.00574623, 0.01861330, 0.03563878, -0.09505853, 0.04709055, -0.02103370, 0.00372402, 0.08375007, 0.00322042, 0.00916238, 0.06293903, 0.00385707, -0.07530796, 0.00574072, 0.00163576, -0.04146415, -0.05054770, 0.01178176, 0.01248121, -0.01302777, -0.06939874, -0.03703771, -0.07114007, -0.05174968, -0.02718638, -0.02301646, -0.02430256, 0.01405479, 0.00768618, 0.09127603, 0.01314609, 0.09661838, 0.05234079, -0.01876806, 0.04841092, 0.03191266, 0.07031175, 0.08425586, 0.01888526, 0.00588560, -0.01914751, 0.02547934, -0.01801101, -0.00218076, -0.02671052, 0.02793313, -0.01935485, -0.03434446, 0.03642396, 0.00515777, 0.03949586, -0.03756858, -0.01641180, 0.02337103, -0.04408453, 0.02813183, -0.01571049, 0.03294381, -0.06012284, -0.04486373, 0.11066692, -0.05270281, 0.01625263, -0.13030401, 0.01771721, 0.00472413, -0.04284875, 0.05681786, 0.08970091, -0.05967567, 0.01572024, 0.00964791, 0.01700247, 0.06848247, -0.00717124, 0.04043400, 0.00129842, 0.06393751, -0.03725597, 0.01206870, -0.01065070, -0.02997917, 0.00377504, 0.02233513, 0.02122175, 0.00685876, 0.00066981, 0.04986639, -0.02973182, 0.05947815, 0.01111636, -0.00350235, 0.08399997, -0.02825988, 0.04306712, 0.00708471, 0.00256756, -0.06250279, 0.03310068, 0.11392171, 0.00631993, -0.00220205, 0.00280479, -0.00670065, -0.07885662, 0.06138014, 0.00421345, -0.03883684, -0.02478116, 0.06175424, -0.12003005, 0.00126115, 0.01894740, -0.09744210, -0.00173402, 0.04068926, -0.07165369, 0.12927283, 0.05431840, -0.09405724, 0.03233076, 0.05391161, -0.06308902, 0.01784451, -0.04090590, -0.00543936, 0.06532795, 0.11935155, 0.07082498, 0.04380800, -0.00247492, 0.01058886, 0.03612094, 0.00000680, -0.02863864, 0.02666212, 0.04700417, 0.06689060, -0.00989023, -0.01205768, -0.02188209, -0.10058245, -0.06310254, 0.01550846, 0.12594034, -0.07103483, -0.04332693, 0.00968932, 0.03991060, 0.04816977, 0.00077074, 0.04656328, 0.02623521, -0.08631330, 0.02107959, -0.00368411, 0.02575122, 0.04189390, 0.05587079, -0.00413681, 0.07681175, 0.03495398, -0.08259006, -0.01515777, -0.04107499, -0.00522118, 0.03395218, 0.02917825, -0.02080189, 0.03567958, 0.03031812, -0.09153037, -0.03757051, 0.10867918, 0.04526642, 0.00917205, -0.01117195, -0.00341060, -0.01882255, -0.00887418, 0.03622755, 0.04628548, -0.00498585, 0.00314679, 0.00441607, -0.05429291, -0.03537252, 0.03367247, 0.04718496, -0.11790017, 0.02990080, 0.08364385, -0.00892240, 0.12307706, 0.02850417, -0.04448563, 0.07265752, 0.02076916, -0.03440729, 0.00268783, -0.03871986, -0.00781957, 0.03850750, 0.06510121, -0.06384721, -0.01921111, 0.02415270, 0.01391483, 0.11637059, 0.02530888, 0.01642996, -0.01459809, -0.01195047, -0.01053567, -0.01336859, 0.03032171, 0.05743200, -0.00221028, 0.10736786, -0.04973263, -0.00212245, 0.01988032, -0.06242227, -0.00842228, -0.02755852, -0.04727915, -0.10258758, -0.08598632, -0.07932702, 0.05372017, 0.00965011, -0.01584339, -0.00109206, -0.01146209, -0.05914646, -0.03503340, -0.04554704, 0.02165952, 0.02504253, 0.06468537, -0.08793288, -0.00231000, 0.00959277, -0.06297132, 0.03341281, 0.01913278, -0.04478868, 0.07799572, 0.06506368, -0.05499025, 0.05480504, 0.07607962, 0.01040783, -0.06846244, 0.02707016, -0.05876580, -0.01761580, 0.01052247, -0.07356237, -0.03425388, -0.01684049, 0.03478585, -0.11032336, 0.04195903, -0.00934486, -0.00942561, 0.09225880, -0.01225311, 0.04485116, 0.03477415, -0.01335284, -0.00560787, 0.01233477, 0.02982852, -0.06311277, 0.01941744, 0.00470761, -0.03788503, 0.08730778, -0.02216508, -0.02488850, -0.08682296, 0.01700591, 0.03126074, 0.07691867, 0.03113651, 0.01096740, 0.06439837, 0.02048962, -0.02151824, 0.10164119, -0.05302202, 0.01370913, 0.05287241, -0.11712219, 0.04914597, -0.01149777, -0.04210820, 0.10444658, -0.04290155, 0.00691944, 0.11156522, -0.04517929, -0.00454279, 0.08410043, -0.03369774, 0.09977026, 0.09535526, 0.01538349, 0.01666307, -0.04393226, -0.05629895, -0.01617311, 0.10577777, 0.00561747, -0.08171611, -0.02260145, 0.04297490, 0.01384431, 0.13245678, 0.01129011, -0.03473045, 0.13587046, 0.05665836, -0.12550884, -0.01660044, -0.03991398, -0.04200838, -0.01691823, 0.01981515, -0.04688778, -0.03088582, 0.01851160, 0.03415827, 0.00853003, -0.00055966, 0.00022995, -0.00954337, -0.00289444, 0.00601716, 0.04249795, -0.01947600, 0.06742912, 0.05672973, -0.01915155, 0.03061691, 0.00352955, -0.00720008, 0.06177870, -0.05131907, 0.00664309, 0.01590385, -0.00342127, -0.06663822, -0.00591275, 0.02781329, 0.01028876, 0.00380397, 0.04932333, -0.05242015, -0.12130263, 0.02702244, -0.02706880, 0.01654203, 0.05089208, -0.01879339, -0.03205253, 0.03787716, -0.05272255, -0.04568457, 0.02762119, 0.03837495, 0.02009471, 0.04083642, -0.01104914, 0.05459293, 0.09596517, -0.03558664, -0.01946901, -0.00283424, -0.00685135, -0.01386746, 0.03379357, 0.00159419, -0.02261061, 0.00300489, -0.01562836, 0.09998926, -0.07934818, -0.02611286, -0.02837312, -0.02146070, 0.02791650, 0.02566492, -0.04002431, -0.04006566, 0.04512280, 0.10913958, -0.05040582, -0.02397198, 0.01127192, -0.03466406, 0.05366460, -0.03834591, -0.00208577, -0.05634793, -0.04201476, 0.00217475, -0.02458100, -0.02244248, 0.02558087, -0.00157845, -0.00649934, 0.07376847, -0.04300107, -0.03793996, -0.09301843, 0.02525890, 0.03628888, 0.07764004, 0.01419772, -0.00889568, -0.02095106, -0.02350872, 0.03651790, 0.09032023, -0.00884793, 0.07951604, -0.01712202, -0.02851861, 0.08747765, 0.03833734, -0.08775241, 0.00514696, -0.00068289, 0.04563515, -0.00794067, 0.03470334, 0.05143606, -0.03144570, 0.04640773, -0.06244382, -0.02554832, -0.01457570, 0.01811751, -0.03425870, -0.05648241, 0.05341341, -0.00866696, -0.02772988, -0.00527095, 0.04401622, -0.03729821, 0.03497016, 0.04936797, -0.02433453, 0.01238150, -0.01730356, 0.01186798, -0.01484520, 0.07472592, 0.08550889, 0.05480620, -0.02116707, 0.06317272, 0.01950340, 0.04710967, 0.11539656, -0.02913526, -0.04091153, -0.01964780, 0.05846123, -0.09417930, -0.02823079, 0.08130652, -0.10031776, 0.00568187, -0.03045421, -0.04336229, 0.04307232, 0.04726575, 0.02031760, 0.06777637, -0.02077812, 0.06437996, 0.01521239, -0.01906416, 0.04412235, 0.04798853, 0.01939362, -0.01084275, -0.07816680, 0.00001077, 0.01892934, -0.02809224, -0.00320852, 0.09807271, -0.02443627, 0.00810418, -0.05117044, 0.03361567, -0.06608868, -0.00629225, 0.02330658, 0.01726555, 0.00236045, 0.04114017, -0.00603222, -0.00102376, -0.00887058, 0.04102159, -0.07511865, -0.05755758, -0.00311815, -0.02180069, 0.12886810, 0.02699261, 0.01903675, 0.09413749, -0.01236876, 0.06113894, 0.01813914, -0.06851504, 0.06078571, 0.09486095, 0.04877993, -0.07329874, 0.00305895, -0.00121173, -0.01688532, 0.05016916, -0.03949200, 0.03649972, -0.02682072, -0.07267558, 0.03189253, 0.02546468, -0.08107284, -0.04025106, 0.03065583, 0.01797561, 0.01745481, -0.03073290, -0.06822609, 0.01489468, 0.05516537, 0.06019367, -0.08166678, 0.05366754, -0.03905040, -0.02018548, -0.02061176, 0.00009557, -0.06136271, 0.07068843, 0.05532489, -0.05067272, 0.01424678, -0.03648468, -0.06861966, -0.08802111, 0.01790712, -0.00211263, 0.03485279, 0.00365803, 0.01244861, -0.02545779, -0.06626362, -0.04199298, 0.01180555, 0.06153435, -0.02003040, 0.01046158, 0.05448736, -0.05235302, 0.05223062, 0.00326193, -0.09203473, 0.09046305, -0.04715806, 0.05046100, -0.01888061, -0.04591496, 0.01909954, 0.01932243, 0.06920344, -0.07098052, 0.05180640, -0.03661167, -0.01709335, -0.03479398, 0.06397013, 0.05262763, -0.02791382, -0.03962204, -0.03443382, -0.09774701, 0.02963120, -0.04903446, -0.03699255, 0.01663163, -0.06381932, -0.01035636, -0.06996702, 0.02557562, 0.00949258, -0.02639112, -0.08972890, 0.05909146, 0.01091322, -0.01510207, 0.03822681, -0.15773757, 0.08411776, 0.02838158, 0.02629885, 0.00686952, 0.03431024, 0.05388776, 0.07731726, 0.01628498, -0.02430166, 0.02436709, -0.01307255, 0.02968410, -0.01232544, -0.03972886, 0.05791467, 0.01293139, 0.06333456, 0.06726041, -0.08905672, -0.00948500, 0.03793250, 0.02754477, 0.01436600, 0.08055999, 0.01235035, 0.00437077, -0.11948247, 0.02748143, -0.04496894, -0.02789256, -0.00528049, 0.04006320, 0.09426003, 0.04038365, -0.02035419, 0.01341949, 0.05851835, 0.10843466, -0.06528015, -0.01465395, 0.07082163, -0.03000964, 0.02265351, 0.08051392, -0.03323453, -0.06026519, 0.05118826, 0.04749288, -0.00973938, 0.07260956, -0.06828155, -0.02559621, 0.11219519, -0.02212064, 0.08450063, 0.00939555, 0.04392248, 0.02910626, -0.04126483, 0.02878544, 0.00091805, -0.02010084, -0.03852531, -0.11891142, 0.08055784, 0.01286424, -0.00710363, -0.03560898, 0.01201846, 0.04722153, -0.06517292, -0.10416160, 0.02618646, 0.02270101, -0.00439150, 0.02234851, 0.03491261, 0.00095258, 0.00817404, 0.04414443, 0.03287598, 0.00287091, 0.00695156, 0.05798416, -0.02617328, -0.01395195, 0.07247999, -0.00377023, -0.03856941, -0.03461910, -0.05401481, -0.01080951, 0.04838162, -0.01450161, 0.05208884, -0.00561140, -0.01455886, -0.02058891, 0.05928143, -0.07404673, -0.01849170, -0.06220312, -0.05199648, -0.05317618, -0.01001566, -0.05882137, 0.00436584, -0.08733109, -0.02816458, 0.00895163, -0.03576417, 0.03931480, -0.02051847, -0.04236757, -0.04844186, 0.01513713, 0.05127765, -0.03518320, -0.01475751, -0.06271031, -0.04341466, 0.03095893, -0.01618794, 0.02059636, 0.02166003, 0.00091414, -0.06510190, 0.09352409, 0.07204437, -0.05990174, 0.08291330, -0.04598888, 0.02109172, 0.03388447, 0.04494119, 0.03232470, -0.00452394, -0.02636646, 0.06518865, -0.05237782, 0.00639863, -0.06584008, -0.09545323, -0.02836309, 0.01461192, -0.01945986, -0.01775480, -0.02148615, -0.02653313, -0.01043066, 0.03123497, -0.07455284, -0.04595927, 0.01631530, 0.09857348, -0.00090355, -0.00113041, -0.00727747, 0.01436590, -0.02630847, -0.03801810, -0.02295852, -0.01425462, 0.06984954, -0.10390697, 0.01546295, -0.02292563, 0.00461835, 0.07418711, -0.07939222, -0.02556555, 0.01400936, 0.06842621, 0.05720256, -0.00889631, -0.02033029, 0.04121489, 0.03575222, -0.02898787, -0.05716468, 0.04924066, -0.07437465, 0.01521217, -0.03856677, -0.04103464, 0.01154756, -0.01743367, 0.00415531, -0.00811168, -0.02181579, -0.14027365, -0.04132656, 0.09618456, -0.01380638, 0.00981025, 0.01266741, 0.02462827, 0.00303720, 0.07024442, 0.09124652, 0.01600616, 0.00846632, -0.00668715, 0.03688215, 0.01226360, -0.03656685, 0.03352064, 0.12009722, -0.00186658, 0.04107799, -0.05435691, 0.05500763, 0.09248795, -0.03256669, -0.00976913, 0.04196890, -0.07287293, -0.01604313, 0.05225658, 0.02912170, -0.03119999, -0.02080706, -0.00650413, -0.02419478, -0.04673715, 0.03878016, 0.10604216, 0.02305413, 0.04262603, 0.06798282, 0.01882288, -0.00282497, 0.06202020, -0.00739476, 0.07298326, 0.00849648, 0.01280000, -0.05520033, -0.01112502, -0.01955634, -0.01897248, -0.01588690, 0.04777038, -0.03996176, 0.02319492, -0.03378913, 0.10841504, 0.05047853, 0.03176690, -0.00523948, 0.05677942, -0.07536384, -0.00534635, -0.03009761, 0.06162602, 0.06382915, -0.01940697, 0.04952222, -0.01419213, -0.07229294, -0.05834756, 0.08269684, -0.06517455, 0.02775720, 0.09139928, 0.08548906, -0.02353012, 0.03111078, 0.05594970, -0.09052307, 0.04425862, 0.05077096, 0.00052634, -0.02714582, 0.03961710, 0.00653211, -0.05851487, 0.06126742, -0.01988719, -0.03535701, 0.03443938, -0.00085840, 0.00267627, 0.04988358, 0.02263804, -0.01017350, 0.01485459, -0.02241614, 0.03333958, -0.02136166, 0.01980270, -0.13482973, 0.01903351, -0.00518753, -0.05906574, 0.00351926, 0.06092610, 0.01364653, 0.00720925, -0.00611486, 0.00818211, -0.02095964, 0.06498874, -0.01771453, 0.02249397, -0.00324939, -0.04612561, 0.03475766, 0.01142256, 0.05763074, 0.01172206, -0.00492120, 0.03267254, 0.02600645, 0.00472916, -0.00742574, -0.00265260, 0.02469178, 0.01159121, -0.01438329, -0.00586768, 0.04382804, -0.00318590, 0.01968260, -0.03395724, 0.08401168, 0.10197903, -0.03749759, 0.00029477, 0.08294334, -0.03859558, -0.04628789, 0.04506197, -0.02465090, -0.03206417, -0.01421876, 0.02954331, 0.00371802, -0.00582483, 0.01190383, -0.00582773, -0.05987025, 0.03479873, 0.09448926, 0.00005962, -0.00145800, 0.06059746, -0.00980450, 0.07722769, -0.04044986, -0.08785399, -0.03447176, 0.04373857, -0.01221784, 0.11952642, 0.00696705, 0.07097735, 0.05260846, 0.00933448, 0.03788359, 0.05959684, -0.12319563, -0.03168090, 0.03734798, 0.02489182, -0.01477719, 0.00699029, 0.02766077, -0.11944731, -0.00025956, -0.00330628, -0.03056482, -0.00628551, -0.03686947, -0.03087645, -0.10476642, -0.02087333, -0.01821867, -0.03398552, 0.08146274, -0.03277944, 0.00048938, -0.04916728, 0.01648719, -0.04302164, -0.05503826, 0.03503268, -0.04447423, -0.03555881, 0.01487377, 0.00101953, 0.03510420, 0.04745678, 0.00852000, -0.00615987, -0.03535133, 0.04422925, 0.03746703, 0.07963703, -0.01442669, 0.03610165, 0.04519146, -0.01046414, 0.04368384, 0.06622894, -0.03547885, 0.10384505, 0.00436877, -0.05696226, 0.05202452, -0.00699622, -0.05354439, 0.05711554, -0.02061259, 0.00372457, 0.09123996, 0.01374044, -0.03042732, 0.01437551, 0.00322521, -0.04284162, 0.04293684, 0.04635505, -0.05866190, 0.07554078, -0.01454487, 0.00501321, -0.02565238, -0.02207622, 0.00435736, -0.03291985, -0.00694945, -0.06852740, -0.08344857, -0.00955133, 0.06524445, 0.06535856, 0.04530687, 0.02761439, 0.06474888, -0.02985496, 0.03606982, 0.00447205, -0.02179887, 0.00614311, 0.00606322, 0.02382227, 0.03595808, 0.03260171, 0.06747029, 0.07139200, 0.14689732, -0.05208285, 0.04249853, 0.02647987, -0.06777014, 0.00840264, -0.04140795, 0.05835155, 0.01965881, -0.01616053, 0.02293267, 0.06482294, -0.04277613, 0.06138384, 0.03052829, -0.08135468, 0.06529161, 0.02297853, -0.03879141, 0.03583192, 0.07416067, -0.00296169, 0.00699637, -0.01203793, 0.00921397, 0.00687207, -0.03577263, 0.01561165, 0.01335623, 0.00227198, 0.02900220, -0.03415079, 0.01584052, 0.03132777, 0.09021831, -0.01452628, 0.04270906, -0.02357156, -0.05355892, -0.00115765, 0.00909430, -0.04366658, 0.06874296, 0.02589356, 0.03247249, 0.05214361, 0.02253214, 0.00986088, -0.03602384, -0.01328948, 0.02148767, -0.02685666, 0.04953038, 0.03862109, 0.08404721, 0.02011423, -0.04100314, -0.00992034, -0.01767987, 0.03984171, -0.01124709, -0.07316792, -0.01408586, -0.05638828, -0.00289270, -0.00945255, 0.05211982, 0.00461697, 0.01239087, 0.01431772, -0.10029688, 0.05759831, 0.02953073, -0.03970343, 0.00824491, -0.07638384, -0.03028480, -0.04359361, 0.00378177, 0.06422091, 0.05493408, 0.05562164, 0.01804517, 0.00952747, -0.01032317, -0.02328494, -0.04425798, -0.00285357, 0.00821225, -0.00766560, -0.01531450, 0.04234879, 0.01218139, 0.01924191, 0.01234968, 0.02863763, 0.10531125, 0.01456434, -0.04633408, 0.04025089, -0.01443772, 0.06465437, -0.02505203, -0.04044680, 0.05197291, 0.01315123, 0.11294837, -0.05455495, -0.08036584, 0.01460565, -0.01898843, -0.09240101, -0.01038393, -0.00043289, -0.07397007, 0.01145434, -0.05140190, 0.14505146, -0.01055500, -0.00318204, 0.02568087, 0.05455464, 0.02346874, 0.00171972, -0.01250986, -0.04779691, -0.02140994, 0.07163838, 0.00321436, 0.02525214, 0.00177207, -0.01805790, -0.01464539, 0.07318940, 0.05301791, -0.07210209, -0.01134191, 0.00458436, 0.05652692, -0.08716711, 0.00747216, 0.06171816, -0.07505708, 0.01591883, -0.02638544, 0.05758535, 0.11315593, -0.05724932, 0.05993699, 0.06270587, 0.00754909, -0.04562214, -0.02707904, 0.05532061, -0.00805649, 0.04634619, -0.01298495, -0.02351696, -0.00956689, -0.03576187, -0.14207059, 0.03921152, -0.04525291, 0.07551929, -0.05655184, 0.02340290, 0.05055917, -0.05342910, -0.03343195, 0.03268048, 0.00299255, -0.02194843, 0.01900316, 0.03447878, -0.05097945, 0.02872038, 0.00098484, -0.05743254, -0.08105657, 0.02742715, -0.02768609, 0.02543830, 0.01672636, -0.04384367, 0.00129124, 0.08289705, -0.01578476, 0.03980244, 0.00000098, 0.03390844, -0.00251012, 0.00281428, -0.01120453, 0.00305930, -0.00080996, -0.01102120, -0.05930791, -0.03754074, 0.04808234, 0.04727282, -0.01965813, 0.05640480, -0.01288707, 0.05367256, 0.08591731, 0.03848255, 0.03714393, 0.09765173, 0.03421366, -0.06670003, 0.02863866, 0.04759312, -0.06529913, -0.00638640, 0.02108264, -0.12887470, 0.10047621, 0.04087034, 0.08054507, -0.05109591, 0.00146017, 0.01223564, -0.03206071, 0.09998281, 0.00868806, -0.07157502, 0.07740553, -0.00883502, 0.02255723, -0.05304788, -0.00829686, -0.00190201, -0.02385882, -0.01084814, -0.03175780, 0.02949305, 0.00742585, 0.00702952, 0.04651665, 0.08457041, 0.03721629, -0.07408085, 0.03512722, 0.15024355, 0.06956623, -0.02302818, 0.00525711, 0.01575015, -0.02924319, 0.03961757, -0.01041439, -0.02260345, -0.12113050, -0.02606413, -0.03431110, -0.01596434, -0.05338591, -0.01447035, 0.05018000, 0.11647767, 0.00666178, -0.03669135, 0.08404963, 0.00305292, -0.01681861, 0.06769676, -0.01228345, -0.06239570, -0.01178072, 0.09344021, -0.08270272, 0.01653648, 0.00406393, 0.01608767, -0.01616421, -0.08911569, 0.05360357, 0.00794536, 0.05395960, 0.01455321, 0.05011774, 0.02215136, 0.02356004, 0.04956087, 0.04647515, 0.03967720, 0.02871566, 0.07778262, -0.05648704, -0.03453873, 0.01105923, 0.05182482, 0.02855435, -0.04702270, 0.05199330, 0.02962702, -0.00804384, -0.10157135, 0.06366381, 0.01611261, -0.01184435, 0.00614468, -0.01986012, 0.01442955, -0.00670019, 0.05914250, 0.02825957, -0.01957549, -0.03072414, -0.06105399, 0.01841278, -0.04769628, -0.02745289, -0.07613354, -0.09916645, -0.12019406, -0.02054312, 0.00439665, 0.03414725, -0.00191882, 0.04412775, -0.03782388, -0.03650176, 0.02649831, 0.09903265, -0.00725978, -0.02068399, -0.05166617, 0.00257388, -0.02150890, -0.07488408, 0.07910184, -0.01213520, 0.00370629, -0.12773687, -0.03739120, -0.04328332, -0.06239727, -0.05527386, -0.01703278, -0.11228207, -0.06277409, 0.01427142, -0.02657678, 0.01175692, 0.07286410, -0.03635469, 0.04699066, 0.01365216, 0.10707514, 0.01550455, 0.01127303, 0.04230212, 0.00245069, -0.01172257, -0.00124240, 0.03795857, -0.02189608, -0.06279089, -0.03663176, -0.05614736, 0.05343967, 0.07251932, -0.00217761, 0.02591182, 0.04743326, 0.01284785, 0.08426181, -0.05926205, -0.04914029, 0.03960165, -0.01333239, 0.04449723, 0.07743221, -0.00674025, 0.07731707, -0.13080330, 0.03029084, -0.08809882, -0.06033897, 0.00847861, 0.00970406, 0.00335765, 0.02522926, -0.09019490, -0.06773938, -0.02639199, 0.02874357, 0.01996288, -0.03152808, -0.00524177, 0.03092188, 0.03734071, -0.00197446, -0.03606095, 0.02229861, -0.00918847, 0.00127513, 0.01097087, -0.02979882, -0.02713780, 0.07115200, -0.01697798, -0.05757799, -0.05362514, 0.11904579, -0.00004919, 0.06757731, -0.01675013, -0.08025546, 0.05327006, -0.04797156, 0.12740450, 0.06573866, -0.01270072, -0.02788195, 0.00598927, 0.05392427, 0.02590732, 0.00224431, 0.06831186, 0.05807201, 0.01505742, 0.06056216, -0.01842723, -0.01141458, 0.02605636, -0.02024532, 0.05970917, -0.05741681, -0.11690079, 0.11090308, 0.06079594, -0.02234619, 0.02593271, -0.05057107, -0.01117256, 0.02960983, -0.04986218, -0.02526156, -0.02294504, -0.03107791, 0.04496729, -0.04247060, -0.02317082, 0.05057937, -0.01411779, -0.03917956, -0.13166033, 0.03520565, -0.06191420, 0.01318985, -0.04420502, -0.01897999, 0.01348761, -0.04384336, -0.04999682, 0.06086880, -0.09398124, -0.00731624, -0.02661542, 0.02418257, 0.06556871, -0.01937824, 0.05969864, 0.00407170, 0.06523049, 0.11493267, 0.03604183, 0.06233194, -0.01234200, 0.05413160, 0.01737118, 0.00065275, 0.02608314, -0.03669089, 0.07228955, -0.03695702, 0.00448451, 0.05680183, 0.03348526, 0.00870598, 0.00279097, -0.01832795, -0.04313615, 0.00338839, 0.07383652, -0.03694126, -0.04197569, -0.04422332, -0.07808602, 0.00733978, -0.01634349, -0.03316899, 0.08414952, 0.02320440, 0.00402725, -0.03801550, -0.02532005, -0.05711081, 0.00660675, -0.01497596, 0.03373244, -0.01466161, -0.12108911, -0.04417954, 0.01358649, -0.00605275, -0.03985190, -0.02820965, -0.03119838, -0.11008222, 0.01969405, -0.00274137, -0.05000696, 0.02837092, -0.03272287, -0.03996402, 0.06487029, -0.00652653, 0.01466848, 0.11407831, 0.08511851, 0.01055292, 0.00180383, -0.03564092, 0.02351732, 0.02686516, -0.01428579, -0.04792508, -0.08461440, 0.07761854, -0.00802574, -0.01259925, -0.05083822, -0.01426836, -0.03418702, -0.03217062, 0.04728523, 0.03364005, -0.00104926, -0.01754308, -0.00339556, 0.10113598, -0.04016859, -0.00306196, 0.05738440, 0.00363643, -0.10511868, -0.05954581, 0.01726857, 0.04814063, -0.07298902, 0.03990585, 0.06273872, -0.03557243, -0.02751083, -0.04891908, -0.02343637, 0.08802107, 0.00050470, 0.00003944, 0.06219787, 0.02803677, -0.03071859, 0.08297393, 0.02743533, 0.04655420, -0.00861813, 0.02013773, 0.03440866, 0.01662179, 0.03980328, 0.02066065, 0.01811130, 0.05557064, -0.10846717, -0.02613438, 0.02811312, 0.00850314, -0.04255189, 0.00567197, -0.00529230, 0.06719875, -0.00204473, -0.07556272, -0.01322366, -0.01706563, -0.03506444, 0.02234235, -0.04879261, -0.01349203, -0.15583640, 0.06755318, -0.06355578, -0.02164813, 0.03956582, 0.01763444, 0.02460883, 0.01886272, 0.05859287, -0.09323622, 0.00915678, -0.00889650, -0.00939804, -0.00725395, 0.01903343, 0.03142422, 0.00355858, 0.03716585, -0.06274655, -0.15459852, -0.02953636, 0.06818362, 0.05319117, 0.01928845, 0.06595743, 0.02018861, -0.02282166, 0.02675484, -0.05097632, 0.02052972, -0.03720198, 0.01090186, -0.03990753, -0.01521476, 0.00337762, -0.03830990, -0.03902324, -0.01599601, -0.03737819, -0.00407967, 0.01254454, -0.00450220, -0.00557532, -0.03161246, -0.01343456, 0.04659712, -0.01115863, -0.11154116, 0.02813475, 0.03278087, -0.00718874, 0.01153676, -0.03517264, -0.03508756, -0.05405809, -0.02412882, -0.08204768, -0.01136506, -0.08112773, 0.01251017, 0.00523668, -0.02527125, -0.01633807, 0.10094454, -0.00827156, 0.00492549, -0.02110793, -0.05666469, 0.06911527, -0.03368088, -0.03570811, 0.05279761, -0.09939675, 0.15083291, -0.07505172, -0.05519244, -0.04726575, 0.04054768, -0.00952803, -0.00020415, -0.01133454, 0.01737937, -0.15128596, 0.00952964, -0.01250390, -0.00500690, 0.03004682, -0.01426896, -0.00363061, 0.04513707, 0.01594095, 0.00544795, 0.03794739, -0.02353311, -0.03289356, 0.04532833, -0.05014167, -0.03870741, 0.01766614, 0.07387027, -0.04095775, -0.11082384, 0.00309470, 0.00236380, 0.00255394, 0.01358546, 0.01500241, -0.01413826, 0.03211766, -0.01474591, -0.08697990, -0.01779675, -0.03383324, 0.00199364, -0.01381168, -0.03016788, -0.02254880, -0.09497861, 0.01816117, -0.13182276, 0.03914769, -0.08864883, 0.01998236, 0.02726319, -0.06219837, 0.02027374, 0.03293917, 0.00636030, -0.00336738, -0.01303252, -0.03664539, -0.00506650, 0.00478895, -0.06594097, -0.03158038, -0.02254009, 0.04185852, 0.02679828, -0.00817142, -0.01838849, 0.01644146, 0.03563002, -0.01783231, 0.05539472, 0.02002696, -0.05341757, -0.07417586, 0.02192995, -0.03594995, 0.07273250, 0.04833835, -0.01180363, 0.04941802, -0.00916999, -0.01421128, 0.09828394, 0.01900969, 0.00122697, -0.00940426, -0.01772947, -0.00103647, -0.02059362, 0.11289802, 0.08251845, -0.01850022, 0.02005034, 0.03736711, 0.01393833, -0.00402513, 0.06759366, 0.01086375, 0.03866045, -0.08787005, 0.08855694, 0.10775040, -0.03969849, -0.01763741, 0.02570172, -0.09396035, -0.06038671, 0.06817169, 0.04548023, 0.05841542, -0.00700420, 0.02326964, 0.06341051, -0.00918647, 0.00058153, 0.04526215, 0.00240232, -0.06802914, -0.11460661, -0.00073263, -0.08177441, -0.02314614, -0.03503700, -0.07558712, 0.02707683, -0.00896684, 0.00734916, -0.02139921, 0.03872815, -0.00033055, -0.01866382, 0.00436296, -0.00787906, 0.00088577, 0.03566658, -0.11903962, -0.02125451, -0.00418260, -0.03512011, -0.04736241, 0.02571848, -0.02516243, -0.00571370, 0.00963710, 0.04332606, -0.04517989, 0.01241958, -0.03162043, 0.02368476, 0.04236246, 0.01634693, 0.05669346, 0.04404342, 0.07424466, 0.04393464, 0.01145035, -0.01260910, -0.00247262, 0.00503209, -0.01342873, -0.00928664, 0.07837630, -0.02673303, 0.03463467, 0.04841202, -0.05791564, 0.04532248, 0.03847861, -0.06298695, 0.08629594, -0.00930173, 0.02092570, -0.05001512, 0.04663935, 0.01841549, -0.00921365, 0.10255730, -0.01800436, -0.00276452, -0.03018392, 0.01135641, -0.03068965, -0.02012775, -0.02769958, -0.01894418, -0.02777934, -0.01048085, 0.03055299, 0.06021030, 0.02955900, 0.06440984, 0.03635717, 0.00698507, 0.00427006, -0.01628150, -0.01531905, -0.00177027, -0.11850737, -0.04553200, 0.01275353, -0.09460559, -0.00258482, -0.04918927, -0.07009191, -0.02327158, 0.00042478, 0.08930814, 0.00983981, 0.03008508, 0.01802089, 0.06075061, -0.10061184, -0.00917349, 0.04147704, -0.03864131, -0.12425706, -0.06544259, 0.03086687, 0.00165068, 0.01862481, 0.05799969, -0.01795658, 0.04948499, 0.07224669, -0.03856721, 0.01412547, -0.01492589, 0.02228368, -0.04230270, -0.04104869, 0.00040822, 0.01095567, -0.04097151, -0.02301195, 0.00484654, 0.09014161, 0.03303326, 0.07524236, 0.03904513, -0.00534263, 0.01481491, 0.04642195, 0.04168538, 0.10471699, 0.07325263, 0.02118745, -0.00291980, 0.02056354, 0.00487249, -0.00821092, -0.00066103, -0.01206684, 0.02115790, -0.04443482, 0.02336510, -0.07569441, 0.01805544, 0.01535160, -0.05499803, 0.01831472, 0.06671835, 0.00149583, -0.09313985, 0.08890779, 0.00766865, 0.03337596, 0.03037228, -0.02210486, 0.07689872, 0.05450057, -0.01412955, -0.00759566, 0.01785383, -0.05059052, -0.00010849, 0.02483447, -0.00280837, 0.01264580, 0.02223524, 0.01094787, -0.01832354, -0.02901708, -0.03402800, 0.03447324, 0.00828982, 0.01277392, 0.03031416, 0.09111333, 0.02490765, 0.11219405, 0.02448308, 0.01767740, 0.01679095, 0.01635591, 0.00360906, 0.01781725, 0.13821423, -0.11909905, -0.09894374, 0.07056700, 0.05436462, 0.02535405, 0.03311478, -0.00611824, 0.03640265, -0.06183556, 0.04516063, -0.05570130, -0.02572470, 0.02116531, -0.00106252, 0.01234907, 0.02385868, -0.00147925, 0.01859609, -0.07761882, -0.15917303, -0.02412576, -0.07466184, -0.00717731, -0.04103218, -0.05978323, -0.02698282, 0.02723900, 0.02954507, 0.09412524, -0.01187506, 0.01867236, 0.04769230, -0.00699385, 0.01263627, 0.04507950, 0.09711253, 0.06351819, -0.05082410, -0.08233431, 0.06961443, 0.03061973, -0.06106039, 0.03507344, 0.03849255, -0.05632775, -0.08085122, 0.07414677, -0.01267125, 0.01830752, -0.04190383, -0.02288881, 0.02956478, -0.00459706, 0.10291310, -0.02428867, 0.01416526, -0.05906287, 0.02491288, -0.01626042, -0.03755164, -0.02905663, -0.10501248, -0.02974348, -0.00490607, -0.02855148, -0.01670470, 0.00185243, -0.04072454, 0.04083280, -0.04450804, -0.05410536, 0.01512771, -0.00719904, 0.01580443, 0.00049324, 0.01195485, 0.02232420, -0.00600275, 0.02281969, 0.02568327, -0.03206218, 0.00408541, 0.02673496, -0.03526735, 0.00266962, -0.05311711, -0.04936468, 0.01706273, 0.01616634, 0.08409580, -0.02485750, 0.03339512, -0.01636915, 0.05928904, 0.01579621, -0.03958859, 0.03803578, -0.00628780, -0.08870105, 0.00714968, -0.10758988, -0.04361508, -0.01261946, 0.00218434, -0.06526653, -0.00233658, -0.05657973, -0.04774478, -0.09604531, 0.01530410, -0.03689651, 0.01214361, -0.10791471, -0.03090440, -0.03145229, -0.06912757, -0.08745965, -0.10898304, -0.08944568, 0.04520515, 0.01014393, -0.04077920, 0.03165048, 0.01799049, -0.04119839, 0.02591093, 0.03979815, 0.10257870, 0.00761936, -0.02698478, -0.00710477, -0.00038185, 0.03176422, -0.00577410, 0.00243914, -0.10414371, -0.02737890, -0.01838046, -0.04971102, -0.03659485, 0.00365803, -0.03778685, -0.02604787, -0.08861617, 0.06501673, -0.00161233, -0.02208169, 0.04646425, 0.00120864, -0.03336863, 0.04637607, 0.02610517, -0.02003509, 0.04382584, -0.11457216, -0.08166193, 0.04954455, 0.05821643, -0.10310579, 0.07322440, 0.05358097, 0.09962523, -0.05422101, 0.05909096, -0.00199381, -0.11723772, 0.01960658, -0.07734183, 0.00700014, 0.01259883, -0.00019183, 0.13950151, -0.01217732, -0.03156311, 0.00540454, 0.00351007, -0.00580575, -0.03651848, 0.03768929, 0.02269089, -0.00279181, -0.02253758, -0.08678798, 0.04420033, -0.03338892, -0.07294495, 0.06153830, -0.00968762, -0.03052271, 0.10925964, -0.00938989, -0.03408382, -0.07476038, -0.01221290, 0.00541637, -0.06134927, -0.05929064, -0.07926661, 0.03686700, 0.05135448, -0.04097859, 0.04273431, -0.04481864, -0.01388349, 0.02637864, -0.03902730, -0.06913128, 0.03027612, -0.08330499, 0.00776464, 0.02235442, 0.02850314, 0.02597936, -0.03451623, 0.03623573, 0.01432140, 0.03191492, 0.05008395, 0.04581666, 0.00189772, 0.01033070, -0.02177919, -0.00458447, 0.01415076, 0.00177459, -0.05703580, -0.15741584, 0.01916385, -0.03213755, -0.05658958, 0.02454056, 0.00847468, 0.01255468, -0.02421571, -0.11905812, -0.05126698, -0.02361384, 0.03004699, -0.04908052, -0.05120116, 0.04026211, -0.04197093, 0.03578617, 0.03869557, -0.00684700, 0.06551933, -0.05407874, 0.02243685, 0.03887770, 0.02628465, 0.03731248, 0.02211229, 0.07479189, -0.07123529, -0.01266619, 0.02417818, 0.03997069, -0.01169832, -0.01556372, 0.04038058, -0.04513380, -0.08249241, -0.06230811, 0.00775736, 0.01547437, 0.00106499, -0.03737025, 0.02758136, 0.04770700, -0.00066691, -0.02499436, -0.09280323, 0.04693098, -0.03259771, 0.05387813, -0.02060037, 0.00721472, 0.04665863, -0.02958147, 0.02633299, -0.01932806, -0.01016594, 0.02843517, -0.02138388, 0.01277519, 0.01634953, 0.00530391, 0.10951382, 0.08122665, -0.05436253, 0.02750098, 0.01212683, 0.05126089, 0.01148316, 0.03910581, 0.02639593, -0.07920013, 0.01789837, 0.04488133, -0.04820302, 0.00737484, -0.03127049, -0.06182661, 0.01310977, -0.05672366, 0.02722150, 0.08774181, 0.00393312, -0.02902084, -0.07634252, 0.02440915, -0.01836760, -0.04794499, 0.05761398, 0.01488687, 0.08047353, 0.05643925, 0.04548511, 0.02905750, 0.09117209, -0.02843525, -0.00081683, -0.00420188, -0.00151568, -0.16739354, -0.01746754, -0.02298249, -0.00814850, 0.05748812, 0.00721753, -0.04503513, 0.05752051, 0.01221086, 0.05317312, -0.03790775, 0.06705247, 0.00297109, 0.01641104, 0.03609930, -0.04233034, 0.04565245, -0.03994918, 0.01666277, 0.07667122, -0.02233623, 0.03605208, -0.03471653, -0.02362859, 0.02753226, -0.02524759, -0.01663114, -0.20867124, 0.06231227, -0.01567773, -0.03767794, -0.03451910, -0.05870405, 0.01161195, -0.03939136, 0.02030940, 0.00999280, -0.01569804, -0.04037737, 0.00339919, 0.01261413, -0.02349178, 0.06418905, 0.03154596, 0.05920257, -0.00244149, -0.03913894, -0.00108055, 0.00556698, 0.01419316, 0.04367090, 0.03450019, -0.01042986, -0.04036049, 0.02780250, 0.01010101, -0.07927753, -0.03118048, -0.03843430, -0.04658039, -0.02718940, -0.01601594, 0.03366189, 0.01350542, 0.00570598, 0.02379665, -0.00287134, -0.01185347, -0.05038481, 0.02950428, 0.01490203, 0.02433520, -0.07175493, -0.00643092, -0.00365927, -0.02745792, 0.06044203, -0.02700368, 0.00035867, 0.00458228, 0.01333875, 0.05904461, -0.03963409, -0.06299167, 0.02530606, 0.04727487, -0.02137366, -0.03531220, 0.02955155, -0.05629623, 0.00805329, 0.05341997, 0.01844517, -0.04096745, 0.00370974, -0.03531084, 0.03188295, -0.01761047, 0.01087024, -0.05095669, 0.01735358, 0.02509146, -0.03374108, 0.06054877, 0.06067289, 0.05050150, 0.06021946, 0.06011919, 0.02692857, -0.09214128, 0.00765868, 0.04956002, 0.04678182, 0.02470653, 0.02246290, -0.02401222, 0.11018860, 0.02334988, -0.02048536, 0.05278733, -0.01544848, 0.04566300, 0.02817287, -0.01236853, 0.01377815, 0.06504322, 0.16673006, 0.01891151, 0.00833727, 0.01952269, -0.00082235, -0.00099196, -0.02205048, -0.01317763, -0.01152283, -0.00558344, 0.06398536, 0.00134436, 0.01901162, -0.01028125, 0.01062904, 0.00997797, -0.00081754, 0.09412646, 0.03100828, -0.00310887, 0.05900627, 0.08231238, 0.01549360, 0.04868916, 0.11917777, -0.04570361, 0.01102877, -0.09545161, -0.01455494, -0.07018407, -0.04108267, 0.06261345, -0.09783325, -0.02068107, 0.02360716, 0.04811755, -0.02075592, -0.01330711, 0.05819222, -0.00069899, 0.01109281, -0.01051748, -0.01267986, 0.00121171, 0.11815840, -0.03513197, -0.03785218, 0.04050108, 0.00414528, -0.06478970, 0.01705470, 0.01927138, -0.05013810, -0.12126042, 0.03064904, -0.01732679, -0.00496669, -0.01298482, 0.01699184, -0.03034496, 0.01809566, 0.01402232, -0.02424426, -0.02285894, 0.01144014, 0.00280107, -0.01521603, 0.01201548, 0.04577354, -0.02916934, 0.04482513, -0.08144967, 0.09231693, 0.01234144, 0.05395688, 0.03239712, -0.03399804, -0.00081562, 0.02752414, -0.01881289, 0.00727853, -0.06248159, -0.01800993, -0.02156182, -0.02795200, 0.00738111, 0.00979085, 0.03823695, -0.00088171, -0.05440127, -0.00326185, 0.17479549, 0.01394351, 0.02789571, 0.00647772, -0.01458528, -0.00568194, 0.01310598, -0.02194883, 0.02434337, -0.05578905, -0.00198951, -0.04347137, 0.00174974, 0.03205226, -0.04276963, -0.01077453, 0.00755301, 0.00451369, 0.00994112, 0.03032937, 0.01588940, 0.01819839, 0.02140253, 0.05394246, -0.03134558, 0.01958653, -0.04928267, 0.07213221, -0.02556337, -0.00850369, -0.00102546, -0.04108102, 0.06812903, -0.02412833, -0.09517062, 0.09170588, 0.08498762, 0.04006552, 0.04391670, 0.02710807, -0.02753156, 0.06331225, 0.03020607, -0.11843026, 0.03584019, 0.10707612, -0.03766085, -0.01033178, 0.02341105, -0.04303977, 0.03180100, 0.08000541, -0.03641346, -0.08684254, -0.03656913, 0.02078239, -0.11631745, 0.02453288, -0.00139072, -0.05747050, -0.03015489, 0.03980315, -0.00810579, 0.06753422, 0.04226836, -0.02514460, 0.00827292, 0.00899803, -0.09557188, 0.06001335, -0.06777718, -0.00665849, 0.03562434, -0.01040654, -0.03285616, -0.01582216, 0.02567874, 0.01313063, 0.00785617, 0.09806833, -0.05461890, 0.00817401, -0.03710118, -0.01336243, 0.01686540, -0.03523818, -0.01019039, -0.03283510, -0.02541668, -0.10169246, 0.13736412, -0.02296061, 0.02702924, 0.03907267, -0.01686308, -0.03629404, 0.00255675, 0.01064739, -0.06697781, -0.08256523, 0.03305461, -0.01136941, -0.03002244, 0.02415848, 0.01946614, -0.02018947, -0.05010381, -0.04939869, -0.06995758, -0.01071041, 0.05003981, -0.05622267, 0.01977992, 0.05210814, -0.03234223, 0.02442791, 0.01373264, -0.05344861, -0.00475987, -0.02371700, 0.01732185, 0.00912585, 0.00751797, -0.00920693, -0.12789005, -0.02327687, 0.09750647, 0.01427523, 0.04112886, 0.06267644, 0.00797086, 0.00922898, -0.00672824, -0.11640795, -0.01653912, -0.09031834, -0.05906224, -0.04118180, 0.03541712, -0.07433087, 0.01145748, 0.00392036, 0.05089157, 0.04050075, 0.00320097, 0.04022064, 0.08353560, 0.01055820, 0.00614584, 0.00533458, -0.05443829, 0.13383302, 0.01712892, 0.01860157, 0.00022473, -0.04694729, -0.05188828, 0.04317217, -0.03560468, -0.03671009, -0.08246477, 0.12771581, -0.00667032, 0.00901860, 0.04456647, -0.00431905, -0.03107046, 0.01589557, 0.07174405, 0.15343490, 0.03177272, 0.01924528, 0.04476816, 0.05998791, -0.01264897, 0.07067689, 0.02581041, 0.01517027, -0.05226663, 0.08857158, 0.05838371, 0.02609846, 0.00624305, -0.02159154, -0.03916913, -0.00496366, -0.03825388, -0.06975143, 0.14865905, 0.01221422, -0.05565677, 0.04304773, 0.03415963, -0.04551378, 0.04983447, 0.03639676, -0.02163971, -0.09646634, -0.00890953, 0.03272471, -0.06061235, -0.02372376, 0.02751760, -0.01343016, -0.01205453, 0.12524365, -0.00490430, 0.10663393, -0.01071542, -0.02443184, -0.01797221, -0.04079641, -0.07808976, -0.01825256, -0.15663816, -0.04259588, -0.00797939, 0.02608414, -0.05577808, 0.02101621, 0.01036708, -0.03336470, 0.02090524, 0.01199017, 0.03719646, 0.02301979, -0.00050729, 0.00020802, -0.01547274, 0.00231329, 0.02366400, -0.01030948, -0.05522793, -0.13007243, -0.13571152, -0.05828951, -0.00206826, 0.00616666, -0.08340302, -0.07775176, 0.01618775, -0.01603811, 0.02778048, 0.03563068, -0.01948262, -0.01228079, -0.02720398, 0.01166721, -0.01259098, -0.02006097, 0.08138300, -0.04495898, -0.06421565, 0.01816353, 0.04093019, -0.01730407, 0.01092872, 0.02085513, -0.03412814, -0.03743756, 0.00255917, -0.07494424, 0.00725206, 0.03519618, 0.00969659, -0.00620934, 0.04240436, 0.00266942, 0.11213356, 0.07024263, -0.06726121, -0.06324303, -0.04169587, -0.02496335, 0.00450388, -0.06046223, -0.04442050, -0.04018233, 0.13253981, -0.00778304, 0.00460133, -0.06634483, -0.00174359, -0.05703346, -0.04404007, -0.01107994, 0.01704904, 0.06102140, 0.02884910, 0.06505061, 0.00956906, 0.04232419, 0.01421910, -0.00383224, 0.00547718, -0.05699996, 0.08248431, -0.11493834, 0.00644571, 0.02508718, -0.00570088, 0.03910860, 0.03708338, -0.01171877, -0.14591047, -0.06588174, -0.08939940, -0.04670546, -0.02951067, -0.01359346, -0.01410117, -0.02841405, 0.02735032, -0.03735361, -0.05501390, 0.03698421, 0.00618158, -0.01805028, -0.00906749, -0.01699587, 0.00219118, -0.01348821, -0.09115852, 0.00654722, 0.05571136, 0.04688028, -0.00121281, -0.01443752, -0.00409252, 0.02471288, -0.02697971, -0.04018441, 0.03632572, -0.09945034, -0.03272370, -0.00332391, -0.04017015, -0.03318089, 0.03417604, -0.02645226, -0.02058687, 0.02639601, 0.03319766, -0.04967401, 0.00130821, -0.01875093, -0.00992838, -0.00421680, -0.03501472, 0.03781152, 0.00984883, -0.13391869, -0.03806746, 0.00537505, -0.01488889, -0.01643164, -0.02138628, -0.03070246, -0.07857844, -0.08166870, 0.01870170, 0.00421176, 0.00571339, 0.00984577, 0.00181784, 0.01786426, 0.00253264, 0.01679984, 0.02765146, -0.00898357, -0.04141779, -0.01691617, 0.02120749, -0.04611777, -0.05805193, 0.02822845, 0.02140186, -0.04919677, -0.06791514, 0.04699478, 0.01709056, -0.02937476, 0.02923439, -0.03510901, -0.02719735, 0.02042195, 0.01257101, 0.04831416, -0.05724419, 0.00233466, 0.00241538, -0.03413447, 0.00104214, 0.01574417, 0.03507366, -0.00195260, 0.07420583, 0.02759785, 0.01106237, -0.02459443, 0.03682485, -0.01373566, -0.00512847, -0.00175802, 0.00599387, 0.11720381, -0.01343133, 0.02517285, -0.00102738, -0.04104618, 0.03733251, -0.01447998, 0.00064996, 0.04528409, 0.01203321, -0.00063844, 0.04027186, -0.00595272, 0.02641165, 0.02719628, -0.00602157, 0.02932743, -0.12233688, 0.08819848, 0.10240219, 0.00101557, -0.03089992, 0.03629878, -0.01261066, -0.05869825, 0.08725485, 0.05682060, 0.05435330, 0.05870402, -0.02999327, 0.03190213, 0.02597533, -0.02151604, 0.04814046, -0.06943805, 0.12326770, -0.14562085, 0.02236272, 0.02379360, -0.00918615, -0.00369532, -0.02670137, 0.00059799, 0.02607014, 0.03964945, 0.04559959, -0.00880800, -0.06382273, -0.01774064, 0.00512741, -0.08001702, -0.07692581, 0.03030710, -0.04937715, 0.05348889, 0.01107119, -0.05343975, -0.01750679, 0.00030355, -0.02139437, -0.04528689, -0.01197141, 0.00545957, 0.06556764, 0.02585307, 0.03628023, -0.02848093, 0.02884279, -0.00583222, -0.01103704, 0.02090746, -0.00050403, 0.07858277, 0.03903593, -0.06566145, 0.02860170, 0.05213189, -0.05865049, 0.06702713, -0.00353484, 0.00880511, 0.00690354, 0.02200498, -0.01537179, -0.00084882, 0.01346463, -0.01860059, 0.00268550, 0.05766281, -0.02348493, -0.06539308, -0.00237549, 0.00086945, -0.06142155, -0.00990207, -0.00470786, -0.04705565, 0.00830772, 0.03089193, -0.01436800, 0.00817255, 0.00544988, 0.00598588, 0.02039232, 0.00508667, 0.01031716, 0.08181563, -0.11780322, -0.02477365, 0.03002762, 0.03457480, -0.06382255, 0.04701108, -0.00654478, -0.06253751, 0.02529091, -0.00013208, -0.02715288, 0.05918491, -0.00358699, -0.00315862, 0.01262338, 0.01699952, 0.01982235, -0.00062392, 0.14253180, 0.01542641, 0.03475988, -0.05707004, -0.04492038, 0.05829343, 0.00091188, -0.06667337, -0.08086838, 0.03584984, 0.04409998, 0.01528880, 0.01827202, 0.02137620, 0.00119619, -0.01549908, 0.02169247, 0.04504062, 0.03853892, -0.06448159, 0.00247277, -0.01135676, -0.03000438, -0.03429966, -0.03326011, -0.04213942, -0.00921259, 0.10058658, -0.07889844, 0.01475801, 0.01136539, 0.04045146, -0.02328136, 0.00891095, 0.03168118, -0.01567338, 0.06411595, -0.06451812, -0.01324672, -0.05468465, -0.03731049, -0.00445039, -0.01959820, -0.06296209, 0.06792116, -0.04170841, -0.03813289, 0.00224494, -0.01893370, 0.08117007, 0.03952431, -0.06264724, 0.04778717, -0.01158001, 0.02789907, -0.04659575, -0.01646327, 0.02658196, -0.03213099, -0.05748381, 0.03383007, -0.02578290, -0.06195218, 0.02714610, -0.06867958, 0.10558087, -0.04334483, 0.04023251, 0.05488511, -0.05515603, 0.04485295, 0.10757772, 0.00707862, -0.03978392, -0.00701754, 0.02628356, -0.06519619, 0.01585833, 0.01041773, -0.02985869, 0.07416911, 0.03860987, -0.03625796, 0.00619442, -0.02709330, 0.02696952, 0.03716961, 0.03325501, -0.01955315, -0.01555604, 0.01055571, -0.00961708, 0.00044019, -0.02113254, 0.00215514, 0.02819288, 0.00858207, -0.09555633, -0.02339119, 0.10388388, -0.02777663, 0.01455745, -0.05231001, 0.07459839, -0.04323583, -0.03438084, 0.01214640, 0.06844452, -0.03898389, 0.04066245, -0.04701087, -0.05164440, -0.00138918, 0.00315324, -0.02597625, 0.00481914, 0.07611945, -0.08123878, 0.02218518, 0.01059889, -0.01099169, -0.00960616, -0.01698771, -0.00036987, -0.00109968, 0.05031947, 0.07971679, 0.01991783, -0.01303811, -0.00843483, -0.05755791, -0.04007390, 0.02030778, -0.01785233, -0.04312548, -0.00908920, -0.17382239, -0.02854140, 0.03737519, 0.00804330, -0.05922688, 0.02604873, 0.03432768, -0.09671763, 0.01020221, -0.09399220, 0.01237044, 0.05302707, -0.06316283, 0.02840760, 0.09116817, -0.07158366, -0.08713646, 0.08128781, 0.00134802, -0.01492019, 0.00738893, -0.08015848, 0.02225117, -0.06292047, -0.04473059, 0.02297059, 0.00684757, 0.09599796, -0.04367903, 0.04869973, 0.05589149, 0.00458883, 0.03639881, 0.05865419, -0.06797290, 0.07865631, 0.08654307, 0.00874038, 0.11532754, -0.00142530, -0.01483393, 0.15861747, -0.00665419, -0.01648322, -0.03955993, 0.00561507, 0.04235768, 0.01413019, 0.01538696, -0.07421483, -0.00843402, -0.00925937, 0.05748000, 0.04482266, 0.07571467, -0.00713116, -0.00383632, 0.00854953, -0.02460318, 0.00540334, -0.04912678, -0.02203680, 0.00547607, -0.07068233, 0.00996089, 0.03435715, 0.01396401, 0.02082511, 0.01219265, -0.04112495, 0.04673729, 0.05821292, 0.00792143, -0.05440291, -0.01997873, 0.03203965, -0.05908708, -0.01839807, 0.07174507, -0.06327112, 0.09827889, 0.13015530, 0.00554945, 0.03939344, -0.02818571, 0.05437909, 0.03784526, -0.04930134, 0.04070848, 0.06170854, 0.11195530, -0.08265918, -0.00211085, -0.02971221, -0.08621695, 0.02979062, -0.03406066, -0.08826211, 0.06160981, 0.02106177, -0.00731639, -0.04962143, 0.02966486, 0.01631744, -0.00085498, 0.00788316, 0.00320663, 0.06784028, 0.00255735, -0.07229753, 0.05669886, -0.02028035, -0.03165165, 0.01654417, 0.02048173, 0.10006782, -0.01915015, -0.02106716, -0.02854555, -0.03318051, 0.02072181, -0.04904125, 0.01488264, -0.04149444, -0.05096424, -0.05733610, -0.02803835, 0.04922970, -0.00829410, 0.00430996, 0.00528206, 0.05554933, 0.00455445, 0.10681389, 0.02980264, -0.02436216, -0.05085741, 0.00422400, -0.00835626, -0.04102083, -0.02438092, -0.00465230, 0.01305520, 0.01195825, -0.00230278, -0.05139516, 0.03630157, -0.05825393, -0.04455425, 0.03214907, -0.05376335, 0.03790958, -0.05732430, 0.00865554, 0.01000186, -0.01631021, 0.04345696, 0.04839918, -0.00038856, 0.06148701, -0.04489637, -0.02867093, -0.10397142, 0.01291194, 0.00308075, 0.01446795, 0.01903702, -0.04380897, -0.02434976, -0.00734930, 0.06559345, 0.06386814, 0.04126832, 0.01033721, 0.04586459, 0.02035113, -0.00364752, -0.01287286, 0.02857477, 0.04799275, -0.01051820, 0.02693480, 0.03750341, -0.00179179, 0.02104943, -0.00328197, -0.00031467, -0.05661883, 0.09637950, -0.06800792, 0.07084253, 0.01810973, 0.01802898, 0.01456559, 0.00189106, 0.01567020, 0.06916973, 0.08425667, -0.01361749, -0.00529171, -0.01094451, 0.02357304, -0.01389555, -0.02321660, 0.02643735, 0.00266460, 0.01342790, 0.06738042, 0.02127600, 0.04517487, 0.03098767, 0.00982123, 0.02021218, 0.01435439, 0.08871054, 0.00754219, -0.07275632, -0.05313612, 0.01853274, -0.03740381, -0.07636251, -0.01699691, -0.02168529, -0.05093258, -0.02817371, 0.01184167, -0.02609719, -0.00122924, -0.01467127, 0.01927519, -0.00025827, -0.01346917, 0.04175266, 0.08471952, -0.01065675, -0.03237018, 0.06094508, -0.02225467, -0.01649006, 0.04684984, 0.02301204, 0.12075631, -0.10851621, 0.11472714, -0.06133218, 0.02814684, -0.03004231, -0.08504911, -0.02985995, -0.01831320, 0.03545579, -0.02284982, -0.13931507, -0.01122363, 0.03720113, 0.03796656, 0.02451737, -0.00876357, 0.06319452, 0.04389561, -0.01192578, 0.13848168, -0.01845390, -0.07521880, -0.00158328, -0.04325596, -0.10449355, 0.01085853, 0.04719016, -0.04450766, -0.04785940, -0.03122803, -0.05042921, 0.02775631, -0.03531935, -0.06122596, -0.01432587, 0.03503969, -0.05927176, 0.01512881, 0.01741439, 0.00938375, 0.03728561, -0.02378859, -0.01139959, 0.04778633, 0.01533461, -0.01399704, -0.02710334, 0.00556646, -0.03328583, 0.01317499, -0.02618313, 0.00611751, 0.03896572, 0.04962820, -0.00627444, -0.00243627, -0.01020915, 0.02415514, -0.00666761, -0.01758317, 0.00871507, -0.00531392, 0.03146635, -0.02807278, 0.05922044, 0.05741785, -0.01140907, -0.00985153, 0.04426044, 0.02449087, 0.00691530, -0.02132989, 0.01734528, -0.10879865, -0.02416856, -0.02651471, 0.01409784, -0.02262935, -0.02503929, 0.01259081, 0.08467878, -0.03310010, -0.03555804, 0.01859730, 0.02830771, 0.01931662, 0.00490446, 0.04175353, -0.00181471, 0.16247435, 0.00429887, -0.03212276, 0.03251136, 0.08772830, 0.01373910, -0.03290066, 0.09915175, -0.03988446, 0.13458087, -0.02753945, -0.01692943, -0.02101876, 0.00807878, 0.02166561, 0.05332844, 0.00716444, -0.06503388, 0.04107780, -0.19867104, -0.01814126, -0.00100903, -0.00087393, 0.00873941, -0.06415015, -0.02429355, 0.01219854, 0.01306098, -0.13020036, -0.05589766, -0.02353984, 0.03048986, 0.03637413, 0.01223347, -0.00471564, -0.08975668, -0.06062113, -0.16325371, -0.19840392, -0.00022279, -0.04480061, 0.06095185, 0.01220866, 0.07411256, 0.11266714, -0.09505642, -0.05227362, 0.02493118, -0.00257370, -0.04165006, 0.03841543, -0.02324498, -0.03806921, 0.00531934, -0.14895071, 0.05949913, -0.01377355, -0.03434274, 0.02553177, -0.07035110, -0.05404646, 0.04165937, -0.03244110, 0.05688226, 0.02468422, 0.03677974, -0.00578585, 0.00377030, 0.03232764, 0.02629269, -0.01389053, 0.00917112, -0.02423622, -0.03703532, -0.06339402, 0.00578935, 0.05657075, -0.00644443, 0.04585905, 0.03599773, -0.04125774, -0.07677902, 0.00674302, -0.04122099, 0.00225057, 0.00212466, -0.00527611, -0.03107672, -0.02913005, 0.02819665, -0.06871812, 0.00210823, 0.05554163, 0.03590121, -0.05946812, -0.00839120, -0.01797810, -0.04888670, 0.01744450, -0.03171140, 0.04399263, -0.14693978, 0.01669119, -0.01797914, -0.07654714, -0.02920401, -0.03120515, -0.00228860, -0.01628693, 0.07682770, -0.08208997, 0.00954715, -0.07466116, 0.05284194, -0.04089681, -0.04823414, -0.00312879, -0.03787630, 0.02819513, -0.03114743, 0.04816129, -0.00243908, 0.00937316, 0.03771800, -0.01238534, 0.05496651, 0.03428237, 0.12887555, 0.02365565, -0.01128640, 0.04596920, 0.02480187, -0.02848158, 0.01016609, -0.00148797, 0.05928667, -0.10164829, 0.02730311, 0.02259860, 0.01584759, 0.02057458, 0.04767917, 0.02295745, 0.04717796, 0.08209514, 0.02147665, -0.04722606, 0.04308962, 0.01277404, -0.05019016, 0.03343634, -0.02927935, -0.03743023, -0.00173945, 0.04313473, 0.02201995, -0.04391335, -0.01682701, -0.07025601, -0.03262411, 0.04432816, -0.06893390, 0.07765794, -0.00417012, 0.00739828, 0.00636825, 0.00670426, 0.05605659, -0.00502911, -0.00756085, 0.01224057, -0.09684286, -0.01099602, 0.01806180, 0.05806705, 0.03391422, -0.01544624, 0.03573630, -0.01340371, 0.03377979, 0.08630384, 0.05768836, -0.00888122, -0.02727932, -0.04992919, -0.02450915, -0.01045408, 0.00530912, -0.01003535, 0.08012588, -0.15056765, 0.03638391, 0.02538052, -0.04304797, 0.02598560, 0.00722487, -0.01234540, 0.02862661, 0.00220335, 0.04423731, 0.06857792, 0.03641397, -0.01484730, -0.03121117, 0.00937076, -0.02766857, -0.01893836, 0.08647570, -0.00800190, -0.00375232, -0.04061165, -0.03245171, -0.00327708, -0.05220750, 0.00591611, -0.05759595, 0.01693200, -0.01440886, 0.08741599, -0.00543394, -0.04766192, -0.07394335, -0.02168563, -0.01028642, -0.01282264, 0.06306595, 0.02694915, 0.06384744, 0.03279797, -0.04046175, -0.03031243, -0.02255584, 0.03296192, -0.06320000, 0.02173099, 0.02981104, 0.01723735, -0.01948892, 0.00193956, -0.00830445, -0.06251629, 0.02244935, 0.07660598, 0.03727924, 0.09685559, -0.05283393, 0.05027490, 0.01634812, -0.02447873, 0.00734536, 0.03573934, -0.01680821, -0.06099506, -0.01991097, -0.04116367, -0.01478993, -0.09575196, 0.03736145, -0.00609253, -0.09044673, -0.01781961, -0.12308914, -0.07849445, -0.01646912, -0.01006983, 0.02644492, -0.03131407, -0.00517280, 0.00401047, -0.01864438, -0.03301795, 0.05675469, -0.05439076, 0.00120341, 0.01786159, 0.00600447, -0.04253362, -0.00865593, 0.00577644, 0.09901737, 0.00645891, -0.05379224, 0.01950833, -0.01613200, -0.04160264, -0.01336182, -0.02368597, -0.00624570, 0.03233534, 0.03474223, -0.06276602, 0.07130729, -0.00145385, 0.01155390, 0.00487412, -0.03767385, -0.05355814, -0.01616386, 0.01071304, -0.06626535, 0.07287600, -0.07682299, -0.06302445, 0.07573069, 0.01217027, -0.09503750, -0.08669945, 0.14620559, -0.03279190, -0.02661011, 0.06410609, -0.06661610, 0.00428391, 0.04895066, -0.00213894, -0.04201688, 0.01608281, -0.05289041, 0.06810144, 0.03727857, 0.04606989, 0.01210279, 0.00807351, 0.04680508, 0.02761740, -0.02791741, 0.00758745, 0.03818965, -0.02193562, 0.03570415, 0.06537195, -0.00686383, 0.04709497, 0.03030875, 0.04548004, 0.09245213, -0.00120541, 0.02733218, -0.00825348, -0.03584104, 0.04468767, 0.01613033, 0.00680606, -0.03912165, -0.06879046, 0.03783346, -0.00359090, 0.02032498, 0.02527883, -0.01687169, 0.02210715, -0.08489790, -0.06415513, -0.07402683, -0.01736788, -0.09671888, 0.00342675, -0.03558092, -0.04525946, -0.03257949, -0.03994018, 0.01509899, 0.00015483, 0.00362463, 0.07046421, 0.03579106, 0.05121567, 0.03903816, 0.00642624, 0.01113164, -0.01223226, 0.02331129, 0.01865707, -0.05648755, -0.09225621, 0.01874846, -0.04912333, -0.08061721, -0.10836542, 0.00690433, -0.03086687, -0.00789799, -0.01269700, -0.02145130, -0.00065469, -0.07837243, 0.01069250, -0.05282623, 0.04768516, 0.05156062, -0.00725423, -0.01853819, -0.02856047, 0.00318402, -0.01474950, -0.03692244, 0.02398620, 0.04507046, -0.02438061, 0.03399028, 0.04994523, 0.00988013, 0.04262929, 0.01785322, 0.00831079, 0.03170805, -0.14635599, 0.10336564, -0.01292473, -0.01859314, -0.02475869, -0.02750600, -0.00372531, -0.01476002, 0.02565367, 0.02647901, 0.12844110, -0.03713772, 0.02484603, -0.01408030, 0.01763372, 0.03314930, -0.02144630, -0.08490723, -0.02874361, 0.04060872, -0.00795792, -0.03703412, -0.02974243, -0.05392805, -0.05485642, 0.00091644, -0.00515893, -0.06064394, 0.05775324, -0.05501359, -0.02047801, -0.06234389, -0.02821912, 0.02900435, -0.01370743, -0.01081714, -0.08550056, -0.00247784, -0.00277375, 0.05983034, -0.00341087, 0.01006547, 0.03456081, -0.02234585, 0.02950037, 0.04342364, 0.05097666, 0.06796053, 0.00222279, 0.03613315, 0.02819546, -0.04417328, 0.05764649, 0.04962412, 0.08221104, -0.04682100, 0.00021002, -0.02651208, 0.00949828, -0.04313739, -0.04382338, 0.04231912, -0.00541211, 0.02929650, -0.04028064, 0.05380516, 0.01199652, -0.04099411, 0.05035480, 0.04164602, 0.00537840, 0.00691399, -0.00850874, 0.04577786, 0.03032573, -0.00602705, -0.07194112, 0.08005709, -0.03777078, -0.07014766, -0.01783277, 0.04868661, -0.00056308, 0.01348330, -0.05369355, -0.00588188, 0.01514438, -0.02517625, -0.03421477, 0.05276550, 0.07474766, -0.02398604, 0.00156911, -0.02277642, -0.05376939, 0.03611238, -0.05269349, -0.04082735, 0.02020394, -0.00728373, 0.02568609, 0.04068884, -0.05181196, 0.00317293, -0.01502008, -0.04923612, -0.00393219, 0.08922204, 0.06417482, 0.05104639, 0.10458743, -0.06472622, 0.03039182, 0.05754496, -0.07430517, 0.03275705, 0.03205048, -0.00678052, 0.05460882, 0.02384133, 0.05772588, 0.08653124, 0.00924779, 0.05948857, 0.06641568, -0.10238352, 0.03622381, -0.07170672, -0.03558058, 0.04430370, 0.03043536, -0.06243866, -0.00080994, -0.00564816, -0.01797725, -0.00394194, -0.02222374, -0.00541888, -0.00056998, 0.10115077, -0.02561298, -0.02722922, 0.07409909, -0.07164260, -0.03119907, -0.00328384, 0.02949410, 0.07051042, 0.02161505, 0.04336657, 0.03546935, -0.00891799, -0.09214416, -0.09442043, 0.01924169, -0.01543875, 0.02503346, 0.02735782, -0.03641829, 0.05751427, 0.06359801, 0.02400247, 0.09215106, -0.17588145, -0.01892003, 0.00890182, -0.04891372, -0.02472875, -0.01033834, -0.05107551, 0.08312997, 0.04475202, 0.03982785, 0.03566816, 0.08671157, -0.03870717, 0.02682257, 0.10445165, -0.00801020, -0.05028456, 0.01221790, -0.04069222, 0.03545086, 0.01286141, 0.01100887, 0.00264375, 0.04303979, 0.04596467, 0.03890865, 0.04795558, 0.01069110, -0.05118774, 0.00169195, -0.01317290, -0.02007280, -0.00208060, -0.02127571, 0.00531489, -0.10829912, 0.01401822, 0.01634363, -0.05843538, -0.04332832, -0.04339061, -0.05536100, -0.00389139, 0.01927992, -0.02615863, -0.05295824, -0.02235855, 0.10414654, 0.00243962, -0.00533187, 0.12244262, 0.01904213, 0.01933042, -0.05911091, -0.07282265, 0.01769163, 0.04863901, 0.05124666, -0.05688557, 0.03469997, 0.02600896, 0.04784647, 0.00969126, 0.05375497, -0.02872880, 0.01217109, -0.02101946, -0.02035010, -0.03714103, 0.02691602, 0.02476012, -0.15905556, -0.01510746, -0.03513297, -0.04053518, 0.00173621, -0.00553315, -0.00423361, -0.01479811, 0.09808160, 0.07830772, 0.00909806, 0.04099002, -0.01020523, -0.03549143, 0.00240757, -0.01039321, -0.05215497, 0.03382426, -0.09890678, -0.02416950, 0.01552182, 0.04042026, 0.03916746, 0.00033177, 0.03970858, 0.01103953, 0.02614010, 0.10165405, -0.09852697, 0.03715870, -0.04597553, 0.01117442, 0.01209189, -0.00566511, 0.05957605, -0.06096780, 0.09296690, 0.04379018, 0.01211003, 0.00998961, -0.01265399, -0.02605877, 0.04077263, 0.01675791, 0.01715696, -0.02577945, -0.00828520, -0.01923448, 0.05236902, 0.02193621, 0.00978423, -0.07663598, 0.00211006, 0.03878821, 0.03172182, -0.00843060, 0.04299235, -0.02177934, 0.00930766, 0.06611368, 0.02060354, 0.00344012, -0.00036573, 0.00455775, 0.13854140, 0.02698684, -0.01020708, -0.02575766, -0.05530751, -0.03678353, 0.03045268, -0.03763658, 0.00611000, 0.02666797, 0.07091501, -0.00150040, -0.02469883, 0.11892457, -0.04989490, -0.05411227, -0.00160647, 0.14766107, -0.06587837, 0.01663397, -0.05846702, 0.07514945, 0.00689350, 0.00063391, -0.00753398, -0.00484524, 0.03523761, -0.00861952, 0.01677386, -0.05912669, -0.06715519, -0.01739161, -0.06706436, -0.04530793, -0.00192826, -0.01574539, -0.06188833, 0.02225069, -0.00461203, -0.04258848, 0.04122660, -0.01541199, 0.06675316, 0.03943786, 0.03991110, -0.12090942, -0.06743761, -0.03963003, 0.05754100, 0.00703716, 0.00138124, 0.05497178, -0.02012127, -0.00171533, -0.03483997, 0.04959607, -0.12414058, 0.00323102, 0.00391459, -0.04661171, -0.00756999, 0.06492806, 0.09178602, -0.02090065, 0.00789068, -0.06016328, 0.04087541, -0.00690895, -0.00320948, 0.01590734, 0.04814194, -0.12489232, 0.00004353, -0.02152735, 0.00804710, -0.00028342, -0.05465754, 0.03462148, 0.02023146, 0.08821276, 0.07793269, -0.07480443, 0.02698817, 0.02904519, -0.12186758, -0.03837837, 0.05900792, -0.09800577, -0.01483766, 0.07661065, -0.11061523, -0.09545678, 0.03417443, 0.02160580, -0.03402174, 0.00852118, 0.07810274, 0.09377396, 0.07956254, 0.05824728, -0.01515216, 0.01204644, -0.00588700, -0.03008427, 0.01658896, -0.00662375, 0.03799053, 0.12531888, -0.03087213, -0.00440132, 0.03032258, -0.04597578, -0.01094102, 0.01060597, -0.00846773, 0.01018759, 0.03081962, -0.00716186, -0.02375685, 0.11517135, 0.05049118, -0.02498798, 0.11167169, 0.04188832, 0.12435816, -0.00634800, -0.19177821, -0.06487437, -0.02882774, 0.06630538, -0.04009835, -0.01786436, 0.05594342, 0.03375884, -0.06350344, -0.05610112, -0.03223905, -0.00157941, -0.02388933, -0.00968753, 0.04290219, -0.04301995, -0.03491727, -0.02520132, -0.14285327, 0.02181488, -0.01566414, -0.02973402, 0.01195636, 0.00710235, 0.04702512, 0.03435204, 0.03216255, 0.09738827, 0.03814980, -0.04190426, -0.00412437, 0.00490616, -0.01430136, 0.00559218, 0.18859960, -0.01018864, -0.02125122, 0.03871857, 0.05736065, 0.03768228, -0.02845249, 0.04017357, 0.04244737, 0.03023104, 0.00842114, -0.03989361, 0.03459662, -0.02349309, 0.01149711, -0.00132513, -0.01310333, 0.06519672, 0.02351195, -0.09880282, -0.03614593, 0.00666183, 0.02476428, 0.01823301, 0.03304524, 0.00820692, 0.06960586, 0.02136639, 0.03098167, -0.04316171, -0.05703969, -0.00006859, -0.03650958, 0.05194132, -0.04170425, -0.03791432, 0.00459354, 0.01280513, -0.05867176, 0.07625063, 0.02715711, -0.00586528, 0.06787158, 0.00234390, 0.00606908, -0.02464783, 0.01450497, 0.03273745, 0.00838900, -0.08036610, -0.02450824, 0.05604634, -0.00695114, -0.01339523, 0.02737002, -0.06042965, 0.01853405, -0.07487464, 0.01888006, -0.01389657, -0.07810517, 0.01985891, 0.00321103, -0.01676448, 0.01518392, 0.07559346, 0.00199069, -0.00271071, -0.04344857, 0.01074912, -0.00221057, 0.02956959, 0.06286550, -0.05440172, 0.04630884, -0.04304591, 0.03344553, -0.05036638, 0.05774426, 0.02106427, -0.05432482, 0.03555089, -0.01345458, -0.01029153, -0.03872503, 0.05835838, -0.02017762, -0.05361970, -0.00182077, 0.00513573, 0.04877943, 0.14625709, -0.10910352, -0.03410449, 0.00939201, -0.02721926, 0.00056877, 0.03126705, 0.02438821, 0.02073139, 0.07833160, -0.00753740, -0.02455775, 0.00195615, 0.03522223, 0.00701952, 0.00442057, 0.03830113, 0.03781093, 0.07050616, 0.01513974, -0.05736429, 0.03570870, -0.03044206, -0.03539442, 0.03471974, 0.00163950, 0.02874078, 0.04654245, -0.01751881, -0.06982475, 0.08385943, -0.05615384, 0.00260811, 0.10606483, 0.00021767, -0.00205236, 0.04256717, 0.02726012, -0.07311774, 0.03754961, -0.07872447, -0.03815533, 0.02787739, -0.02180848, 0.00432780, -0.01805131, 0.05012791, 0.00363779, -0.02273879, -0.04413892, 0.01617503, 0.07806972, -0.06135131, 0.00514987, 0.01583201, -0.01499737, 0.00738670, -0.02582728, -0.02494695, 0.01916935, -0.02961337, -0.01113673, -0.06223388, 0.10498007, -0.00121920, 0.07476526, -0.04588379, 0.00641658, -0.00302426, -0.03856802, 0.09086718, 0.02563139, -0.06827502, 0.07171819, -0.00395998, 0.02386199, -0.02842751, 0.03092226, -0.00476200, -0.00178437, 0.02124563, 0.03775097, -0.06616534, -0.01823355, 0.03184156, -0.00305445, -0.01744296, -0.00683016, -0.04659986, 0.05592501, 0.14361490, 0.01584405, -0.03586212, -0.00993377, 0.03635809, -0.01433998, 0.03743252, 0.05855298, 0.10705350, 0.00562553, 0.01061534, 0.00147232, -0.00218601, 0.03536907, -0.06647995, -0.03144701, -0.00380164, 0.05674547, -0.05650732, -0.06095737, -0.08068756, 0.01274245, 0.01926230, -0.08114048, 0.01370840, 0.01024746, 0.04131632, -0.05380714, -0.00222170, 0.01410514, -0.02922970, 0.00196970, 0.00730775, 0.02752694, -0.03003370, -0.06308150, 0.04292805, 0.00826123, -0.01360436, 0.00706081, 0.02558281, -0.02615060, 0.01070843, 0.02731215, 0.05627235, -0.03671735, -0.04580319, 0.01756182, 0.01463234, -0.03948953, 0.00231128, 0.01153812, -0.03232958, 0.02100819, -0.07391910, -0.02755717, -0.03801179, -0.00879240, -0.09225836, -0.01806564, -0.02807580, -0.10859321, 0.04404500, -0.09276114, -0.09652545, 0.00770460, 0.03047001, -0.03424307, -0.00148694, 0.01437553, 0.02937448, 0.00949264, -0.04785679, -0.05704200, 0.02810895, -0.00354707, -0.05855342, -0.00624293, 0.00474660, -0.04931049, 0.03690856, -0.02699203, -0.05256300, -0.05935718, 0.04157576, 0.01013530, -0.04779917, 0.00462776, -0.05561981, 0.00084805, -0.07013869, 0.06033488, -0.05591252, -0.02329327, 0.03313798, 0.04615187, -0.03490929, 0.01291858, 0.00755948, -0.01493026, 0.03899737, -0.06296429, -0.00784978, 0.00985284, -0.05368571, -0.01998307, 0.02085774, -0.02505985, 0.03898336, 0.07115091, -0.03281492, -0.03842521, -0.02552081, -0.02747956, -0.00936641, -0.05812955, -0.01718398, 0.02026074, 0.08352642, -0.02590221, 0.05618683, 0.05950271, -0.00063077, 0.03276395, 0.06902490, 0.01101859, 0.05889223, 0.03895222, 0.05604756, -0.03341884, -0.01388743, 0.06620198, -0.03789501, 0.00480305, 0.02450282, -0.09320659, 0.00685538, 0.05574805, 0.00708058, 0.02446141, 0.02878313, 0.00988950, -0.05066347, 0.19338194, 0.00125132, -0.06985878, 0.01672059, -0.05447283, -0.03070656, -0.03811305, -0.02480089, 0.02726922, 0.05065545, 0.05293378, 0.04067472, 0.02951985, 0.00463589, 0.03181038, 0.06431586, 0.00510197, 0.03463018, -0.00012908, 0.05818959, 0.07450727, -0.01076153, 0.00476582, 0.00457496, 0.01380540, -0.01763316, -0.01171057, -0.08371353, 0.02378308, -0.01297553, -0.01921650, 0.01930021, -0.01182858, 0.02929130, 0.01970883, -0.00787245, -0.01714050, 0.00385458, 0.00057058, 0.01232698, 0.05232436, -0.06296609, -0.01604704, 0.04744860, -0.03426239, 0.06502804, -0.03324776, 0.01893678, 0.01745272, -0.03336705, -0.03401953, 0.04113322, 0.06189846, -0.03951102, -0.01325557, 0.03230668, 0.03626580, -0.01307310, -0.02227722, -0.01283202, -0.02640542, -0.09943808, 0.00606862, 0.08035319, 0.02337796, -0.03536846, -0.02889553, 0.07556828, -0.02195067, -0.01462093, 0.04567920, -0.01998161, -0.09931491, 0.12813361, 0.02472231, -0.00236665, 0.06998733, 0.02320358, 0.00527219, -0.02416535, 0.07612280, 0.05650946, -0.04435875, 0.15340574, -0.04937828, 0.01029922, -0.05393259, -0.01503317, 0.02512906, -0.03446729, -0.04456145, 0.02209434, -0.02015947, -0.00957870, 0.00516346, -0.01509495, 0.01943314, 0.00688861, -0.05623838, -0.16528538, -0.05596895, 0.05557535, 0.02733882, 0.00631560, -0.02426923, 0.00668042, -0.00403014, -0.01707847, -0.11820167, -0.00192609, -0.04986850, 0.03928426, -0.02718373, 0.02986021, 0.06451183, 0.03124041, -0.00822125, -0.03936397, -0.01172053, 0.07889685, -0.01433600, 0.01660627, 0.12447106, -0.04784888, 0.01746068, 0.05397891, -0.03728914, 0.01486172, -0.02829625, -0.08002377, 0.02644477, -0.01280742, -0.05522888, 0.02630227, -0.00975114, -0.00416886, 0.05772765, 0.04103803, 0.02321419, -0.03020245, -0.04771208, 0.06570161, 0.00019179, 0.00265278, -0.00700554, -0.06525259, 0.02159538, 0.05053177, -0.07275459, -0.03701902, -0.05244262, -0.00177080, 0.02357837, -0.01858231, -0.17487966, 0.00647819, -0.01090029, 0.00127159, 0.02566570, 0.00253936, 0.05432066, -0.00850500, -0.11950373, 0.06658352, -0.02692923, -0.04224381, -0.01079040, -0.01302140, 0.03124296, -0.03175782, -0.00303927, 0.13622679, -0.12536746, 0.01668686, 0.02069296, -0.01320100, 0.04269680, 0.02648872, 0.04549394, 0.03638503, -0.13477117, 0.05272853, -0.09981891, 0.06092075, 0.04507104, -0.00355096, 0.05392852, -0.02115175, 0.01941204, 0.01346883, -0.14541265, 0.16694678, -0.01142545, -0.03495505, -0.03985827, -0.00325324, -0.04196210, 0.02412487, -0.07754270, -0.00913268, 0.03582897, 0.05955845, -0.02634914, -0.02148976, 0.05268335, -0.02409789, -0.02579018, -0.05928484, 0.07454199, 0.00405007, 0.04098340, -0.01523609, 0.04511699, -0.06821311, -0.03134800, 0.04919601, -0.04143403, -0.00864304, -0.02986266, -0.06599429, -0.03932511, -0.00469427, 0.00583374, 0.02976582, 0.01069944, -0.01847497, 0.13315029, -0.09569304, -0.03801086, -0.04694690, 0.05018399, -0.04978018, -0.05350835, 0.06517544, 0.05139775, 0.07546135, -0.03005193, 0.05507943, -0.14523400, -0.02974739, 0.10964298, -0.10729211, -0.03776277, -0.02972276, 0.12547114, -0.04101466, 0.00071540, 0.06226050, -0.01643649, -0.02131256, 0.04137795, 0.00167729, -0.01529739, -0.07329755, -0.09304976, 0.02809954, -0.01385712, -0.03787735, 0.04287127, 0.01443787, -0.01200543, 0.09034979, -0.04074707, 0.02340103, 0.02929994, -0.06397493, 0.06658051, 0.00744308, -0.02823416, 0.02000031, 0.01912830, 0.01639122, 0.08643630, -0.04522554, -0.03378885, -0.02202499, -0.01536353, -0.04938321, 0.02729406, 0.04056451, -0.05026183, -0.09931404, -0.03726266, -0.05584533, -0.01274698, -0.07523345, -0.02782044, 0.01224724, -0.00644130, 0.02909248, -0.05715382, -0.03325608, 0.02474241, -0.02373965, 0.11866330, 0.00541696, -0.03671777, -0.00095278, -0.05612518, 0.03263456, 0.00725527, -0.03804361, 0.03647730, 0.06173524, 0.00346355, 0.01579309, -0.11167086, -0.08620746, 0.06130541, -0.04215767, 0.03519999, -0.00349783, 0.02289969, -0.02362443, 0.03029058, -0.13972552, 0.03381778, -0.05576540, -0.04458397, 0.02627713, -0.03210784, -0.01391210, -0.06658585, -0.05143251, 0.04058830, -0.11270401, -0.02506180, -0.01623736, 0.01606460, -0.04507957, -0.07508274, -0.03399471, 0.01128415, 0.02108243, -0.01064264, 0.04317624, 0.01638867, -0.04303314, -0.03473056, -0.00169541, -0.00096293, -0.07918504, 0.14358327, 0.07402472, -0.02580911, -0.04630714, 0.04883294, 0.03391731, -0.05556934, 0.03064369, 0.06650147, -0.08059374, -0.03459083, 0.05974284, 0.08378527, -0.01946459, -0.08334865, 0.02920830, -0.02537064, -0.06415066, -0.10972169, 0.06611129, -0.05541924, -0.02201967, 0.03787581, 0.00704396, -0.03942772, 0.09780329, -0.01438652, -0.10621640, 0.09431316, 0.06236108, -0.01253564, -0.05471686, -0.00379627, 0.01590030, -0.08046091, -0.01633997, 0.16038522, 0.02599228, 0.01209900, 0.00655511, 0.04183127, -0.06034692, -0.03419175, 0.02155450, -0.05007075, -0.01256196, 0.04150921, 0.11442978, 0.00109310, 0.01403988, 0.00758816, 0.00494218, -0.01778521, -0.04486970, 0.00469539, 0.02306089, -0.06845956, -0.04537418, 0.00064311, 0.04379364, 0.02139800, 0.01694878, -0.02249122, -0.04307400, -0.06546754, -0.03092687, -0.03202382, 0.01899257, -0.02453334, -0.02464238, 0.02427351, -0.03241929, 0.04048802, 0.05690237, -0.08544766, 0.00434192, -0.02387451, 0.05215020, -0.04070536, -0.01363311, 0.01588977, -0.05165747, 0.08692417, 0.01405906, 0.04082402, 0.03763695, 0.02196439, -0.02922973, -0.00698317, -0.01669016, -0.01727252, 0.02808104, -0.02320901, 0.04174519, -0.00732250, -0.01023849, -0.02945172, -0.00942243, -0.03128164, 0.05910397, 0.05642137, 0.08962491, 0.07189310, -0.00735925, -0.01941827, 0.04818490, 0.01739737, -0.00458898, -0.06778374, 0.01425296, -0.01907234, -0.02885209, 0.05537682, 0.03491228, -0.00687720, 0.06251732, 0.05094211, -0.04212783, 0.02059856, -0.08416157, 0.01346581, -0.01706607, -0.03825008, -0.00732164, -0.02574353, -0.05177042, -0.08113951, -0.04615063, 0.04586516, -0.01850038, 0.01237513, -0.03020903, 0.07181114, 0.00479654, 0.03550287, 0.11514405, 0.01388324, 0.07745424, 0.02784561, 0.05661561, 0.01165524, 0.03592075, 0.01108578, 0.04694335, 0.00294326, -0.07644698, -0.05411273, 0.02061551, -0.03644661, -0.05037493, 0.00865163, -0.00046266, -0.03683812, 0.03910817, -0.12088289, -0.08024437, 0.03432236, -0.04367800, -0.02560516, 0.03196725, -0.01958392, -0.00600667, 0.03210394, -0.01932892, -0.00242961, 0.00342073, -0.08892415, -0.03136125, 0.02006937, -0.11154316, 0.00453283, 0.02909598, 0.02889450, 0.00923852, 0.02571495, 0.05340591, 0.00388691, 0.01252023, 0.04571863, 0.03184549, 0.06809352, 0.00673579, -0.05873955, -0.07848832, -0.02812536, 0.06200293, -0.01140613, -0.02783979, 0.08647232, 0.08004788, -0.08760737, -0.12479236, 0.05633700, 0.03813476, 0.01105179, 0.00705318, 0.03551802, 0.01935995, 0.04566290, 0.15789019, 0.01393174, 0.00715384, -0.05084255, 0.05341971, -0.01051306, -0.00241988, 0.03873997, -0.08303899, -0.10057722, -0.03438826, -0.04521761, 0.07820472, 0.06738655, -0.01229033, 0.01644638, 0.08661865, -0.03019204, -0.16876677, 0.00520860, -0.03592537, 0.07943213, -0.00122674, -0.02838540, 0.04841074, 0.00881666, 0.04001866, -0.04597693, -0.03219641, 0.02599691, 0.00160633, -0.02982161, 0.02370826, -0.01169159, -0.07201771, 0.02796252, 0.01008833, -0.02637818, 0.01994663, -0.03906913, 0.02030421, -0.01787574, -0.06515015, -0.03271184, 0.01282167, -0.07642312, -0.07850134, 0.01874437, 0.01476731, -0.03471731, 0.06452547, 0.02558604, -0.04103587, 0.03581332, -0.15501882, 0.01233945, -0.01261120, 0.04893390, 0.00586182, 0.01128857, 0.03252405, -0.02894871, 0.02642736, -0.06055268, -0.11831880, -0.04163342, -0.01035725, 0.03363984, 0.04675545, 0.04536905, -0.02661884, 0.12661709, 0.02918001, -0.05138151, 0.02069514, -0.01296968, -0.05597699, 0.07648321, -0.01951720, -0.02338169, -0.07293727, -0.00197841, -0.12489080, -0.01239823, -0.03029643, 0.01320962, -0.01568536, -0.02471411, 0.01914210, 0.02511325, -0.13439591, -0.05947644, -0.03975720, 0.04370376, -0.07842802, 0.00221136, 0.01755994, -0.06162269, -0.02222840, -0.12008236, -0.03199318, -0.02049555, -0.00049797, 0.04732856, 0.08348955, -0.00013850, 0.03582613, 0.06176076, -0.11269826, 0.01946980, 0.00247684, -0.01352893, -0.07470230, -0.03418196, -0.00397123, -0.06547632, -0.00123363, 0.00053770, 0.05265544, 0.03351034, 0.01624253, -0.01188013, 0.07524862, 0.02575299, 0.00668857, -0.08483282, 0.02740594, 0.05987985, -0.00941492, -0.03911784, 0.02063368, -0.05265408, -0.03569453, 0.00237397, -0.01389910, 0.00832085, -0.05727817, -0.04626453, 0.03691713, -0.02604516, -0.02288062, 0.03663748, -0.06017627, -0.07725894, -0.04429362, 0.08650070, 0.02790189, -0.02191650, 0.05095538, 0.04113031, -0.02358644, 0.07659907, -0.03632734, -0.01492648, -0.08536150, 0.00368044, 0.03641913, -0.01189421, -0.00507296, 0.03168394, -0.03970550, -0.16162170, -0.05170985, 0.05253531, -0.01344086, -0.02005488, 0.02038267, -0.05556236, 0.01299365, -0.01175338, -0.01960744, 0.01992863, -0.01428186, -0.01677074, -0.03602924, -0.00268153, -0.02990646, -0.05812937, -0.01351366, 0.04462945, -0.00283672, -0.00450276, -0.00735649, -0.06284443, -0.00184818, 0.02286560, -0.06576617, -0.02142859, 0.03964010, 0.04446670, -0.03604369, 0.02512113, -0.02113628, 0.03808050, 0.02852786, -0.00167404, 0.01871083, -0.00452936, -0.05856118, -0.09314379, -0.05599615, 0.02683543, -0.01527483, -0.03635830, 0.06679532, -0.04015209, -0.12672566, 0.01455107, -0.05409582, 0.02032653, -0.04833376, 0.01940069, 0.05125061, -0.05625073, -0.01575040, 0.03113425, -0.05239831, -0.01853475, -0.03320212, 0.00111556, -0.03805817, -0.03593339, -0.00058783, -0.04173518, 0.02087561, 0.02993961, -0.06044694, 0.00711415, -0.02321821, 0.01280591, -0.00462847, -0.04539280, 0.00770322, 0.02226883, 0.07044723, 0.02527199, -0.00816469, -0.01682223, -0.00868055, -0.01929810, -0.00001748, -0.00740405, -0.14248706, -0.02978943, 0.04142925, 0.00840736, -0.03083876, 0.02916732, 0.03295768, -0.05440390, 0.01180766, 0.02610867, 0.06653808, 0.05794667, -0.01605242, -0.04607333, -0.01004748, -0.00135633, -0.06120980, -0.01191531, -0.05690479, 0.00689203, -0.04460231, 0.05829564, -0.04189507, 0.03357428, 0.03100212, -0.03935473, -0.00304384, -0.01467784, 0.09320445, 0.02936080, 0.00901469, 0.04531690, 0.02120327, -0.00693106, 0.06197698, 0.00859319, -0.03285597, -0.11010120, -0.05753724, 0.00306497, 0.01742988, -0.03615800, 0.04013848, 0.00940575, 0.04727498, -0.09917589, 0.02819458, 0.14983130, -0.04811807, -0.03496600, -0.06711041, -0.02802754, -0.05014200, -0.06387018, -0.00553239, 0.09385382, -0.04182624, 0.05358762, -0.00240114, -0.03332056, 0.05582654, -0.02636312, -0.00964435, -0.02321273, 0.03953568, -0.07410802, -0.06697887, -0.04008570, 0.05761298, -0.02766403, 0.00876986, 0.04060419, -0.03126873, -0.00130356, 0.02739476, 0.02133261, -0.02626297, -0.01436792, -0.00067690, -0.01339930, 0.00478635, -0.00572604, -0.00164339, 0.01705182, -0.01023279, 0.01135064, -0.00583127, 0.06654491, 0.03125441, -0.03696571, 0.02243443, 0.02391415, 0.00182918, -0.01748614, -0.02883421, 0.00883349, -0.03156831, -0.00638991, -0.02378013, 0.09926899, 0.05816351, 0.07671360, 0.06185754, 0.00506546, -0.02244625, -0.01438070, 0.00667980, -0.00586181, 0.03126803, 0.06089944, 0.04829640, 0.03721967, 0.00759499, 0.03995796, 0.07239746, -0.01752781, 0.05549811, 0.04423586, -0.04573665, 0.04813898, 0.00218448, -0.03202499, -0.02621847, -0.01337079, -0.03825016, -0.03038655, 0.00580494, 0.15117602, 0.01586636, 0.02247557, 0.02542701, 0.06749564, -0.00767955, 0.01677984, 0.03742246, 0.06895288, -0.03415803, 0.00308514, -0.01288711, 0.03792727, -0.03078900, 0.01263611, 0.04766965, 0.00734163, -0.06034885, -0.07549473, -0.04238794, 0.06782891, 0.01634042, 0.00567373, 0.06403465, -0.04665599, 0.01573686, -0.00482683, -0.03989198, -0.02587848, 0.01725522, 0.01034665, -0.01812762, 0.04499620, 0.03423911, 0.02301507, 0.04048248, 0.15060876, 0.02360922, -0.03171067, 0.00720766, -0.01423655, -0.01084297, 0.02740500, -0.02455886, -0.04271664, -0.01560994, 0.04994259, -0.01874802, 0.01860804, -0.02373788, 0.06233384, 0.04570312, -0.07675085, 0.03073112, -0.08490766, 0.02403440, -0.00220024, -0.00754782, -0.01590745, 0.03823966, 0.01617415, 0.02833360, -0.05887299, 0.03486566, 0.07511960, 0.03850264, -0.02194432, 0.00384257, -0.01886839, -0.00600147, 0.07318641, 0.03094434, -0.08276419, -0.02680520, 0.02974644, 0.03753462, 0.00576022, 0.00095394, 0.00011637, -0.01695628, 0.02470662, -0.06943683, 0.05523841, 0.06201213, -0.00177400, 0.07668413, 0.03581312, 0.03313111, 0.04021791, 0.05225624, 0.03236226, -0.05645264, 0.00457031, -0.06318743, 0.06600741, 0.00274305, 0.02565204, -0.01243896, -0.05606875, 0.03424954, -0.01410984, -0.03338848, 0.03392370, 0.01258175, -0.05613859, 0.05204702, 0.03762223, 0.02074994, 0.09912038, 0.06254288, -0.02240882, 0.07267503, -0.04989940, -0.05735750, 0.06134745, -0.04544815, -0.00373769, -0.05975067, 0.00305287, -0.05891854, -0.02073310, -0.02604470, 0.01612395, 0.00572589, 0.00126596, 0.05001238, 0.02957874, -0.05623488, 0.02013519, 0.04457612, 0.03303285, 0.00439994, 0.00390507, 0.04525433, 0.04924211, -0.09942115, -0.14194818, -0.01184548, -0.05867790, -0.02251702, 0.04516958, -0.04289562, -0.01842238, -0.05166366, 0.02404941, -0.04601606, -0.05070671, 0.03019165, 0.04001692, -0.05377090, 0.03793639, -0.02074989, -0.02352939, 0.04622589, -0.03072662, -0.00881581, 0.02653869, 0.00903472, -0.01694587, -0.02175174, 0.01317752, -0.15104681, -0.00104897, -0.10121712, 0.01342690, 0.01142823, -0.04930851, 0.01158008, -0.08246263, -0.08272496, 0.01712810, 0.03679631, -0.07613085, -0.02866574, 0.03197446, -0.05077211, -0.00959316, 0.02159128, -0.00900338, 0.03670350, 0.04992903, -0.06043267, 0.08195794, 0.01415823, 0.01343349, 0.08040019, -0.04883298, 0.06110359, -0.08685868, 0.06176346, 0.03828563, 0.04303725, -0.01554182, 0.02006271, -0.04707004, -0.02450332, -0.02858049, -0.02473830, 0.00545897, 0.00084092, -0.00486003, -0.00391183, 0.03467860, 0.02767025, -0.04366162, 0.02966181, -0.02286751, 0.07010274, -0.04286260, -0.00942949, -0.03534776, 0.00888459, -0.04270985, -0.04584795, 0.00316333, -0.14147675, 0.05578398, -0.06066785, 0.01988069, 0.01883016, -0.02764886, 0.00668893, 0.00940273, 0.00270260, 0.02637086, 0.06545588, -0.01637788, -0.01773053, 0.00991853, -0.03724050, 0.01161413, -0.02730454, 0.01870438, -0.05060733, -0.04131744, 0.01721710, 0.00175338, 0.02800642, 0.06095335, 0.02501704, 0.04386777, 0.05111459, 0.02474803, -0.00948427, -0.00987413, -0.01197140, 0.02882361, -0.01960341, -0.01408514, 0.01222567, -0.03472381, 0.03902821, -0.04700986, 0.02265237, -0.07540211, -0.03145150, 0.03353991, -0.04310847, 0.04743528, 0.00829114, -0.03201315, 0.01206327, 0.02445724, -0.05077802, -0.00170658, 0.07585662, -0.03054791, 0.00159325, 0.09736826, 0.03541926, 0.08172341, 0.05514935, -0.04462834, -0.00127767, -0.00427954, -0.05700612, 0.00471025, 0.03217250, 0.07469894, -0.04048985, -0.05542191, 0.04364201, -0.01151468, -0.04669020, 0.07783976, -0.00565042, -0.01330261, 0.03080839, -0.07360272, 0.04918707, 0.02659035, 0.01263324, 0.00565650, 0.01204130, -0.04370270, 0.01027263, -0.02810601, 0.04699859, -0.05587682, 0.01055923, 0.00884355, 0.02585373, -0.02683005, 0.02460777, 0.01997827, -0.07347893, -0.12575117, -0.00934976, -0.00289774, -0.01725666, -0.01593451, 0.00654629, -0.00286252, -0.06708957, 0.07343171, 0.00313214, -0.05362482, -0.03278920, 0.01950829, -0.01595855, -0.04889354, 0.05790276, -0.00445338, 0.00467055, -0.10633244, -0.11130573, 0.01842379, 0.07924409, -0.02988380, -0.01695015, 0.06197637, -0.05202610, 0.00038134, 0.00231273, 0.10557034, -0.01629719, 0.02185655, 0.00268208, 0.03593742, -0.00403198, -0.00601451, 0.04278626, -0.11742049, -0.13459440, 0.02534949, 0.03060102, 0.02551492, -0.01676950, -0.00534121, -0.04194971, -0.08476210, -0.00593171, 0.06970199, -0.03745295, -0.03479590, 0.01615986, -0.06527022, 0.02471924, 0.01079815, -0.04169685, -0.02839112, 0.01961966, 0.02350915, 0.04595037, 0.00166543, 0.00688800, 0.00379781, 0.05235938, -0.00395660, 0.05518976, -0.05795750, -0.01624983, -0.04771124, 0.00986007, -0.01747311, -0.00384161, 0.02091085, 0.01333580, -0.15654032, 0.03244441, 0.03727272, -0.07094812, -0.03438250, 0.00438635, -0.00445945, -0.06529194, -0.16034849, 0.06682486, 0.10198206, -0.00111154, 0.03278607, -0.06748667, -0.00193040, 0.03335054, 0.02382992, 0.18707795, 0.01477795, -0.04360146, 0.05539747, 0.03378280, 0.05193414, -0.03857616, 0.01096850, 0.03193332, -0.09371358, 0.02233478, 0.07697733, -0.06856167, 0.05487839, -0.02297652, -0.06763937, 0.05856907, -0.03124383, 0.05090731, 0.01688011, 0.09334412, -0.00838285, -0.00206229, -0.08476896, -0.00725505, -0.01435689, -0.09108773, 0.03211548, -0.02697415, -0.05368732, 0.01288965, 0.04034243, -0.00421176, 0.01182442, -0.01257469, 0.00575917, 0.04328764, -0.09030375, 0.08423685, 0.00152293, 0.02765157, -0.02626393, 0.01242026, -0.00251435, 0.02904997, -0.06489677, 0.02198309, 0.05678118, -0.03517824, -0.05011851, -0.00916070, 0.01538067, -0.01730221, -0.02752501, -0.00100299, -0.08053615, -0.06741196, 0.03282692, 0.05519683, 0.03753124, 0.01396432, 0.02473099, 0.02075452, 0.05822827, -0.04747201, 0.08062752, -0.02106518, 0.00141631, -0.02336915, -0.01733001, 0.02118432, 0.00204787, -0.17870170, -0.04409553, -0.05462988, -0.00276218, 0.02609311, -0.01422164, 0.01748765, -0.01321217, 0.04006198, 0.01084366, 0.04090694, -0.14831698, 0.00921805, 0.05117692, -0.05790733, 0.01286004, -0.03206002, -0.02855395, 0.04511346, 0.00518510, 0.04971604, 0.01072775, 0.02463328, 0.02601740, -0.01550511, 0.01258440, -0.01282845, 0.03124333, 0.01246742, -0.03105015, -0.04307222, 0.02381985, -0.03484807, -0.03014740, 0.02333570, -0.00896751, 0.03253628, 0.10937850, -0.07894620, -0.01214168, 0.04532995, -0.01792387, -0.00305589, -0.00760863, -0.02748643, 0.05193874, -0.01511535, -0.02289434, 0.00509533, -0.00493757, 0.02202915, 0.02118316, 0.00241460, -0.04043492, 0.06992205, -0.08700930, 0.00570810, 0.00497466, 0.00277294, -0.00364662, 0.02538590, -0.03373933, 0.01757200, 0.09482139, -0.04555115, -0.04439376, -0.01774457, -0.03269650, 0.01511359, 0.00613709, -0.02188845, 0.03031801, 0.03874787, -0.04863603, -0.06111668, -0.04623175, 0.04164935, -0.00760402, -0.02772364, -0.00521478, 0.00042744, -0.15816562, 0.08002971, 0.05774669, 0.04617831, -0.01026250, -0.00978882, 0.02139753, -0.01532723, 0.00868009, -0.07694376, -0.03918664, 0.03113803, -0.00848643, 0.02174157, -0.01846928, -0.01016753, 0.09303368, -0.05030536, -0.04042398, 0.03093965, 0.03821784, 0.07923027, -0.02763486, 0.09357340, 0.06992026, -0.03266054, 0.04346544, -0.05701014, -0.04493964, -0.07685836, -0.02513335, -0.02551698, 0.02341057, 0.02071079, 0.01138571, 0.00666087, -0.05362223, -0.03074110, 0.06381688, 0.01147571, 0.03035882, 0.00980652, 0.01661489, 0.10669542, 0.06019500, -0.06250333, -0.03657684, -0.13325226, -0.08675802, 0.05370367, -0.03224868, -0.05620247, 0.02033306, -0.00634200, 0.01056548, 0.12568860, 0.03046509, -0.01657463, 0.03170675, 0.00739812, -0.04097778, -0.04982081, 0.00459393, -0.03130869, -0.05963181, 0.05529722, 0.02444591, -0.00648268, 0.00108657, 0.05121276, -0.02012934, -0.04161432, 0.06022588, 0.00513527, 0.04111402, 0.00069964, 0.01534702, 0.02276991, 0.03019368, -0.01660122, -0.00846561, 0.06837676, -0.00739355, 0.08162578, -0.05223519, 0.05787605, -0.02475367, 0.01446652, 0.02630863, -0.01551185, 0.10698041, 0.00608903, 0.03100297, 0.01492301, -0.06707724, 0.00893632, 0.01577003, -0.05481376, -0.01633695, -0.05208353, 0.00280309, -0.02945231, 0.02960050, 0.02620929, -0.00900791, -0.03641903, 0.01571365, -0.02436658, 0.03795629, 0.10397213, -0.05789459, -0.00821329, -0.05434142, -0.03498845, -0.00973709, 0.01997890, 0.02507422, 0.03803885, -0.01145724, -0.07428862, 0.04250465, -0.09608061, -0.07457849, 0.02278527, -0.05344000, -0.06336820, -0.04331311, -0.01261450, -0.09323549, -0.00201230, 0.04932680, -0.03185784, 0.05443428, 0.01189446, -0.01648864, -0.04642328, -0.10393369, -0.05810529, 0.04021554, -0.03698651, 0.00312502, 0.00929006, -0.07772060, 0.07680546, -0.04573608, -0.04080622, -0.04132300, -0.01543441, -0.00929704, -0.04916405, -0.00981496, 0.04641597, -0.05197848, -0.10445353, -0.08627271, 0.00327377, 0.02642260, -0.01105801, 0.03260236, -0.01533151, 0.02112968, 0.00452110, -0.05781498, 0.06651454, 0.00827332, 0.03484294, 0.01957582, 0.05988579, -0.05664383, 0.01886662, -0.05223900, 0.01796633, -0.01880955, -0.05899879, 0.01738385, -0.03740918, 0.08766821, -0.00346262, 0.06364707, -0.02452657, -0.01825633, 0.03102384, 0.02174639, 0.03977948, -0.00281190, 0.01080595, -0.02713031, -0.01988492, -0.00928686, 0.11845109, -0.05259532, 0.03756013, 0.00992170, 0.01855275, -0.00268290, 0.07330488, 0.02430611, 0.03676743, -0.01538739, -0.00738007, -0.00240171, 0.02628896, -0.04915510, 0.01247119, -0.01946815, -0.06236669, -0.01734397, 0.05958405, 0.06034976, -0.14773875, 0.01197738, 0.04019748, -0.02014302, -0.02058537, 0.01247096, -0.04669875, -0.02209419, 0.05625923, -0.09255455, 0.02249315, 0.05753114, 0.01167349, -0.03362528, -0.05625584, 0.02167690, 0.16869196, -0.03259728, -0.04351147, 0.02828205, -0.05838977, -0.05511748, 0.03026052, -0.00748401, -0.07679400, 0.06442865, 0.03941662, -0.00150822, -0.04852924, 0.06148718, -0.02042367, -0.00727995, -0.00541867, 0.02866817, -0.04904220, 0.10996877, 0.01641375, 0.07669225, 0.00891783, -0.07323117, 0.00808360, 0.03705873, -0.05540674, 0.01624045, -0.03534398, 0.16378939, 0.03542685, 0.00117147, 0.04022209, 0.05440876, 0.02700215, 0.04058859, -0.03132508, -0.06912690, 0.09237836, -0.01685244, -0.04790296, -0.01370668, -0.07131799, -0.02203683, 0.02118500, -0.04699257, 0.10366361, 0.03922185, -0.01048886, 0.00259192, 0.02356639, 0.00948532, -0.01675529, -0.02053976, -0.08715490, 0.01957946, -0.04442610, 0.02321748, -0.05385131, 0.02219216, 0.00989398, -0.05860419, -0.03491914, 0.04474863, 0.03733860, -0.07935531, -0.00470508, 0.03272843, 0.07423187, 0.05559437, 0.06415919, 0.06087536, -0.01778959, 0.02206002, -0.05081555, 0.01579080, 0.05112691, 0.02167588, -0.00223744, -0.06426660, 0.05313013, -0.04047583, -0.01237369, -0.02318121, 0.00948545, 0.00922887, -0.00433691, 0.04490022, 0.04464078, 0.04642237, -0.01898545, 0.06659503, 0.06987414, 0.02926306, -0.01327723, -0.03837440, -0.01745364, -0.06991204, -0.01053118, 0.00556161, -0.03013234, -0.02780208, 0.00684842, 0.00328108, 0.04085512, 0.03717975, -0.04966988, 0.01949481, 0.00616391, -0.05657944, 0.09785801, 0.02627106, -0.00846254, 0.02681429, -0.06328171, 0.05332390, 0.06194899, 0.01275624, 0.05347958, 0.06890021, -0.05698793, 0.02483527, 0.02175250, -0.03282127, 0.02062876, 0.00771697, -0.07627032, 0.04542551, -0.00791714, 0.00472322, 0.05324540, -0.07280976, 0.00141058, 0.01474675, -0.02571731, 0.05180932, -0.12862208, 0.03804035, 0.05971918, 0.07124120, 0.00117188, 0.03291257, 0.02525559, 0.00148694, 0.03262566, -0.00167059, -0.01173477, 0.05966086, -0.06459302, -0.04463904, 0.01381491, -0.04819086, 0.06089273, -0.03360651, 0.04891791, 0.03534563, -0.06760934, -0.00414925, 0.01322429, 0.04604146, 0.05052019, 0.03984607, 0.05023130, -0.01814118, -0.04123902, -0.03753681, 0.00446917, -0.01403465, 0.00390284, 0.01034732, -0.04975057, 0.00959200, 0.01564377, 0.08262920, 0.01472294, -0.00811425, 0.00789685, -0.02054381, 0.00004896, -0.01201833, 0.04412922, -0.05890087, -0.04933592, 0.04684880, 0.00712731, 0.05543587, 0.00742155, 0.02983942, -0.01713448, -0.02002348, -0.05842737, 0.00579284, -0.00784153, 0.02958699, -0.00883975, -0.04432936, -0.01380090, 0.03814654, 0.00434306, -0.13367169, 0.06135467, 0.01370693, -0.00269405, 0.04889662, 0.04044947, -0.04535327, 0.02268952, 0.00448166, -0.00848808, 0.04331030, 0.00479866, 0.01529073, -0.01236014, 0.04289868, -0.06749356, 0.00290367, 0.04039988, -0.06992684, 0.00357787, 0.04610657, -0.01123938, -0.01686517, 0.02497687, -0.02575234, -0.02224626, 0.03411979, 0.03846706, 0.04593400, 0.06865660, -0.01372989, -0.02207074, 0.04293241, 0.02472757, -0.02163914, 0.07971624, 0.00699732, -0.04526719, -0.02882292, -0.01462689, 0.01933240, 0.03109198, -0.00712965, 0.06405260, -0.04915164, 0.00379838, -0.13004431, 0.06197130, -0.02884533, -0.04553186, 0.01176987, -0.03648822, -0.03575183, -0.02005481, 0.09696236, 0.09970413, 0.03251875, 0.03848892, 0.03230896, 0.00898985, 0.00792680, 0.01026841, 0.01446283, -0.00821330, 0.01985156, -0.04178894, 0.02662192, 0.03976041, -0.01317375, 0.01496020, 0.02947728, 0.12461654, -0.05167104, 0.07051972, -0.00514065, 0.04657610, -0.05425372, -0.00629512, -0.01351138, -0.02810770, 0.09106175, -0.04952237, 0.05631801, -0.08057295, 0.00827816, -0.01208470, -0.01947277, 0.00903678, 0.01997783, 0.02445441, 0.06678496, -0.06965825, -0.04705198, -0.02977529, 0.03880899, -0.04492681, -0.00052781, -0.04920285, 0.15304591, 0.01123773, 0.00453849, -0.01038659, 0.02038311, -0.00224180, -0.00392871, 0.01479182, -0.04066850, -0.02751003, 0.03216116, -0.00961904, -0.00495853, 0.06500196, -0.02791844, -0.00307090, -0.00760245, -0.02748336, 0.09295139, 0.13765135, -0.05858619, -0.02720879, 0.03801940, 0.05786115, -0.05744601, 0.03179754, 0.01478756, -0.08832265, 0.02409962, -0.12333256, -0.03288485, 0.00243425, 0.00446880, 0.01636599, -0.02044568, -0.04466690, -0.02819419, -0.03378882, -0.13849843, 0.05013953, -0.02001357, 0.02169917, -0.00544709, -0.05092863, -0.03504544, 0.14663807, -0.08793160, -0.02111696, -0.00075363, -0.02913414, -0.00585044, 0.03171851, 0.05135835, 0.02924821, -0.00176787, 0.05748408, -0.04063968, -0.04360380, -0.02922877, 0.05226967, -0.07546489, -0.03304869, 0.06783714, 0.06619246, -0.00332061, -0.10413658, 0.00719669, -0.04897580, -0.04333997, 0.03122992, 0.01400347, -0.06913908, -0.07214403, -0.02931135, -0.10477409, 0.03783946, 0.01879577, -0.10341007, 0.00009277, -0.01737319, 0.01353726, 0.07446475, 0.10270477, -0.01300768, 0.03079322, -0.02561970, 0.01302925, -0.03024873, -0.04100411, 0.01076195, 0.00297973, -0.05803860, 0.11584545, -0.00866576, -0.02866551, 0.02727014, -0.00281104, -0.00889859, 0.04647612, 0.07732751, -0.00391992, -0.08121867, 0.02258946, 0.02480559, 0.01866589, 0.05412022, 0.02342914, 0.00562046, -0.00828020, -0.06215505, -0.01823809, -0.00079960, 0.00169252, 0.08908918, -0.04361422, 0.01500049, 0.07796863, -0.03610516, 0.00329525, -0.01017083, 0.01545564, 0.01347868, 0.01420062, 0.04618538, -0.01609644, 0.02150921, -0.06671441, 0.10640065, -0.01521091, -0.01699635, -0.00345006, 0.01372303, -0.06508688, 0.00932794, -0.00340299, 0.07295914, 0.02545734, 0.01936052, 0.03997013, -0.00172005, 0.03172874, 0.00470168, -0.03330855, 0.04324509, -0.07800075, -0.00065699, 0.01460635, 0.02268013, -0.05963561, 0.03110863, -0.00222140, -0.03416402, 0.06789600, -0.03746872, -0.01603182, -0.04072532, -0.02264527, -0.02906709, 0.02891546, -0.03329553, 0.00427488, -0.00365140, -0.05800566, 0.06139803, 0.09278025, 0.01625315, 0.07274222, 0.00856819, 0.03482892, 0.03752651, 0.01247808, 0.02570942, -0.11484601, 0.02841236, 0.05528603, 0.06521188, -0.01996197, 0.01166624, 0.00533417, 0.01494493, -0.01284199, 0.04243873, 0.06651982, 0.00541110, 0.02534014, -0.04067484, 0.06480240, 0.07934216, -0.06216932, 0.01050378, 0.01333396, 0.07624475, 0.06192905, -0.01719650, 0.01935600, 0.09995967, -0.00358477, 0.01422625, 0.02736943, 0.01582300, 0.06839950, -0.04254613, 0.01231605, -0.01050302, 0.03037305, 0.04294494, 0.01094532, 0.14826411, 0.00145900, 0.08444297, 0.01818817, 0.01571122, -0.06002802, -0.01484877, 0.02738614, -0.03225722, 0.03493905, 0.01477729, 0.00880835, 0.00697224, 0.00796179, 0.01097364, -0.05321782, -0.00266823, -0.03010520, -0.00131947, -0.08676805, 0.07479219, -0.02284126, 0.01392606, -0.02873693, 0.01778937, -0.00501193, -0.07186828, -0.06568720, 0.04085827, 0.01245221, 0.00779737, -0.03239950, -0.00262611, -0.04302833, -0.01415957, 0.00290193, 0.09277017, 0.07046741, -0.00908552, 0.10930616, -0.08298922, 0.03178686, 0.03072855, -0.09070694, 0.01716954, 0.03260672, -0.00798471, 0.07776334, 0.00068016, 0.00795799, 0.04766780, -0.02805797, 0.03999826, 0.06934346, -0.11590508, 0.06423086, -0.01825736, 0.05205089, -0.05294739, 0.00431671, -0.00418530, -0.05370123, 0.01988675, -0.05669476, 0.04402835, 0.08533545, -0.03605913, -0.03066329, 0.06572895, -0.03264588, -0.00446054, 0.03279978, -0.00227411, 0.02193454, -0.01236073, 0.03755914, 0.04629969, -0.02572062, -0.05861364, -0.03067360, 0.09219632, 0.08192988, 0.13502342, 0.11407159, -0.04897390, -0.02467379, 0.02661194, -0.01643961, -0.02663425, -0.00119578, -0.02470827, 0.01596434, 0.09995423, -0.03054051, 0.06854781, -0.03982613, 0.00621070, 0.04367650, -0.01591839, -0.06045308, 0.00895592, 0.02058752, 0.06859779, 0.00928554, 0.01832442, 0.07563683, 0.09877107, 0.02558155, 0.02132941, -0.00846189, 0.02036609, 0.03684899, 0.08160464, 0.01224666, 0.08140728, 0.05041748, -0.03946285, 0.04448600, 0.00776421, -0.07520287, -0.01149514, 0.03048158, -0.02766990, -0.02542125, 0.01067301, 0.02784776, -0.01696060, 0.06776758, -0.05589552, 0.00131080, 0.05542473, 0.09071054, -0.00848705, 0.03913099, 0.05916295, 0.00510577, 0.06122247, -0.00981417, 0.01388883, -0.01792579, -0.01924337, 0.01732989, -0.01366973, -0.01793725, 0.13362159, -0.08722478, -0.12476164, -0.02443371, -0.00048395, -0.03745823, -0.05278111, -0.04015170, -0.04339252, 0.04745341, 0.07941227, 0.03387617, 0.00226733, -0.04808444, 0.11455491, 0.04397543, -0.00911905, 0.10252148, -0.10590115, -0.05900106, -0.01525658, -0.06697202, 0.04445972, 0.05684310, -0.00989093, 0.11673232, -0.03456014, -0.07589269, -0.03194544, -0.01585869, 0.00127809, -0.00877899, -0.01731631, -0.05815079, -0.01257845, -0.03154335, 0.02500722, -0.02922327, -0.09390751, -0.05447627, -0.05553851, 0.02235062, -0.05038247, -0.05377286, 0.00295873, -0.04063095, -0.03055746, -0.01672716, 0.05806140, 0.08506418, -0.04743814, 0.04427322, 0.08994783, 0.00619051, 0.02299138, 0.03650361, 0.06856688, 0.02573933, 0.00082771, -0.02174721, 0.04551177, -0.05153182, -0.04180496, 0.05010661, -0.04457930, 0.09969673, 0.02363295, 0.04149861, -0.02272512, 0.06708647, 0.03668109, -0.02175967, -0.01946955, 0.08308169, -0.02991052, -0.00203132, -0.02786369, -0.06460407, -0.06806812, -0.02739228, -0.05284582, 0.02088657, -0.02761193, 0.00596257, 0.01224986, -0.00597289, -0.01439367, 0.02340100, -0.04441594, -0.00596235, -0.02197322, -0.00868122, -0.08871314, 0.01523859, 0.01148077, 0.02916552, 0.00292258, 0.04155922, -0.01098572, -0.01136362, 0.01509804, -0.02491211, 0.03575819, -0.02973384, 0.00024996, -0.04261092, 0.00901782, -0.05927627, -0.08320562, -0.01099773, 0.03656120, 0.01508470, 0.00091527, -0.01935898, 0.04255049, 0.00511096, -0.03494177, -0.00080512, 0.03175819, 0.06752142, -0.02078671, 0.03115012, 0.03536070, -0.03385741, 0.00750703, 0.04509202, 0.05232827, 0.02479019, -0.01138133, 0.00972985, 0.04363423, 0.05839418, -0.02267583, 0.01112824, 0.07999116, 0.03684955, -0.04865858, -0.03477952, -0.01438414, 0.00542664, -0.04945439, 0.02309049, -0.05306551, -0.00251626, -0.02759556, -0.02884742, -0.02587642, -0.06276833, -0.06036792, -0.01716048, -0.01039990, -0.11345313, -0.06270551, -0.07814191, -0.12531745, -0.03723360, 0.01520741, -0.00788970, 0.00332468, -0.03019335, 0.01283451, 0.00307800, 0.01988425, -0.09718999, 0.01893787, -0.00205968, 0.00707431, -0.00503602, -0.01953030, 0.03612969, -0.03783895, -0.03057132, -0.01918432, 0.11763387, 0.00413232, -0.02412917, 0.03649058, -0.00253501, -0.02546069, 0.01912896, 0.02771602, 0.03162377, -0.01149052, 0.00440419, -0.04402085, -0.03200454, 0.02560601, -0.00777874, 0.00969036, -0.01677160, 0.00103322, 0.03526699, -0.02535638, -0.04523126, -0.02340081, -0.04378952, -0.01676494, 0.01809129, 0.01218164, -0.04595222, 0.10800098, 0.07807124, 0.11319695, 0.06763663, 0.01349776, 0.03094633, 0.03157837, 0.02069437, -0.10709304, -0.09643568, -0.00168989, -0.05126556, -0.06084412, 0.00459995, -0.00633440, -0.06073225, 0.01966604, 