//Numpy array shape [192]
//Min -0.456802964211
//Max 0.407473117113
//Number of zeros 0

#ifndef OUT_PROJ_BIAS39_H_
#define OUT_PROJ_BIAS39_H_

#ifndef __SYNTHESIS__
layers_3_ffn_out_proj_bias_t out_proj_bias39[192];
#else
layers_3_ffn_out_proj_bias_t out_proj_bias39[192] = {0.052294362336397171, 0.034734468907117844, -0.156743913888931274, -0.127512618899345398, -0.080233506858348846, 0.292957037687301636, 0.118967689573764801, -0.079786658287048340, -0.219273641705513000, 0.081011563539505005, 0.299651861190795898, 0.024263383820652962, 0.165218010544776917, 0.301382839679718018, 0.407473117113113403, -0.273993104696273804, 0.217560008168220520, 0.116517029702663422, -0.082095623016357422, 0.087735801935195923, 0.193097472190856934, -0.319354832172393799, -0.158975541591644287, -0.282327830791473389, -0.199438482522964478, 0.163538053631782532, -0.086503170430660248, 0.039564393460750580, 0.185527577996253967, -0.016582194715738297, 0.141722485423088074, 0.107421509921550751, -0.169309064745903015, 0.152311190962791443, -0.159530594944953918, 0.063383080065250397, 0.022901473566889763, 0.084131635725498199, -0.456802964210510254, -0.242485240101814270, -0.072051085531711578, -0.037494346499443054, 0.079917415976524353, 0.065288707613945007, 0.062437828630208969, -0.046821873635053635, -0.046556115150451660, -0.174665793776512146, 0.164270088076591492, 0.091107159852981567, -0.190877497196197510, 0.179395720362663269, -0.289134711027145386, -0.251688450574874878, 0.166562333703041077, 0.079383537173271179, -0.058316804468631744, -0.009620891883969307, -0.008376078680157661, -0.163970291614532471, 0.247869640588760376, -0.022896137088537216, 0.067960746586322784, -0.098978400230407715, -0.014376431703567505, -0.096578463912010193, 0.041699949651956558, -0.238917678594589233, 0.054953068494796753, -0.066190116107463837, -0.183194279670715332, 0.014875172637403011, -0.149438366293907166, 0.002752145286649466, -0.056288022547960281, 0.076897881925106049, 0.151165857911109924, 0.051543205976486206, 0.074205219745635986, 0.096390396356582642, 0.225350618362426758, -0.262585133314132690, 0.140005618333816528, 0.359289318323135376, -0.120643556118011475, -0.060559637844562531, -0.035894379019737244, 0.039724964648485184, 0.053495984524488449, 0.346445828676223755, -0.065526962280273438, 0.105651296675205231, -0.024050487205386162, -0.135867774486541748, 0.013257607817649841, 0.156006276607513428, 0.140216112136840820, 0.059114933013916016, 0.256487429141998291, -0.017558669671416283, 0.081748381257057190, -0.031221151351928711, -0.028468774631619453, 0.060660164803266525, -0.092074602842330933, 0.074418835341930389, -0.007242861203849316, 0.146500855684280396, -0.092059053480625153, -0.142079100012779236, 0.211038306355476379, -0.076400198042392731, -0.144862487912178040, 0.287878602743148804, 0.005881519056856632, 0.260369747877120972, 0.074845701456069946, -0.137209340929985046, -0.113145262002944946, -0.033902831375598907, 0.127862021327018738, 0.243878498673439026, -0.110243253409862518, -0.002685950603336096, -0.032873187214136124, -0.129043489694595337, 0.109707757830619812, 0.166575029492378235, -0.103584125638008118, -0.174616351723670959, 0.192940250039100647, -0.248288422822952271, 0.050969608128070831, 0.201548278331756592, 0.116541087627410889, 0.156453147530555725, -0.229765087366104126, -0.325579911470413208, 0.011309813708066940, 0.045275654643774033, -0.152369081974029541, 0.312477141618728638, 0.021780548617243767, 0.035899687558412552, -0.081505373120307922, 0.159297645092010498, -0.184660762548446655, -0.148767009377479553, 0.085765331983566284, -0.146815389394760132, -0.396231532096862793, -0.013207941316068172, 0.112908206880092621, 0.059864386916160583, 0.074291683733463287, 0.047544606029987335, -0.125820353627204895, 0.027682444080710411, -0.348383367061614990, 0.047052145004272461, -0.010827817954123020, -0.197665780782699585, 0.009196635335683823, -0.041937876492738724, -0.203565627336502075, 0.015948941931128502, 0.074085123836994171, -0.134486317634582520, -0.091553255915641785, -0.111652083694934845, -0.160086840391159058, -0.186190202832221985, -0.023337710648775101, 0.194779112935066223, 0.050091855227947235, 0.134148225188255310, -0.102241769433021545, 0.154552087187767029, -0.022912153974175453, 0.174518212676048279, -0.134345427155494690, -0.053492069244384766, 0.023926302790641785, 0.080159902572631836, -0.146195441484451294, -0.059240218251943588, 0.024527952075004578, -0.046432126313447952, -0.319954812526702881, 0.102477237582206726, -0.085812307894229889, -0.163763403892517090};
#endif

#endif
