-0.02590843103826046, -0.10672428458929062, -0.12948073446750641, 0.13371925055980682, -0.04415760934352875, 0.11890330165624619, 0.27577844262123108, 0.09234054386615753, -0.10576412826776505, 0.08874877542257309, 0.12799303233623505, 0.00521971145644784, 0.05110424384474754, 0.12097237259149551, 0.00104187789838761, -0.17392596602439880, 0.16448596119880676, 0.20580416917800903, 0.05491567775607109, -0.14855839312076569, 0.17998602986335754, -0.76736742258071899, -0.16073308885097504, -0.19078926742076874, 0.10753337293863297, 0.11638856679201126, 0.07984739542007446, 0.09639267623424530, -0.10973841696977615, -0.19890215992927551, 0.06774802505970001, -0.01524473447352648, -0.09666822850704193, -0.03161749243736267, -0.04317990690469742, 0.04029304161667824, 0.23325109481811523, 0.24918846786022186, -0.26310455799102783, -0.06674111634492874, 0.05385154858231544, -0.06842510402202606, -0.10630252957344055, -0.04075042903423309, 0.04936103895306587, 0.03139765188097954, -0.06393642723560333, 0.05196334049105644, -0.04105290025472641, 0.05875364318490028, -0.18514715135097504, 0.14522039890289307, -0.17225773632526398, -0.02900781854987144, -0.05065285041928291, -0.03844413906335831, 0.04097281023859978, 0.11134014278650284, 0.01609300635755062, -0.20962272584438324, 0.05990567058324814, -0.17100317776203156, -0.06673727929592133, 0.04204993322491646, -0.11814207583665848, 0.12379515171051025, -0.14199016988277435, -0.23503050208091736, 0.22206561267375946, -0.13898459076881409, 0.00037699847598560, 0.01482029352337122, 0.18136994540691376, -0.05644147843122482, -0.32055452466011047, -0.04996025562286377, 0.06834678351879120, 0.07169298827648163, 0.12813231348991394, 0.02690284512937069, 0.14514951407909393, 0.04904530197381973, 0.01064656767994165, -0.00749721750617027, -0.13487979769706726, -0.11793405562639236, 0.11959710717201233, 0.04678431525826454, 0.27851146459579468, 0.14068870246410370, -0.06283789873123169, 0.26536244153976440, 0.07246774435043335, -0.10918188095092773, -0.08600655943155289, -0.02864807285368443, 0.25702503323554993, 0.22509752213954926, -0.07496359199285507, 0.09869198501110077, 0.10463026911020279, 0.01466917339712381, 0.11804717779159546, -0.04758292809128761, -0.10976529121398926, -0.00547062605619431, 0.12737663090229034, 0.21771197021007538, -0.09065455198287964, -0.22054852545261383, -0.15607383847236633, 0.00062509730923921, -0.09904108196496964, -0.20700883865356445, 0.02805432491004467, 0.26078665256500244, -0.00519997440278530, -0.05862651020288467, 0.02129185013473034, 0.09029522538185120, 0.25844243168830872, 0.14798653125762939, -0.15932555496692657, 0.12791328132152557, 0.04446600005030632, -0.19454067945480347, 0.18660037219524384, -0.05963141471147537, -0.19416549801826477, -0.03625577688217163, 0.07671798765659332, -0.12946671247482300, -0.17606937885284424, 0.08855456858873367, -0.02833045274019241, 0.16358281672000885, 0.00692492909729481, -0.33133029937744141, -0.05307139828801155, 0.08979666233062744, -0.25364413857460022, -0.04118666052818298, 0.19584499299526215, 0.04624935984611511, -0.06075592711567879, 0.01850486546754837, 0.10637700557708740, -0.28037005662918091, -0.11172931641340256, -0.15292932093143463, -0.08827463537454605, 0.09104534983634949, 0.02396109700202942, -0.04805109649896622, 0.13059577345848083, -0.00064770906465128, -0.26422986388206482, 0.04758644476532936, 0.06944524496793747, -0.18153040111064911, -0.26664799451828003, -0.01093882136046886, 0.02572732977569103, -0.21911920607089996, 0.15648515522480011, 0.26634740829467773, 0.04517235606908798, -0.20515434443950653, 0.04364353790879250, -0.03014023043215275, -0.14522795379161835, 0.02267636172473431, -0.04078968241810799, 0.10702314227819443, 0.02680770866572857, -0.15483979880809784, -0.05966085940599442, 0.26229768991470337, -0.10811327397823334, 0.15390795469284058, -0.11710552871227264, -0.04996677860617638, -0.05652626231312752, 0.16489517688751221, -0.00379873253405094, 0.06749428808689117, -0.00165163876954466, 0.02095903083682060, -0.16506972908973694, 0.03912367671728134, 0.25989124178886414, 0.20612804591655731