-0.2365974485874176, -0.0298767816275358, -0.3283738791942596, -0.1314945816993713, -0.4102239310741425, 0.0565821267664433, 0.1599259376525879, -0.4736062586307526, -0.1213532686233521, 0.0212543159723282, -0.5860222578048706, 0.0042433654889464, 0.1645359098911285, 0.1025178432464600, -0.3034957945346832, -0.1337187588214874, -0.9590983390808105, 0.1970084905624390, -0.2349642068147659, -0.2159248292446136, -0.1923247128725052, -1.4636389017105103, -0.0068310676142573, -0.1295715719461441, 0.0049003437161446, -0.1986076682806015, -0.2339695841073990, -0.0391702055931091, -0.4034686088562012, 0.1690017431974411, -0.1102354824542999, 0.0395928397774696, -0.3544832766056061, -0.1202204301953316, -0.4459514319896698, -0.0435127913951874, -0.4151731729507446, -0.1529460698366165, 0.1430157721042633, -0.4257953166961670, -0.1951681226491928, 0.2902618348598480, -0.0716554522514343, -0.1681988537311554, -0.0752541795372963, -0.3094758391380310, -0.0384385101497173, -0.5142405033111572, -0.0395367629826069, -0.1262225955724716, -0.5309495329856873, -0.1045834869146347, -0.3420884907245636, -0.1110997498035431, -0.1679359227418900, -0.0395598821341991, -0.5428324341773987, -0.0688188523054123, -0.1270216405391693, -0.3255088329315186, 0.1006104052066803, -0.1177146360278130, 0.0322684571146965, -0.1472361385822296, 0.0377228595316410, 0.1979933530092239, 0.2552881836891174, -0.4863419532775879, -0.5220347642898560, -0.3026947081089020, -0.5137093663215637, -0.0887870565056801, -0.0620063804090023, 0.3222745656967163, -0.5224458575248718, -0.0711464732885361, -0.1314520388841629, -0.0216626431792974, -0.2285048514604568, -0.3444568812847137, -0.0356288775801659, 0.0699022859334946, -0.2434891164302826, 0.0378683172166348, -0.0307239238172770, 0.2016385644674301, -0.0664621889591217, -0.0110218953341246, -0.1728418916463852, -0.7267579436302185, -0.0123201552778482, 0.0524484515190125, -0.3293163180351257, 0.0916743278503418, 0.0754128545522690, -0.1732100397348404, -0.4305267632007599, -0.7969383597373962, -0.6485093832015991, -0.1739836931228638, -0.4422608911991119, -0.3398052155971527, -0.1719354689121246, 0.1079526618123055, -0.4421089589595795, 0.1754966974258423, -0.1976517885923386, -0.1468461155891418, 0.2866819500923157, -0.4990619122982025, -0.2875079810619354, -0.0402781181037426, -0.3217481076717377, 0.1344368904829025, -0.5448180437088013, 0.0960529744625092, 0.1625505983829498, -0.0427745804190636, -0.3335585594177246, -0.3906298279762268, -0.0340329408645630, -0.1725520044565201, -0.3320967853069305, -0.0797022804617882, 0.0713591277599335, -0.0099829155951738, -0.1412623226642609, -0.4863325357437134, -0.7282931804656982, -0.0531668625771999, 0.0905818566679955, -0.1535872220993042, 0.0367572046816349, -0.1194104403257370, -0.2393577396869659, 0.4307363331317902, -0.5892834067344666, -0.6508044600486755, -0.4524059593677521, -0.0203901454806328, -0.4432510435581207, 0.2519427537918091, -0.2528189420700073, -0.1352701932191849, -0.2898263335227966, -0.2748054862022400, 0.1194757595658302, -0.2460368275642395, -0.1458265185356140, -0.4465650022029877, -0.1557313352823257, -0.3337655961513519, 0.0082456273958087, -0.1391742825508118, 0.1195376813411713, -0.1358474940061569, -0.1553434431552887, 0.1348246037960052, -0.4792799353599548, 0.0957880541682243, -0.8149129152297974, -0.1314309984445572, -0.5058760046958923, -0.1255684345960617, -0.3458437621593475, -0.1315640360116959, 0.2400506585836411, -0.3374968171119690, -0.1245097294449806, -0.3287190198898315, -0.0375322252511978, -0.2965558171272278, 0.0563451312482357, 0.1878534704446793, -0.0560074448585510, -0.1180069893598557, -0.0606271587312222, -0.0676129981875420, -0.0833259820938110, -0.0965622514486313, -0.2495698928833008, -0.0253391247242689, -0.0819995179772377, 0.2110855132341385, -0.3029469251632690, -0.6464604139328003, 0.0673888549208641, -0.1899915337562561, 0.1554224789142609, -0.2061204910278320, -0.4655595719814301, -0.2035666555166245