//Numpy array shape [192]
//Min -2.611234664917
//Max 1.238215208054
//Number of zeros 0

#ifndef BIAS53_H_
#define BIAS53_H_

#ifndef __SYNTHESIS__
layers_6_norm1_bias_t bias53[192];
#else
layers_6_norm1_bias_t bias53[192] = {0.089292138814926, -0.383418411016464, 0.102400571107864, -0.295528709888458, -0.084481969475746, 0.024204637855291, 0.165488988161087, -0.025175137445331, -0.039812698960304, 0.164036527276039, 0.140015035867691, -0.144225507974625, 0.063820645213127, -0.110336974263191, 0.243687897920609, 0.062165569514036, 0.142460390925407, 0.166080504655838, -0.007485026493669, 0.178315550088882, 0.037425655871630, -2.611234664916992, -0.071226425468922, 0.019943170249462, 0.068008922040462, -0.059914570301771, -0.094160720705986, 0.157481744885445, -0.328266948461533, -0.210006773471832, -0.341595023870468, 0.319668740034103, 0.106240995228291, 0.047471329569817, -0.268411457538605, 0.043993111699820, 0.089580103754997, -0.419285744428635, -0.003408312099054, -0.097502656280994, 0.083438754081726, 0.214657202363014, -0.222475975751877, 0.134099379181862, 0.157762199640274, -0.249611377716064, 0.137475311756134, 0.116435475647449, -0.033689316362143, -0.045846212655306, -0.309091806411743, 0.078963696956635, -0.394841700792313, -0.091011554002762, -0.863580107688904, 0.142879977822304, -0.067606866359711, 0.165202707052231, -0.030724152922630, -0.193480566143990, -0.109769657254219, -0.041983623057604, 0.033587064594030, -0.175807431340218, -0.094449855387211, 0.717950701713562, 0.728277385234833, -0.329020589590073, 0.199695080518723, -0.304820626974106, 0.319965988397598, -0.098138123750687, -0.346388131380081, 0.025613823905587, -0.253908395767212, -0.222767859697342, 0.404093146324158, 0.181880578398705, -0.154739022254944, 0.254627466201782, 0.036684989929199, 1.222219586372375, -0.139915391802788, 0.065881654620171, -0.282848745584488, 0.072244040668011, 0.120190374553204, 0.194263294339180, 0.003130649682134, -1.126915454864502, -0.074601218104362, -0.014012265950441, 0.624070346355438, 0.008135790936649, 0.058197099715471, 0.158468097448349, -0.266308218240738, -0.252611249685287, -0.069229036569595, -0.163420587778091, 0.195525348186493, -0.164941817522049, 0.014937999658287, -0.069302529096603, -0.046191107481718, -0.108190156519413, -0.000059919941123, 0.101582348346710, 0.043636389076710, -0.189023926854134, -0.050839804112911, 0.069342769682407, 0.231257781386375, -0.019055111333728, 0.097000233829021, 1.238215208053589, -0.309525668621063, 0.371730417013168, 0.171960949897766, 0.104396417737007, 0.467995494604111, 0.015068102627993, -0.248863101005554, 0.150749042630196, 0.352878540754318, -0.021891096606851, -0.021818332374096, -0.060336697846651, -0.356748938560486, 0.169901341199875, 0.302700489759445, -0.778902828693390, 0.251846253871918, 0.168433621525764, 0.110656544566154, 0.111057519912720, -0.279347985982895, -0.230734765529633, 0.035026777535677, 0.105950653553009, -0.108427397906780, 0.079930551350117, -0.200372442603111, -0.234096944332123, 0.075978472828865, -0.158262103796005, 0.451983541250229, -0.344287902116776, -0.028463991358876, 0.069808751344681, 0.138039082288742, -0.250160694122314, -0.127329275012016, 0.225171804428101, -0.093358829617500, -0.036071855574846, -0.044199261814356, 0.466231465339661, -0.005194912198931, 0.105455741286278, -0.121298529207706, -0.076665766537189, -0.223453193902969, -0.142303839325905, 0.894833385944366, -0.035795137286186, 0.218141615390778, -0.406497955322266, 0.158159136772156, 0.050346940755844, -0.134301990270615, -0.142324090003967, 0.119030460715294, -0.031497329473495, 0.019523788243532, 0.015505298040807, 0.116281494498253, 0.026046589016914, -0.037271682173014, -0.132569015026093, -0.097149379551411, -0.013000892475247, 0.397422701120377, 0.293570786714554, 0.077364549040794, 0.005514442920685, 0.130067527294159, 0.010938875377178, 0.544206082820892, 0.141631349921227, -0.243306770920753, 0.217106327414513};
#endif

#endif
