//Numpy array shape (576,)
//Min -2.361861944199
//Max 2.180485486984
//Number of zeros 0

#ifndef IN_PROJ_BIAS48_H_
#define IN_PROJ_BIAS48_H_

#ifndef __SYNTHESIS__
layers_5_self_attn_in_proj_bias_t in_proj_bias48[576];
#else
layers_5_self_attn_in_proj_bias_t in_proj_bias48[576] = {0.163546442985535, -0.316436231136322, -0.286124527454376, -0.091436743736267, 0.012963563203812, -0.145753934979439, 0.068616583943367, -0.018263779580593, -0.016994552686810, -0.277707189321518, 0.286948651075363, 0.286855161190033, 0.074931316077709, 0.582672417163849, 0.257323384284973, 0.029384452849627, -0.071967519819736, 0.009534354321659, 0.957262158393860, 0.145084947347641, 0.098990969359875, -0.211219951510429, -0.074238881468773, 0.599341988563538, 0.044340983033180, 0.005076944362372, 0.023282933980227, 0.051901675760746, 0.315548568964005, 0.395209014415741, -0.160797700285912, 0.487271398305893, 0.641697943210602, -0.054011240601540, -0.011334308423102, -0.077228344976902, -0.174255087971687, -0.412845611572266, 0.424777835607529, -0.066135093569756, -0.177674308419228, 0.410045742988586, 0.005496483296156, -0.130060151219368, 0.018981937319040, 0.008383422158659, -1.714640974998474, 0.030905051156878, 0.184572607278824, -0.276027649641037, -0.748130261898041, -0.060429334640503, -0.079103730618954, -0.112316958606243, 0.015603985637426, 0.360679328441620, -0.298392415046692, 0.376226544380188, 0.106798790395260, -0.221356645226479, -0.028476273640990, 0.030425790697336, 0.088403910398483, -0.001888314844109, -0.073920927941799, 0.122509710490704, 0.082682728767395, -0.403996825218201, -0.115056768059731, 0.062183715403080, -0.059474900364876, -0.005614310503006, -0.118828520178795, 0.826832175254822, -0.596807956695557, 0.470304667949677, 0.309921950101852, -0.198730260133743, -0.053315464407206, -0.032689735293388, 0.073224626481533, 0.112366564571857, -0.167936563491821, 0.114367865025997, -0.650835752487183, 0.040209766477346, -0.094349272549152, -0.074604086577892, -0.074168205261230, -0.072135843336582, 0.002225474920124, 0.030936645343900, -0.082878991961479, -0.113061964511871, 0.024838313460350, -0.269824713468552, 0.063785620033741, -0.195149794220924, 0.033351782709360, 0.070102252066135, 0.398132205009460, 0.114278137683868, -0.046952262520790, -0.109167069196701, -0.125703588128090, -0.083187796175480, -0.008774267509580, -0.126511067152023, 0.095468357205391, 0.055882193148136, -0.550405204296112, 0.312933862209320, 0.158991724252701, -0.107361212372780, 0.002971047069877, 0.056971471756697, -0.057066034525633, 0.000274590624031, 1.537382721900940, -0.085437633097172, -0.217371761798859, 0.200903803110123, -0.187429025769234, -0.049031518399715, 0.160810068249702, -0.099465817213058, -0.056237768381834, 0.144126370549202, -0.166514128446579, 0.546657681465149, 0.129073351621628, 0.384527832269669, -0.104185566306114, 0.050265401601791, -0.007623832207173, 0.122822329401970, -0.565684378147125, -0.336774528026581, 0.192419379949570, -0.119874261319637, -0.520061850547791, -0.075739361345768, 0.012910542078316, 0.041209682822227, 0.029140893369913, -0.728557944297791, -0.246131464838982, -0.156699955463409, -0.379692345857620, -0.807231664657593, 0.062613025307655, -0.069142691791058, -0.050797082483768, 0.000303664623061, -0.214735746383667, 0.859679043292999, 0.131873026490211, 0.171027481555939, 0.428621381521225, -0.026160767301917, 0.122831098735332, -0.038124028593302, -0.007778167258948, -0.147499486804008, 0.121670641005039, -0.170225784182549, -0.256227701902390, 0.083440005779266, 0.053625989705324, -0.025566831231117, -0.028985243290663, -0.101349212229252, 0.103429295122623, 2.180485486984253, -0.104972131550312, -0.259542822837830, -0.066631048917770, -0.040004041045904, 0.076250284910202, 0.156155288219452, -1.528279423713684, -0.614338994026184, 0.306905090808868, -0.090207450091839, 0.031056988984346, 0.042844813317060, 0.005083132069558, 0.005696681793779, 0.073060840368271, -0.688365459442139, 0.399355977773666, -0.446213036775589, 0.177907422184944, 0.106883712112904, -0.575385332107544, 0.034275788813829, 0.070706009864807, 0.039951492100954, -0.021528989076614, 0.001781751634553, 0.587989747524261, -0.080228567123413, -0.084583468735218, -0.015356854535639, -0.081841476261616, 0.056480679661036, 0.038393799215555, 0.190253779292107, -0.091108322143555, -0.032266542315483, -0.413311481475830, -0.334420025348663, -0.066162012517452, 0.025225553661585, 0.037067580968142, 0.033276263624430, 0.092721924185753, -0.184253841638565, -0.089305900037289, -0.177042141556740, 0.042942948639393, -0.104387387633324, 0.029039582237601, 0.194273799657822, 0.000305258785374, 0.078106924891472, 0.113364934921265, -0.316690236330032, -0.429940134286880, -0.077144891023636, 0.575883567333221, 0.046861860901117, -0.000278826337308, -0.006009574048221, 0.042201295495033, 0.251008838415146, 0.110930018126965, -0.216558441519737, -0.079567290842533, 0.606778562068939, -0.029104115441442, -0.064192451536655, 0.056271221488714, 0.112431474030018, 0.187910944223404, 0.091596238315105, 0.272270828485489, -0.098055042326450, -0.317618846893311, 0.060614544898272, 0.013191801495850, 0.073736034333706, 0.212426871061325, 0.929673016071320, -0.142759874463081, 0.240904867649078, 0.048743933439255, 0.033901244401932, 0.016774792224169, 0.013904491439462, 0.021253177896142, -2.342801094055176, 0.216430634260178, -0.297281682491302, 0.345227628946304, -0.103636018931866, 0.021847177296877, -0.031745575368404, 0.028605215251446, 0.091683998703957, -0.355106085538864, -1.266831517219543, 0.160519510507584, -0.127471446990967, -0.313432604074478, 0.155609369277954, -0.050794374197721, 0.164981842041016, 0.139674261212349, -0.070719383656979, 0.013677834533155, 0.107618078589439, -0.437096714973450, 0.133951351046562, 0.288818389177322, 0.047478578984737, 0.018831199035048, -0.080741740763187, 0.089965559542179, 0.050914835184813, -0.111763194203377, 0.032366193830967, 0.368745833635330, -0.060953631997108, 0.051147885620594, -0.110731050372124, -0.040546998381615, 0.276137709617615, 0.058815021067858, -0.076696127653122, -0.426547646522522, 0.134355515241623, -0.361839771270752, 0.027080459520221, -0.280358165502548, 0.004490522667766, 0.065961234271526, -0.060424875468016, -0.011840436607599, 0.383202999830246, -0.009765429422259, -0.155071958899498, -0.192760214209557, 0.051468182355165, -0.080207355320454, 0.054532486945391, -0.111537083983421, -0.079456537961960, 0.170862510800362, -0.811061441898346, -0.196075752377510, 0.055655259639025, -0.083088882267475, 0.048290014266968, -0.167786732316017, -0.153123632073402, -0.319422334432602, -0.193901687860489, -0.334932357072830, 0.013580505736172, 0.010147161781788, 0.032786324620247, 0.090026363730431, 0.182887718081474, -0.149116709828377, 0.088584564626217, 0.018429150804877, 0.334686100482941, 0.257580310106277, -0.019873363897204, 0.109524153172970, 0.022051978856325, 1.315153479576111, 0.207809850573540, 0.006938969716430, -0.139854550361633, 0.175388738512993, 0.194126963615417, 0.099794700741768, -0.011712333187461, 0.013074595481157, -0.055637188255787, 1.974467873573303, 0.058458272367716, -0.059949424117804, -0.085791133344173, -0.038217611610889, -0.036502439528704, 0.041322421282530, 0.000646610627882, -0.201851710677147, -0.057288326323032, -0.348430186510086, -0.302578151226044, -0.201574519276619, -0.385326832532883, -0.076593585312366, 0.114930316805840, 0.013862836174667, 0.216259241104126, -0.021603558212519, -0.011055962182581, -0.022452397271991, -0.208611041307449, 0.366740465164185, -0.098865188658237, -0.089287266135216, -0.053041014820337, -0.087873324751854, 0.099776431918144, -2.361861944198608, 0.123543642461300, -0.186781033873558, -0.453192859888077, 0.046314992010593, -0.037804014980793, 0.095585815608501, 0.427811592817307, 0.127543181180954, -0.099867664277554, 0.092552654445171, 0.476654231548309, -0.280158370733261, 0.030025029554963, 0.107704035937786, -0.116809777915478, 0.197924494743347, 0.442637503147125, 0.354438990354538, 0.193069770932198, 0.084645800292492, 0.626526832580566, 0.054628707468510, 0.036765199154615, -0.042527541518211, -0.081562332808971, 0.313947439193726, 0.344702273607254, 0.311289548873901, 0.446056276559830, -0.239794671535492, 0.024641947820783, -0.004894563462585, 0.142826467752457, -0.045942693948746, 0.295414447784424, 0.285059899091721, -0.174849152565002, 0.056616704910994, 0.413385152816772, -0.009858795441687, 0.018907116726041, 0.079471141099930, -0.011751461774111, 0.225853294134140, 0.077790535986423, -0.061861332505941, -0.156531527638435, -0.004660566337407, 0.118937030434608, 0.008728314191103, -0.013375827111304, 0.252980202436447, -0.388653278350830, 0.128830775618553, 0.296324133872986, 0.073128812015057, -0.072274766862392, 0.060033742338419, 0.090172842144966, 0.123733237385750, -0.142775550484657, 0.132336601614952, 1.372066497802734, -0.233707457780838, 0.272723913192749, -0.054472062736750, 0.124168440699577, 0.008137055672705, -0.004821907728910, -0.183068156242371, -0.079059280455112, 0.103623844683170, -0.131399482488632, -0.101940304040909, -0.243004679679871, 0.064571589231491, 0.051199708133936, -0.156693130731583, 0.144024446606636, -0.284150898456573, -0.176604986190796, -0.213683664798737, -0.463552534580231, -0.038648005574942, -0.069165617227554, -0.042690340429544, -0.022947981953621, 0.332572966814041, -0.131243094801903, -0.557180583477020, -0.590686798095703, 0.522121608257294, -0.167630940675735, 0.063452921807766, -0.068482957780361, 0.033081915229559, -0.035429205745459, -0.208618938922882, 0.487409293651581, 0.123638108372688, 0.470636934041977, -0.012108135968447, 0.058179181069136, 0.141759246587753, 0.021647565066814, -0.210140392184258, -0.084785416722298, -0.240667581558228, 0.118956498801708, 0.165014177560806, -0.195500001311302, -0.014746905304492, -0.015608162619174, 0.004648213274777, 0.014264579862356, 0.436735808849335, -0.232188180088997, -0.160605311393738, 0.093812629580498, -0.350190520286560, -0.160579428076744, -0.128799945116043, 0.005069969221950, 0.318152725696564, 0.184996515512466, -0.032757107168436, -0.206839561462402, -0.036897163838148, 0.399401992559433, 0.066648036241531, -0.000335053744493, 0.099678792059422, 0.943651318550110, -1.499209761619568, 0.079932250082493, -0.550083696842194, 0.058972157537937, 0.092193499207497, 0.126137703657150, 0.030989766120911, 0.073408983647823, -0.106928646564484, -0.230591982603073, 0.283107757568359, 0.497575879096985, -0.421328574419022, -0.236919939517975, -0.028261410072446, 0.025430828332901, -0.079620070755482, 0.166652485728264, -0.259895920753479, 0.417412906885147, 0.423558235168457, -0.217394620180130, -0.147330969572067, 0.049848739057779, -0.079696141183376, -0.093096800148487, 0.146170184016228, -0.171693012118340, -0.597032606601715, -0.095414377748966, 0.053904063999653, -0.311506241559982, 0.007097423076630, -0.032256465405226, 0.069068014621735, 1.272375941276550, 1.327651143074036, -0.230105444788933, 0.307828366756439, 0.529008626937866, -0.273822367191315, 0.066060215234756, -0.056921578943729, 0.030188055709004, -0.140914693474770, 0.210326477885246, -0.134637281298637, 0.362508088350296, 0.551677823066711, -0.112471528351307, 0.040297728031874, 0.025766514241695, 0.068459108471870, 0.258783817291260, -0.006489716935903, 0.416724056005478, -0.207125380635262, 0.446309357881546, -0.442475706338882, 0.075960345566273, 0.003387911478058, -0.090537771582603};
#endif

#endif
