//Numpy array shape [192]
//Min -1.352525830269
//Max 0.381991982460
//Number of zeros 0

#ifndef OUT_PROJ_BIAS75_H_
#define OUT_PROJ_BIAS75_H_

#ifndef __SYNTHESIS__
layers_9_ffn_out_proj_bias_t out_proj_bias75[192];
#else
layers_9_ffn_out_proj_bias_t out_proj_bias75[192] = {-0.0732400864362717, -0.2305124104022980, 0.0877230167388916, 0.0454577691853046, -0.1658090054988861, 0.2007092386484146, 0.0602471642196178, -0.1383421868085861, 0.0389023572206497, 0.0173654705286026, -0.0569880269467831, 0.0089324116706848, -0.1473577618598938, -0.1049590036273003, 0.2676943540573120, 0.2952206432819366, 0.2716790437698364, -0.1099611595273018, -0.0046780840493739, -0.0328715592622757, -0.1011856198310852, -1.3525258302688599, -0.0783384665846825, 0.0870399326086044, -0.1353762298822403, -0.0472348667681217, -0.0179530661553144, 0.1199165657162666, -0.0558342896401882, 0.0237750764936209, -0.0944517999887466, 0.1384647935628891, -0.1701086759567261, -0.0523703917860985, -0.1249693259596825, 0.1412814408540726, 0.2448560893535614, -0.1591539233922958, 0.2424899339675903, 0.0473686344921589, -0.0405594184994698, -0.0117440214380622, -0.1292735040187836, 0.0526038967072964, 0.0550725534558296, -0.0987865254282951, -0.1657152920961380, 0.1890703290700912, -0.0011833310127258, 0.0208481196314096, -0.0288988649845123, -0.1096748635172844, -0.0263793393969536, -0.0467349551618099, 0.0037993481382728, 0.2519633471965790, -0.2145159244537354, 0.0983112677931786, 0.1075477078557014, 0.0120183918625116, -0.2907637655735016, 0.0061271656304598, 0.1017789095640182, 0.2978851497173309, 0.0928915739059448, 0.2426083534955978, -0.1534675955772400, 0.1518802344799042, 0.2150915265083313, -0.1454282402992249, 0.0496084094047546, -0.0240459926426411, 0.0116319907829165, -0.1148901432752609, -0.1524927765130997, -0.0474440976977348, 0.1323244869709015, -0.0009716314380057, -0.0018608638783917, 0.0626366585493088, 0.0683307945728302, -0.0637473762035370, -0.2436849623918533, -0.0776687711477280, 0.0833203941583633, 0.0139028104022145, -0.0340151898562908, -0.2479484230279922, 0.0485051572322845, -0.0534956678748131, -0.1525401622056961, -0.0761247351765633, -0.0426619797945023, -0.2009793519973755, 0.0594747066497803, 0.1064749285578728, -0.0780818387866020, -0.2042825520038605, 0.0925718247890472, 0.1969724893569946, 0.1624508798122406, -0.0529133267700672, 0.0054625361226499, 0.1083777248859406, -0.1028000488877296, 0.2521185576915741, -0.0791017338633537, 0.2382208704948425, -0.2133815139532089, 0.0040058209560812, -0.0490450002253056, -0.0394782684743404, -0.0594759173691273, -0.1932817548513412, 0.1224860027432442, 0.1564982533454895, -0.1595235764980316, -0.0110445208847523, -0.0786104127764702, 0.0871241986751556, 0.2952219545841217, 0.3201560378074646, -0.1086395159363747, 0.1962543427944183, -0.0815323218703270, 0.0233584437519312, -0.1246684938669205, 0.0134594719856977, -0.1467397660017014, -0.2687474787235260, 0.2780214548110962, -0.3463978469371796, 0.1630927026271820, -0.0147932320833206, 0.0516778975725174, 0.1927789002656937, -0.1965875923633575, -0.0635629072785378, 0.1385679394006729, 0.0805752724409103, -0.1539904624223709, 0.0238742027431726, 0.3819919824600220, -0.0077186780981719, -0.1855650246143341, -0.1063498854637146, -0.2978386282920837, -0.0722930058836937, -0.0951021164655685, 0.1508144289255142, 0.1806387156248093, 0.2888274490833282, -0.2035375237464905, -0.1363109648227692, 0.2045655846595764, 0.1913812160491943, -0.2370125502347946, 0.2383977472782135, 0.1958335787057877, -0.0497730188071728, 0.0389582626521587, 0.0575431101024151, -0.0755316838622093, -0.1502118408679962, 0.3583054840564728, 0.0668252930045128, 0.3170157968997955, -0.1066643893718719, -0.0080567114055157, -0.0214675087481737, -0.2135474234819412, -0.1573406457901001, -0.0959153771400452, -0.0160748958587646, -0.1040858626365662, -0.0707867518067360, -0.1359318196773529, 0.3635849654674530, -0.0383780635893345, -0.1518481820821762, 0.0301024522632360, -0.0178662091493607, 0.0444046221673489, 0.0864704996347427, 0.0456010214984417, 0.1087983250617981, 0.0020215117838234, -0.0036360644735396, -0.2902263998985291, 0.0843488872051239, 0.1843324601650238, 0.1915030032396317};
#endif

#endif
