//Numpy array shape [192]
//Min -1.987496376038
//Max 1.316572189331
//Number of zeros 0

#ifndef BIAS71_H_
#define BIAS71_H_

#ifndef __SYNTHESIS__
layers_9_norm1_bias_t bias71[192];
#else
layers_9_norm1_bias_t bias71[192] = {0.0989119857549667, 0.1110339090228081, 0.3140817582607269, -0.0020988562610000, 0.0855768993496895, 0.4453909993171692, -0.0316891074180603, -0.2597712278366089, 0.2750800848007202, -0.1515728533267975, -0.2758391797542572, 0.0889564380049706, 0.2053209692239761, -0.0169235002249479, 0.0454113744199276, 0.1100790724158287, -0.7877088189125061, 0.4363116025924683, -0.0076876976527274, 0.1213365271687508, -0.1832758039236069, -1.9874963760375977, -0.0479070246219635, -0.2171322554349899, 0.0001724987232592, -0.1372452974319458, 0.2464658766984940, 0.3007523119449615, -0.2524602711200714, 0.2124222964048386, 0.1091602966189384, 0.0649087727069855, 0.3693137764930725, 0.0961495116353035, -0.0636788457632065, 0.1187957823276520, -0.1195730715990067, 0.1892410367727280, 0.0307755097746849, -0.1395639777183533, -0.0441220477223396, -0.0427119769155979, 0.4970020651817322, 0.1047376170754433, -0.2461778968572617, -0.0611890442669392, 0.0149333486333489, 0.0397795103490353, -0.0760340243577957, 0.0247061811387539, -0.1451631188392639, 0.0042749373242259, -0.1590096950531006, -0.0406108461320400, -0.7429045438766479, -0.2574112117290497, 0.0680501237511635, -0.0877586230635643, 0.1337176561355591, -0.2390612512826920, 0.2637124657630920, 0.1044955104589462, 0.2614289224147797, -0.1486916244029999, 0.0444192625582218, 0.2694789171218872, 0.8069499731063843, -0.4059047698974609, -0.0409236848354340, -0.2383846491575241, -0.0923785641789436, 0.1136975362896919, 0.0248599480837584, 0.2920754253864288, -0.0276037584990263, -0.1352191418409348, 0.2090715914964676, -0.0778967067599297, 0.0187068302184343, 0.0743641778826714, 0.1416061073541641, 1.3165721893310547, -0.1486649215221405, 0.1620755195617676, 0.0836656391620636, 0.1123710423707962, 0.1698313802480698, 0.0695732906460762, 0.1475120335817337, -1.3351162672042847, 0.5870125889778137, -0.0276860948652029, 0.1831462979316711, 0.0573524832725525, -0.2056607156991959, 0.2114665210247040, -0.1622742414474487, -0.6604703664779663, -0.2160082012414932, -0.1212694644927979, -0.3554512560367584, 0.0341287814080715, -0.2350817918777466, 0.5142396092414856, 0.0961527749896049, 0.1003869399428368, -0.1785842180252075, -0.0477332808077335, 0.3145612180233002, -0.1955092996358871, 0.1929385662078857, 0.2096484154462814, 0.0808522924780846, 0.2306772321462631, -0.3177420198917389, 1.2722711563110352, 0.0492316558957100, -0.1217110306024551, -0.1809490174055099, -0.1581414937973022, 0.0309680905193090, -0.3475815951824188, 0.0873698592185974, 0.0892156064510345, -0.1280488967895508, 0.3719334602355957, -0.0180507004261017, 0.0315332822501659, -0.1911737173795700, 0.3022859394550323, -0.2473678886890411, -0.3272176086902618, 0.2105735540390015, -0.0285771470516920, 0.0043598553165793, 0.1130245849490166, -0.1062754839658737, -0.4386233389377594, 0.1641349643468857, -0.0636876523494720, -0.0386796034872532, 0.0956872925162315, -0.6521238088607788, 0.0264541674405336, 0.2104471474885941, 0.0892785266041756, 0.9180502295494080, -0.1549350172281265, 0.3712914586067200, 0.0321435406804085, -0.2031527757644653, -0.3667043149471283, -0.3249913454055786, -0.0907242074608803, 0.1635133028030396, -0.1795569062232971, -0.0053374953567982, -0.0072806859388947, -0.4130211174488068, 0.3603146970272064, -0.1539747118949890, 0.1106889098882675, -0.2455027699470520, 0.0075566763989627, 0.3857152163982391, -0.1705956310033798, 0.1090809926390648, 0.1293774247169495, 0.2312494665384293, -0.0675914585590363, 0.3573884367942810, -0.3443938493728638, 0.0471514090895653, 0.2243660837411880, 0.0395732969045639, -0.0489891320466995, 0.1344850659370422, -0.1832377761602402, 0.2759105861186981, -0.3788561522960663, 0.1778858602046967, 0.0632524639368057, 0.3227835297584534, 0.1082009673118591, -0.0650569647550583, -0.1509851515293121, 0.4449308812618256, -0.1161867156624794, 1.0450009107589722, 0.2932729125022888, -0.3689129352569580, 0.2472717761993408};
#endif

#endif
