0.0808150, -0.0059311, -0.0540310, 0.0949811, 0.0198232, 0.0437497, 0.0294137, 0.0341460, -0.0084983, 0.0250327, -0.0180518, -0.0574303, 0.0104296, -0.0292569, -0.0094871, 0.0437812, 0.0021341, -0.0253730, -0.0818508, -0.0293657, 0.0100620, -0.0911520, 0.0766436, -0.0206821, 0.1027415, 0.0197350, 0.0208300, 0.0867415, 0.0173218, -0.0082327, 0.1212964, 0.0043228, 0.0216635, 0.0773828, 0.0247487, 0.0608914, 0.0922265, -0.0670250, 0.0474100, 0.0527675, 0.0124219, -0.0742059, -0.0077638, 0.0029310, 0.0362364, 0.0038548, 0.0094857, 0.0064347, -0.0011725, -0.0116261, -0.0069658, 0.0312082, -0.0020410, -0.0020669, -0.0042151, -0.0453067, 0.0319640, -0.0159898, 0.0463541, -0.0305389, 0.0449261, 0.0600437, -0.0267593, -0.0393865, -0.0664053, 0.0907494, 0.0004856, -0.0395212, -0.0558355, -0.0908208, 0.0057836, -0.0178953, 0.0384370, -0.0102178, 0.0087417, 0.0735059, 0.0215201, -0.0432706, -0.0693765, -0.0218415, 0.0246217, 0.1525456, 0.0552962, 0.0184392, 0.0977194, 0.0774028, -0.1165078, -0.0013750, -0.0229000, -0.0741796, 0.1125411, -0.0184501, -0.0660537, 0.0970325, 0.0053354, -0.0537656, 0.0420169, -0.0361459, -0.0073228, -0.0251942, -0.0129478, -0.0825951, 0.0272083, -0.0142775, 0.0208234, 0.1111684, -0.0362557, 0.0108229, 0.0389108, 0.0443383, 0.0323458, 0.0119644, 0.0377795, -0.0039171, 0.0964334, -0.0352950, 0.0426388, -0.0046266, 0.0071722, -0.0621800, -0.0147969, 0.0668011, -0.0401499, -0.0508241, -0.0085032, 0.0190303, 0.0277135, -0.0076457, 0.0532351, 0.0311804, -0.0597827, 0.0184116, 0.0356352, -0.0465440, 0.0105010, 0.0006273, -0.0324385, 0.0241395, 0.0352543, 0.0114045, -0.0081988, -0.0458883, 0.0853394, 0.0199115, 0.0354506, -0.0298269, -0.0991213, 0.0645846, -0.0452471, 0.1249173, -0.0640021, 0.0456326, -0.0041592, 0.0428478, 0.0156076, 0.1428133, 0.0522997, -0.0075522, 0.0603490, 0.1073952, -0.0060704, 0.0034886, -0.1018720, -0.1105933, 0.0454236, -0.1524271, -0.0230652, -0.0260602, -0.1194545, 0.0062710, 0.0037436, 0.0216472, -0.0620896, 0.1418589, 0.0312938, -0.0079534, -0.0762169, -0.0468142, -0.0370646, 0.0137058, -0.0852476, 0.0333453, 0.0257556, -0.0318959, -0.0184908, 0.0381329, -0.0024375, 0.0027844, 0.0378534, -0.0359178, -0.0252615, -0.0042521, -0.0116597, 0.0080103, 0.0999752, 0.0633138, 0.1009235, -0.0061144, 0.0247082, 0.0614720, -0.0728265, 0.0479355, 0.0222609, -0.0488521, 0.1029577, 0.0402104, -0.0159619, 0.0675267, 0.0189919, -0.0311530, 0.0518016, -0.0586513, -0.0324480, 0.0436129, -0.0182201, -0.0391260, 0.0208122, 0.0585980, 0.0362306, -0.0318256, -0.0350797, 0.0237060, -0.1048911, 0.1885058, 0.0044769, 0.0808728, -0.0201584, -0.0373045, 0.0917231, -0.0526015, -0.0664117, -0.0281829, -0.0084241, -0.0540440, 0.0212203, 0.0265763, 0.0105770, 0.0753785, -0.0117850, -0.0426571, -0.0440075, 0.0679132, 0.0354941, 0.0175089, -0.0404471, 0.0806926, -0.0279492, -0.0229801, -0.0041026, 0.0629128, 0.0419449, -0.0117644, 0.0244387, -0.1106865, -0.0096027, -0.0104644, -0.0181637, 0.0616861, -0.0452373, 0.0220920, -0.0046063, -0.0102086, -0.0008184, -0.0572036, -0.0375890, -0.0074781, 0.0578049, -0.0259933, -0.1452074, -0.0154064, 0.0193610, -0.1001265, 0.0842677, 0.0053226, -0.0484802, -0.0726006, 0.0598190, 0.0067661, 0.0076588, -0.0026461, 0.0221776, 0.0358719, -0.0445507, -0.0394586, 0.0034090, 0.0252229, -0.0952061, 0.0325944, -0.0617981, 0.0087971, -0.0436615, 0.0136326, 0.0818391, -0.0347476, -0.0230909, 0.0197133, -0.0039374, 0.0768465, -0.0437030, 0.0557591, 0.0666822, 0.0068182, -0.0511775, -0.0796415, -0.0137262, -0.0386343, -0.0484381, 0.0105884, -0.0540007, -0.0566057, -0.0176329, 0.0368545, 0.1062863, 0.1190040, -0.0395798, 0.0322959, 0.0911356, 0.0648085, -0.0181560, -0.0018979, -0.0027533, -0.0613211, -0.0513131, -0.0193945, 0.0312448, 0.0274952, 0.0145621, 0.0562164, 0.0684873, -0.0613803, -0.0208288, 0.0026243, -0.0725143, 0.0713367, 0.0602601, -0.0436878, -0.0012145, 0.0452190, 0.0245672, -0.0912022, 0.0036523, 0.0158494, 0.0742388, 0.0504108, -0.0632001, 0.0479930, 0.0645290, -0.0331496, 0.0153474, -0.0577841, -0.0590161, -0.0439936, -0.0226743, -0.0178774, 0.0113030, 0.0093144, -0.0072784, 0.0838045, 0.0009962, 0.0089432, -0.0831833, 0.0106340, -0.0250961, -0.0730614, 0.0057585, 0.0165131, 0.1327885, -0.0167060, 0.0004600, 0.0527459, -0.0690379, -0.0022330, 0.0265714, -0.1212840, 0.0133772, 0.0069218, 0.0059810, 0.0392395, -0.0415422, -0.0419410, 0.0451031, 0.0212072, -0.0374652, 0.0354665, 0.0163153, 0.0395232, -0.0030880, -0.0121115, -0.0353969, -0.0155127, -0.0514671, -0.0208146, -0.0186446, 0.0273938, 0.0008791, -0.0500910, 0.0399791, 0.0002955, 0.1137633, -0.0052860, -0.0363882, -0.0117767, 0.0081479, -0.1078604, -0.0349656, 0.0800372, -0.0535054, -0.0084838, 0.0713558, -0.0510797, -0.0015336, -0.0544029, 0.0770724, -0.0753799, 0.0102773, -0.0007428, -0.0360546, 0.0160123, -0.0738187, 0.0737339, 0.0523752, 0.0060768, -0.0574248, 0.0143320, 0.0065858, 0.0141764, 0.0418703, -0.0277685, -0.0123729, -0.0331732, 0.0362868, 0.0000145, 0.0590566, -0.0792293, 0.0494402, 0.0278047, -0.0366314, 0.0201035, 0.0656711, 0.0062148, -0.0003736, -0.0879920, -0.0150048, -0.0168784, -0.1278027, -0.0242596, -0.0253042, 0.0047765, 0.0679252, 0.0103009, 0.0175235, 0.0263441, 0.0009317, -0.0395339, -0.0252510, 0.0504466, -0.0759669, -0.0269802, -0.0008372, 0.0584269, -0.0363664, 0.0771355, 0.0432758, 0.0524173, 0.0132453, -0.0468563, -0.0407174, 0.1014832, 0.0095201, -0.0243702, -0.0545912, -0.0478966, 0.0593258, 0.0009993, 0.0845295, -0.0108057, -0.0188044, 0.0161183, 0.0624360, 0.0240614, 0.0175777, 0.0264489, -0.0317665, -0.0427167, 0.0840740, -0.0136668, -0.0149653, -0.0162736, -0.0884061, -0.0179195, 0.0618166, 0.0051074, -0.0625633, 0.1866989, 0.0085787, -0.0354201, 0.0186510, 0.0589611, -0.0524964, 0.0039806, 0.0098954, -0.0978188, 0.0649778, -0.0795063, 0.0310901, -0.0012488, 0.1001790, 0.0194541, 0.0718156, -0.0081151, -0.1297174, -0.0115807, -0.0032119, 0.0790208, 0.0035182, -0.0986842, 0.0665269, -0.0205059, -0.0756386, 0.0535340, -0.0542108, 0.0230693, 0.0105075, 0.0142557, -0.0981789, -0.0263465, -0.0647074, 0.0177980, 0.0525366, 0.0537938, -0.0444026, 0.0075996, 0.0031012, 0.0879161, 0.0234519, 0.0228675, 0.0113972, 0.0364152, 0.0535815, -0.0002772, 0.0382670, 0.0103668, -0.0031934, 0.0621087, 0.0326079, 0.0408869, -0.0404691, 0.0225537, 0.0632342, -0.0070732, 0.0225220, 0.0526085, 0.0091851, 0.0151354, 0.0350771, 0.1923733, -0.0110601, -0.0324321, -0.0311619, -0.0024794, -0.0463353, -0.0231221, 0.0089143, 0.0214797, 0.0221603, 0.0385947, 0.0025219, -0.0254123, 0.0214786, 0.0423190, -0.0526212, -0.0546561, -0.0054241, -0.0805107, -0.0093765, 0.0860049, 0.0660173, -0.0010752, 0.0471369, 0.0535823, -0.0322809, -0.0142778, -0.0659864, -0.0187648, 0.0046913, -0.0420535, -0.0601633, 0.0101250, -0.0649749, 0.0503547, 0.0090567, 0.0524190, 0.0107931, -0.0152077, 0.0994852, 0.0868569, 0.0015921, 0.0597853, -0.0526569, 0.0969584, -0.0401678, -0.0809238, -0.0125853, -0.0991104, -0.0164148, 0.0070181, -0.0902924, -0.0869190, -0.0127675, 0.0043444, -0.0222449, -0.0423668, 0.0087449, 0.0011632, -0.0972720, -0.0014695, -0.0487529, 0.0240832, -0.0180263, 0.0095404, 0.0084430, -0.0768614, 0.0161967, 0.0476169, -0.0268142, -0.0555018, -0.0568418, -0.0485552, 0.0883663, -0.0054727, 0.0479210, 0.0419333, 0.0757098, 0.0334495, -0.0171958, -0.0699207, 0.0887757, 0.0742347, 0.0225246, -0.0661041, -0.0299050, -0.0689627, -0.0460039, -0.1274071, 0.0765959, 0.0507479, 0.0595176, -0.0441534, -0.0530587, 0.0487281, -0.0235554, -0.0342680, -0.0786276, -0.0399780, -0.0291260, 0.0199708, 0.0222103, -0.0580528, -0.0079715, -0.1364379, -0.0522995, 0.0429525, -0.0124267, -0.0136022, -0.0524520, -0.0445857, -0.0543312, 0.0302100, -0.0144889, -0.0522342, -0.0076392, 0.0470352, -0.1018753, 0.0072332, -0.0012279, -0.0562253, 0.0312063, 0.0275876, -0.0223268, -0.0019574, 0.0222652, -0.1539856, -0.0170586, 0.0408633, -0.0178349, -0.0115006, -0.0851230, -0.0081364, -0.0035935, 0.0003321, 0.0969252, -0.0984141, 0.0465007, -0.0074137, 0.0022486, 0.0036885, 0.0285307, -0.0556653, -0.0283898, -0.1123894, -0.0442660, -0.0506138, 0.0189940, -0.0377507, 0.0440361, 0.0070845, 0.0127716, -0.0424529, 0.0337671, -0.0474298, 0.0370610, -0.0739370, -0.0061436, 0.0027359, -0.0266607, 0.0090875, 0.0334643, 0.0259495, -0.0158216, -0.0139652, 0.0216127, 0.0301058, -0.0156583, 0.0629155, -0.0041541, -0.0241436, -0.0915582, 0.0318483, -0.0189894, -0.0564677, -0.0490167, -0.1123183, -0.0508330, 0.0543523, -0.0044591, 0.0829792, 0.0054950, 0.0185406, 0.0490299, -0.0633779, 0.0941067, 0.0237704, 0.0325637, -0.0297520, -0.0360710, -0.0888136, -0.0451850, 0.0138614, -0.1159717, 0.0896566, 0.0348850, 0.0452579, -0.0726496, -0.0390854, -0.0139362, -0.0159752, -0.0641648, -0.0248101, -0.0394917, -0.1015156, -0.0208663, 0.0340885, -0.0350610, -0.0034288, -0.0150615, -0.0809641, 0.0442800, 0.0053660, -0.0885125, -0.0061969, 0.0052094, -0.0841777, 0.0084375, -0.0045282, 0.0114468, -0.0560529, 0.0164316, 0.0473513, 0.1331338, -0.0230194, -0.0303857, 0.0247590, 0.0303406, -0.0376034, 0.0590814, 0.0694114, -0.0743323, 0.0329885, -0.0528001, 0.0392758, 0.0418748, 0.0364004, -0.0675194, 0.0458300, 0.0753347, -0.0775748, -0.0739426, 0.0014109, -0.0533892, 0.0668727, 0.0715394, -0.1204305, 0.0379054, 0.0420872, -0.1170416, 0.0193135, -0.0527559, 0.0888406, -0.0533291, -0.0038958, -0.0471127, 0.0316145, 0.0541267, -0.0202139, 0.0572304, -0.0257881, 0.0475125, 0.0091768, -0.0204654, 0.1298318, 0.0707433, -0.1343279, 0.1435028, -0.0660638, -0.0309271, -0.0319667, 0.0444361, 0.0355231, -0.0472017, -0.0448950, -0.0084929, -0.0074708, -0.0968935, 0.0522181, 0.0602443, -0.0315977, -0.0334348, 0.0553497, 0.0285361, -0.0489711, 0.0578418, 0.0131601, -0.0171842, 0.0400821, 0.0118849, -0.0854103, 0.0584753, 0.0056765, -0.0190284, 0.0668678, -0.0055900, 0.0581148, 0.0591754, -0.0382033, 0.0231106, -0.0303263, -0.0417621, -0.0284714, -0.0554994, 0.0124476, -0.0377923, -0.0240243, 0.0347078, 0.0018573, -0.0567275, 0.0208383, 0.0252786, -0.0675535, 0.0015283, -0.0404383, -0.0181957, 0.1376321, 0.0011875, 0.0143062, -0.0069808, -0.0590781, 0.0107810, 0.0150199, 0.0175496, 0.1537522, 0.0627022, 0.0219632, 0.0641451, -0.0006801, -0.0345060, 0.0567764, 0.0079671, 0.0670206, -0.0506751, -0.0964197, 0.0191038, 0.0744819, -0.0258493, -0.0315105, 0.0747525, 0.0351069, -0.0228901, -0.0498588, 0.0383227, 0.0387849, 0.0704355, 0.0512557, 0.0597116, 0.1114040, -0.0059308, -0.0445957, 0.0425062, -0.0365583, -0.0191157, 0.1005086, -0.0039632, 0.0603782, 0.1171153, -0.0001542, -0.0494658, -0.0118733, 0.0003740, 0.0320675, -0.0496211, -0.0100871, 0.0150599, -0.0593960, -0.0324383, 0.0010903, 0.1023297, 0.0127943, -0.0383594, 0.0577002, -0.0096509, -0.0594704, 0.0467475, 0.0342983, 0.0207146, -0.0086554, -0.0943070, -0.0163614, 0.0531905, -0.1070833, 0.0488657, 0.0503966, 0.0153948, -0.0474707, -0.0178453, 0.0136456, -0.0669810, 0.1342588, 0.0036604, 0.0371401, 0.1379510, 0.0652395, -0.0225510, 0.0882047, 0.0144228, -0.0082323, 0.0649116, -0.0229103, -0.1128360, 0.0439343, -0.0011182, 0.0869704, -0.0318152, -0.0069474, -0.0069301, 0.0143880, -0.0157852, -0.0178467, -0.0061851, -0.0145977, 0.0226847, 0.1130587, 0.0495762, 0.0131523, 0.0233629, 0.0170732, -0.0280296, 0.0312308, -0.0119875, -0.0550046, 0.2655217, -0.0552167, -0.0728415, 0.0620446, 0.0528391, 0.0282735, 0.0846788, 0.0641061, -0.0730154, 0.0279285, 0.0157710, -0.0205598, 0.0012636, -0.0589226, 0.0751814, 0.0056887, -0.0530279, -0.0409765, -0.0387613, -0.0076719, 0.0338918, 0.0062700, -0.0527633, 0.0065982, 0.0361550, -0.0324803, -0.0281510, -0.0674664, 0.0739594, -0.0685977, -0.0212037, 0.0334584, -0.0138532, -0.0536751, -0.0495929, 0.0110454, -0.1236654, 0.0055775, -0.0043161, -0.0217229, 0.0243455, 0.0560623, -0.0149835, 0.0433285, 0.0029764, -0.0736538, 0.0215512, 0.0131023, -0.0518949, -0.0017296, -0.0599788, -0.0504882, -0.0237071, 0.1252273, -0.0548369, -0.0288695, 0.0047427, 0.0978534, 0.0114683, -0.0063490, 0.0990650, 0.0271982, -0.0109781, 0.2121303, 0.0470529, 0.0091157, -0.0970569, 0.0380604, -0.0799415, -0.0871837, 0.0534479, 0.0186598, 0.0589012, -0.0732989, 0.0014213, -0.1084502, -0.0346577, 0.1638702, -0.0610504, -0.0227798, -0.0581950, 0.0700726, -0.0549463, 0.0106059, -0.0014048, 0.0742732, 0.0838745, 0.0047520, 0.0492447, -0.0173544, -0.0739007, -0.1244694, 0.0651526, -0.0212257, -0.0310734, 0.0062334, -0.0079700, -0.0080486, -0.0086648, 0.1067466, 0.1054275, 0.0189091, -0.0337670, 0.0428147, -0.0382797, -0.0417654, 0.0712466, -0.0442737, -0.0587123, -0.0221348, 0.0100037, 0.0177128, -0.0064289, 0.0314706, -0.0113706, -0.0981063, -0.0402080, 0.0916285, -0.0361579, -0.0199410, 0.0078078, 0.0552183, 0.0138239, 0.0155247, 0.0150592, -0.0226727, 0.1085582, -0.0090484, 0.0386159, 0.1200128, -0.0756074, -0.0006319, 0.1121523, -0.0244223, 0.0083498, 0.0167252, 0.0796794, -0.0057211, -0.0561090, 0.0100801, -0.0276125, -0.0436388, -0.0189366, 0.0083806, 0.0052368, 0.0761731, -0.0245320, 0.0416993, 0.0113408, 0.0323688, 0.0329684, 0.1189511, -0.0037511, -0.0691920, -0.0127099, 0.0377308, -0.0390699, -0.0232094, 0.0501855, -0.0211367, 0.0316402, -0.0020939, -0.0880638, 0.0095147, -0.0054538, 0.0394998, 0.0274894, 0.0228999, 0.0579917, 0.0285921, 0.0497469, -0.0786850, -0.1177738, 0.0085928, -0.0610084, 0.0295761, -0.0371169, -0.0640057, 0.0682277, -0.0410436, -0.0032530, -0.0002128, 0.0094349, 0.0088342, -0.0620035, 0.0062090, 0.0270151, -0.0334569, 0.0247615, 0.0399672, -0.0371987, 0.0437747, 0.0311890, -0.0329713, 0.0866352, -0.0199044, -0.0235546, -0.0039397, -0.0004610, -0.0660543, -0.0254716, 0.0412624, 0.0034994, 0.0244145, 0.0801637, 0.0109993, -0.0262939, 0.0130502, 0.0663407, 0.0210641, 0.0653898, 0.0603771, -0.0107289, 0.0568133, 0.0262112, -0.1649047, 0.0619144, -0.0006140, 0.0666883, 0.0019416, -0.0256834, -0.0015917, 0.0060456, -0.0100708, -0.0605447, -0.0601169, -0.0159053, 0.0303263, 0.0911718, 0.0024252, -0.0738026, 0.0784041, -0.0438532, -0.0001533, 0.0235396, -0.0384718, 0.0371592, 0.0890206, 0.0311650, 0.1008453, 0.0814679, 0.0234157, -0.0559584, -0.0195828, 0.0562941, -0.0180026, -0.0418987, -0.0533097, -0.0156008, -0.0010957, -0.0432308, 0.0162681, -0.0285565, 0.0355260, -0.0087498, -0.0578594, -0.0950535, 0.1743890, -0.0859551, -0.0534565, -0.0275139, -0.0780032, -0.1575104, 0.0260238, 0.0194120, -0.0406458, 0.1030493, -0.0072951, -0.0085370, -0.0109876, 0.0004957, 0.1134167, -0.0242004, -0.0424508, 0.0316738, -0.0078729, -0.0326182, 0.0405004, 0.0990377, -0.0012844, 0.0960120, -0.0375182, -0.0774006, 0.0616654, -0.0068177, -0.0809090, 0.0051297, 0.0270866, 0.0705109, 0.0684734, -0.0582888, 0.1368161, -0.1046420, -0.0613086, 0.1376732, -0.0979625, -0.0417741, -0.0187229, 0.0029954, 0.0309447, 0.0281347, -0.0484083, -0.0239895, 0.0600479, -0.0157420, 0.0383234, -0.0697277, -0.0769177, -0.0217466, -0.0621811, -0.1045731, -0.1340485, -0.0426453, -0.0966847, -0.1643468, -0.0393971, -0.0693950, -0.0328126, 0.0469037, 0.1189773, -0.0023469, 0.0686160, 0.1025302, -0.0726091, 0.0019230, -0.0596479, 0.0246821, 0.0285775, -0.0799596, -0.0892347, 0.0198226, -0.0431323, -0.0144056, 0.0514653, -0.0518603, 0.0083864, 0.0176044, -0.0306419, 0.0638997, 0.0071539, -0.0220247, 0.0322587, -0.0386809, 0.0240425, 0.0030498, 0.0126874, 0.0250789, 0.0715352, 0.0083380, 0.0012377, 0.0659883, 0.0077174, 0.0040275, -0.0283613, -0.0490469, 0.1668230, -0.0752159, -0.0647923, 0.1597892, -0.0191335, 0.0133287, -0.0611494, -0.0042309, -0.0166319, -0.1700363, -0.1116055, -0.0103326, -0.1423979, -0.0833809, -0.0221038, -0.0858129, -0.0630388, -0.1021848, 0.0882430, 0.0951525, -0.0941799, 0.0941150, 0.0495900, -0.0018153, 0.0542237, -0.0271650, -0.0215224, 0.0631182, -0.0702233, -0.0416110, 0.0803215, -0.0205631, -0.0157567, -0.0634220, -0.0080288, 0.0098661, -0.1369552, -0.0943012, 0.0269353, -0.1036204, -0.0438669, -0.0198108, -0.0588979, 0.0077641, 0.0251738, -0.0727456, -0.0575131, 0.0874393, -0.0173731, -0.0265157, -0.0023502, -0.0845862, 0.0330846, 0.0520641, 0.0167262, 0.1216946, 0.0653904, 0.0008551, 0.0139981, 0.0069141, -0.0231132, 0.0472437, -0.0069465, 0.0023764, 0.0404964, -0.0244190, -0.0176140, 0.0212491, 0.0210963, -0.0971896, -0.0352442, 0.0665832, -0.0416974, -0.0193550, 0.0594959, 0.0063934, 0.1408640, 0.0259778, 0.0007040, 0.0150793, 0.0803897, 0.0852858, 0.1385093, 0.0517550, 0.0392134, 0.0678541, -0.1388563, 0.0211544, 0.0065049, 0.0192945, 0.0519631, 0.1498394, 0.0356012, 0.0435216, 0.0524803, 0.0318632, -0.0818492, -0.0095228, 0.1373147, -0.0044273, -0.0379882, 0.1320576, -0.0495442, -0.0551906, 0.0090377, -0.0208106, 0.0184126, 0.0069172, 0.1321731, 0.0774283, 0.0296997, 0.1022286, 0.0141635, 0.1234039, -0.0060854, -0.0364336, 0.0421296, 0.0322959, -0.0388607, 0.0299598, 0.0483134, -0.0041759, -0.0298163, -0.0451653, -0.0057257, 0.0139508, 0.1348733, 0.0111588, 0.0334203, 0.0964023, 0.0167072, 0.0258550, -0.0484292, 0.0137438, -0.0164580, -0.0867832, -0.1683297, -0.0264580, -0.1198121, -0.1714634, 0.0192082, -0.0133651, -0.0261176, -0.0835139, -0.0358022, -0.1092214, -0.0487653, -0.0534687, -0.0007238, 0.0038080, 0.0170310, 0.0014610, 0.0401355, 0.1056890, 0.0313311, 0.0448727, 0.0650934, 0.0285142, 0.0791376, -0.0185451, 0.0255771, -0.0277871, 0.1389960, 0.0520801, -0.0383772, 0.1584317, 0.0843003, 0.0425021, -0.0447680, 0.0158576, 0.0629599, 0.1093463, 0.1380814, 0.0767159, 0.0601866, 0.0425707, 0.0459892, -0.0259312, -0.0110466, -0.0136702, -0.0622443, 0.0672197, 0.0323237, -0.0234568, 0.0180049, -0.0099507, 0.0605413, 0.0066898, 0.0321986, 0.0761046, -0.0447533, 0.0476574, 0.0157781, -0.0007917, 0.0235452, 0.0449563, -0.0284695, 0.0022594, -0.0271148, 0.0629466, 0.0327903, -0.0122610, 0.0370182, 0.0371105, -0.1067369, -0.0621694, -0.0348504, -0.0443436, -0.0733993, -0.0797154, 0.0140178, -0.0784417, -0.0448086, -0.0532236, -0.0080033, -0.0866980, 0.0687754, -0.1988568, -0.0998577, 0.0330453, -0.0601853, -0.0468297, -0.0269174, -0.0106289, -0.0340399, 0.1967674, 0.0624652, -0.0256308, 0.1787587, 0.0052772, -0.0046620, 0.0905378, -0.0378669, -0.0848221, 0.0718931, -0.0022320, -0.0985299, 0.0852856, -0.0342090, -0.0121389, -0.0047005, -0.0566614, 0.0288520, -0.0227650, 0.0661082, 0.0317735, 0.0388998, 0.0722117, 0.0329399, 0.0423950, -0.0211147, 0.0444989, 0.1011304, 0.1177779, 0.0758564, 0.1071868, 0.1034989, -0.0325586, 0.0599449, -0.0323787, -0.0181835, -0.0161022, 0.1273241, -0.0231173, -0.0535731, 0.0478689, 0.0138289, -0.0170773, 0.0315488, 0.0112901, 0.0089793, -0.1678734, -0.0123057, 0.0242076, -0.0405152, 0.0245010, -0.0578222, 0.0200828, -0.0232286, -0.0474745, 0.0250076, -0.0211847, -0.0359866, -0.0022433, -0.0159644, -0.0311696, 0.0791470, 0.0183277, -0.0339732, 0.0134702, -0.0028454, -0.0357900, -0.0760272, 0.0060069, -0.0375048, 0.0272865, -0.0308269, -0.1856712, 0.0679447, -0.0135941, -0.1673738, 0.0973510, 0.0297116, 0.0307667, 0.0257539, -0.0012238, -0.0201141, 0.0521185, -0.0512295, 0.0202150, 0.0313278, -0.0279284, -0.0644799, -0.0575435, -0.0562849, 0.0090429, 0.0415249, -0.0956111, 0.0095418, 0.0059328, -0.0373211, -0.0200175, -0.0224673, -0.0097785, -0.1088858, -0.0731051, -0.0203552, -0.0869246, 0.0322587, -0.0113703, -0.0409287, 0.0071385, 0.0198909, -0.0758098, 0.1612501, 0.0326654, -0.0551927, 0.0687590, -0.0152762, 0.0839343, 0.0615100, 0.0706387, -0.0926025, 0.0414045, 0.0777693, -0.0641702, 0.0636197, -0.0043509, 0.0113582, 0.0495097, 0.0674683, -0.0453173, -0.0771332, 0.0465065, -0.0514685, -0.1535861, -0.0825748, 0.0608756, -0.0228531, 0.0116840, 0.0531012, 0.0604059, 0.0396477, 0.0420910, 0.0206164, 0.0185122, -0.0182988, 0.0365428, -0.1010387, -0.0315336, 0.0314148, -0.0916703, -0.0105933, 0.0018593, -0.0027174, 0.0133884, 0.0330622, 0.0431265, -0.1085083, -0.0378206, 0.0865830, -0.0350944, -0.0280877, -0.0460607, -0.0878313, 0.0051716, -0.0452321, -0.0108365, -0.0432225, -0.0478537, -0.0842405, -0.0804965, -0.0137814, 0.0237245, -0.0316298, -0.0374912, 0.0114311, 0.0161867, -0.0499811, 0.0543232, 0.0138215, -0.0565370, 0.0505948, 0.0280815, 0.0625712, 0.0494717, 0.0621665, 0.0413641, 0.0254319, -0.0238002, 0.0194908, -0.0710261, 0.0207950, -0.0379993, 0.0105833, -0.1121136, -0.0517257, 0.0325031, 0.0479477, -0.1119208, -0.0530025, -0.0080439, 0.0208195, -0.0334539, 0.0020061, 0.0370775, 0.0322327, 0.0564567, -0.0028618, -0.0286850, -0.0280899, 0.0293110, 0.0559422, 0.0540655, -0.0033653, 0.0741245, 0.0079703, 0.0360276, 0.1048603, 0.0430861, 0.0002938, -0.0745696, 0.0605267, 0.0093676, -0.0368486, 0.0214961, 0.0060220, 0.0124586, 0.0669206, 0.0577376, 0.0129479, 0.0443697, 0.0654227, 0.0686058, 0.0183660, 0.1333119, -0.0243108, 0.0422113, -0.0364565, -0.0178355, 0.0071330, -0.0125775, 0.0442583, 0.0542403, -0.1285272, 0.0330624, 0.0085413, 0.0044671, 0.0733422, -0.0054285, 0.0363785, -0.0523099, -0.0117919, 0.0560036, 0.0370320, 0.0318033, 0.0220109, 0.0065029, 0.1558047, -0.0262465, -0.0531242, -0.0578203, 0.0920170, 0.0580120, -0.0136879, 0.0633088, 0.0294713, 0.1160422, 0.0431123, 0.0049641, 0.0595505, 0.0020188, 0.0422397, 0.0026675, 0.0491409, 0.0028670, -0.0278412, 0.0268627, -0.0334565, 0.0408292, -0.0131118, -0.0448651, 0.0169286, -0.0763438, 0.0470932, 0.0743226, -0.0913243, 0.0252858, -0.0696962, -0.0027376, -0.0407138, -0.0100184, -0.0010043, -0.1158089, -0.0019352, -0.0068806, -0.0348641, -0.0104373, -0.0106451, -0.0198953, 0.0185475, -0.0718656, 0.0009223, -0.0005367, -0.0365308, -0.0308499, -0.0118633, -0.0281455, 0.0708476, 0.0697508, -0.0135890, -0.0172088, -0.0184659, -0.0270878, -0.0073628, 0.0389772, 0.0230079, 0.0065586, 0.0188309, 0.0133713, -0.0731323, 0.0646295, -0.0240502, -0.0861713, -0.0109996, -0.0004329, -0.0444118, 0.0227581, -0.0429471, 0.0090775, 0.0012220, -0.0737800, -0.0315581, 0.0114793, 0.0314877, -0.0281322, 0.0062885, -0.0148704, 0.0554995, 0.0531651, 0.0141218, 0.0036842, -0.0135225, 0.0992533, -0.0216065, -0.0247045, -0.0566697, -0.0178158, -0.0673463, -0.0410114, 0.1239591, 0.0690529, 0.0288282, -0.0049381, 0.0296549, -0.0195140, -0.0414544, -0.0268948, -0.0070954, -0.0386549, -0.0490231, -0.0358195, 0.1094221, -0.0250227, -0.0619703, 0.0541227, -0.0637877, -0.0573181, -0.0044012, 0.0335856, -0.1760093, -0.0457775, -0.0383789, 0.0700738, -0.0445843, 0.0594959, 0.0696442, 0.0274780, 0.0103547, 0.0781772, 0.1223035, 0.0075538, -0.0694420, 0.0081423, -0.0025928, -0.0640827, 0.0588586, 0.0291806, 0.0804290, 0.0016286, 0.0404984, 0.0994120, 0.0114878, 0.0501659, 0.0368484, -0.0055086, 0.0058139, 0.0673046, -0.1290701, 0.0492989, -0.0272947, 0.0204554, 0.0657623, -0.0195176, 0.0493980, 0.0102082, -0.0238930, 0.0250548, 0.0329659, -0.0266777, -0.0169379, 0.0650779, -0.0369481, -0.0918069, 0.0221282, -0.0795649, 0.0077366, 0.0064075, 0.0092064, -0.0017377, 0.1616175, -0.0307488, 0.0674976, -0.0590691, 0.0815776, -0.0352176, -0.0021262, 0.0006244, -0.0218156, -0.0429151, -0.0053703, 0.0918421, 0.0630588, 0.0143795, 0.0270285, 0.0808902, 0.0456440, 0.0056681, -0.0519299, -0.0081823, -0.0237537, -0.0682045, 0.0783841, -0.0655778, -0.0045135, -0.1005933, 0.1063657, 0.0611837, -0.0848453, 0.0295685, -0.0210085, -0.0548697, 0.0600011, 0.0159818, -0.0011271, 0.0252971, -0.0914553, 0.0143917, -0.0122189, -0.0365097, 0.0025592, -0.1010809, -0.0163474, 0.0074275, -0.0494012, -0.0537891, 0.0076944, -0.0330011, 0.0408393, 0.0485351, 0.0393615, -0.0141245, -0.0410121, -0.0007558, -0.0439434, -0.0294013, 0.0178292, 0.0308534, -0.0468028, -0.0292273, -0.0651648, 0.0277362, -0.0617709, -0.0485729, 0.0001137, 0.0079758, -0.0461372, 0.0279781, -0.0020555, 0.0068444, -0.0506235, 0.0649107, 0.0847076, -0.0489262, 0.0565041, 0.0013802, -0.0475004, 0.0519874, -0.0120067, -0.0199196, -0.0642665, 0.0733104, -0.0217705, -0.0031523, -0.0202800, -0.0048074, 0.0739809, 0.0187313, -0.0689603, -0.0135117, 0.0730177, -0.0813120, -0.0147460, -0.0000436, -0.0903896, -0.0897210, 0.0301504, 0.0297789, 0.0079948, 0.1497606, 0.0322703, 0.0064269, -0.0182191, -0.1054053, -0.0743483, -0.0584080, -0.0329680, -0.0205436, 0.0783294, -0.0058399, -0.0306478, 0.0110155, 0.0237431, -0.0103957, -0.0374555, -0.0583657, -0.0635085, -0.0192128, -0.0696276, 0.0626299, -0.0638698, -0.0070921, 0.0585936, 0.0152552, -0.0836248, 0.1202841, 0.1258537, -0.0957460, 0.2088089, 0.0904864, 0.0577815, -0.0733382, -0.0439402, 0.0451710, -0.0269281, -0.0112506, 0.0495279, -0.0060519, 0.0416513, 0.0294506, 0.0314214, -0.0250289, 0.0576788, -0.0360205, -0.0010120, 0.0794826, -0.0198738, 0.0152800, 0.0644129, 0.0525289, -0.0045239, 0.0249224, -0.0498384, -0.0414306, 0.0170713, -0.0425854, 0.0414182, 0.0058816, 0.1216809, 0.0090793, -0.0709586, -0.0939483, 0.0216528, -0.0573591, -0.0173447, -0.0350558, 0.0053215, -0.0634023, -0.0013990, 0.1071280, 0.0541765, -0.0016787, 0.1066128, -0.0040532, -0.0378859, 0.0258403, 0.0261137, -0.0146822, 0.0271714, 0.0900316, 0.0765864, 0.0096633, -0.0447896, -0.0037368, -0.0045034, 0.0209859, -0.0427715, -0.0419689, 0.0735758, 0.0335033, -0.0478556, -0.0538421, -0.0216481, 0.0847439, 0.0486151, 0.0361877, -0.0585620, 0.0148158, 0.0588866, -0.0751574, -0.1678854, 0.0147124, 0.1246994, 0.0472371, -0.0081016, 0.0535728, -0.0654777, 0.0199742, 0.0147999, -0.0465064, -0.0012020, 0.0230863, -0.0100877, 0.0062133, 0.1019382, 0.0664655, 0.0422723, 0.1025705, 0.0201268, -0.0081851, -0.0662593, 0.0498250, -0.0068118, 0.0084512, 0.0534283, 0.0186020, -0.0197353, 0.0645388, 0.0068903, -0.0592069, 0.0852158, -0.0255229, -0.0191167, 0.0278869, 0.0613949, -0.0192207, 0.0245821, 0.0059837, -0.0684036, -0.0581850, 0.0299018, 0.0009093, -0.0398584, -0.0433794, -0.0340729, -0.0470945, -0.1108472, -0.0310242, 0.0299715, -0.0596949, 0.1178235, 0.0775688, 0.0504409, 0.1663970, 0.0410487, -0.0041530, -0.0147402, 0.0083795, -0.0284273, -0.0354683, -0.1116164, -0.0710407, -0.0306592, -0.0242299, -0.0061582, -0.0369265, -0.0061990, 0.0499532, -0.0573634, 0.0184243, 0.0595693, -0.0269313, -0.0153351, 0.0707269, 0.1454436, -0.0216483, 0.0237185, 0.0576672, 0.0311738, 0.0476633, 0.0773717, 0.0184329, -0.0053280, -0.0077160, 0.0379991, -0.0274554, 0.0022410, 0.0825257, -0.0501123, 0.0223764, 0.0289126, 0.0453817, 0.0411940, 0.0421218, -0.0291487, 0.0196903, 0.0336908, 0.0750291, 0.0327768, 0.0578202, -0.0245156, 0.0149752, -0.0911837, 0.0121783, -0.0022380, -0.0411405, -0.0227621, 0.0030767, 0.0040222, -0.0177278, 0.0880075, 0.1111882, 0.0366027, 0.0076178, -0.1771429, 0.0654900, 0.0471741, 0.0579892, 0.0095489, -0.0911095, 0.0611262, 0.0620918, -0.0678263, 0.0076229, -0.0355828, -0.0722525, 0.0241655, 0.0146750, 0.0286097, 0.0754854, -0.0277593, 0.0020416, -0.0897497, -0.0169840, 0.0324975, -0.0852785, -0.0905009, 0.0001903, 0.0368683, -0.0186040, 0.0208041, -0.0254606, 0.2568949, 0.0096519, -0.0181224, 0.1269731, -0.0042181, -0.0189393, 0.0279961, 0.0027912, -0.0791268, 0.0061792, 0.0415012, -0.0890127, -0.0041551, -0.0046791, 0.0065053, 0.0098786, -0.0058319, -0.0192295, -0.1729831, -0.0143210, -0.0049145, -0.1202267, -0.0189315, -0.0443675, 0.0148478, -0.0282399, -0.0100949, 0.0190879, 0.0101383, 0.0338590, -0.2081072, 0.0146113, -0.0422678, -0.0036205, -0.0008752, 0.0907054, 0.0750145, -0.0258712, 0.0837193, 0.0700025, -0.0350135, -0.0167361, -0.0371920, -0.0327709, -0.0177351, -0.1027739, -0.0252150, -0.0401679, -0.0985117, 0.0626822, 0.0184695, -0.0069101, -0.0081634, 0.0746159, 0.0050785, -0.0237803, 0.0828512, -0.1189444, 0.0346542, 0.0203441, -0.0421460, -0.0419522, 0.0452715, -0.0873275, -0.0719164, 0.0547409, 0.0020497, 0.0032652, 0.0662696, -0.0024724, -0.0339957, -0.0561159, -0.1311217, -0.0863308, -0.0482036, -0.2318906, -0.0231717, 0.0459754, 0.0210800, 0.0222816, -0.0552522, 0.0403339, 0.0447198, -0.0558296, 0.0740385, 0.0005221, -0.0021549, 0.0205277, -0.0081410, -0.0275776, -0.2026262, -0.0311087, -0.0066101, -0.1521764, -0.0107895, 0.0103471, -0.0353658, 0.0166097, 0.0176540, 0.1919201, 0.0158254, 0.0357173, 0.0632244, -0.0352030, 0.0305370, 0.0147040, -0.0215264, -0.0005159, -0.2709500, -0.0485094, 0.0255348, -0.2826054, -0.0222338, 0.0150180, 0.0507818, 0.0057271, 0.0138771, -0.1587793, 0.0178143, 0.0055299, -0.1172216, -0.0219457, -0.0169383, 0.0231822, -0.0500542, -0.0029849, 0.1298029, -0.0485810, -0.0025356, 0.1907737, 0.0324688, -0.0672506, -0.0099036, 0.0322707, 0.0363894, -0.0022332, 0.0332856, 0.0104092, 0.0036159, 0.0016323, -0.1028013, -0.0116134, -0.0342449, -0.0533622, 0.0568769, -0.0463591, -0.0384435, 0.1739110, 0.0078008, 0.0034050, 0.0562700, -0.0180367, -0.0363050, 0.0758812, -0.0032990, -0.0005272, 0.0370861, -0.0200299, 0.0424489, 0.0012345, -0.0659653, -0.0209420, 0.1794564, -0.0563037, -0.0436727, 0.2520174, 0.0126557, -0.0236355, 0.0122495, 0.0647464, -0.0204464, 0.0249675, 0.0845482, -0.0265189, 0.0525240, 0.0121638, -0.0002789, 0.0224968, -0.0067363, -0.0519954, -0.0027394, 0.0224298, -0.0485650, -0.0899567, 0.0247046, -0.0408401, 0.0553752, 0.0585989, 0.0713650, 0.1956426, 0.0892203, 0.0051938, 0.2291583, 0.0099433, -0.0440926, -0.0192787, -0.0335997, -0.0124457, 0.0324348, -0.0399407, 0.0054593, 0.0475496, 0.0177178, -0.0466392, 0.0167035, -0.0839304, 0.0963427, -0.0040652, -0.0757252, 0.1519338, -0.1103671, -0.0139278, -0.0315833, -0.0215811, 0.0197361, -0.0081416, -0.0447467, 0.0008995, -0.0035130, -0.0263513, -0.0019029, -0.0047935, -0.0262553, 0.1303510, -0.0115813, 0.0859394, 0.0904742, -0.0201278, 0.1909226, -0.0307682, -0.0501112, 0.0021242, -0.0315126, 0.0393743, 0.0252281, -0.0295956, 0.0232187, 0.0751214, -0.0216761, 0.0191254, 0.0445089, -0.0068856, 0.0685067, -0.1200440, -0.0096673, 0.0685817, 0.0663954, -0.0016652, -0.0189690, -0.0290423, 0.0222936, -0.1030986, -0.0335600, 0.0378283, -0.1061363, -0.0728069, 0.0464318, 0.0348694, 0.0402050, 0.0007482, -0.0563822, 0.0193871, 0.0048352, -0.0838376, 0.0053149, 0.0226239, -0.0419731, -0.0238057, 0.1504741, -0.0038304, -0.1637203, 0.1873582, -0.0051138, -0.2851576, -0.0215923, 0.0044033, 0.0265838, 0.0101082, 0.0308674, -0.2797038, 0.0078324, 0.0526779, -0.1976787, -0.0279754, 0.0153174, 0.0142091, 0.0422297, -0.0227578, -0.0024456, 0.0637876, -0.0055365, 0.1369766, 0.0047654, 0.0196063, 0.0306824, 0.0978543, 0.0992153, 0.0243978, 0.1053018, 0.1699052, 0.0004375, -0.0113221, 0.0207544, 0.0389394, -0.0110967, 0.0214603, -0.1452766, -0.0255639, 0.0308873, -0.1051696, 0.0125772, 0.0288393, -0.0653960, 0.0070956, -0.0700046, -0.1164684, -0.0118430, -0.0721362, -0.0332461, 0.0041442, -0.0145991, 0.0212767, 0.0321919, 0.0008114, 0.0197241, 0.0143580, 0.0348134, -0.0123835, 0.0266919, 0.0260090, -0.0008493, 0.0366391, -0.0065686, 0.2370491, 0.0448067, -0.0158476, 0.2083159, 0.0140061, -0.0031808, 0.0070680, -0.0007282, 0.0730324, 0.1686338, 0.0194046, 0.0851003, 0.2056966, 0.0071815, -0.0237762, 0.0159597, 0.0351943, 0.0255527, -0.1084466, 0.0167835, -0.0007775, -0.2613191, 0.0211596, -0.0946604, -0.0480856, 0.0398990, 0.0522613, 0.0319044, 0.0197338, 0.0413216, 0.1317234, -0.0212998, -0.0163961, 0.0369861, 0.0149071, 0.0469608, 0.1770776, 0.0678029, 0.0506434, 0.2968462, -0.0161752, -0.0021658, -0.0079421, 0.0049285, -0.0251401, -0.1259247, 0.0252711, -0.0470673, -0.0735029, -0.0369280, 0.0042669, 0.0341827, 0.0119314, 0.0163092, 0.0355972, 0.0237941, -0.0001742, 0.0688677, 0.0239334, -0.0242790, -0.0149183, -0.0354621, 0.0744727, -0.0071252, -0.0570510, 0.1416144, 0.0998945, -0.0130781, -0.0071053, -0.0051255, -0.0483141, 0.0076300, -0.2525699, -0.0472633, -0.0135122, -0.2362060, -0.0137353, 0.0096199, 0.0409454, -0.0272543, 0.0200278, 0.0223840, -0.0540942, -0.0076948, 0.0892103, -0.0452478, 0.0428991, 0.0039333, 0.0370596, 0.0032515, 0.3840874, 0.0323053, -0.0446943, 0.3064064, -0.0001987, -0.0043814, 0.0126583, -0.0746450, 0.0516447, 0.1175493, -0.0765878, 0.0509975, 0.0732843, -0.0471512, -0.0643427, 0.0516424, 0.0513359, 0.0017047, 0.0871683, 0.0391120, 0.0079832, 0.2239318, 0.0165104, 0.0588747, 0.0503032, 0.0143479, -0.1369383, 0.0349350, 0.0022945, -0.1553298, -0.0484630, -0.0308516, -0.0479646, -0.0167073, 0.0395231, -0.0319756, -0.2656330, 0.0659503, -0.0078541, -0.4170766, -0.0175437, -0.0253045, -0.0474345, -0.0003467, 0.0185437, 0.2027628, -0.0001848, 0.0409510, 0.1608557, -0.0188128, -0.0138299, 0.0190381, -0.0320932, 0.0303920, 0.0031185, -0.0212334, 0.0416863, -0.1339117, -0.0085552, -0.0542705, -0.0185435, -0.0733722, -0.0942455, 0.0723042, -0.1001924, -0.0830766, -0.0077543, -0.0292224, 0.0023807, -0.0203844, -0.0280625, -0.0486640, -0.0243462, -0.0509998, -0.0083734, -0.0823128, -0.0291288, 0.0685004, -0.0078564, -0.0147084, -0.0875895, 0.3411124, 0.0387202, -0.0936368, 0.1888074, 0.0349741, 0.0276296, 0.0155216, 0.0274466, 0.0286109, 0.0591668, 0.0046214, 0.0209376, 0.1686328, 0.0268138, -0.0069762, 0.0245438, -0.0193475, 0.0189147, -0.2764167, -0.0591396, -0.0045064, -0.1031660, 0.0130331, 0.0203977, 0.0211986, 0.0422463, -0.0455685, -0.0473093, 0.0665473, -0.0302648, 0.0421521, 0.0405995, -0.0125314, -0.0024545, -0.0507404, 0.0231806, 0.2679521, -0.0364129, 0.0551186, 0.3543904, 0.0529350, 0.0018510, -0.0282865, -0.0089503, -0.0518185, 0.1312611, -0.0148585, -0.0695792, -0.0186001, -0.0040043, -0.0840199, -0.0117727, -0.0209122, 0.0711582, 0.1687218, -0.0254488, 0.0826303, 0.0543179, 0.0111961, -0.0409977, -0.0068467, 0.0038731, -0.0202716, -0.1772327, -0.0116764, -0.0117185, -0.1145511, 0.0664940, 0.0766584, 0.0064500, 0.0074516, 0.0223724, 0.0952421, 0.0478392, 0.0373771, 0.1136386, 0.0569222, 0.1402156, 0.0052200, 0.0029021, 0.0472502, 0.0515673, -0.0028836, 0.0241261, 0.0517898, -0.0180585, 0.0616350, -0.0087803, 0.0108591, -0.1965609, -0.0528653, 0.0175630, -0.1737782, -0.0224994, -0.0257567, 0.0345404, -0.0144199, 0.0200656, -0.0293282, 0.1467870, -0.0008913, -0.0235909, 0.1574720, -0.0225170, -0.0274149, -0.0709615, 0.0362233, 0.0713152, 0.0355832, 0.0608034, 0.0525162, 0.0404454, 0.0042957, -0.0151691, -0.0415053, 0.0121222, 0.0175751, -0.0721077, 0.0271735, -0.0397294, -0.0547747, -0.0573210, 0.0020714, 0.0105892, -0.0477677, 0.0161642, -0.0230293, -0.0953898, -0.0304723, 0.0386792, -0.0146904, -0.0377660, 0.0207352, -0.0463946, 0.0650309, -0.0454793, -0.0424557, 0.0105855, 0.0296793, 0.0553725, -0.0166888, 0.0203908, -0.0501228, 0.0275926, -0.0265565, 0.0111030, 0.0050355, -0.0311797, -0.0069067, -0.0289080, -0.0075664, -0.0634568, 0.0002759, -0.0136643, -0.0689666, -0.0434314, 0.0820256, 0.0155198, -0.0472503, 0.0477518, -0.0734858, 0.0513097, -0.1428739, -0.0761651, -0.0295018, -0.1045128, 0.0775495, -0.0422138, -0.0450268, -0.0811548, -0.0572859, -0.1423397, -0.0770307, -0.0597953, -0.0596698, 0.0469508, 0.0402989, 0.0129471, -0.0235444, -0.0151743, -0.0516941, -0.0180102, 0.0036027, 0.0144114, -0.0270707, -0.0730216, 0.0021378, 0.0036826, -0.1742620, -0.0902152, 0.0229656, -0.1232665, -0.0553958, 0.0150226, 0.0245208, -0.0251672, -0.0142977, 0.0260769, 0.2134865, -0.0244511, 0.0253576, 0.1171943, -0.0526455, -0.0413388, -0.0389810, -0.0567417, 0.0559153, 0.0455554, -0.0802216, 0.0366567, 0.1495828, -0.0608423, -0.0857888, 0.0236403, -0.0053589, -0.0447029, -0.0922434, 0.0303853, -0.0843228, -0.1592125, 0.0487325, -0.0271838, 0.0102367, 0.0196423, -0.0900229, -0.0341912, 0.0440144, -0.0716389, -0.0204416, 0.0651048, -0.0926516, -0.0638514, -0.0426742, -0.0118925, -0.0884553, -0.0053441, -0.0524277, -0.1570296, 0.1359887, 0.1626974, -0.0484874, 0.0443192, -0.0582459, -0.0187968, 0.0288239, -0.0255812, 0.0392929, -0.0165650, 0.1454873, 0.0360997, -0.0725767, 0.1338589, 0.0347598, -0.0894155, 0.0851072, 0.0122932, -0.0296646, 0.0625011, 0.0355638, -0.0352512, 0.0620224, 0.0953506, -0.0245923, 0.0182417, 0.0403886, -0.0265346, -0.0121565, 0.1494593, -0.0452171, -0.0419532, 0.0500157, -0.0442070, -0.0148317, 0.0402741, -0.0474741, -0.1067947, 0.0008085, 0.0164244, -0.0001969, 0.0415132, -0.0015999, -0.0835296, -0.0285413, -0.0053538, 0.1506203, 0.0502548, -0.1611585, 0.0105804, 0.0258467, -0.1459349, -0.0365113, 0.0213597, 0.0373546, -0.0457895, 0.0056591, -0.0013357, -0.0283859, -0.0019153, 0.0196356, -0.0545576, -0.0080068, 0.0941661, -0.0330115, -0.0358657, 0.0305562, -0.0434186, -0.1029609, 0.0454349, -0.1179078, -0.1559905, -0.0621698, -0.0635656, -0.0013014, -0.0090057, -0.0534529, -0.0866740, 0.0070250, 0.0332153, -0.1599039, -0.0040173, -0.0693897, -0.0293900, 0.0586295, -0.0029330, -0.0048307, 0.0540758, -0.0149989, 0.0025230, -0.0151033, 0.0220038, -0.0179678, 0.0561351, -0.0726736, -0.2465115, 0.0903674, -0.0367885, -0.0596199, -0.0348180, -0.0449384, 0.0137571, 0.0084904, -0.0626725, 0.0463501, 0.0271533, 0.0396105, -0.0820997, -0.0250512, -0.0177509, -0.0165966, -0.0684161, 0.0202443, -0.2421272, -0.0778132, 0.0322177, -0.1602836, 0.0178722, -0.0758481, -0.0098168, -0.0285780, 0.0111834, -0.0260920, -0.0479474, 0.0321125, 0.0118773, 0.0333033, -0.0411999, 0.0117963, -0.0682072, 0.0693719, -0.1277949, -0.0171944, 0.0647805, -0.0345679, -0.0224105, 0.0803236, -0.0037198, 0.0360035, -0.0892269, -0.0507709, 0.0664441, -0.0717861, 0.0129575, 0.0171152, 0.0266369, 0.0602726, 0.0306511, -0.0359667, 0.0234016, 0.0175033, -0.0628782, -0.0074960, -0.1079260, -0.0465307, 0.0275261, 0.0258048, -0.0697690, 0.1167336, 0.0409297, -0.0680121, 0.0154926, -0.0404592, 0.0383758, -0.0402033, 0.0032150, -0.0454588, 0.0692845, 0.0532164, 0.0163229, 0.0949688, -0.0163384, 0.0956590, -0.0245152, -0.0657118, -0.0195103, -0.0298222, -0.0567487, -0.0386502, -0.0217943, 0.0353992, 0.0217401, -0.0164669, 0.0346217, 0.0462400, 0.0331704, 0.0607217, 0.0051392, -0.0458454, 0.0548297, 0.0444870, -0.0194462, 0.0049012, -0.0142015, -0.0892542, 0.0435701, 0.0029355, -0.0318112, 0.0026066, -0.0208078, -0.0044079, 0.0201412, 0.0012281, 0.0600701, 0.0038327, 0.0265427, -0.0096212, 0.0218291, 0.1873982, -0.0442777, 0.0011881, 0.0257592, -0.0276653, 0.0249394, -0.0128222, 0.0063068, -0.1058440, 0.1093273, -0.0549070, 0.0727976, 0.0025735, 0.1091419, 0.0409649, -0.0215157, -0.0399169, -0.0204657, 0.0447219, 0.0186970, -0.0773215, 0.0814981, 0.0959191, -0.0415963, 0.0182484, 0.0753889, 0.0301120, -0.1030399, 0.0041894, -0.0275793, -0.0087263, -0.1309291, -0.0081719, 0.0003232, 0.0090303, -0.0912201, -0.0061020, -0.0496448, 0.0514340, 0.0258806, 0.1504751, 0.0218841, -0.0109890, 0.0542900, 0.0815736, 0.0261128, -0.0058529, -0.0586507, -0.0309622, 0.0084420, 0.0163617, -0.0347087, 0.0089038, 0.0311625, 0.0653027, 0.0334297, 0.0240091, 0.0272284, -0.0055466, 0.0214905, 0.0129536, -0.0438706, -0.0055162, -0.0400341, -0.0113729, 0.0060988, -0.0120466, 0.0126034, 0.0320920, -0.0445561, -0.0705938, -0.0360006, 0.0091661, 0.0136359, 0.0077626, -0.0561095, 0.0158688, 0.0082215, 0.0062348, -0.0029645, 0.0440805, -0.0022256, -0.0437886, 0.0072633, 0.1043450, 0.0149768, -0.0315401, 0.1160772, -0.0595949, 0.0232641, -0.0318781, -0.0104100, 0.0714343, -0.0198614, 0.1021256, 0.0781478, -0.0490464, 0.0437373, 0.0121249, -0.1170523, 0.0246378, -0.0342829, -0.0667640, -0.0093435, -0.0861042, -0.0699619, 0.1144425, 0.0519599, 0.0139851, 0.0181505, 0.0115501, -0.1088772, 0.0280643, 0.0406000, -0.0311781, -0.0051793, 0.0051454, 0.0328407, 0.0356342, -0.0031890, -0.1111910, -0.1556262, -0.0366413, -0.0716075, -0.0432090, 0.0078127, 0.0324512, -0.0115545, 0.0614348, 0.0548157, 0.0620111, 0.0915679, 0.1366488, 0.0848022, 0.0105785, 0.0867261, -0.0049157, 0.0255244, -0.0702877, 0.1552567, 0.0237928, -0.0578875, 0.1315438, 0.0663435, -0.0028144, 0.0150363, -0.0843917, -0.0419420, 0.0884539, -0.0781202, 0.0057589, -0.1036686, -0.0150530, -0.0006400, 0.0528752, 0.0539656, 0.0034268, -0.0976092, 0.0139906, 0.0098565, -0.1083296, 0.0250930, -0.0163857, -0.0058751, -0.0673499, -0.0057965, 0.0077226, -0.0244875, 0.0339960, -0.0079851, -0.0431840, 0.0161581, 0.0054079, 0.0774438, -0.0017094, 0.0422552, 0.0599511, 0.0776288, -0.0127905, -0.0453923, -0.0613362, 0.0017562, 0.1028272, 0.0239004, -0.0607860, 0.0827708, 0.0235481, -0.0359119, -0.0653291, 0.0445593, -0.0419871, -0.0117338, -0.0708027, -0.0145507, 0.0163057, -0.0374560, -0.0092765, -0.0797074, 0.0284718, 0.0171817, 0.0154095, 0.0165538, -0.0823404, 0.0922983, -0.0475549, -0.0505216, -0.0078050, -0.0114139, 0.0054718, -0.0247452, -0.0080650, -0.0343813, -0.0105874, -0.1250865, 0.0201329, 0.0343093, 0.0587677, -0.0691065, -0.0651228, -0.0034100, -0.0597397, -0.0272330, -0.0725970, 0.0588013, -0.0824953, 0.0767271, -0.0266798, -0.0843550, -0.1536344, -0.1349486, -0.1036262, -0.0429521, 0.0889030, -0.0589313, -0.0026043, -0.0210647, -0.0672238, -0.0098696, 0.0036354, -0.0658738, 0.0701700, -0.0036595, -0.0538349, -0.1412142, -0.0518894, 0.0088091, -0.0335737, -0.0030135, 0.0285281, 0.0036390, 0.0035284, 0.0541070, 0.0922072, -0.0507141, 0.0225612, -0.0124076, -0.1714473, -0.0083738, -0.0586488, -0.0110987, 0.0338065, 0.1695171, 0.0195128, -0.1305736, -0.0185006, -0.0031255, -0.1240491, -0.0052440, 0.0312189, -0.0775509, 0.0168812, 0.0126128, 0.0503387, 0.0127941, -0.0456910, 0.0698305, -0.0512751, -0.0324228, -0.0527148, -0.0061580, -0.0362010, -0.0653283, -0.1173145, -0.1488626, -0.0423737, -0.0770349, -0.0892821, 0.0254325, 0.0414126, 0.0085251, 0.0009272, -0.0091717, 0.0253565, 0.0162205, -0.0297232, -0.0094147, -0.0953979, -0.0163241, 0.0321204, 0.0071964, -0.0449294, -0.0174703, 0.0022934, -0.0250036, -0.0345707, -0.0568376, -0.0753972, 0.0022967, -0.0519641, -0.0488219, 0.0862328, -0.0275527, -0.0050535, -0.0201462, -0.0453858, 0.0341243, 0.0398189, 0.1254262, -0.1051325, -0.0239244, 0.1315099, -0.0433397, -0.0076887, -0.0374286, -0.0389242, 0.0471815, 0.0906210, -0.0554171, 0.0528100, 0.0911192, 0.1058292, 0.0741617, 0.0472377, -0.0524770, 0.0238354, 0.1013103, 0.0381472, 0.0501138, 0.0924414, 0.0392538, 0.0795529, 0.1975712, -0.0357059, -0.0010971, -0.0191152, -0.0879786, 0.0085367, 0.0085010, -0.0085991, 0.0526304, -0.0187829, -0.0373494, -0.0699286, -0.0077898, -0.0276913, -0.0160237, 0.0066427, -0.1164885, -0.0224211, 0.1234258, -0.0378212, -0.0008709, -0.0048967, 0.0041225, -0.0293460, -0.0001576, 0.0388253, -0.0479207, -0.0052523, -0.0760751, -0.0273056, -0.0565908, 0.0877184, -0.0356732, -0.0625303, 0.0940017, 0.0422499, 0.0074099, -0.0689872, -0.0403068, -0.0365465, 0.0241054, -0.0144269, -0.0487785, -0.0216727, 0.0440149, -0.0187482, 0.0745710, -0.0754621, 0.0098731, 0.1105531, 0.0139494, 0.0521924, 0.0311722, -0.0355903, 0.0949001, -0.0786512, -0.0157114, -0.0938709, -0.0623392, 0.0138469, -0.0645924, -0.0426654, -0.0102185, 0.0296677, -0.0728246, 0.0035364, -0.1107080, -0.0678705, -0.0420005, -0.0920204, -0.0567620, 0.0130949, -0.1077165, 0.0701651, 0.0054165, -0.0246040, 0.0177253, 0.0383178, -0.0264679, 0.0609659, -0.0533293, 0.0211571, -0.0116831, -0.0488579, -0.0096346, 0.0171183, 0.0714766, -0.0053208, 0.0530287, -0.0126691, -0.0699525, -0.1116282, 0.0009185, -0.0848607, 0.0125421, 0.0687531, -0.0568502, 0.0146813, -0.0034713, 0.0484887, 0.0749675, 0.0125952, -0.0112768, -0.1276607, 0.0864780, -0.0393076, -0.1203874, -0.0066009, 0.1042966, -0.0518018, -0.0208171, -0.0090373, 0.1095647, -0.0326519, 0.0195491, 0.0557346, -0.0561445, -0.1244806, -0.0158299, 0.0293759, -0.0696175, -0.0581662, -0.1786473, -0.0480209, -0.0602976, -0.0281142, 0.0419815, -0.0029405, -0.0072085, 0.1200036, -0.0435280, -0.0165880, 0.0984810, 0.0008897, 0.0446390, -0.0762655, -0.0247056, -0.0008681, 0.0327516, -0.0638779, -0.0408022, 0.0316117, -0.0665597, -0.0540006, -0.0117728, -0.0917066, 0.0299252, -0.0160396, -0.0595410, 0.0042771, -0.0210107, -0.0207140, 0.0387212, 0.0433329, 0.0496328, -0.0231332, -0.1168323, -0.0653712, -0.0913098, -0.0984699, -0.0668568, -0.0115215, 0.0003773, -0.0832421, -0.0339775, 0.0551145, -0.0622117, 0.0694218, 0.0564331, -0.0280203, -0.0436658, -0.0892471, 0.0268090, 0.0073214, 0.0029304, 0.0482527, 0.1079855, -0.0198450, 0.0525943, 0.0701108, -0.0454325, 0.0088479, -0.0220932, 0.0841663, -0.0598278, 0.0782957, 0.0692063, -0.0316684, -0.0203300, -0.0511013, -0.0918956, -0.0103672, -0.0668597, -0.0735848, -0.1013308, -0.0684457, -0.0365316, 0.0191199, 0.0181644, 0.0449754, 0.0113432, 0.0578688, 0.0753676, -0.0413380, 0.0786941, 0.0685447, -0.0103777, 0.0641812, 0.0791341, 0.0766150, -0.0741626, -0.0979045, -0.0174840, -0.0363831, -0.1019635, -0.0321520, -0.0098335, 0.0591747, -0.0255381, -0.0555060, -0.0308976, -0.1465172, -0.0454237, -0.0129945, 0.0365156, -0.0085270, -0.0028081, 0.0301251, 0.0212298, 0.0087150, -0.0015541, 0.0413615, 0.0407415, -0.0029307, 0.0006023, 0.0110826, -0.0213530, 0.0312717, -0.1275667, 0.0958808, 0.0015648, -0.0375320, 0.0446392, 0.0519858, -0.0262370, -0.0280125, -0.1634470, 0.0613035, 0.0953319, -0.1637817, 0.0456866, 0.0843581, 0.0337286, 0.0217652, -0.0377735, -0.0197258, -0.0074870, -0.0563545, 0.0102800, -0.0125520, -0.0039992, -0.0303057, -0.0356336, -0.0317809, 0.0487570, -0.0376529, -0.0721426, 0.0680694, -0.0325800, 0.0612977, 0.0201101, 0.0129524, -0.0053309, -0.0761565, -0.0386032, -0.0144560, -0.0595172, 0.0350474, 0.0206757, 0.0762147, -0.0245612, 0.0311312, -0.0018347, 0.0370094, -0.0615041, 0.0273839, -0.0406632, -0.0531009, 0.0343540, -0.0067118, -0.0243681, 0.1346049, 0.0985698, -0.0638114, 0.1068572, 0.0864990, -0.0363933, 0.0649202, 0.1023649, -0.0117220, -0.0534311, -0.0763251, 0.0527984, -0.0157113, -0.0572356, -0.0515209, 0.0635266, -0.0552793, 0.0391667, -0.0047101, 0.0622549, -0.0352875, 0.0034377, 0.0154491, -0.0373608, 0.0168923, 0.0558819, 0.0025375, -0.0501349, -0.0240393, -0.0915955, -0.0499216, -0.0393042, 0.0047383, -0.0020691, 0.0292285, 0.0384962, 0.1099233, -0.0711948, -0.0121124, 0.0496695, -0.0953338, -0.0103696, -0.0294130, -0.0393333, 0.0048725, -0.0259895, 0.0531878, -0.0502424, -0.0211103, 0.0336792, 0.0130530, 0.0083220, 0.1044818, -0.0060188, 0.0610869, 0.0310093, -0.0165801, 0.0302769, -0.0762053, -0.0411285, -0.0706818, -0.0436899, -0.0056947, 0.1272649, 0.0927817, -0.0352100, 0.1213690, 0.0353949, 0.0550353, 0.1568288, -0.0115527, 0.0435629, 0.0054686, -0.0010543, -0.1394117, -0.0195805, -0.0338459, -0.1301091, 0.0239553, 0.0323980, -0.0113456, 0.0934788, 0.0498229, -0.0330790, 0.0935390, 0.0065993, 0.0496513, -0.1086676, -0.0447186, 0.0418913, -0.0211845, -0.0698925, 0.0969834, -0.0405192, -0.0397820, 0.1317505, 0.1042409, 0.0846077, 0.0785489, 0.0026158, 0.0268664, -0.0014182, -0.0145912, -0.0261549, 0.0059382, 0.1267241, -0.0070564, 0.0227506, 0.0063188, 0.0317644, 0.1178689, 0.0035420, 0.0730972, -0.0211131, -0.0675225, 0.0225829, 0.0057183, -0.0475902, 0.0083617, -0.0810230, -0.0597318, -0.0198047, 0.0159011, -0.0632647, -0.0693748, -0.0046020, -0.0711768, 0.1410852, -0.0677184, -0.0638503, 0.0982949, 0.0033953, -0.0502555, -0.1227379, -0.0036307, 0.0804506, -0.0352743, -0.0777824, 0.0774796, -0.0985926, 0.0400021, 0.0513852, 0.1143380, 0.0658943, -0.1019674, -0.0518495, -0.0381837, -0.0451696, -0.0005927, 0.0784750, 0.0284119, -0.0162636, -0.0277807, 0.0002451, 0.1418498, 0.2374754, 0.0302214, -0.0242404, -0.0451208, 0.0120738, 0.0243068, 0.0297361, -0.1421641, -0.0258887, -0.0511082, -0.1381986, -0.0816253, 0.0220269, 0.0684990, -0.0202437, -0.0070673, 0.0063944, -0.0758353, -0.0392954, -0.0089403, -0.0715186, 0.1857486, -0.0401414, 0.0651038, 0.0588689, 0.0344134, -0.0900212, -0.0990736, -0.0034121, -0.0830978, -0.0438301, 0.0487186, -0.0060276, 0.0680825, -0.0722027, 0.0081020, -0.0671636, -0.0320148, 0.0601462, -0.0293774, -0.0134669, 0.0187381, 0.0362567, 0.0410105, -0.0672860, 0.1397648, 0.0974209, 0.0759690, -0.1210805, -0.0499297, 0.0210786, 0.0615478, -0.0827821, 0.0070011, 0.0820399, -0.1369466, -0.0431174, 0.1517318, 0.0382513, -0.0025693, 0.0148290, 0.0824549, 0.0678706, -0.0726828, 0.0380998, 0.0408094, -0.0167320, 0.0646576, -0.0283004, 0.0317254, -0.1046530, 0.1005153, -0.1335228, -0.0568338, 0.1218812, 0.0934524, 0.0316396, -0.1334094, -0.1057075, 0.0451390, 0.1454066, -0.1528563, 0.1087757, 0.0607890, -0.0111478, 0.0113817, 0.0296161, -0.0063345, 0.1516264, 0.0313346, -0.0585010, 0.1101979, -0.0199096, 0.0476248, -0.0499255, -0.0655791, -0.1340005, 0.0307443, -0.0333527, -0.0040908, 0.0782403, 0.1088663, 0.0115026, -0.0132019, -0.0146418, -0.0909940, -0.0208225, -0.0978561, -0.0198674, -0.0544157, -0.0559488, -0.0309102, 0.0060884, 0.0657985, 0.0402890, 0.1001175, 0.0019076, 0.1477615, 0.1232362, 0.0267704, 0.0784182, 0.1225107, 0.0865949, -0.0279510, -0.0282345, -0.0304270, 0.0765268, 0.0202830, -0.0139470, 0.0446993, 0.0426624, 0.0345957, -0.0134949, 0.0173961, 0.0126331, 0.0380193, 0.0033386, 0.0432715, -0.0735589, -0.0351631, 0.0601439, 0.0089490, -0.1389062, -0.0210289, -0.0161164, -0.1659442, -0.1329423, 0.0317305, 0.0556816, -0.0099421, 0.0583052, -0.0845383, -0.0498935, 0.1590044, -0.0771898, -0.1355511, -0.1265058, 0.0852770, -0.0687312, 0.0593783, -0.0019192, -0.1664527, 0.0884658, 0.0187645, -0.1425836, 0.0736348, 0.0221771, -0.0733715, 0.0150707, -0.0511885, 0.0794516, 0.0896615, -0.0433632, 0.0796003, -0.0963245, -0.0072585, -0.0483249, -0.0652725, 0.0227101, 0.0760352, -0.0468972, 0.0106429, 0.1097162, 0.0176919, -0.0449305, -0.0458618, -0.0401924, -0.0750870, -0.0893726, -0.0277743, -0.0870762, -0.0337379, 0.0090060, -0.0837079, -0.0977180, -0.0171962, 0.0057515, 0.0441757, -0.0496482, 0.0280162, 0.0428851, -0.1134908, -0.0125415, -0.0137682, 0.0241874, -0.0765919, 0.1124419, -0.0403401, -0.0813614, 0.0785038, -0.0636736, -0.1262807, 0.0034924, -0.0107996, -0.0228412, 0.0314812, -0.0971796, -0.0022427, -0.0271166, 0.0207702, -0.0565449, 0.0690181, 0.0294691, 0.0056307, 0.0516173, -0.0556500, 0.0209374, -0.0096519, -0.0247744, -0.0688395, 0.0028254, -0.0082664, 0.0867493, -0.1238737, -0.0014850, 0.1334025, -0.1367241, -0.1530264, 0.0019723, -0.0303543, -0.0145748, 0.0475062, -0.0270935, 0.0097259, 0.0451573, -0.0298035, -0.0033709, -0.0694887, 0.0776931, 0.0622985, 0.0104562, -0.0253583, 0.0177835, 0.0125744, -0.0459216, 0.0056367, -0.0143856, 0.0065994, 0.0327443, -0.0571916, 0.0181341, -0.0793895, -0.0497553, 0.0263237, 0.0756910, 0.0413817, -0.0361326, 0.0008612, -0.0974876, -0.1133171, 0.0464513, -0.1047973, -0.0424782, -0.1367718, -0.0320841, -0.0046156, -0.0692591, -0.1259026, -0.0138820, -0.0470761, -0.1220250, 0.0388253, 0.0887263, -0.0131771, 0.0770473, -0.0013343, 0.0518440, 0.0493098, 0.0545062, 0.0376375, 0.0215857, -0.0745977, -0.0330775, -0.0925889, 0.0185854, 0.0601536, 0.0021001, 0.1318275, 0.0251072, -0.0521696, -0.0364937, -0.1138012, 0.0653911, 0.0832208, -0.0142953, 0.0836378, -0.1095613, -0.0462946, 0.0879820, 0.0553691, 0.0078524, -0.0611253, -0.0558006, -0.0566887, 0.0064252, -0.0100941, -0.0710577, 0.0319081, 0.0050003, 0.0345690, 0.0234051, 0.0798281, 0.0380112, -0.1560226, 0.0285554, 0.0189431, -0.1413432, 0.0110056, 0.0480490, 0.0428293, 0.0474269, 0.0586136, -0.0001737, -0.0678189, 0.0422873, -0.0301289, 0.0920935, 0.0608605, -0.0108543, 0.0566230, -0.0617686, 0.0302887, -0.0411472, -0.0771931, -0.0381534, 0.0140488, 0.0123636, -0.0494296, -0.0010875, -0.0764572, 0.1178139, -0.0475643, -0.1138182, 0.0347713, 0.0974640, -0.0900453, 0.1111734, -0.0675886, 0.0467199, 0.0061825, 0.0467778, 0.0477031, 0.0018031, 0.0467348, 0.0119052, 0.0243836, -0.0695675, 0.0314906, 0.0654027, 0.0131360, 0.0419138, 0.0590208, -0.0115479, 0.0281368, 0.0605435, -0.0101147, 0.0627647, -0.0028723, 0.0501616, 0.0285115, -0.0531490, -0.0176053, -0.0650226, 0.0311763, 0.0094826, 0.0323752, 0.0016026, -0.0101535, 0.0154335, 0.0027606, -0.0091363, 0.0244446, -0.0882318, 0.0215751, 0.0071966, -0.0210374, 0.0141683, -0.0155540, -0.0274532, 0.0148882, 0.0503483, -0.0716091, -0.0623264, -0.0464917, 0.0079828, 0.0752477, -0.0349627, -0.1180613, -0.1313040, -0.0704911, -0.0095909, 0.0167830, 0.0779847, -0.0805260, 0.0416155, 0.1103413, -0.1399522, 0.0205957, -0.0385374, 0.0405974, 0.0304024, 0.0476023, 0.0341241, -0.0751181, 0.0277347, 0.1055441, 0.0974092, 0.0189457, 0.0214143, -0.0264484, 0.1569013, 0.1096141, 0.0948412, 0.1407176, 0.1219978, -0.0927667, -0.0031211, -0.0159429, -0.0151450, -0.1213223, 0.0298726, -0.0454898, -0.1145440, 0.0563462, -0.1545173, 0.0287119, 0.0460117, 0.0532248, -0.0143624, 0.0071674, 0.0134954, -0.0182757, -0.0408228, -0.0488050, 0.0268531, -0.0134169, 0.0303589, -0.0787317, 0.0902285, 0.0127512, -0.1191962, 0.0512071, 0.0148869, 0.0415679, 0.0067545, 0.0611864, -0.1091898, 0.0374379, -0.0300497, -0.1038665, 0.0891073, 0.0211188, 0.0710013, -0.0507535, -0.0117084, 0.0309389, -0.0773724, -0.0699848, 0.0050089, -0.0801886, -0.1643482, 0.1726996, 0.0645118, -0.0344842, 0.0220705, -0.0095656, -0.0517414, 0.0097530, -0.0290723, 0.0508721, 0.0912826, -0.0032437, -0.0807780, 0.0186581, -0.0947561, -0.0672790, 0.0088330, -0.1197139, 0.0306466, -0.0615310, -0.1067715, 0.0578803, 0.0385451, 0.0037676, 0.0727069, 0.0640863, 0.0459152, -0.0330256, 0.0473664, 0.0695335, 0.0365440, -0.0852055, -0.0641303, 0.0277541, -0.0405781, -0.0255780, 0.0423596, -0.0337065, 0.0028418, 0.0610975, -0.0963167, -0.0751276, -0.1069584, -0.0678322, -0.0557179, 0.1034477, -0.0648183, 0.0600119, 0.0608708, -0.0143244, 0.0298472, 0.0020716, -0.0554150, 0.0663698, 0.0187676, -0.0356806, 0.0972488, -0.0591057, -0.0159933, -0.0089566, 0.0769479, 0.0055407, -0.0666912, -0.0215800, 0.0308853, 0.0331952, -0.0196943, 0.0614194, -0.0228146, -0.0784528, 0.0931881, -0.0278372, 0.0039536, 0.0665751, -0.0068936, -0.0228860, 0.1250851, -0.0531767, 0.0100038, 0.1214145, -0.0091998, 0.0309699, 0.0396781, -0.0732953, 0.0450621, -0.1168064, -0.0103992, -0.0641561, -0.0875118, 0.1218146, 0.0294419, 0.0628635, 0.0342014, 0.0085374, 0.0292313, -0.0658027, 0.0243873, 0.0192752, 0.0803027, 0.0945408, -0.1379088, 0.0095938, -0.0078518, 0.0318819, -0.0707991, 0.0013099, 0.0443972, -0.0546323, 0.0665679, 0.0818982, -0.0244946, 0.0367614, 0.0248786, -0.0177929, -0.0500017, -0.0165070, -0.0141515, -0.0211307, 0.1679758, 0.0349118, -0.0787448, 0.0297302, -0.0625184, -0.0469248, 0.0200490, -0.1106163, -0.0318462, -0.0184101, -0.1028265, 0.0079977, 0.0129129, 0.0076518, -0.0177365, -0.0014208, -0.1016926, 0.0427484, 0.0564416, -0.0659906, 0.0147421, 0.0899820, -0.0154375, -0.0915189, 0.1034207, 0.0161477, -0.0671893, 0.0107928, -0.0086921, 0.0316189, 0.0877211, -0.0016336, -0.0261176, 0.0766452, 0.0202233, 0.0380371, -0.0445193, -0.0072863, 0.0774207, -0.0098667, 0.0273959, 0.0463062, -0.0162787, -0.0861457, -0.0238652, 0.0098430, -0.0560369, -0.0461812, 0.0541182, 0.0172338, 0.0132634, 0.0401156, 0.0575380, -0.0320278, 0.0292626, -0.0338752, 0.0235588, -0.0431510, 0.0006702, 0.0522812, 0.0215461, 0.0142140, 0.0188736, 0.1439054, -0.0040313, 0.0050023, 0.0034479, -0.0745277, -0.0708508, 0.0023927, -0.0875967, -0.0312031, 0.0421524, -0.0180353, -0.0064763, -0.0504060, -0.0076210, -0.1179228, -0.0516567, 0.0047740, -0.0323787, -0.0091472, 0.0436565, -0.0253933, -0.0098913, 0.0324697, 0.0704002, -0.0273544, 0.0425568, 0.0032404, 0.0199637, -0.0455370, -0.0062176, -0.0777780, 0.1054964, -0.0620410, -0.0290124, 0.0397128, -0.0000743, -0.0232797, 0.0827823, -0.0349695, 0.0600504, -0.0411824, 0.0718105, 0.0205698, -0.0845067, 0.0462927, -0.0338205, -0.0210307, 0.0399742, 0.0589375, 0.0606563, -0.0242250, 0.0351982, -0.0211664, -0.0793849, -0.0200399, -0.0502891, -0.0263038, -0.0723840, 0.0854376, -0.0708793, -0.1293484, 0.0638787, 0.0238207, 0.0487325, -0.0927012, -0.0114967, 0.0022034, 0.0569461, -0.0061369, 0.0438063, 0.0601485, -0.1153091, -0.0023066, -0.0246899, 0.0207258, -0.0748558, -0.0262540, 0.0867197, -0.0548039, 0.0080431, -0.0395269, 0.1076817, 0.0077876, 0.0428056, 0.0754120, -0.0196069, 0.1167395, 0.0801145, -0.0137146, 0.0077741, -0.0095557, 0.0324896, -0.0392478, 0.0137164, -0.1012779, -0.0955362, 0.0469539, -0.0816117, -0.0593493, 0.0132652, 0.0235387, -0.0173711, 0.0052117, -0.0433451, 0.0534143, 0.0324198, -0.0787069, -0.0156215, -0.0829960, 0.0239882, -0.0122262, 0.0342382, 0.0904404, 0.1002689, 0.0241192, 0.0200947, -0.0422704, 0.0608011, 0.0427536, -0.0780273, -0.0009693, 0.1024699, -0.0432907, -0.0154084, 0.0511551, 0.0079994, -0.0131225, -0.0148283, -0.0618928, -0.0331219, 0.0146238, -0.0440517, 0.0207430, 0.0494558, 0.0702651, 0.0530946, -0.0400808, -0.0087433, 0.0082887, 0.0044365, -0.0263055, 0.0120497, 0.1061567, -0.0778911, -0.0663997, 0.0266198, -0.0015839, -0.0561832, 0.0608903, 0.1388848, -0.0243178, -0.0239314, 0.0232248, -0.0000740, 0.0160803, -0.0148790, 0.0863583, 0.0348030, 0.1186733, 0.0638399, -0.0044259, 0.0110687, -0.1639060, 0.0510760, -0.0428942, -0.0338074, -0.0000962, 0.0079130, -0.0370599, -0.0332419, 0.0432587, 0.0271814, -0.0509611, 0.0289247, -0.0271033, 0.0069520, 0.0656101, -0.0164095, 0.0395924, 0.0552493, 0.0681037, 0.0634903, 0.0046166, -0.1240184, 0.0099432, 0.0778612, -0.0994838, 0.0513340, 0.0622292, -0.0511514, -0.1222184, 0.0017691, -0.0518429, -0.0203414, -0.1239912, -0.0352505, 0.0003361, 0.0121427, 0.0049734, -0.0028990, 0.0333400, 0.0346059, 0.1098545, -0.0405141, 0.0189207, 0.1351589, 0.0044685, 0.0371759, -0.0438741, -0.0205372, -0.0067706, 0.0069894, 0.0382390, -0.0320335, -0.0156549, -0.0231824, -0.0588641, 0.0309445, 0.0185313, -0.1011391, 0.0631762, 0.0046967, -0.0866013, 0.0756223, 0.0374704, 0.0587070, 0.0348131, -0.0027199, 0.0672513, 0.1051072, 0.0366915, 0.0541760, 0.0834158, 0.0537115, 0.0777014, -0.0017437, 0.0060681, -0.0221524, -0.0703913, -0.0598880, -0.0204778, -0.0616333, -0.0156851, 0.0247564, 0.0191309, 0.0019215, 0.0548555, 0.0277542, -0.0336234, 0.0336402, 0.0150319, 0.0419051, 0.0001883, -0.0810963, 0.0340589, -0.0260990, -0.0607385, -0.0233668, -0.0203076, 0.0047554, -0.0102030, 0.0461805, 0.0801390, 0.0417899, -0.0738014, 0.0280475, 0.0302360, -0.0352522, 0.0189972, 0.1063434, 0.0056362, 0.0717100, 0.0053032, 0.0139857, 0.0027869, 0.0244073, -0.0139375, -0.0105156, -0.0963732, 0.0064682, -0.0082059, 0.0031081, 0.0572442, 0.0055239, -0.0052776, 0.0949357, -0.0340619, 0.0241556, -0.0080214, -0.0303010, 0.0231326, 0.1562598, 0.0273127, 0.0723327, 0.1483694, -0.0100157, -0.1225652, 0.0452053, 0.0100770, 0.0574192, -0.0250395, 0.1332526, 0.0545700, -0.0323564, 0.0437878, -0.0795735, 0.0159549, -0.0349445, -0.0335090, -0.0871474, -0.0291270, 0.0484294, -0.0906153, -0.1123860, 0.0555296, 0.0330431, -0.0752460, -0.0480163, -0.0016833, -0.1087546, -0.0591490, 0.0434717, -0.0022782, -0.0587211, 0.0326013, 0.0095741, 0.0297813, -0.0029595, 0.0219741, 0.0769934, 0.0333601, -0.0720742, -0.0237450, 0.0921656, 0.0261079, -0.0381732, 0.0328817, 0.0803601, -0.0513507, 0.0033947, 0.0122048, 0.0705453, -0.0036798, -0.0416191, -0.0277670, 0.0225967, 0.0578905, 0.0411785, 0.0296589, 0.0225981, -0.1182298, 0.0375965, 0.0870447, 0.0458339, 0.0326424, 0.0472340, -0.0460285, 0.0381731, 0.0713553, -0.1025834, -0.1084110, -0.0789637, 0.0543551, 0.0582000, -0.0530073, -0.0090823, 0.0178249, -0.0543795, -0.0298879, -0.0970834, 0.0761511, -0.0189224, -0.0180479, 0.0124905, -0.0132209, -0.0217718, 0.0178637, -0.0004906, -0.0133228, 0.0051112, 0.0572781, 0.0216819, 0.0064609, -0.0009564, 0.0291847, 0.1224584, -0.0620746, -0.0377439, 0.0221462, 0.0574950, 0.1163475, -0.0286517, -0.0654983, 0.0807146, -0.0183725, -0.1002654, 0.1455417, 0.0011449, 0.0692321, -0.0454649, 0.1031888, 0.0795443, 0.0000655, 0.0607432, 0.0373241, -0.0335446, 0.0078325, 0.0711966, -0.0442334, 0.0294606, -0.1311371, -0.0579688, 0.0600633, -0.1191822, -0.0417945, -0.1273511, -0.0203736, -0.0925943, 0.1134562, -0.0768746, -0.0826958, 0.0800160, 0.0131218, 0.0321130, 0.0556816, 0.0219754, -0.0652407, -0.0437725, 0.0670164, -0.0707166, -0.1104885, 0.0230155, 0.0667653, -0.0610012, 0.0098870, -0.0539600, -0.0328449, -0.0318468, -0.0937402, 0.0639163, -0.0719113, -0.0126827, -0.0316147, 0.0412587, -0.0325095, -0.0044299, -0.0339501, -0.0434642, 0.0081906, 0.0081545, 0.0198855, -0.0399216, 0.0032666, 0.0254825, -0.0719711, 0.1093735, 0.0470994, 0.0351859, -0.0308620, -0.0092447, -0.0121644, -0.0218568, -0.0232756, 0.0106497, 0.0556229, 0.0071386, 0.0169063, -0.0169229, -0.1054016, -0.0859903, -0.0110204, -0.0758863, 0.0443296, 0.0329069, -0.0448950, 0.0219473, 0.0053084, 0.1066549, -0.0543776, -0.0343367, 0.0199798, -0.0009054, 0.0085327, 0.0146405, -0.0800043, -0.0006168, 0.0534825, 0.0016925, -0.0323122, -0.1015697, -0.0125102, -0.0625751, -0.0781499, -0.0813082, -0.0186795, -0.0541697, -0.0474115, -0.0334700, -0.0020461, 0.0598986, 0.0954209, -0.0265903, 0.0796586, -0.0187304, -0.0457750, 0.0104372, -0.0125534, -0.0611582, -0.0851036, 0.0357518, -0.0081333, -0.0898943, -0.1335751, 0.1222958, -0.0742375, 0.0545014, -0.0681247, 0.0400137, 0.0789122, -0.0682794, 0.0040591, -0.0768853, 0.0878684, 0.0060319, -0.0124068, 0.0227810, -0.0230887, 0.0669792, -0.0053407, -0.1121686, -0.0488091, -0.0119546, 0.0249535, 0.0380914, 0.0836564, 0.0073006, 0.0180345, 0.1310413, 0.0587013, -0.0127578, 0.0514928, -0.0034710, 0.0573771, 0.0141192, 0.0631307, 0.0455286, -0.0224632, -0.0408955, -0.0056439, -0.0932098, 0.0072451, -0.0298840, 0.0331246, -0.0603730, 0.0519369, 0.0815452, -0.1448220, 0.0862165, 0.1036886, 0.0017676, -0.0345625, -0.0336007, 0.0517683, -0.0521034, 0.0005066, -0.0017438, 0.0153613, 0.0235527, -0.0331213, 0.0655696, -0.0148824, 0.0235808, 0.0245829, 0.0280058, -0.0347094, -0.0012252, -0.0342793, 0.0107464, 0.0410551, 0.0013867, -0.0305688, 0.0882937, -0.0095267, -0.0045397, -0.0138551, -0.0117437, -0.0305749, -0.0093814, 0.0917933, -0.0429482, -0.0175291, 0.0703397, -0.0382367, 0.0242843, 0.0066474, -0.0128603, 0.0281637, -0.0234344, 0.1074194, 0.0248594, -0.0407430, 0.0995590, -0.0124201, -0.0046679, -0.0179623, 0.0149266, -0.0386736, 0.0466729, -0.0478812, -0.1023250, 0.0270469, -0.1150259, -0.0549734, 0.0563391, -0.0109301, -0.0319094, 0.0135377, -0.0036005, -0.0221976, 0.0209963, 0.0535967, -0.0199571, 0.0114656, -0.0367985, 0.0640092, -0.0189477, -0.0521867, 0.0421980, -0.0121407, 0.0655816, 0.0681542, 0.0760283, 0.0525190, 0.0686431, 0.0482274, 0.0128569, -0.0170707, 0.0411748, -0.0040254, -0.0244289, -0.0413533, -0.0091110, 0.1504086, -0.0507155, -0.0482961, 0.1393114, -0.1310051, 0.0437092, 0.1173645, -0.0797037, -0.0287556, -0.0359047, -0.0198513, 0.0358347, -0.0016567, -0.0629694, 0.0361505, 0.0204752, 0.0403737, 0.0298312, 0.0392721, -0.0661011, -0.0902033, 0.0345298, -0.1053120, 0.0028634, -0.0776574, -0.0076271, 0.0042983, 0.0591180, -0.0734068, -0.0110275, -0.0288538, -0.0153314, 0.0453605, -0.0417757, -0.0573868, 0.0016251, 0.0370432, 0.0263241, -0.0154363, 0.0524776, -0.0177998, -0.0200404, 0.0728920, 0.1069427, 0.0004273, 0.0084779, 0.0076572, 0.0302923, -0.0165098, 0.0027581, -0.0215058, 0.0280455, 0.0116364, 0.0336967, -0.1157398, 0.0382822, 0.0085425, -0.1241662, 0.0081041, -0.0255510, -0.0018976, -0.0168689, 0.0153466, -0.0522742, -0.0328847, -0.0851185, 0.0069184, 0.0142591, -0.0080890, -0.0425938, -0.0197806, 0.0223022, 0.0274406, -0.0650855, 0.1406482, 0.0079041, 0.0429242, 0.0107783, -0.0041048, 0.0830929, -0.0238913, 0.0378355, 0.0496549, 0.0808373, 0.0703178, 0.0689359, 0.0041783, -0.0438337, -0.0023762, -0.0401072, 0.0127586, -0.0069130, 0.1412485, 0.0045097, -0.0457224, -0.0607336, -0.1213364, 0.0373699, 0.0161607, 0.0329750, -0.0602020, 0.0741564, -0.0792733, 0.0415971, -0.0287619, -0.0543689, -0.0470772, -0.0372247, 0.0173642, 0.1028210, -0.0749158, -0.0082248, 0.0152095, 0.0028266, 0.0039880, 0.0248708, 0.0010717, -0.0650686, -0.0056226, -0.0206186, -0.0572701, -0.0221028, 0.0190991, 0.0418839, 0.1105022, 0.0132840, -0.0313943, 0.0041392, 0.0517440, 0.0170460, 0.0503181, 0.0077296, -0.0225631, -0.0570010, 0.0135508, 0.0152109, -0.0635012, 0.0709339, -0.0015421, 0.0181882, 0.0413874, 0.0497782, -0.0143012, 0.0074534, 0.0426544, -0.0487685, -0.0324620, 0.0364479, -0.0142865, 0.0073458, -0.0037581, -0.1044441, 0.0079957, -0.0750393, 0.0326837, 0.0234166, -0.0420470, 0.0054064, 0.0055803, -0.0358854, 0.0233558, 0.1099185, -0.0192645, 0.0940740, 0.0188788, 0.0410393, 0.0125577, 0.0432188, 0.0454420, -0.0119002, 0.0239256, 0.0535432, 0.0023420, 0.0193368, -0.0177188, -0.0528294, 0.0072831, -0.0049982, 0.0291380, -0.0278180, 0.0275602, -0.0058440, 0.0089640, 0.0128315, 0.0092835, 0.0199854, 0.0142556, 0.0620644, -0.0293754, -0.0155467, 0.0245945, 0.0676376, 0.0514205, -0.0987146, -0.0064417, -0.0686653, 0.0297634, 0.0123509, 0.1306027, -0.0900859, 0.0385762, 0.0911667, -0.1500350, -0.0469411, 0.0790520, 0.0696844, -0.0153281, -0.0982251, 0.0593593, 0.0999126, -0.0955399, 0.0957998, 0.0610054, 0.0622452, 0.1240090, -0.0754063, -0.1406240, 0.0921637, 0.0556125, -0.0864693, 0.0893165, 0.0019054, 0.0043501, -0.0614156, 0.0160138, 0.0649092, 0.0369219, -0.0044633, 0.1173664, 0.0079810, 0.0669105, -0.1469960, -0.0554606, 0.0023269, -0.1167372, -0.0059515, -0.1244326, -0.0949523, 0.0103838, -0.0372725, 0.0180158, 0.0813506, 0.0446221, -0.0138432, 0.1143957, 0.0828366, -0.0066817, 0.0672198, -0.0717716, -0.1164949, -0.0134503, 0.0132309, 0.0813535, -0.0084022, 0.0295128, 0.0892615, -0.0922618, 0.0149639, -0.0831449, -0.0879018, -0.0060755, -0.0773699, -0.0849541, 0.0071463, -0.1125990, 0.0991954, 0.0145752, 0.0278016, 0.0322699, -0.0458359, -0.0322400, 0.0085420, 0.0505813, -0.0171322, -0.0334681, -0.0689145, 0.0248627, -0.0119308, -0.0088247, 0.0148730, 0.0072368, -0.0695006, 0.0369901, 0.0026970, 0.0095089, -0.0230893, 0.0043338, 0.0678612, -0.0748346, -0.0204461, 0.0025359, -0.0219367, 0.0217046, -0.0095097, 0.0775224, 0.0740115, -0.0738063, -0.0312238, -0.0520883, 0.0866587, 0.0463865, -0.0312840, 0.0152277, -0.0457470, 0.0009621, -0.0717341, 0.0324969, -0.0183150, 0.1112519, 0.0172753, -0.0472789, -0.0472364, 0.0369563, -0.0170484, -0.0622682, 0.0270407, 0.0756542, -0.1025148, 0.0593790, -0.0074283, -0.0219807, 0.0623029, -0.0321035, 0.0091578, -0.0494183, -0.0139946, -0.0072363, -0.0285232, 0.0713804, -0.0052283, -0.0288366, 0.1515697, -0.0071979, -0.0201277, 0.1557789, 0.0509032, 0.0129705, 0.1048573, -0.0293605, -0.0653626, 0.0269533, -0.0124287, 0.0286158, -0.0444102, 0.1083306, 0.0537615, -0.0445122, -0.0130189, 0.0031352, 0.0793916, -0.0098625, 0.0801653, -0.0473635, 0.0147634, 0.0877165, -0.0393295, -0.0013105, -0.1105984, -0.0013620, -0.0081234, -0.0737745, -0.0091422, 0.0061470, -0.0121838, -0.0052515, -0.0130954, -0.0873450, -0.0650150, -0.0362894, -0.0532593, -0.0656047, 0.1312270, -0.0769894, -0.0899126, -0.0339143, 0.0804901, -0.0745403, -0.0053503, 0.0648870, 0.0847730, 0.0554441, 0.0524082, -0.0160074, 0.0221948, -0.0543594, -0.0767042, 0.0153940, 0.0643363, -0.0178048, 0.0529459, 0.0649187, 0.0306131, 0.0045269, -0.0001295, -0.0342626, -0.0210410, 0.0204010, -0.0894654, -0.0269582, 0.0468466, -0.0638283, 0.0154559, 0.0880100, -0.0128238, -0.0170292, 0.0264726, 0.0407384, -0.0563228, -0.0429494, 0.0051967, -0.0187760, 0.0751566, 0.0486411, 0.0455538, -0.0106429, 0.0592288, 0.0282110, -0.0092594, 0.0661852, 0.0546986, 0.0394791, -0.0014625, -0.0408815, -0.0478378, 0.1082672, -0.0960094, -0.0500522, 0.1058050, -0.0075714, -0.0197735, 0.0104769, -0.0053362, -0.0086342, -0.0908457, -0.1272110, -0.0180908, -0.0383264, 0.0162776, 0.0291655, -0.1064810, -0.0180358, -0.0166960, 0.0070791, 0.1885076, -0.0120648, 0.0412123, 0.2425088, 0.0978212, -0.0647506, 0.0170434, -0.0253354, 0.0567138, 0.0093259, -0.0015000, 0.0507315, 0.0121314, 0.0715676, 0.0430198, -0.0371966, 0.0988591, 0.0561183, -0.0328079, 0.1406805, 0.0737943, -0.0129914, -0.0275273, -0.0509901, 0.0610562, 0.0461246, -0.0095194, -0.0967975, 0.0512229, -0.0576625, 0.0778742, 0.0220873, -0.0342289, -0.0232514, -0.0062761, -0.0584321, 0.0140546, -0.0217051, -0.0343045, -0.0320677, -0.0668943, -0.0009690, 0.0087735, 0.0221202, 0.0144756, 0.0093699, 0.0839034, 0.0325896, 0.1836815, -0.0256137, 0.0098590, 0.0246484, 0.0264759, -0.0548110, 0.0941934, 0.0092302, -0.0574442, 0.1944436, -0.0492453, 0.0014394, 0.0099863, 0.0238732, -0.0101462, 0.1174740, -0.0473637, -0.0337233, -0.1414076, -0.0300795, 0.0429974, -0.0038611, 0.0962963, -0.0251818, -0.1713707, 0.1073555, -0.0454653, -0.1237847, 0.1197488, 0.0073510, 0.0015205, -0.0336919, 0.0606943, -0.0467818, 0.0242634, 0.0628528, -0.0746487, -0.0204058, -0.0744925, -0.0111187, -0.0142906, 0.0188073, -0.0703740, -0.0813410, -0.0110072, -0.0285739, -0.0093824, 0.0044689, -0.0059347, -0.0823290, -0.0211949, 0.0899338, -0.1007735, -0.0004717, 0.0228676, 0.0178368, 0.0293439, 0.0333909, 0.0359578, -0.0121929, 0.2918435, 0.0185641, -0.0039407, 0.1989864, 0.0029864, -0.0645138, 0.0002992, 0.0181173, 0.1474578, -0.2032509, 0.0342725, 0.0914285, -0.2100345, -0.0879709, 0.0507302, -0.0671036, 0.0132725, -0.0049042, -0.1287435, 0.0425363, 0.0578270, -0.0895159, -0.0508560, 0.0147923, 0.0301709, 0.0148514, -0.0076491, -0.3035845, -0.0172952, 0.0313023, -0.1803394, -0.0323095, 0.0166824, 0.0318729, 0.0379956, 0.1342522, 0.0627832, 0.0354657, 0.0406074, 0.0147248, 0.0442328, 0.0082063, -0.0251495, 0.0720192, -0.0331229, 0.0653047, -0.0088865, 0.0030836, 0.0473022, 0.0053928, 0.0289927, 0.0066819, -0.0625416, -0.0247833, -0.0706000, -0.0624637, 0.0023819, -0.0115343, -0.0271348, 0.0295876, -0.0350146, -0.0260556, 0.0009162, 0.2049844, -0.0712267, -0.0722150, 0.0560049, 0.0397506, -0.0091529, 0.0506784, -0.0264331, -0.0764088, -0.0009788, -0.0096919, -0.0048899, 0.0434873, -0.0323471, -0.1102095, 0.0339319, -0.0092287, -0.0745666, 0.1380506, -0.0567269, -0.0903121, 0.0130702, 0.0307618, -0.0415216, 0.0196301, -0.0400473, -0.0928154, 0.0352115, -0.0632886, -0.0937383, -0.0358512, -0.1102653, 0.0490208, -0.0145451, 0.0433167, -0.0941731, -0.1664013, 0.0481022, 0.0021070, -0.2173454, 0.0661079, 0.0506389, -0.0039892, -0.0384410, 0.0469078, 0.0405967, -0.0344636, 0.0604743, -0.0985224, 0.0205602, 0.0383757, -0.0614182, 0.0219580, -0.0290467, 0.1045917, 0.0723767, -0.0231033, 0.2097537, 0.0179753, 0.0298580, 0.0466294, -0.0374072, -0.0025751, -0.2421600, 0.0065913, -0.0004054, -0.1914696, -0.0225635, 0.0300845, -0.0016836, 0.0428609, -0.0779966, 0.0492131, 0.0439934, -0.0160184, -0.0106381, 0.0380980, 0.0470421, 0.0973014, -0.0390353, 0.0183137, 0.0343614, -0.0402850, 0.0170865, 0.1061191, -0.0348698, -0.0578436, -0.0012725, 0.0132411, -0.0123185, 0.0382528, -0.0344507, 0.0004934, -0.0572963, -0.0859133, 0.0232089, 0.0065251, 0.0161852, 0.0799757, -0.1220383, 0.0388862, 0.0639023, -0.1284610, -0.0254957, 0.1199627, 0.0734320, -0.0702186, 0.0613593, 0.1038939, -0.0389093, 0.0382662, -0.0036954, -0.0041179, 0.0833208, -0.0477548, -0.0535324, 0.0837841, 0.1505042, -0.0296126, 0.1162375, -0.0310372, 0.0364582, -0.0160006, -0.0370647, -0.0856650, -0.0709501, 0.1039128, -0.0780177, -0.0136241, 0.0877040, 0.0810672, 0.0125467, -0.0359690, 0.0308732, 0.0347065, 0.0265364, 0.0963438, 0.0011704, 0.0147242, -0.0668711, -0.0608646, 0.0194513, 0.0842250, 0.0778317, -0.0649189, 0.0592885, 0.0796797, -0.0912778, 0.0536930, 0.0021610, -0.0230856, 0.0151059, -0.0811834, -0.1541296, -0.0571848, -0.0559470, -0.0248195, -0.0252507, 0.0525205, 0.0299838, 0.0145694, 0.0186143, -0.0125104, 0.0037219, -0.0512541, -0.1017001, 0.0023931, -0.0097342, 0.0132178, 0.0135581, -0.0318534, -0.0322112, 0.0343244, -0.0175949, -0.0774038, -0.0346982, -0.0107175, -0.0001716, 0.0040023, -0.0512462, 0.0709490, 0.0072601, -0.0298548, 0.0038042, 0.0398250, -0.0441816, 0.0283007, 0.0063155, -0.0029483, 0.2259227, 0.0324785, -0.0108238, -0.0967662, 0.0035015, -0.0026458, 0.1175908, -0.0629935, 0.0549814, 0.0469645, -0.0521368, 0.0381626, 0.0441996, 0.0177198, 0.0502638, 0.0316944, -0.0189553, -0.0390487, 0.0870867, -0.0022425, -0.0560466, -0.0082118, -0.0022420, -0.0144983, -0.0181857, -0.0316268, 0.0479032, -0.0110416, -0.0844198, 0.0315490, 0.0179742, -0.0227572, 0.1053184, 0.0016505, 0.0531941, 0.0082364, -0.0020056, 0.0395852, 0.0384267, 0.0219104, 0.0130917, -0.0683729, -0.0259750, -0.0868632, -0.0443875, -0.0785522, -0.0419938, -0.0227387, -0.0113903, 0.0440768, -0.0500530, 0.0576775, -0.0868723, -0.0079212, -0.0166334, -0.0833880, -0.0128816, -0.2134129, 0.0330433, -0.0428644, 0.0237055, -0.0002122, -0.0923060, -0.0067318, -0.0267860, -0.0972543, 0.0839543, -0.0125070, -0.0453674, -0.0169495, 0.0553020, 0.0033200, -0.0591362, 0.0435742, 0.0389551, 0.0089993, -0.0006352, -0.0232850, -0.0071536, 0.0330706, 0.0306558, 0.0363366, 0.0692197, -0.0155033, 0.0469880, -0.0578979, 0.0027640, -0.0100165, 0.0064295, -0.0799341, -0.0692602, -0.0825228, -0.1104767, 0.1032572, 0.0882230, -0.0011355, -0.0168512, -0.0290072, 0.0336417, -0.0076654, 0.0773117, 0.0402723, 0.0827458, -0.0080102, -0.0718451, -0.0771953, 0.0872886, -0.0732994, 0.0501822, 0.0381530, -0.0282877, -0.0197543, -0.0047474, -0.0112985, -0.0171388, -0.0243395, 0.0345705, -0.1117761, -0.1036238, 0.0219934, -0.0108596, 0.0271570, -0.0138115, -0.0150423, -0.0951027, 0.0132819, 0.0141103, -0.0535925, 0.0602337, -0.0373796, 0.0380810, 0.0215186, -0.0350429, -0.1421437, 0.0024596, 0.1418840, -0.1068087, 0.0418606, 0.0558270, -0.0258286, -0.0016482, 0.0536202, 0.0381429, 0.0681445, -0.3137169, -0.0111655, 0.0320032, -0.2515106, -0.0001646, 0.1031291, -0.0380070, -0.0336440, -0.1033088, 0.0400754, -0.0134748, -0.0714958, 0.0074234, -0.0704502, -0.0005548, 0.0896259, -0.0189486, 0.0812660, -0.0018822, -0.0718629, -0.0094663, 0.0368323, 0.0237900, 0.0028917, 0.0310994, -0.0876933, 0.0680498, -0.0649013, -0.1093833, 0.0506753, 0.0996760, -0.0071609, -0.1075467, -0.0448516, 0.0630830, -0.0292555, 0.1199051, 0.0697704, 0.0007350, -0.0381879, 0.0071807, 0.0177071, -0.0267994, -0.0502052, 0.0278921, 0.0284580, -0.0348641, 0.0094083, -0.0291046, 0.0998889, 0.0761325, 0.0203615, -0.0316646, 0.0153888, -0.0498605, -0.0092615, 0.0232926, 0.0181607, 0.0674921, -0.0394101, -0.0088993, 0.0295950, -0.0403983, -0.0343140, 0.0520020, -0.0133669, 0.0270519, 0.1038635, -0.0594504, -0.0044404, 0.0299495, 0.0572094, -0.0420635, 0.0135021, -0.0860617, 0.0362756, -0.0093483, -0.0623428, 0.0174966, 0.0774049, 0.0303017, -0.0338609, 0.0672329, -0.0046344, 0.0083270, -0.0317568, -0.0043260, 0.0110994, 0.0784549, -0.0361116, 0.0535458, 0.1007156, -0.0251070, 0.0306893, 0.0468645, 0.0036114, 0.0109869, -0.0201108, 0.0084876, 0.0039134, -0.0118388, -0.0670655, -0.0295536, -0.0823054, -0.0044114, -0.0138589, 0.0486252, 0.0092816, -0.0324273, 0.0326497, 0.0438514, 0.0157409, -0.0278053, 0.0070873, -0.0632338, -0.0585374, 0.0074355, -0.0076452, -0.0392724, 0.0736903, -0.0324167, -0.0411964, -0.0157053, 0.0750801, -0.0016280, -0.0019041, 0.0071452, 0.0011124, -0.0332758, -0.0391522, 0.0171638, -0.0151309, 0.0290034, 0.0880843, 0.0286190, -0.0878678, 0.0605723, -0.0233287, 0.0713665, 0.0856599, 0.0040391, -0.0486531, 0.0210450, 0.0266103, -0.0147708, -0.0138660, -0.0695761, 0.0006377, 0.1400130, 0.0185747, -0.0059616, 0.0887477, 0.0457090, -0.0101546, 0.0906292, 0.0160337, 0.0043242, 0.0230752, 0.0481738, 0.0314349, 0.0731991, -0.0492964, -0.0793028, 0.0423443, 0.0369089, 0.0091274, 0.0276326, 0.0251617, 0.0009130, -0.0228153, 0.0878461, -0.1082431, -0.0534874, 0.0320726, 0.0489190, 0.0393738, 0.0455511, -0.0040528, 0.0311412, -0.0256875, -0.0101341, 0.0410945, -0.0167720, 0.0353978, 0.0876401, 0.0515027, -0.0042910, -0.0295656, -0.0422128, 0.0775242, 0.0069742, 0.0593259, -0.0191855, -0.0741652, -0.0430566, 0.0056500, 0.0394834, -0.0208425, 0.0936397, 0.0358891, 0.0471609, -0.0298030, 0.0019637, 0.0174742, -0.0152073, -0.1295527, -0.0166659, 0.1179952, -0.1314770, 0.0504013, -0.0844485, -0.0019101, -0.0612486, -0.0298688, 0.0443646, 0.0128223, -0.0383258, 0.0641653, -0.0153081, 0.0448361, 0.0298485, -0.0526599, 0.0100183, 0.0448048, 0.0529622, -0.0883244, 0.0142867, 0.0275692, 0.0699096, -0.0605236, 0.0669944, 0.0103288, 0.0925852, -0.0944002, -0.0513140, 0.0638051, 0.0912849, 0.0650631, -0.0163410, -0.0052709, -0.0525634, 0.0894790, 0.0108580, 0.0037160, 0.0947716, 0.1012699, 0.0161040, -0.0307736, -0.0526316, -0.0020393, 0.0742495, 0.0514627, 0.0153418, 0.0903725, -0.0371573, 0.0321334, 0.1069736, -0.0273164, -0.0348580, -0.0242753, 0.0414231, 0.0207215, -0.0351004, -0.0462470, 0.0521962, 0.0292251, -0.0176036, -0.0003962, 0.0019578, 0.0160394, 0.0028444, 0.0356624, -0.0298670, -0.0468848, 0.1354516, -0.0290098, -0.0137245, 0.0126659, -0.0164814, 0.0550000, 0.0139314, 0.1000164, 0.0573701, 0.0897584, 0.0288216, 0.0255347, -0.0761856, -0.0515903, -0.0420211, -0.1054773, 0.0311631, 0.0124006, 0.0676588, -0.0078163, 0.0037353, -0.0422348, 0.0494619, -0.0550038, -0.0164720, -0.0016942, 0.0113045, 0.0070218, 0.0340606, 0.0303509, 0.0343479, 0.0504194, -0.1568083, 0.0126812, -0.0657674, 0.0529463, -0.0673946, 0.0514304, -0.0145740, 0.0357971, 0.0177017, 0.0928360, 0.0105173, -0.0140584, -0.0091130, 0.0037714, 0.0344491, -0.0051812, -0.0288605, 0.0030752, -0.0106247, -0.0104083, -0.0050537, -0.0102747, 0.0916214, -0.0546894, 0.0610416, 0.0194877, -0.0211257, 0.0915917, 0.0039222, -0.0166960, -0.0537370, 0.0313044, -0.0291511, 0.0038620, -0.0020481, 0.0301224, 0.0546542, -0.0053787, 0.0059234, -0.0091017, 0.0079647, -0.0197327, -0.0124084, 0.0773084, -0.0077217, -0.0432808, 0.0634725, -0.0266100, 0.0721077, -0.0551876, -0.0272667, 0.0096982, -0.0469133, -0.0127134, 0.0175202, -0.0190461, -0.0565391, -0.0306884, 0.0705644, -0.0002068, 0.0297331, 0.0464637, 0.0333538, 0.0728116, 0.0145695, 0.0083885, -0.0126001, -0.0561189, -0.0744148, -0.0401276, 0.0141572, 0.0046134, -0.0078613, 0.0433515, -0.0677142, 0.0250885, -0.1365430, 0.0361500, 0.0492096, -0.0588144, -0.0906994, -0.0022826, -0.0496231, -0.0286631, -0.0151463, -0.1904019, -0.0176516, 0.0017872, -0.0028208, -0.0345809, 0.0121624, -0.0141820, 0.0524776, 0.0304827, -0.0884479, 0.0301894, 0.0295916, 0.1125749, 0.0271639, -0.0288514, 0.1094227, 0.0314613, 0.0356318, -0.0630382, -0.0339249, -0.0000174, 0.0519970, -0.0206007, 0.0408531, 0.0471155, 0.0424006, -0.0284646, 0.0069117, -0.0205768, -0.0155107, 0.0715638, -0.0096622, -0.0122884, 0.0940779, 0.0183915, 0.0000915, -0.0710320, -0.0428366, -0.0383379, -0.0302539, 0.0072798, -0.0405465, -0.0250191, 0.0298922, 0.0138954, 0.2048501, 0.0692832, 0.0699624, 0.0948104, 0.0026864, -0.0483870, 0.0820277, -0.0147207, 0.0358591, 0.1169226, -0.0740101, -0.0348332, 0.0845402, -0.0318525, 0.1052510, 0.0873869, 0.0402824, -0.0678025, 0.0193189, 0.0247188, 0.0190735, 0.0663421, -0.0298325, 0.1392205, 0.0702450, -0.0367576, -0.0622455, -0.0373299, -0.0258268, -0.0051531, -0.0315772, 0.0044167, -0.0712918, -0.0080860, -0.0451375, 0.0266013, -0.1016290, 0.1162720, -0.0610331, -0.0546762, 0.0179468, 0.0155920, -0.0438816, 0.0405192, 0.0320892, -0.1067443, 0.0545555, 0.0319230, -0.1133377, 0.0006316, -0.0973011, -0.0698026, -0.0152381, 0.0559356, 0.0552342, 0.0810823, -0.0470297, -0.0182054, 0.0902273, 0.0156116, -0.0427486, -0.0126912, 0.0330626, -0.0215435, 0.0175803, -0.0294144, 0.0657408, 0.0063644, -0.0371750, 0.0431826, -0.0027837, 0.0369711, 0.0728907, -0.0403627, -0.0043987, -0.1276591, -0.0331421, 0.0182639, -0.1364224, 0.0279802, -0.0049290, 0.1361697, -0.0626423, -0.0186091, -0.0758422, -0.0335634, 0.0780369, -0.0858144, 0.0219893, -0.0210013, -0.0473553, 0.0183963, 0.0030874, 0.0568486, -0.0022786, 0.0121928, 0.0527951, -0.0319547, 0.0198866, 0.0197186, -0.0235813, -0.0238516, -0.0078976, -0.0643974, 0.0525409, -0.0090899, 0.0914102, -0.0097472, -0.0213094, -0.0286369, 0.0291226, -0.1368007, 0.0243401, -0.0434302, -0.1510380, 0.0202386, 0.0075793, -0.0335002, 0.0281483, 0.0024595, 0.0641672, 0.0345550, 0.0419492, 0.0340186, -0.0545308, -0.0100993, 0.0816997, -0.0754330, 0.0089472, 0.0348128, 0.0439611, 0.0569304, 0.0420799, -0.1247687, -0.0112244, 0.0731690, -0.1005075, 0.0362416, -0.0880385, -0.0125921, -0.0162017, -0.1032430, -0.0324314, 0.0140633, -0.0303452, 0.0223494, 0.0222734, -0.0286978, 0.1142396, 0.0444524, -0.0212382, -0.0516449, -0.0078574, 0.0935435, -0.0371564, 0.0136134, 0.0301638, 0.0563678, -0.0159360, 0.0103895, -0.0126140, -0.0068220, -0.0360959, -0.0105181, -0.0121399, -0.0042540, 0.0125724, -0.0678028, -0.0024753, -0.0181316, -0.0052204, 0.1385018, 0.0502254, -0.0041214, 0.1191614, 0.0107255, -0.0022958, 0.1741871, 0.0071490, -0.0241189, -0.0308039, 0.0955720, -0.0127261, 0.0363981, 0.0565412, -0.0921166, 0.0610507, -0.0330431, -0.0474754, -0.1414030, 0.0404233, 0.0007392, -0.0160249, -0.0823043, 0.0413735, -0.0100793, -0.0133543, -0.0657479, 0.0044499, -0.0905245, 0.0461287, -0.1031873, -0.0175898, -0.0817480, -0.0784469, -0.0136133, -0.0335329, 0.1166130, -0.0202961, 0.0898739, -0.0210525, -0.0750458, -0.1015628, -0.0692079, -0.0041807, -0.0020690, -0.0588884, 0.0485700, 0.0397523, -0.0013996, 0.0269395, -0.0550864, -0.0075749, 0.0353183, -0.0117681, 0.1117711, -0.0270315, -0.0130452, 0.0828821, -0.1198266, -0.0700641, 0.0573789, -0.0110831, -0.0439780, 0.0366652, 0.0725395, 0.0313969, 0.0166175, 0.0278696, 0.0489248, -0.0077178, 0.0407233, -0.1437934, -0.0631417, 0.0473909, -0.0073013, 0.0147643, 0.0134974, 0.0143895, 0.0212101, 0.0696775, -0.0135911, 0.0773677, 0.0257517, 0.0273421, 0.0529206, -0.0922591, -0.0170972, 0.0889470, -0.0594121, -0.0563698, 0.0187519, -0.0020818, 0.0506940, -0.0141583, -0.0697787, -0.0376775, 0.0025526, -0.0576041, -0.0110688, -0.0033012, 0.0302506, 0.0032776, -0.0588991, -0.1770570, 0.0963036, -0.0454830, -0.0555665, 0.0725663, 0.0780559, -0.0050468, -0.0115842, -0.0260510, -0.0663690, 0.0122571, -0.0250870, -0.1559666, -0.0143292, 0.0103178, -0.0099439, -0.0038151, -0.0047431, 0.0784866, 0.0543374, 0.0104660, 0.0479642, 0.0148239, -0.1068379, -0.0533929, -0.0275611, -0.1156666, 0.0247116, -0.0306088, -0.1316797, 0.0273684, -0.0322259, -0.0844478, -0.0378413, 0.0435609, -0.0430703, -0.0072594, 0.0368887, 0.0168492, 0.0040347, 0.0587969, -0.0107982, 0.0454661, -0.0113694, -0.0065889, 0.0426242, -0.1407079, -0.0047482, 0.0093881, -0.0226536, 0.0040762, -0.1028470, -0.0126226, -0.0142759, -0.1097559, 0.1643309, -0.0308185, -0.2219730, 0.0131882, 0.0012503, -0.0058194, -0.0174372, 0.0973231, 0.1148033, 0.0496261, 0.0916935, 0.0381776, 0.0481681, -0.0290545, -0.0736523, -0.0418722, 0.0333616, 0.0402328, 0.0559376, 0.0130044, 0.0301252, -0.0521488, 0.0168992, -0.0538834, -0.0207345, -0.0451871, 0.0737565, -0.0496015, -0.0383297, 0.0270434, 0.0219583, 0.0216338, 0.0158912, 0.0683600, 0.0409604, 0.0276821, -0.0172848, 0.0304268, -0.0114935, 0.0589563, 0.0590426, 0.0452118, -0.0145139, -0.0906383, 0.0162103, 0.0556628, -0.0697155, 0.0028165, 0.0220204, 0.0083714, -0.0020845, 0.0035032, 0.0881867, 0.0007468, -0.0562783, 0.1120897, 0.0500310, -0.0210318, -0.0369338, 0.0241842, 0.0208795, 0.0386858, -0.0537751, -0.0327164, 0.0391157, 0.0504137, 0.0325284, 0.1161911, 0.1046349, -0.0025123, 0.0354086, -0.0018816, -0.0065457, 0.0495692, -0.0194236, -0.0390240, -0.0433516, -0.0571345, -0.0059734, 0.0037170, 0.0681070, 0.0228941, 0.0002094, -0.0222180, -0.0477653, -0.0137323, 0.0110472, 0.0186207, 0.0059677, -0.0719046, 0.0858030, -0.0137629, 0.0214026, 0.0359400, -0.0515475, 0.0105123, 0.1017428, 0.0267806, 0.0477542, 0.1133330, 0.0379330, -0.0416291, 0.0527881, -0.0143223, 0.0655932, -0.0425234, -0.0093061, 0.0138445, -0.0847141, -0.0487055, -0.0449142, 0.0041506, 0.0142652, -0.0690410, -0.0187326, 0.0175270, -0.0514217, -0.0168128, 0.0249074, -0.0886234, -0.0577198, -0.0114831, 0.0628648, 0.0664134, -0.0002549, 0.0161355, -0.0389800, -0.0354655, -0.0055232, 0.1081991, -0.0435198, 0.0257314, -0.0211707, 0.0066606, 0.0283150, 0.0247696, -0.0026282, 0.0387356, -0.0797404, -0.0105833, -0.0115573, -0.0062234, -0.0725507, -0.0012908, -0.0113071, -0.0695354, 0.0434280, -0.0531521, -0.0304859, -0.0437601, 0.0208184, -0.0055501, -0.0547436, 0.0006438, 0.0141268, -0.0609898, -0.0320638, 0.0866063, 0.0628586, -0.0102316, 0.0822855, 0.0021596, 0.0644181, 0.0507714, -0.0328085, 0.0182644, 0.0848818, 0.0183689, -0.0040355, 0.1164368, -0.0007272, -0.0508765, 0.1176634, 0.0518423, 0.0032328, 0.0928514, 0.0080126, -0.0423042, 0.0710688, -0.0518875, -0.0436523, 0.0086344, -0.0243643, -0.0618173, 0.0243175, -0.0309185, -0.0066901, 0.0673946, 0.1222857, -0.0211013, 0.0830040, 0.0895494, -0.0164340, 0.0336625, -0.0102232, 0.0494581, -0.0414605, -0.0297315, 0.0155228, -0.0282609, -0.0119649, -0.0131014, -0.0432052, 0.0441481, -0.0838540, -0.0386142, -0.0321650, -0.0447272, -0.0547428, -0.0928680, -0.0281156, 0.0352589, -0.0184769, -0.0219022, -0.0051688, -0.1025582, -0.0495125, -0.0550783, -0.1669483, 0.0004276, 0.1034442, -0.0336422, 0.0089890, -0.0584130, -0.0561492, 0.0882892, -0.0411226, 0.0013107, -0.0002265, 0.0189169, 0.0426640, 0.0066084, -0.0378389, -0.0580325, 0.0032322, 0.0092045, -0.0375944, -0.0432235, -0.0368900, 0.0325578, 0.0311332, 0.0751887, -0.0304158, 0.1223357, 0.0702808, -0.0558821, 0.1566796, 0.0473700, -0.0182276, 0.0133334, 0.0431154, -0.0589763, -0.0765621, 0.0923926, -0.0151685, -0.0173716, -0.0612484, -0.0378880, -0.0101319, 0.0410266, -0.0477680, -0.0961501, 0.0167856, -0.0106746, -0.0376282, -0.0229504, 0.0777536, 0.0358262, -0.0357339, -0.0022980, -0.0265266, -0.0036182, -0.0446938, 0.0409799, -0.0270122, -0.1377368, -0.0104393, -0.0437733, 0.0006612, 0.0062425, -0.0757869, 0.0906990, 0.0644881, -0.0332353, -0.0482996, 0.0350867, 0.0136137, -0.0202046, -0.1395404, -0.0087452, -0.0540860, -0.0536890, 0.0639322, -0.0132701, 0.0545633, -0.0539083, 0.0238577, 0.0816814, -0.0770839, -0.0296182, 0.1431296, 0.0266519, 0.0304680, 0.0677724, 0.0117886, -0.0616907, -0.0153258, 0.0244771, -0.0727580, 0.0182571, 0.0478104, -0.0261700, -0.0409105, 0.0232020, 0.0117059, 0.0133951, -0.0003516, 0.0185214, 0.0062924, 0.0058697, 0.0297381, 0.0502174, 0.0055422, 0.0164497, -0.0529988, -0.0246101, -0.0161534, 0.0470898, -0.0956587, -0.0162358, -0.0614764, -0.0227570, -0.0091906, -0.1101623, -0.0373640, -0.0177399, -0.0236232, 0.0613439, -0.0657626, 0.0223220, -0.1234436, -0.0041231, -0.0181898, -0.0732395, -0.0088096, 0.0145487, -0.0131111, 0.0079034, 0.0648340, -0.0511385, 0.0642939, -0.0843245, -0.0307165, 0.1134921, 0.0438639, 0.0805754, -0.1128200, -0.0148355, 0.0291738, -0.0066212, -0.0277980, 0.0283992, 0.0058383, -0.0447808, -0.0426871, 0.0118630, -0.0123021, 0.0821426, 0.0493064, 0.0036973, 0.1056350, 0.0797275, 0.0490357, 0.0064318, 0.0481267, 0.0237939, -0.0624115, -0.0239156, 0.0738164, -0.0715404, -0.0034692, 0.0522825, -0.0461206, 0.0578778, 0.0280389, -0.0149699, 0.0520663, 0.0742681, 0.0172359, 0.0509410, 0.0248111, 0.0278725, -0.0534798, 0.0142530, -0.0393583, 0.0259807, 0.0661887, -0.0568888, -0.0431119, 0.0248415, 0.0096514, -0.1050142, -0.0087838, -0.0149351, -0.0394959, -0.0492425, -0.0168427, 0.0521421, 0.0031079, 0.0171463, -0.0426084, -0.0317948, -0.0177574, -0.0151021, 0.0616203, 0.0110012, -0.0179537, -0.0880914, 0.0886085, -0.1799350, -0.0118330, 0.0358534, -0.0316017, 0.0399976, 0.0740372, -0.0481338, 0.1368665, -0.0211994, 0.0429855, 0.0790219, -0.0111329, 0.0551585, 0.0889752, -0.0156618, 0.0338579, -0.0258617, 0.0183494, 0.0034734, -0.0444838, -0.0851314, 0.1238065, 0.0131946, -0.0628557, 0.0604756, 0.0399908, -0.0310906, 0.0836915, -0.0018650, 0.0154005, -0.1733273, 0.0084314, 0.0000346, -0.0545197, -0.0462351, -0.0258703, 0.0641885, -0.0056474, 0.0813187, 0.0772802, 0.0394163, 0.1071133, 0.0835115, 0.0140068, 0.0523707, -0.0043856, -0.1005898, -0.0684317, -0.0440084, 0.0969352, -0.0809091, 0.0025553, -0.0106733, 0.0069897, 0.0307688, 0.0987174, -0.0131370, 0.0829598, 0.0210946, -0.0041470, 0.0623307, 0.0167953, 0.0301716, -0.0153677, -0.0415324, -0.1131282, -0.1617715, 0.0314696, -0.1864699, -0.1503317, 0.0970675, -0.0557558, -0.0708257, 0.0143293, 0.0061448, -0.0497242, -0.0114366, 0.0108737, -0.0015395, 0.1112367, 0.0911840, 0.0998253, -0.0063962, -0.0204491, 0.1178774, 0.1376368, 0.0158345, 0.1040071, 0.0664126, 0.0295637, 0.0986369, -0.0054490, 0.1013366, 0.0249134, 0.0879309, 0.0323068, -0.0438799, 0.0846887, 0.0043032, -0.1005729, -0.0149732, -0.0221592, 0.0154377, -0.0217829, 0.0088129, -0.0233639, 0.0396962, 0.0727108, -0.0145052, -0.0125120, 0.0107649, -0.0181582, 0.0098135, 0.0498915, 0.0214834, 0.0721161, -0.0169035, 0.0255794, -0.0657984, 0.0034422, 0.1123621, 0.0210405, -0.0265832, 0.0750822, 0.0113261, -0.0420345, 0.0611169, 0.0102823, 0.0792100, -0.0360255, 0.0791258, 0.1008698, -0.0017775, -0.0244429, 0.0137936, 0.0060956, 0.0126804, -0.0080331, 0.0132321, -0.1100575, 0.0436376, 0.0413218, 0.0353015, -0.0359970, -0.0713129, -0.0673213, 0.0887338, -0.0433457, -0.0721689, 0.0990109, -0.0343965, -0.0272393, 0.0212906, 0.0158741, -0.0652651, 0.0477334, 0.0346912, -0.0173016, 0.0862899, -0.0103304, -0.0945795, -0.0058067, 0.0104998, -0.0646350, 0.0930971, -0.0966029, -0.0809265, 0.1067498, -0.0348244, -0.0672819, 0.0147396, 0.0302394, -0.0808586, 0.0629067, -0.0606820, 0.0129623, 0.0655529, 0.0260228, 0.0812812, 0.0020964, 0.0641378, 0.0385355, 0.0164122, -0.0105100, -0.0570191, -0.0032457, -0.0452028, 0.0709245, -0.0316664, -0.0344241, -0.0030325, 0.0578692, -0.0160298, -0.0166396, 0.0541729, -0.0409590, -0.0887889, -0.0452089, 0.0252721, -0.0259741, 0.0613072, 0.1268517, 0.0051578, 0.1002743, -0.0005722, 0.0312059, 0.0057003, -0.0163480, 0.0384446, -0.0174788, -0.0006414, 0.0273480, -0.0061326, -0.0149904, 0.0576259, -0.0690298, 0.0674417, -0.0217900, -0.0163718, -0.0700711, -0.0228123, 0.0151233, -0.0284054, -0.1740240, -0.0182020, 0.0776278, 0.0110151, 0.0342391, -0.0496601, 0.1413027, -0.0064075, -0.0504385, 0.0404657, 0.0578276, 0.0073469, 0.0165872, -0.0848324, -0.0723616, 0.0037186, -0.0868865, -0.1247862, 0.1346600, 0.0384152, -0.0595429, 0.0510643, 0.0497563, -0.0927575, 0.0080831, 0.1125914, -0.0285554, 0.0411734, 0.0328920, 0.0735204, 0.0072507, -0.0469891, -0.0095673, -0.0343459, 0.0001531, 0.0313349, 0.0451056, 0.0117964, 0.0159302, 0.0216723, 0.0138135, -0.1056927, -0.0095692, -0.0056421, -0.1613554, 0.0531743, 0.0790128, -0.0082760, 0.0149999, -0.0363693, 0.0739089, 0.0080916, -0.0313166, -0.0328350, 0.1444298, -0.0208874, -0.0142404, -0.0291420, 0.0414821, 0.0191544, -0.0541591, 0.0913360, 0.0173665, -0.0746722, 0.0332568, 0.0190930, 0.0057247, -0.0045819, 0.0202793, 0.0488233, -0.0864931, -0.0694959, 0.1261111, -0.0176267, 0.1015785, 0.0622236, 0.0402721, 0.0617844, -0.1116503, 0.0303970, 0.1121717, 0.1508806, -0.0034149, 0.0071211, 0.0724790, 0.0871082, 0.0071940, 0.0954223, 0.1537201, 0.0612611, 0.0782053, -0.0926573, 0.0284948, -0.0219097, 0.0011191, 0.0299388, -0.0028914, 0.0176207, 0.0516208, 0.0233253, 0.0541878, 0.0079484, 0.0300534, 0.0103379, 0.0175785, -0.0555251, -0.0472376, 0.0255144, 0.0542863, -0.0169106, -0.0371551, -0.0556464, -0.0478716, 0.0086731, -0.0549295, 0.0343336, 0.0071952, -0.1826071, -0.0143796, 0.0686487, 0.0800980, 0.0099308, 0.0249128, -0.0100349, 0.0167060, 0.0056321, -0.0235165, 0.0588175, -0.0042912, 0.0104614, 0.0227215, 0.0816422, -0.0594235, -0.0279918, -0.0621097, 0.1580512, 0.0117609, -0.0516528, -0.0506690, 0.0219703, 0.0549343, -0.0833967, 0.0489979, -0.0421544, -0.0832252, -0.0492270, 0.0302313, 0.0285890, 0.0150066, 0.0508613, -0.0885536, -0.0093794, 0.0443927, 0.0758764, -0.0224380, -0.0060375, -0.0000569, 0.0215675, -0.0161339, -0.0471235, 0.0007449, 0.0989691, -0.0414807, -0.0300538, 0.0419094, -0.0379606, 0.0198927, -0.0327467, 0.0579829, 0.0534021, 0.0053255, 0.0622277, 0.0048587, -0.0518099, 0.0267240, -0.0407254, -0.0991767, -0.1463809, -0.0577919, -0.1391374, -0.0487284, 0.0120418, -0.0060072, 0.0420544, -0.0342049, -0.0097773, -0.0824014, 0.0514258, 0.0059617, -0.1114999, -0.0364277, -0.0511270, 0.0338149, 0.0028075, -0.0197843, 0.0180226, -0.0185745, -0.0347063, 0.0440248, -0.0009418, -0.0043224, 0.0384059, -0.0009927, 0.0020580, 0.0425569, 0.0287400, 0.0015794, -0.1213091, -0.0594226, -0.0077641, 0.0622348, -0.0264825, 0.0067296, 0.0656981, -0.0816700, 0.0237895, 0.0240398, 0.0447423, 0.0273320, -0.0763235, 0.0474597, -0.0080173, 0.0343573, 0.0548854, 0.0391660, 0.0284674, 0.0422639, 0.0072670, -0.0975633, -0.0541047, 0.0296445, -0.0743977, 0.0465592, 0.0047183, -0.0443585, 0.0087768, 0.0401365, -0.0233774, 0.0235046, -0.0015256, -0.1095950, 0.0175521, -0.0445875, -0.1956942, 0.0078416, -0.0355472, -0.1977502, 0.0534138, -0.0639215, -0.0952299, 0.1115376, 0.0070926, -0.1180630, 0.0452119, -0.0261897, -0.0078855, 0.0454795, 0.0746498, -0.0456893, 0.0958168, 0.0907809, -0.0744317, 0.0629834, -0.0561567, 0.0196592, 0.0040304, 0.0026690, 0.1707733, 0.0307066, -0.1045836, -0.0761913, 0.0310279, -0.0202145, -0.0255357, -0.0079373, 0.0215906, -0.0900717, 0.0032130, -0.0050316, -0.1843503, 0.0250038, -0.0144674, -0.0663576, -0.0889300, -0.1478203, -0.0018492, -0.0454597, -0.0809776, 0.0696606, 0.0486196, -0.0053287, 0.0152620, 0.0140121, 0.0814116, 0.2003881, 0.0234130, 0.1189131, 0.0469598, -0.0127711, -0.0092459, 0.0289812, -0.0024536, -0.0512294, 0.0644909, -0.0371048, -0.0368286, -0.1187961, -0.0488262, 0.1338553, 0.0541066, -0.1292091, 0.0142798, -0.1486241, -0.1974751, 0.0764549, -0.0351411, 0.0135706, -0.0536630, 0.0698954, 0.0990268, 0.0311616, -0.0064497, 0.0261495, -0.0802735, 0.0434052, 0.0675970, 0.0575587, 0.0514820, -0.0329519, 0.0344898, 0.0377081, -0.0506596, -0.0438126, 0.0140881, -0.0043756, 0.0169657, 0.0451746, 0.0271117, 0.0617656, -0.0433771, 0.0042308, 0.0096516, -0.0493300, 0.0068433, -0.0768776, 0.0061801, -0.0180259, -0.0030350, -0.0028271, 0.0298244, -0.0413960, 0.0208633, -0.0316774, -0.0117945, 0.0417436, 0.0090689, 0.1027211, 0.1315355, -0.0002862, 0.0977729, 0.0194602, 0.0089472, 0.0093179, -0.0204533, -0.1034185, -0.1058666, -0.2713620, -0.1103052, -0.0028816, -0.3112943, 0.0067137, -0.0711942, 0.0142378, -0.0425919, 0.0158459, -0.0107591, 0.0129336, 0.0932503, -0.4372865, 0.0043269, -0.0358079, 0.0137838, 0.0749437, 0.0616211, 0.0326058, 0.1206935, 0.0940742, 0.0118083, -0.0293741, -0.0367836, 0.0398347, 0.0023668, 0.0190078, -0.1509933, 0.0942802, 0.0744626, -0.0540625, 0.0037941, 0.0049947, -0.0006871, 0.0230843, -0.0254950, -0.0511604, 0.0016924, -0.0736312, 0.1927837, -0.0232991, -0.0991934, 0.0421642, -0.0019504, -0.0060506, 0.0007106, 0.0123463, 0.0229611, 0.0125566, -0.0717972, 0.0445470, 0.0305100, 0.1522203, 0.0672778, -0.1238356, 0.0989903, 0.0085999, -0.3113286, 0.0018506, 0.0005674, 0.0691081, -0.0397278, 0.0372503, 0.0894013, -0.0998101, 0.0809022, -0.2354971, -0.0290298, 0.0373766, 0.0390791, -0.1163794, -0.1406391, 0.1473309, -0.1506674, -0.0443894, 0.1661222, -0.0056711, 0.0310867, -0.0554845, 0.0517425, -0.0021398, -0.1052414, 0.0927018, 0.0968117, -0.1873783, -0.0222993, -0.0345943, 0.0087909, 0.0052232, -0.2606798, 0.2125032, -0.0605495, -0.2131521, 0.1941817, 0.0356204, -0.0980949, 0.0022698, -0.0956331, 0.0096762, 0.0735875, -0.1133329, 0.0646617, -0.0205104, 0.0365766, 0.0912409, -0.0284021, 0.0669579, 0.1618569, 0.2268846, 0.0514717, 0.0192015, 0.2307509, -0.0138425, 0.1340889, 0.0023277, -0.0308125, 0.0983865, 0.0690612, -0.0324519, 0.1759630, 0.1558498, -0.0283404, 0.0274023, -0.0366251, -0.1037618, 0.0929825, 0.0037041, -0.1417128, 0.0618579, -0.0298196, -0.0279659, 0.0274014, -0.0159753, -0.0382657, -0.0651673, -0.1370527, -0.0474099, -0.0608041, -0.0947838, -0.0121340, 0.0004749, 0.0179299, 0.0404165, 0.0380852, 0.0995041, 0.0962195, 0.0616434, 0.1091664, -0.0204339, -0.1123550, -0.0305354, -0.0490390, 0.1397953, 0.0130145, 0.0228970, 0.1313741, 0.0675012, 0.0382911, 0.0057563, -0.0272236, 0.0803626, 0.0636012, 0.0747811, 0.0547389, 0.0570862, -0.0677114, 0.0365827, 0.0046385, 0.0295290, 0.1216402, 0.0026058, -0.0618679, 0.2180593, -0.0066469, -0.0131847, -0.0070482, -0.0258739, 0.0209743, -0.0814911, 0.0094399, -0.0322441, -0.0052788, 0.0319066, 0.2716102, 0.0442100, 0.0240661, 0.0467563, -0.1747725, -0.1347548, -0.0290631, -0.1141590, -0.1306361, -0.0969422, 0.0127595, 0.0485103, -0.0286127, -0.0052076, -0.0698172, -0.0892662, -0.0101815, -0.0242244, -0.1044985, 0.0260215, 0.0775617, 0.1162426, 0.0468685, 0.0610997, -0.0521960, 0.0855051, 0.1756453, 0.4233085, 0.0183033, -0.0134926, 0.0186436, 0.0137896, -0.1376127, 0.0490976, -0.0107800, -0.0537481, 0.1170992, -0.0384093, 0.0218669, 0.0382504, -0.0437555, -0.1994617, -0.0129218, -0.1270103, -0.1626940, -0.4909525, 0.0138620, 0.0243605, 0.0250717, -0.0835485, -0.0954581, 0.2699331, -0.0301987, -0.0818674, 0.1930062, 0.0325628, -0.0308732, -0.0511565, -0.0253476, 0.1570640, 0.2881300, -0.0774021, 0.1491721, 0.2661872, -0.0401941, -0.0179279, -0.0504108, 0.0145199, -0.0410366, 0.0222877, 0.0239379, 0.0357577, -0.0094406, -0.0573041, -0.0437447, -0.0123997, 0.1029501, -0.0652256, 0.0387805, 0.0281420, -0.1401706, -0.3208086, 0.0302427, 0.0856132, -0.0288715, -0.1246111, 0.0137024, -0.0437968, -0.1319054, 0.0495020, 0.1661087, -0.0091821, 0.0130360, -0.0153088, 0.1489252, 0.0231734, 0.2658383, 0.1143551, -0.0359950, 0.0955547, 0.0680305, 0.1141647, 0.0032894, -0.0157356, 0.0743801, 0.0780106, 0.0150337, 0.0295962, -0.3479681, -0.0025026, -0.0303541, -0.0260757, -0.0850410, -0.1279498, -0.0592923, -0.0532628, -0.1566809, -0.1747773, 0.0504890, 0.0977724, 0.0096029, -0.0520396, 0.0621030, 0.1148951, -0.0933615, 0.0794431, 0.1779211, -0.0031450, -0.0102954, -0.0504343, 0.0221015, 0.0583386, 0.1591730, -0.0466960, 0.0805608, -0.1439039, 0.0123791, 0.0265458, 0.0069091, -0.2122258, -0.0651692, -0.0831531, -0.2007870, -0.0694152, 0.1997485, 0.0147367, -0.0030114, -0.0205166, -0.0009483, 0.0958518, -0.1303764, 0.0043335, 0.0944657, -0.0969718, -0.0203973, -0.0353752, -0.0481291, -0.0727480, 0.0066096, 0.0065187, -0.0668988, 0.0395493, -0.4943925, 0.0249434, -0.0244023, -0.0153004, -0.0407423, -0.0453761, 0.0215688, -0.0155030, -0.0695956, 0.1625995, -0.0427790, 0.0443148, 0.0545598, 0.0308724, -0.2010040, 0.0515461, -0.0149912, -0.1715791, -0.2755880, -0.0131462, -0.0300415, -0.0301813, 0.1029950, 0.0067147, -0.1894017, 0.1381322, -0.0277055, -0.2798356, -0.0408551, 0.0472444, 0.0087395, -0.1794951, 0.0141486, 0.0007737, -0.1189950, 0.0191559, -0.1389232, -0.0841200, -0.0409774, 0.0754359, 0.0697127, -0.1075473, 0.0845446, 0.0932742, -0.0538936, 0.2357713, 0.0196174, 0.0342608, 0.0461704, -0.0503374, -0.2159281, -0.0673095, -0.0626590, -0.1619811, 0.0023461, -0.0355595, 0.1016924, -0.0154746, 0.0312659, -0.0660858, 0.0473543, 0.0724103, -0.0432400, -0.0830151, -0.0076368, -0.0159818, 0.0336926, -0.0075676, 0.1199897, -0.0537468, -0.1042763, 0.1181370, -0.0098848, 0.0452280, 0.0559774, -0.0024302, 0.0123908, -0.0346969, -0.2352935, -0.0045489, -0.0688531, -0.1255976, -0.0137122, -0.0071036, 0.0646731, -0.0050168, -0.0675154, -0.1888336, 0.0810021, -0.0541091, -0.3670003, -0.0009010, -0.1323055, 0.0143405, -0.1737546, -0.0369182, -0.0228210, -0.1469855, -0.0250746, 0.1632243, 0.0311815, -0.0036428, 0.0235133, 0.0003097, 0.0762427, -0.0130349, 0.0228356, 0.1275095, 0.4080325, 0.0175495, -0.0211339, -0.0447544, -0.0457317, 0.0295800, 0.1940189, 0.0267435, 0.0381221, 0.3793581, -0.0358601, 0.0479181, -0.0588809, 0.0452897, 0.1030564, -0.1863395, 0.0825204, 0.0814986, 0.0003216, -0.0109220, -0.0002750, 0.0350215, 0.1351110, -0.2106243, -0.1107160, 0.0904251, -0.1817074, 0.1779126, 0.0921232, 0.0207507, 0.0655013, -0.0842225, 0.1341269, -0.0400560, -0.0614383, 0.0582726, 0.3785521, 0.0027858, 0.0844845, 0.0182440, 0.0195388, 0.0476810, 0.2092153, -0.0633088, 0.0170268, 0.2748079, -0.0206851, -0.0012122, -0.0418180, -0.1040900, 0.0146537, -0.2317551, -0.1121439, 0.0650982, -0.1571171, -0.0585584, 0.0041210, -0.0330483, -0.0528189, 0.1079302, 0.0324505, -0.0774587, 0.0929529, 0.0014059, 0.0252158, 0.0475281, -0.0572357, 0.1099208, 0.0871529, 0.1646940, 0.0456268, 0.1305479, 0.3263029, -0.0885146, -0.0344336, 0.0021689, 0.0913502, 0.0475273, 0.1554702, 0.1093752, 0.0519123, 0.0482975, -0.0111875, -0.0495328, -0.0079127, -0.0399046, -0.1444931, -0.2592106, 0.0471224, -0.1348891, -0.1666923, -0.0179973, -0.0202498, -0.0146227, -0.1059056, -0.0152972, -0.1781269, -0.1248033, -0.0003299, -0.0316548, -0.0653931, 0.0809169, -0.0601004, -0.0566934, -0.1102340, -0.1501316, -0.1248434, -0.0927361, -0.1243203, 0.0257378, -0.0058351, -0.0392550, 0.0809384, 0.0701527, 0.0760088, 0.0458437, 0.0077715, -0.0243993, -0.0474758, -0.0086466, 0.0066281, 0.0271130, -0.0145808, -0.0222462, 0.0112525, 0.0707893, -0.0961379, -0.1244870, -0.0423752, -0.0179325, 0.0092573, 0.0580839, 0.0484217, -0.0208103, 0.0168114, -0.0108398, -0.0608601, -0.0314281, 0.0081133, -0.0436532, -0.0286444, 0.0138767, -0.0447776, -0.0342597, -0.0527191, -0.0353538, -0.1573113, 0.0157882, 0.0505843, -0.0209519, -0.1197932, 0.0718577, 0.0018911, -0.0344164, -0.0537128, -0.0514185, -0.0214857, -0.0073760, 0.0369365, -0.0310310, -0.0189582, 0.1184093, 0.0567967, 0.0153128, -0.0331724, 0.0328151, -0.0086563, -0.0284519, 0.0066899, -0.0308496, 