0.0806176587939262, -0.2580075263977051, 0.6463819742202759, -0.0264960918575525, -0.4538531899452209, 0.2864619195461273, -0.6132882833480835, -0.5323697924613953, 0.0099566048011184, 0.0565069615840912, 0.2845055162906647, -0.1819167286157608, 0.0693055540323257, -0.9209301471710205, 0.5239585638046265, 0.2218317389488220, -0.0123873613774776, -0.3497722744941711, 0.0533569008111954, 0.3327927589416504, -0.8032619357109070, -0.0665625408291817, -0.1074915453791618, 0.1205718666315079, -0.1268765777349472, 0.0635492280125618, -0.0329019986093044, -0.1585456579923630, 0.1247412562370300, 0.1733246147632599, 0.3829348087310791, -0.2628049254417419, -0.2561289072036743, 0.0268581118434668, 0.1396189033985138, 0.7450423240661621, -0.1043632775545120, 0.1109339743852615, -0.6009241938591003, -0.0595263242721558, -0.2751924395561218, -0.0319014117121696, 0.1523440033197403, -0.3382209539413452, 0.2192822545766830, 0.3822183609008789, 0.0291078276932240, 0.2868172228336334, 0.1458408832550049, 0.0711437538266182, 0.7441287636756897, -0.4550974369049072, 0.0599355250597000, -0.0696122869849205, -0.4755679070949554, 0.2691918909549713, -0.3144983351230621, 0.0990714430809021, -0.2235410064458847, -0.0477849878370762, 0.3052203357219696, 0.3780681788921356, -0.0952467396855354, 0.4945769906044006, -0.0055396235547960, -0.4050975143909454, -0.1596250087022781, 0.3743095397949219, -0.0093355933204293, 0.0505993925035000, -0.6181953549385071, 0.0304768849164248, 0.0350535474717617, -0.0940882042050362, -0.0164695139974356, -0.0663580670952797, -0.3151302933692932, 0.2097071409225464, -0.1682826429605484, 0.0161575023084879, -0.4072090685367584, 1.0962474346160889, 0.1332857757806778, -0.1223786696791649, 0.1472210437059402, 0.1268441081047058, 0.1175929754972458, -0.1782695800065994, 0.2434952259063721, 0.0684933066368103, 0.2235271930694580, -0.1648844033479691, -0.1314789056777954, -0.1587785482406616, -0.0363666415214539, 0.0915072485804558, 0.1238415464758873, 0.1781046688556671, 0.2565503418445587, -0.0233442559838295, 0.0322484076023102, 0.3835661709308624, -0.3934691250324249, 0.6630032658576965, 0.0446531809866428, -0.1076420173048973, 0.0422621034085751, 0.4111784696578979, 0.2915697693824768, -0.0879716351628304, -0.1448008716106415, -0.1237016245722771, 0.3679378926753998, -0.6090471148490906, -0.0096493689343333, -1.1773227453231812, -0.8378678560256958, 0.8135983943939209, -0.0850418731570244, -0.6271959543228149, -0.5415775179862976, 0.2505063414573669, 0.0199906211346388, 0.0226246807724237, 0.1853945404291153, 0.4901721477508545, 0.4257687628269196, -0.3987738192081451, 0.0689985975623131, 0.5072013735771179, -0.4197739660739899, 0.3773286342620850, -0.1543426960706711, -0.3029375672340393, -0.3908400535583496, 0.0348222628235817, 0.0566017106175423, 0.2115508466959000, -0.2039427906274796, -0.0473706163465977, -0.2530427575111389, -0.5247453451156616, 0.1511777192354202, 0.3470603227615356, 0.1473505645990372, 0.0574735850095749, 0.1853266954421997, -0.1125195473432541, -0.1186450049281120, -0.0827487111091614, 0.1274217516183853, 0.2865597307682037, -0.1847259253263474, 0.1451048552989960, 0.1492069661617279, -0.0619533136487007, 0.1081849783658981, 0.0972716435790062, 0.0138238724321127, -0.0552810691297054, -0.2078890949487686, 0.0179940424859524, 0.0777114406228065, -0.3112587034702301, -0.2459189593791962, -0.0333216972649097, -0.2936242222785950, 0.0591053590178490, -0.5938476324081421, 0.0429253578186035, 0.1220199540257454, 0.2987196743488312, -0.2645390033721924, 0.1991042196750641, 0.1644401252269745, -0.4465658366680145, -0.2349865436553955, 0.1856341809034348, -0.0027997931465507, -0.1717800498008728, -0.0816365331411362, -0.1921718567609787, 0.8387705087661743, -0.3100340962409973, 0.2868565917015076, -0.2474836707115173, 0.0039529902860522, -0.0135108781978488, -0.0916678979992867, -0.2203681319952011, -0.1508215814828873, -0.0262353699654341